<?xml version="1.0"?>
<opencv_storage>
<opencv_ml_ann_mlp>
  <format>3</format>
  <layer_sizes>
    3584 6 1</layer_sizes>
  <activation_function>SIGMOID_SYM</activation_function>
  <f_param1>6.6666666666666663e-001</f_param1>
  <f_param2>1.7159000000000000e+000</f_param2>
  <min_val>-9.4999999999999996e-001</min_val>
  <max_val>9.4999999999999996e-001</max_val>
  <min_val1>-9.7999999999999998e-001</min_val1>
  <max_val1>9.7999999999999998e-001</max_val1>
  <training_params>
    <train_method>BACKPROP</train_method>
    <dw_scale>1.0000000000000000e-003</dw_scale>
    <moment_scale>0.</moment_scale>
    <term_criteria>
      <epsilon>1.0000000000000000e-004</epsilon>
      <iterations>300</iterations></term_criteria></training_params>
  <input_scale>
    1.7078251276599329e-001 -1.3662601021279464e+000
    2.8911252141321647e-001 -2.0788567015902708e+000
    5.8698160163620623e-002 -8.1897909180670680e-001
    3.6813789137797776e-001 -8.7651878899518509e-001
    9.8126555838359519e-001 -7.4763090162559631e-001
    1.3277318110493075e-001 -2.5479805707279568e+000
    2.1154999322776194e-001 -8.8649520971633577e-001
    2.8577380332470410e+000 -4.0824829046386296e-001
    1.1067971810589328e+000 -6.3245553203367588e-001
    2.8577380332470410e+000 -4.0824829046386296e-001
    6.3665601572037411e-001 -7.8824078136808229e-001
    4.0001814182371614e-001 -6.0955145420756740e-001
    3.4912826763767152e-001 -9.4763386930225135e-001
    3.5021311115031990e-002 -2.8717475114326234e+000
    5.7811986000186125e-002 -6.0014347371621790e+000
    1.4031215200402281e+000 -4.6770717334674267e-001
    2.3307450537420943e-001 -6.6592715821202697e-001
    2.3478713763747794e+000 -2.2360679774997896e-001 1. 0. 1. 0. 1. 0.
    1.7119059581558146e-001 -6.6030658386009999e-001
    2.2074709911560750e-001 -2.0708180250368895e+000
    1.5920058915156972e+000 -4.5485882614734202e-001
    1.2608576749276409e-001 -8.8860445661567078e-001
    4.6223672582095249e-001 -5.9430436176979606e-001
    2.3552430471865857e-001 -2.1533650717134498e+000
    1.4463852738918870e-001 -8.5405606648854282e-001
    4.2724247764497500e-002 -4.0099758258964080e+000
    4.3449309151624316e-001 -7.8622559417224958e-001
    2.3888327147647728e-001 -9.5553308590590913e-001
    9.7072534339415106e-001 -6.9337524528153649e-001
    5.1950923079505817e-001 -3.9581655679623479e-001
    1.2594963021985410e+000 -5.9976014390406718e-001
    1.9012506668928890e+000 -4.5267873021259258e-001
    1.8157504676484457e-001 -9.1652166462254869e-001
    2.2442251153136716e-001 -2.2335383290502731e+000
    1.0716517624676405e+000 -7.6546554461974325e-001
    1.3576955603433921e-001 -1.0215042787345521e+000
    3.6578483250309929e-001 -7.4898799036348895e-001
    2.3295974687125343e-001 -2.1077310431208645e+000
    1.1196218804586749e-001 -8.7437137331058423e-001
    3.1376782147114708e-002 -2.0125964548649291e+000
    2.4880398920055760e-001 -1.1966287099645865e+000
    1.8942764204408619e-001 -1.6056247754213020e+000
    3.9503285358817025e-001 -1.2415318255628207e+000
    4.5247693426800029e-001 -8.4031430649771488e-001
    3.9322809029339761e-001 -1.0860585350960505e+000
    4.6472006676120481e-001 -8.4092202556789442e-001
    2.1972971433446695e-001 -1.1091118914025475e+000
    1.4249163976639093e-001 -1.8116794198869703e+000
    4.3845253759614466e-001 -1.0856919978571202e+000
    1.4484481015727044e-001 -1.2484243161174260e+000
    2.2748278146888495e-001 -9.3159615268210016e-001
    2.0468575155028906e-001 -2.2125555048531247e+000
    9.1363087786108854e-002 -1.2094732573589648e+000
    2.3125846013065854e-001 -8.4794768714574797e-001
    3.8915589124707800e-001 -4.1509961733021647e+000
    1.1182875974610505e-001 -6.1239558908581337e-001
    4.6472006676120486e-001 -6.8601533664749292e-001
    1.4631393300123972e+000 -3.4836650714580880e-001
    6.6317038670665573e-002 -6.6632834092906834e-001
    2.5259074277046129e-001 -8.6602540378443860e-001
    2.8577380332470410e+000 -4.0824829046386296e-001
    8.6898618303248631e-001 -6.6208471088189425e-001
    1.3335013335020003e+000 -3.1750031750047625e-001
    9.6253342187962188e-001 -6.4168894791974784e-001
    3.3515379944394436e-001 -6.5434789415246275e-001
    2.2568905807670633e-001 -8.3827364428490925e-001
    3.5335113292130634e-002 -3.5873553113725003e+000
    1.4890247043402913e-001 -1.8995700871084001e+001
    2.3478713763747794e+000 -2.2360679774997896e-001
    4.6957427527495588e+000 -2.2360679774997896e-001 1. 0. 1. 0. 1. 0.
    1. 0. 2.6328278444187025e-001 -5.3910284433335331e-001
    3.1159876649527007e-001 -4.0062698549391867e-001 1. 0.
    1.3335013335020003e+000 -3.1750031750047625e-001
    9.2989562981709994e-001 -2.6568446566202852e-001
    1.2640514574005768e+000 -1.4626881149920960e+001
    3.9212968566096734e-001 -3.3611115913797202e-001
    5.3191325556724754e-002 -6.2081875685491603e+000
    3.4645730176867340e-001 -7.0941257028823590e-001
    3.0756234261462279e-001 -6.1512468522924557e-001
    8.0178372573727319e-001 -5.3452248382484879e-001
    4.6632137126854395e-001 -3.9970403251589481e-001
    2.3478713763747794e+000 -5.5901699437494745e-001
    2.1433035249352810e+000 -3.0618621784789729e-001
    2.2406453988256791e-001 -8.3223971956382370e-001
    2.4066495746038516e-001 -6.8761416417252907e-001
    1.8278153875348273e+000 -5.2223296786709350e-001
    8.3270416500405142e-001 -5.9478868928860817e-001
    6.4931203480826161e-001 -4.9471393128248503e-001
    7.9600294575784580e-001 -9.0971765229468087e+000
    2.8357671787968342e-001 -4.4562055666807393e-001
    2.4930984125960391e-002 -2.1761187572802569e+000
    2.9027018891968237e-001 -1.1057911958845041e+000
    1.4449465273192136e-001 -9.7705908037775391e-001
    3.0406056993414859e-001 -7.8187003697352497e-001
    4.5101361856693561e-001 -8.1611988121635970e-001
    2.9716319953956732e-001 -8.6318834151969548e-001
    3.9405797814642085e-001 -7.1305729378876159e-001
    2.5755725591060752e-001 -9.9343512994091476e-001
    1.4760940874282746e-001 -1.0473239001276806e+000
    3.9158392382980578e-001 -7.6452099414390651e-001
    1.7280585490261621e-001 -7.2413882054429657e-001
    4.3693144875265155e-001 -8.7386289750530310e-001
    3.4561170980523304e-001 -4.4106637251334506e+000
    1.6416272757364705e-001 -8.5208272883464431e-001
    2.2716313337450117e-001 -5.9495106359988403e-001
    3.9131189606246336e-001 -4.8634478510620447e+000
    2.6682940895639068e-001 -5.2095265558152459e-001
    1.1129977740066781e+000 -6.8899862200413409e-001
    3.4066498437460129e+000 -3.2444284226152503e-001
    2.0456917683658046e-001 -6.3319030925608244e-001
    4.6023424683486364e-001 -6.5747749547837664e-001
    4.6957427527495588e+000 -2.2360679774997896e-001
    6.7566392469217618e-001 -6.7566392469217618e-001 1. 0.
    8.7805411050744531e-001 -4.5993310550389993e-001
    1.9772643900311124e-001 -4.8019278043612723e-001
    4.1866241698517254e-001 -8.7719744511179010e-001
    4.6115659642600997e-002 -5.3340446319941819e+000
    1.1924121723440194e-001 -1.5336691797624745e+001
    9.2989562981709994e-001 -2.6568446566202852e-001
    1.1739356881873897e+000 -2.2360679774997896e-001
    4.6957427527495588e+000 -2.2360679774997896e-001 1. 0.
    4.6957427527495588e+000 -2.2360679774997896e-001 1. 0.
    7.0471385797472552e-001 -5.0336704141051825e-001 1. 0.
    1.5652475842498530e+000 -2.2360679774997899e-001
    7.3156966500619858e-001 -3.4836650714580880e-001
    2.1433035249352810e+000 -3.0618621784789729e-001
    2.9957234475763911e-001 -3.8944404818493084e+000
    1.0606601717798212e+000 -3.5355339059327373e-001
    4.8168431797756275e-002 -5.8260865126809973e+000
    8.2116498135606375e-001 -4.6923713220346497e-001
    5.3652493682297586e-001 -3.3213448469993745e-001
    1.5077121330972501e+000 -2.8718326344709522e-001
    1.9012506668928890e+000 -4.5267873021259258e-001
    6.6675066675100014e-001 -3.4925034925052389e-001
    2.1433035249352810e+000 -3.0618621784789729e-001
    2.1065404287559963e-001 -5.3165067963841806e-001
    7.9486172230968788e-001 -4.1635614025745560e-001
    9.2989562981709994e-001 -2.6568446566202852e-001
    3.6950305511583803e-001 -4.5747997300056137e-001
    4.5695384688370683e-001 -3.9167472590032010e-001
    1.9245817162341067e-001 -2.8135551756374797e+000
    5.5455511967083848e-001 -3.9611079976488461e-001
    2.5934188552033791e-002 -2.5514301689762768e+000
    2.9920723512196373e-001 -8.5487781463418211e-001
    2.2018821404476133e-001 -9.7511923362680020e-001
    3.5048712619259059e-001 -5.6745534716895618e-001
    4.9415184560176229e-001 -4.9415184560176229e-001
    3.4283715293537814e-001 -7.9995335684921576e-001
    4.1391867719235781e-001 -4.7304991679126607e-001
    2.7052333395060230e-001 -8.2445206537326410e-001
    2.1366369348357592e-001 -8.5465477393430367e-001
    6.1658123049043867e-001 -4.9913718658749795e-001
    2.8188554318989018e-001 -6.4430981300546319e-001
    3.3696103549798206e-001 -6.5787630740082215e-001
    1.4900738939546496e-001 -2.3983094102698646e+000
    1.7066967330024438e-001 -6.9080582050098915e-001
    2.6156169565314924e-001 -6.2276594203130775e-001
    1.3059863121506110e-001 -2.0647021696857282e+000
    1.1129977740066781e+000 -4.2399915200254401e-001
    1.1739356881873897e+000 -6.1491869381244224e-001
    2.0022714374157440e+000 -3.8138503569823695e-001
    9.9437882000179456e-001 -5.2086509619141619e-001
    5.4660816661012124e-001 -7.0278192849872734e-001 1. 0.
    6.3665601572037411e-001 -6.9728992197945738e-001 1. 0.
    1.4031215200402281e+000 -4.6770717334674267e-001
    2.9545246913876017e-001 -6.3311243386877181e-001
    4.4977058372202533e-001 -7.9245293322452082e-001
    6.5060707390593775e-002 -7.6492803117798109e+000
    6.6220032268293941e-002 -8.3468774006749555e+000
    1.5652475842498530e+000 -2.2360679774997899e-001 1. 0. 1. 0. 1. 0.
    4.6957427527495588e+000 -2.2360679774997896e-001 1. 0.
    5.2369240145650719e-001 -4.4887920124843472e-001 1. 0. 1. 0.
    6.0875958743507086e-001 -4.0583972495671389e-001 1. 0.
    9.3897954943974377e-002 -1.5113099414792066e+000
    2.1433035249352810e+000 -3.0618621784789729e-001
    3.9260910384710634e-002 -4.6627004999746822e+000
    1.1355499479153379e+000 -3.2444284226152509e-001
    9.5652378921598147e-001 -3.6439001493942147e-001
    2.5466240628814965e+000 -4.8507125007266594e-001
    4.6957427527495588e+000 -2.2360679774997896e-001
    3.6578483250309929e-001 -3.8320315786038978e-001
    3.4066498437460129e+000 -3.2444284226152503e-001
    2.7358225547203341e-001 -5.8624769029721446e-001
    1.0447890497204886e+000 -4.9751859510499452e-001
    2.8577380332470410e+000 -4.0824829046386296e-001
    2.7593387389450924e-001 -5.2558833122763660e-001
    1.5077121330972501e+000 -2.8718326344709522e-001
    9.8939997960624554e-002 -1.7008256792278791e+000
    2.9065917948808989e-001 -3.3218191941495984e-001
    2.8156408411792205e-002 -2.7298308345909015e+000
    2.5647928359166650e-001 -9.0378414218015812e-001
    2.4521602148139596e-001 -8.5241759848294785e-001
    4.8903375447425340e-001 -6.0547036268240895e-001
    5.2142742524987384e-001 -4.2210791567846928e-001
    4.2583123046825172e-001 -9.5305084914323002e-001
    5.0056785935393600e-001 -5.4824098881621564e-001
    2.3814483610392009e-001 -8.8453796267170326e-001
    2.1206712578153764e-001 -6.2610294278358736e-001
    7.7938309997646571e-001 -6.6804265712268485e-001
    3.6578483250309929e-001 -7.1415133964890809e-001
    2.4248711305964282e-001 -5.8889727457341823e-001
    1.4511430196273681e-001 -2.5844166159077888e+000
    1.3711732063458718e-001 -6.7905720695224125e-001
    3.1680298753091263e-001 -6.9394940125818960e-001
    1.9980979548716724e-001 -3.1969567277946758e+000
    1.4031215200402281e+000 -4.6770717334674267e-001
    8.1991224991518175e-001 -4.2947784519366666e-001
    4.6957427527495588e+000 -2.2360679774997896e-001
    6.4931203480826161e-001 -5.8747279339795100e-001
    6.2805603478230820e-001 -7.4768575569322404e-001
    2.1433035249352810e+000 -3.0618621784789729e-001
    2.8173329605850878e-001 -5.2321897839437348e-001 1. 0.
    1.5077121330972501e+000 -7.1795815861773804e-001
    4.7975724550420151e-001 -5.7113957798119230e-001
    1.7680175401039189e-001 -6.6511136032480755e-001
    5.2098435938646472e-002 -6.0111671561590665e+000
    5.3397961239375048e-002 -6.7078010356891129e+000
    9.2268702784386825e-001 -3.0756234261462273e-001
    2.3478713763747794e+000 -2.2360679774997896e-001
    4.6957427527495588e+000 -2.2360679774997896e-001
    2.3478713763747794e+000 -2.2360679774997896e-001
    1.6398244998303635e+000 -3.9043440472151508e-001
    1.1739356881873897e+000 -2.2360679774997896e-001
    5.6489180347939683e-001 -4.3039375503192134e-001
    2.1433035249352810e+000 -3.0618621784789729e-001
    1.5077121330972501e+000 -2.8718326344709522e-001
    5.5925482335587284e-001 -3.1957418477478444e-001
    4.6957427527495588e+000 -2.2360679774997896e-001
    9.7395641322346113e-002 -1.4841240582452739e+000
    6.5370144668292485e-001 -2.8015776286411065e-001
    4.0270992251521774e-002 -4.8171777398010809e+000
    5.0314738444189822e-001 -4.7918798518276018e-001
    8.8741196746494244e-001 -2.9580398915498080e-001
    9.1390769376741365e-001 -3.9167472590032010e-001
    1.1355499479153379e+000 -3.2444284226152509e-001
    3.2820513799118145e-001 -3.1257632189636325e-001
    9.2268702784386825e-001 -3.0756234261462273e-001
    4.4731503898442021e-001 -6.1772076812134213e-001
    7.5192061774140451e-001 -3.2225169331774478e-001
    2.0022714374157440e+000 -3.8138503569823695e-001
    3.8378977211275017e-001 -4.3861688241457158e-001
    5.1511451182121504e-001 -2.9435114961212289e-001
    1.1922968538763840e-001 -1.9701286109290728e+000
    3.5721725415588013e-001 -3.0618621784789724e-001
    3.0076577928490732e-002 -3.0577854227298911e+000
    1.9523272463268593e-001 -8.5530526981938604e-001
    2.9027018891968237e-001 -7.1876427732492776e-001
    3.5445877847928331e-001 -5.5700665189601661e-001
    9.9661589554012397e-001 -5.6949479745149933e-001
    2.6622834435950848e-001 -7.2261979183295166e-001
    4.2220118419460573e-001 -4.6241082078456824e-001
    2.9704426289300229e-001 -8.9113278867900680e-001
    3.4845473858998527e-001 -7.1350255996996981e-001
    6.4623032764149690e-001 -4.6159309117249780e-001
    3.5048712619259059e-001 -6.8428438923315305e-001
    5.4294207449477017e-001 -6.4635961249377405e-001
    1.5350155399355264e-001 -2.4852632551337095e+000
    1.8212048219818960e-001 -8.0653356402055398e-001
    2.9177925754778244e-001 -6.8081826761149244e-001
    1.5176009345726674e-001 -2.5654682465395093e+000
    1.2875926129184281e+000 -4.2919753763947599e-001
    9.1738925949408989e-001 -5.6790763682967471e-001
    2.8577380332470410e+000 -4.0824829046386296e-001
    8.3270416500405142e-001 -5.9478868928860817e-001
    4.4670741130209290e-001 -6.8069700769842723e-001
    4.9251828131120434e-001 -4.2215852683817512e-001
    1.1844197885035970e-001 -6.6553111925440211e-001
    2.1433035249352810e+000 -3.0618621784789729e-001
    6.2974815109927051e-001 -6.5973615829447385e-001
    2.3987862275210076e-001 -8.6813215853141223e-001
    1.6063799075112042e-001 -9.2558080385169383e-001
    3.5618195598323091e-002 -3.7178611786440103e+000
    4.7283387949490115e-002 -5.7978439985684309e+000
    2.0312859854021093e-001 -4.8363952033383550e-001
    3.8875559363599677e-001 -4.0726776476152043e-001
    1.2875926129184281e+000 -4.2919753763947599e-001 1. 0.
    3.6859126333718595e-001 -4.2124715809964108e-001
    3.4740416688982556e-001 -3.4740416688982556e-001
    7.5192061774140451e-001 -3.2225169331774478e-001
    1.3335013335020003e+000 -3.1750031750047625e-001
    1.1224972160321822e+000 -3.7416573867739406e-001
    7.5192061774140451e-001 -3.2225169331774478e-001
    4.6957427527495588e+000 -2.2360679774997896e-001
    6.7706717423011231e-001 -8.2860125608161361e+000
    2.6734786036937769e-001 -4.7104146826985593e-001
    3.2797449936019331e-002 -3.7498417760182101e+000
    2.5277366027055115e-001 -6.7406309405480302e-001
    3.4711929257632534e-001 -4.4629623331241836e-001
    2.9562807240486633e-001 -5.0679098126548505e-001
    7.9486172230968788e-001 -3.7850558205223228e-001
    3.7134712423711391e-001 -6.3659507012076666e-001
    4.3580096445528321e-001 -3.7354368381881414e-001
    5.3652493682297575e-001 -5.1097613030759592e-001
    5.6285908078984226e-001 -4.0204220056417306e-001
    4.9251828131120434e-001 -4.2215852683817512e-001
    3.7298353749582863e-001 -5.1507250416090622e-001
    5.5925482335587284e-001 -3.1957418477478444e-001
    2.1822967274134564e-001 -3.0656073075569981e+000
    1.8476582887214552e-001 -4.4871701297521049e-001
    2.7386640215156716e-002 -2.5300039055906680e+000
    2.8280423832461110e-001 -1.3736205861481110e+000
    2.5814036115301753e-001 -8.8505266681034578e-001
    2.7242877088699907e-001 -7.1350392375166427e-001
    4.2866070498705622e-001 -5.5113519212621520e-001
    2.8213983782274099e-001 -1.0613831994284066e+000
    2.6344847532324350e-001 -5.6453244712123607e-001
    3.4238119163116293e-001 -8.8040877848013332e-001
    2.9382845425945059e-001 -9.3745268739919951e-001
    3.2303869590728362e-001 -5.8454621164175136e-001
    3.2465601740413080e-001 -8.0391013833403824e-001
    3.2629787648844599e-001 -5.9044377650290225e-001
    2.0762587603385785e-001 -3.2330314982415009e+000
    1.3843379095944042e-001 -8.4378691632420821e-001
    2.4755614856554670e-001 -1.1552620266392180e+000
    1.6260027343415903e-001 -2.9732621427960506e+000
    1.2594963021985410e+000 -5.9976014390406718e-001
    6.4019629889217700e-001 -9.4505167931702327e-001
    1.5077121330972501e+000 -7.8975397447951201e-001
    3.5680452466605700e-001 -5.7768351612599700e-001
    4.9830794777006199e-001 -9.2542904585868657e-001
    7.5095846684475909e-001 -8.9399817481518939e-001
    8.7727227557486631e-002 -1.4621204592914439e+000
    1.8278153875348273e+000 -5.2223296786709350e-001
    6.0172166781431535e-001 -1.2034433356286307e+000
    6.6117550856972490e-002 -1.4703283928669597e+000
    2.9645171440169121e-001 -1.7645935381053048e+000
    4.3761207647218414e-002 -2.9215815772095342e+000
    4.8657803539802133e-002 -5.2921153945194321e+000
    2.0705991659628242e-001 -1.0845995631233842e+000
    3.4617474853278823e-001 -1.2033693639473115e+000
    7.3424778133881885e-001 -4.5453434082879263e-001
    4.6957427527495588e+000 -2.2360679774997896e-001
    3.9405797814642085e-001 -9.7576261255304209e-001
    2.5039065298350688e-001 -6.5578504352823230e-001
    1.2594963021985410e+000 -6.5973615829447385e-001
    5.1887452166277082e-001 -5.1887452166277082e-001
    1.5920058915156972e+000 -4.5485882614734202e-001
    4.2955654860784376e-001 -8.1820294972922614e-001 1. 0.
    4.7702639294546839e-001 -4.9065571845819607e+000
    1.3537966450553954e-001 -9.1542439808507692e-001
    3.3438557804052922e-002 -2.9935470796009280e+000
    2.2710998958306752e-001 -1.4924370744030151e+000
    2.3000667602761984e-001 -1.3690873573072611e+000
    4.1618851852694450e-001 -1.0305620458762434e+000
    8.7959320741256053e-001 -5.0262468995003451e-001
    3.1277162108561218e-001 -1.0425720702853740e+000
    2.5892403132613190e-001 -8.2609095708813518e-001
    2.7160723812755561e-001 -9.0535746042518539e-001
    3.3337533337550007e-001 -9.8425098425147650e-001
    6.0723067856455226e-001 -1.1855456105307924e+000
    2.7339671305973012e-001 -9.2434126796384941e-001
    1.1129977740066781e+000 -6.8899862200413409e-001
    3.7778095055460614e-001 -4.3174965777669279e+000
    1.1623695372713749e-001 -1.0129220253364837e+000
    3.9910685520962448e-002 -1.9252154491778553e+000
    2.9770018798996495e-001 -2.0697251165016612e+000
    1.9018743345058231e-001 -1.9290439678559061e+000
    3.3549579320582468e-001 -1.6295509955711482e+000
    4.1717280492773107e-001 -9.7340321149803921e-001
    3.8875559363599665e-001 -2.3510457329415035e+000
    2.1915463012654526e-001 -1.0540294115610034e+000
    4.9718941000089728e-001 -1.9650819538130704e+000
    2.4346292027408825e-001 -2.1216054481027689e+000
    3.2637668288410993e-001 -1.7717591356565969e+000
    1.4574901223155509e-001 -1.4366688348539003e+000
    5.4513283823372338e-001 -1.8171094607790781e+000
    2.3367978242292234e-001 -3.0712199975584076e+000
    1.0363580429468915e-001 -1.6779130219140146e+000
    2.8142954039492124e-001 -1.8091899025387794e+000
    1.6659322904835500e-001 -2.7210227411231314e+000
    5.7367628294356066e-001 -1.0927167294163060e+000
    4.8051020005408940e-001 -1.2584790953797580e+000
    7.5385606654862503e-001 -7.8975397447951201e-001
    1.2510198834595432e-001 -7.6252640515629300e-001
    1.9111453099020778e-001 -1.1375864939893321e+000
    7.9486172230968788e-001 -9.4626395513058081e-001
    7.2976519569399489e-002 -1.6402341541312646e+000
    1.1739356881873897e+000 -6.1491869381244224e-001
    4.8588205405188495e-001 -1.4345089214865177e+000
    9.2172665481703442e-002 -1.3738116331320560e+000
    4.7458384544084714e-001 -1.9887323047045025e+000
    4.3272394763996150e-002 -2.4830112233626362e+000
    4.7178028790071609e-002 -4.4841593078563307e+000
    2.3316068563427192e-001 -1.4655814525582807e+000
    2.6204998798046258e-001 -1.0731570936342754e+000
    1.3846989941311529e+000 -8.5719461541452324e-001
    4.6957427527495588e+000 -2.2360679774997896e-001
    4.9830794777006199e-001 -9.2542904585868657e-001
    2.8699882011838707e-001 -1.0386623966189246e+000
    1.0447890497204886e+000 -4.9751859510499452e-001
    2.7106366072187793e-001 -1.1100702296229286e+000
    1.3669835652986506e+000 -6.5094455490411929e-001
    1.4953533138736985e-001 -9.6129855891880622e-001
    2.8577380332470410e+000 -4.0824829046386296e-001
    4.9663295833242205e-001 -5.1791722797524011e+000
    1.2675928044485243e-001 -1.3158820541418015e+000
    3.7367731168638368e-002 -2.7830062641785909e+000
    3.0024519824281282e-001 -1.9158503125969961e+000
    2.2388619523219597e-001 -1.3539784187851851e+000
    4.8588205405188495e-001 -1.4345089214865177e+000
    6.0723067856455226e-001 -6.3614642516286435e-001
    4.7531266672322225e-001 -1.2448665080846297e+000
    2.1669069014591147e-001 -9.6994880351027035e-001
    3.1132471299766257e-001 -1.4528486606557587e+000
    2.5605948238481485e-001 -1.7192565245837570e+000
    5.8288375073603738e-001 -1.1102547633067379e+000
    1.4813732009556382e-001 -1.1780444026647219e+000
    1.1525247298917487e+000 -1.0427604699020583e+000
    4.4311292579257111e-001 -4.5999341820371669e+000
    1.1020016635489822e-001 -1.4850784323064856e+000
    4.7414815864436306e-002 -1.6301665263868101e+000
    3.4039635640455157e-001 -1.9775407372073948e+000
    1.7921899025379320e-001 -1.9287377046360603e+000
    4.0045428748314871e-001 -2.0213406892006551e+000
    4.0221324596674818e-001 -1.2449457613256492e+000
    3.8598767659924893e-001 -1.7828954585774830e+000
    1.6926679355752977e-001 -1.2896517604383220e+000
    3.1111964674662895e-001 -2.2963592974155946e+000
    1.9379753854958892e-001 -2.2425143746452432e+000
    2.9400117600705605e-001 -1.5820063280379684e+000
    1.4996174932999132e-001 -1.6852844210418070e+000
    3.5711393752200382e-001 -1.9046076667840204e+000
    3.5117253259759207e-001 -3.9632328678871107e+000
    9.6539735537440483e-002 -1.9767660133856859e+000
    2.2942942501931449e-001 -4.6978406075383439e-001
    1.5566235649883124e+000 -5.1887452166277082e-001
    7.9902798754159537e-002 -5.7453917199419480e-001
    3.2990171739351487e-001 -6.4409382919686231e-001
    1.5566235649883124e+000 -5.1887452166277082e-001
    9.2071617398540889e-002 -2.5604678362260898e+000
    2.7233712117174369e-001 -9.3372727258883548e-001
    4.6957427527495588e+000 -2.2360679774997896e-001
    9.9661589554012397e-001 -5.6949479745149933e-001
    2.8577380332470410e+000 -4.0824829046386296e-001
    9.1738925949408989e-001 -5.6790763682967471e-001
    2.1170043261819685e-001 -4.5364378418185036e-001
    4.4311292579257072e-001 -1.0550307756965969e+000
    3.6598586903556253e-002 -3.4768657558378440e+000
    5.2631744247293860e-002 -6.1027760591505018e+000
    2.8577380332470410e+000 -4.0824829046386296e-001
    1.9023424881952539e-001 -7.0658435275823717e-001
    2.8577380332470410e+000 -4.0824829046386296e-001 1. 0. 1. 0. 1. 0.
    6.5306893424967905e-001 -5.2867485153545446e-001
    1.8814606145194207e-001 -2.2935900824617699e+000
    2.0022714374157440e+000 -3.8138503569823695e-001
    9.9498134540274494e-002 -9.1443523648918934e-001
    1.3074028933658497e+000 -3.7354368381881420e-001
    7.1360904933211400e-001 -3.3981383301529239e-001
    3.7950430042768829e-001 -3.4336103372028942e-001
    4.0459348661876907e-002 -4.3426367563747874e+000
    5.7367628294356066e-001 -6.2831211941437604e-001
    2.1731632890005456e-001 -7.9682653930019998e-001
    8.7959320741256053e-001 -5.0262468995003451e-001
    4.6957427527495588e+000 -2.2360679774997896e-001
    1.5920058915156972e+000 -4.5485882614734202e-001
    2.5466240628814965e+000 -4.8507125007266594e-001
    2.4431821758843003e-001 -7.0968625109020145e-001
    1.9265244304395987e-001 -2.3576989458236990e+000
    5.3340053340080007e-001 -5.8420058420087628e-001
    9.3406241719520819e-002 -1.0230207426423710e+000
    8.1991224991518175e-001 -4.2947784519366666e-001
    5.6736038830621416e-001 -4.5929174291455432e-001
    1.5569657928840575e-001 -3.5587789551635596e-001
    2.8230039724590903e-002 -2.1750573463994325e+000
    2.8699882011838701e-001 -1.1616618909553760e+000
    1.2888044650576530e-001 -1.3256274497735860e+000
    5.3340053340080007e-001 -9.3980093980140966e-001
    4.1866241698517254e-001 -5.1834394483878510e-001
    3.7088351965656069e-001 -9.8902271908416184e-001
    4.9333303502168657e-001 -6.3428533074216853e-001
    2.6204998798046258e-001 -1.1105928062029129e+000
    1.2915314782345597e-001 -1.9864984165226800e+000
    4.4670741130209290e-001 -8.0832769664188242e-001
    9.4719601483300289e-002 -1.1997816187884702e+000
    3.3371190623595737e-001 -9.5346258924559246e-001
    1.9178282129043370e-001 -5.0228834147494539e-001
    1.0654820602901216e-001 -6.4943668436731217e-001
    9.9661589554012397e-001 -5.6949479745149933e-001
    9.1390769376741365e-001 -3.9167472590032010e-001
    2.4975235258904444e-001 -5.8275548937443700e-001
    1.0447890497204886e+000 -5.4727045461549406e-001
    2.0022714374157440e+000 -3.8138503569823695e-001
    5.0979584163516826e-002 -7.5012816697746187e-001
    1.7379723660649726e-001 -5.5449594536358660e-001
    3.4066498437460129e+000 -3.2444284226152503e-001
    1.1067971810589328e+000 -6.3245553203367588e-001 1. 0.
    2.1433035249352810e+000 -3.0618621784789729e-001
    1.0474629747086911e-001 -4.1898518988347644e-001
    4.6336057072272219e-001 -8.8259156328137556e-001
    3.1960397701023699e-002 -3.6860992015180662e+000
    2.8295822920911823e-001 -4.0382181568558444e+001 1. 0. 1. 0. 1. 0.
    1. 0. 1. 0. 1. 0. 1.5652475842498530e+000 -2.2360679774997899e-001
    2.8388748697883448e-001 -3.2444284226152509e-001 1. 0. 1. 0. 1. 0.
    1. 0. 1. 0. 4.9602578159314063e-002 -6.5191959866527052e+000
    3.4645730176867340e-001 -4.7844103577578706e-001
    1.6198959332938309e-001 -5.3225152093940153e-001
    2.1433035249352810e+000 -3.0618621784789729e-001
    4.6957427527495588e+000 -2.2360679774997896e-001
    2.3478713763747794e+000 -2.2360679774997896e-001 1. 0.
    4.0948822738269164e-001 -6.2398206077362528e-001
    1.3488168632891084e-001 -6.3587080697915110e-001
    8.7959320741256053e-001 -3.7696851746252591e-001
    4.5101361856693561e-001 -3.6510626264942408e-001
    4.6957427527495588e+000 -2.2360679774997896e-001
    4.6957427527495588e+000 -2.2360679774997896e-001
    4.6957427527495588e+000 -2.2360679774997896e-001
    2.6253117742858927e-002 -2.6940699398029042e+000
    2.9032566339489879e-001 -1.0368773692674957e+000
    1.3233483643755159e-001 -1.1342985980361564e+000
    3.0310889132455349e-001 -5.6291651245988505e-001
    1.1739356881873897e+000 -5.5901699437494745e-001
    4.1866241698517254e-001 -9.3700636182395758e-001
    1.0447890497204886e+000 -4.9751859510499452e-001
    2.1446443467898757e-001 -8.2721996233323780e-001
    1.4086664802925439e-001 -1.3684188665698998e+000
    3.1235616158708307e-001 -5.6521591144329320e-001
    1.2774044022768452e-001 -5.0487888280465787e-001
    3.4292856398964500e-001 -7.3484692283495356e-001
    3.8289560268197320e-001 -5.8345996599157823e-001
    6.1658123049043867e-001 -7.3402527439337939e-001
    1.6398244998303635e+000 -3.9043440472151508e-001
    9.1738925949408989e-001 -5.6790763682967471e-001
    4.6957427527495588e+000 -2.2360679774997896e-001
    1.2733120314407482e+000 -4.8507125007266594e-001 1. 0.
    3.9131189606246325e-001 -2.2360679774997899e-001
    1.5566235649883124e+000 -5.1887452166277082e-001
    4.6957427527495588e+000 -2.2360679774997896e-001
    1.8574617879078395e-001 -4.3340775051182923e-001 1. 0. 1. 0.
    4.4954998716420121e-002 -4.3028355914287830e-001
    4.0671409379135381e-001 -5.6165279618805997e-001
    3.0374679663111234e-002 -3.9024231300511483e+000
    2.0935201159411193e-001 -2.9847615367274816e+001 1. 0. 1. 0. 1. 0.
    1. 0. 1. 0. 1. 0. 4.2220118419460573e-001 -3.2167709271969958e-001
    1. 0. 1. 0. 1.1739356881873897e+000 -2.2360679774997896e-001
    1.1739356881873897e+000 -2.2360679774997896e-001
    9.3914855054991175e-001 -2.2360679774997896e-001
    4.6957427527495588e+000 -2.2360679774997896e-001
    4.4300051338866900e-002 -6.0543403496451429e+000
    3.2488905202014223e-001 -3.4035995925919665e-001
    2.3391160766090932e-001 -2.5618890362861502e-001
    1.3335013335020003e+000 -3.1750031750047625e-001
    2.1433035249352810e+000 -3.0618621784789729e-001
    1.5077121330972501e+000 -2.8718326344709522e-001
    4.6957427527495588e+000 -2.2360679774997896e-001
    7.5192061774140451e-001 -3.2225169331774478e-001
    2.0389310481241207e-001 -3.2040345041950469e-001
    5.2239452486024429e-001 -3.2338708681824646e-001
    2.0389310481241207e-001 -2.9127586401773153e-001
    9.2989562981709994e-001 -2.6568446566202852e-001
    1.3335013335020003e+000 -3.1750031750047625e-001 1. 0.
    2.5712135451511325e-002 -3.1589194983285345e+000
    3.4845473858998527e-001 -5.6416481485997616e-001
    1.3263010936981068e-001 -5.1788899849164172e-001
    4.5544681006842624e-001 -3.6869503672205933e-001
    9.2989562981709994e-001 -2.6568446566202852e-001
    4.4670741130209290e-001 -5.3179453726439629e-001
    5.9587957153112403e-001 -3.4050261230349943e-001
    4.9802760572381144e-001 -6.6403680763174855e-001
    1.2510198834595432e-001 -4.7062176568239955e-001
    3.2582623392466281e-001 -4.0340390866863018e-001
    1.4151765952135892e-001 -4.4476978706712800e-001
    8.3270416500405142e-001 -5.9478868928860817e-001
    3.9117609460216590e-001 -5.9607785844139560e-001
    4.2741588803198544e-001 -4.4776902555731812e-001
    6.3375022229762967e-001 -4.5267873021259264e-001
    9.9545073424044367e-002 -4.4558270961238911e-001
    8.4887468762716534e-001 -4.8507125007266588e-001
    8.7805411050744531e-001 -4.5993310550389993e-001
    4.6957427527495588e+000 -2.2360679774997896e-001
    4.7028022547350873e-001 -6.4943459708246443e-001
    2.8514085946162343e-001 -4.8881290193421156e-001 1. 0.
    2.6605735632365551e-001 -4.4342892720609256e-001 1. 0.
    1.2875926129184281e+000 -4.2919753763947599e-001
    2.0645863786118668e-001 -4.8173682167610227e-001
    3.7053695345130738e-001 -5.9991697225449769e-001
    4.3887171295259021e-002 -5.6447261746902200e+000
    7.8262379212501532e-001 -1.1247421926825221e+002
    1.5652475842498530e+000 -2.2360679774997899e-001 1. 0. 1. 0. 1. 0.
    4.6957427527495588e+000 -2.2360679774997896e-001 1. 0. 1. 0. 1. 0.
    1. 0. 1. 0. 1. 0. 2.3478713763747794e+000 -2.2360679774997896e-001
    1. 0. 1.3367934679956195e-001 -1.8906079047366617e+001
    5.8696784409369485e-001 -3.6336104634371585e-001
    1.5652475842498530e+000 -2.2360679774997899e-001
    4.6957427527495588e+000 -2.2360679774997896e-001
    4.6957427527495588e+000 -2.2360679774997896e-001
    5.8605285079524494e-001 -2.5116550748367639e-001 1. 0.
    7.1443450831176025e-001 -3.0618621784789724e-001 1. 0. 1. 0.
    2.1433035249352810e+000 -3.0618621784789729e-001
    4.6957427527495588e+000 -2.2360679774997896e-001
    5.6986162183571998e-001 -3.7990774789047999e-001 1. 0.
    3.3937956255384108e-002 -4.1113409863665318e+000
    2.6403086647367158e-001 -6.6636361538593303e-001
    1.8672753593276439e-001 -6.9355941917883923e-001
    4.7313620451229960e-001 -4.2807561360636631e-001
    2.0022714374157440e+000 -3.8138503569823695e-001
    3.5680452466605700e-001 -5.7768351612599700e-001
    5.6285908078984226e-001 -4.0204220056417306e-001
    2.9539400421899537e-001 -6.8925267651098920e-001
    2.6734786036937769e-001 -7.7658188012057328e-001
    5.7367628294356066e-001 -4.3708669176652237e-001
    3.3396500593577366e-001 -4.2938357906028046e-001
    4.4690967864834297e-001 -6.3844239806906145e-001
    1.6749159714595779e-001 -5.2640216245872451e-001
    4.6134351392193412e-001 -6.1512468522924546e-001
    4.4935851713645852e-001 -4.4935851713645852e-001
    1.7847956525959971e-001 -5.0144258811030396e-001
    9.6253342187962188e-001 -6.4168894791974784e-001
    1.1776215235932930e+000 -5.0469493868283977e-001
    2.5466240628814965e+000 -4.8507125007266594e-001
    2.7052333395060230e-001 -5.2816460437974733e-001
    4.7098936921706946e-001 -7.8498228202844911e-001 1. 0.
    3.9843104825801762e-001 -6.8302465415660163e-001 1. 0.
    2.1213203435596424e+000 -7.0710678118654746e-001
    2.3594016331794454e-001 -5.8423278535871981e-001
    4.1488690933913974e-001 -8.2977381867827948e-001
    5.3820329114735298e-002 -6.9300080917259166e+000
    4.6957427528913476e+000 -6.7596334961859736e+002 1. 0. 1. 0. 1. 0.
    1. 0. 1. 0. 1. 0. 1. 0. 1. 0. 1. 0. 1. 0. 1. 0.
    4.6957427527495588e+000 -2.2360679774997896e-001 1. 0.
    1.6735325786361815e-001 -2.3780101022144599e+001
    1.0526348849458795e+000 -4.0100376569366836e-001
    3.4066498437460129e+000 -3.2444284226152503e-001
    4.6957427527495588e+000 -2.2360679774997896e-001 1. 0.
    9.2989562981709994e-001 -2.6568446566202852e-001 1. 0.
    1.1224972160321822e+000 -3.7416573867739406e-001
    2.3478713763747794e+000 -2.2360679774997896e-001 1. 0.
    1.7033249218730064e+000 -3.2444284226152503e-001 1. 0.
    4.6957427527495588e-001 -2.2360679774997896e-001 1. 0.
    3.5055157892614194e-002 -4.1732330824540709e+000
    2.1313482214406726e-001 -7.9164362510653552e-001
    1.7994125326214291e-001 -7.4547090637173496e-001
    5.8198769524737792e-001 -5.8198769524737792e-001
    2.1433035249352810e+000 -3.0618621784789729e-001
    3.1139315857681149e-001 -6.6727105409316745e-001
    1.1965860528261985e+000 -3.9886201760873280e-001
    3.4366249434011353e-001 -9.4916307960602786e-001
    1.7463655204796999e-001 -7.2349428705587571e-001
    7.3245911173591349e-001 -4.1854806384909338e-001
    4.5825756949558405e-001 -4.5825756949558405e-001
    5.1143507535065724e-001 -6.5755938259370217e-001
    2.9144187536801869e-001 -7.2166559614937964e-001
    4.6817186017109530e-001 -5.7964135068802281e-001
    3.7440353071835131e-001 -4.1006100983438482e-001
    1.5806013019945156e-001 -6.5482053939772800e-001 1. 0.
    1.4631393300123972e+000 -3.4836650714580880e-001
    1.5077121330972501e+000 -2.8718326344709522e-001
    3.4066498437460129e+000 -3.2444284226152503e-001
    8.4749102788482478e-001 -4.4392387174919395e-001
    3.4066498437460129e+000 -3.2444284226152503e-001
    1.4412665179260814e-001 -5.2160121601134379e-001 1. 0.
    1.0473848029130144e+000 -4.4887920124843472e-001
    2.1071766215813198e-001 -9.2314404374038783e-001
    2.7065811266889517e-001 -7.2175496711705378e-001
    4.4825565433223066e-002 -5.6715013026701753e+000
    2.0760558322475167e-001 -2.9519536738528977e+001
    6.1658123049043867e-001 -3.2297112073308692e-001
    2.1433035249352810e+000 -3.0618621784789729e-001
    2.3478713763747794e+000 -2.2360679774997896e-001 1. 0.
    2.1433035249352810e+000 -3.0618621784789729e-001
    3.4066498437460129e+000 -3.2444284226152503e-001 1. 0. 1. 0. 1. 0.
    2.1433035249352810e+000 -3.0618621784789729e-001 1. 0.
    3.6121098098073529e-001 -2.2360679774997899e-001
    4.6957427527495588e+000 -2.2360679774997896e-001
    1.0923877353715167e-001 -1.5303831987919057e+001
    3.5225777127356950e-001 -4.1935448961139227e-001
    8.4887468762716534e-001 -3.6380343755449940e-001
    9.2268702784386825e-001 -3.0756234261462273e-001
    4.6957427527495588e+000 -2.2360679774997896e-001
    9.5257934441568026e-001 -4.0824829046386296e-001
    1.1739356881873897e+000 -2.2360679774997896e-001
    2.5466240628814965e+000 -4.8507125007266594e-001
    2.1433035249352810e+000 -3.0618621784789729e-001
    2.3478713763747794e+000 -2.2360679774997896e-001
    2.8577380332470410e+000 -4.0824829046386296e-001
    4.6957427527495588e+000 -2.2360679774997896e-001
    6.1711345435344500e-001 -3.5263625963053996e-001
    3.4066498437460129e+000 -3.2444284226152503e-001
    3.2909216529399599e-002 -3.8597809672338674e+000
    1.8901285331105261e-001 -8.0105447355636583e-001
    2.1021031552592043e-001 -9.5095142737916383e-001
    5.1052747024263090e-001 -5.8345996599157812e-001
    1.1355499479153379e+000 -3.2444284226152509e-001
    3.9158392382980578e-001 -7.6452099414390651e-001
    7.1860520637061265e-001 -4.7907013758040840e-001
    2.3170848918219250e-001 -5.9582182932563788e-001
    2.6760822192470440e-001 -9.4300040106800598e-001
    6.1711345435344500e-001 -3.5263625963053996e-001
    5.0664961268604991e-001 -5.5490195675138809e-001
    4.9143819606095440e-001 -5.1484001492099984e-001
    2.4063335546990552e-001 -8.0211118489968514e-001
    3.4174589132466265e-001 -6.0212371328631042e-001
    2.8878429517144838e-001 -6.0507185654970141e-001
    1.6587450041430882e-001 -6.3190285872117646e-001
    7.5095846684475909e-001 -6.0791875887432878e-001
    3.9714647409792270e-001 -6.2408731643959281e-001
    1.1776215235932930e+000 -5.0469493868283977e-001
    3.9700450931265491e-001 -5.8605427565201440e-001
    3.2258102574228947e-001 -6.7588405393622564e-001
    9.5652378921598147e-001 -5.9213377427656000e-001
    1.1923352896480247e-001 -1.0220016768411639e+000
    1.8278153875348273e+000 -5.2223296786709350e-001
    5.0314738444189822e-001 -8.1461957481069236e-001
    5.9230882162867857e-002 -1.4864130904681601e+000
    3.3195617564480651e-001 -1.6123585674176315e+000
    3.1688737706336963e-002 -2.8731122187078846e+000
    5.5479891334398283e-002 -7.4422311375714267e+000
    2.7942930509148345e-001 -5.7216476756827561e-001
    3.0996520993903337e-001 -5.7564967560106195e-001
    1.5077121330972501e+000 -2.8718326344709522e-001 1. 0.
    9.1218170980244562e-001 -4.7780946703937632e-001
    5.6124860801609111e-001 -3.7416573867739406e-001
    9.5062533344644451e-001 -4.9794660323385193e-001
    3.9503285358817020e-001 -4.5146611838648021e-001
    2.0022714374157440e+000 -3.8138503569823695e-001
    3.9405797814642085e-001 -4.6911664065050102e-001
    4.6957427527495588e+000 -2.2360679774997896e-001
    2.0022714374157440e+000 -3.8138503569823695e-001
    2.6184620072825365e-001 -3.3665940093632613e-001
    3.3017806790200631e-002 -3.7656022505966913e+000
    2.1278441529444098e-001 -1.0841872588811992e+000
    1.5701400869557705e-001 -1.1140517759829038e+000
    4.7193990372426947e-001 -6.0677987621691798e-001
    8.0178372573727319e-001 -5.3452248382484879e-001
    3.2708851946119843e-001 -5.6072317621919732e-001
    3.8378977211275017e-001 -4.3861688241457158e-001
    3.3696103549798201e-001 -6.8996783459110600e-001
    2.0372033841662690e-001 -8.1488135366650760e-001
    7.3156966500619858e-001 -5.9222306214787501e-001
    2.3765633336161113e-001 -7.6955384136140748e-001
    1.8278153875348273e+000 -5.2223296786709350e-001
    5.9684144394336480e-001 -3.6947327482208298e-001
    1.9558804730108295e-001 -3.8186237806401907e-001
    2.8354673093435371e-002 -2.1806093831380058e+000
    2.4595492912420730e-001 -1.3703203194062978e+000
    1.3284223283101429e-001 -1.8597912596342001e+000
    2.6503830110248255e-001 -1.0727740758910007e+000
    4.9063277919179760e-001 -7.4763090162559631e-001
    3.8875559363599665e-001 -1.1847789520335135e+000
    2.4451687723712670e-001 -6.1711402350322453e-001
    2.8603877677367767e-001 -1.0488088481701514e+000
    1.7135008665615137e-001 -1.8032556738575929e+000
    2.8430343956378823e-001 -9.2060161382560002e-001
    1.4744195615489714e-001 -1.1795356492391771e+000
    3.2637668288410987e-001 -8.3925432741628259e-001
    3.3262175260507432e-001 -1.0295435199680871e+000
    1.4446046009727431e-001 -7.6357671765702140e-001
    2.6378079772003665e-001 -1.2937820078649418e+000
    1.2934899773173511e-001 -7.0218027340084777e-001
    4.1042563012190469e-001 -5.4723417349587289e-001
    4.0855721846150539e-001 -1.1867614441024681e+000
    6.7357531405456350e-001 -8.6602540378443882e-001
    2.1699124819614724e-001 -8.6796499278458894e-001
    3.1256368425082620e-001 -1.1311828572887044e+000
    8.4887468762716556e-001 -1.2126781251816652e+000
    7.5564015915868379e-002 -2.0222369973675254e+000
    1.5077121330972501e+000 -7.1795815861773804e-001
    3.9322809029339756e-001 -1.6103626554872470e+000
    5.9214397019864223e-002 -1.6833807152789970e+000
    3.9212968566096734e-001 -2.4087966404887995e+000
    4.5159515096155615e-002 -2.4020561124955155e+000
    3.9448464122062273e-002 -3.7532395864704959e+000
    2.3365085270663416e-001 -1.3240214986709269e+000
    2.1917850187980231e-001 -1.8473616587011910e+000
    1.0606601717798212e+000 -7.0710678118654746e-001
    2.1433035249352810e+000 -3.0618621784789729e-001
    5.5339859052946638e-001 -1.0277402395547233e+000
    3.1752644813856018e-001 -8.6185750209037770e-001
    9.5062533344644451e-001 -7.6955384136140748e-001
    2.2992394477045242e-001 -1.2591073166000966e+000
    9.9661589554012397e-001 -5.6949479745149933e-001
    1.1711939117196371e-001 -1.3329302138142538e+000
    2.8577380332470410e+000 -4.0824829046386296e-001
    1.3034681147667526e-001 -3.9104043443002579e-001
    1.5773876057481157e-001 -1.2619100845984925e+000
    3.3657995570809562e-002 -2.3368265496304925e+000
    2.9469512152636257e-001 -2.2873954670855761e+000
    2.4494897427831780e-001 -2.2045407685048604e+000
    3.9843104825801762e-001 -1.4798867506726370e+000
    1.1850985607645106e+000 -7.3363244237803038e-001
    4.8903375447425340e-001 -1.5136759067060226e+000
    2.5074738582287548e-001 -1.0029895432915019e+000
    3.3071891388307384e-001 -1.3228756555322954e+000
    1.8269851284015820e-001 -1.7225859782072059e+000
    4.7122646430846016e-001 -1.4809974592551605e+000
    1.2986737330415798e-001 -1.6140659253516778e+000
    7.8811595629284170e-001 -8.6317461879692192e-001
    1.2472191289246472e-001 -4.9888765156985887e-001
    1.0947304223131420e-001 -1.3449545188418601e+000
    4.9178035290289884e-002 -1.4050867225797110e+000
    3.2357511446471671e-001 -2.6348259320698357e+000
    2.4471602227671019e-001 -3.0997362821716621e+000
    3.3421868239159602e-001 -2.3395307767411722e+000
    4.2016810086724704e-001 -1.2805123074049434e+000
    2.7824944350166941e-001 -1.8947462105113679e+000
    2.4880398920055766e-001 -1.5402151712415475e+000
    2.7737429019239479e-001 -1.9284117318137923e+000
    2.3879059125127192e-001 -3.1725035694811843e+000
    2.7493883135584130e-001 -1.8591101929775935e+000
    1.5024549934593737e-001 -2.0605097053157122e+000
    3.5972407265945416e-001 -1.9013986697714005e+000
    2.0212874889140503e-001 -1.2127724933484303e+000
    8.6492288850130189e-002 -1.6927776532096910e+000
    6.1341654972883530e-001 -4.6736499026958878e-001
    2.3478713763747794e+000 -2.2360679774997896e-001
    1.2758945790088561e-001 -5.1035783160354242e-001
    2.8911252141321636e-001 -5.2315599112867728e-001
    3.4066498437460129e+000 -3.2444284226152503e-001
    7.3818382463461035e-002 -2.2954001785066693e+000
    2.7451566744840111e-001 -7.3204177986240293e-001
    2.1433035249352810e+000 -3.0618621784789729e-001
    7.5095846684475909e-001 -3.9335919691868337e-001
    2.3478713763747794e+000 -2.2360679774997896e-001
    9.1738925949408989e-001 -5.6790763682967471e-001
    1.5197453933282964e-001 -6.3684568863280999e-001
    4.8903375447425340e-001 -1.0246421522317690e+000
    4.0273658213990947e-002 -3.8586000155499898e+000
    5.5023240061854502e-002 -6.4219981615050177e+000
    8.8741196746494244e-001 -2.9580398915498080e-001
    1.6839382851364085e-001 -6.4951905283832900e-001 1. 0. 1. 0. 1. 0.
    1. 0. 4.5869462974704495e-001 -4.1500942691399306e-001
    1.6819926596627452e-001 -2.0664481247285158e+000
    3.4066498437460129e+000 -3.2444284226152503e-001
    9.3757474586418102e-002 -8.3935262963079060e-001
    1.7033249218730064e+000 -3.2444284226152503e-001
    2.1433035249352810e+000 -3.0618621784789729e-001
    5.5885861018296690e-001 -2.9273546247679222e-001
    4.6759585425118856e-002 -5.1502343375380910e+000
    6.6275412325269323e-001 -7.2587356356247357e-001
    1.9412847721029769e-001 -8.1349076164315226e-001
    1.1850985607645106e+000 -4.5146611838648021e-001
    3.4066498437460129e+000 -3.2444284226152503e-001
    2.1433035249352810e+000 -3.0618621784789729e-001
    4.6957427527495588e+000 -2.2360679774997896e-001
    2.7829830634224317e-001 -4.3732590996638210e-001
    1.7380914174995790e-001 -2.1601993331780482e+000
    7.4526211303705991e-001 -5.6781875279014082e-001
    8.8073736401338129e-002 -1.0149449623392299e+000
    1.1850985607645106e+000 -4.5146611838648021e-001
    1.2875926129184281e+000 -4.2919753763947599e-001
    3.4561170980523248e-001 -3.1269630887140082e-001
    3.3526995995040450e-002 -2.6390535418953265e+000
    3.8598767659924904e-001 -1.1395826642454019e+000
    1.2740148069692461e-001 -1.5591514542433154e+000
    3.7596030887070225e-001 -8.0562923329436198e-001
    1.1776215235932930e+000 -5.0469493868283977e-001
    4.7531266672322225e-001 -9.7325926995707401e-001
    7.8262379212492639e-001 -5.5901699437494745e-001
    3.1194235328671094e-001 -9.0611826430901743e-001
    1.1162950871847409e-001 -2.0624880658460927e+000
    3.6689969285267143e-001 -7.3379938570534287e-001
    8.2236041045663039e-002 -1.1669685824575040e+000
    5.0518148554092257e-001 -8.6602540378443860e-001
    3.6380343755449945e-001 -6.0633906259083248e-001
    2.1110059209730286e-001 -8.0419273179924899e-001
    4.6540431753683303e-001 -6.4270120040800749e-001
    2.6291112006397055e-001 -5.5086139441974780e-001
    4.6957427527495588e-001 -7.1554175279993271e-001
    5.5186774778901848e-001 -5.2558833122763660e-001
    2.8577380332470410e+000 -4.0824829046386296e-001
    5.5350238195744222e-002 -8.7769663424680122e-001
    4.5760431532242940e-001 -1.0459527207369814e+000 1. 0.
    3.9743086115484394e-001 -5.4883309397573687e-001
    4.6957427527495588e+000 -2.2360679774997896e-001
    2.2135943621178655e+000 -6.3245553203367588e-001
    1.5169672807101500e-001 -4.7676114536604713e-001
    3.3320742838707285e-001 -1.1900265299538317e+000
    3.8018656651276551e-002 -4.2327437738421230e+000
    2.8493081091782924e-001 -4.0650129024276971e+001
    2.1433035249352810e+000 -3.0618621784789729e-001 1. 0.
    4.6957427527495588e+000 -2.2360679774997896e-001 1. 0. 1. 0. 1. 0.
    1. 0. 2.8388748697883448e-001 -3.2444284226152509e-001 1. 0. 1. 0.
    1. 0. 1. 0. 1. 0. 5.3753640073535912e-002 -7.0826820039749459e+000
    3.0769437195859395e-001 -5.4212817916514167e-001
    1.7433540239805037e-001 -5.3130789302262971e-001
    1.5077121330972501e+000 -2.8718326344709522e-001 1. 0.
    2.1433035249352810e+000 -3.0618621784789729e-001 1. 0.
    4.3731023638231109e-001 -5.4143172123524230e-001
    1.9279853330275937e-001 -6.9774707290522442e-001
    8.4749102788482478e-001 -4.0356715613563082e-001
    2.8587970431159831e-001 -4.6285285459973063e-001 1. 0.
    2.3478713763747794e+000 -2.2360679774997896e-001
    4.6957427527495588e+000 -2.2360679774997896e-001
    3.1759834067356232e-002 -3.0625554279236367e+000
    2.8878429517144838e-001 -1.4714247420640465e+000
    1.4964159477012329e-001 -1.2327617092967298e+000
    4.0045428748314876e-001 -8.1997782675120934e-001
    9.1218170980244562e-001 -4.3437224276306929e-001
    4.1440194493102572e-001 -1.1248052790984984e+000
    9.0202723713387123e-001 -6.8725884734009235e-001
    3.3670106809230460e-001 -1.5231714985128064e+000
    1.5301181046942156e-001 -1.3698200175357740e+000
    3.9843104825801762e-001 -6.8302465415660163e-001
    1.6030067308612822e-001 -7.1753634619505013e-001
    5.4550055013943766e-001 -1.0130724502589556e+000
    2.7756805500135046e-001 -1.0706196407194946e+000
    4.6632137126854384e-001 -1.3323467750529825e+000
    3.6611822297106356e-001 -6.1019703828510596e-001
    6.4220483781920384e-002 -5.7186811748662436e-001
    2.0022714374157440e+000 -3.8138503569823695e-001
    6.0927179584494251e-001 -5.2223296786709350e-001
    2.3478713763747794e+000 -2.2360679774997896e-001
    1.3074028933658497e+000 -3.7354368381881420e-001
    5.8288375073603738e-001 -6.3839648890137435e-001
    2.1433035249352810e+000 -3.0618621784789729e-001
    4.4252223955914410e-001 -6.5324711553968895e-001 1. 0.
    1.8278153875348273e+000 -5.2223296786709350e-001
    2.6035280752019146e-001 -5.4550112051849642e-001
    4.7531266672322225e-001 -7.6955384136140748e-001
    3.8466571047554354e-002 -4.8193118298150246e+000
    8.5166246093660025e-001 -1.2231495153260887e+002
    4.6957427527495588e+000 -2.2360679774997896e-001 1. 0. 1. 0. 1. 0.
    4.6957427527495588e+000 -2.2360679774997896e-001 1. 0.
    1.1525247298917487e+000 -2.7441064997422587e-001 1. 0. 1. 0. 1. 0.
    1. 0. 4.6957427527495588e+000 -2.2360679774997896e-001 1. 0.
    5.7336828718380618e-002 -7.8687971603034734e+000
    1.0716517624676405e+000 -3.0618621784789729e-001
    5.5925482335587284e-001 -3.1957418477478444e-001
    1.0716517624676405e+000 -3.0618621784789729e-001 1. 0.
    4.8126671093981094e-001 -3.2084447395987392e-001
    3.4066498437460129e+000 -3.2444284226152503e-001
    5.2631744247293977e-001 -4.7619197176123124e-001
    8.5166246093650322e-001 -3.2444284226152503e-001
    1.7033249218730064e+000 -3.2444284226152503e-001
    5.1295856718333299e-001 -3.9082557499682513e-001
    4.6957427527495588e+000 -2.2360679774997896e-001
    1.3821773184594791e-001 -3.4883522799215422e-001
    4.6957427527495588e+000 -2.2360679774997896e-001
    3.5390566594433882e-002 -4.1356404963209883e+000
    3.5659869567594527e-001 -8.6602540378443849e-001
    3.2144530683437922e-001 -7.0411829116102120e-001
    4.8151967637695797e-001 -4.1273115118024967e-001
    1.1224972160321822e+000 -3.7416573867739406e-001
    4.5163901330030731e-001 -7.3122506915287855e-001
    6.6275412325269323e-001 -5.0495552247824238e-001
    2.8625128703833569e-001 -9.4053994312596012e-001
    3.9714647409792270e-001 -6.2408731643959281e-001
    5.6860687912757646e-001 -3.5199473469802356e-001
    4.4134791929465850e-001 -7.7761300066201733e-001
    5.0430671174947783e-001 -5.7635052771368889e-001
    9.4912891214734590e-002 -8.1353906755486793e-001
    4.9415184560176229e-001 -9.8830369120352457e-001
    4.1667978981958614e-001 -5.7541494784609515e-001
    5.8929277062415283e-002 -5.5842505406764964e-001
    1.2875926129184281e+000 -4.2919753763947599e-001
    7.1944814531890822e-001 -6.1666983884477844e-001 1. 0.
    1.7445567519772939e-001 -5.2336702559318815e-001
    7.4339194167502809e-001 -7.4339194167502809e-001 1. 0.
    3.5752774291867440e-001 -6.1290470214629889e-001 1. 0.
    2.8577380332470410e+000 -4.0824829046386296e-001
    1.6593662957576616e-001 -6.0843430844447588e-001
    3.2419144857458015e-001 -9.4169896966901856e-001
    3.4310061490282789e-002 -4.1008692543147527e+000
    4.4370598373268055e-001 -6.3597857668350883e+001
    2.1433035249352810e+000 -3.0618621784789729e-001 1. 0.
    2.3478713763747794e+000 -2.2360679774997896e-001 1. 0.
    2.1433035249352810e+000 -3.0618621784789729e-001 1. 0. 1. 0. 1. 0.
    1. 0. 4.6957427527495588e+000 -2.2360679774997896e-001 1. 0.
    1.3335013335020003e+000 -3.1750031750047625e-001 1. 0.
    6.9700927640171426e-002 -9.6286852897208242e+000
    4.7826189460799079e-001 -4.3271314274056311e-001
    2.1433035249352810e+000 -3.0618621784789729e-001
    4.6957427527495588e+000 -2.2360679774997896e-001 1. 0.
    5.8559695585981841e-001 -3.0674126259323825e-001 1. 0.
    6.5753550563940699e-001 -5.6360186197663453e-001
    1.5077121330972501e+000 -2.8718326344709522e-001
    4.6957427527495588e+000 -2.2360679774997896e-001
    6.9922351612262823e-001 -4.3285265283781749e-001 1. 0.
    1.3113223875605881e-001 -3.3095279305100556e-001 1. 0.
    2.6494209875549402e-002 -2.7982932144746941e+000
    2.2504018933674994e-001 -1.0501875502381663e+000
    1.4292660901386534e-001 -8.5755965408319201e-001
    6.3665601572037411e-001 -5.7602210946129084e-001
    2.1433035249352810e+000 -3.0618621784789729e-001
    3.5588108940904140e-001 -1.0337498311405489e+000
    6.4623032764149690e-001 -4.6159309117249780e-001
    2.6734786036937769e-001 -7.3838932863923357e-001
    1.6306038530556416e-001 -7.9977236602252899e-001
    5.6164992991793738e-001 -4.8141422564394631e-001
    2.4571909803047720e-001 -6.7865274694131794e-001
    4.5673763970487352e-001 -7.6122939950812252e-001
    1.3444423405204772e-001 -1.0627496596495201e+000
    3.2144530683437922e-001 -7.0411829116102120e-001
    3.4283715293537809e-001 -5.7139525489229681e-001
    8.8509164333992654e-002 -4.7204887644796079e-001
    1.7033249218730064e+000 -8.1110710565381250e-001
    7.6579120536394640e-001 -6.9285870961499918e-001
    4.6957427527495588e+000 -2.2360679774997896e-001
    3.3696103549798206e-001 -6.5787630740082215e-001
    5.5885861018296690e-001 -8.5159407265975906e-001
    4.6957427527495588e+000 -2.2360679774997896e-001
    5.8065132678979758e-001 -7.4655170587259689e-001 1. 0.
    1.3846989941311529e+000 -5.2750437871662970e-001
    2.4025510002704470e-001 -1.0182239953527132e+000
    4.6067699272544960e-001 -9.4329098510449194e-001
    5.0643741329036533e-002 -6.2846471382604383e+000
    3.4366249434012491e-001 -4.9176466452003588e+001
    1.5077121330972501e+000 -2.8718326344709522e-001 1. 0. 1. 0. 1. 0.
    2.3478713763747794e+000 -2.2360679774997896e-001 1. 0.
    3.4066498437460129e+000 -3.2444284226152503e-001
    4.6957427527495588e+000 -2.2360679774997896e-001 1. 0.
    2.3478713763747794e+000 -2.2360679774997896e-001 1. 0.
    8.2368776758037288e-001 -3.1378581622109442e-001 1. 0.
    8.8865059400882268e-002 -1.2394559951675436e+001
    6.4379630645921404e-001 -4.2919753763947599e-001
    4.6957427527495588e+000 -2.2360679774997896e-001
    1.1525247298917487e+000 -2.7441064997422587e-001 1. 0.
    8.4887468762716534e-001 -3.6380343755449940e-001 1. 0.
    6.3145401829047687e-001 -4.2096934552698456e-001 1. 0.
    4.6957427527495588e+000 -2.2360679774997896e-001
    8.2368776758037288e-001 -3.1378581622109442e-001
    4.6957427527495588e+000 -2.2360679774997896e-001
    1.9871543057742197e-001 -3.7850558205223228e-001
    2.3478713763747794e+000 -2.2360679774997896e-001
    3.8670295472727843e-002 -4.1984892227533086e+000
    3.3906268395332895e-001 -1.2432298411622060e+000
    2.2135943621178650e-001 -1.5178932768808215e+000
    7.0471385797472552e-001 -5.0336704141051825e-001
    9.1390769376741365e-001 -3.9167472590032010e-001
    3.9915010866659539e-001 -8.9333595749190398e-001
    9.5652378921598147e-001 -3.6439001493942147e-001
    2.8097574347450821e-001 -1.1239029738980328e+000
    1.9813084190632596e-001 -1.1793502494424164e+000
    9.1218170980244562e-001 -4.7780946703937632e-001
    4.3505216499414689e-001 -7.0437017189528550e-001
    5.5301468580720958e-001 -9.2169114301201605e-001
    1.3314627495899337e-001 -6.8475227121768023e-001
    4.3338138029182294e-001 -9.6994880351027035e-001
    4.5760431532242940e-001 -5.8834840541455213e-001
    1.0246218919316094e-001 -5.8549822396091966e-001 1. 0.
    1.7748239349298849e+000 -5.9160797830996159e-001
    4.6957427527495588e+000 -2.2360679774997896e-001
    7.3695552666077624e-001 -4.9130368444051747e-001
    1.2640514574005766e+000 -7.2231511851461516e-001
    4.6957427527495588e+000 -2.2360679774997896e-001
    5.0314738444189822e-001 -8.1461957481069236e-001 1. 0.
    9.5257934441568026e-001 -4.0824829046386296e-001
    4.2426406871192851e-001 -7.0710678118654757e-001
    4.4252223955914410e-001 -1.0957693550988330e+000
    5.8835302358827689e-002 -7.5981590474828895e+000
    1.7786393974522202e-001 -2.5214330886739329e+001
    5.6004978441579822e-001 -3.4669748559073227e-001 1. 0.
    2.1433035249352810e+000 -3.0618621784789729e-001 1. 0.
    1.0606601717798212e+000 -3.5355339059327373e-001 1. 0.
    1.1525247298917487e+000 -2.7441064997422587e-001
    4.6957427527495588e+000 -2.2360679774997896e-001 1. 0.
    4.6957427527495588e+000 -2.2360679774997896e-001 1. 0.
    4.2322885594014759e-001 -3.4261383576107185e-001 1. 0.
    9.7370511286322986e-002 -1.3594778051976142e+001
    8.8741196746494244e-001 -5.9160797830996159e-001
    4.6957427527495588e+000 -2.2360679774997896e-001
    1.5077121330972501e+000 -2.8718326344709522e-001
    1.7033249218730064e+000 -3.2444284226152503e-001
    9.5652378921598147e-001 -3.6439001493942147e-001
    2.8577380332470410e+000 -4.0824829046386296e-001
    9.5062533344644451e-001 -4.5267873021259258e-001
    1.5077121330972501e+000 -2.8718326344709522e-001
    4.6957427527495588e+000 -2.2360679774997896e-001
    1.0606601717798212e+000 -3.5355339059327373e-001
    3.4066498437460129e+000 -3.2444284226152503e-001
    2.3350636512080092e-001 -3.6693857376125860e-001
    4.6957427527495588e+000 -2.2360679774997896e-001
    4.5696466530403317e-002 -5.3312544285470542e+000
    3.6779895815463082e-001 -1.2960534715925085e+000
    3.4174589132466265e-001 -9.4386960461097302e-001
    4.1866241698517254e-001 -3.7878980584372751e-001
    9.1738925949408989e-001 -3.4948162266441518e-001
    4.2495844572108527e-001 -9.7133359021962340e-001
    1.9012506668928890e+000 -4.5267873021259258e-001
    2.5686271822583101e-001 -8.4397750274201611e-001
    4.5695384688370688e-001 -8.4862857278402715e-001
    2.1433035249352810e+000 -3.0618621784789729e-001
    5.6986162183571998e-001 -7.5981549578095997e-001
    4.4370598373247122e-001 -5.9160797830996159e-001
    1.8539839347312642e-001 -1.4125591883666775e+000
    5.1667122287037903e-001 -8.6111870478396513e-001
    2.4451687723712670e-001 -6.0547036268240895e-001
    1.3955413899505748e-001 -7.3764330611673234e-001
    1.1739356881873897e+000 -6.1491869381244224e-001
    5.1950923079505817e-001 -9.1532578759129291e-001
    1.0296097094754662e+000 -7.8446454055273607e-001
    3.6380343755449945e-001 -6.0633906259083248e-001
    4.4134791929465839e-001 -8.4066270341839688e-001
    9.9437882000179456e-001 -8.0497333047764319e-001
    1.6949820557696496e-001 -1.3640569877384323e+000
    2.1433035249352810e+000 -3.0618621784789729e-001
    4.2220118419460573e-001 -7.4387827691430530e-001
    6.7774384684764072e-002 -1.5071732213230866e+000
    2.7854300726557785e-001 -1.2998673672393635e+000
    3.1161042980757000e-002 -2.8653320950400842e+000
    5.1913129844669025e-002 -6.9192785921537423e+000
    2.7756805500135040e-001 -5.9478868928860795e-001
    2.9110566082574951e-001 -5.5448697300142757e-001
    1.4631393300123972e+000 -3.4836650714580880e-001 1. 0.
    6.4623032764149690e-001 -4.6159309117249780e-001
    1.4631393300123972e+000 -3.4836650714580880e-001
    7.9486172230968788e-001 -3.7850558205223228e-001
    3.8100038100057154e-001 -5.0800050800076202e-001
    1.1224972160321822e+000 -3.7416573867739406e-001
    3.1840117830313941e-001 -5.0034470876207615e-001
    2.1433035249352810e+000 -3.0618621784789729e-001
    4.4390419950457960e-001 -3.8048931386106821e-001
    3.8481939105773988e-001 -2.9319572652018278e-001
    3.4612114152902232e-002 -4.0084124580884870e+000
    3.0141815609011741e-001 -1.0764934146075622e+000
    1.5086456047374550e-001 -9.5547554966705472e-001
    3.7192908216230264e-001 -8.3241270769658215e-001
    8.8741196746494244e-001 -2.9580398915498080e-001
    6.2033600083076068e-001 -5.3171657214065193e-001
    5.8288375073603738e-001 -5.2737101257070051e-001
    3.7547923342237954e-001 -7.6883843034106281e-001
    2.6035280752019146e-001 -8.4304718625585806e-001
    5.0518148554092257e-001 -8.6602540378443860e-001
    2.0760558322473621e-001 -8.6996625351318035e-001
    1.5920058915156972e+000 -4.5485882614734202e-001
    6.5306893424967905e-001 -5.2867485153545446e-001
    2.1122870008447425e-001 -3.5204783347412377e-001
    2.8766529501672477e-002 -2.1725578947453594e+000
    2.3478713763747799e-001 -1.4981655449248596e+000
    2.5031948894825301e-001 -2.8965540864012134e+000
    2.7339671305973007e-001 -1.1066057433370027e+000
    3.9447489730180590e-001 -7.7016527568447812e-001
    3.1537077862545448e-001 -1.4416949880020775e+000
    3.6847776333038812e-001 -9.8260736888103495e-001
    3.2326826269871650e-001 -1.4931914991321666e+000
    2.4245478790945468e-001 -2.1359112268213867e+000
    2.3552430471865859e-001 -9.7574354812015718e-001
    1.8429563166859300e-001 -1.2374135269176958e+000
    4.1733753259651124e-001 -1.1923929502757464e+000
    2.2067395964732925e-001 -1.2189609199566758e+000
    2.1252274139102673e-001 -9.8165266261569484e-001
    2.5651754980353059e-001 -1.1726516562447111e+000
    1.3962198102884910e-001 -6.7151524209113134e-001
    5.4077751275583497e-001 -6.6953406341198618e-001
    4.1618851852694450e-001 -1.4665690652854235e+000
    7.7197535319849808e-001 -1.1395826642454019e+000
    1.0761733421948153e-001 -4.8171568650625063e-001
    3.2326826269871656e-001 -9.8519851489132659e-001
    8.0650014127469705e-001 -1.0369287530674678e+000
    1.1128102375217601e-001 -1.7910945727731187e+000
    1.5155444566227676e+000 -8.6602540378443860e-001
    5.2336702559318815e-001 -1.7445567519772940e+000
    5.0512887069043985e-002 -1.9050574551753732e+000
    5.1950923079505840e-001 -2.5480690843757627e+000
    4.8253808952860029e-002 -2.7481693098866948e+000
    4.0571549124063924e-002 -3.9798757712176993e+000
    3.3862159792822333e-001 -8.7074125181543149e-001
    2.0598136816978385e-001 -1.8440236769485412e+000
    1.2640514574005766e+000 -5.4173633888596140e-001 1. 0.
    7.2199487238115534e-001 -5.1571062312939664e-001
    6.1341654972883530e-001 -6.7183717351253391e-001
    6.1658123049043867e-001 -7.3402527439337939e-001
    1.9250668437592433e-001 -1.2192090010475207e+000
    1.5155444566227676e+000 -6.4951905283832889e-001
    1.1007595615142686e-001 -1.4781628397477322e+000
    1.7379723660649726e+000 -6.6208471088189425e-001
    1.5459575755799937e-001 -3.6072343430199855e-001
    1.1403279961942035e-001 -9.1769253027057329e-001
    3.3366303997509693e-002 -2.5247170024782335e+000
    2.5647928359166661e-001 -1.5877288984246030e+000
    1.7919288976719827e-001 -1.9711217874391811e+000
    5.1698426211319737e-001 -1.1078234188139944e+000
    1.5077121330972501e+000 -7.1795815861773804e-001
    5.3340053340080007e-001 -1.0160010160015238e+000
    3.6250025687385579e-001 -6.3869092877774591e-001
    3.0534353162371031e-001 -1.3667758082204176e+000
    1.6722586384018401e-001 -1.4970696381883140e+000
    5.7367628294356077e-001 -1.2839421570641598e+000
    1.0497113690548097e-001 -1.5845643047160700e+000
    1.3669835652986506e+000 -7.1603901039453133e-001
    1.6634217795148007e-001 -4.3565808511101922e-001
    1.0069886855980612e-001 -1.1028923699407336e+000
    4.9355916524944837e-002 -1.5629373566232532e+000
    4.0995612495759104e-001 -2.8501711544670614e+000
    1.4843306269399492e-001 -1.9932439847479317e+000
    3.5048712619259054e-001 -2.1196126203075711e+000
    4.6134351392193407e-001 -1.2302493704584907e+000
    4.6067699272544943e-001 -2.5885659591239536e+000
    3.7274843911917932e-001 -1.3312444254256406e+000
    3.2197381386133234e-001 -2.2998129561523739e+000
    1.8153433639175381e-001 -2.2648569587923570e+000
    3.0849013459427499e-001 -1.9537708524304083e+000
    1.0383323975527049e-001 -1.8937205155365999e+000
    4.9143819606095440e-001 -2.4337891614447265e+000
    1.8570259856601234e-001 -1.1230585722801698e+000
    7.7697882761541756e-002 -1.4651600749319302e+000
    4.0964401518645693e-001 -5.8520573598065273e-001
    2.5466240628814965e+000 -4.8507125007266594e-001
    1.7586928159335796e-001 -7.1185185406835361e-001
    3.4102414629235628e-001 -7.3076602776933486e-001
    1.4031215200402281e+000 -4.6770717334674267e-001
    7.5652224112445030e-002 -2.2551567759233615e+000
    3.0444375921024902e-001 -9.5682324323221124e-001 1. 0.
    1.0011357187078720e+000 -6.1975068300963509e-001
    4.6957427527495588e+000 -2.2360679774997896e-001
    9.0202723713387123e-001 -6.8725884734009235e-001
    1.0162850297061150e-001 -6.5816554304776975e-001
    3.8835652876403731e-001 -9.6164473789190197e-001
    4.8813718897186026e-002 -4.5164312293920208e+000
    5.7260046286495260e-002 -6.7921321571266517e+000
    2.3478713763747794e+000 -2.2360679774997896e-001
    1.5875415058882864e-001 -6.0477771652887091e-001
    3.4066498437460129e+000 -3.2444284226152503e-001 1. 0.
    4.6957427527495588e+000 -2.2360679774997896e-001 1. 0.
    9.3914855054991175e-001 -2.2360679774997896e-001
    1.6024465980397340e-001 -1.9076745214758739e+000
    1.6398244998303635e+000 -3.9043440472151508e-001
    1.0880098812469920e-001 -8.7040790499759357e-001
    7.8262379212492650e-001 -2.2360679774997899e-001
    1.1739356881873897e+000 -2.2360679774997896e-001
    5.2142742524987384e-001 -2.4829877392851135e-001
    5.6571518671245220e-002 -6.4060510190581494e+000
    9.3914855054991175e-001 -7.1554175279993271e-001
    1.7584461722445560e-001 -8.0386110731179694e-001
    2.1433035249352810e+000 -3.0618621784789729e-001 1. 0. 1. 0. 1. 0.
    5.1573550603323159e-001 -7.1220617499827221e-001
    1.5974316847682243e-001 -2.0158066498265685e+000
    7.8262379212492639e-001 -5.5901699437494745e-001
    9.4912891214734590e-002 -8.9489297431035475e-001
    9.2268702784386825e-001 -3.0756234261462273e-001
    7.8262379212492650e-001 -2.2360679774997899e-001
    5.2142742524987373e-001 -2.7312865132136244e-001
    3.4898553878205001e-002 -2.4196330688888801e+000
    3.1601286435014414e-001 -1.3543408472149034e+000
    1.1899974877857333e-001 -1.6603298281962851e+000
    4.0354778206264608e-001 -9.6082805253010972e-001
    1.7748239349298849e+000 -5.9160797830996159e-001
    5.0401612877418533e-001 -1.1760376338064324e+000
    9.9437882000179456e-001 -5.2086509619141619e-001
    2.8388748697883448e-001 -1.1761053031980286e+000
    1.0372678828906030e-001 -2.0646570240393909e+000
    3.1037118943187658e-001 -9.3111356829562975e-001
    9.4998314387267149e-002 -1.3887848817567150e+000
    3.9036424434356343e-001 -1.2082702801110297e+000
    5.5110707513555190e-001 -7.8729582162221701e-001
    2.1538744758532147e-001 -1.0051414220648336e+000
    1.9012506668928890e+000 -4.5267873021259258e-001
    1.6398244998303635e+000 -3.9043440472151508e-001
    3.0172912094749105e-001 -8.0461098919330942e-001
    9.1390769376741365e-001 -3.9167472590032010e-001
    3.4066498437460129e+000 -3.2444284226152503e-001
    7.0712281589932174e-002 -1.2189450445502594e+000
    2.6734786036937769e-001 -8.2750528209569285e-001 1. 0.
    1.8278153875348273e+000 -5.2223296786709350e-001
    4.6957427527495588e+000 -2.2360679774997896e-001
    2.5466240628814965e+000 -4.8507125007266594e-001
    3.2653446712483952e-001 -6.6861819458895710e-001
    3.9405797814642085e-001 -1.2572325969433429e+000
    4.7829166472522673e-002 -5.4639128746467573e+000
    1.9183082500099974e-001 -2.7303920758475630e+001
    2.3478713763747794e+000 -2.2360679774997896e-001 1. 0. 1. 0. 1. 0.
    1. 0. 1. 0. 4.6957427527495588e+000 -2.2360679774997896e-001
    3.2084447395987398e-001 -3.2084447395987398e-001
    4.6957427527495588e+000 -2.2360679774997896e-001
    5.2174919474995085e-001 -2.2360679774997894e-001 1. 0. 1. 0.
    4.6957427527495588e+000 -2.2360679774997896e-001
    6.6319684262028375e-002 -8.9626316159826924e+000
    5.8696784409369485e-001 -5.5901699437494745e-001
    2.9878295644284786e-001 -4.5528831457957764e-001
    2.8577380332470410e+000 -4.0824829046386296e-001 1. 0.
    4.6957427527495588e+000 -2.2360679774997896e-001 1. 0.
    5.0932481257629925e-001 -5.3357837507993255e-001
    1.7210802251266122e-001 -5.0812844741833318e-001
    2.0022714374157440e+000 -3.8138503569823695e-001
    2.6328278444187025e-001 -3.6358098803877320e-001 1. 0.
    4.6957427527495588e-001 -2.4596747752497691e-001
    2.3478713763747794e+000 -2.2360679774997896e-001
    3.2123087325357430e-002 -3.1037021039595345e+000
    2.7737429019239468e-001 -1.2812050546982039e+000
    1.1783999693712208e-001 -1.2625713957548792e+000
    5.4294207449477017e-001 -8.0148591949227976e-001
    1.5315824107278928e+000 -5.8345996599157823e-001
    4.0625719708042185e-001 -1.0253157831077313e+000
    9.1390769376741365e-001 -5.2223296786709350e-001
    2.7038875637791748e-001 -1.2103115761678211e+000
    1.1590717266027931e-001 -1.2253043966943813e+000
    6.1818204987993697e-001 -8.5367997364372250e-001
    1.2008433371692490e-001 -5.1464714450110671e-001
    4.1105415366029247e-001 -1.1157184170779368e+000
    3.2844590472217361e-001 -7.6637377768507176e-001
    8.0178372573727308e-001 -1.0690449676496974e+000
    1.2640514574005766e+000 -7.2231511851461516e-001
    2.8813118247293718e-001 -4.6649810495618399e-001
    1.0526348849458795e+000 -4.0100376569366836e-001
    1.5566235649883124e+000 -5.1887452166277082e-001 1. 0.
    4.0995612495759087e-001 -6.6373848802657576e-001
    5.0606082734747382e-001 -5.0606082734747382e-001 1. 0.
    5.5649888700333905e-001 -4.2399915200254401e-001 1. 0.
    3.4066498437460129e+000 -3.2444284226152503e-001
    3.9036424434356332e-001 -7.4355094160678725e-001
    3.2637668288410981e-001 -7.9262908700426660e-001
    8.0703596248845280e-002 -1.0756636471453234e+001 1. -144. 1. 0. 1.
    0. 1. 0. 1. 0. 1. 0. 1. 0. 1. 0. 1. 0. 1. 0. 1. 0. 1. 0. 1. 0. 1. 0.
    3.4066498437194332e+000 -4.9023313465333939e+002
    4.6957427527495588e+000 -2.2360679774997896e-001
    4.6957427527495588e+000 -2.2360679774997896e-001 1. 0. 1. 0. 1. 0.
    1. 0. 1. 0. 1. 0. 1. 0. 1. 0. 1. 0. 1. 0. 1. 0.
    4.3283974777202111e-002 -5.1775878400157955e+000
    2.4494897427831785e-001 -9.7979589711327142e-001
    2.2239973469391691e-001 -8.5782754810510808e-001
    8.2116498135606375e-001 -4.6923713220346497e-001 1. 0.
    3.6163920991710263e-001 -7.7494116410807701e-001
    4.6957427527495588e+000 -2.2360679774997896e-001
    3.3421868239159591e-001 -1.0026560471747876e+000
    2.5605948238481485e-001 -9.5107807742931239e-001
    2.8577380332470410e+000 -4.0824829046386296e-001
    6.2471232317416614e-001 -5.6521591144329320e-001
    9.7700842091839435e-001 -9.7700842091839435e-001
    2.5343546880465978e-001 -8.5685325167289739e-001
    6.2974815109927051e-001 -1.0195922446369141e+000
    3.6250025687385579e-001 -6.3869092877774591e-001
    2.0780877949851576e-001 -4.7499149599660739e-001
    3.0989770145300150e-001 -8.2639387054133728e-001
    6.9234949706557647e-001 -6.2641144972599772e-001 1. 0.
    9.9171411091487929e-002 -6.1391825913778242e-001
    3.0895719032666236e-001 -9.2687157097998707e-001 1. 0.
    3.2488905202014223e-001 -5.2601084612784932e-001
    4.6957427527495588e+000 -2.2360679774997896e-001
    1.7379723660649726e+000 -6.6208471088189425e-001
    1.3498195769921748e-001 -5.2064469398269597e-001
    3.4174589132466265e-001 -9.4386960461097302e-001
    4.5398216541902632e-002 -5.3807695701331264e+000
    2.3478713763750463e+000 -3.3786987140025667e+002
    4.6957427527495588e+000 -2.2360679774997896e-001 1. 0. 1. 0. 1. 0.
    1. 0. 1. 0. 1. 0. 4.6957427527495588e+000 -2.2360679774997896e-001
    1. 0. 1. 0. 1. 0. 1. 0. 1. 0. 7.7437545071084316e-002
    -1.0608943674738551e+001 9.1390769376741365e-001
    -5.2223296786709350e-001 4.6701273024160184e-001
    -6.0044493888205952e-001 4.6957427527495588e+000
    -2.2360679774997896e-001 4.6957427527495588e+000
    -2.2360679774997896e-001 1. 0. 1. 0. 2.7261234824670433e-001
    -5.0628007531530805e-001 3.3489798935748577e-001
    -3.9868808256843546e-001 1.7033249218730064e+000
    -3.2444284226152503e-001 3.4039635640455151e-001
    -4.0523375762446606e-001 1.5077121330972501e+000
    -2.8718326344709522e-001 9.5652378921598147e-001
    -3.6439001493942147e-001 4.6957427527495588e+000
    -2.2360679774997896e-001 3.4395092979836520e-002
    -3.6311391017284556e+000 3.0495693910959359e-001
    -1.2924365514644680e+000 1.7876387145933720e-001
    -1.3534978839064102e+000 4.6134351392193412e-001
    -7.6890585653655685e-001 1.0011357187078720e+000
    -3.8138503569823695e-001 3.1994950855140275e-001
    -8.2272730770360714e-001 5.9540037597992990e-001
    -4.8199078055518135e-001 3.4093424932327288e-001
    -1.2500922475186671e+000 2.0774775797921502e-001
    -1.0684170410359630e+000 4.7193990372426947e-001
    -6.0677987621691798e-001 2.1595614331980334e-001
    -7.0957018519363957e-001 4.0948822738269169e-001
    -1.0139708487571413e+000 2.1627658716394188e-001
    -6.3853087638878081e-001 4.0995612495759087e-001
    -9.7608601180378773e-001 2.7795680596917044e-001
    -9.0005060980493290e-001 1.7749507216525473e-001
    -1.0396139941107776e+000 4.8355786401142931e-001
    -1.0131688579287090e+000 6.9690947717997054e-001
    -8.2965413949996492e-001 1.2594963021985410e+000
    -5.9976014390406718e-001 1.3391833168314587e-001
    -8.5452649740674036e-001 4.6980923864981700e-001
    -1.6107745325136582e+000 1. 0. 1.4648469431164107e-001
    -1.0742210916187012e+000 4.6957427527495588e+000
    -2.2360679774997896e-001 1.0716517624676405e+000
    -7.6546554461974325e-001 1.0348469490064206e-001
    -1.4537135712233051e+000 4.1488690933913974e-001
    -2.0744345466956986e+000 3.5391973865946919e-002
    -3.3335868717544286e+000 2.7256641911689261e-001
    -3.8795286987637716e+001 4.6067699272544971e-001
    -4.3873999307185685e-001 2.0022714374157440e+000
    -3.8138503569823695e-001 4.6957427527495588e+000
    -2.2360679774997896e-001 1. 0. 4.6957427527495588e+000
    -2.2360679774997896e-001 1. 0. 3.4066498437460129e+000
    -3.2444284226152503e-001 4.6957427527495588e+000
    -2.2360679774997896e-001 1. 0. 1. 0. 1. 0. 1.1355499479153379e+000
    -3.2444284226152509e-001 1. 0. 4.0293224796977167e-002
    -4.9694977249605170e+000 1.7824795733457402e-001
    -8.2333580292636566e-001 1.9962915193203243e-001
    -8.0802275782013122e-001 3.2303869590728362e-001
    -3.8456987608009957e-001 4.6957427527495588e+000
    -2.2360679774997896e-001 7.5777222831138380e-001
    -6.4951905283832889e-001 1.4631393300123972e+000
    -3.4836650714580880e-001 3.4912826763767152e-001
    -7.9800746888610630e-001 2.5625004539577456e-001
    -7.0773822061690117e-001 7.7512414405184027e-001
    -4.7983875584161539e-001 2.8683814147178033e-001
    -6.2831211941437604e-001 2.5466240628814965e+000
    -4.8507125007266594e-001 4.1635208250202571e-001
    -5.9478868928860817e-001 1.7033249218730064e+000
    -3.2444284226152503e-001 3.3248498310072080e-002
    -2.5221360860926110e+000 2.5124938309378997e-001
    -1.9262452703857231e+000 1.8433822860240318e-001
    -2.0277205146264348e+000 3.2685072334146242e-001
    -1.0272451305017389e+000 4.4670741130209290e-001
    -8.0832769664188242e-001 4.1783288889265302e-001
    -2.2085452698611658e+000 4.2955654860784376e-001
    -8.1820294972922614e-001 2.5358324460077647e-001
    -1.5577256454047699e+000 1.7680175401039197e-001
    -1.9027236383975519e+000 3.5087829498195988e-001
    -1.0025094142341711e+000 1.9523272463268587e-001
    -1.1806931442071955e+000 4.1635208250202566e-001
    -1.4869717232215203e+000 2.8927705477837740e-001
    -1.1708833169600990e+000 2.8764424556647172e-001
    -1.1231822922119372e+000 1.1739356881873897e+000
    -6.1491869381244224e-001 2.8587970431159831e-001
    -4.6285285459973063e-001 1.5920058915156972e+000
    -4.5485882614734202e-001 2.0022714374157440e+000
    -3.8138503569823695e-001 3.4066498437460129e+000
    -3.2444284226152503e-001 7.5678746866426938e-001
    -5.0452497910951288e-001 8.0178372573727319e-001
    -5.3452248382484879e-001 2.8577380332470410e+000
    -4.0824829046386296e-001 4.9718941000089728e-001
    -6.8659489952504860e-001 1. 0. 2.5466240628814965e+000
    -4.8507125007266594e-001 3.1994950855140264e-001
    -1.0969697436048089e+000 5.2631744247293977e-001
    -9.2732120816660812e-001 1.0810390027277651e-001
    -1.4382966541054168e+001 1. -144. 1. 0. 1. 0. 1. 0. 1. 0. 1. 0. 1.
    0. 1. 0. 1. 0. 1. 0. 1. 0. 1. 0. 1. 0. 1. 0. 2.1187275697119567e-001
    -3.0065753132103005e+001 7.3424778133881885e-001
    -4.5453434082879263e-001 2.3478713763747794e+000
    -2.2360679774997896e-001 1. 0. 1. 0. 1.6398244998303635e+000
    -3.9043440472151508e-001 1. 0. 1.3074028933658497e+000
    -3.7354368381881420e-001 3.4066498437460129e+000
    -3.2444284226152503e-001 1. 0. 4.6957427527495588e+000
    -2.2360679774997896e-001 1. 0. 3.8915589124707811e-001
    -2.5943726083138541e-001 4.6957427527495588e+000
    -2.2360679774997896e-001 4.7680255986532034e-002
    -5.5536145782408264e+000 3.1579840021661898e-001
    -9.0228114347605426e-001 2.2126111977957205e-001
    -1.0220156485056422e+000 1.3728129459672882e+000
    -5.8834840541455202e-001 4.6957427527495588e+000
    -2.2360679774997896e-001 5.4077751275583497e-001
    -9.5279847485551872e-001 8.4887468762716534e-001
    -4.8507125007266588e-001 3.7030644832576404e-001
    -1.2696221085454766e+000 3.0670827486441765e-001
    -1.0661763840524994e+000 1.5566235649883124e+000
    -5.1887452166277082e-001 6.0621778264910708e-001
    -8.6602540378443871e-001 7.1360904933211400e-001
    -1.0874042656489356e+000 2.1433035249352811e-001
    -9.4917727532848173e-001 3.7547923342237954e-001
    -9.8339799229670832e-001 3.0956081940815228e-001
    -4.8645271621281072e-001 2.8927705477837740e-001
    -5.9232920740334416e-001 7.3424778133881885e-001
    -4.5453434082879263e-001 9.2268702784386825e-001
    -6.1512468522924546e-001 1.9012506668928890e+000
    -4.5267873021259258e-001 1.7138432129802791e-001
    -5.2231412205113270e-001 4.3246144425065086e-001
    -5.5602185689369399e-001 1.1850985607645106e+000
    -4.5146611838648021e-001 1.4769700210949768e-001
    -7.8771734458398757e-001 3.4066498437460129e+000
    -3.2444284226152503e-001 7.8590524799337569e-001
    -7.8590524799337569e-001 6.7429717066357017e-002
    -1.1687817624835215e+000 3.2326826269871656e-001
    -1.3084667775900432e+000 3.6477028731434789e-002
    -3.8787240551092323e+000 7.7580088685807291e-002
    -1.0584140670706566e+001 3.5225777127356950e-001
    -4.1935448961139227e-001 2.7522203022716663e-001
    -6.9460798104951571e-001 1.8278153875348273e+000
    -5.2223296786709350e-001 1. 0. 1.9012506668928890e+000
    -4.5267873021259258e-001 1. 0. 3.7950430042768829e-001
    -3.4336103372028942e-001 7.7512414405184027e-001
    -4.7983875584161539e-001 4.6957427527495588e+000
    -2.2360679774997896e-001 2.5039065298350688e-001
    -3.4577756840579521e-001 4.6957427527495588e+000
    -2.2360679774997896e-001 2.0022714374157440e+000
    -3.8138503569823695e-001 2.1433035249352810e+000
    -3.0618621784789729e-001 3.8989702508405159e-002
    -4.8347231110422397e+000 3.1987526571282315e-001
    -7.0067915346618415e-001 1.7128167887380319e-001
    -8.1562704225620564e-001 6.2974815109927051e-001
    -6.5973615829447385e-001 1.7033249218730064e+000
    -3.2444284226152503e-001 1.1739356881873897e+000
    -6.1491869381244224e-001 2.0022714374157440e+000
    -3.8138503569823695e-001 2.3168028536136115e-001
    -5.8471691067391141e-001 2.6584408385946251e-001
    -6.8359907278147503e-001 4.7458384544084714e-001
    -5.6498076838196087e-001 1.8770961437512748e-001
    -5.6312884312538247e-001 2.1433035249352810e+000
    -3.0618621784789729e-001 4.6770717334674267e-001
    -4.6770717334674267e-001 8.5589610323618359e-001
    -5.7059740215745569e-001 3.2260614706690310e-002
    -2.7129640748578616e+000 2.6682940895639073e-001
    -1.5882702914070876e+000 1.9208745498195806e-001
    -1.8385513548273129e+000 2.8721347895177635e-001
    -9.0267093384843988e-001 8.2368776758037288e-001
    -7.8446454055273607e-001 3.1622776601683794e-001
    -1.2649110640673518e+000 4.7975724550420151e-001
    -7.3105865981592610e-001 2.6119726243012215e-001
    -1.5423076448254833e+000 1.8958196194099941e-001
    -1.4624894206877097e+000 3.3337533337550007e-001
    -7.9375079375119062e-001 1.8539839347312642e-001
    -1.0417624014204245e+000 3.8062470263706721e-001
    -1.1599990937510620e+000 3.2220111626441322e-001
    -1.8411492357966470e+000 2.8368019415310708e-001
    -1.2427894220040883e+000 2.6233609114855150e-001
    -1.4615867935419298e+000 1.4785066645011524e-001
    -8.3782044321731974e-001 3.6791183185934567e-001
    -5.7814716435040037e-001 3.0172912094749105e-001
    -1.0057637364916370e+000 9.1218170980244562e-001
    -1.3899911768418218e+000 1.1270467871878247e-001
    -6.5476051446149808e-001 3.5166457786147604e-001
    -1.0215018690261923e+000 7.6579120536394640e-001
    -6.9285870961499918e-001 1.2147051351297124e-001
    -1.8799008043674119e+000 1.2640514574005766e+000
    -5.4173633888596140e-001 5.2369240145650719e-001
    -1.6458904045775939e+000 5.4006886868267386e-002
    -1.8310906404860181e+000 4.2583123046825161e-001
    -2.1697115076239486e+000 3.6826353436104277e-002
    -2.1604794015847841e+000 3.4439930458962660e-002
    -3.4308730723880898e+000 2.6989701813179062e-001
    -7.3257762064343168e-001 2.3109037400781104e-001
    -1.7386799568206734e+000 1.7033249218730064e+000
    -8.1110710565381250e-001 4.6957427527495588e+000
    -2.2360679774997896e-001 6.9084927970775745e-001
    -6.9084927970775745e-001 3.2512258916688208e-001
    -4.3349678555584276e-001 3.5898747147446286e-001
    -7.3506958444770965e-001 1.5028396761073190e-001
    -9.1601656448446100e-001 8.5166246093650322e-001
    -5.2721961867497824e-001 8.8636793441388084e-002
    -1.1860447122395263e+000 4.9143819606095440e-001
    -4.6803637720090890e-001 1.3848796423884233e-001
    -4.6822121242656217e-001 2.2877500174661411e-001
    -1.1002988179241917e+000 2.7916104791695658e-002
    -2.1601747755478784e+000 2.7423464126917441e-001
    -1.7890545644703282e+000 1.6780144057203833e-001
    -1.7179671296661065e+000 4.1521116644947242e-001
    -8.6996625351318035e-001 9.2989562981709994e-001
    -6.6421116415507142e-001 6.8204829258471256e-001
    -1.0717901740616911e+000 4.3467920979058172e-001
    -6.8306732967091410e-001 2.3295974687125348e-001
    -1.3866651599479374e+000 1.5037641213512568e-001
    -1.2531367677927141e+000 3.7169597083751404e-001
    -1.1150879125125421e+000 9.1935640061531418e-002
    -1.3659009380570382e+000 5.0664961268604991e-001
    -5.5490195675138809e-001 1.6035674514745463e-001
    -5.3452248382484879e-001 1.5070131653723612e-001
    -1.1051429879397314e+000 4.0232395194048552e-002
    -1.3180898996907333e+000 3.3800695948931636e-001
    -2.3982398554241970e+000 2.0083054182591251e-001
    -2.7446840716208043e+000 2.8461660665659888e-001
    -1.8567845291406688e+000 4.5101361856693573e-001
    -1.4389482116183188e+000 3.6315009352968919e-001
    -2.0059719452116163e+000 1.8703834170047531e-001
    -1.1756695764029876e+000 3.0540810676065366e-001
    -2.0069675587128670e+000 2.4323417846908343e-001
    -2.9303927215561005e+000 2.7655529354003616e-001
    -1.6198238621630690e+000 1.3509922408235114e-001
    -2.3159866985545912e+000 3.5117253259759174e-001
    -1.8561976723015563e+000 2.4025510002704470e-001
    -1.6589042620914991e+000 1.0386625549842335e-001
    -1.5728318689761249e+000 5.9877924593781107e-001
    -6.8431913821464119e-001 6.6675066675100014e-001
    -3.4925034925052389e-001 3.0553738003914588e-001
    -9.0206274106795459e-001 3.1622776601683794e-001
    -6.3245553203367588e-001 1.5155444566227676e+000
    -6.4951905283832889e-001 6.0805485657842190e-002
    -1.7691500827115036e+000 2.7083813138694790e-001
    -8.8989671741425735e-001 4.6957427527495588e+000
    -2.2360679774997896e-001 6.7150595336063323e-001
    -7.6743537526929506e-001 1. 0. 7.6376261582597327e-001
    -7.6376261582597327e-001 1.0051414220648333e-001
    -7.1795815861773815e-001 3.7547923342237954e-001
    -1.1085577367708348e+000 3.9928139689533210e-002
    -3.6847968913483506e+000 5.0615489507027198e-002
    -6.0039611600954643e+000 4.9915182296860483e-001
    -3.5653701640614632e-001 1.5378117130731139e-001
    -6.1512468522924557e-001 1.0606601717798212e+000
    -3.5355339059327373e-001 1. 0. 2.3478713763747794e+000
    -2.2360679774997896e-001 3.4066498437460129e+000
    -3.2444284226152503e-001 1.0526348849458795e+000
    -4.0100376569366836e-001 1.7717891810399208e-001
    -2.1345841085861905e+000 1.1525247298917487e+000
    -2.7441064997422587e-001 1.0925651334405079e-001
    -8.1682250452457017e-001 1. 0. 1. 0. 1. 0. 5.5501588897311209e-002
    -6.2267496877173905e+000 5.1573550603323159e-001
    -8.3500034310142257e-001 1.6384264395921813e-001
    -8.6602540378443871e-001 5.5925482335587284e-001
    -3.1957418477478444e-001 4.6957427527495588e+000
    -2.2360679774997896e-001 1.5077121330972501e+000
    -2.8718326344709522e-001 4.6957427527495588e+000
    -2.2360679774997896e-001 5.3899335245631252e-001
    -9.2398860421082141e-001 1.9045317856591287e-001
    -2.2945073417702835e+000 6.8567430587075617e-001
    -4.5711620391383745e-001 9.6971057908536412e-002
    -8.5426884347996368e-001 1.3074028933658497e+000
    -3.7354368381881420e-001 1.7033249218730064e+000
    -3.2444284226152503e-001 1.2875926129184281e+000
    -4.2919753763947599e-001 3.1419457341982711e-002
    -2.2098351663861173e+000 3.4093424932327288e-001
    -1.4773817470675157e+000 1.1733857924488002e-001
    -1.6650903149987735e+000 3.6479009928438061e-001
    -1.1812250833970419e+000 1.2733120314407482e+000
    -7.8824078136808229e-001 4.2374551394241239e-001
    -1.1098096793729848e+000 8.9381935729668593e-001
    -6.3844239806906145e-001 2.6495390743656266e-001
    -1.1733673043619204e+000 1.0817271973880908e-001
    -1.9831665285448330e+000 3.0829061524521933e-001
    -9.1019134024779047e-001 8.6574570120658820e-002
    -1.2202891788435719e+000 3.9405797814642085e-001
    -9.7576261255304209e-001 4.1833001326703778e-001
    -8.3666002653407556e-001 3.0172912094749105e-001
    -1.1063401101408004e+000 1.2640514574005766e+000
    -5.4173633888596140e-001 2.8577380332470410e+000
    -4.0824829046386296e-001 4.6540431753683303e-001
    -7.5351175220249156e-001 1.1739356881873897e+000
    -5.5901699437494745e-001 3.4066498437460129e+000
    -3.2444284226152503e-001 5.3889396089141575e-002
    -7.2878992806267651e-001 3.6847776333038812e-001
    -8.5978144777090570e-001 2.8577380332470410e+000
    -4.0824829046386296e-001 1.4031215200402281e+000
    -4.6770717334674267e-001 1. 0. 1.1037354955780370e+000
    -5.7814716435040037e-001 2.9592144160715933e-001
    -1.1555027719898603e+000 3.2258102574228947e-001
    -1.2596021005175113e+000 4.5933498935873576e-002
    -5.3545335902389768e+000 1.1956547365199575e-001
    -1.6932748506715971e+001 1.1739356881873897e+000
    -2.2360679774997896e-001 7.8262379212492650e-001
    -2.2360679774997899e-001 2.3478713763747794e+000
    -2.2360679774997896e-001 1. 0. 1. 0. 1. 0. 1. 0.
    2.9592144160715933e-001 -3.2410443604593642e-001
    2.3478713763747794e+000 -2.2360679774997896e-001
    3.6121098098073529e-001 -2.2360679774997899e-001 1. 0. 1. 0. 1. 0.
    5.9909592504284848e-002 -7.8510094557996135e+000
    3.6347632515127631e-001 -8.6541982178875310e-001
    2.7437504641939331e-001 -5.3568461443786308e-001
    2.3478713763747794e+000 -5.5901699437494745e-001
    3.4066498437460129e+000 -3.2444284226152503e-001
    1.3669835652986506e+000 -6.5094455490411929e-001 1. 0.
    4.9143819606095440e-001 -5.1484001492099984e-001
    1.5744588727527570e-001 -5.3981447065808807e-001
    6.4079210758222105e-001 -3.6616691861841200e-001
    2.8498327953278185e-001 -5.2925466198945204e-001 1. 0.
    7.6579120536394640e-001 -6.9285870961499918e-001 1. 0.
    3.8534899521343889e-002 -3.5452107559636379e+000
    3.1339793044344760e-001 -1.5968370741642328e+000
    1.5850975314278173e-001 -1.3888473608700878e+000
    4.9333303502168657e-001 -8.4571377432289119e-001
    1.0011357187078720e+000 -6.1975068300963509e-001
    3.8481939105773988e-001 -1.1178087073581968e+000
    7.3156966500619858e-001 -8.7091626786452214e-001
    2.6270531876428049e-001 -1.6512905750897631e+000
    1.6741706415348603e-001 -1.5944482300332004e+000
    7.7302068252392586e-001 -1.1043152607484656e+000
    2.0000907091185810e-001 -8.7623021542337842e-001
    4.8510360433317035e-001 -1.2243090966503822e+000
    2.1965758114403461e-001 -1.0564483664546427e+000
    4.2955654860784381e-001 -1.1863942771073781e+000
    1.9429458357867915e-001 -3.3307642899202139e-001
    6.6675066675100014e-001 -3.1750031750047625e-001
    4.2374551394241239e-001 -5.8517237639666475e-001
    1.0473848029130144e+000 -5.9850560166457967e-001
    2.0022714374157440e+000 -3.8138503569823695e-001
    3.1235616158708307e-001 -8.7757207303037621e-001
    4.1184388379018644e-001 -7.2562970001128080e-001
    4.6957427527495588e+000 -2.2360679774997896e-001
    1.2640514574005766e+000 -7.2231511851461516e-001 1. 0.
    2.1213203435596424e+000 -7.0710678118654746e-001
    4.2866070498705611e-001 -7.3484692283495323e-001
    2.4313634343993176e-001 -1.1693700327349099e+000
    5.6575213888548991e-002 -7.2200749153005379e+000
    1.8805551228741282e-001 -2.6847163135126841e+001
    4.6957427527495588e+000 -2.2360679774997896e-001 1. 0. 1. 0. 1. 0.
    1. 0. 1. 0. 6.7082039324993692e-001 -2.2360679774997896e-001 1. 0.
    1. 0. 5.8696784409369485e-001 -2.2360679774997896e-001
    4.6957427527495588e+000 -2.2360679774997896e-001
    6.7082039324993692e-001 -2.2360679774997896e-001
    2.3478713763747794e+000 -2.2360679774997896e-001
    8.5082324661449452e-002 -1.1603608468113867e+001
    3.4477227923413722e-001 -5.7462046539022871e-001
    1.9012506668928890e+000 -4.5267873021259258e-001
    1.9012506668928890e+000 -4.5267873021259258e-001
    4.6957427527495588e+000 -2.2360679774997896e-001
    9.6253342187962188e-001 -6.4168894791974784e-001
    4.6957427527495588e+000 -2.2360679774997896e-001
    3.3396500593577366e-001 -5.7251143874704058e-001
    8.8269583858931699e-001 -3.3626508136735883e-001 1. 0.
    6.4379630645921404e-001 -4.2919753763947599e-001
    4.6957427527495588e+000 -2.2360679774997896e-001
    2.5975461539752909e-001 -4.7003216119552882e-001
    2.3478713763747794e+000 -2.2360679774997896e-001
    3.7456191364653654e-002 -3.6814085226973878e+000
    2.2885649851405579e-001 -1.5910975610977212e+000
    2.6148057867316993e-001 -1.4568203668933752e+000
    6.6675066675100014e-001 -9.8425098425147650e-001
    6.2861855709371217e-001 -3.5921060405354976e-001
    2.9440538089832330e-001 -1.3879110813778099e+000
    6.2805603478230820e-001 -7.4768575569322404e-001
    3.9447489730180590e-001 -1.5591150702880900e+000
    2.5659413363858619e-001 -1.0141577662858408e+000
    4.9469998980312280e-001 -5.4181427454627740e-001
    3.9700450931265491e-001 -9.8305878496466936e-001
    4.2220118419460578e-001 -9.4492645986411772e-001
    1.3507686406497157e-001 -1.1320727654969047e+000
    3.8112585453632947e-001 -1.1978241142570354e+000
    3.6791183185934567e-001 -5.7814716435040037e-001
    3.3941679651349888e-001 -4.3639302408878428e-001
    5.0518148554092257e-001 -8.6602540378443860e-001
    9.5062533344644451e-001 -7.6955384136140748e-001
    1.3846989941311529e+000 -5.2750437871662970e-001
    1.1899974877857331e-001 -1.3826637477129469e+000
    3.7583986667351554e-001 -1.0022396444627080e+000
    2.1433035249352810e+000 -3.0618621784789729e-001
    6.0024504799878098e-001 -4.2874646285627216e-001
    3.4066498437460129e+000 -3.2444284226152503e-001
    1.3846989941311529e+000 -8.5719461541452324e-001
    1.3067446219550480e-001 -4.9158488159261327e-001
    2.2504018933674996e-001 -1.5002679289116665e+000
    4.5439007512460050e-002 -5.0870050791330277e+000
    4.6494781490832859e-001 -6.6686800881137415e+001 1. 0. 1. 0. 1. 0.
    1. 0. 1. 0. 1. 0. 7.8262379212492650e-001 -2.2360679774997899e-001
    4.6957427527495588e+000 -2.2360679774997896e-001 1. 0.
    3.4066498437460129e+000 -3.2444284226152503e-001 1. 0.
    2.1433035249352810e+000 -3.0618621784789729e-001 1. 0.
    5.5763961223238692e-002 -7.4458165366648235e+000
    3.6121098098073529e-001 -7.0522143905762602e-001
    2.3287378914855428e-001 -4.2139066607833631e-001
    1.0606601717798212e+000 -3.5355339059327373e-001
    4.6957427527495588e+000 -2.2360679774997896e-001
    1.3728129459672882e+000 -5.8834840541455202e-001
    4.6957427527495588e+000 -2.2360679774997896e-001
    2.5336167772177243e-001 -6.1530693161001870e-001
    2.7873923343099694e-001 -3.5837901441128178e-001 1. 0.
    4.6067699272544971e-001 -4.8261399237904257e-001
    1.5077121330972501e+000 -2.8718326344709522e-001
    4.8151967637695797e-001 -4.1273115118024967e-001
    4.6957427527495588e+000 -2.2360679774997896e-001
    2.9468699714453882e-002 -2.2775095065027933e+000
    2.0653850580918820e-001 -1.9178575539424620e+000
    1.6366341767699427e-001 -1.8002975944469370e+000
    3.1381756633385777e-001 -8.8167792446179083e-001
    8.5732140997411221e-001 -7.3484692283495323e-001
    3.0809148252000979e-001 -1.7018386653486255e+000
    3.3986100138426772e-001 -6.4735428835098607e-001
    2.8275296387249460e-001 -1.3195138314049748e+000
    1.6178755723235846e-001 -1.7334381132038406e+000
    3.9036424434356332e-001 -8.1790603576746601e-001
    2.0889577090766356e-001 -1.0046891838892389e+000
    4.1058249067803188e-001 -1.1730928305086625e+000
    1.7569684861245446e-001 -1.2800770398907397e+000
    3.6025300115077474e-001 -1.0464491938189171e+000
    6.1341654972883530e-001 -6.7183717351253391e-001
    2.0439468762399984e-001 -3.4065781270666640e-001
    8.3270416500405142e-001 -5.9478868928860817e-001
    1.5155444566227676e+000 -6.4951905283832889e-001
    1.8278153875348273e+000 -5.2223296786709350e-001
    1.1426889960815476e-001 -7.1826165467982983e-001
    6.3665601572037411e-001 -7.8824078136808229e-001
    1.8278153875348273e+000 -5.2223296786709350e-001
    2.3350636512080086e-001 -1.0674576691236610e+000 1. 0.
    6.9922351612262823e-001 -7.3251987403322960e-001
    1.4111450183455312e-001 -1.9554438111359504e+000
    1.9518212217178166e-001 -1.2733309875016232e+000
    4.4476355453471152e-002 -4.7144936780679423e+000
    1.6646756152050809e-001 -2.3487780227869788e+001
    3.1832800786018706e-001 -4.8507125007266594e-001
    9.2989562981709994e-001 -2.6568446566202852e-001 1. 0. 1. 0.
    1.6398244998303635e+000 -3.9043440472151508e-001 1. 0.
    1.0606601717798212e+000 -3.5355339059327373e-001
    3.4066498437460129e+000 -3.2444284226152503e-001
    4.6957427527495588e+000 -2.2360679774997896e-001
    2.1433035249352810e+000 -3.0618621784789729e-001 1. 0.
    1.5077121330972501e+000 -2.8718326344709522e-001
    4.6957427527495588e+000 -2.2360679774997896e-001
    4.0631346444270786e-002 -5.0498959152165126e+000
    2.4333213169614384e-001 -8.1110710565381283e-001
    1.9772643900311121e-001 -6.7791921943923839e-001
    6.0723067856455226e-001 -6.3614642516286435e-001
    1.7033249218730064e+000 -3.2444284226152503e-001
    1.0447890497204886e+000 -5.4727045461549406e-001
    1.4031215200402281e+000 -4.6770717334674267e-001
    3.9545287800622247e-001 -1.0733720974454610e+000
    2.5233532411367415e-001 -6.9692613326633812e-001
    1.3669835652986506e+000 -6.5094455490411929e-001
    1.8680139675442309e-001 -5.4261358104856228e-001
    1.5077121330972501e+000 -2.8718326344709522e-001
    3.0463589792247125e-001 -5.2223296786709350e-001
    3.4066498437460129e+000 -3.2444284226152503e-001
    3.5882707324394386e-002 -2.5083721120100453e+000
    2.2396257649167603e-001 -1.7170464197695163e+000
    2.2561089736160861e-001 -2.4494897427831792e+000
    3.0012252399939049e-001 -1.0718661571406805e+000
    7.3156966500619869e-001 -1.0799361721520075e+000
    2.7106366072187793e-001 -1.3811338903448065e+000
    3.8915589124707811e-001 -9.0803041290984898e-001
    2.5849213105659868e-001 -1.8832998119837905e+000
    1.8276769324054734e-001 -1.5839866747514102e+000
    3.3618293328710380e-001 -9.7653137764349196e-001
    1.9997279466762907e-001 -1.2855393942919013e+000
    3.7523938719322819e-001 -1.3401406685472437e+000
    9.6886393162696635e-002 -1.0103866715538363e+000
    3.0006124323836381e-001 -1.1430904504318620e+000
    4.5374260648651510e-001 -4.5374260648651510e-001
    1.2299011851743498e-001 -5.2710050793186414e-001
    2.3478713763747794e+000 -5.5901699437494745e-001
    9.0202723713387123e-001 -6.8725884734009235e-001
    3.4066498437460129e+000 -3.2444284226152503e-001
    4.6067699272544971e-001 -4.8261399237904257e-001
    6.9234949706557647e-001 -8.5719461541452324e-001
    1.3669835652986506e+000 -6.5094455490411929e-001
    3.5496478698597700e-001 -1.1832159566199234e+000 1. 0.
    1.5155444566227676e+000 -8.6602540378443860e-001
    1.8012650057538734e-001 -1.5353639810949682e+000
    2.9539400421899537e-001 -1.2800406849489798e+000
    5.5329101662268204e-002 -6.5341034344011977e+000
    2.7201707407916692e-001 -3.8872535205313326e+001
    1.1355499479153379e+000 -3.2444284226152509e-001
    7.7831178249415622e-001 -2.5943726083138541e-001
    4.6957427527495588e+000 -2.2360679774997896e-001 1. 0. 1. 0. 1. 0.
    1.1739356881873897e+000 -2.2360679774997896e-001
    1.5652475842498530e+000 -2.2360679774997899e-001 1. 0.
    3.4066498437460129e+000 -3.2444284226152503e-001 1. 0. 1. 0. 1. 0.
    7.0568404576468971e-002 -9.5233742176053848e+000
    4.4731503898442021e-001 -7.2422434883191844e-001
    1.1739356881873897e+000 -5.5901699437494745e-001
    1.3074028933658497e+000 -3.7354368381881420e-001
    2.3478713763747794e+000 -2.2360679774997896e-001
    6.0571323176464897e-001 -4.9033928285709677e-001
    1.1739356881873897e+000 -2.2360679774997896e-001
    2.6644254372182785e-001 -4.6944638655750620e-001
    5.0228311689668692e-001 -4.0661014224969894e-001
    1.6398244998303635e+000 -3.9043440472151508e-001
    7.3424778133881885e-001 -4.5453434082879263e-001 1. 0.
    2.4932952098909325e-001 -5.2240471064381444e-001
    4.6957427527495588e+000 -2.2360679774997896e-001
    3.4317848893540830e-002 -3.0689962010509371e+000
    2.3674843624416389e-001 -1.4994067628797045e+000
    2.6644254372182774e-001 -2.1569158301290816e+000
    4.4977058372202533e-001 -9.4237646113186269e-001
    7.6074973380232935e-001 -5.4339266700166389e-001
    3.2582623392466281e-001 -1.3343360055962381e+000
    4.6494781490854997e-001 -6.6421116415507142e-001
    2.6315872123646983e-001 -1.7919855779435803e+000
    2.7423464126917441e-001 -1.9718776586497779e+000
    4.9090081132279362e-001 -7.7141556065010419e-001
    2.6119726243012215e-001 -1.1069788741086128e+000
    6.7082039324993703e-001 -1.5652475842498532e+000
    2.3092265386426386e-001 -1.4075285568869416e+000
    3.2473363988399773e-001 -1.1597629995857062e+000
    4.0534800415314604e-001 -7.1418457874601915e-001
    9.1145970694142098e-002 -4.3402843187686713e-001
    5.2631744247293977e-001 -4.7619197176123124e-001
    4.8536267169707553e-001 -6.9337524528153649e-001
    1.1776215235932930e+000 -5.0469493868283977e-001
    3.3088308312320858e-001 -5.8298447978851031e-001
    4.0625719708042185e-001 -6.1905858602730945e-001
    2.0022714374157440e+000 -3.8138503569823695e-001
    2.3540589128497036e-001 -9.3041376079297811e-001
