<?xml version="1.0"?>
<opencv_storage>
<opencv_ml_ann_mlp>
  <format>3</format>
  <layer_sizes>
    256 6 1</layer_sizes>
  <activation_function>SIGMOID_SYM</activation_function>
  <f_param1>6.6666666666666663e-001</f_param1>
  <f_param2>1.7159000000000000e+000</f_param2>
  <min_val>-9.4999999999999996e-001</min_val>
  <max_val>9.4999999999999996e-001</max_val>
  <min_val1>-9.7999999999999998e-001</min_val1>
  <max_val1>9.7999999999999998e-001</max_val1>
  <training_params>
    <train_method>BACKPROP</train_method>
    <dw_scale>1.0000000000000000e-003</dw_scale>
    <moment_scale>0.</moment_scale>
    <term_criteria>
      <epsilon>1.0000000000000000e-004</epsilon>
      <iterations>300</iterations></term_criteria></training_params>
  <input_scale>
    5.2461080079734288e+001 -2.7924724700394759e+000
    6.5029822407922779e+002 -6.8482202726053050e+000
    5.6291759693309268e+002 -3.7356967797749370e+000
    8.0001074570517062e+002 -9.7103331404785127e+000
    9.1950339761144198e+002 -5.9990219470903439e+000
    3.9425524369115706e+003 -3.8802062586631627e+000
    7.5567482751418481e+002 -7.7447667023807787e+000
    4.2577413540569648e+002 -8.3958520979613649e+000
    5.1125320913931705e+002 -3.2482855649931537e+000
    3.8341348333177493e+003 -3.7935549587762338e+000
    2.9844044523427415e+003 -1.9548884530426076e+000
    3.6287620822228123e+003 -2.9676479759179157e+000
    7.3230048942610904e+002 -7.1995417897142255e+000
    3.2732082400591407e+003 -4.1201566988659000e+000
    2.6494629282240419e+002 -6.1480862762349959e+000
    1.9448259006491574e+002 -6.8131013713276909e+000
    5.9748052265822446e+002 -6.3630900234954701e+000
    5.4091329502220524e+003 -3.8225214458003491e+000
    3.8837193349475519e+003 -3.8070701762257788e+000
    7.1608782086320216e+003 -4.1124879136566124e+000
    4.5128607060967688e+003 -4.2895616288728737e+000
    2.2780502567124742e+004 -1.1243637465487386e+000
    3.6497410789450641e+003 -4.4211377503393887e+000
    6.5101737330749693e+003 -3.5728094987662837e+000
    7.7600713676030659e+002 -9.0689483615438249e+000
    7.8260113737222482e+003 -4.0391426417031946e+000
    4.4435171026881699e+003 -3.3826956628062108e+000
    6.3705292597589787e+003 -3.2442144461869771e+000
    3.7217784512733215e+002 -7.2308372828877658e+000
    6.3259227304397991e+003 -3.4489469467005551e+000
    1.3903189272059834e+002 -4.8574227023321859e+000
    6.5274558206952815e+002 -7.5430863150068852e+000
    5.3256277975996375e+002 -3.8797923889091366e+000
    4.1745911181023212e+003 -4.1072110499296075e+000
    3.8742534930396014e+003 -2.7796437702664565e+000
    5.2522959562583392e+003 -4.7348915117619823e+000
    5.5911948167625014e+003 -3.8342170399178550e+000
    1.5636784455941279e+004 -1.1755520724434643e+000
    5.0149998141708547e+003 -4.0046168560411299e+000
    4.1267831975866702e+003 -4.2598112750390156e+000
    2.6534673706015601e+003 -2.4710002083929643e+000
    1.2326793154871864e+004 -1.6680806149831029e+000
    1.4322776538482518e+004 -1.1984882132429384e+000
    1.6971953225765745e+004 -1.6198741067201652e+000
    4.4920022662629572e+003 -4.4503327480523112e+000
    1.2815906413854442e+004 -1.5122483350457689e+000
    3.8240636305649068e+003 -4.3735654390021788e+000
    3.7362894079675348e+003 -5.9340880283748563e+000
    6.6260275135098402e+002 -8.9807364739769202e+000
    6.3076381362538796e+003 -3.8389550846119378e+000
    4.6541490981715860e+003 -3.8092651034645675e+000
    6.5080817417422313e+003 -3.4099900137261052e+000
    5.4878562357438714e+003 -5.0710175388417635e+000
    2.7151883239085280e+004 -1.1892450200469051e+000
    4.3349304747703482e+003 -3.5210736755165666e+000
    6.9600421668476129e+003 -3.2464029894623470e+000
    2.7745265659039683e+002 -6.9964886939775885e+000
    6.8820522694467172e+003 -3.5789425921530706e+000
    5.2122619060212965e+003 -4.4432463933140260e+000
    6.2732794322721293e+003 -3.4386999298453502e+000
    2.1417651796335639e+002 -6.0846158767211698e+000
    7.3117293366464100e+003 -3.0065424027432659e+000
    5.3368675609062416e+002 -7.7620059758559163e+000
    1.2660058180081444e+003 -6.5162855292717907e+000
    9.5870392439556747e+002 -7.0613765411744271e+000
    4.1597623170227880e+003 -4.3808726541382281e+000
    5.1139469098330710e+003 -3.5771452277512643e+000
    4.5597731411487912e+003 -4.2074667639869912e+000
    6.5505791205413489e+003 -3.0511330531682277e+000
    2.3482336941960813e+004 -1.4813756786381873e+000
    7.3334591466106931e+003 -3.6003555839609005e+000
    5.4433747004112292e+003 -2.8894876369255167e+000
    6.2351984319536732e+003 -4.1474511298424952e+000
    2.0806813261494062e+004 -1.5710287584420561e+000
    2.0629148582352380e+004 -1.3418407170589437e+000
    2.0264794131893785e+004 -1.3512600881783736e+000
    8.8733982971094792e+003 -4.1040533868272338e+000
    1.6938104582476444e+004 -9.1351427871725366e-001
    6.7053304106234064e+003 -3.0903372743087059e+000
    5.6111330678103104e+003 -2.8373144348781913e+000
    3.7802519177130785e+003 -3.6315071821354103e+000
    2.3721113181347890e+004 -9.6144254569193388e-001
    2.6350476204028055e+004 -1.7570544545013644e+000
    2.9007007294388310e+004 -1.0619095647786720e+000
    2.3342486432813515e+004 -1.2436589659970045e+000
    8.2959086286082893e+004 -4.6097722286464443e-001
    2.3962913058283826e+004 -1.1748906749819359e+000
    4.1388345796046073e+004 -9.1992742727319943e-001
    4.8997205335805738e+003 -4.4122436950812691e+000
    3.1076114399045251e+004 -1.2697064046882960e+000
    2.1519331186372074e+004 -1.1183879510014316e+000
    4.1044247306411744e+004 -1.0464379567887472e+000
    7.3791371432270971e+003 -3.5914255286849142e+000
    3.7646957345975352e+004 -7.7524150708439310e-001
    7.2816790735944987e+003 -3.2417179636882199e+000
    9.9860362748472544e+003 -2.1967204310141391e+000
    8.1430824459161272e+002 -9.4364446361504974e+000
    3.2305351758518659e+003 -4.4085678472795964e+000
    4.6509856025319077e+003 -3.7321842435565680e+000
    5.1943958428733040e+003 -4.5264921103003379e+000
    6.9292329398178053e+003 -3.8277049307226383e+000
    2.0964494505900686e+004 -1.1717827255181266e+000
    5.9074380601972462e+003 -3.5162173083577724e+000
    6.8249616486389796e+003 -4.1627318934757769e+000
    4.1818230026431784e+003 -4.5954699782839983e+000
    1.5196553815847743e+004 -1.9074050252691253e+000
    2.4163879041071083e+004 -1.6349466444675713e+000
    2.1289888466588673e+004 -1.6075035914766000e+000
    5.2716442708770683e+003 -3.9235185545617521e+000
    1.6971953225765741e+004 -1.6087790785919445e+000
    5.2228541790176932e+003 -4.4983692269457514e+000
    3.8977643473243957e+003 -3.2870163735539806e+000
    3.0062801021214631e+002 -7.3772949559289485e+000
    7.0685027186803782e+003 -3.7798739245830610e+000
    3.8042104991380065e+003 -3.8310940740229045e+000
    6.3359808341184244e+003 -3.0257333731681237e+000
    6.2248386006772034e+003 -3.2534425696510088e+000
    2.6660820157057438e+004 -9.4116083540726214e-001
    4.6715441116784068e+003 -2.7011883796077347e+000
    8.9644293276246608e+003 -2.8275907145946046e+000
    1.2346605814941775e+002 -4.8330211455084493e+000
    7.6429107384215495e+003 -3.5849018876060690e+000
    4.5930632831393204e+003 -4.8867486144231647e+000
    7.0953697287506966e+003 -3.1912442877556484e+000
    5.6209922630899916e+002 -6.9104446637638919e+000
    9.2444007892576083e+003 -2.2299838280451345e+000
    1.1335533560144127e+003 -7.3581039511907615e+000
    2.1606663873902321e+003 -5.0164456514354150e+000
    5.8557352455212356e+002 -4.3098141101410299e+000
    5.7121798703793627e+002 -7.8939279449752906e+000
    2.7563436512226476e+003 -2.7361804403897416e+000
    2.1858301482559807e+002 -5.7290358169116802e+000
    5.0072826508908392e+003 -3.5041715358535361e+000
    4.0530088327646672e+003 -3.7716518403763146e+000
    3.9875517426297938e+003 -4.0300681892289134e+000
    1.9492994279636750e+002 -5.4674275187431522e+000
    4.5771415495100910e+003 -3.2555158700436486e+000
    5.3529531202345370e+003 -4.6524140493300514e+000
    1.5097789464425983e+004 -1.1498359203846982e+000
    4.4494248906817047e+003 -4.1158249562077733e+000
    5.3784362247494892e+003 -4.1911080469364190e+000
    4.0532862381354125e+003 -3.4950118042196738e+000
    3.9695268731803449e+003 -4.5165762833274821e+000
    5.7807037752633187e+002 -8.5713466713072251e+000
    4.3921081716276321e+003 -4.4906204853269767e+000
    6.0057152448977386e+003 -3.6434204690112644e+000
    1.3365983650431759e+004 -1.8917136938087138e+000
    7.6135078877220467e+003 -4.3002640739641063e+000
    1.9489263958545791e+004 -1.5161388641657507e+000
    2.7320248545385246e+004 -1.0358794582351851e+000
    1.5630252799659671e+004 -2.0333664805196987e+000
    6.0082857640740949e+003 -2.8770988980662180e+000
    5.8488092609918704e+003 -5.0642600366356856e+000
    6.3326137076474261e+003 -3.7196121584112389e+000
    1.5958097301051113e+004 -1.5022429766617058e+000
    5.8782947737040304e+003 -3.5545913047442381e+000
    5.2102509076047154e+003 -5.2743193575464096e+000
    6.3525407598497432e+003 -3.1436915027589771e+000
    3.1778568259568206e+003 -4.9401797319164578e+000
    1.1224239200866045e+003 -5.9408803365131204e+000
    4.4430016826679421e+003 -3.3154995279053638e+000
    4.4629349424143729e+003 -3.9255528893593934e+000
    1.5925632637001483e+004 -1.4054876808677073e+000
    4.4381088790161912e+003 -4.5071891642891835e+000
    1.8148329650808628e+004 -1.2101338589789130e+000
    2.0526742320393107e+004 -1.1540245906910696e+000
    1.6051390846550335e+004 -1.4638057838474916e+000
    4.2085084666274361e+003 -4.5601414441691972e+000
    1.3278578763996751e+004 -1.2065990406176903e+000
    2.0753128065936166e+004 -1.6755103120590777e+000
    7.0747746497599073e+004 -4.3937242555973627e-001
    1.5990761317259463e+004 -1.6046270244709677e+000
    1.9807725152277020e+004 -1.6056573356553787e+000
    1.8796458971469394e+004 -1.4253798389688872e+000
    1.3887348040538907e+004 -1.4525660313722675e+000
    4.1848029286840301e+003 -4.0748543943243112e+000
    4.7843595910276063e+003 -3.9862105213600918e+000
    7.0747746497599037e+003 -3.8225401023697034e+000
    1.6530669634116632e+004 -1.7776773144632065e+000
    6.1422684307137333e+003 -3.7122078791052240e+000
    1.8943619807327053e+004 -1.4303474122767388e+000
    2.1322956947392504e+004 -1.0036366401203245e+000
    1.5140993088565363e+004 -1.4253234641878372e+000
    6.3359262911981768e+003 -3.1292565239962244e+000
    4.8414337123473524e+003 -4.8883070682506666e+000
    5.8697414770263094e+003 -3.6530238094953682e+000
    1.7776880371451189e+004 -1.6444041764572372e+000
    3.8674558155793793e+003 -2.7140883964760634e+000
    4.5201349610776442e+003 -4.8283642362754930e+000
    5.4708598019571518e+003 -2.8253955593001780e+000
    5.2378660989606342e+003 -4.7509882767939038e+000
    1.2099747712899898e+003 -5.0184579221509242e+000
    8.5216178611996600e+002 -9.7581156273822103e+000
    3.1580575999520704e+002 -7.9403051330763805e+000
    3.1462051824742175e+003 -3.4450730039566242e+000
    1.2639598226945176e+002 -5.1603147664646976e+000
    7.3783645441023127e+003 -4.1602151750742067e+000
    5.4997962159519602e+003 -3.1998762648186312e+000
    4.5889073449707594e+003 -3.5623737577312666e+000
    4.3304408604206196e+002 -5.6116052197541553e+000
    4.0495278007776542e+003 -3.2707226116395769e+000
    4.3454473170766732e+003 -4.4429130431634318e+000
    1.6505630446397423e+004 -1.2948216270035811e+000
    3.8552521822429803e+003 -4.6335408689060253e+000
    6.7433368935860353e+003 -4.0622512248921518e+000
    6.3945857456648628e+003 -3.7831849719528590e+000
    5.4337677598918390e+003 -4.7635028124993761e+000
    1.1530547618148025e+003 -7.8834425303912417e+000
    3.9217213366518563e+003 -5.2248939689231548e+000
    5.7347495230051954e+003 -3.3721912817491173e+000
    1.2750737339501113e+004 -1.8546497112669329e+000
    5.7256832086316836e+003 -3.0711602808623422e+000
    2.4183499320218441e+004 -1.5414176941611359e+000
    3.1296469169397889e+004 -8.6952256160506014e-001
    1.2862260311571919e+004 -1.2780783085929939e+000
    7.2094257480222304e+003 -2.2693085328436009e+000
    4.8971460825204667e+003 -4.2290464353126875e+000
    8.4728189412177344e+003 -4.1735705956775053e+000
    1.7433001074937827e+004 -1.3333820369051477e+000
    6.1266808151565738e+003 -3.0719716225856506e+000
    6.1187598732075330e+003 -3.5700000000000176e+000
    7.2052257909223636e+003 -2.5553119080166420e+000
    4.7761553653251776e+003 -4.0667994341879528e+000
    1.9892728661037913e+003 -4.8974639575114596e+000
    2.8848461759006346e+002 -6.5685983368870122e+000
    1.8657170631982234e+002 -6.8033804949240508e+000
    3.8085116380721788e+003 -4.7006059955533601e+000
    5.0284703658452759e+002 -8.9856923360488619e+000
    7.1144907727470099e+003 -3.9160884589594240e+000
    6.1040303078561183e+003 -3.1623689239108166e+000
    4.9847536071912764e+003 -4.0831124896740718e+000
    1.0094235070053643e+003 -6.9750122508476586e+000
    3.7042951527262117e+003 -4.6567340742805836e+000
    3.6316599367573504e+003 -5.8177687566900911e+000
    1.6319072126714933e+004 -1.9149458435666846e+000
    4.7648577353792198e+003 -5.0228040550995665e+000
    5.2615776123870210e+003 -4.4577690079878005e+000
    4.6957704665542424e+003 -4.3989560837834230e+000
    2.8391144095666159e+003 -4.4915354720557596e+000
    1.0490114106428048e+003 -7.9363852385367109e+000
    1.8311480684002120e+002 -6.8532334979498826e+000
    6.6543091973654714e+002 -7.4438964231183675e+000
    3.6739509579572541e+003 -5.9047313172501914e+000
    1.2082507217674624e+003 -6.6893784982682369e+000
    6.7159202087645399e+003 -3.3718118227949958e+000
    1.1343335974015990e+004 -2.4137282299373486e+000
    4.2587782387260104e+003 -3.9032791746025386e+000
    1.8818628594482198e+003 -4.4589504573634233e+000
    5.4721247556202502e+002 -9.5067922640329989e+000
    1.2407667445566526e+003 -6.7262374877453350e+000
    4.3677627149316058e+003 -4.2729945009476644e+000
    1.4556466550693956e+003 -6.3181206489751780e+000
    1.2541048016768332e+003 -8.6112152230005101e+000
    2.0031551596784968e+003 -4.8393203395112838e+000
    9.1273471496857496e+002 -6.7964781778897239e+000
    3.8222545395244543e+002 -5.8959604917853623e+000</input_scale>
  <output_scale>
    1.0526315789473684e+000 0.</output_scale>
  <inv_output_scale>
    9.4999999999999996e-001 0.</inv_output_scale>
  <weights>
    <_>
      1.5625596565799690e-002 1.9330909131406948e-002
      -1.6259054907068970e-002 2.9403989036055535e-002
      3.2494639523486704e-002 -4.4149176977624952e-002
      -1.2515624695948887e-002 -1.3073837033893747e-002
      1.3908920281462022e-002 -1.5247024159847390e-002
      -1.9750111065210112e-002 2.0903646979952423e-002
      2.0948832203669384e-002 2.4111011283760572e-002
      -1.7749583747088290e-002 2.7681423417859126e-002
      2.2617972681557571e-002 -3.9809449355580971e-002
      -1.3724746638858847e-002 1.4027906691072799e-003
      5.3300449667077251e-003 -1.2870108591667798e-002
      -1.0447684783770124e-003 6.2247118781343126e-003
      1.6125133588458802e-002 2.2439990965281501e-002
      -1.3732286007215985e-002 2.0027402932249385e-002
      2.7751421245847965e-002 -4.5553577733251943e-002
      2.7618451312317712e-002 2.4504676248511121e-002
      -2.1079420666304530e-002 3.5873538484311983e-002
      3.3099652919778011e-002 -6.0721549424937488e-002
      5.5924805459427645e-003 -4.6239947271395750e-004
      -5.0526007919465656e-003 -2.6567777718692416e-004
      6.7546873468981453e-003 3.0479818186775723e-003
      -4.6666547370781394e-002 -3.9151273059235596e-002
      2.1023932769710117e-002 -3.9159464455423468e-002
      -4.9655395003327288e-002 6.8398875184883773e-002
      7.7551892157865588e-003 4.4262219424792892e-003
      -1.5540578669806725e-003 1.8710655688588304e-002
      1.0040766046438349e-002 -2.5984402310127226e-002
      1.7452058120805743e-002 6.7018588138318628e-003
      -7.0971707840817621e-003 8.5950567346772810e-003
      1.5478686100282421e-002 -2.4756680584948908e-002
      1.5148100558058042e-002 1.5513638771070252e-004
      1.5886678223904810e-003 5.2187725785634957e-003
      1.6787858645270454e-002 -2.6266425885969218e-002
      -6.5132086013171622e-003 -1.1549084259668328e-002
      2.3425066411088524e-004 -1.0098426430424615e-002
      -1.5212171853111814e-002 9.3369990798266838e-003
      -2.1959436856247752e-002 -1.1433196032823124e-002
      2.5903244175352769e-003 -1.7670501477733906e-002
      -1.9014533792478538e-002 3.0209647813838128e-002
      2.2624560938269075e-002 2.1080560129931918e-002
      -1.8192216526136645e-002 2.8658395651221066e-002
      3.7008882336779098e-002 -4.5365289685384017e-002
      -1.1413916943383139e-002 -2.7210690733762231e-003
      6.8257525919109916e-003 -3.6150524743984781e-003
      -6.9735528109573248e-003 1.8858364897328613e-002
      -1.8254890970321066e-002 -9.9682030559117875e-003
      5.8736698107076501e-003 -1.6173433718988089e-002
      -1.0990208147120838e-002 2.2406281906176655e-002
      -2.7173256512872671e-002 -2.4262005147122109e-002
      7.1455537367817691e-003 -2.1535407008587724e-002
      -3.1173642747230317e-002 2.9335313415881737e-002
      -1.9464272515972835e-002 -1.2864456356214866e-002
      1.2771433209652383e-002 -2.3501880757787412e-002
      -1.8494276269460527e-002 2.5601134643152251e-002
      1.6113256441819560e-002 1.3283447528196764e-002
      -3.3393278883871078e-003 1.8280192065334985e-002
      2.7845032857767474e-002 -3.1344466057259782e-002
      3.2688979141804460e-003 8.4282156959472870e-003
      1.2817538986192385e-003 5.2389458600672865e-003
      1.0715844433265141e-002 -1.7138576546392295e-002
      3.1888202782289855e-002 2.7125480523347303e-002
      -1.2491623338035853e-002 2.7120843137348149e-002
      3.6512448478380005e-002 -4.8435575644960052e-002
      9.0714396189457234e-003 9.1626626194009336e-003
      -1.0482677797341581e-002 1.6780004958216358e-002
      1.2337006153448647e-002 -1.9563416710440418e-002
      1.9712207760156763e-002 1.7811081667108430e-002
      -6.3640764757565563e-003 1.7573606179385408e-002
      1.9829845914012906e-002 -4.0783464746988921e-002
      3.4318027048444590e-002 2.6648331025306726e-002
      -3.0216505068971711e-002 4.1773746967858010e-002
      4.7017577991742138e-002 -7.2485589829202432e-002
      -3.2061474893725274e-002 -2.9747901069404056e-002
      2.2607632650481515e-002 -2.9683446958450127e-002
      -3.4136094359313050e-002 5.9771356674020809e-002
      -4.3903394782333967e-002 -3.4603780674487335e-002
      2.4813059495409576e-002 -3.5062427590050071e-002
      -4.7605014054490878e-002 6.7190644549430426e-002
      1.0395754592680872e-003 1.9494895488481325e-003
      -9.6091072782938103e-003 1.2528093680288391e-003
      1.3374605844510525e-002 -1.2364896095796741e-002
      -6.7988559111453600e-003 -4.8110323896438561e-003
      -6.1674608719172156e-004 3.4243999138105894e-004
      3.8907281864878581e-003 5.2370257369546260e-003
      -3.5918537553599410e-002 -3.2616986704959189e-002
      2.3173554373311683e-002 -3.5139505335521438e-002
      -4.2142508865365760e-002 6.8787517154169600e-002
      7.0699491828017172e-003 1.0952115355638271e-002
      -1.3626720838398425e-002 1.3956584198313721e-002
      1.8188918261445180e-002 -2.6566655149342054e-002
      -3.0611153756830965e-002 -2.4238511409344569e-002
      1.5200422772620931e-002 -2.8452298284928467e-002
      -2.3008901711088527e-002 3.7172230553150977e-002
      8.0807171515885033e-003 6.9749045929758634e-003
      -3.0329812740861489e-003 8.4266940261445746e-003
      5.2557561961859229e-003 -3.8584821840220774e-003
      -4.0377168872845022e-003 -8.5008055749367104e-004
      -2.1773877329700080e-004 -2.8078897846981377e-003
      -2.7441728345172037e-004 7.1581087739821022e-003
      -1.9090729099564371e-002 -1.8127438849648823e-002
      7.9439503314842862e-003 -1.7923819747139334e-002
      -2.3079508587053339e-002 3.9381713916681015e-002
      2.9665174931658477e-003 5.1767517403328639e-003
      -4.1583693377137904e-003 -1.3003086468671907e-003
      2.3458830578844971e-003 -1.0821578672406591e-002
      -2.4331521270360871e-002 -1.3420059098724258e-002
      9.0906364968982960e-003 -1.1445203768014328e-002
      -2.2988340054044983e-002 3.3365481438376692e-002
      -1.5850417388933793e-002 -1.1641623524025202e-002
      1.4430708510654904e-002 -1.5877593868279697e-002
      -1.6189987923940250e-002 2.8160918426357578e-002
      -6.2521560537363661e-003 -1.2050794945638583e-002
      7.1178015137696388e-003 -1.3527768933677780e-002
      -2.0464283486112726e-002 1.5857107614995525e-002
      -1.0611866529858301e-002 -5.8432129094792701e-003
      5.0399689223384154e-003 -1.0199643471855396e-002
      -8.4218316536257883e-003 1.7291490432107141e-002
      -9.4886270253698776e-003 -1.3834739337813203e-002
      8.3882915023603052e-003 -7.1716813005080638e-003
      -2.3005396106252327e-002 1.6686745499048795e-002
      -1.6685228348216959e-003 6.5666213956788837e-003
      -8.6346561607606297e-003 7.4323991804335415e-003
      1.0486195505953809e-003 -1.3577664989924760e-002
      -1.5997083848099308e-002 -1.5464196711717232e-002
      7.8755773879073468e-003 -1.4435533315650140e-002
      -1.1181583915385422e-002 2.2138594925435826e-002
      1.5876902990405208e-002 7.8600117302422574e-003
      -6.5998939830042820e-003 9.6417647145254724e-003
      1.4031822934234654e-002 -3.0250590717041160e-002
      -2.0760015491817644e-003 -6.3976477092715488e-003
      1.1087876453219387e-002 -5.8797580903619494e-003
      -1.0362867550883489e-002 7.9458044686993752e-003
      1.5289609206782420e-003 6.5279037485231782e-003
      -7.4109830560141346e-003 3.1209138573177792e-003
      1.5314358441215970e-002 -1.8405052038711796e-002
      -3.6635668387271928e-003 -5.0685341964668562e-003
      -9.6743832521748601e-004 -4.3352896302572405e-003
      -1.3192300683790837e-002 1.5202454541991060e-002
      -1.1478580157966390e-002 -1.1769568458394912e-003
      3.9127619093334634e-003 -4.2283063186265967e-003
      -3.6029639116128814e-003 7.9831667608880452e-003
      -4.2326200780669815e-002 -3.3979985955788578e-002
      2.1486381181415021e-002 -4.1782968238728631e-002
      -4.7771752972994366e-002 6.6600440203761796e-002
      -3.9921939429921303e-002 -3.7376516171401544e-002
      2.5225448612525240e-002 -4.7727773675458843e-002
      -4.6112701474618482e-002 8.1659179437561596e-002
      -3.9180807545786178e-002 -2.9798246606774277e-002
      2.5948722742088679e-002 -4.7514244894229535e-002
      -5.0078162202793909e-002 6.8776225413740080e-002
      -3.6821315859385481e-003 3.7588962349407555e-003
      6.5846286686801680e-003 2.2405839511450902e-003
      -4.4966174387374106e-003 -4.2765167831618203e-003
      -7.4261307913844389e-004 -4.6728049402751781e-003
      8.1492621880856191e-003 -1.0834388932027974e-002
      -5.4227178653037944e-003 3.7232807932562721e-003
      -1.0148112849014542e-002 -2.6303358720044163e-003
      1.1567606635013728e-002 -5.8444985540611356e-003
      -1.7470470326165173e-002 1.3509359735258557e-002
      2.0332588569017082e-002 2.0127756099996747e-002
      -1.2716932567693054e-002 2.1678804120647363e-002
      2.0972723416247212e-002 -2.3052284960820603e-002
      -1.8575381309969916e-002 -4.0409297545203841e-003
      3.9776546472742935e-004 -1.7461906185195369e-002
      -9.9747428109831626e-003 2.4927402658076594e-002
      2.2981679663813714e-002 2.7210809545690971e-002
      -1.1120366687435157e-002 2.7610412829783472e-002
      3.2994530962442987e-002 -4.1457534531773747e-002
      2.1046837817319052e-002 2.0562515748563923e-002
      -1.8376633541128805e-002 1.9746010730803749e-002
      2.8373584819789483e-002 -3.7419541108067791e-002
      -2.3479572303457312e-002 -2.0973123529677416e-002
      1.5702212395448639e-002 -2.2141026810273589e-002
      -1.9232006195176028e-002 3.1663103633595625e-002
      -7.1516748561143368e-003 -2.0008124169222734e-003
      6.5274414515626867e-003 -7.1061828667059743e-003
      -1.7157658004092125e-002 2.4706996477570034e-002
      3.2123157762393217e-002 2.8938270653669319e-002
      -1.1098274285470663e-002 3.0046014078984391e-002
      3.6898134006948663e-002 -5.0702411690999760e-002
      3.7032063495097529e-002 1.9856117479655076e-002
      -1.7520725179792342e-002 3.2241321329629841e-002
      3.8184281239602921e-002 -5.4012615904053249e-002
      7.7373206043655643e-004 9.7591746934763066e-003
      3.2172584979464703e-003 9.6660167989550967e-004
      6.1379601733688970e-003 -9.7575232066687227e-003
      -1.1107559847442000e-002 -4.5716892533542580e-003
      3.6807768545945897e-003 -1.3910201507757238e-002
      -2.4970439771466262e-003 2.2687395905172117e-002
      2.8260580639703869e-003 3.3809377282787130e-003
      -4.1850765286128178e-003 -2.8523313952036216e-003
      3.9213331151455129e-003 -8.2857005936212043e-003
      4.8721607720678458e-003 7.9102875150923388e-003
      -4.6177032928036432e-003 5.9590679838450169e-003
      1.5602645907792197e-002 -1.3798981545731004e-002
      1.0792401337913749e-002 1.6087620574069168e-002
      -2.7067833970238742e-003 1.8978059408643010e-002
      2.1093664277499372e-002 -2.1685978440289983e-002
      2.7558805995870263e-002 1.7893261791773172e-002
      -8.1927219654175567e-003 1.6753382343154207e-002
      3.2003654344197885e-002 -3.7655826474358327e-002
      3.7507443435208732e-002 2.6716853813370946e-002
      -3.0324299889093728e-002 3.6538297146055859e-002
      5.3028867361155856e-002 -7.7719071024754185e-002
      2.7004603476318646e-002 1.1922071826393538e-002
      -1.9237187489020501e-002 2.0393251311542716e-002
      2.2646000469332118e-002 -4.3367803193971120e-002
      -1.6516910146856825e-002 -8.6713848795831310e-003
      6.8275456782431534e-003 -1.7392937808468172e-002
      -1.4714843623249469e-002 1.1947721175089817e-002
      4.6596210472075225e-002 4.1937287101750216e-002
      -2.8276524608309563e-002 4.3983606754864520e-002
      5.0799338201515165e-002 -8.9951035077382155e-002
      2.5163118824864002e-002 1.9757006805238092e-002
      -1.2208746952917718e-002 2.7307706228806572e-002
      3.7870852222190762e-002 -5.3156923738083540e-002
      9.6478855503876106e-003 4.1544429713565771e-003
      1.5550169460292801e-003 1.7904919183925909e-003
      1.1551323646958508e-002 -2.8210350572622951e-003
      6.5904510008701275e-003 4.5186999012361683e-003
      -5.2082929592783536e-003 1.4022608689318870e-002
      1.3319480556661453e-002 -1.1691186162719363e-002
      5.0142728297167954e-003 8.6860432613895366e-004
      2.9280036662956404e-003 5.6157809014220584e-003
      4.6270455662592155e-003 -2.2309809078815298e-002
      -1.8735150141356852e-002 -1.6137287599714879e-002
      5.0624807751501102e-003 -1.9771728608693289e-002
      -2.0557699522942067e-002 3.7435887896051810e-002
      -1.6921285798160639e-002 -1.2670054713467046e-002
      1.6981734752353539e-002 -1.5514665470521095e-002
      -1.4152677559718241e-002 2.5183561356602310e-002
      -2.0690687984160839e-002 -9.7108506848296063e-003
      1.0221089580095259e-002 -9.4460932535480411e-003
      -1.7082390190245902e-002 2.8921038220835821e-002
      2.6713354719014065e-002 1.9393620989401342e-002
      -1.2276916782357764e-002 1.9321661494666343e-002
      3.4030089885777638e-002 -3.6982951210942971e-002
      4.9219575177882561e-003 8.8762185248053883e-003
      -6.4392747956124726e-003 6.7883191680309088e-003
      1.0464337476630062e-003 -6.0400517055743475e-003
      9.9288952188350994e-003 1.6994946948625016e-002
      -3.6689767973155625e-003 1.8902653016416613e-002
      1.0881199434079183e-002 -3.5254224500579023e-002
      6.5877161151637487e-003 1.4606003140074195e-002
      -1.0711008119539978e-002 1.1968312078282400e-002
      1.0660603047354982e-002 -2.4254752369321161e-002
      8.6216804286532896e-003 1.3967895375879343e-003
      -6.5917310017811232e-004 5.1316875025034531e-003
      1.2300815035559680e-002 -1.9074116479462239e-002
      -1.3362631787389428e-002 -8.5993536792736084e-003
      4.9516246940180930e-003 -1.6185791235618849e-002
      -8.2823505704958250e-003 1.0870752182316855e-002
      -6.1250705980133140e-003 3.4616332023723073e-003
      -8.2579830251711854e-004 3.7450010532595465e-003
      2.1971064617149708e-003 1.1337698188369364e-003
      -2.6780077168259506e-002 -1.2158388995097255e-002
      1.5792456051888420e-002 -1.9046916159342571e-002
      -2.1265708130442030e-002 4.0521999668235706e-002
      1.7023787071349657e-002 1.0351267528303008e-002
      -8.2678264560110595e-003 4.3237835597315279e-003
      4.9848277474154341e-003 -2.5580521292522015e-002
      2.0345532612195731e-002 1.6286835742175446e-002
      -1.8430219092318761e-002 1.7566656765822409e-002
      2.7076285960452983e-002 -2.6723313807648585e-002
      -1.6923450947334079e-002 -9.8031409923448731e-003
      1.2553145117625066e-002 -1.9080052671409969e-002
      -1.7567746171926014e-002 1.9651047105020875e-002
      1.8378944563537728e-002 2.4301389999377750e-002
      -6.8811948361768059e-003 1.9767534334389911e-002
      2.0252207682577086e-002 -3.7711299232246094e-002
      3.4552203940846423e-003 6.3789885802967045e-004
      -3.0190516023405564e-003 1.2410925194267026e-002
      1.2539901420255926e-002 -2.0707916737795443e-002
      -1.3197930307070410e-003 -3.8897790934911189e-004
      5.6718772417290297e-003 2.9267478874958515e-003
      -7.9260745269658199e-003 9.5975666628373407e-003
      -1.9757978463135435e-002 -1.8180509723037697e-002
      1.0831833008961051e-002 -1.1062357997302244e-002
      -2.0478740676544975e-002 2.2453130586037585e-002
      1.7273577769546144e-002 9.5580720545014788e-003
      -1.2549394619426403e-002 1.7116587905442977e-002
      2.7998732573755118e-002 -3.3097669336343664e-002
      3.0027205906052404e-002 2.5557000056822245e-002
      -2.5248109410518010e-002 2.5504934445925314e-002
      3.6631458127855329e-002 -5.4336069643568380e-002
      -3.6492703465359447e-002 -2.0274560243704335e-002
      2.7491132740640852e-002 -3.3516076250540212e-002
      -3.7445852044084599e-002 5.3822859131780136e-002
      -3.0389696178300275e-002 -1.5645900395320329e-002
      7.8300442250943958e-003 -2.3230487127851626e-002
      -2.3875443953467010e-002 4.3561322201816202e-002
      1.1703677447676857e-002 1.3576361209041087e-002
      -1.2226142246882852e-002 4.8105657681539312e-003
      1.5046314235268690e-002 -1.3880620954783290e-002
      -2.0121601730099966e-002 -1.2575176229459563e-002
      2.0246037743605495e-002 -2.5721558506401485e-002
      -2.0764224066493944e-002 3.9218864659240057e-002
      -1.0578274253083287e-002 -1.4742074899904803e-002
      1.4333875940194975e-002 -5.2025065699278696e-003
      -6.9198153950440844e-003 2.4816374990443455e-002
      2.7673296715936473e-002 1.4173778729775773e-002
      -1.0870178638521872e-002 1.5798184669461621e-002
      2.3188186031444524e-002 -3.3992415791260965e-002
      -9.3191239120797402e-003 -1.4323450498666210e-002
      2.1906387620560727e-003 -2.0272191970253407e-002
      -2.2323996606296387e-002 3.0003316743324515e-002
      9.8421546010580858e-003 3.0590685908492487e-003
      -2.2581687731269024e-003 6.7388724670011217e-003
      1.3165210701676724e-002 -1.1125030666473997e-002
      3.1002879233102488e-003 3.5342734741183254e-003
      6.0369007541912411e-004 2.7520137318711916e-004
      5.3549442679533925e-003 -6.7220427506984818e-003
      -2.5135869705834805e-002 -1.4637449637373009e-002
      1.5166900173006811e-002 -2.4399026663475216e-002
      -1.7907093449811458e-002 3.2790785778694653e-002
      -2.4484874915043149e-002 -1.7485730165230577e-002
      1.3647975448890778e-002 -8.9116757828888171e-003
      -1.7465963641888464e-002 2.3612127031375878e-002
      2.6372552383786274e-002 1.8716682552161835e-002
      -1.6855743294262055e-002 2.2346459025645367e-002
      3.2594775864195659e-002 -5.4141608213150359e-002
      1.2582573986947296e-002 1.3621176125961684e-002
      -1.3793388909002995e-002 4.0325803918327928e-003
      1.0182298260864361e-002 -1.1123322244241604e-002
      -2.6853183101582630e-002 -2.9108733481056057e-002
      1.1985790769540934e-002 -2.1496503082686382e-002
      -3.0200738772765752e-002 4.7897916587064611e-002
      -1.7385766665198765e-002 -2.0792973263349761e-002
      1.0710682645159534e-002 -1.7652545691734994e-002
      -2.5408023907610482e-002 4.1587944042243592e-002
      4.0328296201090144e-003 -1.6311734374569538e-003
      -4.7285698921433403e-003 -7.1090454244709218e-004
      -8.3125022036329953e-003 8.6580975757884118e-003
      -2.7141614347318523e-002 -2.3558054049500343e-002
      1.6697257012678209e-002 -2.5274739621762004e-002
      -3.7835433883051960e-002 5.0671055291360033e-002
      -3.6001410147320410e-002 -3.1631206667743703e-002
      1.2765139513226918e-002 -3.4965736389987026e-002
      -4.3055062650878849e-002 6.7546755184325180e-002
      -2.2635995919885389e-002 -2.1649981513552338e-002
      1.5154392528534070e-002 -1.9558098521428903e-002
      -2.5463742734327038e-002 4.2781235079862992e-002
      3.7444832179100319e-003 6.8513559822669622e-003
      5.0928318449514134e-003 -4.2760827741964340e-003
      8.3148706596251065e-003 -7.7384512356853665e-003
      9.8682552924052097e-004 1.1255176730074438e-003
      -1.8989640408342029e-003 9.5789669718187379e-003
      -1.9247248917556542e-003 -1.2162538990738830e-002
      -5.3333433208852307e-003 -1.4412924305834838e-003
      1.2681364899293088e-002 -3.0109384686325545e-003
      -1.0176441179027189e-002 1.6196623545102994e-002
      2.1217467011701921e-002 1.5883608536103579e-002
      -9.1123990576078787e-003 1.0591991001953197e-002
      1.4365001948027672e-002 -3.0145945876587487e-002
      9.4083237196720629e-003 1.0165286171819306e-002
      -5.4667374663136285e-003 9.1868545382490664e-003
      1.0977504578510525e-002 -2.5522841685512217e-002
      -1.3998652631810880e-002 -1.5420949325754971e-002
      1.1154154938950084e-002 -2.0308871028739350e-002
      -2.7003506478506627e-002 3.1267998840781436e-002
      1.2259898198475002e-002 9.2739568796022034e-003
      1.0955295468085147e-003 3.0079242680224601e-003
      1.1510912978735929e-002 -7.4897182355064904e-003
      -1.3726502396536630e-002 -1.4976770471140956e-002
      1.1547841772313664e-002 -7.3088848471184638e-003
      -1.4178026455396238e-002 1.8892576324759932e-002
      -2.5973159652712699e-002 -2.8525061021377970e-002
      2.1814381607281930e-002 -3.2002567361361367e-002
      -3.4402646581274308e-002 6.0127781827060869e-002
      -2.0345258323247902e-002 -1.7466054616524705e-002
      1.9111506542238213e-002 -3.1294356939176787e-002
      -2.5190576605672116e-002 5.6084761782582385e-002
      1.0387242701910377e-002 1.5294117629764015e-002
      -7.1235156598020754e-003 1.1636847432205470e-002
      2.0562181930599339e-002 -2.4241599841381505e-002
      -2.3610675102666144e-002 -1.0162641804510498e-002
      1.8152478414833598e-002 -1.9465002289579158e-002
      -1.9998243563431509e-002 3.8722995275827898e-002
      -1.9013459366323388e-002 -2.1292664243325647e-002
      3.2480942130792348e-003 -2.2113678900801424e-002
      -2.2486721413998028e-002 3.5052058654405131e-002
      -1.1253449777900566e-002 -1.3579502582893775e-002
      1.2880268664313530e-002 -1.6890782483946386e-002
      -7.1400025995955203e-003 1.7937796283082143e-002
      5.2303772691827271e-004 -3.5994452157352371e-003
      -3.3105360197959563e-003 -1.3523622484141167e-003
      1.9138917817968825e-003 6.4410629474405887e-003
      -3.2663946911348551e-002 -2.3350040603837392e-002
      2.5417156704056778e-002 -3.6144249429930504e-002
      -3.6352551473025581e-002 6.3136348626164310e-002
      3.5612070197401577e-002 2.5736133960704888e-002
      -1.4783030398764215e-002 3.2632537131696525e-002
      4.5387069248917909e-002 -6.1004085691934211e-002
      2.4657772467971111e-002 1.5986809567516191e-002
      -1.9916197449633695e-002 2.3918557417418464e-002
      1.9514770847394624e-002 -3.3412636413944083e-002
      6.4976559692127792e-003 3.3003212412697860e-003
      6.6433640323978367e-003 6.4589141899816533e-003
      -6.2513496809598092e-003 -1.3389447591237454e-002
      2.8071815210259497e-002 2.7119291413700213e-002
      -2.3678622196358863e-002 2.7926975183045304e-002
      2.4735857309080473e-002 -4.7222305374775564e-002
      5.8468495803995976e-003 2.4793044370556680e-003
      3.4963251101599417e-003 7.6979406840537220e-003
      1.1558820511720629e-002 -1.0478287432263212e-002
      2.8919857626814503e-002 1.0311322949649305e-002
      -1.0011286768426362e-002 1.9783210303403721e-002
      1.8892484851652264e-002 -3.4903219515929965e-002
      -7.4561079459517109e-004 4.9813894741674698e-005
      9.2209051606756531e-003 -2.2761395757110404e-003
      -5.1897381605707396e-004 5.5158024283531075e-003
      -3.8445411655744356e-003 -1.1896072119027535e-002
      8.8380596945817676e-003 -1.8825968848694187e-003
      -1.1866772517669011e-002 8.1371327368549105e-003
      6.2802957172250796e-003 3.5594917125627624e-003
      -3.8430302085353633e-003 -3.2311486947122890e-004
      -5.1654983056639370e-003 -1.0921282034752715e-003
      6.7066431864968327e-003 3.3036484153799251e-003
      -1.2595661151034367e-002 8.1639589638301605e-003
      1.9175299574631391e-002 -2.4086317542001801e-002
      1.0951943954618940e-002 1.2206343956433614e-002
      2.2120440071223112e-003 6.4759810020891427e-003
      7.3557467549395317e-003 -2.0083688153641040e-002
      1.7040101201719466e-002 1.1435271121371047e-002
      -3.6339205250753050e-003 7.6729386164074440e-003
      1.3794504291951433e-002 -2.2216091848891947e-002
      -3.5417531054680075e-002 -2.1724352625535601e-002
      1.4066051202424329e-002 -2.7524600342078820e-002
      -3.4691427903483320e-002 4.8194104552452023e-002
      4.3604112932679531e-003 4.7678147237434042e-003
      4.4511277241774840e-005 4.6546470013692776e-003
      -5.9730319509445802e-003 -6.0529983180039127e-003
      -2.1031625052971034e-005 3.4108605987191471e-003
      4.5699110845935989e-003 -1.1962576459341893e-002
      -5.0987419273330814e-003 2.9018770356537445e-003
      -1.5541044757843184e-002 -2.7320181339122959e-003
      4.6269947318670272e-004 -4.4672030793622714e-003
      -1.4724491159400973e-002 1.5152234103192667e-002
      1.9322251332433590e-002 1.0926836821874250e-002
      -1.0391380476388693e-002 2.2018971945814234e-002
      2.4702546148648443e-002 -3.4917777767135262e-002
      5.0529707712810200e-002 3.3185430058834342e-002
      -2.3414696181783191e-002 4.6691440860152887e-002
      5.7361123617414321e-002 -7.6775450805014092e-002
      1.2021843278359071e-003 1.4492695415787786e-003
      5.2052777116063861e-003 -3.6867084020033194e-003
      6.4259972240522023e-003 -2.6426817370796404e-003
      -1.2225439274150020e-002 -1.5605390041213562e-002
      1.5532885760495553e-002 -1.8875509349831381e-002
      -2.2007359579587923e-002 2.8305911126816269e-002
      3.6327021396539066e-002 2.5949692209893183e-002
      -2.3826604839053817e-002 3.4355043727656291e-002
      2.6941838573932942e-002 -4.9359396066394473e-002
      2.4143185685680298e-003 -4.7701806541174214e-003
      -1.8275155860990567e-003 -5.4358179249835818e-003
      -5.9872000119160253e-003 -3.5436468084449040e-003
      1.6477428165679479e-002 1.1467021444251008e-002
      -1.2972606018739397e-002 1.8614780435800084e-002
      2.0069749662468744e-002 -3.0251824859336654e-002
      1.0983318224672679e-002 7.5428459649106066e-003
      2.3216014451721318e-003 5.7390221998990191e-003
      1.6413153505651327e-003 -5.6046372869314283e-003
      -3.3794271335603194e-003 -5.2469837545365012e-003
      2.7755354004260534e-003 -3.1086979412995818e-003
      -8.5665301306765557e-003 1.7449491848440375e-002
      2.9609632626306209e-002 3.1295959532334862e-002
      -2.4777573624708882e-002 2.6892765637817805e-002
      3.4871507649967159e-002 -4.7339009265220458e-002
      -2.8744892526505410e-002 -1.9432204177394059e-002
      1.2447930877623024e-002 -2.2870206106243129e-002
      -3.2864924398917174e-002 3.6978211165447819e-002
      -2.2017842248004366e-002 -2.0338104135860662e-002
      7.9552379993862790e-003 -2.1082881009659556e-002
      -1.8064675204054394e-002 3.1631408934356529e-002
      -2.7448429089723142e-002 -2.9443353675640122e-002
      1.8353519427667702e-002 -2.3682148697657557e-002
      -2.9979522376594431e-002 4.9419437350741766e-002
      6.6996040648947396e-004 7.7175050995378419e-003
      1.2281086047187306e-004 6.2597771575982689e-003
      -3.6010944707945899e-003 -1.0070427226253175e-003
      -2.5194140511989330e-002 -2.4177400014730406e-002
      5.8675562488101360e-003 -2.5465846360725398e-002
      -1.6576791717502603e-002 4.0586614034690376e-002
      -2.4536595241088544e-003 -3.8471187612824317e-003
      8.4431064996814600e-003 -1.0221606939563055e-002
      -1.4418252981678481e-002 1.2872677785200804e-002
      -2.2429700715898119e-002 -1.5105619236335422e-002
      1.3459638836268684e-002 -2.0319469542531689e-002
      -1.0974192832116144e-002 2.2023411185671537e-002
      -1.4500727470186279e-002 -1.9424559458766196e-002
      1.6614791914094779e-002 -2.0527181851155957e-002
      -2.2333739129419720e-002 2.8139530422530749e-002
      7.9274660911972852e-003 -1.5036052001481158e-003
      2.6659641403480737e-003 5.3108588310275704e-003
      -5.9940247428305279e-004 -2.2503452965504456e-003
      3.1944915511982631e-003 1.1079278875881742e-002
      -3.0571919584292200e-003 5.9743987614318669e-003
      9.1387450337912599e-003 -1.2280773284343374e-002
      -3.8962613888281054e-003 -3.5847111453075954e-003
      1.4126712035132662e-003 -1.3854062405970769e-002
      -1.3454457913313340e-003 1.7127409945085440e-002
      -2.2852841875612307e-002 -2.4167271538387471e-002
      2.5153935755024469e-002 -2.3873864070814908e-002
      -3.6874111053916275e-002 3.5951887551666804e-002
      1.3852532946203824e-002 9.0013282462997942e-003
      -3.3696354316566537e-003 1.6308906630121252e-002
      1.8262677987493949e-002 -1.9601315630114250e-002
      1.7359541833071219e-002 1.8590755924735511e-002
      -7.4457485025986991e-003 1.9411386986007102e-002
      2.0291922597966687e-002 -2.7755427754195195e-002
      3.7768556662619530e-002 2.7000281754404141e-002
      -2.0290350324323199e-002 4.2556320111401535e-002
      4.3937871419635670e-002 -6.3540923496257937e-002
      3.3143442215179050e-002 1.8111277929183330e-002
      -1.0518952787934832e-002 1.9899121379044923e-002
      3.4671716584184484e-002 -4.2814926256536164e-002
      -7.5329966642310721e-005 2.5317033704019528e-003
      6.3622145316809898e-003 6.8133743946546480e-003
      4.2067128194429836e-003 1.6641216326135815e-003
      -1.2119424557565397e-002 -4.3041356514819402e-003
      -3.5419387977027109e-003 -1.1522663895958473e-002
      1.7951609298036608e-003 8.7337967489689635e-003
      1.8100598988530545e-002 1.9624757770443816e-002
      -1.5873432709209441e-002 2.6397816829260512e-002
      2.9979916640576806e-002 -3.6848682648505736e-002
      2.4460957571287946e-002 1.1308612669822856e-002
      -1.2216610760771998e-002 1.4007178358497381e-002
      1.7670908815906938e-002 -3.5291539301264947e-002
      -1.1873492509498053e-002 -1.4247528856776949e-002
      9.9336585285339802e-003 -1.5864989953676824e-002
      -6.2295436450039987e-003 1.3290510131935563e-002
      6.0088926106834344e-004 1.1781009222188067e-002
      -7.7239272057878497e-003 1.2586641431168284e-002
      8.2253618376895987e-003 -1.1363430514912088e-002
      -9.3713311069954629e-003 -6.4418689401963321e-003
      3.4225900084086684e-003 -1.2202287785314254e-002
      -1.3465899371672864e-002 2.7979937956208858e-002
      1.1130800306456505e-003 3.4168386945714799e-003
      6.3653620472412104e-003 3.0475118432340765e-003
      5.9043219479137654e-005 1.0428565602565195e-002
      -1.1124239572796207e-002 -1.8801896043654728e-002
      5.6908090742020020e-003 -1.6944790074407801e-002
      -2.0713431688908476e-002 3.1207478061680682e-002
      2.1776183417179861e-002 2.0413342866536087e-002
      -1.1697153902615645e-002 1.4723848670710544e-002
      1.8338874831900488e-002 -4.1942666453329447e-002
      8.9297833472700150e-003 5.9057673784597272e-003
      -2.7850223795763645e-003 1.2621973694632665e-002
      1.1114993734219500e-002 -1.7884633498897021e-002
      -1.4010665041465580e-002 -1.7535409425958274e-002
      1.2242744691084344e-002 -9.7337037068451603e-003
      -2.3984115983695344e-002 2.1742738052665442e-002
      3.5161420458547808e-003 -2.4293169126593209e-003
      8.7950564070723026e-004 7.0908842011105514e-003
      5.8917034518456051e-003 -5.0027869113986895e-003
      6.6595365126151445e-003 3.2838025197331967e-003
      -7.0062140878713909e-003 8.2708380522794351e-003
      -1.1752814117185423e-003 -4.1935267133309286e-003
      -2.2859591673915866e-002 -1.4676665826194377e-002
      6.5572740757510505e-003 -1.8545871356838897e-002
      -2.4314060553264277e-002 2.5871018266515292e-002
      -2.7369120849607832e-002 -2.4046817698847350e-002
      2.1442082119905000e-002 -2.3394611335623140e-002
      -3.4618207681625719e-002 4.3332830612981182e-002
      -2.0369560544020716e-002 -5.4951287618585903e-003
      7.2645398606673503e-003 -1.0553282524780353e-002
      -1.5321226631588298e-002 2.6382673118902866e-002
      -2.0592707003955164e-002 -1.5309034633046441e-002
      1.7371062196057305e-002 -1.9802448437383362e-002
      -3.2065378839999284e-002 4.6572824102072086e-002
      -3.9761548189838590e-003 -7.5806241170512916e-003
      1.2705996316092434e-002 -2.0423297270373069e-003
      -1.1664346246536020e-002 1.2277486771742903e-002
      7.9452774135230601e-003 1.2149206825876276e-002
      -5.0747721231105903e-003 7.0786161971698341e-004
      6.8441016942648531e-003 -1.6406985845720982e-002
      -5.6958715379119930e-002 -3.4852837697873292e-002
      3.0455224009636343e-002 -4.2524560045831189e-002
      -5.7485439983511223e-002 8.6722837501721467e-002
      1.2835865644475052e-003 1.2884381669329075e-002
      -1.0733432985881187e-003 1.3923899538375662e-002
      5.7515195095375702e-003 -7.8710235207037280e-003
      2.6984733385758638e-003 -1.0767312678772002e-002
      3.8597000328271873e-003 -1.0901648142786935e-002
      -4.0160931332474279e-003 3.1747430744140073e-003
      5.4074560754999411e-003 7.0256855171557907e-003
      -3.9220783743268818e-003 5.5026735240794964e-003
      -4.9463159531117906e-003 -1.8173701607376610e-003
      1.4968336872450029e-002 1.1039144020668589e-002
      -2.9032069358309897e-003 1.6318738082569145e-002
      1.1104916349059959e-002 -2.8948241919431222e-002
      4.4910369731970996e-003 -2.4711734424835491e-003
      4.3881452156718220e-003 -1.7744393678256743e-003
      4.6407646052167859e-003 -5.0186147284349151e-003
      2.1984576073977254e-002 1.8991637743706380e-002
      -1.4052546224287903e-002 2.3723063328559123e-002
      2.4543153474624570e-002 -2.6502929936762225e-002
      4.6123902287515395e-002 3.9026935025769732e-002
      -3.1696247236309531e-002 4.2343063664351643e-002
      4.8734519652503860e-002 -6.5931657482454761e-002
      2.4726757659166661e-002 1.6761450133004407e-002
      -1.7131122602664171e-002 2.1784287095393363e-002
      1.8740130425888752e-002 -2.9542432833994065e-002
      -1.5274709106187771e-002 -1.5473271468140481e-002
      1.0446807950532266e-004 -9.4192125620513774e-003
      -1.9533976273315094e-002 1.7692518437908249e-002
      4.1477784245708325e-002 2.1802896129971355e-002
      -1.8370875008965584e-002 2.7776843986686943e-002
      3.6335287371280223e-002 -6.1711510858814211e-002
      -3.5069428399480670e-002 -2.9826633351467485e-002
      2.0514601057613362e-002 -3.1238295409886822e-002
      -3.5888104938324075e-002 6.0817338301182113e-002
      1.1791201050025825e-002 1.5418714604547227e-002
      -8.6110042126298948e-003 8.6989211092333586e-003
      1.4119815887677170e-002 -2.4743249832100182e-002
      1.0805577152888561e-002 6.2763346011601145e-003
      -1.0088947601317106e-002 1.1075319263131704e-002
      1.4377420955938877e-002 -2.3050039948260312e-002
      -3.6339096272861560e-003 2.3721325424440262e-003
      2.8225326642012105e-003 3.9039569812984627e-003
      7.6870391736935293e-004 5.3063744928154863e-003
      -1.8164606294792704e-002 -1.2544014949710013e-002
      1.0359327032747005e-002 -1.1028005773440862e-002
      -1.7257983770675493e-002 2.0341536554141840e-002
      -1.4004691134993067e-002 -1.3287498383491719e-002
      9.4006320209235605e-003 -1.4848774352011795e-002
      -1.8986720906844348e-002 2.7979195658463546e-002
      4.0542801470671047e-002 3.5724102121501344e-002
      -2.6111782737110917e-002 3.7011521318375255e-002
      4.7041853944776495e-002 -6.5401386873827350e-002
      -2.1690084368208008e-002 -1.2919435286158578e-002
      1.1796753247500777e-002 -1.0782018787343046e-002
      -1.5791987902526512e-002 2.0230089218144554e-002
      -1.2095083158834690e-002 -1.7461658422093008e-002
      1.0593949070228426e-002 -1.1379534749017869e-002
      -1.0659199493760983e-002 2.3820895152339136e-002
      -3.9514443083766993e-003 -1.3135316778455520e-002
      3.2777644026761440e-003 -8.0631529735328000e-003
      -4.2842915736065381e-003 8.6246106730860639e-003
      -9.0960837535417113e-003 -1.4411652272170519e-002
      5.7797696308473990e-004 -4.7100384776574541e-003
      -7.4498983821869773e-003 2.2760617191005309e-002
      -3.1322008503340895e-002 -1.7452234437409758e-002
      1.5718914330119661e-002 -2.9268742693676408e-002
      -2.4534374544171553e-002 3.8168614503496394e-002
      3.2453337213042633e-003 1.9944562212759523e-003
      -4.9457121997240495e-003 2.3094190114930024e-003
      1.0672306413591543e-003 -3.4293043102374505e-003
      3.5660800956347216e-002 2.8765455559401288e-002
      -1.6549354803325471e-002 4.1358165405287750e-002
      4.2647475000575058e-002 -6.3381938246297648e-002
      9.7576257615471715e-003 6.5202494034973411e-003
      -1.3802810293041052e-002 1.8135441741222801e-002
      2.2843935904379456e-002 -3.0242752364411273e-002
      2.9829475251490878e-002 2.5758931627200853e-002
      -1.7201060590371513e-002 1.7994380812870595e-002
      2.8568597904124738e-002 -4.9082587230378519e-002
      1.2522463459775276e-002 3.4161477544401445e-003
      -1.6464710603165708e-003 5.7088606779760421e-003
      4.3234594066257556e-003 -1.1735562142289080e-002
      5.6641373222888541e-003 -4.2546348065584053e-003
      2.3371676748765538e-003 -4.5550149939101491e-003
      5.4804835536589394e-003 4.5610040644699333e-003
      3.3035789676091311e-002 2.8719723621903403e-002
      -1.6637862190785901e-002 2.1327417588382993e-002
      3.0288617857739814e-002 -4.6380430200593521e-002
      -3.3856439019057674e-002 -2.1200183314296486e-002
      1.8460283516152323e-002 -3.0399900407951295e-002
      -2.6706343532923366e-002 5.3813829192578252e-002
      -1.5368970276927220e-002 -2.1391649312441391e-002
      1.9560527416228327e-002 -1.6191211059646521e-002
      -2.7525005141874476e-002 2.3832239554936449e-002
      -3.1162263009739934e-002 -3.3725693051327957e-002
      1.5417557695657594e-002 -3.9037356167934412e-002
      -3.9720919960199018e-002 5.1511211533576899e-002
      -1.2093865562699908e-002 -1.3518547791468783e-002
      1.8728331719002140e-002 -2.1768474512654387e-002
      -2.7737425263767792e-002 3.4153563954650280e-002
      -4.2565951306249711e-003 -6.6546624934995377e-003
      2.7993364951199489e-003 -6.0064815685325450e-003
      -6.5620206423688821e-003 5.1599159457948046e-003
      2.4002435272477095e-002 1.7108569610529565e-002
      -1.5751965510032336e-002 2.3461587146597060e-002
      2.8702190206241856e-002 -5.9186055854626614e-002
      -1.9350699847073015e-002 -1.4590041630889420e-002
      1.1140879606777593e-002 -1.5083895478345190e-002
      -2.0691312442846339e-002 3.8835079968423510e-002
      9.0954956142831329e-004 -3.7563823110111794e-003
      -2.8113323430262751e-003 5.4571504297207217e-003
      1.3895468345086262e-003 -2.2030193441070489e-003
      -8.0344741208241786e-003 -5.5265629970781497e-003
      3.5392638861494368e-003 -1.9686635376760992e-003
      1.4952087858861964e-003 2.1284923559475614e-003
      3.3709404803877963e-002 1.6136415619699775e-002
      -1.0111694440656901e-002 2.3637509347694739e-002
      2.7677973359610853e-002 -4.0738201490754994e-002
      -2.3925925328794923e-002 -2.2349606905005245e-002
      1.3305859942569560e-002 -1.8777927554915867e-002
      -2.4131863159865565e-002 3.6400188570358566e-002
      -3.8096460241526610e-002 -2.5655731115347250e-002
      2.6747764122043743e-002 -3.9348864879752712e-002
      -4.0302049740215611e-002 5.4780289339104740e-002
      1.5851491725228949e-002 7.9797615583353731e-004
      -1.1720690266813195e-003 1.6469294755047728e-002
      8.4964832859802230e-003 -1.7155713808742853e-002
      3.0657464807240663e-003 1.0696444759802218e-003
      -1.2569690026361937e-002 7.5177026599121148e-003
      5.9262932762493047e-003 -7.5474875052919986e-003
      -4.7367494218398726e-002 -4.0725497279823254e-002
      2.4533208823849847e-002 -4.4870760539827081e-002
      -5.5138160975729822e-002 7.8318199229911567e-002
      1.3932977350918580e-002 4.3665534602861308e-003
      -4.8682819997591829e-003 1.9800388674882680e-002
      1.9894499485534185e-002 -1.8699136870190133e-002
      -1.4658192927810882e-002 -1.4675304494990387e-002
      1.5647834520576324e-002 -1.6414786256838437e-002
      -2.3851025857910609e-002 2.6570417386060249e-002
      -1.5344678016831828e-002 -1.5331211769544289e-002
      1.2291111338287385e-002 -1.5978485105099995e-002
      -2.3002837508733488e-002 3.9426132377675296e-002
      -1.3855477819729109e-002 -7.8503138066121254e-003
      1.1018706658296854e-002 -2.5966739024102111e-003
      -4.9836826684710456e-003 2.0207474163127806e-002
      -8.8348244549319253e-003 5.3977805163912939e-003
      -2.7658174467111731e-003 -6.4676550889493237e-003
      1.4709225726290617e-003 1.0273606888865300e-002
      -2.8691371276791361e-002 -2.6615532771112546e-002
      9.7050439643516281e-003 -2.6178368234905876e-002
      -2.6197678091407633e-002 5.3309067360166870e-002
      1.2536137814153416e-002 7.6923730978315091e-003
      -1.1982883268979574e-002 2.3292393084324091e-002
      1.7780930477964241e-002 -2.0130353690232618e-002
      -2.1026263381746704e-002 -2.1245613624510412e-002
      6.4926426724772768e-003 -1.8869823009638315e-002
      -1.4911028328031201e-002 3.0954977573134316e-002
      1.3830323361644623e-002 8.3093191207030473e-003
      -1.3106242083544477e-002 1.4400209961940772e-002
      7.0470440274442610e-003 -2.2012810116510208e-002
      -5.1438048775458219e-002 -4.7367034853772069e-002
      2.7951434660644595e-002 -4.7855136427289613e-002
      -5.1663413273839352e-002 8.2220913840856488e-002
      2.1994950346747033e-002 1.1532847439229022e-002
      -1.7254877781008194e-002 2.0239772085393161e-002
      2.1843831138109851e-002 -3.4778430226041684e-002
      8.7034721883602964e-003 4.0813711357730494e-003
      -3.9984951599676471e-003 -1.5135143591549383e-003
      -2.5766286509345350e-004 -3.8637533895839176e-007
      2.2705166182665003e-002 1.9196549625261166e-002
      -1.0326860933119847e-002 1.1168695786050646e-002
      1.5531342506908427e-002 -3.1712677846526288e-002
      -1.3298569428547670e-004 -4.7733629899792129e-003
      -6.1125076251990103e-003 -6.1869858322527883e-003
      6.8889427182424641e-003 -1.9459393663480500e-003
      -4.0526924675702625e-002 -2.1359654664880490e-002
      2.5695217706177331e-002 -3.5886824462243477e-002
      -3.9631025785883622e-002 4.7631211742567514e-002
      -1.0100149087377708e-002 -1.4699318320545844e-003
      3.0093091627304545e-003 -9.0717872653723278e-003
      -3.5802571293280538e-003 1.5306742081192832e-002
      2.1756990052540150e-002 1.4852163451113563e-002
      -1.7547639615609796e-002 2.2189901616991026e-002
      1.3302953364956974e-002 -2.6806774569340198e-002
      -3.4875715872540229e-002 -2.0123286116083168e-002
      2.3455470051617161e-002 -3.0288965423380790e-002
      -3.5504307447241486e-002 4.2533911422440500e-002
      8.2010512730492889e-003 9.5493544900665042e-003
      -3.9661734937868016e-004 1.1011133774124023e-002
      7.9176283012528208e-003 -1.3221878653630757e-002
      -2.4084045071265073e-001 -1.7741123470603817e-001
      1.4091300900568257e-001 -2.1840691906201626e-001
      -2.5788499096393686e-001 3.7314244960450049e-001</_>
    <_>
      5.7885107893476428e-001 4.5702971850453122e-001
      -3.4254440301170247e-001 5.4138455097510896e-001
      6.4738239274258835e-001 -9.6487218698460309e-001
      -4.5396767744811517e-001</_></weights></opencv_ml_ann_mlp>
</opencv_storage>
