<?xml version="1.0"?>
<opencv_storage>
<opencv_ml_ann_mlp>
  <format>3</format>
  <layer_sizes>
    256 6 1</layer_sizes>
  <activation_function>SIGMOID_SYM</activation_function>
  <f_param1>6.6666666666666663e-001</f_param1>
  <f_param2>1.7159000000000000e+000</f_param2>
  <min_val>-9.4999999999999996e-001</min_val>
  <max_val>9.4999999999999996e-001</max_val>
  <min_val1>-9.7999999999999998e-001</min_val1>
  <max_val1>9.7999999999999998e-001</max_val1>
  <training_params>
    <train_method>BACKPROP</train_method>
    <dw_scale>1.0000000000000000e-003</dw_scale>
    <moment_scale>0.</moment_scale>
    <term_criteria>
      <epsilon>1.0000000000000000e-004</epsilon>
      <iterations>300</iterations></term_criteria></training_params>
  <input_scale>
    3.6744705245435838e+001 -2.1847861494215701e+000
    6.5283042850862432e+002 -7.2585049633545218e+000
    4.8117767120456898e+002 -3.3682385349530337e+000
    5.9085652866040164e+002 -7.1689211840960976e+000
    7.8845982338525107e+002 -4.9285624042884244e+000
    4.2790491575831729e+003 -4.0839135280449339e+000
    6.6547221096692363e+002 -6.5529447974888342e+000
    3.9067482388971712e+002 -7.5157551139590941e+000
    4.9018257294596032e+002 -3.3293302672739715e+000
    3.7193702275110795e+003 -3.8275818689810173e+000
    3.4102740103830511e+003 -2.4777202684768449e+000
    4.0833870686264772e+003 -3.3705290228139906e+000
    6.6303484927174259e+002 -6.2417616095191502e+000
    3.3716544154111416e+003 -3.9607689824275929e+000
    2.5916597171040803e+002 -5.7433049051943819e+000
    1.9509315974606344e+002 -6.6984578199255571e+000
    6.4951167767910226e+002 -7.2565092195813818e+000
    5.5625187224575238e+003 -4.0653383968122698e+000
    3.6824968132008212e+003 -3.6906895686754568e+000
    7.6185455264410602e+003 -4.4093449813548746e+000
    4.7118687260688102e+003 -4.3627945431106632e+000
    2.3286232778882328e+004 -1.1762872685603900e+000
    3.5447718889329949e+003 -4.1946130743141996e+000
    7.0089011725108367e+003 -3.6685564112761351e+000
    7.8433142403741192e+002 -9.1441969144552822e+000
    8.1411764677795718e+003 -4.2218304731165279e+000
    4.6658763501222775e+003 -3.5454301966968229e+000
    6.4449449125347774e+003 -3.0685926457834558e+000
    3.3420920584013993e+002 -6.2387418772527674e+000
    6.2285256545040584e+003 -3.4207588638451671e+000
    1.3946177144204654e+002 -4.6640394226274591e+000
    5.3285660571414508e+002 -5.7355834929133156e+000
    4.4645018182755263e+002 -3.6277705887801668e+000
    3.9963916957102238e+003 -4.1749435547946065e+000
    3.7261492779355449e+003 -2.9134632827715290e+000
    5.0389305665261736e+003 -4.5762672807915985e+000
    4.7884983979434355e+003 -3.4687703207234279e+000
    1.6340945845056222e+004 -1.3611161820175497e+000
    4.4284606419712954e+003 -3.5815877365812212e+000
    3.9682328480828842e+003 -3.9941210887426228e+000
    2.5232794713113231e+003 -2.8095800297417117e+000
    1.0960276248936509e+004 -1.7669695424784062e+000
    1.5385840141018316e+004 -1.4469235087392125e+000
    1.8770728051735467e+004 -1.7349855936505669e+000
    4.6578886058354292e+003 -4.7633686026718207e+000
    1.1095433247035822e+004 -1.5860329658705756e+000
    3.7348148781937675e+003 -4.2810099101615808e+000
    3.6409423652658552e+003 -5.7836837130532306e+000
    7.3850753256750488e+002 -1.0530774648435649e+001
    6.9454418825386965e+003 -4.3519584371486397e+000
    4.4473406706938003e+003 -3.6805050941355368e+000
    7.0360034049083588e+003 -3.6146832080203568e+000
    5.6038818147906113e+003 -5.1857122844156365e+000
    2.5431648254221607e+004 -1.2026617224008602e+000
    4.2919819140619957e+003 -3.3051439542905503e+000
    6.2348852202646694e+003 -2.8412576853417528e+000
    2.6310092578952350e+002 -6.7465509762257874e+000
    6.6379744033762045e+003 -3.7883177468833509e+000
    5.8075365191989767e+003 -4.9934215932348716e+000
    6.5145525165562631e+003 -3.2662734498761883e+000
    2.5422221661234693e+002 -6.9120584467801294e+000
    6.9653616970408048e+003 -3.0768179409582141e+000
    4.0208558600593079e+002 -5.3359755746474313e+000
    1.0654963387271171e+003 -5.0020829145621946e+000
    8.7303241807619190e+002 -6.4330580997266740e+000
    4.5785685163456137e+003 -4.7806705645135441e+000
    4.6430468997910557e+003 -3.3409498353455995e+000
    4.4013491993774987e+003 -4.0563577832102817e+000
    6.8504771504482960e+003 -2.9229920414046666e+000
    2.4472292113776570e+004 -1.5518257844571737e+000
    6.8469519537666683e+003 -3.2636772829984011e+000
    5.7951316812379291e+003 -2.9117978910821050e+000
    6.2953893736283280e+003 -4.1645392218697781e+000
    2.2912546964099914e+004 -1.7238033175224823e+000
    1.6019292772417559e+004 -1.2826728891753589e+000
    1.7638681141877314e+004 -1.4218169158925000e+000
    9.3276481495721473e+003 -4.1153011454312702e+000
    1.8456044937532031e+004 -1.0711460800691617e+000
    7.3657146434991500e+003 -3.4159538361502322e+000
    5.8282930067941206e+003 -2.8877434431484974e+000
    4.0428458249009982e+003 -3.9323490124848175e+000
    2.3042165647878785e+004 -1.0525155684228440e+000
    2.3300832299300189e+004 -1.6904078896793291e+000
    2.6831265298594102e+004 -1.1534996014569450e+000
    2.2936901663671393e+004 -1.3065526835606276e+000
    7.4138435462575377e+004 -5.5777335102271697e-001
    2.3238973183509330e+004 -1.2987829611936561e+000
    3.4992420860974125e+004 -1.0718528155835569e+000
    4.9136683127773213e+003 -4.4677873742066261e+000
    3.0733884959340994e+004 -1.1891489757030917e+000
    2.0176740222380758e+004 -1.2035393372384107e+000
    2.9378744308948011e+004 -9.3147574247724207e-001
    7.4531053375776264e+003 -3.5646227485668436e+000
    3.2112442951036432e+004 -8.8009556035374770e-001
    6.6164563220462041e+003 -3.0969194758989564e+000
    9.0555208570268605e+003 -2.3163634111460074e+000
    7.6632750991279124e+002 -8.9833024637867656e+000
    3.4595647186081660e+003 -4.6756903967264920e+000
    4.4155757141601134e+003 -3.5569296368586789e+000
    5.2166083428574584e+003 -4.3844112515312750e+000
    7.0638296014153193e+003 -3.9402508937843570e+000
    2.0730036182077183e+004 -1.3702237155036643e+000
    5.7764504063702725e+003 -3.3307886696837583e+000
    6.3513168326225896e+003 -3.7885503639714257e+000
    3.7219732221137679e+003 -4.4283012693191894e+000
    1.3776968323137286e+004 -2.0359760365482740e+000
    1.5306520398762814e+004 -1.3078559342642666e+000
    1.9879802578730567e+004 -1.6986171316046690e+000
    5.5411214053084941e+003 -4.3296060098056248e+000
    1.7638681141877307e+004 -1.9336710056137989e+000
    5.7705596668916487e+003 -5.0422547081802325e+000
    3.9947154011015928e+003 -3.6687169770671892e+000
    3.0261123738712871e+002 -7.5785344039655707e+000
    6.4123378655955430e+003 -3.6802214946827760e+000
    4.0377033600599775e+003 -4.1464973937452712e+000
    6.7754148639797922e+003 -3.2878345155013604e+000
    6.2755254360710169e+003 -3.4162201339549751e+000
    2.6562039280584664e+004 -1.0562809386488490e+000
    4.9861598171544301e+003 -2.9286850128874056e+000
    8.9634470344765268e+003 -2.9286329492232550e+000
    1.2795588464114164e+002 -4.8216386979689805e+000
    6.6384812543984690e+003 -3.4996454572151285e+000
    4.0227126047848756e+003 -4.3537628673253632e+000
    7.4244575009352484e+003 -3.4112782771624897e+000
    5.6376584434181507e+002 -6.8856712097182395e+000
    7.4847499091478412e+003 -2.3087424829795724e+000
    9.8123729596684871e+002 -6.0555491178400187e+000
    2.0315379759657260e+003 -4.6343511984024000e+000
    4.5951591735369573e+002 -3.8033297413954124e+000
    5.4028530127534827e+002 -7.9347490158172542e+000
    2.1505116666726931e+003 -2.5447517347502315e+000
    1.9741026654363790e+002 -5.3928564668001053e+000
    5.5737359708820177e+003 -3.9477360635145216e+000
    4.6703709417331511e+003 -4.2189598518949039e+000
    3.7030886187592805e+003 -4.0376851490171637e+000
    2.3757593385749274e+002 -6.4505250763649586e+000
    4.2334277139958422e+003 -3.0939790093032049e+000
    5.0335080258714579e+003 -4.4198661817961415e+000
    1.3397540081861573e+004 -1.2815376675237402e+000
    4.5532245744338152e+003 -4.0446246818954021e+000
    4.5182478647330363e+003 -3.4356807217627963e+000
    4.0437811532286446e+003 -3.3769525826466307e+000
    4.4935464888727029e+003 -5.2376333546522345e+000
    4.9543990455345511e+002 -6.8512166846245313e+000
    3.6607704714252645e+003 -4.0859711741757252e+000
    5.9890170000147264e+003 -3.7655439072358372e+000
    1.3332734022464010e+004 -2.0634692980870453e+000
    6.8030684344743331e+003 -4.0507077273923358e+000
    1.8264803946578744e+004 -1.7176685816695614e+000
    2.7218822758987164e+004 -1.1555340232570299e+000
    1.4416177686732373e+004 -2.0219804037949856e+000
    6.2288744783544189e+003 -3.2535849652422533e+000
    5.7875033840494389e+003 -5.2467774546898740e+000
    6.3513169302866290e+003 -3.7885504159618475e+000
    1.6605557174396869e+004 -1.5527052052375283e+000
    5.4252707580587658e+003 -3.0291673927267952e+000
    4.3524634290444046e+003 -4.2615717443591938e+000
    6.9225278721517116e+003 -3.4001432704546533e+000
    3.0795606343654949e+003 -4.7611834955223875e+000
    9.9503464209949311e+002 -4.8113891854219890e+000
    3.0590367013621326e+003 -2.7156952436664805e+000
    4.0200458622022843e+003 -3.8151182783966462e+000
    1.4446555890685984e+004 -1.5293851065846724e+000
    4.7564491265944953e+003 -4.8871654927212180e+000
    1.8025023254415526e+004 -1.4045271681102651e+000
    1.7627598086342659e+004 -1.2977768278494910e+000
    1.4945822678567109e+004 -1.6545250774288836e+000
    4.6485199921027888e+003 -4.9686200020051476e+000
    1.2945132352005077e+004 -1.4747848389957716e+000
    1.9932192868292368e+004 -1.8530515125637430e+000
    3.6299530776369014e+004 -5.0717830451656576e-001
    1.5332476870517179e+004 -1.5902153291109919e+000
    1.6872346506244652e+004 -1.5413835352999539e+000
    1.6329616759027331e+004 -1.4040490609639382e+000
    1.4212908045490503e+004 -1.5504768725330751e+000
    4.2693753254301337e+003 -4.2008674961009271e+000
    4.1672860229922007e+003 -3.9839654187147464e+000
    7.1923504039747604e+003 -4.1240276216728118e+000
    1.3965792459529661e+004 -1.7111447109162095e+000
    6.2162112740447283e+003 -3.6812360707069991e+000
    1.8753562316044539e+004 -1.5923083452465041e+000
    2.1192710356518401e+004 -1.1844211400910918e+000
    1.6712363595800485e+004 -1.7063879867380916e+000
    6.2826031389016862e+003 -2.9507836469073845e+000
    4.4160233897725548e+003 -4.7818144087914920e+000
    6.3829974881513353e+003 -3.9343627456673995e+000
    1.7187504825798773e+004 -1.7641378124919589e+000
    4.1874317658147538e+003 -2.7543267975575967e+000
    4.7368687724082183e+003 -5.0961443963892128e+000
    5.7526085992844774e+003 -2.9553507168062461e+000
    4.6777135542374181e+003 -4.2758675161879411e+000
    1.0470796780512287e+003 -3.8785938673004829e+000
    7.5735188073621407e+002 -8.9346570029754346e+000
    3.0380877438866116e+002 -7.5894235383133797e+000
    2.9858151261004464e+003 -3.5877404297777704e+000
    1.4216557685185353e+002 -5.6333432556685912e+000
    7.4543012211816731e+003 -4.1580585470824394e+000
    5.7093952123175204e+003 -3.3136006720525257e+000
    4.8004016740402758e+003 -3.8333872227424233e+000
    4.3263357651774737e+002 -5.6125700979899751e+000
    4.2273281731139668e+003 -3.4620810930218751e+000
    4.6684892645715518e+003 -4.7566478359011857e+000
    1.6657368711139956e+004 -1.3964240043768941e+000
    3.9015598900753844e+003 -4.5434263033000821e+000
    6.6841475718884667e+003 -3.8721404252914478e+000
    6.3114457243083070e+003 -3.6223166564061744e+000
    5.1423028748288325e+003 -4.4601296705135605e+000
    8.8665213601435084e+002 -5.8606350064244745e+000
    3.9981438351836100e+003 -5.5969630595173161e+000
    5.0901721631408927e+003 -3.1730489147831880e+000
    1.3214548661348908e+004 -1.9741649581268830e+000
    5.7503010286237522e+003 -3.2848092387881302e+000
    2.2919497532123922e+004 -1.5026271492005472e+000
    2.6406469096923571e+004 -9.3657072348897241e-001
    1.2681525697002151e+004 -1.5333465929474843e+000
    6.9745532835859894e+003 -2.3350207891587140e+000
    5.1435990520181767e+003 -4.3341054316151366e+000
    7.9000494565573490e+003 -3.6510230073326180e+000
    1.8651547621059806e+004 -1.4934388686552547e+000
    6.5335577046158651e+003 -3.0791839330678012e+000
    6.4633456576519884e+003 -3.6504500214716851e+000
    7.9994268792659304e+003 -2.7254262795420860e+000
    4.8044318634154906e+003 -4.3013356919103414e+000
    1.9864551731538900e+003 -4.7407367966932963e+000
    2.2422493124811615e+002 -5.2409441505115062e+000
    1.5151989256424247e+002 -5.4441342064885561e+000
    4.0846656790260940e+003 -5.1890790778654514e+000
    5.2476147033758650e+002 -9.0826378175761171e+000
    7.7009526661244063e+003 -4.3287494253653289e+000
    5.9833797521491479e+003 -3.2443226760860759e+000
    4.5036421602315813e+003 -3.8940921508476540e+000
    1.0046841361031074e+003 -7.0284589622768019e+000
    3.7381892564473605e+003 -5.0502497438751659e+000
    3.3535704133345985e+003 -5.6605895638046251e+000
    1.4218715497288083e+004 -1.8796707354739792e+000
    4.8783199499820848e+003 -5.1670564419119573e+000
    4.9568504783671142e+003 -4.4830774141852254e+000
    5.0231177562736075e+003 -4.8912273829103050e+000
    2.7575346769978933e+003 -4.7478806285443964e+000
    1.0885382470432883e+003 -8.4006845780293062e+000
    1.4102534957930618e+002 -5.3285219778838222e+000
    5.8093451096638489e+002 -6.3161479494355861e+000
    3.2548636981830437e+003 -5.6758878681770533e+000
    1.1560438214607905e+003 -6.2099320209493234e+000
    6.4406971188812367e+003 -3.6653474147615852e+000
    9.4934421394123783e+003 -2.3059423792939437e+000
    4.2207551634677784e+003 -4.3571631837222196e+000
    1.9827801328429118e+003 -4.7181144314323591e+000
    5.3517995195874721e+002 -9.1464849270614934e+000
    1.2634862383921227e+003 -6.6105467629005812e+000
    4.5926026860544853e+003 -4.7385602292385283e+000
    1.3929724452493397e+003 -5.7766668823454186e+000
    1.4039024798728765e+003 -9.7224354843393517e+000
    2.0797951066951791e+003 -5.0830842625940207e+000
    1.0538504662128234e+003 -7.9704498793734730e+000
    3.9380636682378508e+002 -5.8601356894436467e+000</input_scale>
  <output_scale>
    1.0526315789473684e+000 0.</output_scale>
  <inv_output_scale>
    9.4999999999999996e-001 0.</inv_output_scale>
  <weights>
    <_>
      2.2886133629546782e-002 2.1008091449856083e-002
      -1.6623567173198787e-002 3.4861861380641158e-002
      4.3763470887228116e-002 -6.2553431530607842e-002
      2.2073958865421944e-002 1.3362848953209421e-002
      -5.5796815017802705e-003 1.6895435254769466e-002
      1.9892390833673407e-002 -3.6043786447605169e-002
      1.6621253201700548e-002 1.6948318579534081e-002
      -1.1488943411312302e-002 2.2429571200341010e-002
      2.0428183296061535e-002 -3.8277909469271072e-002
      -1.2609507086983787e-002 2.8164444014458067e-003
      4.0458743169076725e-003 -1.1652010743690298e-002
      -7.2223975989272991e-005 7.9793335997259129e-003
      -2.1567829783826480e-002 -1.0065266022072613e-002
      1.1315982150283373e-002 -1.6062976277778300e-002
      -1.2801350888561379e-002 1.3530054694766284e-002
      -2.9639066731849632e-002 -2.1039831472902948e-002
      1.2857005393571047e-002 -1.8121763752019508e-002
      -3.1227204161313266e-002 3.4732130681154529e-002
      -2.3733470072946905e-002 -2.4456243246027319e-002
      1.3494990148295445e-002 -2.7723637143391568e-002
      -2.5768837588663582e-002 5.0296183363655343e-002
      1.3739138621055747e-003 2.0364182957247645e-003
      -1.0802935029249982e-002 7.0869718190028023e-003
      2.1819163585543415e-003 -7.8698003869826796e-004
      1.3900853931965985e-002 5.5191674641438824e-003
      -1.3127129686954105e-003 2.3304450556918651e-002
      1.9714093658344541e-002 -4.2986307378293592e-002
      1.3431168966172351e-002 2.2135275988479576e-003
      -3.4993916510168517e-003 4.3705590219419183e-003
      1.2127324201137997e-002 -1.9310886880154685e-002
      -2.8080253381986861e-003 -1.6957728934145263e-002
      1.5273390294536277e-002 -1.2657631381032451e-002
      -1.4401960544677655e-003 -1.9361003479720336e-003
      -4.2495843315865679e-003 -1.0105228270161151e-002
      -8.8392350916927478e-004 -8.1259878157710110e-003
      -1.2351324057146071e-002 5.8114015068053363e-003
      -5.0556563851203461e-002 -3.5232085747225916e-002
      2.1110638579706166e-002 -4.4588175012373998e-002
      -5.0815433267775066e-002 7.4930619780320812e-002
      -2.7383588994451744e-002 -1.8445500749897682e-002
      1.0887693489466823e-002 -1.8209495860264796e-002
      -1.9401980522960830e-002 3.9305480541739816e-002
      -3.4791673565998195e-002 -1.9929248209712286e-002
      1.9572688569456494e-002 -2.4872571487718483e-002
      -3.4387064309851764e-002 6.1035621528206102e-002
      9.3625487775389038e-004 8.0609355407581865e-003
      -8.4849447904382803e-003 2.9478861108168928e-003
      8.8481989597569942e-003 -2.6443292674407214e-003
      8.7886181143679361e-004 -4.2798667477122456e-003
      -6.8744373585240461e-003 4.1175040575203905e-003
      2.0992517618684437e-003 -2.2438673359248266e-002
      -7.7937773960050361e-003 -4.3874667633216268e-003
      6.6465910978054966e-003 -1.3088023316116526e-002
      -5.3697201439304645e-003 3.8024032565092290e-003
      1.2833753953415277e-002 8.6321254829389571e-003
      4.7220158745865648e-004 1.4549058859229871e-002
      2.5670118161725604e-002 -2.8893100981189072e-002
      -2.3514287366056381e-002 -1.2150857065672824e-002
      1.6601903636654560e-002 -1.9597452056350301e-002
      -1.9913209538793945e-002 2.9696481912910445e-002
      1.1065553193360113e-002 1.0764265037519455e-002
      -5.7414899620057648e-004 7.5556693035327520e-003
      1.2535166025645745e-002 -9.7555691445934747e-003
      9.7758619987945265e-003 1.0426940900139292e-002
      -1.2114911863576319e-002 1.7553211400408938e-002
      1.2718313483675279e-002 -1.7882289808719885e-002
      -1.5569865880489149e-002 -9.3601676201743051e-003
      1.3398181664858538e-002 -1.5422754709830842e-002
      -2.0815261152465934e-002 2.0657487891516235e-002
      -4.6937780291574525e-003 -3.2380236712846607e-003
      -8.7606921244597503e-003 5.4007254408173265e-003
      2.4067835514063997e-003 -1.0364269493703493e-003
      -3.4570419333156545e-003 -7.2182217545723217e-003
      6.1949874254947296e-003 -2.8727810488422970e-003
      -2.9656744025294882e-003 1.2750883751214108e-002
      -1.9654576613482876e-002 -1.5829650193975767e-002
      1.1468540353182146e-002 -1.2217667518500041e-002
      -2.0349152645287794e-002 2.4281687337604746e-002
      -2.1769436648424258e-002 -1.6729580003955274e-002
      4.7008884253386847e-003 -2.0357420953243530e-002
      -1.2265348760709900e-002 2.3852020128523620e-002
      2.7497626731119609e-003 2.9713781765022085e-003
      -6.6980728612558585e-003 9.6044038621090014e-003
      1.3879769938170297e-002 -8.3544169479618964e-003
      2.4468773861149491e-003 -1.8795550790259613e-004
      -1.4051953794480844e-003 1.8200003301889992e-003
      -9.1915184893901576e-004 1.0070522732366916e-002
      1.3350418599038606e-002 1.6014663389457850e-002
      -1.7759043617060075e-002 1.9755837833086876e-002
      2.5168563906607742e-002 -3.5471550648694096e-002
      -1.5470188677759823e-002 -1.0211369015619885e-002
      4.2932967951540878e-003 -1.3362554757913526e-002
      -7.5735102881858791e-003 1.6570067481794681e-002
      -2.4996642284038976e-002 -1.6207785391447231e-002
      1.3374331050848709e-002 -2.1536716595605528e-002
      -3.4168512769150707e-002 5.9412539937422557e-002
      1.1644511442724350e-002 7.5787459827780495e-003
      -5.2237231433413436e-003 1.0610466327924723e-002
      2.0316628913179466e-002 -2.8373321234599083e-002
      3.7773961557004127e-004 -5.2730319263579600e-003
      -9.1250497194048184e-004 -3.6091887525975834e-004
      4.9530821291649864e-004 1.0170451988763284e-003
      1.6177022963752799e-002 1.3113168764735885e-002
      -9.2596896183930431e-003 1.0389216176278877e-002
      1.9049990777916040e-002 -3.6718677513301899e-002
      -1.2232169340250289e-002 -4.7056338045463634e-003
      3.0317662833513025e-003 2.3538795707809478e-005
      -8.4364390210432665e-003 1.2687230131520125e-002
      -3.7953794887316422e-003 -4.0945693750514605e-003
      9.5715670552889848e-003 -5.2440556024202934e-003
      -1.4614780096429041e-003 3.2444067617066275e-003
      -1.1825559395505902e-002 -1.6634325767683710e-002
      1.0418461844956988e-002 -1.9094802847744053e-002
      -2.6736159715586180e-002 2.5078054183955693e-002
      6.1104966960469293e-003 5.8630723637058567e-003
      -3.1548741385949036e-003 4.9920396950101781e-003
      1.1618208811347574e-002 -1.4665827005405188e-002
      2.2207968526349264e-002 1.1791436087989418e-002
      -1.1014799953312594e-002 2.2870171885977123e-002
      1.2046020124570333e-002 -3.3241914743600935e-002
      2.7786948359689031e-002 2.7927851741564085e-002
      -2.4286000730361738e-002 3.4234811012213914e-002
      3.5610744287678645e-002 -6.5316386952901664e-002
      -2.5426029232767367e-002 -2.4095595541233771e-002
      1.4819027840676348e-002 -2.3758828503332791e-002
      -2.1147428050909439e-002 3.3933914211544146e-002
      -6.0390404168103231e-003 -1.1735010188570268e-002
      8.7740937568242042e-003 -1.1667418622590882e-002
      -8.8482574771517105e-003 1.3804213307136307e-003
      -1.1905000654384601e-002 -1.4870287671414810e-002
      1.7343644293974246e-002 -1.5280623904227604e-002
      -2.1472712902495444e-002 2.6203914925788861e-002
      -1.9374575507215074e-002 -1.1219692985068591e-002
      6.1149016124698542e-003 -1.6961264759801618e-002
      -7.4250362955339353e-003 1.3895459782424558e-002
      2.1046184616489126e-002 1.2393989657243898e-002
      -1.3501506069140736e-002 1.8068716265777596e-002
      1.5871931433321260e-002 -3.0722599968340338e-002
      -1.5947490053663121e-002 -6.2778370847007183e-003
      7.9347758572014260e-003 -8.9672296523605564e-003
      -7.6831524581858568e-003 1.2062070312450688e-002
      -3.2944930768624009e-002 -2.4835499507967190e-002
      1.4172260333984631e-002 -3.2525219106970440e-002
      -3.8782547662613152e-002 5.7218909848535789e-002
      9.2040347809765454e-003 7.0561401767693535e-004
      -2.4641017023565434e-003 -1.9926175923603209e-003
      9.4486879489058938e-003 -6.1357425952654979e-003
      -2.0902355092604852e-002 -1.4369518058481183e-002
      1.4815799230216788e-002 -2.9991356338471505e-002
      -3.0706927700578000e-002 3.9547673865359428e-002
      1.3545128881271816e-002 1.5932396759061974e-002
      -2.1297269775203465e-003 1.8153537145235703e-002
      1.6184600986429348e-002 -3.2381957958154794e-002
      1.6382830374744823e-002 8.2562267233226693e-003
      -1.4110953908220759e-003 5.0025188799704299e-003
      1.4031611558941646e-002 -2.5005138168186312e-002
      -1.5202810775457284e-002 -6.6078407339172328e-003
      1.4594079357219769e-002 -1.0619342093190910e-002
      -2.3152852273635290e-002 2.2133176553931697e-002
      5.1861910232804259e-003 8.9389447484357256e-003
      -4.6451223855392002e-003 7.6914451714218453e-003
      3.4015459093327620e-003 2.7543868399904172e-003
      9.4883645585886844e-004 1.1429007787766536e-002
      -1.1077710016869828e-002 1.2530389027604646e-003
      1.1976615927411166e-002 -6.1949959756840145e-003
      4.8829765438240368e-003 1.3941071143694134e-002
      -1.4978809362663074e-003 1.0727872241930281e-002
      1.1443314608923392e-002 -7.7337649310452164e-003
      4.0628184365385173e-003 7.5796733959312091e-003
      -8.8643313481617230e-003 3.4412906928087011e-003
      8.1353632424343760e-003 -1.0293326228382143e-002
      1.6491693707555804e-002 1.0031119280465175e-002
      -6.9488640365511509e-003 1.5208808157234648e-002
      2.5827912211593782e-002 -3.8205619625883293e-002
      1.5224063170786718e-002 1.5827386452308488e-002
      -6.7342309298381309e-003 1.3911809991580863e-002
      7.3287817745483399e-003 -1.2521943084561627e-002
      -1.1701632489569725e-002 -5.9846986525319504e-003
      1.4669766242208471e-002 -1.1367210992027123e-002
      -1.3117560571394151e-002 2.3619650424272890e-002
      5.5545103783861656e-003 -4.6488486001555447e-003
      5.5114504721418954e-004 2.6158825215586482e-003
      1.5432788921325574e-003 -2.6020339236021133e-003
      -4.3159260099748711e-003 5.9233878688400993e-003
      6.0051691787905686e-003 -3.9903942724154092e-003
      1.2883581161704838e-004 -3.1645683708822260e-003
      -4.1438056240519966e-002 -2.7211075131980830e-002
      2.0456977670199144e-002 -4.1746425319127319e-002
      -3.8031326857713710e-002 7.4873272396889221e-002
      -5.1385544787755533e-002 -3.8015462593626988e-002
      2.6468746573053675e-002 -5.3105778112370550e-002
      -5.8394440201946472e-002 8.4339266100744506e-002
      -3.1389429482466411e-002 -2.4058268744426951e-002
      2.0456773117338626e-002 -2.8905147884401749e-002
      -2.2850430444445079e-002 3.7505899203384561e-002
      -3.3278107193833985e-002 -1.9291679378214840e-002
      2.3674701280623475e-002 -2.2698973070228896e-002
      -2.8101827030412647e-002 4.9210908644844988e-002
      1.8007095847957694e-002 7.8128426350166976e-003
      7.7954787265940528e-005 7.1347858110452954e-003
      2.3663708435530430e-002 -2.8776802090380815e-002
      6.5525124314826794e-003 1.5525478118155729e-003
      -1.1734984413067794e-002 7.2676013751858488e-003
      1.8820214926907299e-002 -2.4226363868785801e-002
      -1.6916598987321240e-002 -2.3225566915369925e-002
      6.7068372931063259e-003 -2.1035887043500533e-002
      -2.6854020676125752e-002 2.9347085728776583e-002
      -2.0700677187286753e-002 -1.2630178580042397e-002
      9.9261533687641026e-003 -2.1788276946285615e-002
      -1.8917814724070885e-002 1.6282179754785554e-002
      9.8140492817125179e-003 1.2755233100118451e-002
      -7.0903194197143738e-003 9.3963551422342074e-003
      9.3124148379805111e-003 -2.5782575035376867e-002
      -2.0441072293562047e-002 -1.6004383650957344e-002
      1.3964838158736566e-002 -1.5448864023465340e-002
      -1.3660925929495487e-002 2.3664448191419645e-002
      -1.6316388000417598e-002 -1.8284844060223994e-002
      1.8983583486090524e-002 -2.3176282527378994e-002
      -1.6374225498198641e-002 3.4543468486464467e-002
      3.2060522648408190e-003 4.3736568230706680e-004
      -1.8167708984244990e-003 1.0275787066336757e-002
      9.7832382381210468e-003 -1.1501362478902707e-002
      2.1667253625458342e-002 1.2604823368816095e-002
      -5.5106083117570344e-003 2.0891675949380826e-002
      2.4787097820480612e-002 -5.0076964503978347e-002
      7.0628009954993619e-003 3.0562346449659003e-003
      -9.0542784748343496e-003 3.9178371795954795e-003
      9.2750461868889040e-003 -8.3623032892515652e-003
      -2.7236645908937381e-002 -1.9919585982105196e-002
      2.2254488047212018e-002 -2.5026527697507562e-002
      -2.7656380084695734e-002 4.6454254950308305e-002
      8.5687787355460589e-003 1.4104013481473230e-002
      -7.9368262089227429e-003 1.8136751331572151e-002
      1.4921802245510171e-002 -1.5825064811372584e-002
      3.6995543752161818e-003 1.3940910259848421e-004
      2.0534101993599173e-003 -2.7354622491191582e-003
      8.1878699252279311e-003 1.5292778812941979e-003
      -1.0469389793167947e-002 -3.0011722007312401e-003
      2.1303849520363464e-003 -7.7000362596776869e-003
      -1.6997381216225890e-002 2.1381052314535094e-002
      -3.8609208018808717e-002 -2.2110665474932709e-002
      2.5692309831689242e-002 -2.6812600390592925e-002
      -4.3040412587051775e-002 4.2725067594798306e-002
      2.2667348024646597e-003 1.0683201042445096e-002
      -8.0786026840916694e-003 7.5752831820445812e-003
      6.2689211782839130e-003 -1.7262429963137958e-002
      2.4916504283562152e-002 1.5136547743009626e-002
      -1.1920583341941959e-002 2.0423406676365878e-002
      2.9283931609064846e-002 -3.8868540711877314e-002
      8.9632080155566257e-003 1.0123143498110467e-002
      -9.8935294431554428e-003 4.7801429768739257e-003
      1.6167281494890048e-002 -1.8550364545568299e-002
      1.5750194799478050e-003 8.5085712541010401e-003
      -4.7150679633569193e-003 1.0282058035815429e-002
      1.1157408915493404e-002 -1.1723129481817945e-002
      -1.5576365298122808e-002 -2.3054944157466185e-003
      8.1743884025348521e-003 -8.3003707431882588e-003
      -8.8519237628396086e-003 2.4077087888290449e-002
      1.1324503128648841e-002 5.2615129967730880e-003
      -4.6677911093988582e-003 -1.6922536566385527e-003
      -1.7030611173970876e-003 -1.6024840531718914e-002
      3.7854457484875877e-002 3.0517583049052961e-002
      -2.9217442870008822e-002 3.4102297707672542e-002
      4.6629363506693708e-002 -5.4944966226285898e-002
      6.0274825784743834e-004 4.5491171173630655e-003
      1.5586941437286657e-003 -2.4253343634558066e-003
      1.3943254298525395e-003 -7.5556395635110489e-003
      -2.6707786826688569e-002 -1.1704875926692237e-002
      1.9781622884013087e-002 -2.2793513869584531e-002
      -3.0356663926480117e-002 3.7354122536338394e-002
      1.5332536336382770e-002 9.0534165372014152e-003
      -9.1377898297942180e-003 2.3134304669459458e-002
      2.6371209167132748e-002 -4.2896659185001046e-002
      -5.1329624707326669e-003 -5.0924918130223094e-003
      9.9003984864807684e-003 -1.3465287297344799e-003
      -1.0737579352756219e-002 1.2435546171374344e-002
      -1.2951190475316057e-002 -1.1821382983027338e-002
      5.6672739345977599e-003 -4.4412398507045784e-003
      -1.3839464122295572e-002 1.4357739968822896e-002
      5.9060939078664620e-003 3.9809398922862905e-004
      -5.8573122732677842e-003 6.0161468299139561e-003
      1.4808605982500427e-002 -1.4621196991712361e-002
      3.1942561187335509e-002 2.6809057197255889e-002
      -2.6532491659854149e-002 2.7108372589765090e-002
      3.9038605085134126e-002 -5.6502004527095626e-002
      1.6540617686282736e-002 2.2824938357910704e-002
      -5.4109432931508357e-003 1.6285905986381147e-002
      2.1031825044087373e-002 -2.8515211771961983e-002
      -2.8837369008281759e-002 -1.6891672557248862e-002
      1.0416367535384979e-002 -2.2189996826608126e-002
      -2.0424568966484966e-002 3.0624116840666654e-002
      -6.0083930211727019e-002 -4.4159514874570954e-002
      3.1484871624117894e-002 -6.2874662442149856e-002
      -6.5566757243689558e-002 1.0048447970743615e-001
      -1.5733847548357902e-003 6.9059916731984360e-004
      1.1191287198363327e-002 -8.5724190188017305e-003
      1.1851760196531376e-003 3.4874542327425870e-003
      -9.2023418236249523e-003 -1.4120441222380580e-002
      1.3943662367637661e-002 -3.8869648734682033e-003
      -5.3787734533889547e-003 2.2377207644443529e-002
      3.5981852387681678e-003 -5.6537621667053358e-003
      3.9133688070534254e-003 -7.0602267271508076e-003
      -3.7482262633590927e-003 5.9642460611402295e-003
      -1.0087734896628790e-002 -1.5632197200919091e-002
      3.9272736150686048e-003 -2.0954715384536388e-002
      -2.1865407737452085e-002 2.5722909435223446e-002
      2.0261538014547022e-002 1.0902710209992866e-002
      -8.2810928662065304e-003 1.6498467627338313e-002
      2.5001067891190748e-002 -2.6702254699997097e-002
      -6.8645090178064277e-003 -3.1955489354844584e-003
      5.1387170475959160e-003 -8.7754166378096535e-003
      -7.0439119448086618e-003 1.4391975294974045e-002
      2.7851482580506302e-003 5.5753626173081728e-003
      9.0660201930965951e-004 1.0849079805127925e-003
      1.4632414939891413e-002 -1.8374434775999544e-002
      2.0212008505496076e-003 3.6626554537243262e-003
      -2.3017000152811043e-003 1.6064979891862039e-002
      1.1988294946428276e-002 -2.0263028111125955e-002
      1.7977705774614831e-002 9.1810165921686476e-003
      -8.8663926836915641e-003 1.3752828563966098e-002
      2.5761963874355493e-002 -4.7390381548853021e-002
      3.2256762859898945e-002 2.8449810065565555e-002
      -2.4903239542494782e-002 2.2279631174864034e-002
      3.3117850230479522e-002 -4.4742130639493193e-002
      -1.2381628654104351e-002 -1.8304721011322748e-002
      4.5339863355337009e-003 -7.9441792321060644e-003
      -1.3359994250349847e-002 2.0653781513220497e-002
      8.7710934397463546e-003 3.4640866656291335e-004
      -5.3463138545124097e-003 7.0527685409054229e-003
      4.0711114444453899e-003 -1.4430783090764172e-003
      -4.1708345903257293e-003 -9.0822864422905672e-003
      7.8574505593507961e-004 -8.9186938097475504e-003
      -1.6853509405392774e-002 2.0894578661766250e-002
      2.1131867771281759e-002 1.4911331960321775e-002
      -1.2062727396508349e-002 1.9874973524295694e-002
      1.5909423253894540e-002 -3.1093782689921395e-002
      -1.3965703461793707e-002 -1.2745873578546866e-002
      -1.1915622118785765e-003 -1.3905400893871961e-002
      -1.9788749996238510e-002 2.9587189492620142e-002
      9.6236742623124344e-003 3.8038966857131757e-003
      -3.5224292076612754e-003 1.0827545320234427e-002
      1.1374637445519024e-002 -1.4161138795749439e-002
      4.6514956314600581e-003 8.2893658530092899e-003
      3.7575015702717004e-003 -3.2721182748498365e-003
      8.7436082368980549e-003 -6.9716520058693563e-003
      1.5043479886062304e-002 1.3493549716159599e-002
      -1.1876062487358875e-002 2.3189029719406343e-002
      1.3098381467505278e-002 -3.1392114411399628e-002
      -1.5342488076308659e-002 -8.7276924866734086e-003
      1.8059629109518326e-002 -1.2442150215998350e-002
      -2.2113316325487534e-002 3.3951379702676011e-002
      2.9708644935356843e-002 2.3113601309020342e-002
      -1.4774360064692875e-002 1.8351961308361222e-002
      2.3280711145988457e-002 -4.1071239408311859e-002
      5.1326822388847483e-003 7.3384305696473570e-003
      -3.5393557856601083e-003 5.3720569322976662e-003
      5.6224902954869465e-003 -1.5773753338971686e-002
      1.6738341137919197e-002 9.6881866361622215e-003
      -7.9062098869141176e-003 8.7494273788597237e-003
      7.2228762642906419e-003 -1.8338917733892131e-002
      -3.5359868542409301e-002 -2.7394949810691360e-002
      2.8398381998458223e-002 -4.1580396117053726e-002
      -4.3560798388877359e-002 7.0764063150924483e-002
      2.9566653720462886e-002 2.0047173763403540e-002
      -1.4897855719578298e-002 3.3376685672556673e-002
      3.4409390792123073e-002 -5.1960740621777149e-002
      1.6190368605209900e-002 6.0236507049730359e-003
      -3.8859745068741030e-003 8.0573145174139618e-003
      1.1534375990128081e-002 -7.8667815723827174e-003
      9.9250345844886182e-003 7.1648625686244324e-003
      8.7895868634139365e-004 -2.6327700080999001e-003
      7.8805184478812195e-003 6.5307282949136729e-003
      -1.8777270529599360e-003 7.1450654635132251e-003
      -1.6363047440856643e-003 1.7926429201355542e-004
      4.8075062838093983e-003 -2.5992904208532656e-003
      3.9177616915064023e-002 4.0183739214145607e-002
      -1.9965981828095197e-002 3.9623531012622518e-002
      5.0576520608956309e-002 -6.3135851847043248e-002
      -1.7371033418230240e-002 -1.7952322604894842e-002
      2.5553125827717756e-005 -1.9980224308442381e-002
      -2.2905607704673238e-002 3.9614840628644621e-002
      -2.9314504634223779e-002 -2.6785996330738387e-002
      2.2497392132630196e-002 -3.3519624966463990e-002
      -2.8470568040608941e-002 4.9763233830692512e-002
      1.1414173005670113e-002 1.7654946354215516e-003
      -6.3434203332259518e-003 7.8102024174801152e-003
      1.7008159540669702e-002 -1.9052855357464288e-002
      1.2352317086429645e-002 1.3273907457808291e-002
      -2.2527408461088883e-003 6.3540920370692994e-003
      1.4003788699690555e-002 -8.4828331966069950e-003
      4.3281939387896193e-002 3.0450160869970693e-002
      -1.8515765330296183e-002 3.9213553931801017e-002
      5.5514959092981292e-002 -7.3565641029606776e-002
      3.7446735435037855e-002 2.7186387291757028e-002
      -2.9295902698736356e-002 3.5943976230203990e-002
      3.3707494196680614e-002 -4.9658256147258002e-002
      -8.5161789839558241e-003 -9.5211598894877816e-003
      1.6220166242103741e-002 -8.2066889400247943e-003
      -2.2887237309810644e-002 1.3577989800057103e-002
      -3.5698876003825354e-002 -2.4027217239066409e-002
      1.4430774041046146e-002 -3.2421087184988824e-002
      -4.7375094797076960e-002 5.8191106996738365e-002
      4.0871267292588886e-002 3.0363458900331319e-002
      -1.8098775073489577e-002 4.0226746084751491e-002
      5.0484195926390689e-002 -6.2308552251736274e-002
      2.3369531713768384e-002 7.4895021332393808e-003
      -8.9652817755505147e-003 1.4958862377161077e-002
      1.1907380387057244e-002 -1.9335861829087173e-002
      4.4312199215010804e-003 1.7869562735538555e-003
      8.6688847425028005e-003 1.7935436985360563e-003
      7.0455851591045291e-003 -4.5150651878560774e-003
      7.6543643679963360e-003 -3.8680942510181662e-003
      3.2175503000296999e-003 8.8017230124729767e-003
      2.0642072654581530e-003 -1.4098199755872428e-002
      9.0101016744221097e-003 3.1148675738676343e-003
      -2.5896570680842930e-003 1.4144208576208665e-003
      6.3153570260516059e-004 -1.4321097025951610e-002
      -1.3396226427323299e-002 -1.2838501964448485e-002
      -8.1436231830793199e-004 -1.0843851696277563e-002
      -3.0447968081204584e-003 9.9141606768546019e-003
      8.9082893885579131e-003 8.7042292476130229e-003
      5.3665554940467959e-003 4.1317520999336731e-003
      6.1065169419494535e-003 -1.7817616872933126e-002
      -1.4536334023414214e-003 -4.0341917940165516e-003
      8.5306394708039683e-003 -9.8571457074544018e-003
      -6.1278671178572539e-003 4.5727942034549862e-003
      1.3485208709188682e-002 1.6476009353745779e-002
      -1.4553312731566402e-002 1.7923674476227554e-002
      2.0064019763983639e-002 -3.0904729559209792e-002
      -2.1342254654649805e-002 -1.2869837373904930e-002
      1.2198188751316353e-002 -1.8531502257584334e-002
      -3.6665842551136592e-002 4.5234847614292681e-002
      1.7405569131431330e-002 1.5051806295490465e-002
      -3.3143333541113852e-003 3.8100166937896961e-003
      1.6390331065097678e-002 -3.2546411072406280e-002
      5.8408111594900908e-003 1.4536133560480618e-002
      -1.2730932350482659e-002 1.5656880111180774e-002
      9.2148041768223780e-003 -1.9194032953881265e-002
      1.9328309321967274e-002 1.0244811252956360e-002
      -1.0022395253972881e-002 2.1683773499428158e-002
      2.5078424732690941e-002 -3.3677203391721471e-002
      5.1228530789832520e-002 3.4611339552067348e-002
      -2.5323903076934048e-002 4.7205974239939365e-002
      5.7612281583829084e-002 -7.2093192827925298e-002
      3.6658418478199561e-002 2.9846362572523263e-002
      -1.6549202455800851e-002 2.9622363251030803e-002
      4.6489935583013203e-002 -5.7057524407496084e-002
      2.1196355815994938e-002 1.0481962416969070e-002
      -4.2275679046191589e-003 1.2062899683431759e-002
      1.5495232658270418e-002 -2.7141457872172241e-002
      1.3869194630901541e-002 8.1091756963567133e-003
      -1.0782670159816621e-002 1.3086074919976712e-002
      1.6712691876885986e-003 -1.0459772177078131e-002
      3.2345028276761119e-002 1.8858036238970251e-002
      -1.9967246872901939e-002 2.2498557616829354e-002
      2.8184920985234767e-002 -5.2490446991042751e-002
      3.0961224019048390e-002 2.1263166630150831e-002
      -2.0208565741539477e-002 3.1666846217610178e-002
      3.7650292320247823e-002 -5.5350622476992586e-002
      3.9677723768309532e-002 3.0441679032708252e-002
      -1.5242023228983419e-002 3.2764539387198123e-002
      3.3828010697871502e-002 -4.9611322868270254e-002
      -6.3359874258905326e-004 -4.1257815390884356e-003
      2.3111379705452496e-003 -1.0031358945008576e-003
      -4.8285873181390677e-003 9.2113660570597149e-003
      -3.2673916138468845e-002 -1.7799549981650658e-002
      1.1882985012787168e-002 -3.1488821150421904e-002
      -3.4944138871487430e-002 5.6343043225344482e-002
      -6.6369690142992184e-003 -8.7685324052428715e-004
      -1.6680560705839916e-003 -1.6585046995535213e-003
      -9.4817372671857966e-003 4.2783595979838038e-003
      -1.1730383226684371e-003 -3.6265832128264384e-003
      -4.6833115452815351e-003 -1.5178834026584518e-003
      5.6068300337883733e-003 -2.0902274742075912e-003
      -2.5418265393489244e-002 -2.6416456985329486e-002
      1.5783159282507078e-002 -2.1122244628248531e-002
      -2.8941552353899620e-002 4.9941798935671945e-002
      -2.6804756531064067e-002 -1.2421147776353367e-002
      1.4540656189798613e-002 -1.8844212265392783e-002
      -3.6036813291911524e-002 5.0525424056193438e-002
      2.3375156808208191e-003 -5.7426192986228626e-003
      -6.7502131489181336e-003 -3.9404951929761391e-004
      1.7758935262843084e-002 -1.6534554467176367e-002
      -1.5140615154463823e-003 -3.5111421801317013e-003
      8.3286194890965209e-003 -9.5448958920844856e-003
      -1.2617628482374263e-002 9.4178476372640766e-003
      4.9188136599349593e-004 1.4492424070311630e-003
      1.5764844409920827e-003 6.9556108246201891e-004
      1.6299541671648189e-002 -2.2984706560874476e-002
      -3.3551740078029404e-003 -1.0339000697453637e-002
      9.4932323309496469e-003 -9.9769206777324156e-003
      -9.9724845455406146e-003 1.2858423934716569e-002
      1.8039583961721811e-002 5.7933747130190167e-003
      -2.5184191463288571e-003 1.4841910702964914e-002
      1.1276344594519814e-002 -2.0527238998550836e-002
      3.0125799131487951e-002 3.0999215921237402e-002
      -1.7602635325285037e-002 3.0904123403844769e-002
      4.0939178590162655e-002 -6.0777224205060550e-002
      1.2016185593316157e-002 7.3762307476753540e-003
      -6.0255666456339018e-003 6.4046563822173653e-004
      1.7769944462574721e-002 -1.6064391970215648e-002
      3.5338307397065520e-004 -4.8388707418098864e-003
      1.0387120041100338e-002 -1.7855357800089908e-003
      -1.1213812364241592e-002 1.0768191954984665e-003
      2.2783559880596896e-002 1.4676409695765343e-002
      -7.6070742849564067e-003 2.3931310267720163e-002
      2.8866440270510319e-002 -3.4635375077565603e-002
      6.6683130148004850e-003 9.4124090251020004e-003
      -6.2823119720332695e-004 9.0712549045978089e-003
      8.3141950671960629e-003 -9.5444197569653968e-003
      4.3704499182618893e-002 2.8959970311041951e-002
      -2.1460707890084429e-002 4.7248945364416046e-002
      5.3004266765628541e-002 -7.8344322556153145e-002
      8.3724375490986901e-003 -3.2478466180654942e-003
      6.0712485866230579e-003 -4.0779560060154336e-003
      7.6185792108662397e-003 -5.5069609420698865e-003
      4.3928038433463639e-003 3.5841566867633500e-003
      6.2076566598206614e-003 9.9053259211965092e-003
      1.0598059148075016e-002 -9.9740711549927454e-003
      -1.3190287947510688e-002 -5.3352820987587904e-003
      -2.9618993747046710e-003 -1.2491643482345355e-002
      6.0677086409753221e-004 1.3409446778003745e-002
      -7.9365392715854167e-003 -3.1221438208053221e-003
      1.5831060043597120e-003 1.1572052740455739e-003
      2.1542550259788917e-003 5.1696770529559514e-003
      3.8318429229476793e-002 2.1582192825370584e-002
      -1.9784182557188789e-002 2.6957464858911824e-002
      3.3995625044374124e-002 -6.0684121079458073e-002
      2.3257231554262160e-002 1.2855203831222777e-002
      -9.7664510981075210e-003 1.7027532338119551e-002
      3.4631857699678789e-002 -4.9640075835692118e-002
      7.4942602268823263e-003 1.7327229664030039e-002
      -1.1687077965283191e-002 1.9218992693061557e-002
      1.6629506285127219e-002 -2.4884823267984670e-002
      -1.7228571350366307e-002 -1.4549044146480405e-002
      1.0309187106796878e-002 -1.9855817067550810e-002
      -1.9923616694638702e-002 3.2508463532394033e-002
      2.3946980222673679e-003 5.7703833287295380e-003
      3.7683080420484851e-003 4.6146370945483921e-003
      -1.7294666614849743e-005 1.7734907816499740e-002
      1.1367089264972092e-003 -9.8414332313157792e-003
      -8.1475118448882456e-004 -5.5735761593209933e-003
      -5.7722142805274731e-003 9.6228204649307873e-003
      2.5260915697447810e-002 2.1982948367174772e-002
      -1.2539419257724831e-002 1.7803282104493542e-002
      2.4024746496055599e-002 -5.3894886067853726e-002
      1.2650112792593675e-002 8.8022986557559930e-003
      -4.9736943329415969e-003 1.5765040173376026e-002
      1.4567823663285826e-002 -2.3263049854222076e-002
      -4.4403634173873441e-002 -4.0843028985849995e-002
      2.9513315101856962e-002 -3.7989450595998037e-002
      -5.8868620616534750e-002 7.4972520965309777e-002
      2.8277303460070902e-002 1.5550924102748956e-002
      -1.2036347691114328e-002 3.0008844797800163e-002
      3.4737521694397422e-002 -5.2064973860140321e-002
      4.0069906114451208e-002 2.9899478513688581e-002
      -2.7797707942432744e-002 3.9626642860403787e-002
      3.6187799935584117e-002 -5.3907908571300546e-002
      1.8872568699205856e-002 1.6877970382254810e-002
      -1.6879341337948932e-002 2.0167156706959344e-002
      2.3847496929987388e-002 -4.4752452171787138e-002
      -3.4510419783693763e-002 -2.9412164562305373e-002
      2.5209421517118982e-002 -3.0315412901977441e-002
      -4.3238492928785503e-002 5.6336894183123661e-002
      -1.0015102629627414e-002 2.4237889248355242e-003
      1.7827983554065110e-003 -6.6259901674228035e-004
      -3.3746694431630317e-003 5.3472063574145209e-003
      -2.1333034055790278e-003 -1.1468611267606741e-003
      6.9236867655821177e-003 -2.3619089689006080e-003
      -1.0644654667991508e-002 1.4521871374170225e-002
      7.7294889428557818e-003 -2.8818917243986745e-004
      7.7645668016537456e-003 8.5366946618838837e-003
      3.5654226463505715e-003 -1.0076120127733026e-002
      -2.0633278365958029e-002 -9.5941056315886376e-003
      1.0869771862426754e-002 -2.5791774947023238e-002
      -2.6779510868841425e-002 3.4533740110932069e-002
      -1.5584777584444714e-002 -2.6592153168442613e-003
      6.9607989797961156e-003 -3.6883100469178014e-003
      -1.0497369966187987e-002 1.5516958330724853e-002
      -3.2776367572858796e-002 -1.1586390472809249e-002
      1.6392657242190328e-002 -1.7409436977722285e-002
      -3.4598031808697118e-002 5.4236022974483475e-002
      -1.1917677031769330e-002 -2.3499135093442286e-002
      1.3775770378781273e-002 -2.5000126323695450e-002
      -1.9193292066460730e-002 2.2876532091185398e-002
      -8.5187682826042034e-003 -1.7465715236214452e-003
      1.5598583091084200e-003 -7.0354077353892291e-003
      -2.2266293173597410e-002 2.8018445508559191e-002
      -4.8469366896547478e-003 -4.2713602301561520e-003
      8.2109734746583438e-003 -2.2609825826489138e-003
      -1.1430713742858534e-002 5.7830668269670078e-003
      -2.4351410044120850e-002 -2.4541809872398204e-002
      2.0375731006464903e-002 -2.8809415753933702e-002
      -2.8565357959158811e-002 4.5027718034210816e-002
      -4.8666341387448350e-003 -2.8761771257246626e-003
      2.4989068693605670e-003 -1.7784258646641967e-003
      -4.7100607182033591e-003 1.5291398187599900e-002
      3.2825681661860819e-002 3.0674422565133704e-002
      -2.6950861236852433e-002 3.0144179637642467e-002
      3.2612230126272290e-002 -3.5975358996512975e-002
      2.6701183057895175e-002 1.6879079252273822e-002
      -1.6720167020012496e-002 2.3310856397095035e-002
      2.1650810909739061e-002 -3.3287266844148143e-002
      7.2749734854032503e-003 3.8725573445049974e-003
      -1.4909197719389741e-002 1.2231893586932248e-002
      4.0342863559458342e-003 -1.4571487012427498e-002
      1.2271767565318122e-002 -3.2406631576376698e-003
      4.4822756233586813e-004 -3.4469067129104156e-004
      4.6460966883946448e-003 -1.6313404534310790e-002
      -2.2157176529730666e-002 -1.8457135094037784e-002
      1.1508444793466790e-002 -1.8851867015423768e-002
      -2.2416103887222334e-002 4.4246232476071318e-002
      2.9024116973964723e-003 8.4605330820982354e-003
      -3.4887582699311046e-003 5.5459561815795913e-004
      3.3896601659715859e-003 -5.3910881437271930e-003
      -2.8127156392305380e-002 -2.4054937052676029e-002
      1.2615772248092811e-002 -2.5278336234159409e-002
      -2.9915930488082960e-002 4.2926247538613918e-002
      -2.1393313998915330e-002 -1.2442913066523795e-002
      1.4309205554388775e-002 -1.3007420487534383e-002
      -1.8528519330092030e-002 3.2099037412120481e-002
      1.5221470851585282e-003 5.4392541033199899e-003
      -3.9900606942414284e-003 8.2851217945399489e-003
      3.3395591187664838e-003 -4.2343836039743354e-003
      2.4348935899696174e-002 1.6837637557186529e-002
      -1.3051123764349070e-002 2.1229110954407902e-002
      2.5158707059599057e-002 -3.6253840786689542e-002
      1.3747295095098774e-002 1.4657849006633384e-002
      -1.0681921840151643e-002 1.1496028740482398e-002
      1.7031641388184800e-002 -2.1636791969522822e-002
      -1.2742566765292843e-002 -5.7227040200579331e-003
      6.4468766710134703e-003 -2.5165660879199769e-003
      -6.3458286390811001e-003 8.3078786060370464e-003
      -8.7232156583546966e-003 -1.4560163853907862e-002
      7.9940400830585435e-003 -8.1484091823039798e-003
      -6.5776761297180290e-003 1.8026861809690188e-002
      1.1538882727904393e-002 -1.3427345804682663e-003
      -6.0277806704066529e-003 6.1818834689146085e-003
      1.3113166378513223e-002 -1.4315271181387987e-002
      -8.4448466970075253e-003 -1.4096457686920567e-002
      3.3282348792338539e-004 -4.2838419252855895e-003
      -6.8288135374319457e-003 1.8443233100364841e-002
      -3.1283439557281694e-003 5.3988792875081289e-003
      -1.7670983404510733e-003 -2.9169370327234790e-003
      7.3060752709065103e-003 -6.7118353460535775e-003
      -1.3127839389655898e-003 -1.1252479935987940e-003
      -3.0325353205704381e-003 -1.9990761118550671e-003
      -4.3441578562167446e-003 5.3008036309848206e-003
      9.7886531842672399e-003 8.8694131795389996e-003
      -1.8965490817224315e-003 1.7445607680738915e-002
      1.2778625354727883e-002 -1.6941229413864729e-002
      -3.6346709077793159e-002 -3.0071810516786403e-002
      1.3620666621515761e-002 -2.4832301096122691e-002
      -2.9088091660990176e-002 4.5955495835127459e-002
      9.4348637942578192e-003 8.9230239437678438e-003
      -5.0258683359559603e-003 -1.4086791755380222e-003
      6.7487115356436389e-003 -1.5534020074854901e-002
      -1.8541253264364711e-002 -2.0327942636673830e-002
      1.5679652940814276e-002 -2.3172049145312196e-002
      -3.1534211238510433e-002 4.4809951424952338e-002
      -3.4867674693113901e-002 -3.5935373953346138e-002
      2.6123627566909627e-002 -4.2403617618094309e-002
      -4.0464436007496489e-002 7.2420245529473251e-002
      -7.5323083749254012e-003 -2.3649441748751585e-003
      6.4700115826277771e-003 -1.6198360527416557e-002
      -1.6151674099664528e-002 2.2370530024736855e-002
      8.4300211464407894e-003 1.2926165125816921e-002
      -7.4096225356936008e-003 9.4423430252016920e-003
      2.0590134542841598e-002 -1.3772695529549140e-002
      -2.6189997613862689e-002 -2.7670657660150869e-002
      2.3227164976806904e-002 -2.5908854001922960e-002
      -4.1528519813464636e-002 4.9403756684048505e-002
      8.3516073504994199e-003 -2.9333522770197762e-003
      -6.7418375758620192e-003 -1.8516269723477948e-003
      5.3571564522894655e-003 -1.9389544572427538e-002
      -1.1686373411482355e-002 -1.1568879101593592e-002
      1.7132752396737439e-002 -2.0670221259222576e-002
      -2.8146442155363660e-002 3.4349865468539735e-002
      -6.9643672124238398e-003 -9.6742638707552776e-003
      5.4917390125255785e-003 -8.8039492694553280e-003
      -8.9727226580297182e-003 7.1752983237511996e-003
      -2.1055354186223032e-002 -1.5259307065402291e-002
      7.1425225415343652e-003 -1.7928887079760761e-002
      -2.4460076833758851e-002 2.4858548410190431e-002
      -4.1064381293597650e-002 -3.2664319320195957e-002
      2.5056386381218980e-002 -3.5874462703085419e-002
      -4.4828146537906295e-002 7.0853998938119639e-002
      9.1507184747577144e-003 2.4248972288925907e-003
      -7.3824601320936429e-003 1.3058030429065963e-002
      1.0969336214820897e-002 -1.8543319008921279e-002
      -5.8918456002030276e-003 -4.8981915857963070e-003
      3.3613165306258831e-003 -1.8536294890821972e-004
      5.0817434425409515e-003 -3.5562617950034752e-003
      2.9543633613378032e-002 1.5291861897111673e-002
      -1.0657052526178250e-002 2.0390047717441594e-002
      2.1377715928555776e-002 -2.5325835237098051e-002
      -1.9510318107633245e-002 -2.1136650935441325e-002
      1.3552514898133057e-002 -1.5160234878717975e-002
      -1.6666164027477320e-002 1.8689278461498229e-002
      1.2778410212806651e-002 1.4645448044324758e-002
      -3.2189867287746462e-003 8.4327406898053216e-003
      1.6914846838910438e-002 -2.9289151966175674e-002
      -8.8039744429614757e-003 -2.1716074385475188e-002
      1.6652386703519460e-002 -7.6371096330273679e-003
      -1.6856379528432247e-002 1.5377479181875190e-002
      -4.9321421313695589e-003 -5.7922359313135304e-003
      -7.4289253484159023e-003 1.0270026029101653e-004
      -2.6862171777569197e-003 7.1185192608297079e-003
      -7.4798735089817948e-003 -1.1410996558103922e-002
      3.5676964474283851e-003 -7.8091147164822449e-003
      -8.3830433245419885e-003 6.0319242793675561e-003
      -7.0530834178209748e-003 -1.1220243540928073e-002
      6.5974254695954438e-003 6.2726551271500349e-004
      -4.3355321997817142e-003 1.9084939093184695e-002
      8.0491258054268787e-003 2.5977761620593186e-003
      3.3462954556974312e-003 4.5893588323481201e-003
      2.5987440259328202e-003 -1.5250385438082849e-002
      8.2589604339628371e-003 5.0325483374614559e-003
      -3.5970317440530714e-003 6.5319014340109605e-003
      1.9095904995476453e-003 7.3514067788320652e-003
      9.5966393508392488e-003 1.1778887644048192e-002
      -3.4529174989312789e-003 1.9811385459238530e-002
      2.0957407833677149e-002 -2.1546492852438398e-002
      -4.0448328437322177e-002 -1.8122211328092226e-002
      1.5109097434046223e-002 -3.5397028582189065e-002
      -3.5018574347618923e-002 6.0434684858429337e-002
      3.2349112760159782e-002 2.1899933830853074e-002
      -2.6353798114290686e-002 3.1289897132886747e-002
      4.2884657936236165e-002 -5.0375338646063840e-002
      -1.4668350549281301e-002 -1.2164521945048487e-002
      2.3236390265980737e-003 -1.7265483894352690e-003
      -1.4322008908573181e-002 2.9685698517339071e-002
      -1.4089761138197545e-002 -1.6847187504896537e-002
      3.9202739364423787e-003 -1.2641706221445422e-002
      -5.3415831795805080e-003 9.5339589666630590e-003
      2.9055074712489248e-002 1.9511923059599763e-002
      -2.1445695276016800e-002 2.8406801002277268e-002
      2.5478885473756270e-002 -5.2094358623709591e-002
      9.5657967343670200e-003 8.4872989828073159e-004
      -8.0202283150886435e-003 9.3868005790455674e-003
      1.7144656438054781e-002 -2.0361241663334924e-002
      -4.0385518910977664e-003 -7.8865314702776280e-003
      -3.4531776006801055e-003 -4.1027449786777874e-003
      -8.6479189788019294e-003 1.2411348920339490e-002
      -1.2016104437904218e-003 -2.0465749071152256e-003
      5.0284587448001382e-004 -1.0324867136932564e-002
      -1.3121249144544638e-002 1.5813071770143364e-002
      -1.6301527835239214e-002 -1.0701760559988579e-002
      1.1851418727489651e-002 -2.5035352932627885e-002
      -2.9076716390457273e-002 3.3818306882428657e-002
      1.7653788919760528e-002 8.6321844706837257e-003
      -1.5905483333468567e-002 1.0165953214337610e-002
      2.7392016191430790e-002 -3.3928228207908584e-002
      -2.0928226629380733e-002 -4.4460848365979622e-003
      1.2637474658489127e-002 -1.7143849015182063e-002
      -1.9333122772626082e-002 2.2547722974530657e-002
      1.0306571263188836e-002 1.6282198164490412e-002
      -1.0593893148304280e-002 1.0497209074116540e-002
      1.7882998912935769e-002 -1.6092282367960110e-002
      7.7728072073772470e-003 5.2160597601171293e-003
      -1.0880635511066205e-002 9.4370378759943644e-003
      -3.6347495731933817e-003 -9.3156933660422012e-004
      -3.8054610190397548e-002 -2.1419842824270164e-002
      2.4316529459550165e-002 -3.3075178263329008e-002
      -4.0408819552208687e-002 5.0437635938070900e-002
      -2.2345567554199398e-002 -1.3197060183209401e-002
      1.6043373805781240e-002 -1.7317066223267480e-002
      -2.8043153221595250e-002 4.2571672706691530e-002
      -1.4907410344674984e-001 -1.0438403746960005e-001
      8.7465837646435063e-002 -1.3265808031819998e-001
      -1.5482420896801261e-001 2.1660608971928735e-001</_>
    <_>
      5.3752156256522210e-001 4.2104283752894267e-001
      -3.1935183790666172e-001 5.0362306316585592e-001
      6.0629275212762868e-001 -8.9888387508046552e-001
      -1.3802870377031934e-001</_></weights></opencv_ml_ann_mlp>
</opencv_storage>
