<?xml version="1.0"?>
<opencv_storage>
<opencv_ml_ann_mlp>
  <format>3</format>
  <layer_sizes>
    256 5 1</layer_sizes>
  <activation_function>SIGMOID_SYM</activation_function>
  <f_param1>6.6666666666666663e-001</f_param1>
  <f_param2>1.7159000000000000e+000</f_param2>
  <min_val>-9.4999999999999996e-001</min_val>
  <max_val>9.4999999999999996e-001</max_val>
  <min_val1>-9.7999999999999998e-001</min_val1>
  <max_val1>9.7999999999999998e-001</max_val1>
  <training_params>
    <train_method>BACKPROP</train_method>
    <dw_scale>1.0000000000000000e-003</dw_scale>
    <moment_scale>0.</moment_scale>
    <term_criteria>
      <epsilon>1.0000000000000000e-004</epsilon>
      <iterations>300</iterations></term_criteria></training_params>
  <input_scale>
    8.5806180134027112e+000 -2.3047407952374113e+000
    6.5920768386072177e+002 -2.7349127021217781e+000
    3.8055690562421552e+002 -1.6575463491521918e+000
    5.6897329457774208e+002 -2.1987671811174332e+000 1. 0. 1. 0.
    8.2237332717215267e+001 -1.6676623944531490e+000 1. 0.
    3.6092931469206553e+002 -1.6093756665195389e+000 1. 0. 1. 0. 1. 0.
    1.5970345931809481e+002 -2.7514438006604109e+000
    2.2600602486444081e+003 -7.0104748046554011e-001
    2.1609854563691915e+001 -3.6311549206579392e+000
    9.8896873170137098e+001 -1.7025620973124140e+000
    2.3336811077330793e+002 -1.5020591295516965e+000 1. 0. 1. 0. 1. 0.
    1. 0. 1. 0. 3.9178835235494821e+003 -1.1140132956055930e+000 1. 0.
    4.5273888819263129e+002 -2.1650388472584692e+000 1. 0. 1. 0. 1. 0.
    1. 0. 1. 0. 7.3978469168914472e+001 -1.8501310197052090e+000 1. 0.
    3.9754866302343731e+002 -2.3275802991477219e+000 1. 0. 1. 0. 1. 0.
    1. 0. 1. 0. 2.2895533626751017e+003 -1.0652939123575496e+000 1. 0.
    1.2414928308218764e+003 -8.5042547028204662e-001 1. 0. 1. 0. 1. 0.
    1. 0. 1. 0. 1.4528832613119823e+003 -1.3707862944663938e+000 1. 0.
    4.0167376786489308e+002 -2.3465406101411390e+000 1. 0. 1. 0. 1. 0.
    1. 0. 1. 0. 3.0536292691844546e+003 -1.1050718470584642e+000 1. 0.
    1.4959163840595568e+002 -1.2741158216719619e+000 1. 0. 1. 0. 1. 0.
    1. 0. 1. 0. 2.7226451806803482e+002 -2.3752591122061459e+000 1. 0.
    1. 0. 1. 0. 1. 0. 1. 0. 1. 0. 1. 0. 1. 0. 1. 0. 1. 0. 1. 0. 1. 0. 1.
    0. 1. 0. 1. 0. 1. 0. 1. 0. 1. 0. 1. 0. 1. 0. 1. 0. 1. 0. 1. 0. 1. 0.
    1. 0. 1. 0. 1. 0. 1. 0. 1. 0. 1. 0. 1. 0. 1. 0. 1. 0.
    1.4870873657599003e+002 -2.4101839764538595e+000
    3.1073342946778098e+003 -9.6386318884846101e-001
    2.0503538989429567e+003 -1.0864978221455037e+000
    3.7399167494928752e+003 -9.6673647683864639e-001 1. 0. 1. 0. 1. 0.
    1. 0. 1. 0. 1. 0. 1. 0. 1. 0. 6.8613340673704431e+002
    -1.0818936489006159e+000 5.1240858067068812e+003
    -3.3113308664993596e-001 1.0020464139048679e+003
    -1.5929755969805632e+000 2.3478422595582547e+003
    -9.4069055340101060e-001 1. 0. 1. 0. 1. 0. 1. 0. 1. 0. 1. 0. 1. 0.
    1. 0. 1. 0. 1. 0. 1. 0. 1. 0. 1. 0. 1. 0. 1. 0. 1. 0.
    3.6601432161234356e+002 -1.8827702461961984e+000
    5.0373421224233613e+002 -2.4674981186495444e+000
    2.0249178224528716e+003 -8.3747828179543826e-001
    4.7041525034994166e+001 -7.6485342803011414e-001 1. 0. 1. 0. 1. 0.
    1. 0. 1. 0. 1. 0. 1. 0. 1. 0. 2.7423778002259464e+003
    -1.7367589442489464e+000 3.6719126327524818e+003
    -9.0170009066967594e-001 1.5352070829485049e+003
    -1.7064029430152174e+000 8.7747834775632981e+001
    -1.2724638244337665e+000 1. 0. 1. 0. 1. 0. 1. 0. 1. 0. 1. 0. 1. 0.
    1. 0. 1. 0. 1. 0. 1. 0. 1. 0. 1. 0. 1. 0. 1. 0. 1. 0. 1. 0. 1. 0. 1.
    0. 1. 0. 1. 0. 1. 0. 1. 0. 1. 0. 1. 0. 1. 0. 1. 0. 1. 0. 1. 0. 1. 0.
    1. 0. 1. 0. 1. 0. 1. 0. 1. 0. 1. 0. 1. 0. 1. 0. 1. 0. 1. 0. 1. 0. 1.
    0. 1. 0. 1. 0. 1. 0. 1. 0. 1. 0. 1. 0. 1.1924712788099413e+002
    -2.3673110040913632e+000 1. 0. 1. 0. 1. 0. 1. 0. 1. 0.
    5.3928574169318733e+002 -1.1291460680554846e+000 1. 0.
    2.3832165927388473e+003 -1.4784986304264875e+000 1. 0. 1. 0. 1. 0.
    1. 0. 1. 0. 7.8269417144625686e+002 -1.5578620356533579e+000 1. 0.
    2.6664152441444785e+003 -8.9601917552084898e-001 1. 0. 1. 0. 1. 0.
    1. 0. 1. 0. 1.6495766054389122e+004 -2.1320071635561044e-001 1. 0.
    4.8169703841364117e+003 -9.3385920954703550e-001 1. 0. 1. 0. 1. 0.
    1. 0. 1. 0. 1.8390654538823383e+003 -1.0696110419609675e+000 1. 0.
    1.6693243706177373e+001 -3.4481650255685712e+000
    4.9861145445468161e+001 -1.5749966374248880e+000
    1.3834085687436238e+003 -1.6449566652407919e+000
    1.4752115701707950e+002 -1.7541160089764622e+000 1. 0. 1. 0.
    9.4021103888207745e+002 -1.6040409481670399e+000 1. 0.
    1.4083941584831696e+003 -1.9477094187276016e+000 1. 0. 1. 0. 1. 0.
    7.6015811812204379e+002 -1.5228313555827619e+000
    1.7353042798004858e+003 -8.9712260986163173e-001
    6.2791770884283515e+001 -2.0069799361085918e+000
    3.0810097610488486e+002 -2.6361325076442439e+000
    1.1553079248722440e+002 -2.2920405998200657e+000 1. 0. 1. 0. 1. 0.
    1. 0. 1. 0. 3.3419613605862510e+003 -1.1662223603807640e+000 1. 0.
    1.8646399826399067e+002 -1.5520190097834268e+000 1. 0. 1. 0. 1. 0.
    1. 0. 1. 0. 1.9176998776358681e+002 -1.5168695532387111e+000 1. 0.</input_scale>
  <output_scale>
    1.0526315789473684e+000 0.</output_scale>
  <inv_output_scale>
    9.4999999999999996e-001 0.</inv_output_scale>
  <weights>
    <_>
      1.2855989278112486e-002 -2.6922038998085908e-002
      -2.0012630638096163e-001 8.4388209805130204e-002
      1.3270268555657819e-001 4.0261001797032448e-003
      -5.1836818332222680e-003 -1.6894932684020574e-002
      7.7173442111776406e-003 1.1806138229823047e-002
      1.0402334812420255e-002 -1.5753778106501540e-002
      -1.5239381785867731e-001 5.9312740441732535e-002
      8.6961301197962734e-002 -2.5198914038218789e-003
      -1.9224644072159963e-004 -3.8922666544256877e-002
      1.0868253496716431e-002 3.4484679017051739e-002
      -6.5407887755806757e-003 4.4877820441425516e-003
      -6.8848787260436409e-004 -1.4898212068852760e-003
      1.4941095022167515e-003 -4.8529329241484226e-003
      -1.2545905661298538e-003 -2.1760758419575106e-003
      5.5333650792368664e-003 -2.8575526285750798e-003
      9.2455252458760861e-003 -5.1574543846750719e-003
      -2.3534835763963112e-002 1.2338014147848764e-002
      2.4215803705103296e-002 -3.9769272387670286e-003
      -4.6657266423831383e-003 -4.7890981080582042e-003
      1.2781282473126928e-003 -1.6449164795524220e-003
      -8.6252843240256335e-005 -1.1522029629500111e-002
      -4.8200483841387476e-002 2.4730866212009910e-002
      2.7069296961336593e-002 5.4654362172636634e-003
      -2.9502734708555436e-003 -2.0686509442220793e-004
      -2.5178993215945523e-003 2.4181393978276533e-003
      5.9265637872271907e-003 -7.3195430767547896e-003
      6.6663992285374996e-003 -3.7336870559152649e-003
      5.6519354863572586e-003 8.4007800208060323e-004
      -5.6035976919023758e-003 -4.4768156770116111e-003
      -2.8512287863441585e-003 -6.7633672573320265e-003
      -2.2749391994050901e-002 2.6783877419103406e-002
      1.5696366792708891e-001 -6.8158725187666455e-002
      -1.0880734489833779e-001 -5.1129235472153495e-003
      5.3205476484958082e-004 1.2237626112252644e-002
      8.2494078371759161e-004 1.1632087198991472e-003
      -1.7127383534464878e-002 2.3145342493887493e-002
      1.2756581776838302e-001 -4.7474471921810167e-002
      -8.2221662521499150e-002 -2.0910223558826421e-002
      2.2741235650009007e-002 1.5406055071853189e-001
      -6.3704692879937824e-002 -9.5799562251482132e-002
      -5.4990071863683914e-003 -4.0165886307419272e-003
      1.4541051785659646e-002 -5.3222318663908568e-003
      -1.5870937322163797e-002 -2.2282083877517560e-004
      2.2998169220123351e-003 1.4762003528712645e-003
      -5.3206911660373685e-003 3.5032362184845710e-003
      -3.3696622555225340e-003 -2.3152984107512064e-003
      7.8642368255124190e-003 1.6710492061222098e-004
      6.3234747152646686e-003 -2.4267477589711684e-003
      4.0046793979175727e-003 4.6810604027845738e-003
      -1.3449331296391852e-004 4.9237693383286131e-003
      4.4531743334715332e-003 5.1911391213357002e-003
      3.7489581568330046e-003 1.5114751452949076e-003
      6.0178298058629499e-003 -4.5555969983626914e-003
      -1.5476432177381351e-003 -2.6151544740135170e-003
      4.1602236108275216e-003 -2.4865210326765592e-003
      -1.1003087606298948e-002 1.2686999660059426e-002
      9.9402403415632681e-002 -3.7022077336358594e-002
      -6.1614367013576192e-002 -5.7542901661794422e-003
      -4.8709538931686423e-003 -7.3431976694794373e-003
      4.4421694191928022e-003 2.4861985257045782e-003
      6.5704802628911783e-004 6.1888251968009499e-003
      3.7810172574840352e-002 -1.0853622631711237e-002
      -1.8261356524859620e-002 -7.0736423021140896e-003
      -5.4409147573487035e-003 3.5117177714723358e-003
      2.1894122174779443e-005 -5.9634031533676605e-003
      -6.4669536494769298e-003 -4.1887838245293673e-003
      -5.1477402020346690e-003 -5.5226151795826801e-003
      5.3556769893112217e-003 -7.1552861434701961e-003
      -5.1902355983407342e-003 -1.2625572848855242e-004
      2.1505195188600476e-004 3.2452231501939113e-003
      5.7571563316396231e-003 7.6771972614084433e-004
      -1.3591718126697027e-003 4.6039265139650775e-003
      5.0742407460925782e-003 -6.3021781108337218e-003
      3.5751753187899203e-004 -5.7973950642342580e-003
      1.6055584262580579e-003 4.3473815135820354e-003
      -2.3824857550200741e-002 2.0333347485483749e-002
      1.6546460743084490e-001 -7.1872967886617595e-002
      -1.0432587823349961e-001 3.2463687136513888e-003
      3.5073176501060556e-003 -4.5357287897345588e-004
      4.4590368241862995e-003 1.0767699483696636e-003
      4.4827940229802046e-003 -7.0082649319884787e-003
      -5.7132967839814655e-002 2.1509778828391637e-002
      3.8434532146189311e-002 3.0504880762800388e-003
      -8.2702287827781653e-004 -5.0256363062741926e-003
      2.8713037599636779e-003 1.3543684290175226e-003
      1.1525466640383549e-003 3.8776836365769798e-003
      -3.4444409316926011e-003 -3.1729585325346544e-003
      -5.9595877144066152e-004 -5.6339841485207936e-003
      1.7636665581685724e-003 -2.4131273063007596e-003
      6.7890713797277447e-003 -1.7912876673482293e-003
      -2.7917452582476234e-003 -1.3826033628227879e-003
      6.7395208698658345e-003 -3.5761222190451203e-003
      -1.5088784872268944e-003 6.0813398040867961e-003
      -2.6451862745250987e-003 -9.4438834716589041e-005
      -2.0860755011792723e-003 -6.0656694634295344e-003
      6.3196275156500057e-003 3.5798390100583280e-004
      -2.8774846886438971e-002 1.5106125871024100e-002
      2.5503621681375217e-002 5.1340424700277885e-003
      -1.9492022908296752e-003 -4.1708857496288527e-004
      7.1819873535118031e-003 -6.6166725921549523e-003
      3.3563964761276861e-003 -1.3075863322563955e-002
      -1.0208167083222112e-001 4.2307938878792292e-002
      6.0146824120246932e-002 -5.6033208485317737e-003
      -7.5518603838811947e-003 1.7280116146005356e-003
      -4.9078701506667464e-003 2.3238891312550190e-004
      2.7524039383380024e-003 -2.8618097231569301e-003
      1.0407519584755796e-003 -3.1201526172357826e-003
      -1.7014876406101611e-003 4.3614528978076347e-003
      -1.6993146420166932e-003 7.0755625060612472e-003
      -1.4207484492413113e-004 -3.8237705525183355e-003
      -6.4769274011704575e-003 1.1384107835026541e-004
      -2.6865479042781255e-003 -4.2507374107954854e-003
      6.4360350010259672e-003 7.4642981702041401e-003
      3.2120205739933363e-003 -7.2883263915886828e-003
      5.9170442196205273e-003 -1.0585900207345646e-003
      6.8533873661361785e-003 -4.4447902509516732e-003
      -8.9909052832171016e-002 3.7354952237540547e-002
      6.1676075632689606e-002 -5.9097987217679379e-003
      -4.9727886391638977e-003 -3.1174776660184881e-004
      -7.3990440158760535e-003 -6.6351019162330452e-003
      5.3917713865580608e-003 -7.3082116954327021e-003
      -2.3771699719682893e-002 1.8247856036034133e-003
      1.7948392359137057e-002 4.3147357576826329e-003
      4.7913751335673972e-003 6.3846262615282492e-004
      -6.5526339176837462e-003 -9.7424976241726414e-004
      -2.8718005936597150e-003 4.8285722471244274e-003
      5.5194451810885638e-003 3.2247519063583136e-003
      -3.8685021256599575e-003 3.9936292213270767e-003
      -7.2414929695438729e-004 5.2831736439627490e-003
      -6.2138979080985099e-003 -2.4303524216410938e-004
      -1.2570024940458033e-003 4.3523399052733756e-003
      6.3148001456648740e-003 2.7016695143696383e-003
      -7.2859143925488624e-003 2.7936083209672822e-003
      6.3997875145422644e-003 -2.5602962824307759e-003
      5.3338420359837152e-003 1.3493420722325796e-003
      -1.3203846228199458e-002 1.2895236925876590e-002
      6.4335528195871794e-002 -2.9523970784473382e-002
      -3.7334693131012849e-002 -1.9570311834792467e-003
      7.6278111095743721e-003 3.6551235897246980e-003
      4.3897274814288251e-003 4.9345286037354190e-003
      1.2979507715800391e-002 -2.0092527633213189e-002
      -1.5342336624216935e-001 5.5719644918966388e-002
      9.9089924535707544e-002 -5.2678692745075700e-003
      -7.1191143474481702e-003 5.8555600173921052e-003
      -5.0337184276569684e-003 1.5170963434910946e-003
      5.0047232750469114e-003 7.3708755587524426e-003
      -2.6922587871291970e-004 4.1200743021988593e-003
      -3.8494307163752127e-003 1.6224680344158070e-003
      4.4829129984853174e-003 7.0153219754053335e-003
      1.3187414897490438e-003 2.4930958505146299e-003
      4.4906123155695494e-003 -6.4410428427694828e-003
      2.3881176071178707e-003 1.4311883957740645e-003
      1.7705968287062984e-003 -4.5839766495709674e-003
      5.2222333191411169e-003 6.9093514034270576e-003
      -4.1128270700440108e-003 1.0468597531429640e-003
      -7.2460607553178616e-003 7.5463602154529031e-003
      2.6590816212973715e-002 -2.0556553005125051e-002
      -1.4562811308070906e-002 8.2806148370117314e-004
      1.9439107055026111e-003 -2.9469042830215530e-003
      -4.2409979739957250e-003 2.6705110653801353e-003
      -3.4393486899039101e-003 9.6953683545980193e-004
      5.0355754106215880e-004 -1.9755005103590513e-003
      5.5882441911398063e-003 -4.9495506442342220e-003
      3.2572996921072933e-003 6.6009887957857267e-003
      4.1161640495631160e-003 3.6778525152084724e-003
      6.2897086041309403e-003 1.0753287448885351e-003
      4.2716434519318863e-003 -3.1545051458835866e-003
      7.4960831818578827e-003 -4.9163746295366878e-003
      -7.3924493516964503e-003 -5.1683348411099327e-003
      -3.5973455642041149e-003 5.5234759845032714e-003
      3.3643831513448254e-003 -7.1680674085892676e-003
      -5.3867275152081175e-003 -1.8705676038583015e-003
      -3.8963283718464084e-003 -5.6561518587612755e-003
      3.0250107303084889e-004 -3.8368146136642889e-005
      -7.0354132744690316e-003 -2.3995174324392991e-003
      -5.3757749205245843e-003 7.4768238280829456e-004
      2.0108105603448903e-003 -4.4084239565330132e-003
      -7.1505384346748193e-003 -5.4640565905412488e-003
      -4.6672965579130201e-003 5.7174343272392101e-003
      -1.5744834129674313e-003 3.7634558577016816e-003
      5.3289167328430219e-003 6.5814030569727434e-004
      4.1079031449062714e-003 -2.3303261678757053e-003
      6.5995332003475063e-003 -3.8241593123855390e-003
      -4.1488958709768762e-003 1.4920479042359550e-003
      4.5062699025975993e-003 1.8654357492240445e-003
      -4.0221947668618550e-003 -6.2369502555454414e-003
      7.8826362301764163e-003 -3.0004800740716718e-003
      -6.1569393317895032e-003 8.3970778702967036e-004
      -8.5876932967064007e-004 -6.4297261999093054e-003
      -1.4141997761417998e-003 1.9722357863530332e-003
      2.7707787651024651e-003 2.9388665081936955e-003
      5.4847891658440350e-003 3.0244388445317023e-003
      7.6781269082319501e-003 -3.2408680769208625e-003
      4.4638797435801684e-003 -3.8575610574543277e-004
      7.5532374170847990e-003 2.3187665210154243e-003
      3.0655517302103754e-003 6.4782902783553980e-004
      1.4179908111463173e-003 -2.8199392542004893e-003
      7.6109489197072281e-003 1.3791955312055270e-003
      5.9936380611431443e-003 -4.4486793229820600e-003
      3.8627818040573394e-003 -2.3882678619377077e-003
      -6.8182100281335154e-003 3.7704270454593696e-003
      6.0704696765597780e-003 3.5765815475737317e-003
      -7.3325923710488537e-003 -5.4433842458022266e-003
      4.8662801738026864e-003 -3.9596453216408532e-003
      4.8127423075574010e-004 -2.6027086949505437e-003
      -2.1089939472170647e-003 -6.9319922780708134e-003
      5.0316840164792770e-003 -4.6365364232406562e-003
      2.2834371368646018e-005 -2.7842216008800596e-003
      2.8682932137384442e-004 -2.3882035200993631e-003
      -6.3017861680910560e-003 3.5502525826650137e-003
      -4.8791238320602488e-003 4.7003068834305011e-003
      -2.1130797814276053e-003 4.8673656452603098e-003
      3.0038251647905977e-003 -3.6492611815449215e-003
      7.0696655717327412e-003 1.2524496395263040e-003
      3.2195857867874382e-003 5.4422400279776273e-003
      6.7871440671619333e-003 2.2393810476240305e-003
      -2.4534191648038018e-003 -5.5149978540183766e-003
      -7.2693329704839344e-003 -1.2292659363989146e-003
      -1.0675565179527678e-003 -5.3447830110557272e-003
      -2.4038019197390194e-003 3.4829691062643461e-003
      -3.4051206582180605e-003 5.5583313605594856e-004
      4.9403503102582189e-003 -6.4674167260206509e-003
      -2.1567345948202434e-003 -2.2679785475467995e-003
      7.6979058270508233e-003 5.1413571459266328e-003
      1.7062267641747446e-004 -2.3634004076865012e-003
      -4.3109191911828524e-003 -5.7857126670458796e-003
      1.7454600605872133e-003 4.7965672967278305e-003
      3.4398852522238015e-003 3.1380407650892150e-003
      3.1951539254044150e-003 2.9786202244478839e-003
      7.0710398303781025e-003 -2.6685409273897892e-003
      -5.4252009303351655e-003 -6.7904510592537680e-003
      2.2363149576334787e-003 2.6735722485705443e-003
      -3.9132524158065271e-003 -1.9231048420717232e-003
      -6.4051504307084560e-003 -6.9590129363939694e-004
      -1.4383618924460138e-003 6.6519743055256236e-003
      -2.9752220534577586e-003 -9.6436797569311153e-004
      -5.6011689449378460e-003 -5.3634836766545870e-003
      4.2927497939043312e-004 -3.8137049997567082e-003
      5.8068266524226742e-003 7.7840226280942188e-003
      -2.6153476856247502e-003 -4.2437352527857167e-005
      5.7097005022337189e-003 -8.0749729983089092e-003
      -9.7018272746731624e-002 3.7859261829443554e-002
      6.4561191098905110e-002 4.2735955449714428e-003
      7.0322467458147275e-003 2.5259411348752146e-003
      -2.6457280780591841e-003 4.5819041803625083e-003
      -4.7165091932274781e-003 1.6802426438052308e-002
      9.0743538426019746e-002 -3.3878177415945086e-002
      -4.6374556939128619e-002 5.9781527769334070e-005
      -9.3018461359594209e-004 3.8790624697968068e-002
      -2.2638596331843474e-003 -9.4884816966985096e-003
      4.4945189279511893e-003 -4.3409200873567545e-003
      2.7501751311518490e-003 -5.9429768073035374e-003
      -2.9452337375866283e-003 7.4671814035451910e-003
      -1.0067404319201944e-003 -7.5868878885895288e-003
      -4.2868901328643053e-003 -3.0042527975232178e-003
      3.9675120615102009e-003 -1.5908157024410101e-003
      1.1587839543897730e-003 1.5366834600347341e-003
      6.5442310945669499e-003 3.5392244778392301e-003
      4.3555447095030841e-003 4.4756999101911195e-006
      9.6710711813838301e-004 6.1805990689560398e-003
      -5.0588279583341483e-003 1.1195491650285300e-003
      3.4403967694472191e-003 -5.7987902872840766e-003
      4.6736878290397389e-003 -7.2792355533136191e-003
      -4.0388993581110394e-003 3.6000391230412328e-003
      7.7279832385701150e-003 2.4593020757739292e-003
      -1.8677175531547547e-003 -3.9451197184760351e-003
      4.0422574968757738e-006 -4.3120892357125006e-003
      6.8480421812501069e-004 1.6323866534905973e-003
      4.5397100552812342e-003 -7.1072474114771298e-003
      -6.5245403559537566e-003 -2.2773417722083385e-003
      1.1658481090632253e-002 -2.2898270101337638e-002
      -1.0351429488031939e-001 4.5516772096576806e-002
      6.8534975888682598e-002 1.3561651602322611e-002
      -1.1389888770054439e-002 -7.4108683481556720e-002
      3.1951237004153310e-002 4.6552345417920513e-002
      3.1925833286747811e-003 6.8015295111496345e-003
      3.8090584874780252e-002 -1.3430749763116548e-002
      -3.1243500050397312e-002 -1.3824871929382011e-002
      3.0543916803805519e-002 1.9829013715864721e-001
      -7.0473970424146132e-002 -1.2739317997256702e-001
      -2.8427725422767781e-003 -5.6136933683063554e-003
      -5.7997391412268817e-003 -3.8194212421010679e-003
      -5.6271287489986777e-003 5.4916122178972392e-003
      6.3837508674682028e-004 -1.1751392054456869e-003
      7.3363898879227254e-003 7.2892009568503776e-003
      2.5103868921686865e-003 5.8004166618672061e-003
      5.8148168597196041e-003 -5.2068062128168020e-003
      7.1531950512889533e-003 -1.5866067273438676e-003
      -6.5440685092949414e-004 -6.2397795455279895e-004
      7.5333370627777693e-003 -5.0508546948610901e-003
      3.9413282279352081e-003 6.0640821085721159e-003
      7.1736041380922114e-003 5.7872271911411461e-003
      4.4446620785536630e-004 4.5929736963468016e-003
      2.5087050176089347e-003 1.1847999706461479e-003
      -5.2744668003980146e-003 -4.2573958625685129e-003
      -6.2806870010235043e-003 -1.9700250309028513e-003
      3.7612831477783779e-003 -4.8733748187547443e-003
      -6.3035993466276233e-003 5.3084890497901984e-003
      -2.3175358832100768e-004 -2.1920357077908842e-004
      -2.1404913829190294e-003 -5.0655778432470841e-003
      1.6790258303582440e-003 2.9283738510119990e-004
      8.1419376117643407e-003 -7.3674027059832904e-003
      -2.2757387033071612e-004 -5.8002282035924562e-004
      -4.5742843143595233e-003 3.9642182749645271e-003
      5.1946087803636841e-003 1.4341638091916447e-003
      4.5446717492931528e-003 -4.6130119577676423e-003
      4.6744541213018034e-003 -3.5240944444590644e-003
      -4.5882767712891528e-006 7.3552595192746331e-003
      4.2097390109991240e-003 3.4630535183973934e-003
      -5.1451630634114691e-003 6.5667292328859036e-003
      -6.3078297467457373e-003 1.4431912478913686e-003
      3.5785638444974233e-003 -4.3723741175360738e-003
      2.5465238031103024e-003 -2.8046040180733701e-003
      6.5231952530083945e-003 5.6279830147180120e-003
      3.1316000433617659e-004 4.2287414371327998e-003
      -7.3962431248052749e-004 -6.5901261764026772e-003
      -7.5575613003832920e-003 -4.5066455125338601e-003
      -1.1243442663781580e-003 -1.2864836290414326e-003
      -5.8381233271983125e-003 7.2150312851958802e-003
      -7.1824779247532536e-003 5.3203802534467735e-003
      7.2590097348167884e-003 -5.1369857267014127e-003
      -2.4800478006310803e-002 1.2832063372361226e-002
      2.1939224624620144e-002 -2.7674591061230990e-004
      9.5772323408464498e-003 4.4940098689305708e-002
      -1.5535434997252772e-002 -1.8854602030191847e-002
      8.7003392808427948e-003 -1.0970119347319457e-002
      -6.7464085822521475e-002 2.7229159371522323e-002
      5.2719785090659201e-002 1.4120283709763835e-002
      -1.6655736171325652e-002 -1.0422909805874628e-001
      4.4641010828267061e-002 6.1729322967814068e-002
      6.0331676181450732e-003 3.1088827200332894e-003
      6.2435230219968297e-003 5.8385187715765908e-003
      -7.3230493614375256e-003 1.6738701572431940e-003
      5.8026406204120121e-003 -7.9338538363689769e-003
      2.8827564069612934e-003 -4.8188789839143202e-003
      -4.7628720920271623e-004 -2.3439403093814559e-003
      6.5493963224250180e-003 1.7947327608098149e-003
      4.4891553338093741e-003 6.6110824211423587e-003
      -7.3100493854235038e-003 2.7407577835817272e-003
      -1.5837631128041566e-003 -6.4933138130252987e-003
      2.6919791651625791e-003 3.1211560130894322e-003
      6.5419934510424294e-003 7.5321509214354291e-004
      2.4503817243971358e-003 4.3904604508275399e-003
      -5.2942317659568873e-003 3.9621730087468117e-003
      6.1189655051084348e-003 -2.9022565329758256e-003
      5.0871149370736515e-003 2.6906231233726698e-003
      -3.3528932866277771e-003 -1.2687377635923281e-003
      -6.2476338375747741e-003 -3.7568225401412988e-003
      -4.8082040278627789e-003 -6.9934688128173751e-003
      -1.7832201868654340e-003 7.4629873684542740e-003
      -5.0478040004590923e-003 1.7914345303526407e-002
      9.0513847392106689e-002 -3.2862574201384526e-002
      -5.5364846436595672e-002 -5.7076679630970037e-003
      1.0442393084534183e-002 9.3848961535477268e-002
      -3.6580269927651635e-002 -5.4673191600278961e-002
      -9.6413585812307676e-003 1.5487394141867040e-002
      7.5212078323314890e-002 -2.5052401926139056e-002
      -4.6373499771603502e-002 5.0915268448604471e-003
      2.7904456831518001e-004 -8.8454532382386056e-003
      1.2021562359226018e-002 4.2562331159777473e-003
      5.0804599125985729e-003 7.1407698066196608e-003
      1.8226032429008129e-003 -7.3536952002379715e-003
      6.6201920448615904e-004 -4.6278302471662348e-003
      6.2644003543572734e-003 -6.2326193290738255e-003
      6.2588376197792069e-003 -1.8897293920154712e-003
      -1.3901485428351611e-003 -5.9906159188371517e-003
      1.9985110889235262e-003 2.4411389682751231e-003
      1.2598560258578820e-003 5.3967574954557253e-003
      -2.9215529976219941e-003 3.2354441014521558e-003
      3.9446504541777849e-003 7.0146098879395359e-003
      1.2354997361919068e-003 1.7036328674697339e-003
      4.6707905554615745e-003 -3.8088159811559687e-003
      6.7067825203557902e-003 1.6336723591878408e-003
      -4.8791940175422297e-003 7.2992517288699744e-003
      -6.3041635872846599e-003 -6.9693556844152432e-003
      5.6057003146200704e-003 1.2756726070543027e-003
      -5.5892879811089381e-003 5.5270245615793735e-003
      -7.2698664057214207e-003 5.4453650438762800e-003
      -2.5530479076960638e-003 -3.7839874162491662e-003
      -2.6385220959807814e-003 -2.1249870945594610e-003
      -1.2711022011298895e-003 -2.4990231918722516e-003
      -2.8023538239881555e-003 1.8044401298900740e-003
      -4.3629709135326012e-004 5.8437981127038418e-003
      3.7696531849033110e-003 4.9146563106514819e-003
      1.1151681725407102e-003 -4.6593956570451546e-003
      5.8682778547073534e-003 2.1017884259891474e-003
      -2.8234743815335776e-003 5.4046826723402981e-003
      1.5514483508228341e-003 -3.0495444772456296e-004
      7.3429117304147605e-003 -7.0646575441696280e-003
      -1.2219759136217674e-003 1.7917027755236998e-003
      -3.5923969918041105e-003 5.3920375660727047e-004
      -2.2246773547435358e-003 1.0153062034383407e-003
      -4.9900338722164168e-003 -3.3238572825234924e-003
      -5.4221522417741757e-003 -3.4157768975826347e-003
      -3.3122096483146645e-003 3.0766195226745816e-003
      4.7064359150034889e-003 -3.7975229460019272e-003
      -8.3996798772127831e-004 7.0698105609033066e-003
      6.8938823483283267e-003 -2.9353944781763692e-003
      5.0004551867849096e-003 2.1434781421905240e-003
      3.3042008780126979e-003 -7.2674270089306374e-003
      -4.0054378714217999e-003 -7.6979852071460417e-003
      -6.5318969304275377e-003 -5.6471890346781245e-003
      7.3563822924909402e-003 3.5416322143294481e-003
      9.6297839411703932e-004 4.6303726673981235e-003
      -4.5817800919300319e-003 -7.5944972758934986e-003
      -7.2100970938745491e-003 -3.5889378341894514e-003
      4.7719315207006658e-003 -6.2655663699937936e-003
      6.0559392922276715e-003 3.4238831554686739e-003
      -5.1884674111473527e-003 5.4995741130160168e-003
      -3.6294473738103816e-003 -2.4214224082304181e-003
      3.0071037252508239e-003 -5.6316139025791891e-003
      5.7904376342747376e-003 1.0793154106315376e-003
      -6.0521613624877789e-003 -1.8770402366810877e-003
      7.0511373858237912e-003 -1.0780026941988209e-004
      1.1468001107529371e-003 3.0319168320595033e-003
      3.0119208735141473e-003 1.6069506854893784e-003
      -2.2051958285371734e-003 -7.3970981458418581e-003
      6.3158970597044046e-003 5.2851414866550922e-003
      -1.4924094941927033e-003 8.0730107151882440e-003
      2.4002078927607231e-003 -5.7650863147688178e-003
      -3.2615581627994778e-004 -2.5062631978948319e-003
      4.8619062337982733e-003 2.6062905571256180e-003
      1.9965025784420419e-003 -1.8330289334437546e-003
      3.4509421537359786e-003 3.6521471211247241e-003
      1.4657104956345818e-003 -1.7302765768190044e-003
      -2.8571991019035178e-004 -3.3358687550056384e-003
      1.7992918370739032e-003 6.7433186344719740e-003
      6.5738481190572441e-004 4.0903776923109526e-003
      -5.3729323350721744e-003 7.2717218759214813e-003
      -7.7422721137997601e-003 1.4168112307668254e-003
      1.9570325225806316e-004 2.4894669574984734e-003
      6.1198914251393921e-003 6.8568162613951390e-003
      3.7090688391516451e-003 -7.3513790007634968e-003
      -3.7192057691932511e-004 -6.7112182796491898e-003
      -6.6737325042224684e-003 7.5175485075091196e-003
      -2.3769374841562736e-003 3.5217773171209040e-003
      -4.3319255097206385e-003 6.8590454612778243e-003
      6.2480477222412508e-003 5.7816530742554146e-003
      -3.7017098398802848e-003 -8.0913678141050890e-004
      -3.3786830976804167e-003 -2.9594749356634245e-003
      -8.0077317853045763e-004 -5.7544208330426545e-003
      3.8033824668737711e-003 -5.3773750380421322e-003
      6.6275233721582181e-003 -6.4280073817686448e-003
      6.1728563632919842e-003 -3.2100113055509773e-003
      6.0086699807069786e-003 9.0396988565634440e-004
      3.2857573650493122e-003 3.3598747281535545e-003
      -3.8552224387415441e-003 3.3568430471012258e-005
      1.0759823077802837e-003 5.1493824855987974e-003
      6.8241535320497197e-003 3.5821899400890972e-003
      6.6726679812307921e-003 4.5197769870406919e-003
      6.3340902226367273e-003 -4.8960740593383184e-003
      -4.9998784973444947e-003 -5.4356170198032675e-004
      -6.4849975067532136e-004 -1.2389754148441701e-003
      1.7259418746735315e-003 2.2276051965518886e-003
      -6.8353386183078986e-003 -7.0206526989373954e-003
      7.0204974936123075e-006 -1.3527647096274274e-003
      2.6542339497166974e-003 4.4126662801100783e-003
      1.0986073430164776e-003 5.6983153639849314e-004
      -5.8767657093592779e-003 3.3847851738316231e-003
      4.1401645602146377e-003 -7.1545546751596379e-003
      -2.4077761217093079e-003 -7.7640778705498851e-003
      5.0342588047487258e-003 1.5252200290786283e-003
      -6.2943429024309432e-004 5.3495761303546411e-003
      2.3646410598760462e-003 -6.8984970960986316e-003
      7.3589552571375521e-003 -2.7383706352463789e-003
      -6.9781420522458124e-003 -2.0974669844516149e-003
      -3.2801328829619837e-003 -3.4581668170670025e-003
      -6.6852598027736018e-003 3.5903989380699159e-003
      4.4947980303554753e-004 2.8513853049021405e-003
      5.5041838798736958e-003 -3.8523614349881505e-004
      -5.5460271263748084e-003 6.0194561485991688e-003
      -9.2874427216109543e-004 3.6066385091968927e-003
      1.2878309181963391e-003 7.3132679680104696e-003
      6.7550434129340278e-003 7.8042771503706763e-004
      6.5720691345979203e-003 -4.9877102710553761e-004
      4.9960385370536658e-003 -2.7717138455625277e-004
      6.8691435426626946e-003 6.4558144141093473e-003
      -1.6158442483471620e-003 1.1311370695805357e-003
      6.7964086492676452e-003 -8.8942639672712101e-004
      -5.4395887673253634e-003 -9.6302266855140132e-004
      -2.1036057555619273e-002 2.3977831232313254e-002
      1.4646138396463090e-001 -4.8731265457541549e-002
      -9.1528125841291774e-002 -6.7410063363347915e-003
      6.4873353561085605e-003 3.7517872401427624e-003
      6.2637535058067970e-003 -3.1524264976159730e-003
      7.4112523353873508e-003 -7.4037041954117429e-003
      1.2059200037199541e-003 -6.8265736178522180e-003
      1.4073914233210096e-003 3.9324248565964911e-003
      5.8009384442355488e-003 -3.2983106838580375e-003
      3.9211515542552306e-003 -6.5330988693807620e-003
      3.1593563660430978e-004 -4.9231148745667111e-004
      5.4948280513898032e-003 2.8045504521110412e-003
      -5.4012148179149247e-003 4.2423703141769489e-003
      -2.9927893279334383e-003 4.5945317139522400e-003
      -1.8448901218205596e-003 5.1326223240684664e-003
      1.3020708561250132e-002 -9.1517341670047467e-003
      -8.6993816845590044e-002 4.2102207589933820e-002
      6.1885908652088935e-002 5.4062124473469300e-003
      6.5899266963538438e-003 -7.9348713018426616e-003
      3.7721806759922088e-003 3.6882723769530871e-003
      2.4105525369383964e-003 2.0215526919724852e-003
      9.0628031547823722e-003 -2.8974649485435967e-003
      -1.4127296258431864e-002 -2.6850151689890270e-003
      -5.5228874026810489e-003 -7.2226948788862598e-003
      2.7878388409797905e-003 -5.2950861887316068e-003
      4.4304700538290052e-003 -7.6275123518313873e-003
      3.2679098775335175e-003 -7.1429102033203455e-003
      -5.2674070397282146e-003 -2.4933329139369164e-004
      -2.0260751594212856e-003 -5.6762345304439135e-004
      1.6097333721319662e-003 3.3648259197286007e-003
      1.4901293475017387e-003 7.4816992095137732e-003
      -2.5930535861791466e-003 -7.6024574082270016e-004
      2.5313071129688153e-003 -5.3074962958583622e-003
      -6.4930895688167520e-003 -5.6084064955351065e-004
      -3.7031394855489745e-003 -3.2196438541438541e-003
      -2.2743273299342961e-002 3.2846200998653048e-002
      2.1195536054205827e-001 -7.4340163042486557e-002
      -1.2979498357306679e-001 -4.1858622999032813e-003
      -1.0440780619764872e-003 1.7265605897706529e-003
      2.5011226283483236e-003 -8.8770480153760063e-004
      8.7418549449041760e-003 -1.3730203623377889e-002
      -6.4434023873806631e-002 3.0266614751283533e-002
      4.6534932639405863e-002 5.5348865494148970e-004
      3.7025672921630333e-003 -2.2026413647927368e-003
      -9.1563014123784234e-004 2.8637485153585811e-003
      -4.9811851738735874e-003 6.3390788029784662e-004
      1.7407259834339146e-003 5.0033445593247088e-003
      3.1900621369333497e-003 1.2703292656594996e-004
      -7.6932939383804319e-003 2.8656109755569397e-003
      8.7788991294386048e-005 3.8238097134338750e-003
      6.6959282244093317e-003 -4.9222077052977035e-003
      -3.6313365349712177e-003 1.8951940240312423e-003
      7.1669329821276795e-003 1.8657477011821394e-004
      -7.5442232310413823e-003 -4.4087540145582027e-003
      3.8440746519589862e-003 3.2901497081879614e-003
      -2.0480553896893108e-003 -2.7977800114916463e-003
      -2.9084827656608046e-002 8.6094336712884741e-003
      2.6865849636196915e-002 2.2462773397525998e-003
      1.1338047627232253e-003 -4.5286233694472253e-003
      1.2555957837051769e-003 5.6507644820712991e-004
      1.5177356188525698e-003 -1.4629559960652145e-002
      -6.7026976523902743e-002 3.1010880387789198e-002
      4.3425256281113156e-002 -7.2537318252809306e-003
      -7.2427156814222713e-003 -3.5214614092766369e-003
      2.3510798213992224e-003 3.6564707691264823e-003
      5.1020619755478462e-003 6.2303827947149176e-003
      -3.1298979702760400e-003 -5.3486040895806015e-003
      1.3016284731236787e-003 4.7061286271766357e-003
      -2.7644419269989623e-003 2.7756357558229370e-003
      -1.5884497580067813e-003 -4.2717803496207041e-003
      3.8549599644308883e-003 -5.8505407950746611e-003
      3.6241964956846137e-003 -6.1170335679968666e-003
      4.0707662460277606e-003 5.5450842195526638e-003
      6.7299004685111236e-003 5.2349745120205083e-005
      -4.1579579416603967e-003 2.1694735906957379e-004
      -1.5024264467298428e-002 1.6195168231058529e-002
      1.0697261223874542e-001 -4.2579931188716745e-002
      -5.9692312052904525e-002 4.2195307132607118e-003
      -5.7250045230898055e-003 7.3699684871081318e-003
      2.3473232911252525e-003 -4.8071438313850960e-003
      -1.7302874046638939e-002 2.1188398493498201e-002
      1.8368246218398215e-001 -8.3131276652845101e-002
      -1.2669086062842458e-001 -2.0281531913376363e-002
      3.8822654587348536e-002 2.6511810630205962e-001
      -1.0594794950018004e-001 -1.7416430049748902e-001
      1.5102014376024654e-003 -1.0958070962386513e-002
      -3.6407244344118954e-002 1.1056264940912072e-002
      2.0816798992652496e-002 -9.1763486745088437e-003
      -4.8153057872459548e-003 3.3481232665732406e-002
      -1.3944413141071253e-002 -2.1428347775227011e-002
      1.5516125746537367e-003 1.9928793245744736e-003
      -1.2242823260859598e-003 4.6781904286173435e-003
      3.5085059585265969e-003 8.5963449729738520e-004
      -4.1379160756422452e-003 -2.6173717027225150e-003
      5.5317522613584687e-003 2.0070123237997161e-003
      -1.0071653537426574e-002 -2.9415276130591886e-004
      3.6095387399887595e-002 -1.2495268570700593e-002
      -1.7022607242209820e-002 4.7985923968830455e-003
      -6.6687610443753502e-003 6.8606537008529308e-003
      -3.2242390232342000e-003 -3.6678647670829994e-003
      7.4472013331054136e-003 -1.0481737549033332e-002
      -5.2690328192661035e-002 2.7594458172682298e-002
      4.0730308735707994e-002 -2.8475281318751161e-003
      2.1965045838960896e-003 5.9858662618098623e-003
      -6.2221108156550681e-003 -5.6656867457168685e-004
      5.3704337541625935e-003 -7.7312669461841645e-003
      5.1070822943436282e-003 6.5249019969610923e-003
      -2.9952770112098089e-003 -4.6559967610161337e-003
      -5.0182119036546822e-003 -8.1048881480840843e-003
      4.3140543947516789e-004 -2.8250503185694516e-003
      -3.0357898851504916e-003 -7.9166968807068989e-003
      -3.6729909696599822e-003 -3.5458015778826293e-004
      -1.0823612973466061e-003 -9.7615486063924929e-005
      -4.7013031645854846e-003 1.8822428090809393e-002
      3.0535690980753663e-003 -2.8251363010197129e-003
      3.2268082727226282e-003 -8.0395441303165796e-003
      -2.1837019321539010e-002 9.8331047627758725e-003
      1.2281456702623171e-002 -1.4125386177388224e-003
      1.4405416475174569e-002 9.2148873244526919e-002
      -2.7589220999248737e-002 -5.3530244279659030e-002
      -6.2981486812050897e-003 -1.0414158145210407e-004
      1.4711380332972925e-002 2.2873244756841330e-003
      -8.7270100478097524e-004 -5.8291230708441355e-003
      7.7922534190506100e-003 -3.7514143827440949e-003
      -3.3511171056564682e-003 5.5895442318184942e-003
      -2.2762887235314995e-003 -5.6513636605413659e-003
      -5.5872430345759502e-003 -1.0116158577429656e-003
      4.2569486610133300e-003 -4.8132160270838355e-003
      -5.9776316977947896e-003 -1.5378446953982735e-003
      7.3640246706524254e-003 -9.2715688702562694e-004
      -3.0854653007050948e-003 -7.5421959250906879e-003
      -3.5710079841034369e-003 -1.8830371317293646e-003
      6.2208984972195163e-003 3.9351409917334282e-003
      2.6886358881386246e-004 -7.0565418492357524e-003
      5.4103027228444003e-003 -2.8756096728144763e-003
      -1.5470568231814880e-003 -4.7179643432208257e-003
      2.2296778266624507e-002 -5.3477639082511515e-003
      -5.1781712179595103e-003 3.1248983263985105e-004
      -5.9317229533999739e-003 -4.2827392565735530e-003
      5.3149837666022364e-005 -1.5777250191492580e-003
      2.3280834729812693e-002 -1.9673872617694713e-002
      -1.5968840291013489e-001 5.8401098410647737e-002
      9.9912071047990089e-002 6.8944564683247663e-003
      6.4250144067467731e-003 -5.2509936500063975e-004
      -3.4669786985779081e-003 -2.0342464277851185e-003
      1.9843836580397119e-005 -4.8118076609436657e-003
      -5.8766122957847377e-003 -5.8040835291646494e-003
      7.7292515380452155e-003 -6.0451642958276068e-003
      6.4062828854152196e-003 4.9850161227270578e-003
      -3.2332474352914087e-003 -1.1002895935131481e-003
      -2.7528187058152944e-003 4.3059547362519161e-003
      -7.3854752241512916e-004 -2.0321166161004502e-003
      5.1280732742320576e-003 5.9436242566669167e-003
      1.9763219518815589e-003 -7.7567364704993385e-003
      7.4455345361994973e-003 -3.6067697368451575e-003
      -1.3976377543973050e-003 -4.0245431576672146e-003
      -3.4262891418539082e-002 1.4976299081700032e-002
      2.5966540146059411e-002 -1.1481653954734379e-003
      2.1943759414382734e-003 5.0775453530518891e-003
      2.6273792358974782e-003 -1.9077034335226769e-003
      -2.4769216584957697e-002 2.9729408228344190e-002
      8.7016814525221670e-002 -4.5020172265658673e-002
      -6.6568365852159181e-002</_>
    <_>
      -1.0033087492334120e-001 1.4273379662305957e-001
      1.1078938563193697e+000 -3.9160655851918463e-001
      -6.6258785940634213e-001 -4.1525300528920556e-001</_></weights></opencv_ml_ann_mlp>
</opencv_storage>
