<?xml version="1.0"?>
<opencv_storage>
<opencv_ml_ann_mlp>
  <format>3</format>
  <layer_sizes>
    256 6 1</layer_sizes>
  <activation_function>SIGMOID_SYM</activation_function>
  <f_param1>6.6666666666666663e-001</f_param1>
  <f_param2>1.7159000000000000e+000</f_param2>
  <min_val>-9.4999999999999996e-001</min_val>
  <max_val>9.4999999999999996e-001</max_val>
  <min_val1>-9.7999999999999998e-001</min_val1>
  <max_val1>9.7999999999999998e-001</max_val1>
  <training_params>
    <train_method>BACKPROP</train_method>
    <dw_scale>1.0000000000000000e-003</dw_scale>
    <moment_scale>0.</moment_scale>
    <term_criteria>
      <epsilon>1.0000000000000000e-004</epsilon>
      <iterations>300</iterations></term_criteria></training_params>
  <input_scale>
    2.6102547907101052e+002 -1.1102551966044070e+001
    6.3195155185362978e+002 -7.0538532480535174e+000
    1.0440980882243475e+003 -6.1641358832847271e+000
    5.3591988460191419e+002 -6.4423105933078011e+000
    1.1720041027593663e+003 -6.6507937810975326e+000
    3.2174610988062336e+003 -3.5846349023800270e+000
    6.0798507047528074e+002 -5.9095591796982569e+000
    2.2862471572498765e+002 -4.6646202942871033e+000
    1.0229184407963699e+003 -5.3787360542894911e+000
    2.8764936265593701e+003 -2.8603201067344459e+000
    3.0086042494623352e+003 -2.4747994061346796e+000
    3.0916370126925781e+003 -2.4143354477679648e+000
    5.8838641325497667e+002 -5.3085883884803184e+000
    2.4192126687134009e+003 -3.4761698125526537e+000
    2.3503941848784154e+002 -5.7169104261906973e+000
    1.1410706895565103e+002 -4.7916889845197694e+000
    6.1126114510979266e+002 -6.4792153519427504e+000
    2.8125670002603761e+003 -2.9871078169787464e+000
    3.9716139872208873e+003 -3.7425142246628953e+000
    3.8853625308350879e+003 -2.5487072220195479e+000
    2.5405985304860837e+003 -2.6189010301652735e+000
    1.1397850969993073e+004 -8.3074716073569732e-001
    2.0731813567809581e+003 -3.0653035281256322e+000
    3.8758589269228942e+003 -2.9863969551280882e+000
    6.3763651659575078e+002 -6.7587877119513058e+000
    3.3441903557369578e+003 -2.2459421008962166e+000
    2.5143428869298391e+003 -2.1205932507472474e+000
    4.3893251313761293e+003 -2.6279279365048271e+000
    2.7859955405303720e+002 -5.1185851323561185e+000
    3.9505577226620885e+003 -2.7560117457601252e+000
    1.5214840241897514e+002 -6.0548854058579717e+000
    4.6611477141915520e+002 -7.4450235112718746e+000
    1.2277806512477634e+003 -7.2549512795004123e+000
    1.9633760163751660e+003 -2.1772131082839423e+000
    3.3280882634711884e+003 -1.8539433861610159e+000
    3.4365813574229423e+003 -2.9699734834425771e+000
    4.9996425951142082e+003 -3.0714172855959654e+000
    2.0957646039806561e+004 -6.5465367070797709e-001
    5.0990696094993227e+003 -3.1590446170002866e+000
    2.9571773132010458e+003 -3.0637145537687345e+000
    2.4847164961392900e+003 -2.1732214422640568e+000
    1.1259929054733309e+004 -9.9655765518670947e-001
    1.2979563640065664e+004 -1.4190485075757358e+000
    9.3837220578429478e+003 -9.2821074355053890e-001
    4.1329036308486620e+003 -3.4426519434843623e+000
    1.1821706940848931e+004 -1.4770979113006826e+000
    2.9460260912527192e+003 -3.4816114608339914e+000
    2.3980043895013805e+003 -4.0948846222932183e+000
    5.6384236819240436e+002 -6.6429366924581563e+000
    3.6489161231483968e+003 -2.6025693040346960e+000
    3.8119815601134433e+003 -2.2028839884463722e+000
    3.9175533137481293e+003 -1.5092614778677191e+000
    3.9339517393653391e+003 -3.6046204977330780e+000
    1.2123982173244318e+004 -8.2055273035321741e-001
    3.5723837130545539e+003 -2.3619988159007921e+000
    6.2682938727638129e+003 -3.5570805716739748e+000
    2.0405023304304149e+002 -3.8721527531950968e+000
    4.5837389171937302e+003 -2.3386423334815181e+000
    3.9380835087334008e+003 -3.0958486677229526e+000
    3.8293655936072732e+003 -2.0335031795092195e+000
    1.1481075282858261e+002 -2.7304014847306113e+000
    4.4019861491238589e+003 -2.2000763858025572e+000
    5.3767021558757517e+002 -7.7145934332893473e+000
    7.6249241887918129e+002 -4.2435672233905120e+000
    1.0705031419736320e+003 -6.8829205041928505e+000
    2.1644964783356513e+003 -2.6481500788631198e+000
    3.3646505692999554e+003 -2.4698861405602530e+000
    2.2389440280926674e+003 -2.5643882141969008e+000
    4.4839845359841038e+003 -1.9842705527037425e+000
    1.3755134409675176e+004 -1.0741723110591495e+000
    4.1521711840744574e+003 -2.8101950159119902e+000
    3.6863556795906925e+003 -1.8232184016387973e+000
    4.8080137977864097e+003 -2.9536944565548371e+000
    1.3448290050060910e+004 -9.8019606937197001e-001
    1.0194547916827960e+004 -7.9611734199451578e-001
    7.8679032370419854e+003 -7.3730872424088256e-001
    4.7855776257197404e+003 -2.1675617339664273e+000
    1.3069388519039310e+004 -8.1649658092772603e-001
    3.9380836210520883e+003 -2.2347517357494602e+000
    2.8271525448077300e+003 -1.9428578663721217e+000
    2.7793932085485299e+003 -3.0676351531689972e+000
    1.2979563478546937e+004 -1.2839010189590232e+000
    1.4160325375565146e+004 -1.1795356492391771e+000
    1.6292012853658567e+004 -7.6337003671197390e-001
    1.9207999873101013e+004 -1. 4.4066173870731262e+004
    -2.2941573387056174e-001 1.1259929065548769e+004
    -7.6207350079327818e-001 1.0478823124509325e+004
    -6.5465367343095826e-001 3.4548774760419819e+003
    -4.0110249950031616e+000 1.6470724008271565e+004
    -6.8599434057003539e-001 9.4746076208008908e+003
    -8.3854816023388301e-001 1.0194548007129353e+004
    -7.9611734533761891e-001 4.7373038406043397e+003
    -2.1210335866741445e+000 1.4688724623577089e+004
    -5.3530337903131087e-001 2.8005832434295116e+003
    -1.6913143438509166e+000 4.9861483105318039e+003
    -2.2324487367638866e+000 6.4108278029817336e+002
    -6.1511639013649599e+000 1.5240605491544939e+003
    -2.2692696579077092e+000 3.6721811829054018e+003
    -2.5235730697636893e+000 3.4196563950916047e+003
    -2.7595103241788372e+000 4.6100673990543719e+003
    -2.2080706373648100e+000 1.2950030872638676e+004
    -6.7419986246324215e-001 2.5827378091708460e+003
    -1.5194157274084246e+000 4.6368548326166829e+003
    -2.4623031830669952e+000 3.2283493564512059e+003
    -3.1933901310074533e+000 9.1157134801883985e+003
    -1.6135686059248524e+000 1.0822481986420742e+004
    -8.4515425922816900e-001 9.1570547629596567e+003
    -9.5346259469683847e-001 3.5004732728231070e+003
    -2.8611740199488698e+000 9.3282294157965407e+003
    -1.1655430383503669e+000 3.3416589652120060e+003
    -3.0619116182367940e+000 3.0148979908271717e+003
    -3.2804752374726203e+000 2.7195478868286375e+002
    -6.0413946526241586e+000 3.1754183079991240e+003
    -2.3309765927846549e+000 3.2960842683918818e+003
    -3.1231119487388974e+000 4.8338266291756972e+003
    -2.4914037942580096e+000 5.5082718250039634e+003
    -3.7853596795280136e+000 9.8534962095242045e+003
    -5.1298917830658608e-001 2.6608574195795163e+003
    -1.6207846728531161e+000 5.5196312901594329e+003
    -2.0977357667234440e+000 1.1940305750851959e+002
    -3.9486058990962078e+000 3.2635720765390952e+003
    -1.9709202484753079e+000 2.1103869891008048e+003
    -2.3512224982897112e+000 3.5723836714348208e+003
    -2.1760146491930814e+000 4.7831435283685153e+002
    -5.6377742735184073e+000 4.3564628158772066e+003
    -1.9051586815918202e+000 9.0616883344830615e+002
    -6.3358222373012349e+000 1.1093627357819680e+003
    -3.4133349396582746e+000 1.1252392171392364e+003
    -7.4457467535731077e+000 3.9183762298061765e+002
    -5.2610851365586333e+000 3.2730344606182634e+003
    -2.8286324611478619e+000 1.8509497383634204e+002
    -4.1233933447561988e+000 4.3881797794862468e+003
    -3.2440729114490887e+000 2.4974958205965377e+003
    -3.0555577032350398e+000 3.5449012125610061e+003
    -3.4696034175218018e+000 1.8021109014638469e+002
    -4.6066037686954280e+000 4.4170913713869413e+003
    -2.1386375369235897e+000 5.3772077987116199e+003
    -3.8632584202787283e+000 1.1582859736776400e+004
    -9.0453403373329089e-001 3.6755413005349101e+003
    -3.3869784137973689e+000 4.6368547925867970e+003
    -2.8485468124330655e+000 2.9695203072774702e+003
    -2.7209265802460592e+000 2.3083603355309178e+003
    -3.0524965390878971e+000 4.5273184066406498e+002
    -7.1511266405025262e+000 3.0234763105170541e+003
    -3.4314755936003816e+000 3.6694998893528677e+003
    -2.8656027876379291e+000 1.3223332443538779e+004
    -1.1703282643965740e+000 4.3620761100785339e+003
    -2.9749686366074823e+000 8.2734711558184863e+003
    -9.0453402747901290e-001 1.1935270518525613e+004
    -1.1806025641198612e+000 9.5563371678414896e+003
    -1.2935483514035708e+000 4.0849597801865793e+003
    -2.7009053062753363e+000 3.9673758650744530e+003
    -2.5611964255020334e+000 5.7394877226197723e+003
    -2.3904572034561165e+000 6.0409684825323648e+003
    -7.2335628693275511e-001 4.3265211245429246e+003
    -2.3200316533805583e+000 3.5923203824115681e+003
    -2.9736513188778031e+000 3.6588325715448645e+003
    -1.9429452506271452e+000 2.2372727749187497e+003
    -3.9951299514912986e+000 7.3901526404148240e+002
    -4.7515819061062041e+000 3.6170756344967435e+003
    -2.4480416250435320e+000 2.2630559594753604e+003
    -2.0500402843121077e+000 1.0194547916827960e+004
    -7.9611734199451578e-001 3.3646506134518504e+003
    -2.9953938757022187e+000 1.2979563478546937e+004
    -1.2839010189590232e+000 9.6523831139803333e+003
    -9.0453403373329089e-001 8.8039724546342804e+003
    -1.0083683539980404e+000 2.3206260551154287e+003
    -2.6216985447529670e+000 1.6470724008271565e+004
    -6.8599434057003539e-001 9.8020413892794822e+003
    -8.1649658092772592e-001 4.4066173870731262e+004
    -2.2941573387056174e-001 8.4232650712214509e+003
    -8.7705801294257690e-001 1.4356733166730428e+004
    -8.2217860202712945e-001 1.1016543579103738e+004
    -9.1766294075566157e-001 5.1875634001990147e+003
    -7.2919727388702238e-001 3.0328840303490892e+003
    -3.2684662636060047e+000 2.3342949995084032e+003
    -2.0295047050272981e+000 2.6608574623972872e+003
    -1.7039018649679130e+000 1.1478975602801045e+004
    -1.1952286170898720e+000 4.0803486760530700e+003
    -2.8040713375912718e+000 1.2004999920688133e+004
    -7.5000000000000000e-001 1.4478574670970500e+004
    -9.0453403373329089e-001 8.4640560823492178e+003
    -6.6097897481549384e-001 4.5994817897708317e+003
    -2.7776962295975256e+000 4.1482962712145854e+003
    -2.6779921961107536e+000 3.5668360639404104e+003
    -2.0426487238851365e+000 8.4558504965820448e+003
    -7.9240581712386149e-001 3.9844106417042758e+003
    -3.1944983461026495e+000 3.1081882436482192e+003
    -2.8965311235044013e+000 3.1754183244940259e+003
    -1.8019606280590919e+000 2.8457077052653522e+003
    -2.6963702821294699e+000 9.2248125376505163e+002
    -4.2358832964890727e+000 6.3541718642040405e+002
    -6.6459451182087044e+000 2.6848820978633040e+002
    -6.5528567601422445e+000 2.9571774881541319e+003
    -3.4024168329523516e+000 1.1021005301006275e+002
    -4.5494351773139456e+000 3.2509269501840245e+003
    -1.8109599518844495e+000 3.7497320109542611e+003
    -3.0453883508388855e+000 4.3881796809009957e+003
    -3.6096022090955584e+000 4.9955152579662803e+002
    -6.7775472952809945e+000 2.6711290926056649e+003
    -1.9886061072794956e+000 3.8695620057103802e+003
    -3.5456211583528541e+000 1.7911552238346030e+004
    -1.3987572123604706e+000 2.1722337006629173e+003
    -2.9516503401799037e+000 5.4306707015656511e+003
    -2.6293855789131788e+000 3.7075830718332418e+003
    -2.2004606116032366e+000 2.7164214458093029e+003
    -2.5455844502195366e+000 9.9254555777798601e+002
    -7.8698816436666963e+000 3.0604770856858945e+003
    -4.9234039340349822e+000 3.1754183277687466e+003
    -2.4632305970209631e+000 7.9825723203961479e+003
    -1.2051988664257856e+000 3.9716139881701120e+003
    -2.8740855369925984e+000 1.1108273267027767e+004
    -6.3614642840660973e-001 1.9604082778558964e+004
    -8.1649658092772592e-001 6.8819803151955994e+003
    -1.0390328407678531e+000 4.4645627614761434e+003
    -2.1616219212017365e+000 2.7026727723959548e+003
    -2.1527953698571354e+000 3.5973570286411691e+003
    -1.6293734982737542e+000 8.5986817178898236e+003
    -9.4008911218132352e-001 3.5723837947397715e+003
    -2.6595735293962841e+000 3.7590552696322461e+003
    -2.0940176855127564e+000 5.6889185146716345e+003
    -2.0732210384620116e+000 2.2482803222650773e+003
    -2.6804258504646086e+000 1.0990544161029538e+003
    -4.0281877818253111e+000 3.0346246983555216e+002
    -6.6038793096953272e+000 1.5506007111394874e+002
    -6.3749968183257470e+000 2.3870540830962209e+003
    -2.6718899959510227e+000 3.6936823537525083e+002
    -6.6073991583772118e+000 3.7103488787496644e+003
    -2.3180022140785441e+000 2.8790774790035489e+003
    -2.2933093147335937e+000 2.6444158191378469e+003
    -2.7259180419425695e+000 4.9118413950986411e+002
    -3.7999772391825419e+000 3.0056560818153762e+003
    -3.2234753825684179e+000 1.6759095641915487e+003
    -2.7222187970915952e+000 8.2353620041357826e+003
    -1.0289915108550529e+000 2.5631179420109916e+003
    -2.7755546410893217e+000 2.7339752280899747e+003
    -3.0175070317362360e+000 2.6781299862220167e+003
    -3.2904971088445785e+000 1.5185257393585221e+003
    -3.4785054253013037e+000 5.9146632293055472e+002
    -5.3702481608261241e+000 1.9017680454428904e+002
    -7.9355845527094013e+000 3.1544523876517269e+002
    -4.2534525445743823e+000 2.2964514575177468e+003
    -4.5192557885382891e+000 8.0729403492488768e+002
    -4.6105870128044488e+000 2.9377448745347315e+003
    -2.2176854055655220e+000 4.9611381769911522e+003
    -1.8338234758441851e+000 2.4723361951234283e+003
    -3.3723036602261147e+000 1.2373987563094797e+003
    -3.9425657990235248e+000 5.0562080766665463e+002
    -8.0075931025014349e+000 1.0661409003380004e+003
    -5.0565095715538613e+000 3.0089732899660726e+003
    -3.3680198948689437e+000 8.7323524681573201e+002
    -3.9279220024640029e+000 7.9097527306144900e+002
    -5.0115415971061772e+000 1.4388923391561220e+003
    -4.1201103183798065e+000 7.7530434114142565e+002
    -7.0676691803792888e+000 4.5798418855138004e+002
    -8.9388937538334137e+000</input_scale>
  <output_scale>
    1.0526315789473684e+000 0.</output_scale>
  <inv_output_scale>
    9.4999999999999996e-001 0.</inv_output_scale>
  <weights>
    <_>
      2.5989666043641252e-002 2.8355959408007683e-002
      -2.3354726029626613e-002 3.8958992907439052e-002
      4.3028305506849239e-002 -5.3791416240259952e-002
      1.2545272068234869e-002 7.3533584768030588e-003
      -1.3673454397947586e-003 8.4796952641771322e-003
      8.4509947743043653e-003 -1.6246834982829240e-002
      1.5983038494677224e-002 2.0146375634207861e-002
      -1.5142374644465328e-002 2.2532040535376274e-002
      1.5802439392678710e-002 -2.5238522362060336e-002
      5.1301197497769240e-004 1.2694607239520157e-002
      -3.2321324708693799e-003 1.9604053214523784e-004
      1.5074452168315116e-002 -1.5026866701862792e-002
      5.3022810782849079e-003 1.4071264999924752e-002
      -7.7882429456143567e-003 9.6164386346363189e-003
      1.4477795567684667e-002 -2.1203025682422369e-002
      4.8905400503351983e-003 6.6775611736926855e-003
      -8.1019111672872308e-003 1.4779957750436308e-002
      8.2408789796461039e-003 -2.0894997297412721e-002
      8.0678150845577661e-003 1.3620649559937885e-003
      -6.5008467770831472e-003 2.2094493723845560e-003
      9.0730698955837751e-003 -2.7337236703645822e-004
      -2.8897159564117859e-002 -2.5306289274212589e-002
      1.0520892113078342e-002 -2.2563188311930073e-002
      -2.9978990312897236e-002 3.8578877516249117e-002
      3.0978236127875595e-002 2.3542987613049595e-002
      -1.6039115633890565e-002 4.0373925729487004e-002
      3.4876011139587410e-002 -5.7485577667386323e-002
      -4.6928198411606854e-003 -1.1139396189839357e-002
      5.7907917074110733e-003 -1.2042016695239653e-002
      -8.7732853867428465e-003 1.3079562485402837e-002
      2.0995103875206759e-002 4.8873813013380965e-003
      -2.3526648873635181e-003 1.0417547994246839e-002
      2.2428473063949839e-002 -3.0157792657259538e-002
      -1.4173542797933326e-002 -1.7784288246615418e-002
      4.5446207835714751e-003 -1.6958572016079514e-002
      -2.3757421390654117e-002 2.1794725662709586e-002
      6.6778246023069358e-003 1.1643104540263625e-002
      -1.4712389295945393e-002 9.5447645593974874e-003
      1.2501201936960523e-002 -1.5529079515253209e-002
      1.7458100748186264e-002 1.7763197059753637e-002
      -1.5815280069511096e-002 2.4452315133138322e-002
      3.2047759112699505e-002 -3.4924241254903871e-002
      1.0075227104664596e-002 1.4733354204644201e-002
      -6.1467550404955742e-003 1.6984425868306747e-002
      1.7459702012378047e-002 -1.6895917395537429e-002
      -6.4253146029807535e-003 -4.7202178058973411e-004
      -1.0876912079260045e-003 -4.8367171055671062e-003
      2.9036672067680350e-003 3.6554512931403208e-004
      1.7578178982044217e-002 1.2097895562977568e-002
      -1.9761024621043646e-002 2.0843189143829880e-002
      1.9036295050896844e-002 -4.1592142242962024e-002
      -7.2965312726183196e-003 -3.2787695745917162e-003
      5.5992193438775817e-003 -1.1847058527088460e-002
      -4.4292664182467977e-003 5.3100349692754680e-003
      5.1001738106622452e-003 4.4291626571111471e-003
      2.8658375897063514e-003 7.8155700895607121e-003
      1.6004959809664217e-002 -1.1598682339218217e-002
      8.0549107466050974e-003 1.2695174901554017e-002
      -1.6397811164278028e-003 9.8086577165125543e-003
      1.6769714569421022e-002 -2.3360395892704760e-002
      1.3325167564276773e-002 1.2337900890160415e-002
      -1.6025418978597094e-003 9.5960650721782503e-003
      1.5897848353350830e-002 -1.4074277796219404e-002
      -2.3755147678574885e-002 -1.7154360162871089e-002
      9.0753637260749809e-003 -1.4051172260786185e-002
      -2.4183089646565299e-002 3.4373349587866538e-002
      8.7530313097970869e-003 9.0443809395322622e-003
      1.9348426220860030e-005 7.5470830956691900e-003
      8.3657029339595963e-003 -2.2864340097241764e-002
      1.8992197321075349e-003 1.2798559610356932e-003
      -1.1927762086957457e-002 1.1658278574632863e-002
      1.0930740945566404e-002 -1.3738298318313564e-002
      -8.9408818852691335e-003 -1.1584961960205606e-002
      9.1905034677461379e-003 -7.6873811073169913e-003
      -8.4444017180183677e-003 1.9628305482486910e-002
      -8.0656702829843916e-003 -6.2590601903442502e-003
      4.3414341421853207e-003 -1.1084140010388585e-003
      -7.1884271063216449e-003 5.0738190803941603e-003
      2.5712122966712603e-002 2.1943227305587881e-002
      -2.4509853517932681e-002 2.4848462749829107e-002
      4.1358050586225541e-002 -5.0696308479374744e-002
      -1.6049005752421779e-003 -7.1585030414038331e-004
      -3.5726650653488466e-003 5.3109771172110123e-003
      9.4401885110414457e-003 -2.2335311490240609e-003
      2.6924973786366640e-003 -1.8032735366347540e-003
      3.9244033344388262e-004 1.7185104813958027e-003
      1.3273552877383320e-003 1.9725797023037832e-003
      -8.4049498179426512e-003 -1.1744050759651061e-003
      -4.5877672851361746e-003 -1.9271324510356885e-004
      2.0435285981827778e-003 -1.7190696756780506e-003
      -1.3059010511036463e-002 -1.0200436297822461e-002
      4.7444968710041620e-003 -1.1430839318362749e-002
      -2.7083954937371819e-003 5.2241724099248528e-003
      2.6948945403057504e-003 2.8368806066888458e-003
      -3.0558410692553798e-005 3.8192300301748638e-003
      1.0198869004320453e-004 3.9943565490205852e-003
      -1.3527477402598853e-002 -8.7511801288969130e-003
      5.4641039792317414e-003 -1.1960745756224595e-002
      -1.1746848593116097e-002 2.4132683258009529e-002
      -1.0789893821646246e-003 -4.1761047898392399e-003
      -2.5176407611755399e-003 -1.0219808084491468e-003
      -3.3576307321832033e-003 1.2439564997950184e-002
      -1.9284565304061897e-002 -1.2758844754504126e-002
      8.9318728866899458e-003 -2.2446047554593385e-002
      -2.3525448753590195e-002 2.8355378147003084e-002
      -9.8679613860131986e-003 -1.6493750198979110e-003
      1.5364659248788220e-004 2.7465882251324087e-003
      -6.4253220953970937e-003 1.1535638579378905e-002
      -3.9274882442971983e-002 -3.1254033639810941e-002
      2.8742761439381887e-002 -3.8089262806416266e-002
      -4.2413500110409973e-002 6.4996757211514627e-002
      7.5557028689994662e-003 -1.5887742723263486e-003
      -7.9331524365768317e-004 -9.3960930366878922e-004
      -4.5054893109536080e-003 -5.8544474236752759e-003
      2.6475560643516576e-002 2.4453736281636385e-002
      -1.7475852103376474e-002 2.4734311373127805e-002
      3.3079385581557832e-002 -4.1177350792509324e-002
      2.9015844239485861e-002 1.7720998104641027e-002
      -1.4770511668974759e-002 2.9809949424282542e-002
      2.0417719433744937e-002 -4.5395735825622618e-002
      -1.7909555830129209e-002 -6.7521231280718566e-003
      1.1101087749357751e-003 -8.6317073422326647e-003
      -1.8008682488980157e-002 1.6529426670777603e-002
      -2.7376069866817888e-002 -2.5153668691442716e-002
      1.4947525517195616e-002 -2.5468903140590755e-002
      -2.4082575749994790e-002 3.9660160049747484e-002
      1.5591627183780946e-002 7.7864307492836928e-003
      -6.7010383908560718e-003 9.1955800965441582e-003
      1.2706279291605161e-002 -2.6545133137741227e-002
      2.0186747097204229e-002 1.1277653846554762e-002
      -2.4555066582756246e-003 1.4766134265177120e-002
      1.4397245719654008e-002 -2.5422029469116841e-002
      1.8763798517450582e-003 7.1882817281346805e-003
      -7.9176512700698046e-003 3.8039151641529648e-003
      1.6029834790434572e-002 -1.7525329158037797e-002
      4.3647445817583605e-002 3.2717564849666564e-002
      -2.9006291404516132e-002 4.0147067991085292e-002
      3.9821098903878270e-002 -6.1440837241094955e-002
      -6.3151887969091682e-003 2.8102985034940383e-003
      5.5568593754742163e-004 5.7587004545231360e-004
      1.4637722155621785e-003 2.5871381749969563e-003
      1.1001398472572243e-002 8.8317899423571381e-003
      -1.0535746950095995e-002 8.5159684577581080e-003
      1.2191204525818782e-002 -1.9395688603445829e-002
      -2.4539933050778152e-002 -2.6006133595115766e-002
      1.7107636126496979e-002 -3.3470717494951237e-002
      -2.9088795773391771e-002 5.1413373550520405e-002
      2.0035063509357088e-003 2.9991035578072608e-003
      2.0353277127911373e-003 -8.7310793010560456e-003
      -3.5286439648629085e-003 -7.4382244711688203e-004
      1.2926250439418448e-002 1.7917562408253693e-002
      -4.0321564332159521e-003 1.8459449234945465e-002
      1.4271694481616215e-002 -2.7845390734342244e-002
      2.2025953917949221e-002 1.3955708484785511e-002
      -5.7302677041356619e-003 1.0825734340355685e-002
      2.0214370942609337e-002 -3.1623546846682400e-002
      2.7489724835248700e-002 2.7793333863172377e-002
      -1.0987562975009574e-002 2.9603999920756300e-002
      2.5255498677352044e-002 -4.6394180997627849e-002
      1.3809158053229029e-002 1.5361853539212805e-002
      -9.2812662120473153e-003 1.5804594349444149e-002
      1.3663598859452435e-002 -9.5275386166465033e-003
      8.6466641357667469e-003 1.8010877722098181e-002
      -1.5685031092807632e-002 8.6484397495223981e-003
      2.0708910229281560e-002 -1.9824139623547597e-002
      -1.1874691755038812e-002 -4.4020154230880863e-004
      9.5466871710229353e-003 -4.9207076500341652e-003
      -5.9644318023339866e-003 1.4865801720738194e-002
      8.2415314583230478e-003 1.0095349062628517e-002
      -1.0353469715070000e-002 7.4311800357327058e-003
      1.4031926576280442e-002 -1.8688284378958250e-002
      -3.1730783133075154e-004 -3.0506226874252962e-003
      2.9395142116387342e-003 -4.5479425495988525e-004
      6.9665894418233631e-003 -9.8019453866747767e-003
      2.1470933583356815e-002 2.0833852174747508e-002
      -1.0116940994523625e-002 1.9749992371987848e-002
      1.4321893752803428e-002 -2.1284210504196231e-002
      2.6215432441251185e-002 2.4563341603302962e-002
      -7.8241965958872148e-003 2.4460289702435488e-002
      3.0395170956279107e-002 -3.8804757108163224e-002
      1.3828598413407753e-002 1.2830729798468145e-003
      -3.4595019435837062e-003 1.0443863291449062e-002
      1.2194090083865936e-002 -1.7961136677650164e-002
      -3.5933626230104251e-003 6.0845739720375609e-003
      6.3858711142793503e-003 -3.1950998727611249e-003
      1.9412784334221333e-003 -4.6644187828393056e-003
      -1.1870931282863571e-002 -5.2577978401760397e-003
      4.3304159941361785e-003 -1.4379911838034179e-002
      -3.2418115155921218e-003 2.1612276937316037e-002
      2.8981595423317363e-002 2.5044294876063862e-002
      -2.0059550225043122e-002 2.2541347545416653e-002
      3.4236886575441286e-002 -5.0925838411799380e-002
      1.1823188762338141e-002 1.3568118089055630e-002
      -8.6661574873363022e-003 1.2751285295199028e-002
      2.2938258875422630e-002 -2.3062548307841931e-002
      -1.2588802819344656e-002 -2.9678224414275262e-003
      1.1136810357856824e-002 -3.2507012770851551e-003
      -4.6787938924083327e-003 1.7030129862600805e-002
      1.8077051076289999e-002 1.0848681765295924e-002
      -2.8812217914597725e-003 8.2406558958856742e-003
      2.0586120688479616e-002 -1.8127058918074347e-002
      -1.1791386622846550e-002 -1.3139735679415508e-002
      -9.1569954824136730e-004 -1.0199923047350321e-002
      -2.7310896003528598e-003 6.1539940318875944e-003
      2.1485703252380708e-002 7.6661529453422791e-003
      -1.6315287929314890e-002 1.5132365587607315e-002
      1.6658664304963357e-002 -3.2368972267965465e-002
      5.4201895009597760e-003 9.3647248892957183e-003
      -6.6322732807725642e-003 3.5396904365923884e-003
      9.9971715929714836e-003 -2.2505924983694480e-002
      2.6118550038859885e-002 2.6356334558724853e-002
      -1.7076261710211274e-002 2.5299813509516812e-002
      2.8437083453106235e-002 -5.3241479360053447e-002
      1.8850977644407966e-002 1.5209081549656264e-002
      -9.0269705797792806e-003 2.1453149006378420e-002
      3.0905258897200982e-002 -3.8422244340813941e-002
      2.8191164101019411e-003 -1.2751905932317947e-003
      5.5394068111245818e-003 -4.4633630075815306e-003
      3.9581324560983037e-003 8.7379182791952094e-003
      5.9786688969266279e-003 3.9111076866356542e-003
      -4.4610338457473321e-003 1.3905393434805567e-002
      1.2767699635869441e-002 -1.2097061512107163e-002
      -9.0207923956817939e-004 -3.6963614694764607e-003
      6.0053567877616267e-003 -7.7299460126135753e-006
      -2.6304592802832852e-003 -9.2647592822926832e-003
      3.3002920120754915e-003 1.1898129099012693e-003
      -7.9031850225710944e-003 8.9218347557016436e-004
      4.7573577742924039e-003 5.2553722028065588e-004
      1.9508372514897655e-002 1.6864430265033179e-002
      -4.7277742622680126e-003 1.8924657431952215e-002
      2.6530160057273919e-002 -3.2925827808152126e-002
      4.7800882552571011e-003 1.1054849812314430e-002
      -5.2638951463569086e-003 1.4961631178184524e-002
      1.1672981491875237e-002 -1.1706217383531056e-002
      2.2758113474754860e-002 1.6632310636934038e-002
      -1.0392254900778008e-002 1.5621452518400433e-002
      2.9592493122649142e-002 -2.6618405290655980e-002
      -6.4582199684091136e-003 -3.5181359973471542e-004
      2.2216707666467380e-004 -3.7161550635105567e-003
      -1.1193805401029351e-002 1.3864991740063230e-002
      7.5107173168264770e-004 9.8694948501370436e-003
      1.3767136886451922e-003 1.0656658065055953e-002
      1.3644649605693399e-003 -1.7647429908040628e-002
      -8.6150645061377467e-003 2.1895662753678787e-003
      -1.8851270540825320e-003 -2.6248853480284398e-003
      -5.9841530649646047e-003 2.1113480888383029e-003
      1.8890449598444640e-003 -3.5470110028389332e-003
      2.7693443315068011e-003 -8.5156020564908013e-004
      4.5115069488740117e-003 -4.6649081838437906e-003
      2.3595813900357771e-002 2.1733880327116820e-002
      -1.8372292254081792e-002 1.8508342780825197e-002
      3.3279548614161041e-002 -4.1898002603700753e-002
      -1.6449921526469253e-002 -4.6235951875589175e-003
      4.7288031905602752e-003 -5.8767474723759134e-003
      -9.8161713582045149e-003 2.0365377831135768e-002
      -1.8819777987586817e-002 -5.3352729489834806e-003
      1.0669793535796808e-002 -1.1414005713673833e-002
      -1.1878060949384740e-002 2.9210257377905693e-002
      -1.6656587760633796e-002 -1.6814322723649164e-002
      1.1667481203542426e-002 -2.7660549983505416e-002
      -3.3734008955916120e-002 3.2038404019763253e-002
      -9.4997216689479604e-003 -7.7389100842919605e-003
      -4.9707878332415703e-004 -1.0232301934584838e-002
      -5.5967914450995235e-003 2.0916306383307937e-002
      -8.6359098133455842e-003 -3.7561565877375627e-003
      8.0454869526584028e-003 -1.1341659212040889e-002
      -8.3129744518432112e-003 5.9245234688037919e-003
      -5.8384986696385140e-004 9.0754727845172127e-003
      3.9784011357836520e-003 1.9182317540694103e-003
      -4.0791696823539976e-004 -4.3810691402690061e-003
      6.0822944311199429e-003 2.8027545622598240e-003
      -4.5738382990475239e-003 1.4605594450618299e-002
      1.5183962309165513e-002 -2.3171210578438659e-002
      2.0778431186047917e-002 1.7681897050785877e-002
      -7.7774737030936519e-003 2.3745687298162441e-002
      1.7207323230713948e-002 -2.4064175751872065e-002
      7.8080033510810577e-004 -1.6011332995111097e-003
      -1.5370678585744110e-003 8.5189646319184173e-003
      3.2583631398506504e-003 -9.9808545561855914e-003
      1.0384386013893613e-002 3.6365079866585281e-003
      -8.2226852967802709e-003 1.0255827276946421e-002
      2.0480526737972675e-002 -2.1523022364248155e-002
      1.7506513339556440e-002 1.5772136587931980e-002
      -1.7970107778727637e-002 1.4007899798575424e-002
      2.3406020312430852e-002 -3.3450791014421853e-002
      -1.7390700191794461e-002 -5.3407254338659095e-003
      1.6050633714336321e-002 -1.5497705402466852e-002
      -1.5481366711729656e-002 2.3341438062376881e-002
      -4.0686303900581505e-002 -2.4722128000131922e-002
      1.5043716961180679e-002 -3.2900262470541862e-002
      -3.6314699756130817e-002 5.6044542890373472e-002
      1.0108639832898694e-002 1.2123633475355120e-002
      -1.1113267453736789e-002 3.6286689618342379e-003
      1.4121932515189081e-002 -1.2290762254246220e-002
      1.4471765980701639e-002 1.5208023471807898e-002
      -1.9688971396991238e-004 6.8733292032529206e-003
      1.7891973166264587e-002 -1.8135353495230384e-002
      -1.5359648383019690e-003 -7.5738267414748534e-003
      8.9460019104794248e-003 3.6871554787624478e-003
      3.2161874547208358e-003 1.1234695343552483e-002
      5.4614826652661947e-003 -3.4442599078584437e-003
      2.2516057827338151e-003 -4.9368371410286301e-003
      -1.9822453623573907e-003 5.9560983662994317e-003
      6.7091428093289810e-003 -1.5096601713706205e-003
      -7.0910007328539842e-003 -4.8911640443854588e-003
      -3.6317815405933281e-003 2.3295251789324616e-003
      -8.9218541175065044e-003 -1.2019392208870522e-002
      8.8641438754681334e-003 -1.0519220705085838e-002
      -7.8992326812409846e-003 2.0278514763733012e-002
      -9.1121874044112344e-003 -5.9305664209662818e-003
      7.7911860952412006e-003 -1.1083681354475104e-002
      -7.9798494530046709e-003 1.3423892691041071e-002
      1.3565969405115022e-002 1.6350862803481150e-002
      -7.8400748145118649e-003 1.1936646391697505e-002
      2.5494874817012288e-002 -2.9825775152787417e-002
      -6.5724103835793062e-003 -3.4248855597529063e-003
      3.1947584422904549e-003 8.5241656475844654e-003
      3.0822191505085524e-003 -7.2122501328809076e-003
      -2.8872561210574382e-002 -2.5984187665019334e-002
      1.6424001187816548e-002 -2.9925602208387532e-002
      -3.0008550187349121e-002 3.7797076717453082e-002
      8.8447331517536761e-003 1.0321387922081975e-002
      -1.1331397719250069e-002 2.4806967763662570e-004
      5.8543146736316177e-003 -5.6574551669248754e-003
      -1.2790011117022741e-002 -1.8394045434857904e-002
      4.1835810019892165e-003 -8.7298105222865033e-003
      -1.3883278751415054e-002 2.2043873546858325e-002
      1.9693242089132586e-002 9.1317759166932196e-003
      -1.1615848531228566e-002 1.7681568928763828e-002
      1.6797041112487116e-002 -1.8292586798594291e-002
      -8.3195366589157108e-003 -1.1581663639933957e-002
      2.2989741325273720e-003 -1.2695780978208100e-002
      -2.2341714529740160e-002 3.1899349891590087e-002
      2.6679744405744667e-003 -1.9715622259592971e-004
      -5.1855086919109453e-004 2.9301035967989968e-003
      -3.9245519766534518e-003 -1.3146073328829421e-003
      -3.4872379782212089e-002 -3.1549324773277820e-002
      1.3354666249062919e-002 -3.3870293785019413e-002
      -4.1725158786848231e-002 5.7808809140708940e-002
      3.3818842724436500e-004 -3.5454381452267492e-003
      1.9313591518268353e-003 2.4383979467151647e-003
      1.5954156476859888e-003 1.2669519645274693e-003
      1.9672732925352820e-002 1.9760053759057507e-002
      -4.4016275020742866e-003 1.0827354570610971e-002
      2.6307672128298678e-002 -3.1950465379528489e-002
      1.0902328218707798e-002 9.6321630239246635e-003
      -8.1542907929899131e-003 1.9236048200005719e-002
      9.0152514440771606e-003 -2.5768027039056694e-002
      -3.0242793029422362e-004 2.7793115207109592e-003
      9.5303170215792678e-003 2.1004131836730379e-003
      -4.0447988686876987e-003 8.3902959066541084e-003
      1.2311631021092395e-002 8.7565385963650731e-003
      -3.4717096355033382e-003 2.1129639614616796e-003
      4.5643268918983612e-003 -1.6661427173328889e-002
      3.2742831542419575e-002 3.0013703705794131e-002
      -1.9927288891439538e-002 3.2311483554544551e-002
      3.7744894749779032e-002 -6.1831428910577975e-002
      2.3462108165008762e-002 1.4742019630306743e-002
      -1.1317845884939531e-002 1.5242346224259634e-002
      1.5522629954480484e-002 -2.9824131005116803e-002
      5.8670126779746586e-003 3.8251663060262864e-003
      5.3661886061150809e-003 -3.2625589452202983e-003
      4.4878197616740464e-003 -2.2654911588606831e-004
      -2.8723960047095562e-003 -6.2994931799728185e-003
      5.3728732018446974e-003 3.2800588590698016e-003
      -1.0263868971449298e-003 -6.7846308785245060e-004
      4.0147892057990103e-002 2.4568602027829452e-002
      -1.6917958023465116e-002 3.0271732201028127e-002
      4.0165703953723472e-002 -5.1050853748137254e-002
      1.6054581155935128e-003 -3.0355063056012341e-004
      6.8420844807602198e-003 -1.0344229875839798e-002
      4.4197785789854298e-004 1.5928198465042835e-002
      -1.2668097324279549e-002 -3.5620549470867756e-003
      7.1600323717263678e-003 -1.0156369754226608e-002
      -4.7788249254643528e-003 9.5845451511743437e-003
      1.3097086480398968e-002 1.9396266741824000e-002
      -3.8145824373308304e-003 1.5223782597478096e-002
      2.1706020251429849e-002 -1.8657549238898487e-002
      -7.3782998456814203e-003 -1.1785128768715798e-002
      -3.6483976518317009e-003 -1.0656394605635762e-002
      -8.4535753645083537e-003 1.4158795251071606e-002
      3.7723475504466364e-002 2.6102777563625872e-002
      -1.6389893916178951e-002 2.9806575907152771e-002
      4.9155050093479882e-002 -6.2477778144929504e-002
      6.2156204727100333e-003 9.7151625700492902e-004
      -6.9417013028790619e-003 3.6615706130166716e-003
      7.6498650357731280e-003 1.6486654386651848e-003
      -9.5077724706238327e-003 -5.1226317980617277e-003
      1.1771446726655777e-002 -1.4446310727436826e-002
      -9.8816346986098542e-003 2.4391633413477932e-002
      -1.2179726082430360e-002 -1.2840144702079784e-002
      1.3584331212671432e-002 -1.2937424878545729e-002
      -8.3615642047285901e-003 2.1341925325169750e-002
      -1.3702318209459032e-002 -1.5174173311815873e-002
      2.7369894891226768e-003 -1.2808717165066140e-002
      -2.3541288504809733e-002 3.1094517606424402e-002
      2.3907265176196759e-002 1.7794922364858703e-002
      -4.5092742872792175e-003 2.2907282993215459e-002
      1.2950867775038994e-002 -3.6859362954757523e-002
      2.3794540970423095e-002 2.3909265002376681e-002
      -2.1174014684706387e-002 2.3590487586631109e-002
      2.0118539028251625e-002 -3.5963221617996359e-002
      2.3048928868615270e-002 1.6808285412287429e-002
      -7.7249993248101508e-003 2.3987781073070848e-002
      3.1077853189147096e-002 -3.3845923139523962e-002
      -5.0124687643836546e-004 -1.3386919850943303e-002
      7.2631080822600476e-003 -8.5926293896878888e-003
      -1.4638319193539150e-002 1.6146775885580309e-002
      2.6778489383041271e-002 2.2707375390421374e-002
      -8.0264687256990236e-003 2.3616980060658106e-002
      2.9515124852403263e-002 -3.1949902305949261e-002
      2.3933530160182747e-002 1.0807897061547394e-002
      -7.8429041225780514e-003 2.4751813379770348e-002
      1.9361102326937930e-002 -3.6964333742062615e-002
      -1.2516612686492415e-002 -1.1685971436491615e-002
      7.3805084881119146e-003 -1.8037211147693459e-002
      -2.6207463133519467e-002 3.0136126676278734e-002
      -1.0219462299829962e-002 -1.0138420194079865e-002
      -2.9559881799374713e-003 -7.7682661537802787e-003
      1.8645723946474764e-005 5.5150561834306335e-003
      2.9741887207085742e-002 2.7860549763937034e-002
      -9.3180174384475747e-003 2.4332667082123591e-002
      2.7662827576156727e-002 -4.6341022090191780e-002
      -1.3004328553803988e-002 -1.2648461686502707e-002
      1.4571727466710958e-002 -2.0288567188802037e-002
      -1.9457609612985385e-002 2.5866228120531087e-002
      -1.2811743462196899e-002 -3.6656280156015008e-003
      1.7836120136054167e-004 -6.5457559008656992e-003
      -9.9896870730102234e-003 1.4213830336673141e-002
      1.8405374506755560e-002 1.6547870527209251e-002
      -8.8678125987117218e-003 1.8038408093933839e-002
      1.0337054625729997e-002 -2.6918066978569577e-002
      3.5077271502914143e-003 5.9280960975209955e-003
      2.7614064252719857e-003 -8.7957700949876545e-003
      -8.7369899478427504e-004 -2.9932067266109376e-003
      8.4918414175038041e-003 1.6981848092084934e-002
      -1.3948237139987527e-002 1.8590511180526591e-002
      1.3136327927413221e-002 -2.4040418442504066e-002
      -1.7774328286518178e-003 -6.3492612888071814e-003
      2.1690144568703483e-003 2.0477245364975832e-003
      8.3727712929355881e-004 5.9767747430402511e-004
      -1.0729376072998103e-002 -1.5961963263872354e-002
      1.2765561847770546e-002 -1.1181289895054965e-002
      -1.0974233469694556e-002 2.5408248522920486e-002
      3.8944567505589736e-003 3.8789219624491183e-003
      3.0223325131503841e-003 -1.2409446468669197e-003
      9.7287244138324382e-003 -3.2655729530650032e-003
      -3.5605203933028128e-003 -8.9982231390139753e-003
      1.0350289998607026e-002 -1.0982150932795058e-002
      -1.2554438854827920e-002 1.3364117109824904e-002
      2.6669020292983160e-002 1.8391724320596343e-002
      -1.8234964287528226e-002 2.5429212988202707e-002
      1.6217011000705498e-002 -3.2276210432971929e-002
      4.0485228142529944e-002 2.5954411049417144e-002
      -2.4892583670751985e-002 3.0351038724140744e-002
      3.7235345572671871e-002 -6.2805167915690380e-002
      -6.4253277892640619e-003 -6.6105677546165103e-003
      3.3918898445396396e-004 -2.8575656344424090e-003
      -6.0343637982698331e-003 1.0110441037720479e-002
      1.7222430770522736e-002 1.2997183263979039e-002
      -1.9094682317417728e-003 1.1640810962024762e-002
      8.1632238397733436e-003 -1.2040429907585574e-002
      1.7418540305078483e-002 1.1586680301008215e-002
      -9.8451416437896136e-003 1.6391892646794082e-002
      1.4428942099493807e-002 -1.4566532146650952e-002
      1.5561019919185864e-003 8.7542598469551453e-003
      -8.1394993731804793e-003 5.6761821815080491e-004
      3.9960124120271652e-003 -1.5168720341372534e-003
      7.3608493366010951e-003 9.6148484029445515e-003
      -8.8698225193524199e-003 1.1434548959382746e-002
      7.5530118915476353e-003 -2.3179379850991420e-002
      1.9163997004744481e-002 1.2812884983961735e-002
      -1.6953142287203394e-002 1.7829143775447476e-002
      2.8427196254302064e-002 -3.3274595454955182e-002
      1.4430852260633341e-002 4.0151042198711857e-003
      -6.6903578714331922e-003 1.6157476769896695e-002
      1.7415817561429920e-002 -1.8400077917197829e-002
      -1.4848185903597209e-003 5.9269127538572122e-003
      1.5320469085546456e-003 4.3530638427937913e-003
      -6.0052584277661743e-003 2.6880560887186352e-003
      -1.7048408018993110e-002 -1.8264490548690466e-002
      1.3049375185592552e-003 -1.7936075556809320e-002
      -7.1268692690827709e-003 2.6107990223825053e-002
      1.0003940860968287e-002 6.2664095854809282e-003
      7.4070731101210188e-004 1.4675520433853611e-003
      -1.7211828297201929e-004 -5.5106957265247886e-003
      -1.3071063833587439e-002 -8.4099186659130302e-003
      8.3934618580962760e-003 -1.1885738621045663e-002
      -6.0342923122347315e-004 5.1365121894436684e-003
      -7.1535994440158944e-003 -1.3795927241665163e-002
      1.1849982115012701e-002 -1.3547257648589238e-002
      -1.4052310677988877e-002 1.8514781038722353e-002
      -9.0606525053580807e-003 -1.5256626018971351e-002
      1.2943653760924901e-002 -1.0212086416208405e-002
      -1.9456907041650741e-002 2.4511414443213263e-002
      3.0225000444832086e-002 3.3307830029845588e-002
      -1.9403747251439833e-002 3.1524666272424381e-002
      3.9309054451130448e-002 -5.4261234179769531e-002
      7.0715864082182677e-003 4.9351584047120150e-003
      -4.5130229968056157e-003 -3.5334610178029222e-003
      1.0962754122839055e-002 -2.3213602747105531e-003
      3.0983268094713846e-002 1.9495363586715917e-002
      -7.4790450574152073e-003 2.6794372517067566e-002
      2.3251785208457498e-002 -4.8448725520094542e-002
      2.8465708872950882e-003 7.1605632802927845e-005
      2.8771576167348225e-003 5.7031543200505991e-003
      5.6605230146674909e-003 1.7897551440929007e-003
      2.4945151545660942e-002 2.5436102472232932e-002
      -1.2575703621732767e-002 2.6918713847388375e-002
      2.8519511056122802e-002 -3.5692788734364891e-002
      8.5454054445816795e-003 3.8665445104617982e-003
      -3.5258676230160990e-003 1.5090987987494076e-002
      1.0713484322405133e-002 -1.1328939066386556e-002
      -1.8815802803158081e-002 -2.4090720344408675e-002
      2.1026055473689888e-002 -2.9497647088748784e-002
      -2.4203346496102968e-002 4.1643357793587674e-002
      -7.2366651206316242e-003 -3.3365438528829231e-003
      1.0431357345271900e-002 -1.4270396101014478e-005
      -4.3361992703682779e-003 1.4771199859305681e-002
      -2.4494814692082558e-002 -1.4513677341986530e-002
      3.7324601575656428e-003 -2.3127427208111454e-002
      -1.1889361867015058e-002 3.0633362840445114e-002
      -2.1531797152005688e-002 -1.2157458814360205e-002
      7.4405102863154826e-003 -1.1617930264368732e-002
      -1.5350907470135277e-002 3.3238661528431308e-002
      3.2135083790708396e-002 1.7979436528035988e-002
      -1.6826516917534746e-002 2.1599704382505986e-002
      2.6975119913060501e-002 -4.8549521116846371e-002
      -2.3348907185162193e-002 -2.4068794904114361e-002
      1.7542107186003818e-002 -2.6684291720898683e-002
      -1.8759738182440023e-002 2.8668056858645898e-002
      -3.0420085333422501e-002 -1.3457202660136666e-002
      1.1139244677495381e-002 -1.6624740929645401e-002
      -2.5851435786002509e-002 3.6812597332236401e-002
      -3.0403073528988433e-003 -1.6362652474410148e-003
      -1.1788783806865319e-004 -5.6778362670292020e-003
      -5.9921692851433103e-003 1.7098287483647823e-002
      2.5253971828580288e-002 2.3312285589987623e-002
      -8.5819187849768535e-003 2.5764047131629175e-002
      2.7427720528677511e-002 -2.6314118551416320e-002
      1.1051939008931240e-002 -1.0187640727216025e-003
      -7.9296548461450598e-003 4.0322002461946746e-003
      4.8590024402860865e-003 -3.2449508665325678e-003
      5.6516817805507286e-003 7.3210553544268853e-003
      -1.8581335523254541e-003 -1.9562084806023120e-004
      8.1778801669038774e-004 -1.8577211885438014e-002
      -2.1553588890736129e-002 -1.8959713856982977e-002
      1.5574060429337004e-002 -1.6014222803857312e-002
      -2.3009492429360106e-002 3.0955844266532116e-002
      1.9985527095768812e-002 1.0035351670562886e-002
      -8.3000042541243359e-003 2.2681583048916411e-002
      1.4613841741159192e-002 -3.2418295736018551e-002
      2.1279976205541680e-002 1.1656588950765327e-002
      -9.3755660544349289e-003 2.4063417920621569e-002
      2.6273249538922246e-002 -3.4918028464719149e-002
      -1.9062805665989661e-003 -3.4386319042967253e-003
      -2.4109219102237387e-003 4.6356214299787281e-004
      -1.0690725549145385e-002 1.3189759301594236e-002
      -9.3940664162480928e-003 -4.1821333723799483e-003
      -1.7909282306859786e-003 -5.8685392895374590e-003
      -9.4307166643305511e-003 5.9044682397404510e-003
      4.6852002697969639e-003 1.3989970282792666e-003
      2.2057038850006165e-003 6.5515656210746705e-003
      7.6768100607363973e-004 -8.1503064738725397e-003
      -1.8107388705825185e-002 -3.9790284434652670e-003
      6.4939465383608338e-003 -7.9805735140451601e-003
      -1.2903712489535080e-002 2.1184438991658283e-002
      3.1114501394589214e-003 3.5032575782039787e-003
      3.1644888825473811e-003 2.8841291884547453e-003
      -5.0970708413579672e-003 7.1190424545526359e-003
      4.3243378152324442e-003 -8.7709411613624973e-004
      7.4646485195149458e-003 5.6041830373627565e-003
      -2.6196850847279964e-003 2.8513310888176823e-003
      1.6331843691323972e-002 1.9072255079516799e-002
      -1.0137138017039337e-002 8.8483925704433680e-003
      1.5845029837745734e-002 -2.9050908698389832e-002
      -2.0005654901047842e-002 -5.2404921975289370e-003
      8.5134084127925051e-003 -7.4464123292527495e-003
      -1.5834441668770891e-002 2.4547654593026803e-002
      -3.2357306531663903e-002 -1.4448279136663213e-002
      1.9300891773679153e-002 -1.7994564263387611e-002
      -3.1811495048233815e-002 4.4156923023439126e-002
      -6.3337048643463722e-003 -1.8458731645373577e-002
      9.5769983871867061e-003 -1.9771012902136908e-002
      -1.4026831898659558e-002 1.8778577806008168e-002
      2.5592836232273770e-002 2.3351782082991542e-002
      -1.6292790121878762e-002 2.4379991947774828e-002
      1.7843040884136550e-002 -3.3706272366325361e-002
      5.6413478163417881e-003 4.0046126377243363e-003
      2.1870352496211006e-003 7.7663418743346068e-003
      6.2270684025855490e-004 -1.0548371348706315e-002
      1.4239991680812358e-003 -5.2201453274574906e-003
      6.2022408882705929e-003 -4.4010810444953669e-003
      1.8943914350440614e-003 1.3422012229399340e-003
      9.5857766703565158e-003 9.1173155813045765e-003
      -6.8553115984297426e-003 1.1995434493352950e-002
      1.1715703396546292e-002 -5.4566649918122321e-003
      -3.0167323971086772e-004 1.8167325911054410e-003
      -4.3729571577062623e-003 -1.8000773118757487e-003
      -2.4725205449732876e-003 1.1664166880742515e-002
      1.7385067708519174e-002 1.1647845006956835e-002
      -1.3035214698705729e-002 1.5462979329564063e-002
      1.0041752278345466e-002 -1.5240903052724341e-002
      3.5210209800880204e-003 -3.4635545633212683e-004
      -1.0902628211831480e-002 8.5677962687309740e-003
      1.7236781714181349e-003 -1.3951786415286306e-002
      1.0408069288051627e-002 -2.6116253297272215e-003
      -2.1590065429125718e-004 -1.4384040506218710e-003
      1.4020827922530447e-003 -7.5934372200864766e-003
      1.6445980020930704e-002 1.1560430129837816e-002
      -1.0663282328147207e-002 1.7369128579271854e-002
      2.2198242903234522e-002 -2.1522137732724100e-002
      3.2758452695893156e-002 3.3035806863066744e-002
      -2.1361891137575750e-002 2.8902340400238317e-002
      3.7795305401868332e-002 -5.7843752850698690e-002
      -2.0410702817948673e-002 -1.8826932133902571e-002
      8.5631046883978199e-003 -1.7945140285188038e-002
      -2.0250335189384228e-002 2.8055284150672884e-002
      1.3680890334546627e-003 6.2005415947532262e-003
      -2.1113145577690779e-004 8.6391152257738225e-003
      6.6874583155183392e-003 -2.9681414847739689e-003
      -5.2077657760132698e-003 -2.0454418975830212e-003
      2.5176960489723295e-003 1.2363334246819036e-003
      -2.2523277882642509e-003 -1.7658538211262227e-004
      9.2754970684054815e-003 5.6331601891377028e-003
      -4.5177546930096988e-003 7.5465288354187015e-003
      8.0318926734987261e-003 -9.8721774705843850e-003
      -1.2299504075253813e-002 -6.5994955397433337e-003
      5.4707619897854292e-003 -1.2818508464246519e-002
      -1.1675319666092804e-002 2.2710001517541944e-002
      -2.0527220613061974e-003 3.0576433828932029e-003
      1.3987559333994702e-004 7.6335640833932643e-003
      6.3824324117261405e-003 -1.0108112456663378e-002
      1.4327079258383843e-002 4.0279651248822752e-003
      -5.7363976355670875e-003 1.3670031102942138e-002
      2.0130943808247682e-002 -1.7176605681210471e-002
      4.8097520100966063e-003 -6.4472639733343540e-003
      -2.4852149564691486e-003 1.8690037216599596e-005
      5.4687648670110525e-003 -2.4521878467697973e-003
      -1.0614587244199256e-002 -1.6348574671950503e-002
      1.9868098039725578e-003 -6.3567351004713271e-003
      -8.9695294147947822e-003 2.3482871186449188e-002
      -8.7082726116196919e-003 5.2628383546954056e-004
      2.1826374171206669e-003 -8.0872223575721280e-003
      1.6357656891351645e-003 1.3140087047052243e-003
      -8.2303985075639612e-003 -7.3207182369384094e-003
      1.7294445804726718e-003 -8.7979873809095853e-003
      -1.0889117157316336e-002 1.5188200817014922e-002
      -1.1082023934302267e-002 -8.4244689943629662e-003
      1.1273074401394384e-002 -2.1796919479700125e-003
      -9.9147491559165909e-003 1.2793987840140025e-002
      -1.4563087801683127e-002 -1.3232339308986346e-002
      1.1083615742443231e-003 -4.6663161671326283e-003
      -4.6626605394436233e-003 1.1232325979594646e-002
      2.4644911358594573e-002 2.2255747271227044e-002
      -1.4983596640769902e-002 1.3357953627536008e-002
      2.3343507630895429e-002 -3.5820571100459268e-002
      -8.2677021324333490e-003 -1.3272121705997699e-002
      1.0399289324533356e-002 -1.3668102503075551e-002
      -1.8752625324760464e-002 2.3604914799115247e-002
      -2.1977927683529318e-002 -2.6716293399496601e-002
      1.9113866032103900e-002 -3.0227747961028315e-002
      -2.4982506983663423e-002 4.8531443888453853e-002
      4.5171288988789205e-003 5.9863227679549779e-003
      7.0594818588674629e-004 -4.9602497373403207e-003
      -7.6352403399294899e-004 -2.2695634991116765e-003
      2.4886376164295482e-002 2.6055829593249109e-002
      -1.6901292459409512e-002 2.4821266899354388e-002
      4.0088384265908945e-002 -4.1380539226074056e-002
      -4.7066875506116693e-003 -1.3171971992242159e-002
      1.2945644171847017e-002 -6.3947058030640117e-003
      -1.5071408324725061e-002 7.6124482046795085e-003
      2.9038111833396092e-003 -6.3029862698892438e-003
      -4.3814041941525076e-003 -7.0059248593428965e-003
      -1.7533088795467489e-003 -8.0768920876838034e-003
      -1.6342699324032573e-003 -5.1120924798171308e-003
      1.2885017717406426e-002 -1.1892749294428746e-002
      -1.5681353189417324e-002 1.2863045525681432e-002
      -2.7784440638421792e-002 -2.5726563220185912e-002
      1.6893209543390093e-002 -2.8236881131689633e-002
      -3.3208192462158476e-002 4.4168434409154904e-002
      -1.2227192698514158e-002 -1.1470548495067278e-002
      5.7233411650402400e-003 -1.0613128403265967e-002
      -1.1283459459519704e-002 -7.4933891982172313e-004
      1.2656136844282569e-002 1.1199841414029636e-002
      -7.8418782081511162e-003 1.5287647767771785e-002
      1.6230503813182220e-002 -1.4794060742464900e-002
      -1.1172800118911726e-002 -1.3898293241049419e-002
      4.6698726840236696e-003 -5.8283580786172313e-003
      -1.1436668609736043e-002 1.6693922855651275e-002
      -1.7208204325322322e-002 -1.2986133080933342e-002
      9.0405394273818888e-003 -1.0409199981212822e-002
      -9.1393185933911977e-003 1.9372937305318749e-002
      -1.7589364016150886e-002 -2.4783590702689415e-002
      2.0374387512550517e-002 -2.4353201888971311e-002
      -2.8583251752332003e-002 4.2786362175312675e-002
      5.7058850045017488e-003 1.3149044336128654e-003
      -4.3091848314556064e-003 9.2917896375128723e-003
      9.6487113715058928e-003 -1.1222279702695728e-002
      -2.2657181796363699e-002 -1.3795095898828188e-002
      1.7911401760873372e-002 -2.4634893266895549e-002
      -2.2714133095231185e-002 2.7939841876181485e-002
      -9.5437125827158367e-003 -1.9970879325286919e-002
      1.3968474211797298e-002 -7.5109156157340045e-003
      -1.9987642997406293e-002 2.5554471937936682e-002
      -1.8015911452143919e-002 -1.5821382262050709e-002
      -1.0581550635939581e-004 -1.2122024465036985e-002
      -1.7731587861784841e-002 2.8929861633804923e-002
      1.7769681717354754e-002 1.1630385133142029e-002
      -1.4329612568642172e-002 1.6782131067753371e-002
      1.8989009406468371e-002 -2.8360045834514468e-002
      -4.6891018741919413e-003 -1.0763257482582646e-002
      6.5251616321574833e-003 2.2778444088104727e-003
      -4.0978179222008745e-004 1.1303232186270480e-002
      -2.7638772285466108e-002 -2.5502890862462584e-002
      2.3833736575444128e-002 -2.8912342803254762e-002
      -3.8488649787163529e-002 4.6314332846317557e-002
      -1.5942902910457257e-002 -1.6120229512658894e-002
      1.2827936294263285e-002 -1.6252960023884957e-002
      -2.3010695391824706e-002 3.9898138276750240e-002
      5.1349979484138497e-003 7.7220495684912549e-003
      1.7582934262335844e-004 1.5677852746182240e-002
      1.6565613654906445e-002 -1.5749500812027542e-002
      -5.1017019076763162e-003 8.4684245021471923e-003
      -4.2176342076566788e-003 -2.6517722174408693e-003
      6.7134406489325824e-003 -1.6341262337696975e-003
      4.9582193555648890e-003 3.8825505738298644e-004
      -9.9223707399854720e-003 5.8572358170683103e-003
      1.2456615587415450e-002 -4.1795880231693732e-003
      -5.5986000983540684e-003 -6.3301931056322638e-003
      -1.1892804280144258e-003 6.8735054451388340e-003
      -1.3970486898122172e-003 8.7712033814933404e-003
      -8.0686019323099670e-003 -1.1482048928368646e-002
      -5.0368680665729450e-004 -6.4919808529875439e-003
      5.0627166867294848e-004 6.2386010857451678e-003
      2.2614049266309805e-002 1.5491049155368834e-002
      -1.8382643991695518e-002 2.3165251316821501e-002
      1.8307501320947168e-002 -3.7569184876674502e-002
      -3.0371331459979584e-002 -3.1272306549362729e-002
      1.5853833716792037e-002 -2.7691326929863754e-002
      -2.7308831561528402e-002 4.5012177096608826e-002
      7.2877614374705644e-003 -4.3419528670685800e-005
      -8.5781926437518037e-003 6.8033344586046389e-003
      6.4591919934039168e-003 -1.0093155667570335e-002
      -3.0073926972289451e-002 -2.7564503938204976e-002
      2.0409957454421181e-002 -3.7875475733748977e-002
      -4.3489895659071721e-002 5.5506216304693545e-002
      -1.3757610046204025e-002 -1.0153302474817530e-002
      1.1916957750245616e-002 -2.2760117234623258e-002
      -2.5262505503643617e-002 2.6510241881002736e-002
      -1.7471525405250946e-002 -1.8910125552961503e-002
      4.6699220127391855e-003 -2.2257509298733772e-002
      -1.1945959857450344e-002 2.5009785287358307e-002
      1.7094161742720972e-003 1.2981981133481278e-002
      1.5017393336166820e-004 4.3918402351946217e-003
      7.7840912885045162e-003 -1.9229724211317398e-002
      -2.8329381112944186e-002 -1.6279728018622739e-002
      1.4627390343895126e-002 -2.6034643634736059e-002
      -2.3601805149931338e-002 4.1187072918360289e-002
      -1.4347203353335027e-002 -1.4423017105768604e-002
      4.4565104520793196e-003 -1.1640160028332415e-002
      -2.6130765962671772e-002 2.9101495227387881e-002
      -2.1565905065397791e-002 -9.6289134517428734e-003
      1.5607406120760243e-002 -1.7379778190193360e-002
      -1.9791628486931317e-002 1.9223790636290091e-002
      8.0678781088542699e-003 9.9092609700750268e-003
      -5.3274922690695991e-004 1.1510195732933229e-002
      8.7368224200455903e-003 -1.1738090093788272e-002
      -4.8009153846770229e-002 -2.3755532878274272e-002
      2.5760290792847550e-002 -3.7536777840268813e-002
      -4.1773288872015084e-002 5.5639071857962123e-002</_>
    <_>
      4.9439397466988783e-001 4.0013425487715476e-001
      -2.9015275146570352e-001 4.6703204302223195e-001
      5.5858746159009609e-001 -8.3254652736583534e-001
      2.4252909468794767e-001</_></weights></opencv_ml_ann_mlp>
</opencv_storage>
