<?xml version="1.0"?>
<opencv_storage>
<opencv_ml_ann_mlp>
  <format>3</format>
  <layer_sizes>
    256 6 1</layer_sizes>
  <activation_function>SIGMOID_SYM</activation_function>
  <f_param1>6.6666666666666663e-001</f_param1>
  <f_param2>1.7159000000000000e+000</f_param2>
  <min_val>-9.4999999999999996e-001</min_val>
  <max_val>9.4999999999999996e-001</max_val>
  <min_val1>-9.7999999999999998e-001</min_val1>
  <max_val1>9.7999999999999998e-001</max_val1>
  <training_params>
    <train_method>BACKPROP</train_method>
    <dw_scale>1.0000000000000000e-003</dw_scale>
    <moment_scale>0.</moment_scale>
    <term_criteria>
      <epsilon>1.0000000000000000e-004</epsilon>
      <iterations>300</iterations></term_criteria></training_params>
  <input_scale>
    3.7661887106446272e+001 -2.0107890971677413e+000
    7.2383819528367951e+002 -7.6512899432364447e+000
    5.4231399925882818e+002 -3.5702483186865051e+000
    7.0702195234655710e+002 -8.5631701183240221e+000
    1.0303722231081047e+003 -6.5745007503186432e+000
    3.7798536802310159e+003 -3.6088856791703834e+000
    7.2241139482564347e+002 -7.2744569024009182e+000
    3.9702193295112511e+002 -7.9059711785502671e+000
    6.4594080075235422e+002 -4.0881981769739646e+000
    4.0950751107797987e+003 -4.0022078483241588e+000
    4.1289021901884316e+003 -2.6789320015943661e+000
    3.9307743492143713e+003 -3.1555354193349241e+000
    7.5658741064755077e+002 -7.2886992710221614e+000
    3.4474563249879247e+003 -4.1501813151144891e+000
    2.5227796285372338e+002 -5.8352338690477898e+000
    1.7348817985706751e+002 -6.1328024499885920e+000
    6.8340420458189521e+002 -7.2993871675361683e+000
    5.2809818891278983e+003 -3.6352947556619370e+000
    4.0455816985394945e+003 -3.7739967790117301e+000
    6.3606909391496210e+003 -3.6279919195448640e+000
    4.4030387337484744e+003 -3.9275581379149225e+000
    2.3402506950491279e+004 -1.0938682227338201e+000
    3.5160782944566640e+003 -4.1603865507597391e+000
    6.8428635535391713e+003 -3.5384327432428568e+000
    8.9018186967941028e+002 -1.0495508989843144e+001
    7.4691483404354040e+003 -3.8036900795383515e+000
    4.4976393322352551e+003 -3.3724430253394351e+000
    6.5895747046202250e+003 -3.2437617134191838e+000
    3.5065895133600407e+002 -6.6959632204121258e+000
    6.1525192044217929e+003 -3.2397768898021049e+000
    1.3650562452752473e+002 -4.7850009347106086e+000
    5.9581978338830208e+002 -6.7101735590585960e+000
    5.5925910516054557e+002 -4.1499585454577881e+000
    4.1105108612873455e+003 -3.9904220209134387e+000
    4.4994775159439996e+003 -3.2135133702776582e+000
    4.7174025351951950e+003 -4.1879287234271008e+000
    5.2653477432985392e+003 -3.4937327503349103e+000
    1.5904958938147263e+004 -1.1749180534966819e+000
    4.7933121258538504e+003 -3.7821570518165761e+000
    3.7488799710885046e+003 -3.7361606284699858e+000
    3.0722644266293933e+003 -2.9232595590338142e+000
    1.2580563604879366e+004 -1.7641031510733447e+000
    1.6653648502053198e+004 -1.4316330912799842e+000
    1.7945506554414922e+004 -1.6717339702782639e+000
    4.8144778336028940e+003 -4.7273276130262891e+000
    1.3221664093968024e+004 -1.6163086879079906e+000
    4.0769271639138829e+003 -4.5454956731017626e+000
    3.4455754757548120e+003 -5.3901523397053852e+000
    7.5460162765399957e+002 -1.0413886231724531e+001
    6.1732762826533153e+003 -3.7188411963722454e+000
    4.9601250900981950e+003 -3.9591765690247764e+000
    6.3299021275130044e+003 -3.3124925691309746e+000
    5.0986270295749573e+003 -4.5330313930179074e+000
    2.6490372039728642e+004 -1.1862472280809995e+000
    4.4112971301259422e+003 -3.4446812744615629e+000
    6.8366757574020521e+003 -2.9877412015042677e+000
    2.3790759088306328e+002 -6.1097096865863838e+000
    6.6795504331165894e+003 -3.5347659902681787e+000
    5.4456511893955203e+003 -4.6689012694811263e+000
    6.3637176483847561e+003 -3.4924338034762910e+000
    2.4900358718367588e+002 -6.8642063458771831e+000
    7.3875225534829497e+003 -2.9869991920006509e+000
    4.8871211489020635e+002 -6.8297780584281922e+000
    1.1744845148906297e+003 -5.8183315890969771e+000
    9.5225870015132671e+002 -6.9093210499909725e+000
    3.9879311477339861e+003 -4.0669499039530210e+000
    5.2959625851543015e+003 -3.6334896801632053e+000
    4.5526287573303271e+003 -4.0758749455753858e+000
    6.8410157124090583e+003 -3.0276511798284593e+000
    2.3926244462879378e+004 -1.3216845890397595e+000
    7.2650299519897962e+003 -3.3459156477691958e+000
    5.1299539921704954e+003 -2.5420217150041049e+000
    6.2134794600783825e+003 -4.1208186178013859e+000
    2.1797179527521537e+004 -1.6030586247279675e+000
    2.2610645573094891e+004 -1.3968229189797499e+000
    1.9617053305319590e+004 -1.2760081090458608e+000
    9.0539563194758321e+003 -4.1313348730459749e+000
    1.7583804919425802e+004 -9.1960097974340571e-001
    6.7354228727311356e+003 -2.9919264194012540e+000
    5.7321718743890588e+003 -2.7542485176607485e+000
    3.7552627436836779e+003 -3.5633127689736415e+000
    2.4162371766077191e+004 -9.1614483422951709e-001
    2.6701405992940057e+004 -1.6233555876032089e+000
    3.2879456009089256e+004 -1.1821807804017954e+000
    2.4896880834041742e+004 -1.2450963419198740e+000
    7.6104920397575290e+004 -4.4776673559449509e-001
    2.4402525318492808e+004 -1.1964446631748995e+000
    3.9430761884678839e+004 -9.4085915356330241e-001
    5.1591497953448197e+003 -4.7655921652630244e+000
    3.2166597335371440e+004 -1.1565499480979109e+000
    2.1678656073824797e+004 -1.0983244190236228e+000
    3.9056267696295094e+004 -1.0723501344951472e+000
    7.0875209081760759e+003 -3.3637797762692707e+000
    3.9171346161204543e+004 -7.6822127959737596e-001
    7.9328325178746773e+003 -3.2904590713758104e+000
    9.8833762994608096e+003 -2.1805984024141507e+000
    8.2127398030510778e+002 -9.4913949721478836e+000
    3.0670417728092011e+003 -4.0801927052813944e+000
    4.6702703341794631e+003 -3.6988099558614720e+000
    4.9574545160003299e+003 -4.1660779834241719e+000
    6.9840484390769052e+003 -3.6525301643077221e+000
    2.1619035185170491e+004 -1.2225003643014047e+000
    5.6661208868652684e+003 -3.2762742894846806e+000
    6.0487574073900832e+003 -3.5291569520381940e+000
    4.6213251334986535e+003 -5.1146986956171814e+000
    1.5341840388342351e+004 -1.9557288978287735e+000
    2.5455971400766273e+004 -1.5892405122273940e+000
    1.9878680418287448e+004 -1.5594281845507536e+000
    5.2562788070242696e+003 -3.9790878876695785e+000
    1.7170735893482219e+004 -1.7398715547858772e+000
    5.1452391917642699e+003 -4.3037044058239600e+000
    4.0735792263694784e+003 -3.4832166655400192e+000
    2.7652173592849203e+002 -7.0479428856908264e+000
    6.9879825399449937e+003 -3.7276793799760468e+000
    3.6716326497853747e+003 -3.6219715687275809e+000
    6.0261857553048831e+003 -2.7497582734421333e+000
    5.9868729313320337e+003 -3.1388530946950342e+000
    2.7248635713051004e+004 -8.8175218230224084e-001
    4.4285479945588995e+003 -2.4781734612214685e+000
    8.2726441153909436e+003 -2.6174975549418376e+000
    1.1482130261035739e+002 -4.6115350029610269e+000
    7.5214232546589328e+003 -3.4762901968606346e+000
    4.1436759058612906e+003 -4.6036629467225554e+000
    7.5371563203577653e+003 -3.5229797414689590e+000
    5.4543881799620169e+002 -6.6961726369923120e+000
    8.7702008128168509e+003 -2.1901279212905780e+000
    1.0304395534404021e+003 -6.5513534571948062e+000
    2.0560507235017544e+003 -4.7070254250944741e+000
    5.1035549659086314e+002 -3.7900741042122772e+000
    5.7966246225614623e+002 -8.0335520207107507e+000
    2.7586128445539352e+003 -2.7149890993754973e+000
    2.2285659478145740e+002 -5.9007776944995474e+000
    5.4685347217443250e+003 -3.7822760332995586e+000
    4.2971788587269821e+003 -3.8949320007298209e+000
    3.9887445395545201e+003 -4.0951586977444974e+000
    1.6544208917225902e+002 -4.8036598303385754e+000
    4.3395069024743261e+003 -2.9928808066527615e+000
    4.6405941261064445e+003 -3.8709791970777889e+000
    1.5266017235001111e+004 -1.1875975449991480e+000
    4.6219051907115754e+003 -4.2104118717578043e+000
    5.5153965774871904e+003 -4.1536108253057451e+000
    3.7428432994689715e+003 -3.0682854392489656e+000
    4.0872978993970205e+003 -4.6078259564202702e+000
    6.3506322728531313e+002 -9.2960130829588508e+000
    4.2841401025904534e+003 -4.3690281218710991e+000
    5.9584418421490182e+003 -3.5504709134936481e+000
    1.3418849333652874e+004 -1.7895425352786041e+000
    7.5662816677990859e+003 -4.2191806159239658e+000
    1.8461514803000609e+004 -1.3999802322855077e+000
    3.2060448336188536e+004 -1.2260891203654039e+000
    1.4946049035711401e+004 -1.9052746781095236e+000
    6.3368504305132847e+003 -2.9930080806690182e+000
    5.7240798607435563e+003 -4.7167744709186223e+000
    5.7406221191610884e+003 -3.1936336866288269e+000
    1.6799132907515133e+004 -1.4441396773952624e+000
    5.7399551414002226e+003 -3.4015188982742059e+000
    4.5445249847038931e+003 -4.4533487186679848e+000
    6.1502311738945336e+003 -2.8807410177287687e+000
    3.2828800613352150e+003 -5.1957276450912246e+000
    1.0692438550395220e+003 -5.4594911949030012e+000
    3.6566586028794100e+003 -2.8900628856165245e+000
    4.4520059565670617e+003 -3.8620975132560940e+000
    1.6541781066702752e+004 -1.3787611409558425e+000
    4.6569628242979379e+003 -4.7538046829152574e+000
    1.7177771638868027e+004 -1.2127943409717346e+000
    2.1787228244087735e+004 -1.2462541500968143e+000
    1.5398089659959345e+004 -1.4142941655203083e+000
    4.2007414844044142e+003 -4.5984098710116870e+000
    1.4865377569716957e+004 -1.3264936557823646e+000
    2.0388618245841619e+004 -1.6394171996973042e+000
    6.7340845949430062e+004 -4.1821418050467135e-001
    1.6744193277726277e+004 -1.6419202869239746e+000
    2.2780502567124749e+004 -1.7647298538546432e+000
    1.8912465495929624e+004 -1.4032679028227764e+000
    1.6240705462100834e+004 -1.5235382869109269e+000
    4.0079206703242512e+003 -3.8109163749278268e+000
    4.7593887239723299e+003 -4.0805250547063556e+000
    7.0073488442653988e+003 -3.6899107734371208e+000
    1.6475446397159056e+004 -1.7125012462860889e+000
    5.9741210312714093e+003 -3.6105844954804356e+000
    1.8846322708909545e+004 -1.5400443144886933e+000
    2.1853828852597038e+004 -1.0071942459153551e+000
    1.5322970912984856e+004 -1.4073946079834094e+000
    6.3726019427749125e+003 -3.1619510978002587e+000
    4.8340065668502166e+003 -4.7638835098772425e+000
    6.0372988837384910e+003 -3.6211401195861392e+000
    1.6700727098237283e+004 -1.5994460123235430e+000
    3.2251814825085135e+003 -2.4805196217753376e+000
    4.1762555623707585e+003 -4.3791316490122982e+000
    5.3765751724609299e+003 -2.7028916926299131e+000
    5.1086113917425628e+003 -4.5218703619470588e+000
    1.1502943952082630e+003 -4.6539965482971768e+000
    7.3098139746141226e+002 -8.3064438673846031e+000
    3.0185623029219300e+002 -7.6577501189841932e+000
    3.1676711439570636e+003 -3.4364807918869635e+000
    1.3340841645359947e+002 -5.4845023407032176e+000
    6.8300621363463188e+003 -3.6345080991527650e+000
    5.7480137615124504e+003 -3.2578679496806506e+000
    4.6938910940262758e+003 -3.5364744139405087e+000
    5.1598217123695792e+002 -6.5504224931312187e+000
    4.1264378271835240e+003 -3.1898703668423130e+000
    4.1712140777901259e+003 -4.1270666325521344e+000
    1.7488739499934465e+004 -1.2633316258771392e+000
    3.8720001645395241e+003 -4.5992484022051148e+000
    6.5518708428532636e+003 -3.7477443836941293e+000
    5.8620859847272304e+003 -3.3493474212550454e+000
    5.3086564431210263e+003 -4.4698923033987770e+000
    1.0919367407986156e+003 -7.3567193740846513e+000
    3.6969477407403415e+003 -4.8940106560494616e+000
    5.6790898271980377e+003 -3.2336534337925347e+000
    1.2693320617125948e+004 -1.8587451556556867e+000
    5.6264083957570610e+003 -2.9498654151510197e+000
    2.4136791169148459e+004 -1.4832145185724384e+000
    3.1299744743133324e+004 -9.2076730751171554e-001
    1.3198267041315417e+004 -1.4408871350228440e+000
    7.0954078934432200e+003 -2.1081807126903604e+000
    4.5911078128948448e+003 -3.7786772575281362e+000
    7.9714612198834138e+003 -3.7598529043964253e+000
    1.7340904947605850e+004 -1.3093336316194104e+000
    6.5227683715000830e+003 -3.2172720134820443e+000
    5.7135885748287383e+003 -3.1823294697801252e+000
    7.8580597738095421e+003 -2.6943710403870149e+000
    4.6801292105930770e+003 -3.9942136946685554e+000
    2.0263941466850108e+003 -4.9073845990514178e+000
    2.5992425266394849e+002 -6.1148102470751100e+000
    1.6331117323973044e+002 -6.1650718151089627e+000
    3.9824943293562774e+003 -4.8684794960648450e+000
    5.5435568874771650e+002 -9.6658636428144344e+000
    6.7366308959817579e+003 -3.5275392134993133e+000
    6.0468667275259859e+003 -3.0872941655232293e+000
    4.9351131498833638e+003 -4.0359985484289069e+000
    9.5861677947285693e+002 -6.3999070941447771e+000
    3.6295638608239751e+003 -4.5307560198066970e+000
    3.4082768086007845e+003 -5.4432076128269404e+000
    1.4714340323680228e+004 -1.6689251410810790e+000
    4.4563394338612434e+003 -4.5169637855483220e+000
    5.3003799256315342e+003 -4.4750510019349141e+000
    4.5960372252142342e+003 -4.3460883465163134e+000
    3.0475085884934902e+003 -4.9387613299059163e+000
    9.7461861794810295e+002 -7.3745159156138049e+000
    1.7377963398475444e+002 -6.5942287739804124e+000
    6.5433098237828131e+002 -7.2745980615839594e+000
    3.4320332101029380e+003 -5.5002186207294832e+000
    1.0403092875715754e+003 -5.4810927264531513e+000
    7.1953747631514952e+003 -3.6760294529781405e+000
    1.1324203953174423e+004 -2.4355674534038303e+000
    4.5699461474626214e+003 -4.3901286467143841e+000
    1.7708215407354414e+003 -4.0534563247793525e+000
    5.2958578422876485e+002 -9.1333978042437991e+000
    1.0970061594227327e+003 -5.6284952235539611e+000
    4.2531774711874232e+003 -4.1094577061355313e+000
    1.3329231290282780e+003 -5.6895982691748079e+000
    1.0506435517355812e+003 -7.0682117473880330e+000
    1.8522826466191104e+003 -4.3156034101873342e+000
    9.0248061452203763e+002 -6.7531619319975880e+000
    3.4949149333597001e+002 -5.2398934703112703e+000</input_scale>
  <output_scale>
    1.0526315789473684e+000 0.</output_scale>
  <inv_output_scale>
    9.4999999999999996e-001 0.</inv_output_scale>
  <weights>
    <_>
      1.1513283296465525e-002 1.6006521421202506e-002
      -1.4391897844244141e-002 2.4869217299320578e-002
      2.6404366021164999e-002 -3.1467363879071862e-002
      3.8199341755713978e-003 -7.5135700457195221e-005
      4.2357077878855042e-003 -6.8956035940734040e-005
      -2.0055188655367880e-003 -4.4914272022567739e-003
      1.6801622413701256e-002 2.0327468581206053e-002
      -1.5134056405440450e-002 2.2997999595059285e-002
      1.6721807186047606e-002 -3.0040559262047375e-002
      -1.1106857310431867e-002 2.9311930781919758e-003
      4.5314061353182548e-003 -1.0650216715133557e-002
      2.2192318470703521e-003 -1.3242854468081499e-003
      4.7405045993053055e-003 1.3186506814378994e-002
      -7.1376419897983007e-003 8.8925346137315557e-003
      1.3704420708181380e-002 -2.2818284601809815e-002
      3.9464736930747372e-003 5.6474817596166927e-003
      -7.0642781663374414e-003 1.3417971978448321e-002
      6.4628686529976205e-003 -2.0848963852498400e-002
      -3.4005916115791721e-002 -3.2288604884619876e-002
      1.8981467748242779e-002 -3.7464525916665402e-002
      -3.7370481556250015e-002 6.5110460339031909e-002
      1.0409012793273598e-002 5.7369503024070978e-003
      -1.2024307905592536e-002 1.4473899855485018e-002
      1.5065942485950610e-002 -3.0471133216465746e-002
      9.7937500065642617e-003 5.9770181297674526e-003
      -2.9597317655162252e-003 2.0028713565311430e-002
      1.0960443302184797e-002 -2.5594439248716655e-002
      1.4445987305609670e-002 4.3035274675027090e-003
      -5.4173767544479241e-003 5.4747871788475289e-003
      1.1731219631962031e-002 -1.8001007007487607e-002
      -1.5639986814425414e-002 -2.4178658334841886e-002
      1.9645980666578369e-002 -2.3945214917493445e-002
      -1.8615077011819341e-002 2.6535751401937025e-002
      5.7624494930313581e-003 -1.9706038941962214e-003
      -6.8498005457582143e-003 1.1769091083374411e-003
      -1.8297760803309905e-003 -1.0843552676876015e-002
      -5.5901944099015020e-002 -3.8210975863314151e-002
      2.2547914858974314e-002 -4.9398117628061733e-002
      -5.7432785152838242e-002 8.6735425219379297e-002
      5.0833982722822257e-003 6.9424140826460411e-003
      -7.7953280363568175e-003 1.1867578605720059e-002
      1.7063537427208435e-002 -1.4940126398744917e-002
      -1.5801532333387443e-002 -6.3389857375443781e-003
      9.6932919326877844e-003 -7.6552238951481093e-003
      -1.1282889034231726e-002 2.3354383211624141e-002
      -9.0529497683436086e-003 -2.9638098958200626e-003
      1.0643835373307842e-003 -7.3340363204795929e-003
      6.8730332114674472e-004 1.0348462908134110e-003
      1.6497146994206029e-003 -1.1294914676208399e-003
      -1.0170396444758889e-002 5.3296340161281272e-003
      -2.4233512992409968e-005 -1.4765075966700658e-002
      -1.7762462714931891e-002 -1.1441990406567638e-002
      1.1909577416498869e-002 -2.1935881312222277e-002
      -1.6966151929379263e-002 2.2615054893878748e-002
      3.0683712823969360e-003 2.6538230854958565e-003
      4.4036231714059551e-003 5.6346030267292050e-003
      1.2569348631944512e-002 -7.8578568745759688e-003
      -1.9529018298017814e-002 -9.7802069470983629e-003
      1.5247755509052096e-002 -1.5929003820661723e-002
      -1.4248464183095758e-002 1.7762727101464662e-002
      2.2909377454662608e-002 1.9790495417801562e-002
      -7.1918120545971095e-003 1.8347604589984960e-002
      2.5658848313468891e-002 -3.0293509077784872e-002
      -2.1290720539432241e-003 1.0987595030616452e-004
      -3.7228073359881109e-003 6.1583314601989462e-003
      1.0077736650384769e-005 -1.4667931853620763e-003
      -6.2566590672114789e-004 1.3653131667752424e-003
      6.0294221433230969e-003 -1.7415109919124447e-003
      -2.8531176983300007e-003 -8.3626365441985418e-003
      1.6318143639380965e-002 1.2333909886242710e-002
      -1.9922055249989971e-002 2.4435777863605922e-002
      2.6395727030993681e-002 -3.8704110485643595e-002
      1.6671882432029887e-002 9.1471809200818800e-003
      -6.4230466918070855e-003 1.5948670321978092e-002
      1.9371094268551926e-002 -1.7720847647159668e-002
      -1.9554259085133932e-002 -1.5756155454398672e-002
      1.1304950283744666e-002 -1.2230525815932716e-002
      -2.0370386395934685e-002 2.2959174788064904e-002
      1.1275436869894493e-002 9.5507864924597678e-003
      -1.5106980529393672e-002 1.0462296291982174e-002
      2.4289947266921928e-002 -2.9701489306367731e-002
      7.7352677995163486e-003 6.1935749414866979e-003
      -8.5202220283960729e-003 1.3679126789032265e-002
      1.9401934918964484e-002 -1.9544901211600456e-002
      -3.0887548301827984e-002 -2.8181566579879750e-002
      1.9807456052444269e-002 -2.9698039808715403e-002
      -3.6186233114161623e-002 6.0231506868780198e-002
      -1.4352903715674312e-002 -6.0400249402534573e-003
      -9.6375417052926621e-004 -6.0843058870589063e-003
      -5.2654028153631387e-003 8.1571305505760520e-003
      -1.3504058587193946e-002 -1.0435716953743976e-002
      4.9479548448229981e-003 -1.2003852586040463e-002
      -3.2525699244942935e-003 7.5522901790254270e-003
      -7.8424450000180376e-003 -5.7957363403274668e-003
      6.5749157382124380e-003 -6.3672330848495336e-003
      -1.1601021225148674e-002 1.9978780484700684e-002
      3.1590612060885389e-003 4.8961029026617512e-003
      -4.7836363661606920e-003 3.5794256117636261e-003
      6.4430477433422180e-003 -7.5923478458123192e-004
      -2.9574566372696547e-002 -2.6476865850972735e-002
      1.4359479843823500e-002 -2.7525072009003827e-002
      -3.4925447113672951e-002 5.6256434034036927e-002
      2.4375989635642211e-003 4.7118388193517343e-003
      -4.0331939601597208e-003 -2.0578683659324215e-003
      7.3127440510749135e-004 -7.0062383472415416e-003
      -2.5835518978545802e-002 -1.4567434208847480e-002
      9.9649564467562124e-003 -1.2569125358935953e-002
      -2.4756992416548784e-002 3.5999175250435549e-002
      -2.6288846859428113e-002 -1.9973045841979731e-002
      2.0832293636621368e-002 -2.5690253002995586e-002
      -2.8079348856569541e-002 4.3716193174857552e-002
      -8.7044759739106827e-003 -1.3915104587058684e-002
      8.4443132136119547e-003 -1.5768200955546402e-002
      -2.2948997365422316e-002 2.0079596479207783e-002
      2.9926262022982320e-003 5.0729426362040577e-003
      -3.1151603302848135e-003 2.3605383216241255e-003
      6.0143750184170671e-003 -2.6713034136242216e-003
      -1.9669944538991284e-002 -2.1401575640876219e-002
      1.4059740427715753e-002 -1.6362960724339994e-002
      -3.4699243462370293e-002 3.5264164906615332e-002
      1.5578639199850253e-002 2.0353896110864234e-002
      -1.9277900651282549e-002 2.3098204581745500e-002
      1.9030928864149105e-002 -3.7153065048411781e-002
      -1.7606005868560471e-002 -1.6532670904389396e-002
      8.5918499689055725e-003 -1.5971985772339409e-002
      -1.3296166407182631e-002 2.6100818835085308e-002
      -5.6463529989892701e-003 -9.0277046214555859e-003
      5.8656096866005107e-003 -1.0803879097918362e-002
      -1.0807623285638029e-002 7.8719700305830819e-003
      9.2112223874295067e-003 2.1328964270832026e-003
      4.5098531576825912e-003 4.2900272332048331e-003
      1.4945391654744603e-003 -9.5925851994260181e-003
      -1.8966513279387314e-003 3.9217695829179122e-003
      -5.5788605569483379e-003 -3.0621566924081449e-004
      1.0389030165754128e-002 -9.6766676770543725e-003
      7.5214573147842894e-003 3.9927595954933589e-003
      -7.7064637084479073e-003 6.1720276550309185e-003
      -1.0471221125348460e-003 -1.6608774759437736e-003
      -1.5396044171201597e-002 -4.2556133949565042e-003
      5.9780427035264622e-003 -8.0891639450339815e-003
      -8.6923991906019456e-003 1.6298387397971587e-002
      -2.7424731979068414e-002 -2.1865017286952240e-002
      1.2487698670901571e-002 -2.7602326607425440e-002
      -3.1060284252631267e-002 4.2160127747460655e-002
      -5.3116639719104075e-003 -9.4474861488884586e-003
      4.4223349564523678e-003 -1.4930564520174057e-002
      -7.9537247770545393e-003 2.6138163172030701e-002
      -3.4842648530237677e-002 -2.6258270137499741e-002
      2.3761689270800468e-002 -4.2882468132234369e-002
      -4.4643828802774795e-002 5.8204713582655311e-002
      4.8623972825693109e-003 1.0783780278365835e-002
      1.0667909539697432e-003 1.0206928990577362e-002
      4.1819221020599007e-003 -1.3676322745160360e-002
      1.1647778849226563e-002 4.9633863954282398e-003
      1.2410423442776599e-003 8.2976405820522556e-004
      8.3900775786962742e-003 -1.7766105830392374e-002
      -1.4347459072249512e-002 -5.5961026015394939e-003
      1.3596114845006118e-002 -9.6803117220450683e-003
      -2.2475452657696748e-002 2.3441128922338701e-002
      2.2216282089853500e-002 2.1889444590772387e-002
      -1.4060856286995906e-002 2.3628496120983566e-002
      2.2722566666589471e-002 -2.4314947480933463e-002
      9.2591165219333416e-003 1.7766709077406687e-002
      -1.5744251400919392e-002 8.6163305079441956e-003
      2.0804061221911863e-002 -2.1172198407510480e-002
      -1.5601584037948932e-002 -3.3440014181997557e-003
      1.1731181779847950e-002 -8.3943096983037802e-003
      -1.0481988120004277e-002 2.2809225131067690e-002
      9.9481292470080494e-003 1.1889826442857458e-002
      -1.1997965324925813e-002 9.2715927716582706e-003
      1.5659742941326375e-002 -1.7794053173166534e-002
      7.9636127407909393e-004 -2.0837791743020047e-003
      2.0778166315735059e-003 6.1885186670163214e-004
      7.6194177620020741e-003 -1.0788623030101053e-002
      -1.6519532737482898e-002 -9.7655392026552053e-003
      1.2597197146742012e-002 -1.5906956072084651e-002
      -2.7611902405074350e-002 3.7279299796666727e-002
      3.8667842836612856e-002 3.3624630471156880e-002
      -1.4594034749434675e-002 3.5732477476147127e-002
      4.3430857263035083e-002 -6.0452074012011470e-002
      -4.8652597568216487e-002 -4.8064352418794087e-002
      3.3074153107838553e-002 -4.7807668949825861e-002
      -5.7509875766604400e-002 8.6319122471270965e-002
      -6.7463067913940810e-003 3.3577866278321814e-003
      8.3131434344598382e-003 -6.3191810269360472e-003
      -2.1661235601559488e-003 -1.1247470505735352e-004
      -5.2286574703495653e-002 -3.7033481743808758e-002
      2.7773744352493690e-002 -5.2007856772830506e-002
      -4.8122932074485272e-002 8.9751752137560981e-002
      -2.3698922973572224e-002 -1.7424205279756685e-002
      1.1357265792585546e-002 -2.7288929095162437e-002
      -2.5441412666441458e-002 3.5300133146255415e-002
      -2.3147069929475690e-002 -1.4281866576622686e-002
      1.1919838199875864e-002 -2.0296917960115457e-002
      -1.6499527452903784e-002 3.3840833821433762e-002
      -9.8377137225676044e-003 -5.1347481002939706e-004
      9.5559558712159237e-003 -6.2149045590968646e-004
      -2.0596990550212730e-003 1.3011283427710019e-002
      2.0538358470171662e-002 1.2090520919623940e-002
      -3.8084553753534858e-003 9.8404664685703656e-003
      2.3092462000684554e-002 -2.4114312957405924e-002
      -2.4753305708471660e-003 -4.9867863588022917e-003
      -6.8845820215072285e-003 -1.0954505837794046e-003
      7.9746104515665325e-003 -9.1604406042177858e-003
      3.2230295658869187e-002 1.5853100423664647e-002
      -2.2417412922875739e-002 2.4898203863049417e-002
      2.8026000650038442e-002 -4.9893662765685430e-002
      -2.0327165025514630e-002 -1.1391838296863311e-002
      8.6540885987385682e-003 -2.0973489755064526e-002
      -1.9199534463077459e-002 1.9978268858770982e-002
      -5.0060395401278282e-003 6.7318126232090232e-004
      2.1763878277338586e-003 -4.6864889777167781e-003
      -7.1720554680118299e-003 -2.7788538474049036e-003
      -2.0780070455434556e-002 -1.6369697146805938e-002
      1.4446867498202030e-002 -1.5593632739857749e-002
      -1.3664213200548708e-002 2.5220566724250160e-002
      2.4475658573356717e-002 1.5688252731205363e-002
      -7.0058167360332428e-003 1.5402330615645207e-002
      2.7524902379979323e-002 -2.6684914824572865e-002
      -1.1925559561566143e-002 -1.0423607794869007e-002
      6.1466290210467258e-003 -3.2705160760409533e-003
      -7.3902634490577808e-003 1.7473293389933579e-002
      -1.0129182526826463e-002 -1.0852133557965455e-002
      1.1543014344876271e-002 -8.7535013253070334e-003
      -1.2925458226135918e-002 5.4904564434119498e-003
      9.7779432207103448e-003 6.2345816545178543e-003
      -1.1616853791454031e-002 6.6572522984801909e-003
      1.0869189415759270e-002 -8.6475515159217635e-003
      4.6083154857135943e-003 4.2321857519770122e-003
      4.3462917812128752e-003 4.6318827658157445e-003
      9.1236370211284189e-003 -9.3138511342412619e-003
      8.2508802257339961e-003 1.3487505572850131e-002
      -6.9819656770263461e-003 1.7748302984879727e-002
      1.4577680830977270e-002 -1.7173605567124734e-002
      -1.6793171764320283e-002 -1.5197036270643064e-002
      1.3467914267658910e-002 -2.1575065456544119e-002
      -1.4901579674873648e-002 3.5433473976664277e-002
      -2.8922569189436288e-003 2.5282019925035558e-003
      -1.6695971213462153e-003 -6.8028481656496253e-004
      -7.6851305018989565e-003 7.0288978156178208e-003
      6.0426875735554017e-003 1.3906871527768656e-002
      -1.3751073065028550e-003 1.5280383925677625e-002
      6.1876411591621208e-003 -2.7006892406657369e-002
      1.1412339385522389e-002 1.8398866213467417e-002
      -1.3677675156949782e-002 1.6131566032766834e-002
      1.5761888608504002e-002 -3.0083953734178902e-002
      -5.4030925555042580e-003 -9.6526754179345874e-003
      7.1943972719073074e-003 -8.1987842184706016e-003
      -4.3838991484944122e-003 7.7771241027964613e-003
      5.4532751442194085e-005 2.8885377405408240e-003
      -4.3052082554958238e-003 -3.4182857861403465e-003
      6.2191266067234720e-003 -4.6677675496879728e-003
      -2.6571347826112032e-002 -1.2213123941223078e-002
      1.0465197411008565e-002 -1.5511918665950792e-002
      -2.1510681149435544e-002 3.9285230922396254e-002
      -1.6496402777731196e-002 -3.2721021924661717e-003
      9.0052364316233913e-003 -9.1194529772694270e-003
      -9.5048253498257150e-003 2.5355185498567787e-002
      2.1725517665143638e-002 1.4218724380193519e-002
      -1.1309725527965192e-002 8.6128304303384803e-003
      9.2324282071812140e-003 -2.9913260513326385e-002
      -3.5619696230514814e-003 -2.7194939432715619e-003
      -4.1036043264751250e-003 -4.5871785993859245e-003
      8.2943846343344759e-004 1.1299231983538936e-002
      3.1607800455575465e-002 2.8525703890374433e-002
      -1.5775161964170836e-002 2.6307017856977855e-002
      3.6692944411531390e-002 -6.1409924219913703e-002
      -2.0894230955314091e-002 -6.9501007518978078e-003
      1.6098035436339333e-002 -1.7158389597759467e-002
      -2.3207502468554193e-002 2.7930331732150974e-002
      1.0363444193579242e-002 5.7494546006690468e-003
      -6.7130142640693296e-003 1.8601819095029001e-002
      1.9572524038780764e-002 -3.2339815682788327e-002
      -6.6087919620586534e-003 -4.6637196071760683e-003
      9.0675941435134060e-003 -1.8704331729930267e-003
      -1.3744733762305290e-002 1.7106871889107877e-002
      -4.9140120289824932e-003 -6.0866193984890548e-003
      1.6301565243502327e-003 3.1325671726549569e-003
      -3.8805087912478177e-003 1.9929348958481203e-005
      -2.4874854804079033e-003 -6.5260526382864975e-003
      -3.9106784951365033e-004 -1.7134525379927329e-003
      5.6655904611032735e-003 -1.3175206046453735e-003
      -1.7266562397899362e-002 -1.2244363266914009e-002
      3.0101852590274586e-003 -1.8958842585337421e-002
      -1.6273591256856453e-002 2.2759322435227509e-002
      7.7840330642288324e-003 1.5088480253028565e-002
      9.2546834460517310e-004 7.9569205198931330e-003
      1.1817583216640988e-002 -1.6465884311167505e-002
      -3.8991399635135190e-002 -2.2450492587695138e-002
      1.3039927020872992e-002 -3.1253777062045046e-002
      -3.4396940395938505e-002 5.8221855347344705e-002
      -5.4572836154363575e-003 -1.9193052014835938e-004
      -1.8044690855049243e-003 -1.1164764313056510e-002
      -4.1765016072460772e-003 1.3450183083078751e-002
      4.1541092840600945e-003 6.4793509247335892e-003
      6.2044593613748145e-003 -3.1538812012838102e-003
      5.8786204367869375e-003 -1.4119712311309990e-003
      6.5397034473780929e-004 -5.8681439084405226e-003
      7.6721494824283825e-003 5.4173132922322826e-003
      5.2031672255505599e-003 7.6677428378654142e-003
      -6.8253896914204247e-003 -1.3366954602155597e-002
      9.6016659683505340e-003 -1.6559724104938452e-002
      -1.5680688019671200e-002 2.3688910455499420e-002
      2.5076388601230532e-002 1.2880710017456084e-002
      -1.7846439750546915e-002 1.1980596740361680e-002
      1.6223557933622717e-002 -2.8586671913920721e-002
      1.4432486500668106e-002 6.4636323671059415e-003
      -4.8345370251580951e-003 1.0755299152526834e-002
      1.7710752634346374e-002 -1.7319784382088439e-002
      -1.5806396876054063e-002 -1.1098121659888750e-002
      1.1454425322818099e-002 -1.7263348095523379e-002
      -1.5811228523742952e-002 2.5922669567864119e-002
      -1.8865242286337441e-002 -9.6841003339690722e-003
      1.1346910786702032e-002 -1.8645022446465830e-002
      -1.1285348226420430e-002 2.3643366242168191e-002
      1.7619577938938220e-002 1.5622347281171983e-002
      -1.0894815377224219e-002 3.0326067462993832e-002
      2.8981774289352766e-002 -4.5493655880712774e-002
      -2.8930435160094942e-002 -2.5027890649940727e-002
      1.5560629143503885e-002 -2.9571902909937785e-002
      -2.9565881083997877e-002 3.9029033348439483e-002
      -1.2095000250371099e-002 -5.5077119497609428e-003
      3.8900701810244275e-004 -1.8780479753748813e-002
      -1.7527821765164851e-002 3.1320522740278849e-002
      2.7200395078393978e-002 1.3705010695744441e-002
      -1.9903049363457444e-002 2.8913618028343847e-002
      2.9680638178003725e-002 -3.9511337415142456e-002
      2.0824260816401895e-002 1.0029969279463782e-002
      -1.2395392075836099e-002 1.8398418506148949e-002
      1.7357481922293912e-002 -1.9082735217826718e-002
      -1.3221972189768613e-002 -1.4892504435465212e-002
      4.9182390015048323e-003 -1.6889447162835868e-002
      -2.8213391625994434e-002 4.0431403188414615e-002
      6.7036296579447811e-003 3.1796998634008771e-003
      -2.8822500111195331e-003 6.4732258895347904e-003
      2.9824757382854568e-004 -7.7993853959402466e-003
      1.4675138956148283e-002 8.7098062636205651e-003
      -1.6808558994482831e-002 1.2851160670158590e-002
      1.4049194588958635e-002 -1.9292554244659484e-002
      -2.5557125273202044e-002 -2.3868975717653645e-002
      1.7135534090385377e-002 -2.1812324768470056e-002
      -2.8139710860349210e-002 4.3920047050981875e-002
      -1.6745648688856710e-002 -9.0319985191517384e-003
      1.6877928106693380e-002 -2.3350428915950402e-002
      -1.4580344154513251e-002 2.7150705398160002e-002
      -4.9420538267821925e-004 4.9322536488040553e-004
      -1.5055288064917056e-003 8.4546778557597867e-003
      -4.0196145144749595e-003 -6.6405201638794070e-003
      3.2883144954072789e-002 2.8765176200705830e-002
      -9.6515961042011964e-003 3.2775953503603308e-002
      3.2048087086539535e-002 -4.6042636882342898e-002
      1.1637152170006028e-002 8.1645414247477326e-003
      -3.1505656880845270e-003 1.5592305524668800e-003
      3.7423060922147765e-003 -1.5010002355120389e-002
      1.4906147794605111e-002 1.4620727959945722e-002
      -8.6246877701127867e-003 1.4460499858770166e-002
      1.6514675575327317e-002 -3.2967672579228398e-002
      1.6055929362631352e-002 8.9110921719128492e-003
      -7.2107478096799706e-003 8.1628155404018330e-003
      6.3965271198348217e-003 -1.5215118865981203e-002
      -7.6363701613243280e-003 -6.5313333500175100e-003
      1.3033592697530481e-002 -1.5431327677422148e-002
      -1.0184209560177682e-002 2.2759635722699807e-002
      -9.0031070857612017e-003 -1.1061213441200807e-002
      8.7686200821843752e-003 -2.7406874374575727e-003
      -8.9068228980095400e-003 1.0757063326371545e-002
      1.9343173554569010e-002 7.3253549096530595e-003
      -4.3275173813185908e-003 1.0541531872579417e-002
      1.6333136588443140e-002 -1.7270157579728020e-002
      3.1723742233271929e-002 2.3489061745317695e-002
      -1.0927947199314456e-002 1.7448136387717309e-002
      3.3275760366858885e-002 -3.2258029306545651e-002
      -1.4131259261744031e-002 -3.9360324360248212e-003
      7.1361528243731277e-003 -1.1074034194724051e-002
      -6.5335748396286196e-003 1.6372720465922839e-002
      -1.1831277324277744e-003 8.0942870468288745e-003
      4.4090733876787627e-003 1.7825637706434059e-003
      5.2879674972525215e-003 3.8605673589664664e-003
      3.0926200214614614e-004 -5.8080594035450723e-003
      -8.4305334691195458e-003 -3.7736713053324470e-003
      -8.1763366839209201e-004 4.9436179726686791e-003
      -1.5520864047674094e-002 -1.6744641958618668e-002
      1.5329615559491179e-002 -2.0589740040664783e-002
      -1.1441300652126339e-002 2.4488440994127128e-002
      -1.2066198871141687e-003 -4.8674261435869819e-003
      -2.6169905487828933e-003 -3.2367744554187153e-003
      -7.9407719318392060e-004 1.2679879883971115e-002
      -3.2650894575313318e-002 -2.3195370849748893e-002
      2.5474141182848090e-002 -3.5807376944834768e-002
      -3.5890822304729085e-002 6.1568492505959534e-002
      6.1670007769736501e-003 2.2804043722082822e-003
      2.4684297517642345e-003 4.7350801697844010e-003
      1.2102703897365326e-002 -1.0132766394403850e-002
      9.4215837731371488e-003 3.7285205875814062e-003
      -1.0766790921513484e-002 9.6018318511936415e-003
      3.1766379395165851e-003 -9.7327287377577069e-003
      3.7563461628381534e-002 2.8070872829301152e-002
      -1.2267588716418970e-002 3.5241769030141742e-002
      2.7294645964934538e-002 -5.8786566343303953e-002
      3.1900076390905079e-002 2.9682179930776424e-002
      -2.5500694880314475e-002 3.1108960401467253e-002
      2.8386692474493304e-002 -5.2253413237161817e-002
      2.6921043141105806e-002 1.8985881342162472e-002
      -8.8741193903578500e-003 2.7029163581606747e-002
      3.4722118633565953e-002 -4.4348549181176262e-002
      6.4794756966207817e-002 3.8426011542908346e-002
      -3.1009185126974835e-002 5.2944583720857391e-002
      5.8993287178944254e-002 -9.3428042797698965e-002
      2.8419453455294291e-004 8.3030420038602280e-004
      8.2742778864445584e-003 -1.7128868316782532e-003
      -2.2029479205004643e-004 7.5706341393272040e-003
      -2.4649246532978352e-002 -2.8253896711672406e-002
      2.0967323193378837e-002 -2.1204782882959343e-002
      -3.5462093223627193e-002 4.3825746234817976e-002
      9.2700955160906172e-003 5.9620980068161387e-003
      -5.7362842754141415e-003 2.2011560436286789e-003
      -1.9777890269626615e-003 -4.7596899322460556e-003
      -1.3052574619423940e-002 -1.2133711539997535e-002
      -1.4703772958758979e-003 -1.0432041621113516e-002
      -2.9326342285465766e-003 1.0878930034506403e-002
      -2.0742314485034826e-002 -1.2892936202686093e-002
      2.0847517840827400e-002 -2.3264392573156819e-002
      -2.8848806313709046e-002 3.3788831915960597e-002
      2.2599353472012165e-002 1.5654421995878059e-002
      -6.5177698405860154e-003 1.2680335033430582e-002
      1.9503062261998327e-002 -3.1415711658849925e-002
      -5.6542864007504932e-003 1.8624983371291226e-003
      -3.6591879118063448e-003 5.3628832214405118e-005
      -2.1101255206587332e-003 7.8495809026838412e-004
      5.1435775065576655e-003 5.0866776724651092e-003
      -4.4542734973566899e-005 5.5468917766026303e-003
      -4.0187036963443210e-003 -1.0459091854188588e-002
      5.6496614044952700e-003 7.6977673719930235e-003
      1.5003268680592982e-003 -6.8826727415979777e-003
      9.7928445050589731e-004 -6.5066025016789330e-003
      -3.0231275149225318e-002 -1.4276413532525525e-002
      9.1519532971768014e-003 -1.8024805438612745e-002
      -3.0913139901858747e-002 3.9013626560389897e-002
      -4.5826151850689270e-004 -4.9895706066117726e-003
      1.5818457710588107e-003 3.1423263086030381e-003
      1.9998253952033377e-003 -1.4444378846357392e-003
      2.0055629024924578e-002 8.8659663532942683e-003
      -5.3017767131481293e-003 1.7761063930691677e-002
      2.3217201577812797e-002 -2.6400160943966883e-002
      4.6316627877377265e-003 4.5896202805752982e-003
      2.4451130108410716e-003 -3.8995060116913289e-004
      1.0023757090928623e-002 -3.7763887685169583e-003
      3.0160947648298821e-002 1.7930069786226754e-002
      -9.6406835879405579e-003 2.0247889167729065e-002
      2.4852714890157938e-002 -4.0364659803439902e-002
      3.8055667354021334e-002 2.7023217208854922e-002
      -2.4830108175687645e-002 3.5517023640706351e-002
      2.8302023483658085e-002 -4.9628657208235220e-002
      2.7165507344784554e-002 1.4806404152106795e-002
      -1.6652169187580283e-002 1.7665725732067105e-002
      2.1563408950203769e-002 -4.1985113589267348e-002
      -2.6121360348003133e-002 -2.1931928617267477e-002
      1.1495552776789139e-002 -2.1238953823461998e-002
      -2.8337851156243321e-002 4.4598834174755880e-002
      1.9814435734200496e-003 7.0571851248914924e-004
      7.1111015828792899e-003 -2.6886111562664746e-003
      -9.1962039334455830e-003 1.3340551023115424e-002
      7.9019148405269756e-003 3.4293543891939933e-003
      -3.8301264151281047e-003 7.0481923586977772e-003
      3.4684527971424023e-003 -7.8437667607199346e-004
      -1.8584506140343054e-003 6.2862484293499570e-003
      -6.1878994987756616e-003 -2.6914719490183127e-003
      -7.9353307046784053e-006 4.8355896627862794e-003
      -5.6269971273321541e-002 -4.1106342801913234e-002
      2.8692441895242549e-002 -4.8240027999383775e-002
      -6.3617092059027033e-002 8.1917974872913649e-002
      -2.2413623799449379e-002 -2.0093580711130300e-002
      7.3792873349747407e-003 -2.1195022319615835e-002
      -1.8536019670024238e-002 3.5643242023569603e-002
      3.4030619480006235e-003 -4.6899816800682753e-003
      -2.8122458589253417e-005 5.5089337126124531e-003
      4.7219610405527229e-003 -1.4640167764030359e-003
      -3.6603557854149316e-002 -2.1980706102552247e-002
      2.2477437324941268e-002 -2.8391113264547074e-002
      -4.4658766019287928e-002 5.7996253626954569e-002
      -5.6626004876909053e-003 -8.6024899620106791e-003
      -5.7742437678320203e-003 -7.0976648795802160e-003
      5.2583877643442561e-003 8.7314001808262934e-003
      4.7056845204618947e-004 -1.2326977477350482e-003
      6.2764517086163806e-003 -7.4521468689042634e-003
      -1.1700712733672436e-002 1.1024340594234508e-002
      -2.9511725783611602e-002 -2.0847793454077952e-002
      1.7808293116561635e-002 -2.6892006042002092e-002
      -1.8973644978094149e-002 3.2267506760342922e-002
      -6.7653399077798318e-003 -1.2825058563071198e-002
      1.1449923329948325e-002 -1.2904897208468352e-002
      -1.3794727315239478e-002 1.7721628999584630e-002
      1.8850828961173984e-002 6.8439913722723681e-003
      -3.2122528464474443e-003 1.5481939859830781e-002
      1.1504355239694709e-002 -2.1673943914049448e-002
      1.8396203979026412e-002 2.3285933736026443e-002
      -1.2261583250931858e-002 2.0061940417135698e-002
      2.5002489687180274e-002 -3.3548453105511675e-002
      -1.6725134103621933e-002 -1.4275637484624190e-002
      9.8017990964236381e-003 -2.5942909866891264e-002
      -1.5536550851866983e-002 3.4352754270785171e-002
      4.6323896231013802e-003 -1.8834001726569624e-003
      8.4450300213241101e-003 2.1241422971458837e-003
      -6.0075772952706552e-003 -8.0319940300911837e-003
      1.5375046914244383e-002 1.0232403001011702e-002
      -4.4996909664066801e-003 1.7270551267168012e-002
      1.8661736989023864e-002 -1.7566662528728558e-002
      -1.9465484534850339e-002 -1.0493354371237549e-002
      1.4110445346079669e-002 -1.5086129153121734e-002
      -2.1680678024260523e-002 3.5384198583773188e-002
      2.7790097782947693e-002 1.9264436550514970e-002
      -1.4970578848512408e-002 3.2845358769999826e-002
      3.2205234203775808e-002 -4.2025770805804011e-002
      2.4315096221050502e-002 1.0989982272801313e-002
      -5.0332249482801933e-003 1.1295930338073910e-002
      2.3885672648060061e-002 -2.6456389201306160e-002
      -8.8447605329386499e-003 -4.1857740578121931e-003
      1.1082200893916887e-002 -1.6615164699691170e-003
      -6.6994142333061477e-003 2.0342979033485427e-002
      -2.3263847101396042e-003 3.5312118321185878e-003
      -9.4155119567503054e-003 -2.2825765010762939e-003
      1.2530430234011599e-002 -6.5588204338877668e-003
      1.8844083133160749e-003 6.6567306483301661e-003
      -6.5466016239822756e-003 1.0705790117342975e-002
      1.0271713762923452e-002 -5.2892935482112113e-003
      3.6379201305139490e-002 2.0085975779773557e-002
      -1.8290594982707166e-002 2.4736276163207695e-002
      3.0978646042891092e-002 -5.7994237737843193e-002
      2.5480005949918375e-004 -4.6338119147343254e-003
      3.0496374609501014e-003 -4.4718771087791393e-003
      7.5295717063800270e-003 -8.6912505803373938e-003
      -2.1733583867483489e-002 -5.6988450976108414e-003
      5.4572011060998364e-003 -8.1784974806266859e-003
      -1.6661080542127785e-002 2.5274933556554031e-002
      -1.1183860323765988e-002 -7.8100145854060271e-003
      4.5783657871968095e-003 -1.3846575726896499e-002
      -1.5568696812003117e-002 3.1228949799312906e-002
      2.0566502529105676e-002 1.9287253990613294e-002
      -5.9754367079362936e-003 2.1280724475439900e-002
      2.1513372158005223e-002 -1.6577336341383211e-002
      5.7115603143919370e-003 -5.2590349168535515e-003
      -4.5914214534881533e-003 -1.0534843737605942e-003
      -1.6707563031837895e-003 4.6941202816265628e-003
      -4.5938002275538181e-003 -8.0226643344895700e-004
      4.2725611683406186e-003 -1.0176383124976932e-002
      -1.0739054027386655e-002 -1.0793109221311065e-003
      5.0061433237027012e-003 2.6628155731365528e-003
      -2.0126176788127440e-004 8.7968142327693802e-003
      6.2306941750775715e-003 -1.1093816003540735e-002
      3.5934512422667368e-002 2.2027955822186807e-002
      -1.7451057678884985e-002 3.6756538236043350e-002
      3.1509574827296348e-002 -5.8237619129004221e-002
      -3.2299343760466045e-002 -3.0968461329032831e-002
      2.2303503847140787e-002 -2.6216692576789144e-002
      -3.4481698190591450e-002 5.3115662423227301e-002
      -2.7560208681528370e-003 -3.9307612586470496e-003
      -2.0938752508690242e-003 -5.1762492765678348e-004
      -1.1883564898078075e-002 1.5201615795769651e-002
      6.8488247178181702e-003 8.5692007570316361e-003
      -1.0800244679876080e-002 9.1273167477752774e-003
      8.6912421670577653e-003 -2.3040838210107006e-002
      5.9682277791874259e-002 4.5251685592218795e-002
      -3.0499397710491587e-002 5.7831743220461383e-002
      6.2008246220737910e-002 -9.6021237070288812e-002
      -4.4406395155341810e-002 -2.4176198248410146e-002
      2.1380872088639809e-002 -3.2587873653826059e-002
      -4.2252913138836376e-002 6.6323726240008249e-002
      -2.4286651113584488e-002 -1.8042323900567075e-002
      1.9284890533316414e-002 -2.2953318429538624e-002
      -3.5971416398375457e-002 5.2858321189187478e-002
      7.8548445204546548e-003 1.8836828954732316e-003
      5.1495068964925346e-003 8.9522888100876837e-003
      7.4855503079402275e-004 -2.0486979574006344e-003
      2.1561166961963186e-002 2.2724558698516806e-002
      -1.2725370567213888e-002 1.3326702330734751e-002
      2.1455890736164832e-002 -3.8361277525868272e-002
      -5.7518923204199490e-002 -3.4948011408881700e-002
      3.0602760201810762e-002 -4.2637743349707866e-002
      -5.8075146530883318e-002 8.7357280703227777e-002
      -8.0716781242158597e-004 1.1274157474023525e-002
      2.5794970888377508e-004 1.2047321307050990e-002
      3.8245511871157433e-003 -5.7079917027625555e-003
      -1.0715736156321543e-002 -2.1214385537302385e-002
      1.1567368427323222e-002 -2.3240264598149058e-002
      -1.8992559603390167e-002 2.6404181885102025e-002
      -1.3144367286811058e-002 -7.5920868473116111e-003
      6.9041331584708916e-003 -1.1569123054538898e-002
      -2.4826711611850183e-002 2.7568413382270583e-002
      -2.5464211834064079e-002 -2.1486262490844329e-002
      2.1380021618581553e-002 -2.1634231342702152e-002
      -3.4145380398560986e-002 3.6505584165115020e-002
      -6.7515725417068269e-003 -1.1119214887178781e-002
      1.0832908760552843e-002 -1.1914126973875254e-002
      -7.7319098405369624e-003 1.4522045562515278e-002
      -5.9059908474206803e-005 1.5567327918378884e-003
      -1.0609361089317418e-003 3.0604804724562126e-003
      -2.9788026570892528e-004 1.0636278913872359e-002
      -7.5218351009965164e-005 2.4235062811462042e-003
      -4.4440825756620461e-003 -7.7112705556574572e-004
      -2.1378747572682248e-003 9.4242940944437078e-003
      1.0399791849047329e-002 5.3584641809875247e-003
      -8.5969487471154425e-003 8.2069233957370053e-003
      1.4401071885709917e-003 -2.9885034790537806e-003
      -4.0454878245388057e-002 -3.5557947454387277e-002
      1.5226844646563046e-002 -3.2782655283227408e-002
      -4.7387217261405629e-002 5.7349211255871051e-002
      1.8934015354050683e-002 3.6067329127186906e-003
      -5.0434364797766985e-003 6.1252211907609766e-003
      1.0341436569879748e-002 -2.2344998205248091e-002
      -2.7713432255302962e-002 -2.3476555068148004e-002
      1.5428742188674840e-002 -2.4026480658831648e-002
      -2.7181822826625117e-002 5.0747291311589664e-002
      2.9092306754256651e-003 8.1528002746718391e-003
      -3.3278942385548127e-003 2.1220947572327291e-004
      3.5948956781191835e-003 -8.0180538811925033e-003
      -7.9133610772370733e-003 -8.4575744823306674e-003
      9.6652427535133284e-004 -6.3282999893113532e-003
      -6.8299915869483377e-003 8.6575430621213933e-003
      -3.5302638158606882e-002 -2.3113890528969543e-002
      2.2035469249404450e-002 -2.6003126757858382e-002
      -3.4790139788576133e-002 5.5362440479765761e-002
      -7.8108776798145778e-003 -4.5679977358684259e-003
      4.6705266141368832e-003 -1.1711637457501633e-003
      -4.9496731676135558e-003 4.2707268756895166e-004
      1.9550785089655000e-002 1.3625334491540606e-002
      -1.0632218249920699e-002 1.6821558481979245e-002
      1.8546278137542085e-002 -2.5523197794192525e-002
      1.5845364724419716e-002 1.6018221337898857e-002
      -1.1418381885595057e-002 1.3713576695526586e-002
      1.9369585673990396e-002 -2.3882334727004080e-002
      -1.4653802515355890e-002 -7.2106051693209619e-003
      7.7227397914134514e-003 -3.9788903294353944e-003
      -7.7943252655752011e-003 7.9661373526509968e-003
      1.4106520856946575e-002 3.6972601018360161e-003
      -5.5865876586173504e-003 1.3402711268891480e-002
      1.8480494766129448e-002 -1.5101131632021585e-002
      1.0182207222279719e-002 -1.9039308838634918e-003
      -5.4474604141824924e-003 5.0711088376586347e-003
      1.1131058095672953e-002 -1.1710191109419330e-002
      1.8805311676936658e-002 7.2532511874973159e-003
      -1.5137660212876318e-002 2.1363093949319099e-002
      2.3946667334594680e-002 -2.6635549560436386e-002
      -7.0115639555279764e-003 2.3126687167303876e-003
      7.0686563663606460e-004 -6.2400723649163074e-003
      3.3656900878241002e-003 -1.4778192102202277e-004
      -1.8477923286314875e-002 -1.5129913429443614e-002
      7.5991087604989375e-003 -1.7870313440672074e-002
      -2.2903031107394237e-002 3.2781178380662836e-002
      3.0412085397011485e-003 2.5213470410757190e-003
      3.2048022580643959e-003 1.0567959013394062e-002
      5.4950046195779475e-003 -9.6754325537786404e-003
      -3.4833752594785682e-002 -2.9221549082735755e-002
      1.2897626788735010e-002 -2.3564039214935276e-002
      -2.7228477270031939e-002 4.2707923624835449e-002
      2.9557978523231623e-002 2.5420923798843573e-002
      -1.7395359872961355e-002 1.7376261629885197e-002
      2.8132791093824175e-002 -4.5845356728483271e-002
      1.3622160893276218e-002 4.3160887700924508e-003
      -2.4115535190173511e-003 6.7561078467456466e-003
      5.4116322889128429e-003 -1.1159736645207507e-002
      -1.3926533286331266e-002 -1.9902968900489225e-002
      1.4072390901391136e-002 -2.2827102773790242e-002
      -1.5885162652102422e-002 3.5887451398160165e-002
      2.3248649323490137e-002 2.0689969833895740e-002
      -1.0367095948881657e-002 1.2255061837082698e-002
      1.9165553707309605e-002 -3.0784649675344108e-002
      -2.2295938710717852e-003 3.9333211378108912e-003
      -2.0236718092906861e-004 -8.6982438633899557e-004
      8.9740069249728792e-003 1.1465476309082043e-003
      1.5219864359888752e-002 3.3620710021479306e-003
      7.3500057534461275e-004 1.2605125985470715e-002
      6.7403225132805274e-003 -2.3495209472690466e-002
      7.4848595413606212e-003 -2.9164974756148727e-003
      -7.2501245638870561e-003 -2.7429666391162082e-003
      3.4856774625337179e-003 -1.4095201644436344e-002
      4.1932005424566925e-002 2.9294248613599833e-002
      -1.2910246113003607e-002 2.8875223608323376e-002
      3.3190659016264668e-002 -5.7439710689517955e-002
      -3.3738370294163558e-002 -3.0244473048447455e-002
      2.0397604972306398e-002 -3.3803992826482859e-002
      -3.9701295980759298e-002 5.3029113181084685e-002
      -4.0597008904181858e-002 -3.3905251535391777e-002
      2.2250004451198489e-002 -3.6765311782659585e-002
      -4.2797916921579554e-002 4.6562361364376664e-002
      -6.4219528769157486e-002 -4.9781521418919179e-002
      3.7313269120963860e-002 -5.6668913968864990e-002
      -7.0662933416904966e-002 1.1273145627692593e-001
      -8.7612353070336323e-004 -5.3850848088592262e-003
      -1.4355723167905651e-003 3.8596430655543014e-003
      -4.5513775397747994e-004 -3.3711181015532739e-004
      -2.2002014352362039e-002 -1.6536060741097435e-002
      1.1741883989550724e-002 -1.5131516421500790e-002
      -1.4508553974609290e-002 2.6200209595074159e-002
      -2.6563800706613612e-003 -1.2949853987905513e-002
      1.1626180630889158e-002 -1.0299497221674619e-002
      -1.2371885594795289e-002 1.8279913594579915e-002
      -5.4825193495012650e-002 -4.6217043630095558e-002
      3.1127179437618342e-002 -4.7246683285882898e-002
      -5.8569237112928954e-002 8.7882105989169637e-002
      5.3561271789584163e-003 8.7527591008911311e-003
      1.2155531955195520e-003 1.4089493831666740e-003
      8.1785566700578929e-003 -1.7084427574776153e-002
      2.1062314066370882e-003 -1.0487845544921100e-002
      7.3991369969014405e-003 3.1736068663156566e-003
      -6.9943872802777840e-003 4.1106641282279283e-003
      -1.6741895584388558e-002 -1.4452489771682966e-002
      -1.1687381047644368e-003 -1.0860653135552178e-002
      -1.6574487273524573e-002 2.7928589055065702e-002
      -6.1056711600987745e-002 -5.0983371515582174e-002
      3.2035544589307671e-002 -5.6958899118446746e-002
      -6.9986923375585597e-002 1.0156499236445510e-001
      7.4596691283644444e-003 -7.0916667511626932e-004
      -9.4631197599702563e-004 1.3857782475742736e-002
      1.2740576287369920e-002 -7.8952392174650356e-003
      -1.8629424875483198e-002 -1.7384115075083213e-002
      1.7858229350573015e-002 -1.9986658307103337e-002
      -2.8408447638398629e-002 3.3641246141444543e-002
      1.5945631205761212e-002 9.5631365623053480e-003
      -6.1133845676279762e-003 1.3538334501560122e-002
      1.2101778619505815e-002 -1.2018927624594189e-002
      -7.4729251626123377e-003 -2.6191151047364552e-003
      7.5439207783995514e-003 3.6543188703395332e-003
      2.8431329139662611e-003 5.7677640330142787e-003
      -2.1219691743830895e-002 -4.3831863014651487e-003
      5.0113998078955991e-003 -1.7637488720288173e-002
      -1.1530992353668475e-002 2.6360114616659033e-002
      5.1746410455498189e-003 4.6079688378541754e-004
      -1.0286701656632197e-002 5.9391944705982566e-003
      1.1736887343901985e-002 -2.2219310156985461e-003
      -2.9824275807081749e-002 -2.5841135426992002e-002
      1.3084613008861530e-002 -1.6117658818146165e-002
      -2.9210599798959607e-002 4.9207977008150230e-002
      -2.3358579147055556e-002 -2.2902754160351074e-002
      8.0739042402594337e-003 -2.0735857241038057e-002
      -1.7185438655384362e-002 3.2338848337410762e-002
      2.5196399858997725e-002 1.7289644273870152e-002
      -1.9641507934967724e-002 2.5005229042550672e-002
      2.0049666461665741e-002 -4.1307125218956339e-002
      -6.3412021117481851e-003 -1.1196671828265699e-002
      1.2422319717422118e-003 -5.1839283744267465e-003
      -6.6857467917550795e-004 6.7931276279761020e-003
      1.9317534225830595e-002 9.3728303574200211e-003
      -1.5717043136043645e-002 1.7691310711662474e-002
      1.8817314595302167e-002 -2.8636544242597518e-002
      -1.4134590846906997e-002 -1.3966896045268889e-002
      9.8507540722567854e-003 -2.2521398000414788e-002
      -2.5647253935269218e-002 3.4834546880729643e-002
      -2.5345417811535657e-002 -1.9083732520941293e-002
      1.8348300083912313e-002 -3.3560617538904859e-002
      -3.8050450370219639e-002 4.6028127445593828e-002
      1.0921344507106726e-002 3.9267298862833552e-003
      -1.2487149955610120e-002 4.0820822680437512e-003
      1.9099293864399361e-002 -2.0006906040900295e-002
      -7.2454451908503196e-003 5.3428191855235587e-003
      5.6920905877066849e-003 -4.5119515774017837e-003
      -2.6183499284234885e-003 -4.7398095130375172e-003
      -3.1105743024969188e-002 -1.7840191168146228e-002
      1.5356998793248124e-002 -2.8297844962182687e-002
      -2.6907343611542695e-002 4.9529362192786135e-002
      -5.1737700188422085e-003 -6.6497595759600989e-003
      -1.3860680441536545e-003 -3.0031655510796623e-003
      -1.6400445386797132e-002 1.5882660650332562e-002
      6.8724477401259287e-003 1.3280343891975230e-002
      -1.3150722659914849e-003 8.8996638400755165e-003
      1.1057930640913016e-002 -2.5494438658779230e-002
      1.8006240243945662e-002 1.7297404504457579e-002
      -6.1656910045686684e-003 2.0190197957983689e-002
      1.8627817711585139e-002 -2.7742619986760732e-002
      -2.4296283879099365e-001 -1.7627310883001851e-001
      1.3972030222705464e-001 -2.1826856730413582e-001
      -2.5840299895525592e-001 3.7620711997070644e-001</_>
    <_>
      5.8281014878355875e-001 4.5109120728437668e-001
      -3.3682672701057476e-001 5.3737761907149861e-001
      6.4111172595000598e-001 -9.5931447798975855e-001
      -4.6140872246862646e-001</_></weights></opencv_ml_ann_mlp>
</opencv_storage>
