<?xml version="1.0"?>
<opencv_storage>
<opencv_ml_ann_mlp>
  <format>3</format>
  <layer_sizes>
    256 6 1</layer_sizes>
  <activation_function>SIGMOID_SYM</activation_function>
  <f_param1>6.6666666666666663e-001</f_param1>
  <f_param2>1.7159000000000000e+000</f_param2>
  <min_val>-9.4999999999999996e-001</min_val>
  <max_val>9.4999999999999996e-001</max_val>
  <min_val1>-9.7999999999999998e-001</min_val1>
  <max_val1>9.7999999999999998e-001</max_val1>
  <training_params>
    <train_method>BACKPROP</train_method>
    <dw_scale>1.0000000000000000e-003</dw_scale>
    <moment_scale>0.</moment_scale>
    <term_criteria>
      <epsilon>1.0000000000000000e-004</epsilon>
      <iterations>300</iterations></term_criteria></training_params>
  <input_scale>
    3.4857267679039360e+001 -1.9326409481765807e+000
    6.4388392610693893e+002 -6.4765104110423506e+000
    3.9919069833172421e+002 -2.7297764271678053e+000
    5.7651159031606210e+002 -6.9738581907813062e+000
    7.7016698097815993e+002 -4.6754971079914807e+000
    2.8801691725734927e+003 -2.3811594896578447e+000
    6.3153605867157307e+002 -6.6855278841936983e+000
    3.1401306674754926e+002 -6.2786834515772023e+000
    3.9540278399304071e+002 -2.7651371540911041e+000
    3.2435964281367505e+003 -2.9319308413494043e+000
    4.0733677810613840e+003 -2.9290078796973718e+000
    4.1805656757698343e+003 -3.2611824091711190e+000
    6.6262730120260164e+002 -7.0059432934126686e+000
    3.2600488303331990e+003 -3.6332844719699033e+000
    2.2654280068386069e+002 -5.8659734867999953e+000
    1.4388357738772891e+002 -5.5102206195241061e+000
    5.9694932598604930e+002 -6.1758304058346782e+000
    4.3673872483482673e+003 -2.7433009331016591e+000
    3.9534888937326104e+003 -3.5475965992237044e+000
    6.1669539807485744e+003 -3.0767995875391225e+000
    3.6396372500846319e+003 -3.0003351126994162e+000
    2.8328473064310005e+004 -9.6596295696739820e-001
    3.0323203995268832e+003 -3.3976239271478823e+000
    6.0850182342452790e+003 -2.8284294672132901e+000
    6.7449472144704760e+002 -8.3620850875397910e+000
    6.0549251015317668e+003 -2.8542857101956005e+000
    4.6019241843905247e+003 -3.2567667126826358e+000
    6.7198936063517040e+003 -3.0511715299595874e+000
    2.8089202466104450e+002 -5.8005962025298876e+000
    5.3495742083282039e+003 -2.4993823615898956e+000
    1.1814153742290574e+002 -4.5825589966548756e+000
    5.2267026663439867e+002 -5.8491718933098813e+000
    4.9676931125788735e+002 -3.8324122943042283e+000
    4.6534536211203067e+003 -4.3956182182763630e+000
    4.1881165945507300e+003 -2.9538947559362492e+000
    4.6264634747413611e+003 -4.0297022492391799e+000
    5.4131476628807677e+003 -3.4714195898920428e+000
    1.3941789380761455e+004 -1.1092581005641668e+000
    4.2881510503096924e+003 -3.1911917553140929e+000
    3.7275264089020225e+003 -3.5566723840663235e+000
    2.9661227098204049e+003 -2.9526018095995119e+000
    1.2021999137251316e+004 -1.4671324073770011e+000
    1.5024924917169892e+004 -1.1055537760420318e+000
    1.4889611022154246e+004 -1.3004649706760925e+000
    4.3535609303454221e+003 -4.1514077474644795e+000
    1.4075583256163745e+004 -1.7009056344522473e+000
    3.1749796397103619e+003 -3.5593686637543440e+000
    2.8269997147146955e+003 -4.0841843945207321e+000
    7.3170806626214414e+002 -1.0198967398959789e+001
    6.5572382519974417e+003 -3.4598080054717464e+000
    5.3580868140356188e+003 -4.1829502986264755e+000
    5.9495413471165048e+003 -2.9861244144408841e+000
    4.6231712373897190e+003 -3.9272700782806202e+000
    3.7758046233942405e+004 -1.1745602737768264e+000
    5.4967281411205422e+003 -4.0116823506215082e+000
    9.6248303563459922e+003 -4.1340904865088701e+000
    1.8960709907398126e+002 -5.2598439875141647e+000
    6.7498478918307992e+003 -3.0970755556372880e+000
    4.2615091880978098e+003 -3.6073004224820560e+000
    5.9628502846286792e+003 -2.8465528204591730e+000
    1.6469596769947145e+002 -5.0058462678168851e+000
    6.0826812364463030e+003 -2.1250558833316484e+000
    5.3090805374803574e+002 -7.9031812882418579e+000
    1.1926538460967217e+003 -5.6086023796364453e+000
    8.7294041862671588e+002 -6.0707172542172803e+000
    3.2197065060139917e+003 -2.7909182498293879e+000
    5.3059012752973731e+003 -3.0757100550981993e+000
    4.2755646937937217e+003 -3.5501393084931694e+000
    5.9316849550540692e+003 -1.9516557548267592e+000
    2.6477007741330806e+004 -1.2354522239617041e+000
    6.3293515351949081e+003 -2.5822961178088120e+000
    5.4895505268728266e+003 -2.3184831195382842e+000
    5.5189117275038607e+003 -3.3213441529280257e+000
    2.0388641778361114e+004 -1.3294660269038325e+000
    2.2254662307780283e+004 -1.1449378436060953e+000
    1.8575848626901105e+004 -1.0890233445156148e+000
    7.6893687959251838e+003 -3.4315629393203833e+000
    1.6714528284343975e+004 -9.4990501424762519e-001
    5.7207019009773057e+003 -2.6180214545942557e+000
    4.5051087120698376e+003 -2.0105114612451289e+000
    3.6815538447669028e+003 -3.1119725830904166e+000
    2.3039847983383752e+004 -6.4779846954346620e-001
    2.4614606666776584e+004 -1.2221751329115529e+000
    3.3662085090876397e+004 -9.6659534932828306e-001
    2.8634378184687961e+004 -1.1476910889611156e+000
    7.7770799177753754e+004 -5.1176631571915898e-001
    2.5923599725917917e+004 -1.1320891226514729e+000
    4.3748293967463680e+004 -9.4216306066238453e-001
    3.9912180203080657e+003 -3.2806101779188355e+000
    3.2158432906924976e+004 -1.0388457980633894e+000
    2.2195730271306726e+004 -1.0091261982834752e+000
    4.3451691944422942e+004 -1.3256818745205925e+000
    5.1138292376750824e+003 -2.0863782512561784e+000
    3.8801504346398484e+004 -6.9635751816394464e-001
    6.4689508759104801e+003 -2.5308945576827178e+000
    9.3730950754402857e+003 -1.7270153163147217e+000
    8.2453386863088065e+002 -9.8522627299258740e+000
    2.7194441778824967e+003 -3.2162459837107638e+000
    4.5841700055014262e+003 -3.4032585723510018e+000
    5.2635420190700679e+003 -4.2665794297300659e+000
    6.1524845128850793e+003 -2.7420113764374858e+000
    2.5069912629517898e+004 -1.0648136739091727e+000
    5.5496052732007611e+003 -2.9314686099591785e+000
    5.9434460822264718e+003 -3.0328421610140874e+000
    4.7377683007245678e+003 -4.9485789406699343e+000
    1.6043629800200708e+004 -1.4972340009656975e+000
    2.2125626017427934e+004 -1.4559642217432731e+000
    2.2434315380482145e+004 -1.6239050844624330e+000
    5.0868131831392957e+003 -3.4386397610591164e+000
    1.6941320826149291e+004 -1.5708742312648492e+000
    4.7509532897541494e+003 -3.7288682688322496e+000
    3.6160402762897479e+003 -2.7299523276604942e+000
    3.0161172399228531e+002 -7.5513896295480549e+000
    5.9647480124016984e+003 -2.9009824209869794e+000
    3.1032644739134712e+003 -2.8737712208464030e+000
    6.1880451447284722e+003 -2.4691175010242250e+000
    6.8357623789073014e+003 -2.9770133851986937e+000
    3.6391195413156238e+004 -8.7080068836821634e-001
    5.4752795230488964e+003 -2.6727534866715570e+000
    8.3694061620575503e+003 -2.2280098463119971e+000
    1.1542543507924104e+002 -4.6835954595249074e+000
    5.5398445000775891e+003 -2.2767574271774271e+000
    4.1969780434887271e+003 -4.3184469047246417e+000
    7.3909072118765944e+003 -2.9756048962476425e+000
    4.6279281991338979e+002 -5.5603133797184139e+000
    8.0221843902044257e+003 -1.9100210894000669e+000
    9.0611881319807412e+002 -5.5832209093251830e+000
    1.4486257702613354e+003 -3.0010355829417827e+000
    5.8737313092302099e+002 -4.4667372215237062e+000
    5.8170534892548358e+002 -7.8297521831376100e+000
    3.1017149027036894e+003 -2.8166708052902329e+000
    2.0062847404780720e+002 -5.1949622954762127e+000
    5.9588332624688146e+003 -3.5789645359662070e+000
    4.0962958887349496e+003 -3.3939351607303099e+000
    3.7061375120939279e+003 -3.4808365176995841e+000
    1.7737398688994375e+002 -4.9630379474210198e+000
    3.2599123744256403e+003 -2.2251229886644897e+000
    5.2306620036489558e+003 -4.2399271873927455e+000
    1.3548826791871594e+004 -1.0860978139363846e+000
    5.1308077146879896e+003 -4.4382982205883517e+000
    4.3708795214635256e+003 -3.3155114894323563e+000
    3.7823522923691685e+003 -2.8645613677688848e+000
    4.4492611010187402e+003 -4.9533237212358987e+000
    5.6332592780771381e+002 -8.2907266383469072e+000
    4.4106222465894234e+003 -4.0052910760676088e+000
    5.1047602109168893e+003 -2.6690040300986424e+000
    1.3000942912334480e+004 -1.6332647779789697e+000
    6.4781740007883454e+003 -3.0266771152877650e+000
    1.8459954379197668e+004 -1.2920488550757048e+000
    3.2158432906924976e+004 -1.0388457980633894e+000
    1.6988499058102447e+004 -1.9411130444336306e+000
    6.0586623418465151e+003 -2.1637821353142606e+000
    6.6209134770569899e+003 -5.2044606073812449e+000
    6.3079552115988608e+003 -3.2867691700221671e+000
    1.7356301254893984e+004 -1.3393970569130242e+000
    4.7983575761815464e+003 -2.5346369555078723e+000
    4.6957843292426123e+003 -4.1041271159710080e+000
    5.3573160382277219e+003 -2.2113567335738558e+000
    2.6659216533386184e+003 -3.9104819742042993e+000
    8.7075731855250899e+002 -4.1828772502090175e+000
    4.3962001874840544e+003 -3.4846228738662943e+000
    5.3415935090721050e+003 -4.3618018465407653e+000
    1.8343993141301653e+004 -1.3936703181470174e+000
    4.8771148887490863e+003 -4.4989359080775531e+000
    1.8271526014931627e+004 -1.1804865044111157e+000
    2.6836241212599929e+004 -1.3003766306125699e+000
    1.9374672376259259e+004 -1.4603849977837164e+000
    3.9233421814979879e+003 -3.7904533819827648e+000
    1.4359385438165958e+004 -1.3314657571915960e+000
    2.0895249567010160e+004 -1.5125000000000002e+000
    5.7745153518577739e+004 -4.4907754830475344e-001
    1.6827630962846059e+004 -1.4093324939977869e+000
    2.4315919164150033e+004 -1.7746510567585783e+000
    1.9540755332534063e+004 -1.3209374130080687e+000
    1.6431127842691978e+004 -1.4449311703179923e+000
    3.6897058961203375e+003 -3.1828740772669426e+000
    4.5665178385893096e+003 -3.8026542641985115e+000
    7.7603008692796902e+003 -3.8949597182636602e+000
    1.7973369216521343e+004 -1.9783802564993309e+000
    5.7026307560336318e+003 -2.9815983202244154e+000
    1.7346953324418460e+004 -1.3905623249542496e+000
    2.3616671386624515e+004 -8.1942485062899029e-001
    1.6520758661472653e+004 -1.2057361113562790e+000
    5.6029051433517143e+003 -2.5171880270937685e+000
    4.8246267840044038e+003 -4.5024693871855161e+000
    6.2918488385491837e+003 -3.4402256101856556e+000
    2.0042770930193739e+004 -1.5946737828896349e+000
    3.6540084473619931e+003 -2.4657048774250185e+000
    3.3957225054032378e+003 -3.3091443973390948e+000
    4.2529489936231093e+003 -1.8089319325719737e+000
    4.2735242278493542e+003 -3.4436278669610227e+000
    1.0038052530178586e+003 -3.7248919884885052e+000
    7.1917958951695539e+002 -8.3735492353504366e+000
    2.7040344193769272e+002 -6.6192728103488712e+000
    3.1290909573265758e+003 -2.9968980101997591e+000
    1.3381015270091905e+002 -5.2068144982644116e+000
    6.6418897689653204e+003 -3.0634337457000500e+000
    4.7273746719478668e+003 -2.3529126184216027e+000
    4.7039577100869665e+003 -3.2501831851252279e+000
    4.6031113261173186e+002 -5.2870710707992430e+000
    4.9158916921152304e+003 -3.5730659495658692e+000
    4.9102469566494401e+003 -4.5471233900821524e+000
    2.8279784733168417e+004 -1.7594295792074310e+000
    3.2399752806029460e+003 -3.2232677965515459e+000
    7.8624649806917951e+003 -4.3836622640619582e+000
    5.6716919900978392e+003 -2.8738129569874822e+000
    4.4503016207696646e+003 -3.5461419705733377e+000
    9.5982179884328639e+002 -5.8882835377152629e+000
    3.1541348472872396e+003 -3.8322393094140375e+000
    5.1204947970005660e+003 -2.4260489491987958e+000
    1.1120926933990500e+004 -1.3172512763418915e+000
    5.4293983468228407e+003 -2.0494792045067101e+000
    2.6208796423693049e+004 -1.4267599837151230e+000
    3.9444311824351891e+004 -8.2587606182026529e-001
    1.3171756763789557e+004 -1.1110286681060635e+000
    6.2755111822092804e+003 -1.4491016896953179e+000
    5.5297720588566744e+003 -4.3202895623492514e+000
    7.8344371804816838e+003 -3.2338460694118050e+000
    1.9694760210783377e+004 -1.2724387999909375e+000
    4.9059734654313934e+003 -2.0367940306701415e+000
    5.7596884609059316e+003 -2.8804989489809296e+000
    6.9317084149221682e+003 -1.8079616967566730e+000
    3.7195635963428304e+003 -2.9304897663728728e+000
    1.3511712447051343e+003 -2.7296307137146059e+000
    1.6904186379265937e+002 -4.3488623976857994e+000
    1.4231397007983682e+002 -5.4522387173030484e+000
    3.7465958014522830e+003 -4.1576047419746072e+000
    4.4758487144644255e+002 -7.5102643887213336e+000
    6.6400031364122879e+003 -3.4200612692592354e+000
    4.9368136259591556e+003 -2.1145706736182657e+000
    5.0828610893407795e+003 -3.9011921820942956e+000
    9.0659305656182903e+002 -5.4554382096998051e+000
    4.0257215798701095e+003 -5.1657510488088851e+000
    3.2805379105199186e+003 -4.6354019146851373e+000
    1.4143941011582450e+004 -1.4891743755293076e+000
    4.0910911313878009e+003 -3.4850706690100415e+000
    5.2876603510702989e+003 -4.3715358145756049e+000
    3.5755289955263761e+003 -2.8341225587167549e+000
    3.0157141785405297e+003 -4.8312909660141310e+000
    7.9672089726800277e+002 -5.5211201856778436e+000
    1.3598682999644959e+002 -5.3885642156622007e+000
    5.7166572102125951e+002 -6.2524762665947504e+000
    2.8915655551213272e+003 -3.9491296705474417e+000
    9.6920475657731640e+002 -4.6679672981773468e+000
    5.1573560987379014e+003 -2.3478709709550527e+000
    9.8436231927028221e+003 -1.9314847119031755e+000
    3.3052239199148794e+003 -2.7048888762536860e+000
    1.5477963367283521e+003 -2.8305556269551926e+000
    4.8900339205688567e+002 -8.2099282206721966e+000
    1.1587274192935743e+003 -5.5017405541928506e+000
    3.4269621891803004e+003 -3.0546258860555726e+000
    1.3378621485417721e+003 -5.1901963420023209e+000
    9.4206111795328286e+002 -5.7398765682339148e+000
    1.3844072299337411e+003 -2.6269964139921287e+000
    7.1056403457866679e+002 -4.9193941021786287e+000
    2.6922686200527465e+002 -3.4891487110699266e+000</input_scale>
  <output_scale>
    1.0526315789473684e+000 0.</output_scale>
  <inv_output_scale>
    9.4999999999999996e-001 0.</inv_output_scale>
  <weights>
    <_>
      5.0443234679058858e-003 9.8200136811171772e-003
      -8.2371981875976070e-003 1.8670328423132911e-002
      2.0287247296807358e-002 -2.3734263602342601e-002
      1.5271663745945420e-002 9.3998128370249203e-003
      -2.6844875990025179e-003 1.1010067151933773e-002
      1.1831472833070924e-002 -2.3095509039391650e-002
      1.5995556005696410e-002 1.8869932464153194e-002
      -1.2652809062463060e-002 2.2353949233942075e-002
      1.7236762282233243e-002 -3.1870746567156022e-002
      2.3749526149026139e-002 3.1015268662292757e-002
      -1.5910380461467786e-002 2.2450652351178473e-002
      4.2067435910000756e-002 -5.8466126538176968e-002
      -1.8842124109031176e-003 7.7808081394327476e-003
      -2.3766188221927449e-003 2.6939680440772780e-003
      7.2070788618671788e-003 -1.2252567125065500e-002
      -6.4761141115743529e-003 -2.1698115341184029e-003
      -1.5200879013995423e-003 3.9728570854852966e-003
      -5.0015071427193334e-003 -2.1401159078038795e-003
      2.8232595893354761e-002 1.7065177747282233e-002
      -1.6971548396708336e-002 2.1240212339751846e-002
      3.2930458333280468e-002 -3.8214364527036936e-002
      1.1270216718500899e-002 7.7425016552579405e-003
      -1.4087871737191325e-002 1.5933115875379301e-002
      1.5883759118370033e-002 -2.8274459331117316e-002
      1.5293200965767825e-002 9.4064143888394590e-003
      -4.1407200534133498e-003 2.5198438720467710e-002
      1.8297111806623221e-002 -3.6719630558142972e-002
      -4.9562261040862208e-003 -1.0965955652226024e-002
      5.6845102940294850e-003 -1.2531644880142226e-002
      -1.0028377202306159e-002 1.5749131852518375e-002
      2.0469664071000062e-002 4.0186678749721538e-003
      -7.2181230716139837e-004 1.0064907798522187e-002
      2.2418023545789940e-002 -3.3317518721449460e-002
      2.0769914706833576e-003 -4.7052210046451470e-003
      -4.9228165228749083e-003 -2.0266961875735111e-003
      -5.7789296691631445e-003 -4.2638232370600790e-003
      2.6718575145727154e-002 2.7037253497201076e-002
      -2.5086418872379029e-002 2.8122544963113665e-002
      3.5877047634459952e-002 -5.0130289198306983e-002
      -1.7735442528641013e-002 -1.0622677171664026e-002
      4.8732288527265953e-003 -8.8876573403979045e-003
      -8.2251914144147540e-003 2.3513171392203495e-002
      7.1054109775728206e-004 6.6809678623972728e-003
      6.1935473770114921e-004 8.4161264943341217e-003
      7.5969825613216363e-003 -7.0432171406014064e-003
      -1.2282757261324072e-002 -5.0148914009892727e-003
      2.1804455900721140e-003 -9.8718249870667421e-003
      -3.4894022783763874e-003 6.9711371275771690e-003
      -5.9222605545192807e-003 -7.3814889368336708e-003
      -5.2083986455405962e-003 -1.5892608925033272e-003
      -7.8648656518343768e-003 -4.0775137725484259e-003
      -6.9916310982130834e-003 -2.4329946759966666e-003
      4.6837956544237384e-003 -1.1718814595756267e-002
      -4.6648597036133199e-003 7.4287146415103894e-003
      5.0085112004911655e-004 9.5026953776004949e-004
      5.8134217885704277e-003 3.5756750474997502e-003
      1.0704769475568966e-002 -3.1550164456491826e-003
      -1.9640816611779285e-002 -9.3975772560368920e-003
      1.4219041243269072e-002 -1.5838351382651435e-002
      -1.4717710791476945e-002 2.2420957945430704e-002
      -8.5647898533215919e-003 -4.8433239143671368e-003
      1.1047753488049683e-002 -1.0789145992291024e-002
      -9.1729663431042146e-003 2.1487856721748851e-002
      -1.3176528912049559e-002 -8.4679495550726552e-003
      2.4155061535037509e-003 -4.1452604284494491e-003
      -1.2585553133112045e-002 1.7188865522578818e-002
      -1.0033296862851784e-002 -5.8218369251931299e-003
      1.0803293280519348e-002 -1.0182445732311762e-002
      -1.3425745907152883e-002 9.8155722239031303e-003
      -3.7175461100207752e-002 -2.9710860976844177e-002
      1.0873453254070631e-002 -2.5067485498011129e-002
      -3.3159003482154496e-002 4.9255036554672844e-002
      3.0983768922498749e-002 2.0032330543893400e-002
      -1.3535975279831578e-002 2.9680784544097998e-002
      3.6528364465149066e-002 -4.4223709627682656e-002
      -4.6752333251948747e-002 -3.7130909866080045e-002
      2.7009156475906952e-002 -3.7484876045784848e-002
      -5.0952972546018910e-002 7.0371906804794840e-002
      6.6824338219656585e-003 6.2543244277076162e-003
      -1.2485864593521122e-002 6.4495331544326909e-003
      1.9946353043689035e-002 -2.1769557763543342e-002
      -2.6402590161957486e-002 -2.0750961246624421e-002
      1.1612874398913786e-002 -1.8022355211062952e-002
      -1.8215935772521709e-002 3.5754820336744333e-002
      2.0618948357400057e-003 -1.8480282410609586e-003
      -7.0461061407219711e-005 1.3867531013059360e-003
      -3.0428622858406860e-005 7.2788474841232855e-003
      -3.9620842907762396e-002 -2.5849945432610332e-002
      1.3114047554211665e-002 -2.9651310164469299e-002
      -3.3801331634837561e-002 5.1706488027681574e-002
      -3.0985561212850725e-002 -2.4377974951843670e-002
      1.5110466756033759e-002 -2.8093753808906639e-002
      -2.3462673298464992e-002 3.5279022567147961e-002
      -2.6580019320389347e-002 -1.9622666369195668e-002
      1.6098229699204894e-002 -2.3171392332138954e-002
      -3.3217333511281734e-002 5.3474352307207852e-002
      2.3593868712323978e-002 2.0076876007314365e-002
      -1.4653779138670801e-002 2.2452180167100027e-002
      3.0453524199504596e-002 -3.7835471162350365e-002
      5.6834996479024963e-003 1.5720816565686498e-003
      -6.8174461859790208e-003 5.3395580211786564e-003
      4.5100467225834256e-003 9.0810576371837736e-004
      3.0342655499131562e-002 2.6841474212031282e-002
      -1.9462277857118460e-002 2.4354022312756938e-002
      3.3135497597463426e-002 -5.4094853267306175e-002
      1.8988764331880209e-002 2.1456113423872960e-002
      -1.6557264455673574e-002 2.9699288317024133e-002
      2.6087073385138517e-002 -3.6404155817809043e-002
      -1.0462065752650893e-002 -7.8441534364584314e-003
      1.1805913800906415e-002 -1.1235746912039369e-002
      -1.0529289637458252e-002 1.8693974609894692e-002
      -3.6806769588959820e-004 -7.4974416212416134e-003
      3.5266997904597939e-003 -8.1190550730240590e-003
      -1.3756886720908112e-002 6.6788590809705147e-003
      2.8917093901186940e-003 4.8623172447106256e-003
      -2.5470409610861659e-003 2.4964152693693759e-003
      6.8096017019586216e-003 -5.2695649791018179e-003
      5.1051813669300422e-003 -1.2806501315640925e-003
      -1.4276578334858614e-003 7.2027230273335446e-003
      -6.9112831219355058e-003 -4.3142720591586468e-003
      1.2092044803201515e-002 1.7051076290514746e-002
      -1.6008558319938027e-002 1.9796652441481780e-002
      1.5805919039332227e-002 -3.2641412836960274e-002
      7.6091896731723761e-003 3.5097824370892350e-003
      -6.5030592121815296e-003 7.5813443178891398e-003
      1.4530533540693362e-002 -1.4712260729295669e-002
      1.0352840437940566e-002 2.8403472401013108e-003
      -2.2303214054358884e-003 3.9832762443789364e-003
      7.0608529784640835e-003 -1.9687565637095557e-002
      1.7935606147883650e-002 9.0313544726768474e-003
      1.0647154021920810e-004 1.2795390258913552e-002
      1.2125894808421205e-002 -2.3874175216204527e-002
      -1.9962383580309710e-002 -1.0694392010805985e-002
      5.3280542208837744e-003 -1.7135929623196565e-002
      -9.4713850479402513e-003 2.0394839278778890e-002
      -4.2785620810904864e-003 -5.5568899725925158e-003
      -1.0242396641934731e-003 -4.8423195010140552e-003
      -1.4526718091107062e-002 1.7130717959197177e-002
      -2.6436671135221679e-002 -1.3727759242708436e-002
      1.3457001735475170e-002 -1.8486123766426315e-002
      -2.0740475420181665e-002 3.3815545539382735e-002
      -1.2407807761436839e-002 -9.2200004246913558e-003
      2.2024359869656719e-003 -1.3239631453865698e-002
      -1.4574687962087227e-002 2.1257698974581837e-002
      1.3071339340601805e-002 4.6440855197000062e-003
      -5.8079954321986890e-003 1.9642730178029712e-003
      1.2509101009438426e-002 -5.2395929051256658e-003
      -2.5116872683577946e-002 -1.8513469080467349e-002
      1.7598825744379026e-002 -3.4232017781165310e-002
      -3.4461767234166232e-002 4.4756049869068310e-002
      2.6735500795222220e-002 2.8328048011463221e-002
      -1.1542442833727478e-002 3.0917041671254291e-002
      2.9914559328001345e-002 -5.1334515765850533e-002
      1.3065899522701756e-002 6.5887658560459883e-003
      -1.9477268558303371e-004 2.6215818135976320e-003
      9.9886264509482549e-003 -1.6558008048623486e-002
      -2.4535051716959829e-003 4.1478201822204384e-003
      5.9664173312078649e-003 1.6373869400092816e-003
      -9.4113656910803228e-003 4.5294134018252019e-003
      -8.0317290127244773e-003 -1.9909910934941813e-003
      3.4551165980511158e-003 -4.7384923644320483e-003
      -1.1224024202719729e-002 2.5310529823600252e-002
      -6.3210034800906542e-003 6.0126296144135489e-003
      -6.8130345952196079e-003 -5.5467254057782953e-003
      3.9762369730859740e-003 4.1196158191797796e-003
      1.4908940356865271e-002 2.1894425831678957e-002
      -7.4270268700821580e-003 2.0298654740980814e-002
      2.3908394675073146e-002 -2.4680496492101859e-002
      2.9993662840966256e-002 2.7731658193742337e-002
      -2.4038187687294984e-002 2.7758187239820944e-002
      3.7641811410617683e-002 -5.0045709995776025e-002
      -1.5977472195182835e-002 -1.5096479908841344e-002
      1.1122382168736450e-002 -1.5009137829201684e-002
      -1.1396152628003323e-002 2.0236016099965570e-002
      -8.7762805792726019e-004 2.6556914106359709e-003
      3.2861699958819665e-003 -1.4161330152836487e-003
      -1.0744017609213136e-002 1.5924761040580292e-002
      -1.9436410209986335e-002 -1.2313048798651052e-002
      1.9175290889433996e-002 -1.8519789220326648e-002
      -2.1594139325468959e-002 3.6673731483507485e-002
      3.2271194900041919e-002 1.6480545880739095e-002
      -1.5601755931726760e-002 2.7668457289174143e-002
      3.1806937823968900e-002 -4.2304899844381891e-002
      -3.3693214461297048e-002 -1.7850702882651229e-002
      2.3554872402262020e-002 -3.1529032215026183e-002
      -3.2438753902323397e-002 4.5642077340458657e-002
      -7.5497281050645399e-003 -1.1578200178156257e-003
      6.4895998565613565e-004 -9.9664210967059762e-003
      1.1652172133961617e-003 1.8850467026946302e-002
      -2.1182591353691271e-002 -1.4774779080846456e-002
      8.6529238136281075e-003 -2.4859758322542932e-002
      -2.3370714305526199e-002 3.5128920969263580e-002
      1.3562991913770233e-002 1.5063443976421908e-002
      -1.0136827292895544e-002 1.3976444193822895e-002
      2.4601477672079462e-002 -2.3584291019768184e-002
      5.6910939263688457e-003 1.2454593128168356e-002
      -3.9740922262333241e-004 1.4074843843459105e-002
      1.5487356284723404e-002 -1.0660671841271931e-002
      1.4565478673401241e-002 8.0622012377140739e-003
      -1.1937587820288792e-003 4.2524534293024233e-003
      1.6293037586143290e-002 -1.1266784915817150e-002
      -9.6999736319544581e-003 -1.0618010911589686e-002
      -2.9455313308941714e-003 -7.9576907481209384e-003
      -1.9258175491588714e-004 2.5514470523013829e-003
      7.0728481446913323e-003 -3.5055783794359181e-003
      -8.4063326424288782e-003 1.5305726620264820e-003
      8.2044270319478094e-005 -6.2601773061564878e-003
      -1.2249751846606975e-002 -4.7492733010456537e-003
      3.2695628171122404e-003 -1.3383682604451804e-002
      -1.0026984122035737e-002 7.7872792296513815e-003
      -2.9737611183761344e-002 -1.8724484479010477e-002
      1.6187296287024446e-002 -2.7551143890234251e-002
      -3.4905732292357931e-002 3.8363206319510637e-002
      -3.4192076135198340e-003 -2.5363428066432145e-003
      3.8623402746317545e-003 3.4170007300092975e-004
      5.4861814836899741e-003 -2.2093152184001525e-003
      -6.4621464916491608e-003 -8.9297759823834776e-003
      1.1342692856751336e-002 -1.3392678227397887e-002
      -6.7167785347127485e-003 2.5184107350714614e-002
      -4.3561884638613657e-002 -3.5993795481255295e-002
      2.4946148716669492e-002 -3.2750081317763503e-002
      -4.2780130829208944e-002 6.7979456336004898e-002
      -2.7450430827683038e-002 -2.4842486675945623e-002
      2.1705148909371585e-002 -2.5095826277440645e-002
      -3.2512413537296531e-002 3.5262946186186292e-002
      2.4973203142068532e-003 6.4469142390056913e-004
      -7.3292493546072302e-003 1.3253536857569308e-004
      3.8202552116576747e-003 2.1967980429441637e-003
      -3.6179798502356093e-002 -2.8225382123869096e-002
      2.8277233069950135e-002 -3.3356155983390499e-002
      -3.6389540527523460e-002 5.7687757833458531e-002
      7.4907012687230800e-003 1.3565284948518318e-002
      -7.3157805978284933e-003 1.7261692394597888e-002
      1.4046709541778305e-002 -1.4484568110681530e-002
      8.3482008433279076e-003 5.2386574159866781e-003
      -2.0086972285067333e-003 2.2976542160448778e-003
      1.3328177163442515e-002 -1.9160841398887310e-003
      -4.6898447679717733e-003 1.3348942972668291e-003
      -1.0674311525941836e-003 -2.2242855820339925e-003
      -9.5906514006887343e-003 1.1053840607856363e-002
      -1.4211475840248879e-002 -1.6160894925012197e-003
      9.7278681082856467e-003 -3.2159679937755628e-003
      -1.5921915211637220e-002 7.6301895525385122e-003
      2.4106132363033633e-004 9.8471323153233783e-003
      -7.6850645817412629e-003 5.7431907154130470e-003
      2.9525086474760246e-003 -9.2038814088456992e-003
      2.3638488392266573e-003 -3.3943995354356019e-003
      2.4355733574797961e-003 -7.5753049610251168e-004
      5.0807786365480480e-003 -6.3058062138158138e-003
      -2.0704994858704674e-002 -1.3986700182817762e-002
      8.1016173183680838e-003 -2.3005956342679081e-002
      -1.6853803333613308e-002 2.7927256100343179e-002
      -2.7847144724944720e-002 -1.3399201348808272e-002
      1.0824247731740901e-002 -1.6924613909521085e-002
      -2.2977554931469801e-002 4.2361725404501435e-002
      -1.5149453276779325e-002 -2.2639768289340594e-003
      8.1028357520520292e-003 -7.9184424332971164e-003
      -7.9719596566249287e-003 2.3312630150229507e-002
      4.8862282390093759e-003 1.0427010695140716e-003
      -1.8120549590972602e-003 -7.1803188813216890e-003
      -9.6254212974792915e-003 -1.8156507857912353e-003
      -3.3776123298624339e-002 -2.6535972441938435e-002
      1.3212799616131459e-002 -3.2648498334632126e-002
      -3.2984208317824892e-002 6.2075058505355114e-002
      -9.5231767778989288e-003 -3.7397768176187333e-003
      7.8356934879638390e-003 -1.2039439288613398e-002
      -9.2830837097369924e-003 7.9225738232746121e-003
      1.9285407324701614e-002 2.5760836734966156e-002
      -8.9027882865560150e-003 2.0653314349906002e-002
      2.1414240253890025e-002 -3.3517101276895118e-002
      -1.3294015767044681e-002 -1.2933885914605809e-002
      7.0349736940769313e-003 -3.4417915663608406e-003
      -6.4222084124453986e-003 6.6188731594133245e-003
      -3.7956261563151109e-003 -2.8846682331544796e-003
      8.1626004160361490e-003 4.3602727955709640e-004
      -1.0213167255164295e-002 1.1169602799569012e-002
      -2.3446341847579072e-002 -2.0815166277241386e-002
      1.2456343390200172e-002 -1.4175968207829567e-002
      -2.4378373176693020e-002 2.9831612296026284e-002
      2.6115900232326697e-003 -2.6052655715970751e-003
      -3.5173419592117645e-003 2.9111879360131489e-003
      1.1640109233028337e-002 -1.0610766686387323e-002
      -2.0605845754171320e-002 -1.4657541428084109e-002
      4.4237163718727421e-003 -2.1917618555860382e-002
      -1.9999759641842696e-002 2.9500030458135811e-002
      -2.6202433819146409e-003 7.5042921423676525e-003
      6.0691136977048515e-003 -1.3280899056304449e-003
      5.8291949313898537e-004 1.7290415328795234e-003
      3.5100804416538255e-002 3.6205583730668157e-002
      -3.0007835844877772e-002 3.8055287381199114e-002
      4.9194244196058480e-002 -6.5551983297429908e-002
      1.1262551492767834e-002 1.3804845677109226e-002
      -1.2770500246462122e-002 4.6286523576372154e-003
      1.4587929657633534e-002 -1.1501831764960306e-002
      3.5012499153860885e-002 3.1420573957342851e-002
      -1.1898462553853248e-002 2.6138820753620288e-002
      4.1007075117924778e-002 -5.1571588188269304e-002
      1.2587120408951241e-002 4.1223763840037321e-003
      1.6189139626270025e-004 1.6910672854613083e-002
      1.9150361002002712e-002 -1.1887815217145310e-002
      -6.4514493390062577e-003 -1.2756900367477682e-002
      8.8084083977106407e-003 -1.6083457609274973e-002
      -1.4997754921264161e-002 2.6234675826741525e-002
      1.1528264586973706e-002 2.8669281823500846e-003
      -1.0696327234333921e-002 -5.1916868318584196e-004
      1.4889628212929103e-003 -2.0079922048040952e-003
      4.8761126043672404e-003 -4.4170452615732426e-004
      5.1610598947715808e-005 2.1348306651467002e-003
      7.0983680532053376e-003 4.1856513057500478e-004
      -2.2632530492017775e-002 -1.6261494209338402e-002
      1.5013470732295073e-002 -2.3484724817681293e-002
      -2.3758414818656516e-002 3.7989149526216945e-002
      -1.6804310661139649e-002 -8.4098306969963323e-003
      1.0556390094586292e-002 -1.6919976435738400e-002
      -9.3835327879728224e-003 2.1679749214243156e-002
      -1.7092695168262239e-002 -1.1813863842521312e-002
      9.1999161071371661e-003 -1.8528163240814669e-003
      -9.3595667307326252e-003 1.1412121235525301e-002
      1.8512258828497908e-003 -1.4763453445516880e-003
      -9.0521218130648650e-004 -1.0498509076333463e-003
      5.3051940085548609e-003 -1.3971950060577946e-002
      1.2356585969242400e-002 1.3454215176124043e-002
      -1.3661229019509091e-002 3.8040207680289173e-003
      9.9337999191508441e-003 -1.0525048779594225e-002
      1.2690837213532717e-003 -6.7143364029352498e-003
      -4.5599664483875731e-003 4.7709838682988490e-003
      1.3541169288513420e-003 2.0613220299772059e-004
      8.5523088353239816e-003 -1.9734522698202017e-005
      -4.7953558010144877e-003 6.7392050130818002e-003
      3.6338272887302516e-003 7.4621362429744406e-004
      -1.4797776885721167e-002 -1.6513788493574898e-002
      5.9941402596164969e-003 -1.8371919311414117e-002
      -3.0153938702597718e-002 4.3934694824084526e-002
      -5.6150524109003655e-003 -6.2081923942169659e-003
      3.6526722795055199e-003 -4.7965416167479701e-003
      -1.3615602762624419e-002 1.3795027929456579e-002
      -2.4115515929066151e-002 -2.1877432180854327e-002
      4.9876540119464380e-003 -2.3532141075702003e-002
      -3.0100918432826512e-002 4.5482618625602378e-002
      9.8278134570844496e-003 5.0777121334137885e-003
      -5.3314532661144914e-003 1.1454500995258746e-002
      1.1296257958159557e-002 -9.5770681674096827e-003
      2.0986441111145993e-002 2.1460945630000082e-002
      -6.2487344673943417e-003 1.2232445207925826e-002
      2.7683637502520106e-002 -3.2133494971151658e-002
      -1.6966589839280947e-002 -1.2473127670684430e-002
      7.5056382152517420e-003 -7.0766911068990950e-003
      -2.2421867043499459e-002 2.0844359989302601e-002
      1.1834749846902644e-002 1.3376084558636439e-002
      1.0977818451897252e-003 1.3201606019994962e-002
      8.6247649269490904e-003 -6.5623549049334904e-003
      5.1457312034280042e-003 3.3040153649908023e-003
      3.6564455599730580e-004 -4.6519454470850914e-003
      -4.3772150203281847e-003 -1.9023446533881175e-003
      -6.4964017186930033e-003 -1.6375619947136409e-003
      2.9273762523809952e-003 -5.3554603769493427e-003
      -7.3024020716268350e-003 3.4285236473390831e-003
      1.2399252748398416e-002 6.1512357897431863e-003
      -5.4311695086952929e-003 4.4785918057155183e-003
      2.5181603618839575e-003 -1.0712477230647586e-002
      -8.1913748731926410e-003 -6.7358111786343638e-003
      1.2155193627034122e-002 -1.6236518538541553e-002
      -1.2047844856288299e-002 2.7835536567777645e-002
      -2.2080189872696877e-002 -2.1391033895889165e-002
      1.6053267377977219e-002 -1.5059732805538387e-002
      -2.3396075437021040e-002 3.3709561575976744e-002
      -7.2214358166671107e-003 -1.3359123757412630e-002
      1.0512097383186895e-002 -1.4212074309396298e-002
      -1.3572238744491722e-002 2.7668955180669738e-002
      -1.0809751400024952e-002 -1.0085052717294977e-002
      1.3845115959460029e-002 -2.2240657748901608e-002
      -1.4335827184550693e-002 3.9762262194570963e-002
      -2.8000316688266174e-002 -1.5019279580126454e-002
      1.4525566088172511e-002 -2.4497175393687374e-002
      -2.3280163141413738e-002 4.0947935867434469e-002
      -5.8589462134561896e-003 4.4448645777575204e-003
      6.8597218326176225e-003 -2.6189348592575452e-003
      -4.2092061819122429e-005 1.1876824698527601e-002
      -2.5215880828958565e-002 -2.5413019473825023e-002
      5.4881812720807182e-003 -2.7320785240729006e-002
      -2.9676084522746324e-002 4.8402836039387359e-002
      -2.2332459698916396e-002 -2.1884652302065925e-002
      1.8486678163159402e-002 -2.6839209394906388e-002
      -1.8977722196811549e-002 3.6294217427436562e-002
      3.5073282004743606e-002 2.3109035748838498e-002
      -2.2235929066036952e-002 3.0534443261949647e-002
      4.1063206941009928e-002 -5.0540056303472886e-002
      3.0561753284671353e-002 2.7247651731457847e-002
      -1.2353479705068201e-002 2.3159316377267838e-002
      3.5127593366075092e-002 -4.1527933982396792e-002
      3.2487533578177935e-002 2.3068188713344800e-002
      -1.2390439782862892e-002 2.9282213061477727e-002
      4.2210005321254185e-002 -5.3500383764226965e-002
      2.4876984175739126e-002 1.6242067930671913e-002
      -2.0510722886467339e-002 2.3774896006476535e-002
      2.0371999566399668e-002 -3.4378727093204824e-002
      6.0464558459778729e-003 3.1870159518362379e-003
      6.4867971697388270e-003 5.9560219469999851e-003
      -7.0553972402516967e-003 -9.2952941797323479e-003
      -6.1892887351848334e-003 -4.7557050330235696e-004
      -3.3511904313067650e-003 -4.3535666620982925e-003
      -1.3749173683318388e-002 1.0660741326789670e-002
      -4.8544684915263550e-003 -5.6175624979916414e-003
      8.9361098868631812e-003 -2.4262091380549081e-003
      -5.4084784248495203e-004 1.1202582874061930e-002
      2.2670352643373817e-002 5.4508484156614795e-003
      -6.7840543005455913e-003 1.3518855704151249e-002
      1.1773037023852661e-002 -2.4221738833788174e-002
      2.6638506207428195e-002 2.1389298604355136e-002
      -5.7398396858291505e-003 2.2932193407410338e-002
      3.0347074252636889e-002 -3.6412337774527216e-002
      -3.3456897440871695e-004 -9.3787162214630342e-003
      7.0765565095421840e-003 1.3752754439118934e-003
      -8.5061734032563611e-003 2.3169412321089209e-003
      1.1008580207852881e-002 6.8861758914795712e-003
      -5.6077586478998406e-003 3.8394791822284487e-003
      1.1993879055811044e-003 -8.8279931318956308e-003
      -1.6997345310608980e-002 -1.5386751076044558e-002
      8.0659111534622265e-004 -1.4294851226039020e-002
      -7.9373696343634382e-003 1.8843818812734118e-002
      9.7904298117118087e-003 1.0948816570679547e-002
      3.7648661373192245e-003 5.2691287905415832e-003
      6.0558589440489856e-003 -1.6804216558544798e-002
      3.6653251210043647e-002 2.7482065286956375e-002
      -1.4954526709023908e-002 2.6293801103429531e-002
      3.6510943648766080e-002 -5.6504945643474851e-002
      1.0772482037655821e-002 1.4945181849794032e-002
      -1.2940471584462043e-002 1.5594196132121799e-002
      1.7029746303838224e-002 -2.5906523961728291e-002
      1.4016338765912356e-002 1.3501657572430338e-002
      -6.8695326960141120e-003 1.4459458420192807e-002
      5.5423569041468347e-003 -2.1352530872397378e-002
      7.7490814651325459e-003 9.6478219706872467e-003
      -1.4760489630699682e-004 -4.8530013051951981e-003
      3.5724585242634661e-003 -1.0795735961744189e-002
      -2.8990589971703257e-002 -1.3168980025823186e-002
      7.7280795768377387e-003 -1.6894459733211801e-002
      -2.9713268055338690e-002 3.8209785858361968e-002
      -4.3527308164311466e-003 -8.0089556215425066e-003
      3.3931933736759618e-003 -4.4496477588106768e-004
      -2.8217969727568101e-003 7.4457172740203630e-003
      3.9325201209011928e-003 -3.8373865223124697e-003
      3.9842058383054973e-003 2.4404814371100322e-003
      4.6230955874365315e-003 2.2310779142907119e-003
      -2.1960271418002449e-002 -1.6754673557350382e-002
      1.8381159836384716e-002 -2.5303230370817578e-002
      -1.9968941091448127e-002 3.8231664379431395e-002
      3.1509321877719376e-002 1.9682205221349763e-002
      -1.1203700153935941e-002 2.1534485087840446e-002
      2.6063709358149709e-002 -4.0679562255869273e-002
      8.4100586608468648e-003 3.5111186395436027e-003
      -7.0282593675873011e-003 7.7910768204123961e-003
      -4.4400965218869010e-003 -3.7674801183702204e-003
      -5.5331733195817046e-003 -1.1082640682120865e-002
      2.4480670791317315e-003 -1.3088804537260032e-002
      -1.4498306221532057e-002 9.8448610142304899e-003
      -1.2870859928630853e-002 -1.1679970691692403e-002
      3.9995900943476624e-003 -9.1204399793568154e-003
      -1.3906321020298854e-002 2.4029886816758467e-002
      5.8598436622509641e-003 4.1255803947564664e-003
      4.5445292442186005e-003 1.0516767507885610e-003
      -4.4603375927288278e-003 6.3043077886360934e-003
      -1.1084356656297308e-002 -1.1820608598303610e-002
      8.0278590147237882e-003 -1.0525800972192301e-002
      -1.7135717092306563e-002 2.9350716701940359e-002
      -4.2217020875422185e-005 7.8482556940399992e-003
      -7.4811900841676810e-003 -1.1323733934828484e-003
      1.7585028587861458e-003 3.6170314962668459e-003
      -2.5835858369980806e-002 -1.6690874587990571e-002
      9.8016252038026323e-003 -1.9896549224581870e-002
      -3.0478947868235018e-002 3.4538038825403454e-002
      -5.3718296937565243e-003 -6.6572281846353594e-003
      -2.6089334409584420e-003 -5.4527938754234222e-003
      5.7496154477574841e-004 6.6232115849414325e-003
      -2.4353573984221919e-002 -2.6603562713396256e-002
      1.5674763617117952e-002 -2.0198607732885555e-002
      -2.6127103456957464e-002 4.4900789630086389e-002
      -3.0926729724153040e-002 -1.6808579196759790e-002
      1.7742096258563156e-002 -2.2925670999145803e-002
      -3.9218018791215233e-002 5.3363086850683569e-002
      1.2187258403824093e-002 5.0504322441457406e-003
      -1.5409451493015380e-002 9.3456132586356207e-003
      2.6013190968769952e-002 -2.2599003273755261e-002
      2.3336255895898078e-002 1.6777519515539040e-002
      -6.9778935105461737e-003 1.3819530270638116e-002
      1.4544816499572668e-002 -2.9186443584723210e-002
      -4.7337161295329224e-003 -1.2593480118675664e-003
      3.1690099672304914e-003 -4.0072327227984707e-003
      8.8949345792272462e-003 -8.6151072269305476e-003
      2.5288200732279810e-002 1.3116079997746215e-002
      -8.5410432889412042e-003 1.6903520436152397e-002
      2.1934354396695763e-002 -3.2287306493874214e-002
      1.0414439149410277e-002 8.2571725427948300e-004
      8.5292276696463502e-004 7.9093178154314662e-003
      2.0110358283393736e-003 -4.6984873477760574e-003
      1.2816549221395555e-002 1.8581363626387393e-002
      -8.0317210858188333e-003 1.4555914167004280e-002
      1.9372736958928088e-002 -2.7844412007959118e-002
      -2.8747850679584248e-003 -3.6244602785818897e-003
      2.0765736848209443e-003 -1.3138105655909282e-002
      -4.2787426870139139e-004 1.3651721513704864e-002
      6.8206612767086287e-003 8.8553882802992106e-004
      5.3735037012008838e-003 4.2315515660741416e-003
      -4.2880362053619031e-003 -5.2407716814598373e-003
      1.0931611869145442e-002 6.6716510545806349e-003
      -1.9201410950027275e-003 1.3223606559715297e-002
      1.4137990504111127e-002 -1.1072106466112050e-002
      -1.2407651467174227e-002 -5.5015846295188072e-003
      1.0472352195409885e-002 -8.7580901268092762e-003
      -1.3653393157915781e-002 2.5800364369808062e-002
      7.2615549280786061e-003 2.1350464603188614e-003
      -1.4226442306267601e-003 1.3457763730980904e-002
      9.6365662133606894e-003 -1.1278842245933094e-002
      -2.0793939956865906e-003 -1.0269023024867973e-002
      1.0661054977982401e-002 -1.3780021602910305e-002
      -5.4589662723858552e-003 1.5543001242833190e-002
      5.3553210709653314e-003 6.4398942288823591e-003
      3.7061787856851507e-003 1.1447498544656815e-002
      9.6334181407662107e-003 -3.3763518997207941e-003
      -4.3010588069125012e-003 1.9573194169617350e-003
      -8.5182707600282796e-003 -3.9534391742989620e-003
      1.0623263314322029e-002 -2.2678886682179467e-003
      1.0707667562397716e-002 1.4023926459362448e-002
      -1.2160951115230488e-002 1.9121673157577432e-002
      2.0479279303472455e-002 -1.8961943825371152e-002
      -4.3996794216242426e-003 -1.1616908341826307e-002
      4.9671462405213333e-003 -1.2894517111189359e-002
      -1.4268522848386270e-002 9.9489126667202023e-003
      2.6385689377831062e-002 1.6553529050816421e-002
      -1.2871375104646763e-002 2.0115159042392125e-002
      3.6991101392746813e-002 -5.1016661168455345e-002
      1.2154379435141307e-002 2.1452336101111833e-002
      -1.4661239434207884e-002 2.3321043296947678e-002
      2.1357935413894014e-002 -3.1181404116391094e-002
      -2.0765337406708695e-003 -5.9641245584437608e-004
      -1.0382637103626671e-003 -5.0551505864277905e-003
      -4.8746206966725795e-003 1.5445009020017771e-002
      4.4719276829622845e-003 6.9268054364835787e-003
      2.5600991935787053e-003 6.1994120765565932e-003
      3.0795422517382281e-003 1.2042067100252896e-002
      2.9896948064157040e-002 1.4373994600472121e-002
      -1.9274625808163425e-002 2.1611968842260340e-002
      2.6078929103011350e-002 -3.4239271075130591e-002
      1.6600688354828357e-002 1.6415174863036720e-002
      -8.6269170917850878e-003 9.8941962070999145e-003
      1.2996787911463865e-002 -3.4216404465637951e-002
      1.1308709748679540e-002 8.1941535994158286e-003
      -4.4290388562035141e-003 1.4936541418390388e-002
      1.3508901631545266e-002 -2.0548493609148420e-002
      1.5243210141262818e-002 6.5680543753194745e-003
      -6.4652210178299191e-003 1.7846935079588309e-002
      8.8374631201271012e-003 -2.2522163493451815e-002
      4.8990140980070445e-003 -1.3223816626214858e-003
      -6.3527354010621995e-005 8.5091024637191318e-003
      6.9775107531993607e-003 -4.8393732689079845e-003
      -7.9818505071076896e-003 -7.9321855189807312e-003
      6.6924686139002005e-004 -5.1581986115720024e-003
      -1.7810506591596293e-002 2.4812968370257961e-002
      9.8802480027422555e-003 1.1675562179126558e-002
      -1.3641371111853906e-002 1.2111275727953334e-002
      1.1851652287027158e-002 -2.2891846691702213e-002
      -4.9209818130722064e-003 -6.0362380751059243e-003
      7.3099718497213906e-003 -2.7022002329679588e-003
      -1.0051532520506116e-002 8.9720994029177728e-003
      -1.8577658485286544e-002 -3.8733001986964201e-003
      5.9568562672600188e-003 -8.5567568189214311e-003
      -1.3641910386149494e-002 2.4525563005989435e-002
      -8.9369609442737676e-003 -5.9433642892286745e-003
      9.9361572614363129e-003 -8.8141414189744586e-003
      -1.9325813661104824e-002 2.8857422695026176e-002
      -2.6786474149891638e-002 -2.6162048989367553e-002
      2.6506340836854280e-002 -2.3671618844490507e-002
      -3.7692446211805855e-002 5.1373933663144668e-002
      -1.7582539370446987e-002 -7.7447337888948576e-003
      9.4948550894390117e-003 -2.3085671034098303e-002
      -2.2183273440943181e-002 2.6723017139986757e-002
      2.0240763636867533e-002 2.6823195597926862e-002
      -1.5225360318301285e-002 3.0101221012285254e-002
      2.9429488983779770e-002 -4.1377999817594234e-002
      -1.5593492416486448e-002 -2.6126762283150179e-004
      8.0463539213978495e-003 -2.0289665061296210e-003
      -1.3257680901427753e-002 1.9252037939751457e-002
      1.0652224877552180e-002 -4.4197352551235639e-003
      -7.3707558482661510e-004 -3.4669008386510130e-003
      5.1915089449764504e-003 -1.0211410336073784e-002
      -3.3090908526605768e-002 -2.3388762878537989e-002
      1.7548907573983526e-002 -3.0650986954483959e-002
      -4.8309536608500271e-002 6.3032719128315290e-002
      -1.8913799249826543e-002 -1.5737936476725205e-002
      1.6342239475410004e-002 -1.5504704717920122e-002
      -2.7162851901144279e-002 3.1248046392838784e-002
      6.0257850166986473e-003 -8.1564785092941967e-004
      2.5503159115544227e-003 -1.6011242733368142e-004
      6.7908923831396153e-003 -5.0304313635072479e-003
      -6.9263773641433180e-003 -3.7649255951178132e-003
      2.7149573415005735e-003 -3.1649888647800684e-003
      -7.1297182020737112e-003 2.0597437350901120e-002
      -6.1060217015501753e-003 -1.8340377992917501e-003
      -2.3680290777816464e-003 -6.8252584452960759e-003
      -9.4980115887523201e-003 2.2426639173381509e-002
      2.8952903991436778e-002 2.0223450460905134e-002
      -1.9078109705141028e-002 2.5557184691586236e-002
      2.2979253153884410e-002 -3.4796512146544452e-002
      -1.0217363432291853e-002 -1.0995796695544893e-002
      -3.4656929568112225e-003 -4.2835919794385162e-003
      -1.3553197361416294e-002 9.9596290424102812e-003
      3.0510601871486405e-004 -1.1378914795370504e-002
      6.7481504745061640e-003 -1.0892565442765297e-002
      -9.1786870071361489e-003 6.4818397697726142e-003
      -5.3327072865321486e-003 -5.6201254282626425e-003
      1.8464804792900030e-003 -3.2047541109152607e-003
      -2.8729583481824058e-003 1.5203233993062651e-002
      1.0634046473276737e-002 1.4703770930298319e-002
      -8.1972997270168390e-003 7.6133084688755591e-003
      1.2545094212455744e-002 -2.0419470961170735e-002
      -3.5304107615123943e-003 -4.1867734657129608e-003
      -2.7255816215896837e-003 -2.0340750933810891e-003
      -1.8960889465881403e-003 3.5727322490505787e-003
      -1.9326555549282063e-002 -1.0180334469962754e-002
      1.2276975864613461e-002 -1.0744156379240838e-002
      -1.6863334251912006e-002 3.0792640713274266e-002
      -3.4300097178134627e-002 -2.4160203231129659e-002
      1.7934429218245448e-002 -2.5439166351201605e-002
      -3.5083792608466093e-002 5.0256593095320982e-002
      1.0783868324805668e-004 -1.1845837825216290e-003
      -8.2070972246788603e-005 -1.0966186091189783e-003
      -3.0531356284178085e-003 8.4454597602507484e-003
      -1.2752162952592828e-002 -6.4368000489798630e-003
      4.7760665336744890e-003 -1.3230160513477118e-002
      -1.2663196327034207e-002 2.4435048588698254e-002
      -2.2481811073801736e-002 -1.3326090624280335e-002
      1.1813225572899834e-002 -1.1455862260577468e-002
      -1.6814749565779347e-002 2.3352135626110524e-002
      -1.7597604776289202e-002 -2.1427807252556646e-002
      1.2900353294126159e-002 -1.6326800685575602e-002
      -1.6587242284020181e-002 3.5533926590165937e-002
      1.1265693377451097e-002 -8.4894678009251234e-004
      -6.9080288857942731e-003 6.1203103967719177e-003
      1.1746317605813159e-002 -1.0241675356927740e-002
      1.2378040720112853e-002 2.6772511225533709e-003
      -1.1850258558246365e-002 1.5207362306567735e-002
      1.6357009490087445e-002 -1.4807007360775986e-002
      -9.8038089952014653e-003 -6.9411670818223415e-005
      2.4424672367362368e-003 -9.1585963968086326e-003
      -1.7296339887575531e-004 5.1610349735492457e-003
      -2.2168364453110358e-002 -1.8410749182820207e-002
      9.6644731787976744e-003 -2.1825406913635142e-002
      -2.7266853108451231e-002 3.9930724121839990e-002
      2.8201412037492664e-002 2.3769576786853066e-002
      -1.2594136131791127e-002 3.4828519344454544e-002
      3.4372090941319045e-002 -4.9987098765496528e-002
      -2.3070415170523106e-002 -1.9857252285766753e-002
      5.6509873340835626e-003 -1.2737932638422558e-002
      -1.4787648261942838e-002 2.5407465346472018e-002
      2.6625081537990556e-003 3.7116806925945804e-003
      -6.4467140709211651e-004 -7.9343592814682343e-003
      -1.9470380536785923e-003 -3.3584013916931801e-003
      -1.0919124825587417e-002 -1.4896820618871131e-002
      1.1507245618092144e-002 -1.6173936874957228e-002
      -2.2103312076891674e-002 2.9707326808154265e-002
      1.4856115063024668e-002 3.5734946948849946e-003
      -3.8287060347351790e-003 4.1683708635743468e-003
      1.5443902169421235e-002 -7.3808902200026075e-003
      -1.0900228754943722e-002 -5.9246620705057989e-003
      9.1028981687856815e-003 -1.9451224081971464e-002
      -1.9006416215673092e-002 2.6182452711835131e-002
      -9.3873861537521926e-003 -1.2776323259128196e-003
      3.2850577347860810e-003 -7.2885752237146139e-003
      1.3283769725473933e-003 1.4232875792757888e-002
      -1.6422991755735875e-002 -2.1523659012318008e-002
      1.8634423334223309e-002 -1.6929748039514834e-002
      -2.8563742883867305e-002 2.9146465524520028e-002
      1.5810736174427607e-002 2.9369604990630628e-003
      -1.0501888909289726e-002 4.7864086443898616e-003
      1.3564611792370590e-002 -3.4175640434360145e-002
      -1.1291376891713747e-002 -1.3155227535275356e-002
      1.8765370286316339e-002 -2.0976017963400005e-002
      -2.6276758965709440e-002 2.5011976932884351e-002
      -1.3443691509753424e-002 -1.4462917355352838e-002
      9.0198465939940135e-003 -1.5021399988696234e-002
      -1.6370153573370731e-002 1.7018543529919397e-002
      -2.9117017120786202e-002 -2.4294208405270835e-002
      1.4076443610040484e-002 -2.6241597002714223e-002
      -3.0999947786528353e-002 3.0450935115388843e-002
      -3.7025676955230430e-002 -2.9339903861824689e-002
      2.2270825726898681e-002 -3.1785763388116325e-002
      -4.0095969154142416e-002 6.5123547523810416e-002
      -1.2717009299219560e-002 -1.4492930593453676e-002
      4.7970242039366623e-003 -7.1788803006907946e-003
      -1.3574214794095653e-002 2.0219175897761718e-002
      -2.7384975818678655e-002 -2.1255829391528206e-002
      1.5265819187010478e-002 -2.0158929410786324e-002
      -1.9872319710363451e-002 3.2723521320676269e-002
      -2.2491980706023713e-002 -2.7800457176851305e-002
      2.1967640969300966e-002 -2.8594037656701404e-002
      -3.4695304825383355e-002 5.2975493202328458e-002
      -3.1567949615568455e-003 -5.7952454148327646e-003
      1.4659957341767193e-003 8.1650742408920479e-004
      -3.3520384272241649e-004 1.1505064147569011e-003
      -5.1179914806667543e-003 1.2644951247309641e-003
      5.9645028304635772e-003 -8.1965431741627803e-003
      -3.8825272357327499e-003 3.0540346878460850e-003
      9.6964593980731605e-003 -4.9350885902563115e-003
      3.9863067695996559e-003 1.0209192076431712e-002
      2.6112004224979070e-003 -9.6725036506375203e-003
      -1.4437370849270383e-002 -1.2327379151871985e-002
      -3.1625653675455920e-003 -8.7256074849113331e-003
      -1.4298888042770710e-002 2.6416799081705151e-002
      -5.2169832969385647e-002 -4.4666171791609144e-002
      2.7314428475157547e-002 -4.8937420086192576e-002
      -6.0331551636803406e-002 8.5185086648555911e-002
      -9.0104886180516798e-003 -1.3102244038085950e-002
      7.5480363887394392e-003 -1.3261386201188919e-003
      -5.8496087846148645e-003 2.2013167885298144e-002
      -2.0590732822277939e-003 -4.2132802478601974e-003
      7.9373968154061586e-003 -4.5211148034965598e-003
      -1.0108061618602025e-002 6.9862324477640700e-003
      -8.6652846156274211e-003 -9.1816498584584676e-003
      7.0967906977899937e-003 -9.1951896419811066e-003
      -1.5374713857255931e-002 3.1063538405752402e-002
      -1.0833037282090530e-002 -5.4242864188610773e-003
      9.5865283578771120e-003 2.2201366675966714e-004
      -1.2499209516821205e-003 8.4132593919772295e-003
      -2.6289155295230422e-002 -8.0679280776332508e-003
      7.3062086733481739e-003 -2.2537810973798356e-002
      -1.7412715401965567e-002 3.3181164600580737e-002
      -5.8934939207458681e-003 -7.7153972861915285e-003
      -4.6996946565778137e-003 -4.2530320238858763e-003
      -3.5326314618411736e-004 1.6091011389436142e-002
      -5.1843348640179627e-003 -5.2316288077489019e-003
      -2.9844469312850135e-003 7.0794203501680373e-003
      -1.8393909404755501e-003 1.1219127532646271e-002
      4.2185584225883184e-003 -8.4970087622219669e-004
      -8.7619733823665769e-003 4.9620104589357915e-003
      1.3669744615201191e-002 -1.0889334916440709e-002
      -7.4118690186324157e-003 -8.3932126549270177e-003
      -8.9386126266072078e-004 -5.3442120987566809e-003
      -1.6196810491086122e-002 1.1702405205589812e-002
      -1.6393968412235508e-002 -1.9028514774170991e-002
      6.2875274479556329e-003 -1.4507294056875022e-002
      -1.2129107915954876e-002 2.5845023383634595e-002
      -1.3890267553429789e-002 -1.6475215668215352e-002
      2.9831447770376500e-003 -1.3293994553341954e-002
      -1.8103789725542701e-002 2.6374412669249076e-002
      -1.8003714030006453e-002 -1.6493827752236494e-002
      1.0655521425301065e-002 -2.6201375593693343e-002
      -3.1162394636075296e-002 4.4820983834180074e-002
      -1.2630528361503586e-002 -7.9816307313901897e-003
      9.0781352949938724e-003 -2.1522549781909102e-002
      -2.4515226537153403e-002 3.0110336727192429e-002
      1.0285479160822016e-002 3.8038416869201706e-003
      -1.2493983688373169e-002 3.6844386053122087e-003
      1.8701975851727934e-002 -1.7000551747474113e-002
      -1.6359869115740173e-002 -9.5215306933857185e-004
      9.5825292423796175e-003 -1.2794426754163054e-002
      -1.3277544299183777e-002 1.3391895086970708e-002
      -4.3733250405399451e-002 -2.7629637630534141e-002
      2.2016850974345612e-002 -4.0267551664295832e-002
      -4.1875968200083234e-002 7.1985475400109730e-002
      -1.1117769818973151e-002 -1.0868697380770136e-002
      1.1285978769040679e-003 -8.5488910666927584e-003
      -2.3476539444596465e-002 2.7816918692290461e-002
      -6.9649957032657025e-003 3.1601259223052458e-003
      5.5147918231088595e-003 -3.6187178354007720e-003
      -4.5172603117354989e-003 3.0601212118279170e-004
      -1.3448656573719629e-002 -6.9175485430546827e-003
      1.1356427982449001e-002 -8.9055541802034351e-003
      -1.6292449707696038e-002 2.5031935439385540e-002
      -9.8679764298350500e-002 -6.5356129899701298e-002
      5.7453427634491801e-002 -8.4989696673509779e-002
      -9.8205364701607067e-002 1.3222457948856578e-001</_>
    <_>
      5.0392050230738272e-001 3.9976818438778966e-001
      -2.9525195356224021e-001 4.6733746125053943e-001
      5.6886621627911482e-001 -8.4264114707100790e-001
      3.3287540203480792e-002</_></weights></opencv_ml_ann_mlp>
</opencv_storage>
