<?xml version="1.0"?>
<opencv_storage>
<opencv_ml_ann_mlp>
  <format>3</format>
  <layer_sizes>
    256 5 1</layer_sizes>
  <activation_function>SIGMOID_SYM</activation_function>
  <f_param1>6.6666666666666663e-001</f_param1>
  <f_param2>1.7159000000000000e+000</f_param2>
  <min_val>-9.4999999999999996e-001</min_val>
  <max_val>9.4999999999999996e-001</max_val>
  <min_val1>-9.7999999999999998e-001</min_val1>
  <max_val1>9.7999999999999998e-001</max_val1>
  <training_params>
    <train_method>BACKPROP</train_method>
    <dw_scale>1.0000000000000000e-003</dw_scale>
    <moment_scale>0.</moment_scale>
    <term_criteria>
      <epsilon>1.0000000000000000e-004</epsilon>
      <iterations>300</iterations></term_criteria></training_params>
  <input_scale>
    8.7850713452553872e+000 -1.2857959934459948e+000
    2.9400562605166630e+002 -2.8002200304138567e+000
    1.3679843023066985e+002 -1.4265424835797955e+000
    2.0222306636270602e+002 -2.0102078829805534e+000
    2.4946156074443272e+002 -1.5899095911022185e+000
    3.7610663534354612e+003 -1.1180339821822081e+000
    2.6866678695744764e+002 -2.5013804209751096e+000
    1.7705616513764340e+002 -2.1516218799210112e+000
    1.9651142233871752e+002 -1.8950150116822733e+000
    2.5288230350015174e+003 -1.1426310849749617e+000
    1.5139029842825021e+003 -1.0440710091791470e+000
    2.5357104238435759e+003 -9.0453403574598745e-001
    3.8861123671483773e+002 -4.0247370424131921e+000
    2.1361421360517543e+003 -8.8900088410795930e-001
    3.7283608672979661e+001 -1.7790620670024035e+000
    6.1711312665726723e+001 -1.6671593645767533e+000
    1.5202563230858050e+002 -1.7046393778514206e+000
    1.0033256789708306e+003 -6.8001858627262646e-001
    2.2428660745002126e+003 -1.0134234229474952e+000
    4.9729373191603909e+003 -1.0052310731814404e+000
    2.3200551771354899e+003 -8.5519275422790264e-001
    1.2399868684407478e+004 -2.9488391230979427e-001
    1.6908152487226787e+003 -9.8513610035262622e-001
    3.7838378944739334e+003 -7.1987402905273412e-001
    3.1417362118667711e+002 -3.2201861979682147e+000
    4.0276595851518146e+003 -8.1415234243797863e-001
    2.8127247747984288e+003 -1.1371301018914191e+000
    2.7787422219265645e+003 -7.2690045873483344e-001
    1.1830411716349499e+002 -1.6177138383238732e+000
    4.8234657720305377e+003 -6.3089326075555374e-001
    3.7838378479012469e+001 -1.4082535654968937e+000
    3.7631743611576024e+002 -1.8301287692867629e+000
    1.5950933297910996e+002 -1.8890760449793849e+000
    2.0920657439598663e+003 -1.1691687086697102e+000
    1.8601824854831546e+003 -1.3050031654674492e+000
    2.4338501113629404e+003 -9.8395842276833578e-001
    2.3470020955513382e+003 -8.0931106988111734e-001
    1.0351994534772446e+004 -3.6927447293799825e-001
    2.2428660880878338e+003 -1.0134234264759274e+000
    3.4448702735058118e+003 -9.4211670859689667e-001
    8.0369069162649976e+002 -9.5563696781795526e-001
    1.0351994534772446e+004 -3.6927447293799825e-001
    5.0622250702768133e+003 -4.2135048152975335e-001
    7.2651335597862089e+003 -3.4554737023254406e-001
    1.5228112157606886e+003 -9.0535743909363386e-001
    8.4100001165072918e+003 -5.0000000000000000e-001
    1.4761202894793350e+003 -1.7903004503522182e+000
    2.3289340802464280e+003 -9.9692778405990123e-001
    2.2602138015362647e+002 -2.6203429646509142e+000
    2.7817808230846499e+003 -6.2846414547028240e-001
    2.5426544578662524e+003 -1.0279458991781372e+000
    3.9645120273344892e+003 -9.4280903491551971e-001
    2.8285890514766352e+003 -9.7537554123711934e-001 1. 0.
    3.3140043041457225e+003 -6.3048832499128049e-001
    3.7094919904212870e+003 -8.3805406902246415e-001
    3.4906464689981640e+001 -1.1675610657233251e+000
    2.0920656908525762e+003 -6.9652603028348870e-001
    1.3733472591821319e+003 -1.0614455562719012e+000
    2.0138297355971533e+003 -9.8177192864012930e-001
    4.8220384030323224e+001 -1.2413452012930855e+000
    4.4572911471754842e+003 -6.8899862200413386e-001
    1.9207923283133573e+002 -2.0806680024365236e+000
    6.7646829828688885e+002 -1.3111097625088537e+000
    2.4877302097958420e+002 -1.8369565471750684e+000
    2.4756719765565176e+003 -1.0597406620568146e+000
    3.0791197486862011e+003 -8.4208982334212712e-001
    2.3470021896840021e+003 -8.0931108594703582e-001
    1.8028788827919100e+003 -9.2180489407999655e-001
    1.7166840851824953e+004 -2.0412414523193151e-001
    2.8285891536038143e+003 -7.0630643760739120e-001
    4.2805772804404578e+003 -4.0718927691093476e-001
    2.3543479945787171e+003 -8.9582801624057895e-001
    1.2399868684407478e+004 -2.9488391230979427e-001
    1.7166840851824953e+004 -2.0412414523193151e-001
    9.1760624115433566e+003 -4.3643578047198478e-001
    2.8611401419708259e+003 -6.4639312656778325e-001
    1.7166840851824953e+004 -2.0412414523193151e-001
    2.6947378418678509e+003 -7.6900960252919437e-001
    4.1738129147664577e+003 -6.4517916229395400e-001
    2.4974078725823638e+003 -8.6117511654645362e-001
    1.2399868684407478e+004 -2.9488391230979427e-001 1. 0. 1. 0. 1. 0.
    1. 0. 1.7166840851824953e+004 -2.0412414523193151e-001 1. 0.
    2.1599634650506496e+003 -7.1913170002503546e-001 1. 0. 1. 0.
    1.7166840851824953e+004 -2.0412414523193151e-001
    4.8234658714500756e+003 -6.3089326814404489e-001 1. 0.
    5.5942488625488850e+003 -4.6563307366641749e-001
    5.4744437825834302e+003 -5.2075564392329543e-001
    2.5339833135382568e+002 -3.5554105794655166e+000
    2.1025000310566274e+003 -1.0000000033654941e+000
    2.2923106781659908e+003 -1.3083342544974246e+000
    2.7518361279847804e+003 -9.4890899330072720e-001
    2.2085741641906475e+003 -6.5653215977699020e-001 1. 0.
    3.0708978903800785e+003 -7.3029674977521364e-001
    8.4100001165072918e+003 -5.0000000000000000e-001
    1.4811480848996707e+003 -8.9819919326384090e-001
    7.2651335597862089e+003 -3.4554737023254406e-001
    6.5671067783927956e+003 -4.6852128566581830e-001 1. 0.
    2.0373291692881139e+003 -9.4477808205667524e-001
    7.2651335597862089e+003 -3.4554737023254406e-001
    2.1714526708873523e+003 -2.0655911198310841e+000
    4.5343681760211066e+003 -8.6266218562750718e-001
    1.1761650540226641e+002 -2.1425503964339438e+000
    2.1905201366420138e+003 -6.2511870878660480e-001
    2.0869065134955158e+003 -6.4517916992347524e-001
    7.2115156051466747e+003 -6.8599434057003528e-001
    3.7387009899222453e+003 -5.7792048665572970e-001
    1.7166840851824953e+004 -2.0412414523193151e-001
    8.4100001165072918e+003 -5.0000000000000000e-001
    6.5671067783927956e+003 -4.6852128566581830e-001
    6.0981811548148130e+001 -1.5930682673667695e+000
    3.9470085727996338e+003 -6.5705255220111469e-001
    2.0103745082610399e+003 -9.5618288225180226e-001
    3.0386564754521642e+003 -7.9489230349396267e-001
    3.5809612075914259e+002 -1.8649952493772197e+000
    1.0351994534772446e+004 -3.6927447293799825e-001
    6.7673105200553232e+002 -1.9392649481007176e+000
    2.1320196684422963e+003 -9.6333824350116481e-001
    1.4164714283925164e+002 -1.7364827841505750e+000
    1.9920521788892219e+002 -2.3189287427979726e+000
    1.0592242021520942e+003 -1.1209387977760790e+000
    4.0205817644744911e+001 -1.3653723512045828e+000
    3.1255519075584384e+003 -9.6628238735717020e-001
    3.0035714356734861e+003 -1.0357142808083173e+000
    2.0421284930672850e+003 -1.1655430191292329e+000
    6.9974664328574463e+001 -1.6075035954542967e+000
    2.6281250122859651e+003 -1.5937499976097338e+000
    1.8647495853950102e+003 -1.0199581528262671e+000
    3.8148535226277668e+003 -3.6288736930121152e-001
    1.7987504617744414e+003 -1.2405175531291333e+000
    2.7372218330950614e+003 -1.1066057357419519e+000
    4.2368967874201953e+003 -8.0606834809047945e-001
    1.0127386130907719e+003 -1.2282917645858105e+000
    3.3913495341375051e+002 -2.9316422291102322e+000
    2.0080809345998409e+003 -8.5958278538542421e-001
    3.2346154027230718e+003 -6.9230769035805362e-001
    1.0351994534772446e+004 -3.6927447293799825e-001
    3.0791197696996446e+003 -8.4208982550439937e-001
    1.7166840851824953e+004 -2.0412414523193151e-001
    1.2399868684407478e+004 -2.9488391230979427e-001
    1.2399868684407478e+004 -2.9488391230979427e-001
    5.8881778349092019e+003 -7.7015404621540551e-001
    2.0555037426918202e+003 -1.2465004759661467e+000
    5.2562500728170571e+003 -7.5000000000000000e-001
    9.1760624115433566e+003 -4.3643578047198478e-001
    2.0920656908525762e+003 -6.9652603028348870e-001
    2.6810101166395170e+003 -9.2448623743088210e-001
    8.4100001165072918e+003 -5.0000000000000000e-001
    1.8592730542844160e+003 -1.0611784445853547e+000
    6.3847847315248305e+002 -1.2526628743864880e+000
    9.5017634012605117e+002 -1.0846245913513970e+000
    1.8248145570159102e+003 -1.1066057377860523e+000
    6.0380281976225378e+003 -6.4616234275596429e-001
    1.3048565127444822e+003 -9.9299424392676416e-001
    1.2399868684407478e+004 -2.9488391230979427e-001
    1.7166840851824953e+004 -2.0412414523193151e-001
    7.2115156051466747e+003 -6.8599434057003528e-001
    1.9365341082047723e+003 -7.5987664249025477e-001
    4.8234658714500756e+003 -6.3089326814404489e-001
    6.5671067783927956e+003 -4.6852128566581830e-001
    1.2399868684407478e+004 -2.9488391230979427e-001
    4.9048115641484183e+003 -5.2489065334134200e-001
    1.2399868684407478e+004 -2.9488391230979427e-001
    1.7166840851824953e+004 -2.0412414523193151e-001
    6.8667363407299808e+003 -8.1649658092772603e-001
    2.4237217268181857e+003 -1.0375027546798317e+000
    1.6990765695261557e+003 -1.0101525362365980e+000
    2.2771352162066296e+003 -8.3937206568936817e-001
    8.4100001165072918e+003 -5.0000000000000000e-001
    2.3325143662236846e+003 -8.3205029747100201e-001
    1.0351994534772446e+004 -3.6927447293799825e-001
    8.4100001165072918e+003 -5.0000000000000000e-001
    1.2399868684407478e+004 -2.9488391230979427e-001
    2.6281249871582968e+003 -8.1249999701216757e-001
    1.7520833418217860e+003 -1.2708333382023926e+000
    2.2428660085924453e+003 -1.0134234088337675e+000
    6.5671067783927956e+003 -4.6852128566581830e-001
    4.7032439860118950e+002 -6.9346284389036461e-001
    1.9855680862529164e+003 -8.0272668480097087e-001
    3.5041666473108257e+003 -7.4999999362595804e-001
    2.4524058163747081e+003 -1.2539054621109589e+000
    5.0701303620549845e+002 -1.3202836531204512e+000
    1.8502518078404086e+002 -2.4970699122169506e+000
    9.2150674282048357e+001 -1.6282509204967737e+000
    1.6874084165497482e+003 -1.0834726959212881e+000
    6.4573968730034949e+001 -1.4857387417227639e+000
    3.4741389587643048e+003 -7.0226352153481708e-001
    4.4698646309604183e+003 -7.4409160483382730e-001
    3.8148534334809738e+003 -7.7113565062706224e-001
    3.3204554947338852e+002 -1.8556647801253234e+000
    2.5357104249720282e+003 -1.0552897044120149e+000
    2.8285890947083844e+003 -9.7537554626588585e-001 1. 0.
    2.0373291608600039e+003 -9.4477808289180365e-001
    2.7058731689798410e+003 -7.0783839664438108e-001
    3.7838378502289829e+003 -7.1987402504011244e-001
    1.2340986735851513e+003 -1.2326312584612891e+000
    8.6586076526590398e+002 -2.2753296966719136e+000
    2.0481757020710697e+003 -8.0368368410911883e-001
    2.8846062769456248e+003 -6.8599434550845262e-001
    8.4100001165072918e+003 -5.0000000000000000e-001
    5.0622251923857439e+003 -4.2135048580019224e-001 1. 0.
    1.7166840851824953e+004 -2.0412414523193151e-001
    9.1760624115433566e+003 -4.3643578047198478e-001
    5.4744437825834302e+003 -5.2075564392329543e-001
    4.1233417527927249e+003 -1.3728129355822365e+000
    6.0380281976225378e+003 -6.4616234275596429e-001
    6.1665112720751968e+003 -5.8658846008541310e-001
    3.3613120717057786e+003 -7.1942469027968836e-001
    3.5860360987802433e+003 -6.3960214906683122e-001
    6.8667363407299808e+003 -4.0824829046386302e-001
    2.6810101011678371e+003 -6.6945554824072673e-001
    1.7628277252667131e+003 -9.0132688833468810e-001
    2.5538920372974378e+001 -1.8347937689778215e+000
    3.1663129248554853e+001 -1.7446722950645466e+000
    1.5344263196255756e+003 -2.0799595626140150e+000
    2.3111548454667656e+002 -2.3523763726083500e+000
    2.2476670166771355e+003 -8.0178371779393576e-001
    6.5671067783927956e+003 -4.6852128566581830e-001
    1.7181164189943640e+003 -1.5730673457256756e+000
    8.8160754177995261e+002 -2.0441554121808503e+000
    8.8521412430528619e+002 -1.3893967099827842e+000
    1.6969998990944871e+003 -1.2712365357943545e+000
    4.8234658714500756e+003 -6.3089326814404489e-001
    2.3921408783383977e+003 -9.3865219140057443e-001
    9.0719012996375443e+002 -9.8162071150636354e-001
    2.7518360206785928e+003 -9.4890897872350555e-001
    3.4522343883723590e+002 -1.6501762402873008e+000
    4.4698646290442679e+002 -2.2854242133466744e+000
    3.3472424562813302e+001 -1.5291445497398322e+000
    2.3962739857462196e+002 -1.7779725970666163e+000
    2.2444629390350387e+003 -9.6076891278091214e-001
    5.8890439931619790e+002 -1.2884471912038222e+000
    4.1841313809446674e+003 -6.9652602772140682e-001
    4.9729373191603909e+003 -4.7304991679126612e-001
    2.5782509060588686e+003 -9.5036597197028827e-001
    1.8112217377815873e+003 -7.9685140959401812e-001
    1.8319701442612791e+002 -2.1587186676226544e+000
    6.4192861996370368e+002 -1.4807865858210048e+000
    2.6028296950365948e+003 -1.0522735869215167e+000
    5.9506372997455981e+002 -1.4222093740690644e+000
    4.9986961388566954e+002 -1.5572632435856812e+000
    1.2405263518421361e+003 -7.6703174658691453e-001
    2.6658276978801825e+002 -1.6609913348482275e+000
    2.2107555426665360e+002 -1.4300249736963795e+000</input_scale>
  <output_scale>
    1.0526315789473684e+000 0.</output_scale>
  <inv_output_scale>
    9.4999999999999996e-001 0.</inv_output_scale>
  <weights>
    <_>
      -2.7179352234272202e-003 -4.7425102218403145e-003
      -3.2740211459672486e-002 2.2956098438798676e-002
      2.8154206885489773e-002 2.5322999854680392e-003
      -3.0456614076169700e-003 -1.0410311791883189e-003
      1.5670435574054761e-003 8.1821123127371416e-004
      -2.5527795453547512e-003 2.5641089436358815e-003
      -8.2685058423444275e-003 8.1798001226924596e-003
      -1.0595175625982033e-003 -7.1728281182447569e-003
      6.3529155850837278e-003 3.2295719894517259e-003
      -6.7710341680416834e-003 5.9978176379705470e-003
      -5.5169101479256256e-003 3.1080023278495673e-003
      -1.0257130243294645e-002 2.2560647006881372e-003
      7.4716695853140579e-003 -9.0336543565101776e-003
      4.4084387103589936e-003 3.1710966377360643e-002
      -9.5224043869609667e-003 -2.6742559585002764e-002
      5.3423244753130830e-003 2.5722232867259688e-004
      -2.7134886718174620e-004 -1.3903043980505307e-003
      3.9019091189951569e-003 -1.2360681831844024e-002
      6.6101425022828909e-003 6.4171871232884328e-002
      -2.8738809626508079e-002 -4.8954813309104304e-002
      -4.1159324304458243e-004 -1.0856319003019492e-002
      -2.2743413439328154e-002 2.1143088650500640e-002
      1.6177560745985704e-002 6.1499849989570679e-003
      -3.8471987417438179e-003 -9.6880720679102823e-003
      2.7314397981613513e-004 7.4259738023932870e-003
      7.8486401541171032e-003 -9.8723783845302490e-003
      -9.6036683831615868e-003 3.1575060959182005e-003
      1.6042338135445658e-002 1.9581759693698083e-003
      -7.0689958078154176e-003 -1.5316933813692125e-002
      1.2196509131927504e-003 -2.6032764722124234e-004
      -1.3023308931348848e-002 1.2540680466360105e-002
      5.8214602563931808e-002 -2.9809456423694248e-002
      -4.5639387339542217e-002 -1.3258869469722087e-002
      1.1467858123394395e-002 6.6173274298438001e-002
      -2.7582445593164452e-002 -4.1538954275718111e-002
      1.5808774800895563e-003 -2.9044524544201756e-003
      -3.5087984195990962e-002 2.2200862853295807e-002
      2.9783849360041931e-002 -8.8566876160853739e-003
      5.5652069760948851e-003 2.2234637089980521e-002
      -1.5948084572105111e-002 -1.3997149568766890e-002
      -1.6064897957440875e-004 -1.1332806611370986e-002
      -3.8111697391433837e-002 1.4537022800099809e-002
      1.6390386004577224e-002 4.1805019236110840e-003
      -3.6345695342607648e-003 -3.2807123877157340e-002
      1.0302057825533719e-002 2.7496589514193318e-002
      -2.6475705402403057e-003 -3.2768142548535921e-003
      1.4594615549923182e-003 2.7726996744030317e-003
      1.0141135722079897e-002 -2.1920310583888273e-003
      3.7146134023406784e-003 4.7331498927363994e-003
      5.8732620099530481e-004 5.1957006188286274e-003
      1.4166267406601064e-003 9.2772054306062262e-003
      2.9054822058410260e-002 -9.3717217462780320e-003
      -1.1625686964574972e-002 -7.9281798952643059e-003
      3.0074032850704053e-003 2.4620861473928741e-002
      -7.8443780798785230e-003 -2.1415090487808940e-002
      -8.4169581126762854e-003 8.6367395696621708e-003
      5.3306711301398309e-002 -2.4806153748874557e-002
      -3.8025210893991274e-002 -1.5335807732333277e-002
      8.0468164131013847e-003 6.9696644070214614e-002
      -2.9857687059571304e-002 -5.1518664446518071e-002
      3.0393995659194948e-003 2.7077418430517526e-003
      1.5727473561473138e-002 -1.6876764587309767e-003
      -3.8082039511269268e-003 -7.2528925445396646e-003
      -5.2023712594261315e-003 1.6882086103518824e-003
      -3.3243782856247291e-004 -5.6739353664715473e-003
      -5.9450123767140458e-003 -4.8705381784509543e-003
      -1.1950927315113782e-002 -3.4186624928902978e-003
      8.9241912628195228e-003 -1.0722022907322406e-002
      -4.0483469591754459e-004 2.8429902971186798e-002
      -1.2592214598591655e-002 -1.6908446255792908e-002
      2.2785098140451071e-003 5.5180124732831003e-003
      1.8590370841484582e-002 -7.2060314805197818e-003
      -1.1726307962044829e-002 -4.5702956362657695e-003
      -1.9406153690376281e-003 -2.3272734933108250e-002
      8.0758968047913177e-003 1.5097660274318699e-002
      -2.8011455522340407e-003 -9.0268838183699893e-003
      -3.4192499711566619e-002 7.8797291482660160e-003
      2.6921983058022458e-002 6.7580346902567712e-004
      7.0319505829140698e-003 1.4732865574070726e-002
      -4.3153279911471816e-003 -1.1738444960603212e-002
      1.8380470244713086e-003 -3.1482479761719682e-003
      -2.0308846039383648e-002 9.9649189691442350e-003
      1.6648964607717552e-002 9.7037236895310304e-004
      1.9890553559183204e-003 9.5802516880525001e-003
      -4.4775741673659759e-003 -9.9204054380376844e-003
      1.8403612994972913e-003 2.9726794127271478e-003
      -1.0018903669597904e-002 -6.8463649045719696e-004
      3.4901104791762259e-003 -9.1999225343788807e-003
      6.5494589064074892e-003 2.6861850470767345e-002
      -5.9685310076337088e-003 -2.2207806549519718e-002
      -4.5403965041705590e-003 9.3548708587608157e-004
      2.2868375062999262e-002 -9.9925445421357780e-003
      -1.2208388165445738e-002 4.1229727161610748e-003
      -7.4524862742664954e-005 1.7130965588304580e-002
      -9.2186737639241151e-003 -1.7416559270663864e-002
      3.3097015972131352e-003 4.5973483634268791e-003
      -6.3926291824949319e-003 4.0329332788785468e-003
      8.4512043962944768e-003 -3.8229778824438402e-003
      1.0108509855529066e-002 7.3353141217090259e-002
      -2.5061910163681627e-002 -5.7385328360506936e-002
      -1.2402704310747581e-003 -6.2477884843926126e-003
      -5.5069245938685112e-002 2.3608292198580492e-002
      2.8270743465863526e-002 -1.1606676432360870e-003
      -1.3524056865769213e-002 -3.5359263796652732e-002
      1.1033071728759199e-002 2.5328794630881286e-002
      5.0778849743320009e-003 -6.0009958030102324e-003
      -1.8305227704127583e-002 5.2183693011452134e-003
      1.1365490354254918e-002 7.8513953744213591e-003
      -6.4060978651993570e-003 -2.0373188707618482e-002
      1.2237673513378225e-002 1.5335002814196559e-002
      -2.9879286447803931e-003 -4.5718918648577191e-003
      -3.1150879807084694e-002 8.2624942940744024e-003
      2.5620987699247866e-002 9.3149686962944297e-004
      1.1990234131160583e-002 4.6093356591281616e-002
      -1.7505850452670411e-002 -3.8093059530070243e-002
      -1.2535824907892173e-003 6.9617908065967224e-003
      -1.5869906050104054e-005 5.3237969927423115e-003
      6.5682026203565808e-003 -1.3561986188218579e-002
      5.3502720029606895e-003 6.0666555033624094e-002
      -3.4887115189964152e-002 -4.9564769244468336e-002
      3.2830301280287475e-003 -4.3262827318900398e-003
      -2.2645846998599652e-003 -6.5701032125088888e-003
      3.5430174613014240e-003 6.8396853002386290e-003
      1.3765791897089885e-003 -1.9170284160160263e-002
      2.4560356547511301e-003 1.2884482937944770e-002
      -4.2189448778370874e-003 6.6465647114716687e-003
      1.5017723444425025e-002 -1.6013385774657329e-003
      -1.1051092842218540e-002 -9.1901579481794054e-004
      5.9037178974491924e-003 4.2956416905390961e-002
      -2.3540450645747561e-002 -2.7146910126585957e-002
      3.7480161047337185e-003 -2.3628566188499188e-003
      -3.6121571320786444e-002 2.0661544301489535e-002
      2.1315068795471775e-002 2.7936083209672822e-003
      6.3997875145422644e-003 -2.5602962824307759e-003
      5.3338420359837152e-003 1.3493420722325796e-003
      -1.0205636407281197e-002 8.4588602852106679e-003
      1.1498239682453011e-002 -1.6008858440211673e-002
      -1.0866900927112485e-002 -8.2004884854924229e-003
      1.6079521011032522e-002 5.4843046500848390e-002
      -1.8033418348804512e-002 -3.0807298415345151e-002
      2.0144096034950105e-003 -4.3028825436757122e-003
      -4.1534330143413831e-002 1.2748580570879804e-002
      2.7389846011130203e-002 -4.2696493310654331e-004
      -1.3634425577807417e-002 -3.2924498803201974e-002
      1.2231765596153304e-002 2.8383590104347309e-002
      5.8685590792585084e-003 6.2543798860456527e-003
      -8.9491475280913269e-003 7.2945695438356292e-003
      1.0831689964335780e-003 4.3922504625655287e-003
      7.6363827554092132e-004 -1.8256720250012431e-002
      1.1483095276932191e-002 1.8969058705004066e-002
      3.5769423047559879e-003 -5.1406428089286428e-003
      3.2690404496648752e-003 -1.3771027632236740e-003
      -1.1535718482158315e-003 -3.9736653023395765e-003
      4.4137357850214370e-003 2.4813264162328432e-003
      -2.0236387791422641e-003 4.0478835407669602e-003
      -1.1116389331910406e-002 1.2591187973213781e-002
      5.8669613012228887e-002 -3.4074668473645799e-002
      -3.6276131285228025e-002 -6.6584053512512252e-003
      1.2024049836457915e-002 5.6573111325070487e-002
      -3.1018413685920378e-002 -3.9311909957503409e-002
      -1.2966266458243603e-003 -1.9253844891093184e-003
      -1.6783134550206198e-002 5.6568815632088779e-003
      1.7397209221125042e-002 -8.3078958455908621e-003
      7.7751777806581773e-003 3.1290718202542464e-002
      -7.8276893440441756e-003 -1.4486744716862600e-002
      7.0321854539818754e-003 6.5373085142907033e-005
      1.2874719787764448e-003 -8.3242183956447899e-004
      1.0347290079880719e-002 -1.0447901443664767e-002
      5.6658191552939782e-005 3.8358436362361602e-002
      -2.3198031167559228e-002 -2.5253497921076777e-002
      1.0725597966514818e-002 -1.7051593257983420e-002
      -6.8334360489567758e-002 2.4690800001332829e-002
      3.8323547321969888e-002 -2.9362039299620562e-003
      -3.3632910559427778e-003 -2.3325093497793204e-002
      2.7810933028943273e-003 1.3488063215367481e-002
      -2.0657261972755361e-003 -3.7027136463111099e-003
      -2.6838788551296264e-002 7.6001837992345032e-003
      1.1836746794346181e-002 -3.8021488032853579e-003
      -6.8869946480179575e-003 -7.6398088969232836e-003
      4.3591866742102520e-003 1.3124728740564860e-002
      6.2416077948028448e-003 -5.6094946812779145e-004
      -3.6614949496123327e-003 8.4758667403631168e-004
      1.1346032304982405e-002 -6.9930109589227323e-004
      -8.3627499967383109e-003 -2.3557836627675421e-002
      1.5619914047183383e-002 1.9285570595266401e-002
      -1.7081751024969160e-003 -9.3568034919672433e-003
      -1.0902968286138215e-002 5.2959434051964528e-003
      6.7668873250152058e-003 -1.7923228582602548e-003
      2.6996296110272382e-003 1.7217047966743060e-002
      -1.1005306756078548e-002 -1.4057609186903545e-002
      7.8759803573120093e-003 -3.9171439981225235e-003
      -3.6931284472245737e-002 2.1339683326971857e-002
      3.6268012317564914e-002 -5.2092014812163640e-004
      7.9808761460653738e-004 -2.3672481457402000e-002
      1.7369743994448201e-002 1.8206347168822148e-002
      4.8022582308872800e-003 -1.6904475255290464e-003
      -1.1304006256933558e-002 3.2372574055917380e-003
      1.6500232587950820e-002 4.3697284407350004e-003
      2.0073914476245115e-003 -3.3569275067701722e-002
      1.4970895112211622e-002 1.6294264907934602e-002
      -1.4344127359126834e-002 1.3913048683701355e-002
      6.9909039162399336e-002 -2.3657933977324189e-002
      -5.1190123088657211e-002 -7.1897949589766500e-003
      7.2471762560002064e-003 1.1994596066420265e-002
      -5.9871398113207144e-003 -1.3661914689174000e-002
      -2.1089939472170647e-003 -6.9319922780708134e-003
      5.0316840164792770e-003 -4.6365364232406562e-003
      2.2834371368646018e-005 -2.7842216008800596e-003
      2.8682932137384442e-004 -2.3882035200993631e-003
      -6.3017861680910560e-003 3.5502525826650137e-003
      -4.8791238320602488e-003 4.7003068834305011e-003
      -2.1130797814276053e-003 4.8673656452603098e-003
      3.0038251647905977e-003 -3.6492611815449215e-003
      7.0696655717327412e-003 1.2524496395263040e-003
      3.2195857867874382e-003 5.4422400279776273e-003
      9.5070919959611422e-003 -1.4264110813495972e-003
      -2.5740144516460364e-002 4.3015087233449810e-003
      8.6182476773228271e-003 -1.2292659363989146e-003
      -1.0675565179527678e-003 -5.3447830110557272e-003
      -2.4038019197390194e-003 3.4829691062643461e-003
      -1.1413046643000756e-002 1.1359781590484430e-002
      7.0617810432086633e-002 -3.5226230387029794e-002
      -4.8097955842238256e-002 -2.2679785475467995e-003
      7.6979058270508233e-003 5.1413571459266328e-003
      1.7062267641747446e-004 -2.3634004076865012e-003
      -4.3109191911828524e-003 -5.7857126670458796e-003
      1.7454600605872133e-003 4.7965672967278305e-003
      3.4398852522238015e-003 4.7442631411830725e-003
      1.0271291817270977e-003 -8.4146491932485835e-003
      1.2640676862247473e-002 5.5609630593678452e-003
      -9.1034860506961114e-003 -1.8789145315821888e-003
      3.1483295729353510e-002 -1.0431193205580270e-002
      -2.4168406169578802e-002 -1.9231048420717232e-003
      -6.4051504307084560e-003 -6.9590129363939694e-004
      -1.4383618924460138e-003 6.6519743055256236e-003
      2.7669667177336148e-003 -8.6796033234456619e-003
      -5.3617202906454130e-002 1.5269288566039891e-002
      3.3020391918882799e-002 -6.9380526041376497e-003
      9.9923408137673250e-003 3.1485692792207157e-002
      -1.3760084114577856e-002 -1.7230417879280584e-002
      -8.2622088129499279e-003 1.1318585198243586e-002
      3.3860398687905885e-002 -1.4823606696591784e-002
      -2.2057453343933352e-002 -2.0397653198449303e-003
      1.5470711278292051e-002 4.2321757284397771e-002
      -2.4374129174500853e-002 -2.7702000620319467e-002
      -1.2795421605392304e-003 1.1641252364666827e-002
      3.8896250861621857e-002 -1.8895871118437688e-002
      -1.8291277029846471e-002 -8.5870887781115375e-004
      1.2788271237818360e-004 3.4093655406799726e-002
      -4.6466026202743290e-003 -1.1841668374977724e-002
      8.4838735344609558e-003 -9.7235465842053226e-003
      -3.1971588207645896e-002 8.5204147874727628e-003
      2.0160219436444905e-002 7.4671814035451910e-003
      -1.0067404319201944e-003 -7.5868878885895288e-003
      -4.2868901328643053e-003 -3.0042527975232178e-003
      8.0657078092882233e-003 -7.0872017624396240e-003
      -3.6053944265562944e-002 1.6572591409568176e-002
      3.0731395325790820e-002 2.3464150176781269e-003
      5.9235175261813672e-003 7.4593368325793904e-003
      -3.0569291877518352e-003 6.2527894947975041e-004
      -4.0406749658607136e-003 -2.8785775106411230e-004
      -1.6776954443450298e-003 -2.4244848230557427e-003
      9.0632082949766591e-003 -7.7426840759225396e-003
      -3.4281672044898836e-003 9.2347202075856484e-003
      5.8098879419932531e-003 -9.8144035410592067e-004
      3.6199641988178538e-004 -6.9387311667155485e-003
      -1.6357918696314314e-002 3.4524820661489784e-003
      1.2145744682812641e-002 1.6323866534905973e-003
      4.5397100552812342e-003 -7.1072474114771298e-003
      -6.5245403559537566e-003 -2.2773417722083385e-003
      5.9147195798138685e-003 -1.4499234848907963e-002
      -4.5600920432238998e-002 2.2589666284722084e-002
      2.9930181352628118e-002 6.1665385044657158e-003
      -9.9741933552418877e-004 1.8833348729486519e-003
      3.3794616986747572e-003 -1.3133641430882639e-003
      7.8961090199947855e-003 1.6225031806518735e-004
      -1.0193802831880081e-002 4.4570902884835447e-003
      -2.1911888902465038e-003 1.1636535117018260e-002
      -4.9716039547773498e-003 -5.3051346051949375e-002
      2.6365837504713992e-002 3.2960609930557369e-002
      -1.3386455894358917e-002 8.6363817596844580e-003
      7.4544829203455329e-002 -4.1176977909568049e-002
      -6.3307254513700950e-002 5.8043403651031091e-003
      2.3569059941204261e-004 -2.2234934423716458e-003
      8.3458019505674545e-003 8.1737211385454703e-003
      -6.6344235136290945e-003 1.8110559207519410e-002
      8.0636262717048643e-002 -3.7887356950153328e-002
      -4.4426749718053715e-002 -8.4953740236187059e-003
      8.7015044042496950e-003 5.3980300603008180e-002
      -1.7045127775810257e-002 -4.3816620871681686e-002
      4.6732843545157967e-003 5.0962899614578070e-003
      2.4418243048970434e-003 8.2799632021857902e-003
      3.6158185115780033e-003 5.9872659726057445e-003
      6.2361375212236056e-004 -8.0275293387463646e-003
      -4.3512862047594424e-004 2.7698780235781272e-003
      -6.2101069967662815e-003 -2.0569743289361128e-003
      2.1135978065683829e-003 -4.4356017559590722e-003
      -5.4832993406313179e-003 3.0189268474038787e-003
      2.8767371924948589e-003 1.4828696846769733e-002
      -9.9744809556315140e-003 -1.6847904771697321e-002
      -2.3849416494436666e-003 5.8506188314226921e-003
      3.5976582770203505e-002 -2.1619367453833870e-002
      -2.1626328349985676e-002 -8.9594324299905595e-004
      -4.1239876585260748e-003 8.6212518665965878e-003
      3.8529741643971442e-003 -1.6240652479991076e-003
      -7.7708593381886791e-003 1.1936001165028879e-002
      1.0589657563776388e-001 -4.7766780016271201e-002
      -6.9667157443947317e-002 4.5387382503005898e-003
      8.0554784285386625e-003 2.3967904316866694e-002
      -1.5073485121908772e-002 -9.0513953420485738e-003
      -7.5862865724994830e-003 3.2344787553391873e-003
      9.0642309245428307e-003 -8.6392667091968241e-003
      -3.3677154627875967e-003 -1.6293151639462629e-003
      4.9828038997079905e-003 -5.7142965264107290e-003
      4.5771168912927844e-003 1.0892217771649034e-002
      -8.9822139361849032e-003 4.5123753960768613e-003
      5.5795117069661504e-002 -3.3770203017755428e-002
      -4.6397515720000275e-002 -6.7839254592983464e-003
      1.5656339322174411e-003 5.1028525941413549e-002
      -2.6808456110163328e-002 -2.5432245529024275e-002
      7.0882757744553495e-003 -4.7825683660841847e-003
      -2.2005888952995940e-002 1.1605911569728962e-002
      1.9097751284518287e-002 2.1148527522472948e-003
      6.1087553707467575e-003 1.4141934605647961e-002
      -5.8546418796587459e-003 -1.6370511634731515e-003
      5.1496131210866025e-003 -5.7661791114486478e-003
      -1.8602003826873503e-002 1.2136402651914418e-002
      2.4704478487903928e-002 8.7201649911496960e-003
      -8.7160494520841583e-003 -5.2938515253517726e-002
      2.3360749384045747e-002 2.7019554939759199e-002
      8.8290780613851892e-003 -6.4778452195537041e-004
      -1.7933776601951619e-002 1.5865690043911241e-002
      8.8592002309825120e-003 -2.6459220631436728e-003
      1.1611257791233147e-002 2.5099787562146564e-002
      -1.2445547105366564e-002 -2.8570241778939340e-002
      3.2881880271371853e-003 -7.3714583517409584e-003
      -2.9238526874081103e-002 1.5662083706895029e-002
      2.7338245003036079e-002 2.4970488681238987e-003
      -1.7730788044438696e-003 3.6222948167490561e-002
      -1.6306490027893146e-002 -2.9580596866356595e-002
      4.2205486233907793e-003 1.0376921871730149e-003
      -6.5919086902367285e-003 6.2749252361942323e-003
      1.1178482962118276e-002 -2.3484371343150748e-003
      3.7382522469906363e-003 5.8039494342885037e-002
      -1.8000895012231496e-002 -4.0647997157432475e-002
      6.1259406442253838e-003 1.2802327465280627e-003
      -1.2440170574969055e-002 2.5599233197539624e-003
      -2.6539696705075983e-004 -5.2276283989797553e-003
      -2.8153390461349865e-003 3.9573463877978447e-003
      -7.0095547744790420e-003 -7.0961643463970958e-004
      4.8994602206763839e-003 4.0415953866785523e-003
      -7.6120037679077200e-003 4.8427590463164354e-003
      7.1304297292884350e-003 -2.6067851816722470e-003
      5.7335031005192475e-003 4.3573275159793638e-002
      -2.2716548149311004e-002 -2.8910153791390641e-002
      -8.8045453312432173e-004 3.1484225169172652e-003
      -1.2753827355291408e-002 8.2846417338924283e-003
      8.1044186556815112e-003 -5.8489283415075841e-003
      1.5129195248350356e-002 6.5940642706528815e-002
      -2.6420475848298878e-002 -5.3499966750245695e-002
      1.0114366054172956e-003 1.2573638396895024e-002
      3.6488966192302366e-002 -2.2025064786734588e-002
      -2.2850854463701439e-002 -2.5672136923202246e-003
      3.4886734364906855e-003 -2.4268348975643773e-002
      1.3690411723028637e-002 9.9339356468145425e-003
      -2.5287827645389515e-003 -4.4518667314151885e-003
      1.1453173206710781e-002 -1.6325896456664823e-003
      -5.2903381332740093e-003 6.3783516816779840e-003
      -4.2513476698706034e-003 -6.9491030123591110e-003
      7.5814168392951010e-003 1.3154537255693122e-002
      2.8417221122857802e-003 -4.6439187620758048e-004
      -6.7224788622348769e-003 1.7608210507133863e-003
      1.4936286507113464e-002 -1.5036841665959804e-003
      -6.3197476673354459e-004 3.2300396563561956e-002
      -1.7410995061361116e-002 -2.4795499649305355e-002
      5.1978695811159123e-003 1.8462901835005550e-003
      -8.3055222763136951e-003 4.3650305047417282e-003
      -7.2863473716910125e-003 -1.0894512925381582e-003
      6.2542162801928715e-003 5.0765699760374226e-002
      -2.6142572950569400e-002 -3.9668962050543002e-002
      1.5902469720157044e-004 -4.4172816752063582e-003
      -1.8943033143444327e-002 7.1747679657253862e-003
      8.8040407295687812e-003 8.4396799038868996e-003
      2.9494038208233056e-004 -1.5422379926647309e-002
      1.0351567091878084e-002 9.7634610015715183e-003
      1.1641179405190570e-002 -5.6468906246094873e-003
      -5.1356591240424791e-002 2.6180137329579505e-002
      3.4468360994237141e-002 2.1532107796991772e-003
      4.0246955549777617e-003 -3.1720278346178819e-002
      7.8640242975216348e-003 1.7359157978446751e-002
      -1.0987111526009407e-002 1.0511149015812076e-002
      5.6720358314406007e-002 -2.5291028264743613e-002
      -4.6256576708881732e-002 -7.6090312000302507e-003
      3.7250626238988672e-004 3.3710721826228501e-002
      -1.8824445776642485e-002 -2.2217825637106624e-002
      -5.3772625323035084e-004 3.2576963507402234e-003
      4.0155378844039857e-002 -1.1718953875772237e-002
      -2.2086994327009921e-002 -1.1521110082833639e-002
      1.6587655613717760e-002 6.7847274753529474e-002
      -2.7151096371843101e-002 -5.4272676590228663e-002
      1.5327573592880638e-003 -1.5161142733355275e-002
      -4.8327915171021356e-002 1.3888456144069469e-002
      3.7134238734739360e-002 6.8335990149440860e-003
      -3.4419957569347963e-003 -2.3588235481133545e-002
      7.2740748525586532e-003 1.1121500144013332e-002
      -9.0889244539731056e-003 -1.0727177420008572e-003
      2.1837550268381405e-002 -1.3176165784858239e-002
      -5.2067264153782301e-003 7.2465386141880731e-003
      -1.0328049255685649e-002 -2.8729872998056682e-002
      1.0258046153547818e-002 1.9962956055388292e-002
      4.9218745078813018e-003 -8.2339947772589687e-003
      -7.2565706097743373e-003 7.7611181791366864e-003
      3.8408325993084004e-003 1.1685638567039331e-003
      2.9591777239970692e-003 -2.6488564574388109e-002
      1.2206213272261682e-002 2.0445736460588854e-002
      -8.7683781099842097e-004 6.8139577607199599e-003
      3.2487754226876928e-002 -2.1524657123964432e-002
      -1.6697963238868675e-002 -5.4964025171411832e-003
      1.3050371713791786e-002 9.5008339906943004e-002
      -3.6096754717385111e-002 -6.6292552765064447e-002
      2.8756398523680005e-003 -6.8326517847451642e-003
      -1.8601184076116852e-002 1.3851711916573447e-002
      1.9117448898785187e-002 -7.3740993346056835e-004
      1.9807119410801661e-003 -6.5427232542333916e-003
      5.5628194244020397e-003 4.9880009810238614e-003
      -7.7256700893181605e-004 -2.7434561054744820e-003
      1.0115225078558759e-002 4.7607309858977934e-003
      -3.4505558017751442e-003 7.1970506553634154e-003
      -9.5585118698298215e-003 -2.1915747418990699e-002
      3.6522503231867882e-003 2.0558552833247160e-002
      -3.3102747761757428e-003 7.1346642357934115e-003
      3.4982426970576151e-002 -5.7098149677865971e-003
      -1.5831595837739337e-002 -7.0807374718694525e-003
      -7.6150827454012364e-004 -5.0190061984594506e-003
      -6.0000104819134146e-003 7.8044493192304699e-003
      -4.2908698817244808e-004 9.2247755794343852e-004
      -1.7540607727750925e-002 1.3590949369622888e-002
      1.5727598439522174e-002 3.1772508526610897e-003
      -1.8493071717054247e-004 1.8384016348160236e-002
      -1.2568752036198583e-002 -1.7290201224433217e-002
      -1.7230777517836958e-003 -4.4927094599281634e-003
      1.1150980864676953e-002 -8.7050395427183281e-003
      9.0806932093006449e-004 1.1733712328771868e-003
      -4.0455047651008101e-003 -6.4870338894505705e-002
      3.3156948359171434e-002 4.3155627869295700e-002
      7.0865993884787655e-003 -1.7050661597598630e-003
      -3.7008594662378692e-002 1.3725709123315499e-002
      2.2864964054301586e-002 7.8747413910281658e-003
      3.1444447869044463e-003 -2.1615461405654547e-002
      1.6625295379012490e-002 2.1005985794065082e-002
      1.0386614688825072e-002 -1.0357910401910730e-002
      -3.7806359945987113e-002 1.3958317593400585e-002
      2.2173125592337396e-002 6.0227824362301180e-003
      -8.0327713906163840e-003 -6.0929999040020826e-002
      1.9444828712446287e-002 3.5134258954511062e-002
      -5.4662272478883157e-004 -5.6592303467849203e-004
      6.2074551792380495e-003 2.4371064355281939e-003
      -2.4582396323403065e-003 -5.3237214253518137e-003
      2.0918121719278948e-003 5.0464761061393602e-002
      -1.6980660208660039e-002 -4.0431914214903525e-002
      -2.3522843205404857e-003 -7.8333680888930095e-003
      6.5457970345068782e-003 1.4919769398255406e-003
      -1.3438417241880454e-003 7.7088066003492030e-003
      -8.1286015315742727e-004 -2.7721366490228980e-002
      1.5867334033630966e-002 1.0887944729025800e-002
      -3.8103822547048576e-003 -6.3443848851396593e-003
      -2.9486628956492802e-002 7.8989792752922894e-003
      1.1329165446885546e-002 8.2731420440008280e-003
      -5.8489373022138661e-003 -3.8919189113093410e-002
      2.2562804620410069e-002 2.7316465062704985e-002
      -8.1389122610359046e-003 9.5177706656077582e-003
      1.7988113270286526e-002 -5.6602995220500427e-003
      -1.2868733586846598e-002 -4.5219239544019374e-003
      2.2730448891817880e-002 9.7793708830309745e-002
      -3.5961614438066287e-002 -6.7955045183358001e-002
      4.5792458082866685e-003 2.4633222842068031e-004
      1.0791162322305222e-002 4.9113610763879701e-003
      -4.1881787254588543e-003 -8.4847075750963546e-004
      9.4850430615513598e-003 1.1625476297799257e-002
      -1.2222740148411126e-002 -1.1007798894887814e-002
      -1.0621177287468463e-002 9.0111323808722277e-003
      3.0943205354157930e-002 -7.3543400774376379e-003
      -2.1411921845786438e-002 -1.3559450681637969e-002
      1.5672771306996146e-002 5.7988129901723307e-002
      -1.8035275102821571e-002 -4.0751730074271561e-002
      1.0088607993718616e-002 -1.0992894405118544e-002
      -2.0753737426737383e-002 2.7357510908089791e-003
      1.6073439580865559e-002 3.3244822568701217e-003
      6.6292182647920720e-003 -8.5794602689314326e-004
      1.9350787678538430e-003 -8.7419387490473739e-003
      3.7926225839501650e-003 -5.1563614284276223e-003
      -2.3566396257063749e-002 1.5277853348439188e-002
      1.4175331218591358e-002 6.9296530386573699e-005
      2.6718256275272238e-003 3.9219370041844309e-002
      -1.6828539010174941e-002 -1.9118756147591186e-002
      7.8577029095057947e-003 -1.6157122837975695e-003
      -3.9062536551519964e-002 2.1971795073353877e-002
      2.9030415571274379e-002 6.1386223223454115e-003
      5.5843384241870348e-003 -1.2849988980389139e-002
      6.3138683520149721e-003 7.5346687943635051e-003
      2.3414007876573989e-003 2.0637046515273177e-003
      4.3292305747939771e-003 -2.7671548782762147e-003
      -1.2708747578165352e-002 -6.8841948863524018e-003
      1.1697984069457089e-004 2.4772527315476769e-002
      -1.1978858288879547e-002 -2.7917643083467929e-002
      4.4304700538290052e-003 -7.6275123518313873e-003
      3.2679098775335175e-003 -7.1429102033203455e-003
      -5.2674070397282146e-003 -7.9475069873480488e-003
      8.3915948842873695e-003 6.1110993553695474e-002
      -2.5883976890617517e-002 -4.0059334189583989e-002
      3.7222188804149313e-003 4.4884672169983597e-003
      -2.0383779372011464e-002 7.1267862178475980e-003
      1.4638160785959265e-002 -7.5425412102540128e-003
      -3.4434775037343315e-003 1.5695765147148322e-002
      -1.1545709231661509e-002 -1.5300620686830408e-002
      -1.6881993775038123e-003 3.1022421186323035e-003
      1.3746145229997931e-003 6.5603184195501454e-003
      3.9088458000071579e-003 -1.3501176742252599e-003
      -4.8490297831566189e-003 -2.4697665645462975e-002
      1.2948795964321004e-002 1.6331775134273044e-002
      -1.2412068791543443e-003 2.0362878612208179e-004
      1.2724960366693697e-002 -6.4724161958446746e-003
      -1.0718871088175425e-002 3.5515594145691136e-003
      -2.9648350571396799e-004 -3.0604320656352733e-002
      1.0099684622134262e-002 2.0976888350882093e-002
      -5.8449911914874614e-004 -5.3011361332216799e-003
      -3.2355342168746956e-002 2.0624260678800001e-002
      2.7380248159174975e-002 -1.1589958668681755e-003
      -5.9269763284022191e-003 1.2659031159641792e-002
      -4.5142910948319922e-003 -3.5874723915116690e-003
      6.6959282244093317e-003 -4.9222077052977035e-003
      -3.6313365349712177e-003 1.8951940240312423e-003
      7.1669329821276795e-003 2.0728899919887659e-003
      -1.0073590194753616e-002 -1.8237930102004751e-002
      1.0465724792383113e-002 1.3364779618662743e-002
      -4.1350660601841161e-003 2.6400439838918132e-004
      -1.4340797993491297e-002 7.5074975358196603e-004
      1.4457838195540590e-002 4.6100046720482816e-003
      -2.0094540622947964e-003 -2.7382865156289956e-002
      9.9784839094404585e-003 1.4758202024938957e-002
      -8.8598192958073800e-003 -1.4528815909300812e-004
      2.8138342308095188e-002 -7.8966469557438992e-003
      -1.9681746200840636e-002 -1.3760261900902940e-002
      1.5787660509411522e-003 4.6719580873265124e-002
      -2.0697570096997710e-002 -3.2216162096575233e-002
      6.3409164677968892e-003 4.5234169047598726e-003
      -1.4360007041353418e-002 -7.8307552622859959e-004
      8.9103614322912326e-003 -5.2538185020468663e-003
      1.0672144229796163e-002 8.1599281188179995e-002
      -3.7090430536585860e-002 -5.9601857415632425e-002
      -3.0225115291305526e-003 3.4538632414927934e-003
      5.9050347228281577e-002 -3.0667601384864716e-002
      -3.4650583139544319e-002 9.4514554924529908e-004
      1.2921517066806028e-002 3.8285789485555624e-002
      -2.0516343206351661e-002 -2.5780566610009690e-002
      -1.0273681406431015e-002 9.1403730917072584e-003
      4.6417931251427312e-002 -2.2602201381025189e-002
      -2.4894997275687631e-002 2.5478202920158344e-003
      -3.4776917107438481e-003 1.9560848870342849e-002
      -3.4634587803485891e-003 -1.3670239804353427e-002
      3.2151914694190840e-003 -7.7280705917755019e-003
      -6.6016991858934230e-003 -5.2208587531137338e-003
      4.1851818214336825e-004 9.2525898266465839e-004
      8.5924528137515960e-003 4.6474524962553082e-002
      -2.3087120190174493e-002 -3.5109070435877063e-002
      -3.7566353890974955e-003 -3.6304261394206768e-003
      1.6895150073338291e-002 -9.3077640187554031e-003
      -1.3901393107365559e-002 -1.3653995041845916e-002
      1.0711877325617659e-003 5.1196845396360754e-002
      -2.8268097478347822e-002 -4.0499113596408412e-002
      2.8497873908749725e-003 2.4245038854312892e-004
      -1.0834499448785128e-002 9.2221760249511665e-003
      1.0144157694106251e-002 1.3138221363858450e-003
      -4.7324266220797493e-003 -6.2080690652464646e-003
      7.1121213266278965e-003 4.2947740950232318e-003
      -7.1018537750286229e-003 -4.5275609051834134e-003
      7.4599271155909004e-003 -1.4990791217070331e-003
      6.9257561765161710e-004 5.0794668187273719e-003
      -7.0448637535368919e-003 3.4694446183797098e-003
      -2.0982339076187221e-003 -1.8660943405893122e-003
      2.9166411097247737e-004 -4.8437302673818281e-004
      1.2370337504467019e-002 4.4039071086476379e-004
      -3.8674526224870085e-003 -5.4879238710194220e-003
      5.7972635383187580e-003 2.4465342238301376e-002
      -1.5520257121125368e-002 -1.4830901891341824e-002
      5.7213756271448368e-003 -8.2418900117891322e-003
      1.4773694130873231e-003 7.7783325955583281e-003
      -7.2548076283393656e-004 -7.5602601426943295e-003
      -1.1032224903256339e-003 1.5491305910120169e-002
      -1.0052570751269099e-002 -1.9281256216745205e-002
      -6.5423675335493118e-003 -3.1903696574167042e-003
      2.3627392763676407e-002 -1.3169931561937232e-002
      -2.1530303140660158e-002 -1.5004751650913512e-003
      -2.8648219194849149e-003 1.9614110846422301e-002
      -9.5623076981578574e-004 -7.2275144080301097e-003
      2.7521798212977256e-003 -7.1466858618642578e-003
      -1.5996704030572507e-002 7.5302171186803317e-003
      8.2872759038965151e-003 5.5215192493448598e-003
      4.5316451463165413e-003 6.7914459541371297e-003
      4.1244079269220872e-004 -4.2530805626418726e-003
      -1.3499891351214162e-002 9.6044705846873562e-003
      6.6577528341776604e-002 -2.2879848811481557e-002
      -3.8638818354783569e-002 -9.0019430807248921e-003
      1.2077485149599250e-002 2.0673119627055415e-002
      -1.4653066604597245e-002 -1.2033441295734188e-002
      -7.0027748745794009e-003 7.1403705442601658e-004
      3.4734268804875131e-002 -1.8125972191394106e-002
      -2.3248086173979606e-002 -9.6124167115940080e-003
      4.9485866190254388e-004 3.4119252971701632e-002
      -9.5404578886363195e-003 -2.6983760946403344e-002
      -6.9846979914705521e-003 -2.2711405850958698e-003
      3.0321004769729053e-002 -1.6147206045493610e-002
      -1.6940945393410158e-002 9.1846952488283378e-003
      -6.8018054543292203e-003 -4.9775168290428953e-002
      2.4174059299856061e-002 2.6548463579969414e-002
      -7.7596115833414130e-004 -5.8717043111067872e-003
      1.6697326664159552e-004 -1.2364821191271980e-003
      4.1161921576406820e-003 2.2223018552557142e-003
      -8.4818178598896656e-003 -2.1070851577478816e-002
      6.9974358410937517e-003 9.2419462250665843e-003
      3.4459601837048834e-003 8.1025386887697073e-003
      2.5919025564567169e-002 -1.6535785799268149e-002
      -2.2450515200857189e-002 8.3995573477230519e-003
      4.4275472909567739e-003 -1.4967485180992229e-002
      2.0113132111588931e-003 6.8848429041789413e-003
      1.3054023120801274e-003 -6.5351845129426357e-003
      -1.4781737207696584e-002 -1.3371547712427647e-003
      1.4074814618133279e-002 -5.9730949328861381e-003
      6.3165536059313068e-003 3.4388118150781369e-003
      -2.9331819721265802e-003 -6.9472560727355142e-004
      -6.2735222584751373e-003 9.0755737306080185e-003
      2.5987696011770707e-002 -1.4627324511591053e-002
      -1.4471695331650087e-002 9.2280789697903182e-003
      -2.4541783077259021e-003 -3.6553964250151123e-002
      1.9340295014714223e-002 1.5663659963616634e-002
      -8.5716847619058990e-003 5.9412281933081618e-003
      2.5610810061640746e-002 -1.1553017138024693e-002
      -1.6373238087254171e-002 4.5488984618928915e-004
      4.6221173964000740e-005 -1.0243341754938773e-002
      8.5128501734907311e-003 7.6666484850225758e-003
      -1.1870815938838535e-002 1.1498969658802939e-002
      -1.9836251514557764e-002 3.5995438241133888e-003
      1.0728132362812549e-002</_>
    <_>
      -9.2348102339229979e-002 1.2043066549526452e-001
      9.5921174078960258e-001 -3.4214348404669431e-001
      -5.8226312238283906e-001 -7.0581777785516131e-001</_></weights></opencv_ml_ann_mlp>
</opencv_storage>
