<?xml version="1.0"?>
<opencv_storage>
<opencv_ml_ann_mlp>
  <format>3</format>
  <layer_sizes>
    256 6 1</layer_sizes>
  <activation_function>SIGMOID_SYM</activation_function>
  <f_param1>6.6666666666666663e-001</f_param1>
  <f_param2>1.7159000000000000e+000</f_param2>
  <min_val>-9.4999999999999996e-001</min_val>
  <max_val>9.4999999999999996e-001</max_val>
  <min_val1>-9.7999999999999998e-001</min_val1>
  <max_val1>9.7999999999999998e-001</max_val1>
  <training_params>
    <train_method>BACKPROP</train_method>
    <dw_scale>1.0000000000000000e-003</dw_scale>
    <moment_scale>0.</moment_scale>
    <term_criteria>
      <epsilon>1.0000000000000000e-004</epsilon>
      <iterations>300</iterations></term_criteria></training_params>
  <input_scale>
    3.6840880688688252e+001 -1.9766970472921068e+000
    7.2554809340365011e+002 -7.7374278648284252e+000
    5.0621725033757559e+002 -3.3713290022829034e+000
    7.8708505172139587e+002 -9.4299548942846645e+000
    6.8033677284068153e+002 -4.1822505420812313e+000
    3.7634138665788109e+003 -3.6251726587775344e+000
    7.0715395221659037e+002 -7.1173520795490166e+000
    4.1545935182429145e+002 -8.0528536838116747e+000
    3.8260340923526849e+002 -2.4968055833626428e+000
    3.3238034457161248e+003 -3.3212177563267913e+000
    2.7541983355105745e+003 -1.9976486061524232e+000
    3.5979860600204020e+003 -3.0412672103378329e+000
    6.5349926308586953e+002 -6.3306152476308331e+000
    3.5734764371518281e+003 -4.3778117616927235e+000
    2.5249773121515287e+002 -6.0262624783247221e+000
    1.6937826833899572e+002 -6.0245554490099993e+000
    6.2052693796528206e+002 -6.7961469570945319e+000
    5.2973914021852315e+003 -3.8422529191723456e+000
    3.4525191734255718e+003 -3.3268265427584298e+000
    6.9295528744412013e+003 -4.0158782174740839e+000
    4.4472713924766367e+003 -4.2228567444734750e+000
    2.2071127575455768e+004 -1.1542797838940997e+000
    3.3799960730936791e+003 -4.0203589242356728e+000
    6.8277825057989976e+003 -3.6890888728958604e+000
    7.8930134429906457e+002 -9.2661085616630032e+000
    7.6600444337670060e+003 -4.1462759922521899e+000
    3.9269257161350620e+003 -3.1229237180107488e+000
    6.8161478974047668e+003 -3.4510957446779900e+000
    3.9494402762940030e+002 -7.6052459927190803e+000
    6.1136022853206578e+003 -3.4071256561862708e+000
    1.3726952891814901e+002 -4.9305451357590053e+000
    5.7904214603051912e+002 -6.7897933765529626e+000
    5.3859217705468723e+002 -4.1288111606388531e+000
    4.3562530001636351e+003 -4.4269069740340283e+000
    3.5818082142282237e+003 -2.5136277140623813e+000
    4.3378490393808070e+003 -3.8311253273339241e+000
    4.4313623819676686e+003 -2.9562887828488180e+000
    1.5387958054885206e+004 -1.1769646985527411e+000
    3.8962278223082258e+003 -3.0017222804145582e+000
    3.4380613068381608e+003 -3.3702076655054376e+000
    1.9404897092659480e+003 -2.0664695124241814e+000
    1.1979619305098431e+004 -1.7620657777074618e+000
    1.5113255873942873e+004 -1.3337928503559671e+000
    1.6076635513545736e+004 -1.5712053155079455e+000
    3.5252162582264796e+003 -3.5593463851373173e+000
    1.2054335640710402e+004 -1.6233309974196670e+000
    3.9615849248537279e+003 -4.6098367331667465e+000
    3.5949989387215005e+003 -5.6885348861486147e+000
    6.1106720456425421e+002 -8.6058095001342725e+000
    6.9301932158767841e+003 -4.3084637144932492e+000
    4.2485734817075900e+003 -3.3523316828146399e+000
    5.7522183493028242e+003 -2.8278071297530252e+000
    5.1530280848254761e+003 -4.6083470850915935e+000
    2.5024817865458201e+004 -1.0715410339044860e+000
    4.1105850102473769e+003 -3.2380776561284215e+000
    6.7273736062044409e+003 -2.9113882025723417e+000
    2.4020286406447832e+002 -6.1516171982840140e+000
    6.8809729584776642e+003 -3.7133296909366593e+000
    4.8542147893682486e+003 -4.0428254647307185e+000
    6.5326346020840047e+003 -3.3801491692439729e+000
    2.3013681667396037e+002 -6.2406044689531459e+000
    7.0545829235694528e+003 -3.0460760791876274e+000
    5.5012760791927872e+002 -7.8076409878637030e+000
    1.2449718710795955e+003 -6.1630457778854026e+000
    7.0032802929239426e+002 -4.9319036500106703e+000
    4.1260174816230219e+003 -4.2576722037505785e+000
    4.6754375529832778e+003 -3.1909451518245726e+000
    4.3233926921626462e+003 -3.8791235775425492e+000
    6.0126470587364975e+003 -2.5391877311293567e+000
    2.3616283622383417e+004 -1.3277202790181124e+000
    7.2032683213108885e+003 -3.2939264133048236e+000
    5.2424932670936423e+003 -2.6543359176545325e+000
    5.3053824654432710e+003 -3.5168288487839785e+000
    2.0594531968129206e+004 -1.5751951638579380e+000
    2.0308501950017031e+004 -1.3010696496304064e+000
    2.0066793469782475e+004 -1.3118209497090987e+000
    8.7725801304847664e+003 -3.9054495960982636e+000
    1.7917785761559910e+004 -9.8977762044983386e-001
    6.2093829401580988e+003 -2.8800327322754158e+000
    5.5832005453476959e+003 -2.7830413378166874e+000
    3.5871124933725036e+003 -3.4952122302899729e+000
    2.3258690542023254e+004 -1.0035194108500531e+000
    2.5908348319746543e+004 -1.7360417848082221e+000
    2.7723332224943457e+004 -1.0874098464168949e+000
    2.3347923769582543e+004 -1.3126329424864520e+000
    8.2959086286082893e+004 -4.6097722286464443e-001
    2.4538726517595624e+004 -1.1630184608588578e+000
    3.6292828182672463e+004 -9.9647563575538312e-001
    4.7077750607454045e+003 -4.1624550058416041e+000
    2.6923818584357250e+004 -1.1880562676772872e+000
    2.1904182074586861e+004 -1.1169101172274978e+000
    3.6671510122554500e+004 -1.0308460981935761e+000
    6.7557218437891179e+003 -3.3167159423277277e+000
    3.5098113143890354e+004 -7.8011614877556290e-001
    7.6023577288329170e+003 -3.4316940821587347e+000
    8.9098243974828874e+003 -2.1434509254927967e+000
    9.2323587430363580e+002 -1.0665233491974380e+001
    3.1757945584838685e+003 -4.3701975623984399e+000
    4.0174051946716777e+003 -3.1607366369413246e+000
    4.6571247721477530e+003 -3.8543234350194413e+000
    6.8508194970528939e+003 -3.5962895554845149e+000
    2.1134887696118360e+004 -1.2227559831505377e+000
    5.1258625376837899e+003 -2.9136214262118303e+000
    6.2734111068889597e+003 -3.6930403015094289e+000
    3.9960805981248313e+003 -4.6408338785064638e+000
    1.4536537186098989e+004 -2.0146212286886231e+000
    1.7219077483627010e+004 -1.2719935385402672e+000
    1.9483730043102725e+004 -1.5602880189700443e+000
    5.2503773460389166e+003 -4.1016160236090338e+000
    1.5815448877896002e+004 -1.6749163368465889e+000
    5.3319539186972206e+003 -4.6237060560849361e+000
    3.9136461239269274e+003 -3.4488001036072098e+000
    2.5802526256269289e+002 -6.5294464584358769e+000
    7.4212650165959867e+003 -4.1941071326821513e+000
    3.4303415310635060e+003 -3.3133050676964939e+000
    6.0307502067477171e+003 -2.7380424100997112e+000
    6.1751620268796987e+003 -3.2860135021086232e+000
    2.6986592786110650e+004 -9.1737728164326937e-001
    4.5035022571373638e+003 -2.5098129384162577e+000
    9.2412793765941678e+003 -2.8696061259754337e+000
    1.1474275962146461e+002 -4.5809266566572111e+000
    7.2330820038495958e+003 -3.5865389808434891e+000
    4.1249373053872587e+003 -4.2862199809637982e+000
    6.9933479868274499e+003 -3.1064987386460232e+000
    5.0499168108637963e+002 -6.3268803585036135e+000
    7.5159285731805721e+003 -2.1667949515627143e+000
    1.0891523944079490e+003 -7.0357127270286615e+000
    2.1630585229916051e+003 -5.0340189280540617e+000
    6.0225517751569794e+002 -4.6142883217607000e+000
    5.2467967428311329e+002 -7.4195480179914997e+000
    2.3199073827178931e+003 -2.5031262262439768e+000
    2.2441764248253000e+002 -5.6949081411345084e+000
    4.5422201713492232e+003 -3.0287604977253317e+000
    4.3979677168177805e+003 -3.9115344481901815e+000
    4.0971014711904063e+003 -4.2479214277447470e+000
    2.1233210677041058e+002 -5.5919900583411337e+000
    3.3608929053355610e+003 -2.3574960510871712e+000
    4.3156345555248699e+003 -3.5533616457559414e+000
    1.3850297566220284e+004 -1.2178056084950426e+000
    4.7272585078744987e+003 -4.1132393804965943e+000
    4.9767140757554507e+003 -3.6747305819696523e+000
    3.8180377135166746e+003 -3.1374157246104950e+000
    3.9680441647735934e+003 -4.6173529749430839e+000
    6.2010618522712605e+002 -8.8833011375628992e+000
    4.2583324973012777e+003 -4.4818985445060129e+000
    5.6345134045878076e+003 -3.5434643669858894e+000
    1.2251248837714646e+004 -1.7940104181336387e+000
    7.4781128990949592e+003 -4.2017913192193195e+000
    1.5814603651757572e+004 -1.2871354296907194e+000
    2.5331756785850946e+004 -1.0929639224359633e+000
    1.5327585570795538e+004 -2.0941925819468286e+000
    6.2359494556059963e+003 -2.9983466713126030e+000
    4.8619810275827749e+003 -4.0047958470128400e+000
    5.5998423824191777e+003 -3.1262971473979384e+000
    1.5857031703671928e+004 -1.5652922074873263e+000
    5.1373692243074047e+003 -2.8093335546311660e+000
    3.7703522941674519e+003 -3.5813281889435964e+000
    6.3060565441090703e+003 -2.9846472373766488e+000
    3.3870147821231335e+003 -5.3550034643033131e+000
    1.1156682707466302e+003 -5.6596995152463059e+000
    3.0569965399536663e+003 -2.6009721037994082e+000
    4.1959502728316429e+003 -3.8374667160623104e+000
    1.4876621120587677e+004 -1.4150242322948579e+000
    4.7603910457564598e+003 -4.7613557950041807e+000
    1.6918927114323327e+004 -1.2442908954121827e+000
    2.1761858978446970e+004 -1.3017082793177759e+000
    1.4507090435322578e+004 -1.4130683469557102e+000
    3.9676238015525960e+003 -4.1435055572860309e+000
    1.3826514381013814e+004 -1.3377378232150463e+000
    2.0301346659757055e+004 -1.6323998266930753e+000
    6.0278229116913419e+004 -4.9256900389943797e-001
    1.6814856974428661e+004 -1.7038111545764567e+000
    2.1609325794892276e+004 -1.8011421241830645e+000
    1.6918409708029096e+004 -1.3990931969316074e+000
    1.4500896744387583e+004 -1.5546595162152816e+000
    4.0435882104044422e+003 -3.8104664804021660e+000
    4.3187895818275247e+003 -3.9596927709147556e+000
    7.3083905710500012e+003 -3.9989298712336665e+000
    1.5526847056306418e+004 -1.7255548864599652e+000
    5.4976646396250981e+003 -3.0926138696954681e+000
    1.8841318469505546e+004 -1.5334768469832321e+000
    2.1954884963513872e+004 -1.0620854689290926e+000
    1.5157336837396497e+004 -1.4417251570848821e+000
    6.0699115442734910e+003 -2.8669280583738139e+000
    4.7310554685954176e+003 -4.7660352964576544e+000
    5.2424932119280429e+003 -2.9970519511845306e+000
    1.7231636788327643e+004 -1.5827030437073863e+000
    3.6909270233160942e+003 -2.4116530904439029e+000
    4.2128155111813567e+003 -4.3568789245600072e+000
    5.5377043547762942e+003 -2.7639831354619440e+000
    4.9567518386630827e+003 -4.4263367396471960e+000
    1.0211833295652380e+003 -3.9280133038025258e+000
    8.7901590314234056e+002 -1.0029707674832766e+001
    2.8614123760854193e+002 -7.1750894076760598e+000
    3.0489945253492056e+003 -3.4861255957554609e+000
    1.3218864313745939e+002 -5.2418665877389490e+000
    7.0532329507449931e+003 -3.7878465500229734e+000
    5.9700247901248458e+003 -3.3915052361215361e+000
    4.7727251944485661e+003 -3.6691910701020021e+000
    4.7090578990574858e+002 -5.9684782200970998e+000
    4.0025526047705725e+003 -3.1228854210438377e+000
    3.9183875981323931e+003 -3.8051924414140426e+000
    1.7056675385277489e+004 -1.3101735641209327e+000
    3.7687784630739584e+003 -4.3509879598127981e+000
    5.8861881973711679e+003 -3.3169428650738477e+000
    6.2483967581686447e+003 -3.6211283599287962e+000
    5.4672075295909744e+003 -4.7695863207939482e+000
    1.1019221119821809e+003 -7.4600117575440841e+000
    3.8336771185664265e+003 -5.2667353925944660e+000
    4.9153405808083116e+003 -3.0494141229922058e+000
    1.2878888673429215e+004 -1.9953694401167510e+000
    5.3147885999500550e+003 -2.9410982899051574e+000
    2.2230202915703831e+004 -1.3151902709439567e+000
    2.8729421891685779e+004 -9.3906028303168532e-001
    1.4311802070134105e+004 -1.5063183919873038e+000
    6.3198190217986994e+003 -2.1152961751804975e+000
    4.4236012787857417e+003 -3.6017725566818917e+000
    7.8565567960951385e+003 -3.7030885783168856e+000
    1.7644527497267682e+004 -1.3668629276214208e+000
    5.9348739159931047e+003 -2.7119723227241868e+000
    6.0851410593188148e+003 -3.4330333878190067e+000
    7.7964776127705409e+003 -2.6375783643843143e+000
    4.7811803304560599e+003 -4.1961015913409820e+000
    2.0686924903275094e+003 -5.0429527149619116e+000
    2.5444482919176991e+002 -6.0010415681949363e+000
    1.4910621315460176e+002 -5.5836972103004872e+000
    4.3996135617179862e+003 -5.5480878862523824e+000
    4.8949607795088673e+002 -8.6203968347144162e+000
    7.8744409876976988e+003 -4.2211439858497215e+000
    5.5819180248537868e+003 -3.0031696778600079e+000
    4.9593430793963917e+003 -4.2244010805908898e+000
    1.0026321064100706e+003 -6.8861356900131190e+000
    4.1445958726288800e+003 -5.3768740556763284e+000
    3.4472328984118499e+003 -5.4626052121780111e+000
    1.4507742864566022e+004 -1.7403335779230922e+000
    4.5977289019091568e+003 -4.7835088002305266e+000
    5.5882280272671160e+003 -4.9098696877962960e+000
    4.6774809108096779e+003 -4.4047560654586206e+000
    3.0165737540899281e+003 -5.0158237109323380e+000
    1.0151515741499788e+003 -7.7104110122748155e+000
    1.4123226186368484e+002 -5.4336968485400021e+000
    5.4856815170740083e+002 -6.2465168555399808e+000
    3.6426197447983695e+003 -5.8341352621099487e+000
    1.0113769418835074e+003 -5.3200613030128396e+000
    6.6860553100548586e+003 -3.6299963064834277e+000
    9.6424566271582189e+003 -2.2724249266989691e+000
    4.5519736969016640e+003 -4.4189874803382052e+000
    1.8612287815287434e+003 -4.4331773490664981e+000
    4.8979480368660296e+002 -8.5196739703112669e+000
    1.2053718426899461e+003 -6.2680218352043644e+000
    4.1340029646280227e+003 -3.9443138020133430e+000
    1.1266732997105742e+003 -4.6044611257671368e+000
    1.1135589622942775e+003 -7.7666459111939767e+000
    2.0886969766194429e+003 -5.0521209205317987e+000
    9.3747760919258189e+002 -7.0983887869278037e+000
    3.5900865110569680e+002 -5.3803537430543535e+000</input_scale>
  <output_scale>
    1.0526315789473684e+000 0.</output_scale>
  <inv_output_scale>
    9.4999999999999996e-001 0.</inv_output_scale>
  <weights>
    <_>
      6.0062640883283315e-003 1.2175078934309894e-002
      -1.1574816987578215e-002 2.0131283921198777e-002
      2.0144075740758816e-002 -1.9528442380714908e-002
      -5.4858236214868046e-003 -6.7634125308272969e-003
      8.9420330449465728e-003 -8.3539626225563376e-003
      -1.3152380606085206e-002 1.3723310571475640e-002
      9.0983499647136496e-003 1.5058435048088518e-002
      -1.1472682948448389e-002 1.6505443997336826e-002
      8.1741573759965703e-003 -1.4513150480075619e-002
      -1.1010819412915460e-002 4.5302617911939088e-003
      2.5844684563897575e-003 -9.7080628320768171e-003
      7.6589116043641946e-004 8.4491093049462365e-003
      -2.1548934038851979e-002 -5.8436613392872719e-003
      6.5693129704029402e-003 -1.4826539048879223e-002
      -1.8417439575327800e-002 3.5097518391944811e-002
      2.9821800889439300e-003 5.8732168051171818e-003
      -7.7526754356113782e-003 1.3078405739680589e-002
      4.7555425012351963e-003 -1.4333413668336096e-002
      1.1803477342178533e-002 5.7663528426937878e-003
      -1.0164259658428694e-002 6.3674584951926268e-003
      1.1407702332762065e-002 3.3789616022023498e-003
      -9.9727536959241352e-003 -8.5535068878717004e-003
      -2.2163453125214213e-003 -3.6819437211983376e-003
      -1.0186666053731416e-002 1.8592672788604471e-002
      1.0022663888716480e-002 6.5236014402541773e-003
      -3.5253863663494258e-003 2.0691366666607956e-002
      1.1512056276689978e-002 -2.4344302617197559e-002
      -4.7394397563848781e-003 -1.0443776745629291e-002
      5.5510454813979850e-003 -1.2000175707771751e-002
      -1.0097407866183766e-002 1.5639743772703944e-002
      3.4026213802331555e-002 1.4845031324713600e-002
      -9.7093228973070007e-003 2.2625038499095140e-002
      3.8824716894608952e-002 -5.9455910569242459e-002
      1.9600858083121675e-002 9.0831524634602031e-003
      -1.5377938244029547e-002 1.4424690893110556e-002
      1.4791904990992030e-002 -3.7298757316067847e-002
      -1.7534088647301754e-002 -6.6025686615517618e-003
      -1.3684744961812770e-003 -1.2929215408776397e-002
      -1.7214803285553075e-002 3.5927784682166078e-002
      3.6972358892976521e-003 6.3127933456149079e-003
      -7.6685573062516320e-003 1.0991151009827430e-002
      1.5409430284040650e-002 -1.1577752390862112e-002
      -3.3237027030831321e-003 3.3916082687504910e-003
      2.6968464003179820e-003 4.0490050436127771e-003
      2.6430705574634469e-003 1.6857013096959958e-003
      -9.4579105230058209e-003 -3.2066147149948129e-003
      1.2909374164272135e-003 -7.6553854823119185e-003
      -2.0131835379057106e-004 3.8919326638535870e-003
      1.2311990827135566e-003 -1.1438744170691063e-003
      -1.0300526783294918e-002 5.2722368299870127e-003
      -2.4953752264436478e-004 -1.4256913248485950e-002
      -7.3863857226409537e-003 -3.4023247690426017e-003
      5.9603438811061385e-003 -1.2339162420325239e-002
      -4.5892040169275145e-003 2.5725930991871001e-003
      -1.8545842354414477e-002 -1.3702881569866408e-002
      1.6522899907945556e-002 -1.4065601375614287e-002
      -1.2144962885376687e-002 3.1720160740490971e-002
      -1.4951637087522401e-003 4.6674749844859316e-003
      4.1700011084813624e-003 1.0318776684503401e-003
      5.7114954697228479e-003 -1.1165379186896694e-002
      2.2422244506770730e-002 1.9673688130153948e-002
      -7.1853303487976264e-003 1.8298297825868393e-002
      2.6400911669132873e-002 -3.3606611606944711e-002
      1.4033162256527053e-002 1.2793728763695108e-002
      -1.3355074530365144e-002 2.1267213780678688e-002
      1.9529968484516453e-002 -3.2343672425700673e-002
      -1.5890594796388557e-002 -9.6128811273048457e-003
      1.3865340214651148e-002 -1.5237180154496741e-002
      -2.1306793824303730e-002 2.4174192556953387e-002
      9.5714941697789720e-003 7.2327429492440682e-003
      -1.6311934177129811e-002 1.8593763788494356e-002
      1.9961842523978167e-002 -3.0335068698322497e-002
      -7.4947482229635563e-003 -9.6199038850607321e-003
      7.6949999610584872e-003 -6.3958381985363914e-003
      -8.7099306259228286e-003 2.5425698751483521e-002
      -2.5559527056740832e-003 -1.5100095911242512e-003
      3.8715688218407876e-004 4.1899581994526728e-003
      -1.2989437310519879e-003 -1.5078484290338787e-003
      9.1050330204085258e-003 8.5843467937381027e-003
      -1.4663251147551088e-002 9.1865609122649839e-003
      2.2663555516462923e-002 -2.6079250648516388e-002
      2.7123132085771812e-003 3.2844757022269678e-003
      -6.8026579612976736e-003 9.7950585953308043e-003
      1.3101282458836384e-002 -6.1877726604838016e-003
      -1.2518493573072307e-002 -1.3344929046786391e-002
      8.9530067878497398e-003 -1.2585836589522136e-002
      -1.7794691687146133e-002 3.7066853724974286e-002
      -1.5189240490582352e-003 3.5941835852565706e-003
      -8.0602965484363048e-003 5.7231645453105426e-003
      9.9168158291277585e-003 -1.8104222555774752e-002
      -1.9066134837682304e-002 -1.5564617721459796e-002
      9.3777549666001214e-003 -1.7679806843721394e-002
      -9.4354757129441452e-003 1.3468459243390251e-002
      2.2674043340627739e-002 1.8182791767760418e-002
      -1.1230012675751971e-002 2.2313183744205413e-002
      2.3833777703465498e-002 -3.5633647928256851e-002
      1.6770837826142596e-002 1.5353566674327117e-002
      -1.2435697859466740e-002 1.6264568175840887e-002
      2.3076588941741534e-002 -2.7942184824262778e-002
      1.1634111240375623e-002 6.2609180543122369e-003
      -1.0388632151588783e-002 1.1037937856583888e-002
      1.1668160795912081e-002 -1.2515506084670525e-002
      2.3228302759542184e-003 5.9143325664971630e-003
      -5.3199284154710914e-003 -1.5389436106159270e-003
      -8.7143577264388870e-004 2.3060321156556755e-003
      -1.8771680698218579e-002 -7.4659757046404897e-003
      4.1563197940303748e-003 -5.3038592728815743e-003
      -1.9263766817048011e-002 3.6502260112046221e-002
      -2.9885742855453708e-002 -2.1829175709188599e-002
      2.1980103415582722e-002 -2.8682796637762794e-002
      -3.4078128685399410e-002 6.0586185607663559e-002
      -1.1788185716538807e-002 -1.6548566824813291e-002
      1.0492451353512044e-002 -1.8886342175251231e-002
      -2.6504605081779389e-002 2.3832290583794317e-002
      5.6130298118946308e-003 8.4237702664152255e-003
      -6.2550079630906081e-003 5.5051270216063515e-003
      7.2299245262618331e-003 3.1908890449227063e-003
      -1.9299815434912861e-002 -1.9783490149463630e-002
      1.2501822070511977e-002 -1.5391790971324039e-002
      -3.7331723270535029e-002 4.8095511280829971e-002
      2.3805922890741561e-002 2.5957377755844967e-002
      -2.3236991204469024e-002 3.0614436208107474e-002
      3.1455366649376607e-002 -6.2256034507186982e-002
      4.3953661797513080e-003 3.2228613379327097e-004
      -3.8837857440244417e-003 4.2894499254939270e-003
      1.2571568069512349e-002 -1.4859303634959704e-002
      1.8200134054330172e-002 9.4037667335637679e-003
      -7.9808983763386913e-003 1.1404261349031362e-002
      1.6979793045333046e-002 -3.4847050365090344e-002
      3.3763733818082509e-002 2.2442543302179190e-002
      -1.1075619714147743e-002 2.7790190152683615e-002
      2.9692398071413471e-002 -4.7056564369545230e-002
      -1.6172896826537064e-002 -7.3068970668502325e-003
      2.9290066178724980e-003 -1.3444370721362729e-002
      -4.9302971134826748e-003 1.2791863807558174e-002
      2.3857596816020617e-002 1.6078902838457493e-002
      -1.6683806922513422e-002 2.1275202393038945e-002
      1.9242689441578763e-002 -3.7269463007167006e-002
      -1.3387885367124833e-002 -2.1595413925723961e-003
      4.3814411800897545e-003 -5.9806828784887836e-003
      -7.3700870874142772e-003 1.7161065514829568e-002
      -1.1976428484970821e-002 -8.4962009772674169e-003
      1.9961093727921498e-003 -1.2478662181782407e-002
      -1.5353515271515758e-002 2.6315486686640036e-002
      1.7022317777865385e-002 6.1975337800832444e-003
      -6.5862100565208699e-003 4.7836742886360611e-003
      2.0512908215615900e-002 -2.7962492304812989e-002
      -3.2215671741384730e-003 -8.2525223183086576e-004
      4.6239241181827576e-003 -1.3473001127880552e-002
      -1.0411661838936969e-002 1.0631861337107695e-002
      -1.1686222372320861e-002 -7.1943958206064685e-004
      9.2718306250755191e-003 -4.4717013860498152e-003
      -1.6618965626315877e-002 2.5359307662635430e-002
      -2.0598925795750232e-004 -2.8671309909935700e-003
      6.2833595949043980e-003 -9.6644047461930151e-003
      -7.0825123354181178e-003 1.4113086138995194e-002
      -1.3056568856255264e-002 -4.5254777004760686e-003
      1.2786502897533483e-002 -8.4752600694879155e-003
      -2.1683695495551093e-002 2.1901014791352258e-002
      -1.5487994985612661e-003 3.0709925518096668e-003
      -1.1062370562548837e-004 1.1175896755379843e-003
      -3.9853195543093044e-003 1.5625911663020794e-002
      -2.3309175588773832e-003 1.0093203382429401e-002
      -1.0418389356707948e-002 -1.3460465594325672e-003
      6.5561906620875288e-003 6.0843299974187555e-003
      6.9268807050515391e-004 1.0579618199535446e-002
      8.7359778374701417e-004 7.2493620142131459e-003
      6.4469964935659858e-003 3.0534644945892798e-003
      1.2166961414096979e-002 1.1982473566626496e-002
      -1.1620826983504109e-002 1.0552312161457281e-002
      2.1103988810022196e-002 -3.5235188701907810e-002
      -2.6984138750241280e-002 -2.3439625591866509e-002
      1.8150048298238342e-002 -2.4958165237044343e-002
      -2.4098204126933840e-002 3.7695965885772766e-002
      -1.4653216363724656e-002 -7.0932739675880303e-003
      1.0276362547800514e-002 -1.3811907677413924e-002
      -2.8450030517942305e-002 4.6515666148209567e-002
      -7.5060822376266552e-003 -1.3693322951695928e-003
      1.0926155981349134e-002 -6.6724522852514533e-003
      -1.0255397725257760e-002 2.6964297703340870e-002
      -1.6300175308645568e-002 -2.2672524704575321e-002
      1.4284880960844773e-002 -1.7934776435817232e-002
      -2.2931240755987351e-002 3.6784415054949310e-002
      -5.7277638630646227e-003 3.5212704486293285e-003
      8.3697156954661480e-003 -5.5796960538947683e-003
      1.0016087683578112e-003 -1.0491616379100625e-002
      -2.0155114408392287e-002 -1.1236622748743106e-002
      8.6706673754637763e-003 -2.1996732788769353e-002
      -1.4411221936177280e-002 4.3847337983657586e-002
      -6.1329882804286974e-003 -2.7798714088209204e-003
      1.4664835139653593e-004 -1.0627536719419831e-002
      -7.4251000271344045e-003 1.3372261350609767e-002
      -2.3582902306964887e-002 -1.3228954146763732e-002
      1.0614114707924822e-002 -2.0129370810250583e-002
      -2.0310053858540060e-002 4.9994209210641849e-002
      -1.8956368655763459e-002 -7.4396997819143927e-003
      1.4627521227741492e-002 -8.9354436009900298e-003
      -1.2815383985378799e-002 2.8926161161064664e-002
      2.1563278952661757e-002 1.4070675777398199e-002
      -5.8918284250145505e-003 1.1457570684891462e-002
      2.3856411172980790e-002 -1.9869646239607797e-002
      1.9884556137236088e-002 1.2988716194234426e-002
      -2.0557111574589573e-002 2.0101927571476306e-002
      3.3913342269352241e-002 -4.7935404107425819e-002
      -1.3423555065821947e-002 -1.9225060811853285e-002
      3.4038553211148473e-003 -1.7216685494722623e-002
      -2.4872576541843213e-002 3.4263746481267392e-002
      -2.5460173178389552e-002 -1.5600974575881289e-002
      1.1774709385242683e-002 -2.6052455059201996e-002
      -2.5771339221543378e-002 2.9880364906700201e-002
      -3.4471887464040535e-002 -2.1667685324823809e-002
      1.8777797365482834e-002 -3.1794423565086515e-002
      -4.2360273602914923e-002 5.4419691274223914e-002
      7.1686069247975442e-003 5.8771152759472126e-003
      -2.4579897446254015e-003 1.0642245023393008e-002
      1.7825162618112990e-002 -2.0860895979778225e-002
      5.8546916375298349e-003 1.9554395285492185e-003
      2.9332643455254764e-003 -1.4762041212546186e-003
      6.0488940151089748e-003 9.4466739131529587e-003
      -8.7265149578245622e-003 -7.3694233281988127e-003
      3.7169923464638035e-003 5.3645982023380283e-005
      -4.7632231898648977e-003 1.5782214823748298e-002
      2.5882316503975109e-003 -3.9748776706294807e-004
      3.4871793879872773e-003 3.4608112116646960e-003
      9.5459496142249946e-004 -1.1756559213740142e-002
      -6.0939158461265361e-003 -6.1702899410894206e-003
      -2.5191056849758349e-003 -7.9736785548742087e-003
      -6.3930394297786403e-003 1.6314140024112189e-002
      -1.6541883707448052e-002 -1.1563549606964109e-002
      1.6044767347059296e-002 -1.4884189410972548e-002
      -1.6828346866434377e-002 3.5208361940830539e-002
      8.2888934830044753e-003 1.3708294989321820e-002
      -7.4317823442050226e-003 1.7856810698159153e-002
      1.4631998039098679e-002 -1.6933018894708319e-002
      1.7004725124158803e-002 1.1947523284548185e-002
      -7.0617338018475950e-003 1.0331841497399121e-002
      2.3097938806729244e-002 -1.9560448879303749e-002
      -7.4251903115918122e-003 -5.2474564961575894e-004
      4.1387550672767958e-004 -4.5709375712947638e-003
      -1.3416176314443931e-002 1.7306657410755419e-002
      3.4493826220432199e-004 9.5390338000451349e-003
      1.7154024467511578e-003 1.0019510218626621e-002
      8.4562080382329812e-004 -2.0251679962451516e-002
      2.0467339833755850e-002 2.4804345581007269e-002
      -1.8543808777550842e-002 2.4525046521303492e-002
      2.8552018889892714e-002 -5.4867279333889317e-002
      1.2615908527141408e-003 -3.7622723297543637e-003
      2.5878861373231526e-003 -1.6348946494691527e-003
      3.0266730232736787e-003 -9.5788302369596650e-004
      -1.0196030422874604e-003 1.6671009706996818e-003
      -3.4674800990667294e-003 -4.6440902814287163e-003
      5.9059463095418223e-003 -4.9815441597681849e-003
      -1.9502601245030535e-002 -6.6294369572927041e-003
      6.4899774901174571e-003 -8.8413392816763404e-003
      -1.3574805160263216e-002 2.7358866320335237e-002
      -1.1857691964706179e-003 8.7871599847436557e-003
      -2.4578320337323965e-004 4.9229701952545795e-003
      7.4021282643221024e-003 1.0575076186614676e-003
      -2.4961982536270025e-004 -3.1447249350686655e-003
      1.7237567119316516e-003 -1.2114598435697441e-002
      -1.5075003601748115e-002 5.1487303390060695e-003
      -1.6691061234104375e-003 -1.8454430721927526e-003
      -4.2657497447398775e-003 -2.9465152802982428e-003
      4.2598197602486980e-003 3.1248841263201919e-004
      2.7782511857216870e-003 6.3343662278821690e-003
      2.1546290378486886e-004 -2.8798190900561094e-004
      3.8468012994032634e-003 -9.9927466117088332e-003
      1.2537245228808410e-002 1.9184565913823601e-002
      -3.2250130827639230e-003 1.4177794826825598e-002
      1.5514312883709963e-002 -3.3149256683019754e-002
      -2.8397183893535856e-002 -2.4928211831947551e-002
      1.6314673426295334e-002 -1.7585048878483119e-002
      -2.3765308397940124e-002 3.1723583042116407e-002
      9.1869183319923647e-003 7.5315516231088632e-003
      -3.1669637390014711e-004 1.2508830456837155e-002
      5.1585109295251685e-003 -1.1969637302292221e-002
      -9.1907972953361190e-003 -9.9366521646374276e-003
      4.6844175046422687e-003 -9.8395318990051814e-004
      -7.7628552160511639e-003 9.2116064528117026e-004
      4.4508663041778985e-003 -1.6888155221824873e-003
      -3.9813570583431476e-003 4.5204936671529149e-003
      1.5635057591035770e-002 -2.0972078228572378e-002
      1.7662130780930093e-002 1.4415071449640623e-002
      -1.6701938501503866e-002 1.3350142055034630e-002
      2.5684078449107989e-002 -4.6838043081695528e-002
      -3.2579376567591157e-004 8.2726078514861918e-003
      6.2605360954770288e-003 4.9561282385012374e-004
      4.6067631477397794e-003 -1.1287447819737170e-002
      -2.1707746437319493e-002 -7.8112724519840615e-003
      2.0259470438316008e-003 -1.4809766717143586e-002
      -1.7588936562126008e-002 3.8898867386847731e-002
      -9.4681366584107567e-003 -3.8879555452278683e-003
      1.1521949183580502e-003 -1.5264495338611184e-002
      -7.8374053834745737e-003 1.4812677052112061e-002
      6.4499566352364413e-003 9.9868744835543109e-003
      2.9970206099610764e-003 -4.9531127411334545e-005
      6.6802712738543374e-003 6.0072677038207675e-003
      -1.3555878918069407e-002 -1.5914757219960413e-002
      1.4796866979009619e-002 -7.3450908186417146e-003
      -1.2845576274991034e-002 4.1184988156920128e-002
      -1.5120973390051071e-002 -1.8390479130367347e-002
      1.2879264601275758e-002 -2.3751569002375995e-002
      -2.7643213513107331e-002 5.0051510427015458e-002
      -1.2915985101377855e-002 -1.7003454269513666e-002
      4.5142096901707902e-003 -2.3485299535946969e-002
      -2.6617089314153467e-002 3.6267990083428070e-002
      3.1192606243181393e-003 -1.3568226111018678e-003
      5.4133639373338737e-004 7.5689302655345574e-004
      3.6756350543556012e-003 9.1460776477329375e-003
      -2.3193977512782379e-003 2.6106364754352820e-004
      2.6446050464381818e-003 -4.4091931788989682e-003
      -1.7274927805866667e-003 9.1240371861842848e-003
      -2.0155585566691949e-003 3.4556294971366088e-003
      1.8439106569908214e-003 -2.9711110607645334e-003
      9.4602161714519798e-003 -1.1525434603475961e-002
      -8.8617733710673278e-003 -4.9896183726582154e-003
      4.4789801174891786e-003 6.0093723272742223e-003
      2.2672916039392544e-004 -3.2396457172462661e-003
      1.3318187705794111e-002 7.9451943458183905e-003
      -8.8667669505304719e-003 9.8177598170362691e-003
      1.8871657698393430e-002 -3.5324210750258010e-002
      2.9770381069159777e-002 2.6703986755533884e-002
      -2.3700845021956518e-002 1.9942509188473026e-002
      3.0605649762051143e-002 -4.3931582263955361e-002
      1.5342953766169039e-002 4.2803866460953809e-003
      -1.2758979863441168e-002 1.8037467320030899e-002
      1.7845309324723276e-002 -2.5213527022883635e-002
      1.3463533175763171e-002 3.7839999036780427e-003
      -7.6121508527773425e-003 1.1525638238833369e-002
      1.0256300972867650e-002 -1.1418160950710448e-002
      5.6771369082306402e-003 5.3682023424721020e-004
      -6.8419474757910673e-003 1.1923224507389746e-003
      -7.4750413622664182e-003 1.2322736129731074e-002
      1.1395150110722110e-002 6.8857312057596523e-003
      -5.7495927866951235e-003 1.0985542078131801e-002
      6.1771268804652509e-003 -1.7251353153529998e-002
      -7.5997929425776307e-003 -1.0414486156622434e-002
      -2.1200344137628658e-003 -8.8973216880759813e-003
      -9.2911274385384934e-003 7.5777229814413070e-003
      8.0767021331513041e-003 2.2757351818480627e-003
      -2.2742258987152020e-003 9.1849929590527134e-003
      1.0275233214128373e-002 -1.6569669261812650e-002
      -2.7076565964273627e-002 -1.6060920229404880e-002
      2.1839224608737596e-002 -3.2490196995198999e-002
      -2.9481463664917270e-002 5.7145261297537858e-002
      6.0341448870338578e-003 6.1311310062693693e-003
      -6.0684025045490662e-003 1.4794701602290019e-002
      2.1930838136539599e-003 -1.2056229426934177e-002
      1.0530535760603504e-002 1.1350314817098124e-002
      2.9962373774478357e-003 1.2075239658612841e-002
      8.1454228580038236e-003 -1.1246441874792368e-002
      2.1538511484652293e-003 3.9634675358037882e-004
      2.6602358900407294e-003 -7.5031336365456161e-003
      -6.6966240455964424e-003 -1.5191512214803389e-003
      -5.6077551841325901e-003 -1.0362451846738536e-003
      2.7291931249504189e-003 -4.4266270118459849e-003
      -7.1110659124838530e-003 4.3276423408950332e-003
      -1.1490422193416878e-002 -1.2881503289191092e-002
      9.1956521119794625e-003 -1.7528655343707567e-002
      -2.4924833060850828e-002 3.0240810510875026e-002
      1.7506835610488335e-002 1.1939912282541879e-002
      -4.3968740011900945e-004 7.3280006087620671e-003
      2.0261438969288757e-002 -2.8468434912499351e-002
      -2.2584117116697971e-004 -4.9433676691402542e-003
      4.3281531972163964e-003 5.0719901794302096e-003
      2.6688134032817365e-003 -1.2094114575476449e-002
      -2.1552070670282024e-002 -2.3925004641616732e-002
      1.8606032814273029e-002 -2.7161203094371925e-002
      -3.1854716007153901e-002 6.1066027291829625e-002
      -1.4078578389737730e-002 -1.1338962421100914e-002
      1.4758732463525857e-002 -2.4622047241374401e-002
      -1.9734096158053476e-002 5.2136571726939085e-002
      1.3268495525793234e-002 1.5924487668300347e-002
      -7.1056004992676811e-003 1.3702169553565268e-002
      2.7429742881983955e-002 -4.5052192079006771e-002
      2.7105698472315493e-002 2.9035755202667057e-002
      -1.0972284572868271e-002 2.7823676608142726e-002
      4.0847949520496571e-002 -5.9829859304832478e-002
      3.1077453400572656e-003 -3.3632233836680199e-003
      -1.0301901623077739e-002 -9.2274525071016735e-004
      2.4518921493320639e-003 -6.6255006962513598e-004
      -1.5614742202490470e-002 -1.6821822066619776e-002
      1.5358410225881922e-002 -2.0683644032043480e-002
      -1.1925102905684373e-002 2.4114265108985813e-002
      1.6223390197545273e-002 8.5612706250507778e-003
      -1.2550510449431524e-002 1.3010087876567615e-002
      1.9955433947007644e-002 -2.1518335622937496e-002
      -1.9983772663060414e-003 5.6945351085277679e-004
      7.7215743922448895e-003 -7.4367853661581025e-003
      -7.9582393973467004e-004 6.2300258926533082e-003
      3.4878815793143211e-002 2.4009995526515487e-002
      -1.3680405050119937e-002 3.1255757298681276e-002
      4.7373174796477992e-002 -7.0075050517522663e-002
      -1.7613096584655461e-002 -1.7506155459457360e-002
      4.7971738519879516e-003 -1.5669294721989739e-002
      -2.7861149626338944e-002 3.8107796753744955e-002
      3.3552367104686420e-003 2.0593491360540710e-003
      6.7192993358001427e-003 3.8030559473314542e-003
      -1.1435437431061610e-002 2.5136089727631301e-003
      -1.6038539811156821e-003 4.0682563963873554e-003
      -6.9580688714552209e-003 2.9536062322862945e-004
      -9.5448088920555632e-003 7.8669296258555444e-003
      1.9438536944059202e-002 1.3476309392798026e-002
      -5.2338815423220329e-003 2.0487928792054598e-002
      2.7945350316957478e-002 -3.5536697465526304e-002
      -1.1592356064800670e-002 -2.0906582640583250e-002
      1.2638857900417166e-002 -1.7800468206341961e-002
      -2.8187828018306178e-002 4.2912237819207062e-002
      1.8850523539209654e-002 1.6659312983106730e-002
      -3.9550141142646886e-003 1.6194209420704622e-002
      1.9510647060286351e-002 -1.5494520455517913e-002
      1.7825739081767328e-003 -6.2327294127148859e-003
      4.0456124771861236e-003 3.9729820571052120e-003
      -8.3390416863058890e-003 1.1017652342345113e-002
      1.0320238766251866e-002 6.5627348153313950e-003
      -6.0734010447975276e-003 3.2915122796502673e-003
      -3.1133856613056553e-004 -8.9044012391688281e-003
      -1.3770227069969714e-002 -1.2327630139594824e-002
      -1.5947131437578257e-003 -1.1038726120600282e-002
      -4.9378801141672897e-003 1.6612583562877706e-002
      9.9766005273670046e-004 5.5189592380138477e-003
      6.6075529991781760e-003 -2.4811543465774800e-003
      -6.6017387039013697e-003 8.9223148739565172e-003
      -7.8111196938835548e-003 -7.0401710281116549e-003
      1.0009714616907433e-002 -1.4932605455629589e-002
      -1.6618910497867002e-002 2.8360639041352640e-002
      3.4215459475417493e-003 1.0128237478738715e-002
      -1.0076574837079480e-002 9.1800448942585822e-003
      7.6684961267231488e-003 -9.7813205290985059e-003
      -5.0224015682933682e-003 -1.2744694443114562e-003
      3.9622769669418268e-003 -3.2177740444290738e-003
      -1.7960409481217091e-002 2.0368276865435003e-002
      7.7416276175272993e-003 9.7809996183464195e-003
      -1.9183482460157855e-004 -4.6370021170606636e-003
      3.7943192953946124e-003 -1.0594990962258140e-002
      7.8192439040362539e-003 1.5667190260376999e-002
      -1.3229226204378544e-002 1.7519280417048439e-002
      1.2854622432376884e-002 -2.8244796896620444e-002
      2.3343838165630227e-002 1.3121256734633205e-002
      -1.2080692793285034e-002 2.5271219472159854e-002
      3.0741275398187648e-002 -4.8100552172499991e-002
      2.1013676051895150e-002 9.5856005375532308e-003
      -6.0863395974939784e-003 1.8780846063485901e-002
      2.5154334502491833e-002 -3.1052396228925284e-002
      1.0211010063056743e-002 8.9616195409575276e-003
      -6.6472191924076148e-004 4.7441394592484289e-003
      1.7100317316676456e-002 -1.5539570937650342e-002
      2.2363840495503967e-002 1.1136235602043371e-002
      -4.4978781240733647e-003 1.2997173045104875e-002
      1.7942206656377836e-002 -3.6126837393869127e-002
      2.9272218660637055e-002 1.9483069184992759e-002
      -1.9059158922267137e-002 2.7287593261079858e-002
      2.1133717674020783e-002 -4.5699926604971415e-002
      2.5668244989713960e-003 -4.6392715516251860e-003
      -2.2206108415659493e-003 -5.2817677778873298e-003
      -5.1819903708272977e-003 -4.6636638480107634e-003
      -2.4010518440882832e-002 -1.9425392304115698e-002
      9.5266703467718379e-003 -1.8889870041609486e-002
      -2.8349491985756207e-002 5.0734289426033093e-002
      8.1287934814559745e-003 6.9733088354484597e-003
      1.8848278629959490e-003 3.8705103329339180e-003
      -4.4035501005084011e-003 1.4017157457655187e-002
      2.4494858899739877e-003 -4.4541483064907078e-004
      -8.5120831428834838e-004 2.3363301498578251e-003
      -2.0895609414725990e-003 8.0007425463647208e-003
      -1.6724920305755415e-002 -4.2749525378999679e-003
      1.2124836192872334e-003 -1.6194633001146225e-002
      -1.9523791181217758e-002 4.0731444970176028e-002
      -3.2562888952493291e-002 -2.0540726072529897e-002
      1.2910922357923864e-002 -2.5480885809560986e-002
      -4.1279439187810074e-002 6.0690962169028202e-002
      -6.1500802526608710e-003 -6.4243678325225052e-003
      -2.9714647042466198e-003 -5.5906264773986115e-003
      -2.0285845313885937e-003 1.6073356604452024e-002
      -2.7380891148288126e-002 -2.8804274770535911e-002
      1.8020893707067612e-002 -2.3084327605755867e-002
      -3.1097946877755300e-002 5.3040702111995817e-002
      3.2216218642417224e-004 8.5532738159129259e-003
      -1.0077525243622641e-003 6.7488574779697649e-003
      -5.4042820551223033e-003 7.7422608265093193e-003
      2.4612214200819684e-002 1.3879491079027115e-002
      -2.2250596693279730e-002 2.0631319220559476e-002
      4.2487490107349549e-002 -5.5836313019749645e-002
      1.2761617521817892e-002 8.0076535042085725e-003
      -3.8877220576479730e-004 3.8452383692867036e-003
      3.8562604783080197e-003 -1.7721453635207204e-002
      -1.4387772638348858e-002 -9.0310215558017555e-003
      9.0828118594072967e-003 -1.2940181404593229e-002
      -1.7246875461541312e-003 6.5292600254464126e-003
      -2.3702470118679222e-002 -2.5462316918742969e-002
      2.0670779822828160e-002 -2.8664990663796224e-002
      -3.4954134513601805e-002 5.5707279405543847e-002
      1.4228871874008991e-002 3.5203029360688278e-003
      -1.0494590360294390e-003 1.1501964299783531e-002
      7.2209302404097160e-003 -1.4895368763538305e-002
      -3.1757289974784718e-003 6.2319338780727589e-003
      5.9050469093103607e-004 5.8002281007290563e-006
      1.4223585143546254e-003 -4.0117020757750738e-004
      5.4905596565658389e-003 3.7857071725894498e-003
      -3.8211810150791297e-003 -5.0189120423499226e-003
      9.0660504551008450e-003 1.3433550219547161e-003
      1.8148695267653649e-002 9.8011355219457912e-003
      -1.0190966334857603e-003 1.5183032482973804e-002
      7.6238420750168821e-003 -2.2017383499336164e-002
      1.4655635837918114e-002 9.2802303110505330e-003
      -3.7937159834923726e-003 1.6612526043170175e-002
      1.9615230101679485e-002 -2.2628154126226725e-002
      -7.3154676983061785e-003 -3.9547135287562070e-004
      6.3670072679470752e-003 -3.5781416470868463e-003
      -8.9580907894882284e-003 1.9780991864170479e-002
      3.2546163429607734e-002 2.2826259878291347e-002
      -1.7619837947484996e-002 3.7711843878199522e-002
      3.9388560293364648e-002 -5.6726202322462685e-002
      9.6170139816446187e-003 -7.9555919625100551e-004
      3.6288923027504114e-003 -2.4376504311037343e-003
      7.6289573604608248e-003 -4.1648518370057805e-003
      -1.1740544804757225e-002 -6.8767470014364420e-003
      1.3374088729962989e-002 -4.3881756411489267e-003
      -9.6483169478078935e-003 2.3110987657794842e-002
      -6.0499448972706924e-003 6.3122866905792729e-004
      -7.3941022214064293e-003 -5.6670677133750635e-003
      9.2539169498668129e-003 -2.4676223947870135e-003
      1.7300758158926947e-002 1.8894976388590879e-002
      -1.5726486413874679e-002 2.5280732323852782e-002
      2.9378376536430634e-002 -3.4590915934468724e-002
      1.0519910479534220e-002 1.0612605326642797e-003
      -4.8219038201773572e-003 1.4575647835068156e-003
      4.6243064289948918e-004 -6.2506854137525918e-003
      3.6472495936202408e-002 2.3341703993436595e-002
      -1.7864953686603943e-002 2.9297367810110126e-002
      5.0489127024318577e-002 -7.8451304805855687e-002
      1.3132856211703221e-002 2.2079465706251092e-002
      -1.5307387360940243e-002 2.4611275674717985e-002
      2.2503579473532237e-002 -3.3354010761444383e-002
      -1.5481626172951224e-003 -2.7108572431098706e-005
      -1.2918083068117992e-003 -4.6257266486150672e-003
      -4.7249204859782044e-003 1.5868823232864943e-002
      -1.1892523617373262e-002 -5.4593062583716849e-003
      1.2265757951690900e-002 -8.6437973909142905e-003
      -1.6635075534760055e-002 4.5184828172734844e-002
      -1.9468311735038584e-002 -2.5142680584205032e-002
      1.0339903488567498e-002 -2.4776697701690924e-002
      -3.0803813913341447e-002 4.7939687001450924e-002
      -1.3522117027642697e-002 -7.7102443026369830e-003
      9.5578378818387752e-003 -1.8380268073082313e-002
      -2.1040991602147553e-002 1.3935229651392484e-002
      -3.5612290976264126e-003 -4.0071179427129582e-003
      4.7273354131238112e-003 8.0851403493798608e-004
      -3.2996414162164934e-003 2.8199099333196323e-003
      -2.4351542253472885e-002 -2.4588750072602198e-002
      1.7146942381027149e-002 -1.8841980025542271e-002
      -3.7100497988793564e-002 4.7100500239487413e-002
      -1.9125347172352161e-002 -1.9991025228536199e-002
      1.4055139998991925e-002 -1.3676261925970806e-002
      -2.1494090952606640e-002 3.8170678477570032e-002
      -1.7670063635790854e-002 -1.4343836349634020e-002
      5.2663840724381612e-003 -1.3820626800718213e-002
      -3.1940579205821530e-002 5.4407760299379507e-002
      5.0613411018942426e-003 7.9532270125601042e-003
      -1.0866021848392726e-002 7.7813497267945602e-003
      6.8932388186003389e-003 -1.5891231804417635e-002
      -1.4543977353032731e-002 -1.2836731446205219e-002
      1.2517677464236246e-002 -1.1144427364900525e-002
      -2.2357215734921613e-002 3.2203769502092590e-002
      -2.7721353584362361e-002 -1.0235156671978824e-002
      1.0742985792038891e-002 -1.6723665500596334e-002
      -2.6539229082206222e-002 4.8867512829860592e-002
      -3.8906381152248649e-003 -1.1282471661497318e-003
      6.4367000906119772e-003 -3.8219367026883686e-003
      -1.5405590092864655e-002 2.7261282650172493e-002
      -1.5334022811018302e-002 -1.5561977446851644e-002
      1.8187881937354839e-002 -1.2264832134247146e-002
      -2.6492526853966279e-002 4.0701207777060273e-002
      1.1225710447442269e-003 8.2430741770016577e-003
      -2.6906786078288044e-003 -4.9309945415059470e-003
      -3.6795643935082041e-003 8.0829891122838841e-003
      -4.0271537286419849e-002 -2.0566405468124882e-002
      1.9808663008662155e-002 -2.6412763961259900e-002
      -4.1327539181273631e-002 6.6626635599437198e-002
      -2.2198229594886258e-002 -6.3562740888649712e-003
      1.3620271840016383e-002 -8.2234468835910238e-003
      -1.9494656943073382e-002 2.5098420970054897e-002
      1.8749594750365032e-002 1.0705472807772535e-003
      -4.9615597321969740e-003 3.6438190880763552e-003
      1.5713103209588963e-002 -3.1476828539883324e-002
      -1.7027007205315792e-002 -1.0859910995570947e-002
      9.3387538335703759e-003 -1.5365600508240962e-002
      -2.9875593732415606e-002 3.5930211249173546e-002
      -1.6908796081122193e-002 -1.2989227952581246e-002
      1.4607686652422720e-002 -1.2957093699741623e-002
      -2.6967432426088504e-002 3.6154932225951758e-002
      -1.8774993486352386e-002 -2.1353636541964618e-002
      1.8639229475078654e-002 -2.3649278374584241e-002
      -2.0311087832409154e-002 2.8201756514649203e-002
      1.3523633711673765e-002 1.2162542702733476e-002
      -9.1149930272960249e-003 1.5734184162323351e-002
      1.5972247478246247e-002 -1.5941805393814366e-002
      5.9123337545891417e-003 6.3850532359194991e-003
      -7.4517059350525149e-003 4.4448563102015507e-003
      6.0682707746190813e-003 -7.1350375611311714e-003
      1.5239256756122945e-002 1.0224424955017606e-002
      -1.2680706135220236e-002 1.3234077768617118e-002
      5.5881715294334869e-003 -3.1699495578375089e-003
      -1.0634016557866220e-002 -1.0491354161397619e-002
      -4.0324977378649630e-003 -4.3251940254052795e-003
      -1.6896931314172584e-002 2.1472414726608144e-002
      1.1306172104974326e-003 -1.0301249709735037e-002
      5.3358714422142659e-003 -1.0412334676999651e-002
      -9.6458246606863102e-003 6.9677240413878721e-003
      -1.7708097392896135e-002 -1.4527471160476826e-002
      8.4077853774303813e-003 -1.4236240392041542e-002
      -1.8533963192229247e-002 4.3541776065269377e-002
      -1.9767798714388284e-002 -8.2269932989119336e-003
      8.6371909923470165e-003 -2.0213844055567781e-002
      -2.4631396282897098e-002 4.1893205996350678e-002
      -2.0223611449792300e-002 -1.7357623916856701e-002
      7.4430483205728806e-003 -1.7546969387357270e-002
      -2.1653549997152043e-002 3.3844920241324294e-002
      -1.7143461549087143e-002 -7.8038642487879605e-003
      1.0422309477111195e-002 -8.4579342192664404e-003
      -1.5371986805604091e-002 3.0970176367917279e-002
      -1.0241078591894529e-003 1.9040350501094839e-003
      -6.6056412317620295e-004 5.8266169967394529e-003
      1.9875849374141326e-003 -5.2404445722741546e-003
      1.4948450084071203e-002 9.8085776848068698e-003
      -7.9255729449893633e-003 1.2675728644819874e-002
      1.4613119860821984e-002 -2.3503171070996393e-002
      2.2093606960001438e-002 1.9863599357831694e-002
      -1.3993053693194131e-002 1.9132187152746744e-002
      2.9578888668315793e-002 -4.8539779347175918e-002
      1.6187276455065288e-002 1.7162344296741464e-002
      -1.0767897903954243e-002 2.4818079320910822e-002
      2.7680876855553749e-002 -4.4336350407590916e-002
      5.8365823481624822e-003 -3.9072247120649850e-003
      3.8986764310859639e-004 5.1386425036206570e-003
      1.1656116612666785e-002 -1.3343324638147306e-002
      1.6080685953482612e-003 -8.2817306963295680e-003
      -1.1208543856754218e-003 -2.7914417616397543e-003
      6.9975962886111552e-004 6.6417536424263233e-003
      2.8913255736349831e-002 1.4497652845080776e-002
      -2.0845471533510160e-002 3.0581539676363911e-002
      3.8153893132712127e-002 -5.3047686988822736e-002
      -2.1695741464439831e-002 -1.0298945201733875e-002
      1.0531822947623188e-002 -2.0509155114604410e-002
      -1.2160860394211862e-002 1.7868861481874158e-002
      6.8428507056577754e-003 4.0586068640364537e-003
      -6.3556985906717215e-003 5.4385970050474857e-003
      7.2315362983623385e-003 -1.8699986024329110e-002
      1.0221331898822454e-002 9.7088123748229147e-003
      -2.8320477142119919e-003 1.7964336209110511e-002
      1.2176722873312998e-002 -1.2083014862813823e-002
      -1.1223460671660268e-002 -9.2206043072179372e-003
      -2.6488317697387301e-003 -9.7961789361652703e-004
      -2.6754503899396498e-003 1.4923533684563355e-002
      5.2402413359816935e-003 5.8238611540715650e-003
      -2.7242609981107777e-003 -5.3797687182008617e-003
      2.5068455157701373e-003 -1.2292930521950931e-002
      9.5806652075940829e-004 -4.8170939525232015e-003
      3.8786053299252939e-003 -4.8766564024897213e-003
      -1.0345907438707756e-002 1.7640534262663404e-002
      6.7173942645234307e-003 -2.9757516381568195e-003
      1.1010953501958535e-003 -3.3957428902133976e-003
      5.6620854749363115e-003 7.2280242718759042e-003
      1.3598743411459292e-002 1.3572737617917163e-002
      -5.4092439175642357e-003 3.6480390214564287e-003
      8.6070455135571385e-003 -1.4564152028314912e-002
      1.6193546873114775e-002 1.8825754616244771e-002
      -1.1633909939108901e-002 1.6775398020555114e-002
      3.0660349658982924e-002 -3.1904345434665415e-002
      -2.9347991465170321e-003 -1.0661754747623877e-002
      1.1006506561001194e-002 -4.0666819143522293e-003
      -1.3688913815747836e-002 6.8368696557606192e-003
      1.3324950178585199e-002 8.0204593282908582e-004
      -9.6469256762947257e-003 2.1751515519096904e-003
      1.1131809113571565e-002 -3.1470490988718729e-002
      1.3038316882439904e-002 5.4429875310321530e-003
      5.2442148584674608e-003 1.4016828804527363e-003
      2.5374075250460169e-003 -1.9105451764065987e-002
      -6.1267940886889638e-003 -8.2593567330616485e-003
      4.0574897658373962e-003 -7.9212194175050602e-003
      -8.4724846079953647e-003 6.3715907045059300e-003
      -1.3330449162838494e-002 -1.2953826967476588e-002
      6.8516171641508491e-003 -1.1594832004680852e-002
      -1.1831292886754344e-002 -2.6831295255036378e-003
      -4.0638593458754382e-002 -3.1591794366307178e-002
      2.4027803201539823e-002 -3.5344437744115081e-002
      -4.5135893695869143e-002 7.4327858901014732e-002
      1.5114491117519261e-002 6.7587237266561809e-003
      -1.0442771372800561e-002 1.8719963892059526e-002
      1.9644202844724915e-002 -3.6140122778594547e-002
      -2.1494927936822054e-002 -1.5837702901544577e-002
      1.1307996468578487e-002 -1.4396343735444066e-002
      -1.3928721539672236e-002 2.5890875844265093e-002
      2.1243684157709424e-002 5.7199994212308210e-003
      -2.4418518550849704e-003 1.1944889623101265e-002
      1.5819751798137598e-002 -2.6987697736183050e-002
      -3.6162031091705720e-003 -5.9798527499387690e-003
      1.1644249177560101e-003 2.1938402478484609e-004
      -1.5463775797395023e-003 2.2697746198512827e-003
      -3.1266426977951130e-002 -1.9312548087239718e-002
      2.1949749010969462e-002 -3.2483206213937445e-002
      -3.4082071711331006e-002 4.9311066378620712e-002
      -5.8539301274808699e-003 -1.6848073052637344e-002
      1.2155841966652753e-002 -4.1285413258777166e-003
      -1.5285526312994350e-002 1.4330371982142792e-002
      -5.3688723210614207e-003 -4.9356337643090518e-003
      -8.3854739047816689e-003 1.7341572451597334e-004
      -4.5871783100805193e-003 1.2316524889620100e-002
      -2.1310386149393078e-002 -1.9860597110165371e-002
      9.2461962701674335e-003 -2.0306084074865522e-002
      -2.6220021560594255e-002 3.5489742788854813e-002
      -2.7085697387972613e-003 -8.7547173288150086e-003
      4.9540049249028953e-003 4.4165800978343333e-003
      1.5457933681589640e-003 7.8118437459974693e-003
      1.4133002652070674e-002 7.9053243779809764e-003
      -9.4208817737477556e-004 1.0374231300339059e-002
      9.6300788932408392e-003 -2.7634784399435060e-002
      6.7697332250110454e-003 2.5771438269880627e-003
      -1.2438729826754669e-003 5.1373375988669782e-003
      2.0606676221909155e-003 2.3863380105601422e-003
      1.9294168531632028e-003 3.5363546538407661e-003
      3.4384441040897374e-003 1.1547473821267364e-002
      1.4545152626174113e-002 -1.8744916817571358e-002
      7.2882712239386461e-003 1.7047606399134493e-002
      -1.0533591330498606e-002 8.3080997727823219e-003
      2.2162575882406214e-002 -3.1543308289341307e-002
      -1.4256904270404295e-002 -1.4338488361268081e-002
      5.8056748105416898e-004 -1.2105484036698489e-002
      -1.1274546070109796e-002 3.4079757888050871e-002
      -2.3173604863008467e-002 -1.9646368139311973e-002
      8.2198544998815185e-003 -9.6019554774548401e-003
      -2.4030395185319596e-002 4.6089782063795978e-002
      2.6401593975031528e-003 -3.6654408250001119e-003
      -5.9557815007030522e-003 2.9203794210274671e-003
      1.4621505032888817e-002 -2.3403556511785845e-002
      2.1700792831290040e-002 1.2834758930724810e-002
      -1.5991054239722201e-002 2.1244094872251831e-002
      2.0063671041305707e-002 -5.4460961560148874e-002
      -8.7053073487493356e-003 -1.3462144932321006e-002
      2.7434521264129179e-003 -7.5343666552268040e-003
      -2.9955472004509665e-003 7.4473137678308628e-003
      1.4390538535909346e-002 4.9461279250653497e-003
      -1.2349723780937851e-002 1.3024746916304715e-002
      1.5459839353247563e-002 -3.0106909468855584e-002
      2.8823506029132559e-003 -1.4175013781778021e-003
      8.7314479761525484e-004 -7.3676611566503578e-003
      -6.1081635985262579e-003 1.6629879790579706e-003
      2.2554933513105240e-003 3.5661376182362682e-003
      1.1292519688898520e-003 -7.5900570245035787e-003
      -8.9059780426556084e-003 8.3007542536564956e-003
      -7.5211854864439464e-003 -9.8529024668432656e-003
      -2.5034724323812247e-003 -1.2850020814443837e-002
      -3.0772581739864540e-003 1.6267351132126507e-002
      -2.4595166201045453e-002 -6.6457448644660928e-003
      1.4038583832866328e-002 -2.0038065304709158e-002
      -2.5450145262892181e-002 3.9483093224774571e-002
      1.8166662402045002e-002 2.0264315706645976e-002
      -1.2874204288208605e-002 1.7221218679540254e-002
      3.0409345120821638e-002 -4.0967972944206461e-002
      1.0355763914167367e-002 5.7242157737679294e-003
      -1.0704008876756746e-002 1.1637034560722992e-002
      1.5449191583133328e-003 -1.2494848684400752e-002
      -1.3207363483847462e-002 -2.2797423754827625e-003
      1.0099275884516460e-002 -9.6809607326306529e-003
      -1.1637966571896754e-002 8.5244062081657988e-003
      -4.1399484779097899e-003 8.4270131796961348e-004
      5.6589522054539170e-003 8.9432579754336722e-005
      -7.0171755480015726e-003 1.3755499782952645e-002
      -2.3266482382109510e-001 -1.7181905612708470e-001
      1.3893768611353149e-001 -2.1142513729298265e-001
      -2.4945505331189941e-001 3.4641768274825335e-001</_>
    <_>
      5.2413519374174777e-001 4.1221467124486511e-001
      -3.1338814435909590e-001 4.9001514097598792e-001
      5.9601823788421604e-001 -8.8446685389039992e-001
      -4.6112966331327726e-001</_></weights></opencv_ml_ann_mlp>
</opencv_storage>
