<?xml version="1.0"?>
<opencv_storage>
<opencv_ml_ann_mlp>
  <format>3</format>
  <layer_sizes>
    256 6 1</layer_sizes>
  <activation_function>SIGMOID_SYM</activation_function>
  <f_param1>6.6666666666666663e-001</f_param1>
  <f_param2>1.7159000000000000e+000</f_param2>
  <min_val>-9.4999999999999996e-001</min_val>
  <max_val>9.4999999999999996e-001</max_val>
  <min_val1>-9.7999999999999998e-001</min_val1>
  <max_val1>9.7999999999999998e-001</max_val1>
  <training_params>
    <train_method>BACKPROP</train_method>
    <dw_scale>1.0000000000000000e-003</dw_scale>
    <moment_scale>0.</moment_scale>
    <term_criteria>
      <epsilon>1.0000000000000000e-004</epsilon>
      <iterations>300</iterations></term_criteria></training_params>
  <input_scale>
    5.0666096460646045e+001 -2.7369646330393871e+000
    7.8207399845708755e+002 -8.5231885586740255e+000
    5.5806100768250178e+002 -3.7213863847690787e+000
    7.7739259053765375e+002 -9.4142181501503615e+000
    1.0451891564805533e+003 -6.8006998172311075e+000
    3.9305563290940449e+003 -3.9899943733690062e+000
    7.4251881021661029e+002 -7.5370731123743742e+000
    3.6746162549847264e+002 -7.3624233969629778e+000
    5.6220536513885543e+002 -3.7034023916360614e+000
    3.9958757723217136e+003 -3.9747031428801418e+000
    3.4055079012734127e+003 -2.4266755938944091e+000
    3.8276338726260328e+003 -3.2026192341382398e+000
    8.6844035977754118e+002 -8.6047867226567867e+000
    3.6247707934570522e+003 -4.5989939531184287e+000
    2.5582398238966351e+002 -6.0961076481386574e+000
    1.6024256908624523e+002 -5.8276365973015709e+000
    7.4960110351492528e+002 -8.3707054243819776e+000
    5.3098552747473741e+003 -3.9177753477165016e+000
    3.9386478784250894e+003 -3.9833922690979908e+000
    6.5756000521893857e+003 -3.9824067433237591e+000
    4.8177455537080104e+003 -4.4996624307430135e+000
    2.2826195006318514e+004 -1.1162493624551204e+000
    3.6351023987755561e+003 -4.5124762323021095e+000
    6.3822465150845719e+003 -3.5051836643156578e+000
    9.1606894164574794e+002 -1.0915381450499487e+001
    7.4008154812310795e+003 -4.1759489786011583e+000
    4.8463842244581938e+003 -3.8492718115313167e+000
    7.4399884916259534e+003 -3.8142306074020609e+000
    4.2077543489291054e+002 -8.1414074610930083e+000
    6.4802540760656821e+003 -3.6669645602574255e+000
    1.4497170380410353e+002 -5.2567687338591771e+000
    6.6245093368227560e+002 -7.5904575913155172e+000
    5.6888860379013192e+002 -4.2585784373257356e+000
    4.2281792182458648e+003 -4.4261756113281026e+000
    4.1963872914520598e+003 -3.0781836078031790e+000
    5.3784329709367566e+003 -4.9684158669304441e+000
    5.3069610542370692e+003 -3.5277833585755709e+000
    1.6113908684611495e+004 -1.2209737280675097e+000
    5.4598150690198727e+003 -4.5565453165471634e+000
    4.2588965832258400e+003 -4.4056919870123314e+000
    2.9053320124932084e+003 -2.8790087712383707e+000
    1.1362772325997166e+004 -1.8318582636182801e+000
    1.6216375147076173e+004 -1.4117412531108930e+000
    1.8534608865643844e+004 -1.7330814835348705e+000
    4.6180162951887851e+003 -4.6431803344298199e+000
    1.3340269156738677e+004 -1.8495692925631642e+000
    4.2117509235792741e+003 -5.0019719387930826e+000
    3.4346542279899691e+003 -5.6350286216877468e+000
    7.3796181447610991e+002 -1.0097869611159693e+001
    6.8570785728726814e+003 -4.4366168049396153e+000
    5.2212469816708754e+003 -4.3265817610609449e+000
    6.2666230173768781e+003 -3.4652554294805373e+000
    6.0363473110277646e+003 -5.4561526684209936e+000
    2.7660270111877129e+004 -1.2931889285596216e+000
    4.9179219471900296e+003 -3.9351621755343609e+000
    6.9100120606923920e+003 -3.3420090622040579e+000
    2.4896720592635162e+002 -6.0793508709983906e+000
    6.3778218243989786e+003 -3.5747279693168523e+000
    5.3704085831057473e+003 -4.7705283760181221e+000
    7.0438626729615307e+003 -3.8269108353129684e+000
    2.2847079387599391e+002 -6.1998698151376290e+000
    7.0175677297624388e+003 -3.0319984155953126e+000
    5.5988976109406576e+002 -7.9238936519923771e+000
    1.2878932356795563e+003 -6.5548385444383870e+000
    1.0557962718195909e+003 -7.8200617002883446e+000
    4.3907262989080582e+003 -4.5137513872760335e+000
    5.6403164887912553e+003 -3.6978527337935136e+000
    4.4599940909226425e+003 -3.8060201634018251e+000
    6.9315507079671133e+003 -3.1214812579359257e+000
    2.6417110430862227e+004 -1.4338145850874555e+000
    7.1515489105128909e+003 -3.3550628893366548e+000
    5.6800098760665696e+003 -2.8356401200423909e+000
    5.9774501401165071e+003 -4.0666423117548050e+000
    2.0717185126237888e+004 -1.6477023861115871e+000
    2.0883507395057564e+004 -1.3803679281729428e+000
    1.8052143861446897e+004 -1.3096307469640300e+000
    7.8618840603445115e+003 -3.6883080548263423e+000
    1.6980176020660339e+004 -9.6724025208095454e-001
    6.7616245347120048e+003 -3.2012033823652257e+000
    6.1611124578681156e+003 -3.1023088747403520e+000
    4.1039509236417634e+003 -4.0976434758747411e+000
    2.1353958542673561e+004 -9.9835260670318027e-001
    2.4506222517751066e+004 -1.6066545624706865e+000
    3.1031577247279918e+004 -1.1673153554388724e+000
    2.5726447751899912e+004 -1.4378032853842606e+000
    7.1256010664700007e+004 -4.5950374864049021e-001
    2.3908319842480862e+004 -1.3361915002430929e+000
    3.7749443601427789e+004 -8.9258490852693739e-001
    5.1665449003175936e+003 -4.8309857649483607e+000
    2.8156092077603204e+004 -1.2407164419710452e+000
    2.3095344037665895e+004 -1.1790557747726125e+000
    3.6550741599231485e+004 -1.1195857368787001e+000
    7.2591327728884762e+003 -3.5966814028424414e+000
    3.5255196172685311e+004 -7.3888023775372458e-001
    6.5690413391868942e+003 -2.9758831742777034e+000
    9.5097917896328509e+003 -2.1157174008207726e+000
    8.1690663271205835e+002 -9.6315313775209521e+000
    3.3031582658491911e+003 -4.5299806879315074e+000
    4.5918474702498843e+003 -3.7556785361722147e+000
    5.4945963821473770e+003 -4.7715936806086168e+000
    7.2131773525146473e+003 -3.9770429355444308e+000
    2.0875621370207791e+004 -1.1666996267802272e+000
    6.0236833451569910e+003 -3.7517326024780662e+000
    6.4072423049865929e+003 -3.9148751930449959e+000
    4.5989939827583112e+003 -5.2690987840791497e+000
    1.4919859190258807e+004 -2.0204661252623062e+000
    2.4027603735324752e+004 -1.7302209555000825e+000
    2.0136535695088129e+004 -1.6015215247942787e+000
    5.2565409364618108e+003 -4.0479258352528538e+000
    1.6233643673461367e+004 -1.7883650688498969e+000
    5.8710684703763127e+003 -5.1237681730852973e+000
    4.2072918548953385e+003 -3.7712471102579888e+000
    3.1140379062136867e+002 -7.5231177286759952e+000
    6.5362170514978907e+003 -3.8602058663456975e+000
    4.1386590449720998e+003 -4.2724138506805991e+000
    6.5767500247549742e+003 -3.1560879817572514e+000
    5.7472285830032642e+003 -3.1564264552642594e+000
    2.7057216784907912e+004 -9.5965109938880355e-001
    4.9108952164551238e+003 -2.9346192587614279e+000
    8.8957989624956026e+003 -2.8969692953694652e+000
    1.1838715314516844e+002 -4.3142989817951944e+000
    7.8896758722518825e+003 -3.8327800781950390e+000
    4.9267045298433850e+003 -5.2156572417967171e+000
    7.5558611438203816e+003 -3.4472911686172720e+000
    5.2906497477745404e+002 -6.3427182028579159e+000
    8.9509949140382778e+003 -2.3954491791757744e+000
    9.9663166402417448e+002 -6.6315000952061673e+000
    2.1179007915584152e+003 -5.0043581334698404e+000
    5.6819485198659277e+002 -4.3471245548898159e+000
    5.9253694908149282e+002 -8.1579466750882528e+000
    2.9947179917820149e+003 -2.9595382909181498e+000
    2.2818930748932121e+002 -5.5520023504527893e+000
    6.0443024974776290e+003 -4.1575977364235861e+000
    4.4557983868790061e+003 -4.1280894210192356e+000
    4.2329240522148366e+003 -4.2741873626892408e+000
    2.2089652017671634e+002 -5.9092187375867073e+000
    4.9168575086347155e+003 -3.5749644212220724e+000
    5.2238798012524949e+003 -4.5533425984314828e+000
    1.5105497477358924e+004 -1.2744446938989011e+000
    4.8492135044528295e+003 -4.3101572607555569e+000
    5.2300657755704897e+003 -4.2664359192095711e+000
    4.2510214554585436e+003 -3.7236358577922171e+000
    4.0955928524537530e+003 -4.8067962459977389e+000
    6.2048734358658328e+002 -9.1466248486161188e+000
    4.4675710420456007e+003 -4.8280286732473803e+000
    5.8083846623561831e+003 -3.7331278011938891e+000
    1.3843906284166855e+004 -1.9342753933504999e+000
    8.1436707963487943e+003 -4.6432482260742507e+000
    2.0301230071233833e+004 -1.5600722033596111e+000
    3.2036211524933020e+004 -1.2739699396892270e+000
    1.5535241455353182e+004 -2.0954535462611936e+000
    6.2674760059948212e+003 -2.9369426987939828e+000
    6.3602146353628314e+003 -5.3797587755479066e+000
    6.4097505668066551e+003 -3.7476267690363216e+000
    1.6987249620642513e+004 -1.5610092888897242e+000
    6.1382102376894045e+003 -3.5162947502592119e+000
    5.0204481402956662e+003 -5.0801800861081023e+000
    6.7885668066123662e+003 -3.4000109599159556e+000
    3.3396940564378024e+003 -5.2710474966851857e+000
    1.1052607502995097e+003 -5.6948077951808651e+000
    3.1677345346740185e+003 -2.5296118835079349e+000
    3.9307317314862939e+003 -3.6817737262018588e+000
    1.6575227364284918e+004 -1.4964254457094766e+000
    4.6633262881868832e+003 -4.7789534157259554e+000
    1.9273435835596163e+004 -1.2221582901064616e+000
    2.1939588359960981e+004 -1.3676430803459789e+000
    1.4701286049685636e+004 -1.3035436564080918e+000
    4.3919491365650365e+003 -4.6613391286539034e+000
    1.5730508323093614e+004 -1.3694433762602938e+000
    2.0605116914765156e+004 -1.6941537532574520e+000
    5.3016168479073276e+004 -5.4131273818328018e-001
    1.5916999644308793e+004 -1.6508393941559079e+000
    1.9028033524692895e+004 -1.6360636625208063e+000
    1.8233213025359313e+004 -1.4795391506514088e+000
    1.4384271048279010e+004 -1.4918716990237439e+000
    4.2120960985008523e+003 -4.2350482332583255e+000
    4.7220825663136684e+003 -4.2250720407829929e+000
    6.5638902545155061e+003 -3.8306938469671361e+000
    1.6351035963859656e+004 -1.7397897681349257e+000
    6.2674761044103798e+003 -3.6206576208579029e+000
    1.8945018959495537e+004 -1.5882027766319677e+000
    2.3884675544780683e+004 -1.0011525483367587e+000
    1.6308281509175205e+004 -1.4285061429014647e+000
    6.8961428153157467e+003 -3.3278894578200244e+000
    4.8277875399462364e+003 -4.7788574875190601e+000
    5.8446562516049125e+003 -3.6653557904577680e+000
    1.7561535649999332e+004 -1.7647793141885111e+000
    4.0830528042314909e+003 -2.8875345696214998e+000
    4.2117077650645997e+003 -4.7439030524977337e+000
    5.8570339173215289e+003 -3.0310306950866854e+000
    4.9363678065863323e+003 -4.6820766867097321e+000
    1.2383929241750729e+003 -5.0258178148329513e+000
    7.2607380333147432e+002 -8.6655487758855472e+000
    3.2018403917849724e+002 -7.7409153511003721e+000
    3.1795964698460612e+003 -3.4173408951074573e+000
    1.2631293062699986e+002 -4.6611688280475914e+000
    7.7491448294753136e+003 -4.1517887187012299e+000
    5.4531061342636085e+003 -3.1003871326120769e+000
    4.6032416944707074e+003 -3.5572056026559298e+000
    4.6817814270345514e+002 -5.6691304526525714e+000
    4.5865166087999542e+003 -3.8375839391138302e+000
    4.7031321249591674e+003 -4.7868900936894674e+000
    1.7402618419995906e+004 -1.4495480105944636e+000
    4.0658828781035904e+003 -4.6626796668829282e+000
    6.6438948995423161e+003 -4.0344794299704354e+000
    6.1091646020713051e+003 -3.5029388376801709e+000
    5.3403802830020468e+003 -4.7352447426976658e+000
    1.1000826411377764e+003 -7.4392699935488809e+000
    4.1543470736380223e+003 -5.7330284181037916e+000
    5.6622070563071575e+003 -3.3288128159968213e+000
    1.2558480066251324e+004 -1.9031477123853486e+000
    5.7958060987314138e+003 -3.0024597202120233e+000
    2.3538223539046357e+004 -1.5178932768808215e+000
    3.2393414014918017e+004 -1.0618737013297568e+000
    1.3660654570648067e+004 -1.6003475587156737e+000
    7.5160652067324008e+003 -2.1891530939802180e+000
    4.7698995513434229e+003 -4.1063697313596235e+000
    8.3346971233045842e+003 -4.0489700222467446e+000
    1.8945018959495537e+004 -1.4151293971272021e+000
    7.0437617699273469e+003 -3.3915558740065994e+000
    6.7023319921422590e+003 -3.9439042611884330e+000
    7.8162559240710370e+003 -2.6672197879661645e+000
    4.7598089467304508e+003 -4.2127862347796050e+000
    1.9757782088488582e+003 -4.7640966531566811e+000
    2.4784375783281322e+002 -6.0134269436380645e+000
    1.8336963251887514e+002 -7.0234572201693366e+000
    4.4979812084857931e+003 -5.7310670701333049e+000
    5.6404603960495956e+002 -9.7728858580433755e+000
    7.4480889041928658e+003 -4.2506532356870386e+000
    5.5874878541996432e+003 -3.0056401115361409e+000
    4.6799024151509848e+003 -4.2099656529872762e+000
    1.0082931194789387e+003 -7.0455786087843038e+000
    3.5812399110286574e+003 -4.5880270058700932e+000
    3.6981124902228262e+003 -6.0036745665991313e+000
    1.4231184046786380e+004 -1.6365946116958630e+000
    5.0617707921455331e+003 -5.2199188312192932e+000
    5.1926281453788606e+003 -4.6879482595550925e+000
    5.0411118117751503e+003 -4.8518595282112695e+000
    3.1471273211458365e+003 -5.1514621441281205e+000
    9.7920038787667215e+002 -7.7273721237129296e+000
    1.8859092095032847e+002 -7.3959350679442117e+000
    7.1617404622372953e+002 -8.3834459901644465e+000
    3.4004435855167321e+003 -5.7817372224420724e+000
    1.0669945964222063e+003 -6.0372011462503776e+000
    6.9059185922831721e+003 -3.6035204647640815e+000
    1.1659560186965185e+004 -2.6127901608478075e+000
    4.6765317264500582e+003 -4.5562546663251684e+000
    1.9874745866780929e+003 -4.7527819955574122e+000
    5.6395140492057953e+002 -9.7009363214388546e+000
    1.1079739401503141e+003 -6.0797276183793301e+000
    4.2243860779959823e+003 -4.3768023320135878e+000
    1.3153644566587175e+003 -5.8061346324735794e+000
    1.1113436451391267e+003 -7.6318801570518540e+000
    1.9658438922377375e+003 -4.8457841964460426e+000
    9.4187211594500855e+002 -7.3492810104378465e+000
    3.7265612665476618e+002 -5.7947281013412182e+000</input_scale>
  <output_scale>
    1.0526315789473684e+000 0.</output_scale>
  <inv_output_scale>
    9.4999999999999996e-001 0.</inv_output_scale>
  <weights>
    <_>
      -8.9258047303767372e-003 -1.1328950926118068e-003
      -1.1911815217749706e-003 5.0427223765514796e-003
      6.5718749175718303e-003 -9.0916967404964348e-003
      1.2031708340931048e-002 6.7880309542869234e-003
      -1.0268893141171646e-003 7.7994923638655426e-003
      8.1879275818755280e-003 -2.0042097439745943e-002
      5.2169172827490915e-004 7.1884879845562364e-003
      -5.2711812943441790e-003 7.5471890453005621e-003
      9.1320877153565079e-004 -1.0333100473392790e-002
      5.9058231757332840e-003 1.7539016591986364e-002
      -6.9275585448084695e-003 5.7511778761257220e-003
      2.0748743916742255e-002 -2.3253252321487301e-002
      1.1721147841056956e-002 1.9054597986531949e-002
      -1.1753054898684886e-002 1.5625908133576612e-002
      2.3483742714385726e-002 -3.7640570470657976e-002
      -1.6690969289007585e-002 -1.0525062726555311e-002
      4.7189943065547180e-003 -5.8304012773113143e-003
      -1.7388475348692353e-002 1.5733424741942458e-002
      -1.4404924558573123e-002 -1.6850522483522010e-002
      7.1312951380536841e-003 -1.9409741522714592e-002
      -1.5959073917475104e-002 3.5426534502408985e-002
      3.5325099993864843e-002 2.7412534620674271e-002
      -2.8924667437163439e-002 3.8711182201331663e-002
      4.1834243037848350e-002 -6.0638040828548727e-002
      -8.7080494103158341e-003 -9.5480750751110836e-003
      8.7953668457882855e-003 2.1902029312541723e-003
      -7.2814417264413529e-003 -3.7483728507178697e-003
      -2.8012453029402366e-002 -3.0173416615521802e-002
      2.0188561211676469e-002 -3.4700812538272681e-002
      -3.5503307236914076e-002 4.9244619192252682e-002
      2.8217802272780871e-002 1.0473583807769894e-002
      -6.2574110817790480e-003 1.7059116196939450e-002
      3.2737699924012265e-002 -5.1071572375452699e-002
      1.6885755420947360e-003 -4.7104540078883811e-003
      -5.0532295018198082e-003 -2.4182009342530453e-003
      -6.9710629828050319e-003 -1.2264243349668375e-003
      -3.1839468868003325e-002 -2.0101151646401975e-002
      9.0561283080979639e-003 -2.7610736406589065e-002
      -3.0222751432730940e-002 4.4221833874214814e-002
      1.4525414708482260e-003 4.6155148057770139e-003
      -6.3389628433580206e-003 8.8878782788956532e-003
      1.2411147682312659e-002 -5.5004129382615558e-003
      -4.7958516643741645e-003 2.6411913257583159e-003
      2.9842807320558913e-003 2.6866175266389734e-003
      -3.8520725199610702e-004 1.0131623570085711e-002
      3.7819689633597053e-002 3.5811651777178953e-002
      -2.8212938593931990e-002 3.7384696836836769e-002
      5.1191567327331752e-002 -6.4645948475347895e-002
      2.0526591074600954e-002 1.4237828414903930e-002
      -2.1745126104654747e-002 2.3518284718940116e-002
      2.2607227233480468e-002 -4.9731646587091428e-002
      -3.8145900456886335e-003 -2.0183641930309937e-004
      3.2881428855109935e-003 -8.7852936240293607e-003
      -9.8836257769225233e-004 1.6626788572398070e-004
      -3.9754925837240584e-003 -2.9668531217081706e-003
      8.6173023778113311e-003 -1.0324084632992944e-003
      5.7437555521467282e-003 1.4038311086165282e-003
      4.7179499699766828e-002 4.4688724541435992e-002
      -2.6020604000412943e-002 4.7522588942672229e-002
      6.0396334682100108e-002 -8.6238627276598243e-002
      -1.4363996869160499e-002 -9.7381740706898173e-003
      1.4634671388369944e-002 -1.6367087803126984e-002
      -1.6579282330857138e-002 3.2139227863021987e-002
      4.2452312946187195e-003 5.8364378123482380e-003
      -8.2109395071722942e-003 1.2493257409527305e-002
      6.5231160726415428e-003 -8.7462787893233911e-003
      1.3929728728811151e-002 1.3625261270265525e-002
      -3.4370943340295227e-003 1.2378329513541600e-002
      1.3212396957393022e-002 -2.9448054804102571e-002
      1.3187291439578617e-002 1.0811622033090849e-002
      -1.9094757291638238e-002 2.2214884319451376e-002
      2.2877371275629173e-002 -2.9567913608155118e-002
      -1.2916164777121467e-002 -1.5062560130822722e-002
      1.1821380896842218e-002 -1.2029953217292043e-002
      -1.3801237033576151e-002 2.8175413431728809e-002
      2.4682405180404033e-002 2.0462123615158225e-002
      -1.6059716371450344e-002 2.9925691726031989e-002
      2.9097733976605627e-002 -4.4457464270411542e-002
      6.9429256401364334e-003 6.6870283291072842e-003
      -1.3259631363285585e-002 6.8362433074729678e-003
      2.0203353373094913e-002 -2.1923569912931117e-002
      2.0582195026049000e-003 2.2829629585509217e-003
      -5.9550843040963655e-003 8.7892808261451592e-003
      1.3678650738256097e-002 -8.6489225267438550e-003
      -2.8932635975613283e-002 -2.7417108062049354e-002
      1.9382168140877069e-002 -2.8374154583501836e-002
      -3.6133943873280117e-002 6.0347357320910698e-002
      1.6634203327187801e-002 1.9208680182588950e-002
      -1.9962168006815603e-002 2.3410528874548767e-002
      2.9094262731734065e-002 -4.0608527155810176e-002
      1.7862868690463407e-003 1.8904072212600253e-003
      -4.0830616087199232e-003 2.4277846673200487e-003
      1.2412447641394264e-002 -1.3054560527214919e-002
      -1.1144751044524583e-002 -7.6582702888479438e-003
      7.6376270269834234e-003 -8.9588806831087647e-003
      -1.8026780818469923e-002 3.5121168332599130e-002
      -5.1151295141293220e-003 -2.6494033223758264e-003
      1.2170370671393206e-003 -4.7362278789430242e-003
      -3.5424181547516154e-005 1.5456874408726520e-003
      1.8367350529631919e-002 1.1770153240162085e-002
      -1.4441846365380658e-002 1.7329403797322365e-002
      1.9545401891830180e-002 -2.3454076407811074e-002
      -2.3924426358640258e-002 -1.7003732215691320e-002
      1.2207001622039200e-002 -2.7423456906453217e-002
      -2.7329361705588417e-002 3.0214396762975840e-002
      -1.6419010405448534e-002 -6.9702872483588217e-003
      4.0204526375593758e-003 -4.1192069935590860e-003
      -1.4081949348464578e-002 2.1555709267242675e-002
      -3.1204242107073100e-002 -2.4591956067836856e-002
      2.4240558213704386e-002 -3.0951162627843927e-002
      -3.2925351154391616e-002 4.9777485129919197e-002
      -1.7694416873312857e-002 -2.1453051152433719e-002
      1.3791789882249340e-002 -2.4445974179553121e-002
      -3.3101747938662711e-002 3.5181486913664572e-002
      1.0265041407367633e-002 1.0968071497274101e-002
      -7.7225356590066027e-003 9.3512068575580826e-003
      1.5572569478925130e-002 -1.8387867589789907e-002
      -2.3015486406894124e-002 -2.4873809396323977e-002
      1.6700284038388791e-002 -2.0016963166221181e-002
      -3.8838689839598796e-002 3.9461189628902375e-002
      2.4417987395375002e-002 2.7501799195735550e-002
      -2.4492716865816822e-002 3.1716308923267024e-002
      3.1479147487549819e-002 -5.8792159470369962e-002
      3.7487636085443955e-002 2.7641137323038224e-002
      -2.4341883836976573e-002 3.6097152945966257e-002
      4.9972989347043417e-002 -6.7951954163294928e-002
      -1.9529538833651496e-003 -6.7396548616609625e-003
      4.2438188012053398e-003 -7.6883808319676578e-003
      -5.9082539908197869e-003 -2.0358633907508771e-003
      -8.5409523666696849e-004 -5.6000880700059650e-003
      1.0078764962931405e-002 -5.0221631077239405e-003
      -9.0389917471284820e-003 6.3384491070889977e-003
      3.1164653667687622e-003 7.7566977357107483e-003
      -8.4229795765939502e-003 4.6196482576968435e-003
      1.7166280643275147e-002 -2.1351295489499201e-002
      2.8392183222353554e-002 2.0699485764915121e-002
      -2.0130623283523830e-002 2.6051386032063445e-002
      2.2779739431151993e-002 -3.7846602315249139e-002
      1.4022243255098654e-002 1.9403136500999077e-002
      -1.1873032771489588e-002 1.9501360705697957e-002
      2.4483277626402445e-002 -3.1067402677960095e-002
      -1.4724283756157508e-002 -1.1585097263853828e-002
      4.5617831043411302e-003 -1.5454814589313729e-002
      -1.7657494822311635e-002 2.4747120911982608e-002
      -2.0192416144044472e-002 -2.2374226369855820e-002
      1.4556954473173019e-002 -2.9245197738076888e-002
      -2.4121848235349207e-002 4.3522070177758214e-002
      4.2971695811091686e-003 4.9356856957769746e-003
      4.0031121827617338e-004 -6.1958296189725580e-003
      -1.4692462376424457e-003 -4.5773468798675724e-003
      -4.2001353991915910e-003 3.7430162218220742e-003
      6.2100859694134919e-003 1.8070032877067139e-003
      -5.4909955515172366e-003 -2.1627159797843367e-004
      3.2767993478703822e-002 2.2786774601455759e-002
      -1.2393878464275634e-002 2.1217191059753646e-002
      3.2844703105412092e-002 -5.1225190440034367e-002
      -3.0409070103811303e-002 -1.8976287240722305e-002
      2.3646860082406223e-002 -2.4964829359760701e-002
      -4.1421722187799999e-002 4.8511025864450406e-002
      4.1303701146170479e-004 4.4852637562011344e-003
      -1.1931787552952773e-003 2.9988233191324989e-003
      -1.8310479863426485e-003 1.1310403537120563e-002
      -2.5819325818265952e-002 -1.0044934134279702e-002
      4.8125346834194324e-003 -2.4181660870909168e-002
      -1.8400084148753174e-002 3.6122653215326664e-002
      3.5749332985775518e-002 3.8374638894260141e-002
      -1.9748625438692213e-002 4.0261054614691504e-002
      4.7494052425004520e-002 -5.9422329768978190e-002
      -2.2208924706728595e-003 1.9888935501556479e-003
      -4.4572948442000559e-003 -1.8148132446875213e-003
      1.8623607016126113e-003 8.6346833992194459e-004
      3.4170643057015830e-002 2.5389742145286248e-002
      -1.8529197735598368e-002 3.2635232140578181e-002
      4.5903919424291430e-002 -6.5799541581380586e-002
      2.1170802775454592e-002 2.0491805799983050e-002
      -1.0129880395597731e-002 1.9423902127611074e-002
      1.4947638503959059e-002 -2.4103817071436367e-002
      9.7690259232250682e-003 1.1014884492896213e-002
      2.0456823377018023e-003 9.0991539555261378e-003
      1.2247869130097143e-002 -1.4548220355498281e-002
      5.1968854057320811e-005 -9.8500429403448348e-003
      4.6896482228064229e-003 -2.2550658619553961e-003
      -3.3633895179126126e-003 5.7348234264617643e-003
      1.2387316999481325e-002 1.9129441309236578e-002
      -3.6230037433679970e-003 1.2103067051460838e-002
      1.9479599468194067e-002 -3.0365151053285338e-002
      -4.8963616908999079e-002 -3.5267342721344859e-002
      2.6523035198744174e-002 -4.9555946111632741e-002
      -4.6981889127550996e-002 8.8609113112284060e-002
      -2.6621882608240454e-002 -2.0028349453798732e-002
      1.3049700591672476e-002 -3.0236777473551552e-002
      -3.0444917441206958e-002 4.5019293919167175e-002
      -5.7012207903385948e-004 3.3260605113266412e-003
      -1.3269984502715943e-003 6.7004311319250739e-004
      1.0113803315370290e-002 -7.3383801917542308e-003
      -2.1532646457030208e-002 -9.5926359640652065e-003
      1.6129513572169060e-002 -1.1451506411256850e-002
      -1.6221320881359257e-002 3.4686365673185920e-002
      -5.3916693451968537e-003 -8.0072104115285134e-003
      1.0618236768776558e-002 -1.4209287066916687e-002
      -6.2920444377039548e-003 2.2127342415356112e-002
      -3.1736444498344583e-002 -2.8635817520214480e-002
      1.0615361178534528e-002 -2.8695932281350717e-002
      -2.5400100582238780e-002 3.9802182495561306e-002
      2.6904267530385207e-002 1.2526992528553464e-002
      -2.0186276264551488e-002 2.0614719462260466e-002
      2.1864685044495080e-002 -3.7870032727673551e-002
      -4.4716534257962931e-002 -3.1314601498480490e-002
      2.3472137806669506e-002 -4.4285890983916658e-002
      -4.7452550830652522e-002 6.1129391904474160e-002
      -8.2917781896570883e-003 -1.2973385777223575e-003
      3.3049835721205918e-003 -7.4287896546210430e-003
      -1.1973730939043021e-002 7.6943645899518343e-003
      -1.9784875214262261e-002 -1.5803519551794577e-002
      1.3717885900058631e-002 -1.4927518544323910e-002
      -1.3381950423705576e-002 2.5811484833691348e-002
      1.2737033441180351e-002 6.6847836812805013e-003
      -4.8094387742357429e-004 4.7536720596382974e-003
      1.5204850665815464e-002 -8.7198800875373812e-003
      5.2426202104648729e-003 3.2107862895978429e-003
      -3.9656826319080483e-003 1.2897279765689341e-002
      1.2743772200972602e-002 -1.3363467222314617e-002
      2.6578792353254815e-004 -2.7177260939790348e-003
      5.2718872290851895e-003 9.1696732820062236e-004
      -7.2831247426206110e-004 -1.2706529424470703e-002
      1.1255149745752091e-002 7.7250516995262938e-003
      -1.2674017889555647e-002 8.5495142986269299e-003
      1.4161664473169123e-002 -1.4777122040728001e-002
      -1.7229818956356476e-003 -1.1383190541114179e-003
      8.3719780769291215e-003 -1.5621211925726530e-003
      3.4854035833075414e-003 -2.6222217289361130e-003
      -2.2745284696411912e-002 -1.1316234729179577e-002
      1.1261561656862189e-002 -1.1510976639687732e-002
      -2.0712780859120476e-002 3.5565943982237662e-002
      8.5810510943692747e-004 -1.1350337301467496e-003
      2.7747554842176970e-003 -5.1259549806392237e-003
      4.4733961165709197e-003 8.7627746961657163e-003
      -5.3016374668904531e-003 8.5882495202563606e-004
      -6.6874384183444370e-004 -2.7919926964920178e-003
      -1.0795520899938977e-002 1.2829637367201949e-002
      -5.5438909867004324e-003 4.8754988685308929e-003
      5.1958207452217076e-003 4.6781296038616088e-003
      -6.4274314253993919e-003 -8.8818046293843572e-003
      2.6884019040169571e-002 3.1040923995643441e-002
      -2.3240568403207054e-002 3.1035776088160279e-002
      3.4538340956980745e-002 -5.8011322176107438e-002
      -1.1763146253572465e-002 -1.4979034931922455e-002
      1.1222370694731882e-002 -1.4417859923549972e-002
      -1.0260392365699139e-002 1.4584443733831148e-002
      -5.5534580034651958e-003 -1.5352719581800396e-003
      -1.2897113364455310e-003 -8.7084948204759084e-003
      -9.9886184705109279e-005 5.9073367140581867e-003
      9.9895746489803237e-003 1.6911458124325859e-002
      -1.1344912704597410e-002 1.9086904752511753e-002
      1.9780894232462525e-002 -2.0274382504857899e-002
      -6.3332437401403333e-003 4.8119017751826754e-003
      2.7850913193387485e-003 4.6854756000766924e-004
      1.8672039922460549e-003 9.4972317418802066e-003
      4.2713097159016597e-002 3.1576827494510296e-002
      -2.4287915697528212e-002 2.8590473610357003e-002
      3.3708394712419792e-002 -6.5363452629078944e-002
      3.1465931654007140e-004 2.3603046390215495e-004
      -6.1918800745280065e-003 -8.2343137536334426e-004
      5.4962913804593510e-003 3.7207706118131379e-003
      1.8808845826956511e-002 1.9061327872446965e-002
      -8.9967358674965161e-003 1.5011995452045511e-002
      2.2670108645123924e-002 -3.9539588833583848e-002
      9.3777677251695151e-003 1.7163403241439921e-002
      -1.7282210593257917e-003 1.1272713626260349e-002
      1.1255530312202366e-002 -2.4487368011749673e-002
      -5.4981891650843304e-003 -6.8531445918577497e-003
      2.7250867128639634e-003 3.9070039737116955e-003
      2.9289604348698320e-003 -9.2164772472849658e-003
      1.8207642324749366e-002 1.5525467085280756e-002
      -6.4201252221693294e-003 2.1443273873973205e-002
      1.4450028982679129e-002 -2.1668032423272445e-002
      -6.2695961268603882e-003 -6.8410474593787081e-003
      1.9192049603581618e-003 1.9997736396590114e-003
      -6.3041916537535467e-003 5.9954194080811445e-003
      -1.3219797297967231e-002 -1.5591433978356167e-002
      6.4538566015637754e-003 -1.1993393589427241e-002
      -5.6652909768400940e-003 1.2898549295309597e-002
      1.5967905798691839e-002 1.4598697811477700e-002
      -1.7133159535264290e-002 1.2784389071420143e-002
      2.0816789049766270e-002 -3.0000160518603058e-002
      -1.0361414755228679e-002 1.0519653944397738e-003
      1.1150108319760269e-002 -8.4996885181386726e-003
      -8.7789952538804335e-003 1.5373880650129760e-002
      -1.7119890290099270e-002 -6.1689009910500915e-003
      1.3969845376668693e-003 -1.1219313138315425e-002
      -7.6460606778747317e-003 1.1108764021880812e-002
      -1.8589588611779465e-002 -1.0942817060770186e-002
      6.1569079547814784e-003 -2.3817516697737406e-002
      -1.9262708392074664e-002 3.5310074232711798e-002
      -1.8952345382469316e-002 -1.2267217442181276e-002
      2.0150710899424048e-002 -2.4999525632626390e-002
      -1.8904566683856334e-002 3.2462664909311260e-002
      -1.9257344495827840e-002 -2.1775627052558109e-002
      1.9430293181615849e-002 -1.3210833633155776e-002
      -1.7558058750850928e-002 4.0830436672176604e-002
      1.5339414160709065e-002 4.6343674516664607e-003
      -4.1061738028906865e-003 4.3146914402316791e-003
      9.5223325419254816e-003 -1.1500118952583334e-002
      -1.2739455445445028e-002 -1.7586064159134517e-002
      4.9945053910691465e-003 -2.3731242023750463e-002
      -2.5689462179070786e-002 3.1405016226096795e-002
      2.0965247546308310e-002 1.2028092194652272e-002
      -9.1296313514277975e-003 1.7263677918817447e-002
      2.6398694804217131e-002 -3.0694951233499978e-002
      -2.6981836190838890e-003 -5.3948890583008257e-004
      3.4882600647774902e-003 -4.7524994856286773e-003
      -1.2561905037279267e-003 4.6835890723146770e-003
      6.7485781181983902e-003 1.0743315114596358e-002
      -3.5690418307079432e-003 5.6751304625844963e-003
      1.8758946410586379e-002 -2.4231255970480550e-002
      -1.2460540759020604e-002 -8.1504636452556095e-003
      6.7830677542649589e-003 2.5276951788094884e-003
      -3.9087851409397483e-003 2.5384963634906086e-003
      -5.8314131919898768e-003 -7.5679932140031445e-003
      2.7883097034305071e-003 -8.3479785216459424e-003
      -2.9929603136936329e-003 -3.5244520472176490e-003
      -5.4462589144641258e-003 -1.2130180549784673e-003
      -2.6391073629238896e-003 -1.3278688361037230e-002
      -1.0009134395832349e-002 1.5728283170022866e-002
      6.6882099875053454e-003 -2.3779448574091991e-003
      -7.7625500469595751e-003 1.0277419259375595e-002
      8.1152366291145205e-003 -1.0473135013860402e-002
      3.0758923474236956e-002 1.8160519417485484e-002
      -1.8304191785606463e-002 2.7946707070066974e-002
      2.8268303348883382e-002 -3.5977088849456204e-002
      1.2774962145460712e-002 5.8170423050056186e-003
      -1.0787434412443161e-002 7.6287064328190591e-003
      1.4631506515568311e-003 -2.7140857017816343e-003
      1.6710231156684061e-002 1.1370916334617157e-002
      -9.1616196014205637e-003 1.6005949522047296e-002
      1.1736092996667599e-002 -2.3755811625341110e-002
      -5.2261539389734837e-002 -4.5285445339352415e-002
      2.3533428719880997e-002 -5.0121414937150714e-002
      -6.2657632066547522e-002 9.2381478012665233e-002
      3.2727212600716905e-002 2.2625619657671563e-002
      -1.7518920478792194e-002 3.2980701604081272e-002
      3.7891506544494878e-002 -5.3528846179679075e-002
      -6.8488126474875377e-003 -1.5604874735507643e-003
      1.1347821010674681e-002 -1.4187406109985345e-002
      -3.4592128344697547e-003 8.5045715236144997e-003
      2.1247407209650537e-003 2.6193276502861598e-003
      -3.2423966573504547e-003 1.0858948759308268e-002
      -1.2583540760953481e-003 -1.0395425496211686e-002
      2.1832268146509348e-002 2.0983615407461603e-002
      -4.2409283625306493e-003 2.3208758972769087e-002
      1.9883333604823542e-002 -2.5131260113577927e-002
      -3.1341129443149707e-002 -2.6618216999538161e-002
      2.2715456163601086e-002 -3.9308817884266968e-002
      -4.4934864051768206e-002 5.4887391657303497e-002
      -1.1836648676165098e-002 -6.7413615684511425e-003
      7.0365006946904781e-003 -1.0682815582297426e-002
      -1.3347793615901424e-002 1.1255522400941268e-002
      3.0341743928618506e-002 2.0718340923136663e-002
      -1.6054294967823662e-002 2.2178778905236979e-002
      2.2272870340342941e-002 -3.7964883447324092e-002
      -3.0462501167962508e-002 -2.5328947758796089e-002
      2.7138568897797363e-002 -3.7107475291155004e-002
      -3.7490258484020857e-002 6.3295311788694048e-002
      2.1217239639712325e-003 -2.1146044189809666e-003
      1.9623685077125850e-003 7.8590737888716809e-003
      3.3772938484217759e-003 -6.3565604206706839e-003
      -3.4671273094984190e-002 -3.6067993322857636e-002
      2.7982633726318144e-002 -4.0046939192891221e-002
      -4.4953508536033540e-002 7.1360615930738600e-002
      -1.4087945553618614e-002 -1.2933435271928917e-002
      1.6169569269338182e-002 -2.5248256320225853e-002
      -1.7893704429583390e-002 4.2107626021434433e-002
      -5.4057261635420961e-003 2.8876453250633078e-003
      2.2169895029003571e-003 -2.6493136436166569e-003
      2.0909573970214470e-003 3.2505119016031057e-003
      8.0383085290352749e-003 1.5616633355014132e-002
      -1.1760013634109811e-003 1.0673795069405896e-002
      1.4820888203194596e-002 -9.7251053076260769e-003
      1.5008952017428091e-002 6.6080234403216422e-003
      -1.7875415750063437e-002 1.0729253110950828e-002
      1.4704920941651855e-002 -1.5143789079922568e-002
      -7.9477827033490513e-003 -1.0534122672029441e-002
      1.0391008059217603e-002 -1.3155801145878108e-002
      -4.1575887709121183e-003 1.6584996531258736e-002
      7.6699866033248607e-003 1.4963141775152392e-003
      -7.0848175767511982e-003 4.5834202960985870e-003
      1.1681931576503515e-002 -1.1582738525081196e-002
      -2.4030626627295826e-002 -1.6575604858828977e-002
      2.0392076969491118e-002 -2.8063632032154371e-002
      -2.6848537077374137e-002 4.8397583666392519e-002
      2.5711322579773505e-002 1.8206302497654186e-002
      -9.5620397265651358e-003 2.3170670516491514e-002
      3.4879589486662067e-002 -4.3926731759305268e-002
      -2.3152942383559926e-002 -2.2032720099086807e-002
      8.0118105894406624e-003 -2.1152155130259719e-002
      -3.4765138945735408e-002 4.9668489056504277e-002
      -1.4443296719846042e-002 -1.3329264372715080e-002
      1.8452908287635558e-002 -1.3561708327370907e-002
      -3.0336492119741740e-002 2.4550257454878620e-002
      1.7584291352080839e-002 1.9021712454562738e-002
      -1.7879104836014244e-002 1.8365642363951315e-002
      1.3533221879785128e-002 -3.0215603794367926e-002
      -1.6076319865728043e-002 -1.4926738743885908e-002
      1.5908929350313281e-002 -1.3113287054729614e-002
      -1.2833291134683823e-002 2.7737443119768244e-002
      1.7245980014481334e-002 1.3467398697190008e-003
      -3.6583823524830271e-003 8.7643311557144329e-003
      6.1282045219694294e-003 -1.3209438140780707e-002
      -3.4605524257384828e-004 2.1220239484457353e-004
      8.6086247959273211e-003 -2.4287952339390249e-003
      5.3112597684886907e-004 4.5690585231150625e-003
      1.4850794425851624e-002 3.1419835666167237e-003
      -2.5170516592429794e-003 1.5954374371183008e-002
      9.2602823020215067e-003 -2.2937897990139896e-002
      1.5920686716706177e-002 1.0987146826687808e-002
      -9.2784872677806850e-003 8.3445687842729609e-003
      6.9736796471857954e-003 -2.0657004215939089e-002
      -1.3991585469770860e-002 -1.3220238420782508e-002
      -7.6799682423272489e-004 -1.1704535033120404e-002
      -4.2255040466832672e-003 1.2613111295641230e-002
      2.7121900559216119e-002 2.5156301069908932e-002
      -7.4840245376677590e-003 2.1533731221027211e-002
      2.6768062069914427e-002 -5.0468068848653472e-002
      -7.6336222646786822e-003 -8.3256163907717059e-003
      1.1171283727352837e-002 -1.5469188300641977e-002
      -1.4015920460376493e-002 1.7340852824963823e-002
      1.3263079399518606e-002 1.7507342417614365e-002
      -1.5682978030655697e-002 1.8083018992525211e-002
      1.9838051287044210e-002 -2.8915788801450081e-002
      3.6547332607781799e-002 3.1811262751608262e-002
      -2.0710257045954836e-002 3.5811289223911427e-002
      2.9418876485462868e-002 -4.9897645823298677e-002
      2.0445823948868586e-002 1.9608057368788793e-002
      -7.3661651417910737e-003 7.1555956432163394e-003
      1.9309465738486551e-002 -3.6132360987701354e-002
      2.3694279464569031e-002 2.9139654797644871e-002
      -2.3339869570708615e-002 3.2810050214855557e-002
      3.0013963388309264e-002 -4.9431396841983263e-002
      -7.8436417285854820e-003 -1.0879851380604690e-002
      5.8614882509946164e-003 -3.7926582515213801e-003
      -6.0702943829208699e-003 1.0206059763215342e-002
      1.7462083960702836e-002 7.2529820520866794e-003
      -4.3130380398189970e-003 1.5627678289076668e-002
      2.0225450504135142e-002 -2.0156826653910054e-002
      -1.8187071381662111e-002 -1.3925072228108607e-002
      1.6417961000046635e-002 -2.2092413267200142e-002
      -1.5710306284977091e-002 3.1418705334888247e-002
      9.8271089927100853e-003 2.2806404889386296e-003
      1.8374105255025094e-003 1.9196635221528416e-003
      2.0386430433594191e-003 -5.6253834029679232e-003
      1.4622282697095382e-002 8.3217889309896310e-003
      -1.0721952992215726e-002 1.3874236312054228e-002
      3.3818452596808238e-003 -1.5195611024804575e-002
      1.0897846028684378e-003 -5.4430682866674256e-003
      -1.7497557952866839e-003 -6.4982693537410131e-003
      -7.8077136219843000e-003 2.6010315772699265e-003
      -3.8624963708726270e-002 -3.2841346173726395e-002
      1.9639739340602445e-002 -3.3709677629669851e-002
      -4.3076391103133008e-002 6.3908417591952149e-002
      -1.4680453925096031e-002 -1.2541222654480835e-002
      1.6619967944871361e-002 -1.8353166603242162e-002
      -2.8460031936407049e-002 4.3165995935099358e-002
      -3.0354558635196909e-003 -5.3896158286633918e-003
      2.7929539699028203e-003 -3.2151906269887926e-003
      -7.4393377301939954e-003 1.3300501137562350e-002
      -1.3979155582334705e-002 -3.2779890703632285e-003
      6.5799433421361323e-004 -1.4084971860733249e-002
      -1.4383924006378826e-002 2.6851534468247017e-002
      -3.0066823217499133e-002 -2.0505937048740843e-002
      1.3046350475005655e-002 -2.3867977384026361e-002
      -3.5527407988154000e-002 4.2103285157065615e-002
      9.6646195868751884e-003 5.2212089091565779e-003
      -1.1412654337151504e-002 8.8457471169928817e-003
      1.7924956147296008e-002 -1.9593798348224507e-002
      -1.1973116271236754e-002 -1.6898973654529213e-002
      8.8812609199882733e-003 -8.9317396442933645e-003
      -1.3662412134609406e-002 2.8330764637706660e-002
      -2.3901297954338476e-003 5.9837483523021481e-003
      9.8589572056809963e-004 3.9887265677048577e-003
      -8.3426769743053242e-003 1.1101914333441853e-002
      3.3346833711104949e-003 -2.4281960752780903e-003
      -9.9794105640487983e-003 7.9922544884674252e-004
      1.8194466873916008e-002 -1.7176761998850352e-002
      1.6081311961746090e-002 1.0798157846222201e-002
      -2.3110353232294609e-003 6.8159379300659316e-003
      7.6836130001924682e-003 -2.2834695704367868e-002
      -2.2030797904526472e-002 -1.5503190093519126e-002
      1.3916459627692156e-002 -2.0545463557192004e-002
      -1.0474456096354789e-002 1.7897607346228882e-002
      9.3209818411906075e-003 3.8055750417542760e-004
      1.3429213240475752e-003 2.1554702083988403e-003
      3.2803231797242272e-003 -3.6916128856241221e-003
      -4.4969702312512169e-002 -4.4115783696001352e-002
      3.4447703479202278e-002 -4.4661103284263398e-002
      -6.0709261787981465e-002 8.5280211708789952e-002
      2.7002028775428795e-002 3.0373522088610685e-002
      -1.7401069446469689e-002 2.8465088544594539e-002
      3.6201416992269461e-002 -5.2176458784738394e-002
      -1.1005759361434464e-002 -1.0278008635247433e-002
      6.8778683381924338e-003 -2.1009526283005647e-002
      -7.7384796136099106e-003 2.0053308446902198e-002
      1.2501818051987195e-003 -4.3295148471418606e-003
      9.8631888035465819e-003 -9.4599505585025729e-004
      -1.0909125015873751e-002 1.8762820957054780e-003
      -1.3571704386548457e-002 -1.3562310255627003e-002
      1.3412349882224443e-002 -1.0089527589003520e-002
      -1.1857212949329980e-002 2.1755139164581067e-002
      7.6320050272943932e-003 1.0986296713902674e-002
      -2.0734458803590905e-003 1.0073699808132143e-002
      1.0004472504552026e-002 -1.1003424334287580e-002
      5.2971808292310428e-002 3.9758738409133840e-002
      -3.0020112725022623e-002 5.7030681741315419e-002
      6.2688916774239212e-002 -9.0176605845171273e-002
      9.7323188765904654e-003 -6.4429153900104591e-004
      3.5099813495763402e-003 -2.4965837401441735e-003
      8.2509888325772319e-003 -4.7880089131534650e-003
      2.8559225602216515e-003 4.7492957143484673e-003
      4.5664366007184317e-003 9.1302803143082662e-003
      6.6338091291418119e-003 -7.1452388005679816e-004
      -1.3622192158215434e-003 4.5716041395919222e-003
      -1.0461163463842032e-002 -1.2698072692969807e-003
      1.4013460811516281e-002 -7.8634262258159369e-003
      -2.6917719911142548e-003 2.5929336104652920e-003
      -3.4234660461937975e-003 6.2132674236103280e-003
      7.7112404468658311e-003 -5.7236404418284344e-003
      1.5737691972780375e-002 4.4210793626421061e-003
      -7.0687546675860949e-003 5.9533477618670992e-003
      8.1349278162670419e-003 -2.2461272226196764e-002
      4.6651468006073003e-003 -1.4878059484707818e-003
      8.3064006145936646e-004 -4.1500771628830895e-004
      1.3637479556873593e-002 -2.0811837670467005e-002
      6.1503231633103790e-002 6.1196931314162262e-002
      -4.4253900620105119e-002 7.0685227151873239e-002
      7.8543461671907538e-002 -1.1572950793800768e-001
      -3.7520948368349447e-002 -2.9953161808353102e-002
      2.1228351296238852e-002 -3.9304743603126906e-002
      -4.4154167664035140e-002 6.9227269737713676e-002
      -2.5740089135670191e-002 -1.8013687729497827e-002
      2.1860264504643866e-002 -2.2309599297336499e-002
      -3.0323350761041770e-002 5.7052283065991832e-002
      9.2801602705474238e-003 -2.1537062745154529e-003
      -7.0746562174212133e-003 2.4832700525067885e-003
      2.5183742347268255e-003 -8.5892570232563002e-004
      -4.4560703903355793e-002 -3.3201540795320408e-002
      2.8571530611109817e-002 -4.7988972944636693e-002
      -5.5667206087881414e-002 6.2622740484784598e-002
      -2.8261929105391291e-002 -2.4128491693090403e-002
      1.9674323038715434e-002 -2.2720315710725084e-002
      -3.1325297738839721e-002 4.3407662426899203e-002
      -3.4713627740810618e-002 -3.4431619885991048e-002
      2.4557138442551474e-002 -2.9400938807825044e-002
      -4.6969432467416992e-002 5.5175054899120536e-002
      -1.8698017300666489e-002 -2.0632830698168216e-002
      1.4545798350207516e-002 -1.3768664372997135e-002
      -1.9421275259460441e-002 3.0160113863134941e-002
      2.6786917516858352e-002 1.9922047400227350e-002
      -1.9886976890065817e-002 2.7717669365634058e-002
      2.1930925384458341e-002 -3.4074201732829407e-002
      2.9519311131730522e-002 2.7794639945845037e-002
      -2.5545689612982602e-002 3.1126778737420046e-002
      3.4538973787588967e-002 -5.6798223044446421e-002
      1.9810621235842714e-002 1.3969539278683270e-002
      -7.2710982075803524e-003 2.1230466374377303e-002
      1.8643992388014660e-002 -3.2939891849890254e-002
      5.3678494510867279e-002 5.4519908346935028e-002
      -3.7420088624020562e-002 6.0136918722484820e-002
      6.8092842501738110e-002 -9.4698717350023526e-002
      8.5989756045288541e-003 8.2728560858510887e-003
      -5.3670457102300692e-004 7.8969520502988576e-003
      1.6363363877048995e-004 1.4049597995846050e-003
      1.5196111645260607e-002 7.9707152071198575e-003
      6.2053501483665845e-004 1.6048411085970035e-002
      9.8126252617724754e-003 -1.6613537156543699e-002
      1.8497656429212068e-004 6.3130780678655792e-003
      -9.6577805109545093e-004 -6.1026028449315331e-003
      -2.6309738056319136e-003 -2.9679462180344420e-004
      1.2108326893716406e-002 1.9894982131393200e-002
      -9.7791951006229675e-003 2.2247289252763595e-002
      2.2337917997254219e-002 -3.6751036414901662e-002
      -2.9919261044973482e-002 -1.1786991365381779e-002
      1.7322827151865887e-002 -1.5269650327906843e-002
      -3.0586710161195182e-002 4.7328300622455667e-002
      -1.9290929283707167e-002 -2.8615691650452572e-002
      1.7086975576686866e-002 -3.1768729441840490e-002
      -2.9350152062137841e-002 3.9951506148266813e-002
      -4.4499916623056350e-002 -3.3012411334638371e-002
      2.5674910480225237e-002 -4.1592913172065177e-002
      -6.2249938910382566e-002 8.5042745266843911e-002
      -3.0235139753312386e-002 -2.5525751142347092e-002
      2.4201440183450305e-002 -2.6564689825298495e-002
      -3.8866346294216536e-002 4.2822152595462681e-002
      -7.8358059258985206e-003 -1.2121478428810905e-002
      1.1379991735017581e-002 -1.2927767140201793e-002
      -9.6492125368865030e-003 1.8046469707053699e-002
      5.7867340490364311e-003 6.1265812396585715e-003
      -4.4898442204327317e-003 8.4071501182075657e-003
      6.8613825589833206e-003 -1.1985428140178257e-003
      -1.3252122471034957e-002 -7.9140656337256254e-003
      2.9089399837404469e-003 -1.3372958949537342e-002
      -1.8758160219322327e-002 3.7685667446546396e-002
      1.3069034495767210e-002 7.6517996150677796e-003
      -1.0466762159641147e-002 1.0853506841077427e-002
      5.3118383514958066e-003 -8.5079937842516152e-003
      -2.0531087307391897e-002 -1.9571562750577719e-002
      3.0759427809115198e-003 -1.4173302997447281e-002
      -2.6108400432095336e-002 2.8011641666914982e-002
      4.8734909399341581e-002 2.8430014739482944e-002
      -2.3662145397464713e-002 3.5059139516472618e-002
      4.4732019696825068e-002 -7.1292212803054436e-002
      -2.6767888721673253e-002 -2.2951213156990412e-002
      1.4922652254641853e-002 -2.3215723254598704e-002
      -2.7678736125076132e-002 5.1688796776580205e-002
      -9.9470501304171361e-003 -2.2819842468937619e-003
      4.5371031031488027e-003 -1.2017416522655181e-002
      -1.0627020434517929e-002 1.0921702590079413e-002
      -3.8520150567423937e-002 -3.2798145936262901e-002
      1.8832821571811733e-002 -3.5191403082586371e-002
      -4.2031053019785908e-002 6.2106683932811053e-002
      -4.4646110110792558e-003 1.8246172808224648e-003
      3.0979951476122801e-003 3.3406492315815016e-003
      -9.6708369163284709e-005 7.3106236560768608e-003
      -3.9380240345568062e-003 -3.8068700505109837e-004
      8.6193356581346699e-004 3.0366709161244363e-003
      -2.3695474670881638e-003 4.2297478609563078e-003
      5.1693126284268109e-004 -1.3245079477463191e-003
      3.2784089223335695e-004 -5.9785681313446614e-004
      -2.3213125066989695e-003 3.7410983689318382e-003
      1.2007703636700265e-002 1.3280518317458788e-002
      -9.5047538429627564e-003 1.0311320071959168e-002
      1.5353108018314555e-002 -1.7746554396009352e-002
      -1.2090020419934185e-002 -5.1163664142094556e-003
      5.7775243200579498e-003 -1.7286906677885462e-003
      -5.7036178509196492e-003 7.7465880599871121e-003
      -1.2044916303688334e-002 -1.7044397440984824e-002
      9.8823430361050062e-003 -1.1127292258026902e-002
      -1.1318288202912611e-002 2.7980302081585914e-002
      1.1738999452972701e-002 -5.7836496425057971e-004
      -6.6512347962465355e-003 6.6331323176766679e-003
      1.3650887043748484e-002 -1.6274220686212700e-002
      2.8127847018344322e-003 -5.1585615485705751e-003
      -6.2127069076454234e-003 6.5796845986356182e-003
      6.0951796487763218e-003 3.4239452526467116e-004
      9.6722820305653462e-003 1.5544361667154534e-002
      -8.9519561780038587e-003 9.5784936148455950e-003
      2.2386941132831423e-002 -3.0186274311133372e-002
      -9.8499914056127905e-003 -8.4418681684288611e-003
      2.5484215083042428e-003 -1.0038317836564200e-002
      -1.3983119416850209e-002 2.0882567872163534e-002
      -6.1500670685296361e-004 1.8693706402465553e-004
      4.6285608345109112e-003 7.7201305691145788e-003
      1.4750269122345942e-003 -2.4822620080328741e-003
      -1.7124360019055566e-003 -2.3938486619668195e-003
      -7.5505309379983246e-003 7.8394730421932450e-003
      9.1970474141912142e-003 -7.2025797404096778e-003
      1.4366628901600946e-002 1.3389948137032976e-002
      -8.2205610199821630e-003 3.3762811110356066e-003
      1.2780116416499756e-002 -2.6206251027767895e-002
      -6.9688927070732107e-003 -1.2003241761096878e-002
      9.5362593928798069e-003 -1.2330850163643502e-002
      -1.8031086284366716e-002 2.3233902204450031e-002
      -3.2601970638988409e-003 -1.1407310153386783e-002
      7.5202346267143963e-003 -1.2566122650677724e-002
      -4.3990594418321094e-003 1.9120185299981211e-002
      -1.8700248086935430e-002 -1.2647679954567803e-002
      1.4290562816553732e-002 -2.7041724297106304e-002
      -2.8278960356429995e-002 3.9161615714254298e-002
      2.0055095707834114e-003 7.8917135666487555e-003
      -3.5064467175157997e-003 3.6536214166673301e-003
      1.3215639614132930e-002 -3.1203701845130935e-003
      -7.0623468628202585e-003 -1.3888878377123806e-002
      1.3189963532254450e-002 -7.9286404176483905e-003
      -1.9558173812996526e-002 1.8699694611820309e-002
      3.0314258407248603e-002 1.4868503958235732e-002
      -1.9917484933678283e-002 1.8497797752665655e-002
      3.1646664187670356e-002 -6.1411526387987386e-002
      8.0632321070644705e-002 6.1498715089170007e-002
      -3.6775526696739488e-002 6.6169553731704064e-002
      7.7742598524311118e-002 -1.2104583228189725e-001
      8.8145759189621024e-003 3.7301575750939447e-003
      -4.8116742224613230e-003 6.2208400208232997e-003
      8.7517891747447268e-003 -1.9654504077670682e-002
      -4.0480556959706586e-002 -3.4142622883945012e-002
      2.2489869628633436e-002 -3.7209432667578715e-002
      -4.4755083235790236e-002 5.1139364211453008e-002
      -3.8849654294355850e-003 -2.6095951368779627e-003
      2.4999705052944480e-003 -7.5897746736424386e-004
      -2.7052602448072029e-003 9.3956984979964246e-003
      1.1488743447493496e-002 4.9992853031646158e-003
      -9.3356437941723887e-003 1.5743783482854254e-002
      1.3705593490423921e-002 -2.0389722943384057e-002
      4.8843384873482325e-002 4.0766229518135397e-002
      -3.0994015314580615e-002 5.2214272558723192e-002
      6.6719938138838072e-002 -9.2162379611694017e-002
      3.8013814143950324e-002 2.0606577707421445e-002
      -1.3609443744607532e-002 2.8624881939029310e-002
      3.2898097968260473e-002 -4.4988830352266480e-002
      -3.2472310536550426e-002 -2.9943307047722991e-002
      1.9172622576906311e-002 -2.7327262277521691e-002
      -3.2641307168055946e-002 4.5031345209664002e-002
      -2.2971601349888428e-002 -1.3698063380452041e-002
      1.7791679621872402e-002 -2.5038863626977218e-002
      -2.3835422117280538e-002 2.9564656040404345e-002
      -9.5064602593362881e-003 -1.9887556033273031e-002
      1.4239736599457988e-002 -7.7908206409410255e-003
      -1.8697271433318400e-002 2.0490818594615694e-002
      -2.4258558386116302e-002 -2.0672430921038681e-002
      3.3538924324707396e-003 -1.8227397466351020e-002
      -2.5835330618321477e-002 4.0897026307052060e-002
      7.9112925457743236e-003 3.6581647673873574e-003
      -8.5794899606217237e-003 7.5428455854408228e-003
      6.9149199184608727e-003 -1.1602700303259937e-002
      5.0177794365719409e-003 -2.1115049833131797e-003
      -1.4434964436960826e-004 1.2064622111031251e-002
      9.4248071699332345e-003 -1.6546196339491575e-003
      -2.3460294678401179e-002 -2.2022130162974822e-002
      2.1462346755943364e-002 -2.4921261422845977e-002
      -3.3768952309056514e-002 3.8128802191868177e-002
      4.3666511790835534e-002 3.2819312834020092e-002
      -2.3845319580734065e-002 4.0371872306126218e-002
      4.3445940508706496e-002 -5.4462765382126632e-002
      3.4304649837691659e-002 3.0789635823178271e-002
      -1.7026535547530509e-002 4.3024438924237948e-002
      5.0445689394001937e-002 -6.5285584935736218e-002
      3.7599871099537482e-002 4.2622498218472769e-002
      -2.9631289050199808e-002 3.7690174295057957e-002
      5.5523059683415608e-002 -7.4066254306101240e-002
      2.1555486762599267e-002 1.4078106090240627e-002
      -2.0480418403782868e-002 2.1841038395269581e-002
      3.0509125895684181e-002 -3.0032843076665535e-002
      2.0000644255778070e-002 1.4314599871145249e-002
      -1.6849273746779921e-002 3.1053797097649459e-002
      2.6762539860489678e-002 -3.2478035200622785e-002
      -1.4333166245397119e-002 -1.6313072369940500e-002
      3.1358958474005799e-003 -1.2749360947002167e-002
      -6.9013247211810258e-003 1.5930630432263806e-002
      -4.1995771871393894e-003 -6.3211411390344478e-003
      -1.8977542022229059e-003 -2.5046842801956857e-003
      -1.2218972329319821e-002 3.3464069077777086e-003
      -6.6596994988671237e-003 -1.1420571402735112e-002
      1.2231493313512674e-003 -5.2822533587965365e-003
      -1.1156459987260404e-003 7.3555752866278912e-003
      1.2375081998950776e-002 4.5423569336191291e-003
      -1.2260349533961086e-002 1.1740302370709579e-002
      1.0996052641535563e-002 -1.6212014310269366e-002
      -2.9693928868646888e-002 -2.7090040358782607e-002
      1.9822006284498633e-002 -3.7470625417240860e-002
      -4.4633527833026876e-002 6.1552052761581502e-002
      3.3925280360690653e-002 2.8662435899040065e-002
      -1.7384299939629387e-002 2.2399844821571542e-002
      2.8552343115836001e-002 -4.9957899571587021e-002
      1.7876414355577328e-002 9.6190168963168517e-003
      -1.6770128252134177e-002 1.0912265377469562e-002
      2.8205949245814856e-002 -3.4412421343068302e-002
      2.2633702771561286e-003 1.3416813027543604e-002
      -5.6127390357212515e-004 4.9437834148093772e-003
      8.0882851295751099e-003 -1.8825842895017032e-002
      -2.2485898596756645e-002 -1.1288816775053893e-002
      1.0558317042186884e-002 -2.0319834333045576e-002
      -1.8618335071623290e-002 3.6650958990229798e-002
      1.9551338464317756e-002 1.3588085639169930e-002
      -1.6680551693240678e-002 2.0692607232036590e-002
      1.0863926078894484e-002 -2.2678188775913554e-002
      1.5357050825286996e-002 2.0982093039219669e-002
      -7.4003072997385084e-003 1.7686755635565595e-002
      2.0141006493890126e-002 -3.5927451742364565e-002
      -3.5425836174460431e-004 3.4398184356736407e-003
      3.7880326748367717e-003 3.5869583439948642e-003
      -2.6405199842385579e-003 6.3406252134654102e-003
      -1.5421413957065211e-001 -1.1012710087963566e-001
      9.0576215148713821e-002 -1.3895970556247214e-001
      -1.6271290170607594e-001 2.3193036544468004e-001</_>
    <_>
      5.5706846386157594e-001 4.5124987157447738e-001
      -3.3719516249602044e-001 5.3246450667563827e-001
      6.3807785353329238e-001 -9.4639493026011601e-001
      -1.4214129868751055e-001</_></weights></opencv_ml_ann_mlp>
</opencv_storage>
