<?xml version="1.0"?>
<opencv_storage>
<opencv_ml_ann_mlp>
  <format>3</format>
  <layer_sizes>
    256 6 1</layer_sizes>
  <activation_function>SIGMOID_SYM</activation_function>
  <f_param1>6.6666666666666663e-001</f_param1>
  <f_param2>1.7159000000000000e+000</f_param2>
  <min_val>-9.4999999999999996e-001</min_val>
  <max_val>9.4999999999999996e-001</max_val>
  <min_val1>-9.7999999999999998e-001</min_val1>
  <max_val1>9.7999999999999998e-001</max_val1>
  <training_params>
    <train_method>BACKPROP</train_method>
    <dw_scale>1.0000000000000000e-003</dw_scale>
    <moment_scale>0.</moment_scale>
    <term_criteria>
      <epsilon>1.0000000000000000e-004</epsilon>
      <iterations>300</iterations></term_criteria></training_params>
  <input_scale>
    2.7795864347756140e+001 -1.5876501308701882e+000
    6.8608466141446206e+002 -7.4059212209725871e+000
    4.3515765314725564e+002 -3.0676128807234750e+000
    6.1953111284171030e+002 -7.6363536928393225e+000
    8.1217557557195585e+002 -5.3190372803371622e+000
    4.1542022417692197e+003 -4.1076341831034560e+000
    7.2135525281622847e+002 -7.3935754341346485e+000
    3.3664565444693051e+002 -6.5197664837208844e+000
    3.8812721209404708e+002 -2.6814287215975741e+000
    3.4819736191945271e+003 -3.6076035743818085e+000
    3.1352766304323673e+003 -2.2105279348551972e+000
    3.8865371635864603e+003 -3.2832327514241419e+000
    8.1404207582434174e+002 -8.1305342867843731e+000
    3.8920247362788268e+003 -4.8230436882883234e+000
    2.2505143511911677e+002 -5.3668102365462502e+000
    1.6907820321107931e+002 -5.9021000727184685e+000
    6.4424323498818865e+002 -7.0969025322073440e+000
    5.7360776655793843e+003 -3.8870167963471896e+000
    4.0798524964661733e+003 -3.9595744166408737e+000
    6.9023071572807294e+003 -3.9465918809204705e+000
    4.6524409746889987e+003 -4.4777800703295823e+000
    2.4177209108124371e+004 -1.2083018032782771e+000
    3.7883601137913070e+003 -4.6070413102555285e+000
    6.7332364318691452e+003 -3.6111099697193723e+000
    7.8406852657137597e+002 -9.4643053753392561e+000
    7.6456338878904635e+003 -4.0264831128597951e+000
    4.5080276022445851e+003 -3.5175435853125383e+000
    6.9734757921133960e+003 -3.5076112532236441e+000
    3.3331465535523193e+002 -6.4767497964019638e+000
    5.9532966849262612e+003 -3.2088156485632640e+000
    1.3630960098202823e+002 -4.8924983764939460e+000
    5.3166369209746404e+002 -6.0330226647086569e+000
    3.6432099711865806e+002 -2.9269256734840630e+000
    4.0991487811138741e+003 -4.2712775360982560e+000
    3.0760831196154259e+003 -2.4613822842291246e+000
    4.9412729954780925e+003 -4.6415878986856702e+000
    4.6807016836461080e+003 -3.3655293510112037e+000
    1.6539833979847423e+004 -1.3421294362339369e+000
    5.1533728555908556e+003 -4.2481831344235248e+000
    4.2929412563098440e+003 -4.3232548149412011e+000
    2.3693710481856037e+003 -2.5134284465465311e+000
    1.1352617925107403e+004 -1.8363219512843596e+000
    1.5940341788605319e+004 -1.5247686000922940e+000
    1.7911109327040627e+004 -1.8095335615040071e+000
    4.2278299211241392e+003 -4.4712495021237331e+000
    1.2877383985013881e+004 -1.6193093058772796e+000
    4.6721075788695689e+003 -5.4081014425433223e+000
    3.6549050119645312e+003 -5.9276374041918860e+000
    6.9971314434834596e+002 -9.8489872112535579e+000
    7.1873061184979524e+003 -4.5305451378979322e+000
    4.6525572693914264e+003 -3.9678473638911127e+000
    6.1899498972211268e+003 -3.4095519147738349e+000
    5.4419954802402990e+003 -5.0680750904541814e+000
    2.5503199502023515e+004 -1.1375200727251988e+000
    4.6713126279472408e+003 -3.8909615203447259e+000
    7.6760155575013841e+003 -3.5804851745842647e+000
    2.2642682446287230e+002 -5.5283451319307328e+000
    6.8815096249388153e+003 -3.6869325141248379e+000
    4.9306807382000716e+003 -4.3428230972489930e+000
    7.0499260887756864e+003 -3.7279147287615277e+000
    1.9768583139030474e+002 -5.2412464609859297e+000
    6.7098218985988351e+003 -2.9459092058248815e+000
    4.6269296671648152e+002 -6.4834103903472888e+000
    1.2161210976313373e+003 -6.0183244133728087e+000
    8.3444537263560289e+002 -6.3697948890677907e+000
    4.2489374787743209e+003 -4.5826217624100316e+000
    5.2416720485291698e+003 -3.8026812192512938e+000
    4.6650258769142301e+003 -4.4171918697161061e+000
    6.7122658966656363e+003 -3.1417644084692586e+000
    2.3920168353909012e+004 -1.4525429532595968e+000
    7.5242939173769228e+003 -3.6350614081080899e+000
    5.8707758780162394e+003 -3.0381421906560733e+000
    4.9462627391260939e+003 -3.4793901918690109e+000
    1.8200044244244702e+004 -1.5844325895899318e+000
    2.3038633469480184e+004 -1.3990120890330349e+000
    2.1178980060061567e+004 -1.3771356471581060e+000
    8.8735204427648423e+003 -4.2487381524334911e+000
    1.8177453833554744e+004 -1.0647456062867178e+000
    6.7982546383941244e+003 -3.2404651487641067e+000
    5.7342798665701139e+003 -2.9336084101417961e+000
    3.9358101744948212e+003 -3.9995577697189968e+000
    2.2819328952619395e+004 -1.0668624507038404e+000
    2.2321392765164168e+004 -1.6793284029313877e+000
    3.1672204880914211e+004 -1.3105552413218604e+000
    2.3939955079398384e+004 -1.1964445839663791e+000
    8.7721779838155577e+004 -4.2426406871192851e-001
    2.4527500825586994e+004 -1.3971578417438564e+000
    3.4627018357166678e+004 -8.9318751307774435e-001
    4.7457024592654279e+003 -4.3635184513481375e+000
    2.9190184633857960e+004 -1.2235388200194093e+000
    2.0105952703662264e+004 -1.1128796209228660e+000
    3.2793347852597130e+004 -1.1278518029603859e+000
    7.5297125722473493e+003 -3.7590700668345831e+000
    3.9548032589523333e+004 -8.0759716988022845e-001
    8.2289007112948257e+003 -3.5244102204385963e+000
    9.9158819337207096e+003 -2.1581055352765612e+000
    7.7352417633932851e+002 -9.4534176301548989e+000
    3.4631935059258881e+003 -4.7606208752500336e+000
    4.7289083797304738e+003 -3.8322033627887095e+000
    5.1775721181208664e+003 -4.5797554829334901e+000
    6.5258392241006231e+003 -3.7488700252153633e+000
    2.0760976551806125e+004 -1.2383889411366285e+000
    5.9640497577431943e+003 -3.7081810032723368e+000
    6.8187618081178125e+003 -4.1443309893216878e+000
    4.4554917848295954e+003 -5.1477850688461713e+000
    1.4756651370091449e+004 -2.0380144023196642e+000
    1.8326703725866690e+004 -1.4575799402606504e+000
    2.0836324815246273e+004 -1.8139380125406763e+000
    5.9589104798645330e+003 -4.5952068785617568e+000
    1.7637096568263922e+004 -1.8102842311318765e+000
    5.7249918104506642e+003 -4.9962849143336463e+000
    4.3028684477961588e+003 -3.8199213178638929e+000
    2.8692091120266906e+002 -6.9908505609813139e+000
    6.5978816136886844e+003 -3.8505312495000834e+000
    4.1428210672074674e+003 -4.2989733170842337e+000
    6.0866395009416265e+003 -2.9732249657851830e+000
    5.8641256748781780e+003 -3.2552916112309207e+000
    2.8130343474066813e+004 -9.9771219100888564e-001
    4.9994945580303138e+003 -2.9768172162792794e+000
    9.7062074720950968e+003 -3.0826439038277011e+000
    1.1008180970547970e+002 -3.9373919440740517e+000
    7.4812407990558522e+003 -3.6866276640331939e+000
    4.9924726596220917e+003 -5.4623530705238732e+000
    7.1203827566770988e+003 -3.1950387052373648e+000
    4.6659036791630700e+002 -5.4086932250148392e+000
    7.8694728889397220e+003 -2.2286535786730135e+000
    1.0518427874604120e+003 -6.7060728969132040e+000
    2.2109832705542085e+003 -5.1256848691673875e+000
    4.5467595214728357e+002 -3.6332832364370562e+000
    5.1600674763692564e+002 -7.4461964857599554e+000
    2.7463464953260741e+003 -2.9044688579490363e+000
    2.0923949271169352e+002 -5.1993347884891872e+000
    5.1714904861245459e+003 -3.6989638681645034e+000
    4.5059653867390607e+003 -4.2520529623586842e+000
    4.2414038547380705e+003 -4.4970012746393371e+000
    1.9478398843708953e+002 -5.0341998677730277e+000
    3.5200027408483352e+003 -2.6841804079800800e+000
    4.6058070795482336e+003 -4.1581612638380285e+000
    1.5367990523489594e+004 -1.3131082101120408e+000
    5.0313364304110455e+003 -4.5774817297328712e+000
    5.4914850994352728e+003 -4.4560808505134890e+000
    4.1687916073691858e+003 -3.5351145297682307e+000
    4.0773248479332992e+003 -4.8379423202146281e+000
    5.1384355920573728e+002 -7.2744294292054246e+000
    4.3898465021282145e+003 -4.7534692369104690e+000
    6.4422407991562250e+003 -3.9051018196056173e+000
    1.3103997760937940e+004 -1.8168113089535654e+000
    8.2674680711194906e+003 -4.7804756020671100e+000
    1.8761185715674877e+004 -1.4820536511898219e+000
    2.4634730071744565e+004 -1.1517371326448296e+000
    1.6302022333542936e+004 -2.0937541880921668e+000
    6.5974669316432519e+003 -3.0171235209368330e+000
    5.8761007028385329e+003 -5.2860465980822369e+000
    6.8519631914566808e+003 -4.1902852771720207e+000
    1.6082584421285626e+004 -1.5988726608080874e+000
    6.1703860987702410e+003 -3.6474666816932961e+000
    5.5566634175503877e+003 -5.6287472491808828e+000
    6.3154427253691420e+003 -3.0748101564604440e+000
    3.0887780955632270e+003 -4.9331215214737556e+000
    1.0920810972783902e+003 -5.5781900939209264e+000
    2.9893034978763485e+003 -2.5220632011814237e+000
    4.3395440736090331e+003 -4.0530333484073822e+000
    1.4203796409591730e+004 -1.4120903185761029e+000
    4.0583337691107372e+003 -4.4206671115730991e+000
    1.7737766657339020e+004 -1.3726118308661377e+000
    2.2493585669527845e+004 -1.4263529572376850e+000
    1.5219244541718132e+004 -1.4966853008004408e+000
    4.3903841684630552e+003 -4.8271906415260339e+000
    1.0899568652899756e+004 -1.1714550131401420e+000
    1.8231462776924720e+004 -1.7831144170750455e+000
    6.7323550605149067e+004 -3.9796603291083193e-001
    1.6082584421285626e+004 -1.5988726608080874e+000
    1.8849528362367819e+004 -1.6409744193440412e+000
    1.5149484459221201e+004 -1.4084137795183704e+000
    1.4955473239835212e+004 -1.6234459642572634e+000
    3.9807429688019829e+003 -4.0858630516767853e+000
    3.8784922502026193e+003 -3.7224655396311035e+000
    7.5602249823735574e+003 -4.3024614545098041e+000
    1.5424905298097805e+004 -1.8401862832971900e+000
    6.0346962403711932e+003 -3.7975072932681742e+000
    2.0005777586916469e+004 -1.6126235720157405e+000
    2.2408617586191318e+004 -1.1921655508762428e+000
    1.3840076817056948e+004 -1.5023674940499032e+000
    6.5664233436803470e+003 -3.1758332877134037e+000
    4.6392651109373692e+003 -4.7343510529933575e+000
    6.1643569402648836e+003 -3.8227851881160482e+000
    1.6785634031891124e+004 -1.6868080505830523e+000
    4.0357466854898721e+003 -2.7326294868296221e+000
    4.8526420177336049e+003 -5.1659360607333014e+000
    5.8648828736255946e+003 -2.9436930867861584e+000
    4.5487877268045186e+003 -4.2264619722634738e+000
    1.2829801604680847e+003 -5.1419590913872257e+000
    7.9208742562260625e+002 -9.6198401597023242e+000
    2.6464431158728553e+002 -6.4893221134039729e+000
    3.0731370915961083e+003 -3.5159597784441536e+000
    1.1800031856419035e+002 -4.3249958159074868e+000
    7.8910944959929539e+003 -4.3932235994400761e+000
    5.5200173878465157e+003 -3.3460763959940749e+000
    4.7543375091981616e+003 -3.6841862152453424e+000
    4.7126444869514108e+002 -5.7125802965329422e+000
    3.9223576526284282e+003 -3.3177084872384244e+000
    4.5724552115065389e+003 -4.5899994461603963e+000
    1.5423845567733588e+004 -1.2349951297864770e+000
    4.0111822457300036e+003 -4.6258166042833313e+000
    6.7800902251547595e+003 -4.1936975435361292e+000
    5.4118553477783616e+003 -3.2659703962455175e+000
    5.1156517444449237e+003 -4.2940619372160729e+000
    1.0252698599618202e+003 -6.9041500272859784e+000
    3.6164647059941599e+003 -5.2006381751445021e+000
    5.4514211655397139e+003 -3.3162133998527317e+000
    1.3172764995519778e+004 -1.9183707467296820e+000
    5.7311787355334764e+003 -3.0798549293191582e+000
    2.1108010214725102e+004 -1.3838640733634437e+000
    3.0784309742975522e+004 -1.0091263895371123e+000
    1.3912607124793127e+004 -1.4728586032149460e+000
    7.3755433359988829e+003 -2.3067647810698255e+000
    4.5055426653414288e+003 -4.0482719915041363e+000
    8.3158672741904829e+003 -4.0800420121152579e+000
    1.9608651154493680e+004 -1.5806120471843172e+000
    7.0877691581945328e+003 -3.4089364675593754e+000
    5.8922208358942435e+003 -3.4925355512227059e+000
    7.6662384352585868e+003 -2.5418726892784500e+000
    5.0338026264443924e+003 -4.2442937243338825e+000
    1.9346439998982125e+003 -4.6628324415995612e+000
    2.1377156691066509e+002 -5.2220017020434852e+000
    1.4366502749590856e+002 -5.3050430357633545e+000
    3.8066577260834347e+003 -5.0895631288968755e+000
    4.6097098384369298e+002 -8.0578142413409175e+000
    7.5208517672492953e+003 -4.2558048832367392e+000
    6.1746646990853851e+003 -3.3082235270548179e+000
    5.0640569874925677e+003 -4.4221987000266800e+000
    8.8321537764582501e+002 -6.2460982538388565e+000
    3.8958610474931193e+003 -5.2109229745524317e+000
    3.6716138134903649e+003 -5.9290863056276022e+000
    1.3586901466646004e+004 -1.7085299319009022e+000
    4.9923288831952714e+003 -5.2743992734200464e+000
    5.6664057180380260e+003 -5.0243272115467050e+000
    5.0291310217443888e+003 -4.8538414301600090e+000
    3.1748633365126875e+003 -5.1815074475182801e+000
    1.0925168267456565e+003 -8.2364705680601595e+000
    1.4350556392085144e+002 -5.5113058969553990e+000
    5.5517160031893343e+002 -6.3143960057283293e+000
    3.7840025647120046e+003 -6.3810281429763860e+000
    9.5648921145834879e+002 -5.5044672933117313e+000
    7.1145518386077947e+003 -3.6894460983221706e+000
    1.0547560741327268e+004 -2.4089471577413391e+000
    4.8856451801099347e+003 -4.6392179350266005e+000
    1.8326846584239213e+003 -4.4840628692818365e+000
    4.9457819677756970e+002 -8.4174983491304705e+000
    1.1957066998354976e+003 -6.5714198966889645e+000
    4.4331581277017967e+003 -4.5788129915035780e+000
    1.4011102143897679e+003 -6.1010479227443533e+000
    1.0996085264532474e+003 -7.7061116077307501e+000
    2.0007558828643557e+003 -4.8447524323952509e+000
    1.0048865642075793e+003 -7.6557488297380072e+000
    3.7993951267008288e+002 -5.9318716464521266e+000</input_scale>
  <output_scale>
    1.0526315789473684e+000 0.</output_scale>
  <inv_output_scale>
    9.4999999999999996e-001 0.</inv_output_scale>
  <weights>
    <_>
      7.8681831624529460e-003 1.1612620305148359e-002
      -8.9264689245662238e-003 2.1331668347759080e-002
      2.3991658277715999e-002 -2.9351100678822968e-002
      -2.5938054174204871e-002 -2.4380553541281668e-002
      2.3188912481636997e-002 -2.8246757483584298e-002
      -3.5091285840290878e-002 4.4321757828143828e-002
      2.5205722489544728e-002 2.6142310095289761e-002
      -1.7782000842668250e-002 3.0985066770366030e-002
      2.7778886534882911e-002 -4.5440477707736134e-002
      1.3866437106091175e-002 2.4164767649242795e-002
      -1.2212305727966971e-002 1.2989988861041288e-002
      2.9892236758609865e-002 -3.5571726914000790e-002
      1.0447579545820049e-002 1.6845520076515550e-002
      -8.5557139101096000e-003 1.4137469075924315e-002
      2.1484996392680155e-002 -3.3480715473187893e-002
      -2.2008176307337916e-002 -1.5166854164211449e-002
      8.6880197925299808e-003 -1.0973099904664909e-002
      -2.2766637089505954e-002 2.1846400781492404e-002
      1.6432597897730699e-003 -4.0389033848820463e-003
      -1.9823709012173024e-003 -4.2399653630223830e-003
      2.1935207978433765e-003 9.9770650565824959e-003
      -1.1046156685311398e-002 -9.4400680231698231e-003
      -2.3537559809060564e-003 -5.4141238269210090e-003
      -1.0024257231753491e-002 1.3522014044298120e-002
      1.7870538469915431e-002 1.0985331338736597e-002
      -4.7325239492539192e-003 2.7548720666139007e-002
      2.1550817885733913e-002 -4.1869269914377963e-002
      2.0201433339149907e-002 8.8410368272080452e-003
      -8.6321290553696226e-003 1.1160640233939244e-002
      1.8187189353065999e-002 -2.5521976093571871e-002
      1.1588698636510471e-002 -3.7248160903895705e-003
      5.7390407816271284e-003 1.3354548433389640e-003
      1.2477784629221989e-002 -1.8067804023593204e-002
      -3.0200236152333631e-003 -9.0694324493037735e-003
      -1.3555120470588962e-003 -6.9800663013587201e-003
      -1.1581671282702813e-002 4.3083113118504027e-003
      -2.4079159303772193e-003 3.5434744444334944e-003
      -8.0183848457654680e-003 5.4849451648782241e-004
      2.1352959620837887e-003 -3.7222962263576805e-004
      -2.0403833619306443e-002 -1.3279300284841573e-002
      7.1673731610694662e-003 -1.2101620204767474e-002
      -1.1852824215699810e-002 2.7745759185528233e-002
      1.5052520487482275e-002 1.9042370209473376e-002
      -9.8523221299722658e-003 2.1537225003729701e-002
      2.2315704749153672e-002 -2.2723884957652065e-002
      -1.1023515796319246e-003 4.9115454644345705e-003
      -6.3015153518492595e-003 3.9832544042932787e-004
      8.0492757463098488e-003 -4.6022493019642341e-003
      -2.7397635320822577e-002 -2.5417557265238960e-002
      9.0757522987988670e-003 -2.2171192158773299e-002
      -3.2068558180107377e-002 2.9901165478156248e-002
      -5.9970218765030704e-002 -4.5235096194745292e-002
      3.6701429072229910e-002 -6.1787042322651677e-002
      -6.5582152034613997e-002 9.3877625948016796e-002
      -2.6882387080484044e-002 -2.1518611963013409e-002
      2.3009886601758123e-002 -2.2677784381714902e-002
      -2.1037320021776006e-002 4.1095924958705725e-002
      -2.8172622758607921e-002 -1.6233141144698066e-002
      1.9355296627624700e-002 -2.4336150223290071e-002
      -2.5127122209532761e-002 3.7050430496762383e-002
      1.2876992424285538e-002 1.1729736159650008e-002
      -9.4404113315743978e-004 9.0137103791920626e-003
      1.5163517574921265e-002 -1.6291434170649963e-002
      9.4939676926674554e-003 9.6249084392062648e-003
      -1.0847656645713067e-002 1.7070283956627751e-002
      1.2886819147901430e-002 -1.9745581641779690e-002
      -2.0597556381805131e-003 6.5876253775684905e-004
      6.0113305607534823e-003 -2.9202609736285732e-003
      -5.0937994857103161e-003 -2.8974486864360187e-003
      -2.4461398261977543e-003 -1.7780033461774602e-003
      -1.0376386811240590e-002 7.2846372015833334e-003
      4.9869263699251713e-003 -5.1063982280634881e-003
      2.5895315770592408e-002 1.5924545452471517e-002
      -1.1013467792266408e-002 2.4822549702045778e-002
      3.0077878914708315e-002 -3.5745894117592075e-002
      -1.7312787338020580e-002 -1.3972867075962210e-002
      9.8995381202860652e-003 -1.0040431426935314e-002
      -1.7848366540161881e-002 2.0673142881789088e-002
      -1.5264012873046575e-002 -1.1694717302218193e-002
      1.2139954652401559e-003 -1.4262066732095719e-002
      -5.1619965475341156e-003 1.4683083642023817e-002
      -1.1624575977736499e-002 -9.5526705923794693e-003
      3.6678328240216246e-003 -4.5786047283444655e-003
      -1.5933894003216870e-003 1.2268158168153871e-002
      1.0363380105678542e-002 4.7511675143583733e-003
      -5.4577119459244521e-003 8.7783448303274392e-003
      9.0772291790874211e-003 -7.4701270305055859e-003
      -1.8852309563904015e-002 -9.8486042708208158e-003
      1.7164198184957884e-003 -1.0592163812285079e-002
      -1.0987268939401397e-002 1.4630126439906858e-002
      1.7083232660649202e-002 1.4609202351017009e-002
      -1.4534147705725010e-002 1.6918974392183792e-002
      3.0309827400281177e-002 -4.0932576902389356e-002
      1.2915140920942533e-003 2.8527344355546449e-003
      -1.3848387012756374e-003 2.4978149471055690e-003
      -2.7598084859014379e-003 1.0143207921904715e-002
      1.8185571639890999e-002 1.5228453521889049e-002
      -1.0313206323318223e-002 1.7453976917862334e-002
      2.5062357742769291e-002 -3.0554095841731396e-002
      6.8796335668475988e-003 1.8677835767331574e-003
      -6.0939326830115222e-003 6.3255167413024489e-003
      6.2732220612202261e-003 -5.0925665707213632e-003
      1.5259281481523128e-002 1.3909519206307057e-002
      -9.1841429062737220e-003 9.7983526809752343e-003
      1.6593040350338331e-002 -3.0686763676328895e-002
      -8.1980318463072913e-003 -7.4764358474393143e-004
      2.2015149958749339e-004 3.8500585695828262e-003
      -4.4863342949116166e-003 8.0103133130278031e-003
      -8.1864313343352323e-003 -6.6112700842469660e-003
      1.1902621492018244e-002 -9.0569744403537662e-003
      -7.0781420593928820e-003 1.2385301091624844e-002
      -8.0569736849438345e-003 -1.3794778623959059e-002
      8.6178447927688102e-003 -1.5252140291399839e-002
      -2.2342103645376202e-002 1.8485306142246291e-002
      1.6826858087033027e-002 1.5656422959210766e-002
      -1.0462564223868384e-002 1.5328864752984383e-002
      2.2407918984543706e-002 -2.7192426963467527e-002
      -3.1815479078439200e-002 -3.1575763744849571e-002
      2.1265431258656486e-002 -2.8012067593469338e-002
      -4.8993347513382475e-002 5.5050106469442278e-002
      2.9097655638820920e-002 3.0133737029649901e-002
      -2.5032922310018590e-002 3.5752981174241326e-002
      3.6041934796422564e-002 -6.4126394083442922e-002
      3.4317819529221277e-002 2.4305987918060292e-002
      -2.1191690550650701e-002 3.2848442249149526e-002
      4.5168043846165649e-002 -5.9753134945109865e-002
      4.1689685936645217e-002 2.8030055987759803e-002
      -2.1019791042736116e-002 3.3721136863607858e-002
      4.2391841652790439e-002 -6.9846776799948246e-002
      1.6619973557061157e-002 8.0419239936171966e-003
      5.4724801505441796e-004 1.1138586574161414e-002
      1.0665406414354836e-002 -2.2648762943300895e-002
      8.8824416538001646e-003 1.1692296700995393e-002
      -1.0373405831018910e-002 9.9565313170679095e-003
      2.3463249136946668e-002 -3.0145040216546914e-002
      5.9976898243732282e-003 2.4477312362327221e-003
      -6.4564054501675804e-003 4.8341994960582725e-003
      -2.8748232852152025e-003 -9.3782946509911129e-005
      -2.0689018902053168e-002 -8.6700621905756049e-003
      9.4937065874879812e-003 -1.3206821968317605e-002
      -1.5355345177918476e-002 2.7145744361993084e-002
      -2.9171480262223100e-003 -2.0085744565609661e-003
      -3.0961469964540318e-003 -4.5952797503542369e-003
      -4.3426145499509570e-003 5.8509906759592256e-003
      1.1798199139643851e-002 3.2097052930494022e-003
      -4.3303798240560349e-003 9.2193857298564219e-004
      1.1752177474027226e-002 -9.0848496078222048e-003
      -4.1110755667105543e-002 -3.2301822230864627e-002
      2.8943913109278154e-002 -4.9570833433830286e-002
      -5.2186582600993736e-002 6.5951827429832494e-002
      1.2441456229411419e-002 1.6295645944401534e-002
      -2.3158790468864074e-003 1.7366955365568565e-002
      1.3785368713255348e-002 -2.6981951670302016e-002
      3.9552181514749769e-002 2.7535241754958962e-002
      -1.5621337406170195e-002 2.7183436678315881e-002
      4.0131813802999551e-002 -6.1757736946659758e-002
      1.4056968881301392e-003 6.5608517958191505e-003
      4.5102626425131669e-003 5.2168559715909694e-003
      -4.9597668656467401e-003 -3.8915033141536976e-003
      -2.6501297827320826e-002 -1.7634603736796095e-002
      1.6044653787866247e-002 -2.2537672096597169e-002
      -3.1525361668993897e-002 5.3026494044312415e-002
      1.8251588113757322e-002 2.4812378190322060e-002
      -2.0824160952111433e-002 1.7210419314642383e-002
      3.2039285623674606e-002 -3.8226574852404542e-002
      -2.2136930096132192e-003 7.3710957443548627e-003
      3.4423721628126466e-003 3.9849373094193652e-003
      4.7524127350111181e-003 9.9748934306861979e-004
      -1.3582225038892462e-002 -6.9485889773927166e-003
      1.4330261141349320e-003 -1.2719405541684631e-002
      -1.1358914000423190e-002 1.8343861470879887e-002
      -4.3517541004610666e-002 -3.7555264689282719e-002
      2.8431444842334428e-002 -4.0983814295209017e-002
      -4.2377952782201619e-002 6.1342899248185451e-002
      1.4675642313670996e-002 1.4361240895846551e-002
      -4.8747341860215024e-003 1.2951474026837263e-002
      7.4407883031171072e-003 -1.2714056064381300e-002
      1.3179847498890781e-002 1.3569447392846422e-002
      2.5963181356748956e-005 1.2182613375736092e-002
      1.5278522378506449e-002 -1.7911779131035765e-002
      -1.2289103695059575e-002 -1.9439555580317371e-002
      1.1178339831793609e-002 -1.4100398234376275e-002
      -1.8006417013595809e-002 2.6119661799043899e-002
      9.4640887771204295e-003 1.6360603473220891e-002
      -1.3057042544896104e-003 9.1282846813670500e-003
      1.6405401061676060e-002 -2.6637829361225770e-002
      -1.6680244906259148e-002 -8.6465836710197704e-003
      5.8013958602384612e-003 -1.8994382778420086e-002
      -9.6951872572297627e-003 3.2540010598964005e-002
      -3.4143488697363132e-002 -2.5435296596122557e-002
      1.6228296286787059e-002 -3.7331461718971892e-002
      -3.8493342727237367e-002 5.4328576412130715e-002
      6.6736350161973931e-003 8.1533249887433580e-003
      -3.5220029475923854e-003 7.4080338109610748e-003
      1.8228628805910502e-002 -1.8839797035651255e-002
      7.9833703088882622e-003 1.4065574565232308e-002
      -1.6201430902618593e-003 1.6340806567161109e-002
      1.7677190216812782e-002 -1.5738151335663933e-002
      3.8747285902726615e-002 2.6734938325274026e-002
      -1.4600792789375606e-002 2.7267502572018848e-002
      4.4756153538372666e-002 -5.4471918066401899e-002
      3.1992612037935429e-002 2.2459225295154189e-002
      -2.7362485565604909e-002 3.1295310593551860e-002
      4.7623257211216276e-002 -6.7784972486538017e-002
      1.6362454097829434e-002 3.0073744340600324e-003
      -1.2214443486692195e-002 1.0174595527154362e-002
      1.1209530211243716e-002 -2.6941211139427022e-002
      -1.7826330434566186e-002 -1.0177959247686117e-002
      8.2647714078279300e-003 -1.8903573605025339e-002
      -1.6699449239345646e-002 1.4404527865576743e-002
      2.0805587572480652e-003 6.3386672375247916e-003
      -2.0556698621224177e-003 1.9711309682868116e-003
      4.2201313548824839e-004 -1.3392360396230974e-002
      -3.5605443896433195e-003 -2.8157583207025455e-003
      3.9175327640218610e-003 3.0783760380368954e-004
      5.6873189115959248e-003 -4.5002605783254108e-003
      1.8738744292725418e-002 1.0401902921466536e-002
      -2.0473903677060549e-003 9.9516116352251407e-003
      2.2303012415525091e-002 -1.9125712808886960e-002
      3.0807441264110592e-002 2.3097676034030016e-002
      -1.8239490306541047e-002 3.6984454871951448e-002
      4.1415306173966965e-002 -5.6191925778472887e-002
      -2.1741940558516946e-002 -2.0310307304546103e-002
      1.8495171857084672e-002 -1.9680501308360382e-002
      -2.6338741098575914e-002 2.6072482991142183e-002
      -3.9750180555119266e-002 -3.3615979848128176e-002
      1.8530249453222659e-002 -3.9964414412392180e-002
      -4.4558646038503957e-002 7.0353805743388134e-002
      1.3842287339855337e-002 1.1220833588130742e-002
      -2.7605542916509928e-004 1.3084443116659628e-002
      2.0465379273685583e-002 -2.6045843078284819e-002
      -1.8790527558056914e-002 -7.9548607471801088e-003
      8.4246516693042579e-003 -7.4472132997674160e-003
      -1.6091661582333459e-002 2.8932319481375323e-002
      2.2195375771472275e-002 1.5959774385553314e-002
      -9.8415148016275621e-003 1.4958076589214216e-002
      2.8329723582111839e-002 -2.5847555987561624e-002
      8.7223659876067110e-003 1.2112203230999544e-002
      -9.3176810474781702e-003 1.0326531063462496e-002
      5.1259278413360232e-003 -1.1048978413033336e-002
      -2.5459600758460429e-003 6.7594343915237855e-003
      4.4334970539693791e-003 7.2645490543036782e-003
      -2.5185379805029305e-003 -1.5143717995580971e-002
      2.7117462885159187e-002 3.0960471330994260e-002
      -2.2665147522529738e-002 3.1055758989260260e-002
      3.4207665933277794e-002 -5.6169713785260422e-002
      1.9716197411434357e-002 9.8826171590988814e-003
      -6.5344863768369982e-003 1.5446337889371177e-002
      2.4963958369630185e-002 -3.5311689035238576e-002
      1.2355686512854980e-002 1.2702128577949237e-002
      -1.1455280663476125e-002 7.9866029065402255e-003
      2.0731661021869015e-002 -2.5880741874039277e-002
      -5.7772440699654641e-002 -3.7930144281676272e-002
      3.0022350855269806e-002 -4.5161961643260848e-002
      -5.7257571632017300e-002 8.8675314866450028e-002
      -3.8320770581509851e-002 -2.1052248938758390e-002
      2.1855010633792464e-002 -2.9800945411864087e-002
      -3.4949441898544598e-002 6.2464704248147838e-002
      1.9719659711432126e-002 1.2765098495096135e-002
      -1.0006406784406677e-002 6.6548020246299331e-003
      7.5031937659840791e-003 -2.7508619695093581e-002
      1.1451480374142125e-002 9.5321465661309546e-003
      -1.3622288631166015e-002 9.7452173203137083e-003
      1.7622396558224725e-002 -1.2457500120421364e-002
      -6.7820856044880423e-003 -2.1100339459766988e-003
      7.0091744327274146e-003 -9.5921525014508457e-003
      -6.3388932355225892e-003 7.4752248464826133e-004
      1.5498119065079448e-002 2.2177101302567177e-002
      -5.8089339141414002e-003 1.7185714648984482e-002
      1.6795689292800505e-002 -3.0157867574587657e-002
      1.8792160122841014e-002 1.2668216244221859e-002
      -1.1689593150559226e-002 2.6743611484202311e-002
      2.9754392255814603e-002 -4.4824219412604414e-002
      4.1691267015907113e-002 3.3675279811287831e-002
      -1.9328079387271126e-002 4.3424578319418448e-002
      4.0905315439749255e-002 -6.0660701057865668e-002
      -8.1864204532246399e-003 -8.6529437179474079e-003
      3.0674543292734469e-003 -4.1414585099883711e-005
      -7.9395446433878324e-003 4.2843282872039260e-003
      -3.6237605478900291e-003 -7.0256145118393889e-003
      -4.3642329614462338e-004 -2.8826601102168582e-003
      4.0178838877409292e-003 2.4782916748375353e-003
      -4.6243248301635931e-004 1.2318864682541691e-003
      -7.3661260335721917e-003 -3.1141747553708244e-003
      1.8720332014934490e-003 -2.4878595266039946e-003
      -2.5192504373993750e-002 -1.0906422202487456e-002
      1.9879589435009479e-002 -2.2847095778165960e-002
      -2.5692962373005196e-002 3.8541086696609897e-002
      3.0468017518801457e-002 3.1496224416746890e-002
      -2.5378642257821368e-002 3.3776128055654338e-002
      4.5352491867993429e-002 -6.2461015914162511e-002
      -2.6178215379371230e-002 -1.6676529942004158e-002
      1.0512602589228091e-002 -3.0808284223026755e-002
      -2.8010844895057004e-002 4.7156768759181449e-002
      -1.9339945025098733e-002 -1.2947895931413086e-002
      2.1496326267608539e-002 -2.5413843925890890e-002
      -1.9893286540462081e-002 3.4535689497540815e-002
      -1.4334298253421429e-003 -7.6605085873100382e-003
      9.1018399256999009e-003 3.4493095063993259e-003
      3.3498326832323007e-003 9.0724109227032935e-003
      1.7273287663456011e-002 5.5949655226051965e-003
      -4.1852665708286378e-003 5.8999315468689041e-003
      1.1870556800103895e-002 -1.5454817387479326e-002
      -9.6734047007485265e-004 -7.6357288486257561e-003
      -2.7259459329690744e-003 -1.2208010244518645e-002
      -1.2773752875032811e-002 1.5702847698581698e-002
      1.9310069087167623e-002 1.0353031851434803e-002
      -7.4742423280868536e-003 1.5540174421543927e-002
      2.3722352290476256e-002 -2.6262921982072446e-002
      5.6990012156657053e-003 6.0692690075723910e-003
      -1.9653201252693830e-003 2.9219283516874555e-003
      7.7701372831835641e-003 -8.7061728081743936e-003
      -9.6320366762861764e-003 -3.0683698616254234e-003
      7.3634275640694965e-003 -1.0093676350950254e-002
      -7.1955499896609936e-004 5.1973006411025618e-003
      -9.1016583188023512e-003 -4.9784092181700068e-003
      4.1024646641333569e-003 5.5884121818970262e-003
      -7.9918716393853032e-004 -1.1752031260936439e-003
      1.3425961908987576e-002 7.5388189045242707e-003
      -7.4643139158814690e-003 9.8426004905947575e-003
      1.8341774991476822e-002 -3.3575597276108184e-002
      4.1803005060815787e-002 3.6971041446554123e-002
      -3.1098695641820596e-002 3.1553464895907622e-002
      4.3490170099980074e-002 -5.8891105827013367e-002
      2.0160317033022009e-003 -6.1858173894580220e-003
      -4.9196438257042225e-003 5.5890018461591676e-003
      1.9316292162279880e-003 4.3367161835599266e-004
      5.0879763188525027e-003 -2.4926600754208539e-003
      -3.2726299798062825e-003 3.8012553991952996e-003
      -3.0807529690109474e-004 5.8427147243857239e-003
      1.2969091110341778e-002 5.8298198858380149e-003
      -1.0491988036934612e-002 7.6385629036478300e-003
      1.2410507687888358e-003 -8.3302480642796957e-004
      1.4907545800677425e-002 1.0012328471024231e-002
      -8.3980316391254178e-003 1.4288115273958950e-002
      9.0593816244322230e-003 -1.9981424412532159e-002
      -3.1000078200238073e-002 -2.7303683115103314e-002
      9.0332709431002745e-003 -2.9803326012587599e-002
      -3.8166177388715146e-002 5.5272882965092980e-002
      6.1810157881308381e-003 1.3274120242160647e-003
      -1.6865620666165926e-003 7.6920323020449131e-003
      7.7878499934673599e-003 -9.9290603758618000e-003
      -2.0357216584798062e-002 -1.1970743556690132e-002
      1.8597319677172507e-002 -2.6724696869748651e-002
      -1.9375497321866959e-002 3.3635011528752534e-002
      1.1469364249983153e-002 1.0043115755868215e-002
      -9.2139805799869232e-003 1.9747326897216207e-002
      9.3154862730457071e-003 -2.6376911596054427e-002
      7.9965387202745718e-003 9.9079604514028651e-003
      3.6316698508671746e-003 9.7358438887158606e-003
      4.3626769644349870e-003 -3.6093592216575178e-003
      -1.6248862625153175e-002 -1.4140374395921251e-002
      1.3490449920570451e-002 -2.4706342152732635e-002
      -2.7991262366337338e-002 3.0808664508109325e-002
      -2.0122455126687804e-003 1.2784054552793492e-003
      7.9687380269137043e-004 -1.3484963868756732e-003
      -2.2433274195580257e-003 -5.4413345074120802e-003
      7.2975410945458168e-003 2.0268121833316877e-003
      -2.6569527632679902e-003 -1.2385797773195650e-005
      -3.6013559644965942e-003 -1.9279507202454840e-003
      -3.8914196906733263e-002 -3.1489492503666672e-002
      3.0836330838217626e-002 -4.4944987612796812e-002
      -4.6510259747608917e-002 7.4432389774004279e-002
      -1.5327406496872371e-002 -1.6121323314161825e-002
      1.2258397628161196e-002 -8.7658053060362326e-003
      -1.6021813715979515e-002 1.9377763287277083e-002
      -1.6436297854234106e-002 -2.1437703660539258e-002
      1.7031604557661961e-002 -2.3073567169665736e-002
      -2.3693483071350902e-002 3.8595700835809287e-002
      -2.5059061871158399e-002 -2.1742858194019363e-002
      2.2548109790815476e-002 -3.5647263131623953e-002
      -3.0911577111909703e-002 6.1189607141687238e-002
      -3.0721990224300395e-002 -1.7231542096887247e-002
      1.6099833415447622e-002 -2.6776288320826434e-002
      -2.6311489774643419e-002 4.1301905669650169e-002
      2.4216701927210902e-002 2.8636910200461916e-002
      -1.1309279121911334e-002 2.5616964249363508e-002
      3.3841111454042276e-002 -3.8478812022881316e-002
      -3.3907262836143121e-002 -3.2792973355467936e-002
      1.0779677355247765e-002 -3.5932670942760071e-002
      -4.0268239143252740e-002 6.0372127026722712e-002
      -2.0190665943904298e-002 -2.0075039351201560e-002
      1.6817718148985066e-002 -2.4942464653957323e-002
      -1.7959253392845497e-002 3.3498958979424939e-002
      1.1329199583847767e-002 3.7930602307634726e-003
      -7.2390250966156170e-003 8.2238519548433284e-003
      1.4526820675422859e-002 -1.1372518809089223e-002
      6.1203723289133781e-003 8.5622951023083694e-003
      1.0322242556001430e-003 4.8977974661404975e-004
      7.3577647630797098e-003 1.6247323031599558e-004
      2.8181231569857797e-002 1.9623118817472363e-002
      -9.8696754297676204e-003 2.5363720368785252e-002
      3.7374019515685697e-002 -4.6022551435356704e-002
      -1.5668569035446656e-002 -1.4835646452724742e-002
      1.6928593164537006e-003 -1.3780028092346365e-002
      -2.5808558214776626e-002 3.7600564957056971e-002
      1.1174980300715441e-002 6.8464678700034540e-003
      4.1175825581622220e-003 1.0510382264115112e-002
      -1.0112913653187478e-003 -1.8670143514843061e-002
      3.8299314019296319e-003 7.7724985684556559e-003
      -9.4011663246072758e-003 4.9510958950518382e-003
      -2.3546444440554490e-003 -6.5418499812844744e-003
      1.0257969397290571e-002 6.5430725550740584e-003
      1.1581048404982482e-004 1.1625677117508872e-002
      1.6481533441660891e-002 -1.4551465909505491e-002
      -1.0650163917636363e-002 -2.0099952981734247e-002
      1.1293769163209991e-002 -1.7416537303566661e-002
      -2.5940914369274357e-002 3.5968391315328641e-002
      2.8280790796974308e-003 1.7906375836877742e-003
      9.3246503362378434e-003 3.9212824873505425e-004
      3.8303883551045249e-003 9.1137364780794091e-004
      1.3463294913906614e-002 1.3640166866824876e-003
      -2.8890551351171378e-004 1.4386107258476048e-002
      8.2381646116448243e-003 -2.0761296145332550e-002
      1.5686914988823304e-002 1.0274873830961167e-002
      -8.1327518685413835e-003 8.2454128455193426e-003
      5.3379423392047008e-003 -1.5022454821233548e-002
      1.6659631885618649e-002 1.1235459976349635e-002
      -1.8682368016047148e-002 1.7196226742655071e-002
      3.0682592690950566e-002 -3.9275568279258627e-002
      7.2961483967955371e-003 8.0683660803830999e-003
      6.5335605537059204e-003 2.4160168867218470e-003
      3.5395921252694648e-003 -1.6688777674207105e-002
      -3.2296106643627816e-002 -2.8095081426327467e-002
      2.6053855742821264e-002 -3.8764456305844366e-002
      -4.2243561838436375e-002 5.9136947161424411e-002
      3.2870692304591977e-002 3.3066985521513395e-002
      -2.6929265404403949e-002 3.6284313731295405e-002
      4.1386550682066967e-002 -5.8796242804249471e-002
      -1.6987341597679395e-002 -1.0855996074366920e-002
      1.0139503880932601e-002 -1.5100657131910701e-002
      -3.0212242128503868e-002 3.3954775228042772e-002
      1.4205257968705308e-002 1.4256196158987582e-002
      -2.8482524247149315e-003 1.1194879552828289e-003
      1.0858744319501200e-002 -2.1879529967533430e-002
      -8.5626010280220721e-003 3.0026688433824325e-003
      -4.1294636541714790e-003 2.3210718320126073e-003
      -7.1640725731383220e-003 6.2181533883993150e-003
      -4.4807958755414476e-003 -8.6619204621450740e-003
      4.7620249575931698e-003 -6.5823869935730645e-004
      -1.9699886949833471e-003 4.3270770886912639e-003
      4.0363721558936021e-002 2.5791778287570143e-002
      -1.8331863063084586e-002 3.6922249558281717e-002
      4.6049425301810748e-002 -5.6088655677639959e-002
      -2.3148342510205613e-002 -1.8351164207025435e-002
      2.0190126957063202e-002 -2.6651231623180990e-002
      -2.0848634476178896e-002 3.7409167096982082e-002
      3.4754515660124420e-002 2.1328269198929509e-002
      -1.1489420756425056e-002 2.4805792834290359e-002
      3.0972069835102908e-002 -5.1028251194063769e-002
      -3.3790132202554416e-003 -5.8056863910670876e-003
      -4.6721101011535038e-004 -3.1424264021538383e-003
      -1.8465279819046339e-002 1.8643620382684779e-002
      -1.4727877104151464e-002 -1.8015966850586006e-002
      7.1420039483654713e-003 -2.1533650087025707e-002
      -2.5880883596606792e-002 2.6867776803591027e-002
      1.5020521108745497e-002 1.0301255557945352e-002
      -1.1690281590946197e-002 1.7180214219059093e-002
      1.8293244100721199e-002 -2.5310440826624880e-002
      2.2329065916820240e-002 1.7004567925554763e-002
      -5.1521204319962041e-003 1.6283716465931831e-002
      1.4396351913582621e-002 -2.1665847860306685e-002
      1.9142924853984396e-002 1.2285413231587518e-002
      -9.9170672270620444e-003 1.7725190672400408e-002
      1.7033234980726605e-002 -2.0251211867668480e-002
      -1.2010092952553784e-002 -2.1768797761754538e-003
      2.3344355810225547e-004 -1.2393335632269312e-002
      -1.1185814117107834e-002 2.0186354073570285e-002
      -3.6333522450917304e-002 -2.5260343675456227e-002
      1.6414926226735117e-002 -2.9875514037224212e-002
      -4.2038579708657445e-002 4.9438769792015738e-002
      -1.2338206362032145e-003 -3.2407995968762814e-003
      -5.4266378337971370e-003 -1.3946808207280167e-003
      5.1269871512302015e-003 8.7424990554544390e-005
      7.6072247356202488e-003 -9.3551262710107831e-004
      -3.6201293249284224e-003 9.7316748802495009e-003
      8.7911693144883309e-003 -5.7607705700354886e-003
      8.8377877537842479e-005 8.0084753926381955e-003
      -1.3667817100408903e-003 6.0033731100397466e-003
      -4.6946738057530128e-003 2.3520527453368542e-003
      2.0704353089394941e-002 1.0913633589484375e-002
      -1.8520458999558887e-002 1.7388712722531816e-002
      3.5962015280359534e-002 -3.8298761962328960e-002
      3.5793288164934788e-003 1.0623912100711549e-003
      4.7689335826139444e-003 -4.7183600631624948e-003
      -7.6092772113371008e-003 2.9394906349847353e-003
      -8.7457658167279051e-004 9.8444048067783765e-004
      2.5729503181441131e-003 -3.1204074486011340e-004
      1.3700024423559509e-002 -1.6290776402107802e-002
      3.8055037900635323e-002 2.2937598584820924e-002
      -1.5011929537848060e-002 2.9171228734893234e-002
      3.7145082359591762e-002 -5.6091526426237465e-002
      5.5458041033198992e-003 -3.9326510327322367e-003
      5.2871200742415046e-003 3.2635755400394449e-003
      -2.9165516927553616e-003 1.2684966149992993e-003
      2.1618230431101105e-002 2.5828383373193202e-002
      -1.3948368206761382e-002 2.3267474856190507e-002
      2.9514790518288179e-002 -4.1109413710407557e-002
      9.3801524936168706e-003 6.2692972722048516e-003
      -5.2443741280113294e-003 -1.3832716321882967e-003
      1.3821369256995206e-002 -7.9035497931520867e-003
      3.9600468203528520e-002 2.6535722449334838e-002
      -1.3755897812887302e-002 3.5075483611219385e-002
      3.3173010085740084e-002 -6.2334649143063407e-002
      2.2000548980159577e-002 1.4410541090467339e-002
      -6.2496324852503553e-003 2.3411426521711558e-002
      2.7850092594502773e-002 -3.1312211513829430e-002
      2.7614182733177662e-002 2.6576092381975884e-002
      -1.2945069597429864e-002 2.8978072498275612e-002
      3.2147730831194328e-002 -4.3647130033603383e-002
      2.9684992801578262e-002 2.0036647250682112e-002
      -1.4638944679364180e-002 3.4939311738841683e-002
      3.5030210109598621e-002 -4.6881433970368147e-002
      -2.4150328980281398e-003 -1.0962760058756521e-002
      1.1894559946497490e-002 -1.3921761283673851e-002
      -5.7079706300950973e-003 1.6209721999760698e-002
      2.0548468062933666e-002 1.8190346109768420e-002
      -4.4689235698256594e-003 2.5868027685879695e-002
      2.7024151831200331e-002 -3.0827283838317694e-002
      1.0948961204609833e-002 1.3808500683342648e-002
      -1.6668094487365198e-002 1.0378301143684664e-002
      2.8254418205216070e-002 -2.9144172694202726e-002
      -3.8778813868729686e-004 4.5026405800986779e-003
      -4.3417013272086706e-003 8.6061197114164854e-003
      8.5164161423280753e-003 -2.4988111616850725e-003
      4.0753390781465143e-002 2.4121600396980167e-002
      -2.1532035483798846e-002 2.9152092641117181e-002
      3.6288115374240162e-002 -6.3471266723865633e-002
      3.3175707466700718e-002 2.1266827975931671e-002
      -1.5647263428746436e-002 2.6516107547408241e-002
      4.5329623169546543e-002 -6.4878474598928357e-002
      1.8208970594196792e-003 1.2639158062679363e-002
      -7.9452928098411087e-003 1.3598762647170998e-002
      1.0193512160789380e-002 -1.5932717201642674e-002
      -4.6498716127978245e-003 -3.3563594994544667e-003
      1.9621855280095341e-003 -7.5966864003440288e-003
      -7.4067381051232855e-003 1.7562975796660274e-002
      3.7413035025235970e-002 3.2455855202642339e-002
      -1.5798588472412355e-002 3.7097069740644223e-002
      4.1153770171907765e-002 -4.7743293747930578e-002
      -1.9077095755417533e-002 -2.4958890490257655e-002
      1.0268542442495634e-002 -2.4342213215909198e-002
      -2.9695978242872807e-002 4.6074460443270383e-002
      2.5741405531175512e-002 2.3581591270306818e-002
      -1.3825392486623844e-002 1.8574238148294068e-002
      2.3106447119982727e-002 -4.9625633369007209e-002
      2.5216141800716973e-002 1.8869135640256461e-002
      -1.2182987904168401e-002 2.7984486197242090e-002
      2.9346731578652113e-002 -4.4409161826373819e-002
      -1.9578401724448406e-002 -2.2114075154281786e-002
      1.5330787295622638e-002 -1.4869278963850187e-002
      -3.0770563188399644e-002 3.3118510292289051e-002
      -1.8451743233183993e-002 -2.0169821706745472e-002
      1.3930892133484127e-002 -1.3343332170604589e-002
      -1.9391465715509169e-002 2.9313287769174308e-002
      1.8360670566118169e-002 1.2902606019018858e-002
      -1.4788350181962029e-002 1.9603489754273777e-002
      1.1959798703362107e-002 -1.9358578911096169e-002
      2.4849640758675219e-002 2.3017638846956449e-002
      -2.1276463540463288e-002 2.6198168781533075e-002
      2.9744133819723888e-002 -5.2738099277593965e-002
      -3.0485042895368468e-003 -4.7018752995685092e-003
      6.6273451751140784e-003 -5.8218229934198739e-004
      -7.9020852782318417e-003 5.2639860734733663e-003
      -2.4168124125747419e-002 -8.7379717856988885e-003
      9.7165117395608264e-003 -1.3995769905744920e-002
      -1.9930919974208580e-002 3.0502217019264130e-002
      -2.8110239810209482e-002 -2.1677291694819210e-002
      2.1970343583553799e-002 -2.6927448805704416e-002
      -4.0621740071833203e-002 5.7632688694631777e-002
      -1.0203863687459618e-003 -5.8026348450587358e-003
      1.1935366255412846e-002 3.3503369155186855e-004
      -8.0837591315071622e-003 9.6490503293444971e-003
      -1.9823497072321890e-003 4.0284278292905219e-003
      8.2334742376538757e-004 -8.6755338973462225e-003
      -4.4031244434823702e-003 -9.0298529548640924e-004
      3.3837908037466335e-002 3.7511688461099708e-002
      -2.2609622386365498e-002 4.2868687031268692e-002
      4.5346127209046405e-002 -6.5236675652558210e-002
      -3.3757450192211505e-002 -1.3825835281460499e-002
      1.7582465911681527e-002 -1.8756972232144325e-002
      -3.3817096793443448e-002 5.0306811362675639e-002
      1.8243660915081173e-004 -1.2740791471033902e-002
      5.4882264625316412e-003 -1.3333208910769473e-002
      -6.8782429050632914e-003 7.6364963643216367e-003
      -5.9315219684890189e-002 -4.3836413047131560e-002
      3.2763541570811627e-002 -5.5160343557417453e-002
      -7.7967475372238665e-002 1.0596689748576199e-001
      -5.2568811886011821e-003 -5.1056939408259724e-003
      8.8710487777938270e-003 -2.7760410316786674e-003
      -1.1077039126223728e-002 5.5136442005185781e-003
      1.9490984476495714e-002 1.0127191514291364e-002
      -5.6851238193544370e-003 1.2826927657478983e-002
      2.1661155287605680e-002 -2.9487313077380440e-002
      -8.4830804250176275e-003 -5.0865138254514676e-003
      3.6445427828119183e-003 -5.0597886229541214e-003
      -9.7906337530700004e-003 2.3880074792975749e-002
      -6.0686419323108410e-003 -9.3964292661356883e-004
      -3.6897453393917507e-003 -6.3749372837371976e-003
      -9.9266223741016953e-003 2.4676985320264449e-002
      9.6046136902481691e-003 4.0288352844132687e-003
      -6.5436838681027353e-003 7.3144318146364387e-003
      1.8086971109198783e-003 -4.4348707788231748e-003
      -3.3443309825933999e-002 -2.9940161625117277e-002
      1.0361153531788535e-002 -2.6427838068286851e-002
      -4.0469336899185186e-002 4.6389818552798272e-002
      2.4312081931319512e-003 -9.9797333961472671e-003
      6.0781467618054160e-003 -9.3986807752657504e-003
      -7.4323541658828157e-003 2.6434325514567811e-003
      -1.9379187549189908e-002 -1.6574264633029540e-002
      9.5221460611586272e-003 -1.6256136324583639e-002
      -1.8911850713259570e-002 3.8555489696437586e-002
      1.5690849773481133e-002 1.8245461962239799e-002
      -1.0806297755078997e-002 1.2227616949373351e-002
      1.8288202513234826e-002 -2.9724930047609725e-002
      7.0605616536197919e-003 3.8812372653364608e-003
      -9.0044140970379216e-003 7.8243240838146363e-003
      9.8607667223722176e-003 -1.4770856034388264e-002
      -4.0460708685700321e-002 -2.7243646232522227e-002
      2.5026420006033591e-002 -3.0859563347664435e-002
      -4.1369411411646018e-002 6.6880592394820818e-002
      -1.4756736494815051e-002 -8.5323297691060878e-003
      5.9770042199896204e-003 -7.4552012253725278e-003
      -1.3689519888575346e-002 1.7627897707122826e-002
      3.2714716623977388e-002 2.4737922270127534e-002
      -1.9338062104563410e-002 2.9411735188937405e-002
      3.3906317598422504e-002 -4.7813681328795377e-002
      2.3238869748623669e-002 2.2612377250221354e-002
      -1.6981896402872790e-002 2.0680082877073298e-002
      2.7861452051294089e-002 -3.5706624801469342e-002
      -4.5741568103527940e-002 -3.2134954428609842e-002
      2.5939834998469833e-002 -3.3667854233482647e-002
      -4.3389660330971497e-002 5.9358715446428977e-002
      -1.9444128168683735e-002 -2.3029472179309066e-002
      1.4088969322708676e-002 -1.8233770768564594e-002
      -1.9022308264918797e-002 3.6898957097351436e-002
      1.1560279779082144e-002 -4.4777494759847501e-004
      -6.9980695181546390e-003 6.5591232278028782e-003
      1.2756650077363190e-002 -1.3156005945946115e-002
      7.3813833438507370e-003 -1.4886590415508255e-003
      -8.8365208188233759e-003 1.0772391751633298e-002
      1.1222533812082391e-002 -7.3549096864099980e-003
      -6.6186485961583974e-004 7.0881301257626258e-003
      -2.5374717100068631e-003 -2.4060592585596808e-004
      9.9971455221234233e-003 -1.0234186109876850e-002
      -2.0983431115453232e-003 -1.9860685140752165e-003
      -2.6493995271860090e-003 -2.7220835843411602e-003
      -5.2551905781657660e-003 6.2524531437202309e-003
      2.0058817814705442e-002 1.6167538103947752e-002
      -6.7879277896260234e-003 2.6795590282140288e-002
      2.5566491253708246e-002 -3.8561470094801251e-002
      -2.3376171627573716e-002 -1.9768488075894031e-002
      5.5329946976901837e-003 -1.2902264947115239e-002
      -1.4188069478446360e-002 2.3751281141875840e-002
      1.3408244167452135e-002 1.2703971811767344e-002
      -7.6588163775425256e-003 2.4529807217432481e-003
      1.0386354138457801e-002 -2.0767456246956067e-002
      -3.2560895409964562e-003 -9.2991393021750902e-003
      7.6752514784923032e-003 -9.2318438841842258e-003
      -1.3492929267249694e-002 1.5119517351536261e-002
      4.5673770887555793e-003 -5.1770518915896253e-003
      2.6861466759947428e-003 -5.4071122871959011e-003
      4.0851234793115405e-003 7.8051580696655203e-003
      -5.3354857199340626e-002 -4.0339150795019756e-002
      3.4923032562861243e-002 -5.9955696824348946e-002
      -6.7002059480578455e-002 9.2912922841159526e-002
      -2.2561453987291806e-002 -1.2140570789096593e-002
      1.1258171560297427e-002 -1.9804139266608449e-002
      -1.4636579764350888e-002 3.7391783436942293e-002
      -9.3628931407959779e-003 -1.5562397764975724e-002
      1.3733101534852556e-002 -1.0346885610102916e-002
      -2.1373372125469851e-002 1.7632738308683425e-002
      3.3461437661108408e-002 1.7356051292288011e-002
      -2.1314079346953826e-002 2.1656604567224000e-002
      3.3797038803204914e-002 -6.1462587953269185e-002
      2.3152611775299561e-002 1.5654184088051977e-002
      -3.6718620888663593e-003 1.1787474318343281e-002
      1.2150051761558273e-002 -2.5457147127214197e-002
      4.3486321705590573e-002 3.1269503818414389e-002
      -2.5053976210215097e-002 3.8641367459363876e-002
      4.7507265315474993e-002 -7.3572491540929680e-002
      -9.0791963244733834e-003 -7.5502108693394467e-003
      1.1438863055559191e-003 -7.2068704154091296e-003
      -8.2281488522862687e-003 -3.1100871356975167e-003
      -1.3901441699951332e-002 -1.0481439385171112e-002
      8.1049687837113464e-003 -1.0046418119009944e-002
      -1.4866721846277877e-002 2.8042142926967276e-002
      8.5471652803468547e-004 -3.5261979002011940e-003
      -3.1621186278988933e-003 5.4670709784798970e-003
      1.4229353746086377e-003 -2.9832115017946782e-003
      1.9830991946650715e-002 1.7479619606684576e-002
      -1.4222046526709621e-002 2.4491416708619245e-002
      3.2394150153308529e-002 -3.9010516203885647e-002
      5.1039095971068260e-002 3.1269988867584343e-002
      -2.2642824532886192e-002 4.0403878928703500e-002
      4.7848703886775014e-002 -6.7050870197181714e-002
      -2.7544415047042847e-003 -5.9109473623153667e-003
      1.7429201070078078e-003 1.1514611228991012e-003
      4.5696683280269215e-005 -1.2006080765704019e-003
      -2.8219377668838405e-002 -1.7344085879538697e-002
      1.9811793063680101e-002 -2.9964376081972652e-002
      -2.9919968075871578e-002 3.9601557357481366e-002
      1.2034507319723053e-002 -3.2071486903513967e-003
      2.8718497737023020e-003 1.2519833262070052e-002
      4.5031272976947005e-003 -1.1577845079689184e-002
      -5.8566750339482101e-003 -5.7446867008352984e-003
      -7.8462033254308051e-003 -7.1946103327051494e-004
      -4.7653846187533837e-003 1.0476969235805591e-002
      -7.8415481015607531e-003 -9.6083474806344816e-003
      1.8073064301589825e-003 -7.4898084656216347e-003
      -1.0457014275671429e-002 1.1795253783559683e-002
      -1.5058398192350162e-002 -1.8696265314125507e-002
      1.2318348285275265e-002 -7.2963691876763567e-003
      -1.2718222827944046e-002 2.7458420716206362e-002
      -2.8154487675589389e-002 -2.5335837781442709e-002
      2.3785866329580227e-002 -2.9240650728578378e-002
      -3.9647672507060590e-002 4.9287412131369765e-002
      -4.2350537457823675e-002 -3.6146528461245421e-002
      2.6706504764930954e-002 -4.1173315248842157e-002
      -5.4325647357788331e-002 8.6099155797483298e-002
      1.3135702463208433e-002 1.4089669917532457e-002
      -5.3377714887625927e-003 2.3126020710615536e-002
      2.5624627745740373e-002 -2.9724859654965765e-002
      1.0048818005787951e-002 2.1203118371681720e-002
      -1.4862997360480338e-002 1.1782167030164060e-002
      2.3099765454194444e-002 -2.5622175693707269e-002
      -3.2151424215395748e-003 -6.1215550399578425e-003
      -5.5469100917655036e-003 -2.0250485650018693e-003
      2.4557274945881192e-003 8.1917008714474972e-003
      3.5113751811650475e-002 2.6665742099914205e-002
      -2.7025324231851538e-002 4.4978622692344900e-002
      4.3579778828558118e-002 -5.7180206626022863e-002
      -1.8726983836300164e-002 -1.9105661852839129e-002
      4.7636501909332305e-003 -1.6466190550935813e-002
      -1.2691639554268420e-002 2.5350940023338295e-002
      1.8425174393615240e-002 1.2312060896562836e-002
      -1.6437905647916033e-002 1.8997669930452168e-002
      1.2428528212034140e-002 -3.1007679014823590e-002
      -4.0535269347618509e-002 -3.8203051892943651e-002
      2.0516424255242919e-002 -3.7376920854842038e-002
      -4.0370201003334785e-002 6.5616566002536500e-002
      2.7543041978848649e-002 1.6649443276522732e-002
      -2.1903010328730765e-002 2.5758555828852732e-002
      2.8246609823928476e-002 -4.3486653503581142e-002
      -2.5884512488634770e-002 -2.3226204881511288e-002
      1.5951992644978784e-002 -3.3734461831922774e-002
      -3.9731696977393316e-002 5.1917584936601500e-002
      4.9930969673670528e-002 4.1536486407917746e-002
      -2.7753782468664452e-002 3.7180458247180241e-002
      4.6594800182872126e-002 -7.6751411314067430e-002
      2.5720511629449237e-003 -2.6277046972745265e-003
      -7.6722999056138084e-003 -3.6808990661178907e-003
      9.8929934304255833e-003 -7.2223087353443394e-003
      -1.1759011401419904e-002 1.8490056464597726e-003
      7.7818300730111475e-003 -8.6907628668627147e-003
      -7.6493656811727727e-003 1.9030180812578408e-003
      2.3089924499652074e-002 2.5795516092866035e-002
      -1.8176051450094512e-002 2.2561506184074997e-002
      3.3596734167355848e-002 -4.1478966946084300e-002
      -4.2391379319494321e-003 -5.5009040593067583e-003
      -3.1362144781615078e-003 -2.2054584937981048e-003
      -1.6242292877350552e-002 1.4754445364134942e-002
      -3.5157253476093830e-002 -1.9806616454881708e-002
      2.2576992029889133e-002 -3.0363720620525256e-002
      -3.6946943000550236e-002 4.4614846847425713e-002
      1.1220844392934555e-002 1.2667136879088688e-002
      -3.7089155627264489e-003 1.4081706591763200e-002
      1.0879908479267755e-002 -1.5524804959352701e-002
      -1.3990938504584965e-001 -9.7369514509984281e-002
      8.1114366510290387e-002 -1.2428678300904050e-001
      -1.4626775915947104e-001 2.0777797552168298e-001</_>
    <_>
      5.5234169067426475e-001 4.3767737238902782e-001
      -3.2712270893144157e-001 5.1993379131054718e-001
      6.3043362703024386e-001 -9.3095226448527002e-001
      -9.4205120252437713e-002</_></weights></opencv_ml_ann_mlp>
</opencv_storage>
