<?xml version="1.0"?>
<opencv_storage>
<opencv_ml_ann_mlp>
  <format>3</format>
  <layer_sizes>
    256 6 1</layer_sizes>
  <activation_function>SIGMOID_SYM</activation_function>
  <f_param1>6.6666666666666663e-001</f_param1>
  <f_param2>1.7159000000000000e+000</f_param2>
  <min_val>-9.4999999999999996e-001</min_val>
  <max_val>9.4999999999999996e-001</max_val>
  <min_val1>-9.7999999999999998e-001</min_val1>
  <max_val1>9.7999999999999998e-001</max_val1>
  <training_params>
    <train_method>BACKPROP</train_method>
    <dw_scale>1.0000000000000000e-003</dw_scale>
    <moment_scale>0.</moment_scale>
    <term_criteria>
      <epsilon>1.0000000000000000e-004</epsilon>
      <iterations>300</iterations></term_criteria></training_params>
  <input_scale>
    5.3987446008705213e+001 -2.8053244747919401e+000
    7.3594591763963615e+002 -7.5636886448803136e+000
    5.6859905026394904e+002 -3.6636300720163861e+000
    7.7375342027339400e+002 -9.3576737293860095e+000
    1.1390317546283586e+003 -7.3531530889188135e+000
    4.0024511605248204e+003 -3.6715197230120094e+000
    6.1188098576807101e+002 -6.6233455233868925e+000
    4.5793044048186704e+002 -9.2031010283494421e+000
    5.1899052525522166e+002 -3.2371715330683664e+000
    3.8439318721822033e+003 -3.5612236165593814e+000
    3.4511773367558603e+003 -2.1587709429464996e+000
    4.0008412035418137e+003 -3.1411439281401656e+000
    7.7585997553201162e+002 -7.9242902122217576e+000
    3.3934481351599106e+003 -3.9261921298307119e+000
    1.9400665657341682e+002 -4.9484281271044717e+000
    1.3872752715786419e+002 -5.2803177235314696e+000
    6.8534101814468045e+002 -7.1684476917939399e+000
    5.5309787766730951e+003 -3.7807278030379354e+000
    4.3308149739310311e+003 -3.9354965989462936e+000
    7.3047394043296354e+003 -4.1609921912662902e+000
    4.3794278225964918e+003 -3.8572930094551001e+000
    2.4708454452964088e+004 -9.5601429311066044e-001
    3.6935497240586847e+003 -4.3468470813921005e+000
    6.7651087628182813e+003 -3.3082817093891959e+000
    9.0702444815976594e+002 -1.0684294299070965e+001
    8.2609482419668166e+003 -4.3505311763843562e+000
    4.2320482516451657e+003 -3.0838738506714445e+000
    6.7796402321081468e+003 -3.4684058095239734e+000
    3.9448744628185261e+002 -8.0198696195816144e+000
    6.1779987708322269e+003 -3.1207715537864922e+000
    1.1588022182990177e+002 -4.5113241285521113e+000
    5.1346099405343841e+002 -6.2304253375726999e+000
    5.1232816640267356e+002 -3.6341969888841277e+000
    4.0666401469636380e+003 -3.7413281957158384e+000
    4.4314984538825856e+003 -3.1672952513298687e+000
    5.3760981255183779e+003 -4.9027001438141449e+000
    5.7577282485052547e+003 -3.7284173242898353e+000
    1.6117534812704042e+004 -1.0047150656234696e+000
    5.3446076042084269e+003 -4.2765822461195002e+000
    4.1657612562480426e+003 -4.2645740289890535e+000
    2.8968425060982008e+003 -2.2961656129373411e+000
    1.2196658380311696e+004 -1.3764057010954571e+000
    1.8023332272353138e+004 -1.2784840929729986e+000
    1.7449993363501078e+004 -1.3878524291535035e+000
    3.9984945228498414e+003 -3.5518585663873696e+000
    1.3182677529841110e+004 -1.2822376118273802e+000
    4.1672858739690619e+003 -4.7767272992619905e+000
    3.4105832881246029e+003 -5.2198129993747138e+000
    7.1953954434162063e+002 -9.7448682752132179e+000
    6.3687760713609423e+003 -3.8400346489024169e+000
    5.1194446723581132e+003 -4.2037077191576184e+000
    5.9952924201333744e+003 -3.3603227130333209e+000
    5.4480561009541116e+003 -4.8541411404068491e+000
    2.8417528439243313e+004 -1.1147961797512853e+000
    4.4826078161469004e+003 -3.6494690310076363e+000
    7.0867409272596933e+003 -3.2675342807018879e+000
    2.5107410063490110e+002 -5.9772544615468011e+000
    6.8138231278336634e+003 -3.4089987766227421e+000
    5.6948327795148125e+003 -4.8628533842975621e+000
    6.7358827753330770e+003 -3.6740652957616642e+000
    2.4296065885294846e+002 -6.5398022680835011e+000
    6.7252286854080721e+003 -2.4033388693779050e+000
    5.3548182706936495e+002 -7.9594527638250714e+000
    1.3039900293292337e+003 -6.5610839400101959e+000
    1.0230656820887664e+003 -7.4061013955672825e+000
    3.8207215036604925e+003 -3.7019232438711307e+000
    4.9969704684011967e+003 -3.1203205970659091e+000
    4.2058516718323008e+003 -3.7383138572632664e+000
    6.5524862897224239e+003 -2.7042924103833563e+000
    2.3242598325592611e+004 -1.0741611391621442e+000
    7.7881385710107370e+003 -3.4946722706440259e+000
    5.4432988561156735e+003 -2.5975352656299036e+000
    5.9288919874157164e+003 -3.7086241874584944e+000
    2.2286147595627142e+004 -1.4970328273915738e+000
    2.4059715482009829e+004 -1.4480875454490034e+000
    1.9595600470083216e+004 -1.2109960452459130e+000
    8.3135432469599600e+003 -3.7572359100494475e+000
    1.8660923556715090e+004 -8.5239004287773301e-001
    7.0760760193046654e+003 -3.3386686052146985e+000
    5.8505460526189509e+003 -2.7384250923908482e+000
    3.8668521171966577e+003 -3.5242743938685797e+000
    2.4760895518932139e+004 -8.3828791527445046e-001
    2.6465156139725426e+004 -1.3653122975725789e+000
    3.3325420359037504e+004 -1.0028823118224093e+000
    2.5323096601676105e+004 -1.0886621079036347e+000
    9.2126295932144305e+004 -3.9605901719066972e-001
    2.6502706800747255e+004 -1.0111949431151961e+000
    4.4057136491540252e+004 -8.2864901666816204e-001
    4.4085814039579000e+003 -3.8261121297713099e+000
    3.2967863692344137e+004 -1.0452715401237100e+000
    2.3253483939330737e+004 -1.0621681243086303e+000
    3.7083936500075491e+004 -8.9677739168109138e-001
    7.2779851025835751e+003 -3.3205128167269100e+000
    4.3715413929868351e+004 -7.2825352788915620e-001
    8.4644025280339993e+003 -3.4205855534437926e+000
    9.3810696472279615e+003 -1.7442742415878381e+000
    7.0144321949467428e+002 -8.4420763853286562e+000
    2.9738114451351712e+003 -3.7203406051437682e+000
    5.1589942114366904e+003 -4.2944026696011495e+000
    5.4549335329728538e+003 -4.9159655397112951e+000
    7.4339304968149254e+003 -3.8630584457626598e+000
    2.2241530638772620e+004 -1.0278966040275788e+000
    6.5384762544189425e+003 -3.9493822481291820e+000
    6.4827702012421869e+003 -3.8147058443179818e+000
    3.5265705649347910e+003 -3.5040943397926765e+000
    1.4615786290475378e+004 -1.6258438704802760e+000
    2.5178963237001339e+004 -1.5289827847015103e+000
    2.1284005008221138e+004 -1.4869042853329517e+000
    4.8888474507001984e+003 -3.4337476884594693e+000
    1.7113210055310414e+004 -1.3978525962776482e+000
    5.5607803077484377e+003 -4.8290688342046222e+000
    3.9221832934085155e+003 -3.0667416040767885e+000
    3.1825455714046620e+002 -7.8338241943625908e+000
    7.4595699562372674e+003 -3.9044427242956323e+000
    3.9145563318470354e+003 -4.0600011579852460e+000
    5.9745534230833919e+003 -2.9184727293575961e+000
    5.9879006758637470e+003 -2.8220226140340516e+000
    2.8761668714045263e+004 -7.4189360128222359e-001
    4.8746025257914380e+003 -2.7819545745861367e+000
    8.2777681787076854e+003 -2.5088729670876870e+000
    1.1946191761947271e+002 -4.4112432988090919e+000
    6.7907361399037545e+003 -2.9084492200675243e+000
    4.5885519387330442e+003 -4.9168516546665737e+000
    7.2422903424640099e+003 -3.2108216933804985e+000
    5.0847909138229113e+002 -5.8510918684311930e+000
    7.9370428301874499e+003 -1.5781444644000955e+000
    1.0527136211840220e+003 -6.6437393126513076e+000
    1.7633073853033648e+003 -3.7220809132622876e+000
    5.2123689369693739e+002 -3.6298856136401660e+000
    5.2631558391024043e+002 -7.0934916452118966e+000
    2.7023473540836821e+003 -2.2291323526889331e+000
    2.3610757098779192e+002 -5.6396017453561900e+000
    5.2557860475801290e+003 -3.4118577690386607e+000
    4.2957542812006050e+003 -3.6358528068888520e+000
    3.8485984874002056e+003 -3.5014333524300927e+000
    2.3554928555313015e+002 -6.3427144537889788e+000
    4.5631524250281236e+003 -3.1485914003530278e+000
    5.1733286757880287e+003 -4.2618536364045676e+000
    1.5317924994403775e+004 -1.0783445373905141e+000
    5.2897370566637119e+003 -4.6363301057081499e+000
    6.1716757929514533e+003 -4.8289286111916834e+000
    4.1016573537733821e+003 -3.4517349323855178e+000
    4.1032523629159123e+003 -4.6790739544838598e+000
    5.8570674788955228e+002 -8.8372518078257993e+000
    4.1708853336294460e+003 -4.0165442839183649e+000
    5.9176691236129018e+003 -3.5648609917098861e+000
    1.2304433415471463e+004 -1.2761603228590579e+000
    6.8584753751811140e+003 -3.4645094129938983e+000
    1.8861143560160464e+004 -1.1858784875095205e+000
    3.0559330042831894e+004 -1.0181735874364362e+000
    1.6622773930886960e+004 -1.8848303322643005e+000
    5.8035240412695730e+003 -2.3764740018516650e+000
    6.5021332429780186e+003 -5.4438935196876503e+000
    6.6117771829677458e+003 -3.9652329981596823e+000
    1.6168559019798406e+004 -1.1816708791948491e+000
    5.8956501454614854e+003 -3.4692223182053663e+000
    4.4900395839789326e+003 -4.7919879338983469e+000
    6.5270434090100625e+003 -3.2549984464581145e+000
    3.3485824298151119e+003 -5.2652817525751994e+000
    1.0740380125208624e+003 -5.7728835870146140e+000
    3.1652498723803328e+003 -2.2299596005026272e+000
    4.1225402770361852e+003 -3.4117086051290064e+000
    1.7044158488995745e+004 -1.2914600758508870e+000
    4.5282967851027806e+003 -4.3655968258587192e+000
    1.8601160637636807e+004 -1.0895642614257219e+000
    2.2877888727705569e+004 -1.2908968789628716e+000
    1.6065792994386507e+004 -1.4763338773300625e+000
    4.0508459796526799e+003 -4.3058442402946415e+000
    1.4021980320081935e+004 -1.0247892711153108e+000
    2.0364345371402829e+004 -1.5211483213575403e+000
    8.4759848643634075e+004 -3.1884126307199384e-001
    1.6418358439779960e+004 -1.5263781632900908e+000
    2.2867521886876759e+004 -1.7449932693617445e+000
    1.9464380856074240e+004 -1.3179454868642075e+000
    1.4531761136306330e+004 -1.3666037485628553e+000
    4.4454367166283782e+003 -4.2331577525041899e+000
    4.8682930449731293e+003 -4.0785813779033697e+000
    6.9816183102492741e+003 -3.8268600668617188e+000
    1.6528086473664360e+004 -1.5987530641254419e+000
    6.1306771857289268e+003 -3.5383357279204826e+000
    2.0080183339185049e+004 -1.4028050945192381e+000
    2.3181200631280299e+004 -9.8412287212338201e-001
    1.5550422123481136e+004 -1.2451301787408304e+000
    6.7610887980593998e+003 -3.2227496362702528e+000
    4.8297059433329077e+003 -4.7807564286588624e+000
    6.4592171398179826e+003 -3.9952275131555335e+000
    1.8358783947547458e+004 -1.6179834215299391e+000
    4.0475482196148528e+003 -2.8950521558787217e+000
    4.4122976975238334e+003 -4.6829358052598939e+000
    5.8810283257165802e+003 -2.9486364055301162e+000
    5.7061735719826029e+003 -5.1669134334902767e+000
    1.2589187902027909e+003 -5.1327971002078545e+000
    8.2835843749175376e+002 -9.5862659753171453e+000
    3.3266910881135254e+002 -8.2403028238080900e+000
    2.9390615088514451e+003 -2.8603121400148299e+000
    1.3244248217009869e+002 -4.9541200658926634e+000
    7.2884726005451384e+003 -3.7091364722455160e+000
    5.4776209655231178e+003 -2.8287962806936653e+000
    4.6331354240414757e+003 -3.2143083871694951e+000
    4.4494909138458746e+002 -5.1293745401900406e+000
    4.3927321150005255e+003 -3.5031192853953343e+000
    4.5078688682556876e+003 -4.8013263266617443e+000
    1.7209541039164047e+004 -1.1560206971359281e+000
    3.8703799780814034e+003 -4.4655190574707611e+000
    6.6126119256725096e+003 -4.0687858365432472e+000
    5.7868313750135649e+003 -3.5700066343267736e+000
    5.1973654875598622e+003 -4.3682381778149235e+000
    1.1513071181214766e+003 -7.7497893233708703e+000
    3.3045748173212978e+003 -4.0950686902015692e+000
    5.6306514065055644e+003 -3.0954271076504685e+000
    1.2160665340378349e+004 -1.4180886437155173e+000
    5.0986866080110767e+003 -2.3070484683998318e+000
    2.3912267389745033e+004 -1.1051100233933686e+000
    3.3563076286508622e+004 -7.5752567804349091e-001
    1.3343698443743400e+004 -1.2046803010447278e+000
    6.1844095669121443e+003 -1.4589791043568823e+000
    5.0053511489815382e+003 -4.3574846876519251e+000
    8.3854854798088199e+003 -4.3169799211774160e+000
    1.9400806225090309e+004 -1.2510864843424483e+000
    7.0576289552019389e+003 -3.3185868097608227e+000
    5.8490430221374681e+003 -3.3757898691723933e+000
    7.6344297896630142e+003 -2.6585076825850935e+000
    4.4507230884815717e+003 -3.5732835220182131e+000
    1.7958472758468188e+003 -4.0744963245255095e+000
    1.9388525216763054e+002 -4.9564799564141504e+000
    1.3779261309261000e+002 -5.5786141383550891e+000
    4.1987366959392866e+003 -5.0925640561482295e+000
    5.6380626254135245e+002 -9.9974824982888446e+000
    8.2319598122235038e+003 -4.5122143430788384e+000
    5.7575076463114783e+003 -2.6577491969659062e+000
    5.3723327489826406e+003 -4.5383893400704149e+000
    1.0433937822137491e+003 -6.9555473633058087e+000
    3.7900882257042135e+003 -4.7313473145534415e+000
    3.4510822916788034e+003 -5.4746702949590658e+000
    1.6957599742076571e+004 -1.7678785175313132e+000
    4.8204603635171325e+003 -4.9866116965337106e+000
    6.2013510359799693e+003 -5.2853749825065446e+000
    4.2469010255213479e+003 -3.6743821257939655e+000
    3.2887548636168235e+003 -5.2578086125957109e+000
    9.8882529450548361e+002 -7.3426200843615801e+000
    1.5277587285350955e+002 -6.2867773641396942e+000
    5.3812026069284275e+002 -6.5255966529924958e+000
    3.2947807194115599e+003 -5.0231037773150700e+000
    1.1861035464415718e+003 -6.5262912077251940e+000
    6.4051923639782808e+003 -3.0290131429024569e+000
    1.1293921671369513e+004 -2.0695954396041913e+000
    4.2012400566803635e+003 -3.6845457595012632e+000
    1.8074116876373728e+003 -3.9210477834097976e+000
    5.5164765336899620e+002 -9.6576728998570669e+000
    1.2189146796483103e+003 -6.6734213014187453e+000
    4.4274327358296341e+003 -4.2421851457302386e+000
    1.4951331565094517e+003 -6.4309221554081786e+000
    1.1576497346940475e+003 -7.9081948455756388e+000
    1.9352778675128568e+003 -4.3887625303529303e+000
    8.8927554631527084e+002 -6.4939680224191614e+000
    3.6128231376372963e+002 -5.3052892094726705e+000</input_scale>
  <output_scale>
    1.0526315789473684e+000 0.</output_scale>
  <inv_output_scale>
    9.4999999999999996e-001 0.</inv_output_scale>
  <weights>
    <_>
      -7.1755897743486048e-003 8.6141842402111116e-004
      -3.0533242897820842e-003 7.7813130049853244e-003
      7.6110650163248661e-003 -5.8967937380211763e-003
      -7.6818465483818790e-003 -9.2685986546384887e-003
      1.1052126780781255e-002 -1.0849301596916789e-002
      -1.4764352705804819e-002 1.3319703160398990e-002
      3.5625562719470479e-003 9.9211291391279495e-003
      -7.1834556662903112e-003 1.1338823903595285e-002
      4.2420071678164343e-003 -1.4468383498176416e-002
      6.5972770365532651e-003 1.7727918433315931e-002
      -6.2275025495146744e-003 6.7015025022750235e-003
      2.2906717917986968e-002 -3.3737378091630743e-002
      9.1747996717558376e-003 1.6700628801893803e-002
      -9.0483535017653171e-003 1.3684923107106010e-002
      2.0678511010576679e-002 -4.0142294550925592e-002
      -4.3223419518399206e-003 -6.3608497512305780e-004
      -2.8665396878527387e-003 5.5980018395802543e-003
      -3.2986611674155467e-003 -2.7781498417690370e-003
      3.9152199651567049e-002 2.6260058351653383e-002
      -2.3576503311099006e-002 3.2130104730788409e-002
      4.6575472254380253e-002 -6.6640351296251885e-002
      -2.4759391598327463e-002 -2.2286130411274779e-002
      9.1445942808228691e-003 -1.8068926913675107e-002
      -2.4535308268258414e-002 2.2528619531342844e-002
      -6.2055267326747206e-003 -7.0619213586941548e-003
      6.6528717124130169e-003 5.4529764540163089e-003
      -4.9011538401756306e-003 -3.1531535771547243e-003
      5.2908365365377603e-004 -6.9538402881364966e-003
      2.8446744841854562e-003 -7.5115660677150557e-003
      -3.5819855332644744e-003 4.9857802489997084e-003
      1.7703569582493042e-002 2.4343534845086444e-003
      -5.9447754520486307e-004 7.5501240473571651e-003
      2.0184475196459981e-002 -2.7426310161728484e-002
      7.6182972315050343e-003 -1.1184845916440367e-004
      -8.3550576076087922e-003 3.1666786680865254e-003
      1.0744225882967774e-003 -1.4017873863802594e-002
      3.2100150416978983e-003 8.2519411458531946e-003
      -1.1149037888397075e-002 6.4757527110874801e-003
      1.0775395903687082e-002 -2.2146848402554018e-002
      -3.8898945847368922e-002 -2.8406818192281368e-002
      1.8245711479298578e-002 -2.9348847372741911e-002
      -3.2660270554867289e-002 5.7847962799564223e-002
      9.7818678153888828e-003 1.4243692782645286e-002
      -4.6595990658749083e-003 1.7057683836903231e-002
      1.8550596811334981e-002 -2.7245533143096863e-002
      1.3361291549690518e-002 1.5540370580816785e-002
      -1.2006963928078507e-002 1.4273704498512408e-002
      2.5705997146756941e-002 -3.9230616937317948e-002
      -2.0851509596163345e-002 -1.9440896875450104e-002
      3.2167183030704701e-003 -1.5896463939115927e-002
      -2.4855232983301889e-002 2.2005772865175459e-002
      1.0703911224428098e-002 1.1535927979757235e-002
      -5.6513385914298908e-003 4.8190619887281674e-003
      1.4659375282691669e-002 -1.9467621266048091e-002
      -1.2082447359722907e-002 -9.3536330159592791e-003
      1.3113868479534753e-002 -8.3926950999906949e-003
      -4.5755309444293641e-003 1.9199746941883929e-002
      1.7339874453877486e-002 2.0127740320760121e-002
      -7.0356806537126698e-003 1.8787187368712890e-002
      2.6572417477194663e-002 -4.0903892645453528e-002
      -5.8286293848986573e-003 -3.1141078245247641e-003
      1.0021190119474777e-002 -8.5018498267185119e-003
      -6.6183916904696037e-003 1.4773191600922372e-002
      -1.3804799992430570e-002 -9.0728289427430900e-003
      2.8641973711095304e-003 -4.8092000595716484e-003
      -1.2841109812904905e-002 1.9409861049048519e-002
      1.2361940697198903e-002 1.1996832601193060e-002
      -1.5699856482851314e-003 1.0779378293847976e-002
      1.2135655233576105e-002 -3.2563332542689158e-002
      -2.6842468306543497e-002 -2.2025181693781280e-002
      5.4990890925331101e-003 -1.6010326059490567e-002
      -2.2473627343435953e-002 3.3016289071241385e-002
      -9.2951779242618944e-003 -1.2320472303797673e-002
      9.9335308496457941e-003 -8.3820229238272329e-003
      -8.5846192014194262e-003 1.7989452981242885e-002
      5.8404404786550328e-003 4.9247023409963158e-003
      -4.1999592602875221e-003 1.1604515548752142e-002
      7.5697531610149811e-003 -1.5902688415173397e-002
      -1.0266633029824562e-002 -7.4693576702122497e-003
      -2.4962050894122125e-003 -9.2046325833916708e-003
      1.5868495140402906e-003 3.2113641290880731e-003
      -1.6080595400014580e-002 -1.2946327192312734e-002
      6.1921364679234829e-003 -8.4174069271967036e-003
      -6.8323671341400738e-003 1.3983508109868171e-002
      1.7386342347018445e-003 -2.9195513314592952e-003
      1.6484918950141398e-003 6.7847820907921070e-004
      8.0344812598592190e-006 1.5936692873900369e-003
      -6.4882372043977574e-003 3.6696485903268039e-004
      -6.1539253107946914e-003 1.2281114786978034e-003
      2.3945905900573153e-003 1.3416964247461806e-003
      1.0281767751626663e-002 8.7083801546413986e-003
      -8.4643773085076018e-003 1.0566760706266980e-002
      2.3527223400029006e-002 -3.6139188141656273e-002
      2.9218927051406669e-002 2.4535599354067419e-002
      -1.5204894363366132e-002 2.8899882212070949e-002
      2.9805936805014158e-002 -4.4575227173191206e-002
      -8.3994961332608219e-003 -4.7254869160814989e-003
      2.0010786506408722e-003 -7.1887429341315669e-003
      -4.9537867069016023e-003 1.7428915197701397e-002
      -1.2365402670210100e-002 -1.3082505499833088e-002
      3.6862910672961751e-003 -1.1905381556265414e-002
      -1.6464014244913349e-002 3.3451863300178075e-002
      1.3637972569366446e-002 1.3829134870754243e-002
      -1.0806113561705025e-002 8.8851210657143690e-003
      1.5077574331199377e-002 -2.8866008479844801e-002
      4.8591490274067859e-004 6.4583546926305349e-003
      -5.6072302038748384e-003 1.2391719656453149e-002
      5.6776337509529045e-003 -9.4550394340925815e-003
      1.2782150068314383e-002 1.1342237176953924e-002
      -2.9553720719144973e-003 1.0664599072389069e-002
      1.5213679010546462e-002 -1.4650476699267865e-002
      -1.0231470346902731e-003 -8.0582749868144017e-003
      3.8246624796869884e-003 -8.9309718526315550e-003
      -1.4655636510911006e-002 8.5957942462016011e-003
      -5.9547966771102993e-003 -2.4223849282472734e-003
      2.3448655909748661e-003 -5.7942420616212912e-003
      -2.8740029260014748e-003 7.8362887220488377e-003
      -1.0851222498319010e-002 -1.5192076376538207e-002
      9.2497562069700483e-003 -8.3919366791434299e-003
      -2.5250583521546341e-002 1.8948009873895100e-002
      -2.5950105942966550e-002 -1.3042897333910661e-002
      5.0502332715047955e-003 -1.6171880023337880e-002
      -2.7313341934091587e-002 3.4583118680159751e-002
      -2.0050675320083984e-002 -1.8614281215456302e-002
      9.3397380413023628e-003 -1.8849930588710678e-002
      -1.7021237451074801e-002 3.8324471759291677e-002
      -1.3589668703375980e-002 -1.5565821293419890e-002
      1.0027047369871809e-002 -1.8661033105668471e-002
      -2.0343392459595953e-002 2.7214049575137733e-002
      -1.1713289915287145e-002 -1.4417166717827685e-002
      1.6346275898908368e-002 -1.5249143237762547e-002
      -2.1778669030983737e-002 2.7332377525785028e-002
      -3.7133604068200092e-002 -2.4591708942762743e-002
      1.4884112659345054e-002 -3.3791888816930210e-002
      -2.9374044693550677e-002 5.3148417008173229e-002
      -5.5552334774644377e-004 -2.6465084241713917e-003
      -3.1799909620932381e-003 -1.7170873939589154e-003
      -1.0663440213027547e-002 1.4912553554832569e-002
      -4.2449557121813477e-003 4.2056568133352979e-003
      -3.1575599675790018e-005 2.5857244845181901e-003
      4.8931545674250143e-003 -5.8316872299901358e-003
      -1.8680710640405614e-002 -1.4936786843782275e-002
      6.8397572064942853e-003 -1.9681298350084708e-002
      -2.2352048882241085e-002 3.3927914678394656e-002
      8.4151407648210552e-003 1.2351703523803142e-003
      -4.1952822391980397e-003 -2.7507708384617246e-003
      7.3688843458637526e-003 9.3608744611775145e-003
      7.0637908514175757e-003 7.3691472116501023e-003
      -1.7271746905750491e-003 -4.1254823795888662e-003
      1.1736446469655002e-003 -3.2572133773947050e-003
      9.4315762850511187e-003 1.4528198579033778e-002
      -1.2459544508649273e-003 1.4804100310488672e-002
      1.0318524433294238e-002 -2.7875026674631653e-002
      1.8812383254283641e-002 1.1141780059646039e-002
      -3.1541972201783596e-003 7.8317269868662612e-003
      1.6982604300818435e-002 -3.2094032494420818e-002
      2.2698500154880393e-002 2.4212078288124814e-002
      -8.7645868505695727e-003 2.4913775933557144e-002
      1.8947370037950509e-002 -3.4726489161537574e-002
      3.8828564009882201e-003 7.1730254874420489e-003
      -3.4456732478677738e-003 6.1342964950126732e-003
      2.5110421805268307e-003 6.9554538777361254e-003
      4.7270643806461539e-003 1.4577143093490487e-002
      -1.3043679776687992e-002 4.8424981728778724e-003
      1.6184247771839081e-002 -1.6977957602812947e-002
      1.0259125987972829e-002 1.7296362696716309e-002
      -3.5714603624044058e-003 1.5830577132649827e-002
      1.8621128430835576e-002 -2.2134783578270228e-002
      -1.2521107096711066e-002 -6.1299928300372749e-003
      6.1723915397883392e-004 -1.2454240237772751e-002
      -1.0806084443050670e-002 2.7998156945532340e-002
      -8.0697094177118844e-004 -3.2958317111527126e-003
      2.7528227420236615e-003 -9.9257838424109080e-004
      5.7797978858905343e-003 -5.6220708331937187e-003
      2.4019219417558017e-002 2.2828710342371220e-002
      -1.1460141537008601e-002 2.2103522287231340e-002
      1.7060124846511249e-002 -2.7743869866992690e-002
      6.0618127980634302e-003 7.8538173265706775e-003
      4.9042143100124086e-003 5.7381917881586444e-003
      8.0020006366525419e-003 -1.2216735047579199e-002
      -4.2247635672090361e-002 -4.4240734592649121e-002
      2.9606769740275644e-002 -4.2607370062772404e-002
      -5.2301459416442098e-002 8.0593575488456942e-002
      -2.3330580024882707e-002 -9.8985789782214499e-003
      1.7691960748643931e-002 -2.2279485100666418e-002
      -2.1541422786365946e-002 3.3038499398313555e-002
      -1.7059928827036858e-002 -9.9527767054130162e-003
      8.3273785812568672e-003 -1.9297392895959359e-002
      -9.4506158359742680e-003 2.5936293345617142e-002
      -2.7370783638838509e-002 -2.1461245323331182e-002
      1.4524741187220884e-002 -3.1366731836363966e-002
      -3.0081405913608930e-002 3.6975292518426885e-002
      -6.4168256823705951e-003 -1.3378229041327314e-003
      2.0120342034138225e-003 -4.7622368825174302e-003
      2.5139764384754324e-003 6.6553465434593508e-003
      3.6226409220539196e-003 1.0624864239208019e-002
      1.0053308086836867e-003 1.1843306280954773e-002
      1.2323596137592055e-002 -3.7888948147955940e-003
      -1.5181505195565131e-002 -1.6730688970503237e-002
      1.7265920944771133e-002 -2.3864437593757139e-002
      -1.6432879077361559e-002 3.3601471157385224e-002
      1.7564605835914411e-002 1.1215767949365386e-002
      -1.8660709399928803e-002 1.7513748337442618e-002
      3.0612374146150628e-002 -4.4298084348163860e-002
      -8.3977676463801876e-003 -1.6615264854188978e-002
      1.6941394727646106e-003 -1.3443231299924611e-002
      -1.8204020631149277e-002 1.8226120341164713e-002
      -3.7045725838432429e-002 -2.5332107922477740e-002
      1.8655339108222938e-002 -3.7063527340035686e-002
      -3.8831511922369263e-002 4.9751664999973383e-002
      -8.2813839278243363e-003 -1.6574624882978474e-003
      4.0336886987733149e-003 -7.8113061246516549e-003
      -1.1777422451999392e-002 5.2404098277122986e-003
      -1.4602004007162888e-002 -1.2160630384830473e-002
      1.1273280168108997e-002 -1.0301576549476520e-002
      -6.8382481801459128e-003 1.2961513725220510e-002
      -1.0519790773841275e-002 -1.2307902005240800e-002
      1.3686850906617150e-002 -1.7300352362520130e-002
      -1.1541747545802620e-002 3.0268361071529394e-002
      -2.9495347952946394e-002 -2.5087158212966820e-002
      1.7181219583166315e-002 -1.9822088662596587e-002
      -2.7500358345094483e-002 4.2691439102574481e-002
      -6.2865648794028736e-004 -3.2931411453817542e-003
      6.2122871866124264e-003 9.7631742145674194e-005
      -2.6202028296320335e-003 -1.1026047408668469e-002
      2.1816987599972290e-002 1.6615649231088606e-002
      -1.9455235163692172e-002 1.8325020648807554e-002
      2.4842855924125263e-002 -2.5650862787127759e-002
      -1.3205588303680554e-002 -1.0218768404549446e-002
      1.5013603003775688e-002 -1.2256208169787997e-002
      -1.0896642057350225e-002 1.9784606881831826e-002
      -2.9634102955871308e-002 -1.7455453242109453e-002
      1.5621920026086894e-002 -1.8341687584688904e-002
      -2.8018120046223161e-002 4.5029149828605973e-002
      3.4605634134178366e-002 2.6201277518703249e-002
      -1.7166228704111809e-002 2.6744951699271085e-002
      4.2962938709177591e-002 -4.8825603776160097e-002
      2.0566798393808053e-002 2.1576289394916463e-002
      -1.5661073972701393e-002 2.1402161131963637e-002
      1.8633903400605726e-002 -3.1806101060160269e-002
      3.5249059805548622e-003 1.2381828279393102e-002
      -7.2312635322436993e-004 1.2787686604025149e-002
      3.3774906078620844e-003 -1.8645945622328398e-002
      2.0727540336524585e-002 2.6811003043414824e-002
      -2.0384630149073945e-002 2.4997927966074033e-002
      2.6254104993699533e-002 -3.9859832818729596e-002
      -2.5974308078967508e-002 -2.6207243571609477e-002
      1.8962411436477030e-002 -2.7843126116369431e-002
      -2.7947629658497668e-002 4.6822145078171430e-002
      7.4832924202473889e-003 8.7900042174644723e-003
      -8.8591084511202428e-003 3.2587440381227693e-003
      1.4630862126038160e-002 -1.4689298742767164e-002
      -1.7390585799627899e-002 -5.3737273603451791e-003
      4.9513666933421879e-003 -7.4553852103822101e-003
      -1.1843950300117242e-002 2.7282498160063909e-002
      -3.7926775835421217e-003 6.8345841626544354e-003
      9.1178779815029093e-004 2.3593674584650357e-003
      4.5904700951045051e-003 8.5057326705767194e-003
      7.0916147078723211e-003 2.7443483565764175e-003
      -3.5799490422795538e-003 -5.6859256038711021e-003
      -7.6944966605338354e-003 1.6572871922668822e-003
      -8.7144433290539842e-003 -6.6992665303970637e-003
      -1.4399795799826857e-003 -9.6883156826920846e-003
      -5.9439893352115246e-003 2.4071922770677451e-002
      -3.0779605919166045e-003 1.1402526204217854e-003
      4.3669746298779233e-003 -6.2133385912605289e-003
      -2.2444017923478731e-003 -2.7431897473992363e-003
      -1.6432630440790777e-003 8.8316629082410836e-003
      4.0517008451628565e-003 7.2435859064328648e-004
      -2.6979402840240111e-003 2.9042010268842239e-003
      -9.0761839329363842e-003 -9.5774433656680910e-003
      4.6787360054756739e-003 6.1445657100570137e-004
      -1.6751084704037425e-003 -6.0806667287554910e-004
      -4.1441594090052149e-005 4.1726888213848443e-004
      5.0753806777570510e-003 4.1258348417396408e-003
      -5.5954261262710532e-003 4.6494051947549662e-003
      -1.7346495785200339e-002 -1.6408907393926982e-002
      9.0208309554271286e-003 -8.9292104562939730e-003
      -1.8735257683917435e-002 2.3112952194560051e-002
      2.8700701263307971e-002 1.8863723917593906e-002
      -1.9103845488336550e-002 2.7606856214488797e-002
      4.1044124790592988e-002 -5.2226743806366896e-002
      -2.4794722193036720e-002 -1.8551665587346805e-002
      7.2621413252920005e-003 -2.6292300547537815e-002
      -2.5137542334965315e-002 3.7791106430522553e-002
      -2.3292812321079291e-002 -9.7306520053917090e-003
      1.9042154877672860e-002 -2.1365215952169177e-002
      -2.3624673830134453e-002 3.8453824025216535e-002
      1.7088579425325462e-002 2.2085015014136671e-002
      -1.9831956365283836e-002 2.1578695961437116e-002
      3.0190879124590026e-002 -3.8475906703964828e-002
      -1.1662896688102819e-002 -5.3715801198994627e-003
      1.1732808692221006e-003 -1.7651022871685254e-002
      -1.2175147105974060e-002 3.2510774938350043e-002
      3.4701880116284681e-002 3.1370589626320326e-002
      -1.1839454566244020e-002 2.6041760143022688e-002
      4.1232268059217377e-002 -5.6240677404772059e-002
      3.6183330637524519e-002 2.2979513970372508e-002
      -1.3539619322755884e-002 3.9184044619020975e-002
      4.6099843805578432e-002 -5.5537623356644604e-002
      -1.2085631451907688e-002 -1.7999012758542370e-002
      1.2967085781574798e-002 -2.1891770100364367e-002
      -2.2009296540995853e-002 3.1844140239027360e-002
      -2.7385603013009778e-003 -9.4120110596167157e-003
      -1.6847285936758894e-003 -1.4339609045564522e-002
      -1.5045481322990599e-002 2.0804292455085222e-002
      5.7449179458611633e-003 -5.6237681471164511e-004
      6.7958706800313757e-004 3.0430308350950976e-003
      9.2180364434391367e-003 -8.7481340724782468e-003
      -4.3320455571769423e-003 -1.9660921393157000e-003
      4.3694644171603349e-003 -6.5950572728542519e-003
      -3.4692006563395083e-003 9.4667068148603390e-003
      -1.5737618407068252e-002 -7.0252646185020662e-003
      8.6748505671098326e-003 -1.6040734451778667e-002
      -8.5275602595410744e-003 2.5656070802003585e-002
      -2.6739188832619082e-002 -1.9815208848301524e-002
      1.5315691374928372e-002 -1.1356274470112861e-002
      -2.0469873332070215e-002 2.7883622675776338e-002
      1.3157963494408443e-002 8.5212786583315891e-003
      -9.5654527663323833e-003 9.5315384782990956e-003
      1.7318964667411355e-002 -2.6790474342997295e-002
      6.6814506326706930e-003 9.0218826203441495e-003
      -1.0894829513410148e-002 -1.6139870374583933e-003
      3.1381899659933469e-003 3.7368850478807138e-003
      -1.9793474246916475e-003 -9.1121869706337205e-003
      -3.1672187660535759e-003 1.3609507348604350e-003
      -3.5276545492735666e-003 1.2805444385594835e-002
      -1.8110033496596803e-002 -2.1566346141154588e-002
      1.0709697540077735e-002 -1.8560091967218015e-002
      -2.6464917585793338e-002 4.7282977835057659e-002
      1.0785999817363863e-002 3.9844326995671199e-003
      -8.9055302660056689e-003 5.6133233893563683e-003
      -9.6699145279370959e-004 -1.8420807082940248e-003
      -2.0877974619447921e-002 -1.9432153568468682e-002
      1.3510698604057896e-002 -1.9744940976358059e-002
      -3.1069905041547639e-002 3.9338518677565708e-002
      -1.9858749248537935e-002 -1.8798003421918362e-002
      3.0287091432790710e-003 -2.0141418104221303e-002
      -2.6305189738069057e-002 4.6371642748256586e-002
      4.3318409947563138e-003 -4.6084881614164708e-004
      -3.5843164235328090e-004 5.6187321759688606e-003
      4.5962042121055991e-003 -3.8727269288085305e-003
      4.1073883541623918e-002 3.7377018949417223e-002
      -1.7316903258074081e-002 3.1062539587755063e-002
      5.0086449225077760e-002 -6.8605625528647601e-002
      4.7345852494958722e-003 4.3086798279138323e-003
      -4.1752302883076887e-003 1.3051259122741132e-002
      2.0158042515674439e-003 -1.8215866078546399e-002
      -1.5828465538840274e-002 -9.8878796074998894e-003
      1.8447043697175258e-002 -1.3135073170193499e-002
      -2.3070860835264537e-002 3.8406371909631115e-002
      -1.8645053273994336e-002 -1.6226989694508066e-002
      1.4351371420779416e-002 -2.7264531136152216e-002
      -3.1121455649882345e-002 4.0334082890261462e-002
      -1.8956307990133398e-002 -1.2871946968174879e-002
      1.1803104200032759e-002 -1.7737260282562291e-002
      -2.1060431296035718e-002 1.9827293621364372e-002
      2.1478591871635502e-002 1.3237619982120223e-002
      -1.0107550816684800e-002 1.3077992287646029e-002
      1.2431656023000127e-002 -2.5435578267289614e-002
      -1.8620004322191623e-002 -1.5507420619149372e-002
      1.8870519543589852e-002 -2.6557334066368444e-002
      -2.4850069539451420e-002 5.1724591870972884e-002
      -1.4755409647704189e-002 -1.5982899037760477e-002
      1.1991351468717579e-002 -8.5548942494452062e-003
      -1.5799654385948943e-002 2.4327576629795965e-002
      2.3854959130531197e-003 -6.1294022720579534e-003
      5.9060276395314299e-003 -5.2236087701969204e-003
      -3.1077019647043555e-003 9.9569080907961904e-003
      2.0525384852620218e-002 1.5214177313469485e-002
      -4.7117420472829784e-003 7.2792505780383335e-003
      2.0381212129771554e-002 -1.2778505440747205e-002
      -2.8610328149633789e-002 -1.6003829827836505e-002
      1.5347000427931360e-002 -2.5636984639614571e-002
      -2.4952101333161687e-002 4.8979988957488334e-002
      -2.0456761797729026e-002 -7.5122868912268501e-003
      1.5414937681863755e-002 -1.6755132984119726e-002
      -1.7097624523663344e-002 4.0830330919508294e-002
      -1.4702194150723753e-002 -1.7847408096740958e-002
      2.7144284520230918e-004 -1.8107929718168082e-002
      -1.8706973459372778e-002 3.2779884704595905e-002
      -2.9910185134252584e-002 -2.8789369881461937e-002
      2.3858146150076469e-002 -3.4595951609784438e-002
      -2.8882933046587806e-002 5.2458231909429727e-002
      -2.2450911364305867e-003 -5.9913764494492240e-003
      -2.2149419018278552e-003 -4.2381235587590762e-003
      -7.6993812333592162e-004 1.4795262469822492e-002
      1.1705791221219324e-002 1.2467054240105892e-002
      -1.6082867908819656e-003 5.4942995195636024e-003
      1.3566695272532018e-002 -5.5964266308368505e-003
      8.8868203891907960e-003 4.7857429065167600e-003
      6.5963991082008052e-005 7.1451946616828714e-003
      1.5357663789623152e-002 -9.9789980033142874e-003
      -3.7647695666777226e-002 -3.4119291265831013e-002
      1.6501722149230260e-002 -3.4982507642882341e-002
      -5.0959790453444342e-002 7.4433602970021426e-002
      7.6732637957178220e-003 4.6220370331539569e-003
      5.1339018705716249e-003 7.3740567860497205e-003
      -5.2690271606996757e-003 -1.1213462815919019e-002
      6.9634452784363733e-003 1.0453130870493205e-002
      -1.1536364305695905e-002 7.9371931443829799e-003
      6.0398422167424559e-004 -8.4568703514298783e-003
      -2.4272334999310197e-002 -2.1644039654233695e-002
      2.0610315348008737e-002 -2.0900298283155511e-002
      -2.2549695925988409e-002 4.3704439777352930e-002
      -1.2295309177562427e-002 -2.2650829723192111e-002
      1.4267204221014393e-002 -1.9036923233098260e-002
      -2.8046316549491610e-002 3.4517370781125337e-002
      -1.9004497300009612e-003 -1.0011989258236298e-003
      9.4125893801020617e-003 -3.3735296313123346e-003
      -1.4434653016928505e-003 9.5740810959158412e-003
      -1.5270437587649874e-002 -2.1317854673587554e-002
      1.5686959596744772e-002 -1.2597468753673466e-002
      -2.5377019304586770e-002 2.7738576979112937e-002
      -3.2308975680596587e-003 -4.3685850836653909e-003
      1.9951308325639725e-003 -9.2656816149659215e-003
      -1.5238664026060026e-002 1.3659334101530342e-002
      6.5407606331265248e-003 3.4405926473636806e-003
      -1.3064733309997816e-002 7.9193664513491531e-003
      1.9233215079796886e-002 -2.1809308192641978e-002
      1.8717600509290057e-003 4.8698397294710729e-003
      7.7004365289349312e-003 -1.9929716045349803e-003
      -3.0603925515880369e-003 -7.4934853305137121e-003
      -6.8243930402292650e-003 -8.0300301564810647e-003
      1.1375250090527851e-002 -1.4791208532843672e-002
      -1.3396505782369830e-002 1.2776479597355414e-002
      -4.4032610692051723e-003 2.7143817284030628e-003
      -3.8925098612461618e-003 1.8156830841979910e-003
      5.3081465543291769e-004 -8.7691316715680298e-003
      1.7671257780794791e-003 2.6529211934234334e-003
      2.2277642247078050e-003 2.8134782210580606e-003
      -8.0498157154834209e-003 -9.4205446543935943e-003
      7.5726565030048917e-003 9.5646219378686202e-003
      -2.0346726640673075e-004 -5.1007512488105526e-003
      2.8795858289468556e-003 -5.5752904934157676e-003
      2.1145644434105319e-002 2.7305379651993200e-002
      -2.2098291041698498e-002 3.0136244748820422e-002
      2.6279610345702260e-002 -4.0341053730933586e-002
      -2.2136905996642073e-002 -2.2348332067830726e-002
      1.3653780991519879e-002 -1.7530705162859480e-002
      -2.2764356429691109e-002 4.1226767817134066e-002
      -2.1488335283500287e-002 -2.4734744327384529e-002
      1.9448190763511456e-002 -2.1639310834166363e-002
      -2.3633284533392890e-002 4.2450955609271007e-002
      4.3456836045335494e-003 4.8263639867914213e-003
      1.5182917943385060e-003 -1.0897351430303878e-003
      8.8416957499474116e-003 5.9549070440060034e-003
      2.2341177525406337e-002 1.2306761463914214e-002
      -5.3653352962902317e-003 1.3230024837356526e-002
      1.6083122928902991e-002 -2.6159223944141528e-002
      2.0742089094708621e-002 1.4128807862177092e-002
      -1.5495036439531713e-002 1.9305350512102838e-002
      8.9594936823791764e-003 -1.6232215196252481e-002
      -1.4620095896356993e-002 -1.8700305377211564e-002
      8.0683043958358538e-003 -2.1685338245295942e-002
      -2.5503780943558318e-002 2.7673941725227153e-002
      -2.7864530004629805e-002 -2.4196397047965685e-002
      1.2815930121358926e-002 -2.3500387317335326e-002
      -3.0970861641411291e-002 4.9865766236931182e-002
      1.8388457076340788e-002 1.3910798883681076e-002
      -2.4723696062546444e-003 1.2708549563883269e-002
      9.2754511156858729e-003 -1.5326568982792178e-002
      -8.0898319700775743e-003 -9.1458571499474142e-003
      5.2403881067458104e-003 -7.7879158015709644e-003
      -1.5184875010644663e-002 2.8996793307137093e-002
      2.9946978256079556e-002 3.2240645422499506e-002
      -2.4978427760533894e-002 2.7612339640990691e-002
      3.5982822326320898e-002 -5.0654453723862507e-002
      3.2192650532121693e-003 5.8208709242631119e-003
      -5.3674736935727229e-003 7.3291048239634317e-003
      3.1460293855593603e-003 -2.3405901592182251e-002
      7.9370847005367715e-003 3.7286978289285686e-003
      -9.8957012710415553e-003 7.2030695267498203e-003
      1.5513646592811309e-002 -1.8427634070146005e-002
      2.0864248346533741e-002 9.5400883813711104e-003
      -1.0359314823768333e-002 2.1920337348083241e-002
      2.3703174834965399e-002 -2.8132952897245416e-002
      1.7604445870697066e-002 2.1377912348352585e-002
      -9.2273508444238699e-003 2.2600161154977663e-002
      1.5847070471310599e-002 -3.5435432205153342e-002
      -1.5424197977407085e-002 -1.6927448283661259e-002
      4.8783293213981134e-005 -1.6409027066418166e-002
      -4.5450539145837415e-003 2.4501198834407420e-002
      -6.0867031866353855e-004 -2.3805093340379161e-003
      6.8980664638573870e-003 -8.7497890517503826e-003
      -1.2015273216980491e-002 1.2300290278821430e-002
      3.2065320627695875e-003 5.2305867678160327e-003
      -1.7436047968782536e-003 3.3819052779826136e-003
      1.7351804050466411e-002 -1.8546283237307046e-002
      -3.3577709641333144e-002 -3.5266167229144565e-002
      2.7919093545117846e-002 -3.8790063412202376e-002
      -4.4540781032303099e-002 6.1978899232638988e-002
      6.7652496652330606e-003 -2.2301234522953454e-003
      3.1516577463138328e-003 4.1587819448400971e-003
      -1.6067560328526401e-003 1.4049535575298944e-003
      2.4207202574147480e-002 2.8224771129520966e-002
      -1.5503707209434444e-002 2.5474532517147572e-002
      3.2482576662610695e-002 -4.6551200456052017e-002
      2.7939913314569851e-003 1.2300192691583312e-003
      -1.9482663184354182e-003 -7.6163333043019468e-003
      6.9151127560721087e-003 3.0760551884316022e-003
      9.0723093399965957e-003 1.7858764103297899e-003
      5.4996791430359376e-003 6.1161644377780485e-003
      -2.1617590300789880e-003 -1.2789645647167672e-002
      5.8905943801070958e-003 2.7754326338308762e-003
      5.7918460227615522e-004 8.5969721655313365e-003
      9.2095396675479623e-003 -1.2988406845833734e-003
      5.1930365665396761e-003 9.0724791067590127e-003
      -5.3866667297018439e-004 7.8401911702256615e-003
      6.9081164789492853e-003 -5.6948278305386712e-003
      -7.9025209000712446e-003 -9.3225588477873680e-003
      6.5909117939745403e-003 -5.7253560653673088e-004
      -7.4889737796074189e-003 1.3113904442580548e-002
      -1.3286504372741589e-002 -1.9778001988328225e-002
      1.8261257642775468e-002 -2.4285024296949526e-002
      -1.7290948400231630e-002 2.7908608068637888e-002
      -2.0373864247909844e-002 -1.4222959809614277e-002
      1.8625050481867682e-002 -1.2803857378903518e-002
      -1.9078951173111949e-002 3.6526502121804798e-002
      2.0346673392384489e-003 7.4565519077840143e-003
      -1.2598032087337485e-002 1.8521244846334602e-003
      1.7848520560313413e-002 -1.1121871257529503e-002
      2.8215622888815538e-002 2.8439230215597126e-002
      -2.3165838021493582e-002 3.5668485120181122e-002
      4.1730031038508392e-002 -4.6474010853536370e-002
      1.3564355249319596e-002 2.4626872264542771e-003
      -4.9488505077527525e-003 3.9361083032807978e-003
      5.6863221000730928e-003 -2.2741611490726340e-002
      9.9362436103825197e-003 3.1361690112086302e-003
      -2.9267487225828610e-003 4.5012221974222765e-003
      1.8807037020574707e-002 -2.3096712653866851e-002
      1.1321388946159805e-002 2.0689716481519349e-002
      -1.4255798778440033e-002 2.2679286325229291e-002
      2.0852020862292500e-002 -2.9032015092983077e-002
      -1.1296781060058533e-002 -8.1770530326767728e-003
      4.3477188464180194e-003 -1.4147503883427556e-002
      -1.5657921475256326e-002 3.4176018289242605e-002
      2.4178191178673522e-002 2.2595667588648252e-002
      -8.0488723461205128e-003 2.4585481842895548e-002
      2.5491078772327390e-002 -2.2891120455237200e-002
      1.6510076810795065e-002 3.7066966276359707e-003
      -1.1450116817941837e-002 9.1193081306978896e-003
      1.0503821145903610e-002 -9.7649443351811617e-003
      -7.7989033792995842e-003 -3.2523663741964035e-003
      6.2759815502892316e-003 -1.3052861444505084e-002
      -1.4758339561828643e-002 2.9691387065649815e-003
      1.4700912806710437e-003 -1.3518998660128461e-004
      1.3886662907382347e-003 5.3526216312537777e-003
      2.6697182048655084e-003 -2.0097718739729956e-003
      1.5287064697293759e-002 6.1998722915986059e-003
      -5.2593836805105171e-003 1.7838754565246178e-002
      8.8980236520388185e-003 -2.7264065962841186e-002
      -4.4444769144547759e-003 -9.2790649469286623e-003
      6.0581514040563096e-003 -4.2409517204006214e-004
      -3.5083513396398972e-003 7.6334992529534015e-003
      -1.4398572053498544e-002 -1.3934605313165288e-002
      5.7747587264096656e-003 -1.1324204993750031e-002
      -2.4264896318033642e-002 2.6323557981145267e-002
      1.8007905120869607e-002 1.8474016748032951e-002
      -1.8630899604863131e-002 1.9811280207153430e-002
      2.1330827107576941e-002 -3.6549955456249401e-002
      1.3509663920446986e-002 8.6450908180019329e-003
      -2.8314458893121432e-003 1.4824411897876158e-002
      1.1498257435334513e-002 -2.5858475496316622e-002
      -3.2000151511979848e-003 8.0262367499640344e-003
      -2.4593340033459057e-003 5.6390494058480593e-003
      3.2009768654366940e-003 -1.5835864057363004e-003
      5.5848349274213813e-003 5.5195098208863837e-003
      1.6019612553658956e-003 4.7708687089903735e-003
      -3.1671913499336322e-003 5.1298320260212390e-003
      1.3757694583624511e-002 6.6527171959619730e-003
      2.1038731722716432e-003 1.4531814189952388e-002
      7.9949118378636382e-003 -1.6344559852125400e-002
      -5.1361386303011422e-003 1.4101130415185210e-003
      3.3140726340702750e-003 -1.1605361210241152e-002
      -8.3285479125456280e-003 1.7866585490050558e-003
      -2.1357030929888707e-002 -6.7999502652577749e-003
      9.5411021501373688e-003 -8.8854581724339392e-003
      -1.6644316622558501e-002 2.4920784175883878e-002
      4.7767049920363226e-003 1.6373712300443509e-002
      -3.7403224085362993e-003 1.7039899033894496e-002
      9.1395066850560192e-003 -8.9947787637117589e-003
      -1.0795031354151000e-002 -2.1845601016761983e-002
      1.1440616500285539e-002 -2.4040291187115734e-002
      -1.9679585369759577e-002 3.0853682706340764e-002
      -4.2842392991068651e-002 -3.1861684889139034e-002
      2.4109758521646592e-002 -4.0309885860619683e-002
      -6.0701986238068092e-002 8.5389565376023852e-002
      -1.2889361410317266e-002 -1.1133364089066752e-002
      1.2859369028656042e-002 -9.9505100006434272e-003
      -2.0775545967469642e-002 2.3377410455668698e-002
      -3.4149060749309348e-003 -8.7681324699150423e-003
      8.4987192885394996e-003 -9.3728553422161767e-003
      -4.3599187591478556e-003 1.2978650241566293e-002
      -4.8877321009145461e-004 1.3937763223927152e-003
      -1.7362620257409438e-003 2.4255237359224317e-003
      -1.2364681202608773e-003 1.7822634751293726e-002
      -3.4425337304975087e-002 -2.5435728909692652e-002
      1.5204997026921262e-002 -3.3951439609484213e-002
      -4.2931386976243546e-002 7.5686645014535828e-002
      -5.4208550096266524e-003 -7.3461203168468849e-003
      7.1078036355165736e-004 -6.5647227348399166e-003
      -1.5920467565286596e-002 2.2098770888668046e-002
      1.9529052892229483e-002 1.2584800711648667e-002
      -2.0071703145521057e-002 2.3356576817345032e-002
      1.9769253451133045e-002 -4.3661610305378219e-002
      -1.5393253491194423e-002 -2.4001979762651265e-002
      1.5652353232738715e-002 -2.5766593207050766e-002
      -2.7120289657457809e-002 2.9665332140300520e-002
      1.4340044539993739e-002 1.0340090171463681e-002
      -9.8723605535462177e-003 1.5317517608659226e-002
      1.8774711234848841e-002 -1.4658680495317617e-002
      7.8392253552284717e-003 1.1915638501228606e-002
      -4.9465126523990906e-003 5.2684983027990349e-003
      1.0193253763247053e-002 -2.7478217364362942e-002
      4.9225236671535430e-002 3.8163580115059638e-002
      -3.3507515720098358e-002 4.7395232232780200e-002
      5.7575368841915046e-002 -8.3520789019233238e-002
      -3.9247470129954977e-002 -2.6982381747672139e-002
      2.4758935004675894e-002 -2.9758968144757494e-002
      -3.9543859950680875e-002 6.0763146385982215e-002
      -9.1377619890010940e-003 -5.3580648385995709e-003
      5.4066610238267610e-003 -2.2705225702891879e-003
      -7.1763131658773432e-003 1.7079062619597845e-003
      -2.3559428442707916e-002 -2.0930698475641999e-002
      1.4419586614102666e-002 -2.3964973024817374e-002
      -3.0623711948308829e-002 5.0279725645011882e-002
      1.9602401643236619e-002 1.9492430214765332e-002
      -1.4210777493760393e-002 1.7092871267885792e-002
      2.3508039447345308e-002 -2.7450841906860438e-002
      -2.8257297116460862e-002 -1.8189310481101516e-002
      1.5079414990297234e-002 -1.7082450274814365e-002
      -2.3879645977475987e-002 3.7163535693799446e-002
      -2.1931473928498015e-002 -2.5286547525697436e-002
      1.5324973303052242e-002 -2.1091157313627030e-002
      -2.2636212697195911e-002 4.9766060800254384e-002
      -2.3250492268772811e-002 -2.8876084269466577e-002
      1.3963437875435950e-002 -2.6845860410812775e-002
      -2.7403431120606503e-002 4.8451630347049197e-002
      3.8837337558794265e-004 -6.9540221838302477e-003
      -5.4507618979018554e-003 3.7563753228330994e-003
      3.0102167975002200e-003 1.1705445207475464e-002
      1.8545862557984769e-002 2.3439586369805848e-002
      -1.5829193448740050e-002 1.7485062981778238e-002
      3.0949070791769097e-002 -2.9868730466430696e-002
      -2.4186968839746505e-002 -2.0129417408426799e-002
      1.0805457522789951e-002 -2.3943311918357246e-002
      -3.0603638537139471e-002 4.7392185831646658e-002
      2.8657927222879843e-002 2.3794536046470818e-002
      -1.2584076433364171e-002 3.4975351592102098e-002
      3.5104386963205149e-002 -5.1988474640202668e-002
      3.2188322503653687e-002 2.4898420926332574e-002
      -2.6900188248818853e-002 3.9700566448478233e-002
      4.8308734912456311e-002 -7.0170825273475498e-002
      2.0818279612581168e-002 1.9121661365294987e-002
      -1.2470499092665207e-002 9.5664137572897268e-003
      1.8904022542619105e-002 -3.2168646557346595e-002
      -5.5187927394547715e-003 -1.1148005468224639e-002
      9.3333359303000626e-003 -1.1156293237792372e-002
      -1.5588323999291670e-002 1.6146486474743951e-002
      2.4036389046737584e-002 1.0678527333793779e-002
      -8.6747359204116786e-003 1.2889442565965893e-002
      2.6289693575173270e-002 -2.5418374701448705e-002
      1.5307736809438836e-002 1.4520960223742543e-002
      -5.7073140055497584e-003 4.8723371419354131e-003
      1.0886102429726178e-002 -2.0552973255859495e-002
      -1.7680440409715614e-002 -8.3118178639085081e-003
      8.7231510722830669e-003 -1.5369432339382387e-002
      -8.8429725904767397e-003 2.7340379237163634e-002
      -8.1139987411146808e-004 -9.4066418772102804e-003
      9.9107051827583108e-003 -2.6957890859566100e-003
      -1.2035700457430607e-002 6.2344832659701564e-003
      3.2532880103814631e-002 1.7315791335559560e-002
      -2.1704173682396272e-002 2.1330750626361351e-002
      3.3561992300869821e-002 -6.2232518128908683e-002
      5.7689485671951257e-002 4.3109749124410034e-002
      -2.2441777224261154e-002 4.4449518897064770e-002
      5.2262921825420153e-002 -8.7361145213556313e-002
      2.3931053080622999e-002 1.6497845553570114e-002
      -1.4507546571620364e-002 2.0325400139408496e-002
      2.4653277544342139e-002 -3.7586280708517703e-002
      -8.5067208254950479e-003 -8.2928995941406909e-003
      3.0785048303984034e-003 -7.1178072555237917e-003
      -8.2422151895261420e-003 -2.1630438275576538e-003
      2.1063870068047587e-002 1.8154832167091337e-002
      -1.3568116398747464e-002 2.2522370972366607e-002
      2.4255152973871250e-002 -2.2236049017132321e-002
      -1.6364891965244648e-002 -1.7873664634390676e-002
      7.1765093985951310e-003 -1.1009091846168944e-002
      -1.8348861174548130e-002 2.9443331815698307e-002
      2.5020903772738419e-002 2.1493812438015951e-002
      -1.5917881453032186e-002 2.9206060201078823e-002
      3.9129366034011841e-002 -5.5603445511416529e-002
      1.3215272020155737e-002 3.2346316284786856e-004
      1.3789052727752366e-003 4.3617769040815782e-003
      4.5550018219491393e-003 -2.1360370779724617e-003
      9.3903674019246899e-003 4.4598054795957631e-003
      -6.8697525933999340e-003 1.2539631899215460e-002
      1.3862640907413014e-002 -1.6603098461042007e-002
      2.2122855680247820e-002 2.2913236032579869e-002
      -9.5726590271979252e-003 1.7161493632393991e-002
      2.6295147373011148e-002 -3.9651960806413242e-002
      1.6692926174071792e-002 1.6465883441337272e-003
      -1.8216707405887976e-003 1.7034493334815739e-002
      9.5295445084900184e-003 -1.7174384188895053e-002
      -3.0367613537353230e-003 -3.7177464548532363e-003
      -8.8399626946967288e-003 2.0604677659860041e-003
      -1.4157207708130704e-003 2.0740629588201316e-003
      5.8123107638010868e-003 1.9405874672752603e-003
      -7.5269343173637454e-003 4.9669867984497799e-003
      4.1327885456345116e-003 -4.1332463107686974e-003
      -1.3747229883959754e-002 -1.7640298653181258e-002
      1.1087265959236989e-002 -6.3448221869193879e-003
      -1.1929459082002179e-002 3.3168741853730463e-002
      1.6213065685598136e-002 1.0647423497197436e-002
      -3.1394415112311496e-003 1.2553931019406561e-002
      1.0664353594028172e-002 -2.1609689395896133e-002
      1.0479857501248576e-002 5.6315559066572310e-003
      -3.6060910270965221e-003 8.2312744401494380e-003
      5.2932732893278770e-003 8.7238132882340230e-004
      3.2769536353813397e-002 2.9909028952542990e-002
      -1.5977195518449887e-002 4.1680113288267588e-002
      4.8549274729041025e-002 -6.4249681832275404e-002
      4.6760992077796021e-002 5.0667466133542303e-002
      -3.5542735877081177e-002 4.6261562475369403e-002
      6.4943995622118444e-002 -8.5557545972409096e-002
      -4.1441689162809700e-002 -3.7380422252266822e-002
      1.7210931347567578e-002 -3.8244819040722002e-002
      -4.1361219467589659e-002 7.7972940231669549e-002
      6.2488131215795032e-003 2.9223472165598040e-003
      -8.0726306623996932e-003 1.7499744960997179e-002
      1.0489696971026996e-002 -1.1708352925073849e-002
      -1.5977171304419658e-002 -1.7766914538623408e-002
      3.6796597835221335e-003 -1.4587940104298239e-002
      -9.6059798589477937e-003 2.4197447538412721e-002
      -2.9315233820676464e-002 -2.6762486306942938e-002
      1.2559658410823883e-002 -2.6458543832877258e-002
      -4.1364869096311617e-002 4.9904086806419605e-002
      -1.8918164966210405e-002 -2.1455984477016313e-002
      8.2282521337289170e-003 -1.7464025532030362e-002
      -1.5853085171616082e-002 3.3443743031488234e-002
      2.4224193284933418e-003 -3.7821101955822548e-003
      -6.4039379058863340e-003 1.5523679383547080e-003
      -6.4657172484853804e-004 4.6809375920200298e-003
      -1.2073065923600248e-002 -1.2796571430576850e-002
      8.5361475177049805e-003 -2.1313682993739154e-002
      -2.5019345518409477e-002 3.7142603591810985e-002
      1.7426045994058125e-002 1.5013826118621770e-002
      -7.1250628646681042e-003 6.1532443166039405e-003
      9.1372771444866597e-003 -2.2083408019355263e-002
      9.7296243571409324e-003 2.8908156430667298e-003
      -1.1395486750832953e-002 3.0915834329045336e-003
      1.8463271701829820e-002 -2.1933399764772491e-002
      -1.9735631257597971e-002 -4.8840941309702124e-003
      1.3300546682627796e-002 -1.6453687520164215e-002
      -1.7251601151778886e-002 1.4461315171423780e-002
      -1.3413407532768340e-002 -4.1967809225680495e-003
      4.8531099684402303e-003 -1.2401895004032971e-002
      -8.5085953902502270e-003 2.4327801809700983e-002
      1.5818861490367223e-002 1.0416121470686926e-002
      -1.4497005835189931e-002 1.6375031911932354e-002
      5.9330389065906635e-003 -1.1884553709421116e-002
      -1.0326533674350340e-002 -2.5085713784774608e-004
      8.4842324946771356e-003 -7.4240942820951675e-003
      -9.1300290223392359e-003 7.0610243225677650e-003
      -2.6334186548049743e-003 1.0303383420108942e-003
      5.7462275319055322e-003 6.7744915641661067e-004
      -5.0225183353341460e-003 7.7464604629362797e-003
      -1.5330674868470065e-001 -1.1040458895459790e-001
      8.9881687550030828e-002 -1.3699371761915563e-001
      -1.6032622323874773e-001 2.2280040187134389e-001</_>
    <_>
      5.2456540686811615e-001 4.2810685305030410e-001
      -3.1237839687450647e-001 4.9334016595634872e-001
      5.9820565199397790e-001 -8.8656705501097599e-001
      -1.5962913164885181e-001</_></weights></opencv_ml_ann_mlp>
</opencv_storage>
