<?xml version="1.0"?>
<opencv_storage>
<opencv_ml_ann_mlp>
  <format>3</format>
  <layer_sizes>
    256 6 1</layer_sizes>
  <activation_function>SIGMOID_SYM</activation_function>
  <f_param1>6.6666666666666663e-001</f_param1>
  <f_param2>1.7159000000000000e+000</f_param2>
  <min_val>-9.4999999999999996e-001</min_val>
  <max_val>9.4999999999999996e-001</max_val>
  <min_val1>-9.7999999999999998e-001</min_val1>
  <max_val1>9.7999999999999998e-001</max_val1>
  <training_params>
    <train_method>BACKPROP</train_method>
    <dw_scale>1.0000000000000000e-003</dw_scale>
    <moment_scale>0.</moment_scale>
    <term_criteria>
      <epsilon>1.0000000000000000e-004</epsilon>
      <iterations>300</iterations></term_criteria></training_params>
  <input_scale>
    5.2487941041042610e+001 -2.7065075722491976e+000
    6.1789441564327717e+002 -6.3391445385775587e+000
    5.7633643702172799e+002 -3.7680449842290069e+000
    7.5519096200468687e+002 -9.1421309144899805e+000
    9.3316004454795689e+002 -5.8584435271684443e+000
    3.2288508249338865e+003 -2.8949453372617482e+000
    7.1327517704998377e+002 -7.3836610387904384e+000
    4.2446622026783763e+002 -8.4868825302594644e+000
    5.4654884079368912e+002 -3.4117990518062520e+000
    3.4022779751843505e+003 -3.1305076657534934e+000
    3.6969962032699123e+003 -2.3684905748838130e+000
    3.6574318930464078e+003 -2.8607870421901866e+000
    7.5073524182801418e+002 -7.3785727902083158e+000
    3.1588482996194721e+003 -3.6561270270963346e+000
    2.2765575048801577e+002 -5.5517589370070715e+000
    1.6197214562774784e+002 -5.8943337874177590e+000
    6.3699700572437007e+002 -6.7583254681183380e+000
    4.9206145282813141e+003 -3.2971582392304790e+000
    3.8682286357145326e+003 -3.5377441874102824e+000
    6.6450188056939078e+003 -3.6098887630554821e+000
    4.0095106173785416e+003 -3.4939613238428500e+000
    2.3342486432813515e+004 -9.7661562973997906e-001
    3.4202344214456139e+003 -3.9922000767069750e+000
    6.2047581342885942e+003 -3.0766424193017490e+000
    7.9423581824589303e+002 -9.2362903668688787e+000
    7.1213104213079487e+003 -3.5427552921925658e+000
    4.1600238546854980e+003 -3.0186681826919739e+000
    7.0954078934432200e+003 -3.4579729841818785e+000
    4.1891962751077381e+002 -8.3171028552049719e+000
    5.6098312537044230e+003 -2.8293215564056964e+000
    1.3355999619450944e+002 -4.8869290613153860e+000
    6.2786284670781788e+002 -7.1771468873453994e+000
    5.7166328890049738e+002 -4.2356501764563390e+000
    3.9903388735014964e+003 -3.8528921245776160e+000
    4.0155707557292476e+003 -2.8600333446047990e+000
    4.8250525187786843e+003 -4.2598392424440181e+000
    5.1643804135584678e+003 -3.3220785997704989e+000
    1.5518455353407222e+004 -1.0601354640713874e+000
    5.0652543068898449e+003 -4.0099778749653812e+000
    3.6196278884260346e+003 -3.5612052170997477e+000
    2.9989569571499342e+003 -2.6986280199031349e+000
    1.2890772942905300e+004 -1.6980504558573515e+000
    1.6464944880208037e+004 -1.2754845810164943e+000
    1.7802745540051819e+004 -1.5711488587291982e+000
    4.1429614838002699e+003 -3.8959855687757412e+000
    1.3232047795561908e+004 -1.5137762632998857e+000
    4.3356094838157387e+003 -4.8381602645517630e+000
    2.9351976150126702e+003 -4.4900355113459005e+000
    8.1501454887150692e+002 -1.1254541600378312e+001
    6.0764452510560122e+003 -3.6446198975350454e+000
    4.7342150987110836e+003 -3.7726652280964204e+000
    6.1286472281809993e+003 -3.0649446794523478e+000
    5.1726709650195244e+003 -4.5430665535516361e+000
    2.6210849501090535e+004 -1.0109500307968029e+000
    4.4578435636117529e+003 -3.5247415261183788e+000
    6.4885267713084768e+003 -2.7656058041548572e+000
    2.9412681291986712e+002 -7.3618709452409021e+000
    6.8571836016293910e+003 -3.5794580727880652e+000
    4.7623402690061885e+003 -3.8869194843422163e+000
    6.3290353600613371e+003 -3.2044649414742530e+000
    2.3034166066208144e+002 -6.5542471565445277e+000
    7.0301785974855538e+003 -2.7551936382711921e+000
    5.3973608869921134e+002 -7.8109993518612129e+000
    1.1209975607717245e+003 -5.4668866292455851e+000
    8.7842881468964765e+002 -6.3058703478523030e+000
    3.8359848114260603e+003 -3.7991468909530544e+000
    4.6057662135634946e+003 -2.9281146628369594e+000
    4.3848483508654845e+003 -3.8052718224403943e+000
    6.1965818932605898e+003 -2.5520508558266033e+000
    2.4439871380877208e+004 -1.3660343248408024e+000
    6.7940271821823289e+003 -2.9691030636298104e+000
    5.0241611560125857e+003 -2.4140567807638265e+000
    5.3564632408976850e+003 -3.3423401209061869e+000
    2.1171292314344850e+004 -1.4739866758626514e+000
    2.4163879041071075e+004 -1.4295910272880690e+000
    1.9775422499284770e+004 -1.2216707077297235e+000
    8.1178938981253386e+003 -3.4786653246659944e+000
    1.7739187658839048e+004 -9.1613062390935884e-001
    6.9106466448154952e+003 -3.0516914489986311e+000
    5.2565268920709532e+003 -2.4208978761722362e+000
    3.2582384467674037e+003 -2.9127739008994533e+000
    2.4883700906789865e+004 -8.2149123144729941e-001
    2.7311538119993962e+004 -1.5890323811025819e+000
    3.1871999527218060e+004 -1.0209441188709467e+000
    2.5697282567339167e+004 -1.2515265125207140e+000
    8.1130399787539922e+004 -4.7733437050543803e-001
    2.5316140783060491e+004 -1.0095409002917211e+000
    4.5485410250365181e+004 -9.0691907601133015e-001
    4.3122722291490754e+003 -3.6929552067154638e+000
    3.0363904003294345e+004 -1.1413583905028766e+000
    2.2796940086726550e+004 -1.0283056688476049e+000
    3.9877074104798972e+004 -1.0688179122412260e+000
    6.4848233488905053e+003 -2.9314798676072913e+000
    4.1632887633264101e+004 -7.6206347553254428e-001
    7.1305113343413359e+003 -2.8108299222102922e+000
    9.0548286956708853e+003 -1.8320506373073679e+000
    8.3891446075165766e+002 -1.0073675188873841e+001
    3.0706205670527361e+003 -4.0458104044995276e+000
    4.7680045326422760e+003 -3.8120597232095017e+000
    5.3852144664037478e+003 -4.5765997504736831e+000
    6.6210729388170575e+003 -3.4259093931898641e+000
    2.1728901426627854e+004 -1.1292795920826828e+000
    5.9553705545773309e+003 -3.5583737807949132e+000
    6.2124288125447711e+003 -3.6490186925053605e+000
    4.2622319343786803e+003 -4.6267126861868917e+000
    1.5639644631593086e+004 -2.0192521875322069e+000
    2.5711798756926386e+004 -1.6472333155037897e+000
    2.1202791938769074e+004 -1.5939969036112911e+000
    4.9038476369107384e+003 -3.5359739741959562e+000
    1.6912204532794509e+004 -1.5201957072652612e+000
    4.9627479436046196e+003 -4.0585986236794378e+000
    3.7642740672074397e+003 -3.0624761527313002e+000
    3.2852383826941065e+002 -8.2835926058498597e+000
    6.9736986014450740e+003 -3.6562351811509175e+000
    3.7471698770608682e+003 -3.7246578216926047e+000
    5.7113183041503016e+003 -2.5519459049175937e+000
    6.0536814870630997e+003 -3.0195392990363259e+000
    2.7785003153475885e+004 -8.7186304349460719e-001
    4.5932183060619645e+003 -2.6123593728669214e+000
    7.9400426558655145e+003 -2.3305893523255867e+000
    1.2949750372995143e+002 -4.9274896930235546e+000
    6.9243328180350854e+003 -3.1007381094480682e+000
    3.7597518348394051e+003 -3.8256468486751634e+000
    6.5397348249728120e+003 -2.7938450252530771e+000
    5.8033759252198342e+002 -6.9394747344901626e+000
    8.4809538384784119e+003 -1.9460249194224073e+000
    9.6988848585630058e+002 -6.0630314863208792e+000
    1.6663704856200504e+003 -3.6106564297160819e+000
    5.3215850656484361e+002 -3.8716289180822838e+000
    5.8417580945208454e+002 -8.0518031552875051e+000
    2.8725420707763378e+003 -2.6543536605985958e+000
    2.4895318182254448e+002 -6.4815808245561923e+000
    4.8563178528094268e+003 -3.1223245758704081e+000
    3.6690652878161359e+003 -3.0641704800908953e+000
    3.9788485310399378e+003 -3.8248905180568471e+000
    2.2115441637773304e+002 -6.1335800925819264e+000
    4.3616240904463994e+003 -2.9753445447512110e+000
    4.7169203033043441e+003 -3.9454396565275092e+000
    1.6116739159553366e+004 -1.1642226294440838e+000
    4.6267016802465478e+003 -4.0227191802145628e+000
    5.0111906069223051e+003 -3.8246737008264797e+000
    3.7717903648603096e+003 -3.0870840452070616e+000
    4.0470680595366211e+003 -4.5016221232347959e+000
    5.9877888109187757e+002 -8.7985489374689454e+000
    4.1552554592931374e+003 -4.1819034156301003e+000
    5.8050137563995695e+003 -3.3736622037000834e+000
    1.3209826887198522e+004 -1.6321328722918182e+000
    7.3599798507574451e+003 -3.8274840605623446e+000
    1.9435704612650396e+004 -1.4357383958447194e+000
    2.9822427712205324e+004 -1.0137781335888592e+000
    1.5933838275980766e+004 -1.8957819076552962e+000
    6.0865378220059920e+003 -2.7315392670356640e+000
    5.6856766224855355e+003 -4.6925630758953192e+000
    5.9477802688386673e+003 -3.3827565913337545e+000
    1.6541297494940125e+004 -1.4760423058574610e+000
    5.5128168848442574e+003 -3.0993355642052873e+000
    5.3686557718646118e+003 -5.4539750662921822e+000
    6.2334378570313238e+003 -2.9319395636181333e+000
    2.9513129512717874e+003 -4.5243342523223209e+000
    1.1091768765106283e+003 -5.6811516071072630e+000
    3.4662750565678321e+003 -2.6364891386652487e+000
    4.1000512801096102e+003 -3.4120412060373311e+000
    1.5861293315644823e+004 -1.3894405718407430e+000
    4.2574500515743575e+003 -4.1469844413810577e+000
    1.8651981975839150e+004 -1.2802974119240744e+000
    2.2334215492170111e+004 -1.1826392879297283e+000
    1.5747838747452601e+004 -1.3383228494604540e+000
    3.2673082032201087e+003 -3.2508829111634148e+000
    1.5648643983209964e+004 -1.2633981865435371e+000
    2.1328137829687636e+004 -1.6661627672678170e+000
    5.2921261918478071e+004 -3.6325873978298900e-001
    1.6921514858042952e+004 -1.6150600582265986e+000
    2.1482163866492236e+004 -1.5798910139047508e+000
    1.8514853355439362e+004 -1.3374548687452099e+000
    1.7737994988137536e+004 -1.6002218482744941e+000
    3.6492891811382501e+003 -3.3064966515895531e+000
    4.6940125639501148e+003 -3.9584989562203310e+000
    7.0683895239310532e+003 -3.7197430098081141e+000
    1.6596210953476340e+004 -1.7359032271774613e+000
    5.7990248788879235e+003 -3.3398538354314335e+000
    1.9037277517495844e+004 -1.5120902054051266e+000
    2.2200917956453806e+004 -9.4336741239890098e-001
    1.5600961305891413e+004 -1.3768344043161742e+000
    5.6618692635559146e+003 -2.5576108506877890e+000
    4.9829813224226591e+003 -4.9709611516752306e+000
    5.6543024469344891e+003 -3.3230379977300077e+000
    1.7736802557966574e+004 -1.5131515416709944e+000
    3.9306445391496818e+003 -2.6684978112198339e+000
    4.2459132757797797e+003 -4.4716029113963636e+000
    5.5341154221370361e+003 -2.7422939137377158e+000
    5.3739206530466654e+003 -4.8041345218961853e+000
    1.0807155881504859e+003 -4.2064605067512382e+000
    8.0901291151438033e+002 -9.3965002105689379e+000
    2.9964344786742237e+002 -7.6605757548438236e+000
    2.8768364940297920e+003 -2.9479445166417984e+000
    1.3670442730427280e+002 -5.5790730981133105e+000
    7.1150294665655192e+003 -3.7559155209925761e+000
    5.4028875096028150e+003 -2.9527643128385797e+000
    4.2515673296044688e+003 -3.0308979088413426e+000
    5.5794986352679337e+002 -6.9139620738154139e+000
    4.0094004300689544e+003 -3.0836703322891417e+000
    4.4362515814290509e+003 -4.4690517288173108e+000
    1.7460803564657872e+004 -1.1471675925260523e+000
    3.7303355157985266e+003 -4.3175800548061991e+000
    6.5070806569342994e+003 -3.7923125115978542e+000
    5.9781114427356388e+003 -3.3785129335600566e+000
    4.8516992158024459e+003 -4.0296294711336698e+000
    1.0063029189364075e+003 -6.5978826567695261e+000
    3.4026650645886593e+003 -4.3965558251851036e+000
    5.4146029354364882e+003 -2.9414686065188040e+000
    1.2122085256352675e+004 -1.6086810778862159e+000
    4.7252393645364955e+003 -2.2565274188375399e+000
    2.3998273992017883e+004 -1.3413518221573428e+000
    3.1538323425212078e+004 -7.7315479146298238e-001
    1.3281831815029394e+004 -1.2589908106132022e+000
    6.7062322898947095e+003 -1.8632198564845335e+000
    4.7840319915020063e+003 -3.9812464012092668e+000
    8.0763199714122347e+003 -3.8198704445995464e+000
    1.8497247888003163e+004 -1.2757223310751451e+000
    6.3131686385624434e+003 -2.9488060156857472e+000
    6.2521533410328393e+003 -3.5926513873060397e+000
    7.7596269885262645e+003 -2.6428660348149493e+000
    4.0089391222599952e+003 -3.2340088043078148e+000
    1.7142254551075632e+003 -3.9592064741177828e+000
    1.7814648997213820e+002 -4.4395997916585950e+000
    1.2136448226525133e+002 -4.8024454777655192e+000
    3.8848463712484631e+003 -4.6729189177392927e+000
    6.0127145337958086e+002 -1.0698511725752645e+001
    7.2733196669420104e+003 -3.8798900242597627e+000
    5.9044447389375464e+003 -2.9142217509908610e+000
    5.0835559594305141e+003 -4.1573969734824781e+000
    8.9724740470820575e+002 -5.8667236803930178e+000
    3.7549175774960208e+003 -4.7486013759277190e+000
    3.6335241519830543e+003 -5.8575728356979022e+000
    1.5094848861687969e+004 -1.5689983060245478e+000
    4.4759073417296058e+003 -4.5236307924358616e+000
    5.6591178838271298e+003 -4.8426709994161472e+000
    4.3220119451383280e+003 -3.9824251211430926e+000
    2.6414079793709343e+003 -4.0829247690443538e+000
    7.1134264084935330e+002 -5.0950360501917018e+000
    1.5536075254171072e+002 -6.1413957814932445e+000
    6.0356640968891838e+002 -6.9720129370459167e+000
    3.0379319353103515e+003 -4.7355664904965646e+000
    1.0356462561901633e+003 -5.4609252429145094e+000
    6.8683722452536667e+003 -3.4124319401711976e+000
    1.1690143200295546e+004 -2.3537868328234191e+000
    3.7701060750710253e+003 -3.3839246287022235e+000
    1.6008168448501219e+003 -3.4895460847973081e+000
    5.9024158323040433e+002 -1.0361224866905157e+001
    1.3088587838361161e+003 -7.0816765040194856e+000
    4.1203108567942663e+003 -3.9043143635778317e+000
    1.2787799834548719e+003 -5.3514830171270020e+000
    1.1722303929757475e+003 -8.0310223504557037e+000
    1.9372137127334902e+003 -4.5141161300562445e+000
    7.6223425164141327e+002 -5.5415195555105372e+000
    2.9934399646292235e+002 -4.3184719221157284e+000</input_scale>
  <output_scale>
    1.0526315789473684e+000 0.</output_scale>
  <inv_output_scale>
    9.4999999999999996e-001 0.</inv_output_scale>
  <weights>
    <_>
      -1.5371862024544682e-002 -6.8385980827205548e-003
      3.7850107155817498e-003 -4.0943220340480699e-004
      1.0509236448936349e-003 -4.5275306081171644e-003
      -1.4903733944992561e-002 -1.4591229833599577e-002
      1.4598796108356498e-002 -1.7210979756153811e-002
      -2.2940847145301355e-002 3.0648205775251521e-002
      2.0360512325803076e-002 2.2685727147625241e-002
      -1.6168623833319695e-002 2.6644623265530160e-002
      2.4979465082761821e-002 -4.8229349377585162e-002
      3.0458294896541498e-002 3.7512261741154414e-002
      -2.1969686779438384e-002 2.9097101257498623e-002
      4.8409688246668671e-002 -6.2169942285837339e-002
      6.9383396147666134e-003 1.4932446791356272e-002
      -8.5674931181522716e-003 1.1211504361614820e-002
      1.8462688022705107e-002 -2.9112203038605185e-002
      -1.2178913471369025e-002 -6.3898612421880996e-003
      1.2695278173122861e-003 -1.1777259861593843e-003
      -1.2460345398424366e-002 1.2298151523654245e-002
      3.6299052534543567e-002 2.4160303928675950e-002
      -2.3330718247524241e-002 2.8802401941796115e-002
      4.2080663599066391e-002 -4.8952137404782728e-002
      1.2593586519653005e-002 9.4789367837108309e-003
      -1.5827836694124856e-002 1.7311349059331061e-002
      1.5271821130062452e-002 -2.0058128644477927e-002
      -6.7099532623967678e-003 -8.3137220182278940e-003
      8.4610219164247269e-003 4.6185880696895951e-003
      -3.4678028242343408e-003 -1.1302812179973630e-002
      -1.0758017110093060e-002 -1.5665936410760219e-002
      9.2608224730253257e-003 -1.7731839869475470e-002
      -1.6245046511655783e-002 2.4431072803264117e-002
      2.0690736362083312e-002 4.0841297237116736e-003
      -1.0127619086103077e-003 1.0175193450116950e-002
      2.4736020483729602e-002 -4.0762529836503754e-002
      8.4108125041789414e-004 -5.4246130459575555e-003
      -4.7103749756410990e-003 -3.1690121218256040e-003
      -7.6794238987634451e-003 1.2424498819346684e-003
      -1.1888741149512643e-002 -3.6077198562789185e-003
      -3.3505192636014160e-003 -8.1310330089190714e-003
      -7.2549410428118322e-003 1.5502181257268878e-002
      -1.4241467596542448e-002 -7.6648472189062428e-003
      2.3314996540139341e-003 -5.6537410439930717e-003
      -5.6437453790614484e-003 2.5134606855975017e-002
      8.4138333809690886e-003 1.3054893463990535e-002
      -4.3485533826462053e-003 1.5101682927991350e-002
      1.5952525528997497e-002 -1.8495029339039851e-002
      -1.1716920054983095e-003 4.0777585408000956e-003
      -4.3103254049335193e-003 1.3306692853442553e-004
      7.4991543609708522e-003 -6.7641338009350382e-003
      1.4414170034417230e-002 9.1574656812693968e-003
      -1.7980334465899753e-002 1.7603496092377317e-002
      1.5659578336286187e-002 -3.6531480411528761e-002
      5.7696380472921386e-003 7.7781776003643622e-003
      -3.0371407333418779e-003 5.4561869847242941e-004
      8.9725716667312279e-003 -1.1060773075772542e-002
      -9.4484149872142206e-003 -6.8364940129683367e-003
      1.1182576567484497e-002 -5.6323465611284309e-003
      -1.4026618328226823e-003 1.5604436230818244e-002
      -1.7964207398421549e-002 -8.0414653644468696e-003
      1.3142975319191043e-002 -1.4474640315168229e-002
      -1.4092285040996473e-002 2.5404325020614602e-002
      1.7931415653531595e-003 3.6379488156287353e-003
      4.3605310990594290e-003 -8.8142076055133204e-004
      1.6773168472807799e-003 8.3353580197469898e-003
      -2.1355845927546760e-002 -1.5375076882481176e-002
      7.8515600333822540e-003 -1.1944280160699731e-002
      -2.1292257865351907e-002 2.8823415779128416e-002
      8.0245127458931208e-003 8.9937308909676626e-003
      -2.8295424036599320e-004 7.0103512130245873e-003
      6.5040256929885798e-003 -1.7038386706376207e-002
      -1.7395693483043092e-002 -1.3090203467351097e-002
      -2.1052663009942462e-003 -6.3003058953131812e-003
      -1.3314606282174598e-002 3.0972459879011746e-002
      -2.1119114126644214e-002 -2.0958272130749786e-002
      1.5539206108218000e-002 -1.9117076718879945e-002
      -2.3247823372120894e-002 5.0408842611121246e-002
      -3.6286237906060864e-002 -2.8626237033318954e-002
      2.0267195155701086e-002 -2.7523674716475204e-002
      -4.0274934549066568e-002 5.6931830803672527e-002
      -2.9964286772104168e-002 -2.3107606286105392e-002
      9.1331934826385120e-003 -2.7766413444159838e-002
      -2.0955141006691040e-002 3.7803040691591912e-002
      3.2452870046069280e-003 3.4609701280311645e-003
      -7.1330989971173462e-003 9.8957000746271954e-003
      1.4384415050580517e-002 -7.2195724575722792e-003
      1.0099981316831690e-002 4.8977837146912690e-003
      -5.5080285843465268e-003 8.7287791454345384e-003
      7.4085256645629958e-003 4.7158849107538977e-003
      -4.4942390225604844e-003 2.4675278839141920e-003
      -8.0290965846154406e-003 3.4940537488059595e-003
      4.2159096467069609e-003 8.4641606141193653e-004
      -1.2822130603565246e-002 -9.7818572126176263e-003
      4.5413843444323592e-003 -1.1465708225048723e-002
      -4.0516843773791980e-003 9.2760534186485891e-003
      -1.0362997186542771e-002 -6.4534404566233133e-003
      6.3407479355989992e-003 -8.2747858004476871e-003
      -1.7694981170660543e-002 3.7317090770049202e-002
      1.1571334319004025e-003 1.7120458496415873e-003
      -1.1845547166832056e-003 1.4277133388446266e-003
      8.5926282139763641e-003 -1.4738878250562797e-002
      9.7875771727683972e-003 4.9112711553491797e-003
      -9.2487220249292713e-003 9.4540351100353796e-003
      1.0066809093178626e-002 -8.0860454139188055e-003
      -7.3868636948453709e-003 -3.8472459452654276e-003
      2.9375384252627924e-003 -1.1267075993375638e-002
      -7.3660451231445448e-003 -3.4339824055009717e-004
      -1.3402346216330829e-002 -4.2220279303510537e-003
      1.8231554078853420e-003 -5.5223022206923661e-004
      -1.0611860265450485e-002 1.9341659852892788e-002
      -9.1279389401349286e-003 -6.0405381728512236e-003
      9.8287270682671339e-003 -9.5186827412153223e-003
      -9.5222072504536678e-003 2.2363117293486629e-002
      2.5308096616258068e-003 -5.0718853682351558e-003
      1.8416657534142929e-003 -5.2419059169362160e-003
      -1.0363317600216842e-002 1.2087584358341681e-003
      2.2773099555705972e-002 2.0667841415534408e-002
      -1.4520299248439722e-002 2.1012256079815855e-002
      3.0070476244608686e-002 -4.1113181656930939e-002
      -5.8296757691604232e-003 -9.8368264287968955e-003
      4.6796681577280239e-003 -3.0228734775120817e-003
      -2.0837009592390422e-002 2.0842515859162955e-002
      -3.1844344135398767e-003 4.6392202141130783e-003
      -7.0441892772739193e-003 5.4582582596719243e-003
      4.7089526302609980e-004 -1.4596215852552505e-002
      4.6677057059236584e-003 1.2218099029884090e-003
      -4.6589603818569967e-003 4.9916482732009848e-003
      1.1738203511129966e-002 -9.5152741363067044e-003
      -2.9594204798606702e-003 -7.1200227733058657e-003
      4.5730432137670880e-003 -8.1916420266592901e-003
      -7.3599898198532330e-003 2.5635150608392851e-003
      -5.0714281726990645e-003 -9.0110916125326034e-003
      1.2833909889511131e-002 -8.9903142612623860e-003
      -1.4252408225505761e-002 1.4997840081150918e-002
      -1.1223420480204778e-002 -3.8796408637810872e-003
      1.8917441287012913e-004 -8.9149700751761582e-003
      1.3346273057091855e-003 4.0289299966579295e-003
      2.6578489498253026e-002 1.9122867113507889e-002
      -1.8872062114872426e-002 2.4189928997376882e-002
      2.1135210910069469e-002 -3.5744513411785084e-002
      -2.1640593333970389e-002 -9.2518830776573951e-003
      9.4685076349878463e-003 -1.3915994135993811e-002
      -1.6259190964616251e-002 3.0360282258556151e-002
      -2.7529630100722915e-002 -2.1096050108407909e-002
      1.0685872365328293e-002 -2.7225512409819623e-002
      -3.3628051033512733e-002 5.6665561016157107e-002
      1.7673698112184215e-002 8.3284315446591570e-003
      -8.7475605891404722e-003 6.2946223256713507e-003
      1.7581289447203750e-002 -1.0975691052858236e-002
      -2.1263377480306447e-002 -1.5525431639940045e-002
      1.5698663056988350e-002 -3.0276576967694434e-002
      -2.9836298489375492e-002 3.7278973870881124e-002
      1.4293005410756553e-003 8.0941353530965803e-003
      3.1145409315301502e-003 7.2404644763768540e-003
      1.8339824745357584e-003 -1.1321607280258156e-002
      4.6077746892712289e-003 -5.5984369056548083e-005
      4.4259522163144190e-003 -5.5956372617937955e-003
      5.0684375091418358e-004 -1.8043430883334104e-003
      -6.1238426849907475e-004 5.4612584949407916e-003
      5.0491584294318388e-003 3.3022944895744091e-003
      -7.9616811396374144e-003 4.1687707847037139e-003
      -6.9689888131381026e-003 -1.0704757206776929e-003
      2.7103057196711427e-003 -3.7724600723121181e-003
      -1.0636983026732719e-002 2.6921222842721342e-002
      2.7969304083928879e-004 1.0767992682474333e-002
      -1.0503664784013298e-002 4.5010476387393671e-004
      1.2042114545322743e-002 -9.9448290914854204e-003
      -2.7187322527613005e-002 -1.2364838456639127e-002
      1.7990606280291518e-002 -1.9157259746859129e-002
      -2.4085559395567963e-002 4.5742235208562881e-002
      -3.8433994996426603e-004 3.4688101234770286e-003
      -6.0432737341348276e-003 -6.3150940805651711e-004
      3.0341381539599577e-003 4.0830456987244476e-003
      -1.5806366655704378e-002 -1.5112555317855277e-002
      1.1540034619465853e-002 -1.4810367124523703e-002
      -1.1315009125099026e-002 1.7883828453310210e-002
      -1.6412206167009561e-002 -9.8686589996777336e-003
      1.2316590436077638e-002 -1.5943671471814313e-002
      -2.7724881672522652e-002 4.0802929762182125e-002
      -1.3695394986534838e-002 -7.2793741998266152e-003
      1.5157976226847458e-002 -1.2973050109356371e-002
      -1.5911842927282847e-002 3.3203188405335815e-002
      3.5421605024046600e-002 1.8476199521422477e-002
      -1.6676217189029490e-002 3.0356953469095557e-002
      3.5813963606267915e-002 -4.8910844672025666e-002
      2.0916315235627606e-002 2.6421268511636276e-002
      -9.6420355918454149e-003 2.0219052034657840e-002
      2.8015189365298416e-002 -3.7317549563058341e-002
      -3.8862227837983348e-003 2.0250750734276722e-003
      -2.1355294036364213e-003 -6.6235710187256321e-003
      3.2938652399447767e-003 2.3074340983238722e-002
      -4.1491913645361665e-002 -3.1182693588540946e-002
      2.0680848567152483e-002 -4.3751474930039377e-002
      -4.7868957703024823e-002 7.6711771680126772e-002
      -2.0184992524607467e-002 -1.2775392018857206e-002
      1.0951194840199924e-002 -1.7679054843250244e-002
      -1.1492901997939866e-002 2.3266610274088183e-002
      7.2023401257192620e-003 1.3896491044303721e-002
      -1.7744679869941577e-003 1.5867430137806480e-002
      1.5880343178744830e-002 -7.9024294929776282e-003
      -1.6232639587902966e-002 -1.7086114074608770e-002
      1.7720357396532969e-002 -2.4355597402328739e-002
      -1.7546664237705380e-002 3.6243282763399706e-002
      4.3943204839198852e-003 1.0772412531760158e-003
      -1.1949342119344739e-002 5.5408307245573135e-003
      1.4563095227941336e-002 -1.4676966041025192e-002
      -3.7065544982850113e-003 -1.2430281366126280e-002
      -1.5571753828452467e-003 -8.4509778130511578e-003
      -1.1974889346836166e-002 1.0408262775733331e-002
      2.7363273612072709e-003 7.0219966779430706e-003
      -5.3495098500854306e-003 6.6527829861757148e-004
      5.9969039681433524e-003 -1.5591835556309750e-002
      -2.8443869663956189e-002 -1.7283898808249414e-002
      1.4827056262332435e-002 -2.6250549339508881e-002
      -3.5074832289769924e-002 4.5326373092635673e-002
      2.0688946018560289e-003 2.0070319233981911e-003
      1.8479788202300861e-004 5.8667538872114880e-003
      1.1196326685118748e-002 -8.2064936661465915e-003
      -6.6517178913735285e-003 -8.6982323062705039e-003
      1.0749483185686028e-002 -1.3423605884291541e-002
      -6.8929851211058145e-003 2.8335226514556871e-002
      1.2219425048400826e-002 9.2945029508198686e-003
      -8.8917411753010375e-003 1.9525633229370572e-002
      1.9131824121279135e-002 -2.0275765383194234e-002
      6.3799827384548096e-003 2.4405949798684211e-003
      1.3051850421597940e-003 6.7116071279522309e-003
      4.8430731059715291e-003 -1.7845981264288418e-002
      1.7639499561312725e-002 1.2760554808612615e-002
      -1.6744104054693655e-002 1.4322247649685843e-002
      2.0436546142652980e-002 -2.1140104598774804e-002
      -3.9638727197662475e-002 -3.0614623619791604e-002
      2.9578529915083463e-002 -3.6667152894909245e-002
      -4.2055974714744558e-002 7.2645330032141089e-002
      1.3695772434711052e-002 1.8060423267784807e-002
      -1.0687468394123321e-002 2.2987986725723237e-002
      2.0803941821421510e-002 -2.5485503850714044e-002
      1.9952999318943440e-002 1.4386589646896580e-002
      -9.0295983338760863e-003 1.3020282845660472e-002
      2.6026534352329503e-002 -2.1437593738648553e-002
      1.0870559206147309e-003 6.4190889127972352e-003
      -5.1404602332771809e-003 3.5577262041405129e-003
      -4.2992958030716238e-003 6.3677754855905782e-003
      -1.7635479221473845e-002 -4.1598716864241101e-003
      1.1491221544185382e-002 -6.3696418766792081e-003
      -2.1066215927061184e-002 1.8527221763680300e-002
      -7.3157687430366967e-003 3.9467541730874812e-003
      -2.9839975648769928e-003 -1.0056476375452041e-003
      -5.2400739945885318e-003 1.7438383000794031e-003
      -7.4805096247961209e-003 -1.0952329299179763e-002
      7.8074889085643293e-003 -9.9601980268766172e-003
      -6.7828916651795947e-003 1.3803453267809273e-002
      8.5897442928778486e-003 9.6395803963856778e-003
      -9.3855392801586428e-003 4.6144812288994343e-003
      1.6703586962050408e-002 -2.0821011882118129e-002
      -5.6067698415241422e-003 4.6691587691929607e-003
      -2.4343340502115504e-003 4.3453797369963441e-003
      1.5145470383025363e-003 8.1571370982090850e-003
      1.8797562202010197e-003 1.1196595569232134e-002
      -1.7684896529344182e-003 7.9964290334739278e-003
      1.0801806713013512e-002 -6.1756758947970518e-003
      -6.6464717837934632e-004 -3.2039757146339713e-003
      1.2824954300144303e-003 -1.2188033741986071e-002
      -1.6255654145315712e-002 1.0752131647002118e-002
      -1.9595851870966702e-002 -1.5450893492401783e-002
      5.1891632274171989e-003 -1.9615562568325130e-002
      -1.7421465089057186e-002 4.0409463080546659e-002
      -1.0705119719751847e-002 -4.5738299576183134e-003
      8.2377815414399428e-003 -1.2913430134738467e-002
      -1.1195199051951430e-002 1.3854769617383385e-002
      -5.0495508670052505e-003 4.9961800697438949e-003
      7.6859558655294844e-003 -2.4081633637221878e-003
      -3.6411538643000992e-003 -5.4388573140701198e-003
      -2.5333016928772701e-002 -2.2433617869455511e-002
      1.4019050661366822e-002 -1.4846469972263123e-002
      -2.0874238136886845e-002 3.0483275916980839e-002
      3.7784173021313178e-002 3.0770112978578550e-002
      -1.7630250257093322e-002 3.9641399657767765e-002
      3.6852168095203190e-002 -5.6619659792361970e-002
      5.6616719262832542e-003 2.8395643621352009e-003
      -5.6929668674586950e-003 1.3235780813419600e-002
      6.9087551878363939e-003 -9.2488318282836334e-003
      2.6336178966316931e-002 1.7010273954356760e-002
      -1.8177214400832850e-002 2.5497377762180674e-002
      3.7698110408493309e-002 -4.5694895865617972e-002
      -2.1106242610232029e-002 -1.4680007452912718e-002
      4.2774912290049908e-003 -2.2233252458796433e-002
      -2.2360943509797719e-002 3.7285637999091251e-002
      1.2468078731124595e-002 1.9754098123024103e-002
      -3.1217887114995688e-003 1.2938114853517410e-002
      1.6268478061432404e-002 -1.7005762375502040e-002
      2.1374119604575869e-002 2.4096494833576787e-002
      -2.0561350395574073e-002 2.4709187040726780e-002
      3.6794595550939960e-002 -5.5858681352193240e-002
      1.6124390655320980e-002 1.7652441583367366e-002
      -1.5532922119075721e-002 9.4717388309581135e-003
      1.9168680756714657e-002 -1.7806599219771031e-002
      3.1373164874147125e-002 2.8683786810475169e-002
      -1.0536064051203031e-002 2.2779195228296245e-002
      3.7434176400583247e-002 -4.6901914700077402e-002
      2.3949612051895552e-002 1.3252413308310935e-002
      -6.8917835308327235e-003 2.7556982659912216e-002
      3.1530920913990554e-002 -2.8608387428854003e-002
      -3.2448872294220704e-003 -1.0448367768238289e-002
      7.0622965774176242e-003 -1.3287429853991260e-002
      -1.1427217352252659e-002 2.0730198978478942e-002
      -2.8830352836620166e-003 -9.2119419967552924e-003
      -1.6017141015914321e-003 -1.3900372898159876e-002
      -1.4975450105225142e-002 1.8757738192628132e-002
      4.1264137785142346e-002 2.8331995281204923e-002
      -2.1490814190069266e-002 3.6365562889944490e-002
      4.8858489988921179e-002 -6.1078435251139609e-002
      1.7548693656278796e-002 1.5943712329905834e-002
      -9.2339922732683957e-003 1.4383437953108610e-002
      2.1514476357066686e-002 -2.4143335816989343e-002
      -9.1075386974086639e-003 -1.7272584559464531e-003
      5.2805330489361230e-003 -9.4301842815353708e-003
      -5.2534953672664310e-004 1.0164943723198171e-002
      2.0112552435341900e-002 1.8436550436750875e-002
      -1.3299408946380563e-002 3.3214500600245465e-002
      3.2377527163820433e-002 -4.7693813350250268e-002
      5.4550948278129724e-003 2.1785484832836208e-003
      -4.6092675198410689e-003 2.6312971447749003e-003
      8.5445231661482549e-003 -1.7870484699802541e-002
      -3.8977555095831857e-003 4.2368334426872410e-004
      -3.9418388890756235e-003 -1.1442181917192307e-002
      -8.2832274158375473e-003 1.6519602175328347e-002
      -1.3891249156198391e-002 -1.8642659245303922e-002
      3.9664230915769797e-003 -9.2254462056921335e-003
      -1.6712171963941262e-002 3.1430666560266600e-002
      -6.8104474149181657e-003 -1.1824931063368219e-002
      3.6397029457282833e-003 -7.2259378436946358e-003
      -1.4079823338980443e-002 2.9561908357891332e-002
      1.1552092394593877e-002 5.0093876561263760e-003
      -1.0245129577769156e-002 6.3925393652562897e-003
      -7.7208038850401462e-004 2.2983239055038847e-003
      -4.2868590502151312e-003 -5.2256163634036706e-003
      2.7941972511659656e-003 -3.5088684047075375e-003
      -1.3006970406521769e-002 1.5895923583178879e-002
      -1.8914225295649234e-002 -1.8088494256407840e-002
      3.0484897667152947e-003 -1.8932162441064937e-002
      -2.5494384104599449e-002 4.0445829990339743e-002
      4.5078946040289624e-003 2.1316478297615045e-004
      -1.1986845824931110e-003 6.2832268171197801e-003
      4.7617987071642684e-003 -1.5358557650135766e-003
      9.8209846526514186e-003 1.2451763305492804e-002
      3.9542144028012461e-004 1.8186170155043357e-003
      1.4432014388292938e-002 -1.1304018452903951e-002
      -2.0467416407293985e-002 -1.5259762458307444e-002
      9.8722958672278344e-003 -1.0110232154994655e-002
      -2.7235830635468646e-002 3.0535402893836456e-002
      1.4256052868008108e-002 1.4657484776988819e-002
      3.4862043247118349e-004 1.5659927118814320e-002
      1.0932890916554082e-002 -1.2300679545604562e-002
      3.9053341384714723e-004 -4.2288945445291765e-004
      2.9438887092855959e-003 -8.8409510240826071e-003
      -9.7132428670399749e-003 7.3856329639503471e-003
      3.0335064709723390e-002 2.7846170404034691e-002
      -1.9145712587895963e-002 2.9381044068019804e-002
      3.3525784125893021e-002 -5.3031146470523170e-002
      8.8305068966015275e-003 3.5523181378160711e-003
      -3.7380382339135786e-003 1.6063224040291644e-003
      -2.7004841550928517e-003 1.8877597166437475e-003
      -5.3761936290819469e-002 -4.3244175793495349e-002
      3.9701795817429039e-002 -5.8773565216598857e-002
      -6.5042127458870863e-002 1.1084164461531587e-001
      -1.2412153804755468e-003 -4.5921967589507354e-003
      3.3764163473394421e-003 4.8155648606206160e-003
      -7.4828240467984504e-004 3.2350301160345447e-003
      -5.9080517109641607e-002 -5.4774459192329275e-002
      4.1129808460080505e-002 -6.2734148862150355e-002
      -7.3787273759841537e-002 1.2299845647968340e-001
      -2.4894447442075508e-002 -2.1156113331310063e-002
      2.2055255456114666e-002 -3.5159856002045325e-002
      -3.0472114917399207e-002 6.3222483599956511e-002
      -2.0427337721859097e-002 -8.6249494165209790e-003
      9.8114842902543315e-003 -1.7058436613298467e-002
      -1.6965263540482459e-002 3.8567364131326838e-002
      2.1666002238125404e-003 1.0922628594737017e-002
      2.0651328572232753e-003 5.0559767491018051e-003
      8.5840775753039250e-003 1.2789832019656593e-003
      -2.3074127988187757e-002 -2.3448336584159565e-002
      3.6396307178109852e-003 -2.5206046999365215e-002
      -2.9577040100458443e-002 5.7322340969855681e-002
      -3.5001667316199810e-002 -3.1967762215576657e-002
      2.5937376313123792e-002 -3.8561771166955756e-002
      -3.5311622828202514e-002 6.4911768438627615e-002
      -1.1487543946091010e-002 -1.4411538157568751e-002
      5.4814822888043331e-003 -1.3101940505431587e-002
      -8.8638069393366867e-003 1.5795362944517152e-002
      -1.7333084838272700e-002 -1.0936187813246404e-002
      1.6204911216920394e-002 -2.1525490221893349e-002
      -1.9310856538238615e-002 3.8457977792195071e-002
      1.7718923610297463e-002 1.1475521979576572e-002
      -4.2924585845759587e-003 1.5701412395263063e-002
      2.6071959604895129e-002 -3.1708929287115245e-002
      1.6529295588631511e-002 1.0020675084595448e-002
      -1.5652343780850682e-002 1.6361247663543486e-002
      1.0588041609306056e-002 -1.9534487995073228e-002
      3.3167280033821766e-003 1.4936261225887736e-003
      7.0012115535665149e-003 3.5384661879685922e-003
      -1.1040781351402079e-002 1.5965701054999723e-003
      1.8542610263923491e-003 6.7838702615826332e-003
      -9.2180460344912264e-003 3.4328339216156919e-003
      -5.7404910293325879e-003 4.8053672187363889e-003
      1.2756021825136347e-002 8.4979118250639290e-003
      -1.5289775068540548e-003 1.4277482991839481e-002
      1.9716464411654339e-002 -1.9385359117097045e-002
      2.0229031127643841e-002 3.9433048471267306e-003
      -5.6836649334278261e-003 1.1560225260479257e-002
      8.7462894497976115e-003 -1.7543001669738562e-002
      -8.6829067997050390e-003 -6.8658542413837249e-003
      1.4440596472433963e-002 -1.0084272818902602e-002
      -7.7789831040763558e-003 1.4616497561276471e-002
      -2.3030391549116062e-002 -2.7417780934137097e-002
      2.0347134058832747e-002 -1.9626203553518237e-002
      -3.3303493456930663e-002 4.0674359846233743e-002
      -4.5247127953380682e-003 -5.3233641807122131e-003
      2.8048585526082850e-003 -1.0505241903565219e-002
      -1.7033674608730957e-002 1.5709844943093642e-002
      -2.6560252992418508e-002 -2.3215730682168059e-002
      6.5983367374932104e-003 -2.3116146528476020e-002
      -1.8308434932252204e-002 3.4087263723012094e-002
      1.6510417759205462e-002 1.6304724593695242e-002
      -7.4829514307624405e-004 1.1630563336010251e-002
      1.5163128826069140e-002 -3.1439780722587830e-002
      1.3153581395511069e-002 8.7939407511680914e-003
      -1.7930504205659354e-003 4.2326438563134996e-003
      8.6659404146675577e-003 -1.2810201486713708e-002
      -5.7675797194659184e-003 1.9810528178431956e-003
      -3.9863485583904422e-003 2.6135736949860634e-004
      -1.3613308789686758e-003 1.4114025216815534e-003
      2.3332185892311036e-002 2.1629089079213286e-002
      -1.3668989928894695e-002 2.3373660015987525e-002
      1.3499002029361449e-002 -2.3429048856292642e-002
      1.6979658124610462e-002 1.6894357890918275e-002
      -5.2929480227210451e-003 3.9775939231373051e-003
      1.4467775394867807e-002 -2.8437652432333427e-002
      -9.7883839078266796e-003 2.1447136241097590e-003
      -3.3718132460940015e-003 1.1309108291937691e-003
      -8.5894913407555205e-003 8.3475397465263505e-003
      -1.0334479015991086e-002 -1.2680605642088316e-002
      7.0535633235980716e-003 -5.9262063986292770e-003
      -9.4003602545572763e-003 1.7410055517276899e-002
      -5.6830212153650000e-003 -1.1307608284396021e-002
      9.3138916316626210e-003 -6.1217896689541029e-003
      -6.1196067822667415e-003 1.9467450548205256e-002
      -4.0205599309520222e-004 5.5269202883525062e-004
      5.6544123224098394e-003 -5.1073267965351188e-003
      4.1488858907541169e-003 2.3423140297329490e-003
      1.1615747777405679e-002 2.9308197667170677e-003
      1.5939484260575842e-003 3.0123902613020436e-003
      5.1033984135134521e-003 -1.3644687454256517e-002
      -2.1431412358668956e-002 -2.0462713139448682e-002
      1.0828884781744940e-002 -2.0070733655289719e-002
      -3.8174028864685454e-002 4.4743847398561569e-002
      9.0256539848510876e-003 9.6400838802716436e-004
      -6.5750558297455082e-003 1.0441047889660215e-003
      9.3411160641240505e-004 -1.0585328985529654e-002
      -1.3650273306524636e-002 -1.2408780166051710e-002
      4.3953719657340963e-003 -9.5092916582270853e-003
      -1.3763286898589818e-002 2.3796581957016848e-002
      1.3846754964944778e-002 1.0776839303935134e-002
      -9.5273911594768318e-004 8.7859852435224726e-003
      3.8746788675768592e-003 -2.9085641970470083e-004
      5.7117421179216253e-003 1.5355662289722356e-003
      -2.1710762622047029e-003 5.0349488100359680e-003
      1.9879073508008048e-003 -1.0224833070601044e-003
      -9.4708365582690693e-004 7.4366717819223547e-003
      -7.5833632167405700e-003 -1.7907207786770805e-003
      -7.3332067090677572e-005 9.2051379469068207e-003
      3.4410088113332156e-003 6.9210845524092989e-003
      -7.6078215928137042e-003 7.8109757984158477e-003
      2.1789761155104129e-003 -9.6765214139684190e-003
      7.2116066671994768e-003 3.8949442488112624e-003
      -1.1079154261598610e-002 6.8242182362482640e-003
      1.3550707846108795e-002 -7.3531758236360378e-003
      -1.9337069002671087e-002 -2.2374484101881323e-002
      1.2408558863122476e-002 -1.5471087114593472e-002
      -2.2579558428919937e-002 4.3926002723009262e-002
      6.5284990260149507e-003 1.3324390380106053e-002
      -4.8086676602592639e-003 1.2312744705169599e-002
      1.4733711555807640e-003 -1.9891355939439261e-003
      -1.4325354369466791e-002 -1.7208186058995080e-002
      1.8608879483323654e-003 -1.5721173192875554e-002
      -9.2414257365850305e-004 6.1125035166403529e-003
      -1.3508697134099997e-002 -1.2509077513130214e-002
      1.4711830325660074e-002 -2.0723680272161191e-002
      -2.7359942894063117e-002 3.4298534885704023e-002
      6.2232648500171878e-003 6.9379874287140804e-003
      -2.3547716195549597e-003 6.3473180157245217e-003
      2.2849454816927243e-002 -3.4752844038734937e-002
      -4.9164680437822836e-002 -4.7013133571515563e-002
      3.6789417349592644e-002 -5.2808953826365627e-002
      -6.1542910903128287e-002 8.9653760664509044e-002
      1.0068204664139263e-002 -2.2191757253124831e-005
      2.0013223757157127e-003 7.3255795175691217e-003
      2.6590906562274689e-003 -1.0063609544428491e-002
      2.3757395490587380e-002 2.7784503193713724e-002
      -1.5642551391952943e-002 2.5366832541373268e-002
      3.2116444880685026e-002 -4.4748084728186512e-002
      1.2378270990003764e-003 3.8184431651591233e-004
      -1.5265641301637700e-003 -8.7542591209986316e-003
      4.5128716633861914e-003 8.9396194174345654e-003
      -4.8618156463802770e-002 -4.3977548945017965e-002
      3.8850724571684279e-002 -4.7672325824887563e-002
      -6.7929702837129416e-002 9.0608787380195815e-002
      2.1761723128443350e-002 1.5375730295474186e-002
      -8.2438292091355954e-003 2.3322432120321267e-002
      2.6878969382843908e-002 -3.0560149552422984e-002
      -1.1727836643341727e-002 -4.7088148859703383e-003
      1.0011023066493209e-002 -8.0191685162672131e-003
      -1.2444281899760493e-002 1.8656421399792882e-002
      1.0338654472278224e-002 4.0564169837688834e-003
      -2.4608453308221740e-003 1.6320380725681604e-002
      1.6777555932200469e-002 -3.1624525024563463e-002
      1.7207164815143932e-002 5.1793332266865917e-003
      -5.8888241273390661e-004 4.6579728963500305e-003
      1.7213944785913250e-002 -1.9770748441944014e-002
      -1.6484035518214018e-002 -1.0693024614998834e-002
      1.6178287906349113e-002 -8.6696085202517589e-003
      -1.4524487406035192e-002 3.0959033201566209e-002
      2.2655278583825360e-002 2.3887853502502505e-002
      -2.4905016916873482e-002 2.1288703219580745e-002
      4.0632668397572042e-002 -4.6984995533476306e-002
      3.9301755579242842e-003 8.6309448781214746e-003
      -8.0665250844849535e-003 1.2707244734190921e-002
      1.2442708844126330e-002 -8.0622475202818764e-003
      3.9527742904878649e-004 -7.6784248277853634e-003
      1.6709398276697597e-003 -8.3984853892497147e-003
      -9.8857603516852577e-003 7.6095618887731115e-003
      -7.8992458338155158e-003 -1.1382879887193475e-002
      8.1696189068593654e-003 -1.2070453483891677e-002
      -8.8554689415729581e-004 2.9573054249062694e-003
      -2.7373607791282086e-002 -1.0140993341050652e-002
      8.5660583640923930e-003 -1.3424391589668735e-002
      -2.3741442389191712e-002 3.8724933866071058e-002
      -2.2440049282467758e-002 -1.7291067416164697e-002
      1.1863111233088497e-002 -2.4302707035755603e-002
      -2.7194271026661151e-002 4.6668907651968287e-002
      -1.1439144319291188e-003 2.1246156377924541e-003
      6.6261494328110218e-003 9.0406622683872741e-004
      -3.2137261112532020e-003 2.0275855024786883e-002
      3.1989429316543937e-002 1.6025933116823689e-002
      -2.0745887173489193e-002 2.3675548049624868e-002
      2.8081302806000165e-002 -3.7465152791356933e-002
      -2.7968068579649770e-003 9.5739656930758914e-004
      2.8871585872134176e-003 -8.2667097297766078e-003
      -8.7914786648839987e-003 -2.2285620976064701e-003
      2.5891062593485052e-002 1.9771804931255736e-002
      -1.3099094978840702e-002 2.8601191167142371e-002
      2.9916078814219000e-002 -4.5033258943632047e-002
      -1.1229416922431290e-002 -1.4676534921409648e-002
      9.3545326692415325e-003 -6.8516074195141465e-003
      -2.1973882633544644e-002 2.4978329159452008e-002
      -2.6635813586728261e-004 -5.9209097523301316e-003
      3.5822579191365218e-003 3.6804876350045872e-003
      2.0788945738780223e-003 -1.5898260191345103e-003
      1.4301737644577467e-003 2.0750677538234746e-004
      -5.9507106479861974e-003 3.8229216111615228e-003
      -8.5283002650933110e-003 1.7735233853960346e-002
      -1.8727417479264919e-002 -1.1640310891876223e-002
      4.2189880261158975e-003 -1.4603229504646771e-002
      -1.9037445580510178e-002 1.7163527436631215e-002
      1.2557257086446833e-002 8.2208620521713929e-003
      -3.3213193090824268e-003 1.3898947364860787e-002
      9.4436580936798700e-003 -1.6602473973051011e-002
      8.5591210868925498e-003 1.8268056333896401e-002
      -1.0841024859138775e-002 1.7094792129369336e-002
      1.5856269404315559e-002 -1.3955596261972236e-002
      -1.4940740346422808e-002 -1.0782298266036173e-002
      1.3711336341887056e-002 -1.4477852854886444e-002
      -2.6581744441380520e-002 4.0131895550572436e-002
      1.3083597816217464e-002 6.4110508150374314e-003
      1.5399511451956523e-003 1.3910449453628104e-002
      6.3871017942710700e-003 -8.4139480241235236e-003
      -1.5112650118788928e-003 5.2556222317877615e-003
      -6.3665874293176788e-004 -7.8707805028743263e-003
      -5.2811999646851480e-003 7.9128040049220513e-003
      -2.2686900131039758e-002 -8.4384960604801783e-003
      1.1638547301598660e-002 -1.0431707415913059e-002
      -1.6521851580560520e-002 1.9315030144883498e-002
      1.5391423100019074e-002 2.4595486353306526e-002
      -9.5969856866211182e-003 2.7164013334639477e-002
      2.1212429909337045e-002 -3.2820778189838327e-002
      -2.7616167973241415e-004 -1.3070382544124091e-002
      5.4152463871638100e-003 -1.3620353293496364e-002
      -7.8514235117736753e-003 1.0544299619024590e-002
      2.2463337162814115e-003 5.3393225504511331e-003
      -3.2831481979159987e-003 2.8358109150997037e-003
      -9.8917979975156924e-003 1.0417146050826376e-002
      -1.6772232146656234e-002 -1.3649740494656538e-002
      1.4886555268887177e-002 -1.3143095487387344e-002
      -2.5324023706103503e-002 3.0565827479239253e-002
      7.1830250635843262e-003 3.7907626118463935e-004
      1.7968092301411994e-003 1.2718958637043093e-003
      6.5144484414928656e-003 -3.1450678874609611e-003
      -1.8673750209304327e-002 -1.2934129526983612e-002
      9.2649656124585648e-003 -1.4181069843551932e-002
      -2.2232917838354103e-002 4.7134224900827873e-002
      1.6290971824487525e-002 1.6710015215372062e-002
      -1.6013777499058739e-002 1.4785576868179211e-002
      1.3352562184345131e-002 -6.2623039670139458e-003
      6.7292379701405659e-003 2.6193493022494876e-003
      -6.8394222309091732e-003 5.1100108067404313e-003
      -1.6091022344678319e-003 3.7318763137321547e-003
      -6.7251864834368714e-003 -8.1425794295063112e-003
      -5.7678485920258146e-003 -1.0044544836530066e-003
      -1.0864503260425880e-002 9.2022924353821946e-003
      1.7994756802810784e-002 3.1647170544551969e-003
      -4.7133206709729621e-003 5.5425367786655902e-003
      1.0235684948597406e-002 -2.1958094015515277e-002
      4.7363032979568414e-003 2.9193871845788750e-003
      -4.8810820608890552e-003 6.5914509425177197e-003
      7.5509271823719481e-003 5.4301431037919170e-003
      4.3451990282890067e-003 9.4054746254085518e-003
      -4.4326999572277988e-003 1.7736088629733790e-003
      6.1634291482260016e-003 -1.0393208848195253e-002
      2.2649732642194026e-002 1.6634989531691180e-002
      -1.8341631099294490e-002 2.2547614561675644e-002
      2.7061328017751057e-002 -3.6308367679713058e-002
      -1.9406121807651597e-002 -9.6491695269517574e-003
      1.1308002332335669e-002 -1.0488711992143874e-002
      -1.8044480383472485e-002 3.8395693117696000e-002
      -4.3690889189245560e-002 -3.1659634268752644e-002
      2.3346958933297298e-002 -3.4164965391924568e-002
      -4.8607482063924741e-002 7.7503959997279909e-002
      -4.0821044754660550e-003 -4.8683936871351963e-003
      3.0046240047603198e-003 -5.0301725210710971e-003
      -8.0831139825724395e-003 1.3514653565816706e-002
      -7.9358328772561951e-003 -2.6527920092770524e-003
      2.3800347110329799e-003 -8.4360943388169275e-003
      -7.5727809060262717e-003 1.5262579058006289e-002
      -7.2086899785502121e-003 -1.0900746431210045e-003
      2.6494479144851062e-003 3.1451438980246108e-003
      2.5657069955552952e-004 -2.9968116542637252e-004
      -1.8840051714074501e-002 -2.2185891373061761e-002
      1.3230536258123638e-002 -1.7384913919523695e-002
      -1.9696643865407360e-002 4.4765323359948081e-002
      -1.1767325550219633e-003 -1.0241086433913518e-002
      1.4607371144957957e-004 -5.2810433484229060e-003
      -2.8089907892579827e-003 1.4491007037318693e-002
      1.3166353687812403e-002 3.4702306869710134e-003
      -1.2797046557908929e-002 1.6469291745624021e-002
      1.7156222930053394e-002 -1.3015704416587875e-002
      -1.0785479735048946e-002 -5.3134247075998337e-004
      2.7168358021079685e-003 -9.5975044966106395e-003
      -2.0853791513325277e-003 9.4445533154401268e-003
      -2.7999275480567971e-002 -2.2803736055442596e-002
      1.3086034380936414e-002 -2.6899830347444465e-002
      -3.4976321641321355e-002 5.1670586530738000e-002
      4.9403195823846304e-003 4.4368716536076318e-003
      1.5387602827851097e-003 1.2564691156126467e-002
      8.0796833684207495e-003 -1.1571582741232486e-002
      -1.7942499019510689e-002 -1.5045251052457607e-002
      1.5914753276545636e-003 -7.4282281148963687e-003
      -9.4798865895232877e-003 2.3513592623864786e-002
      1.3739897313148614e-002 1.3006349603837598e-002
      -8.1219334486302211e-003 2.8935853664347243e-003
      1.1464004942362009e-002 -2.1357533038131715e-002
      1.7399388925254326e-002 8.1177550062912704e-003
      -5.8209688944423979e-003 1.0534970269300274e-002
      8.5989702591624962e-003 -1.0992313155327348e-002
      2.1517179172137697e-002 8.6414908581388429e-003
      -7.4206920193025999e-003 1.0572305454678627e-002
      2.3674538902694678e-002 -2.0111983431336654e-002
      2.7060194679578528e-002 2.4653249136944118e-002
      -1.3956668835596204e-002 1.6221757934254871e-002
      2.2639472540052157e-002 -3.1106092462651457e-002
      -1.4749065140449271e-002 -5.1321693329611454e-003
      5.7672599347188339e-003 -1.2071655815922989e-002
      -6.1929611447909165e-003 3.1052699365567694e-002
      4.7367673466110647e-003 -3.9605101345282345e-003
      5.1689413032371366e-003 3.2796675710407967e-003
      -6.8102813892091047e-003 4.2746484009829914e-003
      1.5763367327550210e-002 1.8980015600095674e-003
      -9.0964544550495522e-003 4.2781819071764961e-003
      1.6665593444137306e-002 -4.9851281116198000e-002
      5.3085428019544668e-002 3.8037810024229991e-002
      -1.8541169888223467e-002 3.9048429603512555e-002
      4.7116868774405199e-002 -8.7183714705762694e-002
      -4.6447130266100291e-002 -4.0565671338372189e-002
      2.8051246661869880e-002 -4.5683297172105904e-002
      -5.4210301348007389e-002 7.6419517586291522e-002
      -1.5717025423839136e-002 -1.3878573007969644e-002
      7.2150580840839107e-003 -1.3648872444526517e-002
      -1.7038626925865736e-002 8.4590596475083782e-003
      -1.0177901775950588e-002 -6.7965352080885102e-003
      4.9717819012691893e-003 -6.1398948816487374e-003
      -1.1815157786761900e-002 2.9702832880832673e-002
      1.5330119042687098e-002 8.0343703251591625e-003
      -1.1650367496675014e-002 1.9338027821981588e-002
      1.7783099372730978e-002 -2.6275588438283669e-002
      6.0210091375902369e-003 6.3528955841946231e-003
      -5.6601505120617464e-003 1.1398389483294198e-002
      1.6641561083715787e-002 -1.6509818444755447e-002
      -1.6487337686014760e-002 -2.2676211898608245e-002
      1.7809780955072116e-002 -2.2734447757935487e-002
      -3.0642310777786185e-002 5.4847355814549276e-002
      -7.1264419451635939e-003 -9.3006510104404715e-003
      4.1203468154439506e-003 -2.8475281104113821e-003
      -3.9326881476594343e-003 2.7770535485244167e-003
      4.3381514753171389e-002 4.0252205740163936e-002
      -2.2916376667035457e-002 3.7522106484459722e-002
      5.0089819049687352e-002 -7.3578127416921893e-002
      1.3518873109836023e-002 -9.3762256835480012e-004
      -1.2420407669223280e-004 1.4364815222998191e-002
      6.1550078304056849e-003 -1.2127590350806310e-002
      1.0260411638836293e-002 7.3420992555800150e-003
      -1.7834087508245205e-002 1.4766634919430340e-002
      1.3238133666596643e-002 -1.3927694702555346e-002
      -3.0358773583092493e-002 -2.7458362181685961e-002
      1.4871383651360797e-002 -2.8653049565987621e-002
      -3.6048696189538487e-002 4.8107338851687408e-002
      1.3998168077955904e-002 5.4856465751426465e-003
      -6.5073003175641587e-003 2.0439620844738129e-002
      1.8536580064394251e-002 -7.6381864441566437e-003
      -5.0268544976566368e-002 -4.2847848846795329e-002
      3.6703393311913149e-002 -4.9661853221131466e-002
      -6.4741188605627276e-002 8.8518120665594599e-002
      -3.2069447555064433e-002 -2.7674350097569664e-002
      2.0545090475736997e-002 -3.0873970556220740e-002
      -4.3719002969487518e-002 7.9504279615453713e-002
      6.6964707085355013e-004 2.7382045248350011e-003
      4.5728842511166190e-003 1.0427576785640916e-002
      1.2551641012269474e-002 -1.8336451938078958e-002
      2.8325918246626513e-003 1.4301585982307581e-002
      -8.3134681231866736e-003 4.4030473053450299e-003
      1.5064529836421793e-002 -1.9478728998034881e-002
      -2.3459205335343094e-002 -2.1668587656475558e-002
      5.6031458078931043e-003 -2.0535450844956973e-002
      -2.1886158522871426e-002 5.2661539337620980e-002
      -1.8811848677117944e-002 -1.6416352809868470e-002
      5.2517486004891216e-003 -5.5992434686984094e-003
      -1.8879679648266940e-002 4.0317801619950820e-002
      -3.3248968388378377e-003 -7.1518530386837590e-003
      -3.8208727529034101e-003 -2.0202169393778633e-003
      4.6644385885482699e-003 1.5863151863294739e-004
      9.3943711132589269e-003 4.9809697574656536e-003
      -1.0563438472314423e-002 1.0340667328018721e-002
      1.8496681751478002e-003 -1.5394593654982344e-002
      -2.3073741175393698e-002 -2.4061150288232504e-002
      1.0022026687291992e-002 -2.0547709251125770e-002
      -2.0990380884202828e-002 4.2957569330105361e-002
      -1.1952515569953399e-002 -1.4751130620361326e-002
      1.6740907281049947e-003 -1.1025480373250851e-002
      -1.7414010289864414e-002 2.9088348926202517e-002
      -6.6690851321866062e-003 -8.1647003841428725e-003
      5.3022123159861354e-003 -1.5939512510127631e-002
      -1.9564501752643692e-002 2.8302292685518284e-002
      2.6079630604908192e-002 2.2147900187800804e-002
      -1.2617631539985765e-002 1.4551489493871505e-002
      1.8630632695207369e-002 -3.6432078212021074e-002
      1.2523192746842084e-002 5.6085396396681518e-003
      -1.4133061312253838e-002 5.9417177336579113e-003
      2.1146221073670299e-002 -2.0257418026444200e-002
      -1.6138454749084843e-002 -8.8353992940138194e-004
      9.3500071936196000e-003 -1.2463679210227866e-002
      -1.3978532255097289e-002 1.9844995789248629e-002
      2.0152027055960565e-002 2.4011853084040660e-002
      -1.6761691803907991e-002 2.0061166543386424e-002
      2.7820365279456919e-002 -2.2738827679378910e-002
      3.1955132655432518e-002 2.3740149279073829e-002
      -2.4634420961036341e-002 3.2128712216146930e-002
      2.3878738205579994e-002 -3.9081006975903443e-002
      -7.9639182983799687e-003 2.5347476004051375e-003
      5.7155104377913579e-003 -4.3445595114319762e-003
      -7.3195121409410282e-003 1.0069593627390868e-002
      -8.1304343730229545e-004 3.4054350086842496e-003
      3.2696429152538637e-003 3.1910993744071726e-003
      -3.6473103393636786e-003 1.1928882744628232e-002
      -2.3632438339676448e-001 -1.7595967511711269e-001
      1.4039451926679861e-001 -2.1491300890705503e-001
      -2.5428585962920958e-001 3.5984749011035905e-001</_>
    <_>
      5.5234334459322543e-001 4.4229526595418883e-001
      -3.3062605221765146e-001 5.1780344237326936e-001
      6.2656823325572231e-001 -9.2948522731731997e-001
      -4.6759859217559202e-001</_></weights></opencv_ml_ann_mlp>
</opencv_storage>
