<?xml version="1.0"?>
<opencv_storage>
<opencv_ml_ann_mlp>
  <format>3</format>
  <layer_sizes>
    256 6 1</layer_sizes>
  <activation_function>SIGMOID_SYM</activation_function>
  <f_param1>6.6666666666666663e-001</f_param1>
  <f_param2>1.7159000000000000e+000</f_param2>
  <min_val>-9.4999999999999996e-001</min_val>
  <max_val>9.4999999999999996e-001</max_val>
  <min_val1>-9.7999999999999998e-001</min_val1>
  <max_val1>9.7999999999999998e-001</max_val1>
  <training_params>
    <train_method>BACKPROP</train_method>
    <dw_scale>1.0000000000000000e-003</dw_scale>
    <moment_scale>0.</moment_scale>
    <term_criteria>
      <epsilon>1.0000000000000000e-004</epsilon>
      <iterations>300</iterations></term_criteria></training_params>
  <input_scale>
    3.3375655992796015e+002 -1.4312540487042453e+001
    5.5508887723162775e+002 -6.6756315427465074e+000
    1.0577502770592575e+003 -5.7931762052964340e+000
    7.6191634669375048e+002 -9.3018213330878705e+000
    1.2640398493231444e+003 -6.6268644387594842e+000
    3.1446298030688322e+003 -3.6508352995872699e+000
    7.7835384167337168e+002 -7.2575579413112159e+000
    1.9816600306348553e+002 -4.3743432464888299e+000
    1.2640398915539538e+003 -6.1662087429531951e+000
    2.7112749424733806e+003 -2.8089531127443155e+000
    3.9878439834942797e+003 -2.9065918148915024e+000
    2.6646954495592809e+003 -2.1919089908921432e+000
    6.5470197893730472e+002 -5.2661107413248640e+000
    2.3299975102531434e+003 -3.1296301438714198e+000
    2.1775929649542235e+002 -5.1106773431377972e+000
    9.1744148348774658e+001 -3.9385789626220893e+000
    5.4606319602794520e+002 -5.9331209708462165e+000
    2.8904643837474182e+003 -3.4309968668932278e+000
    3.3136948050962678e+003 -3.1052950225515135e+000
    3.8601735253088350e+003 -2.4517970226989485e+000
    2.7002681225494148e+003 -2.6710274250626633e+000
    8.9655266706949460e+003 -8.8684405776555930e-001
    1.9620440391552861e+003 -2.6966869292572184e+000
    4.7272503960764379e+003 -3.2732419225506981e+000
    6.2912490233038943e+002 -6.4589457825915551e+000
    3.2472085022577016e+003 -2.1808095467690207e+000
    2.5722949412635730e+003 -1.9819848708968923e+000
    4.3564628534601961e+003 -2.1773242195248690e+000
    2.6687586068683072e+002 -4.7364629684490218e+000
    3.9741635192888721e+003 -2.7310994620958735e+000
    1.0881975121310458e+002 -4.1317286583130368e+000
    4.0616596438890241e+002 -6.1618472117783272e+000
    1.1608214730944599e+003 -7.0708097319058005e+000
    1.9927412498457938e+003 -2.3550201328677636e+000
    3.3361101672194727e+003 -1.8236753877214704e+000
    2.8510317765944978e+003 -2.3600273494476172e+000
    4.3654545670354337e+003 -3.0000000346503897e+000
    2.2179487794658336e+004 -5.7735026918962584e-001
    4.8694211207649732e+003 -3.0928227062777145e+000
    3.0481209063913134e+003 -2.7453400736906155e+000
    2.2232910855163104e+003 -2.0371680242716348e+000
    8.0382979016176059e+003 -1.3810070267458980e+000
    1.4688724623577089e+004 -9.9413484677243436e-001
    8.5986817696674461e+003 -8.5055681747869116e-001
    3.9175534059856800e+003 -3.1408956171911244e+000
    1.0194547896760989e+004 -1.3268622365182310e+000
    2.8044611297154356e+003 -3.3143100855848746e+000
    2.2085457173591535e+003 -3.3804270941389678e+000
    4.7101072689942845e+002 -5.6792005032765829e+000
    3.5479234039159905e+003 -2.7152475119003139e+000
    4.2737237730610213e+003 -2.4474678348928083e+000
    3.6588326429774525e+003 -1.5619756164370335e+000
    2.9442950585898816e+003 -2.8817548574858227e+000
    1.2950031078303698e+004 -6.7419986845930691e-001
    2.9103030313379127e+003 -2.1515151633180625e+000
    4.5642862314646263e+003 -2.3049550388829827e+000
    2.0168160395604281e+002 -3.3106106775919280e+000
    6.0862873663384617e+003 -3.2319935517601088e+000
    3.3356070832052019e+003 -2.4659319341641828e+000
    4.8946515342638095e+003 -2.2934123315911599e+000
    1.5112837183385156e+002 -2.9843290101131617e+000
    4.3177673965032081e+003 -2.0455895250902882e+000
    4.9879806451593856e+002 -6.9257311194994511e+000
    8.1099131810399024e+002 -4.1883766242888010e+000
    1.2262535519908870e+003 -7.9673283490468787e+000
    2.1918031853850275e+003 -2.7386128632762921e+000
    3.6701695062729841e+003 -2.5030831252753631e+000
    2.1698760755469575e+003 -2.2819396597927386e+000
    5.3772076538299225e+003 -2.1835807906428331e+000
    1.4688724623577089e+004 -9.9413484677243436e-001
    4.1560572750181364e+003 -2.4233570125628110e+000
    3.6755412958326019e+003 -1.5882441054336094e+000
    6.1993553018728535e+003 -3.8729833642499072e+000
    1.6782107409473057e+004 -1.1358152736593494e+000
    1.2950030872638676e+004 -6.7419986246324215e-001
    7.8745121418465997e+003 -6.1494004299411276e-001
    5.1781296024854255e+003 -2.4801537352699921e+000
    1.4316797809353735e+004 -7.4535599249993001e-001
    5.4306708483851617e+003 -2.9121152839208588e+000
    3.3724205833565511e+003 -2.2122292479885042e+000
    2.7735918909253037e+003 -3.1478708533055926e+000
    1.2398710603745732e+004 -1.2909944487358056e+000
    1.3448289838157943e+004 -9.8019605881960681e-001
    1.6292012853658567e+004 -7.6337003671197390e-001
    1.4688724623577089e+004 -9.9413484677243436e-001
    4.4066173870731262e+004 -2.2941573387056174e-001
    1.1582859869222117e+004 -9.0453403986248304e-001
    1.1108273267027767e+004 -6.3614642840660973e-001
    3.1308145267923651e+003 -3.1621096556016028e+000
    1.2123982173244318e+004 -8.2055273035321741e-001
    1.6292012853658567e+004 -9.3300782264796811e-001
    1.4356733166730428e+004 -6.7269158347674229e-001
    4.8338267416975823e+003 -1.9880899335767170e+000
    2.4009999841376266e+004 -5.0000000000000000e-001
    3.8385303982332525e+003 -2.3181462394482573e+000
    4.0270909638001945e+003 -1.7820841966681893e+000
    6.1275228230034975e+002 -6.1760121335574674e+000
    1.7734324015334782e+003 -2.8344634905970150e+000
    4.1609301594130948e+003 -2.7511356203496615e+000
    3.2283492799794967e+003 -2.5210974343824009e+000
    4.3711026123385209e+003 -2.2073977486354597e+000
    1.6292012853658567e+004 -9.3300782264796811e-001
    2.7555525597848800e+003 -1.5923903321612296e+000
    5.0338636637762556e+003 -2.8303690164857169e+000
    3.1577758370328506e+003 -2.7947828583347345e+000
    7.0419944062195409e+003 -1.3198240306469398e+000
    1.0180219656251182e+004 -9.5399809616700737e-001
    1.0067727594269985e+004 -7.3379938852274118e-001
    3.2288053842254199e+003 -2.7063602031069278e+000
    8.8039723564080159e+003 -1.0083683491533681e+000
    2.9638587166285633e+003 -3.0860669932858076e+000
    3.0900363593576458e+003 -3.1530983152301491e+000
    2.5892271585643886e+002 -5.7195391581627586e+000
    3.2541912821339565e+003 -2.4735106743566098e+000
    2.7808491652239518e+003 -2.8520787699915795e+000
    4.1290820038757347e+003 -2.0206878016882750e+000
    5.1409034117783012e+003 -3.2652551969236936e+000
    1.3069388738899792e+004 -5.4433105835423945e-001
    2.7902221302490520e+003 -1.6124253449530401e+000
    5.1875632999898380e+003 -1.9715333333825376e+000
    1.1962747008962363e+002 -3.3643668983312591e+000
    3.3117241701227267e+003 -1.9655172481697305e+000
    2.1088601334286727e+003 -2.1079818108612192e+000
    3.9505576911325988e+003 -2.1801286904143660e+000
    3.4653193504647669e+002 -3.7525323882491439e+000
    3.9716139726265560e+003 -1.4680580720246539e+000
    7.3015753249906766e+002 -5.1469871456834291e+000
    1.3119288050944967e+003 -3.7019232257838168e+000
    9.7955394227913052e+002 -6.7469276166468930e+000
    4.0927505434677380e+002 -6.0534695791669204e+000
    2.7541359163004277e+003 -2.8103427782784696e+000
    1.2571445160886135e+002 -3.0171992174767688e+000
    3.9053883167788722e+003 -2.8261608500151407e+000
    2.5734489626109767e+003 -3.0413000776320045e+000
    2.7669651300829510e+003 -2.8954601828442348e+000
    1.2185964693419737e+002 -3.2907433854491428e+000
    4.7272503234473797e+003 -2.1411431842930249e+000
    4.4730288408751103e+003 -3.5862476138574131e+000
    1.2529917544430746e+004 -9.7849210958016319e-001
    3.4837370453252729e+003 -3.2646432386250455e+000
    4.8709866774372031e+003 -2.9163029674545551e+000
    2.9695203294959783e+003 -2.8446050738077613e+000
    2.6907133099780040e+003 -3.5300903834359403e+000
    4.2548505384471196e+002 -6.7296105463117994e+000
    3.1854457232260138e+003 -3.6816375774635985e+000
    2.9885089437666279e+003 -2.5360628731087478e+000
    6.9905068845823789e+003 -1.2737804148704341e+000
    3.6489160176965320e+003 -2.7165503895382117e+000
    1.2529917544430746e+004 -9.7849210958016319e-001
    1.2503343083485292e+004 -1.1717002088499511e+000
    1.2123982139491201e+004 -1.4517471376684028e+000
    4.2993408318519678e+003 -2.7307350132551425e+000
    3.0852492560488131e+003 -2.2165993321344981e+000
    5.4902411405049070e+003 -2.4009801244380982e+000
    8.2734711536732684e+003 -8.1838792969832452e-001
    4.0730031663201466e+003 -2.4597478854118409e+000
    3.4040475108124110e+003 -2.7646366938073106e+000
    5.5940358389654702e+003 -2.3590009436637391e+000
    2.1191023266990428e+003 -3.3979775111567432e+000
    7.6251047128844198e+002 -4.7160685048714157e+000
    3.9053882426587647e+003 -2.8668249935508650e+000
    1.9927412697942270e+003 -2.0022858464346958e+000
    9.3837221220063348e+003 -9.2821074648361812e-001
    3.2143060477045037e+003 -2.7946122052787148e+000
    1.1561857253973061e+004 -1.0834726777719228e+000
    8.9170901394387711e+003 -7.4278135438614779e-001
    9.8020415462471810e+003 -8.1649658687099580e-001
    2.5486369729360554e+003 -2.9190969363347601e+000
    2.0957646039806561e+004 -6.5465367070797709e-001
    1.6470724008271565e+004 -6.8599434057003539e-001
    4.4066173870731262e+004 -2.2941573387056174e-001
    7.8745121834627162e+003 -1.0249000722988115e+000
    1.2005000077979810e+004 -7.5000000545924173e-001
    1.0805344229463224e+004 -1.0125791163069118e+000
    4.9661101483983002e+003 -8.2734030326743413e-001
    2.6092913221196582e+003 -2.7304641784325048e+000
    2.4171047408001755e+003 -2.4538495715952187e+000
    2.5827378261058880e+003 -1.9765850699639325e+000
    1.0180219656251182e+004 -9.5399809616700737e-001
    4.0130041743869624e+003 -2.4444059134720755e+000
    1.2296661867516577e+004 -8.9625815953027177e-001
    1.4316797809353735e+004 -7.4535599249993001e-001
    7.7203470541038450e+003 -7.6367447895719920e-001
    3.4729010895937395e+003 -1.9707737479658991e+000
    5.0425294337640125e+003 -3.2290250182614728e+000
    3.6196436537306217e+003 -2.1105793999236249e+000
    1.0557671654413154e+004 -9.3440451152135229e-001
    3.2084712199905930e+003 -2.0712746373273769e+000
    2.6507033865285939e+003 -2.3873994526319215e+000
    3.3082839181875447e+003 -1.7740173039563301e+000
    2.9240968374995068e+003 -2.9685489567151029e+000
    9.1178698718712860e+002 -3.7073388024470026e+000
    5.4116705855479711e+002 -6.1701159125185097e+000
    2.1371739930521588e+002 -5.5921681303682345e+000
    2.9432580124910655e+003 -3.9993249599861862e+000
    8.8892597021005415e+001 -3.3686444122501840e+000
    4.9928818851371489e+003 -2.5993762516488998e+000
    4.6382064144205560e+003 -3.5013532770259896e+000
    3.6332161786431107e+003 -3.3101459453255901e+000
    2.8869526532771772e+002 -4.1257210870549530e+000
    2.4140484778359983e+003 -1.7972143573914336e+000
    2.9240968810648465e+003 -2.8163156902574111e+000
    1.3719999909357866e+004 -1.2857142857142856e+000
    2.6781301259245352e+003 -3.4020395215528780e+000
    5.0425292827164567e+003 -2.4414578615079781e+000
    5.0338637604130081e+003 -3.3545115083002690e+000
    3.3870697992498831e+003 -3.3151245355344310e+000
    9.5267893878360962e+002 -7.8017698010905390e+000
    2.6016211062835464e+003 -4.3748626754448408e+000
    2.5909485801420524e+003 -2.5359138659907301e+000
    8.5559230777422781e+003 -1.0690449594975804e+000
    4.1531418281750030e+003 -3.0054493596239280e+000
    1.1259929065548769e+004 -7.6207350079327818e-001
    1.6470724008271565e+004 -6.8599434057003539e-001
    6.3499690145133191e+003 -1.1570643185855838e+000
    3.7881843753726366e+003 -1.9130252237909846e+000
    2.8774617353951330e+003 -2.5766525413844845e+000
    4.0775895352070584e+003 -1.8893454254549060e+000
    7.8416330748929204e+003 -8.1649657712403312e-001
    3.3646506011152924e+003 -2.2596830955887723e+000
    4.7158388433453574e+003 -2.6761059886984575e+000
    6.8819801503681383e+003 -2.4721815371999503e+000
    2.7669651469344426e+003 -2.8666496611357215e+000
    1.3366312378432867e+003 -4.6414672894355116e+000
    3.0268567632920877e+002 -6.9163235931738889e+000
    1.4075229332094338e+002 -6.2271605520881641e+000
    2.4402057194941285e+003 -3.0235785265062418e+000
    2.5474463663564259e+002 -4.9429052597239655e+000
    3.5668361060541220e+003 -2.4140394385410291e+000
    3.1446298009485731e+003 -2.6685477734611029e+000
    2.6750117015930805e+003 -3.0916941003672633e+000
    4.8351896951260113e+002 -4.3976865615558722e+000
    2.7507448231341828e+003 -3.1219406999085906e+000
    2.0225671904961043e+003 -3.7802042083913272e+000
    9.8664868563854161e+003 -1.4896299460435707e+000
    2.6080883466681926e+003 -3.0415024575974634e+000
    2.6209248366332426e+003 -2.8245077366168951e+000
    2.8336054444503507e+003 -3.6142926918935045e+000
    1.6158301177031985e+003 -3.9790069120903944e+000
    6.5513974155311564e+002 -6.7533146443406675e+000
    1.8221218707755116e+002 -7.2987325679674280e+000
    3.4177123187616667e+002 -4.8059355446056351e+000
    2.3117016191905223e+003 -4.6214775994135335e+000
    6.7385710435042301e+002 -4.3045744659123750e+000
    2.9240967617337037e+003 -2.3596157980704335e+000
    4.5036620862617183e+003 -1.8991911173662654e+000
    2.3900088298552696e+003 -3.5959629107162856e+000
    1.0022262625860150e+003 -3.4593711385384878e+000
    4.1760470173761354e+002 -6.7832499747549448e+000
    7.5192048465460982e+002 -3.8833044599184010e+000
    2.8262342527137835e+003 -3.3694692147273617e+000
    9.4356597914680276e+002 -4.1263818300572161e+000
    5.7361342635120218e+002 -4.0225806102958899e+000
    1.5513039335152589e+003 -5.0638669826634803e+000
    7.4535319993354847e+002 -7.2447648466820889e+000
    4.4334867891030285e+002 -8.5770703952293168e+000</input_scale>
  <output_scale>
    1.0526315789473684e+000 0.</output_scale>
  <inv_output_scale>
    9.4999999999999996e-001 0.</inv_output_scale>
  <weights>
    <_>
      2.4868376185727452e-002 2.7406284666203668e-002
      -2.3100091913034651e-002 3.7765122436947969e-002
      4.1449053682617934e-002 -5.0693133241082378e-002
      2.8414320048983571e-002 2.0238207476359349e-002
      -1.1381100971762332e-002 2.3391578616055907e-002
      2.6060373794323768e-002 -4.0559157693112149e-002
      -2.4932768034334092e-002 -1.2849006905272782e-002
      9.4325006831972487e-003 -1.5945310595848004e-002
      -2.9997268562514324e-002 4.0434248097164581e-002
      1.0241388621233137e-002 2.0641605145244938e-002
      -9.3056746854013397e-003 9.4316280282925827e-003
      2.5971757721850206e-002 -2.9846847568283916e-002
      -2.7960675583595208e-002 -1.3060345821635882e-002
      1.2579732554934388e-002 -2.1751142500850147e-002
      -2.2711965101101114e-002 3.1039754933227102e-002
      -7.8049904358639313e-003 -3.5582641480957273e-003
      -6.3837231033295519e-004 2.8001935843072474e-003
      -5.9558595502022778e-003 -1.9575785776881506e-004
      -8.8814243887097785e-003 -1.2438115483171313e-002
      4.0749357279139574e-003 -1.3676209044620285e-002
      -9.6926881656819539e-003 2.5466835647435560e-002
      -4.7902337689936306e-003 -5.4576788725089614e-003
      -4.1523871817985549e-003 3.7576398732224370e-004
      -2.4745091847460585e-003 4.7146862080391436e-004
      -4.2616909989773143e-003 -5.4892181099461274e-003
      5.4531700023176958e-003 6.9868682300905979e-003
      -4.5448313117317646e-003 -1.6192634170425105e-003
      8.3387460991840787e-003 -4.1333709523239055e-004
      -2.1478642861483600e-003 3.1271808704903744e-004
      5.5197666552380363e-003 -8.0440310933693887e-003
      9.1175296664854372e-003 -4.6546307668065591e-003
      4.7182164776376594e-003 -7.4537351625284854e-004
      8.9807783655265587e-003 -1.0805501013649610e-002
      1.0608793778152128e-002 2.3939968235651538e-003
      -1.0435706496893654e-002 6.4050570791603168e-003
      4.0569022214345793e-003 -1.8245593272333396e-002
      -2.5571015550982158e-002 -1.4812826865675460e-002
      5.1758929768710516e-003 -2.0868902962027380e-002
      -2.3306938120775954e-002 3.4701745611807396e-002
      1.8953622783401663e-002 1.8658361260292328e-002
      -1.6870689281702878e-002 2.5681329791716334e-002
      3.3674499905737093e-002 -3.5859038422951059e-002
      -7.8430969865439723e-003 3.2904392660985401e-004
      4.6872658832244384e-003 2.0925404680349153e-004
      -2.6060155679604813e-003 1.1319298270690397e-002
      -4.7075046702101881e-003 1.1494990630644189e-003
      -2.2200238746900216e-003 -3.0831804057538216e-003
      4.9078775663185022e-003 -2.0710920605787192e-003
      3.5100751841263170e-002 2.6146984283552829e-002
      -3.0675425528381747e-002 3.7242855654073329e-002
      3.8220759851728743e-002 -6.8711291342954603e-002
      4.4581288852881686e-002 3.8672026216585387e-002
      -2.5884314093635691e-002 3.7011409480334864e-002
      5.3765133336432881e-002 -7.7778587595092902e-002
      -1.3402229502605013e-002 -1.0599160749098661e-002
      1.4049051332350305e-002 -9.5438511862522175e-003
      -4.5926121781370731e-003 1.8246937532051824e-002
      -1.9336227681460696e-003 4.4130948293131843e-003
      4.2653270335535993e-003 1.7921327491395828e-004
      5.5949103823755234e-003 -6.7414572817473721e-003
      4.0653834544652438e-003 5.0651870657453992e-003
      3.7791709254366103e-003 1.1471329225994319e-003
      5.1980644526787587e-003 8.6872979097182780e-004
      1.3433213042580886e-002 1.3097043165108714e-002
      -1.3504049870879666e-002 2.1033679957196242e-002
      1.7603887251479988e-002 -2.5223058166542064e-002
      -3.6090174674318902e-002 -2.7211086780683461e-002
      2.7032989588929759e-002 -3.4712359437766821e-002
      -4.1987606527812520e-002 4.9339723673508744e-002
      -1.3347115584610327e-002 -1.1064254110029202e-002
      -2.7460788784597211e-003 -2.6323498138862843e-003
      -6.4275827581777439e-003 1.0791892427032157e-002
      -5.0280286631344687e-003 -8.4352642229416786e-003
      7.2634368356972396e-003 -3.9390550018870143e-003
      -4.1583538204794006e-003 1.1881049962382281e-002
      -1.1880707416963178e-002 -9.4115689555072431e-003
      6.5183734912120650e-003 -4.7866520932827198e-003
      -1.1362392581740582e-002 1.2583763165205921e-002
      -8.5523207982634046e-004 1.3961685046319334e-004
      -8.3392993960976422e-003 -2.4301677078627463e-004
      1.1505783043239929e-002 -8.6466621474368087e-003
      -4.3744384012573176e-002 -3.4793086475232528e-002
      2.2026926514689578e-002 -3.4296098576944260e-002
      -3.7521213862055078e-002 6.4300234814130067e-002
      5.2098028031543012e-003 1.3746111525219065e-004
      -8.6682362326631298e-004 4.1469396091513193e-003
      4.2255438968836030e-003 -3.1637643015181146e-003
      -5.0991192705229400e-003 1.5041247651061420e-003
      -6.6474390677878047e-003 2.8796289708194474e-003
      5.3972733897606926e-003 -6.7041026613138517e-003
      -1.6432939313710641e-002 -1.2777760439753221e-002
      7.0237495255912937e-003 -1.4488190938638269e-002
      -6.4402201153506743e-003 9.3266581316782324e-003
      -2.6878854025036765e-002 -2.0965293351928357e-002
      1.7936310566481522e-002 -2.3948653402522897e-002
      -3.2941563571516050e-002 5.1077383763426062e-002
      1.4986891222115087e-002 1.4474446585488944e-002
      -1.2009833496803797e-002 1.4852812757537654e-002
      1.9921704007219109e-002 -1.9876577596815950e-002
      -3.7013939632318600e-003 -5.9717443613949862e-003
      -1.1071055937092252e-003 -3.4442798385747862e-003
      -6.6374360270189609e-003 1.6589716728285599e-002
      4.4244013343714503e-003 6.5541954984284258e-003
      -5.5051112699296039e-003 2.4480098717376036e-005
      3.0467391842915748e-003 -8.3404289347241197e-003
      -2.7385014316387832e-002 -1.5726941927592837e-002
      1.0622664050507871e-002 -1.3757993150578499e-002
      -2.6140635996226666e-002 4.0061279290571246e-002
      -3.4374435315654450e-003 -1.7199837676182426e-003
      7.0078240730916544e-003 -4.0476110084179300e-003
      -2.0943591897781785e-003 7.6881942712085545e-003
      -1.0801910835814546e-002 -1.6350629684050513e-002
      1.0301270460703862e-002 -1.8166853153530435e-002
      -2.5318931831063939e-002 2.3751022618417529e-002
      6.2732906098582411e-003 8.1249918864305277e-003
      -5.4402455661467109e-003 5.6925379547553981e-003
      1.0353266152407550e-002 -8.4619140014406333e-003
      -4.1290816049963802e-004 -6.5831608336107362e-003
      3.0894812262916697e-003 1.7551009527868651e-003
      -1.2798314724889556e-002 2.5896473327174097e-003
      -7.7865067127544721e-003 1.5847923945943110e-003
      -4.9417838353195053e-003 1.0091773668427927e-003
      -6.7540676732403635e-003 1.2923405400157246e-005
      3.1455716256392284e-002 2.2505429559414140e-002
      -2.0816851699481286e-002 2.9934881309548658e-002
      4.1886305090633444e-002 -5.3457591701357540e-002
      -2.5942909692397018e-002 -2.6099237916380792e-002
      1.8361739769713187e-002 -3.0119302444064529e-002
      -3.3965071672239777e-002 4.0920979866212577e-002
      1.8116090800962853e-002 9.3410701444402288e-003
      -1.1293893236057045e-003 1.2725194146993064e-002
      1.1759318613172854e-002 -2.1683413453511765e-002
      2.0777618629558330e-002 2.2219709850147863e-002
      -1.9427814370697075e-002 2.1557374329772925e-002
      3.7030458589164296e-002 -4.7424598146779712e-002
      1.8907683715311444e-002 1.2301441168322878e-002
      -1.4220699480044768e-002 1.6574852044150167e-002
      1.1993951568722587e-002 -2.0311979661120461e-002
      3.4803658637835369e-003 1.0869405434428200e-002
      -5.2582045037175337e-003 9.9106522855872611e-003
      1.2100589433909415e-002 -1.3542852636021840e-002
      -7.9179094573909748e-003 -6.5542878839874126e-003
      7.9781221663921987e-004 -9.2823915625859024e-003
      -9.0145889333008988e-003 1.1103381121306453e-002
      1.4634619328178276e-002 5.6885060716506952e-003
      -6.4023155767387605e-003 3.4202497162453328e-003
      1.4718853872625202e-002 -1.1796247665691175e-002
      -8.9993048962544605e-004 8.1852359762431476e-004
      3.6847269619442896e-003 -1.1470243483840025e-002
      -7.2368541499890195e-003 4.0244158708970853e-003
      9.2430726284446728e-003 1.4588315297303150e-002
      -2.0834281323254644e-003 1.4733350150672220e-002
      9.9796763399841726e-003 -1.9818861720493488e-002
      1.9890496904641373e-002 1.2187977434088988e-002
      -4.4965749817148419e-003 8.8771619411487663e-003
      1.7699138921601656e-002 -2.8789844137010825e-002
      1.7213418172927507e-002 1.9306925569276802e-002
      -4.8434610113530082e-003 1.9934422108300522e-002
      1.3512384240107126e-002 -3.0279805075476285e-002
      -2.4126398681587266e-002 -1.5182523305409345e-002
      1.3671674662036604e-002 -1.9888159781721169e-002
      -2.8973402873952957e-002 5.0354404967001880e-002
      1.7178344630845319e-002 2.4545075737939213e-002
      -2.0788891709205764e-002 1.6503757453111324e-002
      3.0643059457408989e-002 -3.3897772854831421e-002
      -1.9697559240517578e-002 -7.0933340575522596e-003
      1.4765181001041888e-002 -1.2454498808266384e-002
      -1.4609426115543122e-002 2.6807222686634293e-002
      -1.2947825122164670e-002 -7.4391079092096732e-003
      2.8345048516474017e-003 -1.2665096938994909e-002
      -9.6707994433022706e-003 1.3670193156909047e-002
      5.1204878804230660e-003 1.1824657220671215e-003
      -3.0889237191591550e-004 4.5901468630616723e-003
      1.3064998080146837e-002 -1.7989888619399843e-002
      1.0738416234558656e-002 1.1724567407045649e-002
      -3.3776792064218910e-003 9.3491536337501329e-003
      2.3330780169412068e-003 -4.9344714633773818e-003
      8.9421961855267358e-003 1.0124896802702213e-002
      2.7380384373200603e-003 8.0651715170291325e-003
      1.0969315202626883e-002 -1.1082955068449314e-002
      -7.5748336070440648e-003 -1.6325065179500352e-002
      9.7802577891993488e-003 -9.7495051382364088e-003
      -1.1786337138023276e-002 1.4798899750673744e-002
      -2.1144085823901787e-002 -7.9679141997001032e-003
      1.6849931917038808e-002 -1.9719809616912328e-002
      -1.8125763791413195e-002 2.4401108654241849e-002
      -1.2238711680137548e-002 -5.5542094348396895e-003
      4.8515941808626607e-003 -1.4636820428380970e-002
      -3.5299578826889439e-003 2.0815072586105987e-002
      8.6263038710328779e-003 8.1406076613940899e-003
      -7.5983416742288357e-003 3.1436413731108213e-003
      1.1209978271295200e-002 -1.8856329117833706e-002
      5.0295810038903724e-003 7.9850542285346132e-003
      -4.7320852808200812e-003 6.1186642106267949e-003
      1.4983063448811817e-002 -1.0960231100744776e-002
      -2.0218755240256327e-002 -9.0528589477290502e-003
      1.5656089875573407e-002 -1.0370002602312522e-002
      -1.3021761239274145e-002 2.9482679806753780e-002
      7.1109503714601738e-003 1.6423009670833281e-003
      3.8701115573095946e-003 -2.2723358693250541e-003
      8.3808416232301047e-003 -1.0055223967934080e-003
      -1.5256710413768110e-002 -1.5841547456573180e-002
      1.2599845064252986e-003 -1.3349867054217897e-002
      -6.2798368253842085e-003 1.1086031352107945e-002
      5.8239982185132643e-003 -5.1323525180090044e-003
      -6.8709822702147146e-003 2.3657705700347385e-004
      -6.9178818211196335e-004 -7.5300689075965257e-003
      -2.6297598388186075e-002 -1.6268420201136977e-002
      1.2283438496188202e-002 -2.6438271157972097e-002
      -2.5755392621103903e-002 2.9398800880221961e-002
      -3.6983478537467866e-003 1.9324930880020481e-003
      9.3955668673315735e-004 -2.8257033364372081e-003
      -4.8823422669700698e-003 -5.9438054784705704e-003
      -2.3427627289735305e-002 -1.9198400268841915e-002
      1.6547258852916476e-002 -1.8419595908426432e-002
      -1.6685975876311585e-002 2.8773139429777019e-002
      4.9365660829318791e-003 1.0395009704484660e-004
      4.3946131923089833e-003 -2.6594892366826003e-003
      6.6080809969270675e-003 5.1916341977887859e-003
      2.1976958930609566e-002 1.6696794594148127e-002
      -1.4196085618147171e-002 2.8939132528694657e-002
      3.0856120309154553e-002 -3.7630677367605746e-002
      -2.0420859995381516e-002 -1.9612571538367398e-002
      1.7887600456199537e-002 -1.8419417708926595e-002
      -2.4561053943621947e-002 2.2442203874605902e-002
      -6.0814219382851684e-003 -6.4162196646098202e-003
      -2.1138915503497151e-003 -7.9761052499935717e-003
      -5.8246768190032315e-003 1.5488433947403239e-002
      2.6803111126518165e-002 2.2469982122657196e-002
      -9.1849675946015664e-003 2.5614462121833641e-002
      3.4651336352223970e-002 -4.4570283563924021e-002
      -1.6892494675144466e-002 -6.3003472796050557e-003
      7.6219307471719353e-003 -5.3820843857329869e-003
      -1.2986197526743576e-002 2.3524519810782126e-002
      1.8846434550455076e-002 1.3409332076383472e-002
      -8.0276259580364419e-003 1.1926348583204988e-002
      2.4817005998288282e-002 -2.0482271653775471e-002
      1.5071450379937830e-002 1.7230158917776316e-002
      -1.2682907649043824e-002 1.6718145938755272e-002
      1.2908412908574285e-002 -2.1424804135501092e-002
      -1.2063405690581360e-002 -5.1601200394711644e-004
      9.1230494305550459e-003 -1.3260839749616048e-003
      -1.3046376227288683e-002 2.2829812038573753e-003
      -9.1603209070392731e-003 1.6688638868021498e-003
      -1.4593459120074699e-003 -3.1674265516433747e-003
      -6.5308558873986627e-003 3.7149450589991405e-003
      9.8746537751511518e-004 -4.2444875323014936e-003
      3.0467367730697211e-003 -1.7930560965419766e-003
      3.1481204318398277e-003 -1.4548631159623329e-003
      8.4763064124514457e-003 9.1721748037107299e-003
      -9.0578118222456039e-003 4.2068194585657033e-003
      1.6359784773946371e-002 -1.9249309365281901e-002
      1.1377084843828478e-002 1.7767485903196843e-002
      -1.1862276193437094e-002 2.0243378413959939e-002
      2.1581162116647633e-002 -2.5259791473985525e-002
      -3.3384568741891898e-002 -1.6792851760991073e-002
      1.9452215082293285e-002 -2.5090654936403410e-002
      -2.8506032314068806e-002 5.3121944917985539e-002
      1.5194053029055457e-002 9.1406212101029314e-003
      -7.5568257666991205e-003 2.4515658360753615e-003
      1.7590832545050573e-003 -1.9051107916362699e-002
      1.3409880550503878e-003 9.3933012576336635e-004
      -6.8440960112116610e-003 1.0175877470830542e-004
      6.3091677329723435e-003 3.0087713943077010e-003
      -4.2005619297298194e-002 -3.0754072459012557e-002
      2.8472292466177791e-002 -4.2756263961795792e-002
      -4.5760019217100205e-002 5.8008601459316189e-002
      3.3155885881348789e-003 1.2341884556136440e-002
      1.4680947678066263e-003 5.6634703631470700e-003
      3.7703138973672499e-003 -1.0510408730026049e-002
      7.4129445674658819e-003 3.6086280119127013e-003
      -5.1865455569249912e-003 1.5726211588900467e-002
      1.6517119630291378e-002 -2.5427261507049267e-002
      3.5235058125231332e-002 2.9205044744873333e-002
      -1.6593823110048277e-002 3.7423288879728248e-002
      3.3315875575832599e-002 -4.7505914733353340e-002
      4.5582422780687248e-003 1.3321644508835777e-003
      -3.7716929247238696e-003 1.2077837135929369e-002
      7.3627639112957780e-003 -1.5943849163186734e-002
      -1.1652936261611881e-002 -1.4351578379742850e-002
      5.3107399091711699e-003 -1.0466230390165764e-002
      -4.5088188513006649e-003 1.2932699607612287e-002
      4.7063800817679904e-003 4.9751891423129658e-003
      -1.0268824919266577e-002 1.7820240065505788e-003
      9.1902853492313377e-003 -1.2552941783456360e-002
      -1.0000657503929146e-002 8.5301794932667670e-004
      1.1376883489372335e-002 -8.3622701051417336e-003
      -7.2691600609110915e-003 1.2448326188194397e-002
      -1.3144637538045571e-002 -2.2594616145256733e-003
      -1.5150587811911711e-003 -6.9772219455356823e-003
      -5.6764727652564313e-003 1.2178221634858145e-002
      1.7008336360740259e-002 1.7780152437269114e-002
      -1.5524519880646844e-002 1.0133881434921645e-002
      2.1636094205416907e-002 -2.2745291695658223e-002
      -4.5634515764021843e-003 -2.2897869435682040e-004
      1.1080646806583419e-002 -1.1107415565384983e-002
      -3.2182179241626598e-003 1.3880741684209956e-002
      1.2944649728574183e-003 -5.3348515222894763e-003
      7.3375122444546111e-003 6.2350835744325334e-003
      6.4155491572950706e-003 6.2373282878771573e-003
      -5.5636544399314278e-004 -8.3196226789584281e-003
      5.5976920598910978e-003 -1.0698804534316370e-002
      -8.5639182120208473e-003 1.6950525256309020e-002
      3.2080039208898986e-002 1.9152724340913148e-002
      -2.2669020819792655e-002 1.9019223074441961e-002
      2.4321993713237830e-002 -3.6655382323275171e-002
      -1.6854175726695279e-002 -1.8301360295643009e-002
      1.3641089709674946e-002 -1.8000801045314513e-002
      -1.6772702602233510e-002 3.2835624966383405e-002
      -9.8590678718301684e-005 1.4651370412354647e-003
      2.1795965693847015e-003 -2.5828771483664662e-003
      1.8522440951543396e-003 6.7993598505585362e-004
      -9.1065188692485838e-003 -2.3452563169821749e-003
      6.1379867152267387e-003 -9.5368071651371535e-003
      -1.2289406893906601e-004 5.7461755284698487e-003
      1.1331475655882706e-002 1.1080924082979822e-002
      -7.9028004219701218e-003 2.5434588988023567e-002
      2.3280047837004696e-002 -3.5155047679204202e-002
      -9.5319744446259996e-003 -9.9208563705877797e-003
      4.6664399055073337e-003 -1.1488689784179358e-002
      -8.4095190095780838e-003 6.8974222406989888e-003
      -7.1534674920937114e-004 2.3092741433483593e-003
      -5.4387694956967566e-003 -8.8552251989697500e-003
      -4.7127788944094674e-003 1.0202918095855048e-002
      -1.4719887442997627e-003 -9.2594199845329236e-003
      -2.5937196033931262e-003 1.8669261050251898e-003
      -1.3248354387064916e-003 4.0262457950173960e-003
      -9.9162872977472008e-004 -7.9236643613089033e-003
      1.1350248829265716e-003 -1.9879204331828201e-003
      -6.5829692413131224e-003 1.4066444293266363e-002
      3.1657251399527464e-002 2.1056380783851084e-002
      -2.1910090343228928e-002 2.5136092273726349e-002
      2.2325733184766598e-002 -3.2328083206823378e-002
      -3.1613433240880222e-002 -2.7804503486007923e-002
      2.0219840103150446e-002 -2.9345990564496851e-002
      -4.2439704191329829e-002 5.3832595411823517e-002
      -8.3879782367476203e-004 -3.9802486598802672e-003
      -6.8686931755884790e-003 -1.7961884054424923e-003
      -3.6988381424993976e-003 2.3767697891711628e-003
      8.8425273191896549e-003 3.4552951616751248e-003
      -3.3477102530755053e-003 1.0533280096420360e-002
      1.0647336687575495e-002 -1.1681301960111821e-002
      6.8226147628861781e-003 9.1481051527711587e-003
      3.3576774700384486e-003 -1.2865299851156477e-003
      1.1737619722756326e-002 -1.1259801133296882e-002
      -1.2487644617560698e-002 -9.2634757515397750e-003
      5.9837237615805684e-003 -2.7753394348776065e-003
      -1.7723261699086366e-002 1.1327359534865885e-002
      -9.2332165002494138e-003 -4.4511021819814648e-003
      1.5100378652951496e-002 -6.3993521914419279e-003
      -1.4296728671120270e-002 2.2109078364222552e-002
      -1.4741283032567161e-003 -2.4437384914558396e-003
      5.0945278556059174e-003 -1.0895620630166252e-002
      -1.0948846567577178e-002 4.4691154938083224e-003
      1.1961577114968248e-002 1.2727401641538660e-002
      -7.4996995785622956e-003 1.2505591146680733e-002
      1.4086398071178492e-002 -2.8066682597383184e-002
      1.2118327409977338e-002 5.3276014768974967e-003
      -4.4181559522982307e-003 4.3766764604632798e-003
      2.5391433264640964e-003 -1.2244314857710967e-002
      -1.8592619027446262e-002 -1.6257743204603665e-002
      2.0566248835614521e-002 -2.6376852921882344e-002
      -2.2944126587520618e-002 3.7320152080282686e-002
      -8.7398976731468108e-003 -1.1163295996207230e-002
      8.8617840350073730e-003 -2.4281778245163611e-003
      -7.6725843679117355e-003 9.8927100585485539e-003
      2.6804614757283626e-002 1.3169003572654955e-002
      -8.7680802999703829e-003 1.7406319817212187e-002
      2.5147009500064463e-002 -3.0027236133847127e-002
      1.6833255150452281e-002 1.2033711676849940e-002
      -2.3105039752475977e-003 3.9148840453316755e-003
      1.7355929764966679e-002 -8.7543310465434034e-003
      -2.0410756764826669e-002 -1.0027594958086425e-002
      1.2246997073971883e-002 -1.7551205266693043e-002
      -1.3392277799105659e-002 2.0306824945337865e-002
      -1.0300512412997467e-002 1.7884822347067884e-004
      1.0544929278727848e-002 -6.9253334617747787e-003
      -4.6739659128663957e-003 1.7800401391415671e-002
      2.1521901367981804e-002 1.1437585277559538e-002
      -2.0995558773718000e-002 1.6492467467873528e-002
      2.3598344040410581e-002 -3.2119219331187221e-002
      7.7926807544483664e-003 1.3547925163136965e-003
      1.7651333090999239e-003 1.3349450361520570e-003
      1.5600021508443000e-002 -1.4804401603559118e-002
      1.2555872114044032e-002 6.2625990630499097e-003
      -1.1002196688033008e-002 9.5222050332741011e-003
      1.4485772470865551e-002 -7.9131900649536020e-003
      2.2097117485831853e-002 2.0668983745847348e-002
      -7.6729193856272734e-003 1.5361284955550928e-002
      2.5647407592389537e-002 -2.4883609767124729e-002
      2.6232641068553421e-002 1.8461269438783002e-002
      -9.8213010018333297e-003 2.3349350727491940e-002
      3.4556185705528715e-002 -3.9624622606202753e-002
      8.0524912116056360e-003 2.7347376991335970e-003
      -1.0609317868919162e-002 7.9229934373920771e-003
      1.2609708823006628e-003 -3.0256858902321529e-003
      4.1144560579917631e-003 1.4169067710427634e-003
      7.2841062751184248e-003 4.0106806856151948e-003
      -9.0063960675736202e-003 -3.7680557246246569e-003
      -4.4208013571674486e-003 9.9632053027469197e-004
      -4.2892450496967603e-003 -3.0831917608659496e-003
      -1.2041329393274052e-002 9.9683450196166052e-003
      2.4961712007004998e-002 1.8061244092267614e-002
      -8.8670512854696886e-003 2.5740162013358461e-002
      3.3514322917630034e-002 -3.7379306417907418e-002
      5.1052437930336437e-003 -8.5588203821528874e-003
      3.6180344654912315e-003 -3.0698071572282724e-003
      -7.9367392646807044e-003 7.8041759788544602e-003
      1.2900302627395147e-002 1.1558275257814091e-002
      1.9236395169617445e-004 1.0568182648552858e-002
      1.3507617464852113e-002 -1.0141688635835566e-002
      3.3965545163291914e-002 1.8625451857357960e-002
      -1.4203802905293260e-002 3.4002378631314084e-002
      3.0749142831091571e-002 -5.1558004720066608e-002
      -1.0940375083139574e-002 -1.0084359480744810e-002
      6.2112209650161824e-003 -1.6458513531581304e-002
      -2.4347823689481948e-002 2.8412584600511687e-002
      1.5691062423695879e-002 1.0732351497002178e-002
      -1.8698481517552736e-002 1.6540365446937180e-002
      2.9207157469091020e-002 -3.4998585464269816e-002
      -7.2455302565565859e-003 -2.2684629964694887e-003
      1.2875854334013927e-002 -1.0683722744243691e-002
      -1.3862274731650737e-002 1.3097644033158379e-002
      -1.8095136941228863e-002 -1.6367381028855786e-002
      1.7509689971695965e-002 -2.5017526248724390e-002
      -2.5421185995578393e-002 3.3992144329036404e-002
      -1.0543189309187429e-002 -1.6524679180070613e-003
      -1.1495413387119914e-003 -4.2668699656789426e-003
      -7.4268785841024804e-003 1.0808480212340090e-002
      3.7001078824311319e-003 4.7620985514900040e-003
      -1.5978537250455375e-004 4.2763809572719568e-003
      -5.9143045438291584e-003 -2.9731835239991682e-003
      -4.4624696442373468e-003 -4.2657104937902939e-004
      7.4759216036769036e-003 -1.6323866475735287e-002
      -1.0158892718667928e-002 1.0216112537759527e-002
      9.2182762914518723e-003 1.7468843022865527e-002
      -1.4666458154279241e-002 1.9159959791976593e-002
      1.3546117845424279e-002 -2.3421456205664534e-002
      3.6567562498381681e-002 2.4501353984420750e-002
      -2.0881022714383433e-002 3.8169390805691351e-002
      4.4105299419153775e-002 -6.1340319193201383e-002
      3.2351716203584515e-003 -4.6598590429359418e-003
      4.5700719190571179e-003 1.9961310147594172e-003
      4.7316273845374578e-003 1.8988946982905213e-003
      1.1264727310583211e-002 9.8012320019937090e-003
      -1.4112022967860312e-003 5.8232113462790098e-003
      1.7617068939045882e-002 -1.5271107176221460e-002
      1.0036235412857742e-002 2.0950294731690556e-003
      1.8630369884659347e-003 1.7912997294099765e-003
      2.6295336650499304e-003 -7.3861358785202664e-003
      1.0218939533472290e-002 5.0213860521902557e-003
      -8.5529547297264873e-003 9.9230000674143809e-003
      -1.9470690577269021e-003 -4.8777876080746607e-003
      7.5234301588789458e-003 -1.2246252585815945e-003
      -4.7435151663131727e-003 -8.8429967907217974e-004
      4.0403377278015414e-004 -1.0862322543630187e-002
      -4.9709741273661796e-003 -5.4321852872703177e-003
      -6.4184331284052965e-004 -1.6307236688843797e-003
      -4.6248805655705934e-003 8.4570709953878422e-003
      9.8104053619741723e-003 6.9028336036301560e-003
      2.4681334590942227e-003 4.7526339720138670e-003
      -3.1547506387435834e-004 5.5711935792392944e-004
      -1.1702875171071674e-002 -1.2187097712826543e-002
      7.9224756701565448e-003 -1.1118498902533174e-002
      -1.8419933414601092e-002 3.1417536621686601e-002
      1.2675311729825216e-002 1.7906724248261917e-002
      -1.5112930456146789e-002 1.1121684313213750e-002
      1.6732209694735479e-002 -1.8498786154170960e-002
      -6.8711359304030604e-004 3.0130886565422781e-003
      -4.3158641256019377e-003 3.7492365498359515e-003
      -1.6925328974661926e-003 -8.6117816899676826e-003
      -1.7964386812364768e-002 -1.7368483189407698e-002
      5.6956001407643805e-003 -1.7172774721840488e-002
      -1.3594630462897911e-002 2.5461032666197293e-002
      -1.6559663616677510e-002 -2.1197569858641831e-002
      1.2213162514893627e-002 -1.2979096764463485e-002
      -1.7224878802186250e-002 3.0264597578875261e-002
      -1.0178651560963934e-002 -1.2221332043389531e-003
      6.9566350168460958e-003 -3.7891341652880666e-003
      -1.5510052022857292e-002 1.6502667115097895e-002
      5.8865125937959031e-003 6.3408009788004681e-004
      -1.2765002205218930e-002 3.7537498147727773e-003
      1.8217446197959491e-002 -1.0004627044064088e-002
      -4.9502739644093660e-004 -2.2675648177384699e-003
      7.1470402116025535e-003 -8.4858704498206004e-003
      -1.2118193378611053e-002 1.0844869929756390e-002
      7.9316775783209710e-004 2.9347798100519237e-003
      -1.8946604772322700e-005 1.1803037695905358e-003
      1.4867655326861528e-002 -1.6666870441578385e-002
      -3.4435541329809222e-002 -3.5644544203989187e-002
      2.8281847618313396e-002 -3.9176993375809897e-002
      -4.4661132189672811e-002 6.2759637771206092e-002
      4.0706938836422768e-003 -4.5513356600290749e-003
      4.9052018365534772e-003 2.1955541364104083e-003
      -4.7355347357089005e-003 4.1758862825368699e-003
      1.3574793179505712e-002 1.9253674219115127e-002
      -9.4583195143772003e-003 1.5566410486681417e-002
      2.0779438166780614e-002 -2.5880635841193461e-002
      -2.9032263797324816e-003 -3.3299092603186458e-003
      1.4892702399948009e-003 -1.3036096694948131e-002
      -2.4482632187532090e-004 1.4989981502121516e-002
      2.1433740077141945e-002 1.1405245295047177e-002
      -1.6709427357388025e-003 1.7644849664317581e-002
      1.2594366028846489e-002 -3.3618702474339963e-002
      -1.5271402300386811e-002 -1.4761235666490465e-002
      1.4282796942655530e-002 -1.1482184707775031e-002
      -1.4686195368870858e-002 2.9108489425609990e-002
      1.9606767942215553e-002 2.0884536742469803e-002
      -9.5812184792290062e-003 2.1794000420017296e-002
      2.2451272168889570e-002 -2.6324541436693716e-002
      1.6188998254909923e-002 1.0026654339666829e-002
      -8.2445170085413237e-003 2.2295418070911861e-002
      1.9061565749225535e-002 -2.3050040549714622e-002
      1.2636257256511085e-002 1.4150921851217128e-003
      2.1840802424758095e-003 3.0837829862944631e-004
      1.1220524089833751e-002 -9.2488407866074870e-003
      2.5894716504522554e-002 2.3348047146976789e-002
      -9.6230357520149315e-003 3.1126348346381904e-002
      3.2722154400841079e-002 -3.7941587181344112e-002
      -3.2645850247961128e-002 -2.0718319205916311e-002
      8.6566601221918851e-003 -3.0620196996466349e-002
      -2.1075012245250806e-002 4.3012560352030056e-002
      -1.9937560259214556e-002 -1.0460721091092012e-002
      6.3848066469067164e-003 -9.9553948588732635e-003
      -1.3971982102792036e-002 3.1449988686749634e-002
      1.1742257811815246e-002 9.2570954801761537e-004
      -4.4037975870739243e-003 2.1969155630066485e-003
      4.0194592843907596e-003 -1.5749913908015320e-002
      -5.3851500964697009e-005 -4.9819544287953025e-003
      3.2205541636067116e-003 -4.7502703421543205e-003
      7.2714254678646062e-003 -7.3182828801270300e-003
      -1.4736661044119819e-002 -4.6890097747257783e-004
      1.7332337350336525e-003 -1.7018703328817606e-003
      -8.1641568114708164e-003 1.0967840531914949e-002
      -8.0628515157705940e-004 1.1655517248425210e-004
      -1.3568713747123240e-003 -3.7361721410204655e-003
      -3.7152471480664038e-003 1.3182313622498620e-002
      -1.6405515956881645e-003 1.3715923564301652e-003
      7.4198367107145020e-003 3.1519014632500021e-004
      -2.9363699859860102e-003 1.8241389883094875e-002
      2.1990945052749074e-002 7.6654062953698783e-003
      -1.4296259410295820e-002 1.4239107666079456e-002
      1.7090112343713330e-002 -2.1718958050864538e-002
      -1.7315219833864970e-002 -1.1486598520036398e-002
      1.2077015774426568e-002 -2.1914297595700093e-002
      -2.4951787499806449e-002 1.9298830956954286e-002
      -7.7133481191035639e-003 -7.4066947926772876e-003
      7.0974405348089098e-003 -2.7694114437323688e-003
      -7.4277977868287331e-003 8.6909566801514557e-003
      -5.7180278120046914e-003 -1.0913244108952454e-002
      7.0977884731956457e-003 -1.6905893398765956e-003
      -1.3974135998110038e-002 8.9352550507396516e-003
      3.5419209938056438e-002 2.2774895851032501e-002
      -1.7861925222318449e-002 3.7215260202979966e-002
      4.2077440860088085e-002 -5.8132810599404283e-002
      8.4783651223071209e-003 5.1899521980888919e-003
      -8.9788314362216452e-003 1.0230557612827403e-002
      7.3580252592222030e-004 -1.7493968423123298e-003
      -5.4403712134431688e-003 -1.1207094466078062e-003
      -4.0373678983967641e-003 -2.1405449495033148e-003
      -4.7548271267587794e-003 -1.1532805345767028e-003
      -2.7592083046106497e-002 -2.4797507897318809e-002
      2.1954282348797708e-002 -2.3890345987906993e-002
      -3.5545204022537656e-002 4.3215668012661246e-002
      -6.2421765071042400e-003 5.4841516245076414e-003
      -3.7347137121094973e-004 3.0196209023102358e-003
      2.0331539653042208e-004 1.1686245859445854e-003
      2.3767137041110588e-002 2.0040567775506505e-002
      -9.1288362451772218e-003 2.2296149278506133e-002
      1.7979856472612035e-002 -2.6307096806382192e-002
      8.4266477684724200e-003 2.4180677822463344e-003
      4.9846194209827426e-003 9.4998087387788699e-003
      1.9163282527126769e-003 -3.3581114100074442e-003
      -1.9507943558926346e-002 -1.0161669486721181e-002
      1.1879351086371706e-002 -2.4889676914284637e-002
      -2.4044255244160793e-002 2.6260350593633981e-002
      1.9046396374613635e-002 2.6410495327763937e-002
      -1.5187590247541398e-002 2.9354304091086525e-002
      2.7849863889516335e-002 -3.7667639473294531e-002
      1.0944554528161298e-002 2.0799389972254959e-002
      -7.0486408320942634e-003 2.2907614973082975e-002
      1.7039405858097881e-002 -2.4008101313888787e-002
      2.6129631998491561e-002 7.9051242958886551e-003
      -1.0296417599240158e-002 1.0760350705749357e-002
      2.2364432888927945e-002 -3.2078911012712867e-002
      -7.1568574558558071e-003 -3.3719838776765385e-003
      3.5473083311195284e-003 -6.5564132164758360e-003
      -1.8637693723116897e-002 1.8912890861188639e-002
      -8.6217193736109754e-003 -7.6391424432839467e-003
      1.0998041223610826e-002 -5.8480847619799461e-003
      -1.5403765614059189e-002 1.1422315223687239e-002
      -1.8117643470742163e-002 -2.0841920022365627e-002
      1.8122289676146985e-002 -2.2809673800076754e-002
      -2.0367887725599814e-002 3.1689647113846101e-002
      2.9184589357916204e-002 2.4968927408408337e-002
      -1.8752163236733062e-002 3.0488659108334641e-002
      3.3392126613143953e-002 -3.7071061903690146e-002
      1.0676184533289168e-002 1.0883406532804280e-002
      -1.1245384149588608e-002 8.6988173403543950e-003
      9.9097410298979970e-003 -4.9486785760451653e-003
      2.7196959468295489e-002 1.9267824072733832e-002
      -1.9009904920307633e-002 2.4491988000075411e-002
      2.0717582412514854e-002 -3.0685375117929754e-002
      -2.4230166862964663e-003 -5.3120201110024180e-003
      -7.3573406614104112e-003 2.9381847654716109e-003
      -5.0486100913536558e-003 -4.0931748235571788e-003
      1.0704898898345696e-002 -2.5975323523573690e-003
      -3.6302769832465334e-004 -1.3720591006931013e-003
      1.5135763369549665e-003 -7.9687312279721426e-003
      -2.4269811601611790e-003 -4.0122909784269002e-003
      8.8320234106561979e-004 -4.5670670525433684e-004
      1.0539672865969075e-003 8.4713673076677407e-003
      4.1805528752429082e-003 9.4093045924214819e-003
      -4.2530255441052874e-003 1.6937421374435754e-003
      5.8826667595736661e-003 -1.0385565905523799e-002
      -1.2380072953049727e-002 -1.2031544219107649e-002
      3.5640681649391319e-003 -1.0243268913242435e-002
      -1.1518360154454930e-002 1.5830197752086900e-002
      -7.1446631803008000e-004 4.6206797694807343e-003
      1.0420123715518008e-003 6.8151709722522125e-003
      4.4358011808513075e-003 -2.2443395646719471e-004
      9.5991677068269412e-003 9.9341162073385003e-003
      -6.4755110213515392e-003 1.5321693914703815e-002
      1.4618747745175222e-002 -2.3831640129022783e-002
      1.0733490488669532e-002 6.6980526790788603e-003
      -5.5233771926202413e-003 8.8255765253921793e-003
      9.3229200391674646e-003 -1.1494291233523767e-002
      2.9857014806129747e-002 2.7530757552982340e-002
      -2.0099244330554097e-002 2.6789235284491061e-002
      3.5601211315975427e-002 -4.4737917164813575e-002
      -3.4865991649506115e-002 -2.3498281520329345e-002
      2.0089067167879573e-002 -2.3358422597128888e-002
      -3.0771989574684841e-002 4.3180521873963186e-002
      3.1961216053686584e-002 1.8060747378608102e-002
      -1.6437117007017183e-002 3.0141014284477366e-002
      3.9569556998603268e-002 -4.5040767938812426e-002
      -4.5105120349903686e-003 -1.3652686402725423e-002
      2.8532679104092034e-003 -8.6333359142310283e-003
      -5.4095687141116318e-003 1.3738937246100522e-002
      1.2332377073104875e-002 2.3620817188264491e-003
      -1.1822778381177361e-002 1.5432498133763576e-002
      1.6799325271626902e-002 -1.3983137527515335e-002
      1.9178916978195605e-002 2.3206782756953648e-002
      -1.5151984878787834e-002 1.8096038720324087e-002
      3.2732594938274656e-002 -4.1539079916276943e-002
      3.5606181356227923e-003 2.1422585123965937e-003
      -5.0828230228623875e-003 2.3226255751564321e-003
      2.2535156521514698e-003 -4.6238772991659309e-003
      -1.7100447209543575e-002 -1.3181634692482970e-002
      1.4667704936645879e-002 -7.8770749365007567e-003
      -1.6535892428203722e-002 2.3258646902918467e-002
      -3.2387987285814462e-002 -2.7276456511502862e-002
      1.1748420596324799e-002 -2.1496620984247622e-002
      -2.5163143395316379e-002 4.0879347007857225e-002
      2.4454571303521667e-002 2.1930372553472025e-002
      -1.4994610106654210e-002 1.3025585515527521e-002
      2.3292439828727363e-002 -3.5279221978209839e-002
      6.6023213506290201e-003 -1.2838292067015530e-003
      1.6586325680364188e-003 4.0398935992108420e-004
      -1.9526481823624864e-003 -1.0285229086845851e-003
      -5.3485903073787677e-003 -1.3173716580775527e-002
      9.0037335943922887e-003 -1.4522170564633506e-002
      -6.2859901116679526e-003 2.2251449491500177e-002
      4.7224934630276843e-003 6.0070749381237040e-003
      6.3351010915304717e-004 -4.9542022765486802e-003
      -4.3487302326008603e-004 -2.1503097748825310e-003
      -1.6260691605957205e-002 -7.3730750170895691e-003
      7.9354532418454866e-003 -1.3936923654878098e-002
      -6.2075285221092451e-003 2.4414804206472872e-002
      -2.0890864863168327e-002 -2.6260325271311905e-002
      2.2867889144754239e-002 -2.1578527954913301e-002
      -3.2942468598798992e-002 3.3687317489546058e-002
      9.5686892313205166e-003 -7.9605267469349899e-004
      -8.6122321590964886e-003 -7.8117259985504011e-004
      5.3611507625400271e-003 -1.7820664295008608e-002
      1.4831246962478456e-003 -2.2833640808600886e-003
      1.0631339333555274e-002 -8.9074437089817458e-003
      -1.2143785110344441e-002 9.5838277712145519e-003
      1.5058617074787325e-003 -1.7156579754500864e-003
      -8.0841867505629557e-004 -6.5024410525530655e-004
      -5.5779193683505460e-004 -3.1449589449668680e-003
      9.7108278145750775e-003 6.4153251866923642e-003
      -7.8257066825145067e-003 1.0121286818697365e-002
      1.3344434791239070e-002 -3.4656245525022833e-002
      1.6618928220608967e-002 1.4449039293784837e-002
      -1.0678006135216958e-002 1.8855647614693098e-002
      2.0330796966725666e-002 -1.8866681022262872e-002
      -2.6985736913710749e-002 -2.6472776910628590e-002
      1.4278009483443477e-002 -2.0780574805477653e-002
      -2.9566999797060265e-002 4.1999243771529977e-002
      -9.7534981424624596e-003 -6.8703377915981445e-003
      4.6018358155919736e-003 -3.4140805653813640e-003
      -9.4164522259661992e-004 6.8141288050899470e-003
      3.1320720085586791e-002 1.5116843866242574e-002
      -9.5498728697016987e-003 2.1814309597326071e-002
      2.6023655353908902e-002 -3.4323946508820133e-002
      -2.1200298471695336e-003 -4.9122888679664651e-003
      3.0093495303312848e-004 1.8657420123804258e-003
      4.8224081005212389e-004 1.1167006236992550e-003
      -5.6016443723338654e-003 2.4382092024891690e-004
      7.3616485785721148e-003 -8.6196587938328975e-003
      -3.6579616656748277e-003 1.6322531705953113e-003
      9.2022638265048858e-003 -4.5574555307385193e-003
      2.7046951725789520e-003 1.0375042310583458e-002
      1.3795914603534000e-003 -6.2071232497432618e-003
      8.9663794013363045e-003 6.1517214024653516e-003
      -1.6527432826748512e-002 1.3365617475561425e-002
      1.2594998531185970e-002 -1.3956854613838582e-002
      2.3752303158803244e-002 1.6368804288318054e-002
      -1.8293168326462488e-002 2.2333319123684834e-002
      2.5349553239025446e-002 -3.6558196276085010e-002
      3.7061280039922891e-003 -3.7329195501160733e-003
      1.3250573288715595e-003 1.0237138574076602e-002
      8.5302280480176185e-003 -1.8509334630973393e-003
      -1.6803172941964317e-002 -1.6550191384284884e-002
      1.7406587375589835e-002 -1.8698007498726174e-002
      -2.6579380316728681e-002 2.9540709571183682e-002
      2.8635933446202150e-002 2.0250820826555969e-002
      -1.4503254100678807e-002 2.5764867465287083e-002
      2.6889961300622958e-002 -2.9811484643204041e-002
      -1.0523482511975825e-002 -5.1906302235754775e-003
      9.8580114199177671e-003 7.5980475782371718e-004
      -1.2822938666228632e-003 8.6129098097878047e-003
      -1.6288788574464096e-002 -3.1814908604605824e-004
      2.2485355251219879e-003 -1.3180418652539648e-002
      -6.1811317413192684e-003 1.7214160317969306e-002
      -4.2548229125625751e-003 -7.1410538188283737e-003
      -4.5712308378707467e-003 -2.9053023411262490e-003
      1.8517283735831902e-003 1.1720371019919049e-002
      2.3902119707638125e-002 1.7440573999278938e-002
      -1.9189719315039964e-002 3.4521320783413523e-002
      3.1332304643384282e-002 -3.7865760728755235e-002
      1.3909637964418256e-002 6.1229429591910245e-003
      -1.3767809809746595e-002 1.4088529875135205e-002
      2.5180742928201584e-002 -2.8877798991505808e-002
      2.0744026480528015e-002 1.3971091524411465e-002
      -1.7407282517116620e-002 2.1345220773846187e-002
      1.6023672990254312e-002 -3.4512428916882359e-002
      -9.7790420040374890e-003 -1.4507618714452242e-002
      3.4718837118293115e-003 -8.4119468862336108e-003
      -3.8609280858356273e-003 1.2352489943080283e-002
      1.4942724386289567e-002 6.0062057192843445e-003
      -1.3278424364214217e-002 1.3908497586399610e-002
      1.4735203737734976e-002 -2.2285827794944490e-002
      8.5874252369305595e-003 3.8771063444028083e-003
      -2.8562266497031397e-003 -1.4911990842659893e-003
      -4.3694593333626499e-004 -6.1271035708748822e-003
      1.6301223745263733e-002 1.4077837829845213e-002
      -6.1281876447151044e-003 5.3905512175873808e-003
      8.3704168289094050e-003 -2.2112068676720976e-002
      7.2763141605780846e-003 1.2302120515406733e-003
      -1.0353729994658866e-002 1.0281262939533984e-003
      1.5610583251861388e-002 -1.4213463025806821e-002
      -4.4223233654769236e-003 7.8341517751374951e-003
      3.7614871845813402e-003 -1.5013667434869591e-003
      6.1390504609763231e-004 -8.7955116409838899e-003
      8.4720969738774944e-003 1.3535286781176263e-002
      -7.6404571764716626e-003 8.5947332829961216e-003
      1.7471125313162354e-002 -1.7493913995560380e-002
      1.3616422682258647e-002 8.2538395452456843e-003
      -1.2548443232115821e-002 1.4658624337958484e-002
      5.0950973298310468e-003 -1.4917506925065452e-002
      9.0199474020320591e-003 1.5251522578015963e-002
      -3.0994911036340386e-003 1.1453985363864496e-002
      1.4222383944082666e-002 -2.8850335540657811e-002
      -3.2584147025498367e-003 6.8052601167456765e-004
      6.1698448654443887e-003 7.2634984722995009e-004
      -4.4686046340620860e-003 7.1244389857289406e-003
      -4.7887938259626658e-002 -2.3484138501343576e-002
      2.5966819998571027e-002 -3.7394991322584281e-002
      -4.1709673531895058e-002 5.6232648058176300e-002</_>
    <_>
      4.9406286259653759e-001 3.9152187155354146e-001
      -2.9611999338496281e-001 4.6299713990523111e-001
      5.5957441747580228e-001 -8.2215274841179797e-001
      2.4270744703282587e-001</_></weights></opencv_ml_ann_mlp>
</opencv_storage>
