<?xml version="1.0"?>
<opencv_storage>
<opencv_ml_ann_mlp>
  <format>3</format>
  <layer_sizes>
    256 6 1</layer_sizes>
  <activation_function>SIGMOID_SYM</activation_function>
  <f_param1>6.6666666666666663e-001</f_param1>
  <f_param2>1.7159000000000000e+000</f_param2>
  <min_val>-9.4999999999999996e-001</min_val>
  <max_val>9.4999999999999996e-001</max_val>
  <min_val1>-9.7999999999999998e-001</min_val1>
  <max_val1>9.7999999999999998e-001</max_val1>
  <training_params>
    <train_method>BACKPROP</train_method>
    <dw_scale>1.0000000000000000e-003</dw_scale>
    <moment_scale>0.</moment_scale>
    <term_criteria>
      <epsilon>1.0000000000000000e-004</epsilon>
      <iterations>300</iterations></term_criteria></training_params>
  <input_scale>
    3.5110974994065472e+001 -1.9225203474560184e+000
    6.9630557393485208e+002 -7.4877122264304496e+000
    5.1997833272452942e+002 -3.5421779776219919e+000
    6.8674592021796775e+002 -8.4035677137042590e+000
    8.9399393801061137e+002 -5.8109693476435034e+000
    3.9580426334666263e+003 -3.9006264591060638e+000
    7.5786796700913703e+002 -7.7712072699446564e+000
    3.9680198723421518e+002 -7.7388176896559449e+000
    4.7247906919360588e+002 -3.1474100807183314e+000
    3.6149300777529616e+003 -3.6960107423642810e+000
    3.4976610678592369e+003 -2.3939825744441712e+000
    3.7840668816726093e+003 -3.1565019097556841e+000
    8.4138033369407617e+002 -8.3833315045411094e+000
    3.6819670001371946e+003 -4.5600654455425902e+000
    2.3586558170102978e+002 -5.5933829237054979e+000
    1.8615996142122256e+002 -6.5144851239812258e+000
    6.5963989092192958e+002 -7.2411227218013332e+000
    5.5701929146865778e+003 -3.8817183611535246e+000
    4.0264552126584908e+003 -3.9022415572798348e+000
    7.0081209654304475e+003 -4.0339223227773466e+000
    4.5200066571254883e+003 -4.3007862521466578e+000
    2.4850842446785631e+004 -1.1778112655023998e+000
    3.6389951922491155e+003 -4.4200151906246834e+000
    6.7818306268685974e+003 -3.6243596103462004e+000
    8.3896057658129519e+002 -1.0058598165916905e+001
    7.6812128766658479e+003 -4.0598165245722386e+000
    4.4891289866352208e+003 -3.4834483902660374e+000
    6.8747854382865198e+003 -3.4740432727651585e+000
    3.6787813976010187e+002 -7.1925131642512010e+000
    5.9502771363431739e+003 -3.2227475493017792e+000
    1.3652755367099584e+002 -4.8875166470223341e+000
    5.8781100538265252e+002 -6.7229618424399558e+000
    4.4338726084236060e+002 -3.4414403891026253e+000
    4.1331955622715732e+003 -4.2407615027733119e+000
    3.4878643129593038e+003 -2.6768513679605657e+000
    5.0235110632149544e+003 -4.6862765259088759e+000
    4.8832648497737255e+003 -3.4397282833574199e+000
    1.5807002709668572e+004 -1.2658498598143846e+000
    5.0971264753121168e+003 -4.1734933194516790e+000
    4.1191753845931989e+003 -4.2290692736748543e+000
    2.5850185090655968e+003 -2.6083560000574639e+000
    1.1984030063460368e+004 -1.8214717017773352e+000
    1.6401883276622073e+004 -1.4796853866319957e+000
    1.8389336579975792e+004 -1.7972307301971144e+000
    4.3428458581507002e+003 -4.4785802374770940e+000
    1.2834839525456677e+004 -1.5816062736126508e+000
    4.4793505784990220e+003 -5.1684025712999713e+000
    3.7624631385059397e+003 -6.1195459861377328e+000
    7.6034095277566121e+002 -1.0626054188511389e+001
    6.9916314975649220e+003 -4.4380719617325397e+000
    4.7042785459719107e+003 -3.9548550765655843e+000
    6.1912250521724127e+003 -3.3532480842631638e+000
    5.4857384908309496e+003 -5.0816122689307814e+000
    2.5405015479395293e+004 -1.1376446184519597e+000
    4.6322352386749708e+003 -3.8140409841105005e+000
    7.2871715800498605e+003 -3.3918416623698393e+000
    2.5289524165459972e+002 -6.2417440025370210e+000
    6.8357882808282593e+003 -3.6867113261805646e+000
    5.1319603090080636e+003 -4.5006012971700367e+000
    7.3047233276897614e+003 -3.8536643639523755e+000
    2.1429252192357228e+002 -5.7979275419600471e+000
    6.8220425177503894e+003 -2.9412084367990721e+000
    4.9922786819630392e+002 -7.0992840205326759e+000
    1.2630720358518747e+003 -6.3537967241122395e+000
    8.8629842608941271e+002 -6.6642290245718430e+000
    4.0922091560039098e+003 -4.3659076999366704e+000
    5.1987436422694764e+003 -3.7078293004560319e+000
    4.5299250883410177e+003 -4.2080575862252836e+000
    6.6712239135937016e+003 -3.0593542955512385e+000
    2.4274677848937641e+004 -1.4520151594139670e+000
    7.5432020951675977e+003 -3.5973079790367186e+000
    5.4922226670620703e+003 -2.8525851573321450e+000
    5.3253904622535129e+003 -3.6780492259246338e+000
    1.9142822128548396e+004 -1.5767872171343835e+000
    2.3515609841316094e+004 -1.4373563046921622e+000
    2.0264794131893785e+004 -1.3512600881783736e+000
    8.9180728002611504e+003 -4.2034207076132040e+000
    1.7436964729313841e+004 -1.0145126745073059e+000
    6.7473374883016158e+003 -3.1493956645399117e+000
    5.6411953027175541e+003 -2.8451400389831902e+000
    3.8124129927186787e+003 -3.7932473927190782e+000
    2.2877105957490490e+004 -9.8705556320704346e-001
    2.3961443076191325e+004 -1.7074030355342114e+000
    3.1451541970737992e+004 -1.2336437823012987e+000
    2.4339119936261974e+004 -1.2490249361558960e+000
    8.2959086286082893e+004 -4.6097722286464443e-001
    2.4474256329157899e+004 -1.3039582740028373e+000
    3.7544763637295116e+004 -9.3267331798025044e-001
    4.8188596912166395e+003 -4.4181832569961790e+000
    3.0244969335460875e+004 -1.2258615390412997e+000
    2.0404029488796143e+004 -1.0737629244385203e+000
    3.4951220056112536e+004 -1.0967311007182636e+000
    7.3032245112396386e+003 -3.6141578160087535e+000
    3.9890630819147707e+004 -7.9536655478929263e-001
    8.0637981458132635e+003 -3.4660273589673638e+000
    9.7743269095937540e+003 -2.1693180020594967e+000
    8.4939942674879012e+002 -1.0240946550969786e+001
    3.2525509388041778e+003 -4.4673165784164581e+000
    4.7779022229321617e+003 -3.8808801811538380e+000
    5.1761048023771427e+003 -4.5562337336665157e+000
    6.6875566781676662e+003 -3.7663384068846022e+000
    2.0605739877512930e+004 -1.2190832767146109e+000
    5.8763643470085271e+003 -3.5956809105034901e+000
    6.7276338527657308e+003 -4.1143640866319089e+000
    4.4823206657772116e+003 -5.1234810176065677e+000
    1.5415281138164148e+004 -2.0759421714630331e+000
    2.0330911091023336e+004 -1.5018683529944281e+000
    2.0714085277752278e+004 -1.7197529465365413e+000
    5.6240124119606808e+003 -4.3346761337038284e+000
    1.7431869098632298e+004 -1.7891229629513907e+000
    5.5575512231476914e+003 -4.8393192511530225e+000
    4.0950749437949248e+003 -3.6126951979393254e+000
    3.0912383175234635e+002 -7.6392299812903568e+000
    6.8424185660509147e+003 -3.9072313614506071e+000
    3.9306510989341559e+003 -4.0779133684576232e+000
    5.9987382251927093e+003 -2.9058600801242149e+000
    5.8781211243024982e+003 -3.2028803604857403e+000
    2.7190460407352231e+004 -9.6874538168394120e-001
    4.7471573402794875e+003 -2.7945631294602746e+000
    9.3348428838736654e+003 -2.9840936822522175e+000
    1.1591394865811927e+002 -4.2987404957036492e+000
    7.4105023868823564e+003 -3.6163798851009932e+000
    4.9455867289641110e+003 -5.4266990795477499e+000
    7.2096659674606817e+003 -3.2827124779479457e+000
    5.3377150952015745e+002 -6.3245550788979994e+000
    8.1024487612454923e+003 -2.2008168518191713e+000
    1.0993804500869676e+003 -7.0845352784614049e+000
    2.1773121147110260e+003 -5.0757310945318963e+000
    5.2175034496983778e+002 -4.0437024819249654e+000
    5.3648735108544201e+002 -7.6471954725608517e+000
    2.7626656926760543e+003 -2.8192125003735713e+000
    2.2703599541527177e+002 -5.6999067481241825e+000
    5.3215544245611891e+003 -3.7397584321648214e+000
    4.3044883624915910e+003 -4.0042668669973986e+000
    4.1721914049028583e+003 -4.3394128988352607e+000
    2.0675694221649223e+002 -5.4619223885539592e+000
    3.9720285483806811e+003 -2.9536589315141244e+000
    4.7488958755620297e+003 -4.2391709289775799e+000
    1.5366591545973797e+004 -1.2808088323195528e+000
    4.8704265091932511e+003 -4.4113356279942808e+000
    5.5941665591357987e+003 -4.4634405504103016e+000
    3.9668565179957432e+003 -3.3958505732127326e+000
    4.1608161780313649e+003 -4.8729495842695698e+000
    5.9410437452677309e+002 -8.5247952139071277e+000
    4.3559526671905096e+003 -4.6501387633809506e+000
    6.1338431370013250e+003 -3.7311750467421394e+000
    1.2990792652688719e+004 -1.7876575711787142e+000
    8.1901789729369075e+003 -4.6554274163634188e+000
    1.8622932258836325e+004 -1.4670053302898589e+000
    2.6033740704484353e+004 -1.1232517190417273e+000
    1.6109141034761284e+004 -2.0640729221217708e+000
    6.4941962368860295e+003 -2.9972756821640685e+000
    6.0457099325348599e+003 -5.3394832935517140e+000
    6.5003208483962062e+003 -3.9286043165203011e+000
    1.5966788129111230e+004 -1.5552507243533682e+000
    5.9252044689488148e+003 -3.5287289470850038e+000
    5.3783533185171646e+003 -5.5148083772148837e+000
    6.2677474824574056e+003 -3.0812427383833221e+000
    3.1426907759099136e+003 -5.0262425634002081e+000
    1.1191969492209093e+003 -5.7683247749758193e+000
    3.3929584774431928e+003 -2.7504059968882819e+000
    4.2861410603562208e+003 -3.9115460948858973e+000
    1.4726950329398758e+004 -1.3863468358804827e+000
    4.3217013941010600e+003 -4.5711960576396615e+000
    1.7472189808818490e+004 -1.3021132905881954e+000
    2.2096442468645022e+004 -1.3578343553879766e+000
    1.5213454529670424e+004 -1.4619810956491910e+000
    4.2607189079853160e+003 -4.6738138444735178e+000
    1.2066893512804822e+004 -1.2069339184518948e+000
    1.8791494337374668e+004 -1.7075471285169674e+000
    7.0596898252411396e+004 -3.6920892319523663e-001
    1.6119423418696404e+004 -1.6175378972489951e+000
    2.0193157172814153e+004 -1.6831041537076461e+000
    1.6107354801897256e+004 -1.3846708812510762e+000
    1.5629029025085511e+004 -1.6194138366652293e+000
    3.9425262355814830e+003 -3.9639439339711342e+000
    4.0903434341190587e+003 -3.7716331214489616e+000
    7.2672022330662085e+003 -4.0737836058191998e+000
    1.5700486713025937e+004 -1.8269627786217535e+000
    6.0895273411959606e+003 -3.7579600559784621e+000
    1.9337618562525724e+004 -1.5612287077512101e+000
    2.2321134030468318e+004 -1.1162828996168508e+000
    1.4118778224389936e+004 -1.4536982110237509e+000
    6.3518013870151972e+003 -3.1059544979311489e+000
    4.7787649620481261e+003 -4.8734537026343512e+000
    6.0114863077302180e+003 -3.7235540426934581e+000
    1.8116482629374394e+004 -1.7231911545449743e+000
    3.9041001221062606e+003 -2.6849318437466634e+000
    4.6481506679252061e+003 -4.9970149030178908e+000
    5.7447497250128281e+003 -2.9217785163496384e+000
    4.7894575774265959e+003 -4.4225358489545750e+000
    1.2130576678902059e+003 -4.9095176040769051e+000
    8.3092148516406792e+002 -9.9165860935099044e+000
    2.9420779034580920e+002 -7.2755213767546021e+000
    3.0398479038628657e+003 -3.4190315405169631e+000
    1.2630332781944009e+002 -4.8035128338090374e+000
    7.7847573780215444e+003 -4.3231972031369388e+000
    5.5429918122667659e+003 -3.2938566941636891e+000
    4.6323309030065666e+003 -3.5703431337639877e+000
    5.1791908112990075e+002 -6.3588297391223794e+000
    3.9824674189589946e+003 -3.3050764879949988e+000
    4.5049963082485274e+003 -4.5883703770313149e+000
    1.5984212467934016e+004 -1.2277945230086034e+000
    4.0263924373197888e+003 -4.7234153428938388e+000
    6.7106512349962431e+003 -4.1083651012959814e+000
    5.7218766818037966e+003 -3.4226001785251721e+000
    5.1746090901509924e+003 -4.4399025170528921e+000
    1.1103834920819118e+003 -7.5191100154329522e+000
    3.6148896366115059e+003 -5.0984999466377685e+000
    5.4488801578546927e+003 -3.2575234116772886e+000
    1.2812759033839711e+004 -1.8929872076380956e+000
    5.5972550885856845e+003 -3.0132508258711210e+000
    2.2132261757277567e+004 -1.4106750819122287e+000
    3.0923342735203070e+004 -9.5012527941722402e-001
    1.3366493909595149e+004 -1.4199316889816778e+000
    7.1395535862831175e+003 -2.2123099909290609e+000
    4.5626929693487964e+003 -4.0118076945690602e+000
    8.2429840168570136e+003 -4.0414973888504511e+000
    1.8911020196512440e+004 -1.4587925850528254e+000
    6.9089547674997957e+003 -3.3467797894475679e+000
    5.9876296918516373e+003 -3.5443774835591015e+000
    7.6048469713285831e+003 -2.6000922071941992e+000
    4.8403671713790982e+003 -4.1546994263628276e+000
    1.9778572127173834e+003 -4.8060033693110693e+000
    2.4210531273587418e+002 -5.8003095189875360e+000
    1.6125970142479866e+002 -5.9428863371063843e+000
    3.8703452721561944e+003 -5.0387938886687289e+000
    5.2489705407920712e+002 -9.2040306888721322e+000
    7.5666056391582624e+003 -4.2787192264440970e+000
    5.9598888451751800e+003 -3.1636670453258877e+000
    4.9107161687403823e+003 -4.2166881817037476e+000
    9.4339505262635498e+002 -6.5822849204796334e+000
    3.9020545282859725e+003 -5.1757340478777110e+000
    3.5798507132319278e+003 -5.8201915097605532e+000
    1.4379300530392333e+004 -1.7531261919009615e+000
    4.9409536253872820e+003 -5.1890527078523467e+000
    5.6010811955406789e+003 -4.9522860200216803e+000
    4.9808279365343442e+003 -4.7815870317765157e+000
    3.0823895296931792e+003 -5.0386124173868101e+000
    1.0642766573986980e+003 -8.0890981945956053e+000
    1.6308157096439749e+002 -6.2312450593062279e+000
    6.2176669193651730e+002 -7.0519786685686938e+000
    3.7559416855453851e+003 -6.2906357437821105e+000
    1.0261031026402227e+003 -5.8003344230335552e+000
    6.9468237931782232e+003 -3.6148970405476413e+000
    1.0737112233111800e+004 -2.3865085310787517e+000
    4.7440404455595772e+003 -4.5620246789596379e+000
    1.8280962114018760e+003 -4.4002707970107089e+000
    5.4720245155910845e+002 -9.4252365634431552e+000
    1.2300440869996469e+003 -6.6970576956727044e+000
    4.3432397691124916e+003 -4.4250398504249722e+000
    1.4051462874317406e+003 -6.1338338641640338e+000
    1.1758346518036387e+003 -8.2171371199494931e+000
    1.9976398250164666e+003 -4.8449318260725418e+000
    9.7124387749469247e+002 -7.4172354634041211e+000
    3.7026077748978412e+002 -5.7546070509489615e+000</input_scale>
  <output_scale>
    1.0526315789473684e+000 0.</output_scale>
  <inv_output_scale>
    9.4999999999999996e-001 0.</inv_output_scale>
  <weights>
    <_>
      1.2501523718176080e-002 1.5532789188330660e-002
      -1.2020823911889876e-002 2.5777986276103854e-002
      2.8921012005777475e-002 -3.6329103727487107e-002
      -2.8092196828488989e-002 -2.5517534899689991e-002
      2.3702986918533474e-002 -3.0081512552824170e-002
      -3.7945427307985863e-002 4.9602119834342630e-002
      2.9233043626673293e-002 2.9659157969853356e-002
      -2.0705537138236019e-002 3.4834936780308273e-002
      3.1860502488404351e-002 -5.1032178915316750e-002
      1.2692815372339896e-002 2.3203821191041526e-002
      -1.1499230759357227e-002 1.1864021985461475e-002
      2.8518178403487540e-002 -3.3502443837034671e-002
      1.4563974192963692e-002 2.0426985539109231e-002
      -1.1610597031911271e-002 1.8125043375665360e-002
      2.5776230722968162e-002 -3.9565139427015006e-002
      -2.3853908825563045e-002 -1.6321686477683076e-002
      9.3911101821885778e-003 -1.2490907253740741e-002
      -2.4852179400886052e-002 2.5512410670381010e-002
      -1.2702754602838123e-003 -6.1083332255128372e-003
      -6.1513085661867354e-004 -6.9280956262628320e-003
      -1.3018754977929532e-003 1.5895172491945775e-002
      -1.4088025308190999e-002 -1.1897928305621742e-002
      -4.7713531787377819e-004 -8.3756680742756058e-003
      -1.3443525493904315e-002 1.9669420134288712e-002
      2.0491217152514007e-002 1.3405849856578486e-002
      -6.8107391617965220e-003 3.0110219556798438e-002
      2.3965629466650276e-002 -4.4875067121013586e-002
      2.1500638976595977e-002 9.9685330134056446e-003
      -9.6287792455413187e-003 1.2391466350960638e-002
      1.9514582681614163e-002 -2.7591113655566091e-002
      9.7278242063180594e-003 -4.7280255756796405e-003
      6.1812066438884173e-003 -2.5534864922308704e-004
      9.9465285979444488e-003 -1.3863094981855950e-002
      -5.8702773290649542e-003 -1.1073804288973138e-002
      7.3892313837308780e-006 -9.5856188495596802e-003
      -1.4947286707396748e-002 9.7766324558884784e-003
      -2.7654975865549348e-003 3.5280463876179863e-003
      -8.2265800457478021e-003 2.3089862243766903e-004
      1.3836236473892879e-003 1.2834415279138376e-003
      -1.8814079265792240e-002 -1.1826434643415058e-002
      6.0491124878757959e-003 -1.0507069279019614e-002
      -1.0066457813947004e-002 2.5728043044024790e-002
      9.9869670130820209e-003 1.4836781531595162e-002
      -6.6245543236027691e-003 1.6566252508099413e-002
      1.6446119357144316e-002 -1.3769619353670768e-002
      -5.8277494339318611e-003 7.8925675429415893e-004
      -2.9331746578883950e-003 -4.2786249571885983e-003
      2.8950492978105928e-003 2.9337340036474746e-003
      -2.8767267097977060e-002 -2.5973487905946026e-002
      9.1795961376664893e-003 -2.3299400511398838e-002
      -3.3927066207613557e-002 3.3358251918280318e-002
      -5.5650815443434795e-002 -4.1599034885875616e-002
      3.4107554832904681e-002 -5.7608916456230022e-002
      -6.0455575766374038e-002 8.6324752754154882e-002
      -2.6548590651133252e-002 -2.0852591727499415e-002
      2.2300992550018304e-002 -2.2205131902554676e-002
      -2.0902900228967430e-002 4.1792779425822435e-002
      -2.8113688640308800e-002 -1.5961698700253983e-002
      1.9146341937087020e-002 -2.4069738539177304e-002
      -2.5137122874138794e-002 3.7714384559988122e-002
      1.2338766781621546e-002 1.1487106364822962e-002
      -9.4444794316737878e-004 8.6639801378381644e-003
      1.4342831902049592e-002 -1.4459484438053304e-002
      9.1117781696280851e-003 9.3289669362006025e-003
      -1.0731190371351724e-002 1.6664491221451957e-002
      1.2198145988477236e-002 -1.8410680964130045e-002
      -1.3900187193032093e-003 1.2390447614593454e-003
      5.6156377026090219e-003 -2.2936333562879937e-003
      -4.2556774954794190e-003 -4.1490669009346956e-003
      -5.0350764580586078e-003 -3.9691622225867173e-003
      -8.5538382628358479e-003 4.8070514159859138e-003
      2.2441689141693474e-003 -1.2982056315993696e-003
      2.3108337174756199e-002 1.3850115601967873e-002
      -9.6615234313147599e-003 2.2226793446256572e-002
      2.6421926563858545e-002 -2.9588835709767197e-002
      -1.4429233431021770e-002 -1.1672851768635251e-002
      8.1576560095054998e-003 -7.3991511629826852e-003
      -1.4512523056011251e-002 1.5567500087738924e-002
      -1.7570812697131642e-002 -1.3241026561212510e-002
      2.1410635482767919e-003 -1.6356008093666566e-002
      -8.1017474927448513e-003 1.9313238932505195e-002
      -1.1997315071297339e-002 -9.5832892570019094e-003
      3.4642950776005233e-003 -4.8768522032962185e-003
      -2.1466272774625368e-003 1.3398142601538435e-002
      8.9742757151952384e-003 3.4621420555410705e-003
      -4.4002763915614706e-003 7.3593708448574631e-003
      7.4116953571533696e-003 -4.4053028097690546e-003
      -1.8460672241174796e-002 -9.4276263585366376e-003
      1.4183516200293874e-003 -1.0196870584361839e-002
      -1.0695726434814925e-002 1.4784963011994204e-002
      1.5616381348324904e-002 1.3004382941731557e-002
      -1.3060735302254690e-002 1.5297954293901395e-002
      2.8763321965118615e-002 -3.8960071583805857e-002
      3.9015454678992966e-004 1.8728617882671531e-003
      -4.4420891432423479e-004 1.4723003022480679e-003
      -3.7368096182274131e-003 1.1746008653016277e-002
      2.0586984381175063e-002 1.7466172847399958e-002
      -1.2240065560632916e-002 1.9849412339786598e-002
      2.7307618523103212e-002 -3.3531089955129642e-002
      1.0057022486101101e-002 4.5528976424319429e-003
      -8.2696692773294306e-003 9.3785754914624993e-003
      9.8838742013501821e-003 -1.0842413170242459e-002
      1.4658064309986169e-002 1.3819200801436482e-002
      -9.4831190357810690e-003 9.3404401540833105e-003
      1.5384190699295398e-002 -2.8254362983101661e-002
      -7.2554077808081536e-003 3.1800782469458181e-004
      -8.6413919885592098e-004 4.8389735689063499e-003
      -3.8119007467180628e-003 7.8859578036784405e-003
      -1.0146364709869841e-002 -7.7746761129630073e-003
      1.2498553946529259e-002 -1.0782352137548043e-002
      -9.6638787733326677e-003 1.6777875510408435e-002
      -6.8633550643951826e-003 -1.2720025877211237e-002
      7.7816970049236663e-003 -1.4081198446642615e-002
      -2.0867797171829471e-002 1.5984277372232639e-002
      1.7122571460817949e-002 1.6103450232235021e-002
      -1.1122637455506455e-002 1.5760355292169150e-002
      2.2462457599209822e-002 -2.6754958387166610e-002
      -2.9109373447829670e-002 -2.9236872656175507e-002
      1.9593083442270849e-002 -2.5409376367417465e-002
      -4.5799847304288849e-002 5.0965799323827436e-002
      3.1159983539461766e-002 3.2003728891337964e-002
      -2.6821396751127855e-002 3.7727804130436499e-002
      3.7786448852536875e-002 -6.6383375047141133e-002
      3.5147801365489090e-002 2.5007342337876694e-002
      -2.1882488580346585e-002 3.3586839337346429e-002
      4.5893891774056977e-002 -6.1055623226685694e-002
      4.1587472331865404e-002 2.8029564353330833e-002
      -2.1251490212269221e-002 3.3607742438383985e-002
      4.2111972700785399e-002 -6.9619727043141691e-002
      1.1637747224431902e-002 4.3304154664396523e-003
      3.0949548022025692e-003 6.5099071625975176e-003
      4.7593627708789601e-003 -1.3237870829362310e-002
      6.6172201821100467e-003 1.0175991984286809e-002
      -9.5216125335935552e-003 7.8806300612604789e-003
      2.0478186803195873e-002 -2.5391518156794014e-002
      4.9686295904163621e-003 1.8561409269721104e-003
      -6.0730131257043275e-003 3.9141372024090789e-003
      -4.1708851901536646e-003 2.2540305638997838e-003
      -2.2094086226719406e-002 -9.4838082831613085e-003
      1.0004518106720855e-002 -1.4426017985751622e-002
      -1.7071427633688300e-002 3.0214336377550940e-002
      -2.9425366530502779e-003 -1.9639083494483382e-003
      -3.0884207803934327e-003 -4.6122331963909802e-003
      -4.3909737625482097e-003 6.1405680721682296e-003
      9.1856452433295138e-003 1.2256838726848952e-003
      -2.9245363146205177e-003 -1.3728924412109978e-003
      8.5640714925128772e-003 -4.2732827939299745e-003
      -4.3176225832538544e-002 -3.3411405065368667e-002
      2.9583925403724197e-002 -5.1277004457269633e-002
      -5.4824367063967032e-002 7.1272941773832948e-002
      1.1452444010972476e-002 1.5716145457604042e-002
      -2.1934015898088274e-003 1.6415429835151703e-002
      1.2259281441477306e-002 -2.4574065677131090e-002
      3.9280640928761185e-002 2.7344301094596131e-002
      -1.5694706620514975e-002 2.6994942701802783e-002
      3.9646125095438002e-002 -6.0811298641070322e-002
      -9.3426004542505262e-004 4.8131423843065461e-003
      5.7867239063258162e-003 3.0366303785701260e-003
      -7.7444264897292645e-003 5.5543325228475269e-004
      -2.7307060656283706e-002 -1.7884623539676910e-002
      1.6072659201570298e-002 -2.3172776535660120e-002
      -3.2688686954908071e-002 5.5527186121768005e-002
      1.9770516105327353e-002 2.5978550372291506e-002
      -2.1856126753071848e-002 1.8617196337348450e-002
      3.3612231297175298e-002 -4.0780165053517586e-002
      -2.2724977534101126e-003 7.3545293586910147e-003
      3.4583812155132157e-003 3.9968021629902071e-003
      4.6939160418643516e-003 1.0696018028916571e-003
      -1.4711965357934646e-002 -7.9522166985968000e-003
      2.3419616487120607e-003 -1.3664798977047194e-002
      -1.2515982699631393e-002 1.9772239203233826e-002
      -4.2799037070297967e-002 -3.6630445276163860e-002
      2.7739543954424083e-002 -4.0118606098484930e-002
      -4.1664563067490071e-002 6.1243403063691290e-002
      1.1195101468852267e-002 1.1886522385034569e-002
      -3.3003949262691654e-003 9.8013576587263635e-003
      3.1980899632563465e-003 -5.8192129311568546e-003
      1.4176912370584863e-002 1.4370856970184200e-002
      -6.6912394233015161e-004 1.3118690329086994e-002
      1.6257594868159975e-002 -1.9351045296036849e-002
      -1.1920453094233459e-002 -1.9279765377805163e-002
      1.1186182263096756e-002 -1.3730775302360877e-002
      -1.7475577737040050e-002 2.5313203178818716e-002
      1.2608125574432479e-002 1.8906429470009346e-002
      -3.3159348152300159e-003 1.2178741915234123e-002
      1.9796854939385874e-002 -3.1482627150458194e-002
      -1.5772424757511377e-002 -8.0999966380849789e-003
      5.5319775766493355e-003 -1.8187619966507685e-002
      -8.6389491168260332e-003 3.1269220284159037e-002
      -3.2334770348646333e-002 -2.4026750763473249e-002
      1.5391236919841124e-002 -3.5607316124768897e-002
      -3.6375760983854290e-002 5.1517025368239405e-002
      3.0477502802959350e-003 5.7396656055416538e-003
      -2.0689092655561910e-003 4.1506682077636307e-003
      1.3645724680145603e-002 -1.1370768348974753e-002
      5.8670253470971866e-003 1.2309278164998888e-002
      -3.2005324884029694e-004 1.4314353285214420e-002
      1.5176316640869873e-002 -1.2194255443436892e-002
      3.9084121878033742e-002 2.6920134811195054e-002
      -1.4897682792963631e-002 2.7551916050015335e-002
      4.5056563614471620e-002 -5.5617967037744444e-002
      2.6713184717076420e-002 1.8255189013942578e-002
      -2.4296669605828686e-002 2.6367767729005828e-002
      4.1567559250817898e-002 -5.9073755142720417e-002
      1.6086999012624073e-002 2.9153253288564489e-003
      -1.2285937577320641e-002 1.0002909208604988e-002
      1.0834129339720829e-002 -2.6341630022973062e-002
      -1.9418619475465197e-002 -1.1092435988231553e-002
      8.7629327741489405e-003 -2.0259488726034145e-002
      -1.8880791299897233e-002 1.8813473677971617e-002
      -6.2100137824197294e-004 4.3747987134034726e-003
      -7.0724676499553309e-004 -5.3543596670563385e-004
      -2.9321462700750995e-003 -7.5211029283437578e-003
      -2.3788655390337729e-003 -2.0143574043328528e-003
      3.4702147843000083e-003 1.4241833737048343e-003
      7.2730076292695971e-003 -7.7384741449632510e-003
      1.7209521334993271e-002 9.5815960942826905e-003
      -1.8123723124678756e-003 8.7554318199828604e-003
      2.0104707089597929e-002 -1.5291172991171680e-002
      3.2839257692166404e-002 2.4597652314312976e-002
      -1.9444655067335538e-002 3.8864948369270458e-002
      4.3785012663377289e-002 -6.0565876186560480e-002
      -2.0598942056637082e-002 -1.9274745783173661e-002
      1.7749751628946885e-002 -1.8652630689759964e-002
      -2.5037518108204170e-002 2.4135368436139532e-002
      -4.0640713391212460e-002 -3.3796203758167276e-002
      1.8514499385420005e-002 -4.0534886814712442e-002
      -4.5781415812828262e-002 7.3536312554060707e-002
      9.4381836759703259e-003 7.9734156861603588e-003
      1.8926974601376132e-003 8.9833835025858698e-003
      1.5062451235581548e-002 -1.6964739001873650e-002
      -2.1507984166633340e-002 -1.0036222429741884e-002
      1.0086826155448324e-002 -9.9914348214007118e-003
      -1.9099621014383693e-002 3.3521970790372883e-002
      2.0256665821062593e-002 1.4475886983124405e-002
      -8.8699805519839980e-003 1.3190687075288410e-002
      2.5957409579056703e-002 -2.2008533122756548e-002
      6.4946757098543690e-003 1.0331824607086416e-002
      -7.9741360287523474e-003 8.1604129277140398e-003
      2.5386156713800932e-003 -6.9787895975138995e-003
      -3.9167681798958423e-003 5.9467018764569586e-003
      4.7881550171781024e-003 6.0450478339448598e-003
      -4.4307835143589771e-003 -1.1667099742730880e-002
      2.5501773420621633e-002 2.9819798038809440e-002
      -2.2060152176001730e-002 2.9601128527646133e-002
      3.2024769738984299e-002 -5.2606690284945634e-002
      2.0211652484428671e-002 1.0391388638774037e-002
      -7.0977115811161947e-003 1.5859103494888678e-002
      2.5379558459608605e-002 -3.6066356922135105e-002
      1.4347592623125835e-002 1.4219304365615084e-002
      -1.2667879877943707e-002 9.8026153802164596e-003
      2.2924233696181361e-002 -2.9239873765663605e-002
      -5.7332289223863894e-002 -3.7203668080586713e-002
      2.9520112053538501e-002 -4.4558631431884710e-002
      -5.6618550635098748e-002 8.8354091175129629e-002
      -3.8575128850210930e-002 -2.1103585972300169e-002
      2.2050825161247189e-002 -2.9976213648999946e-002
      -3.5100820774893265e-002 6.2498171294649407e-002
      1.9652646861679324e-002 1.2773226889869186e-002
      -1.0104134046864248e-002 6.6608565072839776e-003
      7.3527240527481779e-003 -2.7002463476623564e-002
      1.3397500980467183e-002 1.0915519891658173e-002
      -1.4569710777201423e-002 1.1474216969544617e-002
      1.9873518398921732e-002 -1.6358897860297497e-002
      -3.8988113854642533e-003 3.3752616257137432e-004
      5.1513514636886762e-003 -6.6872452828475003e-003
      -3.0150085699718445e-003 -4.0440266391992032e-003
      1.1880320934501937e-002 1.9252726128841047e-002
      -3.6449999627805535e-003 1.3759336475874809e-002
      1.2603147054366420e-002 -2.4188409518341870e-002
      1.5690972788761463e-002 1.0344042541318346e-002
      -1.0151626747318508e-002 2.3856277330479309e-002
      2.5773201564099419e-002 -3.8540828851330526e-002
      3.9935975087832608e-002 3.2311465064575405e-002
      -1.8549601231679747e-002 4.1831067048855794e-002
      3.8586194812352426e-002 -5.7264811793580041e-002
      -1.1098891237067383e-002 -1.1038606785935452e-002
      4.9495549724234934e-003 -2.7126940288959012e-003
      -1.1148347322963938e-002 9.1035324197708597e-003
      -8.0029863694376334e-003 -1.0370429024156110e-002
      2.0321409402053485e-003 -6.9459954151325698e-003
      -1.1611992005025856e-003 1.0957619280458734e-002
      5.7604370948369655e-004 1.9712437058347727e-003
      -7.8217776642578816e-003 -2.1445994937926618e-003
      3.2139525596831214e-003 -5.1079166097386872e-003
      -2.4694414736002375e-002 -1.0377785375435784e-002
      1.9523004545513086e-002 -2.2344065400374539e-002
      -2.5183251910381562e-002 3.8278478773576340e-002
      2.9657909905534959e-002 3.1068332361359509e-002
      -2.5414363183074929e-002 3.3091423476565407e-002
      4.4094086294300540e-002 -6.0349440940216145e-002
      -2.5388806158971499e-002 -1.5907346467257652e-002
      9.9159868302680417e-003 -2.9943286236742035e-002
      -2.7038277647651432e-002 4.6278783530469832e-002
      -1.9393030008102132e-002 -1.2601316547170014e-002
      2.0957119569603035e-002 -2.5241553476949757e-002
      -2.0089938050270251e-002 3.5602338803509208e-002
      8.9389711203382454e-004 -5.7791711760422854e-003
      7.6870077987207467e-003 5.6818956463164346e-003
      6.1035897846229625e-003 4.8339776043538714e-003
      1.6216828564897975e-002 4.9981410694920738e-003
      -4.0060412867161665e-003 4.9943404080229964e-003
      1.0331826009493035e-002 -1.2637943037497401e-002
      -3.8629012804769340e-003 -9.9126180365954990e-003
      -1.0135759218978765e-003 -1.5027516570521366e-002
      -1.6206824720057952e-002 2.0609141786544431e-002
      1.8673116681915049e-002 9.9245925378605541e-003
      -7.3285152964893728e-003 1.4980478597468120e-002
      2.2859575322191916e-002 -2.4783444695758754e-002
      8.5467515589025145e-003 8.2527622941870136e-003
      -3.4956593037464099e-003 5.5822769115991345e-003
      1.1081968930081430e-002 -1.3953580581900424e-002
      -7.8867056919561685e-003 -1.3945939384135853e-003
      5.8925167903053494e-003 -8.2936308764634103e-003
      1.0523539767201917e-003 2.8134158325495576e-003
      -1.2562595046114447e-002 -7.6654059942920759e-003
      6.1482559256119491e-003 2.3019233133548017e-003
      -4.7956691753426161e-003 5.2173527312580877e-003
      1.1160583120365457e-002 5.8781461563445579e-003
      -6.3492902202446824e-003 7.7058719499330033e-003
      1.5698505841539524e-002 -3.0079733943564588e-002
      3.8158247238440988e-002 3.4073401858794095e-002
      -2.9080459599250166e-002 2.8050813831890196e-002
      3.9022392110502818e-002 -5.2247153733881814e-002
      5.5393058209937613e-003 -3.2965538320439609e-003
      -7.1635078206973039e-003 9.0115963457252576e-003
      5.8641044574213562e-003 -5.1019062237500972e-003
      7.0807033532451430e-003 -1.0314486592593547e-003
      -4.2527636263883515e-003 5.5214817528503627e-003
      2.0414753574207571e-003 1.8442261341507216e-003
      1.4383673946295366e-002 7.0839639003975469e-003
      -1.1616826387807359e-002 9.0501658623994355e-003
      2.6943476556397171e-003 -2.8561040540214374e-003
      1.5453386896068035e-002 1.0288326382277738e-002
      -8.5128246073756676e-003 1.4716347049329370e-002
      9.8468747479379878e-003 -2.1642981065537317e-002
      -2.9034842213396628e-002 -2.5934092456085578e-002
      8.3067463881168670e-003 -2.7953572427579114e-002
      -3.5586815983179941e-002 5.1304893414346950e-002
      2.2060010746338715e-003 -1.8372804171370267e-003
      7.3843908389969592e-004 3.8962122549725787e-003
      3.2422708383720452e-003 -3.3573515793924821e-003
      -2.1119358749736035e-002 -1.2488602951230736e-002
      1.9121312775045713e-002 -2.7484873737735973e-002
      -2.0189898245118819e-002 3.5000407908655953e-002
      9.8583446155049367e-003 8.7404781828131130e-003
      -8.1537399324266516e-003 1.8245832840740252e-002
      7.4715808281724380e-003 -2.3444993841914320e-002
      5.0621977571257406e-003 7.5389471204297693e-003
      5.4538276003931905e-003 6.9844551603748077e-003
      9.8190019083214345e-004 1.6391301028848633e-003
      -1.8514138723372740e-002 -1.5821699318715132e-002
      1.4767260620655913e-002 -2.6790438689663777e-002
      -3.0566266941668644e-002 3.4653199877508908e-002
      -2.8982155892383387e-003 4.8445535249020533e-004
      1.4992021915263352e-003 -2.2743744006989437e-003
      -3.1617177091905241e-003 -4.4552891821306581e-003
      6.7502584484201858e-003 1.3903782419331836e-003
      -1.9255259217309266e-003 -5.8218280328475327e-004
      -3.7900362845533662e-003 -2.5595091779929222e-003
      -3.6499284168761963e-002 -2.9635697179110236e-002
      2.9731694254464515e-002 -4.2560886948035850e-002
      -4.3455504418166910e-002 6.9859273839391736e-002
      -1.6344577072513748e-002 -1.6952707214624600e-002
      1.2999707174356829e-002 -9.7289693438999073e-003
      -1.7161548257294053e-002 2.0943286270015151e-002
      -1.9712248060323907e-002 -2.3765463824387233e-002
      1.8734210879248564e-002 -2.5932724937520669e-002
      -2.7565064113713341e-002 4.5256572190571102e-002
      -2.5570535492870861e-002 -2.1889816364768507e-002
      2.2673127796821142e-002 -3.5975799342922825e-002
      -3.1525812232866643e-002 6.2510159187946973e-002
      -2.7641088976431218e-002 -1.5012195493197315e-002
      1.4669843672116335e-002 -2.3793691274625203e-002
      -2.2540215486401123e-002 3.5101718117248930e-002
      2.0974937092853810e-002 2.5949313903502320e-002
      -9.2899226168409507e-003 2.2548684999170208e-002
      3.0047015238674136e-002 -3.2968279215711223e-002
      -3.3766438458660668e-002 -3.2668479053945876e-002
      1.0878269334943158e-002 -3.5722751339787626e-002
      -4.0029861093417926e-002 6.0603871523062271e-002
      -1.8994338510259775e-002 -1.9249058218927445e-002
      1.6498303951015834e-002 -2.3836135691486630e-002
      -1.6315785019074082e-002 3.0773626423794494e-002
      8.0176189593290665e-003 1.6387276274148169e-003
      -5.9241907681123274e-003 5.2589816980163550e-003
      1.0265151186925314e-002 -4.5792643735445915e-003
      -6.5594305162762359e-004 3.1310881563210101e-003
      5.2171289930975171e-003 -5.9240214764000928e-003
      -3.3252744013788924e-004 1.1624086648227965e-002
      2.5381270055570785e-002 1.7616915755830319e-002
      -8.6739475651694681e-003 2.2791477541468531e-002
      3.3755406662733599e-002 -4.0459784832239332e-002
      -1.3951723280803527e-002 -1.3636928078998758e-002
      1.0852247087668641e-003 -1.2180359556708062e-002
      -2.3441813291819494e-002 3.3471139983936929e-002
      1.0550236450561610e-002 6.5921013718256887e-003
      4.0861513887753631e-003 1.0025899740866661e-002
      -1.9199403579830598e-003 -1.7071775578597986e-002
      3.6197662117799494e-003 7.7437802354071274e-003
      -9.4341842997097726e-003 4.8700094946154907e-003
      -2.7429377697100639e-003 -5.6531386808177141e-003
      5.3230379147549984e-003 2.7340408621837563e-003
      2.8532047967930831e-003 7.1117744880898216e-003
      1.0846573502984505e-002 -5.8561900843598124e-003
      -6.7334513163631402e-003 -1.7189809559103836e-002
      9.3725048492048872e-003 -1.3716245448111286e-002
      -2.0967896849461994e-002 2.8069489079860638e-002
      1.4791087367080993e-003 1.1935064818790432e-003
      9.4035540274206575e-003 -7.2639748003052904e-004
      1.8578797847789430e-003 4.6911887840075809e-003
      1.1752902766174696e-002 4.0046859878554796e-004
      1.0204135114400558e-004 1.2944167935521394e-002
      5.8950193758210423e-003 -1.6201547962796749e-002
      1.5567800343658031e-002 1.0372197294001352e-002
      -8.4143440486822395e-003 8.1116264815331452e-003
      5.0168169807015012e-003 -1.4986909858363616e-002
      1.5139085024377753e-002 9.9395358166731729e-003
      -1.7770713878658841e-002 1.5731276128182405e-002
      2.8997513071391277e-002 -3.7428085831182227e-002
      3.1959878725627022e-003 5.3005679091120503e-003
      8.2069650856012397e-003 -1.1735260834669333e-003
      -1.4824807633362141e-003 -8.2415585222895826e-003
      -2.8892365693439025e-002 -2.5139899915550497e-002
      2.3841853320183418e-002 -3.5399761263682467e-002
      -3.8370802467202945e-002 5.3808665894233783e-002
      3.5001526662558007e-002 3.4641561604887683e-002
      -2.8250229539643262e-002 3.8240913406284716e-002
      4.3722135546421848e-002 -6.2893412288639650e-002
      -1.6715229486929318e-002 -1.0749794636283130e-002
      1.0170095953204859e-002 -1.4886655816691229e-002
      -2.9750530608798599e-002 3.3899849508266529e-002
      1.4346237178061251e-002 1.4473284072914537e-002
      -3.1688957094626732e-003 1.3372220200818998e-003
      1.1028130971232734e-002 -2.2433096817155322e-002
      -7.2891706389857716e-003 3.9539748372918173e-003
      -4.8284102991874205e-003 3.4357153515873189e-003
      -5.7467468480371479e-003 3.7760528027118490e-003
      -3.5060153817890976e-003 -7.6276549880223499e-003
      3.8153558058759513e-003 2.6439694995257122e-004
      -1.0451227962829509e-003 3.3706653810051889e-003
      3.6317105277198079e-002 2.2386533487707513e-002
      -1.5827075734268670e-002 3.3060935907775806e-002
      4.1491633167909256e-002 -5.0038990460752560e-002
      -2.3489621145285484e-002 -1.8381840032386687e-002
      2.0185670545036255e-002 -2.6881199425264658e-002
      -2.1309341940450061e-002 3.8117760868057009e-002
      3.5240705531597007e-002 2.1704967732941567e-002
      -1.1881854223480809e-002 2.5344896843021041e-002
      3.1616573970779924e-002 -5.2505245759457829e-002
      -6.5489458026957098e-003 -8.1333040949557785e-003
      1.2324233083976614e-003 -5.9784336089237491e-003
      -2.2020551969052199e-002 2.4622731576626807e-002
      -1.5796682074297096e-002 -1.8913495172032928e-002
      8.0035710585106886e-003 -2.2514243941840550e-002
      -2.6859036572195585e-002 2.7876391414750255e-002
      1.4567856253487280e-002 1.0140829346348395e-002
      -1.1802120454425155e-002 1.6818888002608189e-002
      1.7438720099358863e-002 -2.3433325218200591e-002
      1.9541187164764787e-002 1.4774706792146220e-002
      -3.5262768434594347e-003 1.3721485875378832e-002
      1.1254878453085917e-002 -1.7012718142179532e-002
      2.1826689667116005e-002 1.4535916796436463e-002
      -1.1808548953995336e-002 2.0370685710698718e-002
      1.9909821843219922e-002 -2.4316395533044842e-002
      -1.2129775654732278e-002 -2.1103740488026953e-003
      1.5975196996066297e-004 -1.2411585322254892e-002
      -1.1238156699232525e-002 2.0048925465131307e-002
      -3.6262953787395212e-002 -2.5180079230864856e-002
      1.6535032341060112e-002 -2.9703205561606667e-002
      -4.1622077903597371e-002 4.8965619892447076e-002
      2.1375829351241945e-003 -6.7550963459370877e-004
      -7.2571734510784337e-003 1.6965544936881831e-003
      9.0550674582324953e-003 -6.0759035349761039e-003
      7.6649895629620386e-003 -1.0367836355080120e-003
      -3.3941825847207886e-003 9.6867653185724930e-003
      8.9045343880423729e-003 -6.1797937331692573e-003
      1.7039698650431858e-003 8.9950226881497040e-003
      -1.8650108174706366e-003 7.3700990321231780e-003
      -2.5956706486607237e-003 -1.1512236114857913e-003
      2.0361539483343603e-002 1.0985085801903093e-002
      -1.8854248346063158e-002 1.7108220865158664e-002
      3.5057186584787250e-002 -3.7024462859370340e-002
      -2.3488204945023216e-003 -3.5322245470034408e-003
      8.1612700837392707e-003 -1.0271492344811214e-002
      -1.4413097829518891e-002 1.3265938609372441e-002
      -4.7263833584547717e-003 -1.7372893855735452e-003
      4.3191564628669733e-003 -3.8306627191662013e-003
      9.0282678573326038e-003 -8.7941865421592939e-003
      3.8019826444052662e-002 2.2902100246535433e-002
      -1.5049631822558399e-002 2.9126087078055665e-002
      3.6874985937844204e-002 -5.5763321814581504e-002
      4.4709167978577184e-003 -4.5244182172302699e-003
      5.5289389519490627e-003 2.2681642672051912e-003
      -4.2660736181720843e-003 3.3317300679685169e-003
      2.3392637770972516e-002 2.7060349691501139e-002
      -1.4872498862291909e-002 2.4822401600607970e-002
      3.1517987934153301e-002 -4.5139696909062069e-002
      4.8582194799939591e-003 2.7392308098807732e-003
      -2.7391756733678575e-003 -5.6754600422893701e-003
      8.4469691919639902e-003 -1.8275075175340318e-004
      3.6665483015586940e-002 2.3985879549917356e-002
      -1.1769416461775564e-002 3.2298738350137149e-002
      2.9940348942086050e-002 -5.8185366538606079e-002
      2.2684257526158165e-002 1.5273101255818676e-002
      -7.2110259933040061e-003 2.4111194765678235e-002
      2.8160347077887102e-002 -3.1715561882650178e-002
      2.3310586003010451e-002 2.3223058422736812e-002
      -1.0627197863814278e-002 2.4942842582031187e-002
      2.7058335261916901e-002 -3.6153703589426815e-002
      3.2175353619123603e-002 2.1958977240990347e-002
      -1.6192656932589884e-002 3.7095746796457822e-002
      3.7935426864755331e-002 -5.2598066301899171e-002
      2.9390607827450266e-003 -6.5480196642740572e-003
      8.4781303634312299e-003 -8.8373739558747482e-003
      4.4828586850779485e-004 6.6250866200835788e-003
      2.3166331716894809e-002 2.0423525892886270e-002
      -6.3635298794931473e-003 2.8297034510541448e-002
      2.9660376688550923e-002 -3.4544160770673848e-002
      9.5529305306853475e-003 1.2802219766953770e-002
      -1.6054935970394091e-002 9.0993619968651775e-003
      2.6516942299133421e-002 -2.6785194714248964e-002
      -6.7815950988528906e-004 4.4918203219362959e-003
      -4.4958353471680444e-003 8.3761762400874074e-003
      7.8642016717231245e-003 -1.3468180597138689e-003
      3.9603531963059810e-002 2.3205591969197602e-002
      -2.0977112023391881e-002 2.8098803295461210e-002
      3.4852806837490931e-002 -6.1379387712608556e-002
      2.7396510871758317e-002 1.6821254095065429e-002
      -1.2525767883714477e-002 2.1129015313282099e-002
      3.8451079549351334e-002 -5.4607982538661518e-002
      -4.4856258082442181e-003 7.8311490244769924e-003
      -4.4783246172773496e-003 7.6698110888799888e-003
      2.6582913516299943e-003 -4.3842014725090786e-003
      -8.3419775139739628e-003 -5.9164952991774145e-003
      3.6703112819933760e-003 -1.0956822087658002e-002
      -1.1836549298932497e-002 2.4791779492795249e-002
      3.6273923558740484e-002 3.1472777617669284e-002
      -1.5116824678632098e-002 3.6022176364758178e-002
      3.9779953390688287e-002 -4.5849766411281204e-002
      -1.6606306483205130e-002 -2.2788491234115801e-002
      8.5086828917233133e-003 -2.1977224367767476e-002
      -2.7099262934943059e-002 4.2940454062266001e-002
      2.3684437838714552e-002 2.1854848249103425e-002
      -1.2599572431584110e-002 1.6558456075914121e-002
      2.0795881843005990e-002 -4.6526159619174105e-002
      2.2819267169947997e-002 1.7028028379608425e-002
      -1.0973969080757880e-002 2.5722971419111961e-002
      2.6390497344712327e-002 -3.9529580053493663e-002
      -1.7301375380877598e-002 -2.0191627736701530e-002
      1.3933862630902388e-002 -1.2624292051395812e-002
      -2.7968762526271694e-002 2.8510198529156303e-002
      -1.7946823325322631e-002 -1.9739853081174784e-002
      1.3719325107678537e-002 -1.2849540589910960e-002
      -1.8908408339262134e-002 2.8624898468080084e-002
      1.8883019403784208e-002 1.3296392797044287e-002
      -1.5105293710738824e-002 2.0095286877275458e-002
      1.2550126933980678e-002 -2.0248620624126662e-002
      2.4941339251733578e-002 2.3025342526956278e-002
      -2.1375233904494990e-002 2.6244256060160797e-002
      2.9752766791363940e-002 -5.3122621518489739e-002
      2.5501112912566944e-004 -2.0730907657025995e-003
      4.7494322734548330e-003 2.5577679411276058e-003
      -3.8077593295790494e-003 -1.2762645793365781e-003
      -2.3940939299185615e-002 -8.5290287284533160e-003
      9.6460362288079242e-003 -1.3740880668801444e-002
      -1.9517414918990849e-002 2.9704701193275521e-002
      -3.0587451471982531e-002 -2.3385680790213106e-002
      2.3293823268166175e-002 -2.9191493186841135e-002
      -4.3491779307180380e-002 6.2327717263571836e-002
      -5.5102814658193264e-004 -5.0143913108621711e-003
      1.1012428307751997e-002 9.1591324595105008e-004
      -8.0299189823184649e-003 1.0590524721368160e-002
      2.2952718617526317e-003 7.4055483875131028e-003
      -1.6434202813002750e-003 -4.5834357917170013e-003
      6.4398572317878749e-004 -8.5587557657344111e-003
      3.0320184219124788e-002 3.4762631643266595e-002
      -2.0770830728751702e-002 3.9524101886379580e-002
      4.1075450477446131e-002 -5.8794832971252764e-002
      -3.6124953813050156e-002 -1.5907879335817127e-002
      1.9499000153072380e-002 -2.1052494695228002e-002
      -3.5953374391570661e-002 5.3074748616317967e-002
      -2.9585079334206197e-004 -1.2936118242973698e-002
      5.5477615433306227e-003 -1.3692133990019333e-002
      -7.6136491379459100e-003 9.1974678720762159e-003
      -5.7918485593672284e-002 -4.2777019239292655e-002
      3.2363222458003563e-002 -5.3777111309615495e-002
      -7.5784066280110751e-002 1.0252133609742684e-001
      -3.7249886454501311e-003 -3.6946683259970678e-003
      7.6679284896762059e-003 -1.3079204196896862e-003
      -9.6277947288759148e-003 4.5392484787931085e-003
      1.7967445798820755e-002 8.7299992311774665e-003
      -4.4949298268790660e-003 1.1339516907566353e-002
      1.9976835893956862e-002 -2.7429569597396782e-002
      -1.0658738271994471e-002 -6.6038161357498525e-003
      4.7369575700187821e-003 -6.9951539999005422e-003
      -1.2540751235064278e-002 2.8849685518259675e-002
      -1.1146760951161332e-004 3.4351391684212728e-003
      -6.5965660421811179e-003 -8.1377485106959551e-004
      -2.6169467956540697e-003 1.2649001017901040e-002
      9.5509964591834525e-003 4.2560937904385287e-003
      -7.0070328098509665e-003 7.3904910472690028e-003
      1.5668502472319247e-003 -3.6390499915992525e-003
      -3.2582688794058699e-002 -2.9257212038310710e-002
      1.0068722307793028e-002 -2.5667412645074779e-002
      -3.9270509582128417e-002 4.4733707643869920e-002
      2.2119046469855235e-003 -9.8729868283501873e-003
      5.7890239586035185e-003 -9.5754308898329150e-003
      -7.9024598265189129e-003 3.6632309665298344e-003
      -1.5602404676968549e-002 -1.3720894558177007e-002
      7.5825901965646311e-003 -1.2680613785818756e-002
      -1.4245771794256314e-002 3.1043674284075277e-002
      1.4479227859948155e-002 1.7326929915369695e-002
      -1.0238703586171198e-002 1.1057885617076635e-002
      1.6720270756215547e-002 -2.7242114074791473e-002
      5.7691620909211955e-003 2.7580827137214793e-003
      -8.1341516855790007e-003 6.6055449625339593e-003
      8.4940266512733894e-003 -1.2703196961399920e-002
      -3.7997868672247144e-002 -2.5128382553704521e-002
      2.3439737092158575e-002 -2.8402745362281080e-002
      -3.8281274767325853e-002 6.2160334888164866e-002
      -1.5378982132984371e-002 -9.2000476485075630e-003
      6.6879898181919648e-003 -8.0656612943190171e-003
      -1.4220972082241896e-002 1.8602553020895217e-002
      3.1242217062280194e-002 2.3478715456942460e-002
      -1.8450780032081508e-002 2.8016768829311527e-002
      3.2103266771147429e-002 -4.5005566620591832e-002
      2.3370198892401925e-002 2.2500365085483247e-002
      -1.6836766944528025e-002 2.0788373347726229e-002
      2.7915637771860458e-002 -3.6138087957054171e-002
      -4.8021957761018273e-002 -3.3648259465640089e-002
      2.7124904411021541e-002 -3.5627384918652652e-002
      -4.6045166434667856e-002 6.4357489806835436e-002
      -1.6438470035688907e-002 -2.0594624913309600e-002
      1.2390989829169665e-002 -1.5274049858083135e-002
      -1.5586301880345691e-002 3.1987088312708266e-002
      1.0869497802559434e-002 -9.3193243001693320e-004
      -6.6086316285869215e-003 5.8730528817651645e-003
      1.1881693469393951e-002 -1.1400819926002932e-002
      6.9864692457882009e-003 -1.8370473626624156e-003
      -8.5480388184876969e-003 1.0374715528647153e-002
      1.0780700489506540e-002 -7.1050166252584609e-003
      3.2379786239730970e-003 1.0215213794540500e-002
      -5.0089275888221055e-003 3.4348720545314018e-003
      1.4210962128994324e-002 -1.6507721864632355e-002
      -2.9839773850869368e-003 -2.7038333864917797e-003
      -1.9798658881966329e-003 -3.4776054939932317e-003
      -6.2159303266401886e-003 7.7376806322352592e-003
      2.0715881106693493e-002 1.6716832531105570e-002
      -7.3250790686014240e-003 2.7414064667866604e-002
      2.6223808763731409e-002 -3.9479573191819488e-002
      -2.3128081419527671e-002 -1.9479239114737062e-002
      5.3425748507973042e-003 -1.2597206245491748e-002
      -1.3995204335742407e-002 2.4056729614713369e-002
      8.6894218520121060e-003 9.0372244377913847e-003
      -5.0129765358367271e-003 -1.9515808825666327e-003
      4.8000239007930023e-003 -1.2443447647827110e-002
      -3.3265678528401534e-003 -9.1823150495756161e-003
      7.5119277881492150e-003 -9.2017139624767132e-003
      -1.3679472989049007e-002 1.5682860828292754e-002
      2.3654033993015114e-003 -6.8199882064713252e-003
      3.8523019672501518e-003 -7.4319751190976063e-003
      1.3763591494800418e-003 1.2097380617753830e-002
      -5.1515550409855733e-002 -3.8550669754728407e-002
      3.3631953395734687e-002 -5.8012947456993515e-002
      -6.4871160296884875e-002 9.0916218768757676e-002
      -1.5590696731431392e-002 -6.5631375096009926e-003
      7.1939832884540204e-003 -1.3217920818322662e-002
      -6.5278579927225237e-003 2.4705132598152702e-002
      -7.3433361361107466e-003 -1.4071311145135669e-002
      1.2838146923907274e-002 -8.4404014698044073e-003
      -1.8844943028759498e-002 1.3810084009112605e-002
      3.2803662714185541e-002 1.6624460535653834e-002
      -2.0792436476119620e-002 2.0948401995362124e-002
      3.3288917847408506e-002 -6.1475143642319430e-002
      2.5158389592302103e-002 1.6684636689625647e-002
      -4.1335836747766501e-003 1.3402227722315987e-002
      1.5038780872638222e-002 -3.0929120520894405e-002
      4.1500960911666891e-002 2.9595698006886342e-002
      -2.4015599532906978e-002 3.6698588601790705e-002
      4.5000986662724521e-002 -7.0237183578508458e-002
      -8.2630447748797096e-003 -7.3081107529908776e-003
      1.2806352768128327e-003 -6.5943559797863489e-003
      -6.7861138571919050e-003 -5.7371375444732250e-003
      -1.4862953154427996e-002 -1.1175628034747668e-002
      8.6810874066877344e-003 -1.0949865495784365e-002
      -1.6042399921474118e-002 2.9734234314904861e-002
      -4.0985992521797081e-004 -4.5750760987304084e-003
      -2.3358845985765419e-003 4.3804772549714066e-003
      1.2423547166296700e-004 -8.7646499922773699e-004
      2.0643225227390379e-002 1.7796849554415867e-002
      -1.4316286532819640e-002 2.5060990943305644e-002
      3.3556978603188042e-002 -4.2031623541086138e-002
      5.3824315867502845e-002 3.3064321116824537e-002
      -2.3879452192618365e-002 4.2806201684331781e-002
      5.0934192153516140e-002 -7.1933280854375808e-002
      -4.7423102525971764e-004 -3.9191302703426179e-003
      1.4635432618033021e-004 3.3180061770516664e-003
      2.4474754701168215e-003 -4.9870418947482315e-003
      -2.6442333134849654e-002 -1.5958827623634621e-002
      1.8949432510641066e-002 -2.8229765063687746e-002
      -2.7678865382508695e-002 3.6429411554588786e-002
      1.5980831482010155e-002 1.8119683919995446e-004
      1.1023878342804597e-004 1.6295870102299256e-002
      8.7715815500177090e-003 -1.8174032396439183e-002
      -6.1271329579718689e-003 -5.9598603591685759e-003
      -7.6911017484624115e-003 -1.0014777473735816e-003
      -5.1474703902034307e-003 1.1011560090800914e-002
      -7.7987113074424663e-003 -9.4524286880691942e-003
      1.5780145049072744e-003 -7.5249165835048187e-003
      -1.0713469399423964e-002 1.2026377045184979e-002
      -1.8264621701280126e-002 -2.1039178016433388e-002
      1.4058474680066557e-002 -1.0176679153459300e-002
      -1.6378571119323861e-002 3.3532900669983476e-002
      -2.9092108505076129e-002 -2.5783527691075427e-002
      2.4090133712845224e-002 -2.9978942979136596e-002
      -4.0727000135795451e-002 5.1514180686485680e-002
      -4.1949418919923868e-002 -3.5738230067858673e-002
      2.6695343125547961e-002 -4.0714796944343802e-002
      -5.3566868704488069e-002 8.5294802267864206e-002
      1.1632443202236515e-002 1.2418907596337278e-002
      -3.8667041377279990e-003 2.1496959648141203e-002
      2.4338848890003390e-002 -2.8827950499944192e-002
      9.9223569624121172e-003 2.0572579171030780e-002
      -1.4123063095957100e-002 1.1476763237193406e-002
      2.3449398330776375e-002 -2.7470766879922795e-002
      -4.9903842374739976e-003 -7.5233462219252692e-003
      -4.4461531308107073e-003 -3.6095557364504188e-003
      4.1249800039872898e-004 1.1389031143114760e-002
      3.4893001898751476e-002 2.6162515025309963e-002
      -2.6564328063916860e-002 4.4656066246316392e-002
      4.3320000308241180e-002 -5.7128091958018171e-002
      -1.8400886704481804e-002 -1.9000043593566784e-002
      4.8691825444578127e-003 -1.6271222421660896e-002
      -1.2105815641090924e-002 2.3634267968588179e-002
      1.7133808111783978e-002 1.1126068984830385e-002
      -1.5426195376534779e-002 1.7714887743349509e-002
      1.0924118838998999e-002 -2.9174888348948078e-002
      -4.0788986973855759e-002 -3.8244730124796712e-002
      2.0724629620512490e-002 -3.7502094517472349e-002
      -4.0507364427877363e-002 6.6032365576102398e-002
      2.6182079663642461e-002 1.5294695913654177e-002
      -2.0733394593025260e-002 2.4385213535667465e-002
      2.6738175358585851e-002 -4.1783927664025791e-002
      -2.7416079135075763e-002 -2.4620788050142530e-002
      1.7229865782197686e-002 -3.5123033255233929e-002
      -4.1219495898520815e-002 5.4144267846483636e-002
      4.9303335297341461e-002 4.0655863685183230e-002
      -2.6992953288954995e-002 3.6484394463380275e-002
      4.5970182378998858e-002 -7.6289790263761093e-002
      -2.1610355025191044e-003 -6.2408835110536387e-003
      -5.0173730634544651e-003 -8.0069245101854723e-003
      4.4382314776860079e-003 1.2325687648527118e-003
      -1.1902869650979517e-002 1.7502837097168155e-003
      7.9192175956820775e-003 -8.7303703751390530e-003
      -7.7271414056573904e-003 2.2795013502556563e-003
      2.6552740923857451e-002 2.8066060639321311e-002
      -1.9688764323508762e-002 2.5685268469436064e-002
      3.7738093836672752e-002 -4.8287851303214571e-002
      -4.6234014329614307e-003 -5.9427015299258210e-003
      -2.6018330592549673e-003 -2.5625022194781040e-003
      -1.6441173275624266e-002 1.4880592319264566e-002
      -3.4425344752621170e-002 -1.9140501261234278e-002
      2.2240409980040936e-002 -2.9618874161157438e-002
      -3.5921934940752215e-002 4.3442137726770802e-002
      1.1158701707186976e-002 1.2417085123414310e-002
      -3.3729896000478398e-003 1.4009361450189793e-002
      1.1003937394182699e-002 -1.6091716215734735e-002
      -2.3002402822047574e-001 -1.6835750151772666e-001
      1.3417498050274992e-001 -2.0873033300386792e-001
      -2.4858135568575485e-001 3.5984380228921858e-001</_>
    <_>
      5.7726333394339580e-001 4.5427983834019453e-001
      -3.4120011156186403e-001 5.4185299401298248e-001
      6.5590958209660977e-001 -9.6921093388982948e-001
      -4.2067576654051997e-001</_></weights></opencv_ml_ann_mlp>
</opencv_storage>
