<?xml version="1.0"?>
<opencv_storage>
<opencv_ml_ann_mlp>
  <format>3</format>
  <layer_sizes>
    256 6 1</layer_sizes>
  <activation_function>SIGMOID_SYM</activation_function>
  <f_param1>6.6666666666666663e-001</f_param1>
  <f_param2>1.7159000000000000e+000</f_param2>
  <min_val>-9.4999999999999996e-001</min_val>
  <max_val>9.4999999999999996e-001</max_val>
  <min_val1>-9.7999999999999998e-001</min_val1>
  <max_val1>9.7999999999999998e-001</max_val1>
  <training_params>
    <train_method>BACKPROP</train_method>
    <dw_scale>1.0000000000000000e-003</dw_scale>
    <moment_scale>0.</moment_scale>
    <term_criteria>
      <epsilon>1.0000000000000000e-004</epsilon>
      <iterations>300</iterations></term_criteria></training_params>
  <input_scale>
    8.6566090406451707e+001 -4.2613352090492835e+000
    9.0831618087709558e+002 -8.6929371631456203e+000
    8.7885841928015930e+002 -4.5336165505738544e+000
    6.5786759430291340e+002 -8.2535893006321519e+000
    1.1208949816899274e+003 -8.6999078080192920e+000
    6.5186996773647297e+003 -3.0382018783429876e+000
    7.8302814133760523e+002 -8.6545215318309570e+000
    2.4568984081929321e+002 -5.9260794164892285e+000
    1.1616903899105698e+003 -5.4935359295971136e+000
    6.5396849221528282e+003 -3.9810384624990456e+000
    7.1042521576927984e+003 -2.5452774586380635e+000
    7.2054967664989390e+003 -3.1526904704561800e+000
    1.0306914813131098e+003 -1.0467041174864661e+001
    4.3612487085550492e+003 -3.3186420536974088e+000
    2.0253387881203827e+002 -5.5655077004278715e+000
    1.5127339123673096e+002 -6.0202397221947512e+000
    8.7453098637611674e+002 -7.7568180164833844e+000
    6.1571504348702729e+003 -3.0453883568278193e+000
    5.5115354431754904e+003 -3.3988385095478986e+000
    6.7722331918936752e+003 -2.5980983931500168e+000
    6.0422452555446962e+003 -2.8640319734380904e+000
    4.2625512946156792e+004 -7.4331111623943447e-001
    4.5407153539892570e+003 -3.5343869319466061e+000
    1.2288570514043055e+004 -3.7987813885443154e+000
    7.4326867289343159e+002 -8.5261448280740986e+000
    7.5944898005778959e+003 -2.9015093212841423e+000
    7.8979680872597337e+003 -3.8938936684153234e+000
    8.0931676057343238e+003 -4.1697519441472970e+000
    2.8093483702904899e+002 -6.5530677756646929e+000
    1.1395864984422609e+004 -3.1795692435316636e+000
    2.2385771651492954e+002 -8.6292394796046050e+000
    6.7220173002546812e+002 -7.2495059711992509e+000
    6.3263895444775233e+002 -3.3848390238937012e+000
    5.6898139578013015e+003 -3.9056586791064634e+000
    6.4343900932681772e+003 -3.6007288363826930e+000
    4.3328632676606076e+003 -3.9495821032950595e+000
    7.4699287156844612e+003 -4.4644311733820059e+000
    4.8238480642255839e+004 -9.9413484677243458e-001
    5.0401138102811337e+003 -4.1867781896977476e+000
    3.2125190519394346e+003 -2.8621365079509715e+000
    8.4264105001293628e+003 -3.3930062006724326e+000
    2.4723000712351608e+004 -1.0582134322539876e+000
    3.6178860481691874e+004 -9.1766293548224709e-001
    2.2821542578016633e+004 -9.4064698688014825e-001
    6.5869342583064154e+003 -3.3101747037915707e+000
    2.7556625376062748e+004 -1.4852968963237643e+000
    9.0197161660999736e+003 -8.2504380192871665e+000
    4.2533361580497922e+003 -4.1468004828054079e+000
    7.7967447091758061e+002 -9.4097363979057089e+000
    1.5672351677537214e+004 -5.7143959424994692e+000
    6.6363247992418983e+003 -5.2076423895513919e+000
    7.2649863726080894e+003 -3.1211340326162920e+000
    5.4607044210628910e+003 -3.8436157310846362e+000
    4.8238480642255839e+004 -5.3530337903131087e-001
    4.2869925794820692e+003 -3.9213613102826375e+000
    8.6008406908375837e+003 -3.4223383927313860e+000
    1.9121241731859462e+002 -4.8391170821426819e+000
    1.3065334675712982e+004 -4.4945746407420124e+000
    4.7160064397844180e+003 -3.5661621767215022e+000
    8.8338326914993722e+003 -6.0357989361644266e+000
    1.3799659687898679e+002 -4.3170970492661329e+000
    1.1088873245766290e+004 -2.4962270664679367e+000
    3.4858838442676023e+002 -6.0317726668157334e+000
    1.0180936057556204e+003 -4.6918169708685129e+000
    6.8950969695340996e+002 -5.5987137718856275e+000
    5.7366792083215623e+003 -3.0283992009455800e+000
    8.0508708334921484e+003 -4.9647888698876734e+000
    6.6067751935683718e+003 -5.0482969200365302e+000
    8.7985299389943466e+003 -3.4870522040729406e+000
    3.1115068736149544e+004 -6.4124271076708717e-001
    1.0227545529995024e+004 -3.9885482760219593e+000
    1.0272198649973465e+004 -2.8823386156015847e+000
    7.4340491388267437e+003 -4.2426406871192848e+000
    3.9815742122350515e+004 -8.2055272402714430e-001
    3.6664504500041417e+004 -1.6274669424134705e+000
    2.0980095484450285e+004 -7.9822812628528717e-001
    7.0880877404847142e+003 -2.6967994498529686e+000
    7.2838508451608912e+004 -5.7735026918962573e-001
    1.0497307794130416e+004 -3.7775664531478350e+000
    1.1373614657336520e+004 -2.4882036386124344e+000
    7.2092604109271570e+003 -3.7943476633246984e+000
    3.9424999183038031e+004 -7.4999999999999989e-001
    3.5485271659883583e+004 -1.0125791108334219e+000
    5.4090652633084712e+004 -6.8599434057003528e-001
    3.8038670443696094e+004 -9.0453403373329078e-001
    1.0513333115476809e+005 -3.3333333333333331e-001
    4.2920502714705261e+004 -5.4433105395181736e-001
    1.0513333115476809e+005 -3.3333333333333331e-001
    5.8257758484629912e+003 -4.0082225279422694e+000
    4.7148204673790446e+004 -6.7269158347674229e-001
    3.2402018875386115e+004 -1.0786975435687798e+000
    2.8791948509563572e+004 -9.1287092917527701e-001
    1.0602054799095871e+004 -2.5210974204480534e+000
    7.2838508451608912e+004 -5.7735026918962573e-001
    1.1955205899504397e+004 -2.5775333481682710e+000
    1.2728507840758586e+004 -1.4528417620882714e+000
    4.6849489352167888e+002 -5.1461654181594110e+000
    7.5698423941734400e+003 -6.0481937727084318e+000
    6.1703923340064275e+003 -5.1159087427097916e+000
    4.6447693567171482e+003 -4.2265339486987603e+000
    9.6207283716370293e+003 -3.9501723206852239e+000
    6.4380754072057891e+004 -8.1649658092772603e-001
    1.1049674769964060e+004 -5.4477630384728384e+000
    5.3753770962968974e+003 -2.1900316144182992e+000
    5.1972733716409184e+003 -2.8260380523352642e+000
    2.1522617810717900e+004 -1.3306628281731339e+000
    3.6480105152492346e+004 -1.0987983707358564e+000
    3.0816595949920411e+004 -9.2821074061746001e-001
    9.3660215502711380e+003 -4.9294851286069239e+000
    3.1115068736149544e+004 -1.1345063344340773e+000
    4.7462121595557937e+003 -3.5814791293016386e+000
    6.1562706953232619e+003 -3.5231670371978332e+000
    2.5565295047275555e+002 -6.7074450004684856e+000
    8.2692761834121920e+003 -2.5038550788849059e+000
    4.0153103596663759e+003 -3.5646382548351645e+000
    6.7632744347198195e+003 -2.7983745466717216e+000
    8.7678788803064726e+003 -2.6131281922239036e+000
    4.4164832935062972e+004 -4.2008402520840288e-001
    6.0541999246040432e+003 -2.8025149248845120e+000
    1.2042027707491501e+004 -1.4508467418103042e+000
    1.1049279687828978e+002 -4.2699475517087615e+000
    1.2618523695732276e+004 -2.8205641692564192e+000
    4.7160062563753436e+003 -3.8353063585849232e+000
    7.2882250928848644e+003 -3.5008437680802369e+000
    4.8006434613861808e+002 -4.4315388627850485e+000
    1.3342982361670965e+004 -1.5864357924258810e+000
    7.8972814227429342e+002 -4.1351807952465585e+000
    2.6268743592547630e+003 -3.2315385250776991e+000
    4.5467045981037450e+002 -2.6950108728318751e+000
    4.8017562584559482e+002 -6.5213453073104288e+000
    3.6682478991639541e+003 -1.9946243639050845e+000
    1.3808036287675904e+002 -4.2619287034111561e+000
    7.1241596667815911e+003 -4.2916625387999456e+000
    4.4861868457080382e+003 -3.6057336365027446e+000
    6.9006890782416440e+003 -3.5225458611895770e+000
    2.0586196276291403e+002 -6.8298654486979711e+000
    7.2186953847471796e+003 -4.0968500337524114e+000
    5.3367635117968948e+003 -4.4247421295448719e+000
    2.3443496886841189e+004 -9.6628239012131634e-001
    5.4492822292111541e+003 -4.4921160239307110e+000
    6.0870905647003092e+003 -4.8345472811255714e+000
    4.2778148175644237e+003 -4.1774475701492815e+000
    6.2181745945921975e+003 -5.6878357342744961e+000
    3.8776550127953965e+002 -6.9881392993418601e+000
    5.7016558253411067e+003 -3.7962832519514524e+000
    7.7202881770707245e+003 -3.2065877366948214e+000
    3.3062903065082224e+004 -1.7820842224272606e+000
    1.0626095770552454e+004 -3.6049215948312723e+000
    3.6978150115196899e+004 -9.9655764899293342e-001
    4.7548338054620122e+004 -9.0453403373329089e-001
    2.9936442565693025e+004 -1.6135685927792478e+000
    1.4262880726564705e+004 -3.1202878583583278e+000
    4.7408476079265474e+003 -3.7277432543614504e+000
    7.0903262018512642e+003 -3.0910585699326796e+000
    4.5057141923472031e+004 -1.5714285714285712e+000
    8.1633447930082530e+003 -4.8270888885365357e+000
    4.3222719617676030e+003 -4.0358563705766306e+000
    8.2942578696396795e+003 -2.9453294250140174e+000
    4.4583124700235603e+003 -4.3749134860835586e+000
    1.0011803123657935e+003 -4.9947914573952055e+000
    3.1904599701577613e+003 -1.5325132835690327e+000
    4.3617699205978051e+003 -2.3855590453094133e+000
    2.8238485638585273e+004 -9.4008911017527508e-001
    4.3029211631172730e+003 -3.9359314186239067e+000
    2.8098064650813500e+004 -1.6035674514745464e+000
    3.5044443718256036e+004 -1.4444444444444449e+000
    2.8098064650813496e+004 -7.1269664509979824e-001
    5.2141134359026510e+003 -3.9510879423076797e+000
    4.2147096976220244e+004 -1.0690449676496974e+000
    2.1974958815394119e+004 -8.3607961714994095e-001
    6.6125806130164463e+004 -3.1448545101657549e-001
    2.9936442565693025e+004 -1.6135685927792478e+000
    3.7969697276446299e+004 -1.0834726777719228e+000
    2.7374387781651159e+004 -1.1717001988274147e+000
    1.9598002013569479e+004 -1.1806025554022803e+000
    7.0197303751531163e+003 -4.5069607608781714e+000
    5.5199701898512449e+003 -2.8964967669119526e+000
    5.1408729694182039e+003 -2.7057226715510523e+000
    3.6978150115196899e+004 -9.9655764899293342e-001
    6.8973881026505760e+003 -4.7455080827215337e+000
    2.5666887457774992e+004 -1.3834403799109709e+000
    3.3062903065082239e+004 -1.3627702877384942e+000
    3.0244544430972779e+004 -1.1986582537134602e+000
    7.5201890813202235e+003 -3.3619108511051929e+000
    5.5273823429326321e+003 -4.2410480009085818e+000
    7.5121857560389180e+003 -4.6087760745564008e+000
    2.7170478888354355e+004 -1.3352645259872391e+000
    3.2874238184182132e+003 -3.4865036774610414e+000
    6.4501811604136292e+003 -4.6423308428468930e+000
    8.0137533439722511e+003 -3.3284772029622038e+000
    6.5274189499779395e+003 -4.1287891804220314e+000
    9.3799802416631053e+002 -4.7331130509167227e+000
    3.1546582077128761e+002 -3.8643062770161833e+000
    3.1154130707255052e+002 -9.1318941084867422e+000
    4.4040872576175625e+003 -2.6181559223676709e+000
    1.2319853056238115e+002 -5.6447113412808347e+000
    6.8924455093231682e+003 -2.4912454164390083e+000
    1.0292689790725126e+004 -2.9044052325835295e+000
    8.5968460593041182e+003 -4.8517394745263989e+000
    5.9142873118850014e+002 -6.3502643987183687e+000
    6.7477783107167297e+003 -5.2309189320162801e+000
    3.6124833360574103e+003 -3.2242044078139109e+000
    2.3251596003809398e+004 -1.1795356492391771e+000
    5.1649425940088886e+003 -4.4378550007602993e+000
    6.9139405337075232e+003 -3.6608373273788053e+000
    6.2181742296341090e+003 -2.6319793178756168e+000
    6.2109362261799415e+003 -4.7753711488832407e+000
    8.0390940906483627e+002 -4.5497092388171163e+000
    5.9554505683221032e+003 -4.9188170395129003e+000
    9.5762803243821309e+003 -3.0210523526338018e+000
    3.1383472328897031e+004 -1.2935483472729861e+000
    1.1403310829702114e+004 -2.3500799597021080e+000
    3.3432332442618230e+004 -9.5399809200572394e-001
    7.2838508451608912e+004 -5.7735026918962573e-001
    3.2749503545922656e+004 -1.4017701554581454e+000
    3.0816595949920393e+004 -2.8823386156015847e+000
    4.4125916789667626e+003 -3.9313198330125436e+000
    6.4858822955738688e+003 -2.4779607888771369e+000
    3.0816595949920411e+004 -9.2821074061746001e-001
    6.1807501780878983e+003 -3.0570610265115179e+000
    6.1843135973393037e+003 -2.8823529411764728e+000
    1.3375939143877900e+004 -2.0356534312319297e+000
    4.5943542531692365e+003 -2.3816643499017238e+000
    3.1581082565949355e+003 -4.4658094024669488e+000
    9.2248667257814063e+001 -2.6212192788954933e+000
    1.1457458256498711e+002 -4.8040315900636843e+000
    4.5505112363247363e+003 -4.3860350042214247e+000
    4.8758335463892024e+002 -9.8451952697993566e+000
    5.5766261453005445e+003 -2.3427488255035374e+000
    1.2276928095025609e+004 -2.7247463045653308e+000
    5.3444195505048547e+003 -3.7871838598094096e+000
    8.7667019888159291e+002 -4.6821526455437379e+000
    5.7557527941267253e+003 -5.4108456322295053e+000
    4.6407453430823016e+003 -4.2522999298139208e+000
    3.9120554478783059e+004 -1.8605210188381267e+000
    6.0158092731129191e+003 -3.9577693406395271e+000
    7.6841166208572276e+003 -5.1284292397219389e+000
    5.3629297635039911e+003 -3.0181358523296011e+000
    2.2701371090314274e+003 -3.3936894430370925e+000
    6.7020122447070742e+002 -4.2264750471602310e+000
    2.1174544373542565e+002 -8.7736059883898534e+000
    5.5175117755060955e+002 -5.5070155049094796e+000
    4.6574123348804114e+003 -4.5481388679201418e+000
    1.3904293815967933e+003 -6.6589841557563441e+000
    1.2070654676698596e+004 -2.8129141950592840e+000
    1.4038590828367571e+004 -1.8026726072625436e+000
    5.9448618417235039e+003 -3.6660610405056464e+000
    3.6284045972826220e+003 -4.5096214277169091e+000
    3.3145785065776784e+002 -5.9528947084877633e+000
    1.2749184801126839e+003 -5.7520894389595147e+000
    6.5923276386076323e+003 -4.2011981065880990e+000
    1.5205342183894691e+003 -7.6267759805243873e+000
    7.8042357807171516e+002 -3.9652149484192294e+000
    3.5586772091104431e+003 -4.2311475852998512e+000
    6.6506346224462084e+002 -3.9937545869750837e+000
    4.0904411026342626e+002 -4.7187920438793816e+000</input_scale>
  <output_scale>
    1.0526315789473684e+000 0.</output_scale>
  <inv_output_scale>
    9.4999999999999996e-001 0.</inv_output_scale>
  <weights>
    <_>
      6.3541590325085001e-003 1.2009923073220937e-002
      -1.1316461397361420e-002 2.0317420802029793e-002
      2.0715801267808202e-002 -2.3356629975135303e-002
      -1.1305305386795103e-002 -1.1866578961418258e-002
      1.2737267196589951e-002 -1.4030895465266324e-002
      -1.8364542003304746e-002 2.1886984337011996e-002
      9.2515706922515276e-004 7.9244352675541842e-003
      -6.0390295026069418e-003 8.5794088966721031e-003
      -9.2505039772423111e-004 -3.0016287237770128e-003
      -1.8934609585459620e-002 -2.7940655039578586e-003
      8.2602522546432640e-003 -1.7864601887676024e-002
      -6.7819096959908839e-003 1.6313301952270064e-002
      1.4448792785979462e-003 1.1005335930958220e-002
      -5.6480349864961111e-003 6.2791414724870159e-003
      1.0536809898503309e-002 -1.6394556561935024e-002
      -5.9382429389740702e-003 -2.2086313088244226e-003
      -1.5096304571202883e-003 4.2263837269291395e-003
      -4.2403779853567840e-003 -2.7055161108518518e-003
      -6.3497367645254669e-004 -5.3992556026170617e-003
      -1.4040737816402768e-003 -5.6468729205710992e-003
      -3.7211814836704137e-004 1.2645470729952342e-002
      -1.4687451703212635e-002 -1.3038540641746203e-002
      1.4066695466502309e-003 -8.7039363248224196e-003
      -1.3617414678072164e-002 1.6611536675809190e-002
      2.4227320557818757e-002 1.7682721622786196e-002
      -1.1652401235486512e-002 3.4033623167376653e-002
      2.7372752309688792e-002 -4.8212890779772637e-002
      1.0766092585390194e-002 1.5526678486510240e-003
      -3.5272816680259286e-003 2.6766896234330212e-003
      8.3565041596739484e-003 -1.1486946308641463e-002
      1.2485208477992487e-002 -2.2122560416877796e-003
      3.0133236763253734e-003 2.3324312524347661e-003
      1.2795735172283195e-002 -1.8007436458879204e-002
      1.1390725884648654e-002 3.0247480820300345e-003
      -1.0837321524041458e-002 7.4023894044338411e-003
      5.1892773475914469e-003 -2.0057638565532835e-002
      -3.9425333605258486e-003 3.0794121837169220e-003
      -8.2745257564349837e-003 -2.9986503637638255e-004
      6.5222768303189993e-004 1.4078951881404194e-003
      3.0367459527208158e-002 2.8268370840182137e-002
      -2.3808153141222879e-002 3.6521247649467292e-002
      4.6423068102634982e-002 -5.3766589912298116e-002
      -8.0226185566108030e-003 1.0494953445944835e-004
      4.9466862169737849e-003 1.0236862931048901e-004
      -2.8545041473673539e-003 1.0985793862518889e-002
      -5.2145422007398067e-003 8.9512488674269573e-004
      -1.9473515070492766e-003 -3.5027889879158279e-003
      4.1801982875831339e-003 -6.8852322313917036e-004
      3.6591117912452634e-003 5.9714174367097054e-004
      -1.1523359780188137e-002 7.4930942564424832e-003
      3.2367259921241369e-003 -1.8416857567884103e-002
      1.3852088796130986e-002 1.3793037898607139e-002
      -7.0890935268730715e-003 7.8009760124392825e-003
      1.9392148519094914e-002 -2.8143143815189908e-002
      8.9903528025728398e-003 7.8409287356595529e-003
      3.2288524637832797e-004 1.1786243157879579e-002
      2.0267333257978859e-002 -1.5992601212223085e-002
      2.2946075095712035e-003 7.9720404984659227e-003
      1.6802265789395382e-003 4.4158460523233680e-003
      1.0337224164798616e-002 -1.3783044063753899e-002
      -3.2649335201805890e-003 -8.3366160363749847e-004
      8.0571169939899316e-003 -5.6340648750545135e-003
      -2.4502148939658506e-003 1.1137127531456759e-002
      -1.0578443648844688e-002 -6.4073721841182629e-003
      9.1824027051324111e-004 -1.5992053627667897e-003
      -9.2061692355185354e-003 1.3377321111863214e-002
      4.4379663428304834e-003 5.7703413428442383e-003
      2.4094360702475591e-003 3.5706900226885421e-003
      3.1986961680552516e-003 -1.4609861860531833e-002
      -1.9410465062180752e-002 -1.5801478477434790e-002
      6.0998908950450550e-004 -8.4586673404879638e-003
      -1.2662179284304421e-002 2.0242107563681912e-002
      2.5142899405089975e-002 1.6192878965655067e-002
      -1.1360999178055430e-002 2.4584568370116102e-002
      2.9887131577899590e-002 -3.4486306048794740e-002
      1.4702284107861690e-002 1.2344395693705818e-002
      -9.7308458416200342e-003 2.0573918085019301e-002
      1.8539357317044459e-002 -3.0163454121936151e-002
      3.8357899675627530e-003 4.1450454985903547e-003
      -1.1224998719075931e-002 4.1899256551932041e-003
      1.6609431961598860e-002 -1.6552238384305060e-002
      1.9931163646954637e-002 1.6616062260924144e-002
      -1.6277384182721726e-002 2.5708945124138169e-002
      3.3620255466413250e-002 -3.7338590818580666e-002
      8.5743432183165002e-003 3.2201129334771456e-003
      -3.2409710041974571e-003 7.3762766527709894e-003
      8.1502330973217581e-003 -7.1444055480761066e-003
      4.9282416315504611e-003 9.5965894163777717e-003
      -1.2652885861402320e-002 1.2120383024656574e-002
      1.7087796672099888e-002 -2.2549861071392573e-002
      -2.2515929843101891e-002 -1.7566397012487224e-002
      1.0508548702201801e-002 -2.0161470664430609e-002
      -1.3310015496741217e-002 2.0094425277539588e-002
      1.5294098814695100e-002 1.3441161962949697e-002
      -7.8376255195547022e-003 1.5718245306105594e-002
      1.4480771418253199e-002 -1.5289578869612675e-002
      -4.7059434824112773e-003 -1.9416212769318771e-003
      4.2211081330501108e-004 -3.8510620630982833e-003
      -2.1835537068420202e-003 9.7924772389577294e-003
      7.9836397535347683e-003 3.2590855411513625e-003
      -8.1567011763145989e-003 7.5178571901853885e-003
      7.0643204534012903e-003 -2.5196813150139778e-003
      -3.8658143360571912e-003 -4.5657453637740344e-004
      -2.0815268134431031e-004 -7.9782728408941250e-003
      -6.1851433129410140e-003 3.8125049969933269e-003
      -1.6064552437439928e-003 5.0668120001285894e-003
      -4.8806253541422446e-003 1.0612267055701155e-002
      2.6747566117487046e-003 -1.4852552469162648e-003
      -2.3814007956340862e-002 -1.8367363789450426e-002
      1.9209349515424044e-002 -2.3380689612053921e-002
      -2.5073964024838989e-002 4.1326777570537411e-002
      1.0074001246239837e-002 4.7605274581084036e-004
      -2.4828128223239859e-003 1.6570075269092199e-003
      -1.4840345315978451e-003 -9.9628232102450896e-003
      9.5752485041172269e-003 1.0793385448302467e-002
      -7.4921732002444230e-003 9.0692509200322683e-003
      1.3589254087178648e-002 -1.2947230042014507e-002
      2.7172818873103442e-002 1.6024117170901447e-002
      -1.3833677191300320e-002 2.7798907993015407e-002
      1.8166679935714289e-002 -4.1003563942579591e-002
      -2.9834661318820968e-002 -1.6281355295047782e-002
      8.1981469803805787e-003 -1.9437827437805196e-002
      -3.1198099071359599e-002 3.4336205670603290e-002
      -4.6856986636175761e-003 -6.7237895235711630e-003
      1.0219615948260118e-003 -4.1493303119664055e-003
      1.1700516433415405e-003 4.8519616887856745e-003
      1.5249410065591891e-002 7.3743597739720753e-003
      -6.5858550555898503e-003 8.8633054784104989e-003
      1.2548737176869653e-002 -2.6353821388915823e-002
      1.7426641309959193e-002 8.8702948780810323e-003
      -8.4699499849587572e-004 1.2182867906677540e-002
      1.0989095410921780e-002 -2.0797462220505866e-002
      -9.8770961758157857e-003 -2.7176002415021309e-003
      -5.2130691145866139e-004 -7.3685693699321970e-003
      2.7528883595367643e-003 -1.8331282734716391e-004
      3.8542807446851263e-002 2.8334047426200982e-002
      -2.5877225513734520e-002 3.5114173948833753e-002
      3.3631885088680855e-002 -5.1563433935787627e-002
      2.3897684945919363e-002 2.7338187204345020e-002
      -1.7567636991181738e-002 2.9104212478510794e-002
      3.5389783527513256e-002 -4.6003736679510451e-002
      5.2382209538899610e-003 4.3184340197278221e-003
      -7.3382981107491564e-003 3.2529832741382382e-003
      5.9509291810047188e-003 -9.8037888675716507e-003
      -3.1505451212011877e-002 -3.1774258583010993e-002
      2.1358196132140416e-002 -4.0172988372803142e-002
      -3.6784966592224078e-002 6.2336070697003323e-002
      1.3567961678249680e-002 1.2436221043688208e-002
      -5.1193578181513598e-003 2.2403804678864424e-003
      9.5253403317714438e-003 -2.0087625075841546e-002
      -4.3535243931457079e-003 3.6274224540363198e-003
      6.2504060061718703e-003 1.7783629768697352e-003
      -5.3940306387875378e-003 1.0893955740365932e-003
      1.3574528145695259e-002 7.0469745612350889e-003
      -5.7422584959285032e-004 2.8192554181906732e-003
      1.0739081104217226e-002 -1.9326272181692829e-002
      -2.5059732097293355e-002 -1.5072760420803556e-002
      2.0581912691777070e-002 -1.9961656243084099e-002
      -3.3946861506222892e-002 3.7440315842146563e-002
      2.6035802239943624e-003 6.1684015424430345e-003
      -2.4891968947730551e-003 5.0331948513342700e-003
      9.7828848968204438e-004 7.9677716979134738e-003
      2.0023570279249659e-002 2.7277290831355598e-002
      -2.2716276920977396e-002 1.9154007189620324e-002
      3.3530738353634501e-002 -3.6921446608060647e-002
      -6.6017375536292075e-003 4.0412309545755599e-003
      6.2128358806602850e-003 5.0172373639734434e-007
      -2.8290618362764014e-004 9.0164263046707445e-003
      5.7710278118644738e-003 7.8034866994244143e-003
      -8.5561968268340824e-003 4.8164491354809281e-003
      1.1228948173842249e-002 -1.4929371116350192e-002
      -2.1967480116969749e-005 -3.0350150188227557e-003
      2.7533663554393734e-003 -3.8571617798999544e-004
      7.2746218614999150e-003 -1.0079853344229658e-002
      1.4015804790632292e-002 1.4541433760611403e-002
      -5.5516276777999550e-003 1.2647147907344520e-002
      6.1321036736320042e-003 -1.0704028101912573e-002
      2.4720195831346686e-002 2.3053696138885461e-002
      -6.7876733983005125e-003 2.3046329705942382e-002
      2.8621658361794051e-002 -3.6417385734377430e-002
      5.0390355138848269e-003 -5.9933865704187234e-003
      1.9918054568772523e-003 2.0158614921609985e-003
      2.3237904445321698e-003 -3.9690665813647986e-003
      -2.1093442258372765e-002 -8.0567937282150850e-003
      1.6616120378212740e-002 -1.9507315120954109e-002
      -1.7446440768110548e-002 2.2724664882340113e-002
      6.0073243955144767e-003 9.6478933262412279e-003
      -6.6993137595848821e-003 2.6364724198556571e-003
      1.7248988630349061e-002 -6.7244908800510941e-003
      2.8661129256999783e-002 2.4691903791345619e-002
      -1.9930752958860903e-002 2.2112430979636759e-002
      3.3921674657287688e-002 -5.0246348207936636e-002
      4.4960084963739698e-003 7.0893092968942620e-003
      -3.9529551147821120e-003 5.4606688136933489e-003
      1.4557247792295051e-002 -1.2118870051338290e-002
      -1.8196684802533294e-002 -7.5547351093677301e-003
      1.4544320751495790e-002 -8.6025741945167430e-003
      -1.1114836541083285e-002 2.6743826181616664e-002
      -1.0270798245799686e-002 -1.2292366888549221e-002
      1.4046297402590568e-002 -1.8654207747008399e-002
      -1.0813461094383069e-002 2.5898314529778910e-002
      -1.6929150077661752e-002 -1.7023074286873253e-002
      1.8623637656878579e-003 -1.5030198317403256e-002
      -8.0800540637160495e-003 1.4370310555836985e-002
      1.2062291851032690e-002 2.5579638032748989e-005
      -1.0702427374344816e-002 6.4487898719315347e-003
      5.9868641157717790e-003 -1.6782372787114010e-002
      1.2921272999983613e-002 1.5294974665460120e-002
      -1.1114836647305424e-002 1.0430091273678841e-002
      1.8599219676333479e-002 -3.4827692869267998e-002
      4.5577869152220029e-004 5.1049869854365272e-003
      -1.1835678476879896e-003 7.5893798781076277e-004
      -6.9950753769222997e-004 -1.1958960483705077e-002
      -1.1194903765097206e-003 -9.8382485482846876e-004
      2.8617362844688969e-003 2.5638833222902105e-003
      8.9455663202978632e-003 -7.4175476840682951e-003
      1.7564644746334759e-002 1.0827680962682971e-002
      -3.6012486405229516e-003 9.7779123715778411e-003
      2.0591983640385846e-002 -1.4616233684951595e-002
      -1.3685310745782515e-002 -1.1992461068959447e-002
      7.2477270841369134e-003 -4.6065327636819397e-003
      -8.9966611593093881e-003 1.9506349562773143e-002
      2.1572742609466847e-003 -1.1751316661340471e-003
      3.9978855632151816e-003 2.8475680551643670e-003
      6.9056982586072435e-004 -1.3212929964214928e-002
      -1.4024202607170516e-002 -1.2993813506307399e-002
      2.4723907874412009e-003 -1.5502348289859778e-002
      -1.4811364958954836e-002 2.8862044134627507e-002
      1.1387374162332745e-002 1.0067703631932315e-002
      1.0647677742890045e-004 1.1161906186270351e-002
      1.7326297694982375e-002 -2.0460570182763642e-002
      -2.7298886821557063e-002 -1.5075458913742762e-002
      1.4002258888836269e-002 -1.4994561302406796e-002
      -2.4544557633482386e-002 3.9194806163359242e-002
      1.7158590414456071e-002 1.2480514225832937e-002
      -7.3991334202802884e-003 1.0784131458628696e-002
      2.3524547708335931e-002 -1.8199012737844508e-002
      1.7671777720947295e-002 1.9173637371534970e-002
      -1.4233554105873640e-002 1.9073754810143170e-002
      1.6013530592945663e-002 -2.5584512126158452e-002
      -2.7129966655498584e-003 6.9951666182012338e-003
      3.6361407453819796e-003 7.2722125607953773e-003
      -2.7293791743447089e-003 -1.2080818857819513e-002
      2.5273986418827093e-002 2.9830740313580281e-002
      -2.2494480020668485e-002 2.9446504728980007e-002
      3.1965614940535188e-002 -5.0472754921179065e-002
      -6.4845568371502587e-003 -1.0344913581394879e-002
      7.5471710538176423e-003 -8.6271315074663429e-003
      -4.8853301745104775e-003 9.0223661633946836e-003
      -1.4099146963034399e-002 -8.9488008897320708e-003
      4.4366506661163690e-003 -1.6864437232466705e-002
      -9.1108040344789476e-003 1.7885551290254199e-002
      1.6004124577488021e-002 2.1635369108432015e-002
      -1.4649989286377124e-002 2.4579685197373472e-002
      2.6484780771184966e-002 -3.1242767744524086e-002
      9.6932193624265431e-003 1.7734812562279285e-002
      -6.6117809454832328e-003 1.5716284178830142e-002
      2.0246005926273711e-002 -1.7290753110274112e-002
      -6.6409949350311045e-003 -8.5448898197618695e-003
      5.4847888855165654e-003 -1.8166015889549015e-002
      -2.2288204232693756e-002 1.6239806169173521e-002
      4.9845134438434085e-003 3.8643883352366699e-003
      -8.9306423668312502e-003 3.3498308482748079e-003
      1.0326705023179426e-002 -2.6851463441671525e-003
      3.4280744670267226e-002 3.1157282651158680e-002
      -1.7849696944477956e-002 2.9093844808187275e-002
      4.0263298838569064e-002 -6.3518868134499182e-002
      8.3041993863811839e-003 1.6213065468716176e-002
      -1.1984869365167009e-003 1.0041305601690070e-002
      9.3989692280177645e-003 -1.8396575732539808e-002
      -3.0647614734609092e-002 -2.6840064705324365e-002
      1.7325069138672280e-002 -1.9988163299810541e-002
      -2.6269874588666989e-002 3.6181207423127554e-002
      -9.2751309087375743e-003 -7.0520817438549316e-003
      1.0555484484416618e-002 -4.6493652537342453e-003
      -1.6298852381426688e-002 2.2604237555389924e-002
      3.9172247346482530e-002 2.9327152077027338e-002
      -2.4502156885443011e-002 4.4566284542924460e-002
      4.6042994425839166e-002 -7.0942219974565415e-002
      -2.2297902298946137e-002 -2.2913398212269290e-002
      1.1601628816661156e-002 -2.0916907953812590e-002
      -1.6335431237744460e-002 3.1049740946666606e-002
      -3.1679714864653523e-003 -9.0880262289165059e-004
      -5.6623190912975961e-003 -5.4302213044081244e-003
      1.2464730701846328e-004 -2.6627786715920890e-004
      1.3447852868417893e-002 1.9948186819116424e-002
      -2.6313039771894077e-003 1.3790635439160851e-002
      1.9094771092438827e-002 -2.5530709612182602e-002
      -2.4589392469862005e-002 -1.2038430009559226e-002
      5.6837693573100201e-003 -1.8076686563101966e-002
      -1.8405709835254691e-002 2.9878677962022000e-002
      7.2040759269109021e-003 9.7385597606940849e-003
      -9.4462030682872788e-003 6.0195846939841509e-004
      1.0700363830592178e-002 -6.3638723162291596e-003
      -1.0064703111976889e-002 -4.3765152073914028e-003
      1.4129942695175216e-002 -1.5652669771217608e-002
      -9.6763111347354762e-003 2.2271593180226631e-002
      1.6551643137854906e-004 -6.1670704225787144e-003
      7.7644032772129622e-003 5.2683793703502263e-003
      5.2492686060028413e-003 9.1068143849300284e-003
      1.2683360455960682e-002 2.1356987627323648e-003
      -2.0868254572727011e-003 1.6482609159903102e-003
      6.1032049647939506e-003 -5.6870327847820734e-003
      2.8146726758264174e-002 1.5777476655405000e-002
      -2.0070304138726444e-002 1.5267337139580612e-002
      2.0293725979968268e-002 -3.1382921315134274e-002
      2.4272881894483279e-002 1.4907031118554924e-002
      -1.1159260505167719e-002 2.0569937019573808e-002
      2.9368542205130500e-002 -3.2659718470863630e-002
      9.1846737807329392e-003 8.9982261192393890e-003
      -3.5228449594125991e-003 6.1436922871696380e-003
      1.2546958951391256e-002 -1.4114698810419268e-002
      -2.3861752123446701e-002 -1.4498982939174180e-002
      1.5057532486948709e-002 -2.3713832223037655e-002
      -1.6562246565079729e-002 2.8831254307923021e-002
      1.3788439875329342e-003 3.0081142950290382e-003
      -1.6551319431851192e-003 1.5772195982904871e-002
      1.2007376651669233e-002 -1.9246421286118028e-002
      1.4382912984216152e-002 9.0468306583058548e-003
      -9.6815807157552697e-003 1.0937766124443015e-002
      1.8900471351471115e-002 -3.2702508117571492e-002
      -2.4536055191509167e-002 -1.6706153156462868e-002
      8.5142530064365972e-003 -3.1372980826371751e-002
      -3.1735034370268554e-002 4.9641011239942752e-002
      -3.7247510397686097e-002 -3.8371795930242994e-002
      1.8804405561784893e-002 -3.1811174193327102e-002
      -4.1684037866383965e-002 6.2422038905380943e-002
      -3.4119254231781320e-003 -9.4502860496735574e-003
      2.1324162772845792e-003 -4.0259478384619555e-003
      -9.3628030174963163e-003 1.8588242836920756e-002
      3.0508554513240776e-002 2.0159852212827789e-002
      -2.1239197007531144e-002 2.4240883822176304e-002
      2.1220175596983214e-002 -2.9440341720712946e-002
      1.7362667828802362e-002 1.1895682190812147e-002
      -9.5959659317940149e-003 1.6853668668400767e-002
      1.2653724701340765e-002 -2.4221882562114133e-002
      -1.8286161079025094e-002 -1.8115313056316043e-002
      3.3870415126655302e-003 -1.8533529179335834e-002
      -2.3082749146100173e-002 3.2370432048161812e-002
      -1.7538197577142270e-002 -1.8028941965330284e-002
      1.2518729445341926e-002 -1.4527680017398089e-002
      -1.8658454844060875e-002 3.0179328543047869e-002
      2.3275545471721625e-002 2.2740812785794165e-002
      -6.8091459314333800e-003 1.4298240958600182e-002
      3.0455334036572301e-002 -3.7204894086625827e-002
      3.0618162116135685e-002 2.5501707435657061e-002
      -2.0099947069223665e-002 3.7906867957976910e-002
      3.1137938976969835e-002 -5.7951335173338642e-002
      8.8579182092639042e-003 1.0130503058099295e-002
      4.0421605935243377e-003 1.0441927235454510e-002
      6.1702620568086647e-003 -5.6118977953257994e-003
      1.8990469595545317e-002 1.4189575898244142e-002
      -7.4774504288299473e-003 8.4100603965973179e-003
      1.2008045325264600e-002 -2.6662020158835151e-002
      1.4752738006927654e-002 1.5162214017630250e-002
      -9.0039127992494975e-003 1.4851057773866876e-002
      1.7453907034429918e-002 -3.2335489122793895e-002
      -6.9928460041830036e-004 -5.0093580841295490e-003
      3.2418699094147576e-003 -7.8123725750860002e-003
      -1.1881598511011686e-002 9.5077781931971299e-003
      6.0181920510525106e-003 3.9254371290229064e-003
      5.4445224237494889e-003 -3.2491538475884580e-003
      4.5878972585308708e-003 5.0575737421373472e-005
      -1.6240452011211362e-003 -5.3995258941483184e-003
      4.4990389668390250e-003 4.1233691460361033e-003
      1.8793364019085673e-004 -1.6047196768225569e-003
      2.0959613280800989e-002 8.8076782944406136e-003
      -5.4166203214201731e-003 1.2088597977046627e-002
      1.8553278087864580e-002 -1.9838595389373374e-002
      2.3490559405729302e-002 1.7313075612337348e-002
      -6.2493106918283230e-003 1.0040817012149530e-002
      2.4509593782809758e-002 -1.7857660035216466e-002
      -9.1406279604663403e-003 -7.4941434839374300e-004
      5.1170179693275407e-003 -7.0960477029606926e-003
      -6.6687331319212253e-004 4.3132600213907054e-003
      5.1853193632787533e-003 1.2924935187289464e-002
      8.5803118049775659e-004 7.6782468321983308e-003
      1.3342689172003826e-002 -7.7998043752606780e-003
      1.6896065229377939e-002 7.8622922510514521e-003
      -1.8359246092582774e-002 1.2094091419157677e-002
      1.8662709185820015e-002 -2.3527035737099807e-002
      3.1007867904193173e-002 2.0586127859237434e-002
      -1.2468749482030368e-002 2.3372941610000020e-002
      4.1661034243672901e-002 -5.1435703114017607e-002
      -1.5361786992090453e-003 -5.6790177873545598e-003
      -2.0844235730269655e-003 -3.6705404580664501e-003
      -1.2255147929282131e-003 1.2720102653091316e-002
      -1.4413895805715907e-002 -9.0963671452029757e-003
      1.4564599359539151e-002 -1.8938869490786776e-002
      -1.5421433320613678e-002 3.2048328399861228e-002
      2.5830742941344406e-003 -9.8572299196055370e-004
      4.6981585765912721e-003 1.2045968280938299e-003
      8.2847280952840410e-003 -3.7188009982769706e-003
      -9.9401748218216363e-003 -1.1679707725912336e-002
      1.1191932791835258e-004 -8.8471300734002060e-003
      -1.8994553095375163e-002 2.4960180843279233e-002
      2.1687294779708467e-002 1.5758163230922571e-002
      -3.2549083635649173e-003 2.0549709292238868e-002
      1.0487109118878917e-002 -3.2445337033725402e-002
      9.5903921496344805e-004 5.3093149458369555e-003
      -7.6996632053095305e-003 2.2750055226661908e-003
      -5.6086330085557161e-003 1.6980934582569215e-004
      5.0477214300442066e-003 2.1573354578752093e-003
      3.1922405823653541e-003 7.2843017051781910e-003
      1.0897371534402929e-002 -5.9655752384745785e-003
      2.7115437351482412e-003 -1.0235053812159502e-002
      4.9017947566459309e-003 -5.0890653318902482e-003
      -1.0664026492090820e-002 1.0972272037334696e-002
      1.6104900570169223e-002 1.3904365371366334e-002
      -1.4059558779264910e-003 1.3591458749716026e-002
      1.7710065328268392e-002 -1.7601140223671506e-002
      3.6716230163636364e-002 2.0954718001667358e-002
      -1.5577090992897408e-002 3.6820197678256762e-002
      3.3688329381675645e-002 -5.6346484894972536e-002
      1.3388015540606771e-002 9.2945528143000573e-003
      -8.2475663866219059e-003 6.7815522851039462e-003
      3.3115613397170581e-003 -1.2812767684795726e-002
      -4.2018217191092449e-003 -5.2890551638234218e-003
      -6.5642023933947134e-003 -2.0447147690321396e-003
      6.8932844288515866e-003 -4.7356699417690365e-003
      9.6218582812700546e-003 1.1408947387592993e-002
      2.7566478010556303e-003 5.2393929753009596e-003
      5.0899002160908176e-003 -1.4251954637755103e-002
      1.6538779853660084e-002 1.1600084723056394e-002
      -3.4561322147076078e-003 7.6158528203146315e-003
      1.3636789786123781e-002 -2.0774598875049257e-002
      -5.7323854591592267e-003 2.3998680436185496e-003
      -4.2540480077427091e-003 4.5475167866506879e-004
      -1.8723383883445441e-003 2.1894591855038371e-003
      1.1704567241220220e-002 1.1626123313346544e-002
      -5.2342333008225748e-003 1.1981402106183866e-002
      2.9334637661074564e-003 -1.5002897014312691e-002
      3.3166579462785748e-003 5.8339299782626721e-003
      2.6982095007704976e-003 -8.7751183511277468e-003
      -9.8622960903995121e-004 -3.1044574902531468e-003
      -1.3077250731655995e-002 -5.4780015152452598e-004
      -1.2744310574006293e-003 -1.7630097859372856e-003
      -1.1090364073824827e-002 1.1713816138435197e-002
      -1.6437958440341112e-003 -6.0808726295583371e-003
      1.9941598500351895e-003 2.1277964698277379e-003
      8.3558297484769071e-004 1.4098370802669102e-003
      1.4692658525480951e-002 4.6792976547773190e-003
      -2.4706029607391984e-003 1.2746362578417670e-002
      1.7547341060361557e-002 -1.4952135041168992e-002
      6.9965309990346449e-003 6.4422384482018934e-003
      1.1415915725338272e-003 1.6038271758801201e-003
      1.3056119121494909e-002 -8.4535333528247755e-003
      1.1352648742530395e-002 2.8499298672938446e-003
      1.6639441298476026e-003 2.8036296530717180e-003
      3.9302064398227523e-003 -9.8777555876308713e-003
      4.3829850949406314e-002 3.2275191200616872e-002
      -2.8540408186078801e-002 4.1443176625476072e-002
      3.5778980335691865e-002 -5.9869449101887913e-002
      1.6805791101321747e-002 6.8747967545320886e-003
      -1.0678468771960584e-002 8.1536874262817700e-003
      1.0707606034759390e-002 -2.5622262566049245e-002
      1.7161595906207350e-002 1.2461010066532489e-002
      -1.3965981050129294e-002 1.9219644597518157e-002
      2.0310131659622463e-002 -2.6458816976776579e-002
      2.4909461133770738e-002 1.9275419605938895e-002
      -6.6173472540416011e-003 1.9180918985775969e-002
      1.6886128947855631e-002 -2.4475798596700456e-002
      1.0194560463636642e-003 -1.9291588379002072e-003
      1.3860403436291653e-004 6.6359743128086533e-004
      -4.0376438381013804e-003 1.0805364087217143e-002
      -4.3739107470892817e-002 -2.7864333388395047e-002
      1.9021001954061530e-002 -4.2131187144890912e-002
      -4.6958456604563673e-002 7.1294855243370661e-002
      -4.4999773616007160e-003 -1.3036306967716702e-004
      -1.8970900249086989e-003 8.1253511134645178e-005
      -5.9642061041952719e-003 -2.7199780766489347e-003
      5.6318864168054305e-003 1.8796039442064995e-003
      -8.9230130752110705e-003 4.9812990470684011e-003
      1.3091194758042090e-002 -1.0568100493391963e-002
      -2.6477916369696364e-003 -9.5273269468666242e-003
      3.2588235840301603e-003 2.4984141577145755e-005
      -1.3562733773866483e-003 9.0819086980071396e-003
      2.5480109639189467e-003 9.6671828034914954e-003
      -1.4812344629237205e-003 8.6456030853101391e-003
      -9.4559152801295754e-004 -3.5004318392717025e-003
      -2.0484228942866441e-002 -2.1299335634045600e-002
      3.6442481157435308e-003 -2.1180745068117852e-002
      -1.1196226055834322e-002 3.0494405545591855e-002
      -1.0887544961405298e-002 -1.0948991143057212e-002
      1.3529161264651861e-002 -1.8180140606859470e-002
      -2.3813564118583343e-002 2.6322521657956968e-002
      -3.5295405136008283e-002 -2.6527328044744357e-002
      2.1716965808604528e-002 -3.2611956624890123e-002
      -2.5398454817368833e-002 3.9621232088151416e-002
      8.2452901503474625e-003 -1.4880249781970805e-003
      2.7717410044156110e-003 8.6961949654742413e-004
      3.0759361979775172e-003 -6.5726223308088865e-003
      -2.1348512987897757e-002 -2.5392676452888424e-002
      2.0517163693380594e-002 -2.1809042119770101e-002
      -3.3326370554414557e-002 4.3237672482864260e-002
      -4.5699574272796304e-003 4.9242279163854135e-003
      1.4644309350526621e-003 -1.4903489334729108e-003
      1.1611526985440160e-005 2.7669674293722374e-003
      5.3033436206554750e-004 -5.0881310058045650e-004
      -5.7412729842525284e-004 -9.5540109792156651e-003
      3.7695350417753311e-003 7.9782175343819234e-003
      9.8752778827280070e-003 2.3435865886232091e-003
      5.1582972185530603e-003 6.9750064485288275e-003
      -3.4724703639912256e-004 -1.5897138441243741e-002
      -1.5921754580509425e-002 -1.5423156928329410e-002
      1.4530456809149718e-002 -1.2196773563097358e-002
      -1.5627071120248956e-002 3.2082650283748584e-002
      -2.0087424380723331e-002 -1.1430169449629008e-002
      1.4721783138237479e-002 -1.5815308264962694e-002
      -2.2324331359857119e-002 3.5449390236322986e-002
      4.1526831053366933e-003 1.4396794449907276e-004
      -7.2350263562801409e-004 1.0790877694789947e-002
      5.4306153093402632e-003 -4.3130204116847695e-003
      3.2065254236510493e-002 1.7287233712335905e-002
      -9.5654516498382223e-003 1.8730021433621354e-002
      3.2773384357830539e-002 -3.9334581167451650e-002
      1.2869575721947114e-002 1.3106193630746570e-002
      -1.7827456444859699e-003 1.9244380387057114e-002
      1.8225623147090891e-002 -1.7436920503982482e-002
      -2.6522904551572347e-002 -1.5949899241476884e-002
      4.8076258939708585e-003 -2.4505913156755606e-002
      -1.3866825246325952e-002 3.1782660454096348e-002
      3.9343856883985910e-003 8.3740649433096271e-003
      -7.9606424836953463e-003 1.2437164231468425e-002
      1.3167307569650653e-002 -7.9612339216726252e-003
      2.9616844474182637e-002 1.5628073255659711e-002
      -1.5201728960897073e-002 1.9002784354438588e-002
      2.3949259042038384e-002 -4.3847696444355891e-002
      -1.3448639272424106e-002 -1.6159690779625237e-002
      1.1552919837890675e-002 -1.7252338383677228e-002
      -7.5077463771632061e-003 1.1678710835956490e-002
      -2.5992410545210752e-002 -1.0033556271519183e-002
      8.8221636241624032e-003 -1.2766827194698750e-002
      -2.1176438714990999e-002 2.9638039275119432e-002
      -1.8536049269259405e-002 -1.4306370514604615e-002
      9.3004769675845093e-003 -2.0581327359150726e-002
      -2.3487737296834222e-002 4.1693863118484525e-002
      3.2506540732607013e-003 5.1293193220598478e-003
      4.9017099774646550e-003 4.8264215726348631e-003
      2.5401007787652840e-003 8.4864539337946871e-003
      1.4311974378994431e-002 1.6974150622836421e-003
      -9.8212079924377745e-003 7.2254726042690160e-003
      8.3007255387613343e-003 -8.8196886347062398e-003
      -2.4533467210066547e-002 -1.7333591466561969e-002
      1.6396678796041168e-002 -2.8971525363024754e-002
      -3.3414259153564253e-002 3.1171439556510305e-002
      2.8986330797573838e-002 2.2001930829461891e-002
      -1.4599135454655769e-002 3.1518161446648499e-002
      3.3391252795146022e-002 -4.9748932862381037e-002
      1.6276194843039878e-002 6.7735147501077324e-003
      -6.0537581364996391e-003 1.8847619866008750e-002
      1.0368018820862260e-002 -2.6229648962825727e-002
      3.7007018493720278e-003 -3.0826344831305303e-003
      1.5600388498054924e-003 7.3419087066262812e-003
      6.2177123979922054e-003 -7.2827923526512361e-003
      -1.6201482088807232e-002 -1.5432399697354852e-002
      6.2563459187050998e-003 -1.3176150695004402e-002
      -2.7023305522897400e-002 3.6754544396130774e-002
      9.7906407101942487e-003 1.1557913517012660e-002
      -1.3437476180786997e-002 1.2561013878157090e-002
      1.2420021613114804e-002 -2.4928851275235649e-002
      1.7787198264867115e-002 1.1819325140822307e-002
      -5.6393463708373989e-003 1.8794271630260588e-002
      1.5596644421233565e-002 -2.9499152425692184e-002
      -1.1910944593084576e-002 7.9550209903602256e-004
      2.7688023818587008e-003 -2.4702483905612383e-003
      -5.7088563870641056e-003 1.0356485734239501e-002
      9.9588363043428864e-003 9.0304299574341662e-003
      -1.0703847764406893e-003 9.2289947941817073e-003
      2.4774203820854199e-003 -3.1282360811937522e-003
      2.6129161695735464e-002 1.6967540585682398e-002
      -6.0931830788018698e-003 2.6636161869596959e-002
      2.2414598848797252e-002 -3.2371085450320976e-002
      1.6718111836762341e-002 1.9672308255327852e-002
      -1.0601473815306137e-002 9.4550200216969322e-003
      1.6725161636749374e-002 -3.0141548509493705e-002
      -1.7111391837221875e-002 -3.3321832993211025e-003
      7.1804254152046977e-003 -4.9104325826544015e-003
      -1.3097984503839441e-002 1.9535389068175837e-002
      -2.2613232059931723e-002 -6.5538861135037421e-003
      1.3415955809671502e-002 -8.8633212742520451e-003
      -2.0856219542962500e-002 2.9260427255298545e-002
      -3.8969978294102988e-003 -1.6561276835534180e-002
      8.0200116933429322e-003 -1.7162738048372188e-002
      -1.1014577670693866e-002 1.3700500918865094e-002
      2.1277567386491138e-002 2.0020653908425747e-002
      -1.3880609151751077e-002 2.0280529433067043e-002
      1.3168554742505494e-002 -2.5637815525117874e-002
      -7.0887590234228913e-003 -6.5114755407587573e-003
      9.9442244379524883e-003 -4.2419185301063181e-003
      -1.3777170399006033e-002 9.8175278900450146e-003
      -3.9886521487627107e-002 -3.8804942691462029e-002
      3.1108097306520227e-002 -4.3559721449468451e-002
      -4.4237029787676942e-002 6.5805416290351471e-002
      2.3783083586304255e-002 2.0451870318858492e-002
      -1.5321481793210356e-002 2.5669108661981337e-002
      2.7610293585719016e-002 -2.9242815812786309e-002
      9.2341321727749306e-003 9.9102790764485100e-003
      -1.0515782488732396e-002 7.2840492043140985e-003
      8.1948103425964272e-003 -1.7803026132490558e-003
      5.4348690918825278e-003 1.7630201856807968e-003
      -5.8303877837782353e-003 3.9347202060235464e-003
      -3.5347289217322769e-003 4.3002685743665225e-003
      -1.4986171604340962e-002 -1.5507297189900850e-002
      2.1659522546323835e-005 -8.9533042125965780e-003
      -1.9035053379058364e-002 1.6609811529881661e-002
      7.1973921071323129e-003 -5.1531702792475707e-003
      1.4812716244230056e-003 -4.4928844424388711e-003
      -2.2370686504196448e-003 -2.9258989573544528e-003
      -1.0363773486213670e-002 -1.0036616650577743e-002
      5.2175220222592097e-003 -7.7963580688649612e-003
      -8.0100181018890968e-003 2.1621553701012316e-002
      3.4836724546724505e-002 3.4670183920418519e-002
      -2.2854063427024725e-002 3.0645786266159825e-002
      4.0232419955396941e-002 -5.9682895044492444e-002
      -9.0968659241443348e-003 -9.3431629703957190e-003
      1.4015342031059967e-003 -7.2532733020023521e-003
      -7.3859598504779616e-003 1.0148041783764630e-002
      1.8766113286115237e-002 2.0521133970925042e-002
      -1.0811647322775503e-002 2.5098504908935674e-002
      2.6150018143998539e-002 -2.9484313293119398e-002
      5.2774853634927586e-003 6.9128656121507656e-003
      -4.2661558706535091e-003 1.1416033616173866e-002
      9.8314386851177903e-003 -1.6264185165056993e-002
      1.5270619206391500e-002 1.0461432567430928e-002
      -8.2920339630708599e-003 1.3119103354042058e-002
      1.4665778681574248e-002 -1.8641639086143118e-002
      1.9258126001584198e-003 4.7414473656672580e-003
      -3.0000545703526222e-003 2.7802552901041040e-004
      4.5240742932423743e-003 -6.8525389090572889e-004
      -2.6642339526998390e-002 -1.6723570584603765e-002
      1.4522677015448557e-002 -1.5256548996954871e-002
      -2.1208231720214504e-002 2.9142960573764733e-002
      7.0950192701171996e-003 -1.7974182436643789e-003
      -1.5199800250304289e-003 6.7458974002592353e-003
      1.1687225923945478e-002 -5.1806616296044576e-003
      1.9387634030079762e-002 5.4500147524144445e-003
      -1.1367055732527767e-002 1.3979586463187286e-002
      2.1509234044910595e-002 -2.5257545147430414e-002
      -1.0071921630622194e-003 -8.5242639890943991e-003
      -3.7524249454152355e-003 2.5024388291168668e-003
      1.8247235488296706e-003 8.5693842296101636e-003
      -8.8853964116588462e-003 8.5916654110287591e-005
      2.2946261194796680e-003 -8.5646647939270192e-003
      1.4472645832330541e-003 1.7776537781160680e-003
      -1.6448977785828781e-002 -1.3826229996169363e-002
      6.4710848169701176e-003 -1.6134264881766919e-002
      -2.0189204297166610e-002 2.8318089183966565e-002
      1.3132929118390665e-003 1.7787263384471085e-003
      3.7575299471403973e-003 9.3124910451525215e-003
      3.8686556068508477e-003 -5.9046812492886879e-003
      -1.1391021704544747e-002 -1.0619521136434230e-002
      -1.1031767777270299e-003 -1.7733085650926818e-003
      -9.4832164485427958e-004 5.8292765186710623e-003
      7.6093943073133712e-003 8.1690668111552931e-003
      -4.5409556030818988e-003 -2.8078116299536196e-003
      4.1355259023744427e-003 -9.7451780890008659e-003
      4.4666704504716147e-003 -2.9213267343058420e-003
      2.7013810197082043e-003 -1.7879924278506865e-003
      -4.3626970299261532e-003 3.5457949073732617e-003
      2.1542035229331513e-002 8.7629752941538880e-003
      -7.2706996198365174e-003 1.0725021571381773e-002
      2.4129096739659042e-002 -2.0461691638152240e-002
      1.5337473271254938e-002 1.4756229767984413e-002
      -5.9956065542764525e-003 5.0500724367428104e-003
      1.1406256549268946e-002 -1.8514050514204811e-002
      -4.5407906287025599e-003 2.2908038370554134e-003
      6.5717456456110203e-004 -2.8613280099982069e-003
      6.8892817172249224e-003 6.3762803660447542e-003
      2.3080037276946817e-002 9.7073901483588024e-003
      -4.2578056629856203e-003 2.0065863163412606e-002
      1.6477778431738248e-002 -3.5923218905669567e-002
      -8.2539037043584066e-003 -1.5836672771667309e-002
      2.7466650359535471e-003 -1.7623678473950861e-002
      -1.4810853547427685e-002 8.8394106033247866e-003
      2.6566837282904453e-003 -1.8187100256729122e-003
      1.0401332208539643e-002 -7.7729989389392793e-003
      -1.1097002287346832e-002 5.6972363838311774e-003
      -1.4327070124918351e-002 -1.4888821861940855e-002
      8.8563942764290395e-003 -1.5722339539207483e-002
      -1.8093262494610806e-002 2.1397605749157122e-002
      -6.5761072828826091e-003 -6.8569069494111862e-003
      2.1140282412324680e-003 -5.4153453118427931e-003
      -5.0557437002735012e-003 -8.2958621029558515e-003
      -8.0287664278415466e-003 -5.8877498607556016e-003
      4.6863748740625082e-003 -4.7808736946315517e-003
      -7.4057860550533665e-003 1.9560590446512507e-002
      7.4846846020167048e-003 1.2742756833665286e-003
      -6.6244997447596661e-003 1.1953322198265759e-002
      9.7622459984612869e-003 -1.4189876674347599e-002
      -2.6964936030765607e-002 -2.0503914777679703e-002
      1.4634395107501398e-002 -1.9395366702672962e-002
      -1.9652030052710424e-002 3.3429329226122510e-002
      -3.5562803213829253e-003 -1.3264573810496004e-002
      1.1643898802540588e-002 -1.1218162868323308e-002
      -1.2905082035078223e-002 2.1412376972548261e-002
      -2.8772157502752877e-002 -2.6696820226972395e-002
      1.6408815214051638e-002 -2.3151829763450583e-002
      -2.9193646858405815e-002 4.3308795632168877e-002
      1.0731534887591345e-002 1.3437957487922824e-002
      -2.4659747351180286e-003 6.6228390902484773e-003
      1.4812709698952906e-002 -2.4274005962852084e-002
      2.7332317716183181e-002 9.8577697286704163e-003
      -7.7574581437553341e-003 2.7103947835879088e-002
      2.1444731142691690e-002 -3.4758169824886886e-002
      2.1405897425724307e-003 2.3097950627556531e-004
      -1.1948733808849430e-002 6.5359032815781593e-003
      4.9209118190980975e-003 -3.3126970574877184e-003
      -5.9098250167151558e-003 -7.7270252848776842e-003
      -1.5356949335885338e-004 -5.4753351960672558e-003
      -7.7194759088107072e-003 9.5740800320221857e-003
      1.8211949345450042e-002 7.8893968451176511e-003
      -7.3444395436587824e-003 2.3814720128478049e-002
      2.5187194888842131e-002 -2.4837769279924583e-002
      -3.0922483488929137e-002 -2.7966470020165245e-002
      2.5482697678388202e-002 -3.1862604492090663e-002
      -4.2165193744474874e-002 5.2563377460447522e-002
      5.2378239639238799e-003 1.4028881525999764e-003
      -4.1255190435601275e-004 3.7367280909626614e-003
      8.7463021578477519e-004 7.3917975970384346e-003
      4.0688013090429955e-003 6.3295708976458765e-003
      1.3204013891628934e-003 1.4365502594797975e-002
      1.5207894387118122e-002 -1.5004287036106989e-002
      -7.6213474589310716e-003 6.0892202977508025e-003
      -2.3927829193856102e-003 -5.2158758424801933e-003
      3.5766839076669613e-003 1.7487761156962794e-003
      -2.2262036338723395e-002 -2.1795002379572277e-002
      6.2586172578872421e-003 -1.9915380290228310e-002
      -1.8067903065808869e-002 3.9543395273397806e-002
      -3.7247600660808610e-003 -5.0307715231589041e-003
      -2.2984597085291764e-003 8.2657523094802621e-003
      4.3554542323493908e-004 6.3919772042740630e-003
      -5.5405325198613223e-003 -9.6329718475049800e-003
      -2.0876668829839383e-003 -4.1748744459451934e-003
      3.4653046451306752e-003 2.2508203226771629e-003
      -3.5075178225250940e-003 -5.9275882625542059e-003
      -2.3970718323968665e-003 -1.6332484451141605e-003
      -1.1122097336086701e-002 2.9265887877350759e-003
      3.1729168702706270e-002 1.9388079065075829e-002
      -2.1851362958538338e-002 3.0871637845799094e-002
      4.2791118245551443e-002 -5.3048391167561840e-002
      2.2002941954006816e-004 -5.9001603874459900e-003
      -4.4002353196474055e-003 -1.2639091081897587e-004
      -1.4722240709655406e-003 1.2215632002215138e-003
      -7.2535956470987477e-003 -9.0697859121007685e-003
      6.6148627445993492e-003 -1.6733038124770540e-002
      -1.7937059040488271e-002 2.0528146470774552e-002
      5.6085245692278031e-003 5.4367931499449962e-003
      8.8563074085701860e-005 -4.7911054344908907e-003
      -3.3962726558217659e-003 -4.0068977329522828e-003
      -8.6364539224687304e-003 -1.2012105035291718e-002
      -6.7898329761403181e-004 -1.4181380172561861e-002
      -1.9784817305946892e-003 1.0524778551455031e-002
      -6.5883835799935469e-004 1.0798217315307999e-002
      1.6195687887540454e-003 1.7765022601220761e-003
      5.0704942407386686e-003 -1.5290033844926967e-002
      -6.9142427627097791e-003 1.0982020575570214e-003
      1.5189229994609919e-003 -6.0398163550936749e-003
      5.1538694904889541e-004 7.5437072726071011e-003
      1.2236664059689518e-002 7.1980119196310569e-003
      -1.1757112437499351e-002 1.3276167161508316e-002
      3.4878947231509129e-003 -1.1953884413379719e-002
      -1.7254356854379137e-003 6.5899781485639769e-003
      3.4802940078163748e-003 1.1557796928236049e-003
      2.3831680162354355e-003 -1.1402540672005489e-002
      4.4130472558105305e-003 6.9033329931839967e-003
      1.4186854710018537e-003 7.7923547529476674e-003
      4.4377450802986470e-003 -4.9868937452786765e-003
      -4.8250073340010045e-002 -2.3831385020830962e-002
      2.5819322628690713e-002 -3.7817498498277022e-002
      -4.1974832314223193e-002 5.6430199666699592e-002</_>
    <_>
      4.9457515964100729e-001 3.9327341515028813e-001
      -2.8698073929388107e-001 4.6363903097352832e-001
      5.5381504763182388e-001 -8.2560222552119045e-001
      2.4124272846516642e-001</_></weights></opencv_ml_ann_mlp>
</opencv_storage>
