<?xml version="1.0"?>
<opencv_storage>
<opencv_ml_ann_mlp>
  <format>3</format>
  <layer_sizes>
    256 6 1</layer_sizes>
  <activation_function>SIGMOID_SYM</activation_function>
  <f_param1>6.6666666666666663e-001</f_param1>
  <f_param2>1.7159000000000000e+000</f_param2>
  <min_val>-9.4999999999999996e-001</min_val>
  <max_val>9.4999999999999996e-001</max_val>
  <min_val1>-9.7999999999999998e-001</min_val1>
  <max_val1>9.7999999999999998e-001</max_val1>
  <training_params>
    <train_method>BACKPROP</train_method>
    <dw_scale>1.0000000000000000e-003</dw_scale>
    <moment_scale>0.</moment_scale>
    <term_criteria>
      <epsilon>1.0000000000000000e-004</epsilon>
      <iterations>300</iterations></term_criteria></training_params>
  <input_scale>
    3.7915914412169776e+001 -2.0978070525435393e+000
    5.8015631684258017e+002 -6.5066528311240148e+000
    5.4641614879621807e+002 -3.6869132234831263e+000
    7.0055711030051259e+002 -8.5363924898001109e+000
    9.0200765836638629e+002 -5.7522012298320044e+000
    3.7203981888288804e+003 -3.7649304215958352e+000
    7.5446759114628173e+002 -7.6339973668792993e+000
    4.1731929435968169e+002 -8.0359792595705564e+000
    5.1259213865430456e+002 -3.3760865294701090e+000
    3.6793833046227269e+003 -3.8424875952718764e+000
    3.7001747912815049e+003 -2.5942756519997201e+000
    3.8152874915925263e+003 -3.2199571277126093e+000
    8.1579185070994811e+002 -7.9838476630687829e+000
    3.4031197311592568e+003 -4.2124922334036379e+000
    2.7041171151515618e+002 -6.3137136987911333e+000
    1.8745636353120415e+002 -6.5977179413947171e+000
    6.1716737886933709e+002 -6.9520040574180682e+000
    5.6703820396285109e+003 -4.1832176738429121e+000
    3.8821931470488735e+003 -3.8601388628138342e+000
    7.5315358216062286e+003 -4.3745920520912716e+000
    4.4706379776381809e+003 -4.2231249007820058e+000
    2.0707441432501568e+004 -1.1371095557755961e+000
    3.5925790601949234e+003 -4.3835998163739474e+000
    6.8471124176700559e+003 -3.7107232915632866e+000
    8.6658180441708623e+002 -1.0142478149130509e+001
    7.5378883673991495e+003 -4.1787090639356457e+000
    4.4679578409361175e+003 -3.4597180598281891e+000
    7.0449999224332360e+003 -3.5531496922810653e+000
    3.5750849486361750e+002 -6.7579293015596988e+000
    6.4802830714717875e+003 -3.5627598821614996e+000
    1.4020156208637613e+002 -4.9382489587249045e+000
    6.2845905572107040e+002 -7.0993289883656781e+000
    4.6147716304778208e+002 -3.6194080195532803e+000
    3.8538143498554959e+003 -4.1266844364510131e+000
    3.6027379358223270e+003 -2.6884698310187605e+000
    5.0860842874899563e+003 -4.6914505424732740e+000
    5.0471351192031689e+003 -3.5172133796133997e+000
    1.5089706938765394e+004 -1.2725272672485688e+000
    4.6110992209946562e+003 -3.7257998137897648e+000
    4.1400548543141012e+003 -4.2762172141785815e+000
    2.7110489866720968e+003 -2.7665392963042583e+000
    1.0576154061579377e+004 -1.7388508793321027e+000
    1.3447076948288106e+004 -1.2526776698799020e+000
    1.7082713286750233e+004 -1.7253687070542809e+000
    4.4225288781055206e+003 -4.5260601878623570e+000
    1.1796198425074976e+004 -1.6194142084985441e+000
    3.8349780819243178e+003 -4.5001180924291990e+000
    3.6060848910636914e+003 -5.7968364519126858e+000
    5.9879199607555245e+002 -8.4202127307620653e+000
    6.7549315888327928e+003 -4.3496445255405431e+000
    4.8186205051594125e+003 -3.9895553600693505e+000
    6.4796433815584787e+003 -3.3929714230851813e+000
    5.5694917823105498e+003 -5.1300681483525974e+000
    2.6235895707952990e+004 -1.2263050565736906e+000
    4.4805033404703090e+003 -3.6407806329925751e+000
    6.9075103766751008e+003 -3.1315878024237866e+000
    2.4130221339656649e+002 -5.8141167982913560e+000
    6.0587127115482244e+003 -3.4220841384135419e+000
    4.9486526254141490e+003 -4.1554461016928883e+000
    6.6715096085941541e+003 -3.5021620815100136e+000
    1.9359312724837443e+002 -5.0374787506921965e+000
    6.7894750248031460e+003 -2.9848675540761977e+000
    4.8646057396407974e+002 -6.7752567438764517e+000
    1.1939284216345848e+003 -5.8853867632183006e+000
    8.8964406506325668e+002 -6.5404998033357842e+000
    4.0167680608926248e+003 -4.2972373015147900e+000
    5.3426585180881166e+003 -3.7144241199917247e+000
    4.5659744364792568e+003 -4.1460286496043537e+000
    6.5680972537201615e+003 -2.9047178736971526e+000
    2.2776714340181261e+004 -1.4443065828889461e+000
    7.3867042562766446e+003 -3.4623139730920727e+000
    5.2913822220582770e+003 -2.7344349008617681e+000
    5.4502287639398837e+003 -3.7393296656699957e+000
    2.1343703164546820e+004 -1.6464492973124483e+000
    2.2854115169077795e+004 -1.4865655828596520e+000
    1.9879519730091662e+004 -1.3190720305528654e+000
    8.7894348424342552e+003 -3.9761579385373853e+000
    1.7492169449204186e+004 -1.0177245803000168e+000
    7.0959806593445201e+003 -3.3074899502033581e+000
    5.7932412564379283e+003 -2.8801653059226915e+000
    3.5397402154516799e+003 -3.6272334951653509e+000
    2.2226682600616856e+004 -9.8805277419697191e-001
    2.2907868552235544e+004 -1.6023782504177895e+000
    2.6681089923656913e+004 -1.0465293154772739e+000
    2.4085872771571172e+004 -1.2990112668781533e+000
    7.2311421463132341e+004 -4.9635543220941875e-001
    2.3409356799006320e+004 -1.2242667355656798e+000
    3.9049904149581365e+004 -9.9559145538772886e-001
    4.9152520150120308e+003 -4.5226269647387403e+000
    2.3807142645955064e+004 -1.1283448787650820e+000
    2.1379111137538723e+004 -1.0901363696456789e+000
    3.9145685270038375e+004 -1.1131911331921762e+000
    7.2470708181517884e+003 -3.4774039777671266e+000
    3.3210996017591919e+004 -7.5988264596262745e-001
    7.5140241419106796e+003 -3.2714734241657353e+000
    9.8297675445509121e+003 -2.2972902810352060e+000
    8.5970472897367824e+002 -1.0145447560397857e+001
    2.9534574415049724e+003 -4.2138739516665895e+000
    4.5638604340083366e+003 -3.7353668705868186e+000
    5.3878026195751881e+003 -4.6721363341572912e+000
    7.0555959120310736e+003 -3.9597756512732234e+000
    2.1978667117043828e+004 -1.3146768841283538e+000
    5.7226173962946705e+003 -3.4604535499065023e+000
    6.5976909092945189e+003 -4.0392090322808327e+000
    3.5560726419860480e+003 -4.2704766618468550e+000
    1.2729968853328361e+004 -1.8849165550060423e+000
    1.9150321177736641e+004 -1.4522140451005836e+000
    1.9440412684408908e+004 -1.6012996417533734e+000
    5.1776760419150369e+003 -4.1311335550510417e+000
    1.5695940219996455e+004 -1.7802598465050321e+000
    5.3719320866706948e+003 -4.7496801242697746e+000
    3.8047812043598028e+003 -3.4063424059497671e+000
    3.0630393325116438e+002 -7.6024825393320548e+000
    6.3674378764523926e+003 -3.7234167005518097e+000
    3.7494767739614845e+003 -3.8115150112983378e+000
    6.2027940867121661e+003 -2.9459106001795843e+000
    5.6370187926444705e+003 -3.0715081198516017e+000
    2.6313413665947217e+004 -9.7190143292658648e-001
    4.6537181484966150e+003 -2.7623741845713883e+000
    8.6781928611861531e+003 -2.7146123529118280e+000
    1.1826396449007569e+002 -4.4198324182991788e+000
    6.6293063166450502e+003 -3.3499950204746787e+000
    4.4863865279729152e+003 -4.7717843953077725e+000
    7.2665052514086146e+003 -3.3014671301893213e+000
    5.3625258423565083e+002 -6.3451887743977631e+000
    7.4040759149111273e+003 -2.1345485334525245e+000
    1.1455534166740040e+003 -7.3420141896998468e+000
    2.1158661148608485e+003 -4.9802090883291878e+000
    4.8568295490501708e+002 -3.8725983799599129e+000
    4.3458477650373430e+002 -6.3500589106934529e+000
    2.2366040319225049e+003 -2.4534523896019560e+000
    2.2371528009103127e+002 -5.7456753806165723e+000
    5.2195995760864635e+003 -3.6971126366346820e+000
    4.3266082079649759e+003 -3.9527191813892495e+000
    4.1159457786098437e+003 -4.2499698443010585e+000
    2.1298110196993250e+002 -5.5933488680344050e+000
    3.9039347764453883e+003 -2.8302883120921924e+000
    4.9473065563745449e+003 -4.2917688313901285e+000
    1.5265637138215785e+004 -1.3322716368560423e+000
    4.8057977273905390e+003 -4.2632609123647285e+000
    5.3662105046002480e+003 -4.1482548809557551e+000
    3.9309561077441390e+003 -3.3805364569086933e+000
    4.1927336519195978e+003 -4.8281026749427083e+000
    6.2500408551183523e+002 -8.9328323584938598e+000
    3.9801951025462040e+003 -4.4038205609813428e+000
    5.6456888839451112e+003 -3.5947813422087100e+000
    1.1666829428469442e+004 -1.8380887307396274e+000
    8.1014829466869769e+003 -4.5997150256348309e+000
    1.7746945886919915e+004 -1.4850127284599279e+000
    2.7637227674958602e+004 -1.1382341386831836e+000
    1.4116974407136095e+004 -2.0256888301400342e+000
    6.3035128345562289e+003 -3.0411341960140597e+000
    5.9551226676396227e+003 -5.1037569030711136e+000
    5.6633436869162697e+003 -3.2450501958219991e+000
    1.5907108692693564e+004 -1.5546370825701725e+000
    5.3477981663953760e+003 -3.0520091626448034e+000
    4.4118659812577152e+003 -4.3132566850456877e+000
    6.3171239569322688e+003 -3.0043392935170825e+000
    3.3016605702844827e+003 -5.2696979607685064e+000
    1.0538687461806101e+003 -5.3055476540808888e+000
    3.1369067896196880e+003 -2.6853672798393933e+000
    3.9081053892857599e+003 -3.7032331855040415e+000
    1.4598963610887358e+004 -1.4124735463944271e+000
    4.6159671763352017e+003 -4.7104477359258228e+000
    1.7337563196179748e+004 -1.2240760310836358e+000
    1.9660752913058790e+004 -1.2852769724890327e+000
    1.5124332456091299e+004 -1.4583602452135731e+000
    4.0711405049793716e+003 -4.2862094784737446e+000
    1.1472764393586016e+004 -1.2075094337043013e+000
    1.6512841609503648e+004 -1.4627081856146344e+000
    6.5554796951472192e+004 -4.4997704257325749e-001
    1.7297612283771923e+004 -1.6848801284505726e+000
    1.5702140963026628e+004 -1.4114261236954690e+000
    1.5544072630133260e+004 -1.3972177571485107e+000
    1.6602074648496240e+004 -1.7636496193902187e+000
    4.0540405227880888e+003 -3.9435521990536424e+000
    3.9336130572499674e+003 -3.6978313368806517e+000
    6.7055879183605166e+003 -3.8312886676985247e+000
    1.5558135848996513e+004 -1.7900567867769475e+000
    5.7985665564028695e+003 -3.3888687238587787e+000
    1.7015471798194252e+004 -1.5127929270029330e+000
    2.1916543669230668e+004 -1.1247041646906366e+000
    1.5398089659959345e+004 -1.5149556719630348e+000
    6.2638051884575343e+003 -2.9953608837764567e+000
    5.0676581199110115e+003 -5.1548196756178264e+000
    6.1209884204458704e+003 -3.7513658008105737e+000
    1.7560616455006231e+004 -1.6530988774987292e+000
    3.8245716194789411e+003 -2.5402302589720103e+000
    4.5080667284945657e+003 -4.7815820410243948e+000
    5.5684764255838645e+003 -2.7884427762393993e+000
    5.4473254788204167e+003 -5.0157600369365705e+000
    1.1257184284853925e+003 -4.4309308516293608e+000
    8.9977957607287840e+002 -1.0614844951025949e+001
    3.2497605900057147e+002 -8.1470800344441674e+000
    2.8856452051568353e+003 -3.4012239952180972e+000
    1.4020452478852664e+002 -5.5747633994305144e+000
    7.3468954317864045e+003 -4.0584214896507529e+000
    5.7919953758840238e+003 -3.3604168112379851e+000
    4.3227885359770089e+003 -3.4730613165103659e+000
    4.8501520681749287e+002 -6.1331980022336756e+000
    3.9362363665453704e+003 -3.1624934240425859e+000
    4.6713156482211371e+003 -4.7608215702937944e+000
    1.5130249933681087e+004 -1.2413275931886414e+000
    3.7847849269024186e+003 -4.4288483353826757e+000
    6.6928034273588564e+003 -4.0121206715509494e+000
    6.2537205848301655e+003 -3.7284634740048044e+000
    5.5189672803639642e+003 -4.8959191980899117e+000
    1.1244031130289068e+003 -7.5750879370981563e+000
    3.4976931425051130e+003 -4.9720752169791060e+000
    5.1986835747252808e+003 -3.1810157010158160e+000
    1.1027388391846103e+004 -1.8923373447189604e+000
    5.1466364572915663e+003 -2.9321586501013472e+000
    2.3565785452791006e+004 -1.5790735763224895e+000
    2.6237825314524052e+004 -9.0907619876300760e-001
    1.1363505812072577e+004 -1.3928687406696354e+000
    6.5750103400566077e+003 -2.1792195225737707e+000
    4.8824812409044234e+003 -4.1621214891716747e+000
    8.5452206366256341e+003 -4.1533720394231919e+000
    1.6023626734247240e+004 -1.3041476179832612e+000
    6.5334985530032654e+003 -3.1221930778251803e+000
    6.3828568704429981e+003 -3.8012817822350109e+000
    7.7549389642861197e+003 -2.7223831692147340e+000
    4.3447023553865965e+003 -3.9351667085165083e+000
    1.9904741151210346e+003 -4.8477216582937999e+000
    2.8591231495733604e+002 -6.6820781896829979e+000
    1.7685113441790460e+002 -6.5599054928320184e+000
    3.8762805175442127e+003 -5.0743953031960825e+000
    5.3075327678981716e+002 -9.4059519229689528e+000
    6.3897861658091260e+003 -3.7678138937477903e+000
    5.6601248299474055e+003 -3.1025990679532915e+000
    4.5116534095871111e+003 -4.0155954250554204e+000
    8.8628484730639661e+002 -6.2602931139325264e+000
    3.8939927210365981e+003 -5.1930424518741338e+000
    3.2715869354439510e+003 -5.5114955037870139e+000
    1.3296876939715896e+004 -1.7341598653602599e+000
    4.8494921896027472e+003 -5.1088499548854616e+000
    4.8898596223423219e+003 -4.4593049821947019e+000
    4.6954275714459745e+003 -4.5920151723546168e+000
    2.9767068662627398e+003 -5.0215351435098139e+000
    9.5643682776624678e+002 -7.5576948335561553e+000
    1.8581929937592980e+002 -7.0255144830736631e+000
    6.7119957460019270e+002 -7.5185199277258752e+000
    3.7654598283015953e+003 -6.2413452369304743e+000
    1.1982458555919345e+003 -6.5294133853073424e+000
    6.7659570414649243e+003 -3.6556842305624619e+000
    9.6180288784530057e+003 -2.2320864505904927e+000
    4.4628493852750034e+003 -4.5206448045516723e+000
    1.8051321768943533e+003 -4.3709572327232422e+000
    5.6404158429179620e+002 -9.7875515633272236e+000
    1.2861781003694728e+003 -6.8290559132102961e+000
    4.4129580985732118e+003 -4.4729922875569796e+000
    1.3378008495274698e+003 -5.6583827306974737e+000
    1.1214587914795434e+003 -7.8371398987305616e+000
    1.9109058878352357e+003 -4.8057155240919593e+000
    9.8732291667511970e+002 -7.6439443274626120e+000
    3.7505696294285565e+002 -5.8551391549375191e+000</input_scale>
  <output_scale>
    1.0526315789473684e+000 0.</output_scale>
  <inv_output_scale>
    9.4999999999999996e-001 0.</inv_output_scale>
  <weights>
    <_>
      8.0157455785915426e-004 5.0695770568005838e-003
      -3.5453602170438139e-003 1.4628024799457526e-002
      2.0358281139732003e-002 -3.2098456374533839e-002
      3.4803862189111280e-002 2.4016932680109435e-002
      -1.3156725887464431e-002 2.9174807670778444e-002
      3.5682342971294329e-002 -6.3977787317114010e-002
      -6.7720199106102172e-003 1.0526372452732388e-004
      1.9045261559924090e-003 1.0042723482504182e-003
      -5.1497782786705830e-003 -3.6615904817410079e-003
      -9.6662035718188075e-003 5.7057059587254724e-003
      1.5107075271905324e-003 -8.4572430594264739e-003
      2.3127412036473643e-003 5.0394151068739448e-003
      2.5183793619026544e-003 1.0997448197936186e-002
      -4.5613872529954112e-003 7.1602512345072655e-003
      1.3204133909704442e-002 -2.1900262528755762e-002
      8.6820109740198923e-004 3.8164211668397707e-003
      -6.1085467020659196e-003 1.0933952482870532e-002
      2.7748067270558690e-003 -1.3469024948694529e-002
      -1.2466417551853910e-002 -1.4629112165774776e-002
      5.7863795020147721e-003 -1.6912443369559126e-002
      -1.4377082515973180e-002 3.6721559243719330e-002
      -1.9482706438145543e-002 -1.5321723417901018e-002
      1.6530059509209738e-003 -1.2713730263345869e-002
      -2.2982572838602514e-002 3.9027017204691684e-002
      -7.8297118032236903e-003 -1.0263672764503242e-002
      1.1437092151605583e-002 3.2648509711737054e-003
      -3.7214276147954353e-003 -1.2010374352369542e-002
      2.4792265440397900e-002 1.2328744037460213e-002
      -1.0981201343052079e-002 1.5404240174722751e-002
      2.4669163216499704e-002 -3.8094770532079214e-002
      -1.1371091264759848e-002 -2.2403243116571350e-002
      1.9686504184074489e-002 -2.0213145232312733e-002
      -1.0573658683481880e-002 9.2603023351173104e-003
      -1.2495819709734877e-002 -1.6010299179748836e-002
      3.3997061616624948e-003 -1.5785437765378465e-002
      -2.2540779576400605e-002 2.2974918367591492e-002
      -1.5609372028030252e-002 -6.3197547989671012e-003
      -8.0472184371776080e-004 -1.1703583405043331e-002
      -1.3408614749427577e-002 2.5624311437510233e-002
      -2.3240084123978079e-002 -1.4916966929553140e-002
      8.1221792306630392e-003 -1.4362438448751369e-002
      -1.5846787727003913e-002 3.6899216970362435e-002
      -3.4721478759718511e-003 4.1425699953920340e-003
      1.4398595589828886e-003 4.0004560261364189e-003
      4.2321832712077209e-004 9.3494546731832835e-003
      2.5954256521113432e-002 2.6457027845270542e-002
      -2.2252055687736909e-002 2.5834818368885119e-002
      3.6766808888693776e-002 -4.4213255280024642e-002
      8.6434757313724707e-003 2.9572378259890390e-003
      -1.2079968826184166e-002 1.1647044562337358e-002
      1.1740620509957906e-002 -3.9787344688871448e-002
      -2.1322908150285994e-002 -1.4725255228919969e-002
      1.4473450119003761e-002 -2.5420042911869146e-002
      -1.9934356178643867e-002 2.4823880136712675e-002
      -1.2285970255803776e-002 -9.5615558498365928e-003
      1.4048534412943507e-002 -8.5102228130433562e-003
      -3.8589106910466293e-003 1.6579054594124846e-002
      -1.9548462675562463e-002 -9.4062354142821474e-003
      1.4506793094483607e-002 -1.5909116090923613e-002
      -1.5159890375327294e-002 2.0866244145044621e-002
      1.0087578954410065e-002 9.8305492202175066e-003
      1.8983990962811222e-004 6.6794830134190974e-003
      1.1975132824471898e-002 -1.1057621702465249e-002
      2.1507068479032415e-002 1.9197989177982610e-002
      -1.7794640851993591e-002 2.8502330125508971e-002
      2.7085258841707423e-002 -4.1038557618729272e-002
      -1.8020297916961102e-002 -1.1614391666935082e-002
      1.5145916706929311e-002 -1.7617870437255930e-002
      -2.3672990381977385e-002 2.6516301292806483e-002
      -5.5949213771595407e-003 -4.1877145004811387e-003
      -8.3062934377707252e-003 4.3490149116559053e-003
      1.4696712569797266e-003 -9.5451347182589784e-004
      -4.3896540971919931e-002 -3.9012071539345543e-002
      2.9508223902309179e-002 -4.0934492053375224e-002
      -5.0018869513848263e-002 8.5468560445635389e-002
      2.5204331311506175e-002 1.9352274605401544e-002
      -1.4387997735311311e-002 2.9710162040357483e-002
      3.1739432096609774e-002 -5.4724081163925263e-002
      -1.9729249505781123e-002 -1.5140348774817975e-002
      3.8232060905520264e-003 -1.8419940759070844e-002
      -9.3765030911210651e-003 1.9520644551123796e-002
      1.2780047815919973e-002 1.0774148592843360e-002
      -1.2305955660227139e-002 1.8753518053824594e-002
      2.5007785147643843e-002 -2.3728765007090178e-002
      -1.9465292493315633e-002 -1.8153441012007689e-002
      1.1372195248281970e-002 -1.9144918541165405e-002
      -2.7880559098618449e-002 5.4614534110272610e-002
      -9.2444858930389433e-003 -2.2253679635931066e-003
      -3.8397760719632397e-003 -1.5585795762506401e-003
      2.4890769348959808e-004 -1.7939037531390313e-003
      8.3448335425888205e-003 7.6121298668017949e-003
      -9.1585935306905449e-003 8.4090752693988854e-003
      1.8647736089191541e-002 -2.1198297697755355e-002
      -7.9758773926638868e-003 -3.9269976495035176e-003
      3.5932901923735427e-003 -6.1373103394361285e-003
      -1.6154094868943272e-002 3.4484830232308014e-002
      8.2890706747766555e-003 6.4476477596661632e-003
      -3.5297593893503267e-003 7.9620602632401501e-003
      1.7916274757845466e-002 -2.7904865635532915e-002
      3.1921741807628155e-002 2.1326444390921691e-002
      -2.0647725418501718e-002 2.9712734266409916e-002
      3.6864073999523281e-002 -5.3229104013254994e-002
      -1.9986344396470342e-002 -1.4475131817437956e-002
      1.1980753724708536e-002 -2.3193616310310940e-002
      -2.0934584231393473e-002 1.9898079391642679e-002
      -3.2239113133648717e-002 -1.9743984653728626e-002
      1.4330173640517467e-002 -1.8453105094094539e-002
      -3.1238738548126137e-002 4.6075126287572508e-002
      -1.7926126004515989e-003 -1.4855150168560575e-003
      7.7515300851336956e-003 -3.2157482608431462e-003
      9.4153933332788420e-004 1.1409560950486320e-004
      -1.0867870292090140e-002 -1.6316614938070930e-002
      1.0610149682653976e-002 -1.8112247395447315e-002
      -2.4418772736415947e-002 1.9845941633858364e-002
      2.3778014289449036e-003 4.0250679441272003e-003
      -1.6670119553116171e-003 1.9412624627986946e-003
      6.9916882781066942e-003 -5.0586398764790970e-003
      -1.7442673779116007e-002 -1.8940530767277267e-002
      1.1474024260573739e-002 -1.4129690344361765e-002
      -3.4421732780050486e-002 4.0143917871929870e-002
      1.4279203677873473e-002 1.8071802919473176e-002
      -1.6563108908977570e-002 2.1654444356957941e-002
      2.0576734162399309e-002 -4.5983557498080294e-002
      1.2433251297809112e-002 6.5370497470129121e-003
      -8.1732376186484205e-003 1.2167927188345215e-002
      2.2306531151611741e-002 -3.0341698453088845e-002
      -9.5515824349082373e-003 -1.4136456828590020e-002
      1.1182202043311747e-002 -1.5039302137346040e-002
      -1.1546440304352949e-002 1.5116289617927890e-003
      1.3245407774645890e-002 5.9029037128257847e-003
      1.7344304851177458e-003 8.2363378885417123e-003
      6.1136119000992266e-003 -1.3176847299709103e-002
      -1.2220108193681974e-002 -5.1975047539403662e-003
      1.9069745870846002e-003 -1.0265969843361663e-002
      7.1965468519892637e-004 1.9043926712423647e-005
      2.2067660668676138e-002 1.4822800272430750e-002
      -1.5556720958318679e-002 1.9578216869620940e-002
      1.6865409219695288e-002 -3.2467992015996476e-002
      8.9509314205444661e-003 1.4230621568387706e-002
      -6.7406583083108266e-003 1.4581430416561795e-002
      2.0520878462684189e-002 -2.9443420093395144e-002
      -2.8074718511641891e-002 -2.1628283402087563e-002
      1.1287325115347644e-002 -2.8114283758209097e-002
      -3.3742713549487213e-002 4.9861484229342834e-002
      7.4020574034084586e-003 -3.6330727892886909e-004
      -2.0949975299001393e-003 -3.7132532509456745e-003
      7.1431464588884745e-003 -1.2894128806437118e-003
      2.7919028981251662e-002 2.2649233029178775e-002
      -1.2243029379914002e-002 1.5130192708947485e-002
      2.6928564818759854e-002 -5.0718599160721967e-002
      8.2559128738863650e-003 1.3274926937857959e-002
      -3.6888733394881183e-004 1.3389662650775966e-002
      8.8994484352782500e-003 -2.0333937141613318e-002
      1.1680270387887805e-002 5.2592860293068731e-003
      8.8478830516340026e-004 1.0297264827850172e-003
      8.6801762453410022e-003 -1.6358536956595341e-002
      -1.5263874442540074e-002 -6.6267673260082269e-003
      1.4455977920987177e-002 -1.0708934091575344e-002
      -2.3631997589418391e-002 2.3373804603950908e-002
      -1.6218546796513213e-002 -9.6852971630318595e-003
      1.0102713742158364e-002 -1.2920263477524875e-002
      -1.8009015540106962e-002 2.8653449408751055e-002
      9.5442076207092174e-003 1.8383811950712693e-002
      -1.6136500101265189e-002 9.2448759066978779e-003
      2.1876499468951628e-002 -2.2336823045796979e-002
      1.3485395145223029e-002 2.0442060041343604e-002
      -6.2899370481616264e-003 1.9016653493972462e-002
      2.1219587017511390e-002 -1.9153077973385644e-002
      -4.7803884068274752e-002 -3.3717354444229609e-002
      2.1330299243109169e-002 -4.5250596438639219e-002
      -5.2289680635717636e-002 8.4138937053205701e-002
      2.8592563531235527e-004 -1.6241063984088954e-003
      1.3397378807208273e-003 6.4545781311295468e-004
      6.4381689500430548e-003 -6.3133989849649243e-003
      9.6092735219793050e-003 1.0648906689703959e-002
      -2.1825792475364514e-003 8.3437410553766373e-003
      1.3776535886281889e-003 -3.6364527259221077e-003
      7.7253762214849753e-003 9.9315942250402349e-003
      2.6654657193338161e-003 7.2241217084741552e-003
      7.9137515530698678e-003 -3.4552599021654396e-003
      -3.7481485731069408e-002 -3.8769054610168940e-002
      2.5397855986478549e-002 -3.7712586883824402e-002
      -4.9045010709706016e-002 7.8203304873842666e-002
      9.6602468582523589e-003 1.6404273701893384e-002
      -1.5784315568501467e-003 8.9874382331516806e-003
      1.6769706626576952e-002 -2.9492384339498853e-002
      -1.8451287639665689e-002 -9.1080790853410518e-003
      5.9031477882000999e-003 -2.0423928561944769e-002
      -1.4719602407453541e-002 4.6919770604450399e-002
      -4.4946892149281506e-002 -3.3263532360110558e-002
      2.2053152609954513e-002 -4.7316286311497216e-002
      -5.2918232108299761e-002 8.1541951446772953e-002
      -5.7049673397608133e-003 -1.4744715620131610e-003
      3.4534085540484701e-003 -4.0745054498228491e-003
      4.9707982327056137e-003 4.0966527959547083e-004
      -5.4368154087544914e-003 2.7492554833150381e-003
      7.1438535617202809e-003 3.4083194781384107e-003
      3.4230146755064922e-003 2.5923173286131903e-003
      9.7452763232342456e-003 3.4353276173422387e-003
      2.7529508580717466e-003 -1.9788034994262850e-004
      1.2217372457626134e-002 -8.6302116746053686e-003
      -3.3288820185556609e-003 -5.6667004314827187e-003
      -6.6928187353238302e-003 -1.7711601479548753e-003
      7.6789214586294218e-003 -1.0604162911502435e-002
      2.6266114653598280e-002 1.1390220326612535e-002
      -1.8945476564772201e-002 1.9602156173499814e-002
      2.1372650072823778e-002 -3.8800224981683291e-002
      -7.0771017367824646e-003 -7.0358437247509172e-004
      5.8868907061947846e-004 -8.4141846629836713e-003
      -4.8389766044200358e-003 -2.8851584504894779e-004
      -1.0727492221572224e-002 -3.4815674970142567e-003
      5.3544803461006950e-003 -9.8242559194954993e-003
      -1.4448331109065581e-002 1.0966812041569079e-002
      -1.1774705055220842e-003 -3.4935586329227353e-004
      1.8320793663005677e-003 2.7095371899027959e-003
      7.2239603705463347e-003 -4.4674508117890765e-003
      1.9703494247363968e-003 -3.0926039841488143e-003
      8.1467757781133552e-003 -5.5274032398429538e-003
      5.3697312676568984e-003 2.9023541686912431e-003
      -3.4206629413795473e-003 -2.6673565682373409e-003
      -3.1834204554876300e-004 5.0693582750072361e-003
      5.6420772329668757e-005 1.0904806854162858e-002
      1.4060272630241351e-002 7.9545633911715218e-003
      -2.1286999000780494e-003 1.3907945908621388e-002
      1.5039511917140525e-002 -3.4950737495805566e-002
      -3.5651242509584853e-002 -2.9908996805526680e-002
      1.5620246734610460e-002 -3.5711649089371411e-002
      -3.9592547134332544e-002 6.4899262684014594e-002
      -1.8127718923670014e-003 -1.3146967816792547e-003
      8.7770800445223941e-003 -1.6257336333001516e-003
      2.6176444076107365e-003 -1.0250692727365764e-003
      -1.7346219529037341e-002 -7.1083579526251585e-003
      8.1272017987391396e-003 -6.3121702422999923e-003
      -1.3597571056099487e-002 2.3192604618708004e-002
      1.2952713654326101e-002 8.5437143679111434e-003
      -4.3195070745446849e-003 6.2967313697648809e-003
      1.8039900029155703e-002 -1.1477910900542286e-002
      -2.4323312037890673e-002 -1.4004189999822857e-002
      1.0057204225455618e-002 -2.0778038216841641e-002
      -3.3020189036405079e-002 4.5581668412288279e-002
      -1.0128935625656010e-002 8.3283823255489355e-004
      8.3953764592292427e-003 5.8513764901572671e-005
      -1.0353740069712071e-002 -5.9248684494275939e-003
      -2.1647640603718571e-002 -7.9302079991330036e-003
      6.0973873143676457e-003 -1.4602798301227111e-002
      -1.9852836650613211e-002 2.0685076674713046e-002
      2.3022034617696113e-002 1.3571495266196124e-002
      -1.0370654358909421e-002 1.8683385807229023e-002
      2.6814037616950562e-002 -3.4541632540611059e-002
      9.4178500687412225e-004 3.0904598284363168e-003
      -4.2394283888329762e-003 -2.9263348671576144e-003
      8.6905919338703865e-003 -1.1751103211243789e-002
      -2.4906074539524335e-002 -1.0806443469613774e-002
      9.2054059545569368e-003 -1.3946695535370477e-002
      -2.0829082022634744e-002 4.1573355257220015e-002
      -2.3848934330708164e-002 -9.4490374250138613e-003
      1.3247333167451766e-002 -1.6331597954654845e-002
      -1.7386636635864535e-002 3.5539314686730446e-002
      6.3625776367960893e-003 2.3916259165101014e-003
      -2.8949073273804855e-003 -6.0291090946616565e-003
      -8.5634585882483922e-003 -1.8481758789996607e-003
      4.3475628040898474e-002 3.5421769737070938e-002
      -3.2882475424229105e-002 3.9684506953298490e-002
      5.2149480398132116e-002 -6.0583960192721255e-002
      2.6262610958823320e-003 6.4550371813708683e-003
      -1.2680879447023874e-004 -2.5977717235734123e-004
      2.9474507962373277e-003 -7.6581372978260882e-003
      2.0354072950489514e-002 2.4843441488828489e-002
      -6.6355401466127147e-003 2.1329884626264561e-002
      2.5595545377481231e-002 -4.9320595573967181e-002
      5.5858080750557119e-003 2.0969426460789812e-003
      -3.8842906931685307e-003 1.4356337136556591e-002
      1.5092286799848257e-002 -2.5411628608252385e-002
      4.9973719525615952e-003 4.1369954308064305e-003
      2.6795454629655710e-003 8.6583367182356836e-003
      1.0519692389997272e-004 -4.3913335851498382e-003
      -1.7619755687099316e-002 -1.5567938279880393e-002
      8.0351773036094563e-003 -8.6888890659526513e-003
      -1.9771337960978207e-002 2.4425480534757769e-002
      1.3416502409703040e-003 -3.7845731745505228e-003
      -2.3988640446225419e-003 1.7630894639664749e-003
      1.0896911519056056e-002 -1.0873234423800433e-002
      -2.2164278609052832e-002 -1.5680960750134462e-002
      5.3422974901454357e-003 -2.3434932835908112e-002
      -2.2596620140024216e-002 3.3951202676975586e-002
      -2.0631030202728357e-002 -7.4621703774132115e-003
      1.7691177580983413e-002 -1.8607928165355371e-002
      -2.0304302117789230e-002 3.0204055365142160e-002
      1.2724598149271445e-003 8.0258204864738364e-003
      -8.2614197299058795e-003 6.1515249733939525e-003
      1.3627314173095264e-002 -1.8184325582709108e-002
      -5.8289765666422015e-004 3.4435357001188181e-003
      -4.4689513681711261e-003 -6.8143186271844673e-003
      2.2166457746505500e-003 7.2260361419745336e-004
      -1.2280376755784080e-002 -6.5210241404435850e-003
      1.6208524325216769e-002 -1.8282229647553837e-002
      -1.1669258939049956e-002 2.5547971997353609e-002
      -2.3348195556310614e-002 -2.4426938786617836e-002
      2.1156405177937022e-002 -1.6865354965115209e-002
      -2.2258879966456122e-002 4.9166226415584054e-002
      1.5658596037936259e-002 4.5489316263880794e-003
      -3.5017789542668249e-003 4.4954058025275931e-003
      1.0254465167661776e-002 -1.3486356033881729e-002
      2.4833312359394483e-002 1.2437192147035602e-002
      -1.7387465230136127e-002 1.1533773673916191e-002
      1.6593639004801229e-002 -2.9324290978489067e-002
      1.3582549651356527e-002 6.2856195361268366e-003
      -5.0209181341923752e-003 1.0392975324565975e-002
      1.6663772144115255e-002 -1.3139506066709545e-002
      -1.1825262930647384e-003 6.8502116213066270e-004
      2.1792112150966778e-003 -3.8178585246445517e-003
      -2.2863739273917182e-004 3.8504612233580138e-003
      1.9991952771550161e-002 2.0862084670227689e-002
      -1.0788768418441820e-002 1.7786798534643572e-002
      3.3948976916074243e-002 -4.4472378694598462e-002
      -5.0042028294250006e-004 1.2738589173116465e-003
      8.6261011464649440e-005 1.3842747678290185e-002
      1.0348999964343854e-002 -1.8461112380135508e-002
      4.5861426744735314e-003 -4.5886519982332285e-004
      -9.1604010521657289e-004 1.3481821102164892e-003
      1.1718486718878792e-002 -3.1257834535089506e-002
      -2.0037110856529927e-002 -1.2933336160216699e-002
      6.5540787480366861e-003 -2.6640606297382720e-002
      -2.5009387341271925e-002 3.8470036459877698e-002
      2.5586465708780776e-002 1.2377244113513586e-002
      -1.8715320109339750e-002 2.7591429617382021e-002
      2.9071976863067756e-002 -4.1392623159208553e-002
      3.8519562725852927e-002 2.3407256983534512e-002
      -2.2184401819973668e-002 3.4862240382876039e-002
      3.8955006773105892e-002 -5.6233188118715409e-002
      2.5756603869733222e-002 1.5386176984584114e-002
      -1.7218926879405617e-002 1.9340755883662308e-002
      1.6778421124937670e-002 -2.8133109639324371e-002
      8.7468168943948960e-003 5.8466164769094232e-003
      -5.5856441977165114e-003 8.6715862922638418e-003
      6.0759122392917207e-004 -2.5910386941430303e-003
      -1.4486107008296566e-002 -1.4453136097730889e-002
      -2.0097904816519709e-004 -1.4860603207533398e-002
      -2.0177676651327293e-002 3.0215953436722506e-002
      1.7928926992383291e-002 1.0874853387464746e-002
      -9.4419723679992976e-003 1.8840118482722591e-002
      1.9995037611335233e-002 -2.4851490648515405e-002
      -3.0560083278720014e-002 -1.9438326948528300e-002
      2.4130371738324448e-002 -3.6074867557275216e-002
      -3.2377271532452123e-002 5.5926764030821564e-002
      -1.9356330263627247e-003 -1.1841634873700436e-003
      -1.4556558888275910e-004 6.7798449865950827e-003
      -5.0656138072341312e-003 -6.5003526975367281e-003
      1.2867754251401875e-002 1.3782146414365556e-002
      7.0024064384534659e-004 1.4215258562603268e-002
      9.1513822878643968e-003 -9.3928840753645434e-003
      4.0491771637888793e-003 1.6536908600365318e-003
      1.9796122527523481e-003 -5.9403243474448119e-003
      -3.8967899118321947e-003 -8.0806066697329919e-003
      -6.0755731116702931e-004 2.4064156890832369e-003
      2.7085199339807952e-004 -1.0805932109130380e-004
      -4.1623908650564363e-004 -8.1565731332513148e-003
      6.3076820685413655e-003 1.6781849256101774e-003
      -2.2326326845038360e-003 -8.4532199362146387e-004
      -5.7638703985352533e-003 4.4193944906735765e-003
      -1.7893459148593679e-002 -1.4119134654250737e-002
      1.7800867581803406e-002 -2.5321409081047172e-002
      -2.5025204745026751e-002 4.8775824037363066e-002
      3.7560489103528265e-002 2.6002802392408299e-002
      -1.9182207689172365e-002 4.0946411844446036e-002
      4.3904483089229396e-002 -6.6297051002566304e-002
      -1.1602772964458146e-002 -1.6689299835525227e-002
      1.3291491417448819e-002 -1.8134612557034427e-002
      -1.9795760935654591e-002 3.9176034076515737e-002
      -1.6715642358610994e-002 -1.4147812804362248e-002
      1.6734976140453488e-002 -2.7551682171344138e-002
      -2.2109181744875289e-002 5.2508230972865888e-002
      -4.1338615225609755e-002 -2.4823218526804768e-002
      2.1462261434378811e-002 -3.6926342804886048e-002
      -4.1182599452032037e-002 7.0609519152517175e-002
      1.6711590492064318e-002 2.2069724240387410e-002
      -6.1271933759454722e-003 1.8735377201836802e-002
      2.6872199517077016e-002 -3.2160544247976139e-002
      -2.5417371804598899e-002 -2.5248888168481441e-002
      4.9359527834676618e-003 -2.7888280821915187e-002
      -3.2557908877411147e-002 5.4913460488245969e-002
      -1.7081598941310477e-002 -1.7225855183617023e-002
      1.4977317616263379e-002 -2.1888578991868898e-002
      -1.5204000628437785e-002 3.1945450395078373e-002
      1.0000341151927442e-002 1.9184275385826593e-003
      -5.6577699103836565e-003 7.0040849635794756e-003
      1.7053682663770060e-002 -2.3153803767250212e-002
      9.2323155289794623e-003 9.9799170808480848e-003
      5.6277825485937405e-004 3.4761271951773164e-003
      1.2568749489946473e-002 -1.2753328596899439e-002
      1.8469966549732698e-002 1.1288234225661107e-002
      -3.7464318738628915e-003 1.6232342068301941e-002
      2.8467671432156727e-002 -3.8784313776781154e-002
      -3.7563360767640689e-003 -5.4686518633247890e-003
      -5.0128082608656742e-003 -2.2473882741333010e-003
      -1.3171921644787249e-002 1.8686594729818398e-002
      -5.3127738798421651e-003 -6.5115107673998441e-003
      1.4180898723626625e-002 -4.9479469065841315e-003
      -1.8085822692335565e-002 5.0658576182072692e-003
      -1.2888730191422939e-002 -5.2010567181767966e-003
      -9.6661807648637830e-005 -1.0515522116335234e-002
      -2.2120491932414211e-002 2.4158898338535836e-002
      -6.0046506300359716e-003 -6.3639760371400336e-003
      9.5447466348679393e-003 -3.3074557951090619e-003
      -1.9810826157861984e-003 1.3896382507999594e-002
      1.6866640700370053e-003 -9.6872576364121291e-003
      3.3958175779176601e-003 -5.2190784937213288e-003
      -1.4402905321562106e-002 2.3233013306068889e-002
      1.7566820218894431e-002 1.3414192317313793e-002
      4.7778901986467957e-004 1.4421772223899435e-002
      2.2408470414829091e-002 -2.8933154845871549e-002
      -8.3369130643844401e-003 -1.5885770407984914e-002
      1.2334374202292555e-002 -5.8372363330378317e-003
      -1.6568953334613199e-002 1.5804685884514998e-002
      2.5546157367546063e-002 1.8407700703395244e-002
      -1.4415727561798583e-002 1.7578317218347586e-002
      1.7135816358611364e-002 -3.4003789175652513e-002
      -2.3782934777252258e-002 -2.0641481701318711e-002
      4.7653046579491237e-003 -2.0537943845552766e-002
      -1.5285493607338021e-002 2.9321892939175951e-002
      -1.3082766383025754e-002 -7.5452269840502375e-003
      1.7533732152752370e-002 -1.6301135659019615e-002
      -1.9165084576553096e-002 1.9410568897361327e-002
      9.1323356340173422e-003 5.5295489810550580e-003
      9.4895389910913132e-004 5.0590585563407625e-004
      4.1993205768390803e-003 -5.9661967173588668e-003
      -2.0517608186209187e-002 -9.7638706125849021e-003
      5.2696321616801092e-003 -1.3423357285006156e-002
      -1.7720775910066041e-002 2.3068988702360134e-002
      -1.0003096507659865e-002 -4.5453762704863740e-003
      5.1363677314481696e-003 -7.9936082700175128e-003
      -2.5452094249608499e-002 3.2174005817419686e-002
      2.5763141851862688e-002 2.2951947151276072e-002
      -9.1337552846799692e-003 1.1911950479725528e-002
      2.6512832023133197e-002 -4.9963383677780075e-002
      5.0107825217561505e-003 1.3568589185264341e-002
      -1.1714244693955773e-002 1.4658295455701168e-002
      9.0659729988944882e-003 -1.9940861650675989e-002
      2.8416611001369791e-002 1.7285985681676840e-002
      -1.4853212436075186e-002 3.0122665381494742e-002
      3.6821553776008306e-002 -5.6961325643494209e-002
      3.9084258923101800e-002 2.4427419177232332e-002
      -1.7242060769104353e-002 3.5732691085809773e-002
      4.4682505211886776e-002 -5.6569871746165068e-002
      -1.0824914098911141e-002 -8.4083966623889044e-003
      1.2783824350581126e-002 -1.5263713099446177e-002
      -5.6943647487528630e-003 1.5082314382885372e-002
      2.9318016591312775e-002 1.7732401770734665e-002
      -1.0077832474050426e-002 1.9778709532870704e-002
      2.3696736911033082e-002 -3.7298820164500028e-002
      2.5004671434162216e-002 1.6171770288434022e-002
      -1.6030950783366860e-002 2.3581932453622487e-002
      1.6861500978719017e-002 -3.9017025724698028e-002
      -7.6340377842862390e-003 -1.2041282554317202e-002
      2.7800465365093725e-003 -1.4643886595182454e-002
      -1.8014415264191522e-002 1.7831127576978897e-002
      1.8662471779883538e-003 -7.6224942143297120e-004
      -3.2532027722940145e-003 4.7017481249545696e-003
      4.4071680466871623e-003 -6.5823664935102328e-003
      1.7235577546517705e-002 1.3198541934076928e-002
      -2.2200453238776837e-003 1.1694161330031880e-002
      7.2141984677797340e-003 -7.8747329303166906e-003
      1.9470148013264389e-002 1.2599653466076454e-002
      -1.0264636034689051e-002 1.8151573958072542e-002
      1.7384168170359874e-002 -2.1846712955553474e-002
      -3.4739818949999189e-003 5.6580720637773403e-003
      -5.9630911415714102e-003 -3.9128564940842311e-003
      -3.2622856609916826e-003 1.4114079811665330e-002
      -3.3593850120667339e-002 -2.2999290442308987e-002
      1.5087395467516215e-002 -2.7308004395623958e-002
      -3.9967629340246134e-002 4.8641204764568673e-002
      -1.0265214465369000e-002 -1.0051048242514602e-002
      -5.3606914837153394e-004 -9.6924358824436174e-003
      -6.5465107378875958e-003 2.0236515971125010e-002
      7.6797812395986310e-003 -4.9323747879579326e-004
      -3.7492189002526436e-003 9.7420854657570798e-003
      7.7335740407441528e-003 -2.7603085051227912e-003
      -6.7458103049491845e-003 3.4390257873947458e-003
      1.8618255542742304e-003 -8.6273877732616683e-005
      -1.5108041621403747e-002 2.4017246074334912e-002
      3.3229145071547784e-003 -3.5577008830067532e-003
      -7.8589644196574888e-003 8.9986713330940165e-004
      1.9909530046161739e-002 -2.1222706238793847e-002
      1.5899670137788074e-002 1.0130387871161812e-002
      -1.3982044883250704e-003 6.7162665500897587e-003
      8.4855365589770020e-003 -2.3544259524351057e-002
      -7.5644654614837369e-003 -4.7695991674065142e-003
      6.8970745786863059e-003 -6.5844939538523047e-003
      8.3991382310107977e-003 -1.2960746980120522e-002
      -2.8186138588511098e-003 -9.2002690271350777e-003
      8.6705184411318293e-003 -9.2420188759259926e-003
      -1.0380275501326388e-002 1.6365963691577834e-002
      -3.7020997036535767e-002 -3.8084335964814711e-002
      3.0842473686045833e-002 -3.6925164594817192e-002
      -4.9624340165207156e-002 6.6370911997659029e-002
      2.0538182472150571e-002 2.4744947318206000e-002
      -1.3266614423358946e-002 2.2126823667396212e-002
      2.9165374925323902e-002 -4.5348538817989649e-002
      4.2849191318687294e-003 1.9748216498682615e-003
      -1.9903502438833203e-003 -6.5478514866736349e-003
      8.6034321657663844e-003 -2.0481739346344726e-003
      -2.2088569379514118e-003 -5.9447353198140351e-003
      1.0083059962408592e-002 -3.9035445299304668e-003
      -1.6767273494598917e-002 1.5579923005401380e-002
      -1.6797138681347099e-003 -4.7825821498846148e-003
      8.0760690031677664e-003 1.2269762923430992e-003
      3.4329073474717469e-003 -1.2817093178668583e-003
      6.5183808862033111e-003 8.1624288191358193e-003
      1.9357648865805804e-003 8.7797221958581129e-003
      1.2017153949584079e-002 -2.2909894907970574e-002
      1.8992070327397897e-002 1.2682537796808944e-002
      -1.0269014264867494e-002 2.4950515726952335e-002
      2.2350308636257039e-002 -2.6933945024647361e-002
      2.8692666195612924e-002 1.3390569450953533e-002
      -6.2933721490288363e-003 1.4984601444507225e-002
      3.0741605309849269e-002 -4.1577131181144603e-002
      8.3175094348718181e-003 6.5184528316949509e-003
      5.4235026828057462e-003 1.3909929006039488e-002
      1.8393327928037120e-002 -2.8881115663207231e-002
      1.1774060962262769e-002 1.3935821290479038e-002
      -1.6462809271228847e-002 1.0802552707409230e-002
      3.0993309824830350e-002 -3.6792453090801799e-002
      -5.1594560496678746e-003 7.8095566076317015e-004
      -1.8460487174014738e-003 4.0621275984452461e-003
      4.1902043341953453e-003 2.4554041905678935e-003
      1.0572698141289343e-002 2.2688074284862075e-004
      -3.6847508177625258e-003 1.1120143276708264e-003
      1.8832457869197596e-003 -1.2314051539833663e-002
      2.7027421717217212e-002 1.5639869502557864e-002
      -1.1150921888989328e-002 2.0790742666919038e-002
      4.1200389535911632e-002 -6.5263164825539025e-002
      2.6102154825211422e-002 3.2118183720329950e-002
      -2.2520908357592725e-002 3.6671363038845661e-002
      3.7876681055661825e-002 -5.7448276298414883e-002
      -3.4625160849194210e-002 -2.6784549904331868e-002
      1.8758441745554411e-002 -3.5879049664474312e-002
      -4.1308924187441046e-002 6.6731404650762188e-002
      -4.7648243449931772e-003 -8.3079339022573836e-004
      9.1180710264490775e-003 -2.5969910785653026e-003
      -7.3065542032633201e-003 2.6088142799459171e-002
      3.2175488766795782e-002 1.4948896744062547e-002
      -1.8644086333047542e-002 2.3648784482089295e-002
      3.0005794756399549e-002 -4.4309139205289179e-002
      4.1051259945009072e-003 6.6712851238749961e-003
      -1.3413033424648135e-003 -1.7260497254843912e-003
      -1.3702560045067156e-003 -1.1972379380470976e-002
      -2.9363860163703098e-002 -2.5285117460641018e-002
      2.0948599502460957e-002 -2.3795984847678402e-002
      -3.0916662850636593e-002 3.9138765557586455e-002
      -4.1141005654609951e-002 -3.8396558998640577e-002
      2.7254593322204632e-002 -3.4955671678436162e-002
      -5.5715346602521552e-002 7.2543742626889743e-002
      3.6151475371292217e-003 -2.8879655005414513e-003
      1.7407815491614748e-003 7.2977324041639561e-003
      5.8732572707951361e-003 -6.2268937397188260e-003
      5.5666738600944007e-004 -4.1918456865216818e-004
      -5.2369181836433515e-003 3.0939814926350066e-003
      -9.8787757229174961e-003 1.7703291460251493e-002
      -1.0836046978624680e-002 -4.9600547553359416e-003
      -1.0941631768350139e-003 -7.3481364032231874e-003
      -1.1456608873307305e-002 1.1458312221255144e-002
      -5.6519896991221556e-003 -6.0818300031870564e-003
      7.3452423239123606e-003 -2.8544517720678723e-003
      -1.1775858652457689e-002 1.5125533717478041e-002
      -1.7504445618820536e-003 9.9317884752945351e-003
      -4.4719108386731300e-003 7.3900434815320180e-003
      3.6597057050834145e-003 1.5844087466990902e-003
      -1.0221603779743745e-002 -6.6436976064068818e-003
      1.0511816594851351e-002 -1.0044901001027104e-002
      -2.1956064523115663e-002 3.5195564873579208e-002
      1.8481891325600276e-002 1.0308194773675075e-002
      -7.7569358004916315e-004 1.8923935006004425e-002
      1.3504603980490556e-002 -2.2495491156574302e-002
      8.3555718970857364e-003 1.3291872487914379e-002
      -6.6105809265734295e-003 1.4078005109973324e-003
      5.3000226871431537e-003 -9.3443749175151393e-003
      -2.7140752832465677e-002 -1.1761658795861465e-002
      1.4267473093793059e-002 -1.4218746465316153e-002
      -2.1646020682926891e-002 2.8883314090535458e-002
      -4.5869598885605540e-003 9.1264705221589942e-003
      8.5148823470289597e-004 8.7062172410126790e-003
      -1.3990933574443280e-003 3.2585660682174062e-003
      1.7632520817844232e-002 5.3789464227024363e-004
      -4.3129399597451878e-003 2.9995543748342485e-003
      1.4572547918768795e-002 -2.8443952782790528e-002
      2.2216160894099231e-002 2.1926346801193992e-002
      -1.6392090820944605e-002 2.1912376785480862e-002
      1.2013420993222741e-002 -2.0015536844469019e-002
      -8.3836550709327062e-003 -7.0373428780858014e-003
      1.0012584212685322e-002 -5.4280519032562473e-003
      -1.5816905121414617e-002 1.5270065471225966e-002
      -5.1834578644014861e-002 -4.7115619403616499e-002
      3.7233862640921551e-002 -5.4661524255299770e-002
      -5.8652183330888598e-002 8.6413226331168366e-002
      -7.9490253594680111e-003 -4.5077282902067240e-003
      3.0013776583350561e-003 -4.1857386832898393e-003
      -8.5181462075425915e-003 2.1535248323994918e-002
      1.7010765690548723e-002 1.7538134099289778e-002
      -1.7411138353702720e-002 1.5507016059862809e-002
      1.4559545092147951e-002 -9.4086189008601214e-003
      1.6588419821352961e-002 8.8947583907785961e-003
      -9.9478850228950366e-003 1.3661320203574119e-002
      1.1582850850454008e-002 -2.2740674880695484e-002
      -6.1038853361253271e-003 -7.9091215317911006e-003
      -5.7191610256546108e-003 -7.6282785415404501e-004
      -9.9483104276640415e-003 3.5210742548548233e-003
      1.1207400382444600e-002 -2.9460157083308854e-003
      7.3659459584890714e-004 -9.0828733863981890e-004
      3.0647935631038610e-003 -1.3183804261211738e-002
      -2.4113709831188702e-002 -1.9338238999076468e-002
      1.1470087164314397e-002 -2.0220734144637400e-002
      -2.6395457581447422e-002 5.5557746869083310e-002
      3.1999181562036225e-002 3.1153060917289602e-002
      -1.9968953773774646e-002 2.7621841748887117e-002
      3.7236032450682889e-002 -5.8086102858737353e-002
      -2.5082237983790234e-003 -3.5303277114037369e-003
      -3.3894185290452884e-003 -1.2298688613360783e-003
      -1.6571119433859717e-003 2.3409962921479947e-003
      -1.0991003383149664e-002 -2.9090343559270149e-003
      6.5165990343157391e-003 -2.8297375380377590e-003
      -8.5635073253607016e-003 2.0597834550511725e-002
      -7.1399262779141938e-003 -1.6934185193412286e-003
      7.1671755370466682e-004 2.0750757510467100e-004
      -7.7467010270793708e-003 1.4149985875407408e-002
      2.3628466650016073e-002 1.6833574773943552e-002
      -1.3172926560431397e-002 2.0787991094080555e-002
      2.4641850144534273e-002 -3.7834862775664120e-002
      2.7735219492879969e-003 5.5021751421521232e-003
      -3.6880890480304909e-003 1.5139086435661049e-003
      6.5049577726822424e-003 -9.7218273045641661e-003
      4.0848676781694113e-002 3.6272333221950601e-002
      -2.4540783640284974e-002 4.7852550104579457e-002
      5.6410516300258381e-002 -8.8896455228158755e-002
      -9.6810833822898125e-004 -8.0498214709260330e-003
      2.8563587313797968e-003 -7.4729697309087952e-004
      2.1122276915852764e-003 6.6308262461325287e-003
      1.2461409655814326e-002 2.1481436444523066e-004
      -7.4565689831717023e-003 7.3032217140737224e-003
      1.3351300377139259e-002 -1.4163582732610959e-002
      9.5988006103582130e-003 -3.1122142884113625e-004
      -9.6699787196954726e-003 1.2538908814289646e-002
      1.5133041080587072e-002 -1.7765220352888321e-002
      -3.7553765150602665e-003 3.4956061959367508e-003
      3.9617332384769621e-004 -3.6597534281916167e-003
      9.6612168079145931e-003 -1.9198947035153430e-002
      1.3341444952840174e-002 1.0708927365696163e-002
      -1.2301581754621429e-002 1.1986924885801206e-002
      1.1803218270956886e-002 -1.5888959692222978e-002
      -6.0377724127586739e-003 -4.5666469715598592e-003
      8.4269190911344678e-003 2.0047036585619689e-003
      -4.0408256297045113e-003 4.1114461948920048e-003
      -1.5644407166772768e-002 -1.2943227661071756e-002
      2.0563359865054254e-004 -5.2664270851962378e-003
      -7.3016764217397993e-003 1.8877763846301899e-002
      1.7102667015296086e-002 1.4884145334906196e-002
      -8.4189744817417308e-003 6.0191296912884013e-003
      1.7282629549221717e-002 -3.3871189060071714e-002
      -1.5317032160799403e-002 -1.7818596805432383e-002
      1.3162299759192366e-002 -2.0098942564663481e-002
      -2.8849825482095377e-002 4.2404529530583789e-002
      1.2519335881109763e-002 1.7145144437559292e-003
      -2.6883867921795868e-003 2.0321524707512160e-003
      1.2341593446778258e-002 -3.5720025928688394e-003
      -2.3331511191361724e-002 -1.5589367185483705e-002
      1.6012414640042480e-002 -3.1309145520867075e-002
      -3.3888196316722095e-002 4.8628533503080974e-002
      1.6518504931777495e-002 1.9791859423997190e-002
      -1.2779024813928695e-002 1.7141882510186134e-002
      2.9162502553624320e-002 -2.5941045466061595e-002
      -1.8342409997518648e-002 -2.2166790619260034e-002
      1.8633584132438926e-002 -1.8622610995377896e-002
      -3.3165820040297764e-002 3.8470430404393456e-002
      -1.8778185149709581e-003 -1.1745179643900813e-002
      3.1180952500090112e-004 -1.1977991118020595e-002
      -4.1171465602730288e-003 -1.0584642305317192e-002
      2.4822971306175532e-002 1.5955272570412460e-002
      -3.4698442791579079e-003 1.2902305048228074e-002
      1.4644601373037651e-002 -3.2613454052620970e-002
      -1.9115157024501722e-003 -5.5751224658124598e-003
      2.6477843782986418e-003 -4.0698297099212898e-003
      -1.8327908842058951e-003 -6.2012187978389395e-003
      1.2266395189943690e-002 8.8730073753312353e-003
      -1.0699722063685376e-002 1.2791898888167666e-002
      1.5299718335918320e-002 -3.8149189243363489e-002
      -2.0195786617338143e-002 -1.6796445030315771e-002
      1.3809219175061192e-002 -1.6445439876656129e-002
      -1.8266783329658445e-002 2.6651250972601147e-002
      2.0024656532346085e-003 -2.2628703394154109e-003
      -4.5514794113339224e-003 6.7104793760341831e-003
      2.0668613216152138e-003 -1.0238198125843961e-003
      8.3036790790993256e-003 7.0263907508646044e-003
      -5.2457278814700883e-003 1.3388781065622296e-002
      2.1862392417451530e-002 -3.1125574379027458e-002
      3.6108101652231078e-002 1.8665375329547696e-002
      -1.2931288807218598e-002 2.6125747013940895e-002
      3.0981830309257781e-002 -4.5436306028536856e-002
      -1.9469619358543789e-002 -1.9749612992745108e-002
      1.2240988549144103e-002 -1.4887741903477808e-002
      -1.6795443237638277e-002 1.9064552159244900e-002
      7.6051296528249915e-003 1.0905718362702821e-002
      -8.3348783214027460e-004 3.7348221845570949e-003
      1.1603955065104256e-002 -2.2445305710621546e-002
      -5.2918124688815411e-004 -1.3838190138531659e-002
      1.0974698895837187e-002 6.7483545658427867e-004
      -6.5645457740855775e-003 -1.3742797578244622e-003
      -1.1917175665397928e-002 -1.0678679216232436e-002
      -3.9062211401204570e-003 -6.1851227723645433e-003
      -1.1084351426494344e-002 1.9876998348425042e-002
      -5.5373050348754161e-003 -7.6619870836440503e-003
      2.0309742329912989e-004 -5.5715428069309479e-003
      -7.2678403876940568e-003 6.7135311137079797e-003
      3.8992909954510121e-003 -3.1604459931295426e-003
      3.7150687418694567e-004 1.0619130024042842e-002
      8.6506062392620823e-003 -3.3591289559929617e-003
      5.9679965947282915e-003 2.1228337804951721e-003
      3.1004614959328773e-003 3.0272010246070384e-003
      -4.8808083267067899e-004 -9.1343047015023885e-003
      2.4273920938352456e-002 1.6925971112949436e-002
      -1.2440265754013313e-002 2.1609381281215603e-002
      2.1584681228968821e-002 -2.5284534196761081e-002
      1.3381405278905774e-002 1.3560399468850215e-002
      -4.8343069132880190e-003 2.2659566376098055e-002
      2.6024712545714531e-002 -3.1175049318568158e-002
      -1.8436795588006448e-002 -1.6807840627172551e-003
      2.0259490487428938e-003 -1.5350703106259017e-002
      -1.0043919926571237e-002 2.3983348763178404e-002
      -3.1713283230837004e-002 -2.8582419986031844e-002
      1.0961983704602734e-002 -2.8676200589994177e-002
      -2.9881850694059433e-002 5.7902672063874179e-002
      -1.9479322009287800e-002 -1.6509480682663783e-002
      4.9493883346548627e-003 -6.2228944133419246e-003
      -1.9885809200925232e-002 3.8802857710158165e-002
      -2.8075575792170286e-002 -2.7229235857933916e-002
      1.1130890237193316e-002 -2.5566104749180318e-002
      -2.1871056909455656e-002 3.6000667192364673e-002
      6.7076590743894134e-003 2.7520343413292223e-003
      -9.2894416156967183e-003 7.9110075712486641e-003
      -9.8462764550807843e-005 -1.3575630868522247e-002
      -4.0105257427816930e-003 -9.0966169438215314e-003
      -9.8068688015536172e-004 -3.0210714380062833e-003
      1.6626234241680807e-003 3.3805387764257555e-003
      2.9940301710381554e-003 -3.3017732706756356e-003
      -6.6735525503558157e-003 2.4323405462061899e-003
      1.0389640375321181e-003 -5.4915779483789510e-003
      1.8305931968198966e-002 1.2200258479604065e-002
      -1.0650502674538770e-002 7.4671867698728354e-003
      8.4902301243251523e-003 -1.3974183542752708e-002
      1.8065989854984942e-002 1.6126561544881290e-002
      -8.9574851677289621e-003 6.9046022380009316e-003
      8.8779950937113040e-003 -1.9824730027822493e-002
      4.8348926897072092e-003 -8.0728389006348559e-004
      -9.0627943915435934e-003 -1.4179932729633017e-003
      1.2451925723029613e-002 -1.1271676854933991e-002
      -2.2966577940848786e-002 -6.3513278490690793e-003
      1.3685012327874885e-002 -1.8979261714432781e-002
      -2.2074110911812918e-002 2.7989869495010485e-002
      4.8266981747433811e-003 1.0694534896019148e-002
      -6.6284516618577236e-003 4.9425880760142092e-003
      1.2930387298479564e-002 -1.1507279538352098e-002
      3.2619356843453157e-002 2.3948576389216717e-002
      -2.5000992079743194e-002 3.2448495140734605e-002
      2.5263327577095682e-002 -4.4737374408812161e-002
      8.1191346707680469e-004 8.9385923729313511e-003
      1.3532238365657802e-003 3.3201861345022936e-003
      3.8206981021199635e-003 -1.4229397244871739e-002
      1.1491257610805898e-002 1.3292890449675063e-002
      -4.1732189512710110e-003 1.4537498213293362e-002
      1.0314461173062558e-002 -1.2543982919819476e-002
      -2.3808643651317021e-001 -1.7594900149462517e-001
      1.4064873261025101e-001 -2.1617937372928667e-001
      -2.5451880968825852e-001 3.5880630033158473e-001</_>
    <_>
      5.5059141267989153e-001 4.3337562223840986e-001
      -3.2568402708010669e-001 5.1363296472030262e-001
      6.1889002153991801e-001 -9.1961307948934812e-001
      -4.7066378913654539e-001</_></weights></opencv_ml_ann_mlp>
</opencv_storage>
