<?xml version="1.0"?>
<opencv_storage>
<opencv_ml_ann_mlp>
  <format>3</format>
  <layer_sizes>
    256 6 1</layer_sizes>
  <activation_function>SIGMOID_SYM</activation_function>
  <f_param1>6.6666666666666663e-001</f_param1>
  <f_param2>1.7159000000000000e+000</f_param2>
  <min_val>-9.4999999999999996e-001</min_val>
  <max_val>9.4999999999999996e-001</max_val>
  <min_val1>-9.7999999999999998e-001</min_val1>
  <max_val1>9.7999999999999998e-001</max_val1>
  <training_params>
    <train_method>BACKPROP</train_method>
    <dw_scale>1.0000000000000000e-003</dw_scale>
    <moment_scale>0.</moment_scale>
    <term_criteria>
      <epsilon>1.0000000000000000e-004</epsilon>
      <iterations>300</iterations></term_criteria></training_params>
  <input_scale>
    2.7037325414346753e+002 -1.0675295547369940e+001
    5.9274072279012114e+002 -6.6439544541390694e+000
    8.8562217966696142e+002 -4.6106943469919566e+000
    4.8713624164894026e+002 -5.8888502868633337e+000
    1.0194691526498456e+003 -5.1005302625819677e+000
    3.0056561155518589e+003 -3.0357001456082333e+000
    6.8724587142452015e+002 -6.2899741427012934e+000
    1.9963208978825733e+002 -4.3828015991782143e+000
    1.3853525029182131e+003 -6.1737908660871508e+000
    2.6080884122562506e+003 -2.3897519970307743e+000
    4.9202781949659093e+003 -3.2275877406459501e+000
    2.7564036085215776e+003 -2.1238428440332733e+000
    6.3770684453029162e+002 -5.1592900457358422e+000
    2.0933983990168922e+003 -2.4085852217070314e+000
    2.0840671470903669e+002 -5.4380177379224888e+000
    9.2870334124881836e+001 -4.5008847599168771e+000
    6.0464735363726675e+002 -6.0376593635913807e+000
    2.8557543880472072e+003 -2.7653598214158559e+000
    3.0389513697375378e+003 -2.7687239371856620e+000
    3.6721811686495257e+003 -2.5235730786699007e+000
    2.8410347586890766e+003 -2.6179881039909771e+000
    1.1259928938467125e+004 -7.6207349628871390e-001
    1.9305741714812921e+003 -2.6031794498415728e+000
    4.0413273579533729e+003 -2.5037378141319837e+000
    7.3857800211790629e+002 -7.3634780698601885e+000
    3.4952534980949008e+003 -2.3655922428076428e+000
    2.9867019239988567e+003 -2.0525023780776732e+000
    5.0200912471670790e+003 -3.0317086142407392e+000
    3.7806114917907530e+002 -6.7451872522068177e+000
    4.1101325450250215e+003 -2.6533550534307282e+000
    1.1619592847436608e+002 -5.0693558845870879e+000
    4.9393726080389411e+002 -8.1671425672966365e+000
    1.1103817523752577e+003 -6.1623644106996354e+000
    1.9744438027281551e+003 -2.0147385875229138e+000
    3.4504152573944425e+003 -1.7783793761391760e+000
    2.8336054763384082e+003 -1.9915490505775362e+000
    4.5578566511450626e+003 -2.6576423797416089e+000
    1.9304766227960667e+004 -9.0453403373329089e-001
    3.9580992851703227e+003 -1.9576188791065907e+000
    2.7005349312943558e+003 -2.2354490617467309e+000
    2.5734489499897541e+003 -2.1838410215425048e+000
    9.6040000707727377e+003 -1.0000000069878296e+000
    1.4160325375565146e+004 -1.1795356492391771e+000
    9.9057695836262974e+003 -6.1885274775527610e-001
    4.1176811004483889e+003 -2.8297267254558252e+000
    1.3755134631487181e+004 -1.0741723233769060e+000
    2.6794325999889311e+003 -3.3339462642472477e+000
    2.4888848923331507e+003 -3.9131780327839838e+000
    5.5616748810685681e+002 -6.3758892073461713e+000
    3.1680672414444812e+003 -2.0122043188615959e+000
    4.3177673559488630e+003 -2.2703795675786909e+000
    4.0803485468706108e+003 -1.5294934277422085e+000
    3.6856770039795110e+003 -2.6479770162096496e+000
    1.2950031078303698e+004 -6.7419986845930691e-001
    4.4358975936486340e+003 -2.6558112558300948e+000
    4.0849596809052277e+003 -1.8502264369834098e+000
    2.7377632845572310e+002 -4.7819636628783524e+000
    5.8583847516797159e+003 -2.5924755790788776e+000
    3.4548774026237770e+003 -2.2123590281293266e+000
    5.0990696062350025e+003 -2.1502740568185712e+000
    1.8209621101133746e+002 -3.9342944619793565e+000
    5.1135043950496283e+003 -2.3160916524040429e+000
    7.1282173703855665e+002 -9.9939032705964497e+000
    9.6316102474980562e+002 -4.5480375072029098e+000
    1.0500879067833744e+003 -6.3471056544572999e+000
    2.0189886717558088e+003 -2.2388826731492952e+000
    3.8798102133216053e+003 -2.4844682237039915e+000
    2.2005597102331367e+003 -2.1881867437415989e+000
    6.2155626874949767e+003 -2.4269429713915454e+000
    1.4998927992690265e+004 -1.0932163332202425e+000
    3.9741634108687126e+003 -1.9034935275450391e+000
    3.5576471793172627e+003 -1.5743440805746689e+000
    4.9744298977653780e+003 -2.5120767613174495e+000
    1.9207999873101013e+004 -1. 1.3069388519039310e+004
    -5.4433105395181736e-001 8.0880269103091805e+003
    -5.8950634140766167e-001 5.0990695961909087e+003
    -1.8848081201653317e+000 1.4356733166730428e+004
    -8.2217860202712945e-001 4.0413273430770046e+003
    -2.1250211581893312e+000 3.5045494307682975e+003
    -1.9339975005811914e+000 2.1568411789691340e+003
    -2.1671717473768592e+000 1.2529917544430746e+004
    -9.7849210958016319e-001 1.3448289838157943e+004
    -9.8019605881960681e-001 2.2179487794658336e+004
    -5.7735026918962584e-001 1.9604082778558964e+004
    -8.1649658092772592e-001 4.4066173870731262e+004
    -2.2941573387056174e-001 1.1912295991327197e+004
    -6.2017367694635117e-001 1.1259929065548769e+004
    -7.6207350079327818e-001 3.1345642676455323e+003
    -3.0190253771383078e+000 1.6782107409473057e+004
    -6.1159283966272660e-001 1.6470724008271565e+004
    -6.8599434057003539e-001 1.6782107409473057e+004
    -6.1159283966272660e-001 5.6518569131022532e+003
    -2.2068370893564442e+000 2.0135455010728325e+004
    -7.3379938570534287e-001 3.8853624530725019e+003
    -1.9014164651744505e+000 4.2907507442804408e+003
    -1.6530380788012164e+000 6.2129935930091415e+002
    -5.9484044313894371e+000 1.7087453846334874e+003
    -2.2951702737285338e+000 3.9784235441012997e+003
    -2.4233421242867528e+000 3.8180013539071088e+003
    -2.9219398268006596e+000 4.7430774028534188e+003
    -2.4693239729378367e+000 1.6292012853658567e+004
    -7.6337003671197390e-001 2.8029677734946436e+003
    -1.6343835470953934e+000 4.9202781372112640e+003
    -2.4078829134546114e+000 3.2888290451066323e+003
    -2.8594046692813118e+000 8.0880270987016993e+003
    -1.0947975023948275e+000 1.0822481986420742e+004
    -8.4515425922816900e-001 9.9722967431527286e+003
    -6.7492637349340423e-001 3.1854456720466474e+003
    -2.3549213266295044e+000 1.0822481986420742e+004
    -8.4515425922816900e-001 2.8633595343032393e+003
    -2.8323527546475908e+000 3.4327377116820703e+003
    -3.6993789357315272e+000 2.7924741568254740e+002
    -6.3502327615174989e+000 3.4067234451786189e+003
    -2.4652986496609919e+000 3.1094097881837270e+003
    -2.4605908433368868e+000 4.4489669937224890e+003
    -1.7603159784202407e+000 4.2167038265068713e+003
    -2.5245780114045107e+000 1.3223332675639584e+004
    -4.8189987722292371e-001 3.1175902316053475e+003
    -1.5906072760682848e+000 5.2181011948254218e+003
    -1.7658089275851208e+000 1.4762357414696595e+002
    -4.7681000393628130e+000 3.4548774808063608e+003
    -2.0324924696207516e+000 2.3817264809972012e+003
    -1.9343467920966262e+000 3.7305878877071450e+003
    -1.8062509290699180e+000 4.6173740189602950e+002
    -5.1995938756653404e+000 3.7815712247213205e+003
    -1.3781236442800677e+000 1.0251888681397404e+003
    -6.9598410764974901e+000 1.3840930549782163e+003
    -3.2498228074695392e+000 1.0062753162364306e+003
    -6.2970789648042391e+000 5.1776778326030808e+002
    -7.0732125673433810e+000 3.5923205179774818e+003
    -3.1980779382197557e+000 1.3575985560964864e+002
    -3.3685519990143851e+000 3.5923204959392397e+003
    -2.4125850922920429e+000 2.2738128981155241e+003
    -2.2728658823764252e+000 3.6177172750497798e+003
    -3.2206874780785841e+000 1.3508430536616677e+002
    -3.7540609091358021e+000 4.8080136697956295e+003
    -1.9524420522367758e+000 3.7641044101837779e+003
    -2.4691647141318338e+000 1.3069388519039310e+004
    -8.1649658092772603e-001 3.5973570950343742e+003
    -2.8654500021414893e+000 4.1756521300546028e+003
    -2.1304347727877122e+000 2.7175085584035201e+003
    -2.2919428989397685e+000 2.6446664223181642e+003
    -3.5109847310301179e+000 4.5519783692311586e+002
    -7.2540637582440723e+000 2.5091888290822194e+003
    -2.7432822346260770e+000 3.3156690941307120e+003
    -2.3821446132750710e+000 1.2123982159743071e+004
    -1.0730304937010298e+000 4.6710049904340176e+003
    -2.9911163120028168e+000 1.2123982014604673e+004
    -8.2055272402714408e-001 1.4356733166730428e+004
    -1.4201266762286782e+000 1.1259929054733309e+004
    -9.9655765518670947e-001 3.9580993427188409e+003
    -1.9576189046893622e+000 3.8798102794686811e+003
    -2.5652639910050179e+000 4.6918610203141861e+003
    -2.0029810818800811e+000 8.0382976871672399e+003
    -7.1142785373979789e-001 4.7960085984801408e+003
    -2.1473174937788300e+000 4.0730032154622240e+003
    -3.0534801543099426e+000 4.9744300003448980e+003
    -1.7351458235722499e+000 1.9033688061997382e+003
    -2.9331381103143395e+000 6.2815534528545413e+002
    -3.5188210743138786e+000 3.4746052116375599e+003
    -2.3154387248577439e+000 2.4643874879517657e+003
    -2.1169509521410843e+000 1.3069388519039310e+004
    -8.1649658092772603e-001 3.0298640898429308e+003
    -2.8550884996618531e+000 1.3448289838157943e+004
    -9.8019605881960681e-001 9.8664867999921407e+003
    -5.6503204663126561e-001 9.3837221220063348e+003
    -9.2821074648361812e-001 2.7353609732162481e+003
    -2.6630180462645416e+000 1.3069388721987447e+004
    -8.1649658885208576e-001 1.4356733166730428e+004
    -6.7269158347674229e-001 1. 0. 8.4558503545875246e+003
    -7.9240580996986054e-001 1.4316797809353735e+004
    -7.4535599249993001e-001 1.0671111146479689e+004
    -7.7777778161197775e-001 4.6382065561596200e+003
    -8.4515425638145036e-001 2.8410346005974029e+003
    -2.7067333191364114e+000 2.3767981796640133e+003
    -2.0664582264416165e+000 2.4888848339318588e+003
    -1.5808202456749574e+000 1.0822481986420742e+004
    -8.4515425922816900e-001 3.2215312281904362e+003
    -1.9287593335538096e+000 1.6292012853658567e+004
    -7.6337003671197390e-001 1.2950030872638676e+004
    -6.7419986246324215e-001 8.2353620506813968e+003
    -6.8599434145121374e-001 5.1631422922086122e+003
    -2.7955373087604287e+000 4.3620760091549373e+003
    -2.7478717438429641e+000 3.9912862052370187e+003
    -2.1194876746971949e+000 1.1108273267027767e+004
    -6.3614642840660973e-001 3.8423685529080749e+003
    -2.6205241733620372e+000 2.5111178078358676e+003
    -1.9217738461373213e+000 3.5823104576822334e+003
    -1.5852581719233529e+000 2.4064583215329776e+003
    -2.2175298064394120e+000 7.4837941869431074e+002
    -2.7468111819805436e+000 5.9170483589130868e+002
    -6.2565209133479849e+000 3.5791993311747740e+002
    -9.0560749372011138e+000 3.2013334165785645e+003
    -3.6666667536263162e+000 1.1783518582594202e+002
    -4.7734047532335584e+000 4.9090171083803552e+003
    -2.1212433501010297e+000 3.2697131817424206e+003
    -2.0937876070093142e+000 4.8020000186085736e+003
    -3.5000000227104340e+000 3.9337951651923970e+002
    -5.5111634940660670e+000 2.5408207690145005e+003
    -1.5212119337593262e+000 3.7103490335394358e+003
    -3.0906697423098755e+000 1.6470724008271565e+004
    -1.0289915108550529e+000 2.2662039540355327e+003
    -2.5484176178609088e+000 5.3458775934167370e+003
    -2.5883310110006499e+000 3.8232919927614403e+003
    -2.1098966835631545e+000 3.3058332302195386e+003
    -3.3044563615540667e+000 7.7704714536726453e+002
    -5.8092445317456054e+000 3.0298639608817762e+003
    -4.5902250011965018e+000 3.1081883045583372e+003
    -2.2816251195819715e+000 8.9949699757594553e+003
    -1.3112201250194866e+000 4.4645627897916329e+003
    -2.6264868617014132e+000 1.1164423277708818e+004
    -6.9748583630496352e-001 2.2179487794658336e+004
    -5.7735026918962584e-001 6.4603496189560874e+003
    -8.7447464049024681e-001 4.1329035693449032e+003
    -1.7213259325944141e+000 2.6794326273872839e+003
    -1.9668888088081342e+000 3.4520865750965199e+003
    -1.2939932990315517e+000 1.0557671663328589e+004
    -7.1454462615717107e-001 3.6588326719215629e+003
    -2.2477210347218279e+000 3.9118621488183871e+003
    -2.0976770360456154e+000 5.9561478996161832e+003
    -1.8605210073372391e+000 2.7451206768215361e+003
    -2.6868111638384664e+000 1.0294941869206621e+003
    -3.2319085552342397e+000 1.3433876090148291e+002
    -3.3640641509844929e+000 1.0735970505026003e+002
    -4.9784094664213505e+000 2.4643875334484837e+003
    -3.0150513985662148e+000 5.1209317619973490e+002
    -9.3124814554260809e+000 4.5036620398945861e+003
    -2.5557016167003024e+000 2.9838176360716798e+003
    -2.2369311611248781e+000 2.6004287889532011e+003
    -2.8701109310030946e+000 5.4413162277105141e+002
    -4.4277265680765598e+000 2.6896580243847252e+003
    -3.2206442279529113e+000 1.6488313101762769e+003
    -2.6868190405330483e+000 7.8156243371468727e+003
    -1.0579249977205969e+000 2.5843736366603353e+003
    -2.5025692379913274e+000 2.5902416447954674e+003
    -2.5487071793296296e+000 2.5827377460315201e+003
    -2.7833544226468407e+000 1.6736813052518442e+003
    -4.1214663556080771e+000 6.8268173800557861e+002
    -6.5183168661856072e+000 9.2959867471327669e+001
    -4.1311194326430556e+000 2.6715449598610019e+002
    -3.8123202466570909e+000 2.2926858177311569e+003
    -4.1895706229562784e+000 7.8430059701312484e+002
    -4.3649382358774380e+000 3.1492756307971254e+003
    -2.2953904212030865e+000 5.9561478836082797e+003
    -1.8605210045036866e+000 2.2133791825233516e+003
    -2.9153734940892675e+000 1.1020350744564485e+003
    -3.1039200985009199e+000 4.6428656203106095e+002
    -7.7300521161115299e+000 8.5241859991039780e+002
    -3.9407939910878227e+000 2.7946485593948278e+003
    -2.8225834098835509e+000 9.0136690582019241e+002
    -3.5992733210377725e+000 7.3545303243918158e+002
    -4.6827314844659602e+000 1.4901119774162109e+003
    -4.1271322937063939e+000 8.1335080089907376e+002
    -7.4822514616766469e+000 3.2052757475169659e+002
    -5.5985527159569699e+000</input_scale>
  <output_scale>
    1.0526315789473684e+000 0.</output_scale>
  <inv_output_scale>
    9.4999999999999996e-001 0.</inv_output_scale>
  <weights>
    <_>
      -2.4853456755675817e-002 -1.2950578556360417e-002
      7.1858693218579848e-003 -9.0817298337246052e-003
      -1.4541459047074528e-002 2.8987079295801854e-002
      3.2754145100386311e-003 -2.3248016985037974e-004
      4.0766815145439816e-003 -3.0858190230745092e-004
      -1.8653599492685462e-003 -1.7747274471364590e-003
      -2.0690691747230476e-002 -9.5335532812614813e-003
      6.8434226682603334e-003 -1.1891061874128589e-002
      -2.5431633160098537e-002 3.4296691538064743e-002
      -3.3223053240911195e-004 1.2361407012203188e-002
      -3.1700587791699403e-003 -3.1784349476651492e-004
      1.3817233315228267e-002 -1.1146594052176632e-002
      -2.9404593779308222e-002 -1.4169972644335843e-002
      1.3214477886952311e-002 -2.3085875219601315e-002
      -2.4730337298132680e-002 3.4900243877800947e-002
      -9.6574912302959358e-003 -5.1434479933252404e-003
      5.6112670626845768e-004 9.9403872907223622e-004
      -8.1075181048396502e-003 3.0213731165020454e-003
      -7.2520950646481437e-003 -1.0837054550131734e-002
      2.6431009932078040e-003 -1.1993696930674081e-002
      -8.2454616186584794e-003 2.5180367443723047e-002
      -1.0656187125873116e-003 -2.2568754132877597e-003
      -6.6822615450286196e-003 4.0297135477731305e-003
      1.4354586894409799e-003 -3.8691229806663472e-003
      -2.3507340256382001e-002 -2.1012245076108139e-002
      1.7013427675633002e-002 -1.1094880089441934e-002
      -2.6249076171448536e-002 2.9449206206133425e-002
      2.1212578411175776e-003 -5.4579160417296078e-003
      1.6167762616557146e-003 -5.5977520951523627e-003
      -1.3975702536185809e-003 2.2596875441558951e-003
      -4.6204405885706791e-003 -1.5939209091508220e-002
      1.3124216159328817e-002 -1.3822816067779247e-002
      -6.4715709653394354e-003 1.0788070041357359e-002
      -3.5895602194660763e-003 -9.0182002105745722e-003
      -1.8980202751028277e-003 -6.8998236491068961e-003
      -1.2103139311521099e-002 5.5774655395188751e-003
      -2.1046650295418540e-002 -1.0921937790714148e-002
      2.0528890573195458e-003 -1.6500810960822277e-002
      -1.8653698872895433e-002 2.9657833158878120e-002
      -1.1666232958550364e-002 -5.9825494409911128e-003
      1.5620747665471603e-003 -3.1250556481763237e-003
      -8.0139031968627465e-004 1.3634443249120009e-002
      1.4534978472554588e-002 1.8605598608506978e-002
      -9.0362477148899448e-003 2.1473548914356017e-002
      2.2728222072658833e-002 -2.4151188597535699e-002
      2.0660993588810121e-002 2.1898485501721875e-002
      -1.7811771710567737e-002 2.1006527021765212e-002
      3.3493591437257872e-002 -4.1923376708205277e-002
      -1.1372923711472503e-002 -1.1700498201759755e-002
      -2.1369796329542864e-003 -6.6318620926925130e-003
      -1.3648687057757640e-002 3.4144654849192421e-003
      -2.6910182919405545e-003 3.5432768615356960e-004
      2.9365929738900442e-003 -7.6127616442223239e-003
      8.1540644326116461e-004 -3.1425275920999966e-003
      -1.0081201231251020e-002 -7.7622348716623784e-003
      1.1819992820201778e-002 -6.1499071147953412e-003
      -1.2006137899529669e-003 1.4556457047137641e-002
      1.0033508112426750e-002 1.4233452283669254e-002
      -3.0032309204662119e-003 1.1591223957486125e-002
      1.9209345764527080e-002 -2.6172071938086971e-002
      -1.5655540546363794e-003 2.3823730978470717e-004
      7.4763385849478817e-003 -4.3326372001776248e-003
      -9.1752370408617451e-004 8.6256982541189752e-003
      -1.6521601430374285e-002 -1.1258535906808882e-002
      4.7873566464864707e-003 -7.2306500831753268e-003
      -1.6103314518007349e-002 2.2086235704090091e-002
      -1.9915349423804553e-002 -1.4292837525997297e-002
      1.7290436448476314e-002 -1.9479546494959629e-002
      -2.3765643314280650e-002 2.3061635143022279e-002
      -3.1213188440141534e-002 -2.5733461338372055e-002
      8.2978268602391485e-003 -1.9549269037354260e-002
      -2.6399682816205295e-002 3.8558967071436946e-002
      -7.3948444703761107e-003 -1.0219973016984459e-002
      8.4217629868331215e-003 -6.1283596332906776e-003
      -6.8646219996508998e-003 1.6604218650183047e-002
      -8.7601848774302663e-003 -6.9084023351919707e-003
      4.6606668560967646e-003 -1.7162687852703066e-003
      -7.7170299079119256e-003 7.0532193450701681e-003
      -2.2549498958581018e-002 -1.7382043973494313e-002
      4.7116534892348667e-003 -2.0666467407181817e-002
      -1.2943333088971056e-002 2.6168835720879219e-002
      7.2881347134472916e-003 6.5274107776771527e-003
      -9.1198406076816139e-003 1.3760309466571301e-002
      1.9631109426349606e-002 -1.5917845327503118e-002
      3.1787666134559032e-003 -1.4257866290591514e-003
      2.6533523177072068e-004 2.2990896575650972e-003
      1.7979943975687182e-003 6.9246600248361941e-004
      -1.1755843376601457e-002 -3.9552849167195760e-003
      -2.4955789544695989e-003 -3.4598300600623272e-003
      -1.8686084213950175e-003 3.1173581825841529e-003
      1.6124487197954632e-002 1.3650671600127208e-002
      -1.2788852276085205e-002 1.6226953996683297e-002
      3.0400433457633345e-002 -4.3127002643587695e-002
      5.8243644799636073e-003 5.4909562313776175e-003
      -1.9258993816394911e-003 6.9791415560785924e-003
      3.9709797256231210e-003 -1.2940644295528665e-003
      -1.0652628844003517e-002 -6.3772823656548386e-003
      3.6678051187010651e-003 -9.4510014568156830e-003
      -8.8865008175838603e-003 2.1148343950374598e-002
      -6.0015030025296155e-003 -8.0741427781934293e-003
      5.0940777581958698e-004 -5.6093987195517036e-003
      -9.0066072261787266e-003 1.9581462890417841e-002
      -1.8993210485985304e-002 -1.2548949795760220e-002
      8.8718613682419907e-003 -2.2223610105671979e-002
      -2.3194461813007019e-002 2.8011846434278526e-002
      -3.2359123129918961e-002 -1.9990685707739410e-002
      1.3815808157470414e-002 -1.8459612865884951e-002
      -3.1722647451136003e-002 4.7516060367524780e-002
      -2.1217249685657073e-002 -1.6351519062237016e-002
      1.7953667971106931e-002 -2.0971150540994223e-002
      -2.2217053376080837e-002 3.5896865046386582e-002
      1.3979722886615364e-002 3.7409972389602537e-003
      -4.8665666179068647e-003 5.3382991484274287e-003
      2.4576162934487351e-003 -1.5058584432314059e-002
      -1.1594836215988467e-002 -6.6810440714691766e-003
      5.7018007742317611e-003 -1.1240455617330615e-002
      -9.7667560306673694e-003 1.9151067504015549e-002
      9.5478266821712274e-004 -5.2610664080597171e-003
      2.0213993672104887e-003 3.2100669826025281e-003
      -1.1297540728563420e-002 1.1587657417441856e-003
      -2.0391869504424544e-002 -8.6903462491944999e-003
      2.7616513664121350e-003 -1.0791612881942591e-002
      -2.0802132699510565e-002 1.9506704629660320e-002
      -4.9906187860948156e-003 -7.0849501233203709e-003
      1.5233282104521618e-003 -4.4370303300793534e-003
      1.1708646256915352e-003 3.2431515561846948e-003
      -2.9602709958494893e-003 -7.4968057125042427e-003
      4.3714967730278690e-003 -8.5393711559496720e-003
      -8.2152839395141994e-003 4.6093525660571514e-003
      2.2287902774075531e-003 -3.3959885962979862e-003
      8.3691793036193129e-003 -2.2674947821858860e-003
      -6.1326869421445525e-003 4.0090590868050221e-003
      -5.5445234545609566e-003 1.1095416763305538e-003
      -3.5341849673515523e-003 -3.2049995202103384e-003
      7.4688901546995715e-003 -4.9075939778682265e-003
      -2.2411505406200777e-003 -4.8486436776003844e-003
      -1.3755780238069342e-003 -3.3321165077229223e-003
      -1.1740619358699448e-002 1.3753250786557652e-002
      -1.0145666260439107e-003 7.2538360870654838e-003
      -2.6075416904903512e-003 5.6893779630327740e-003
      7.2496450175423346e-003 -6.8908404938155966e-003
      -1.1656793059064604e-002 -9.6072536283214206e-003
      3.1073345120572657e-003 -1.2796744662096715e-002
      -1.3347198262629967e-002 1.7612724368606874e-002
      -7.8629811984282354e-003 -1.2569129116873407e-002
      7.3631795525512253e-003 -1.7841677791079820e-002
      -1.0451524076215290e-002 2.3423647995339497e-002
      -9.7794484832492770e-003 -6.5762710399039376e-003
      9.2327213510537427e-003 -1.9824600763417199e-002
      -1.6987843727420675e-002 1.7726564230028666e-002
      -1.4108296993826049e-002 -4.3732109805977503e-003
      1.2246532463328417e-002 -7.3339117330911948e-003
      -1.6216233824054984e-002 1.6892382987478687e-002
      1.8206473133362537e-002 1.0877784828286888e-002
      -3.4998844105121880e-003 7.2002913114785332e-003
      1.5718271861445088e-002 -2.5569618113878950e-002
      -9.6075146314192807e-003 -2.4413991802856856e-003
      1.1456403185814512e-002 -5.2922336770398282e-003
      -1.6712687507721188e-002 1.3094095429358210e-002
      1.3921917087603040e-002 1.5611716917254185e-002
      -9.5442632140582354e-003 1.5922335213536573e-002
      1.3688568694339591e-002 -9.4872258434664323e-003
      -1.2650706130027509e-002 3.9049038546438107e-004
      -2.6863648581416299e-003 -1.1668710721778471e-002
      -2.8538032185913068e-003 1.3437299990935861e-002
      -8.6053339888141969e-003 2.3363277498777793e-003
      7.5284739685379217e-003 -1.7612615662472436e-003
      -2.6078754063774811e-003 1.2076403896806760e-002
      -2.4391107122572176e-003 1.2184699156331227e-003
      -3.7516990402771508e-003 -2.7276162707756792e-003
      1.8880437388205311e-003 -1.9435320331017084e-003
      -1.2828404450699871e-002 -1.3336566822901750e-002
      1.0549696379303222e-002 -1.2341746376729782e-002
      -7.0445903595528856e-003 1.0400939753547120e-002
      -3.4784943046057952e-004 3.1027208741498977e-003
      2.9370073712469886e-003 -8.4503441405849207e-004
      -1.0213300856380957e-002 1.4354971321799363e-002
      4.1373919798351252e-003 6.5589634487997379e-003
      5.3410273728128673e-003 3.6664089574099824e-003
      5.3973632419686227e-003 -2.0489889565623240e-003
      7.1578998214760154e-003 -4.2955292715719743e-003
      6.9583780897624421e-004 4.1135574565972889e-003
      4.6398898904245834e-003 -8.1157136250312317e-003
      -1.9491605781891849e-002 -6.9582049300517248e-003
      1.6140763733862605e-002 -1.8302879915211710e-002
      -1.5833348212988228e-002 1.9567835007857259e-002
      -1.6092091763366002e-002 -8.6464866287665858e-003
      7.1120269023428728e-003 -1.8240555312047706e-002
      -8.0783291298045512e-003 2.7563494261012414e-002
      -4.5117858898647946e-003 -2.3201579244558871e-003
      1.3989678596900302e-004 -9.1225544333959577e-003
      -3.6374979696344374e-003 3.4461622630522762e-003
      -9.6879358018837590e-003 -4.0652806245175454e-003
      4.3333664286643939e-003 -7.8358886796505503e-003
      -1.5157823766536595e-003 1.2191219451644230e-002
      -1.7350208796151432e-002 -6.8995211401525975e-003
      1.4084864894067722e-002 -7.7257577130585928e-003
      -9.9454894455109719e-003 2.4965814793877626e-002
      -6.8827825296353092e-003 -9.5384157735461470e-003
      1.2185678320256074e-002 -1.5362261769712015e-002
      -7.6878060447916540e-003 2.2731046824491792e-002
      -2.6390007923080355e-002 -2.4971569567155634e-002
      8.0401088155649964e-003 -2.3906698343098488e-002
      -1.9023692946517810e-002 2.9053841817979414e-002
      1.4570453655092801e-004 -9.8197504214652467e-003
      -3.3518244544643457e-003 -5.1263530821653580e-003
      -7.1072625917606705e-003 1.2133407240011230e-003
      -1.6465695310085588e-002 -8.4991959446118134e-003
      6.5813753215522644e-003 -1.7132720628059678e-002
      -1.4437366918455768e-002 1.2324426965903433e-002
      -2.3913386077581589e-002 -1.4347254983366345e-002
      1.3099348029201053e-002 -2.1858054790165758e-002
      -2.7963944590813330e-002 2.7538413672989381e-002
      -1.9960462246129358e-002 -1.6501674467944105e-002
      1.4474501713595765e-002 -1.5190892934796276e-002
      -1.2769218959225306e-002 2.2956250701130197e-002
      -9.1719579345084269e-003 -1.1116179537164967e-002
      1.2757384002975091e-002 -1.5901925896072110e-002
      -9.6415079247857936e-003 2.9503765782443382e-002
      -8.4870395550923350e-003 -7.9803251956324199e-003
      4.3452870773181560e-003 1.4614325103691519e-004
      -3.4921309529123788e-003 1.1231336013514214e-002
      -2.3493910930039798e-002 -2.2188145057949572e-002
      1.9794147377978376e-002 -2.1358315163573557e-002
      -2.7934157245308715e-002 2.6981461153580195e-002
      -1.6210296062126001e-002 -1.4779758517696619e-002
      4.1266195934748038e-003 -1.7537245460796914e-002
      -1.7099385627827805e-002 3.0630023521832344e-002
      7.0226446700862319e-003 6.5722828896686396e-003
      2.6919766618846408e-003 7.0211903010958653e-003
      1.2331980220396414e-002 -1.2120346234783129e-002
      1.6085620396801459e-003 8.5014392510187123e-003
      -3.3655327473378640e-003 1.2016406541262382e-002
      7.9317737727995687e-003 -6.5780167822977725e-003
      -3.2687536707237267e-003 -4.7235304790420101e-003
      5.6057530531637510e-003 -8.9526700623615146e-003
      3.8640317399166407e-004 1.2672238464214298e-002
      -6.8059295614758047e-003 -5.7319674646096129e-004
      5.7351270271539930e-004 -3.9840286440374004e-003
      -1.1778660829674067e-002 1.3708707592416521e-002
      -3.9910627553694485e-003 6.1543570828438178e-003
      4.1399319965139654e-003 6.3173652135858566e-003
      -4.1202089752820133e-003 -9.6356862060994631e-003
      -1.4410769000823234e-002 -2.4830060648471631e-003
      1.4993611920916102e-003 -8.0779496370057182e-003
      -1.2722205135464130e-002 1.3430347519815498e-002
      -3.2301013369274328e-004 -5.4291001475432745e-003
      4.0533216155164160e-003 -3.0363306291305119e-003
      2.0298310328540994e-003 -7.2897924860689553e-004
      -1.9217311528467923e-002 -1.3239830368988665e-002
      7.6871063721474786e-003 -2.1861900324678225e-002
      -1.4960274515628468e-002 2.5507896940311671e-002
      -1.4466075646553009e-002 -2.9959739385648186e-003
      3.5284430736717888e-003 -4.0663773109594703e-003
      -7.9718326039227069e-003 1.7979304555127744e-002
      -1.0356993926683315e-002 1.6028156321370340e-003
      5.5622666555534611e-003 -3.3490425770023955e-003
      -2.3568013578304922e-003 1.5330056039615151e-002
      -5.0180313548653863e-003 -7.2984142427918791e-003
      4.7997321288444951e-003 -1.6657897851756375e-002
      -2.0794028130121000e-002 1.2774975519838916e-002
      -5.0393979086344595e-003 -4.1085193909868867e-003
      -3.1041274447818372e-003 -5.9177488730139454e-003
      -8.3298814109635357e-004 1.3616428191866068e-002
      -2.5918332188487367e-002 -1.7864989644122271e-002
      1.8674758652426772e-002 -2.7692753947183079e-002
      -2.7770261808602259e-002 3.2535950819139424e-002
      -1.2608921051801256e-002 -7.0083490406211988e-004
      1.1291003262130752e-002 -9.4124945073774322e-003
      -1.4090739632675816e-002 1.4402940861069132e-002
      -1.7637411404131251e-002 -1.6555647143015991e-002
      9.9050973851806390e-003 -7.8147996682975986e-003
      -1.1570450709158348e-002 1.4555909489961008e-002
      -7.0225728445159864e-004 2.3398425168985569e-004
      5.2387240180281867e-003 3.4966173030469032e-003
      -7.1491281506571303e-003 9.8272432809083377e-003
      3.2466711182249273e-003 3.4164394121194918e-004
      -3.0494819565485402e-003 1.0740309173768847e-002
      5.9335064491529439e-003 -1.3898613296419905e-002
      -3.5630721334563068e-003 -7.6242358224815534e-003
      1.9856822231364231e-004 -2.7783498294059860e-003
      4.6177257838112889e-003 6.7051520688870940e-004
      -2.6384274353590646e-002 -2.0297962545200231e-002
      8.7024186764149761e-003 -2.7561018059226547e-002
      -2.5666561003093440e-002 3.6078650054302774e-002
      -2.2112813912001879e-002 -9.1312436909878805e-003
      1.8905529353799723e-002 -1.9887649016349148e-002
      -2.0813894017101684e-002 3.1309722231503412e-002
      -1.5428111329443628e-002 -4.1241165917922547e-003
      -1.1273773479859026e-004 -9.1422158775840597e-003
      -8.1911033175111562e-003 1.6111644279651619e-002
      -1.5642502234391783e-002 -8.9435843954444490e-003
      4.6166931734672517e-003 -2.0826243139085439e-002
      -1.4951280841461570e-002 2.8193748602855704e-002
      -4.9672774327074948e-003 -7.5802011817995495e-004
      1.1574961674254898e-002 -1.1542471933203116e-002
      -3.6436123621607060e-003 1.3340593619408416e-002
      1.6755792615456948e-002 7.1842780664928274e-003
      -2.0916709275529480e-003 2.0818849972461126e-002
      2.3938614682898054e-002 -1.8648265819275655e-002
      1.5850732122507614e-002 4.9357082898932305e-003
      -4.2484632906959951e-003 4.7267267027686121e-003
      9.9851943518277711e-003 -9.7790661960903778e-003
      1.4315765697405362e-002 4.7449111055251451e-003
      -1.1779970121160213e-002 2.2197098072820258e-003
      4.4586828291996762e-003 -8.5903741303037309e-003
      4.3348272557818153e-003 -1.2135182287405382e-003
      8.3398004964618615e-004 1.9400640154831400e-003
      7.0584386076692901e-003 -7.9297759463862929e-004
      -5.0843735813322433e-003 -2.6524294396115863e-003
      5.2718179697591088e-003 -7.2558720422189176e-003
      -3.4856087072971300e-003 7.8307839978266625e-003
      -4.7138495850727619e-003 1.3715450849438155e-003
      3.1961595768598638e-003 -5.4376416632830058e-003
      4.7409517284611197e-003 -3.5614203802654073e-004
      -2.8745860214302029e-002 -2.1595786437895725e-002
      1.6675571222746374e-002 -1.2468529928632878e-002
      -2.1974287805108336e-002 2.8524508806029868e-002
      -7.5625673450848818e-003 -8.4981151898048789e-003
      3.5539192348269686e-003 -9.7266263389119510e-003
      -6.1768235035292544e-003 3.3676266753225746e-003
      -1.5058659840362943e-002 -9.2951263616498411e-003
      3.2026588875039069e-003 -2.2417225671797696e-002
      -2.1038893722566173e-002 3.3412395259570897e-002
      2.6813588727910890e-003 -5.7967929602598979e-003
      -5.2624395991558584e-003 5.9133800129941346e-003
      3.3324835171109511e-003 -1.7536798608131488e-003
      -1.0281410698000039e-002 -1.5388533202447444e-002
      6.6529281733579372e-003 -1.0710337243155621e-002
      -1.7095969453985803e-002 2.9513952278235254e-002
      1.3363142148752399e-002 6.2408661030358388e-003
      -1.0803972939344588e-002 7.9647794594667701e-003
      1.9208451169528441e-003 -3.2882179165818382e-003
      2.3738233338033280e-003 -4.8760126321810746e-004
      -3.4475561971120138e-004 2.5515804398676882e-003
      -4.0641501511899060e-003 -1.0293142739059475e-003
      -3.5582809190666301e-003 -6.1788285370385637e-003
      -5.1842849319970220e-003 -4.4215916833882521e-003
      -6.4308516761409180e-003 5.5136564303255283e-003
      1.1643953343468576e-003 -2.9390045370122392e-003
      1.5581278742760158e-003 3.2278846070145357e-003
      2.3712668115347881e-003 -9.5020942628170593e-004
      -1.1632603966181652e-002 -5.8298464583561478e-003
      1.4545736843162628e-002 -1.8659841216612648e-002
      -8.9708895213886277e-003 1.8092287011627996e-002
      -2.0158652250213436e-002 -1.5742254719170332e-002
      1.0786563042780485e-002 -1.0098744088177011e-002
      -2.6161996567002008e-002 2.2563734885289101e-002
      -5.1369219147371593e-003 -1.1868977069837748e-003
      1.2551414485154268e-002 -2.5578169920088337e-003
      -9.9492878948724203e-003 1.6973929065993931e-002
      3.8738422021673146e-004 -7.6463810026534062e-004
      3.6811130767859792e-003 -9.1009665903329685e-003
      -9.0744109005717749e-003 2.8805565129688781e-003
      -3.0994339420246427e-003 6.9015661571413976e-004
      1.5588582444829736e-003 -1.6486152269342348e-003
      -2.8367151967492255e-003 -3.5589636587846679e-003
      -4.4594240452406056e-003 -8.1799678570481336e-003
      5.7920123981467717e-003 -1.1271260008458550e-002
      -1.5825189604818098e-002 1.2889806206995513e-002
      1.4119892987385014e-002 1.0574796035135271e-002
      3.1710367207413810e-004 4.6267346544175952e-003
      1.3494649244610083e-002 -1.2593954012928656e-002
      -1.7200384060440239e-002 -1.8060675621175231e-002
      1.4047300890507578e-002 -1.0404852483265439e-002
      -1.7100355739292309e-002 2.3055034826061315e-002
      -1.5033077522968439e-003 -9.4946921517932211e-003
      8.1957339813381845e-003 -9.0752574619318450e-003
      -6.8605685071420862e-003 1.6703513485498984e-002
      1.0025537775169154e-003 -6.8953526626509517e-004
      7.1700094541559097e-003 -1.1000497514365628e-002
      -7.5707576459341306e-004 1.8107399862452477e-002
      -5.8995407555516750e-003 1.8591183319318851e-003
      3.2691489174737011e-003 -3.8611580078597657e-003
      2.7268592963048547e-003 -1.7403486304224485e-003
      -1.3589909563816322e-002 -2.2991190759937149e-003
      1.2276011225070488e-002 -9.8860039436188055e-003
      -8.4592579668883242e-003 2.3798451906796809e-002
      1.0995917017102699e-002 3.1935520704049806e-003
      -1.4797295711735561e-002 6.6757116436440651e-003
      1.1946848772431103e-002 -1.5084043279896455e-002
      -1.9475301063896021e-002 -2.0678088307529187e-002
      1.8176061651799139e-002 -2.4319196399999271e-002
      -1.5202974897861200e-002 2.9405822033519859e-002
      -2.0190101573568792e-005 -3.9877378551029016e-003
      -3.3611525953364729e-003 -2.2212669985329394e-003
      2.9084627561304642e-004 1.2911944908139305e-002
      -1.2538958831136602e-002 -7.5486960334780898e-003
      1.3567459166042425e-002 -1.7369683523583833e-002
      -1.3460020977167989e-002 3.0213517660730264e-002
      9.3875133661448578e-004 -1.9714034674417368e-003
      5.5066676904303741e-003 -4.1300098662553947e-004
      6.0983636104409581e-003 9.1255558597177512e-004
      8.7650227464333274e-003 3.4426242420670643e-003
      -1.1190422491058375e-002 8.6450310443583669e-003
      1.6971451415834565e-003 -2.8498592206384695e-003
      2.7011902109860260e-003 3.6123295929248915e-004
      8.1381242097862301e-003 2.6571581461161372e-003
      -1.0975020016141972e-002 -5.7501718324652921e-004
      -1.2978872761771005e-002 -6.0652244038585310e-003
      9.9417423509398683e-004 -1.0997446964126864e-002
      -2.1465908530803070e-002 2.2929210899953516e-002
      -1.4687477721731035e-002 -1.3988613363376637e-002
      1.5116673163541620e-002 -1.1646026536462959e-002
      -1.1227573700995667e-002 2.6286624597905352e-002
      1.2100166486646951e-002 -2.8186292893846708e-003
      -7.5946579545149273e-004 3.5543935924585894e-003
      -4.3884406189600365e-004 -2.0659675643136402e-003
      2.6697096708048675e-003 3.2957192664052806e-003
      6.4494105312670347e-003 8.8704227686746255e-004
      2.0564978966858966e-003 6.3836220118741209e-003
      -6.8324376839745760e-003 -1.4385959374973979e-002
      1.0569520816863742e-002 -4.4147586962933784e-003
      -1.5388463213630403e-002 1.4269954840042185e-002
      -1.4289162665963960e-002 -1.3140281509481527e-002
      8.5437618144333892e-003 -1.9771542207759469e-002
      -2.8103749670084544e-002 3.2746458263022471e-002
      -1.7736456963299729e-002 -1.6232574452505647e-002
      1.5165462013896017e-003 -1.4899237893947299e-002
      -8.5710899008417645e-003 1.9145164221384400e-002
      -1.5365500230973213e-002 -8.9934576538483833e-003
      1.7984129750797873e-002 -1.8363644637108455e-002
      -2.3008758494195456e-002 2.5561086266012785e-002
      -5.8901117452115808e-003 -6.8008797610923308e-003
      1.0348318931629857e-002 -1.3622222882791366e-002
      -1.1544680393605683e-002 1.3913259863852709e-002
      1.3329061532141584e-002 1.7840564489230999e-002
      -1.5840477032479653e-002 1.8363664670088074e-002
      1.9415682290319099e-002 -2.6259078228716100e-002
      1.3168659967227745e-002 1.2603565956361220e-002
      -6.1330470313662412e-003 1.3343040825099416e-002
      4.4834099170699571e-003 -1.6546513021234131e-002
      3.5637602706246538e-003 6.0361585642291962e-003
      2.5964034166577280e-003 -8.7837272893605701e-003
      -1.1706356578690662e-003 -1.9001580895196067e-003
      -1.1109956443121842e-002 1.0082418207141420e-003
      -2.2386782078233961e-003 3.4145621545813331e-006
      -9.0564965013213844e-003 7.9426919414674006e-003
      -9.6860260131695060e-004 -5.7036535772532621e-003
      1.7046648313086797e-003 2.9663468538283539e-003
      1.5634497832108507e-003 2.5878074142770691e-005
      -2.8978219733233820e-003 -9.5073724970172122e-003
      8.0601314999506537e-003 -3.7231167316473185e-003
      -2.4006389368437810e-003 1.3171567424288070e-002
      -1.4728313677031655e-002 -1.1322956849217919e-002
      1.4464901422238470e-002 -1.8792112763893358e-002
      -1.1547419429064582e-002 2.5708455012497321e-002
      2.4156234847493006e-003 -4.2181121154466882e-003
      6.7344429425497373e-003 -5.5079633472363892e-003
      -5.7890463663101818e-003 3.8903385238048638e-003
      2.1551177907582785e-003 -1.5207117132277005e-003
      -3.6477042268070552e-003 2.2431717786004011e-003
      -1.1051005540500033e-002 7.9953523905365396e-003
      -1.1397921674949281e-002 -1.6332144816766522e-002
      6.3687485445331916e-003 -1.8550574230957958e-002
      -2.1201782148544589e-002 2.1060047456233577e-002
      -5.0444541639980932e-003 -5.4288405240056521e-003
      -6.6509347741921577e-004 -1.6588480801783454e-003
      -4.6639084489636384e-003 9.0171122856815503e-003
      7.6442290000864374e-004 -5.3136538192067532e-004
      8.0770081261105943e-003 -3.8314395865141800e-003
      -1.0327948138720204e-002 1.4210302947164653e-002
      -1.0527894459233647e-002 -1.1347908477207421e-002
      7.2803627448467792e-003 -1.0042069757791108e-002
      -1.6836450985185859e-002 2.8423310428951357e-002
      -2.4890438803643590e-002 -1.2746412963250018e-002
      7.9253220028991725e-003 -2.4461453069347491e-002
      -2.5672466068123411e-002 4.0888167561648273e-002
      -9.3751501466093970e-003 -4.1556979668157202e-003
      1.1942232725708627e-003 -4.5004230380729596e-003
      -1.1146721272091811e-002 4.1654743671297638e-003
      -2.5230338240225240e-002 -2.3207212404666402e-002
      9.9253782877722716e-003 -2.3918349908817582e-002
      -2.1877357259215725e-002 3.8203400291801311e-002
      -2.2643197373176095e-002 -2.6248027293366887e-002
      1.5924472695881264e-002 -1.8720487856253971e-002
      -2.4129419631068533e-002 3.9703006156327963e-002
      -2.9473677467214104e-002 -1.6726025402339473e-002
      1.8430846866764300e-002 -2.1827039678960672e-002
      -3.7429038076680639e-002 4.8191291020504359e-002
      -2.4423177608783922e-003 -6.2174518085523186e-003
      -7.5431648717872489e-003 -4.1164537782302935e-003
      9.0989560384486124e-003 2.7601234107569174e-003
      -1.3269034547760912e-002 -1.2850477930832193e-002
      1.5112159794065966e-002 -2.0667824084058716e-002
      -2.6184570918438801e-002 2.9310885015025795e-002
      -1.4043916509703132e-002 -9.1007496202308805e-003
      8.9868850628028168e-003 -1.2799381081054171e-002
      -1.7284610595999655e-003 7.0777845543936865e-003
      -3.4711868788884440e-003 -1.0749997048974889e-002
      9.5357804982683248e-003 -1.0133497730242571e-002
      -1.0191434803785884e-002 1.4218736804663019e-002
      -1.3129454444125293e-002 -1.8653290937551754e-002
      1.5542059933501736e-002 -1.4089549342320156e-002
      -2.4133226466710657e-002 3.1289702209109017e-002
      -5.2708144998423884e-003 4.0976051998839217e-003
      1.9439896506269030e-003 -2.1150242518673981e-003
      -5.0344180378955345e-004 4.6200177709082423e-003
      -6.3514939212111028e-003 -6.0791825253646188e-003
      3.5906497843477118e-003 -1.6262465998037330e-002
      -3.9948826760351601e-003 1.9928272042659317e-002
      6.1537036416168499e-003 -7.9654787576095528e-004
      7.4018728065346831e-003 3.2493782475818073e-003
      -4.9768019295401370e-003 -7.7789646944093531e-003
      1.2701356217025908e-002 8.0620565343064825e-003
      -2.9226472451620252e-003 1.4957928273298797e-002
      1.6738362372804634e-002 -1.4471075320606404e-002
      6.1818979845956129e-003 1.0069665528914242e-002
      -1.3562263714215063e-003 9.0975173406103883e-003
      7.2815025953090074e-003 -4.5986208758901055e-003
      -2.8571991019035178e-004 -3.3358687550056384e-003
      1.7992918370739032e-003 6.7433186344719740e-003
      6.5738481190572441e-004 2.8572308059018887e-003
      -1.0569277958429617e-002 -1.7343923276488479e-002
      1.6201759908324179e-002 -2.1636627488127398e-002
      -1.4965119962352214e-002 2.7901221298571800e-002
      5.7414388027372757e-003 7.2034669624270733e-003
      2.6183907163246757e-003 1.2226025909983651e-002
      1.0071914197008629e-002 -5.4537798973150163e-003
      -2.2891748066387801e-002 -1.3031579815712910e-002
      2.8186958139393746e-003 -2.1495307186411235e-002
      -1.0064476956752761e-002 2.6995488236045584e-002
      -2.2266022780973601e-003 3.6039677782525484e-003
      -4.1617207574520124e-003 6.8075303157441921e-003
      6.4993794485068606e-003 9.3596187248660111e-004
      5.6310531450499339e-004 -7.9129045026285032e-003
      2.1799102415092156e-003 -8.2413503449039350e-003
      -8.6375014515504729e-003 3.0205685083595805e-003
      -9.8845486657811437e-003 -1.3102274176532954e-002
      9.3427967132726480e-003 -1.4038259298917241e-002
      -3.6508985976590066e-003 7.6724177341251712e-003
      -1.0684320434699236e-002 2.8213924888035374e-003
      -7.5181623386828638e-004 2.0621805810890825e-003
      -3.6969694066699035e-003 5.0654198168778360e-003
      -1.2381804506699035e-003 -1.2639961265052126e-004
      -1.2417172537538836e-003 -3.9909863649299293e-003
      -4.3000952513467840e-003 1.5000055478494907e-002
      -1.5296455179112393e-003 1.5149164001950636e-003
      7.4237276874669052e-003 4.2996024002867663e-004
      -2.8798490876351286e-003 1.8291356593698016e-002
      1.7364432851020312e-002 4.1505193985878330e-003
      -1.1759175542823984e-002 9.9412738917407980e-003
      1.1748658997886356e-002 -1.3296032459789418e-002
      -8.9770447353879571e-003 -4.6451978124646817e-003
      6.8563712398377625e-003 -1.4070410792074753e-002
      -1.5745058187664310e-002 6.7519989892873217e-003
      -9.7255589004991358e-003 -9.2648246892004880e-003
      8.5480937952365447e-003 -4.8236805603503932e-003
      -9.6816960370512371e-003 1.1309169815877963e-002
      -1.3547206280505710e-002 -1.7345210927718974e-002
      1.1861500454545983e-002 -9.1360854596121890e-003
      -2.2997607441784189e-002 2.2116598230796328e-002
      3.5941717482970152e-003 -2.8556299598770053e-003
      1.3920227150709195e-003 7.2691792564963395e-003
      6.1977846076010064e-003 -6.6057521159152265e-003
      -4.8208407159900562e-003 -5.7603981421022318e-003
      -6.9158590939919537e-004 -2.3231150105301602e-003
      -1.4198423450799464e-002 1.9009529870102373e-002
      -2.7276748448681231e-002 -1.8747837197370890e-002
      9.1621792864236759e-003 -2.2627385655358819e-002
      -2.9682414244648840e-002 3.4671266057344566e-002
      -1.1757523089018285e-002 -1.2108483877277233e-002
      1.2339578154893303e-002 -9.0030630606608604e-003
      -1.7875558970592415e-002 1.8066222742387419e-002
      -1.8526645547640608e-002 -4.4392180261638445e-003
      6.9692462182225894e-003 -8.5312760545495567e-003
      -1.3545198052659455e-002 2.1129133525429927e-002
      -2.6737877659649016e-004 7.3355334075357668e-004
      5.2898689390904960e-003 -4.0921327093116185e-004
      -9.3095864080733060e-003 1.3291896190382502e-002
      -1.3830128558611803e-002 -1.5801826701726265e-002
      1.8595012394809599e-002 -1.1525382248417052e-002
      -2.2926005842572858e-002 3.0719572173217958e-002
      -3.0790142801867783e-002 -1.9308912333865190e-002
      1.8573222677658419e-002 -3.5517429970934614e-002
      -3.7068261308960994e-002 4.5371176299995833e-002
      -8.9090662352198230e-003 3.7586365575707848e-003
      1.8841461062507855e-003 2.8962138477873441e-003
      -3.7348288411812865e-003 7.1226614390261242e-003
      -1.5289505911993463e-002 -4.5791221620075531e-004
      8.9267271463346759e-003 -1.8670530609503535e-003
      -1.2589757170693196e-002 1.7939285130271806e-002
      -8.5933064917683970e-003 -2.0329146657732809e-002
      1.0933131985263120e-002 -2.2001433636426267e-002
      -1.6759357278139268e-002 2.3233648634083375e-002
      2.1132920661599817e-003 4.2201252814970886e-003
      -2.2270774032086384e-003 2.2009491117872303e-003
      -8.7551012156889471e-003 5.8635271323210329e-003
      -5.7673116670428175e-003 -5.3028965600261276e-003
      9.1191843106851536e-003 -3.0195673452570126e-003
      -1.2240724234405699e-002 7.6214823906410921e-003
      -1.2983276111622231e-002 -1.6903105426321056e-002
      1.5086854496650461e-002 -1.8030013068866667e-002
      -1.4495045115442026e-002 2.3726638943366268e-002
      7.5437787284556275e-003 7.6387329263822006e-003
      -5.7581711446983022e-003 1.0253942257979664e-002
      8.9556941329266785e-003 -1.3806437959439028e-003
      9.9127783261588574e-003 1.0326315602412954e-002
      -1.0833090886596541e-002 7.9662028674882708e-003
      8.7785322358327599e-003 -2.6457105375048075e-003
      -3.2378466702975958e-004 -2.8387736197087862e-003
      -2.4140689877053213e-003 -1.4014667254557611e-003
      -1.0242435018366766e-002 1.4010110292714565e-002
      -2.6904247811870192e-002 -2.5338390207248450e-002
      7.6633930524558072e-003 -2.0234810744523522e-002
      -3.2553602826781672e-002 3.4267115812776403e-002
      -1.8806947346896696e-004 -1.1352836530641843e-002
      6.1353942627911644e-003 -1.1518441873320439e-002
      -1.0761944093140808e-002 1.0141445472416358e-002
      -2.5379882261303614e-002 -2.2509072143310074e-002
      1.4678585825864111e-002 -2.2052437903538492e-002
      -2.5038808610164290e-002 4.6163338457845621e-002
      9.5744592376934847e-004 6.7840051531439793e-003
      -2.2708247507810583e-003 -1.4013426761424993e-003
      2.2895017593248697e-003 -5.7609137380190203e-003
      -1.2133001765189841e-002 -1.1983599629663907e-002
      3.5168049686597988e-003 -1.0082155561939561e-002
      -1.1123491609226719e-002 1.5260928708494612e-002
      1.3859212332470103e-002 1.6635862301993688e-002
      -8.0059799929905733e-003 2.0632216105853782e-002
      2.0770505800317210e-002 -2.2305280552918905e-002
      -1.5660530784395024e-002 -1.0402306803367409e-002
      8.6377064584690945e-003 -8.3836720595339732e-003
      -1.4084363059020208e-002 1.7830621099898691e-002
      -7.4340413230852206e-003 -8.0716292444494575e-003
      5.6166775420841133e-003 -8.2367236076393169e-003
      -1.0926614598626566e-002 1.7091496081597001e-002
      -1.9627007228996598e-002 -1.2687471509420491e-002
      1.0087747504023584e-002 -1.9915061805504605e-002
      -1.9909269926748414e-002 3.3367754810661711e-002
      -2.7623629251053677e-003 2.4942731633927975e-003
      4.5996628636477057e-004 6.9924934879634125e-003
      5.3765354977342713e-003 -7.6897903446769434e-003
      -9.9558426826798427e-003 -1.5794240497218871e-002
      8.9831809754338503e-003 -9.3974977249151378e-003
      -7.6351742314657986e-003 2.2377899122055098e-002
      3.6195215531588699e-003 -7.3303465987496711e-003
      -1.8520061169636488e-003 -1.1126903924861768e-003
      3.8838269855183748e-003 -1.0230850965647083e-004
      -1.6961849846654324e-003 -9.1095801706059069e-003
      -3.1826002525990479e-003 2.0811070871883893e-003
      9.1196163049753643e-004 8.3833973821813932e-003
      -1.3795510519087019e-002 -3.7368905646055551e-003
      5.2175570739542891e-003 -1.3114318112187592e-002
      -4.2119525794757423e-003 9.8781334099717726e-003
      -6.6388777804502657e-003 -5.8939310674654688e-003
      7.9308055065643553e-004 -7.1092302590295420e-003
      -9.5425666277562503e-003 1.3619474448347593e-002
      -2.1011503441783569e-002 -1.6663753595611897e-002
      1.7347263394883784e-002 -1.1731695312534209e-002
      -2.0857636972232283e-002 2.8369829684668505e-002
      -1.6528665861432507e-002 -1.4767267592277493e-002
      2.2821510315751436e-003 -6.5693195678325489e-003
      -7.0382886940357197e-003 1.4361174805006224e-002
      1.4708718022592795e-002 1.4056960976818855e-002
      -9.0661845440492203e-003 3.7514475566377088e-003
      1.2111781802448493e-002 -1.9083586759746016e-002
      -1.5573976678336304e-002 -1.9204964735666869e-002
      1.5063481748478755e-002 -2.0557410445093714e-002
      -2.7173682964444220e-002 3.5215420464583300e-002
      -7.5574420145908009e-003 -1.5075097304409783e-002
      1.0440622618559327e-002 -1.6785584690617538e-002
      -8.8179348925724547e-003 2.5718017217805523e-002
      -4.6197513756041390e-003 -1.5254109628063078e-003
      6.2977145332330266e-003 -1.3756809330538673e-002
      -1.1059769045491384e-002 1.2806471506717088e-002
      -3.0052849224676527e-002 -1.8733324302916340e-002
      1.6431127558392478e-002 -2.6931768870761357e-002
      -2.1814624394986049e-002 4.6141105351210014e-002
      -2.1667773969887325e-002 -2.6907216212134075e-002
      2.3189244910758001e-002 -2.2224284378399281e-002
      -3.4088823036452290e-002 3.5587977943398338e-002
      1.4436731698999297e-002 2.7421538260342217e-003
      -1.1074706020995998e-002 3.6518957082695451e-003
      1.1267930260451899e-002 -2.8566013291442854e-002
      6.5641053691992681e-003 1.3923113373120325e-003
      8.0714963112391135e-003 -4.2473699882797783e-003
      -6.0439700354617959e-003 -1.8570088324398311e-003
      3.0582748789626589e-003 -5.7003000219750034e-004
      -1.6414566853764710e-003 7.7013680986920852e-004
      1.4958107804932729e-003 -6.5490421418906899e-003
      -1.5871397632578658e-002 -1.4516343579890017e-002
      8.0025799802879612e-003 -1.4219928362181312e-002
      -1.5241052959292461e-002 4.7371168725355278e-003
      5.1976185441149824e-003 5.0631213546653408e-003
      -3.5268011116553100e-003 8.0786312563967278e-003
      7.6487192261526765e-003 -1.1725513031641266e-003
      -1.2047299197618632e-002 -1.4514673455143462e-002
      5.1890774381519438e-003 -6.6172084229357874e-003
      -1.2606301869483305e-002 1.8157530026842943e-002
      -1.1265555912556506e-002 -7.9786713351678289e-003
      5.3289777463551586e-003 -4.6940466164527798e-003
      -2.6503535323847177e-003 1.0057778112470663e-002
      -1.5408485927880975e-003 -1.1695074373382528e-002
      1.0698823920698781e-002 -9.2502186040255788e-003
      -1.0744688559276539e-002 1.7005073279056947e-002
      8.3613978135520881e-003 3.4121833600304317e-003
      -5.7657193014149849e-003 1.1764648490698340e-002
      1.2785590332443716e-002 -1.7599616415552796e-002
      -1.4549033332506917e-002 -7.2479162356287458e-003
      1.3000807694630181e-002 -1.7229102939715444e-002
      -1.3626803295881083e-002 1.5180077445091986e-002
      8.8415283995672417e-003 -4.9866285881351854e-003
      3.0988013720201534e-003 9.8375663112215909e-003
      9.7066298140472426e-004 -5.9083982931730740e-003
      -1.3434250569682742e-002 -1.2144968812229226e-002
      -2.7318487154472412e-003 -7.9383255161705728e-003
      -1.2588144996245680e-002 2.1063428886938088e-002
      -7.7171666717463219e-003 -9.4516054807320168e-003
      1.2531048663410496e-003 -7.5463592929019795e-003
      -9.6835245297048518e-003 1.1278019873003758e-002
      -7.7729731631833703e-003 -1.3187218825440290e-002
      8.4248981866138946e-003 -6.1040804313068999e-004
      -4.1632323284786239e-003 1.6089922763486496e-002
      3.8482052063437198e-003 1.3724460146575816e-004
      4.8928576202018608e-003 8.4331439743135709e-004
      -2.9952756387194705e-003 -4.4331276850165403e-003
      1.2593085900382860e-003 -1.9996839245680796e-003
      2.2845767569460709e-003 1.1977280696201529e-005
      -3.7528302737135067e-003 1.3331512690262773e-002
      3.6738032702295464e-003 6.0938765235732714e-003
      1.4792232088466964e-003 1.3927676853480198e-002
      1.5218028596662179e-002 -1.6508248525829796e-002
      -1.8715793447729155e-003 1.0913793707023016e-002
      -5.9834930216800903e-003 2.3158763841078946e-004
      1.0487187908885124e-002 -8.6321720268644746e-003
      -2.0015031174714946e-002 -2.0060531941961692e-002
      5.1512800599502724e-003 -1.7770441128579926e-002
      -1.5831322490816088e-002 3.6368432324033764e-002
      -3.1286521660484567e-003 -4.4611168702516964e-003
      -2.6474690221712266e-003 8.9815705916258259e-003
      1.0339399829781509e-003 4.9082234213677894e-003
      -1.1301791438911871e-002 -1.4167660305721136e-002
      1.4275453488948968e-003 -9.6460176274322396e-003
      -3.2197206693710657e-003 1.1902086863124359e-002
      -8.2965799497458344e-004 -3.6631551734625733e-003
      -4.1331790785254863e-003 9.6577315362972587e-004
      -8.1549106103302339e-003 -9.1825926634225765e-004
      -2.3997343505717982e-002 -2.6138216163646436e-002
      1.2172616083843103e-002 -2.1871041643997266e-002
      -1.9859707774799298e-002 3.4538628009237266e-002
      -1.4060475762439482e-002 -1.7593562968982675e-002
      4.4572208240103326e-003 -1.3507519738177225e-002
      -1.7788870865716348e-002 2.3535632625000209e-002
      1.6381352582860824e-002 1.0183908102008719e-002
      -7.4773002200714473e-003 5.8356992577769775e-003
      8.7666675161769334e-003 -1.9851953408126535e-002
      5.8321314080609383e-003 5.6699031571716269e-003
      1.6374751132660072e-004 -4.4837266052009479e-003
      -3.3502976758678594e-003 -5.3572429175909294e-003
      -1.0722832378895484e-002 -1.3506164222820636e-002
      7.2717673836849336e-004 -1.5989712953802023e-002
      -4.4965563875371695e-003 1.3866820294914763e-002
      -1.7156049744191555e-002 -2.4999029116827263e-003
      1.1592195453287166e-002 -1.3552842821684372e-002
      -1.3671629147028561e-002 1.1562158022558862e-002
      -1.0069134483676048e-002 -1.6277354934828888e-003
      3.8357736128692460e-003 -9.0288257117377493e-003
      -3.0468243533354564e-003 1.0477184921298725e-002
      -8.8193831327661783e-003 -9.9407601444542817e-003
      1.0662067026646707e-003 -6.4637550842178088e-003
      -2.0221468147713126e-002 2.1570332218139022e-002
      -1.6204983675072442e-002 -5.4113803279432614e-003
      1.2576441005063180e-002 -1.2459544733710895e-002
      -1.3677251927519554e-002 9.1877764694336603e-003
      -2.1843616424197316e-002 -1.4588795748806995e-002
      1.7638363596082667e-002 -1.6886820881342860e-002
      -2.5233944259321663e-002 3.6124671530585448e-002
      -3.9987692937524355e-002 -1.7407724731720902e-002
      2.1317555906926428e-002 -3.0112290633107476e-002
      -3.2650763107821924e-002 4.1996735948782588e-002</_>
    <_>
      4.6495357802994941e-001 3.7120836203690732e-001
      -2.7554521017324135e-001 4.3559771230326244e-001
      5.2370251889153285e-001 -7.7599808568100481e-001
      2.6785942279920749e-001</_></weights></opencv_ml_ann_mlp>
</opencv_storage>
