<?xml version="1.0"?>
<opencv_storage>
<opencv_ml_ann_mlp>
  <format>3</format>
  <layer_sizes>
    256 6 1</layer_sizes>
  <activation_function>SIGMOID_SYM</activation_function>
  <f_param1>6.6666666666666663e-001</f_param1>
  <f_param2>1.7159000000000000e+000</f_param2>
  <min_val>-9.4999999999999996e-001</min_val>
  <max_val>9.4999999999999996e-001</max_val>
  <min_val1>-9.7999999999999998e-001</min_val1>
  <max_val1>9.7999999999999998e-001</max_val1>
  <training_params>
    <train_method>BACKPROP</train_method>
    <dw_scale>1.0000000000000000e-003</dw_scale>
    <moment_scale>0.</moment_scale>
    <term_criteria>
      <epsilon>1.0000000000000000e-004</epsilon>
      <iterations>300</iterations></term_criteria></training_params>
  <input_scale>
    3.6398192571289876e+001 -1.9413091144693351e+000
    7.6873440355382718e+002 -8.1708402801317899e+000
    5.0559997586999464e+002 -3.3174741183288869e+000
    7.8443181338767442e+002 -9.4763694919186321e+000
    9.2031720476354701e+002 -5.8611419187589000e+000
    3.5564186101010719e+003 -3.3002348471260690e+000
    7.4014005399160646e+002 -7.5407976635965701e+000
    3.9088500552432623e+002 -7.6126866647195230e+000
    4.2083468492260045e+002 -2.7213989168834565e+000
    4.1373586038244748e+003 -4.0367706825713876e+000
    3.8422295052115487e+003 -2.4966994644627691e+000
    3.8131117045241303e+003 -3.0486148763914631e+000
    7.4383159842763484e+002 -7.3790405288177974e+000
    3.6057192730515699e+003 -4.3489544096260468e+000
    2.6249635939429027e+002 -6.2908932942259970e+000
    1.8654946882806476e+002 -6.5301277766042984e+000
    7.1681989984528639e+002 -7.7427551638444969e+000
    5.3391263549855494e+003 -3.7067329306520893e+000
    4.2175684171826415e+003 -4.0957304505448908e+000
    7.2176870481838205e+003 -4.0035612361258517e+000
    4.4195930887318927e+003 -4.0001089586454723e+000
    2.3197099289760015e+004 -1.0311911461737386e+000
    3.5518475259493935e+003 -4.2619198067694226e+000
    6.9879096257973360e+003 -3.5997312522360936e+000
    8.3020452632960507e+002 -9.9701719289279342e+000
    7.6063981127903198e+003 -4.0177877886963476e+000
    4.4539303505628923e+003 -3.3760646271019477e+000
    6.9455705292861985e+003 -3.4167327573507600e+000
    3.7415396681617830e+002 -7.3428532395682700e+000
    6.0136228091834091e+003 -3.1430495881719072e+000
    1.2269372400706884e+002 -4.5619632445324640e+000
    6.3814949520378127e+002 -7.3199734458172996e+000
    5.0159230750966714e+002 -3.7682790603293532e+000
    4.2498605033441418e+003 -4.1937676661964742e+000
    3.5102642391733229e+003 -2.5483258039511019e+000
    4.8310645037415497e+003 -4.3867376130850886e+000
    5.4210423532957057e+003 -3.6661470009044796e+000
    1.5813336066601036e+004 -1.1061241128518657e+000
    4.7917127514725698e+003 -3.8372795783483351e+000
    3.7428041001012134e+003 -3.7337755336624934e+000
    3.1954612274947362e+003 -3.0101913945783201e+000
    1.2726443888710353e+004 -1.7512806477690519e+000
    1.5619656293193024e+004 -1.2814798458617314e+000
    1.8475648408572786e+004 -1.6667687787829484e+000
    4.2732522137592614e+003 -4.1288541077290484e+000
    1.3034816196608350e+004 -1.5338185933154269e+000
    4.1081531839034024e+003 -4.6461080354935378e+000
    3.6271193226630758e+003 -5.7358037642873452e+000
    7.3886169582620300e+002 -1.0320801737065333e+001
    6.5896667133980691e+003 -4.0666053135968729e+000
    4.7480607184305791e+003 -3.8349136667426924e+000
    6.3354100364739888e+003 -3.3650744669192219e+000
    5.2251693902401994e+003 -4.7189767452843796e+000
    2.6725846644274803e+004 -1.1181704925033795e+000
    4.3364195163481972e+003 -3.5520489267704733e+000
    6.8525377777750182e+003 -3.0349903840948671e+000
    2.6329878154350223e+002 -6.6882837305177203e+000
    6.9911565161557382e+003 -3.6608178686412316e+000
    5.3954721654120294e+003 -4.5553362785427840e+000
    6.5258838716754162e+003 -3.4470476146134237e+000
    2.3309910349043790e+002 -6.4355247869499843e+000
    7.3567447320446381e+003 -2.9432943075448144e+000
    5.7184210900784831e+002 -8.3283439068362171e+000
    1.2779177820574891e+003 -6.4572988617397744e+000
    8.6711012504954056e+002 -6.2317039101373854e+000
    3.9315467835327431e+003 -3.9426241804848772e+000
    4.8752103692777200e+003 -3.2396442580921283e+000
    4.6293281990229734e+003 -4.0719107512738022e+000
    6.5638027386023414e+003 -2.7933997550978678e+000
    2.3721113181347893e+004 -1.2948460091173630e+000
    7.2493898353063087e+003 -3.3671473205142131e+000
    5.2180050029464464e+003 -2.5549528457494817e+000
    6.0294617312096652e+003 -3.9219152444397332e+000
    2.1362426627232206e+004 -1.5780676208244957e+000
    2.3674192720927971e+004 -1.4315729801881529e+000
    1.9134583340936948e+004 -1.3572046202253396e+000
    8.2856189179014636e+003 -3.7401172664825308e+000
    1.7071539593227171e+004 -9.0955063161755878e-001
    6.9793582903478455e+003 -3.1048469965720789e+000
    5.5887312982200929e+003 -2.6286974827541112e+000
    3.6665770199595809e+003 -3.4396106761896839e+000
    2.5092061887969528e+004 -9.0218503908366898e-001
    2.7166865951405489e+004 -1.6782935664131797e+000
    3.1813357344096799e+004 -1.0918560591851101e+000
    2.4941518193996384e+004 -1.2717860870143307e+000
    8.4982776016770877e+004 -4.4444444444444448e-001
    2.6284263979735475e+004 -1.1856090137108366e+000
    4.4942310877043623e+004 -9.4016041019207652e-001
    4.9041502720164053e+003 -4.3921878967934873e+000
    3.1270301548460186e+004 -1.1447658826302727e+000
    2.1853828852597035e+004 -1.0714832403354839e+000
    3.6948601904344912e+004 -9.9032660831255825e-001
    6.7528248224180870e+003 -3.1144336505681971e+000
    4.1533020797075798e+004 -7.3308420971467481e-001
    7.9413265175694205e+003 -3.3355139886303040e+000
    9.4787173983221583e+003 -2.0603348392490424e+000
    8.6425709742862819e+002 -1.0096625020910551e+001
    3.1214295269329823e+003 -4.1841753670034709e+000
    4.6165662037771281e+003 -3.7649238923501138e+000
    5.1662358112583925e+003 -4.4884436950297317e+000
    7.1950563766930909e+003 -3.8122713191245285e+000
    2.1289888466588684e+004 -1.0925457310035773e+000
    6.0086334919515757e+003 -3.5843067314230632e+000
    6.0485682595928192e+003 -3.5903353578288257e+000
    4.4123246941079778e+003 -4.7982938680961933e+000
    1.5375515798510833e+004 -1.9952016089851858e+000
    2.5153047275517027e+004 -1.6936529120696835e+000
    2.1445188465440842e+004 -1.6542778545715304e+000
    5.2330210471117334e+003 -3.9717442932676303e+000
    1.7134073893579047e+004 -1.7137546561985777e+000
    5.3003483654566635e+003 -4.5633813678912540e+000
    4.0880057441708336e+003 -3.4421036141833183e+000
    3.0381793616045343e+002 -7.7933176864320881e+000
    7.1171084324134745e+003 -3.8128447471205731e+000
    3.7834244707435100e+003 -3.7458546410765021e+000
    6.0879116153517434e+003 -2.8157323025829935e+000
    5.8268724342370351e+003 -2.9559277387348444e+000
    2.7350800793899642e+004 -8.5823824782258207e-001
    4.6609062290425900e+003 -2.6767555563951162e+000
    8.6288994962246798e+003 -2.5835535639016438e+000
    1.1347081986419113e+002 -4.5761373913194587e+000
    7.4294006924055611e+003 -3.4094747263449836e+000
    4.5230485052796776e+003 -4.7856454546793543e+000
    7.2654806425846264e+003 -3.2297569699316746e+000
    5.9869418433969383e+002 -7.2990914791245487e+000
    9.2412793765941642e+003 -2.2836023486709758e+000
    1.1633893729326576e+003 -7.5559580081138922e+000
    1.9698373399310567e+003 -4.4304567840221631e+000
    5.6139670626146005e+002 -4.1467365317236409e+000
    6.1213595172349699e+002 -8.5334238312987001e+000
    2.9231921742542809e+003 -2.7336430524742985e+000
    2.4343172926511710e+002 -6.2443343871790962e+000
    5.3563320060017904e+003 -3.5891196192820862e+000
    4.1535089884894987e+003 -3.6696764927532768e+000
    4.2188835837819479e+003 -4.1645785900853172e+000
    2.2240098348230336e+002 -6.0467525571397172e+000
    3.8626133239486803e+003 -2.7346784588388551e+000
    4.7606908083523504e+003 -4.1641145382528544e+000
    1.6038592627929678e+004 -1.2162443262311362e+000
    4.6303035965841264e+003 -4.0833630485408818e+000
    5.7991292861255033e+003 -4.5720047957967500e+000
    3.8424478765569738e+003 -3.2177603190756412e+000
    4.2255662803892283e+003 -4.7512725216636245e+000
    6.3341889562951860e+002 -9.2104521239691941e+000
    4.5135776131722605e+003 -4.6103884368741994e+000
    5.9802582197335023e+003 -3.5361044864232833e+000
    1.3239231788940890e+004 -1.7309692896316624e+000
    7.5789474719751661e+003 -4.1345839983407311e+000
    1.9710470307298994e+004 -1.4753635684040509e+000
    2.8931681157692987e+004 -1.0969788270292442e+000
    1.6058907509572091e+004 -1.9893985291948779e+000
    6.2622565899699648e+003 -2.8308680331945930e+000
    6.3180134690153554e+003 -5.4891121533935161e+000
    6.4798760547574111e+003 -3.7489232559524717e+000
    1.6432612162976551e+004 -1.5200561350627317e+000
    5.4294530009181917e+003 -3.1323290160746682e+000
    4.5099472418506730e+003 -4.4828526225024063e+000
    6.4318691537953837e+003 -3.0736269759576356e+000
    3.3205206611232920e+003 -5.2205689902519579e+000
    1.1095739559357610e+003 -5.6538084123782273e+000
    4.1837698141853198e+003 -3.1343607268953826e+000
    4.3766120092579440e+003 -3.7795268973892253e+000
    1.6475446397159059e+004 -1.4216991478601495e+000
    4.4932326184046824e+003 -4.4633010650238401e+000
    1.8177777734092033e+004 -1.2536890420191675e+000
    2.2089529769439843e+004 -1.3213082492444475e+000
    1.5503703019148263e+004 -1.3125074901344231e+000
    3.8286426216632153e+003 -3.9683287936779146e+000
    1.4949260438976738e+004 -1.2606832996158013e+000
    1.9456917919603096e+004 -1.6153786891422888e+000
    5.5542525876865962e+004 -3.4494179001250869e-001
    1.6109141034761293e+004 -1.5111962465534403e+000
    2.2206765689455649e+004 -1.7057671963474035e+000
    1.8689532139736351e+004 -1.4844695343715828e+000
    1.7366029829099763e+004 -1.6631627471463204e+000
    3.9603898529437597e+003 -3.7100580679581969e+000
    4.8243925214291112e+003 -4.0637186848992011e+000
    6.9986891858948065e+003 -3.7402535991135637e+000
    1.5759534756622706e+004 -1.5608192281464754e+000
    5.7728466598933628e+003 -3.3549678538744412e+000
    1.9115898314762038e+004 -1.3621275941438800e+000
    2.1904182074586861e+004 -9.6655683221610367e-001
    1.5807424696739938e+004 -1.4570579192034558e+000
    5.9439846665214827e+003 -2.7530501104779366e+000
    4.8274546207738040e+003 -4.7842512355774005e+000
    5.6978313886495616e+003 -3.3467575772392406e+000
    1.8084802678877717e+004 -1.5664849770907392e+000
    3.8780177836227517e+003 -2.5934746605493610e+000
    4.2222894541329078e+003 -4.4011796607265650e+000
    5.5213031563953491e+003 -2.7666252358803844e+000
    5.5286371801430050e+003 -5.0165382811256283e+000
    1.1403492591827408e+003 -4.5060378549322193e+000
    8.2286327675433824e+002 -9.3898044103963834e+000
    3.0582982003257462e+002 -7.6421967652553597e+000
    3.2218961803413549e+003 -3.5016261090745173e+000
    1.4099741818976455e+002 -5.6430214203830138e+000
    7.0800013929185725e+003 -3.8137931663637685e+000
    5.4421344284823244e+003 -3.0275784535533128e+000
    4.6689977221609161e+003 -3.4994057279266140e+000
    5.2750540894346307e+002 -6.5299782462441511e+000
    4.3035939269065639e+003 -3.4871802413780393e+000
    4.4889840049166487e+003 -4.5441833160713916e+000
    1.7802745540051819e+004 -1.2511000171362137e+000
    3.6055439974185501e+003 -4.1448588353452598e+000
    6.4771161729600317e+003 -3.9378685614276789e+000
    6.0187641988018067e+003 -3.5155919977688854e+000
    5.0812136766715739e+003 -4.4145761679043636e+000
    1.1086427634179620e+003 -7.3837525665425545e+000
    3.5745982881073437e+003 -4.6537615231681810e+000
    5.7438588698334752e+003 -3.2874298215027977e+000
    1.2562308436911455e+004 -1.7245878749404171e+000
    5.4434607945837806e+003 -2.7240612964728266e+000
    2.4659592006816933e+004 -1.4427979069903725e+000
    3.1809917876294534e+004 -8.4219789675425893e-001
    1.3682236661959712e+004 -1.4445288043298623e+000
    6.8762786471116024e+003 -1.9509214250514715e+000
    4.6437898510728592e+003 -3.9373961403760389e+000
    7.8221734503738444e+003 -3.6536442325607021e+000
    1.9490054902884036e+004 -1.3441944674167374e+000
    6.5058448501222492e+003 -3.0707006433851509e+000
    6.0026857029480398e+003 -3.4296801398263796e+000
    7.7305395153508598e+003 -2.6051639238945006e+000
    4.7495253236381568e+003 -4.1015650313343555e+000
    1.8077452073774066e+003 -4.2230631846364020e+000
    2.9487977908862524e+002 -6.9243321186078530e+000
    1.5341492013485831e+002 -5.7895280232115747e+000
    4.3453332960245862e+003 -5.3319238578410193e+000
    5.8754319447751061e+002 -1.0272182735105476e+001
    7.0617206439566180e+003 -3.7831718764206479e+000
    5.8852297192784017e+003 -2.9316692526057948e+000
    5.0770139001440502e+003 -4.2516162592470641e+000
    1.0464306830688670e+003 -7.0190051724911990e+000
    3.7888983379334350e+003 -4.8968431436834523e+000
    3.3286629366159427e+003 -5.2823312622674496e+000
    1.4857662400013431e+004 -1.6997502591252118e+000
    4.5214971141887518e+003 -4.5578833641102046e+000
    5.5172616399054959e+003 -4.8475179526024075e+000
    4.6251258625330365e+003 -4.4068543157056776e+000
    2.8009465154366608e+003 -4.6774299927966680e+000
    1.0404968289582955e+003 -7.8913531688610661e+000
    1.8081779305575577e+002 -6.8443357106351375e+000
    6.4944543354599796e+002 -7.1850439063600904e+000
    3.1706773025687153e+003 -4.9777285181421247e+000
    1.0587478164907716e+003 -5.5979658373425618e+000
    6.4853478577335336e+003 -3.1818562375957820e+000
    1.1220303659939736e+004 -2.2115079680016767e+000
    4.3040283510823101e+003 -4.0094662478434193e+000
    1.6742398688861113e+003 -3.7048695808514265e+000
    5.9154156789498188e+002 -1.0369543564355777e+001
    1.2073368114293294e+003 -6.3165193632834669e+000
    4.4184221533259051e+003 -4.3167778856257533e+000
    1.2422754014367895e+003 -5.1767904279737325e+000
    1.1376944335543762e+003 -7.7884644276765860e+000
    1.8755082762119118e+003 -4.3494862738263373e+000
    9.4355091172121990e+002 -7.1668886855941514e+000
    3.4293990043628446e+002 -5.0820317377132902e+000</input_scale>
  <output_scale>
    1.0526315789473684e+000 0.</output_scale>
  <inv_output_scale>
    9.4999999999999996e-001 0.</inv_output_scale>
  <weights>
    <_>
      -4.2384574460703345e-003 7.6041526193655910e-004
      -6.2287847738801735e-004 1.0551873653578209e-002
      1.4827874453369614e-002 -2.1404707991439668e-002
      8.2752355342065251e-003 3.2791947416761945e-003
      2.1302029954115183e-003 4.3090751250039012e-003
      4.0753336775332253e-003 -1.3046109067440310e-002
      9.2322463086615611e-003 1.2271625517817139e-002
      -7.1642698903623793e-003 1.6517133128011226e-002
      1.3567496318713257e-002 -2.9135796568455097e-002
      1.5806093176499919e-002 2.4959337379252298e-002
      -1.2317004951866535e-002 1.4951859879419443e-002
      3.2386754152914178e-002 -3.9130091424040989e-002
      1.3145254643237882e-002 1.8348162193084380e-002
      -9.7424080881786668e-003 1.7022752055122773e-002
      2.7032044040490189e-002 -4.4825449810404323e-002
      -3.5546814156544655e-002 -2.5587165022556344e-002
      1.5936476204906694e-002 -2.3454244956963511e-002
      -3.8184780409397795e-002 4.5221894952486054e-002
      -3.5114832217461906e-003 -8.8811051368934656e-003
      1.9236254169072849e-003 -8.8327387195442572e-003
      -1.8945576038921275e-003 1.4340300509585810e-002
      -2.2900190652431845e-002 -1.8723476420131155e-002
      4.1568831762705408e-003 -1.6567803518801050e-002
      -2.5651312747997985e-002 3.9621823524957508e-002
      9.6098253178639030e-004 -3.7046646224909029e-003
      6.4453935999462158e-003 1.2190922941681295e-002
      6.7327506646731716e-003 -2.5056819488047249e-002
      5.7679211194316240e-003 -2.7684402360711978e-003
      3.3944362497521148e-005 -2.4523986165773237e-003
      2.4567510177665539e-003 -4.6329674682435420e-003
      -4.6854744241568288e-003 -1.7116806537090509e-002
      1.5550098250958693e-002 -1.3430616753635704e-002
      -3.3526835402730650e-003 1.7874297114056803e-003
      -1.3829583827292206e-003 -7.7847907656670842e-003
      -2.4663005678187146e-003 -5.4218189914805436e-003
      -9.4799007050311562e-003 1.3851786042734060e-003
      -7.6220088615058766e-003 -1.7855660431594297e-003
      -3.2930216992214617e-003 -4.2273330424998801e-003
      -5.1423183534598138e-004 -1.5419422627084824e-004
      -1.2203326072892505e-002 -6.5695718555503413e-003
      2.0825401323185367e-003 -4.2809352781007694e-003
      -2.9825773548171376e-003 1.5249481450566919e-002
      2.9058643641257115e-003 9.1916682496948291e-003
      -2.3436308121322631e-003 9.8471410809631531e-003
      8.1490630438913487e-003 -1.3051786526510070e-003
      -4.3624331868961370e-002 -2.8582829280486773e-002
      1.8283639719661002e-002 -3.9751633116402237e-002
      -4.2390371357720676e-002 7.2357557617707388e-002
      -5.2115513124498542e-003 -7.4410055078298811e-003
      -4.6165877658913427e-003 -1.0345044232605467e-003
      -5.9626575188141883e-003 -9.4246080435402436e-003
      2.8729937048158870e-003 5.0704273875432863e-003
      -5.8364530964985647e-004 -2.7115082678566878e-003
      5.5894159040092628e-003 -9.7594840819642970e-003
      2.0107042535985307e-002 1.6046464090120442e-002
      -5.0963704763251497e-003 2.1787067396556389e-002
      3.2959054472773600e-002 -3.7199284033723863e-002
      -2.8271271977240074e-002 -1.6371934815821172e-002
      1.9587491317977792e-002 -2.4083439106783424e-002
      -2.5450808490301177e-002 3.7057901359923137e-002
      -7.1655211139619855e-004 1.2448696049504751e-003
      6.6247637762103942e-003 -3.5712579351575703e-003
      -6.4345129240909115e-004 7.7142820886615575e-003
      5.1223069911241110e-004 2.6551240521525883e-003
      -5.7855780097686420e-003 8.6264626433734150e-003
      2.0988122388993146e-003 -3.3222958681229410e-003
      1.2752477925882653e-002 1.2454002621794672e-002
      -2.4671813261210804e-003 1.0987300988707056e-002
      1.1721845811794512e-002 -2.7867763039983378e-002
      -1.9636748186069963e-003 -1.1989455783221155e-003
      -1.0531226781556269e-002 7.5458022865107239e-003
      4.9029528576399967e-003 -3.5130878130590253e-003
      2.1229343471514402e-002 1.1095816199548015e-002
      -6.4662387147947659e-003 2.0213467453835388e-002
      2.7490832037027353e-002 -3.6598704118198933e-002
      4.4166985913718267e-003 3.5540102489402940e-003
      -3.3490707994867299e-003 1.0248495768608468e-002
      6.4006900839288280e-003 -1.4828331978951760e-002
      1.3679232119340381e-002 1.1057288480148718e-002
      -1.5652745381843369e-002 1.3028901330685317e-002
      2.8815718559347031e-002 -3.5772194174500727e-002
      -1.7252539551096367e-002 -1.3880527107374811e-002
      6.6197486375615825e-003 -9.6032002862216689e-003
      -7.4259250133425639e-003 1.9238372021569455e-002
      -2.4828270487317842e-002 -2.2921213071990999e-002
      1.5018894399076339e-002 -2.4578916204864611e-002
      -3.2449459500868111e-002 5.4075640532084961e-002
      -2.3906511407878573e-002 -1.3618355623108152e-002
      4.4021168222164939e-003 -1.5147174995007938e-002
      -1.7086804977629894e-002 2.5807143682922005e-002
      2.4348724310752724e-002 2.0721943924802474e-002
      -1.8876554501665883e-002 2.3298168696211586e-002
      3.7119825139068238e-002 -4.9584455426221655e-002
      7.3935464887095971e-003 8.2824653104444038e-003
      -5.5186904158412925e-003 7.7728104934333573e-003
      1.4270913223948735e-003 7.8909629209745029e-003
      6.0202284085288937e-003 4.4657862712244468e-003
      -2.1342453658363750e-003 6.5086530302534921e-003
      1.5100414395391252e-002 -2.0741817505176119e-002
      1.2649976210048913e-002 6.9769842244537398e-003
      -1.0494436944237902e-002 1.1887758569745719e-002
      1.2466608405463942e-002 -1.2505605035333883e-002
      1.2952317240244217e-002 1.1270800900118833e-002
      -7.2596876963462462e-003 8.0666877217085015e-003
      1.6800035069687722e-002 -3.3819197089181047e-002
      7.3619240564144041e-003 1.0909441929737392e-002
      -8.1799160879290258e-003 1.8452318759781181e-002
      1.4799869464947279e-002 -2.3349488533373208e-002
      -1.9614519569096894e-003 -1.6201860750856400e-003
      7.7310544432669971e-003 -2.8806952905407889e-003
      9.2127124676145760e-004 7.0149000189970872e-004
      -1.0130429521176262e-002 -1.5248225105395329e-002
      9.4311099392272047e-003 -1.7035946640609229e-002
      -2.4786358822195469e-002 2.2662580516950893e-002
      2.6273778351942720e-003 4.1194752913511325e-003
      -1.8094790814191023e-003 2.1151114534784686e-003
      7.1625442219739061e-003 -6.4910790774425050e-003
      -2.7151784708569032e-002 -2.7464380290481705e-002
      1.8317118121353466e-002 -2.3723091623197121e-002
      -4.4006217331862892e-002 4.6880538969555484e-002
      3.9382791095248209e-003 9.5676577527837574e-003
      -9.8747673901576714e-003 1.2335991872143570e-002
      9.0320147149272473e-003 -2.7415133610327238e-002
      -1.4184151042868265e-002 -1.4207397128140595e-002
      7.1079192427597714e-003 -1.2680950987823087e-002
      -9.2530760874328377e-003 1.8664712623758177e-002
      -2.3227490383159879e-002 -2.4569411784277115e-002
      1.8483323291907307e-002 -2.7229517417469821e-002
      -2.8588740146104956e-002 2.9909361300506185e-002
      -9.4172571466380802e-003 -1.2525299353880708e-002
      1.5514626377983367e-002 -1.2878937843616180e-002
      -1.9102870654473511e-002 2.1468106746035623e-002
      -2.9849673978789851e-002 -1.9668130428844122e-002
      1.2833026820215395e-002 -2.6410308789468637e-002
      -1.8796022462947214e-002 2.9012547880848453e-002
      1.3812122528695471e-002 9.1808551956073653e-003
      -1.1784431895437283e-002 1.2115410099728108e-002
      5.1999033186540828e-003 -1.0824811822829900e-002
      -3.8831893129117966e-002 -2.3878148202326789e-002
      2.1166774323108185e-002 -2.9970199309979583e-002
      -3.3733136780011330e-002 5.1744151809829678e-002
      -2.9743933444903559e-002 -2.3239533672078420e-002
      1.2769883742448222e-002 -2.9903080605542500e-002
      -3.5302001922198969e-002 5.0592938234919234e-002
      1.3417922112880114e-002 3.9173680463078725e-003
      -4.2266644045970813e-003 2.3459649915188482e-003
      1.4947585887380719e-002 -1.6079736525243919e-002
      -1.6623088921152537e-002 -1.1946748669868563e-002
      1.2923308419212062e-002 -2.6242350854287864e-002
      -2.5112458987794437e-002 2.9297448125715529e-002
      2.8369108973198855e-002 2.8520278537945136e-002
      -1.1314532464763157e-002 3.2190095336403587e-002
      3.3023731444296787e-002 -5.8035918479415360e-002
      4.2332780327605492e-002 2.9782872125430244e-002
      -1.7239729491092735e-002 2.9643966876688077e-002
      4.3725183300537859e-002 -6.7473490473639847e-002
      9.2570676106230789e-003 1.2103582807436784e-002
      1.0246687232013036e-003 1.2327592270531266e-002
      5.0906929011929449e-003 -2.0914606803022956e-002
      -5.4597560617816706e-003 -3.1006764464026643e-004
      2.1427208691352398e-003 -2.4856876141823303e-003
      -8.4131633211133958e-003 2.2051845496636562e-002
      3.8529186084171323e-002 4.0449785485686639e-002
      -3.2012161785177067e-002 3.6065498664027210e-002
      5.5731628708751570e-002 -7.3979777854906267e-002
      1.0123614506984799e-003 9.9146165565664329e-003
      1.4003198207792038e-003 6.9602429483138191e-003
      7.5609081165024239e-003 -1.9612454478860749e-003
      -1.6449251348107179e-003 2.4192854417969000e-003
      -4.7587996586055331e-003 -1.7274150907786794e-003
      2.3817385081017655e-003 -3.7792484700839473e-003
      1.0685503853618314e-002 6.0318092087280496e-003
      -3.9677013707014848e-003 9.9442792087770255e-003
      1.8840770339282331e-002 -2.6475597937177121e-002
      -3.3121013269995399e-002 -2.3727340460470221e-002
      2.3187258443775571e-002 -3.1455790049351298e-002
      -4.5773532583738043e-002 6.3240118481374188e-002
      1.9549275262646989e-002 1.8723134137377664e-002
      -3.6261286852159922e-003 1.7973656417511304e-002
      2.2314561141556177e-002 -2.9596001047626462e-002
      -2.5446532842714847e-002 -2.9842061464327316e-002
      1.9167670442480047e-002 -2.6604253722905240e-002
      -3.3448786300570105e-002 4.7775051965203576e-002
      -1.1497929780375971e-002 -2.5813844091705974e-004
      1.0804703263660877e-002 -1.0649221783968568e-002
      -7.7282395205998736e-003 8.8292826172534835e-003
      -7.9830376673452295e-003 -1.6380017793372710e-003
      8.6083207296097088e-004 -1.0983686585967595e-002
      -6.7710161697873248e-004 1.9898288622634659e-002
      -6.4771872473737106e-003 -3.4165936399092756e-003
      5.6360608870804282e-005 -1.1623982327093930e-002
      -8.0802085829927185e-003 1.0205377064269274e-002
      -3.8260256695493731e-002 -2.7876160175891090e-002
      2.2914172275832499e-002 -3.4551930815407174e-002
      -3.1242852477584151e-002 5.1146171193403797e-002
      -2.1992022089343463e-002 -9.8483413092116251e-003
      1.6252283919441012e-002 -1.1988209313045620e-002
      -1.6904420130704687e-002 3.5452529591633974e-002
      1.4174897549735766e-002 6.5168547926658712e-003
      7.1906242840712089e-004 4.0694130400574504e-003
      1.7835195747328881e-002 -1.7232155163985206e-002
      -2.0285139823250066e-002 -1.9131697837646976e-002
      3.6473546147585481e-003 -1.7730620102892405e-002
      -1.1662450813966057e-002 1.8085383479179575e-002
      -9.1512623950371925e-003 -1.6616472914158215e-002
      1.4747199415347883e-003 -1.3752794886641100e-002
      -1.8819327115446691e-002 1.8913918257942506e-002
      -3.0378823214221980e-002 -1.9469601629430098e-002
      1.4401433992171381e-002 -3.0639686183829552e-002
      -3.1774886717965634e-002 3.8073440702148111e-002
      -1.2396386922621514e-002 -5.0253720674503961e-003
      6.3273247623340800e-003 -1.1651187506975448e-002
      -1.5887120079359791e-002 9.7220714102346402e-003
      -2.3487392109434829e-002 -1.8820274637802257e-002
      1.6001354982293242e-002 -1.8221558279434710e-002
      -1.6954030287804255e-002 2.9026095295615239e-002
      -6.6996316514095966e-003 -9.6979733822983513e-003
      1.2503044721306979e-002 -1.3604494578759792e-002
      -5.6500089093454841e-003 2.0224814270937582e-002
      2.3902113042822144e-002 1.7974771395377780e-002
      -1.4850399259120083e-002 3.0262328487902491e-002
      3.2813611611822016e-002 -4.1502613596399472e-002
      -9.1594363889212372e-003 -1.0624815445170337e-002
      1.1583316247262717e-002 -7.7951714119922702e-003
      -1.1035946591885342e-002 2.2940801354439100e-003
      3.0512316847804723e-002 2.2960660311185599e-002
      -2.3971879810840990e-002 2.6263698111943630e-002
      3.4619636661070853e-002 -4.3393174469373443e-002
      -3.2676775365137092e-002 -2.6185070585265816e-002
      2.7329944693303902e-002 -3.0347734830892866e-002
      -3.1417585689946403e-002 4.7340856811165392e-002
      1.3096648205634801e-003 8.1485773381859052e-003
      -3.3743945314815360e-003 1.1126014997896795e-002
      6.6218435928962708e-003 -4.9919974952748166e-003
      -2.8889104686924106e-003 -4.5262695360584540e-003
      5.5863278177968999e-003 -8.5966995974298792e-003
      8.2098216385484662e-004 1.2912519815576480e-002
      6.9452270677343216e-003 1.0759337467257622e-002
      -8.2873523540602251e-003 8.5574919326583329e-003
      2.1312651780535630e-003 -4.7787145980912890e-003
      -9.1011030447004735e-003 2.2169225427405609e-003
      7.0228919855574575e-003 1.1172193207758074e-003
      -1.1218674568754458e-002 -1.1284753352329472e-003
      6.0718210941445652e-003 1.4700523941695950e-002
      -1.1148412973072916e-002 1.1328315968578683e-002
      9.3803894887139229e-003 -1.8183047208149252e-002
      9.2253993555029990e-003 2.2233581586379681e-003
      -1.8492086120860814e-003 5.5919460850610064e-003
      1.2028128545222574e-002 -1.4069363772077098e-002
      4.2975048099117199e-003 5.5926070618351189e-003
      -5.9374125316333307e-003 5.3828398941243541e-004
      1.2348610397142820e-002 -1.5188465680258480e-002
      -1.2016731032497036e-002 -7.1567632669927174e-004
      1.5912287583337062e-003 -2.1249728135753591e-003
      -6.0708271332689679e-003 1.6023546160286339e-002
      -3.0915844248801366e-002 -1.5185312616701457e-002
      1.7660721886762171e-002 -2.2929499833511634e-002
      -2.6201819170995257e-002 4.8613319084919449e-002
      -1.5936065203120534e-002 -1.6212876371376812e-002
      1.1708204221636554e-002 -2.6647429967189915e-002
      -3.1933799566233753e-002 2.7810974784459347e-002
      -2.3683856730110763e-002 -1.8789771805392489e-002
      7.9700063846493818e-003 -2.3420824016745612e-002
      -2.1701964401335445e-002 4.2980945014524076e-002
      1.6217750456168890e-002 1.6152492838358661e-002
      -6.4020539035331723e-003 1.2064858891195832e-002
      2.0216749693918096e-002 -3.6305654944281937e-002
      -1.5233718618954230e-003 8.6008077320087143e-003
      4.3205178421885987e-003 9.6189258391831366e-004
      -2.7365177723913678e-003 -1.4328367606197500e-003
      7.3447348902608281e-003 3.8695333130315634e-003
      -5.5978412496628547e-003 1.5935534333672261e-002
      1.6052374564320047e-002 -2.5170240473980084e-002
      1.4058843093676100e-002 1.1204910387132599e-002
      -2.4666383022486373e-003 1.7635352129619489e-002
      1.0864089824222796e-002 -1.8371233846839759e-002
      -4.0415174292668776e-002 -3.4529019104211633e-002
      2.2528153658337893e-002 -3.0396032000631120e-002
      -4.4637235593968212e-002 5.8510629702741908e-002
      -5.2728813290513921e-003 -8.9267059727427024e-003
      1.4275799593992814e-003 -4.3168785237899503e-003
      2.6852050910267651e-003 4.2148818851941577e-003
      -2.7839457865818794e-003 -3.9424469163689666e-004
      -6.2651313634480253e-003 -5.3263438338859003e-003
      -1.0091571301258377e-003 1.6228026975789449e-003
      1.9180352410743400e-003 1.0886336426090227e-002
      3.6828145351475252e-003 2.6846671387553297e-003
      4.4283172204670675e-003 -4.5756717436172059e-003
      -4.4903649226236422e-002 -2.9293658675589848e-002
      1.9838138307877399e-002 -3.6866111376391529e-002
      -3.7820994660744921e-002 5.5495339337334741e-002
      -3.8946581669736325e-003 1.6480579859733504e-003
      -3.6806948151542865e-003 -9.7361271317845787e-003
      -3.6410672743161007e-003 1.4514369118018183e-002
      3.6705958504507773e-002 3.1947220308158275e-002
      -1.2114241552695779e-002 2.7648477355331446e-002
      4.4431177186290895e-002 -5.8182160900382043e-002
      3.6442758182525320e-002 2.2126318906432234e-002
      -1.2457699998967904e-002 3.8960420702978941e-002
      4.7171397802420925e-002 -5.5958337021058735e-002
      -1.3784739353987163e-002 -1.8504549362472519e-002
      1.3139765355628837e-002 -2.3081069458470486e-002
      -2.4108212448435258e-002 3.6818738487034729e-002
      -1.6216030251686168e-002 -1.9811819956328785e-002
      5.9135717324930639e-003 -2.6633958602813024e-002
      -3.0840608041489463e-002 4.2050507389406092e-002
      4.3148774453497879e-002 2.8958179692337618e-002
      -2.1256151092936423e-002 3.7646067659167344e-002
      5.0962264765965916e-002 -6.5869398949218588e-002
      -2.0263304209967203e-002 -1.4301532844698140e-002
      1.3411490135661798e-002 -2.1496036288467524e-002
      -2.2017316968810770e-002 3.4155210655839756e-002
      -3.6048953321041993e-002 -2.4123881785896278e-002
      2.2756669421305133e-002 -3.4676998389934162e-002
      -2.9858336787758708e-002 4.6935369995760604e-002
      1.0516733241340705e-002 1.0730261757516044e-002
      -7.6456045302855059e-003 2.3895286824440587e-002
      2.0538397366822846e-002 -3.0880350843712635e-002
      -2.5528988336535646e-003 -5.3104614474065873e-003
      1.6188679351001119e-003 -5.0856618504208136e-003
      1.2188533186238289e-003 -1.0464906843236968e-002
      3.2290746188935286e-002 2.9255129495984505e-002
      -2.5272839877378207e-002 2.2559940088917031e-002
      3.2548640029955320e-002 -4.2827385658909950e-002
      2.4064453155247280e-002 1.1383112120273637e-002
      -1.7911122398429270e-002 2.6166842127705689e-002
      2.6773831827241933e-002 -3.7094991402462883e-002
      2.5248288608281488e-002 1.3055255389418274e-002
      -1.4347122059798968e-002 2.2470648464638036e-002
      2.3128151284459299e-002 -2.9128318623441680e-002
      3.5175711258250635e-002 2.4206714653005654e-002
      -2.4735188921973943e-002 2.8391617773658420e-002
      2.5194811958361193e-002 -3.5225607545461994e-002
      -1.4891691974197865e-002 -1.3603140007606818e-002
      9.2571954059006874e-003 -1.3700698408303003e-002
      -2.4959035157369646e-002 2.9811540026897815e-002
      3.3865247617368671e-002 2.5020086693172364e-002
      -2.9523874061342298e-002 3.0584337862495630e-002
      3.3552735322020612e-002 -4.7535993805965002e-002
      -3.5124671242748814e-004 -3.3879472329031990e-003
      1.1123657810927633e-003 1.4651562322324696e-003
      -1.8079370051577702e-003 6.8878928179155656e-003
      2.7323352097383129e-003 6.4742177183199712e-003
      5.1012441628590982e-003 -5.3379228433610634e-003
      6.1047550125739158e-003 -2.6797807830096707e-003
      -2.9881149113979281e-003 -1.4624199128642169e-003
      -4.6960316125194498e-004 5.8749791361415709e-003
      -7.1417020504617162e-003 -1.6804941533990383e-003
      8.4517228622535308e-003 1.0083596405009904e-002
      3.6129823360174125e-003 9.9573814353495476e-003
      3.9434601550137650e-003 -1.8824469404728800e-003
      1.2865095850439949e-003 -4.8612703729493232e-005
      2.6861736291228064e-003 -8.3258919110758851e-003
      -8.7201721525231087e-003 4.1409580985305068e-003
      4.3960095693094279e-003 5.9594098008875192e-003
      -2.0802564748853320e-003 4.4898400583433112e-003
      5.5960698494981718e-003 -1.8546734286025164e-002
      -2.6155858973658609e-002 -2.4775569622659973e-002
      1.7602808676098543e-002 -3.1568808943230990e-002
      -4.1630410668836514e-002 5.2463551483352418e-002
      1.6624486740181570e-002 1.3439279031613105e-002
      -2.4033701407911554e-003 7.0652347009266163e-003
      1.5331908322840673e-002 -1.5466521119562138e-002
      -3.5019675319951332e-003 -6.5705851731356069e-003
      4.9320922019032275e-003 2.1261089105967818e-003
      -4.1684780905207955e-003 5.1230141861820077e-003
      -5.4394660390029860e-002 -5.1431470188265715e-002
      3.9025761229367267e-002 -5.8546076246068460e-002
      -6.7299508777975706e-002 1.0404032897835223e-001
      3.2143652060772661e-004 -1.4149625106329032e-003
      7.6723470674039569e-003 -1.1764251538256169e-002
      -1.7322053189459746e-003 1.7993611947742495e-002
      -6.0233744927523369e-003 3.1073244786772388e-003
      1.1743237599627756e-003 -3.9199322705730684e-003
      -2.0934115164981316e-004 3.8627706149331710e-003
      8.9179020786632982e-003 1.6081819452960354e-002
      -1.6675132475738950e-003 1.1046797527836324e-002
      1.5699396541081483e-002 -1.2015265305689684e-002
      1.6970648284515909e-002 8.3725046347000488e-003
      -1.9714946978998085e-002 1.1610042028015674e-002
      1.5718351240088024e-002 -1.8159495970632798e-002
      -2.8210740658283693e-002 -2.6717133421639803e-002
      2.2171060922369142e-002 -3.2618549834165116e-002
      -2.7402003880798623e-002 4.7275581428704305e-002
      -8.9969111346755240e-003 -1.3190250939304655e-002
      5.3664312724825422e-003 -1.0289912634661717e-002
      -5.4273444980789407e-003 1.4546653397904133e-002
      9.2540921911577045e-003 1.0603978019801164e-002
      -4.9524189479157383e-005 3.3138038871648894e-003
      1.0296534118364850e-002 -3.4197453706851857e-003
      8.2870922240750149e-003 3.4151414402515093e-003
      2.1451582046618559e-003 6.9601603399557337e-003
      1.5770028545677342e-002 -1.5815622918857609e-002
      3.3190203455063329e-002 2.4299088381715597e-002
      -2.7313981472280556e-002 3.2025996043419276e-002
      2.8167181326776574e-002 -3.9089820686353596e-002
      1.0385515080877246e-002 6.5829553006813103e-003
      3.7210360013707278e-003 9.9486086874803342e-003
      -2.5035940955794068e-003 -1.4402969826801656e-002
      1.8979094910356605e-002 2.0479689596620276e-002
      -1.9339984852448543e-002 1.9207247244651907e-002
      1.3078891944509539e-002 -2.6045952691841553e-002
      8.0809565614475033e-003 4.4922518938358890e-003
      1.6771555888345977e-003 9.6835610900571894e-003
      1.3958961318073500e-002 -9.9197968638808608e-003
      2.6936764005369204e-002 1.0249126484338072e-002
      -1.1363901396744959e-002 1.7914033822964723e-002
      1.5121943049280377e-002 -2.1852611787815255e-002
      1.1211101335911842e-003 -4.3051635062758462e-004
      1.0957402967032176e-002 -6.8675217390412005e-004
      5.1802769585697532e-003 -4.4424122905012599e-003
      3.1404137768070245e-002 1.5039367992491197e-002
      -1.0050056101647893e-002 3.1364829509667451e-002
      3.0339995597165170e-002 -5.6391280168618926e-002
      -1.9958360082311156e-002 -1.8104421539058658e-002
      1.2743050202665616e-002 -2.4970318078531735e-002
      -3.3956360388603411e-002 3.9996970620468988e-002
      -2.3512096388158255e-002 -2.0970415954652932e-002
      5.0413391011357627e-003 -2.0336889138672432e-002
      -1.4625012036504332e-002 2.7842637137268627e-002
      1.9978000023558415e-002 1.8452423327565540e-002
      -1.6388596835367707e-003 1.4885666505903103e-002
      1.9107227155353332e-002 -3.8745073163396024e-002
      2.1247610190351113e-003 -1.1650135504829575e-003
      6.5233534545243704e-003 -6.3533333695526837e-003
      -1.7928832129811190e-003 -2.2771081475847746e-003
      -1.2064270137414771e-002 -3.3404221038513299e-003
      2.2956808042217007e-004 -5.6186174655378715e-003
      -8.5709494343857821e-003 1.1339112117230030e-002
      3.3475789015245090e-003 5.5493230985057740e-003
      -2.2574897639474675e-003 3.8623575747709703e-003
      -9.3819923394735886e-003 6.2033366049496774e-003
      1.1695480295798101e-002 1.2424986416504913e-002
      -1.6266067938326711e-003 -9.8616892343275447e-004
      8.4879324407435633e-003 -1.7845694756662651e-002
      6.6920271396185291e-003 1.5732644745522707e-002
      -1.3895015436036150e-002 1.6256276821404760e-002
      8.5204315713163260e-003 -1.7093104869343609e-002
      -1.7587571155672280e-003 -5.8723703214888685e-003
      2.0552044644614881e-003 2.0555249714365245e-003
      5.5394227016684872e-004 2.5789764244639533e-003
      2.0675769563954643e-002 9.9377914079893138e-003
      -6.4021549573351913e-003 1.8427163587010003e-002
      2.3592177209305436e-002 -2.4712665643124493e-002
      -1.4738089337066884e-003 -2.8623502392666254e-004
      5.9458544056222497e-003 -6.0010270894778886e-003
      2.6982492850960689e-003 7.3641985920992895e-003
      1.4468266376390081e-002 5.8644031631902693e-003
      -7.7690566690699061e-004 5.8720181891113400e-003
      7.3099553843884108e-003 -1.4225131812950393e-002
      -1.5488733826501394e-002 -1.4943565885582480e-002
      6.3005936529213855e-003 -1.4336808040560658e-002
      -3.2106536630689200e-002 3.8597286894498581e-002
      9.9355126129847589e-003 1.7438046631178424e-003
      -7.3366828109897083e-003 1.5319468365560362e-003
      1.3240172758597929e-003 -1.0941034542596048e-002
      2.5184786356281980e-002 1.8010270931378802e-002
      -1.7616409498801965e-002 2.6707536557917261e-002
      3.0414568710850347e-002 -4.4435069164629373e-002
      8.2077454731365913e-003 5.5052228666251585e-003
      3.5168395338529179e-003 2.9022435602324300e-003
      -2.0889301722777139e-003 2.8135840769154211e-003
      7.2676215115238547e-003 2.6494457193519008e-003
      -2.7076700553000060e-003 6.8589758054416880e-003
      4.3229110063514459e-003 -3.4291893502326580e-003
      -3.2101783614967285e-003 5.1334857149810502e-003
      -5.2978439549497876e-003 -3.9807763839005712e-003
      -1.6071792906708821e-003 6.5677533396678303e-003
      -5.6994207051357375e-002 -4.1505106035068733e-002
      2.8739063253468380e-002 -4.9057421796036123e-002
      -6.5728569084985269e-002 8.3412894385341205e-002
      1.1506729720486558e-002 6.6785295003483095e-003
      -1.2600551254675092e-002 1.0418760550744907e-002
      1.9297133258754758e-002 -2.0841440381184111e-002
      -9.5440430871576252e-003 -1.4347309310284558e-002
      6.4213328841158136e-003 -6.5109615428502882e-003
      -1.1441883123196550e-002 2.4485622196762695e-002
      -1.7478309870372205e-003 6.4836816002875157e-003
      6.2148871620060282e-005 3.8825056768750153e-003
      -8.2218454611602525e-003 9.5243681940191220e-003
      -3.5962929166870022e-002 -3.4156083097027404e-002
      1.4360582275708314e-002 -3.5403580997903465e-002
      -2.6866723150366215e-002 5.1567612006593176e-002
      -1.0508570383340833e-002 -1.0097011874698730e-002
      1.3081795159582658e-002 -1.7806520340514394e-002
      -2.3918268161858627e-002 2.7890110430045325e-002
      -1.6385401814861301e-002 -1.1215103537393960e-002
      1.1304971028384616e-002 -1.4572174105974034e-002
      -3.0210720054807275e-003 6.3494077184365382e-003
      -3.3362756267272108e-002 -3.4360681142898745e-002
      2.7535355439521240e-002 -3.7920473704522284e-002
      -4.3303855049760934e-002 6.0199011861314558e-002
      2.0441640184713773e-002 8.5683690355370223e-003
      -4.5441762757457652e-003 1.7123495947837089e-002
      1.3535262443445597e-002 -2.3381873764425531e-002
      4.3092974828917462e-002 4.2815147644496156e-002
      -2.6582005488315134e-002 4.3238722108523926e-002
      5.3844258121646026e-002 -7.7268712153176475e-002
      -3.7924594549328165e-002 -3.1157067943411030e-002
      2.2219757895979166e-002 -4.5797268308205540e-002
      -4.0166200939092657e-002 7.0197651544850928e-002
      -3.7657928224541330e-002 -3.5689479805563640e-002
      3.3181649625202397e-002 -3.7636145874463497e-002
      -5.4098115461307786e-002 6.2308695396175992e-002
      1.8062528088407980e-002 1.1567488488363741e-002
      -4.8113313369910742e-003 2.0007520699085075e-002
      2.3341828775426194e-002 -2.5402385601478967e-002
      1.4867819965878515e-002 1.6745602781076285e-002
      -6.0125785476804047e-003 1.6934749433781388e-002
      1.7358630127715605e-002 -2.2611527873014597e-002
      3.3097993208465397e-002 2.1381414008515252e-002
      -1.4706649985252666e-002 3.8119533128633670e-002
      4.2852524416541908e-002 -6.3297837952149369e-002
      -1.0946147566715357e-002 -1.7944347977795389e-002
      1.7126562489113189e-002 -2.1780584928250822e-002
      -1.3963724837654757e-002 2.5456779057984137e-002
      -2.5342295908294444e-002 -1.8332759811125709e-002
      2.2165017908494709e-002 -1.7177586050293910e-002
      -2.4269113231473793e-002 4.2270143524230905e-002
      3.1294359576092307e-002 3.1071916755070629e-002
      -3.0248944277001123e-002 2.9428617607180779e-002
      4.9750701277718773e-002 -5.8275165291190228e-002
      2.2359122403145276e-002 2.2492953373832794e-002
      -1.8008020647620360e-002 2.9881353840480129e-002
      3.4586565401665333e-002 -4.0741980559200718e-002
      -1.8679383061260535e-003 -1.0021722085717031e-002
      3.9999716225803715e-003 -1.0727062583325373e-002
      -1.1706829510502850e-002 6.9843403490856860e-003
      -1.7647521089742407e-002 -1.9454080590582006e-002
      1.4332676034071070e-002 -2.1305095160619424e-002
      -1.2261039870208323e-002 2.0594400537996646e-002
      -2.5350404316472629e-002 -9.1212715447492303e-003
      8.2421806005679148e-003 -1.1927871454361982e-002
      -2.0968684830335583e-002 2.8469658687031205e-002
      -3.1677697716209249e-002 -2.4100101762810331e-002
      1.6317565741509974e-002 -3.3024097940547656e-002
      -3.9219218164472221e-002 6.7441364331405296e-002
      -7.9511418311259147e-003 -3.4142440273121819e-003
      1.0975313838694194e-002 -5.4730923165451353e-003
      -1.0466222665477332e-002 2.7282654370517696e-002
      -8.2868734450589447e-003 -1.6524802727124283e-002
      3.7505333874984208e-003 -1.4128838376689780e-002
      -1.7577521005113603e-002 2.9272775589163986e-002
      -1.5617629468074709e-003 1.6675631131210400e-003
      2.6507593624657141e-003 -7.1216751310883850e-003
      -7.2251950423724981e-003 -6.7171499589535472e-003
      1.8614098033039247e-002 1.4063140186021164e-002
      -8.9025607835635737e-003 2.1583419345624241e-002
      2.1064367480322053e-002 -3.1352511454321892e-002
      -3.3777238393010507e-002 -3.3327641988711999e-002
      2.3684205001555700e-002 -2.8309070932303379e-002
      -4.6724038112022685e-002 5.5183526382840652e-002
      -2.7982409344522229e-004 -6.6856241734850243e-003
      4.8357139341551831e-003 3.5590885897758330e-003
      2.6803869359903073e-003 -4.7956441197546766e-003
      3.8658522665894861e-003 1.3856675699779545e-003
      -6.3113267761627061e-003 5.6507622543842369e-003
      -4.9820401269258545e-003 5.9648530366156124e-003
      2.8704669987571797e-003 5.5749655976601517e-003
      -8.6586886469592287e-003 5.5065494085630266e-003
      4.7662209520605335e-003 -1.6195905526070427e-002
      -3.0996048580889890e-002 -2.7038791113852129e-002
      2.3485798731396817e-002 -2.6881389104456036e-002
      -3.8715784468526984e-002 4.8408587921093531e-002
      -3.1002640515329197e-002 -1.4311883510375011e-002
      1.3922367618308937e-002 -2.0628103552375304e-002
      -2.8270095955488322e-002 4.3532337804940278e-002
      -1.5131966910606682e-002 -1.1345218682023615e-002
      1.4377047736924827e-002 -1.4714576748846485e-002
      -2.5833822365082734e-002 3.5989149119278467e-002
      3.1947655307898920e-002 2.1213653768609578e-002
      -9.1145836208062908e-003 3.1527164825415246e-002
      2.7989439800488930e-002 -4.1626402327521607e-002
      -1.4074024668959642e-002 -5.5243815722237849e-003
      8.0291635288686283e-003 -2.0038473406535341e-002
      -1.8192449575601378e-002 1.9388183854807953e-002
      -6.0295634056961936e-002 -3.8142355422410505e-002
      3.3611219532007859e-002 -4.5503833024083992e-002
      -6.0610566599750330e-002 8.8029746208997478e-002
      -1.2300909919454115e-003 1.2731808584735766e-002
      -2.1024046554964154e-003 1.1615115251426502e-002
      6.6257596179989493e-004 3.9394595852232806e-003
      1.0245361532695693e-002 -5.0130257115653795e-003
      -3.1083142921159521e-004 -3.7110706650311464e-003
      4.6184264108481950e-003 -9.0634301996360845e-003
      -1.0954758841474361e-002 -4.3291209895320480e-003
      3.0833084896123427e-003 -9.5892439098490944e-003
      -2.5018777580651564e-002 3.2481089152127926e-002
      1.3135352340281245e-002 9.6716042005557008e-003
      -2.0931064193148189e-003 1.4648877111032724e-002
      9.5052390800700794e-003 -2.3172780064989219e-002
      1.4697060956237913e-002 6.1366870410901357e-003
      -2.4510827938285704e-003 7.9152594012896656e-003
      1.5080054065869550e-002 -1.7710784163611479e-002
      1.1900298908160597e-002 1.1545396670864572e-002
      -9.0151314928883335e-003 1.4181683154489807e-002
      1.2332210996959688e-002 -4.9381146060291413e-003
      3.0449374508574625e-002 2.8727661431860185e-002
      -2.5834418753568202e-002 2.7736731829756778e-002
      2.8814500629524908e-002 -2.8549152863027037e-002
      2.5763043109421815e-002 1.6864412313039815e-002
      -1.6427192971742156e-002 2.2544891349325524e-002
      2.0931988996944567e-002 -3.4717214509474736e-002
      -1.6768208397566577e-002 -1.6187312341496837e-002
      3.2099143692765374e-004 -1.0868124896943670e-002
      -2.2437485113306808e-002 2.1330745476136410e-002
      7.5064671237788164e-003 -5.6557624991494171e-003
      2.4677171914220626e-003 -4.2363869786839845e-003
      -1.1328436808045750e-003 -6.3670316696568009e-003
      -1.5506170251679786e-002 -1.3361741484091581e-002
      7.3074990502690722e-003 -1.2732119430562445e-002
      -1.5558088406017741e-002 3.4401673046388873e-002
      4.4069983524192738e-002 4.1067228922013713e-002
      -2.7742412139204919e-002 3.8720758064775589e-002
      5.0108974236247758e-002 -7.6258841227171512e-002
      6.7340920912403275e-003 3.8804673907970912e-003
      -8.6374193571564749e-003 7.4311046774916591e-003
      9.0452969583759476e-003 -1.3871753335622782e-002
      3.1657367927468822e-003 8.3307403866737639e-003
      -2.1520260074852091e-003 1.0133751726323657e-002
      7.0326442711293683e-003 -1.3083072492765262e-003
      -1.4210162352216978e-002 -7.7649893728934235e-003
      5.3120359172519884e-003 -7.1063001749974994e-003
      -1.5413946196632781e-002 2.3441674549586816e-002
      -2.1072723697667654e-002 -1.8575402057588758e-002
      1.3221084290580897e-002 -2.1300537960980519e-002
      -2.7462658456844886e-002 4.1784778735746840e-002
      3.6604549850664102e-002 3.3159056884478379e-002
      -2.4483374734131463e-002 3.3208305655036220e-002
      4.2183936088112502e-002 -5.4976057199861997e-002
      -2.9658604594195774e-002 -1.9269395069692413e-002
      1.6395627426430835e-002 -1.8224221177233591e-002
      -2.5225649559428069e-002 3.4727996344713914e-002
      -3.5836563227267561e-002 -3.5959027682195423e-002
      2.3715652470432343e-002 -3.3468991943971793e-002
      -3.8171069175018356e-002 6.6373738999084525e-002
      2.8719162933665582e-002 1.3289947946349677e-002
      -1.6984561194306681e-002 2.2494370811716648e-002
      3.1554126999172372e-002 -3.9278330830379717e-002
      -3.3559358961351060e-004 -7.6504430614764141e-003
      -4.3394274109053808e-003 3.4663282345188270e-003
      1.9877245818107079e-003 6.4372237717464148e-003
      -3.4257239684367918e-006 7.8509056431333973e-003
      -3.2754023004604115e-003 3.9888254712685774e-004
      1.1040375517953253e-002 -1.2764215244851865e-002
      -9.0330433963378039e-003 -7.5247169857884594e-003
      1.4760492146837017e-003 -9.1560253104632713e-003
      -1.3530853070170715e-002 2.1073646074755956e-002
      1.4266134070078306e-002 1.0715331431069312e-002
      -2.1564000668939276e-003 2.1167075317747721e-002
      2.0550202220552202e-002 -3.4038330033243892e-002
      -2.9985643032967985e-002 -2.5141884683884560e-002
      9.4834825066127393e-003 -1.9214886907198678e-002
      -2.2729093842081678e-002 3.6686854592355655e-002
      -5.9130560227350915e-003 -2.7306268774521026e-003
      3.7881773711340764e-003 -1.5449883317089302e-002
      -1.1125620867785312e-002 1.0944139804985833e-002
      -3.0338736504291969e-003 -8.7769385338791351e-003
      6.9895145417154985e-003 -9.0228509533319002e-003
      -1.4191531912677914e-002 1.8367169533504035e-002
      2.9017454192123791e-002 1.4762360200696647e-002
      -1.2152167531545334e-002 1.7361810320248239e-002
      3.0830166092135462e-002 -3.0074385930310320e-002
      -7.1606683958454894e-003 -3.1371134158690570e-003
      7.0500456637023201e-003 -1.6221691764157557e-002
      -1.4995113444985454e-002 1.9402981868529876e-002
      2.5534141300357745e-002 2.6639053421160939e-002
      -1.7336479840113776e-002 2.5260234912731310e-002
      3.9659715289987726e-002 -4.1986201750195108e-002
      -1.5888281982538967e-002 -2.0639186740738266e-002
      1.7626682882197604e-002 -1.6560312772322994e-002
      -2.9967303890162500e-002 3.2521240348003355e-002
      -2.1066102215880986e-002 -2.5832437146926287e-002
      1.0219003983087711e-002 -2.9474933087426512e-002
      -2.8414130443668573e-002 3.1318539775273241e-002
      5.5590201274393056e-002 4.2146147853665647e-002
      -2.3450619372399895e-002 4.1783280950634709e-002
      4.6243428996161406e-002 -7.0908483812278794e-002
      -2.8278358524081563e-002 -2.6010011813241599e-002
      1.7498103101042696e-002 -2.8628399646134426e-002
      -3.3882000628271035e-002 4.3921540846280700e-002
      -2.1722043997240346e-002 -1.7237597722636808e-002
      8.2848921293173401e-003 -1.9440948748078987e-002
      -2.5434291294384535e-002 2.5849109033438161e-002
      -5.4529394010068358e-002 -4.3153229959672017e-002
      3.2542018890191468e-002 -4.8011299306206165e-002
      -6.0078418152951889e-002 9.5043774257508942e-002
      -2.2878982748483659e-004 -4.6251644294684566e-003
      -2.1344095836083421e-003 4.3754736549247598e-003
      -1.8181700033086302e-004 -7.5962358705626998e-004
      1.2178117673097734e-002 1.1368436761798334e-002
      -9.2213129366057467e-003 1.7067798277678754e-002
      2.3287082436248881e-002 -2.8749803792965319e-002
      1.1662142082373381e-002 -2.1335994379828658e-004
      9.9703346309908754e-004 2.9335032503218865e-003
      1.0424455174069416e-003 3.0209735674826448e-003
      1.7076614313808601e-002 9.8214483437045197e-003
      -9.8962161526020154e-003 1.9858710996487953e-002
      2.3100527509439969e-002 -3.4138871456003708e-002
      -2.2958605336111680e-005 5.6701188408058234e-003
      2.7051462449765541e-003 -3.6334288328702742e-003
      3.6487436605594776e-004 -2.7675199668459913e-003
      3.4950068550360591e-002 1.4722477922944604e-002
      -1.0445646940125159e-002 3.4313411674798275e-002
      3.2165666474484489e-002 -5.3066635152719428e-002
      -8.6065294308714912e-003 -8.1660851148590129e-003
      -5.9640759003097973e-003 -3.3511465518908652e-003
      -7.9760116490735916e-003 1.5181188058812510e-002
      -1.1994915748283191e-002 -1.2624566388241101e-002
      3.6394768592798422e-003 -1.1380487247972844e-002
      -1.5785628345412903e-002 1.9437279457057428e-002
      4.7043346194676830e-004 -5.9079091951982250e-003
      2.8234896770870420e-003 7.3930140324038676e-003
      4.6118621950832182e-003 3.4996357320112542e-003
      2.6154772623840937e-002 1.8412126144560167e-002
      -8.6052359560824659e-003 2.1792410227169705e-002
      2.1727760986714289e-002 -4.1197949308010171e-002
      1.9185937211770549e-002 1.3377995684198025e-002
      -9.8862729239462526e-003 1.6524001462949776e-002
      1.4026391248147908e-002 -1.1434069394762112e-002
      -4.2411632181012605e-002 -2.9491484268585815e-002
      2.6690470093939028e-002 -2.9427587673499959e-002
      -3.9680386277431319e-002 6.8945147582200314e-002
      -4.8156892727301233e-002 -2.4685001448573274e-002
      1.8983660442034065e-002 -4.3279548488481173e-002
      -4.5513211174652103e-002 7.7785343834869888e-002
      -6.0219916418431628e-002 -5.1296244308492833e-002
      2.7853100061760956e-002 -5.5380556998332206e-002
      -6.2833914079451852e-002 1.0601285316433195e-001
      -2.5950192236707938e-002 -2.2304459622896143e-002
      9.7498230365235666e-003 -1.2864432747763381e-002
      -2.6919886835919071e-002 4.6681353056876526e-002
      -2.7252662262152862e-002 -2.6023551893749067e-002
      9.7745766093641599e-003 -2.4820332551148672e-002
      -2.3341487859633615e-002 4.1985384787017167e-002
      -2.2112058794211777e-002 -2.0102659891088410e-002
      7.8235814659071284e-003 -1.9402307688266125e-002
      -3.4461751527731357e-002 3.8312901818530871e-002
      -2.2346247684586689e-002 -2.3470905444080210e-002
      9.7554584313937955e-003 -2.0309545908119168e-002
      -2.0313570831527614e-002 3.7093179310674948e-002
      -2.7058033518283398e-002 -2.6874537596134424e-002
      1.0701193389774315e-002 -2.5747316698099442e-002
      -3.4707536030906379e-002 4.9592654167965863e-002
      -2.6488263304105587e-003 -4.1740832313195394e-003
      1.8173489318234609e-003 -1.2321123205329226e-002
      -1.5515865375819426e-002 1.8678561272853379e-002
      -2.1781058078548358e-002 -1.5676890553858052e-002
      1.4946533527897807e-002 -3.0617269671775534e-002
      -3.6261150176227885e-002 4.4734168175963741e-002
      2.2845821434534987e-002 1.3421131548164955e-002
      -1.9504145841517766e-002 1.5225695354007454e-002
      3.2502643449511301e-002 -3.9995303886027220e-002
      -5.2858819820821454e-002 -3.0873417261082114e-002
      3.2324791533308306e-002 -4.7350656161376604e-002
      -5.4392646919262551e-002 7.0171569126306163e-002
      -1.1789332809247254e-002 -1.9399380746391037e-003
      2.7780487550737197e-003 -1.0760484972186355e-002
      -7.9214588050653435e-003 2.0154492002163203e-002
      -1.0159026628799209e-002 -1.0085600030508495e-002
      5.8928268826605797e-004 -7.7594149059979070e-003
      -2.3769136257406762e-002 2.7692973107962742e-002
      1.0052580684903644e-002 1.6612832038119880e-002
      -4.1546662180538523e-003 1.1897153755677386e-002
      1.3705592172579068e-002 -2.8562479374720760e-002
      -4.1511054556890338e-003 3.0561353247877997e-004
      5.9012736027685819e-003 -5.9823652066447186e-004
      -7.2421423702345132e-003 1.1178239391702269e-002
      -2.3968529451905779e-001 -1.7673782551840425e-001
      1.3947778296907215e-001 -2.1692303859398313e-001
      -2.5770592748169385e-001 3.7172682770925108e-001</_>
    <_>
      5.8703933691467358e-001 4.6489165422784207e-001
      -3.4476946879947312e-001 5.4747604967241859e-001
      6.5964338753986185e-001 -9.7064232676811990e-001
      -4.5461252033013522e-001</_></weights></opencv_ml_ann_mlp>
</opencv_storage>
