<?xml version="1.0"?>
<opencv_storage>
<opencv_ml_svm>
  <format>3</format>
  <svmType>C_SVC</svmType>
  <kernel>
    <type>RBF</type>
    <gamma>5.0625000000000009e-001</gamma></kernel>
  <C>3.1250000000000000e+002</C>
  <term_criteria><epsilon>1.1920928955078125e-007</epsilon>
    <iterations>1000</iterations></term_criteria>
  <var_count>256</var_count>
  <class_count>2</class_count>
  <class_labels type_id="opencv-matrix">
    <rows>2</rows>
    <cols>1</cols>
    <dt>i</dt>
    <data>
      -1082130432 1065353216</data></class_labels>
  <sv_total>40</sv_total>
  <support_vectors>
    <_>
      5.12048192e-002 1.07482560e-002 6.62650587e-003 1.24920737e-002
      5.38998097e-003 7.92644278e-004 1.00824349e-002 2.01014578e-002
      6.27774233e-003 8.87761591e-004 6.65821193e-004 1.14140776e-003
      1.04629043e-002 1.39505393e-003 2.77425498e-002 3.66201662e-002
      1.10653136e-002 7.29232735e-004 9.82878846e-004 4.43880796e-004
      1.07799622e-003 1.26823084e-004 1.14140776e-003 6.65821193e-004
      1.08116679e-002 3.80469253e-004 9.19467362e-004 7.29232735e-004
      1.92454029e-002 4.75586567e-004 3.82054523e-002 1.23652508e-002
      6.46797707e-003 1.07799622e-003 5.38998109e-004 1.04629039e-003
      4.75586567e-004 6.34115422e-005 7.60938507e-004 8.24350049e-004
      4.43880796e-004 9.51173133e-005 1.26823084e-004 1.26823084e-004
      9.51173133e-004 2.21940398e-004 1.20481930e-003 1.83893472e-003
      1.26506025e-002 7.29232735e-004 6.65821193e-004 7.29232735e-004
      6.34115422e-004 3.17057711e-005 5.70703880e-004 3.17057711e-004
      2.30818000e-002 4.75586567e-004 7.29232735e-004 5.38998109e-004
      2.73620803e-002 3.80469253e-004 1.38237160e-002 5.29486360e-003
      8.37032311e-003 1.14140776e-003 4.12175024e-004 8.56055820e-004
      5.70703880e-004 9.51173133e-005 5.07292338e-004 5.70703880e-004
      6.02409651e-004 6.34115422e-005 9.51173133e-005 9.51173133e-005
      2.85351940e-004 6.34115422e-005 6.34115422e-004 3.48763482e-004
      7.92644278e-004 1.26823084e-004 9.51173133e-005 3.17057711e-005 0.
      0. 3.17057711e-005 0. 1.01458468e-003 6.34115422e-005
      3.17057711e-005 0. 2.85351940e-004 3.17057711e-005 5.70703880e-004
      2.21940398e-004 1.25871906e-002 1.71211164e-003 6.65821193e-004
      1.04629039e-003 5.07292338e-004 0. 7.60938507e-004 6.97526964e-004
      8.56055820e-004 1.26823084e-004 0. 9.51173133e-005 7.92644278e-004
      9.51173133e-005 1.04629039e-003 7.29232735e-004 2.45085601e-002
      4.43880796e-004 8.87761591e-004 6.97526964e-004 3.17057711e-004 0.
      5.38998109e-004 2.21940398e-004 3.76981609e-002 2.85351940e-004
      1.23652501e-003 4.75586567e-004 1.02409637e-002 2.21940398e-004
      6.53138850e-003 2.15599244e-003 6.84844656e-003 1.43944202e-002
      7.29232735e-004 2.30818000e-002 6.02409651e-004 1.10970193e-003
      1.04629039e-003 2.75840200e-002 5.07292338e-004 8.56055820e-004 0.
      6.65821193e-004 8.56055820e-004 8.24350049e-004 1.01458468e-003
      1.45529490e-002 1.14140776e-003 5.07292338e-004 1.90234627e-004
      6.02409651e-004 9.51173133e-005 3.17057711e-005 9.51173133e-005
      3.17057711e-004 1.01458468e-003 7.29232735e-004 3.17057711e-005
      5.38998109e-004 1.29993656e-003 4.75586567e-004 1.77552318e-003
      5.10462886e-003 7.29232735e-004 7.60938507e-004 6.34115422e-005
      1.45846547e-003 1.26823084e-004 3.17057711e-005 3.17057711e-005
      1.01458468e-003 9.51173133e-005 9.51173133e-005 0. 9.51173133e-005
      6.34115422e-005 9.51173133e-005 6.34115422e-005 1.20481930e-003
      8.87761591e-004 5.70703880e-004 9.51173133e-005 7.92644278e-004
      9.51173133e-005 6.34115422e-005 0. 3.17057711e-004 9.82878846e-004
      6.02409651e-004 6.34115422e-005 8.87761591e-004 8.24350049e-004
      6.02409651e-004 1.04629039e-003 4.72415984e-003 1.26823084e-002
      2.69499049e-002 1.01458468e-003 4.15028520e-002 5.38998109e-004
      6.34115422e-004 6.65821193e-004 1.13823712e-002 9.19467362e-004
      1.61699427e-003 1.26823084e-004 8.56055820e-004 5.38998109e-004
      5.07292338e-004 9.19467362e-004 6.84844656e-003 1.29993656e-003
      3.80469253e-004 1.26823084e-004 6.97526964e-004 1.26823084e-004
      6.34115422e-005 1.58528856e-004 1.58528856e-004 9.82878846e-004
      5.70703880e-004 6.34115422e-005 5.38998109e-004 5.07292338e-004
      3.48763482e-004 9.19467362e-004 2.40963860e-003 2.52060872e-002
      3.76347490e-002 1.04629039e-003 1.89917572e-002 7.29232735e-004
      4.12175024e-004 8.56055820e-004 6.05580211e-003 1.45846547e-003
      1.80722889e-003 6.34115422e-005 8.87761591e-004 1.07799622e-003
      9.19467362e-004 1.83893472e-003 7.54597317e-003 3.76664549e-002
      1.03994925e-002 1.58528856e-003 5.48509834e-003 3.80469253e-004
      2.85351940e-004 1.10970193e-003 2.79010786e-003 1.68357641e-002
      5.00951195e-003 1.01458468e-003 5.00951195e-003 5.96068474e-003
      1.87064044e-003 7.54597317e-003 1.38871279e-002</_>
    <_>
      4.93024737e-002 1.05263162e-002 5.77044999e-003 1.19847814e-002
      5.35827503e-003 7.29232735e-004 8.08497146e-003 1.88649334e-002
      5.83386188e-003 8.87761591e-004 3.17057711e-004 6.34115422e-004
      1.01141408e-002 1.39505393e-003 2.68864930e-002 3.86810414e-002
      1.11287255e-002 6.65821193e-004 7.60938507e-004 5.38998109e-004
      7.92644278e-004 3.17057711e-005 1.17311347e-003 3.80469253e-004
      1.12555483e-002 4.75586567e-004 6.02409651e-004 2.85351940e-004
      1.64552946e-002 4.12175024e-004 4.10906784e-002 1.24603678e-002
      6.72162324e-003 9.19467362e-004 7.29232735e-004 8.24350049e-004
      3.48763482e-004 3.17057711e-005 6.97526964e-004 8.56055820e-004
      9.82878846e-004 1.58528856e-004 1.26823084e-004 0. 9.19467362e-004
      6.34115422e-005 9.19467362e-004 1.55358273e-003 1.22067221e-002
      6.34115422e-004 7.60938507e-004 4.12175024e-004 6.65821193e-004 0.
      8.87761591e-004 6.02409651e-004 2.26379205e-002 4.75586567e-004
      9.19467362e-004 3.48763482e-004 2.59036142e-002 5.07292338e-004
      1.33164236e-002 4.72415984e-003 7.64109055e-003 9.82878846e-004
      5.38998109e-004 7.60938507e-004 3.48763482e-004 1.26823084e-004
      4.75586567e-004 9.51173133e-005 5.38998109e-004 9.51173133e-005
      6.34115422e-005 3.17057711e-005 5.38998109e-004 3.17057711e-005
      5.38998109e-004 4.75586567e-004 9.51173133e-004 3.17057711e-005
      3.17057711e-005 0. 3.17057711e-005 0. 3.17057711e-005 0.
      7.60938507e-004 6.34115422e-005 3.17057711e-005 3.17057711e-005
      2.85351940e-004 0. 3.17057711e-004 1.90234627e-004 1.19213695e-002
      1.36334810e-003 7.29232735e-004 7.92644278e-004 2.53646169e-004 0.
      4.12175024e-004 6.02409651e-004 8.56055820e-004 9.51173133e-005
      6.34115422e-005 9.51173133e-005 7.92644278e-004 1.58528856e-004
      9.82878846e-004 9.82878846e-004 2.35890932e-002 6.65821193e-004
      6.97526964e-004 4.43880796e-004 5.70703880e-004 3.17057711e-005
      2.85351940e-004 4.12175024e-004 3.86810414e-002 3.80469253e-004
      6.97526964e-004 4.43880796e-004 1.14457831e-002 1.26823084e-004
      6.05580211e-003 2.06087506e-003 7.45085627e-003 1.45529490e-002
      1.01458468e-003 2.57133804e-002 7.60938507e-004 6.97526964e-004
      7.92644278e-004 2.63792016e-002 5.70703880e-004 7.29232735e-004
      3.17057711e-005 8.56055820e-004 9.19467362e-004 8.87761591e-004
      7.60938507e-004 1.36334812e-002 1.33164239e-003 7.29232735e-004
      2.21940398e-004 5.38998109e-004 6.34115422e-005 0. 1.58528856e-004
      2.53646169e-004 8.24350049e-004 5.07292338e-004 6.34115422e-005
      4.75586567e-004 7.92644278e-004 5.07292338e-004 1.55358273e-003
      4.40710224e-003 7.29232735e-004 7.29232735e-004 6.34115422e-005
      1.10970193e-003 3.17057711e-005 9.51173133e-005 3.17057711e-005
      9.82878846e-004 3.17057711e-005 9.51173133e-005 0. 9.51173133e-005
      3.17057711e-005 3.17057711e-005 1.26823084e-004 8.87761591e-004
      9.51173133e-004 4.75586567e-004 9.51173133e-005 5.07292338e-004 0.
      1.26823084e-004 9.51173133e-005 4.43880796e-004 1.29993656e-003
      6.02409651e-004 6.34115422e-005 5.38998109e-004 8.24350049e-004
      4.12175024e-004 9.19467362e-004 3.20228282e-003 1.31261889e-002
      2.67279651e-002 7.92644278e-004 4.37539630e-002 5.70703880e-004
      3.48763482e-004 9.51173133e-004 1.34115405e-002 5.07292338e-004
      9.51173133e-004 3.17057711e-005 1.17311347e-003 5.70703880e-004
      6.65821193e-004 9.82878846e-004 6.75332919e-003 1.20481930e-003
      4.75586567e-004 1.58528856e-004 5.70703880e-004 3.17057711e-005
      3.17057711e-005 1.90234627e-004 3.17057711e-005 7.92644278e-004
      4.75586567e-004 3.17057711e-005 3.80469253e-004 2.85351940e-004
      1.90234627e-004 7.29232735e-004 2.28281552e-003 2.67596710e-002
      4.25808504e-002 1.20481930e-003 1.84527580e-002 6.65821193e-004
      2.85351940e-004 8.24350049e-004 6.53138850e-003 1.33164239e-003
      1.52187701e-003 6.34115422e-005 1.17311347e-003 8.24350049e-004
      1.10970193e-003 1.61699427e-003 8.43373500e-003 4.35637273e-002
      1.20481923e-002 1.93405198e-003 6.40456565e-003 4.12175024e-004
      1.90234627e-004 1.26823084e-003 1.61699427e-003 1.73113514e-002
      5.45339240e-003 9.82878846e-004 4.18516155e-003 6.65821182e-003
      2.09258078e-003 8.56055785e-003 1.34749524e-002</_>
    <_>
      4.88585904e-002 1.01458468e-002 5.16804075e-003 1.03677865e-002
      3.42422328e-003 5.38998109e-004 8.43373500e-003 1.44895371e-002
      4.72415984e-003 6.97526964e-004 6.97526964e-004 6.34115422e-004
      7.95814861e-003 9.19467362e-004 2.59353202e-002 4.34369072e-002
      1.01775527e-002 7.92644278e-004 7.29232735e-004 3.48763482e-004
      5.07292338e-004 0. 6.34115422e-004 3.80469253e-004 9.22637898e-003
      4.12175024e-004 4.12175024e-004 4.12175024e-004 1.38237160e-002
      5.70703880e-004 4.61635999e-002 1.12238424e-002 7.26062153e-003
      1.10970193e-003 4.12175024e-004 6.34115422e-004 4.75586567e-004 0.
      4.75586567e-004 5.70703880e-004 6.97526964e-004 6.34115422e-005 0.
      6.34115422e-005 6.34115422e-004 1.58528856e-004 8.56055820e-004
      7.29232735e-004 1.30310720e-002 6.97526964e-004 6.02409651e-004
      3.17057711e-004 4.75586567e-004 3.17057711e-005 7.60938507e-004
      2.21940398e-004 2.11477485e-002 3.80469253e-004 7.29232735e-004
      4.75586567e-004 2.24793907e-002 4.12175024e-004 1.18579585e-002
      3.29740020e-003 6.62650587e-003 8.56055820e-004 3.17057711e-004
      6.65821193e-004 1.58528856e-004 6.34115422e-005 1.90234627e-004
      3.17057711e-004 3.80469253e-004 9.51173133e-005 3.17057711e-005 0.
      2.21940398e-004 3.17057711e-005 2.53646169e-004 3.80469253e-004
      9.19467362e-004 0. 3.17057711e-005 0. 3.17057711e-005 0.
      9.51173133e-005 0. 3.17057711e-004 9.51173133e-005 9.51173133e-005
      0. 3.17057711e-004 6.34115422e-005 1.26823084e-004 6.34115422e-005
      1.30627770e-002 1.58528856e-003 4.75586567e-004 1.07799622e-003
      4.75586567e-004 3.17057711e-005 3.80469253e-004 2.53646169e-004
      8.24350049e-004 9.51173133e-005 0. 0. 5.38998109e-004
      1.58528856e-004 4.75586567e-004 9.19467362e-004 2.58084964e-002
      5.07292338e-004 6.97526964e-004 4.43880796e-004 5.38998109e-004
      3.17057711e-005 5.70703880e-004 6.34115422e-005 3.36398222e-002
      6.34115422e-004 7.29232735e-004 2.21940398e-004 1.07165501e-002
      9.51173133e-005 5.10462886e-003 1.20481930e-003 8.08497146e-003
      1.48065947e-002 9.51173133e-004 2.59353202e-002 2.85351940e-004
      5.38998109e-004 7.29232735e-004 2.35256813e-002 4.43880796e-004
      5.70703880e-004 9.51173133e-005 5.70703880e-004 2.85351940e-004
      2.85351940e-004 1.14140776e-003 1.28091313e-002 9.19467362e-004
      6.97526964e-004 6.34115422e-005 2.85351940e-004 1.26823084e-004 0.
      2.21940398e-004 3.48763482e-004 6.65821193e-004 3.80469253e-004 0.
      2.53646169e-004 1.01458468e-003 4.12175024e-004 1.26823084e-003
      3.36081162e-003 1.14140776e-003 9.19467362e-004 6.34115422e-005
      9.51173133e-004 6.34115422e-005 6.34115422e-005 3.17057711e-005
      5.70703880e-004 3.17057711e-005 6.34115422e-005 0. 3.17057711e-005
      9.51173133e-005 6.34115422e-005 1.26823084e-004 5.38998109e-004
      1.17311347e-003 6.34115422e-004 3.17057711e-005 5.07292338e-004
      6.34115422e-005 6.34115422e-005 1.58528856e-004 2.53646169e-004
      6.65821193e-004 6.34115422e-004 9.51173133e-005 3.48763482e-004
      6.97526964e-004 2.53646169e-004 7.29232735e-004 2.28281552e-003
      1.26188966e-002 2.66011413e-002 9.19467362e-004 3.92834507e-002
      2.85351940e-004 5.38998109e-004 6.97526964e-004 1.20481923e-002
      4.12175024e-004 9.51173133e-004 3.17057711e-005 6.65821193e-004
      6.02409651e-004 5.07292338e-004 8.24350049e-004 5.58021571e-003
      1.20481930e-003 5.38998109e-004 9.51173133e-005 3.80469253e-004
      6.34115422e-005 0. 1.58528856e-004 1.26823084e-004 5.07292338e-004
      2.21940398e-004 9.51173133e-005 1.90234627e-004 5.70703880e-004
      9.51173133e-005 6.97526964e-004 1.29993656e-003 3.93468626e-002
      6.00190237e-002 1.07799622e-003 1.89283453e-002 6.65821193e-004
      6.65821193e-004 1.07799622e-003 7.48256175e-003 1.26823084e-003
      2.06087506e-003 6.34115422e-005 1.20481930e-003 1.23652501e-003
      1.17311347e-003 2.06087506e-003 7.41915032e-003 6.14140779e-002
      1.63918827e-002 1.64870010e-003 6.05580211e-003 6.65821193e-004
      1.58528856e-004 1.14140776e-003 1.61699427e-003 1.97526943e-002
      5.38998097e-003 7.92644278e-004 3.01204808e-003 6.02409616e-003
      1.93405198e-003 6.91185798e-003 1.06848450e-002</_>
    <_>
      2.14013949e-001 1.18896635e-002 1.85795818e-002 1.39505388e-002
      9.79708321e-003 5.38998109e-004 1.45529490e-002 1.47431828e-002
      2.06404570e-002 1.07799622e-003 2.40963860e-003 1.26823084e-003
      1.48065947e-002 7.60938507e-004 2.32403297e-002 1.88966393e-002
      1.33798355e-002 6.02409651e-004 1.10970193e-003 6.34115422e-004
      8.56055820e-004 3.17057711e-005 1.01458468e-003 1.90234627e-004
      1.37603041e-002 6.65821193e-004 9.82878846e-004 4.75586567e-004
      1.41407736e-002 2.21940398e-004 1.69308819e-002 3.70957516e-003
      1.86746996e-002 1.04629039e-003 2.40963860e-003 1.20481930e-003
      9.19467362e-004 9.51173133e-005 1.20481930e-003 5.07292338e-004
      1.99746364e-003 1.58528856e-004 1.90234627e-004 1.90234627e-004
      9.51173133e-004 1.26823084e-004 1.52187701e-003 1.23652501e-003
      1.49651235e-002 4.12175024e-004 8.24350049e-004 3.17057711e-004
      6.02409651e-004 0. 8.87761591e-004 1.90234627e-004 1.87698156e-002
      2.21940398e-004 1.01458468e-003 3.80469253e-004 2.46670898e-002
      1.58528856e-004 8.81420448e-003 2.31452123e-003 9.19467304e-003
      7.92644278e-004 6.02409651e-004 7.29232735e-004 2.21940398e-004 0.
      2.85351940e-004 2.85351940e-004 5.38998109e-004 3.17057711e-005
      1.58528856e-004 3.17057711e-005 2.85351940e-004 0. 6.65821193e-004
      1.90234627e-004 6.65821193e-004 0. 0. 0. 0. 0. 0. 0.
      5.38998109e-004 3.17057711e-005 6.34115422e-005 0. 2.85351940e-004
      3.17057711e-005 3.48763482e-004 9.51173133e-005 1.73113514e-002
      1.01458468e-003 1.49017118e-003 1.20481930e-003 3.80469253e-004
      3.17057711e-005 6.97526964e-004 1.90234627e-004 8.24350049e-004
      9.51173133e-005 9.51173133e-005 3.17057711e-005 7.92644278e-004
      6.34115422e-005 7.92644278e-004 4.43880796e-004 1.50285354e-002
      1.26823084e-004 7.29232735e-004 2.21940398e-004 3.17057711e-004
      3.17057711e-005 1.26823084e-004 3.17057711e-005 1.30944829e-002
      1.90234627e-004 4.43880796e-004 2.21940398e-004 4.59733652e-003
      6.34115422e-005 2.63157906e-003 8.24350049e-004 1.96892843e-002
      1.34432465e-002 1.90234627e-003 1.99746359e-002 8.56055820e-004
      9.19467362e-004 9.82878846e-004 2.29549780e-002 1.58528856e-003
      7.29232735e-004 1.90234627e-004 1.17311347e-003 1.26823084e-003
      6.97526964e-004 1.26823084e-003 1.04946103e-002 1.07799622e-003
      1.26823084e-004 1.26823084e-004 3.80469253e-004 3.17057711e-005
      3.17057711e-005 6.34115422e-005 1.58528856e-004 9.51173133e-004
      6.65821193e-004 9.51173133e-005 4.75586567e-004 2.53646169e-004
      3.17057711e-004 5.70703880e-004 2.47305003e-003 2.21940386e-003
      1.23652501e-003 1.26823084e-004 9.19467362e-004 0. 0.
      9.51173133e-005 6.02409651e-004 1.58528856e-004 1.58528856e-004
      6.34115422e-005 1.26823084e-004 9.51173133e-005 3.17057711e-005
      9.51173133e-005 6.02409651e-004 1.36334810e-003 5.07292338e-004
      1.26823084e-004 3.17057711e-004 9.51173133e-005 6.34115422e-005
      1.26823084e-004 2.85351940e-004 9.51173133e-004 5.38998109e-004
      1.26823084e-004 4.43880796e-004 6.34115422e-004 3.48763482e-004
      9.19467362e-004 2.47305003e-003 1.59480032e-002 1.30627770e-002
      8.24350049e-004 1.21433102e-002 3.80469253e-004 2.85351940e-004
      5.70703880e-004 4.05833870e-003 1.45846547e-003 6.02409651e-004
      2.21940398e-004 5.07292338e-004 6.02409651e-004 2.21940398e-004
      9.82878846e-004 2.37793289e-003 1.04629039e-003 1.90234627e-004
      2.21940398e-004 3.17057711e-004 9.51173133e-005 0. 3.17057711e-005
      9.51173133e-005 9.82878846e-004 1.90234627e-004 3.17057711e-005
      2.21940398e-004 3.17057711e-004 6.34115422e-005 3.48763482e-004
      9.82878846e-004 3.95370945e-002 3.07863038e-002 1.52187701e-003
      9.70196538e-003 5.07292338e-004 1.90234627e-004 7.29232735e-004
      3.23398854e-003 2.06087506e-003 7.92644278e-004 2.21940398e-004
      1.01458468e-003 7.92644278e-004 5.38998109e-004 1.49017118e-003
      4.21686750e-003 3.68421040e-002 7.13379821e-003 1.14140776e-003
      2.59987311e-003 1.58528856e-004 1.90234627e-004 3.48763482e-004
      8.56055820e-004 1.19847814e-002 2.75840214e-003 6.65821193e-004
      2.82181357e-003 3.42422328e-003 7.60938507e-004 5.04121743e-003
      7.70450244e-003</_>
    <_>
      5.08243516e-002 1.08750788e-002 7.13379821e-003 1.30310720e-002
      6.37285970e-003 8.87761591e-004 1.04946103e-002 2.06404570e-002
      5.86556736e-003 9.51173133e-004 5.07292338e-004 8.56055820e-004
      1.04311984e-002 1.23652501e-003 3.13570052e-002 4.73684222e-002
      9.67026036e-003 5.70703880e-004 9.51173133e-004 6.02409651e-004
      4.75586567e-004 6.34115422e-005 1.29993656e-003 4.75586567e-004
      1.18262526e-002 4.12175024e-004 7.29232735e-004 4.43880796e-004
      2.05770452e-002 3.48763482e-004 4.58148383e-002 1.42993024e-002
      6.11921353e-003 9.51173133e-004 5.07292338e-004 8.87761591e-004
      5.07292338e-004 0. 6.02409651e-004 8.24350049e-004 8.56055820e-004
      6.34115422e-005 9.51173133e-005 6.34115422e-005 7.92644278e-004
      1.58528856e-004 1.10970193e-003 1.42675964e-003 1.23018390e-002
      6.65821193e-004 7.29232735e-004 7.29232735e-004 4.75586567e-004 0.
      7.92644278e-004 5.38998109e-004 2.14965120e-002 5.07292338e-004
      8.24350049e-004 5.70703880e-004 2.52060872e-002 2.53646169e-004
      1.69625878e-002 5.38998097e-003 7.45085627e-003 6.34115422e-004
      6.65821193e-004 6.65821193e-004 2.53646169e-004 0. 5.38998109e-004
      3.80469253e-004 4.43880796e-004 0. 0. 0. 4.75586567e-004
      6.34115422e-005 5.70703880e-004 6.02409651e-004 6.34115422e-004
      3.17057711e-005 1.26823084e-004 3.17057711e-005 6.34115422e-005 0.
      6.34115422e-005 0. 8.56055820e-004 3.17057711e-005 3.17057711e-005
      0. 4.12175024e-004 3.17057711e-005 3.80469253e-004 2.53646169e-004
      1.22384271e-002 1.36334810e-003 3.48763482e-004 9.51173133e-004
      5.38998109e-004 0. 6.34115422e-004 5.70703880e-004 9.82878846e-004
      0. 6.34115422e-005 6.34115422e-005 6.65821193e-004 9.51173133e-005
      9.82878846e-004 6.97526964e-004 2.28915662e-002 6.65821193e-004
      5.07292338e-004 4.75586567e-004 3.17057711e-004 0. 3.48763482e-004
      4.43880796e-004 3.32593545e-002 3.17057711e-004 1.20481930e-003
      3.80469253e-004 9.79708321e-003 1.90234627e-004 5.96068474e-003
      2.06087506e-003 7.29232701e-003 1.18896635e-002 4.43880796e-004
      2.10843366e-002 4.75586567e-004 8.24350049e-004 1.10970193e-003
      2.45719720e-002 6.97526964e-004 7.92644278e-004 6.34115422e-005
      7.92644278e-004 6.65821193e-004 9.51173133e-004 9.82878846e-004
      1.50602413e-002 1.42675964e-003 4.75586567e-004 1.58528856e-004
      6.65821193e-004 1.26823084e-004 3.17057711e-005 1.26823084e-004
      3.48763482e-004 7.92644278e-004 6.02409651e-004 6.34115422e-005
      4.12175024e-004 1.42675964e-003 6.02409651e-004 1.99746364e-003
      5.70703857e-003 8.87761591e-004 9.51173133e-004 6.34115422e-005
      8.24350049e-004 3.17057711e-005 3.17057711e-005 6.34115422e-005
      1.07799622e-003 3.17057711e-005 1.58528856e-004 0. 1.90234627e-004
      1.26823084e-004 3.17057711e-005 3.17057711e-005 1.04629039e-003
      7.92644278e-004 7.60938507e-004 6.34115422e-005 6.02409651e-004
      3.17057711e-005 6.34115422e-005 1.58528856e-004 5.70703880e-004
      7.92644278e-004 5.38998109e-004 9.51173133e-005 6.97526964e-004
      9.19467362e-004 2.21940398e-004 1.17311347e-003 3.80469253e-003
      1.15726059e-002 2.35573873e-002 1.10970193e-003 3.39885876e-002
      7.29232735e-004 4.12175024e-004 5.70703880e-004 9.98731796e-003
      9.19467362e-004 1.17311347e-003 3.17057711e-005 1.07799622e-003
      6.02409651e-004 5.38998109e-004 9.19467362e-004 6.84844656e-003
      1.29993656e-003 7.92644278e-004 6.34115422e-005 3.17057711e-004
      6.34115422e-005 0. 1.58528856e-004 1.58528856e-004 6.65821193e-004
      5.38998109e-004 6.34115422e-005 4.75586567e-004 4.75586567e-004
      3.48763482e-004 6.02409651e-004 2.47305003e-003 2.73620803e-002
      4.13126200e-002 1.07799622e-003 1.73430573e-002 4.75586567e-004
      4.43880796e-004 8.87761591e-004 6.84844656e-003 1.29993656e-003
      1.61699427e-003 1.58528856e-004 8.24350049e-004 8.56055820e-004
      9.51173133e-004 1.83893472e-003 7.41915032e-003 4.44514900e-002
      1.11287255e-002 1.68040581e-003 5.70703857e-003 6.02409651e-004
      1.58528856e-004 8.56055820e-004 1.90234627e-003 1.71845276e-002
      4.85098269e-003 6.65821193e-004 4.53392509e-003 5.92897926e-003
      2.25110981e-003 7.10209273e-003 1.37285991e-002</_>
    <_>
      5.41534573e-002 9.86049417e-003 6.49968302e-003 1.10653136e-002
      6.65821182e-003 6.97526964e-004 1.07482560e-002 2.09258087e-002
      7.03868084e-003 1.14140776e-003 7.29232735e-004 9.19467362e-004
      1.16994297e-002 1.10970193e-003 4.19784412e-002 5.89410290e-002
      1.00507289e-002 6.97526964e-004 9.19467362e-004 5.07292338e-004
      5.70703880e-004 3.17057711e-005 1.23652501e-003 6.02409651e-004
      1.19530754e-002 6.97526964e-004 8.56055820e-004 3.80469253e-004
      2.09575146e-002 4.43880796e-004 6.09701984e-002 1.51553582e-002
      6.94356393e-003 1.10970193e-003 7.92644278e-004 7.60938507e-004
      4.75586567e-004 6.34115422e-005 7.29232735e-004 5.07292338e-004
      9.51173133e-004 3.17057711e-005 3.17057711e-005 1.58528856e-004
      8.24350049e-004 6.34115422e-005 1.07799622e-003 1.71211164e-003
      1.21750161e-002 4.43880796e-004 6.65821193e-004 5.38998109e-004
      6.02409651e-004 0. 6.02409651e-004 3.48763482e-004 1.92136969e-002
      4.43880796e-004 8.87761591e-004 4.43880796e-004 2.16233358e-002
      3.48763482e-004 1.56309456e-002 5.73874451e-003 6.37285970e-003
      8.24350049e-004 4.43880796e-004 8.56055820e-004 5.38998109e-004 0.
      5.70703880e-004 5.38998109e-004 4.43880796e-004 3.17057711e-005 0.
      0. 3.48763482e-004 3.17057711e-005 6.02409651e-004 3.80469253e-004
      6.65821193e-004 6.34115422e-005 0. 3.17057711e-005 3.17057711e-005
      0. 0. 6.34115422e-005 7.92644278e-004 0. 3.17057711e-005 0.
      3.80469253e-004 0. 4.43880796e-004 1.26823084e-004 1.06848450e-002
      9.82878846e-004 4.75586567e-004 5.38998109e-004 4.12175024e-004 0.
      6.02409651e-004 2.85351940e-004 9.82878846e-004 3.17057711e-005 0.
      3.17057711e-005 8.56055820e-004 3.17057711e-005 1.01458468e-003
      6.97526964e-004 2.25745086e-002 3.80469253e-004 6.65821193e-004
      4.12175024e-004 3.17057711e-004 3.17057711e-005 5.70703880e-004
      2.53646169e-004 2.57133804e-002 2.53646169e-004 1.01458468e-003
      1.90234627e-004 9.03614424e-003 1.58528856e-004 5.58021571e-003
      2.09258078e-003 7.03868084e-003 1.16677238e-002 5.70703880e-004
      1.89600512e-002 3.48763482e-004 5.70703880e-004 1.04629039e-003
      2.00380478e-002 6.97526964e-004 6.34115422e-004 6.34115422e-005
      1.01458468e-003 8.56055820e-004 8.87761591e-004 1.20481930e-003
      1.56943556e-002 1.10970193e-003 6.34115422e-004 9.51173133e-005
      3.48763482e-004 6.34115422e-005 0. 1.58528856e-004 3.80469253e-004
      1.01458468e-003 5.07292338e-004 1.58528856e-004 4.75586567e-004
      1.01458468e-003 4.75586567e-004 1.64870010e-003 5.42168692e-003
      7.60938507e-004 9.51173133e-004 6.34115422e-005 6.65821193e-004
      3.17057711e-005 0. 3.17057711e-005 5.07292338e-004 3.17057711e-005
      6.34115422e-005 0. 1.26823084e-004 3.17057711e-005 0.
      1.90234627e-004 1.14140776e-003 8.24350049e-004 3.80469253e-004
      1.58528856e-004 5.70703880e-004 0. 0. 3.17057711e-005
      2.85351940e-004 9.82878846e-004 6.02409651e-004 1.26823084e-004
      8.24350049e-004 6.65821193e-004 2.53646169e-004 5.70703880e-004
      3.07545974e-003 1.09701967e-002 2.12428663e-002 9.19467362e-004
      2.80913133e-002 4.75586567e-004 3.17057711e-004 7.92644278e-004
      8.05326551e-003 9.82878846e-004 9.82878846e-004 1.26823084e-004
      1.14140776e-003 4.12175024e-004 4.75586567e-004 8.56055820e-004
      6.30944828e-003 1.14140776e-003 4.12175024e-004 6.34115422e-005
      4.43880796e-004 9.51173133e-005 0. 6.34115422e-005 1.26823084e-004
      7.92644278e-004 3.48763482e-004 3.17057711e-005 1.26823084e-004
      3.80469253e-004 4.12175024e-004 8.24350049e-004 1.90234627e-003
      3.10399495e-002 4.62587178e-002 1.20481930e-003 1.49651235e-002
      7.60938507e-004 2.21940398e-004 9.19467362e-004 6.18262542e-003
      1.14140776e-003 1.36334810e-003 2.21940398e-004 6.34115422e-004
      9.82878846e-004 6.34115422e-004 1.83893472e-003 7.13379821e-003
      4.99048829e-002 1.16994297e-002 1.55358273e-003 4.15345607e-003
      3.80469253e-004 1.26823084e-004 3.80469253e-004 1.77552318e-003
      1.56309456e-002 4.21686750e-003 9.19467362e-004 3.10716545e-003
      4.43880772e-003 1.68040581e-003 6.75332919e-003 1.20798983e-002</_>
    <_>
      5.37412800e-002 1.15091950e-002 6.53138850e-003 1.21433102e-002
      5.83386188e-003 9.19467362e-004 9.73367132e-003 1.82942301e-002
      5.58021571e-003 9.82878846e-004 4.12175024e-004 6.97526964e-004
      8.18008836e-003 1.55358273e-003 2.50475593e-002 3.96005064e-002
      1.10970195e-002 5.38998109e-004 1.01458468e-003 6.02409651e-004
      8.24350049e-004 0. 1.23652501e-003 4.43880796e-004 1.12555483e-002
      4.12175024e-004 6.97526964e-004 3.48763482e-004 1.72162335e-002
      7.29232735e-004 3.84273939e-002 1.15091950e-002 7.38744438e-003
      8.56055820e-004 5.38998109e-004 1.04629039e-003 5.38998109e-004
      6.34115422e-005 6.65821193e-004 1.01458468e-003 8.56055820e-004
      3.17057711e-005 6.34115422e-005 6.34115422e-005 8.56055820e-004
      1.90234627e-004 8.24350049e-004 1.87064044e-003 1.31261889e-002
      6.97526964e-004 1.01458468e-003 7.29232735e-004 4.43880796e-004 0.
      7.60938507e-004 5.38998109e-004 2.20355112e-002 4.43880796e-004
      9.82878846e-004 3.48763482e-004 2.36842111e-002 3.17057711e-004
      1.30627770e-002 5.54850977e-003 8.21179431e-003 8.56055820e-004
      3.48763482e-004 9.82878846e-004 2.53646169e-004 0. 3.80469253e-004
      5.38998109e-004 6.97526964e-004 0. 0. 0. 4.12175024e-004
      3.17057711e-005 4.12175024e-004 2.21940398e-004 8.24350049e-004 0.
      0. 0. 3.17057711e-005 3.17057711e-005 1.26823084e-004 0.
      9.19467362e-004 0. 6.34115422e-005 0. 5.70703880e-004 0.
      2.85351940e-004 9.51173133e-005 1.22067221e-002 1.23652501e-003
      7.60938507e-004 8.87761591e-004 4.43880796e-004 0. 6.02409651e-004
      6.34115422e-004 1.07799622e-003 2.21940398e-004 9.51173133e-005
      6.34115422e-005 6.02409651e-004 1.90234627e-004 7.29232735e-004
      8.87761591e-004 2.28281543e-002 3.17057711e-004 1.04629039e-003
      4.43880796e-004 4.12175024e-004 0. 4.75586567e-004 2.85351940e-004
      3.59226391e-002 3.80469253e-004 1.26823084e-003 3.80469253e-004
      1.20164873e-002 2.21940398e-004 6.43627159e-003 2.47305003e-003
      8.46544094e-003 1.43310083e-002 9.19467362e-004 2.63157897e-002
      6.97526964e-004 7.60938507e-004 1.61699427e-003 2.70450227e-002
      6.34115422e-004 8.24350049e-004 0. 1.10970193e-003 6.65821193e-004
      6.97526964e-004 1.07799622e-003 1.44261252e-002 9.51173133e-004
      5.70703880e-004 1.58528856e-004 6.02409651e-004 9.51173133e-005 0.
      2.53646169e-004 3.48763482e-004 1.07799622e-003 4.75586567e-004
      9.51173133e-005 3.48763482e-004 1.26823084e-003 6.02409651e-004
      1.23652501e-003 4.53392509e-003 6.02409651e-004 1.07799622e-003
      6.34115422e-005 1.45846547e-003 6.34115422e-005 3.17057711e-005
      6.34115422e-005 1.23652501e-003 6.34115422e-005 1.90234627e-004
      3.17057711e-005 3.17057711e-005 0. 6.34115422e-005 3.17057711e-005
      1.07799622e-003 6.34115422e-004 6.02409651e-004 9.51173133e-005
      7.60938507e-004 9.51173133e-005 3.17057711e-005 3.17057711e-005
      4.43880796e-004 7.92644278e-004 5.70703880e-004 3.17057711e-005
      6.34115422e-004 1.17311347e-003 3.48763482e-004 8.87761591e-004
      3.93151538e-003 1.30627770e-002 2.82498412e-002 1.26823084e-003
      4.51807231e-002 5.07292338e-004 4.43880796e-004 6.65821193e-004
      1.27457194e-002 1.14140776e-003 1.04629039e-003 3.17057711e-005
      1.10970193e-003 7.60938507e-004 7.60938507e-004 8.56055820e-004
      7.03868084e-003 1.01458468e-003 5.07292338e-004 1.58528856e-004
      5.38998109e-004 6.34115422e-005 3.17057711e-005 1.58528856e-004
      2.85351940e-004 1.04629039e-003 5.07292338e-004 1.26823084e-004
      5.38998109e-004 5.07292338e-004 3.17057711e-004 6.97526964e-004
      2.44134432e-003 2.52377931e-002 3.91883329e-002 1.10970193e-003
      2.05770452e-002 6.02409651e-004 7.60938507e-004 7.92644278e-004
      6.37285970e-003 1.26823084e-003 1.42675964e-003 1.26823084e-004
      9.51173133e-004 7.60938507e-004 1.29993656e-003 2.12428672e-003
      8.46544094e-003 3.63665186e-002 1.07799619e-002 1.64870010e-003
      5.86556736e-003 4.12175024e-004 1.58528856e-004 1.17311347e-003
      2.18769815e-003 1.60748251e-002 5.35827503e-003 7.60938507e-004
      5.32656955e-003 5.99239068e-003 1.74381735e-003 8.05326551e-003
      1.42993024e-002</_>
    <_>
      5.12365252e-002 1.15409000e-002 6.49968302e-003 1.25871906e-002
      5.51680429e-003 8.24350049e-004 1.07482560e-002 2.17501577e-002
      5.86556736e-003 1.07799622e-003 6.02409651e-004 6.34115422e-004
      1.06214331e-002 1.36334810e-003 3.04375403e-002 4.22003791e-002
      1.04311984e-002 7.29232735e-004 8.56055820e-004 6.02409651e-004
      9.82878846e-004 0. 1.39505393e-003 5.38998109e-004 1.06848450e-002
      6.34115422e-004 7.92644278e-004 8.24350049e-004 1.92454029e-002
      6.02409651e-004 3.82688642e-002 1.34749524e-002 7.00697536e-003
      9.19467362e-004 4.43880796e-004 6.65821193e-004 4.12175024e-004
      9.51173133e-005 9.51173133e-004 1.20481930e-003 8.87761591e-004
      9.51173133e-005 6.34115422e-005 1.26823084e-004 8.24350049e-004
      2.53646169e-004 1.01458468e-003 1.61699427e-003 1.14457831e-002
      4.75586567e-004 7.29232735e-004 4.75586567e-004 6.02409651e-004 0.
      1.10970193e-003 2.85351940e-004 1.99429300e-002 4.12175024e-004
      8.24350049e-004 5.07292338e-004 2.08941028e-002 3.48763482e-004
      1.48383006e-002 6.21433090e-003 7.89473671e-003 1.10970193e-003
      6.34115422e-004 6.34115422e-004 5.07292338e-004 3.17057711e-005
      4.43880796e-004 5.07292338e-004 7.29232735e-004 0. 9.51173133e-005
      0. 5.38998109e-004 0. 7.29232735e-004 4.75586567e-004
      7.92644278e-004 3.17057711e-005 6.34115422e-005 3.17057711e-005
      3.17057711e-005 0. 9.51173133e-005 0. 6.97526964e-004
      3.17057711e-005 3.17057711e-005 3.17057711e-005 3.80469253e-004 0.
      5.07292338e-004 3.17057711e-005 1.23335449e-002 1.64870010e-003
      6.97526964e-004 7.29232735e-004 4.43880796e-004 6.34115422e-005
      5.07292338e-004 5.07292338e-004 7.60938507e-004 6.34115422e-005
      1.26823084e-004 3.17057711e-005 7.29232735e-004 9.51173133e-005
      5.07292338e-004 8.56055820e-004 2.30500959e-002 3.80469253e-004
      1.07799622e-003 5.70703880e-004 3.80469253e-004 0. 5.70703880e-004
      2.85351940e-004 3.37983519e-002 3.17057711e-004 1.49017118e-003
      4.75586567e-004 9.60684847e-003 2.21940398e-004 5.73874451e-003
      1.83893472e-003 7.07038678e-003 1.40773617e-002 6.02409651e-004
      2.54914388e-002 6.65821193e-004 8.56055820e-004 1.07799622e-003
      2.83766650e-002 5.07292338e-004 7.92644278e-004 3.17057711e-005
      1.01458468e-003 7.60938507e-004 9.51173133e-004 1.23652501e-003
      1.72479395e-002 1.20481930e-003 6.97526964e-004 1.58528856e-004
      4.12175024e-004 1.58528856e-004 0. 0. 3.17057711e-004
      9.82878846e-004 5.38998109e-004 3.17057711e-005 5.70703880e-004
      8.24350049e-004 7.92644278e-004 1.77552318e-003 4.21686750e-003
      8.56055820e-004 9.51173133e-004 9.51173133e-005 1.10970193e-003
      1.26823084e-004 1.90234627e-004 1.26823084e-004 1.23652501e-003
      3.17057711e-005 0. 3.17057711e-005 1.26823084e-004 6.34115422e-005
      3.17057711e-005 9.51173133e-005 1.17311347e-003 9.19467362e-004
      7.92644278e-004 9.51173133e-005 7.29232735e-004 6.34115422e-005
      3.17057711e-005 6.34115422e-005 4.12175024e-004 1.14140776e-003
      6.34115422e-004 1.26823084e-004 6.97526964e-004 1.07799622e-003
      3.80469253e-004 8.87761591e-004 4.59733652e-003 1.35383643e-002
      2.63792016e-002 8.87761591e-004 3.98224480e-002 4.12175024e-004
      4.12175024e-004 6.97526964e-004 1.13506662e-002 7.92644278e-004
      1.14140776e-003 0. 1.04629039e-003 4.43880796e-004 6.65821193e-004
      1.20481930e-003 6.46797707e-003 1.23652501e-003 6.97526964e-004
      1.26823084e-004 4.43880796e-004 3.17057711e-005 3.17057711e-005
      9.51173133e-005 2.53646169e-004 7.60938507e-004 5.38998109e-004
      3.17057711e-005 5.70703880e-004 5.38998109e-004 4.75586567e-004
      9.51173133e-004 2.37793289e-003 2.44451482e-002 3.89980972e-002
      1.39505393e-003 2.07672790e-002 7.29232735e-004 4.75586567e-004
      9.82878846e-004 6.56309444e-003 1.17311347e-003 1.99746364e-003
      3.17057711e-005 9.82878846e-004 8.56055820e-004 8.87761591e-004
      2.09258078e-003 8.97273328e-003 3.66518721e-002 1.16360178e-002
      1.71211164e-003 5.61192119e-003 7.60938507e-004 1.90234627e-004
      6.65821193e-004 2.34622695e-003 1.70577038e-002 4.97780601e-003
      6.97526964e-004 4.66074841e-003 5.77044999e-003 1.93405198e-003
      7.22891558e-003 1.37285991e-002</_>
    <_>
      5.09828776e-002 1.11604314e-002 6.40456565e-003 1.24286618e-002
      5.67533309e-003 1.04629039e-003 1.01775527e-002 2.07672790e-002
      5.19974623e-003 1.04629039e-003 3.48763482e-004 5.70703880e-004
      9.48002562e-003 1.01458468e-003 2.57450864e-002 4.13443260e-002
      1.01775527e-002 6.34115422e-004 1.01458468e-003 6.97526964e-004
      6.65821193e-004 6.34115422e-005 1.20481930e-003 4.75586567e-004
      1.00824349e-002 6.34115422e-004 5.38998109e-004 4.43880796e-004
      1.85161699e-002 7.29232735e-004 3.72859873e-002 1.32213067e-002
      6.08750805e-003 9.19467362e-004 5.70703880e-004 1.01458468e-003
      5.07292338e-004 1.26823084e-004 7.29232735e-004 9.19467362e-004
      7.92644278e-004 6.34115422e-005 3.17057711e-005 6.34115422e-005
      6.65821193e-004 1.58528856e-004 1.36334810e-003 1.77552318e-003
      1.07799619e-002 4.75586567e-004 7.60938507e-004 6.02409651e-004
      6.97526964e-004 0. 7.92644278e-004 3.17057711e-004 1.90868732e-002
      6.65821193e-004 8.24350049e-004 6.34115422e-004 1.98478121e-002
      3.80469253e-004 1.42993024e-002 5.64362714e-003 7.89473671e-003
      8.87761591e-004 6.65821193e-004 8.87761591e-004 5.07292338e-004
      3.17057711e-005 4.75586567e-004 5.38998109e-004 6.02409651e-004
      6.34115422e-005 3.17057711e-005 3.17057711e-005 4.12175024e-004
      3.17057711e-005 5.70703880e-004 3.48763482e-004 7.92644278e-004
      3.17057711e-005 0. 0. 0. 0. 3.17057711e-005 3.17057711e-005
      9.82878846e-004 0. 3.17057711e-005 0. 4.75586567e-004
      3.17057711e-005 6.34115422e-004 9.51173133e-005 1.13506662e-002
      1.20481930e-003 8.87761591e-004 9.19467362e-004 6.65821193e-004
      3.17057711e-005 4.43880796e-004 4.75586567e-004 9.19467362e-004
      9.51173133e-005 0. 9.51173133e-005 6.65821193e-004 1.26823084e-004
      9.19467362e-004 7.60938507e-004 2.20989212e-002 6.02409651e-004
      1.17311347e-003 5.70703880e-004 3.48763482e-004 0. 6.02409651e-004
      2.53646169e-004 3.54153439e-002 3.17057711e-004 9.19467362e-004
      2.53646169e-004 9.73367132e-003 1.58528856e-004 6.65821182e-003
      2.72669620e-003 8.30691215e-003 1.47431828e-002 6.97526964e-004
      2.77108438e-002 7.60938507e-004 9.19467362e-004 8.24350049e-004
      3.44958790e-002 3.80469253e-004 8.56055820e-004 3.17057711e-005
      8.56055820e-004 8.24350049e-004 7.92644278e-004 1.45846547e-003
      1.68040581e-002 1.33164239e-003 4.75586567e-004 1.58528856e-004
      6.02409651e-004 3.17057711e-005 3.17057711e-005 1.26823084e-004
      3.17057711e-004 7.92644278e-004 7.29232735e-004 6.34115422e-005
      3.48763482e-004 9.19467362e-004 6.02409651e-004 1.26823084e-003
      4.94610006e-003 5.38998109e-004 8.24350049e-004 3.17057711e-005
      8.24350049e-004 1.26823084e-004 9.51173133e-005 6.34115422e-005
      1.29993656e-003 9.51173133e-005 6.34115422e-005 0. 9.51173133e-005
      3.17057711e-005 9.51173133e-005 6.34115422e-005 1.26823084e-003
      7.60938507e-004 7.92644278e-004 0. 8.56055820e-004 6.34115422e-005
      0. 9.51173133e-005 4.75586567e-004 7.92644278e-004 6.02409651e-004
      6.34115422e-005 9.82878846e-004 1.04629039e-003 3.80469253e-004
      6.65821193e-004 4.09004418e-003 1.21116042e-002 2.82498412e-002
      1.10970193e-003 4.80976552e-002 4.43880796e-004 5.07292338e-004
      8.56055820e-004 1.25237796e-002 6.97526964e-004 1.07799622e-003
      9.51173133e-005 1.10970193e-003 7.60938507e-004 2.85351940e-004
      8.87761591e-004 6.75332919e-003 1.42675964e-003 6.34115422e-004
      1.58528856e-004 3.80469253e-004 0. 0. 1.90234627e-004
      1.58528856e-004 6.65821193e-004 4.75586567e-004 1.58528856e-004
      5.07292338e-004 5.38998109e-004 2.21940398e-004 8.24350049e-004
      2.40963860e-003 2.34939754e-002 3.99175659e-002 1.39505393e-003
      2.06087511e-002 8.56055820e-004 6.02409651e-004 6.97526964e-004
      7.38744438e-003 1.42675964e-003 1.42675964e-003 3.17057711e-005
      1.04629039e-003 7.29232735e-004 1.10970193e-003 1.93405198e-003
      9.06785019e-003 3.32593545e-002 1.03043756e-002 1.83893472e-003
      5.89727331e-003 3.48763482e-004 9.51173133e-005 9.51173133e-004
      2.50475598e-003 1.75649971e-002 5.10462886e-003 8.87761591e-004
      4.28027892e-003 5.96068474e-003 1.99746364e-003 7.54597317e-003
      1.51236523e-002</_>
    <_>
      5.22194058e-002 1.11287255e-002 6.78503467e-003 1.41090676e-002
      5.58021571e-003 7.29232735e-004 1.19530754e-002 2.46670898e-002
      5.99239068e-003 9.19467362e-004 7.29232735e-004 8.56055820e-004
      1.11287255e-002 1.23652501e-003 3.20545323e-002 5.16486987e-002
      9.09955613e-003 4.75586567e-004 8.56055820e-004 7.92644278e-004
      8.87761591e-004 9.51173133e-005 1.45846547e-003 6.34115422e-004
      1.03360815e-002 5.70703880e-004 9.19467362e-004 3.80469253e-004
      1.70577038e-002 4.75586567e-004 4.16613817e-002 1.45529490e-002
      6.53138850e-003 1.10970193e-003 4.12175024e-004 9.82878846e-004
      5.07292338e-004 6.34115422e-005 5.07292338e-004 9.82878846e-004
      8.24350049e-004 2.21940398e-004 3.17057711e-005 1.26823084e-004
      6.97526964e-004 6.34115422e-005 1.39505393e-003 1.80722889e-003
      1.10336086e-002 3.80469253e-004 8.87761591e-004 4.43880796e-004
      8.87761591e-004 3.17057711e-005 9.19467362e-004 4.75586567e-004
      1.71211157e-002 5.07292338e-004 7.60938507e-004 5.70703880e-004
      1.91502851e-002 2.85351940e-004 1.33798355e-002 5.29486360e-003
      8.14838335e-003 1.01458468e-003 6.02409651e-004 6.02409651e-004
      3.17057711e-004 3.17057711e-005 5.38998109e-004 5.07292338e-004
      4.43880796e-004 1.26823084e-004 3.17057711e-005 9.51173133e-005
      2.85351940e-004 3.17057711e-005 6.02409651e-004 3.48763482e-004
      8.56055820e-004 0. 1.26823084e-004 3.17057711e-005 0. 0.
      6.34115422e-005 0. 7.92644278e-004 0. 3.17057711e-005 0.
      4.43880796e-004 0. 4.43880796e-004 6.34115422e-005 1.05580213e-002
      1.20481930e-003 8.56055820e-004 7.29232735e-004 6.34115422e-004
      3.17057711e-005 7.29232735e-004 3.80469253e-004 7.92644278e-004
      1.58528856e-004 1.26823084e-004 3.17057711e-005 6.02409651e-004
      9.51173133e-005 6.65821193e-004 7.29232735e-004 1.99112240e-002
      5.07292338e-004 7.92644278e-004 4.12175024e-004 4.75586567e-004
      6.34115422e-005 5.38998109e-004 2.53646169e-004 2.91693080e-002
      2.85351940e-004 9.51173133e-004 3.80469253e-004 8.56055785e-003
      1.90234627e-004 5.92897926e-003 2.34622695e-003 7.22891558e-003
      1.36651872e-002 9.82878846e-004 2.58719083e-002 4.75586567e-004
      8.87761591e-004 7.92644278e-004 3.10399495e-002 8.56055820e-004
      9.19467362e-004 0. 1.10970193e-003 6.65821193e-004 5.07292338e-004
      1.26823084e-003 1.67723522e-002 8.56055820e-004 6.34115422e-004
      9.51173133e-005 2.85351940e-004 6.34115422e-005 6.34115422e-005
      3.17057711e-005 3.17057711e-004 9.19467362e-004 5.38998109e-004
      1.90234627e-004 4.75586567e-004 6.65821193e-004 3.80469253e-004
      1.83893472e-003 6.11921353e-003 6.02409651e-004 1.17311347e-003
      9.51173133e-005 1.10970193e-003 6.34115422e-005 6.34115422e-005
      3.17057711e-005 8.87761591e-004 3.17057711e-005 3.17057711e-005 0.
      6.34115422e-005 9.51173133e-005 3.17057711e-005 2.21940398e-004
      8.56055820e-004 9.19467362e-004 7.29232735e-004 6.34115422e-005
      6.97526964e-004 6.34115422e-005 0. 3.17057711e-005 4.12175024e-004
      1.10970193e-003 5.70703880e-004 1.90234627e-004 8.24350049e-004
      8.56055820e-004 3.48763482e-004 9.19467362e-004 3.48763471e-003
      1.19213695e-002 2.55231448e-002 9.19467362e-004 3.77298668e-002
      3.17057711e-004 3.48763482e-004 7.92644278e-004 1.16360178e-002
      5.70703880e-004 1.07799622e-003 9.51173133e-005 8.56055820e-004
      6.34115422e-004 5.70703880e-004 1.01458468e-003 7.32403295e-003
      1.23652501e-003 4.43880796e-004 9.51173133e-005 4.75586567e-004
      3.17057711e-005 0. 9.51173133e-005 3.17057711e-005 6.34115422e-004
      4.12175024e-004 6.34115422e-005 4.75586567e-004 2.53646169e-004
      4.43880796e-004 8.24350049e-004 2.21940386e-003 2.58719083e-002
      4.53075469e-002 1.23652501e-003 1.82625242e-002 6.02409651e-004
      4.75586567e-004 9.82878846e-004 6.94356393e-003 1.10970193e-003
      1.42675964e-003 1.90234627e-004 9.19467362e-004 9.51173133e-004
      6.02409651e-004 2.15599244e-003 7.95814861e-003 4.28662002e-002
      1.11604314e-002 1.96575769e-003 5.16804075e-003 4.75586567e-004
      3.17057711e-005 6.97526964e-004 2.18769815e-003 1.54407099e-002
      4.69245389e-003 1.07799622e-003 4.50221961e-003 4.69245389e-003
      2.15599244e-003 6.91185798e-003 1.27457194e-002</_>
    <_>
      4.99048829e-002 1.16994297e-002 6.21433090e-003 1.24920737e-002
      4.88268863e-003 8.24350049e-004 9.63855442e-003 1.89283453e-002
      5.89727331e-003 8.24350049e-004 4.43880796e-004 6.65821193e-004
      8.49714689e-003 9.82878846e-004 2.45719720e-002 4.28027883e-002
      1.01141408e-002 7.92644278e-004 9.82878846e-004 3.80469253e-004
      7.60938507e-004 3.17057711e-005 9.82878846e-004 4.12175024e-004
      9.60684847e-003 5.38998109e-004 5.38998109e-004 4.12175024e-004
      1.40773617e-002 5.38998109e-004 4.03931513e-002 1.23335449e-002
      6.18262542e-003 1.04629039e-003 5.07292338e-004 6.97526964e-004
      6.97526964e-004 6.34115422e-005 7.29232735e-004 1.10970193e-003
      7.92644278e-004 1.26823084e-004 1.26823084e-004 9.51173133e-005
      6.97526964e-004 1.26823084e-004 9.19467362e-004 1.90234627e-003
      1.13823712e-002 6.02409651e-004 7.29232735e-004 5.38998109e-004
      4.43880796e-004 6.34115422e-005 8.56055820e-004 3.17057711e-004
      2.08941028e-002 5.07292338e-004 6.65821193e-004 4.12175024e-004
      2.43500322e-002 9.51173133e-005 1.20481923e-002 4.09004418e-003
      7.70450244e-003 7.92644278e-004 6.34115422e-004 7.29232735e-004
      4.12175024e-004 0. 3.48763482e-004 3.17057711e-004 4.75586567e-004
      0. 3.17057711e-005 6.34115422e-005 2.53646169e-004 6.34115422e-005
      4.75586567e-004 2.85351940e-004 9.19467362e-004 3.17057711e-005 0.
      0. 0. 0. 0. 0. 5.70703880e-004 0. 0. 0. 4.43880796e-004
      3.17057711e-005 2.21940398e-004 1.26823084e-004 1.07482560e-002
      1.10970193e-003 9.82878846e-004 8.87761591e-004 2.53646169e-004
      3.17057711e-005 4.75586567e-004 2.85351940e-004 1.20481930e-003
      6.34115422e-005 6.34115422e-005 3.17057711e-005 5.70703880e-004
      6.34115422e-005 6.34115422e-004 7.92644278e-004 2.10843366e-002
      7.29232735e-004 7.60938507e-004 4.43880796e-004 5.38998109e-004 0.
      7.92644278e-004 2.85351940e-004 3.33227664e-002 2.85351940e-004
      7.29232735e-004 3.17057711e-004 1.03677865e-002 1.90234627e-004
      6.49968302e-003 2.21940386e-003 8.40202905e-003 1.54724158e-002
      1.01458468e-003 2.87254285e-002 5.70703880e-004 5.07292338e-004
      8.87761591e-004 2.96448953e-002 5.07292338e-004 7.60938507e-004
      9.51173133e-005 6.02409651e-004 7.92644278e-004 6.65821193e-004
      1.07799622e-003 1.44261252e-002 1.17311347e-003 2.53646169e-004
      1.90234627e-004 6.34115422e-004 9.51173133e-005 0. 2.21940398e-004
      5.38998109e-004 9.82878846e-004 5.38998109e-004 6.34115422e-005
      4.75586567e-004 6.65821193e-004 4.75586567e-004 1.33164239e-003
      4.69245389e-003 5.38998109e-004 7.29232735e-004 0. 1.14140776e-003
      9.51173133e-005 3.17057711e-005 3.17057711e-005 9.51173133e-004
      6.34115422e-005 3.17057711e-005 0. 0. 9.51173133e-005
      3.17057711e-005 1.58528856e-004 9.51173133e-004 1.10970193e-003
      4.43880796e-004 9.51173133e-005 4.43880796e-004 3.17057711e-005
      3.17057711e-005 1.90234627e-004 2.53646169e-004 8.24350049e-004
      4.12175024e-004 9.51173133e-005 9.82878846e-004 7.92644278e-004
      5.07292338e-004 1.01458468e-003 3.48763471e-003 1.14140771e-002
      3.05009503e-002 1.17311347e-003 5.21876998e-002 7.29232735e-004
      6.34115422e-004 5.07292338e-004 1.47114778e-002 1.01458468e-003
      1.29993656e-003 1.26823084e-004 9.19467362e-004 4.43880796e-004
      5.38998109e-004 7.29232735e-004 7.13379821e-003 1.55358273e-003
      4.75586567e-004 1.90234627e-004 5.70703880e-004 0. 3.17057711e-005
      3.17057711e-005 1.58528856e-004 6.02409651e-004 5.38998109e-004
      9.51173133e-005 4.12175024e-004 6.34115422e-004 4.12175024e-004
      6.65821193e-004 2.25110981e-003 2.67913751e-002 4.71464805e-002
      1.26823084e-003 2.06404570e-002 5.07292338e-004 6.97526964e-004
      9.51173133e-004 7.00697536e-003 1.29993656e-003 1.68040581e-003
      6.34115422e-005 8.56055820e-004 7.29232735e-004 7.92644278e-004
      1.52187701e-003 8.78249854e-003 3.85225117e-002 1.14140771e-002
      1.61699427e-003 6.34115422e-003 4.12175024e-004 9.51173133e-005
      7.92644278e-004 2.21940386e-003 1.60748251e-002 5.58021571e-003
      1.04629039e-003 4.34369035e-003 5.54850977e-003 2.15599244e-003
      7.38744438e-003 1.32847177e-002</_>
    <_>
      5.41851632e-002 1.18262526e-002 6.27774233e-003 1.27774253e-002
      5.45339240e-003 7.29232735e-004 9.82878916e-003 2.03868095e-002
      6.08750805e-003 1.20481930e-003 8.56055820e-004 5.07292338e-004
      8.11667740e-003 1.14140776e-003 2.52694990e-002 4.17564996e-002
      9.44831967e-003 1.01458468e-003 9.19467362e-004 4.43880796e-004
      6.34115422e-004 6.34115422e-005 1.20481930e-003 5.38998109e-004
      9.13126208e-003 4.75586567e-004 6.97526964e-004 4.12175024e-004
      1.50602413e-002 6.34115422e-004 3.73493992e-002 1.22701330e-002
      6.46797707e-003 1.07799622e-003 4.43880796e-004 1.17311347e-003
      5.07292338e-004 6.34115422e-005 6.65821193e-004 8.56055820e-004
      8.24350049e-004 1.26823084e-004 3.17057711e-005 9.51173133e-005
      8.56055820e-004 9.51173133e-005 9.82878846e-004 1.61699427e-003
      1.04946103e-002 5.38998109e-004 9.82878846e-004 4.12175024e-004
      9.19467362e-004 3.17057711e-005 6.97526964e-004 4.43880796e-004
      1.80722885e-002 3.48763482e-004 7.92644278e-004 4.43880796e-004
      1.99429300e-002 1.90234627e-004 1.17311347e-002 4.56563104e-003
      7.13379821e-003 1.10970193e-003 6.02409651e-004 9.19467362e-004
      4.12175024e-004 3.17057711e-005 4.12175024e-004 4.43880796e-004
      3.80469253e-004 0. 6.34115422e-005 0. 3.80469253e-004 0.
      4.12175024e-004 3.80469253e-004 1.10970193e-003 3.17057711e-005
      3.17057711e-005 3.17057711e-005 0. 3.17057711e-005 6.34115422e-005
      3.17057711e-005 8.24350049e-004 3.17057711e-005 3.17057711e-005
      3.17057711e-005 3.48763482e-004 0. 5.38998109e-004 1.90234627e-004
      1.11287255e-002 1.26823084e-003 1.07799622e-003 8.56055820e-004
      6.02409651e-004 0. 5.38998109e-004 5.38998109e-004 1.01458468e-003
      9.51173133e-005 6.34115422e-005 9.51173133e-005 6.34115422e-004
      6.34115422e-005 7.92644278e-004 9.19467362e-004 1.84210520e-002
      4.75586567e-004 8.56055820e-004 4.12175024e-004 4.12175024e-004 0.
      4.75586567e-004 5.07292338e-004 3.28471772e-002 4.43880796e-004
      8.56055820e-004 1.26823084e-004 9.92390607e-003 3.17057711e-004
      6.05580211e-003 1.87064044e-003 8.02155957e-003 1.63601767e-002
      1.20481930e-003 3.50665823e-002 6.34115422e-004 1.20481930e-003
      1.26823084e-003 3.58909331e-002 6.34115422e-004 9.82878846e-004
      9.51173133e-005 9.82878846e-004 5.07292338e-004 9.19467362e-004
      1.14140776e-003 1.56309456e-002 9.51173133e-004 5.70703880e-004
      2.53646169e-004 4.43880796e-004 3.17057711e-005 3.17057711e-005
      9.51173133e-005 5.70703880e-004 7.60938507e-004 3.48763482e-004
      3.17057711e-005 5.07292338e-004 8.24350049e-004 3.80469253e-004
      1.55358273e-003 4.09004418e-003 6.02409651e-004 9.51173133e-004
      9.51173133e-005 1.10970193e-003 3.17057711e-005 6.34115422e-005
      6.34115422e-005 1.29993656e-003 6.34115422e-005 0. 0.
      9.51173133e-005 3.17057711e-005 9.51173133e-005 1.26823084e-004
      8.24350049e-004 9.51173133e-004 7.92644278e-004 1.26823084e-004
      7.29232735e-004 3.17057711e-005 0. 9.51173133e-005 3.80469253e-004
      7.92644278e-004 6.65821193e-004 3.17057711e-005 6.34115422e-004
      7.92644278e-004 3.80469253e-004 6.65821193e-004 3.42422328e-003
      1.29676601e-002 2.85986047e-002 8.87761591e-004 5.39315157e-002
      6.65821193e-004 7.92644278e-004 8.56055820e-004 1.53455930e-002
      8.56055820e-004 9.51173133e-004 1.58528856e-004 9.82878846e-004
      3.80469253e-004 6.34115422e-004 7.92644278e-004 7.64109055e-003
      1.39505393e-003 5.07292338e-004 9.51173133e-005 5.38998109e-004
      3.17057711e-005 0. 1.26823084e-004 9.51173133e-005 1.17311347e-003
      4.43880796e-004 6.34115422e-005 4.43880796e-004 2.53646169e-004
      3.48763482e-004 7.60938507e-004 2.28281552e-003 2.35256813e-002
      4.30564359e-002 1.45846547e-003 2.00697519e-002 8.56055820e-004
      4.12175024e-004 9.82878846e-004 7.86303077e-003 1.23652501e-003
      1.45846547e-003 1.26823084e-004 9.51173133e-004 7.60938507e-004
      9.82878846e-004 1.36334810e-003 9.13126208e-003 3.28788832e-002
      1.06848450e-002 2.44134432e-003 5.89727331e-003 3.17057711e-004
      1.26823084e-004 9.82878846e-004 2.59987311e-003 1.42993024e-002
      5.32656955e-003 1.23652501e-003 5.07292338e-003 5.23145217e-003
      1.80722889e-003 6.72162324e-003 1.42993024e-002</_>
    <_>
      5.30754589e-002 1.07799619e-002 6.62650587e-003 1.45846540e-002
      5.99239068e-003 7.60938507e-004 1.16043119e-002 2.68864930e-002
      5.86556736e-003 1.04629039e-003 5.07292338e-004 4.75586567e-004
      9.48002562e-003 1.39505393e-003 2.91376039e-002 4.74318340e-002
      9.35320184e-003 6.02409651e-004 7.92644278e-004 6.97526964e-004
      7.60938507e-004 6.34115422e-005 1.10970193e-003 7.29232735e-004
      9.95561201e-003 5.70703880e-004 9.51173133e-004 7.92644278e-004
      1.52504751e-002 3.80469253e-004 3.63348126e-002 1.44578312e-002
      6.91185798e-003 8.56055820e-004 7.60938507e-004 1.01458468e-003
      3.80469253e-004 6.34115422e-005 6.02409651e-004 6.97526964e-004
      4.43880796e-004 1.26823084e-004 3.17057711e-005 6.34115422e-005
      6.65821193e-004 1.26823084e-004 1.10970193e-003 1.61699427e-003
      1.02092577e-002 6.97526964e-004 7.92644278e-004 4.43880796e-004
      6.34115422e-004 0. 5.70703880e-004 4.43880796e-004 1.49017125e-002
      3.17057711e-004 7.29232735e-004 4.75586567e-004 1.72796454e-002
      5.07292338e-004 1.23335449e-002 4.88268863e-003 8.75079259e-003
      1.04629039e-003 3.48763482e-004 7.92644278e-004 4.43880796e-004 0.
      4.43880796e-004 3.17057711e-004 6.34115422e-004 3.17057711e-005
      6.34115422e-005 6.34115422e-005 3.17057711e-004 0. 4.75586567e-004
      7.60938507e-004 1.01458468e-003 0. 3.17057711e-005 3.17057711e-005
      0. 3.17057711e-005 6.34115422e-005 0. 9.19467362e-004 0.
      3.17057711e-005 6.34115422e-005 2.53646169e-004 0. 4.75586567e-004
      2.21940398e-004 9.79708321e-003 1.42675964e-003 4.75586567e-004
      1.17311347e-003 5.38998109e-004 3.17057711e-005 6.02409651e-004
      6.02409651e-004 8.24350049e-004 3.17057711e-005 3.17057711e-005
      3.17057711e-005 6.65821193e-004 1.26823084e-004 4.12175024e-004
      5.07292338e-004 2.01648697e-002 5.07292338e-004 6.97526964e-004
      2.85351940e-004 6.34115422e-004 0. 5.07292338e-004 4.12175024e-004
      3.06911860e-002 3.48763482e-004 9.51173133e-004 3.48763482e-004
      7.73620792e-003 1.58528856e-004 5.42168692e-003 2.06087506e-003
      8.56055785e-003 1.52187701e-002 9.19467362e-004 3.11350673e-002
      8.87761591e-004 6.65821193e-004 1.14140776e-003 3.66201662e-002
      6.65821193e-004 8.24350049e-004 9.51173133e-005 9.19467362e-004
      6.34115422e-004 7.29232735e-004 1.33164239e-003 1.85161699e-002
      9.82878846e-004 6.02409651e-004 1.26823084e-004 6.34115422e-004
      9.51173133e-005 3.17057711e-005 9.51173133e-005 3.80469253e-004
      5.70703880e-004 3.80469253e-004 9.51173133e-005 4.43880796e-004
      9.82878846e-004 3.80469253e-004 1.64870010e-003 5.67533309e-003
      7.60938507e-004 8.87761591e-004 0. 1.52187701e-003 3.17057711e-005
      1.58528856e-004 3.17057711e-005 9.19467362e-004 1.58528856e-004
      1.58528856e-004 0. 9.51173133e-005 3.17057711e-005 6.34115422e-005
      6.34115422e-005 1.04629039e-003 8.56055820e-004 5.38998109e-004
      1.26823084e-004 7.29232735e-004 0. 0. 6.34115422e-005
      6.34115422e-004 6.65821193e-004 6.34115422e-004 0. 6.34115422e-004
      9.19467362e-004 3.48763482e-004 7.60938507e-004 3.67786945e-003
      1.32213067e-002 2.74571981e-002 1.17311347e-003 4.48319577e-002
      3.48763482e-004 6.65821193e-004 6.65821193e-004 1.26188966e-002
      8.56055820e-004 8.87761591e-004 1.58528856e-004 1.29993656e-003
      4.12175024e-004 5.70703880e-004 1.10970193e-003 7.54597317e-003
      9.19467362e-004 5.70703880e-004 1.58528856e-004 5.07292338e-004 0.
      0. 0. 2.53646169e-004 7.29232735e-004 4.12175024e-004
      3.17057711e-005 4.12175024e-004 4.12175024e-004 5.07292338e-004
      9.51173133e-004 2.40963860e-003 2.59670261e-002 4.38173749e-002
      1.61699427e-003 2.04819273e-002 4.75586567e-004 3.17057711e-004
      1.04629039e-003 7.07038678e-003 1.36334810e-003 1.58528856e-003
      1.26823084e-004 8.24350049e-004 8.56055820e-004 8.24350049e-004
      1.74381735e-003 8.24350026e-003 3.68421040e-002 1.05897272e-002
      1.58528856e-003 5.73874451e-003 3.48763482e-004 9.51173133e-005
      6.97526964e-004 1.93405198e-003 1.43627143e-002 4.53392509e-003
      1.01458468e-003 4.43880772e-003 4.47051367e-003 1.74381735e-003
      5.89727331e-003 1.37603041e-002</_>
    <_>
      5.68801537e-002 1.10336086e-002 6.53138850e-003 1.21116042e-002
      5.83386188e-003 8.87761591e-004 1.01141408e-002 1.80088785e-002
      6.62650587e-003 1.17311347e-003 5.70703880e-004 8.24350049e-004
      9.86049417e-003 1.39505393e-003 2.70133168e-002 3.82688642e-002
      1.19213695e-002 6.02409651e-004 1.10970193e-003 5.38998109e-004
      5.70703880e-004 0. 1.52187701e-003 3.17057711e-004 1.19530754e-002
      5.70703880e-004 6.65821193e-004 4.75586567e-004 1.79771725e-002
      4.75586567e-004 3.71908695e-002 1.04629043e-002 8.46544094e-003
      9.51173133e-004 8.24350049e-004 8.24350049e-004 8.87761591e-004
      9.51173133e-005 7.92644278e-004 1.10970193e-003 1.14140776e-003
      6.34115422e-005 0. 9.51173133e-005 8.56055820e-004 1.26823084e-004
      1.29993656e-003 1.74381735e-003 1.36968931e-002 5.38998109e-004
      1.04629039e-003 6.02409651e-004 7.60938507e-004 0. 8.24350049e-004
      3.48763482e-004 2.68547870e-002 5.38998109e-004 7.29232735e-004
      4.12175024e-004 2.61255540e-002 3.17057711e-004 1.39505388e-002
      5.07292338e-003 8.97273328e-003 8.87761591e-004 5.38998109e-004
      9.19467362e-004 5.07292338e-004 3.17057711e-005 5.38998109e-004
      2.85351940e-004 6.65821193e-004 6.34115422e-005 6.34115422e-005 0.
      5.38998109e-004 6.34115422e-005 5.07292338e-004 5.07292338e-004
      1.07799622e-003 9.51173133e-005 6.34115422e-005 0. 6.34115422e-005
      0. 9.51173133e-005 0. 9.51173133e-004 3.17057711e-005
      3.17057711e-005 3.17057711e-005 3.80469253e-004 0. 4.43880796e-004
      6.34115422e-005 1.29042482e-002 1.58528856e-003 9.19467362e-004
      1.07799622e-003 4.43880796e-004 3.17057711e-005 4.12175024e-004
      5.38998109e-004 1.07799622e-003 1.58528856e-004 6.34115422e-005
      3.17057711e-005 7.29232735e-004 6.34115422e-005 9.82878846e-004
      7.92644278e-004 2.47622076e-002 4.12175024e-004 9.82878846e-004
      2.85351940e-004 7.60938507e-004 6.34115422e-005 6.97526964e-004
      4.12175024e-004 3.77932787e-002 4.43880796e-004 1.29993656e-003
      2.85351940e-004 1.24603678e-002 2.53646169e-004 6.59480039e-003
      2.31452123e-003 8.21179431e-003 1.37920100e-002 7.29232735e-004
      2.41280906e-002 7.60938507e-004 7.60938507e-004 7.29232735e-004
      2.25428026e-002 8.24350049e-004 6.97526964e-004 9.51173133e-005
      8.24350049e-004 8.24350049e-004 8.87761591e-004 1.01458468e-003
      1.41724795e-002 1.29993656e-003 4.75586567e-004 1.90234627e-004
      6.02409651e-004 1.58528856e-004 0. 1.26823084e-004 3.80469253e-004
      1.20481930e-003 4.75586567e-004 3.17057711e-005 4.75586567e-004
      1.20481930e-003 5.70703880e-004 1.68040581e-003 4.56563104e-003
      7.29232735e-004 1.14140776e-003 1.26823084e-004 1.17311347e-003
      3.17057711e-005 9.51173133e-005 9.51173133e-005 1.14140776e-003
      1.26823084e-004 6.34115422e-005 3.17057711e-005 6.34115422e-005
      9.51173133e-005 1.58528856e-004 6.34115422e-005 1.17311347e-003
      9.82878846e-004 6.34115422e-004 1.26823084e-004 5.38998109e-004
      6.34115422e-005 6.34115422e-005 1.26823084e-004 2.85351940e-004
      8.24350049e-004 6.65821193e-004 1.58528856e-004 7.92644278e-004
      1.01458468e-003 3.80469253e-004 8.56055820e-004 4.09004418e-003
      1.33481296e-002 2.61572599e-002 8.24350049e-004 3.94102745e-002
      2.53646169e-004 3.17057711e-004 6.97526964e-004 1.09384907e-002
      1.14140776e-003 1.26823084e-003 9.51173133e-005 1.33164239e-003
      7.60938507e-004 7.29232735e-004 7.92644278e-004 5.99239068e-003
      1.04629039e-003 6.34115422e-004 1.58528856e-004 5.70703880e-004
      3.17057711e-005 0. 1.26823084e-004 1.26823084e-004 1.01458468e-003
      6.97526964e-004 1.26823084e-004 4.75586567e-004 6.34115422e-004
      2.53646169e-004 1.01458468e-003 1.68040581e-003 2.61255540e-002
      3.33861746e-002 1.33164239e-003 1.81357004e-002 5.70703880e-004
      5.38998109e-004 9.19467362e-004 6.11921353e-003 1.64870010e-003
      1.52187701e-003 2.21940398e-004 1.07799622e-003 1.07799622e-003
      7.60938507e-004 1.99746364e-003 7.19721010e-003 3.76981609e-002
      1.06214331e-002 1.74381735e-003 5.70703857e-003 4.12175024e-004
      1.58528856e-004 9.51173133e-004 1.87064044e-003 1.63601767e-002
      5.48509834e-003 9.82878846e-004 4.72415984e-003 6.72162324e-003
      1.74381735e-003 7.70450244e-003 1.48383006e-002</_>
    <_>
      4.97780591e-002 1.10019026e-002 6.24603685e-003 1.03994925e-002
      6.11921353e-003 7.92644278e-004 9.51173156e-003 1.98795181e-002
      6.30944828e-003 9.51173133e-004 6.34115422e-004 7.60938507e-004
      1.03360815e-002 1.52187701e-003 2.74889022e-002 4.00126837e-002
      1.04946103e-002 6.02409651e-004 7.29232735e-004 4.12175024e-004
      5.70703880e-004 3.17057711e-005 1.55358273e-003 4.75586567e-004
      1.17628407e-002 4.12175024e-004 8.24350049e-004 5.70703880e-004
      2.12745722e-002 4.43880796e-004 4.28344943e-002 1.32847177e-002
      6.62650587e-003 4.75586567e-004 8.87761591e-004 1.04629039e-003
      4.75586567e-004 6.34115422e-005 7.92644278e-004 1.14140776e-003
      6.34115422e-004 2.21940398e-004 6.34115422e-005 6.34115422e-005
      6.65821193e-004 9.51173133e-005 1.55358273e-003 1.55358273e-003
      1.37285991e-002 7.29232735e-004 8.56055820e-004 5.70703880e-004
      7.60938507e-004 6.34115422e-005 7.92644278e-004 5.70703880e-004
      2.35890932e-002 5.38998109e-004 7.60938507e-004 4.75586567e-004
      3.08814198e-002 4.43880796e-004 1.65187065e-002 5.96068474e-003
      8.40202905e-003 8.24350049e-004 5.07292338e-004 6.34115422e-004
      3.80469253e-004 0. 4.75586567e-004 5.38998109e-004 5.07292338e-004
      6.34115422e-005 9.51173133e-005 0. 3.80469253e-004 0.
      5.70703880e-004 3.80469253e-004 8.24350049e-004 3.17057711e-005
      6.34115422e-005 3.17057711e-005 0. 0. 3.17057711e-005 0.
      9.19467362e-004 3.17057711e-005 0. 3.17057711e-005 4.12175024e-004
      3.17057711e-005 5.38998109e-004 3.17057711e-004 1.16994297e-002
      1.36334810e-003 6.65821193e-004 1.07799622e-003 5.07292338e-004 0.
      4.75586567e-004 4.75586567e-004 1.01458468e-003 2.21940398e-004
      3.17057711e-005 6.34115422e-005 7.29232735e-004 3.17057711e-005
      9.51173133e-004 9.82878846e-004 2.50475593e-002 6.02409651e-004
      9.19467362e-004 3.80469253e-004 5.70703880e-004 3.17057711e-005
      7.92644278e-004 2.85351940e-004 3.84590998e-002 5.07292338e-004
      1.17311347e-003 3.48763482e-004 1.17311347e-002 2.53646169e-004
      6.40456565e-003 1.99746364e-003 6.81674061e-003 1.23335449e-002
      4.43880796e-004 2.05136333e-002 6.34115422e-004 9.82878846e-004
      7.29232735e-004 2.33037416e-002 8.24350049e-004 8.87761591e-004
      1.26823084e-004 9.82878846e-004 8.87761591e-004 8.87761591e-004
      1.39505393e-003 1.54407099e-002 1.04629039e-003 4.75586567e-004
      9.51173133e-005 4.43880796e-004 1.26823084e-004 1.26823084e-004
      1.26823084e-004 2.85351940e-004 1.14140776e-003 6.97526964e-004
      3.17057711e-005 5.07292338e-004 9.51173133e-004 6.34115422e-004
      1.83893472e-003 4.97780601e-003 9.19467362e-004 7.29232735e-004
      1.58528856e-004 1.10970193e-003 6.34115422e-005 0. 6.34115422e-005
      7.60938507e-004 9.51173133e-005 1.58528856e-004 3.17057711e-005
      6.34115422e-005 6.34115422e-005 1.58528856e-004 2.53646169e-004
      9.51173133e-004 5.70703880e-004 3.48763482e-004 1.90234627e-004
      6.65821193e-004 3.17057711e-005 3.17057711e-005 9.51173133e-005
      5.38998109e-004 9.51173133e-004 6.34115422e-004 9.51173133e-005
      5.70703880e-004 1.04629039e-003 3.17057711e-004 1.14140776e-003
      3.70957516e-003 1.15409000e-002 2.33671535e-002 8.87761591e-004
      3.79518084e-002 4.12175024e-004 4.12175024e-004 7.60938507e-004
      1.00824349e-002 8.24350049e-004 1.07799622e-003 6.34115422e-005
      1.20481930e-003 8.24350049e-004 6.02409651e-004 8.24350049e-004
      6.43627159e-003 1.36334810e-003 5.70703880e-004 1.26823084e-004
      3.17057711e-004 6.34115422e-005 3.17057711e-005 1.58528856e-004
      2.53646169e-004 1.10970193e-003 6.34115422e-004 0. 5.07292338e-004
      5.07292338e-004 2.21940398e-004 8.56055820e-004 2.06087506e-003
      2.55548507e-002 3.70323397e-002 1.14140776e-003 1.74381733e-002
      5.70703880e-004 3.48763482e-004 1.10970193e-003 6.49968302e-003
      1.17311347e-003 1.64870010e-003 6.34115422e-005 8.56055820e-004
      1.01458468e-003 9.82878846e-004 2.12428672e-003 6.75332919e-003
      4.14077379e-002 1.10970195e-002 1.55358273e-003 4.81927721e-003
      5.70703880e-004 1.90234627e-004 8.87761591e-004 2.18769815e-003
      1.87381096e-002 6.46797707e-003 1.07799622e-003 4.50221961e-003
      5.96068474e-003 2.44134432e-003 7.73620792e-003 1.43310083e-002</_>
    <_>
      5.25681674e-002 9.19467304e-003 6.59480039e-003 1.14774890e-002
      5.80215594e-003 7.60938507e-004 1.08116679e-002 1.83259360e-002
      6.59480039e-003 1.33164239e-003 5.70703880e-004 6.65821193e-004
      1.06214331e-002 1.90234627e-003 3.28471772e-002 4.28979062e-002
      1.11604314e-002 8.24350049e-004 9.19467362e-004 5.07292338e-004
      8.56055820e-004 0. 1.23652501e-003 5.38998109e-004 1.31578948e-002
      4.75586567e-004 6.65821193e-004 3.80469253e-004 2.35573873e-002
      5.38998109e-004 4.99365889e-002 1.38237160e-002 7.89473671e-003
      1.17311347e-003 9.19467362e-004 9.51173133e-004 5.38998109e-004 0.
      7.60938507e-004 7.60938507e-004 8.56055820e-004 6.34115422e-005
      1.26823084e-004 3.17057711e-005 1.23652501e-003 9.51173133e-005
      1.49017118e-003 1.45846547e-003 1.38871279e-002 5.07292338e-004
      7.92644278e-004 6.02409651e-004 5.70703880e-004 0. 5.07292338e-004
      5.07292338e-004 2.35890932e-002 4.43880796e-004 6.97526964e-004
      6.02409651e-004 3.34495865e-002 4.75586567e-004 1.73430573e-002
      5.42168692e-003 7.38744438e-003 6.65821193e-004 6.02409651e-004
      7.92644278e-004 2.53646169e-004 6.34115422e-005 2.53646169e-004
      4.43880796e-004 7.60938507e-004 6.34115422e-005 3.17057711e-005
      3.17057711e-005 4.43880796e-004 6.34115422e-005 4.75586567e-004
      4.12175024e-004 6.34115422e-004 6.34115422e-005 3.17057711e-005 0.
      3.17057711e-005 0. 3.17057711e-005 0. 7.92644278e-004
      3.17057711e-005 9.51173133e-005 0. 5.38998109e-004 3.17057711e-005
      5.38998109e-004 2.53646169e-004 1.31261889e-002 1.17311347e-003
      7.60938507e-004 9.82878846e-004 4.12175024e-004 1.58528856e-004
      8.24350049e-004 4.43880796e-004 1.01458468e-003 9.51173133e-005
      3.17057711e-005 1.58528856e-004 7.29232735e-004 6.34115422e-005
      9.51173133e-004 9.82878846e-004 2.50158533e-002 4.43880796e-004
      1.10970193e-003 3.48763482e-004 4.12175024e-004 0. 4.12175024e-004
      3.17057711e-004 3.47495228e-002 3.17057711e-004 1.14140776e-003
      4.75586567e-004 1.04311984e-002 9.51173133e-005 7.35573890e-003
      2.12428672e-003 6.11921353e-003 1.10653136e-002 6.97526964e-004
      1.81674063e-002 6.97526964e-004 6.02409651e-004 9.51173133e-004
      1.96575783e-002 6.65821193e-004 9.51173133e-004 1.58528856e-004
      5.70703880e-004 7.92644278e-004 7.60938507e-004 9.82878846e-004
      1.46480659e-002 1.20481930e-003 5.70703880e-004 1.58528856e-004
      5.07292338e-004 3.17057711e-005 3.17057711e-005 6.34115422e-005
      2.53646169e-004 1.26823084e-003 2.53646169e-004 3.17057711e-005
      5.38998109e-004 7.29232735e-004 3.80469253e-004 1.80722889e-003
      4.91439458e-003 7.60938507e-004 5.70703880e-004 9.51173133e-005
      7.92644278e-004 1.58528856e-004 3.17057711e-005 6.34115422e-005
      9.51173133e-004 1.90234627e-004 9.51173133e-005 0. 1.26823084e-004
      0. 9.51173133e-005 1.26823084e-004 1.14140776e-003 1.04629039e-003
      6.02409651e-004 6.34115422e-005 5.70703880e-004 6.34115422e-005
      3.17057711e-005 1.58528856e-004 3.17057711e-004 8.24350049e-004
      3.48763482e-004 1.26823084e-004 6.02409651e-004 1.07799622e-003
      4.75586567e-004 7.29232735e-004 4.09004418e-003 1.22701330e-002
      1.99112240e-002 7.92644278e-004 3.21496502e-002 2.53646169e-004
      2.85351940e-004 6.34115422e-004 9.03614424e-003 6.65821193e-004
      6.34115422e-004 3.17057711e-005 7.60938507e-004 6.97526964e-004
      4.43880796e-004 7.92644278e-004 5.99239068e-003 1.07799622e-003
      5.70703880e-004 9.51173133e-005 4.12175024e-004 0. 3.17057711e-005
      6.34115422e-005 2.21940398e-004 6.02409651e-004 4.43880796e-004 0.
      4.75586567e-004 6.34115422e-004 3.80469253e-004 1.01458468e-003
      2.15599244e-003 2.57133804e-002 3.78249846e-002 1.20481930e-003
      1.49334176e-002 3.80469253e-004 4.43880796e-004 8.24350049e-004
      5.64362714e-003 1.07799622e-003 1.55358273e-003 0. 9.19467362e-004
      1.04629039e-003 9.19467362e-004 1.96575769e-003 6.97526941e-003
      4.75586541e-002 1.15726059e-002 1.39505393e-003 5.23145217e-003
      5.07292338e-004 1.26823084e-004 9.19467362e-004 1.61699427e-003
      1.82308182e-002 5.35827503e-003 9.82878846e-004 4.59733652e-003
      6.11921353e-003 1.90234627e-003 7.86303077e-003 1.27140144e-002</_>
    <_>
      4.89537083e-002 1.06531391e-002 5.29486360e-003 1.03677865e-002
      5.19974623e-003 1.10970193e-003 8.90932139e-003 1.66138243e-002
      5.58021571e-003 8.24350049e-004 5.07292338e-004 6.65821193e-004
      9.89220012e-003 1.36334810e-003 2.71718446e-002 3.73493992e-002
      1.16360178e-002 6.02409651e-004 6.02409651e-004 1.90234627e-004
      5.70703880e-004 3.17057711e-005 1.07799622e-003 5.70703880e-004
      1.11604314e-002 5.38998109e-004 6.34115422e-004 2.85351940e-004
      1.68040581e-002 3.80469253e-004 4.17564996e-002 1.34115405e-002
      7.48256175e-003 9.82878846e-004 3.48763482e-004 7.29232735e-004
      6.65821193e-004 0. 5.07292338e-004 8.56055820e-004 6.34115422e-004
      9.51173133e-005 0. 6.34115422e-005 8.56055820e-004 3.17057711e-005
      1.07799622e-003 1.68040581e-003 1.35383643e-002 7.29232735e-004
      6.65821193e-004 5.38998109e-004 5.07292338e-004 6.34115422e-005
      7.29232735e-004 3.80469253e-004 2.72669625e-002 5.07292338e-004
      6.65821193e-004 5.07292338e-004 3.26569453e-002 2.21940398e-004
      1.36334812e-002 4.24857344e-003 7.29232701e-003 9.51173133e-004
      3.48763482e-004 6.97526964e-004 4.43880796e-004 0. 3.48763482e-004
      3.17057711e-004 5.07292338e-004 0. 3.17057711e-005 9.51173133e-005
      3.80469253e-004 9.51173133e-005 4.43880796e-004 3.48763482e-004
      8.56055820e-004 3.17057711e-005 1.26823084e-004 9.51173133e-005
      9.51173133e-005 0. 9.51173133e-005 0. 7.92644278e-004
      3.17057711e-005 3.17057711e-005 3.17057711e-005 2.85351940e-004
      3.17057711e-005 3.48763482e-004 1.26823084e-004 1.26506025e-002
      1.52187701e-003 8.24350049e-004 9.19467362e-004 4.75586567e-004
      6.34115422e-005 5.07292338e-004 5.70703880e-004 8.87761591e-004
      1.26823084e-004 1.58528856e-004 6.34115422e-005 6.97526964e-004
      6.34115422e-005 6.97526964e-004 1.17311347e-003 2.52694990e-002
      4.75586567e-004 8.87761591e-004 2.53646169e-004 3.17057711e-004 0.
      4.75586567e-004 2.53646169e-004 4.59733680e-002 5.07292338e-004
      8.87761591e-004 3.80469253e-004 1.33481296e-002 2.21940398e-004
      6.53138850e-003 2.31452123e-003 6.72162324e-003 1.19530754e-002
      6.34115422e-004 2.26062145e-002 6.97526964e-004 9.82878846e-004
      7.60938507e-004 2.38427389e-002 4.12175024e-004 1.01458468e-003
      1.26823084e-004 6.65821193e-004 6.34115422e-004 7.60938507e-004
      9.51173133e-004 1.33164236e-002 1.23652501e-003 4.12175024e-004
      2.21940398e-004 2.85351940e-004 6.34115422e-005 6.34115422e-005
      1.58528856e-004 4.75586567e-004 7.92644278e-004 6.97526964e-004 0.
      4.43880796e-004 8.24350049e-004 3.80469253e-004 9.82878846e-004
      4.37539630e-003 5.70703880e-004 8.87761591e-004 3.17057711e-005
      1.01458468e-003 3.17057711e-005 1.26823084e-004 6.34115422e-005
      1.14140776e-003 0. 0. 0. 6.34115422e-005 6.34115422e-005
      6.34115422e-005 1.26823084e-004 1.04629039e-003 1.04629039e-003
      6.02409651e-004 9.51173133e-005 4.43880796e-004 9.51173133e-005 0.
      6.34115422e-005 5.70703880e-004 1.04629039e-003 5.70703880e-004
      3.17057711e-005 5.70703880e-004 8.24350049e-004 5.07292338e-004
      4.75586567e-004 3.77298659e-003 1.13506662e-002 2.30500959e-002
      8.56055820e-004 3.88712734e-002 3.80469253e-004 5.70703880e-004
      1.04629039e-003 1.22384271e-002 6.97526964e-004 1.04629039e-003 0.
      8.87761591e-004 4.12175024e-004 4.75586567e-004 6.65821193e-004
      6.05580211e-003 1.10970193e-003 6.02409651e-004 1.58528856e-004
      2.85351940e-004 6.34115422e-005 3.17057711e-005 6.34115422e-005
      9.51173133e-005 9.19467362e-004 5.07292338e-004 6.34115422e-005
      4.43880796e-004 6.65821193e-004 2.53646169e-004 6.97526964e-004
      1.74381735e-003 2.82815471e-002 3.72225754e-002 1.04629039e-003
      1.71211157e-002 5.38998109e-004 4.75586567e-004 8.87761591e-004
      5.99239068e-003 1.17311347e-003 1.42675964e-003 0. 8.24350049e-004
      1.07799622e-003 8.87761591e-004 1.77552318e-003 7.60938507e-003
      4.80976552e-002 1.27457194e-002 1.74381735e-003 5.16804075e-003
      3.48763482e-004 9.51173133e-005 6.65821193e-004 2.50475598e-003
      1.99746359e-002 6.59480039e-003 9.51173133e-004 4.28027892e-003
      7.13379821e-003 1.90234627e-003 8.68738070e-003 1.46480659e-002</_>
    <_>
      4.73684222e-002 9.32149682e-003 5.51680429e-003 1.12238424e-002
      5.54850977e-003 1.01458468e-003 9.03614424e-003 1.76284090e-002
      6.30944828e-003 8.56055820e-004 4.43880796e-004 7.60938507e-004
      9.06785019e-003 1.23652501e-003 2.55231448e-002 3.55738737e-002
      1.07165501e-002 8.56055820e-004 9.82878846e-004 5.38998109e-004
      8.24350049e-004 6.34115422e-005 1.23652501e-003 3.48763482e-004
      1.20798983e-002 3.48763482e-004 7.92644278e-004 4.12175024e-004
      2.02282816e-002 5.07292338e-004 4.19150293e-002 1.26188966e-002
      7.07038678e-003 1.14140776e-003 7.29232735e-004 7.60938507e-004
      5.38998109e-004 0. 4.12175024e-004 6.34115422e-004 8.87761591e-004
      1.90234627e-004 6.34115422e-005 6.34115422e-005 8.56055820e-004
      9.51173133e-005 1.14140776e-003 1.83893472e-003 1.46797718e-002
      5.70703880e-004 8.24350049e-004 7.29232735e-004 9.19467362e-004 0.
      7.29232735e-004 4.12175024e-004 3.17691825e-002 4.75586567e-004
      7.29232735e-004 4.12175024e-004 3.98858599e-002 4.43880796e-004
      1.52821811e-002 4.91439458e-003 8.18008836e-003 8.56055820e-004
      4.75586567e-004 6.65821193e-004 2.85351940e-004 1.58528856e-004
      3.80469253e-004 3.48763482e-004 6.34115422e-004 1.26823084e-004
      3.17057711e-005 3.17057711e-005 5.70703880e-004 0. 5.38998109e-004
      5.07292338e-004 9.51173133e-004 9.51173133e-005 3.17057711e-005 0.
      0. 3.17057711e-005 6.34115422e-005 6.34115422e-005 8.87761591e-004
      0. 3.17057711e-005 0. 6.65821193e-004 3.17057711e-005
      5.70703880e-004 1.58528856e-004 1.14140771e-002 1.36334810e-003
      9.19467362e-004 8.87761591e-004 5.70703880e-004 3.17057711e-005
      4.75586567e-004 4.43880796e-004 1.04629039e-003 9.51173133e-005
      3.17057711e-005 9.51173133e-005 9.51173133e-004 6.34115422e-005
      8.56055820e-004 6.34115422e-004 2.73303743e-002 3.48763482e-004
      6.65821193e-004 4.12175024e-004 6.97526964e-004 0. 3.80469253e-004
      2.21940398e-004 4.70830686e-002 5.07292338e-004 1.14140776e-003
      2.85351940e-004 1.41090676e-002 1.90234627e-004 7.35573890e-003
      2.25110981e-003 6.53138850e-003 1.23969559e-002 8.24350049e-004
      1.95941664e-002 8.56055820e-004 6.65821193e-004 8.56055820e-004
      2.16867477e-002 7.29232735e-004 7.92644278e-004 9.51173133e-005
      6.97526964e-004 7.29232735e-004 7.92644278e-004 1.07799622e-003
      1.40456567e-002 1.01458468e-003 4.12175024e-004 1.26823084e-004
      5.38998109e-004 0. 6.34115422e-005 6.34115422e-005 3.48763482e-004
      6.97526964e-004 6.34115422e-004 3.17057711e-005 5.70703880e-004
      7.92644278e-004 3.48763482e-004 1.26823084e-003 4.43880772e-003
      7.29232735e-004 5.38998109e-004 6.34115422e-005 1.07799622e-003
      9.51173133e-005 0. 1.26823084e-004 6.65821193e-004 0.
      9.51173133e-005 0. 1.26823084e-004 6.34115422e-005 3.17057711e-005
      9.51173133e-005 1.04629039e-003 1.07799622e-003 5.38998109e-004
      1.58528856e-004 5.07292338e-004 3.17057711e-005 6.34115422e-005
      1.26823084e-004 2.85351940e-004 1.23652501e-003 5.70703880e-004 0.
      1.01458468e-003 9.19467362e-004 5.38998109e-004 9.19467362e-004
      3.77298659e-003 1.07799619e-002 2.12745722e-002 8.87761591e-004
      3.90932150e-002 6.34115422e-004 5.07292338e-004 6.97526964e-004
      9.92390607e-003 8.87761591e-004 1.23652501e-003 9.51173133e-005
      9.51173133e-004 5.70703880e-004 5.07292338e-004 6.97526964e-004
      5.92897926e-003 1.33164239e-003 4.75586567e-004 9.51173133e-005
      3.48763482e-004 6.34115422e-005 6.34115422e-005 3.17057711e-005
      4.43880796e-004 7.60938507e-004 3.80469253e-004 0. 4.43880796e-004
      5.38998109e-004 6.02409651e-004 6.97526964e-004 2.25110981e-003
      2.37476230e-002 3.07863038e-002 8.24350049e-004 1.61382370e-002
      3.17057711e-004 3.80469253e-004 6.97526964e-004 6.21433090e-003
      1.33164239e-003 1.33164239e-003 0. 9.51173133e-004 8.24350049e-004
      9.51173133e-004 1.58528856e-003 7.32403295e-003 4.58782502e-002
      1.27457194e-002 2.09258078e-003 5.00951195e-003 4.75586567e-004
      9.51173133e-005 9.82878846e-004 2.02916935e-003 2.05453392e-002
      5.99239068e-003 7.92644278e-004 4.40710224e-003 7.00697536e-003
      1.99746364e-003 8.78249854e-003 1.39822448e-002</_>
    <_>
      4.92390618e-002 1.03677865e-002 5.54850977e-003 1.12238424e-002
      5.86556736e-003 5.07292338e-004 1.10970195e-002 1.73747614e-002
      6.78503467e-003 9.19467362e-004 6.34115422e-004 8.56055820e-004
      1.12238424e-002 1.45846547e-003 2.82815471e-002 3.76664549e-002
      1.16677238e-002 6.97526964e-004 8.87761591e-004 4.75586567e-004
      6.65821193e-004 0. 1.23652501e-003 3.48763482e-004 1.25237796e-002
      5.70703880e-004 7.60938507e-004 4.43880796e-004 2.49207355e-002
      5.07292338e-004 4.57831323e-002 1.37920100e-002 8.11667740e-003
      9.19467362e-004 6.02409651e-004 1.07799622e-003 5.70703880e-004
      3.17057711e-005 4.75586567e-004 9.82878846e-004 7.92644278e-004
      6.34115422e-005 3.17057711e-005 6.34115422e-005 9.19467362e-004
      9.51173133e-005 1.29993656e-003 1.52187701e-003 1.33798355e-002
      9.19467362e-004 7.92644278e-004 4.12175024e-004 9.82878846e-004 0.
      8.87761591e-004 4.75586567e-004 2.75840200e-002 4.12175024e-004
      7.29232735e-004 7.92644278e-004 3.77298668e-002 3.48763482e-004
      1.64552946e-002 4.85098269e-003 7.92644266e-003 8.24350049e-004
      5.07292338e-004 6.34115422e-004 2.85351940e-004 0. 3.80469253e-004
      1.58528856e-004 7.29232735e-004 3.17057711e-005 3.17057711e-005 0.
      3.48763482e-004 9.51173133e-005 4.12175024e-004 5.07292338e-004
      8.87761591e-004 3.17057711e-005 0. 3.17057711e-005 6.34115422e-005
      0. 0. 0. 1.01458468e-003 3.17057711e-005 0. 0. 4.12175024e-004
      6.34115422e-005 4.12175024e-004 3.17057711e-004 1.28725432e-002
      1.17311347e-003 5.70703880e-004 8.56055820e-004 4.43880796e-004
      9.51173133e-005 5.07292338e-004 3.17057711e-004 1.29993656e-003
      9.51173133e-005 3.17057711e-005 6.34115422e-005 5.70703880e-004
      9.51173133e-005 7.29232735e-004 1.07799622e-003 2.70767286e-002
      7.29232735e-004 1.20481930e-003 5.07292338e-004 4.75586567e-004 0.
      4.75586567e-004 3.80469253e-004 4.06150930e-002 6.02409651e-004
      1.01458468e-003 5.38998109e-004 1.12555483e-002 3.17057711e-004
      7.13379821e-003 2.79010786e-003 7.10209273e-003 1.03360815e-002
      7.60938507e-004 1.69942938e-002 8.87761591e-004 7.92644278e-004
      6.65821193e-004 2.14013942e-002 4.43880796e-004 8.24350049e-004
      6.34115422e-005 6.97526964e-004 6.65821193e-004 9.82878846e-004
      9.82878846e-004 1.40456567e-002 1.04629039e-003 6.65821193e-004
      3.17057711e-005 5.70703880e-004 1.26823084e-004 3.17057711e-005
      1.26823084e-004 2.53646169e-004 6.97526964e-004 5.70703880e-004
      9.51173133e-005 3.80469253e-004 9.19467362e-004 2.53646169e-004
      1.71211164e-003 4.97780601e-003 5.70703880e-004 6.34115422e-004
      1.58528856e-004 9.19467362e-004 3.17057711e-005 6.34115422e-005
      9.51173133e-005 1.07799622e-003 6.34115422e-005 9.51173133e-005 0.
      6.34115422e-005 3.17057711e-005 6.34115422e-005 9.51173133e-005
      9.82878846e-004 8.87761591e-004 6.34115422e-004 3.17057711e-005
      8.24350049e-004 1.26823084e-004 0. 1.58528856e-004 2.85351940e-004
      1.04629039e-003 5.70703880e-004 9.51173133e-005 9.82878846e-004
      1.42675964e-003 5.07292338e-004 7.60938507e-004 3.93151538e-003
      1.05263162e-002 2.18135696e-002 9.82878846e-004 3.46861146e-002
      5.70703880e-004 4.75586567e-004 5.70703880e-004 8.97273328e-003
      9.19467362e-004 1.17311347e-003 6.34115422e-005 8.87761591e-004
      4.75586567e-004 5.07292338e-004 6.02409651e-004 6.02409616e-003
      1.42675964e-003 3.80469253e-004 1.58528856e-004 3.17057711e-004 0.
      0. 9.51173133e-005 2.21940398e-004 7.92644278e-004 7.29232735e-004
      9.51173133e-005 2.85351940e-004 6.34115422e-004 6.34115422e-004
      7.29232735e-004 1.99746364e-003 2.52060872e-002 3.57006975e-002
      8.56055820e-004 1.50285354e-002 2.85351940e-004 6.65821193e-004
      1.04629039e-003 4.85098269e-003 1.39505393e-003 1.49017118e-003
      6.34115422e-005 8.87761591e-004 1.36334810e-003 8.87761591e-004
      1.64870010e-003 7.32403295e-003 4.34369072e-002 1.12872543e-002
      1.64870010e-003 5.00951195e-003 5.07292338e-004 1.58528856e-004
      8.24350049e-004 2.37793289e-003 1.98161062e-002 4.97780601e-003
      9.82878846e-004 4.37539630e-003 6.30944828e-003 2.34622695e-003
      7.95814861e-003 1.35066584e-002</_>
    <_>
      4.63855416e-002 9.89220012e-003 6.11921353e-003 1.25554847e-002
      6.94356393e-003 1.33164239e-003 9.32149682e-003 2.01965757e-002
      6.27774233e-003 8.24350049e-004 5.38998109e-004 7.92644278e-004
      9.95561201e-003 1.07799622e-003 2.20989212e-002 3.62396948e-002
      9.73367132e-003 7.60938507e-004 1.17311347e-003 5.70703880e-004
      9.19467362e-004 0. 1.04629039e-003 5.70703880e-004 1.11604314e-002
      5.07292338e-004 8.56055820e-004 4.75586567e-004 2.11794544e-002
      7.60938507e-004 3.36081162e-002 1.21750161e-002 7.32403295e-003
      8.87761591e-004 6.02409651e-004 9.19467362e-004 3.48763482e-004
      9.51173133e-005 9.51173133e-004 1.10970193e-003 4.12175024e-004
      1.26823084e-004 3.17057711e-005 1.58528856e-004 6.97526964e-004
      1.26823084e-004 1.01458468e-003 1.74381735e-003 1.42358905e-002
      9.82878846e-004 1.10970193e-003 6.65821193e-004 1.14140776e-003 0.
      1.14140776e-003 5.38998109e-004 2.09892206e-002 5.07292338e-004
      8.24350049e-004 5.70703880e-004 2.96131894e-002 5.07292338e-004
      1.60114132e-002 5.38998097e-003 7.95814861e-003 1.10970193e-003
      7.60938507e-004 8.24350049e-004 5.38998109e-004 3.17057711e-005
      4.43880796e-004 5.70703880e-004 1.04629039e-003 9.51173133e-005
      3.17057711e-005 1.26823084e-004 2.85351940e-004 3.17057711e-005
      3.17057711e-004 4.12175024e-004 8.24350049e-004 0. 3.17057711e-005
      3.17057711e-005 0. 0. 3.17057711e-005 3.17057711e-005
      9.51173133e-004 9.51173133e-005 1.90234627e-004 3.17057711e-005
      5.70703880e-004 0. 6.02409651e-004 3.80469253e-004 1.14140771e-002
      1.29993656e-003 9.19467362e-004 1.10970193e-003 5.07292338e-004
      1.26823084e-004 4.75586567e-004 6.97526964e-004 1.01458468e-003
      9.51173133e-005 0. 9.51173133e-005 8.87761591e-004 6.34115422e-005
      9.19467362e-004 6.34115422e-004 2.34939754e-002 6.34115422e-004
      1.20481930e-003 3.80469253e-004 7.29232735e-004 9.51173133e-005
      4.43880796e-004 2.85351940e-004 3.47495228e-002 5.07292338e-004
      1.17311347e-003 6.34115422e-004 1.17945466e-002 2.21940398e-004
      6.94356393e-003 2.37793289e-003 7.10209273e-003 1.37603041e-002
      6.34115422e-004 2.27647424e-002 5.70703880e-004 9.51173133e-004
      9.82878846e-004 2.80913133e-002 7.92644278e-004 9.51173133e-004 0.
      5.07292338e-004 7.60938507e-004 9.19467362e-004 9.51173133e-004
      1.56626515e-002 9.19467362e-004 7.29232735e-004 9.51173133e-005
      6.34115422e-004 9.51173133e-005 6.34115422e-005 1.26823084e-004
      6.97526964e-004 9.82878846e-004 5.07292338e-004 1.26823084e-004
      6.97526964e-004 1.26823084e-003 7.29232735e-004 1.20481930e-003
      5.13633480e-003 5.70703880e-004 9.82878846e-004 6.34115422e-005
      8.87761591e-004 0. 6.34115422e-005 1.58528856e-004 1.23652501e-003
      1.26823084e-004 3.17057711e-005 0. 3.17057711e-005 6.34115422e-005
      6.34115422e-005 9.51173133e-005 1.07799622e-003 8.56055820e-004
      4.12175024e-004 1.26823084e-004 6.65821193e-004 3.17057711e-005
      6.34115422e-005 9.51173133e-005 4.43880796e-004 1.33164239e-003
      7.92644278e-004 1.58528856e-004 5.07292338e-004 7.92644278e-004
      6.65821193e-004 9.51173133e-004 4.28027892e-003 1.29359541e-002
      2.30818000e-002 9.51173133e-004 3.24667096e-002 4.43880796e-004
      6.65821193e-004 8.24350049e-004 1.25554847e-002 8.56055820e-004
      1.17311347e-003 1.26823084e-004 1.14140776e-003 6.97526964e-004
      6.02409651e-004 1.10970193e-003 8.59226380e-003 1.36334810e-003
      6.02409651e-004 2.85351940e-004 6.97526964e-004 9.51173133e-005
      3.17057711e-005 1.58528856e-004 3.17057711e-004 1.04629039e-003
      6.97526964e-004 6.34115422e-005 5.07292338e-004 7.60938507e-004
      3.17057711e-004 9.19467362e-004 2.31452123e-003 2.62840837e-002
      3.86810414e-002 1.01458468e-003 2.01648697e-002 4.12175024e-004
      7.60938507e-004 6.02409651e-004 7.51426769e-003 1.23652501e-003
      1.68040581e-003 1.26823084e-004 1.29993656e-003 6.97526964e-004
      9.19467362e-004 1.10970193e-003 7.95814861e-003 3.79518084e-002
      1.44895371e-002 1.74381735e-003 6.78503467e-003 5.38998109e-004
      3.17057711e-004 9.51173133e-004 3.13887116e-003 1.88966393e-002
      6.43627159e-003 1.17311347e-003 4.66074841e-003 8.24350026e-003
      2.59987311e-003 7.38744438e-003 1.76601149e-002</_>
    <_>
      4.70830686e-002 9.89220012e-003 6.88015204e-003 1.09384907e-002
      5.64362714e-003 1.04629039e-003 9.41661373e-003 2.10526325e-002
      5.58021571e-003 1.07799622e-003 4.75586567e-004 6.65821193e-004
      1.08433738e-002 8.87761591e-004 2.98668351e-002 4.28662002e-002
      1.06531391e-002 5.07292338e-004 9.51173133e-004 4.75586567e-004
      1.07799622e-003 3.17057711e-005 1.01458468e-003 4.75586567e-004
      1.27457194e-002 7.29232735e-004 4.43880796e-004 5.07292338e-004
      2.21940391e-002 5.70703880e-004 4.37539630e-002 1.26823084e-002
      6.72162324e-003 7.60938507e-004 4.43880796e-004 7.29232735e-004
      8.24350049e-004 9.51173133e-005 7.60938507e-004 1.01458468e-003
      8.24350049e-004 6.34115422e-005 3.17057711e-005 6.34115422e-005
      9.51173133e-004 1.26823084e-004 1.33164239e-003 9.19467362e-004
      1.29676601e-002 6.02409651e-004 5.38998109e-004 4.12175024e-004
      8.24350049e-004 3.17057711e-005 9.19467362e-004 4.75586567e-004
      2.63157897e-002 5.07292338e-004 8.87761591e-004 4.43880796e-004
      3.23081799e-002 4.43880796e-004 1.67723522e-002 5.77044999e-003
      6.30944828e-003 8.24350049e-004 5.70703880e-004 7.92644278e-004
      4.12175024e-004 0. 6.65821193e-004 6.02409651e-004 6.65821193e-004
      6.34115422e-005 0. 3.17057711e-005 3.80469253e-004 6.34115422e-005
      1.90234627e-004 5.70703880e-004 7.60938507e-004 6.34115422e-005 0.
      0. 0. 0. 0. 3.17057711e-005 6.97526964e-004 0. 3.17057711e-005
      3.17057711e-005 3.48763482e-004 3.17057711e-005 3.17057711e-004
      2.21940398e-004 1.15091950e-002 1.01458468e-003 6.65821193e-004
      6.34115422e-004 3.80469253e-004 0. 6.97526964e-004 6.34115422e-004
      1.33164239e-003 1.58528856e-004 3.17057711e-005 0. 7.29232735e-004
      6.34115422e-005 9.19467362e-004 4.75586567e-004 2.38744449e-002
      6.02409651e-004 5.70703880e-004 3.17057711e-004 4.12175024e-004 0.
      6.65821193e-004 1.26823084e-004 3.91566269e-002 2.85351940e-004
      1.04629039e-003 5.07292338e-004 1.27774253e-002 1.26823084e-004
      7.03868084e-003 1.52187701e-003 5.77044999e-003 1.27140144e-002
      7.60938507e-004 2.25110967e-002 5.07292338e-004 6.65821193e-004
      6.97526964e-004 2.72035506e-002 8.87761591e-004 7.60938507e-004
      9.51173133e-005 9.51173133e-004 9.19467362e-004 6.34115422e-004
      1.20481930e-003 1.59162972e-002 8.87761591e-004 4.75586567e-004
      1.90234627e-004 4.43880796e-004 1.26823084e-004 6.34115422e-005
      1.26823084e-004 2.53646169e-004 6.65821193e-004 3.80469253e-004
      1.26823084e-004 4.75586567e-004 9.51173133e-004 3.48763482e-004
      1.17311347e-003 4.47051367e-003 8.24350049e-004 6.34115422e-004
      9.51173133e-005 1.10970193e-003 6.34115422e-005 3.17057711e-005
      9.51173133e-005 1.01458468e-003 3.17057711e-005 3.17057711e-005 0.
      3.17057711e-005 3.17057711e-005 3.17057711e-005 3.17057711e-005
      9.51173133e-004 6.34115422e-004 5.07292338e-004 1.26823084e-004
      5.38998109e-004 6.34115422e-005 0. 1.26823084e-004 3.17057711e-004
      9.51173133e-004 5.38998109e-004 3.17057711e-005 5.07292338e-004
      8.56055820e-004 4.75586567e-004 1.04629039e-003 3.86810396e-003
      1.13189602e-002 2.23525688e-002 7.60938507e-004 4.32149656e-002
      7.29232735e-004 4.43880796e-004 8.24350049e-004 1.14457831e-002
      5.70703880e-004 6.65821193e-004 9.51173133e-005 1.01458468e-003
      5.07292338e-004 5.70703880e-004 1.17311347e-003 6.18262542e-003
      1.52187701e-003 5.70703880e-004 6.34115422e-005 3.80469253e-004
      9.51173133e-005 3.17057711e-005 1.58528856e-004 1.26823084e-004
      4.43880796e-004 6.02409651e-004 9.51173133e-005 2.85351940e-004
      5.07292338e-004 2.85351940e-004 6.02409651e-004 2.02916935e-003
      2.63792016e-002 3.29740010e-002 1.14140776e-003 1.71211157e-002
      6.97526964e-004 1.58528856e-004 6.34115422e-004 6.21433090e-003
      1.39505393e-003 1.26823084e-003 6.34115422e-005 8.56055820e-004
      7.29232735e-004 6.65821193e-004 1.68040581e-003 7.10209273e-003
      4.30247299e-002 1.12555483e-002 1.49017118e-003 4.88268863e-003
      3.80469253e-004 3.17057711e-004 8.24350049e-004 1.83893472e-003
      1.79771725e-002 4.94610006e-003 9.51173133e-004 4.50221961e-003
      6.78503467e-003 1.68040581e-003 6.59480039e-003 1.29676601e-002</_>
    <_>
      6.60748258e-002 1.33798355e-002 8.11667740e-003 1.34115405e-002
      7.54597317e-003 1.83893472e-003 1.19847814e-002 1.59797091e-002
      9.00443923e-003 1.49017118e-003 1.04629039e-003 1.52187701e-003
      1.13823712e-002 1.74381735e-003 2.36842111e-002 3.18008885e-002
      1.35066584e-002 1.07799622e-003 1.45846547e-003 6.02409651e-004
      1.49017118e-003 6.34115422e-005 1.36334810e-003 8.24350049e-004
      1.45212431e-002 7.60938507e-004 1.29993656e-003 7.29232735e-004
      1.78503487e-002 4.43880796e-004 3.13887112e-002 1.14774890e-002
      8.37032311e-003 1.20481930e-003 1.10970193e-003 1.39505393e-003
      8.56055820e-004 1.58528856e-004 1.23652501e-003 1.14140776e-003
      1.23652501e-003 9.51173133e-005 6.34115422e-005 6.34115422e-005
      1.39505393e-003 1.58528856e-004 1.74381735e-003 1.68040581e-003
      1.42675964e-002 6.02409651e-004 9.82878846e-004 6.65821193e-004
      1.14140776e-003 6.34115422e-005 8.56055820e-004 6.02409651e-004
      2.17818636e-002 6.65821193e-004 1.17311347e-003 5.38998109e-004
      2.21623331e-002 8.24350049e-004 1.39822448e-002 5.92897926e-003
      8.11667740e-003 1.23652501e-003 1.01458468e-003 8.87761591e-004
      5.70703880e-004 9.51173133e-005 6.65821193e-004 6.97526964e-004
      9.51173133e-004 1.58528856e-004 3.17057711e-005 1.26823084e-004
      5.38998109e-004 2.53646169e-004 9.82878846e-004 7.60938507e-004
      1.33164239e-003 3.17057711e-005 1.26823084e-004 3.17057711e-005
      9.51173133e-005 3.17057711e-005 1.26823084e-004 3.17057711e-005
      1.10970193e-003 3.17057711e-005 6.34115422e-005 6.34115422e-005
      8.56055820e-004 3.17057711e-005 6.65821193e-004 2.21940398e-004
      1.27140144e-002 2.06087506e-003 1.20481930e-003 1.10970193e-003
      6.97526964e-004 3.17057711e-005 8.56055820e-004 5.70703880e-004
      1.29993656e-003 2.21940398e-004 1.58528856e-004 3.17057711e-005
      9.19467362e-004 9.51173133e-005 1.23652501e-003 8.87761591e-004
      2.17184536e-002 8.24350049e-004 9.82878846e-004 5.70703880e-004
      6.97526964e-004 6.34115422e-005 8.87761591e-004 3.80469253e-004
      2.78693717e-002 6.34115422e-004 1.17311347e-003 5.07292338e-004
      1.02409637e-002 5.38998109e-004 8.02155957e-003 3.17057711e-003
      8.40202905e-003 1.45212431e-002 1.14140776e-003 2.06404570e-002
      8.24350049e-004 8.87761591e-004 1.71211164e-003 1.94673426e-002
      7.29232735e-004 1.17311347e-003 1.26823084e-004 1.01458468e-003
      8.87761591e-004 1.26823084e-003 1.61699427e-003 1.46797718e-002
      1.39505393e-003 8.24350049e-004 9.51173133e-005 7.60938507e-004
      6.34115422e-005 6.34115422e-005 2.53646169e-004 6.34115422e-004
      9.82878846e-004 9.82878846e-004 1.58528856e-004 6.34115422e-004
      1.36334810e-003 2.53646169e-004 2.06087506e-003 5.45339240e-003
      5.70703880e-004 1.10970193e-003 1.26823084e-004 1.04629039e-003
      1.58528856e-004 3.17057711e-005 6.34115422e-005 1.07799622e-003
      9.51173133e-005 1.90234627e-004 0. 1.58528856e-004 6.34115422e-005
      1.58528856e-004 1.26823084e-004 1.42675964e-003 1.33164239e-003
      3.17057711e-004 2.21940398e-004 4.12175024e-004 1.26823084e-004 0.
      1.58528856e-004 7.92644278e-004 8.87761591e-004 5.70703880e-004
      1.58528856e-004 6.97526964e-004 1.29993656e-003 6.97526964e-004
      1.39505393e-003 5.00951195e-003 1.24286618e-002 1.94673426e-002
      1.29993656e-003 2.75523141e-002 5.07292338e-004 6.65821193e-004
      7.92644278e-004 1.08750788e-002 1.42675964e-003 1.04629039e-003
      6.34115422e-005 1.36334810e-003 6.65821193e-004 1.01458468e-003
      1.39505393e-003 7.67279649e-003 1.52187701e-003 5.07292338e-004
      1.58528856e-004 6.65821193e-004 6.34115422e-005 3.17057711e-005
      3.17057711e-005 4.75586567e-004 1.14140776e-003 6.02409651e-004
      9.51173133e-005 4.43880796e-004 6.34115422e-004 4.12175024e-004
      9.19467362e-004 2.85351928e-003 2.38744449e-002 2.99619529e-002
      1.17311347e-003 1.61699429e-002 5.70703880e-004 8.56055820e-004
      1.07799622e-003 5.67533309e-003 1.49017118e-003 1.90234627e-003
      1.90234627e-004 1.14140776e-003 9.51173133e-004 1.01458468e-003
      1.99746364e-003 9.09955613e-003 3.43690552e-002 1.10019026e-002
      1.71211164e-003 6.15091948e-003 6.34115422e-004 4.12175024e-004
      1.26823084e-003 2.59987311e-003 1.66455302e-002 6.11921353e-003
      1.61699427e-003 5.04121743e-003 6.40456565e-003 2.75840214e-003
      9.06785019e-003 2.13696901e-002</_>
    <_>
      4.19467352e-002 9.03614424e-003 5.54850977e-003 1.19213695e-002
      5.35827503e-003 8.56055820e-004 1.09701967e-002 2.16550417e-002
      4.50221961e-003 9.19467362e-004 5.38998109e-004 6.34115422e-004
      8.81420448e-003 1.07799622e-003 2.49841474e-002 4.02029157e-002
      1.04629043e-002 6.02409651e-004 5.70703880e-004 3.80469253e-004
      6.34115422e-004 0. 9.51173133e-004 1.90234627e-004 1.03360815e-002
      3.48763482e-004 3.48763482e-004 3.17057711e-004 2.13696901e-002
      4.43880796e-004 3.96956243e-002 1.12872543e-002 7.07038678e-003
      6.02409651e-004 5.07292338e-004 8.24350049e-004 4.12175024e-004 0.
      9.51173133e-004 1.20481930e-003 6.34115422e-004 2.21940398e-004
      1.58528856e-004 3.17057711e-005 9.19467362e-004 3.17057711e-005
      9.51173133e-004 1.26823084e-003 1.35700693e-002 5.07292338e-004
      6.02409651e-004 4.75586567e-004 8.24350049e-004 3.17057711e-005
      5.07292338e-004 1.90234627e-004 2.44768541e-002 3.17057711e-004
      6.65821193e-004 3.17057711e-004 3.24350037e-002 4.12175024e-004
      1.49017125e-002 3.04375403e-003 6.08750805e-003 1.10970193e-003
      6.34115422e-004 5.07292338e-004 2.53646169e-004 3.17057711e-005
      4.75586567e-004 3.17057711e-004 4.75586567e-004 9.51173133e-005
      3.17057711e-005 3.17057711e-005 4.12175024e-004 3.17057711e-005
      3.80469253e-004 3.17057711e-004 6.34115422e-004 0. 6.34115422e-005
      0. 6.34115422e-005 0. 6.34115422e-005 0. 6.02409651e-004 0. 0. 0.
      4.75586567e-004 0. 4.43880796e-004 1.90234627e-004 1.15409000e-002
      1.45846547e-003 9.51173133e-004 6.97526964e-004 3.48763482e-004 0.
      5.07292338e-004 5.38998109e-004 8.24350049e-004 6.34115422e-005
      3.17057711e-005 3.17057711e-005 5.07292338e-004 9.51173133e-005
      9.82878846e-004 7.29232735e-004 2.60938499e-002 4.43880796e-004
      7.60938507e-004 2.85351940e-004 4.75586567e-004 0. 4.12175024e-004
      4.12175024e-004 3.74128073e-002 3.48763482e-004 7.92644278e-004
      1.90234627e-004 1.18896635e-002 1.26823084e-004 4.91439458e-003
      1.20481930e-003 5.77044999e-003 1.29359541e-002 5.70703880e-004
      2.78059598e-002 4.12175024e-004 6.34115422e-004 8.87761591e-004
      3.17374766e-002 5.07292338e-004 6.97526964e-004 0. 7.60938507e-004
      7.29232735e-004 5.70703880e-004 8.56055820e-004 1.48700066e-002
      1.01458468e-003 6.02409651e-004 6.34115422e-005 5.07292338e-004
      3.17057711e-005 0. 9.51173133e-005 2.53646169e-004 8.24350049e-004
      4.43880796e-004 3.17057711e-005 4.12175024e-004 1.29993656e-003
      3.48763482e-004 1.26823084e-003 5.29486360e-003 6.02409651e-004
      9.51173133e-004 3.17057711e-005 6.34115422e-004 0. 3.17057711e-005
      1.90234627e-004 8.56055820e-004 3.17057711e-005 3.17057711e-005 0.
      3.17057711e-005 9.51173133e-005 6.34115422e-005 9.51173133e-005
      6.02409651e-004 8.24350049e-004 1.90234627e-004 0. 3.48763482e-004
      6.34115422e-005 6.34115422e-005 9.51173133e-005 5.07292338e-004
      7.29232735e-004 5.70703880e-004 6.34115422e-005 7.92644278e-004
      1.17311347e-003 3.17057711e-004 6.34115422e-004 3.42422328e-003
      1.13823712e-002 2.86620166e-002 1.01458468e-003 4.80976552e-002
      5.70703880e-004 4.43880796e-004 3.80469253e-004 1.28091313e-002
      7.60938507e-004 8.87761591e-004 6.34115422e-005 1.36334810e-003
      4.43880796e-004 6.65821193e-004 9.82878846e-004 5.73874451e-003
      1.07799622e-003 3.17057711e-004 9.51173133e-005 4.75586567e-004
      3.17057711e-005 0. 9.51173133e-005 9.51173133e-005 6.65821193e-004
      4.12175024e-004 0. 4.43880796e-004 2.85351940e-004 3.17057711e-004
      6.02409651e-004 1.83893472e-003 2.77425498e-002 4.97146472e-002
      1.01458468e-003 1.85161699e-002 4.75586567e-004 6.34115422e-004
      6.65821193e-004 5.80215594e-003 6.97526964e-004 1.74381735e-003
      6.34115422e-005 1.26823084e-003 4.43880796e-004 9.51173133e-004
      1.23652501e-003 6.11921353e-003 4.32149656e-002 1.23018390e-002
      1.49017118e-003 4.40710224e-003 5.38998109e-004 9.51173133e-005
      6.97526964e-004 1.55358273e-003 1.79137606e-002 5.16804075e-003
      4.75586567e-004 3.55104636e-003 7.54597317e-003 2.53646169e-003
      6.78503467e-003 1.25554847e-002</_>
    <_>
      4.61953059e-002 1.02092577e-002 6.15091948e-003 1.22701330e-002
      6.81674061e-003 7.92644278e-004 1.28091313e-002 2.24159788e-002
      5.19974623e-003 8.87761591e-004 3.80469253e-004 6.97526964e-004
      1.03043756e-002 1.23652501e-003 2.91693080e-002 4.11540903e-002
      1.03677865e-002 4.12175024e-004 7.92644278e-004 5.07292338e-004
