<?xml version="1.0"?>
<opencv_storage>
<opencv_ml_svm>
  <format>3</format>
  <svmType>C_SVC</svmType>
  <kernel>
    <type>RBF</type>
    <gamma>5.0625000000000009e-001</gamma></kernel>
  <C>3.1250000000000000e+002</C>
  <term_criteria><epsilon>1.1920928955078125e-007</epsilon>
    <iterations>1000</iterations></term_criteria>
  <var_count>256</var_count>
  <class_count>2</class_count>
  <class_labels type_id="opencv-matrix">
    <rows>2</rows>
    <cols>1</cols>
    <dt>i</dt>
    <data>
      -1082130432 1065353216</data></class_labels>
  <sv_total>25</sv_total>
  <support_vectors>
    <_>
      6.10970184e-002 6.88015204e-003 4.12175013e-003 1.01141408e-002
      4.91439458e-003 4.75586567e-004 8.05326551e-003 2.01965757e-002
      4.88268863e-003 5.70703880e-004 2.53646169e-004 4.75586567e-004
      7.89473671e-003 8.87761591e-004 2.46353839e-002 4.65440713e-002
      6.84844656e-003 6.02409651e-004 6.97526964e-004 2.21940398e-004
      6.02409651e-004 0. 7.60938507e-004 4.75586567e-004 1.10019026e-002
      6.34115422e-004 4.75586567e-004 4.43880796e-004 2.07989849e-002
      3.80469253e-004 4.82561812e-002 1.05263162e-002 5.23145217e-003
      5.70703880e-004 4.12175024e-004 7.92644278e-004 6.65821193e-004 0.
      2.85351940e-004 8.56055820e-004 2.85351940e-004 3.17057711e-005
      3.17057711e-005 3.17057711e-005 7.29232735e-004 6.34115422e-005
      8.24350049e-004 1.33164239e-003 1.19530754e-002 3.80469253e-004
      6.65821193e-004 2.53646169e-004 6.02409651e-004 0. 4.75586567e-004
      3.80469253e-004 2.51426753e-002 4.43880796e-004 7.60938507e-004
      4.43880796e-004 2.87571345e-002 2.53646169e-004 1.49651235e-002
      4.88268863e-003 6.34115422e-003 5.07292338e-004 2.85351940e-004
      6.02409651e-004 3.48763482e-004 3.17057711e-005 2.21940398e-004
      3.17057711e-004 2.53646169e-004 6.34115422e-005 3.17057711e-005 0.
      5.38998109e-004 3.17057711e-005 3.48763482e-004 2.53646169e-004
      5.38998109e-004 0. 6.34115422e-005 3.17057711e-005 3.17057711e-005
      0. 3.17057711e-005 3.17057711e-005 5.07292338e-004 0.
      3.17057711e-005 0. 3.48763482e-004 0. 4.43880796e-004
      3.17057711e-005 9.70196538e-003 1.14140776e-003 4.12175024e-004
      6.65821193e-004 2.85351940e-004 9.51173133e-005 3.80469253e-004
      3.80469253e-004 6.97526964e-004 6.34115422e-005 3.17057711e-005
      3.17057711e-005 5.07292338e-004 3.17057711e-005 5.07292338e-004
      7.92644278e-004 2.53646169e-002 3.80469253e-004 6.65821193e-004
      3.48763482e-004 2.53646169e-004 0. 4.43880796e-004 1.90234627e-004
      5.12365252e-002 4.12175024e-004 6.97526964e-004 3.17057711e-004
      1.32847177e-002 6.34115422e-005 5.35827503e-003 2.12428672e-003
      4.72415984e-003 1.08750788e-002 3.80469253e-004 2.48256177e-002
      2.85351940e-004 3.48763482e-004 6.34115422e-004 2.79644895e-002
      3.48763482e-004 5.07292338e-004 6.34115422e-005 7.29232735e-004
      4.43880796e-004 4.43880796e-004 1.01458468e-003 1.54090049e-002
      5.70703880e-004 4.75586567e-004 6.34115422e-005 3.80469253e-004
      3.17057711e-005 0. 6.34115422e-005 2.21940398e-004 6.02409651e-004
      2.53646169e-004 3.17057711e-005 3.17057711e-004 6.65821193e-004
      5.38998109e-004 1.77552318e-003 4.34369035e-003 4.43880796e-004
      4.43880796e-004 6.34115422e-005 1.07799622e-003 0. 3.17057711e-005
      6.34115422e-005 9.19467362e-004 0. 6.34115422e-005 0.
      3.17057711e-005 9.51173133e-005 0. 0. 3.17057711e-004
      5.38998109e-004 3.48763482e-004 6.34115422e-005 4.75586567e-004 0.
      3.17057711e-005 0. 2.53646169e-004 8.87761591e-004 6.02409651e-004
      9.51173133e-005 5.38998109e-004 6.97526964e-004 3.48763482e-004
      5.38998109e-004 2.88522500e-003 9.86049417e-003 2.66011413e-002
      4.43880796e-004 4.85415347e-002 3.80469253e-004 3.80469253e-004
      4.75586567e-004 1.25871906e-002 6.65821193e-004 8.24350049e-004
      3.17057711e-005 6.97526964e-004 3.48763482e-004 3.48763482e-004
      6.97526964e-004 6.56309444e-003 5.70703880e-004 3.80469253e-004
      9.51173133e-005 2.85351940e-004 0. 0. 3.17057711e-005
      2.85351940e-004 4.43880796e-004 3.80469253e-004 0. 1.26823084e-004
      2.53646169e-004 1.26823084e-004 4.43880796e-004 1.93405198e-003
      2.76791379e-002 4.79708314e-002 8.56055820e-004 2.03551054e-002
      5.38998109e-004 3.17057711e-004 7.92644278e-004 5.51680429e-003
      1.07799622e-003 1.17311347e-003 6.34115422e-005 7.92644278e-004
      1.14140776e-003 4.43880796e-004 1.10970193e-003 6.15091948e-003
      4.81293611e-002 1.31261889e-002 1.04629039e-003 4.43880772e-003
      5.07292338e-004 1.58528856e-004 4.75586567e-004 1.80722889e-003
      1.84527580e-002 5.26315812e-003 7.60938507e-004 3.83639825e-003
      6.34115422e-003 1.45846547e-003 5.23145217e-003 1.06214331e-002</_>
    <_>
      1.92105263e-001 1.10019026e-002 1.54090049e-002 1.11287255e-002
      8.43373500e-003 6.34115422e-004 1.35383643e-002 1.34115405e-002
      1.72479395e-002 1.10970193e-003 2.06087506e-003 1.04629039e-003
      1.28725432e-002 1.01458468e-003 3.03107165e-002 2.45719720e-002
      1.28091313e-002 5.07292338e-004 9.82878846e-004 6.97526964e-004
      3.17057711e-004 3.17057711e-005 9.51173133e-004 1.90234627e-004
      1.16677238e-002 4.12175024e-004 9.19467362e-004 3.80469253e-004
      1.52187701e-002 3.48763482e-004 2.38744449e-002 5.10462886e-003
      1.90551672e-002 1.10970193e-003 2.18769815e-003 1.07799622e-003
      6.65821193e-004 9.51173133e-005 1.14140776e-003 9.19467362e-004
      1.87064044e-003 2.21940398e-004 1.58528856e-004 1.26823084e-004
      1.20481930e-003 9.51173133e-005 1.55358273e-003 7.60938507e-004
      1.53455930e-002 4.43880796e-004 1.14140776e-003 5.38998109e-004
      4.43880796e-004 3.17057711e-005 6.34115422e-004 2.85351940e-004
      1.76284090e-002 3.17057711e-004 7.92644278e-004 4.75586567e-004
      2.32403297e-002 2.21940398e-004 8.68738070e-003 2.31452123e-003
      9.67026036e-003 3.48763482e-004 1.07799622e-003 6.65821193e-004
      2.21940398e-004 6.34115422e-005 1.90234627e-004 1.26823084e-004
      6.65821193e-004 0. 1.90234627e-004 3.17057711e-005 6.97526964e-004
      0. 5.38998109e-004 3.17057711e-004 9.19467362e-004 0.
      3.17057711e-005 6.34115422e-005 0. 0. 6.34115422e-005 0.
      6.97526964e-004 3.17057711e-005 1.90234627e-004 3.17057711e-005
      3.17057711e-004 0. 2.21940398e-004 6.34115422e-005 1.75967030e-002
      7.60938507e-004 9.19467362e-004 8.24350049e-004 4.43880796e-004
      3.17057711e-005 6.02409651e-004 3.17057711e-004 1.17311347e-003
      6.34115422e-005 3.80469253e-004 9.51173133e-005 6.65821193e-004
      9.51173133e-005 8.56055820e-004 6.65821193e-004 1.83259360e-002
      2.85351940e-004 7.60938507e-004 1.26823084e-004 2.21940398e-004
      3.17057711e-005 3.48763482e-004 3.17057711e-005 1.26823084e-002
      2.53646169e-004 7.60938507e-004 1.90234627e-004 3.96322133e-003
      1.58528856e-004 2.91693094e-003 1.04629039e-003 1.73747614e-002
      1.22384271e-002 1.55358273e-003 1.58845913e-002 7.60938507e-004
      7.29232735e-004 7.29232735e-004 2.03868095e-002 1.64870010e-003
      9.82878846e-004 1.58528856e-004 8.24350049e-004 1.33164239e-003
      5.70703880e-004 1.71211164e-003 9.70196538e-003 1.23652501e-003
      4.75586567e-004 1.26823084e-004 1.58528856e-004 6.34115422e-005
      3.17057711e-005 0. 1.58528856e-004 8.56055820e-004 7.29232735e-004
      1.26823084e-004 3.80469253e-004 6.34115422e-004 9.51173133e-005
      7.29232735e-004 2.18769815e-003 2.25110981e-003 1.23652501e-003
      2.85351940e-004 9.19467362e-004 6.34115422e-005 3.17057711e-005
      3.17057711e-004 9.19467362e-004 3.17057711e-004 1.58528856e-004
      3.17057711e-005 1.26823084e-004 1.90234627e-004 6.34115422e-005
      2.53646169e-004 7.29232735e-004 1.01458468e-003 5.07292338e-004
      1.90234627e-004 4.43880796e-004 1.58528856e-004 6.34115422e-005
      9.51173133e-005 2.53646169e-004 1.01458468e-003 4.12175024e-004
      1.90234627e-004 2.85351940e-004 7.92644278e-004 2.21940398e-004
      8.24350049e-004 2.69499049e-003 1.49651235e-002 1.55041218e-002
      7.60938507e-004 1.15726059e-002 2.21940398e-004 1.26823084e-004
      5.07292338e-004 3.45592899e-003 1.45846547e-003 5.38998109e-004
      9.51173133e-005 6.34115422e-004 5.38998109e-004 5.07292338e-004
      6.34115422e-004 2.34622695e-003 9.82878846e-004 2.53646169e-004
      3.17057711e-005 2.21940398e-004 6.34115422e-005 0. 6.34115422e-005
      6.34115422e-005 8.56055820e-004 2.53646169e-004 2.21940398e-004
      2.53646169e-004 3.17057711e-004 1.26823084e-004 2.85351940e-004
      6.34115422e-004 4.47051376e-002 3.81103344e-002 2.09258078e-003
      1.04946103e-002 5.70703880e-004 3.17057711e-004 8.87761591e-004
      3.32910591e-003 2.02916935e-003 8.87761591e-004 3.17057711e-004
      7.29232735e-004 9.82878846e-004 7.60938507e-004 1.52187701e-003
      3.67786945e-003 4.71781865e-002 7.79961934e-003 1.33164239e-003
      2.82181357e-003 2.53646169e-004 9.51173133e-005 6.65821193e-004
      1.17311347e-003 1.26506025e-002 3.20228282e-003 7.29232735e-004
      2.98034237e-003 4.72415984e-003 6.97526964e-004 4.75586578e-003
      7.26062153e-003</_>
    <_>
      3.86176296e-002 9.19467304e-003 4.75586578e-003 1.01141408e-002
      4.31198487e-003 7.60938507e-004 8.87761544e-003 2.05136333e-002
      5.29486360e-003 6.97526964e-004 2.85351940e-004 6.02409651e-004
      9.92390607e-003 1.01458468e-003 3.08814198e-002 5.81800900e-002
      8.02155957e-003 5.07292338e-004 8.56055820e-004 6.34115422e-004
      4.75586567e-004 0. 1.29993656e-003 5.38998109e-004 1.17311347e-002
      4.12175024e-004 4.75586567e-004 5.07292338e-004 2.55865566e-002
      5.38998109e-004 5.90044372e-002 1.30944829e-002 5.58021571e-003
      6.65821193e-004 4.43880796e-004 3.80469253e-004 3.80469253e-004
      3.17057711e-005 6.02409651e-004 6.65821193e-004 5.38998109e-004
      3.17057711e-005 6.34115422e-005 6.34115422e-005 3.48763482e-004
      3.17057711e-005 1.17311347e-003 1.14140776e-003 1.36334812e-002
      5.07292338e-004 6.34115422e-004 2.85351940e-004 5.07292338e-004 0.
      8.56055820e-004 2.21940398e-004 2.43500322e-002 2.85351940e-004
      7.60938507e-004 3.80469253e-004 3.04692462e-002 2.53646169e-004
      1.74698792e-002 5.10462886e-003 4.97780601e-003 2.53646169e-004
      6.02409651e-004 2.85351940e-004 2.85351940e-004 0. 2.21940398e-004
      2.21940398e-004 2.21940398e-004 9.51173133e-005 3.17057711e-005 0.
      1.90234627e-004 3.17057711e-005 1.90234627e-004 3.48763482e-004
      5.70703880e-004 3.17057711e-005 3.17057711e-005 3.17057711e-005
      3.17057711e-005 0. 1.26823084e-004 0. 3.80469253e-004 0.
      9.51173133e-005 0. 3.17057711e-004 3.17057711e-005 4.43880796e-004
      9.51173133e-005 1.01775527e-002 1.07799622e-003 6.02409651e-004
      8.87761591e-004 4.75586567e-004 3.17057711e-005 3.80469253e-004
      4.12175024e-004 6.97526964e-004 1.26823084e-004 6.34115422e-005
      3.17057711e-005 6.34115422e-004 0. 5.70703880e-004 5.38998109e-004
      2.76474319e-002 4.12175024e-004 6.34115422e-004 2.85351940e-004
      2.85351940e-004 0. 4.43880796e-004 1.58528856e-004 4.27393802e-002
      9.51173133e-005 7.29232735e-004 3.48763482e-004 1.28091313e-002
      9.51173133e-005 5.80215594e-003 1.55358273e-003 5.96068474e-003
      1.04629043e-002 4.12175024e-004 2.38744449e-002 3.80469253e-004
      5.38998109e-004 7.92644278e-004 2.64109075e-002 3.80469253e-004
      3.80469253e-004 0. 5.70703880e-004 5.70703880e-004 3.80469253e-004
      8.56055820e-004 1.51236523e-002 8.87761591e-004 4.12175024e-004 0.
      2.53646169e-004 0. 0. 3.17057711e-005 2.21940398e-004
      6.97526964e-004 3.17057711e-004 6.34115422e-005 3.17057711e-004
      8.56055820e-004 1.90234627e-004 1.23652501e-003 4.43880772e-003
      3.17057711e-004 6.97526964e-004 6.34115422e-005 7.92644278e-004
      3.17057711e-005 3.17057711e-005 6.34115422e-005 5.70703880e-004 0.
      6.34115422e-005 0. 6.34115422e-005 3.17057711e-005 0. 0.
      7.60938507e-004 5.70703880e-004 3.17057711e-004 0. 5.38998109e-004
      0. 0. 3.17057711e-005 2.21940398e-004 7.60938507e-004
      3.48763482e-004 3.17057711e-005 3.80469253e-004 6.65821193e-004
      2.21940398e-004 6.34115422e-004 2.88522500e-003 1.00507289e-002
      2.72035506e-002 6.34115422e-004 3.81420404e-002 3.48763482e-004
      3.48763482e-004 4.12175024e-004 1.08116679e-002 7.60938507e-004
      7.92644278e-004 3.17057711e-005 6.02409651e-004 5.38998109e-004
      3.48763482e-004 8.24350049e-004 6.24603685e-003 7.29232735e-004
      5.07292338e-004 3.17057711e-005 3.48763482e-004 0. 0.
      1.58528856e-004 1.90234627e-004 5.07292338e-004 2.21940398e-004
      3.17057711e-005 2.53646169e-004 5.38998109e-004 3.17057711e-005
      5.70703880e-004 1.68040581e-003 2.75840200e-002 5.03804684e-002
      1.26823084e-003 1.79454666e-002 2.85351940e-004 2.85351940e-004
      9.19467362e-004 6.02409616e-003 7.60938507e-004 1.33164239e-003
      3.17057711e-005 6.34115422e-004 6.65821193e-004 7.92644278e-004
      1.74381735e-003 6.56309444e-003 4.48953696e-002 1.21433102e-002
      1.23652501e-003 4.02663276e-003 1.26823084e-004 2.21940398e-004
      5.07292338e-004 1.33164239e-003 1.87381096e-002 4.31198487e-003
      7.29232735e-004 3.01204808e-003 6.05580211e-003 1.61699427e-003
      5.32656955e-003 1.00190239e-002</_>
    <_>
      4.53075469e-002 9.38490778e-003 5.48509834e-003 1.04311984e-002
      4.18516155e-003 7.29232735e-004 8.59226380e-003 1.96892843e-002
      6.30944828e-003 6.34115422e-004 3.80469253e-004 5.38998109e-004
      1.13189602e-002 1.01458468e-003 3.96639183e-002 6.72796443e-002
      9.63855442e-003 7.29232735e-004 6.97526964e-004 3.17057711e-004
      5.38998109e-004 3.17057711e-005 1.10970193e-003 6.02409651e-004
      1.16994297e-002 4.43880796e-004 6.65821193e-004 3.48763482e-004
      2.75523141e-002 2.53646169e-004 7.12111592e-002 1.60114132e-002
      6.43627159e-003 6.97526964e-004 5.07292338e-004 6.34115422e-004
      3.17057711e-004 0. 5.38998109e-004 4.43880796e-004 6.97526964e-004
      6.34115422e-005 9.51173133e-005 9.51173133e-005 6.02409651e-004
      6.34115422e-005 1.26823084e-003 1.23652501e-003 1.26506025e-002
      3.80469253e-004 7.29232735e-004 3.17057711e-004 4.75586567e-004
      3.17057711e-005 6.65821193e-004 2.21940398e-004 1.97526943e-002
      4.43880796e-004 5.70703880e-004 2.85351940e-004 2.84083709e-002
      1.26823084e-004 1.86429936e-002 4.12175013e-003 4.75586578e-003
      7.92644278e-004 1.58528856e-004 3.80469253e-004 9.51173133e-005
      3.17057711e-005 3.80469253e-004 2.53646169e-004 3.48763482e-004
      3.17057711e-005 6.34115422e-005 0. 3.17057711e-004 3.17057711e-005
      4.12175024e-004 2.53646169e-004 6.02409651e-004 0. 3.17057711e-005
      0. 0. 0. 6.34115422e-005 0. 3.80469253e-004 6.34115422e-005
      3.17057711e-005 3.17057711e-005 3.48763482e-004 0. 2.21940398e-004
      2.53646169e-004 1.04311984e-002 1.23652501e-003 5.70703880e-004
      7.60938507e-004 5.70703880e-004 0. 2.53646169e-004 3.17057711e-004
      8.24350049e-004 6.34115422e-005 6.34115422e-005 0. 3.80469253e-004
      3.17057711e-005 6.65821193e-004 6.34115422e-004 2.45085601e-002
      3.17057711e-004 4.75586567e-004 3.48763482e-004 2.85351940e-004 0.
      3.80469253e-004 1.26823084e-004 3.16106528e-002 3.80469253e-004
      5.07292338e-004 2.85351940e-004 9.16296802e-003 1.26823084e-004
      5.54850977e-003 1.49017118e-003 6.34115422e-003 1.12872543e-002
      6.34115422e-004 2.01331638e-002 2.53646169e-004 4.12175024e-004
      6.34115422e-004 1.99746359e-002 4.12175024e-004 5.38998109e-004
      3.17057711e-005 4.12175024e-004 6.02409651e-004 4.12175024e-004
      1.29993656e-003 1.39188329e-002 8.24350049e-004 2.53646169e-004
      6.34115422e-005 2.53646169e-004 0. 0. 1.26823084e-004
      2.53646169e-004 6.02409651e-004 3.80469253e-004 3.17057711e-005
      3.48763482e-004 9.19467362e-004 2.21940398e-004 1.20481930e-003
      3.93151538e-003 4.43880796e-004 6.97526964e-004 9.51173133e-005
      7.60938507e-004 0. 6.34115422e-005 3.17057711e-005 5.07292338e-004
      1.90234627e-004 3.17057711e-005 0. 6.34115422e-005 9.51173133e-005
      3.17057711e-005 3.17057711e-005 7.29232735e-004 8.56055820e-004
      3.80469253e-004 6.34115422e-005 3.80469253e-004 3.17057711e-005 0.
      3.17057711e-005 1.90234627e-004 6.02409651e-004 3.48763482e-004
      6.34115422e-005 2.21940398e-004 6.02409651e-004 1.26823084e-004
      5.70703880e-004 2.25110981e-003 9.38490778e-003 2.60938499e-002
      7.29232735e-004 3.18325944e-002 2.53646169e-004 2.21940398e-004
      2.21940398e-004 8.87761544e-003 6.34115422e-004 7.29232735e-004
      6.34115422e-005 6.97526964e-004 4.75586567e-004 3.48763482e-004
      6.34115422e-004 5.86556736e-003 7.60938507e-004 4.12175024e-004
      6.34115422e-005 1.90234627e-004 0. 0. 0. 6.34115422e-005
      6.02409651e-004 2.85351940e-004 9.51173133e-005 1.26823084e-004
      4.75586567e-004 1.58528856e-004 6.02409651e-004 1.10970193e-003
      2.90424861e-002 5.35193421e-002 1.29993656e-003 1.84210520e-002
      4.12175024e-004 5.07292338e-004 8.24350049e-004 4.88268863e-003
      1.10970193e-003 1.77552318e-003 1.26823084e-004 8.24350049e-004
      9.82878846e-004 5.07292338e-004 1.64870010e-003 6.24603685e-003
      5.09194657e-002 1.16677238e-002 8.87761591e-004 2.85351928e-003
      4.12175024e-004 6.34115422e-005 4.75586567e-004 1.55358273e-003
      1.75015852e-002 3.48763471e-003 5.70703880e-004 2.18769815e-003
      5.51680429e-003 9.51173133e-004 5.10462886e-003 7.48256175e-003</_>
    <_>
      4.76537719e-002 9.03614424e-003 4.78757126e-003 1.13823712e-002
      4.62904247e-003 5.07292338e-004 7.41915032e-003 2.19403934e-002
      4.66074841e-003 6.34115422e-004 3.17057711e-004 5.38998109e-004
      8.59226380e-003 9.82878846e-004 2.47939117e-002 4.99682948e-002
      8.11667740e-003 5.38998109e-004 6.65821193e-004 5.70703880e-004
      5.70703880e-004 6.34115422e-005 6.34115422e-004 5.07292338e-004
      1.05897272e-002 4.43880796e-004 6.34115422e-004 4.43880796e-004
      2.18452755e-002 3.80469253e-004 4.81610671e-002 1.16043119e-002
      4.97780601e-003 1.01458468e-003 4.75586567e-004 5.38998109e-004
      3.80469253e-004 9.51173133e-005 5.07292338e-004 6.97526964e-004
      6.65821193e-004 3.17057711e-005 9.51173133e-005 1.26823084e-004
      5.07292338e-004 0. 6.97526964e-004 1.23652501e-003 1.20164873e-002
      3.80469253e-004 7.60938507e-004 3.48763482e-004 7.29232735e-004
      3.17057711e-005 5.38998109e-004 2.85351940e-004 2.29866840e-002
      6.34115422e-004 7.92644278e-004 5.07292338e-004 3.01204827e-002
      2.21940398e-004 1.67089403e-002 4.37539630e-003 6.02409616e-003
      9.51173133e-004 3.17057711e-004 7.29232735e-004 2.85351940e-004 0.
      2.21940398e-004 3.80469253e-004 4.43880796e-004 0. 3.17057711e-005
      0. 6.02409651e-004 0. 2.53646169e-004 2.53646169e-004
      5.38998109e-004 0. 0. 6.34115422e-005 0. 0. 3.17057711e-005 0.
      6.02409651e-004 0. 9.51173133e-005 3.17057711e-005 4.12175024e-004
      0. 2.21940398e-004 9.51173133e-005 1.11287255e-002 1.17311347e-003
      7.92644278e-004 5.38998109e-004 8.24350049e-004 0. 5.07292338e-004
      4.43880796e-004 8.56055820e-004 6.34115422e-005 3.17057711e-005
      3.17057711e-005 5.38998109e-004 0. 6.97526964e-004 6.97526964e-004
      2.40012687e-002 4.75586567e-004 9.51173133e-004 2.85351940e-004
      3.80469253e-004 0. 6.97526964e-004 2.21940398e-004 4.75269482e-002
      4.12175024e-004 6.02409651e-004 2.21940398e-004 1.26188966e-002
      9.51173133e-005 5.73874451e-003 1.39505393e-003 5.67533309e-003
      1.23335449e-002 5.70703880e-004 2.36842111e-002 7.29232735e-004
      6.97526964e-004 5.38998109e-004 2.80596074e-002 4.75586567e-004
      6.97526964e-004 6.34115422e-005 4.43880796e-004 3.80469253e-004
      6.97526964e-004 1.01458468e-003 1.52187701e-002 7.92644278e-004
      5.38998109e-004 1.58528856e-004 5.07292338e-004 0. 3.17057711e-005
      3.17057711e-005 5.07292338e-004 9.51173133e-004 4.43880796e-004
      9.51173133e-005 3.17057711e-004 5.38998109e-004 3.48763482e-004
      1.80722889e-003 4.37539630e-003 5.70703880e-004 6.34115422e-004
      6.34115422e-005 1.01458468e-003 6.34115422e-005 6.34115422e-005 0.
      6.02409651e-004 6.34115422e-005 1.58528856e-004 0. 0.
      3.17057711e-005 3.17057711e-005 1.90234627e-004 7.92644278e-004
      6.34115422e-004 3.48763482e-004 3.17057711e-005 3.80469253e-004
      3.17057711e-005 0. 6.34115422e-005 2.21940398e-004 7.29232735e-004
      3.80469253e-004 0. 4.43880796e-004 7.29232735e-004 2.53646169e-004
      7.92644278e-004 3.01204808e-003 1.03043756e-002 2.82815471e-002
      8.87761591e-004 4.59416620e-002 3.48763482e-004 3.17057711e-004
      6.02409651e-004 1.21750161e-002 6.02409651e-004 8.87761591e-004
      6.34115422e-005 7.60938507e-004 6.02409651e-004 5.07292338e-004
      7.92644278e-004 7.38744438e-003 9.82878846e-004 8.24350049e-004 0.
      6.02409651e-004 0. 0. 0. 1.90234627e-004 6.34115422e-004
      4.12175024e-004 3.17057711e-005 3.17057711e-004 1.58528856e-004
      1.26823084e-004 6.34115422e-004 1.71211164e-003 2.73620803e-002
      5.06341159e-002 1.52187701e-003 2.13696901e-002 5.70703880e-004
      4.12175024e-004 6.65821193e-004 6.88015204e-003 1.33164239e-003
      1.20481930e-003 1.26823084e-004 7.92644278e-004 6.97526964e-004
      6.34115422e-004 1.64870010e-003 6.18262542e-003 4.02029157e-002
      1.34749524e-002 1.45846547e-003 4.40710224e-003 3.80469253e-004
      9.51173133e-005 5.70703880e-004 1.68040581e-003 1.81674063e-002
      4.72415984e-003 6.65821193e-004 2.28281552e-003 6.34115422e-003
      1.33164239e-003 5.54850977e-003 1.08433738e-002</_>
    <_>
      3.86176296e-002 9.13126208e-003 6.62650587e-003 1.24286618e-002
      4.37539630e-003 6.97526964e-004 8.94102734e-003 2.92327199e-002
      3.80469253e-003 6.34115422e-004 4.43880796e-004 8.87761591e-004
      8.78249854e-003 1.23652501e-003 2.90424861e-002 6.20481931e-002
      7.79961934e-003 5.07292338e-004 8.24350049e-004 5.07292338e-004
      3.17057711e-004 0. 1.07799622e-003 5.07292338e-004 9.44831967e-003
      2.21940398e-004 4.75586567e-004 5.38998109e-004 2.05453392e-002
      2.53646169e-004 4.95244153e-002 1.33164236e-002 5.54850977e-003
      6.34115422e-004 5.70703880e-004 5.38998109e-004 4.43880796e-004
      3.17057711e-005 5.70703880e-004 6.34115422e-004 3.48763482e-004
      9.51173133e-005 0. 3.17057711e-005 3.48763482e-004 0.
      8.56055820e-004 1.29993656e-003 1.04629043e-002 3.17057711e-004
      5.07292338e-004 2.85351940e-004 6.65821193e-004 0. 7.60938507e-004
      3.48763482e-004 1.84527580e-002 6.34115422e-004 5.07292338e-004
      2.85351940e-004 2.40963846e-002 2.85351940e-004 1.54090049e-002
      3.89980967e-003 5.83386188e-003 7.29232735e-004 1.90234627e-004
      5.70703880e-004 2.53646169e-004 0. 3.48763482e-004 4.43880796e-004
      4.75586567e-004 0. 3.17057711e-005 0. 4.12175024e-004
      3.17057711e-005 1.90234627e-004 4.12175024e-004 7.60938507e-004
      3.17057711e-005 3.17057711e-005 3.17057711e-005 0. 0.
      6.34115422e-005 0. 3.48763482e-004 3.17057711e-005 0.
      3.17057711e-005 2.21940398e-004 0. 3.80469253e-004 1.90234627e-004
      9.06785019e-003 8.56055820e-004 6.34115422e-004 7.92644278e-004
      3.48763482e-004 3.17057711e-005 5.70703880e-004 2.21940398e-004
      5.38998109e-004 3.17057711e-005 0. 6.34115422e-005 2.85351940e-004
      3.17057711e-005 6.65821193e-004 6.34115422e-004 2.36525051e-002
      3.48763482e-004 7.29232735e-004 4.12175024e-004 4.12175024e-004 0.
      5.70703880e-004 1.58528856e-004 4.05833870e-002 3.17057711e-004
      6.97526964e-004 1.26823084e-004 9.95561201e-003 9.51173133e-005
      4.50221961e-003 1.20481930e-003 5.35827503e-003 1.33164236e-002
      4.75586567e-004 3.09131257e-002 2.53646169e-004 6.34115422e-004
      6.97526964e-004 3.36398222e-002 4.43880796e-004 5.07292338e-004
      6.34115422e-005 5.70703880e-004 4.43880796e-004 6.02409651e-004
      1.42675964e-003 1.85161699e-002 7.29232735e-004 4.12175024e-004
      9.51173133e-005 4.43880796e-004 9.51173133e-005 0. 3.17057711e-005
      2.85351940e-004 2.85351940e-004 3.80469253e-004 1.58528856e-004
      2.53646169e-004 5.38998109e-004 3.48763482e-004 1.64870010e-003
      5.26315812e-003 3.48763482e-004 6.02409651e-004 9.51173133e-005
      8.24350049e-004 6.34115422e-005 3.17057711e-005 6.34115422e-005
      6.02409651e-004 3.17057711e-005 0. 0. 1.26823084e-004
      6.34115422e-005 3.17057711e-005 3.17057711e-005 8.24350049e-004
      5.07292338e-004 3.80469253e-004 3.17057711e-005 4.12175024e-004 0.
      3.17057711e-005 0. 1.90234627e-004 6.34115422e-004 4.12175024e-004
      0. 3.48763482e-004 6.02409651e-004 2.21940398e-004 5.70703880e-004
      2.44134432e-003 1.10019026e-002 3.27520594e-002 4.43880796e-004
      4.27076742e-002 5.70703880e-004 4.12175024e-004 6.02409651e-004
      1.29676601e-002 4.43880796e-004 7.60938507e-004 3.17057711e-005
      6.65821193e-004 6.02409651e-004 3.17057711e-004 8.87761591e-004
      7.51426769e-003 9.19467362e-004 2.53646169e-004 9.51173133e-005
      2.85351940e-004 3.17057711e-005 0. 9.51173133e-005 2.85351940e-004
      8.87761591e-004 2.53646169e-004 3.17057711e-005 3.48763482e-004
      2.21940398e-004 1.90234627e-004 6.65821193e-004 1.58528856e-003
      2.58719083e-002 5.29486351e-002 9.51173133e-004 2.32720356e-002
      3.48763482e-004 2.85351940e-004 6.65821193e-004 6.65821182e-003
      8.56055820e-004 1.29993656e-003 9.51173133e-005 8.56055820e-004
      5.70703880e-004 5.38998109e-004 1.49017118e-003 6.88015204e-003
      4.01712097e-002 1.25237796e-002 1.39505393e-003 4.37539630e-003
      2.21940398e-004 9.51173133e-005 4.43880796e-004 1.39505393e-003
      1.64235886e-002 3.61445779e-003 7.60938507e-004 2.88522500e-003
      5.19974623e-003 1.49017118e-003 5.10462886e-003 9.86049417e-003</_>
    <_>
      6.65821210e-002 6.56309444e-003 3.89980967e-003 1.01141408e-002
      3.93151538e-003 5.07292338e-004 7.16550415e-003 2.32086238e-002
      3.83639825e-003 6.34115422e-004 1.58528856e-004 4.12175024e-004
      6.46797707e-003 7.29232735e-004 2.32720356e-002 4.92073558e-002
      5.96068474e-003 4.12175024e-004 4.75586567e-004 2.21940398e-004
      7.29232735e-004 3.17057711e-005 8.87761591e-004 3.17057711e-004
      8.14838335e-003 1.90234627e-004 2.85351940e-004 2.85351940e-004
      1.67723522e-002 3.80469253e-004 4.26125564e-002 1.13823712e-002
      4.37539630e-003 5.38998109e-004 4.75586567e-004 6.02409651e-004
      3.80469253e-004 0. 6.02409651e-004 5.70703880e-004 3.80469253e-004
      6.34115422e-005 3.17057711e-005 6.34115422e-005 4.12175024e-004
      6.34115422e-005 7.29232735e-004 6.02409651e-004 9.82878916e-003
      1.58528856e-004 5.70703880e-004 1.26823084e-004 5.70703880e-004 0.
      8.24350049e-004 2.85351940e-004 2.22257450e-002 1.58528856e-004
      4.12175024e-004 2.53646169e-004 2.63157897e-002 2.53646169e-004
      1.28091313e-002 3.77298659e-003 4.37539630e-003 6.97526964e-004
      1.90234627e-004 8.24350049e-004 1.26823084e-004 6.34115422e-005
      3.48763482e-004 3.48763482e-004 2.21940398e-004 3.17057711e-005
      6.34115422e-005 0. 2.53646169e-004 6.34115422e-005 2.21940398e-004
      3.17057711e-004 6.02409651e-004 0. 6.34115422e-005 0.
      9.51173133e-005 0. 0. 3.17057711e-005 5.38998109e-004 0. 0.
      3.17057711e-005 3.48763482e-004 6.34115422e-005 2.21940398e-004
      9.51173133e-005 9.16296802e-003 1.10970193e-003 7.29232735e-004
      3.80469253e-004 2.21940398e-004 6.34115422e-005 2.53646169e-004
      3.17057711e-004 6.65821193e-004 0. 6.34115422e-005 0.
      3.80469253e-004 9.51173133e-005 5.38998109e-004 2.85351940e-004
      2.08623968e-002 4.75586567e-004 5.70703880e-004 3.48763482e-004
      4.43880796e-004 0. 5.07292338e-004 1.26823084e-004 4.41661365e-002
      2.21940398e-004 3.80469253e-004 1.26823084e-004 1.05897272e-002
      3.17057711e-005 5.19974623e-003 1.10970193e-003 4.59733652e-003
      1.29676601e-002 6.97526964e-004 3.26569453e-002 3.80469253e-004
      6.65821193e-004 4.43880796e-004 3.73811051e-002 4.75586567e-004
      4.12175024e-004 3.17057711e-005 6.97526964e-004 4.75586567e-004
      7.60938507e-004 9.82878846e-004 1.68991759e-002 5.70703880e-004
      4.75586567e-004 0. 5.07292338e-004 3.17057711e-005 0.
      9.51173133e-005 2.85351940e-004 5.38998109e-004 6.02409651e-004 0.
      4.75586567e-004 1.90234627e-004 1.90234627e-004 9.51173133e-004
      4.12175013e-003 7.60938507e-004 5.70703880e-004 9.51173133e-005
      1.14140776e-003 3.17057711e-005 6.34115422e-005 3.17057711e-005
      5.07292338e-004 3.17057711e-005 1.26823084e-004 0. 3.17057711e-005
      3.17057711e-005 0. 3.17057711e-005 4.43880796e-004 6.02409651e-004
      5.70703880e-004 3.17057711e-005 6.97526964e-004 3.17057711e-005
      3.17057711e-005 3.17057711e-005 3.17057711e-004 5.07292338e-004
      4.12175024e-004 3.17057711e-005 3.80469253e-004 6.65821193e-004
      2.85351940e-004 7.60938507e-004 2.37793289e-003 9.82878916e-003
      3.33544724e-002 5.38998109e-004 6.04629032e-002 2.85351940e-004
      5.07292338e-004 5.70703880e-004 1.58211794e-002 6.34115422e-004
      5.07292338e-004 0. 8.56055820e-004 2.21940398e-004 2.85351940e-004
      6.34115422e-004 6.78503467e-003 1.14140776e-003 6.65821193e-004
      3.17057711e-005 1.90234627e-004 0. 0. 6.34115422e-005
      6.34115422e-005 6.02409651e-004 3.17057711e-004 6.34115422e-005
      2.85351940e-004 5.38998109e-004 3.48763482e-004 2.85351940e-004
      1.42675964e-003 2.85351928e-002 6.16360195e-002 8.87761591e-004
      2.32720356e-002 3.80469253e-004 1.58528856e-004 7.92644278e-004
      5.86556736e-003 8.24350049e-004 8.56055820e-004 0. 6.34115422e-004
      5.07292338e-004 3.17057711e-004 1.33164239e-003 6.08750805e-003
      3.94102745e-002 1.25871906e-002 8.56055820e-004 5.35827503e-003
      2.21940398e-004 2.21940398e-004 4.12175024e-004 1.55358273e-003
      1.52187701e-002 4.37539630e-003 4.12175024e-004 3.61445779e-003
      5.19974623e-003 1.96575769e-003 4.50221961e-003 9.57514253e-003</_>
    <_>
      4.10906784e-002 8.68738070e-003 5.45339240e-003 1.37285991e-002
      4.18516155e-003 5.38998109e-004 1.03043756e-002 2.81864293e-002
      4.50221961e-003 6.02409651e-004 4.12175024e-004 5.07292338e-004
      7.83132575e-003 9.19467362e-004 2.42866203e-002 5.66582121e-002
      7.07038678e-003 6.02409651e-004 8.87761591e-004 2.21940398e-004
      4.75586567e-004 3.17057711e-005 7.60938507e-004 3.80469253e-004
      8.52885190e-003 3.48763482e-004 4.75586567e-004 6.65821193e-004
      1.91819910e-002 2.85351940e-004 4.20735590e-002 1.28091313e-002
      5.48509834e-003 8.56055820e-004 9.82878846e-004 6.65821193e-004
      4.43880796e-004 0. 4.12175024e-004 7.60938507e-004 1.90234627e-004
      1.26823084e-004 6.34115422e-005 6.34115422e-005 4.12175024e-004
      3.17057711e-005 8.87761591e-004 1.10970193e-003 9.95561201e-003
      4.12175024e-004 6.65821193e-004 5.38998109e-004 5.07292338e-004 0.
      5.70703880e-004 3.48763482e-004 2.12745722e-002 3.80469253e-004
      5.70703880e-004 2.21940398e-004 2.35890932e-002 2.85351940e-004
      1.42041855e-002 3.55104636e-003 6.08750805e-003 6.65821193e-004
      5.07292338e-004 5.07292338e-004 3.48763482e-004 6.34115422e-005
      2.53646169e-004 3.80469253e-004 2.53646169e-004 0. 3.17057711e-005
      0. 1.90234627e-004 9.51173133e-005 5.07292338e-004 2.53646169e-004
      8.56055820e-004 3.17057711e-005 9.51173133e-005 3.17057711e-005
      6.34115422e-005 0. 3.17057711e-005 0. 3.80469253e-004 0. 0. 0.
      2.21940398e-004 0. 2.53646169e-004 3.17057711e-004 9.54343658e-003
      9.82878846e-004 5.70703880e-004 8.56055820e-004 4.43880796e-004 0.
      4.12175024e-004 4.75586567e-004 5.70703880e-004 0. 3.17057711e-005
      0. 5.70703880e-004 6.34115422e-005 6.97526964e-004 4.75586567e-004
      2.11160425e-002 1.58528856e-004 7.29232735e-004 1.58528856e-004
      4.12175024e-004 0. 4.43880796e-004 0. 4.12175022e-002
      2.53646169e-004 3.80469253e-004 2.53646169e-004 1.00824349e-002
      3.17057711e-005 5.38998097e-003 1.17311347e-003 5.61192119e-003
      1.46797718e-002 4.43880796e-004 3.49080525e-002 3.80469253e-004
      6.02409651e-004 8.87761591e-004 4.25491445e-002 5.38998109e-004
      7.92644278e-004 9.51173133e-005 6.34115422e-004 3.80469253e-004
      7.29232735e-004 1.04629039e-003 1.97526943e-002 8.24350049e-004
      2.21940398e-004 6.34115422e-005 5.70703880e-004 0. 6.34115422e-005
      9.51173133e-005 4.43880796e-004 6.02409651e-004 3.48763482e-004
      9.51173133e-005 3.17057711e-004 4.12175024e-004 4.43880796e-004
      1.20481930e-003 4.91439458e-003 4.43880796e-004 5.38998109e-004
      1.26823084e-004 5.38998109e-004 0. 6.34115422e-005 0.
      6.02409651e-004 6.34115422e-005 3.17057711e-005 0. 6.34115422e-005
      9.51173133e-005 9.51173133e-005 1.90234627e-004 9.19467362e-004
      8.56055820e-004 5.07292338e-004 3.17057711e-005 4.12175024e-004
      9.51173133e-005 3.17057711e-005 9.51173133e-005 3.80469253e-004
      5.38998109e-004 2.85351940e-004 3.17057711e-005 5.07292338e-004
      4.75586567e-004 1.58528856e-004 6.97526964e-004 2.28281552e-003
      1.10336086e-002 3.38934697e-002 6.97526964e-004 5.18389344e-002
      1.90234627e-004 3.48763482e-004 6.02409651e-004 1.45846540e-002
      4.75586567e-004 4.43880796e-004 6.34115422e-005 6.34115422e-004
      4.43880796e-004 4.12175024e-004 1.10970193e-003 7.76791386e-003
      6.02409651e-004 5.07292338e-004 3.17057711e-005 3.17057711e-004 0.
      0. 6.34115422e-005 1.26823084e-004 6.65821193e-004 3.17057711e-004
      0. 2.85351940e-004 4.43880796e-004 0. 6.65821193e-004
      2.02916935e-003 2.43817382e-002 5.11097014e-002 9.51173133e-004
      2.39378568e-002 3.48763482e-004 2.21940398e-004 1.01458468e-003
      6.46797707e-003 7.29232735e-004 1.23652501e-003 9.51173133e-005
      7.60938507e-004 6.02409651e-004 5.70703880e-004 1.20481930e-003
      7.29232701e-003 3.52251120e-002 1.20164873e-002 1.23652501e-003
      5.32656955e-003 2.53646169e-004 9.51173133e-005 4.75586567e-004
      1.68040581e-003 1.51236523e-002 4.85098269e-003 5.70703880e-004
      2.34622695e-003 4.69245389e-003 8.87761591e-004 5.26315812e-003
      1.04311984e-002</_>
    <_>
      3.95370945e-002 6.88015204e-003 4.59733652e-003 1.00190239e-002
      4.47051367e-003 7.60938507e-004 8.65567569e-003 1.71211157e-002
      4.91439458e-003 6.02409651e-004 3.48763482e-004 8.24350049e-004
      8.75079259e-003 8.56055820e-004 2.41280906e-002 4.49904874e-002
      8.02155957e-003 5.07292338e-004 5.38998109e-004 2.85351940e-004
      6.97526964e-004 0. 6.97526964e-004 3.48763482e-004 1.19213695e-002
      5.38998109e-004 7.92644278e-004 3.48763482e-004 2.17818636e-002
      4.75586567e-004 4.72415984e-002 1.19530754e-002 6.53138850e-003
      7.29232735e-004 3.80469253e-004 8.87761591e-004 4.43880796e-004
      9.51173133e-005 6.34115422e-004 5.38998109e-004 5.38998109e-004
      6.34115422e-005 6.34115422e-005 1.26823084e-004 7.29232735e-004
      9.51173133e-005 8.24350049e-004 1.07799622e-003 1.47748888e-002
      6.97526964e-004 9.82878846e-004 3.48763482e-004 6.02409651e-004 0.
      6.02409651e-004 3.17057711e-004 3.46544087e-002 2.85351940e-004
      5.38998109e-004 4.43880796e-004 3.51299942e-002 3.48763482e-004
      1.46163600e-002 4.21686750e-003 5.29486360e-003 6.02409651e-004
      4.12175024e-004 4.75586567e-004 4.12175024e-004 0. 2.85351940e-004
      4.12175024e-004 5.38998109e-004 3.17057711e-005 3.17057711e-005
      1.58528856e-004 4.43880796e-004 0. 5.07292338e-004 5.07292338e-004
      9.19467362e-004 6.34115422e-005 9.51173133e-005 9.51173133e-005 0.
      0. 0. 0. 3.80469253e-004 3.17057711e-005 0. 0. 3.17057711e-004 0.
      1.90234627e-004 9.51173133e-005 1.24920737e-002 8.87761591e-004
      5.38998109e-004 8.56055820e-004 2.85351940e-004 0. 2.85351940e-004
      3.80469253e-004 9.19467362e-004 1.26823084e-004 3.17057711e-005
      3.17057711e-005 6.97526964e-004 6.34115422e-005 9.19467362e-004
      3.80469253e-004 3.10082436e-002 4.43880796e-004 6.97526964e-004
      3.17057711e-004 5.38998109e-004 3.17057711e-005 2.85351940e-004
      1.90234627e-004 5.94800264e-002 3.80469253e-004 6.97526964e-004
      2.21940398e-004 1.59797091e-002 2.53646169e-004 5.61192119e-003
      1.42675964e-003 5.23145217e-003 1.08433738e-002 6.65821193e-004
      2.38427389e-002 3.80469253e-004 5.70703880e-004 6.65821193e-004
      2.23525688e-002 4.12175024e-004 5.70703880e-004 3.17057711e-005
      5.70703880e-004 5.07292338e-004 5.70703880e-004 9.51173133e-004
      1.30310720e-002 7.92644278e-004 5.70703880e-004 3.17057711e-005
      2.21940398e-004 0. 0. 1.26823084e-004 1.58528856e-004
      6.02409651e-004 3.80469253e-004 1.58528856e-004 3.48763482e-004
      6.02409651e-004 3.48763482e-004 1.33164239e-003 3.89980967e-003
      6.34115422e-004 4.12175024e-004 1.58528856e-004 7.60938507e-004
      3.17057711e-005 3.17057711e-005 3.17057711e-005 5.70703880e-004
      3.17057711e-005 3.17057711e-005 0. 6.34115422e-005 6.34115422e-005
      1.26823084e-004 0. 3.80469253e-004 6.65821193e-004 4.12175024e-004
      3.17057711e-005 5.07292338e-004 1.26823084e-004 0. 3.17057711e-005
      2.53646169e-004 7.60938507e-004 4.43880796e-004 6.34115422e-005
      2.85351940e-004 8.56055820e-004 2.85351940e-004 9.82878846e-004
      2.15599244e-003 9.48002562e-003 2.56499685e-002 6.34115422e-004
      4.37539630e-002 3.80469253e-004 2.53646169e-004 6.65821193e-004
      1.12555483e-002 6.97526964e-004 5.38998109e-004 6.34115422e-005
      6.97526964e-004 3.80469253e-004 4.75586567e-004 6.97526964e-004
      5.64362714e-003 9.19467362e-004 5.07292338e-004 3.17057711e-005
      2.53646169e-004 3.17057711e-005 0. 6.34115422e-005 2.21940398e-004
      7.29232735e-004 2.53646169e-004 3.17057711e-005 2.21940398e-004
      3.80469253e-004 3.17057711e-004 6.02409651e-004 1.55358273e-003
      2.89790742e-002 4.48953696e-002 1.01458468e-003 1.64870005e-002
      4.43880796e-004 1.90234627e-004 7.60938507e-004 6.02409616e-003
      8.24350049e-004 1.29993656e-003 6.34115422e-005 4.75586567e-004
      6.65821193e-004 5.70703880e-004 1.42675964e-003 6.11921353e-003
      5.03487624e-002 1.26823084e-002 1.10970193e-003 4.50221961e-003
      3.17057711e-004 1.90234627e-004 6.65821193e-004 1.52187701e-003
      2.03868095e-002 5.13633480e-003 6.34115422e-004 3.29740020e-003
      6.49968302e-003 1.64870010e-003 5.48509834e-003 1.12872543e-002</_>
    <_>
      8.13570097e-002 6.72162324e-003 3.58275208e-003 7.48256175e-003
      4.05833870e-003 4.12175024e-004 5.96068474e-003 1.60114132e-002
      4.75586578e-003 6.02409651e-004 4.43880796e-004 7.29232735e-004
      7.45085627e-003 6.34115422e-004 2.45719720e-002 4.20418531e-002
      7.32403295e-003 5.38998109e-004 6.65821193e-004 4.43880796e-004
      4.75586567e-004 3.17057711e-005 1.07799622e-003 4.75586567e-004
      1.05897272e-002 4.75586567e-004 7.60938507e-004 3.17057711e-004
      2.59036142e-002 6.34115422e-005 5.17121106e-002 1.16677238e-002
      4.62904247e-003 7.60938507e-004 5.07292338e-004 6.02409651e-004
      4.43880796e-004 3.17057711e-005 6.97526964e-004 6.02409651e-004
      5.70703880e-004 9.51173133e-005 6.34115422e-005 6.34115422e-005
      7.29232735e-004 1.26823084e-004 8.24350049e-004 1.04629039e-003
      1.34432465e-002 3.17057711e-004 6.34115422e-004 4.12175024e-004
      4.75586567e-004 0. 7.60938507e-004 2.53646169e-004 3.12301833e-002
      5.38998109e-004 6.34115422e-004 4.12175024e-004 4.21052650e-002
      3.17057711e-004 1.62333548e-002 4.81927721e-003 5.42168692e-003
      5.70703880e-004 3.48763482e-004 4.43880796e-004 3.17057711e-004
      3.17057711e-005 2.53646169e-004 3.17057711e-004 2.53646169e-004
      6.34115422e-005 3.17057711e-005 0. 2.85351940e-004 6.34115422e-005
      1.90234627e-004 3.80469253e-004 6.65821193e-004 0. 3.17057711e-005
      0. 0. 0. 0. 0. 7.92644278e-004 3.17057711e-005 0. 0.
      2.53646169e-004 0. 3.80469253e-004 1.90234627e-004 1.08750788e-002
      1.17311347e-003 5.38998109e-004 6.34115422e-004 3.17057711e-004 0.
      4.43880796e-004 3.80469253e-004 9.51173133e-004 6.34115422e-005
      9.51173133e-005 0. 5.70703880e-004 9.51173133e-005 5.07292338e-004
      5.38998109e-004 2.89790742e-002 4.75586567e-004 3.80469253e-004
      2.85351940e-004 2.85351940e-004 3.17057711e-005 4.43880796e-004
      1.90234627e-004 5.11731133e-002 3.80469253e-004 6.97526964e-004
      2.85351940e-004 1.43944202e-002 2.53646169e-004 5.35827503e-003
      1.90234627e-003 4.91439458e-003 8.84590950e-003 3.80469253e-004
      1.93405207e-002 2.53646169e-004 7.29232735e-004 4.43880796e-004
      2.33037416e-002 4.12175024e-004 4.43880796e-004 6.34115422e-005
      4.43880796e-004 4.75586567e-004 3.80469253e-004 1.01458468e-003
      1.31578948e-002 6.02409651e-004 5.70703880e-004 1.26823084e-004
      6.34115422e-004 0. 0. 0. 9.51173133e-005 7.60938507e-004
      4.75586567e-004 6.34115422e-005 4.12175024e-004 7.29232735e-004
      4.75586567e-004 1.26823084e-003 3.45592899e-003 4.75586567e-004
      7.60938507e-004 6.34115422e-005 7.92644278e-004 0. 3.17057711e-005
      0. 6.34115422e-004 3.17057711e-005 9.51173133e-005 0.
      6.34115422e-005 6.34115422e-005 3.17057711e-005 6.34115422e-005
      4.43880796e-004 6.65821193e-004 3.17057711e-004 9.51173133e-005
      3.80469253e-004 3.17057711e-005 0. 3.17057711e-005 1.58528856e-004
      6.34115422e-004 3.48763482e-004 6.34115422e-005 5.07292338e-004
      6.02409651e-004 3.80469253e-004 6.34115422e-004 3.04375403e-003
      8.14838335e-003 2.21623331e-002 6.02409651e-004 3.94102745e-002
      2.21940398e-004 2.85351940e-004 2.53646169e-004 1.08116679e-002
      5.70703880e-004 6.65821193e-004 0. 5.70703880e-004 5.38998109e-004
      2.53646169e-004 6.34115422e-004 5.26315812e-003 8.87761591e-004
      4.12175024e-004 6.34115422e-005 9.51173133e-005 0. 3.17057711e-005
      3.17057711e-005 1.26823084e-004 7.60938507e-004 3.17057711e-004 0.
      2.21940398e-004 6.34115422e-004 3.17057711e-004 4.75586567e-004
      1.20481930e-003 2.49207355e-002 4.60367799e-002 7.60938507e-004
      1.77552309e-002 3.48763482e-004 3.48763482e-004 6.34115422e-004
      4.43880772e-003 1.20481930e-003 1.52187701e-003 3.17057711e-005
      7.29232735e-004 6.65821193e-004 6.65821193e-004 1.39505393e-003
      5.45339240e-003 4.67660129e-002 1.23969559e-002 1.01458468e-003
      4.40710224e-003 4.43880796e-004 1.90234627e-004 5.70703880e-004
      1.45846547e-003 2.12745722e-002 5.38998097e-003 6.65821193e-004
      2.40963860e-003 7.03868084e-003 1.55358273e-003 6.27774233e-003
      1.17945466e-002</_>
    <_>
      3.62079889e-002 7.54597317e-003 4.02663276e-003 8.46544094e-003
      4.24857344e-003 4.75586567e-004 7.60938507e-003 1.88015215e-002
      5.73874451e-003 6.02409651e-004 2.85351940e-004 3.80469253e-004
      1.06531391e-002 8.87761591e-004 2.94863656e-002 5.08560576e-002
      9.03614424e-003 5.38998109e-004 8.24350049e-004 4.75586567e-004
      5.07292338e-004 6.34115422e-005 8.56055820e-004 2.85351940e-004
      1.30944829e-002 6.34115422e-004 5.07292338e-004 2.21940398e-004
      3.17691825e-002 3.17057711e-004 6.55358285e-002 1.22067221e-002
      5.83386188e-003 7.60938507e-004 5.70703880e-004 6.65821193e-004
      4.12175024e-004 0. 4.12175024e-004 6.97526964e-004 6.65821193e-004
      1.58528856e-004 0. 3.17057711e-005 5.07292338e-004 9.51173133e-005
      1.14140776e-003 1.42675964e-003 1.52187701e-002 5.38998109e-004
      7.92644278e-004 2.85351940e-004 6.65821193e-004 0. 6.97526964e-004
      2.53646169e-004 3.17374766e-002 2.53646169e-004 5.70703880e-004
      3.17057711e-004 4.00760956e-002 1.90234627e-004 1.98795181e-002
      5.10462886e-003 5.13633480e-003 5.07292338e-004 1.90234627e-004
      3.48763482e-004 1.58528856e-004 3.17057711e-005 2.21940398e-004
      1.90234627e-004 3.17057711e-004 3.17057711e-005 6.34115422e-005 0.
      1.58528856e-004 6.34115422e-005 2.85351940e-004 3.48763482e-004
      6.97526964e-004 0. 6.34115422e-005 0. 3.17057711e-005 0.
      6.34115422e-005 0. 5.38998109e-004 0. 0. 0. 5.38998109e-004 0.
      4.12175024e-004 1.26823084e-004 1.03677865e-002 1.52187701e-003
      5.70703880e-004 5.70703880e-004 4.43880796e-004 3.17057711e-005
      5.07292338e-004 3.48763482e-004 4.75586567e-004 3.17057711e-005
      3.17057711e-005 0. 4.43880796e-004 9.51173133e-005 8.87761591e-004
      7.29232735e-004 3.24667096e-002 2.85351940e-004 6.97526964e-004
      4.75586567e-004 2.53646169e-004 3.17057711e-005 4.75586567e-004
      1.26823084e-004 4.60367799e-002 3.48763482e-004 4.12175024e-004
      2.21940398e-004 1.47748888e-002 0. 6.34115422e-003 1.61699427e-003
      4.50221961e-003 8.87761544e-003 3.17057711e-004 1.99429300e-002
      4.12175024e-004 6.02409651e-004 2.85351940e-004 2.29549780e-002
      3.80469253e-004 6.97526964e-004 0. 4.43880796e-004 5.38998109e-004
      3.80469253e-004 1.07799622e-003 1.26506025e-002 6.97526964e-004
      5.07292338e-004 6.34115422e-005 2.85351940e-004 0. 3.17057711e-005
      3.17057711e-005 2.21940398e-004 5.70703880e-004 5.38998109e-004
      6.34115422e-005 4.75586567e-004 8.87761591e-004 2.21940398e-004
      1.17311347e-003 4.50221961e-003 7.60938507e-004 5.07292338e-004 0.
      8.24350049e-004 0. 6.34115422e-005 0. 3.80469253e-004 0.
      3.17057711e-005 0. 1.26823084e-004 9.51173133e-005 6.34115422e-005
      6.34115422e-005 7.60938507e-004 7.60938507e-004 5.38998109e-004 0.
      3.17057711e-004 0. 6.34115422e-005 3.17057711e-005 3.80469253e-004
      9.51173133e-004 1.90234627e-004 6.34115422e-005 2.53646169e-004
      6.97526964e-004 2.21940398e-004 6.65821193e-004 2.21940386e-003
      7.98985455e-003 2.30500959e-002 4.75586567e-004 3.58909331e-002
      3.48763482e-004 1.26823084e-004 4.75586567e-004 9.48002562e-003
      5.70703880e-004 6.34115422e-004 3.17057711e-005 5.70703880e-004
      3.17057711e-004 4.43880796e-004 6.65821193e-004 5.45339240e-003
      6.97526964e-004 3.80469253e-004 3.17057711e-005 3.17057711e-005 0.
      0. 1.26823084e-004 2.21940398e-004 5.07292338e-004 2.21940398e-004
      3.17057711e-005 2.53646169e-004 6.34115422e-004 1.90234627e-004
      6.34115422e-004 9.82878846e-004 2.59670261e-002 4.42612544e-002
      9.51173133e-004 1.49017125e-002 4.43880796e-004 3.80469253e-004
      7.60938507e-004 4.43880772e-003 1.29993656e-003 1.26823084e-003
      3.17057711e-005 5.38998109e-004 7.29232735e-004 5.70703880e-004
      1.99746364e-003 5.67533309e-003 4.96829413e-002 1.05580213e-002
      8.87761591e-004 4.02663276e-003 4.43880796e-004 1.26823084e-004
      6.65821193e-004 1.20481930e-003 2.25428026e-002 5.58021571e-003
      4.12175024e-004 2.31452123e-003 7.03868084e-003 1.80722889e-003
      6.05580211e-003 1.03360815e-002</_>
    <_>
      4.88902964e-002 6.40456565e-003 4.15345607e-003 7.73620792e-003
      3.70957516e-003 5.07292338e-004 6.75332919e-003 1.68991759e-002
      5.32656955e-003 4.12175024e-004 6.02409651e-004 5.70703880e-004
      9.32149682e-003 1.14140776e-003 2.44768541e-002 4.21686731e-002
      8.43373500e-003 6.97526964e-004 8.24350049e-004 5.70703880e-004
      6.02409651e-004 0. 1.10970193e-003 4.75586567e-004 1.22701330e-002
      4.43880796e-004 3.48763482e-004 5.38998109e-004 3.03424224e-002
      5.38998109e-004 5.58021553e-002 1.32847177e-002 5.42168692e-003
      9.19467362e-004 3.80469253e-004 6.65821193e-004 4.43880796e-004
      3.17057711e-005 4.12175024e-004 6.65821193e-004 5.70703880e-004
      3.17057711e-005 3.17057711e-005 6.34115422e-005 5.38998109e-004
      9.51173133e-005 9.51173133e-004 1.42675964e-003 1.44895371e-002
      3.48763482e-004 7.92644278e-004 4.12175024e-004 5.38998109e-004 0.
      6.34115422e-004 2.85351940e-004 3.79518084e-002 5.70703880e-004
      6.97526964e-004 6.02409651e-004 4.64489534e-002 1.90234627e-004
      1.84527580e-002 4.02663276e-003 5.58021571e-003 5.38998109e-004
      3.48763482e-004 4.12175024e-004 1.58528856e-004 0. 1.90234627e-004
      2.85351940e-004 3.48763482e-004 3.17057711e-005 0. 6.34115422e-005
      5.38998109e-004 0. 2.53646169e-004 4.12175024e-004 6.65821193e-004
      0. 3.17057711e-005 0. 3.17057711e-005 0. 0. 0. 5.70703880e-004
      3.17057711e-005 0. 0. 2.53646169e-004 0. 2.85351940e-004
      1.26823084e-004 1.04629043e-002 1.04629039e-003 4.75586567e-004
      4.75586567e-004 1.90234627e-004 6.34115422e-005 3.80469253e-004
      1.58528856e-004 6.65821193e-004 9.51173133e-005 0. 9.51173133e-005
      6.02409651e-004 3.17057711e-005 9.51173133e-004 8.24350049e-004
      3.37349400e-002 4.12175024e-004 6.34115422e-004 2.53646169e-004
      4.43880796e-004 0. 4.12175024e-004 1.26823084e-004 5.72923273e-002
      3.48763482e-004 6.65821193e-004 1.90234627e-004 1.70894098e-002
      1.90234627e-004 6.75332919e-003 1.87064044e-003 3.10716545e-003
      7.35573890e-003 3.48763482e-004 2.11160425e-002 2.53646169e-004
      7.60938507e-004 5.38998109e-004 2.16550417e-002 5.70703880e-004
      5.07292338e-004 0. 4.75586567e-004 5.07292338e-004 6.65821193e-004
      7.60938507e-004 1.29042482e-002 4.43880796e-004 4.43880796e-004
      3.17057711e-005 3.17057711e-004 3.17057711e-005 3.17057711e-005
      3.17057711e-005 2.53646169e-004 4.12175024e-004 3.80469253e-004
      3.17057711e-005 1.90234627e-004 6.34115422e-004 2.53646169e-004
      1.36334810e-003 4.02663276e-003 4.12175024e-004 4.43880796e-004 0.
      6.34115422e-004 6.34115422e-005 3.17057711e-005 6.34115422e-005
      6.02409651e-004 6.34115422e-005 1.58528856e-004 3.17057711e-005
      9.51173133e-005 3.17057711e-005 9.51173133e-005 0. 5.07292338e-004
      5.07292338e-004 2.85351940e-004 3.17057711e-005 4.75586567e-004
      1.26823084e-004 0. 3.17057711e-005 1.58528856e-004 7.60938507e-004
      4.43880796e-004 6.34115422e-005 6.02409651e-004 7.60938507e-004
      3.17057711e-004 5.70703880e-004 2.59987311e-003 6.84844656e-003
      2.15916298e-002 2.85351940e-004 4.13126200e-002 3.17057711e-004
      3.48763482e-004 4.75586567e-004 9.92390607e-003 6.34115422e-004
      5.07292338e-004 6.34115422e-005 7.60938507e-004 4.43880796e-004
      4.12175024e-004 9.51173133e-004 5.19974623e-003 6.02409651e-004
      2.85351940e-004 9.51173133e-005 1.58528856e-004 6.34115422e-005 0.
      1.26823084e-004 1.26823084e-004 7.29232735e-004 3.48763482e-004 0.
      2.21940398e-004 4.43880796e-004 9.51173133e-005 6.02409651e-004
      1.33164239e-003 2.38744449e-002 3.93785685e-002 5.70703880e-004
      1.52504751e-002 3.80469253e-004 9.51173133e-005 4.12175024e-004
      4.40710224e-003 8.24350049e-004 1.42675964e-003 3.17057711e-005
      6.34115422e-004 7.92644278e-004 5.70703880e-004 1.33164239e-003
      5.58021571e-003 4.90488261e-002 1.11604314e-002 1.01458468e-003
      4.15345607e-003 3.48763482e-004 6.34115422e-005 5.07292338e-004
      1.14140776e-003 2.40012687e-002 5.48509834e-003 6.02409651e-004
      2.44134432e-003 7.32403295e-003 1.33164239e-003 6.56309444e-003
      1.00190239e-002</_>
    <_>
      4.70830686e-002 9.89220012e-003 6.88015204e-003 1.09384907e-002
      5.64362714e-003 1.04629039e-003 9.41661373e-003 2.10526325e-002
      5.58021571e-003 1.07799622e-003 4.75586567e-004 6.65821193e-004
      1.08433738e-002 8.87761591e-004 2.98668351e-002 4.28662002e-002
      1.06531391e-002 5.07292338e-004 9.51173133e-004 4.75586567e-004
      1.07799622e-003 3.17057711e-005 1.01458468e-003 4.75586567e-004
      1.27457194e-002 7.29232735e-004 4.43880796e-004 5.07292338e-004
      2.21940391e-002 5.70703880e-004 4.37539630e-002 1.26823084e-002
      6.72162324e-003 7.60938507e-004 4.43880796e-004 7.29232735e-004
      8.24350049e-004 9.51173133e-005 7.60938507e-004 1.01458468e-003
      8.24350049e-004 6.34115422e-005 3.17057711e-005 6.34115422e-005
      9.51173133e-004 1.26823084e-004 1.33164239e-003 9.19467362e-004
      1.29676601e-002 6.02409651e-004 5.38998109e-004 4.12175024e-004
      8.24350049e-004 3.17057711e-005 9.19467362e-004 4.75586567e-004
      2.63157897e-002 5.07292338e-004 8.87761591e-004 4.43880796e-004
      3.23081799e-002 4.43880796e-004 1.67723522e-002 5.77044999e-003
      6.30944828e-003 8.24350049e-004 5.70703880e-004 7.92644278e-004
      4.12175024e-004 0. 6.65821193e-004 6.02409651e-004 6.65821193e-004
      6.34115422e-005 0. 3.17057711e-005 3.80469253e-004 6.34115422e-005
      1.90234627e-004 5.70703880e-004 7.60938507e-004 6.34115422e-005 0.
      0. 0. 0. 0. 3.17057711e-005 6.97526964e-004 0. 3.17057711e-005
      3.17057711e-005 3.48763482e-004 3.17057711e-005 3.17057711e-004
      2.21940398e-004 1.15091950e-002 1.01458468e-003 6.65821193e-004
      6.34115422e-004 3.80469253e-004 0. 6.97526964e-004 6.34115422e-004
      1.33164239e-003 1.58528856e-004 3.17057711e-005 0. 7.29232735e-004
      6.34115422e-005 9.19467362e-004 4.75586567e-004 2.38744449e-002
      6.02409651e-004 5.70703880e-004 3.17057711e-004 4.12175024e-004 0.
      6.65821193e-004 1.26823084e-004 3.91566269e-002 2.85351940e-004
      1.04629039e-003 5.07292338e-004 1.27774253e-002 1.26823084e-004
      7.03868084e-003 1.52187701e-003 5.77044999e-003 1.27140144e-002
      7.60938507e-004 2.25110967e-002 5.07292338e-004 6.65821193e-004
      6.97526964e-004 2.72035506e-002 8.87761591e-004 7.60938507e-004
      9.51173133e-005 9.51173133e-004 9.19467362e-004 6.34115422e-004
      1.20481930e-003 1.59162972e-002 8.87761591e-004 4.75586567e-004
      1.90234627e-004 4.43880796e-004 1.26823084e-004 6.34115422e-005
      1.26823084e-004 2.53646169e-004 6.65821193e-004 3.80469253e-004
      1.26823084e-004 4.75586567e-004 9.51173133e-004 3.48763482e-004
      1.17311347e-003 4.47051367e-003 8.24350049e-004 6.34115422e-004
      9.51173133e-005 1.10970193e-003 6.34115422e-005 3.17057711e-005
      9.51173133e-005 1.01458468e-003 3.17057711e-005 3.17057711e-005 0.
      3.17057711e-005 3.17057711e-005 3.17057711e-005 3.17057711e-005
      9.51173133e-004 6.34115422e-004 5.07292338e-004 1.26823084e-004
      5.38998109e-004 6.34115422e-005 0. 1.26823084e-004 3.17057711e-004
      9.51173133e-004 5.38998109e-004 3.17057711e-005 5.07292338e-004
      8.56055820e-004 4.75586567e-004 1.04629039e-003 3.86810396e-003
      1.13189602e-002 2.23525688e-002 7.60938507e-004 4.32149656e-002
      7.29232735e-004 4.43880796e-004 8.24350049e-004 1.14457831e-002
      5.70703880e-004 6.65821193e-004 9.51173133e-005 1.01458468e-003
      5.07292338e-004 5.70703880e-004 1.17311347e-003 6.18262542e-003
      1.52187701e-003 5.70703880e-004 6.34115422e-005 3.80469253e-004
      9.51173133e-005 3.17057711e-005 1.58528856e-004 1.26823084e-004
      4.43880796e-004 6.02409651e-004 9.51173133e-005 2.85351940e-004
      5.07292338e-004 2.85351940e-004 6.02409651e-004 2.02916935e-003
      2.63792016e-002 3.29740010e-002 1.14140776e-003 1.71211157e-002
      6.97526964e-004 1.58528856e-004 6.34115422e-004 6.21433090e-003
      1.39505393e-003 1.26823084e-003 6.34115422e-005 8.56055820e-004
      7.29232735e-004 6.65821193e-004 1.68040581e-003 7.10209273e-003
      4.30247299e-002 1.12555483e-002 1.49017118e-003 4.88268863e-003
      3.80469253e-004 3.17057711e-004 8.24350049e-004 1.83893472e-003
      1.79771725e-002 4.94610006e-003 9.51173133e-004 4.50221961e-003
      6.78503467e-003 1.68040581e-003 6.59480039e-003 1.29676601e-002</_>
    <_>
      4.19467352e-002 9.03614424e-003 5.54850977e-003 1.19213695e-002
      5.35827503e-003 8.56055820e-004 1.09701967e-002 2.16550417e-002
      4.50221961e-003 9.19467362e-004 5.38998109e-004 6.34115422e-004
      8.81420448e-003 1.07799622e-003 2.49841474e-002 4.02029157e-002
      1.04629043e-002 6.02409651e-004 5.70703880e-004 3.80469253e-004
      6.34115422e-004 0. 9.51173133e-004 1.90234627e-004 1.03360815e-002
      3.48763482e-004 3.48763482e-004 3.17057711e-004 2.13696901e-002
      4.43880796e-004 3.96956243e-002 1.12872543e-002 7.07038678e-003
      6.02409651e-004 5.07292338e-004 8.24350049e-004 4.12175024e-004 0.
      9.51173133e-004 1.20481930e-003 6.34115422e-004 2.21940398e-004
      1.58528856e-004 3.17057711e-005 9.19467362e-004 3.17057711e-005
      9.51173133e-004 1.26823084e-003 1.35700693e-002 5.07292338e-004
      6.02409651e-004 4.75586567e-004 8.24350049e-004 3.17057711e-005
      5.07292338e-004 1.90234627e-004 2.44768541e-002 3.17057711e-004
      6.65821193e-004 3.17057711e-004 3.24350037e-002 4.12175024e-004
      1.49017125e-002 3.04375403e-003 6.08750805e-003 1.10970193e-003
      6.34115422e-004 5.07292338e-004 2.53646169e-004 3.17057711e-005
      4.75586567e-004 3.17057711e-004 4.75586567e-004 9.51173133e-005
      3.17057711e-005 3.17057711e-005 4.12175024e-004 3.17057711e-005
      3.80469253e-004 3.17057711e-004 6.34115422e-004 0. 6.34115422e-005
      0. 6.34115422e-005 0. 6.34115422e-005 0. 6.02409651e-004 0. 0. 0.
      4.75586567e-004 0. 4.43880796e-004 1.90234627e-004 1.15409000e-002
      1.45846547e-003 9.51173133e-004 6.97526964e-004 3.48763482e-004 0.
      5.07292338e-004 5.38998109e-004 8.24350049e-004 6.34115422e-005
      3.17057711e-005 3.17057711e-005 5.07292338e-004 9.51173133e-005
      9.82878846e-004 7.29232735e-004 2.60938499e-002 4.43880796e-004
      7.60938507e-004 2.85351940e-004 4.75586567e-004 0. 4.12175024e-004
      4.12175024e-004 3.74128073e-002 3.48763482e-004 7.92644278e-004
      1.90234627e-004 1.18896635e-002 1.26823084e-004 4.91439458e-003
      1.20481930e-003 5.77044999e-003 1.29359541e-002 5.70703880e-004
      2.78059598e-002 4.12175024e-004 6.34115422e-004 8.87761591e-004
      3.17374766e-002 5.07292338e-004 6.97526964e-004 0. 7.60938507e-004
      7.29232735e-004 5.70703880e-004 8.56055820e-004 1.48700066e-002
      1.01458468e-003 6.02409651e-004 6.34115422e-005 5.07292338e-004
      3.17057711e-005 0. 9.51173133e-005 2.53646169e-004 8.24350049e-004
      4.43880796e-004 3.17057711e-005 4.12175024e-004 1.29993656e-003
      3.48763482e-004 1.26823084e-003 5.29486360e-003 6.02409651e-004
      9.51173133e-004 3.17057711e-005 6.34115422e-004 0. 3.17057711e-005
      1.90234627e-004 8.56055820e-004 3.17057711e-005 3.17057711e-005 0.
      3.17057711e-005 9.51173133e-005 6.34115422e-005 9.51173133e-005
      6.02409651e-004 8.24350049e-004 1.90234627e-004 0. 3.48763482e-004
      6.34115422e-005 6.34115422e-005 9.51173133e-005 5.07292338e-004
      7.29232735e-004 5.70703880e-004 6.34115422e-005 7.92644278e-004
      1.17311347e-003 3.17057711e-004 6.34115422e-004 3.42422328e-003
      1.13823712e-002 2.86620166e-002 1.01458468e-003 4.80976552e-002
      5.70703880e-004 4.43880796e-004 3.80469253e-004 1.28091313e-002
      7.60938507e-004 8.87761591e-004 6.34115422e-005 1.36334810e-003
      4.43880796e-004 6.65821193e-004 9.82878846e-004 5.73874451e-003
      1.07799622e-003 3.17057711e-004 9.51173133e-005 4.75586567e-004
      3.17057711e-005 0. 9.51173133e-005 9.51173133e-005 6.65821193e-004
      4.12175024e-004 0. 4.43880796e-004 2.85351940e-004 3.17057711e-004
      6.02409651e-004 1.83893472e-003 2.77425498e-002 4.97146472e-002
      1.01458468e-003 1.85161699e-002 4.75586567e-004 6.34115422e-004
      6.65821193e-004 5.80215594e-003 6.97526964e-004 1.74381735e-003
      6.34115422e-005 1.26823084e-003 4.43880796e-004 9.51173133e-004
      1.23652501e-003 6.11921353e-003 4.32149656e-002 1.23018390e-002
      1.49017118e-003 4.40710224e-003 5.38998109e-004 9.51173133e-005
      6.97526964e-004 1.55358273e-003 1.79137606e-002 5.16804075e-003
      4.75586567e-004 3.55104636e-003 7.54597317e-003 2.53646169e-003
      6.78503467e-003 1.25554847e-002</_>
    <_>
      4.19467352e-002 9.03614424e-003 5.54850977e-003 1.19213695e-002
      5.35827503e-003 8.56055820e-004 1.09701967e-002 2.16550417e-002
      4.50221961e-003 9.19467362e-004 5.38998109e-004 6.34115422e-004
      8.81420448e-003 1.07799622e-003 2.49841474e-002 4.02029157e-002
      1.04629043e-002 6.02409651e-004 5.70703880e-004 3.80469253e-004
      6.34115422e-004 0. 9.51173133e-004 1.90234627e-004 1.03360815e-002
      3.48763482e-004 3.48763482e-004 3.17057711e-004 2.13696901e-002
      4.43880796e-004 3.96956243e-002 1.12872543e-002 7.07038678e-003
      6.02409651e-004 5.07292338e-004 8.24350049e-004 4.12175024e-004 0.
      9.51173133e-004 1.20481930e-003 6.34115422e-004 2.21940398e-004
      1.58528856e-004 3.17057711e-005 9.19467362e-004 3.17057711e-005
      9.51173133e-004 1.26823084e-003 1.35700693e-002 5.07292338e-004
      6.02409651e-004 4.75586567e-004 8.24350049e-004 3.17057711e-005
      5.07292338e-004 1.90234627e-004 2.44768541e-002 3.17057711e-004
      6.65821193e-004 3.17057711e-004 3.24350037e-002 4.12175024e-004
      1.49017125e-002 3.04375403e-003 6.08750805e-003 1.10970193e-003
      6.34115422e-004 5.07292338e-004 2.53646169e-004 3.17057711e-005
      4.75586567e-004 3.17057711e-004 4.75586567e-004 9.51173133e-005
      3.17057711e-005 3.17057711e-005 4.12175024e-004 3.17057711e-005
      3.80469253e-004 3.17057711e-004 6.34115422e-004 0. 6.34115422e-005
      0. 6.34115422e-005 0. 6.34115422e-005 0. 6.02409651e-004 0. 0. 0.
      4.75586567e-004 0. 4.43880796e-004 1.90234627e-004 1.15409000e-002
      1.45846547e-003 9.51173133e-004 6.97526964e-004 3.48763482e-004 0.
      5.07292338e-004 5.38998109e-004 8.24350049e-004 6.34115422e-005
      3.17057711e-005 3.17057711e-005 5.07292338e-004 9.51173133e-005
      9.82878846e-004 7.29232735e-004 2.60938499e-002 4.43880796e-004
      7.60938507e-004 2.85351940e-004 4.75586567e-004 0. 4.12175024e-004
      4.12175024e-004 3.74128073e-002 3.48763482e-004 7.92644278e-004
      1.90234627e-004 1.18896635e-002 1.26823084e-004 4.91439458e-003
      1.20481930e-003 5.77044999e-003 1.29359541e-002 5.70703880e-004
      2.78059598e-002 4.12175024e-004 6.34115422e-004 8.87761591e-004
      3.17374766e-002 5.07292338e-004 6.97526964e-004 0. 7.60938507e-004
      7.29232735e-004 5.70703880e-004 8.56055820e-004 1.48700066e-002
      1.01458468e-003 6.02409651e-004 6.34115422e-005 5.07292338e-004
      3.17057711e-005 0. 9.51173133e-005 2.53646169e-004 8.24350049e-004
      4.43880796e-004 3.17057711e-005 4.12175024e-004 1.29993656e-003
      3.48763482e-004 1.26823084e-003 5.29486360e-003 6.02409651e-004
      9.51173133e-004 3.17057711e-005 6.34115422e-004 0. 3.17057711e-005
      1.90234627e-004 8.56055820e-004 3.17057711e-005 3.17057711e-005 0.
      3.17057711e-005 9.51173133e-005 6.34115422e-005 9.51173133e-005
      6.02409651e-004 8.24350049e-004 1.90234627e-004 0. 3.48763482e-004
      6.34115422e-005 6.34115422e-005 9.51173133e-005 5.07292338e-004
      7.29232735e-004 5.70703880e-004 6.34115422e-005 7.92644278e-004
      1.17311347e-003 3.17057711e-004 6.34115422e-004 3.42422328e-003
      1.13823712e-002 2.86620166e-002 1.01458468e-003 4.80976552e-002
      5.70703880e-004 4.43880796e-004 3.80469253e-004 1.28091313e-002
      7.60938507e-004 8.87761591e-004 6.34115422e-005 1.36334810e-003
      4.43880796e-004 6.65821193e-004 9.82878846e-004 5.73874451e-003
      1.07799622e-003 3.17057711e-004 9.51173133e-005 4.75586567e-004
      3.17057711e-005 0. 9.51173133e-005 9.51173133e-005 6.65821193e-004
      4.12175024e-004 0. 4.43880796e-004 2.85351940e-004 3.17057711e-004
      6.02409651e-004 1.83893472e-003 2.77425498e-002 4.97146472e-002
      1.01458468e-003 1.85161699e-002 4.75586567e-004 6.34115422e-004
      6.65821193e-004 5.80215594e-003 6.97526964e-004 1.74381735e-003
      6.34115422e-005 1.26823084e-003 4.43880796e-004 9.51173133e-004
      1.23652501e-003 6.11921353e-003 4.32149656e-002 1.23018390e-002
      1.49017118e-003 4.40710224e-003 5.38998109e-004 9.51173133e-005
      6.97526964e-004 1.55358273e-003 1.79137606e-002 5.16804075e-003
      4.75586567e-004 3.55104636e-003 7.54597317e-003 2.53646169e-003
      6.78503467e-003 1.25554847e-002</_>
    <_>
      4.61953059e-002 1.02092577e-002 6.15091948e-003 1.22701330e-002
      6.81674061e-003 7.92644278e-004 1.28091313e-002 2.24159788e-002
      5.19974623e-003 8.87761591e-004 3.80469253e-004 6.97526964e-004
      1.03043756e-002 1.23652501e-003 2.91693080e-002 4.11540903e-002
      1.03677865e-002 4.12175024e-004 7.92644278e-004 5.07292338e-004
      9.19467362e-004 6.34115422e-005 9.82878846e-004 6.34115422e-004
      1.18262526e-002 6.02409651e-004 7.60938507e-004 5.38998109e-004
      2.37793270e-002 4.43880796e-004 4.34052013e-002 1.41407736e-002
      5.32656955e-003 5.38998109e-004 8.87761591e-004 1.04629039e-003
      4.43880796e-004 0. 6.65821193e-004 1.07799622e-003 4.75586567e-004
      3.17057711e-005 3.17057711e-005 1.58528856e-004 6.65821193e-004 0.
      7.92644278e-004 1.61699427e-003 1.26506025e-002 6.97526964e-004
      1.01458468e-003 4.12175024e-004 7.60938507e-004 3.17057711e-005
      1.10970193e-003 5.07292338e-004 2.03868095e-002 4.43880796e-004
      1.04629039e-003 5.38998109e-004 2.46036779e-002 2.85351940e-004
      1.62967667e-002 4.91439458e-003 6.30944828e-003 7.29232735e-004
      6.02409651e-004 8.56055820e-004 3.17057711e-004 0. 5.07292338e-004
      3.48763482e-004 6.02409651e-004 3.17057711e-005 6.34115422e-005 0.
      4.75586567e-004 3.17057711e-005 3.80469253e-004 4.12175024e-004
      9.19467362e-004 0. 3.17057711e-005 0. 3.17057711e-005 0. 0.
      3.17057711e-005 8.87761591e-004 0. 0. 0. 4.43880796e-004 0.
      4.12175024e-004 9.51173133e-005 1.29676601e-002 9.19467362e-004
      9.82878846e-004 8.56055820e-004 4.43880796e-004 3.17057711e-005
      5.70703880e-004 6.34115422e-004 1.20481930e-003 6.34115422e-005
      6.34115422e-005 6.34115422e-005 7.60938507e-004 3.17057711e-005
      5.38998109e-004 4.75586567e-004 2.34305635e-002 4.43880796e-004
      1.07799622e-003 4.12175024e-004 3.17057711e-004 0. 5.38998109e-004
      3.17057711e-004 3.51617001e-002 2.85351940e-004 1.39505393e-003
      6.34115422e-004 1.01458468e-002 1.58528856e-004 6.56309444e-003
      1.64870010e-003 5.26315812e-003 1.22067221e-002 6.02409651e-004
      1.92771088e-002 3.80469253e-004 6.65821193e-004 7.92644278e-004
      2.71084346e-002 7.60938507e-004 8.24350049e-004 3.17057711e-005
      7.92644278e-004 9.51173133e-004 7.92644278e-004 1.14140776e-003
      1.56626515e-002 1.07799622e-003 5.38998109e-004 6.34115422e-005
      5.38998109e-004 6.34115422e-005 0. 1.58528856e-004 1.58528856e-004
      5.07292338e-004 6.97526964e-004 6.34115422e-005 7.29232735e-004
      1.29993656e-003 4.43880796e-004 1.45846547e-003 5.99239068e-003
      3.17057711e-004 9.82878846e-004 3.17057711e-005 7.60938507e-004
      9.51173133e-005 3.17057711e-005 6.34115422e-005 1.23652501e-003 0.
      9.51173133e-005 0. 3.17057711e-005 0. 0. 1.26823084e-004
      9.51173133e-004 8.56055820e-004 5.70703880e-004 0. 9.19467362e-004
      6.34115422e-005 6.34115422e-005 6.34115422e-005 5.38998109e-004
      7.92644278e-004 5.38998109e-004 6.34115422e-005 5.07292338e-004
      8.87761591e-004 5.70703880e-004 1.01458468e-003 4.28027892e-003
      1.12872543e-002 2.45719720e-002 5.38998109e-004 3.59860510e-002
      6.97526964e-004 1.90234627e-004 5.38998109e-004 9.00443923e-003
      9.51173133e-004 1.49017118e-003 0. 1.20481930e-003 7.29232735e-004
      7.60938507e-004 6.65821193e-004 7.32403295e-003 1.01458468e-003
      4.43880796e-004 1.58528856e-004 4.12175024e-004 0. 0. 0.
      1.58528856e-004 1.29993656e-003 5.07292338e-004 3.17057711e-005
      4.43880796e-004 6.34115422e-004 4.43880796e-004 9.19467362e-004
      1.93405198e-003 2.88839564e-002 4.49587815e-002 1.58528856e-003
      1.75332911e-002 4.12175024e-004 4.12175024e-004 8.24350049e-004
      6.65821182e-003 1.01458468e-003 1.74381735e-003 6.34115422e-005
      9.51173133e-004 6.97526964e-004 1.10970193e-003 2.02916935e-003
      7.22891558e-003 4.41344343e-002 1.31896008e-002 1.45846547e-003
      5.86556736e-003 2.21940398e-004 9.51173133e-005 6.97526964e-004
      1.90234627e-003 1.74064673e-002 5.45339240e-003 8.87761591e-004
      4.75586578e-003 7.13379821e-003 2.56816740e-003 6.94356393e-003
      1.53455930e-002</_>
    <_>
      4.61953059e-002 1.02092577e-002 6.15091948e-003 1.22701330e-002
      6.81674061e-003 7.92644278e-004 1.28091313e-002 2.24159788e-002
      5.19974623e-003 8.87761591e-004 3.80469253e-004 6.97526964e-004
      1.03043756e-002 1.23652501e-003 2.91693080e-002 4.11540903e-002
      1.03677865e-002 4.12175024e-004 7.92644278e-004 5.07292338e-004
      9.19467362e-004 6.34115422e-005 9.82878846e-004 6.34115422e-004
      1.18262526e-002 6.02409651e-004 7.60938507e-004 5.38998109e-004
      2.37793270e-002 4.43880796e-004 4.34052013e-002 1.41407736e-002
      5.32656955e-003 5.38998109e-004 8.87761591e-004 1.04629039e-003
      4.43880796e-004 0. 6.65821193e-004 1.07799622e-003 4.75586567e-004
      3.17057711e-005 3.17057711e-005 1.58528856e-004 6.65821193e-004 0.
      7.92644278e-004 1.61699427e-003 1.26506025e-002 6.97526964e-004
      1.01458468e-003 4.12175024e-004 7.60938507e-004 3.17057711e-005
      1.10970193e-003 5.07292338e-004 2.03868095e-002 4.43880796e-004
      1.04629039e-003 5.38998109e-004 2.46036779e-002 2.85351940e-004
      1.62967667e-002 4.91439458e-003 6.30944828e-003 7.29232735e-004
      6.02409651e-004 8.56055820e-004 3.17057711e-004 0. 5.07292338e-004
      3.48763482e-004 6.02409651e-004 3.17057711e-005 6.34115422e-005 0.
      4.75586567e-004 3.17057711e-005 3.80469253e-004 4.12175024e-004
      9.19467362e-004 0. 3.17057711e-005 0. 3.17057711e-005 0. 0.
      3.17057711e-005 8.87761591e-004 0. 0. 0. 4.43880796e-004 0.
      4.12175024e-004 9.51173133e-005 1.29676601e-002 9.19467362e-004
      9.82878846e-004 8.56055820e-004 4.43880796e-004 3.17057711e-005
      5.70703880e-004 6.34115422e-004 1.20481930e-003 6.34115422e-005
      6.34115422e-005 6.34115422e-005 7.60938507e-004 3.17057711e-005
      5.38998109e-004 4.75586567e-004 2.34305635e-002 4.43880796e-004
      1.07799622e-003 4.12175024e-004 3.17057711e-004 0. 5.38998109e-004
      3.17057711e-004 3.51617001e-002 2.85351940e-004 1.39505393e-003
      6.34115422e-004 1.01458468e-002 1.58528856e-004 6.56309444e-003
      1.64870010e-003 5.26315812e-003 1.22067221e-002 6.02409651e-004
      1.92771088e-002 3.80469253e-004 6.65821193e-004 7.92644278e-004
      2.71084346e-002 7.60938507e-004 8.24350049e-004 3.17057711e-005
      7.92644278e-004 9.51173133e-004 7.92644278e-004 1.14140776e-003
      1.56626515e-002 1.07799622e-003 5.38998109e-004 6.34115422e-005
      5.38998109e-004 6.34115422e-005 0. 1.58528856e-004 1.58528856e-004
      5.07292338e-004 6.97526964e-004 6.34115422e-005 7.29232735e-004
      1.29993656e-003 4.43880796e-004 1.45846547e-003 5.99239068e-003
      3.17057711e-004 9.82878846e-004 3.17057711e-005 7.60938507e-004
      9.51173133e-005 3.17057711e-005 6.34115422e-005 1.23652501e-003 0.
      9.51173133e-005 0. 3.17057711e-005 0. 0. 1.26823084e-004
      9.51173133e-004 8.56055820e-004 5.70703880e-004 0. 9.19467362e-004
      6.34115422e-005 6.34115422e-005 6.34115422e-005 5.38998109e-004
      7.92644278e-004 5.38998109e-004 6.34115422e-005 5.07292338e-004
      8.87761591e-004 5.70703880e-004 1.01458468e-003 4.28027892e-003
      1.12872543e-002 2.45719720e-002 5.38998109e-004 3.59860510e-002
      6.97526964e-004 1.90234627e-004 5.38998109e-004 9.00443923e-003
      9.51173133e-004 1.49017118e-003 0. 1.20481930e-003 7.29232735e-004
      7.60938507e-004 6.65821193e-004 7.32403295e-003 1.01458468e-003
      4.43880796e-004 1.58528856e-004 4.12175024e-004 0. 0. 0.
      1.58528856e-004 1.29993656e-003 5.07292338e-004 3.17057711e-005
      4.43880796e-004 6.34115422e-004 4.43880796e-004 9.19467362e-004
      1.93405198e-003 2.88839564e-002 4.49587815e-002 1.58528856e-003
      1.75332911e-002 4.12175024e-004 4.12175024e-004 8.24350049e-004
      6.65821182e-003 1.01458468e-003 1.74381735e-003 6.34115422e-005
      9.51173133e-004 6.97526964e-004 1.10970193e-003 2.02916935e-003
      7.22891558e-003 4.41344343e-002 1.31896008e-002 1.45846547e-003
      5.86556736e-003 2.21940398e-004 9.51173133e-005 6.97526964e-004
      1.90234627e-003 1.74064673e-002 5.45339240e-003 8.87761591e-004
      4.75586578e-003 7.13379821e-003 2.56816740e-003 6.94356393e-003
      1.53455930e-002</_>
    <_>
      4.80342433e-002 8.05326551e-003 5.07292338e-003 1.10019026e-002
      5.77044999e-003 6.34115422e-004 9.48002562e-003 2.09575146e-002
      4.72415984e-003 5.07292338e-004 2.85351940e-004 6.02409651e-004
      8.81420448e-003 9.19467362e-004 2.08941028e-002 3.60177569e-002
      9.28979088e-003 2.85351940e-004 3.17057711e-004 6.02409651e-004
      6.34115422e-004 0. 6.65821193e-004 3.17057711e-004 1.10336086e-002
      3.17057711e-004 4.43880796e-004 4.12175024e-004 1.99746359e-002
      1.90234627e-004 3.36715281e-002 9.95561201e-003 8.02155957e-003
      6.02409651e-004 5.70703880e-004 8.56055820e-004 6.02409651e-004 0.
      8.24350049e-004 9.51173133e-004 7.92644278e-004 9.51173133e-005
      9.51173133e-005 9.51173133e-005 7.60938507e-004 3.17057711e-005
      1.14140776e-003 1.29993656e-003 1.46797718e-002 5.07292338e-004
      6.65821193e-004 5.38998109e-004 1.07799622e-003 0. 5.70703880e-004
      4.12175024e-004 2.99302470e-002 4.75586567e-004 8.56055820e-004
      6.02409651e-004 3.25935334e-002 1.90234627e-004 1.36017753e-002
      4.37539630e-003 8.75079259e-003 8.24350049e-004 6.97526964e-004
      9.19467362e-004 5.38998109e-004 3.17057711e-005 2.53646169e-004
      3.48763482e-004 4.75586567e-004 0. 3.17057711e-005 3.17057711e-005
      5.38998109e-004 3.17057711e-005 1.58528856e-004 2.21940398e-004
      6.34115422e-004 0. 6.34115422e-005 0. 0. 0. 0. 0. 8.56055820e-004
      0. 6.34115422e-005 0. 2.85351940e-004 0. 2.21940398e-004
      6.34115422e-005 1.39505388e-002 6.65821193e-004 7.60938507e-004
      5.70703880e-004 4.43880796e-004 3.17057711e-005 6.02409651e-004
      2.53646169e-004 6.65821193e-004 6.34115422e-005 3.17057711e-005
      9.51173133e-005 7.92644278e-004 6.34115422e-005 7.60938507e-004
      5.07292338e-004 2.93912496e-002 4.12175024e-004 1.04629039e-003
      5.07292338e-004 4.43880796e-004 3.17057711e-005 3.17057711e-004
      2.21940398e-004 4.98414710e-002 4.12175024e-004 1.14140776e-003
      2.53646169e-004 1.20164873e-002 3.17057711e-005 5.16804075e-003
      1.55358273e-003 6.84844656e-003 1.35383643e-002 6.34115422e-004
      2.98351292e-002 4.43880796e-004 6.97526964e-004 6.34115422e-004
      3.29422951e-002 8.24350049e-004 1.33164239e-003 3.17057711e-005
      7.29232735e-004 6.97526964e-004 8.56055820e-004 7.29232735e-004
      1.47748888e-002 5.70703880e-004 4.75586567e-004 9.51173133e-005
      5.07292338e-004 0. 0. 6.34115422e-005 2.85351940e-004
      8.87761591e-004 6.65821193e-004 3.17057711e-005 6.65821193e-004
      1.14140776e-003 5.07292338e-004 1.20481930e-003 4.59733652e-003
      5.38998109e-004 6.65821193e-004 6.34115422e-005 1.20481930e-003 0.
      0. 1.26823084e-004 1.36334810e-003 6.34115422e-005 3.17057711e-005
      0. 9.51173133e-005 6.34115422e-005 0. 3.17057711e-005
      5.70703880e-004 9.82878846e-004 6.97526964e-004 1.58528856e-004
      3.80469253e-004 3.17057711e-005 0. 3.17057711e-005 2.53646169e-004
      1.14140776e-003 8.56055820e-004 9.51173133e-005 9.82878846e-004
      1.29993656e-003 6.97526964e-004 7.92644278e-004 3.80469253e-003
      1.10336086e-002 2.57767905e-002 1.07799622e-003 4.92707677e-002
      5.38998109e-004 3.80469253e-004 6.97526964e-004 1.17628407e-002
      8.56055820e-004 7.92644278e-004 0. 1.33164239e-003 3.48763482e-004
      2.85351940e-004 6.65821193e-004 6.05580211e-003 1.10970193e-003
      3.17057711e-004 3.17057711e-005 2.53646169e-004 9.51173133e-005 0.
      0. 9.51173133e-005 7.92644278e-004 6.02409651e-004 3.17057711e-005
      4.12175024e-004 7.60938507e-004 2.21940398e-004 5.70703880e-004
      1.80722889e-003 2.62523778e-002 3.83322760e-002 7.92644278e-004
      1.75332911e-002 2.85351940e-004 2.85351940e-004 5.38998109e-004
      5.35827503e-003 9.82878846e-004 1.29993656e-003 0. 8.87761591e-004
      4.43880796e-004 7.60938507e-004 1.55358273e-003 6.21433090e-003
      4.32466716e-002 1.01458468e-002 1.39505393e-003 4.72415984e-003
      4.12175024e-004 6.34115422e-005 6.65821193e-004 1.55358273e-003
      2.01331638e-002 6.59480039e-003 9.82878846e-004 4.94610006e-003
      6.24603685e-003 1.77552318e-003 6.15091948e-003 1.03994925e-002</_>
    <_>
      4.80342433e-002 8.05326551e-003 5.07292338e-003 1.10019026e-002
      5.77044999e-003 6.34115422e-004 9.48002562e-003 2.09575146e-002
      4.72415984e-003 5.07292338e-004 2.85351940e-004 6.02409651e-004
      8.81420448e-003 9.19467362e-004 2.08941028e-002 3.60177569e-002
      9.28979088e-003 2.85351940e-004 3.17057711e-004 6.02409651e-004
      6.34115422e-004 0. 6.65821193e-004 3.17057711e-004 1.10336086e-002
      3.17057711e-004 4.43880796e-004 4.12175024e-004 1.99746359e-002
      1.90234627e-004 3.36715281e-002 9.95561201e-003 8.02155957e-003
      6.02409651e-004 5.70703880e-004 8.56055820e-004 6.02409651e-004 0.
      8.24350049e-004 9.51173133e-004 7.92644278e-004 9.51173133e-005
      9.51173133e-005 9.51173133e-005 7.60938507e-004 3.17057711e-005
      1.14140776e-003 1.29993656e-003 1.46797718e-002 5.07292338e-004
      6.65821193e-004 5.38998109e-004 1.07799622e-003 0. 5.70703880e-004
      4.12175024e-004 2.99302470e-002 4.75586567e-004 8.56055820e-004
      6.02409651e-004 3.25935334e-002 1.90234627e-004 1.36017753e-002
      4.37539630e-003 8.75079259e-003 8.24350049e-004 6.97526964e-004
      9.19467362e-004 5.38998109e-004 3.17057711e-005 2.53646169e-004
      3.48763482e-004 4.75586567e-004 0. 3.17057711e-005 3.17057711e-005
      5.38998109e-004 3.17057711e-005 1.58528856e-004 2.21940398e-004
      6.34115422e-004 0. 6.34115422e-005 0. 0. 0. 0. 0. 8.56055820e-004
      0. 6.34115422e-005 0. 2.85351940e-004 0. 2.21940398e-004
      6.34115422e-005 1.39505388e-002 6.65821193e-004 7.60938507e-004
      5.70703880e-004 4.43880796e-004 3.17057711e-005 6.02409651e-004
      2.53646169e-004 6.65821193e-004 6.34115422e-005 3.17057711e-005
      9.51173133e-005 7.92644278e-004 6.34115422e-005 7.60938507e-004
      5.07292338e-004 2.93912496e-002 4.12175024e-004 1.04629039e-003
      5.07292338e-004 4.43880796e-004 3.17057711e-005 3.17057711e-004
      2.21940398e-004 4.98414710e-002 4.12175024e-004 1.14140776e-003
      2.53646169e-004 1.20164873e-002 3.17057711e-005 5.16804075e-003
      1.55358273e-003 6.84844656e-003 1.35383643e-002 6.34115422e-004
      2.98351292e-002 4.43880796e-004 6.97526964e-004 6.34115422e-004
      3.29422951e-002 8.24350049e-004 1.33164239e-003 3.17057711e-005
      7.29232735e-004 6.97526964e-004 8.56055820e-004 7.29232735e-004
      1.47748888e-002 5.70703880e-004 4.75586567e-004 9.51173133e-005
      5.07292338e-004 0. 0. 6.34115422e-005 2.85351940e-004
      8.87761591e-004 6.65821193e-004 3.17057711e-005 6.65821193e-004
      1.14140776e-003 5.07292338e-004 1.20481930e-003 4.59733652e-003
      5.38998109e-004 6.65821193e-004 6.34115422e-005 1.20481930e-003 0.
      0. 1.26823084e-004 1.36334810e-003 6.34115422e-005 3.17057711e-005
      0. 9.51173133e-005 6.34115422e-005 0. 3.17057711e-005
      5.70703880e-004 9.82878846e-004 6.97526964e-004 1.58528856e-004
      3.80469253e-004 3.17057711e-005 0. 3.17057711e-005 2.53646169e-004
      1.14140776e-003 8.56055820e-004 9.51173133e-005 9.82878846e-004
      1.29993656e-003 6.97526964e-004 7.92644278e-004 3.80469253e-003
      1.10336086e-002 2.57767905e-002 1.07799622e-003 4.92707677e-002
      5.38998109e-004 3.80469253e-004 6.97526964e-004 1.17628407e-002
      8.56055820e-004 7.92644278e-004 0. 1.33164239e-003 3.48763482e-004
      2.85351940e-004 6.65821193e-004 6.05580211e-003 1.10970193e-003
      3.17057711e-004 3.17057711e-005 2.53646169e-004 9.51173133e-005 0.
      0. 9.51173133e-005 7.92644278e-004 6.02409651e-004 3.17057711e-005
      4.12175024e-004 7.60938507e-004 2.21940398e-004 5.70703880e-004
      1.80722889e-003 2.62523778e-002 3.83322760e-002 7.92644278e-004
      1.75332911e-002 2.85351940e-004 2.85351940e-004 5.38998109e-004
      5.35827503e-003 9.82878846e-004 1.29993656e-003 0. 8.87761591e-004
      4.43880796e-004 7.60938507e-004 1.55358273e-003 6.21433090e-003
      4.32466716e-002 1.01458468e-002 1.39505393e-003 4.72415984e-003
      4.12175024e-004 6.34115422e-005 6.65821193e-004 1.55358273e-003
      2.01331638e-002 6.59480039e-003 9.82878846e-004 4.94610006e-003
      6.24603685e-003 1.77552318e-003 6.15091948e-003 1.03994925e-002</_>
    <_>
      4.15028520e-002 1.02726696e-002 5.38998097e-003 1.11604314e-002
      4.91439458e-003 6.34115422e-004 9.06785019e-003 2.02282816e-002
      5.42168692e-003 7.29232735e-004 4.43880796e-004 6.65821193e-004
      8.81420448e-003 1.01458468e-003 2.33671535e-002 3.99492718e-002
      9.48002562e-003 6.65821193e-004 9.51173133e-004 4.43880796e-004
      8.24350049e-004 6.34115422e-005 1.26823084e-003 5.38998109e-004
      1.13823712e-002 4.75586567e-004 5.70703880e-004 3.17057711e-004
      2.05770452e-002 4.43880796e-004 3.57006975e-002 1.14457831e-002
      6.08750805e-003 1.14140776e-003 6.02409651e-004 7.92644278e-004
      5.07292338e-004 9.51173133e-005 7.92644278e-004 1.07799622e-003
      7.92644278e-004 3.17057711e-005 0. 9.51173133e-005 9.51173133e-004
      9.51173133e-005 1.04629039e-003 1.39505393e-003 1.36968931e-002
      5.38998109e-004 6.02409651e-004 2.53646169e-004 8.24350049e-004
      3.17057711e-005 7.92644278e-004 4.43880796e-004 2.37476230e-002
      5.70703880e-004 6.97526964e-004 2.85351940e-004 2.59036142e-002
      3.80469253e-004 1.44261252e-002 4.66074841e-003 6.18262542e-003
      1.29993656e-003 5.38998109e-004 7.29232735e-004 1.90234627e-004
      1.26823084e-004 4.75586567e-004 3.48763482e-004 7.92644278e-004
      6.34115422e-005 3.17057711e-005 6.34115422e-005 5.07292338e-004
      9.51173133e-005 3.17057711e-004 4.75586567e-004 7.92644278e-004 0.
      6.34115422e-005 3.17057711e-005 9.51173133e-005 0. 1.26823084e-004
      3.17057711e-005 6.65821193e-004 0. 9.51173133e-005 3.17057711e-005
      4.75586567e-004 0. 4.12175024e-004 1.26823084e-004 1.07165501e-002
      1.23652501e-003 6.97526964e-004 1.17311347e-003 6.97526964e-004
      9.51173133e-005 4.75586567e-004 6.65821193e-004 7.92644278e-004
      3.17057711e-005 6.34115422e-005 9.51173133e-005 3.48763482e-004
      1.26823084e-004 6.65821193e-004 9.51173133e-004 2.72669625e-002
      5.70703880e-004 1.10970193e-003 6.34115422e-004 4.43880796e-004
      3.17057711e-005 4.43880796e-004 2.85351940e-004 4.61001918e-002
      5.07292338e-004 8.56055820e-004 3.17057711e-004 1.18579585e-002
      2.21940398e-004 7.32403295e-003 1.77552318e-003 7.41915032e-003
      1.37920100e-002 7.29232735e-004 2.68547870e-002 6.34115422e-004
      9.19467362e-004 7.92644278e-004 2.60304380e-002 5.38998109e-004
      8.87761591e-004 1.26823084e-004 7.29232735e-004 8.87761591e-004
      5.38998109e-004 1.20481930e-003 1.49968294e-002 8.24350049e-004
      5.70703880e-004 6.34115422e-005 3.48763482e-004 3.17057711e-005
      3.17057711e-005 1.58528856e-004 4.75586567e-004 6.97526964e-004
      6.02409651e-004 1.90234627e-004 4.75586567e-004 8.87761591e-004
      3.80469253e-004 1.39505393e-003 4.56563104e-003 6.65821193e-004
      8.87761591e-004 9.51173133e-005 8.24350049e-004 6.34115422e-005 0.
      9.51173133e-005 8.87761591e-004 6.34115422e-005 1.26823084e-004 0.
      1.26823084e-004 9.51173133e-005 9.51173133e-005 9.51173133e-005
      9.19467362e-004 6.02409651e-004 4.43880796e-004 1.90234627e-004
      5.38998109e-004 6.34115422e-005 0. 6.34115422e-005 4.12175024e-004
      6.65821193e-004 3.17057711e-004 6.34115422e-005 6.34115422e-004
      1.07799622e-003 3.80469253e-004 7.60938507e-004 3.17057711e-003
      1.21750161e-002 3.06911860e-002 6.97526964e-004 5.20608760e-002
      6.97526964e-004 6.65821193e-004 5.38998109e-004 1.23652508e-002
      5.38998109e-004 1.26823084e-003 3.17057711e-005 7.60938507e-004
      5.70703880e-004 4.43880796e-004 5.70703880e-004 7.38744438e-003
      1.20481930e-003 5.38998109e-004 1.58528856e-004 3.80469253e-004
      6.34115422e-005 0. 6.34115422e-005 2.53646169e-004 8.87761591e-004
      5.38998109e-004 6.34115422e-005 3.48763482e-004 4.43880796e-004
      2.53646169e-004 9.19467362e-004 2.02916935e-003 2.57767905e-002
      4.05833870e-002 1.61699427e-003 1.86112877e-002 4.12175024e-004
      3.48763482e-004 8.87761591e-004 6.49968302e-003 1.17311347e-003
      1.39505393e-003 9.51173133e-005 7.60938507e-004 7.29232735e-004
      7.29232735e-004 1.52187701e-003 7.89473671e-003 4.32783775e-002
      1.17628407e-002 1.45846547e-003 5.61192119e-003 3.80469253e-004
      2.21940398e-004 6.34115422e-004 2.34622695e-003 1.70259979e-002
      5.86556736e-003 5.38998109e-004 3.80469253e-003 7.38744438e-003
      2.06087506e-003 6.59480039e-003 1.33164236e-002</_>
    <_>
      5.09511717e-002 1.07482560e-002 5.96068474e-003 1.26188966e-002
      5.99239068e-003 8.24350049e-004 1.00824349e-002 2.11477485e-002
      6.43627159e-003 8.56055820e-004 9.19467362e-004 5.07292338e-004
      1.10970195e-002 5.07292338e-004 2.67596710e-002 3.85542177e-002
      9.48002562e-003 6.02409651e-004 7.92644278e-004 5.70703880e-004
      5.38998109e-004 0. 9.51173133e-004 3.17057711e-004 1.26823084e-002
      2.21940398e-004 6.97526964e-004 2.21940398e-004 2.01965757e-002
      3.80469253e-004 3.75713371e-002 1.03994925e-002 8.90932139e-003
      9.19467362e-004 6.97526964e-004 6.65821193e-004 6.65821193e-004 0.
      5.07292338e-004 6.97526964e-004 6.02409651e-004 2.85351940e-004
      9.51173133e-005 6.34115422e-005 9.82878846e-004 6.34115422e-005
      1.07799622e-003 1.49017118e-003 1.50285354e-002 5.38998109e-004
      7.29232735e-004 3.80469253e-004 6.65821193e-004 3.17057711e-005
      5.38998109e-004 3.48763482e-004 3.02790105e-002 5.70703880e-004
      6.02409651e-004 3.17057711e-004 3.51934060e-002 1.26823084e-004
      1.40773617e-002 4.78757126e-003 7.45085627e-003 5.70703880e-004
      4.43880796e-004 7.29232735e-004 3.48763482e-004 3.17057711e-005
      4.12175024e-004 2.85351940e-004 6.34115422e-004 0. 6.34115422e-005
      3.17057711e-005 3.80469253e-004 3.17057711e-005 4.75586567e-004
      1.90234627e-004 5.07292338e-004 3.17057711e-005 3.17057711e-005 0.
      6.34115422e-005 0. 9.51173133e-005 3.17057711e-005 5.70703880e-004
      6.34115422e-005 6.34115422e-005 3.17057711e-005 3.17057711e-004 0.
      2.53646169e-004 1.26823084e-004 1.27774253e-002 1.23652501e-003
      4.43880796e-004 6.34115422e-004 3.80469253e-004 9.51173133e-005
      5.07292338e-004 4.43880796e-004 1.14140776e-003 1.58528856e-004
      3.17057711e-005 3.17057711e-005 7.29232735e-004 6.34115422e-005
      7.29232735e-004 5.07292338e-004 2.47305017e-002 4.43880796e-004
      1.01458468e-003 4.75586567e-004 4.12175024e-004 3.17057711e-005
      3.80469253e-004 2.21940398e-004 4.53709587e-002 3.48763482e-004
      1.29993656e-003 2.85351940e-004 1.13506662e-002 1.26823084e-004
      4.91439458e-003 1.87064044e-003 8.21179431e-003 1.58845913e-002
      7.29232735e-004 3.04375403e-002 4.75586567e-004 7.60938507e-004
      8.24350049e-004 3.11033614e-002 7.29232735e-004 8.87761591e-004
      3.17057711e-005 7.29232735e-004 6.02409651e-004 6.65821193e-004
      1.07799622e-003 1.40456567e-002 6.02409651e-004 2.85351940e-004
      9.51173133e-005 3.80469253e-004 0. 6.34115422e-005 1.58528856e-004
      2.85351940e-004 9.19467362e-004 2.85351940e-004 6.34115422e-005
      4.43880796e-004 7.92644278e-004 3.80469253e-004 1.42675964e-003
      3.58275208e-003 9.51173133e-004 5.70703880e-004 3.17057711e-005
      1.26823084e-003 6.34115422e-005 0. 6.34115422e-005 9.19467362e-004
      3.17057711e-005 6.34115422e-005 0. 0. 1.26823084e-004
      3.17057711e-005 6.34115422e-005 6.34115422e-004 9.82878846e-004
      6.65821193e-004 9.51173133e-005 4.12175024e-004 9.51173133e-005
      6.34115422e-005 3.17057711e-005 3.80469253e-004 9.19467362e-004
      4.43880796e-004 6.34115422e-005 6.97526964e-004 9.82878846e-004
      3.80469253e-004 5.70703880e-004 3.04375403e-003 1.23335449e-002
      2.74254922e-002 6.02409651e-004 3.94736826e-002 4.43880796e-004
      3.80469253e-004 6.34115422e-004 1.14457831e-002 8.56055820e-004
      6.02409651e-004 0. 1.07799622e-003 6.02409651e-004 5.07292338e-004
      8.87761591e-004 6.27774233e-003 1.20481930e-003 2.21940398e-004
      9.51173133e-005 1.90234627e-004 3.17057711e-005 0. 9.51173133e-005
      1.90234627e-004 6.97526964e-004 4.43880796e-004 6.34115422e-005
      3.80469253e-004 5.07292338e-004 2.85351940e-004 4.43880796e-004
      1.80722889e-003 2.67913751e-002 3.63665186e-002 1.33164239e-003
      1.78503487e-002 3.17057711e-004 3.48763482e-004 6.65821193e-004
      5.13633480e-003 9.19467362e-004 1.10970193e-003 3.17057711e-005
      8.87761591e-004 7.29232735e-004 1.01458468e-003 2.06087506e-003
      6.30944828e-003 3.86810414e-002 1.07482560e-002 1.45846547e-003
      4.91439458e-003 4.12175024e-004 9.51173133e-005 7.92644278e-004
      1.14140776e-003 1.70894098e-002 3.99492728e-003 7.60938507e-004
      3.55104636e-003 5.35827503e-003 1.17311347e-003 6.78503467e-003
      1.03677865e-002</_>
    <_>
      5.09511717e-002 1.07482560e-002 5.96068474e-003 1.26188966e-002
      5.99239068e-003 8.24350049e-004 1.00824349e-002 2.11477485e-002
      6.43627159e-003 8.56055820e-004 9.19467362e-004 5.07292338e-004
      1.10970195e-002 5.07292338e-004 2.67596710e-002 3.85542177e-002
      9.48002562e-003 6.02409651e-004 7.92644278e-004 5.70703880e-004
      5.38998109e-004 0. 9.51173133e-004 3.17057711e-004 1.26823084e-002
      2.21940398e-004 6.97526964e-004 2.21940398e-004 2.01965757e-002
      3.80469253e-004 3.75713371e-002 1.03994925e-002 8.90932139e-003
      9.19467362e-004 6.97526964e-004 6.65821193e-004 6.65821193e-004 0.
      5.07292338e-004 6.97526964e-004 6.02409651e-004 2.85351940e-004
      9.51173133e-005 6.34115422e-005 9.82878846e-004 6.34115422e-005
      1.07799622e-003 1.49017118e-003 1.50285354e-002 5.38998109e-004
      7.29232735e-004 3.80469253e-004 6.65821193e-004 3.17057711e-005
      5.38998109e-004 3.48763482e-004 3.02790105e-002 5.70703880e-004
      6.02409651e-004 3.17057711e-004 3.51934060e-002 1.26823084e-004
      1.40773617e-002 4.78757126e-003 7.45085627e-003 5.70703880e-004
      4.43880796e-004 7.29232735e-004 3.48763482e-004 3.17057711e-005
      4.12175024e-004 2.85351940e-004 6.34115422e-004 0. 6.34115422e-005
      3.17057711e-005 3.80469253e-004 3.17057711e-005 4.75586567e-004
      1.90234627e-004 5.07292338e-004 3.17057711e-005 3.17057711e-005 0.
      6.34115422e-005 0. 9.51173133e-005 3.17057711e-005 5.70703880e-004
      6.34115422e-005 6.34115422e-005 3.17057711e-005 3.17057711e-004 0.
      2.53646169e-004 1.26823084e-004 1.27774253e-002 1.23652501e-003
      4.43880796e-004 6.34115422e-004 3.80469253e-004 9.51173133e-005
      5.07292338e-004 4.43880796e-004 1.14140776e-003 1.58528856e-004
      3.17057711e-005 3.17057711e-005 7.29232735e-004 6.34115422e-005
      7.29232735e-004 5.07292338e-004 2.47305017e-002 4.43880796e-004
      1.01458468e-003 4.75586567e-004 4.12175024e-004 3.17057711e-005
      3.80469253e-004 2.21940398e-004 4.53709587e-002 3.48763482e-004
      1.29993656e-003 2.85351940e-004 1.13506662e-002 1.26823084e-004
      4.91439458e-003 1.87064044e-003 8.21179431e-003 1.58845913e-002
      7.29232735e-004 3.04375403e-002 4.75586567e-004 7.60938507e-004
      8.24350049e-004 3.11033614e-002 7.29232735e-004 8.87761591e-004
      3.17057711e-005 7.29232735e-004 6.02409651e-004 6.65821193e-004
      1.07799622e-003 1.40456567e-002 6.02409651e-004 2.85351940e-004
      9.51173133e-005 3.80469253e-004 0. 6.34115422e-005 1.58528856e-004
      2.85351940e-004 9.19467362e-004 2.85351940e-004 6.34115422e-005
      4.43880796e-004 7.92644278e-004 3.80469253e-004 1.42675964e-003
      3.58275208e-003 9.51173133e-004 5.70703880e-004 3.17057711e-005
      1.26823084e-003 6.34115422e-005 0. 6.34115422e-005 9.19467362e-004
      3.17057711e-005 6.34115422e-005 0. 0. 1.26823084e-004
      3.17057711e-005 6.34115422e-005 6.34115422e-004 9.82878846e-004
      6.65821193e-004 9.51173133e-005 4.12175024e-004 9.51173133e-005
      6.34115422e-005 3.17057711e-005 3.80469253e-004 9.19467362e-004
      4.43880796e-004 6.34115422e-005 6.97526964e-004 9.82878846e-004
      3.80469253e-004 5.70703880e-004 3.04375403e-003 1.23335449e-002
      2.74254922e-002 6.02409651e-004 3.94736826e-002 4.43880796e-004
      3.80469253e-004 6.34115422e-004 1.14457831e-002 8.56055820e-004
      6.02409651e-004 0. 1.07799622e-003 6.02409651e-004 5.07292338e-004
      8.87761591e-004 6.27774233e-003 1.20481930e-003 2.21940398e-004
      9.51173133e-005 1.90234627e-004 3.17057711e-005 0. 9.51173133e-005
      1.90234627e-004 6.97526964e-004 4.43880796e-004 6.34115422e-005
      3.80469253e-004 5.07292338e-004 2.85351940e-004 4.43880796e-004
      1.80722889e-003 2.67913751e-002 3.63665186e-002 1.33164239e-003
      1.78503487e-002 3.17057711e-004 3.48763482e-004 6.65821193e-004
      5.13633480e-003 9.19467362e-004 1.10970193e-003 3.17057711e-005
      8.87761591e-004 7.29232735e-004 1.01458468e-003 2.06087506e-003
      6.30944828e-003 3.86810414e-002 1.07482560e-002 1.45846547e-003
      4.91439458e-003 4.12175024e-004 9.51173133e-005 7.92644278e-004
      1.14140776e-003 1.70894098e-002 3.99492728e-003 7.60938507e-004
      3.55104636e-003 5.35827503e-003 1.17311347e-003 6.78503467e-003
      1.03677865e-002</_>
    <_>
      4.73050103e-002 1.03994925e-002 5.77044999e-003 1.23018390e-002
      6.05580211e-003 6.34115422e-004 1.06531391e-002 1.99746359e-002
      6.37285970e-003 8.24350049e-004 7.92644278e-004 5.70703880e-004
      1.00824349e-002 9.19467362e-004 2.48573236e-002 3.63031067e-002
      9.73367132e-003 5.38998109e-004 9.19467362e-004 5.38998109e-004
      8.56055820e-004 0. 9.82878846e-004 3.17057711e-004 1.13506662e-002
      4.43880796e-004 6.02409651e-004 5.07292338e-004 2.05136333e-002
      4.12175024e-004 4.21369672e-002 1.28091313e-002 7.98985455e-003
      7.92644278e-004 8.24350049e-004 8.24350049e-004 4.75586567e-004
      3.17057711e-005 6.97526964e-004 7.29232735e-004 7.29232735e-004
      9.51173133e-005 3.17057711e-005 1.26823084e-004 1.01458468e-003
      1.90234627e-004 1.23652501e-003 1.71211164e-003 1.46480659e-002
      5.07292338e-004 5.07292338e-004 6.65821193e-004 8.24350049e-004
      3.17057711e-005 7.60938507e-004 4.75586567e-004 2.49207355e-002
      3.17057711e-004 7.60938507e-004 5.70703880e-004 2.65377294e-002
      2.85351940e-004 1.42358905e-002 4.43880772e-003 7.86303077e-003
      7.60938507e-004 4.12175024e-004 9.51173133e-004 3.80469253e-004 0.
      4.75586567e-004 1.90234627e-004 6.02409651e-004 9.51173133e-005
      9.51173133e-005 9.51173133e-005 4.75586567e-004 0. 4.43880796e-004
      2.53646169e-004 7.29232735e-004 0. 0. 0. 3.17057711e-005 0. 0.
      6.34115422e-005 8.24350049e-004 0. 9.51173133e-005 0.
      5.07292338e-004 0. 3.48763482e-004 1.58528856e-004 1.30944829e-002
      1.23652501e-003 4.12175024e-004 6.65821193e-004 5.70703880e-004
      3.17057711e-005 4.43880796e-004 6.02409651e-004 9.19467362e-004
      3.17057711e-005 3.17057711e-005 3.17057711e-005 6.97526964e-004 0.
      9.82878846e-004 7.60938507e-004 2.94863656e-002 3.48763482e-004
      8.87761591e-004 3.80469253e-004 5.07292338e-004 0. 2.53646169e-004
      1.90234627e-004 4.50221933e-002 3.80469253e-004 1.23652501e-003
      3.80469253e-004 1.13823712e-002 1.90234627e-004 6.05580211e-003
      2.31452123e-003 7.60938507e-003 1.23335449e-002 6.02409651e-004
      2.41915025e-002 6.97526964e-004 1.04629039e-003 1.07799622e-003
      2.40963846e-002 5.07292338e-004 6.34115422e-004 3.17057711e-005
      6.02409651e-004 7.92644278e-004 6.65821193e-004 7.29232735e-004
      1.49334176e-002 8.87761591e-004 3.48763482e-004 9.51173133e-005
      4.12175024e-004 9.51173133e-005 0. 3.17057711e-005 3.17057711e-004
      9.51173133e-004 6.02409651e-004 1.26823084e-004 4.43880796e-004
      9.19467362e-004 4.12175024e-004 1.45846547e-003 5.16804075e-003
      7.92644278e-004 6.02409651e-004 3.17057711e-005 1.01458468e-003
      6.34115422e-005 3.17057711e-005 6.34115422e-005 1.04629039e-003
      3.17057711e-005 0. 0. 3.17057711e-005 3.17057711e-005
      3.17057711e-005 3.17057711e-005 9.51173133e-004 8.24350049e-004
      5.38998109e-004 9.51173133e-005 3.17057711e-004 6.34115422e-005
      6.34115422e-005 3.17057711e-005 3.80469253e-004 9.51173133e-004
      7.29232735e-004 0. 5.38998109e-004 1.17311347e-003 5.07292338e-004
      8.56055820e-004 4.12175013e-003 1.15726059e-002 2.39061508e-002
      1.20481930e-003 4.16296758e-002 5.38998109e-004 3.80469253e-004
      9.82878846e-004 1.10653136e-002 6.02409651e-004 8.24350049e-004
      9.51173133e-005 7.92644278e-004 3.48763482e-004 5.38998109e-004
      8.87761591e-004 6.72162324e-003 1.33164239e-003 4.43880796e-004
      3.17057711e-005 3.48763482e-004 0. 0. 6.34115422e-005
      9.51173133e-005 8.87761591e-004 3.80469253e-004 3.17057711e-005
      6.02409651e-004 2.85351940e-004 2.85351940e-004 6.34115422e-004
      1.71211164e-003 2.81864293e-002 4.04248573e-002 9.51173133e-004
      1.70894098e-002 4.75586567e-004 6.02409651e-004 7.92644278e-004
      7.00697536e-003 1.49017118e-003 1.42675964e-003 6.34115422e-005
      7.29232735e-004 1.01458468e-003 1.29993656e-003 1.71211164e-003
      6.94356393e-003 4.28662002e-002 1.18262526e-002 1.49017118e-003
      4.91439458e-003 3.80469253e-004 1.26823084e-004 9.82878846e-004
      1.61699427e-003 1.94356367e-002 5.58021571e-003 6.34115422e-004
      3.77298659e-003 6.37285970e-003 1.93405198e-003 7.45085627e-003
      1.25554847e-002</_>
    <_>
      5.07609397e-002 9.76537727e-003 5.26315812e-003 9.44831967e-003
      6.15091948e-003 9.51173133e-004 9.79708321e-003 2.04819273e-002
      8.08497146e-003 1.07799622e-003 4.75586567e-004 7.92644278e-004
      1.17945466e-002 1.74381735e-003 3.91566269e-002 4.80025373e-002
      1.17628407e-002 6.34115422e-004 1.17311347e-003 6.02409651e-004
      9.51173133e-004 3.17057711e-005 1.36334810e-003 5.70703880e-004
      1.44578312e-002 4.75586567e-004 7.92644278e-004 4.43880796e-004
      2.93595437e-002 7.92644278e-004 6.76918179e-002 1.62967667e-002
      7.41915032e-003 6.02409651e-004 6.65821193e-004 8.56055820e-004
      6.02409651e-004 3.17057711e-005 6.65821193e-004 1.14140776e-003
      1.14140776e-003 1.90234627e-004 1.58528856e-004 3.17057711e-005
      9.19467362e-004 0. 1.58528856e-003 1.83893472e-003 1.36651872e-002
      6.34115422e-004 8.24350049e-004 4.12175024e-004 8.56055820e-004
      6.34115422e-005 8.56055820e-004 2.21940398e-004 2.13379841e-002
      5.70703880e-004 8.56055820e-004 5.07292338e-004 2.73937862e-002
      3.17057711e-004 2.06087511e-002 5.23145217e-003 6.11921353e-003
      9.82878846e-004 3.48763482e-004 5.07292338e-004 3.80469253e-004
      9.51173133e-005 6.97526964e-004 2.85351940e-004 5.70703880e-004
      3.17057711e-005 6.34115422e-005 3.17057711e-005 5.07292338e-004
      6.34115422e-005 5.07292338e-004 3.80469253e-004 9.19467362e-004 0.
      9.51173133e-005 0. 6.34115422e-005 0. 0. 0. 9.82878846e-004
      3.17057711e-005 3.17057711e-005 0. 6.02409651e-004 0.
      4.43880796e-004 2.21940398e-004 1.09701967e-002 1.10970193e-003
      6.02409651e-004 7.92644278e-004 4.12175024e-004 3.17057711e-005
      5.70703880e-004 5.38998109e-004 7.60938507e-004 1.26823084e-004
      9.51173133e-005 9.51173133e-005 6.97526964e-004 9.51173133e-005
      6.34115422e-004 7.92644278e-004 2.72986684e-002 5.38998109e-004
      1.23652501e-003 5.38998109e-004 4.43880796e-004 9.51173133e-005
      7.60938507e-004 3.48763482e-004 3.10716555e-002 5.07292338e-004
      9.82878846e-004 2.53646169e-004 1.12872543e-002 2.85351940e-004
      8.11667740e-003 2.31452123e-003 6.02409616e-003 9.35320184e-003
      6.65821193e-004 1.38554219e-002 3.80469253e-004 6.34115422e-004
      4.75586567e-004 1.95941664e-002 7.29232735e-004 7.29232735e-004
      1.90234627e-004 7.60938507e-004 7.92644278e-004 1.07799622e-003
