<?xml version="1.0"?>
<opencv_storage>
<opencv_ml_svm>
  <format>3</format>
  <svmType>C_SVC</svmType>
  <kernel>
    <type>RBF</type>
    <gamma>5.0625000000000009e-001</gamma></kernel>
  <C>3.1250000000000000e+002</C>
  <term_criteria><epsilon>1.1920928955078125e-007</epsilon>
    <iterations>1000</iterations></term_criteria>
  <var_count>256</var_count>
  <class_count>2</class_count>
  <class_labels type_id="opencv-matrix">
    <rows>2</rows>
    <cols>1</cols>
    <dt>i</dt>
    <data>
      -1082130432 1065353216</data></class_labels>
  <sv_total>35</sv_total>
  <support_vectors>
    <_>
      4.15028520e-002 1.02726696e-002 5.38998097e-003 1.11604314e-002
      4.91439458e-003 6.34115422e-004 9.06785019e-003 2.02282816e-002
      5.42168692e-003 7.29232735e-004 4.43880796e-004 6.65821193e-004
      8.81420448e-003 1.01458468e-003 2.33671535e-002 3.99492718e-002
      9.48002562e-003 6.65821193e-004 9.51173133e-004 4.43880796e-004
      8.24350049e-004 6.34115422e-005 1.26823084e-003 5.38998109e-004
      1.13823712e-002 4.75586567e-004 5.70703880e-004 3.17057711e-004
      2.05770452e-002 4.43880796e-004 3.57006975e-002 1.14457831e-002
      6.08750805e-003 1.14140776e-003 6.02409651e-004 7.92644278e-004
      5.07292338e-004 9.51173133e-005 7.92644278e-004 1.07799622e-003
      7.92644278e-004 3.17057711e-005 0. 9.51173133e-005 9.51173133e-004
      9.51173133e-005 1.04629039e-003 1.39505393e-003 1.36968931e-002
      5.38998109e-004 6.02409651e-004 2.53646169e-004 8.24350049e-004
      3.17057711e-005 7.92644278e-004 4.43880796e-004 2.37476230e-002
      5.70703880e-004 6.97526964e-004 2.85351940e-004 2.59036142e-002
      3.80469253e-004 1.44261252e-002 4.66074841e-003 6.18262542e-003
      1.29993656e-003 5.38998109e-004 7.29232735e-004 1.90234627e-004
      1.26823084e-004 4.75586567e-004 3.48763482e-004 7.92644278e-004
      6.34115422e-005 3.17057711e-005 6.34115422e-005 5.07292338e-004
      9.51173133e-005 3.17057711e-004 4.75586567e-004 7.92644278e-004 0.
      6.34115422e-005 3.17057711e-005 9.51173133e-005 0. 1.26823084e-004
      3.17057711e-005 6.65821193e-004 0. 9.51173133e-005 3.17057711e-005
      4.75586567e-004 0. 4.12175024e-004 1.26823084e-004 1.07165501e-002
      1.23652501e-003 6.97526964e-004 1.17311347e-003 6.97526964e-004
      9.51173133e-005 4.75586567e-004 6.65821193e-004 7.92644278e-004
      3.17057711e-005 6.34115422e-005 9.51173133e-005 3.48763482e-004
      1.26823084e-004 6.65821193e-004 9.51173133e-004 2.72669625e-002
      5.70703880e-004 1.10970193e-003 6.34115422e-004 4.43880796e-004
      3.17057711e-005 4.43880796e-004 2.85351940e-004 4.61001918e-002
      5.07292338e-004 8.56055820e-004 3.17057711e-004 1.18579585e-002
      2.21940398e-004 7.32403295e-003 1.77552318e-003 7.41915032e-003
      1.37920100e-002 7.29232735e-004 2.68547870e-002 6.34115422e-004
      9.19467362e-004 7.92644278e-004 2.60304380e-002 5.38998109e-004
      8.87761591e-004 1.26823084e-004 7.29232735e-004 8.87761591e-004
      5.38998109e-004 1.20481930e-003 1.49968294e-002 8.24350049e-004
      5.70703880e-004 6.34115422e-005 3.48763482e-004 3.17057711e-005
      3.17057711e-005 1.58528856e-004 4.75586567e-004 6.97526964e-004
      6.02409651e-004 1.90234627e-004 4.75586567e-004 8.87761591e-004
      3.80469253e-004 1.39505393e-003 4.56563104e-003 6.65821193e-004
      8.87761591e-004 9.51173133e-005 8.24350049e-004 6.34115422e-005 0.
      9.51173133e-005 8.87761591e-004 6.34115422e-005 1.26823084e-004 0.
      1.26823084e-004 9.51173133e-005 9.51173133e-005 9.51173133e-005
      9.19467362e-004 6.02409651e-004 4.43880796e-004 1.90234627e-004
      5.38998109e-004 6.34115422e-005 0. 6.34115422e-005 4.12175024e-004
      6.65821193e-004 3.17057711e-004 6.34115422e-005 6.34115422e-004
      1.07799622e-003 3.80469253e-004 7.60938507e-004 3.17057711e-003
      1.21750161e-002 3.06911860e-002 6.97526964e-004 5.20608760e-002
      6.97526964e-004 6.65821193e-004 5.38998109e-004 1.23652508e-002
      5.38998109e-004 1.26823084e-003 3.17057711e-005 7.60938507e-004
      5.70703880e-004 4.43880796e-004 5.70703880e-004 7.38744438e-003
      1.20481930e-003 5.38998109e-004 1.58528856e-004 3.80469253e-004
      6.34115422e-005 0. 6.34115422e-005 2.53646169e-004 8.87761591e-004
      5.38998109e-004 6.34115422e-005 3.48763482e-004 4.43880796e-004
      2.53646169e-004 9.19467362e-004 2.02916935e-003 2.57767905e-002
      4.05833870e-002 1.61699427e-003 1.86112877e-002 4.12175024e-004
      3.48763482e-004 8.87761591e-004 6.49968302e-003 1.17311347e-003
      1.39505393e-003 9.51173133e-005 7.60938507e-004 7.29232735e-004
      7.29232735e-004 1.52187701e-003 7.89473671e-003 4.32783775e-002
      1.17628407e-002 1.45846547e-003 5.61192119e-003 3.80469253e-004
      2.21940398e-004 6.34115422e-004 2.34622695e-003 1.70259979e-002
      5.86556736e-003 5.38998109e-004 3.80469253e-003 7.38744438e-003
      2.06087506e-003 6.59480039e-003 1.33164236e-002</_>
    <_>
      3.99809778e-002 1.06531391e-002 4.37539630e-003 9.22637898e-003
      4.24857344e-003 5.07292338e-004 7.38744438e-003 1.49968294e-002
      4.43880772e-003 6.97526964e-004 3.17057711e-004 5.38998109e-004
      6.84844656e-003 1.01458468e-003 2.13379841e-002 4.22320850e-002
      9.89220012e-003 3.48763482e-004 6.97526964e-004 5.70703880e-004
      4.43880796e-004 0. 7.92644278e-004 2.85351940e-004 1.06531391e-002
      3.17057711e-004 2.85351940e-004 3.80469253e-004 1.46797718e-002
      3.80469253e-004 3.67786922e-002 1.03994925e-002 6.11921353e-003
      1.10970193e-003 2.53646169e-004 5.70703880e-004 5.70703880e-004
      3.17057711e-005 5.70703880e-004 5.07292338e-004 7.60938507e-004
      6.34115422e-005 9.51173133e-005 6.34115422e-005 5.38998109e-004
      9.51173133e-005 6.97526964e-004 1.23652501e-003 1.40773617e-002
      4.12175024e-004 6.02409651e-004 4.75586567e-004 7.29232735e-004 0.
      6.97526964e-004 4.75586567e-004 2.30183899e-002 5.70703880e-004
      6.02409651e-004 3.80469253e-004 2.33671535e-002 3.17057711e-004
      1.25554847e-002 4.02663276e-003 6.59480039e-003 8.56055820e-004
      7.60938507e-004 7.92644278e-004 3.48763482e-004 0. 1.26823084e-004
      2.85351940e-004 3.80469253e-004 6.34115422e-005 3.17057711e-005
      3.17057711e-005 3.17057711e-004 3.17057711e-005 3.48763482e-004
      1.90234627e-004 8.87761591e-004 0. 0. 0. 0. 0. 0. 0.
      6.02409651e-004 3.17057711e-005 0. 0. 4.43880796e-004
      3.17057711e-005 2.21940398e-004 9.51173133e-005 1.15091950e-002
      1.14140776e-003 5.07292338e-004 7.60938507e-004 4.75586567e-004
      3.17057711e-005 8.24350049e-004 5.07292338e-004 1.10970193e-003
      6.34115422e-005 6.34115422e-005 9.51173133e-005 5.38998109e-004
      9.51173133e-005 6.34115422e-004 6.65821193e-004 3.01204827e-002
      3.48763482e-004 8.24350049e-004 1.58528856e-004 4.75586567e-004
      3.17057711e-005 3.17057711e-004 1.58528856e-004 4.98097651e-002
      4.75586567e-004 5.70703880e-004 2.53646169e-004 1.35383643e-002
      2.21940398e-004 5.29486360e-003 1.52187701e-003 8.14838335e-003
      1.43310083e-002 5.70703880e-004 2.37476230e-002 4.43880796e-004
      5.70703880e-004 8.56055820e-004 2.32086238e-002 5.38998109e-004
      4.75586567e-004 6.34115422e-005 8.24350049e-004 5.38998109e-004
      6.97526964e-004 7.29232735e-004 1.17311347e-002 8.24350049e-004
      7.60938507e-004 1.58528856e-004 4.75586567e-004 1.58528856e-004
      3.17057711e-005 6.34115422e-005 3.80469253e-004 5.07292338e-004
      4.75586567e-004 0. 5.07292338e-004 6.65821193e-004 4.43880796e-004
      1.33164239e-003 3.70957516e-003 7.60938507e-004 8.24350049e-004
      1.26823084e-004 7.92644278e-004 0. 0. 9.51173133e-005
      8.87761591e-004 6.34115422e-005 3.17057711e-005 3.17057711e-005
      3.17057711e-005 0. 9.51173133e-005 1.26823084e-004 6.97526964e-004
      5.38998109e-004 6.34115422e-004 6.34115422e-005 6.02409651e-004
      3.17057711e-005 3.17057711e-005 1.26823084e-004 3.48763482e-004
      5.70703880e-004 4.75586567e-004 9.51173133e-005 7.29232735e-004
      4.43880796e-004 5.07292338e-004 8.87761591e-004 2.91693094e-003
      1.06531391e-002 3.35447043e-002 1.17311347e-003 5.40583394e-002
      3.80469253e-004 6.97526964e-004 5.38998109e-004 1.29993660e-002
      6.02409651e-004 6.65821193e-004 6.34115422e-005 7.60938507e-004
      4.75586567e-004 5.07292338e-004 6.65821193e-004 6.46797707e-003
      1.58528856e-003 6.97526964e-004 9.51173133e-005 3.80469253e-004
      9.51173133e-005 0. 6.34115422e-005 1.26823084e-004 7.60938507e-004
      4.75586567e-004 0. 4.12175024e-004 6.02409651e-004 1.90234627e-004
      2.85351940e-004 1.68040581e-003 3.26569453e-002 5.25364615e-002
      1.20481930e-003 2.28598602e-002 4.75586567e-004 4.12175024e-004
      5.38998109e-004 7.41915032e-003 1.07799622e-003 1.26823084e-003
      1.58528856e-004 8.56055820e-004 8.87761591e-004 7.29232735e-004
      1.64870010e-003 6.97526941e-003 5.65313883e-002 1.40773617e-002
      1.64870010e-003 5.38998097e-003 4.43880796e-004 1.58528856e-004
      9.82878846e-004 1.55358273e-003 1.88332275e-002 5.86556736e-003
      9.51173133e-004 3.48763471e-003 6.59480039e-003 1.64870010e-003
      7.51426769e-003 1.14457831e-002</_>
    <_>
      3.08592260e-001 1.49334176e-002 2.19720993e-002 1.22701330e-002
      1.27774253e-002 1.01458468e-003 1.36334812e-002 6.02409616e-003
      2.42232084e-002 1.26823084e-003 2.44134432e-003 1.10970193e-003
      1.50285354e-002 1.20481930e-003 1.90868732e-002 8.71908665e-003
      1.49968294e-002 6.02409651e-004 1.45846547e-003 6.34115422e-004
      1.17311347e-003 3.17057711e-005 1.04629039e-003 2.53646169e-004
      1.41724795e-002 5.70703880e-004 1.36334810e-003 7.29232735e-004
      8.75079259e-003 2.21940398e-004 9.54343658e-003 2.53646169e-003
      2.37159170e-002 1.49017118e-003 2.40963860e-003 1.23652501e-003
      1.29993656e-003 9.51173133e-005 1.90234627e-003 7.60938507e-004
      2.37793289e-003 6.34115422e-005 4.75586567e-004 2.53646169e-004
      1.26823084e-003 1.58528856e-004 1.68040581e-003 5.38998109e-004
      1.46797718e-002 5.38998109e-004 1.71211164e-003 4.43880796e-004
      8.24350049e-004 9.51173133e-005 1.07799622e-003 2.85351940e-004
      1.89917572e-002 4.75586567e-004 1.07799622e-003 7.29232735e-004
      1.39188329e-002 9.51173133e-005 7.73620792e-003 2.72669620e-003
      1.31896008e-002 1.04629039e-003 1.64870010e-003 5.38998109e-004
      6.34115422e-004 0. 4.43880796e-004 2.53646169e-004 1.23652501e-003
      1.58528856e-004 1.58528856e-004 2.21940398e-004 4.75586567e-004
      3.17057711e-005 4.75586567e-004 1.90234627e-004 1.01458468e-003
      3.17057711e-005 3.17057711e-005 9.51173133e-005 9.51173133e-005 0.
      6.34115422e-005 0. 8.56055820e-004 3.17057711e-005 9.51173133e-005
      0. 2.85351940e-004 3.17057711e-005 3.17057711e-004 0.
      1.65821183e-002 8.87761591e-004 1.52187701e-003 1.20481930e-003
      4.12175024e-004 0. 6.34115422e-004 4.12175024e-004 1.33164239e-003
      2.53646169e-004 9.51173133e-005 9.51173133e-005 9.82878846e-004
      1.26823084e-004 1.20481930e-003 5.70703880e-004 1.04629043e-002
      1.58528856e-004 6.02409651e-004 4.75586567e-004 2.21940398e-004 0.
      2.53646169e-004 2.21940398e-004 1.11287255e-002 4.12175024e-004
      8.56055820e-004 4.75586567e-004 3.10716545e-003 6.34115422e-005
      2.79010786e-003 7.29232735e-004 2.20672172e-002 1.35383643e-002
      2.06087506e-003 1.70577038e-002 1.23652501e-003 7.29232735e-004
      1.29993656e-003 1.04629043e-002 2.44134432e-003 1.23652501e-003
      1.90234627e-004 1.23652501e-003 1.90234627e-003 9.19467362e-004
      1.36334810e-003 7.26062153e-003 8.87761591e-004 4.75586567e-004
      6.34115422e-005 5.70703880e-004 1.26823084e-004 9.51173133e-005
      1.26823084e-004 1.58528856e-004 1.26823084e-003 6.97526964e-004
      2.21940398e-004 6.97526964e-004 8.24350049e-004 6.02409651e-004
      9.82878846e-004 2.53646169e-003 2.09258078e-003 1.33164239e-003
      3.17057711e-004 1.20481930e-003 2.21940398e-004 6.34115422e-005
      1.58528856e-004 6.65821193e-004 3.48763482e-004 2.21940398e-004 0.
      2.85351940e-004 2.53646169e-004 1.90234627e-004 2.85351940e-004
      1.29993656e-003 1.20481930e-003 5.70703880e-004 1.90234627e-004
      6.34115422e-004 2.21940398e-004 6.34115422e-005 2.21940398e-004
      5.70703880e-004 1.20481930e-003 6.97526964e-004 1.26823084e-004
      1.20481930e-003 8.24350049e-004 7.29232735e-004 9.82878846e-004
      3.86810396e-003 1.46480659e-002 9.76537727e-003 1.01458468e-003
      1.25237796e-002 3.80469253e-004 2.53646169e-004 8.24350049e-004
      2.37793289e-003 1.87064044e-003 8.87761591e-004 2.85351940e-004
      7.92644278e-004 6.97526964e-004 4.12175024e-004 8.87761591e-004
      2.59987311e-003 1.14140776e-003 1.90234627e-004 1.58528856e-004
      2.53646169e-004 3.17057711e-005 3.17057711e-005 3.17057711e-005
      6.34115422e-005 1.26823084e-003 3.48763482e-004 1.26823084e-004
      4.43880796e-004 3.48763482e-004 9.51173133e-005 8.56055820e-004
      6.97526964e-004 2.28915662e-002 1.05580213e-002 2.02916935e-003
      7.95814861e-003 5.70703880e-004 2.53646169e-004 1.23652501e-003
      2.53646169e-003 1.74381735e-003 6.34115422e-004 3.48763482e-004
      1.55358273e-003 1.36334810e-003 5.07292338e-004 1.80722889e-003
      5.23145217e-003 1.36651872e-002 3.29740020e-003 6.02409651e-004
      2.72669620e-003 2.21940398e-004 6.34115422e-005 6.65821193e-004
      4.12175024e-004 8.87761544e-003 2.44134432e-003 1.07799622e-003
      4.15345607e-003 2.79010786e-003 8.56055820e-004 5.51680429e-003
      8.05326551e-003</_>
    <_>
      4.05833870e-002 8.87761544e-003 6.24603685e-003 1.09701967e-002
      5.35827503e-003 8.24350049e-004 1.03360815e-002 2.33671535e-002
      5.96068474e-003 1.04629039e-003 7.29232735e-004 7.29232735e-004
      9.51173156e-003 1.26823084e-003 3.08497138e-002 4.99048829e-002
      9.25808493e-003 4.12175024e-004 1.10970193e-003 5.70703880e-004
      8.24350049e-004 1.26823084e-004 1.14140776e-003 5.38998109e-004
      1.10653136e-002 9.51173133e-005 7.60938507e-004 3.17057711e-004
      2.06404570e-002 7.29232735e-004 4.60684858e-002 1.42041855e-002
      6.49968302e-003 8.87761591e-004 4.43880796e-004 9.82878846e-004
      2.53646169e-004 6.34115422e-005 6.34115422e-004 7.29232735e-004
      5.70703880e-004 6.34115422e-005 1.90234627e-004 6.34115422e-005
      6.02409651e-004 9.51173133e-005 1.29993656e-003 1.55358273e-003
      1.16994297e-002 4.43880796e-004 6.34115422e-004 3.17057711e-004
      9.19467362e-004 6.34115422e-005 8.56055820e-004 2.85351940e-004
      2.20989212e-002 5.38998109e-004 6.02409651e-004 6.02409651e-004
      2.75840200e-002 3.17057711e-004 1.56943556e-002 4.56563104e-003
      5.86556736e-003 9.19467362e-004 4.12175024e-004 1.01458468e-003
      3.17057711e-004 6.34115422e-005 2.53646169e-004 3.48763482e-004
      6.97526964e-004 3.17057711e-005 3.17057711e-005 1.26823084e-004
      3.80469253e-004 3.17057711e-005 6.65821193e-004 4.43880796e-004
      8.24350049e-004 6.34115422e-005 1.26823084e-004 3.17057711e-005
      3.17057711e-005 0. 3.17057711e-005 3.17057711e-005 8.56055820e-004
      0. 0. 6.34115422e-005 6.65821193e-004 0. 4.43880796e-004
      3.48763482e-004 1.16677238e-002 1.07799622e-003 6.65821193e-004
      9.19467362e-004 3.80469253e-004 3.17057711e-005 3.48763482e-004
      3.17057711e-004 1.07799622e-003 0. 0. 3.17057711e-005
      5.38998109e-004 6.34115422e-005 6.97526964e-004 6.02409651e-004
      2.51743812e-002 4.75586567e-004 6.65821193e-004 1.90234627e-004
      3.48763482e-004 3.17057711e-005 3.48763482e-004 1.58528856e-004
      3.70323397e-002 4.12175024e-004 9.82878846e-004 5.07292338e-004
      1.14140771e-002 1.26823084e-004 6.34115422e-003 1.83893472e-003
      6.46797707e-003 1.12555483e-002 4.75586567e-004 2.80279014e-002
      3.80469253e-004 9.19467362e-004 8.24350049e-004 2.68547870e-002
      7.29232735e-004 9.19467362e-004 6.34115422e-005 7.29232735e-004
      5.38998109e-004 5.70703880e-004 1.10970193e-003 1.61382370e-002
      1.01458468e-003 5.38998109e-004 1.58528856e-004 4.43880796e-004
      6.34115422e-005 6.34115422e-005 3.17057711e-005 4.43880796e-004
      5.07292338e-004 3.80469253e-004 9.51173133e-005 5.70703880e-004
      1.04629039e-003 2.85351940e-004 1.71211164e-003 5.29486360e-003
      5.70703880e-004 5.70703880e-004 6.34115422e-005 7.29232735e-004 0.
      6.34115422e-005 6.34115422e-005 8.87761591e-004 3.17057711e-005 0.
      0. 1.26823084e-004 3.17057711e-005 3.17057711e-005 9.51173133e-005
      7.60938507e-004 5.70703880e-004 4.12175024e-004 3.17057711e-005
      2.53646169e-004 6.34115422e-005 0. 0. 2.53646169e-004
      9.51173133e-004 3.48763482e-004 3.17057711e-005 4.43880796e-004
      7.92644278e-004 2.21940398e-004 7.60938507e-004 3.17057711e-003
      1.08433738e-002 2.58719083e-002 5.07292338e-004 4.22637910e-002
      3.17057711e-004 6.65821193e-004 5.07292338e-004 1.37920100e-002
      7.92644278e-004 7.29232735e-004 1.58528856e-004 8.56055820e-004
      6.65821193e-004 4.75586567e-004 8.24350049e-004 6.65821182e-003
      1.39505393e-003 6.02409651e-004 1.26823084e-004 4.43880796e-004 0.
      0. 6.34115422e-005 2.53646169e-004 6.97526964e-004 2.85351940e-004
      3.17057711e-005 1.58528856e-004 4.43880796e-004 3.17057711e-004
      5.07292338e-004 2.09258078e-003 2.50792652e-002 4.25808504e-002
      1.01458468e-003 1.83576420e-002 5.07292338e-004 5.38998109e-004
      4.12175024e-004 5.64362714e-003 7.60938507e-004 1.20481930e-003
      9.51173133e-005 9.19467362e-004 6.02409651e-004 4.75586567e-004
      1.68040581e-003 6.75332919e-003 4.67977189e-002 1.18896635e-002
      1.17311347e-003 5.48509834e-003 4.12175024e-004 2.21940398e-004
      7.60938507e-004 1.93405198e-003 1.87381096e-002 5.23145217e-003
      6.65821193e-004 3.10716545e-003 5.80215594e-003 2.02916935e-003
      6.56309444e-003 1.20481923e-002</_>
    <_>
      4.37856689e-002 8.24350026e-003 6.27774233e-003 1.22067221e-002
      4.78757126e-003 9.51173133e-004 1.00507289e-002 2.26696264e-002
      5.96068474e-003 1.26823084e-003 8.87761591e-004 8.24350049e-004
      9.79708321e-003 1.64870010e-003 4.22954969e-002 6.29993677e-002
      9.60684847e-003 6.02409651e-004 7.92644278e-004 4.43880796e-004
      6.97526964e-004 0. 1.45846547e-003 5.70703880e-004 1.13189602e-002
      4.12175024e-004 7.29232735e-004 4.12175024e-004 2.15599239e-002
      5.70703880e-004 5.79264425e-002 1.69625878e-002 5.51680429e-003
      7.29232735e-004 4.43880796e-004 4.75586567e-004 6.02409651e-004
      3.17057711e-005 3.80469253e-004 6.65821193e-004 8.56055820e-004
      3.17057711e-005 6.34115422e-005 3.17057711e-005 7.92644278e-004 0.
      1.29993656e-003 1.71211164e-003 1.10336086e-002 2.53646169e-004
      6.65821193e-004 4.43880796e-004 5.38998109e-004 3.17057711e-005
      6.65821193e-004 2.53646169e-004 2.03233995e-002 3.17057711e-004
      5.38998109e-004 3.17057711e-004 2.64426135e-002 2.85351940e-004
      1.46480659e-002 4.66074841e-003 4.81927721e-003 6.97526964e-004
      4.43880796e-004 5.07292338e-004 6.34115422e-005 3.17057711e-005
      4.12175024e-004 3.17057711e-004 4.12175024e-004 3.17057711e-005 0.
      3.17057711e-005 2.53646169e-004 3.17057711e-005 6.02409651e-004
      4.43880796e-004 5.70703880e-004 0. 3.17057711e-005 3.17057711e-005
      6.34115422e-005 0. 3.17057711e-005 0. 6.65821193e-004
      3.17057711e-005 3.17057711e-005 9.51173133e-005 2.21940398e-004
      3.17057711e-005 5.70703880e-004 2.53646169e-004 9.57514253e-003
      1.29993656e-003 6.65821193e-004 5.07292338e-004 6.02409651e-004 0.
      3.80469253e-004 5.07292338e-004 6.65821193e-004 0. 6.34115422e-005
      6.34115422e-005 4.43880796e-004 3.17057711e-005 1.04629039e-003
      8.24350049e-004 2.32403297e-002 4.75586567e-004 5.07292338e-004
      3.17057711e-004 1.58528856e-004 3.17057711e-005 5.38998109e-004
      3.17057711e-004 2.90741920e-002 5.38998109e-004 1.01458468e-003
      4.12175024e-004 9.67026036e-003 1.58528856e-004 5.92897926e-003
      1.77552318e-003 6.24603685e-003 1.13189602e-002 6.97526964e-004
      2.65377294e-002 2.85351940e-004 3.80469253e-004 7.29232735e-004
      2.55231448e-002 5.07292338e-004 6.65821193e-004 9.51173133e-005
      7.92644278e-004 5.07292338e-004 4.43880796e-004 1.36334810e-003
      1.64552946e-002 7.92644278e-004 3.48763482e-004 9.51173133e-005
      3.48763482e-004 3.17057711e-005 3.17057711e-005 9.51173133e-005
      4.12175024e-004 7.92644278e-004 1.90234627e-004 9.51173133e-005
      3.80469253e-004 6.02409651e-004 2.53646169e-004 1.77552318e-003
      4.50221961e-003 5.70703880e-004 5.07292338e-004 0. 7.29232735e-004
      6.34115422e-005 6.34115422e-005 9.51173133e-005 6.65821193e-004
      9.51173133e-005 0. 0. 6.34115422e-005 0. 9.51173133e-005
      3.17057711e-005 8.24350049e-004 7.60938507e-004 4.12175024e-004
      3.17057711e-005 2.21940398e-004 0. 0. 3.17057711e-005
      4.75586567e-004 7.60938507e-004 2.53646169e-004 1.26823084e-004
      2.85351940e-004 6.97526964e-004 1.26823084e-004 5.38998109e-004
      2.98034237e-003 9.54343658e-003 2.31769178e-002 6.65821193e-004
      3.92200388e-002 2.21940398e-004 2.21940398e-004 4.43880796e-004
      1.11921374e-002 4.75586567e-004 9.82878846e-004 1.26823084e-004
      8.56055820e-004 6.34115422e-004 4.12175024e-004 8.24350049e-004
      6.49968302e-003 1.39505393e-003 5.38998109e-004 3.17057711e-005
      1.58528856e-004 0. 0. 9.51173133e-005 9.51173133e-005
      6.65821193e-004 1.26823084e-004 0. 3.17057711e-004 3.17057711e-004
      1.58528856e-004 6.34115422e-004 2.02916935e-003 2.67596710e-002
      4.49587815e-002 8.24350049e-004 1.60431191e-002 2.85351940e-004
      2.53646169e-004 9.19467362e-004 5.00951195e-003 1.07799622e-003
      1.42675964e-003 6.34115422e-005 8.56055820e-004 6.65821193e-004
      5.07292338e-004 1.33164239e-003 5.77044999e-003 5.31071648e-002
      1.14457831e-002 1.29993656e-003 4.31198487e-003 2.53646169e-004
      2.21940398e-004 3.48763482e-004 1.55358273e-003 1.58211794e-002
      4.40710224e-003 6.02409651e-004 2.31452123e-003 5.23145217e-003
      1.61699427e-003 7.03868084e-003 1.04629043e-002</_>
    <_>
      4.39441986e-002 9.57514253e-003 4.72415984e-003 1.15091950e-002
      5.26315812e-003 6.34115422e-004 7.67279649e-003 1.84527580e-002
      4.62904247e-003 5.70703880e-004 4.12175024e-004 6.34115422e-004
      7.51426769e-003 9.82878846e-004 2.20038053e-002 4.04565632e-002
      8.11667740e-003 5.38998109e-004 6.97526964e-004 4.75586567e-004
      5.70703880e-004 3.17057711e-005 9.19467362e-004 4.75586567e-004
      1.01141408e-002 4.43880796e-004 3.80469253e-004 5.07292338e-004
      1.62967667e-002 5.07292338e-004 3.63665186e-002 1.03994925e-002
      5.92897926e-003 7.92644278e-004 6.34115422e-004 5.70703880e-004
      3.80469253e-004 0. 4.12175024e-004 7.29232735e-004 6.65821193e-004
      6.34115422e-005 6.34115422e-005 6.34115422e-005 6.02409651e-004
      1.26823084e-004 7.29232735e-004 1.52187701e-003 1.37920100e-002
      4.75586567e-004 8.24350049e-004 4.12175024e-004 9.19467362e-004
      3.17057711e-005 5.70703880e-004 2.85351940e-004 2.21940391e-002
      5.07292338e-004 6.34115422e-004 4.12175024e-004 2.32086238e-002
      5.07292338e-004 1.27774253e-002 4.18516155e-003 6.68991776e-003
      1.07799622e-003 4.75586567e-004 7.29232735e-004 2.53646169e-004
      3.17057711e-005 3.17057711e-004 2.53646169e-004 4.43880796e-004
      9.51173133e-005 0. 6.34115422e-005 1.90234627e-004 6.34115422e-005
      3.48763482e-004 2.53646169e-004 6.34115422e-004 6.34115422e-005
      3.17057711e-005 0. 0. 0. 0. 0. 6.65821193e-004 3.17057711e-005
      6.34115422e-005 3.17057711e-005 4.12175024e-004 3.17057711e-005
      2.53646169e-004 1.26823084e-004 1.10336086e-002 1.10970193e-003
      6.34115422e-004 8.24350049e-004 4.75586567e-004 0. 4.75586567e-004
      2.85351940e-004 1.01458468e-003 6.34115422e-005 0. 1.90234627e-004
      3.48763482e-004 6.34115422e-005 8.87761591e-004 8.56055820e-004
      2.79327836e-002 3.48763482e-004 6.34115422e-004 3.17057711e-004
      4.75586567e-004 0. 4.75586567e-004 3.17057711e-004 4.73367162e-002
      2.53646169e-004 1.20481930e-003 3.17057711e-004 1.10019026e-002
      2.85351940e-004 5.70703857e-003 1.77552318e-003 7.76791386e-003
      1.55992387e-002 1.01458468e-003 2.76474319e-002 6.34115422e-004
      6.65821193e-004 7.29232735e-004 2.57767905e-002 4.75586567e-004
      7.92644278e-004 0. 9.19467362e-004 4.43880796e-004 7.29232735e-004
      8.87761591e-004 1.44261252e-002 8.87761591e-004 5.07292338e-004
      6.34115422e-005 6.34115422e-004 9.51173133e-005 6.34115422e-005
      9.51173133e-005 4.12175024e-004 9.51173133e-004 5.70703880e-004 0.
      5.70703880e-004 8.24350049e-004 3.48763482e-004 1.26823084e-003
      3.93151538e-003 7.92644278e-004 1.39505393e-003 6.34115422e-005
      9.51173133e-004 6.34115422e-005 9.51173133e-005 0. 9.82878846e-004
      0. 9.51173133e-005 0. 6.34115422e-005 3.17057711e-005
      3.17057711e-005 1.26823084e-004 9.51173133e-004 6.34115422e-004
      4.75586567e-004 1.26823084e-004 6.02409651e-004 6.34115422e-005
      6.34115422e-005 1.26823084e-004 3.48763482e-004 7.92644278e-004
      4.75586567e-004 9.51173133e-005 5.70703880e-004 9.51173133e-004
      5.07292338e-004 6.02409651e-004 3.10716545e-003 1.29676601e-002
      3.37666459e-002 1.01458468e-003 5.78630306e-002 5.07292338e-004
      6.02409651e-004 3.80469253e-004 1.44895371e-002 6.02409651e-004
      8.56055820e-004 1.58528856e-004 1.04629039e-003 5.70703880e-004
      4.43880796e-004 7.29232735e-004 7.03868084e-003 8.56055820e-004
      6.97526964e-004 6.34115422e-005 3.80469253e-004 6.34115422e-005
      3.17057711e-005 9.51173133e-005 2.21940398e-004 7.92644278e-004
      4.12175024e-004 3.17057711e-005 1.90234627e-004 5.38998109e-004
      2.85351940e-004 4.75586567e-004 1.77552318e-003 2.66011413e-002
      4.75586541e-002 1.52187701e-003 2.02916935e-002 7.29232735e-004
      4.12175024e-004 7.29232735e-004 7.16550415e-003 1.10970193e-003
      1.52187701e-003 1.26823084e-004 6.34115422e-004 8.87761591e-004
      8.87761591e-004 2.09258078e-003 6.49968302e-003 4.78440076e-002
      1.31578948e-002 1.52187701e-003 5.16804075e-003 2.85351940e-004
      3.48763482e-004 7.60938507e-004 2.15599244e-003 1.74698792e-002
      4.56563104e-003 7.92644278e-004 3.80469253e-003 6.30944828e-003
      1.58528856e-003 6.88015204e-003 1.25871906e-002</_>
    <_>
      4.25808504e-002 8.59226380e-003 5.23145217e-003 1.33798355e-002
      5.38998097e-003 6.65821193e-004 1.02409637e-002 2.50158533e-002
      4.97780601e-003 1.01458468e-003 6.02409651e-004 1.14140776e-003
      8.08497146e-003 1.10970193e-003 2.54914388e-002 4.54343706e-002
      9.48002562e-003 5.70703880e-004 1.17311347e-003 4.75586567e-004
      8.24350049e-004 0. 1.39505393e-003 4.75586567e-004 1.05580213e-002
      3.80469253e-004 5.70703880e-004 2.21940398e-004 1.75649971e-002
      5.38998109e-004 3.81420404e-002 1.34749524e-002 6.27774233e-003
      1.07799622e-003 6.34115422e-004 9.19467362e-004 6.97526964e-004
      3.17057711e-005 5.07292338e-004 6.65821193e-004 8.24350049e-004
      3.17057711e-005 1.58528856e-004 3.17057711e-005 6.34115422e-004
      1.26823084e-004 9.82878846e-004 1.55358273e-003 1.07482560e-002
      6.34115422e-004 7.60938507e-004 5.38998109e-004 8.87761591e-004
      6.34115422e-005 5.07292338e-004 2.21940398e-004 2.05453392e-002
      4.75586567e-004 7.29232735e-004 5.38998109e-004 2.51426753e-002
      4.43880796e-004 1.42993024e-002 4.62904247e-003 6.65821182e-003
      6.97526964e-004 7.60938507e-004 7.92644278e-004 2.21940398e-004
      6.34115422e-005 2.85351940e-004 6.65821193e-004 8.24350049e-004 0.
      3.17057711e-005 6.34115422e-005 4.43880796e-004 0. 4.43880796e-004
      2.85351940e-004 7.60938507e-004 0. 0. 6.34115422e-005 0. 0. 0. 0.
      6.02409651e-004 0. 0. 6.34115422e-005 5.07292338e-004 0.
      5.70703880e-004 1.90234627e-004 9.76537727e-003 1.10970193e-003
      6.65821193e-004 6.97526964e-004 5.07292338e-004 6.34115422e-005
      4.75586567e-004 6.02409651e-004 7.29232735e-004 6.34115422e-005
      6.34115422e-005 6.34115422e-005 6.02409651e-004 9.51173133e-005
      8.56055820e-004 8.56055820e-004 2.55231448e-002 4.12175024e-004
      6.02409651e-004 3.17057711e-004 5.07292338e-004 0. 7.29232735e-004
      2.85351940e-004 3.72859873e-002 4.43880796e-004 9.82878846e-004
      3.80469253e-004 1.04629043e-002 1.26823084e-004 6.08750805e-003
      1.74381735e-003 6.49968302e-003 1.47431828e-002 7.29232735e-004
      2.95497775e-002 7.29232735e-004 7.29232735e-004 6.02409651e-004
      3.00887767e-002 4.43880796e-004 7.29232735e-004 3.17057711e-005
      7.92644278e-004 4.75586567e-004 1.10970193e-003 1.20481930e-003
      1.86429936e-002 1.01458468e-003 3.80469253e-004 1.90234627e-004
      5.07292338e-004 1.26823084e-004 3.17057711e-005 3.17057711e-005
      2.21940398e-004 6.65821193e-004 6.34115422e-004 1.58528856e-004
      5.38998109e-004 1.10970193e-003 2.53646169e-004 1.45846547e-003
      4.62904247e-003 3.80469253e-004 7.92644278e-004 6.34115422e-005
      9.51173133e-004 3.17057711e-005 0. 1.58528856e-004 9.51173133e-004
      6.34115422e-005 3.17057711e-005 0. 3.17057711e-005 3.17057711e-005
      3.17057711e-005 1.26823084e-004 6.02409651e-004 7.29232735e-004
      3.17057711e-004 6.34115422e-005 5.38998109e-004 3.17057711e-005
      3.17057711e-005 0. 2.85351940e-004 1.01458468e-003 3.17057711e-004
      1.58528856e-004 6.02409651e-004 9.19467362e-004 3.48763482e-004
      5.07292338e-004 3.64616350e-003 1.12872543e-002 3.09448317e-002
      6.97526964e-004 5.07609397e-002 4.43880796e-004 5.38998109e-004
      4.75586567e-004 1.46797718e-002 6.65821193e-004 1.10970193e-003
      6.34115422e-005 8.87761591e-004 5.38998109e-004 5.38998109e-004
      9.51173133e-004 7.41915032e-003 1.20481930e-003 3.17057711e-004
      2.21940398e-004 6.02409651e-004 6.34115422e-005 3.17057711e-005
      6.34115422e-005 2.53646169e-004 5.38998109e-004 4.12175024e-004
      1.58528856e-004 1.90234627e-004 6.65821193e-004 3.17057711e-004
      8.24350049e-004 2.28281552e-003 2.48573236e-002 4.26759683e-002
      8.24350049e-004 2.12428663e-002 7.29232735e-004 3.48763482e-004
      6.65821193e-004 6.97526941e-003 8.56055820e-004 1.29993656e-003
      3.17057711e-005 7.29232735e-004 3.17057711e-004 8.87761591e-004
      1.07799622e-003 6.94356393e-003 4.12175022e-002 1.20798983e-002
      1.58528856e-003 5.38998097e-003 3.48763482e-004 1.26823084e-004
      6.34115422e-004 1.90234627e-003 1.82308182e-002 5.07292338e-003
      6.97526964e-004 2.98034237e-003 5.86556736e-003 1.61699427e-003
      6.27774233e-003 1.33164236e-002</_>
    <_>
      4.89537083e-002 9.19467304e-003 4.31198487e-003 1.24603678e-002
      5.13633480e-003 9.19467362e-004 9.09955613e-003 2.31769178e-002
      4.78757126e-003 6.02409651e-004 5.38998109e-004 6.65821193e-004
      6.53138850e-003 1.23652501e-003 2.11477485e-002 4.43246663e-002
      8.87761544e-003 2.85351940e-004 8.87761591e-004 2.53646169e-004
      6.97526964e-004 9.51173133e-005 1.04629039e-003 5.70703880e-004
      9.67026036e-003 3.17057711e-004 7.60938507e-004 3.48763482e-004
      1.59480032e-002 4.43880796e-004 3.39568816e-002 1.14457831e-002
      5.45339240e-003 7.92644278e-004 6.34115422e-004 6.97526964e-004
      5.07292338e-004 3.17057711e-005 6.97526964e-004 8.24350049e-004
      6.97526964e-004 0. 0. 0. 3.48763482e-004 1.26823084e-004
      7.60938507e-004 1.42675964e-003 1.20164873e-002 3.80469253e-004
      6.02409651e-004 6.65821193e-004 8.87761591e-004 1.26823084e-004
      7.29232735e-004 2.21940398e-004 1.91819910e-002 2.85351940e-004
      3.48763482e-004 2.21940398e-004 2.27330383e-002 4.43880796e-004
      1.31261889e-002 4.50221961e-003 6.30944828e-003 8.24350049e-004
      6.65821193e-004 1.04629039e-003 3.48763482e-004 3.17057711e-005
      3.48763482e-004 4.75586567e-004 4.75586567e-004 9.51173133e-005
      3.17057711e-005 6.34115422e-005 2.85351940e-004 3.17057711e-005
      2.21940398e-004 3.80469253e-004 7.29232735e-004 0. 3.17057711e-005
      0. 3.17057711e-005 0. 1.26823084e-004 3.17057711e-005
      7.60938507e-004 3.17057711e-005 0. 3.17057711e-005 5.07292338e-004
      0. 3.48763482e-004 1.58528856e-004 8.59226380e-003 1.26823084e-003
      5.07292338e-004 6.34115422e-004 3.80469253e-004 6.34115422e-005
      5.07292338e-004 3.48763482e-004 4.75586567e-004 9.51173133e-005
      6.34115422e-005 1.58528856e-004 5.38998109e-004 3.17057711e-005
      7.60938507e-004 7.92644278e-004 2.38744449e-002 5.70703880e-004
      7.29232735e-004 5.07292338e-004 5.38998109e-004 3.17057711e-005
      5.07292338e-004 2.21940398e-004 4.24223207e-002 3.80469253e-004
      1.10970193e-003 3.17057711e-004 1.02726696e-002 1.58528856e-004
      7.19721010e-003 1.52187701e-003 7.60938507e-003 1.65187065e-002
      6.34115422e-004 3.19277123e-002 5.07292338e-004 7.92644278e-004
      9.82878846e-004 3.00570708e-002 8.24350049e-004 6.97526964e-004
      3.17057711e-005 7.60938507e-004 9.19467362e-004 7.92644278e-004
      1.07799622e-003 1.83576420e-002 8.24350049e-004 4.12175024e-004
      3.17057711e-005 4.43880796e-004 6.34115422e-005 0. 1.58528856e-004
      4.75586567e-004 9.19467362e-004 6.02409651e-004 6.34115422e-005
      4.43880796e-004 8.87761591e-004 4.12175024e-004 1.49017118e-003
      4.78757126e-003 4.75586567e-004 8.24350049e-004 6.34115422e-005
      6.65821193e-004 0. 6.34115422e-005 0. 1.04629039e-003
      3.17057711e-005 9.51173133e-005 0. 6.34115422e-005 0.
      9.51173133e-005 1.26823084e-004 8.56055820e-004 7.92644278e-004
      2.53646169e-004 6.34115422e-005 5.38998109e-004 9.51173133e-005 0.
      3.17057711e-005 4.12175024e-004 9.82878846e-004 5.70703880e-004 0.
      6.65821193e-004 8.87761591e-004 6.65821193e-004 8.24350049e-004
      2.59987311e-003 1.22701330e-002 3.38934697e-002 7.60938507e-004
      5.84020279e-002 4.43880796e-004 6.65821193e-004 3.80469253e-004
      1.45212431e-002 4.43880796e-004 6.02409651e-004 3.17057711e-005
      8.24350049e-004 4.75586567e-004 7.29232735e-004 8.56055820e-004
      7.89473671e-003 9.51173133e-004 3.48763482e-004 2.21940398e-004
      5.70703880e-004 3.17057711e-005 0. 3.17057711e-005 2.85351940e-004
      9.19467362e-004 5.07292338e-004 9.51173133e-005 3.80469253e-004
      4.12175024e-004 1.90234627e-004 4.43880796e-004 2.31452123e-003
      2.45402660e-002 4.43880782e-002 1.26823084e-003 2.18135696e-002
      6.02409651e-004 4.75586567e-004 1.01458468e-003 7.26062153e-003
      1.01458468e-003 1.29993656e-003 3.17057711e-005 7.29232735e-004
      6.34115422e-004 8.87761591e-004 1.80722889e-003 6.37285970e-003
      4.17564996e-002 1.15091950e-002 1.61699427e-003 5.67533309e-003
      4.43880796e-004 1.90234627e-004 6.02409651e-004 2.31452123e-003
      1.79771725e-002 4.75586578e-003 5.07292338e-004 4.12175013e-003
      6.08750805e-003 1.93405198e-003 5.64362714e-003 1.33481296e-002</_>
    <_>
      4.22954969e-002 9.54343658e-003 6.65821182e-003 1.38871279e-002
      5.35827503e-003 6.65821193e-004 1.12238424e-002 2.78376658e-002
      6.11921353e-003 7.29232735e-004 6.34115422e-004 1.10970193e-003
      8.40202905e-003 1.49017118e-003 2.95497775e-002 5.43753952e-002
      9.82878916e-003 7.29232735e-004 9.51173133e-004 5.07292338e-004
      6.34115422e-004 3.17057711e-005 1.01458468e-003 7.60938507e-004
      9.73367132e-003 6.97526964e-004 6.97526964e-004 5.38998109e-004
      1.80722885e-002 2.85351940e-004 3.80152203e-002 1.41407736e-002
      5.51680429e-003 9.19467362e-004 9.82878846e-004 3.48763482e-004
      6.97526964e-004 3.17057711e-005 5.70703880e-004 6.02409651e-004
      6.34115422e-004 6.34115422e-005 6.34115422e-005 6.34115422e-005
      6.34115422e-004 6.34115422e-005 1.26823084e-003 1.26823084e-003
      1.10653136e-002 4.43880796e-004 5.70703880e-004 2.53646169e-004
      7.60938507e-004 3.17057711e-005 4.43880796e-004 4.12175024e-004
      1.89283453e-002 3.17057711e-004 5.70703880e-004 5.38998109e-004
      2.37159170e-002 3.17057711e-004 1.34749524e-002 4.47051367e-003
      5.35827503e-003 5.07292338e-004 4.43880796e-004 7.92644278e-004
      2.53646169e-004 0. 1.58528856e-004 5.07292338e-004 4.43880796e-004
      3.17057711e-005 3.17057711e-005 3.17057711e-005 3.80469253e-004 0.
      4.12175024e-004 6.65821193e-004 8.24350049e-004 3.17057711e-005
      6.34115422e-005 0. 3.17057711e-005 0. 6.34115422e-005 0.
      5.07292338e-004 6.34115422e-005 3.17057711e-005 0. 3.48763482e-004
      3.17057711e-005 5.70703880e-004 3.17057711e-004 1.03043756e-002
      1.14140776e-003 7.29232735e-004 6.65821193e-004 2.85351940e-004
      3.17057711e-005 5.07292338e-004 3.80469253e-004 5.07292338e-004
      1.58528856e-004 6.34115422e-005 3.17057711e-005 5.38998109e-004
      6.34115422e-005 8.24350049e-004 6.97526964e-004 2.15599239e-002
      3.48763482e-004 7.92644278e-004 1.58528856e-004 3.80469253e-004 0.
      6.65821193e-004 2.53646169e-004 3.19594182e-002 3.17057711e-004
      1.14140776e-003 3.17057711e-004 9.22637898e-003 1.90234627e-004
      6.40456565e-003 1.71211164e-003 6.40456565e-003 1.37920100e-002
      1.10970193e-003 3.32593545e-002 4.43880796e-004 6.65821193e-004
      9.19467362e-004 3.22764739e-002 7.29232735e-004 8.87761591e-004
      6.34115422e-005 9.82878846e-004 5.38998109e-004 8.56055820e-004
      1.20481930e-003 1.93405207e-002 9.19467362e-004 6.02409651e-004 0.
      6.97526964e-004 6.34115422e-005 0. 6.34115422e-005 1.90234627e-004
      6.65821193e-004 1.90234627e-004 3.17057711e-005 6.02409651e-004
      4.75586567e-004 4.75586567e-004 1.29993656e-003 6.02409616e-003
      6.65821193e-004 8.56055820e-004 3.17057711e-005 5.38998109e-004
      3.17057711e-005 6.34115422e-005 3.17057711e-005 8.87761591e-004
      6.34115422e-005 6.34115422e-005 0. 6.34115422e-005 3.17057711e-005
      6.34115422e-005 6.34115422e-005 6.65821193e-004 6.65821193e-004
      7.29232735e-004 9.51173133e-005 4.43880796e-004 0. 0. 0.
      2.21940398e-004 6.65821193e-004 6.02409651e-004 3.17057711e-005
      6.02409651e-004 1.01458468e-003 1.58528856e-004 6.97526964e-004
      3.80469253e-003 1.08750788e-002 2.92010140e-002 8.24350049e-004
      4.54343706e-002 6.65821193e-004 4.12175024e-004 5.38998109e-004
      1.44261252e-002 6.34115422e-004 5.70703880e-004 6.34115422e-005
      7.60938507e-004 6.02409651e-004 4.43880796e-004 7.29232735e-004
      7.70450244e-003 1.23652501e-003 3.48763482e-004 2.21940398e-004
      2.53646169e-004 3.17057711e-005 0. 9.51173133e-005 2.85351940e-004
      4.75586567e-004 4.43880796e-004 3.17057711e-005 3.48763482e-004
      4.43880796e-004 1.90234627e-004 6.34115422e-004 2.12428672e-003
      2.58402023e-002 4.70830686e-002 9.51173133e-004 1.95941664e-002
      4.12175024e-004 3.80469253e-004 5.07292338e-004 6.34115422e-003
      1.04629039e-003 1.17311347e-003 9.51173133e-005 8.56055820e-004
      6.97526964e-004 6.65821193e-004 1.80722889e-003 6.97526941e-003
      4.16296758e-002 1.28725432e-002 1.20481930e-003 4.85098269e-003
      5.38998109e-004 1.58528856e-004 5.07292338e-004 1.45846547e-003
      1.55992387e-002 4.40710224e-003 6.02409651e-004 3.32910591e-003
      5.89727331e-003 1.77552318e-003 6.11921353e-003 1.21116042e-002</_>
    <_>
      4.48319577e-002 9.28979088e-003 5.80215594e-003 1.16043119e-002
      4.81927721e-003 4.43880796e-004 8.33861809e-003 2.25110967e-002
      4.47051367e-003 6.34115422e-004 2.85351940e-004 7.29232735e-004
      6.40456565e-003 1.23652501e-003 2.06404570e-002 4.17882055e-002
      9.70196538e-003 2.85351940e-004 6.97526964e-004 5.38998109e-004
      5.07292338e-004 0. 1.04629039e-003 5.07292338e-004 9.41661373e-003
      5.07292338e-004 5.70703880e-004 3.48763482e-004 1.30944829e-002
      2.85351940e-004 3.14204171e-002 1.05897272e-002 6.11921353e-003
      1.20481930e-003 4.75586567e-004 4.75586567e-004 4.75586567e-004
      1.26823084e-004 7.29232735e-004 6.65821193e-004 5.70703880e-004
      9.51173133e-005 6.34115422e-005 6.34115422e-005 5.70703880e-004
      9.51173133e-005 6.65821193e-004 1.33164239e-003 1.09067848e-002
      4.43880796e-004 8.24350049e-004 4.75586567e-004 6.65821193e-004
      3.17057711e-005 6.65821193e-004 2.21940398e-004 1.81674063e-002
      3.48763482e-004 4.43880796e-004 4.12175024e-004 2.03551054e-002
      2.53646169e-004 1.11604314e-002 4.53392509e-003 6.62650587e-003
      1.23652501e-003 6.02409651e-004 7.29232735e-004 2.21940398e-004
      3.17057711e-005 3.80469253e-004 3.80469253e-004 6.34115422e-004
      3.17057711e-005 0. 0. 2.53646169e-004 3.17057711e-005
      3.80469253e-004 3.48763482e-004 6.34115422e-004 3.17057711e-005
      6.34115422e-005 6.34115422e-005 1.26823084e-004 0. 3.17057711e-005
      3.17057711e-005 7.92644278e-004 6.34115422e-005 3.17057711e-005 0.
      3.80469253e-004 6.34115422e-005 2.21940398e-004 1.58528856e-004
      9.76537727e-003 1.23652501e-003 5.38998109e-004 7.92644278e-004
      3.17057711e-004 9.51173133e-005 6.65821193e-004 5.07292338e-004
      1.01458468e-003 3.17057711e-005 3.17057711e-005 3.17057711e-005
      5.07292338e-004 1.58528856e-004 6.02409651e-004 5.70703880e-004
      2.17818636e-002 3.17057711e-004 9.51173133e-004 2.85351940e-004
      4.75586567e-004 3.17057711e-005 2.85351940e-004 1.58528856e-004
      3.85225117e-002 4.75586567e-004 1.07799622e-003 2.53646169e-004
      9.63855442e-003 3.17057711e-004 5.61192119e-003 1.74381735e-003
      8.40202905e-003 1.63284726e-002 9.51173133e-004 3.73176932e-002
      6.97526964e-004 1.10970193e-003 9.51173133e-004 3.28471772e-002
      5.70703880e-004 8.24350049e-004 6.34115422e-005 8.24350049e-004
      6.97526964e-004 8.24350049e-004 7.29232735e-004 1.67089403e-002
      9.19467362e-004 6.97526964e-004 1.90234627e-004 6.34115422e-004
      3.17057711e-005 6.34115422e-005 6.34115422e-005 4.43880796e-004
      7.60938507e-004 5.70703880e-004 9.51173133e-005 4.75586567e-004
      6.65821193e-004 3.80469253e-004 1.42675964e-003 4.72415984e-003
      6.65821193e-004 1.04629039e-003 3.17057711e-005 1.07799622e-003 0.
      6.34115422e-005 0. 7.29232735e-004 6.34115422e-005 0. 0. 0.
      1.26823084e-004 3.17057711e-005 6.34115422e-005 7.29232735e-004
      8.24350049e-004 8.87761591e-004 6.34115422e-005 3.48763482e-004
      1.58528856e-004 0. 6.34115422e-005 5.07292338e-004 8.87761591e-004
      6.02409651e-004 9.51173133e-005 3.48763482e-004 7.29232735e-004
      1.26823084e-004 6.02409651e-004 2.66328477e-003 1.22384271e-002
      3.49714644e-002 1.10970193e-003 6.53772950e-002 4.12175024e-004
      3.80469253e-004 6.02409651e-004 1.57260615e-002 5.70703880e-004
      8.24350049e-004 3.17057711e-005 7.60938507e-004 6.02409651e-004
      4.12175024e-004 6.65821193e-004 7.07038678e-003 1.58528856e-003
      6.02409651e-004 6.34115422e-005 5.38998109e-004 3.17057711e-005
      3.17057711e-005 6.34115422e-005 2.21940398e-004 7.60938507e-004
      6.65821193e-004 9.51173133e-005 1.90234627e-004 4.12175024e-004
      3.17057711e-004 6.65821193e-004 2.02916935e-003 2.76474319e-002
      5.11731133e-002 1.36334810e-003 2.37476230e-002 5.07292338e-004
      4.43880796e-004 7.29232735e-004 7.57767912e-003 7.60938507e-004
      1.42675964e-003 6.34115422e-005 7.60938507e-004 6.34115422e-004
      8.56055820e-004 1.52187701e-003 7.92644266e-003 4.04565632e-002
      1.30944829e-002 1.17311347e-003 5.04121743e-003 5.38998109e-004
      1.90234627e-004 7.60938507e-004 2.06087506e-003 1.68674700e-002
      4.43880772e-003 9.19467362e-004 4.05833870e-003 6.24603685e-003
      1.83893472e-003 7.19721010e-003 1.20481923e-002</_>
    <_>
      4.31515537e-002 1.03677865e-002 6.43627159e-003 1.43627143e-002
      5.77044999e-003 8.56055820e-004 1.08433738e-002 2.97717191e-002
      4.88268863e-003 7.29232735e-004 5.70703880e-004 8.87761591e-004
      7.95814861e-003 1.14140776e-003 2.27647424e-002 5.13633490e-002
      8.43373500e-003 4.75586567e-004 7.29232735e-004 4.43880796e-004
      6.02409651e-004 3.17057711e-005 1.17311347e-003 4.12175024e-004
      1.02409637e-002 2.85351940e-004 7.29232735e-004 4.12175024e-004
      1.59162972e-002 6.02409651e-004 3.02790105e-002 1.24603678e-002
      5.77044999e-003 7.92644278e-004 6.34115422e-004 7.29232735e-004
      6.65821193e-004 9.51173133e-005 1.10970193e-003 6.65821193e-004
      5.70703880e-004 3.17057711e-005 6.34115422e-005 1.26823084e-004
      7.29232735e-004 1.26823084e-004 1.20481930e-003 1.26823084e-003
      1.00507289e-002 6.02409651e-004 6.65821193e-004 4.43880796e-004
      1.07799622e-003 3.17057711e-005 8.56055820e-004 4.43880796e-004
      1.87698156e-002 5.38998109e-004 6.34115422e-004 9.51173133e-005
      2.15282179e-002 3.17057711e-004 1.20798983e-002 4.56563104e-003
      6.40456565e-003 7.29232735e-004 7.92644278e-004 8.56055820e-004
      2.53646169e-004 0. 4.12175024e-004 5.07292338e-004 3.48763482e-004
      3.17057711e-005 6.34115422e-005 6.34115422e-005 3.48763482e-004
      3.17057711e-005 4.43880796e-004 5.07292338e-004 8.24350049e-004 0.
      3.17057711e-005 0. 3.17057711e-005 0. 6.34115422e-005 0.
      6.02409651e-004 0. 3.17057711e-005 3.17057711e-005 3.17057711e-004
      0. 5.07292338e-004 1.90234627e-004 8.68738070e-003 1.33164239e-003
      6.34115422e-004 6.34115422e-004 4.43880796e-004 6.34115422e-005
      7.60938507e-004 3.80469253e-004 6.02409651e-004 9.51173133e-005
      9.51173133e-005 0. 3.17057711e-004 9.51173133e-005 7.60938507e-004
      1.04629039e-003 2.22891569e-002 4.43880796e-004 9.51173133e-004
      3.17057711e-004 6.34115422e-004 0. 4.75586567e-004 3.80469253e-004
      3.05643622e-002 2.85351940e-004 9.51173133e-004 4.43880796e-004
      8.65567569e-003 9.51173133e-005 6.02409616e-003 1.93405198e-003
      7.54597317e-003 1.68674700e-002 9.19467362e-004 3.67152840e-002
      8.56055820e-004 8.24350049e-004 1.01458468e-003 3.70640457e-002
      5.38998109e-004 8.87761591e-004 3.17057711e-005 9.19467362e-004
      5.70703880e-004 7.29232735e-004 1.01458468e-003 2.05770452e-002
      7.92644278e-004 4.75586567e-004 1.26823084e-004 4.75586567e-004
      6.34115422e-005 3.17057711e-005 1.90234627e-004 5.38998109e-004
      9.19467362e-004 6.65821193e-004 9.51173133e-005 3.48763482e-004
      6.02409651e-004 3.48763482e-004 1.07799622e-003 5.45339240e-003
      5.38998109e-004 9.51173133e-004 6.34115422e-005 1.17311347e-003 0.
      6.34115422e-005 0. 1.14140776e-003 6.34115422e-005 6.34115422e-005
      6.34115422e-005 9.51173133e-005 3.17057711e-005 3.17057711e-005
      9.51173133e-005 6.34115422e-004 6.34115422e-004 5.07292338e-004
      9.51173133e-005 2.85351940e-004 0. 0. 9.51173133e-005
      3.48763482e-004 7.60938507e-004 2.85351940e-004 9.51173133e-005
      8.24350049e-004 6.02409651e-004 2.53646169e-004 8.56055820e-004
      4.02663276e-003 1.26188966e-002 2.91376039e-002 8.87761591e-004
      5.56119196e-002 2.53646169e-004 4.75586567e-004 4.43880796e-004
      1.57894734e-002 6.34115422e-004 5.70703880e-004 1.58528856e-004
      1.17311347e-003 3.80469253e-004 6.65821193e-004 6.02409651e-004
      7.13379821e-003 1.04629039e-003 6.97526964e-004 1.58528856e-004
      5.38998109e-004 6.34115422e-005 0. 6.34115422e-005 2.85351940e-004
      6.65821193e-004 2.85351940e-004 0. 3.17057711e-004 4.12175024e-004
      1.26823084e-004 6.02409651e-004 2.56816740e-003 2.38110330e-002
      4.50856052e-002 1.52187701e-003 2.02282816e-002 3.17057711e-004
      2.53646169e-004 8.56055820e-004 7.79961934e-003 1.29993656e-003
      1.49017118e-003 0. 5.70703880e-004 6.02409651e-004 7.92644278e-004
      1.33164239e-003 6.72162324e-003 3.93785685e-002 1.11921374e-002
      1.17311347e-003 5.58021571e-003 4.43880796e-004 1.26823084e-004
      6.65821193e-004 2.18769815e-003 1.44578312e-002 5.04121743e-003
      8.24350049e-004 3.29740020e-003 6.30944828e-003 1.64870010e-003
      5.70703857e-003 1.37603041e-002</_>
    <_>
      4.54343706e-002 9.41661373e-003 5.45339240e-003 1.04629043e-002
      4.69245389e-003 7.29232735e-004 8.14838335e-003 1.62016489e-002
      6.27774233e-003 7.29232735e-004 3.80469253e-004 3.80469253e-004
      7.86303077e-003 1.04629039e-003 2.23525688e-002 3.85542177e-002
      8.75079259e-003 4.75586567e-004 6.65821193e-004 3.48763482e-004
      7.29232735e-004 0. 1.01458468e-003 4.12175024e-004 1.24286618e-002
      6.02409651e-004 4.75586567e-004 4.43880796e-004 1.84210520e-002
      6.34115422e-004 3.69372219e-002 1.09067848e-002 8.43373500e-003
      7.60938507e-004 5.70703880e-004 6.02409651e-004 6.65821193e-004 0.
      1.07799622e-003 9.51173133e-004 7.92644278e-004 6.34115422e-005
      6.34115422e-005 0. 8.87761591e-004 1.58528856e-004 8.24350049e-004
      1.64870010e-003 1.42675964e-002 4.12175024e-004 6.65821193e-004
      3.17057711e-004 7.92644278e-004 3.17057711e-005 5.38998109e-004
      4.12175024e-004 2.79327836e-002 3.80469253e-004 6.02409651e-004
      4.75586567e-004 2.41280906e-002 3.80469253e-004 1.46480659e-002
      4.31198487e-003 6.72162324e-003 1.10970193e-003 7.60938507e-004
      1.07799622e-003 3.17057711e-004 3.17057711e-005 3.48763482e-004
      2.53646169e-004 5.38998109e-004 6.34115422e-005 1.26823084e-004
      6.34115422e-005 9.51173133e-005 0. 1.90234627e-004 3.17057711e-004
      1.01458468e-003 0. 6.34115422e-005 6.34115422e-005 0. 0.
      3.17057711e-005 3.17057711e-005 9.19467362e-004 0. 0. 0.
      5.70703880e-004 1.26823084e-004 4.43880796e-004 1.26823084e-004
      1.12238424e-002 1.04629039e-003 7.29232735e-004 6.34115422e-004
      3.17057711e-004 3.17057711e-005 7.92644278e-004 5.70703880e-004
      8.87761591e-004 6.34115422e-005 1.58528856e-004 3.17057711e-005
      7.92644278e-004 6.34115422e-005 9.19467362e-004 7.60938507e-004
      3.05009503e-002 6.34115422e-004 8.87761591e-004 3.48763482e-004
      4.12175024e-004 3.17057711e-005 3.17057711e-004 2.53646169e-004
      5.12365252e-002 4.75586567e-004 6.97526964e-004 5.38998109e-004
      1.25237796e-002 1.58528856e-004 6.15091948e-003 1.87064044e-003
      7.13379821e-003 1.37603041e-002 6.02409651e-004 2.47939117e-002
      5.70703880e-004 7.29232735e-004 7.29232735e-004 2.09575146e-002
      6.34115422e-004 4.12175024e-004 9.51173133e-005 7.60938507e-004
      6.02409651e-004 7.60938507e-004 8.56055820e-004 1.27140144e-002
      7.29232735e-004 5.70703880e-004 2.21940398e-004 6.02409651e-004
      6.34115422e-005 9.51173133e-005 1.26823084e-004 3.17057711e-004
      7.60938507e-004 6.02409651e-004 3.17057711e-005 5.07292338e-004
      9.19467362e-004 2.53646169e-004 1.45846547e-003 3.74128087e-003
      7.92644278e-004 7.92644278e-004 3.17057711e-005 7.92644278e-004
      3.17057711e-005 1.26823084e-004 1.26823084e-004 6.97526964e-004
      3.17057711e-005 9.51173133e-005 0. 6.34115422e-005 0.
      9.51173133e-005 3.17057711e-005 1.04629039e-003 7.92644278e-004
      2.53646169e-004 3.17057711e-005 6.02409651e-004 9.51173133e-005
      3.17057711e-005 1.58528856e-004 5.38998109e-004 1.20481930e-003
      6.34115422e-004 6.34115422e-005 6.34115422e-004 9.82878846e-004
      6.02409651e-004 7.29232735e-004 3.42422328e-003 1.16043119e-002
      3.36081162e-002 8.56055820e-004 4.88902964e-002 5.07292338e-004
      5.70703880e-004 6.65821193e-004 1.23335449e-002 7.92644278e-004
      1.20481930e-003 3.17057711e-005 1.04629039e-003 6.02409651e-004
      3.17057711e-004 5.07292338e-004 6.21433090e-003 1.71211164e-003
      4.12175024e-004 1.26823084e-004 3.80469253e-004 9.51173133e-005 0.
      1.26823084e-004 2.53646169e-004 6.97526964e-004 3.48763482e-004 0.
      3.48763482e-004 4.12175024e-004 1.58528856e-004 4.43880796e-004
      1.52187701e-003 2.64109075e-002 4.47051376e-002 1.33164239e-003
      1.90234631e-002 5.07292338e-004 3.48763482e-004 9.51173133e-004
      7.03868084e-003 1.33164239e-003 1.14140776e-003 9.51173133e-005
      1.20481930e-003 7.60938507e-004 5.38998109e-004 1.93405198e-003
      7.29232701e-003 4.78757136e-002 1.26506025e-002 1.55358273e-003
      4.88268863e-003 6.97526964e-004 2.85351940e-004 6.34115422e-004
      1.77552318e-003 1.85161699e-002 4.66074841e-003 1.01458468e-003
      3.77298659e-003 6.75332919e-003 1.45846547e-003 6.24603685e-003
      1.25237796e-002</_>
    <_>
      4.10906784e-002 8.49714689e-003 5.35827503e-003 1.06214331e-002
      5.23145217e-003 8.24350049e-004 9.35320184e-003 1.99746359e-002
      5.80215594e-003 8.56055820e-004 4.75586567e-004 6.65821193e-004
      9.00443923e-003 1.33164239e-003 2.51109693e-002 4.24223207e-002
      9.22637898e-003 7.60938507e-004 8.56055820e-004 4.43880796e-004
      8.24350049e-004 0. 1.07799622e-003 4.75586567e-004 1.18896635e-002
      5.38998109e-004 8.24350049e-004 5.38998109e-004 2.26062145e-002
      5.07292338e-004 4.28344943e-002 1.29042482e-002 6.11921353e-003
      8.56055820e-004 2.85351940e-004 5.70703880e-004 6.97526964e-004
      2.53646169e-004 6.65821193e-004 1.10970193e-003 5.07292338e-004
      1.26823084e-004 6.34115422e-005 1.26823084e-004 6.97526964e-004
      1.58528856e-004 8.87761591e-004 1.10970193e-003 1.26506025e-002
      6.02409651e-004 7.60938507e-004 5.38998109e-004 1.14140776e-003 0.
      8.87761591e-004 3.17057711e-004 2.62840837e-002 5.38998109e-004
      1.04629039e-003 5.38998109e-004 3.15789469e-002 5.38998109e-004
      1.60114132e-002 5.35827503e-003 5.96068474e-003 8.87761591e-004
      4.43880796e-004 8.24350049e-004 3.17057711e-004 3.17057711e-005
      5.38998109e-004 3.48763482e-004 3.17057711e-004 6.34115422e-005
      6.34115422e-005 6.34115422e-005 3.48763482e-004 3.17057711e-005
      5.38998109e-004 2.21940398e-004 9.82878846e-004 0. 9.51173133e-005
      6.34115422e-005 3.17057711e-005 0. 0. 3.17057711e-005
      6.34115422e-004 0. 3.17057711e-005 0. 4.75586567e-004 0.
      6.02409651e-004 6.34115422e-005 1.23335449e-002 1.29993656e-003
      6.34115422e-004 6.34115422e-004 4.43880796e-004 6.34115422e-005
      1.90234627e-004 2.53646169e-004 8.87761591e-004 1.26823084e-004
      9.51173133e-005 9.51173133e-005 6.97526964e-004 0. 6.97526964e-004
      7.60938507e-004 2.79961955e-002 5.38998109e-004 1.10970193e-003
      3.80469253e-004 6.34115422e-004 0. 5.07292338e-004 2.85351940e-004
      4.38807867e-002 4.43880796e-004 1.04629039e-003 4.43880796e-004
      1.25871906e-002 1.58528856e-004 6.43627159e-003 1.80722889e-003
      6.15091948e-003 1.32530117e-002 8.87761591e-004 2.50475593e-002
      3.80469253e-004 6.97526964e-004 5.07292338e-004 2.56499685e-002
      5.38998109e-004 8.24350049e-004 6.34115422e-005 5.70703880e-004
      6.02409651e-004 5.38998109e-004 1.20481930e-003 1.56943556e-002
      9.82878846e-004 4.12175024e-004 3.17057711e-005 3.48763482e-004 0.
      0. 9.51173133e-005 3.80469253e-004 7.92644278e-004 4.43880796e-004
      1.26823084e-004 3.48763482e-004 1.23652501e-003 4.12175024e-004
      1.29993656e-003 4.40710224e-003 5.70703880e-004 6.34115422e-004
      3.17057711e-005 9.51173133e-004 0. 9.51173133e-005 3.17057711e-005
      9.51173133e-004 6.34115422e-005 6.34115422e-005 0. 1.58528856e-004
      9.51173133e-005 3.17057711e-005 3.17057711e-005 8.87761591e-004
      4.75586567e-004 6.34115422e-004 0. 4.43880796e-004 1.26823084e-004
      6.34115422e-005 9.51173133e-005 5.07292338e-004 6.65821193e-004
      3.48763482e-004 3.17057711e-005 6.02409651e-004 1.23652501e-003
      5.38998109e-004 5.70703880e-004 3.20228282e-003 1.02409637e-002
      2.62523778e-002 9.19467362e-004 4.42929603e-002 4.43880796e-004
      6.02409651e-004 5.70703880e-004 1.17628407e-002 6.65821193e-004
      9.51173133e-004 9.51173133e-005 6.97526964e-004 4.75586567e-004
      6.97526964e-004 5.07292338e-004 7.03868084e-003 9.51173133e-004
      5.38998109e-004 9.51173133e-005 5.07292338e-004 3.17057711e-005
      6.34115422e-005 2.21940398e-004 1.58528856e-004 7.29232735e-004
      4.12175024e-004 9.51173133e-005 4.12175024e-004 6.02409651e-004
      3.17057711e-004 5.07292338e-004 1.90234627e-003 2.52377931e-002
      3.94102745e-002 1.36334810e-003 1.72162335e-002 3.48763482e-004
      3.48763482e-004 6.34115422e-004 7.03868084e-003 1.07799622e-003
      1.20481930e-003 1.90234627e-004 6.97526964e-004 5.70703880e-004
      6.97526964e-004 1.80722889e-003 7.22891558e-003 4.52441350e-002
      1.18579585e-002 1.45846547e-003 4.81927721e-003 5.38998109e-004
      9.51173133e-005 4.75586567e-004 2.53646169e-003 1.94356367e-002
      5.48509834e-003 5.07292338e-004 3.61445779e-003 6.75332919e-003
      1.61699427e-003 7.64109055e-003 1.35700693e-002</_>
    <_>
      4.21052650e-002 8.40202905e-003 5.26315812e-003 1.02092577e-002
      5.70703857e-003 7.60938507e-004 9.51173156e-003 2.01331638e-002
      6.75332919e-003 1.07799622e-003 7.29232735e-004 8.24350049e-004
      1.06214331e-002 8.87761591e-004 2.91058980e-002 4.29613180e-002
      1.04311984e-002 3.80469253e-004 1.42675964e-003 2.21940398e-004
      6.02409651e-004 6.34115422e-005 1.17311347e-003 4.12175024e-004
      1.31896008e-002 5.07292338e-004 1.01458468e-003 5.07292338e-004
      2.61255540e-002 5.38998109e-004 5.10779954e-002 1.45529490e-002
      6.81674061e-003 8.24350049e-004 8.24350049e-004 7.92644278e-004
      5.38998109e-004 1.58528856e-004 5.38998109e-004 6.34115422e-004
      8.56055820e-004 1.58528856e-004 1.58528856e-004 9.51173133e-005
      8.87761591e-004 1.26823084e-004 1.10970193e-003 1.71211164e-003
      1.38554219e-002 7.60938507e-004 7.29232735e-004 5.07292338e-004
      7.60938507e-004 6.34115422e-005 8.24350049e-004 3.48763482e-004
      2.62840837e-002 4.75586567e-004 7.29232735e-004 2.53646169e-004
      3.35447043e-002 3.17057711e-004 1.74698792e-002 5.77044999e-003
      5.45339240e-003 6.65821193e-004 4.43880796e-004 6.34115422e-004
      3.48763482e-004 6.34115422e-005 3.48763482e-004 3.80469253e-004
      3.17057711e-004 3.17057711e-005 6.34115422e-005 0. 6.02409651e-004
      3.17057711e-005 6.97526964e-004 2.53646169e-004 8.56055820e-004 0.
      3.17057711e-005 3.17057711e-005 0. 0. 3.17057711e-005
      3.17057711e-005 9.19467362e-004 0. 1.26823084e-004 3.17057711e-005
      3.80469253e-004 0. 4.43880796e-004 1.90234627e-004 1.14774890e-002
      1.14140776e-003 5.70703880e-004 7.29232735e-004 3.80469253e-004 0.
      3.17057711e-004 4.75586567e-004 1.01458468e-003 6.34115422e-005 0.
      6.34115422e-005 6.34115422e-004 6.34115422e-005 9.51173133e-004
      9.19467362e-004 2.77742557e-002 6.34115422e-004 6.97526964e-004
      2.53646169e-004 5.70703880e-004 0. 2.85351940e-004 1.90234627e-004
      3.98858599e-002 5.70703880e-004 9.19467362e-004 2.53646169e-004
      1.24920737e-002 3.17057711e-004 6.78503467e-003 2.12428672e-003
      6.08750805e-003 1.10653136e-002 3.48763482e-004 2.37476230e-002
      4.43880796e-004 7.60938507e-004 8.87761591e-004 2.23842748e-002
      9.19467362e-004 7.60938507e-004 3.17057711e-005 3.80469253e-004
      6.02409651e-004 7.29232735e-004 1.07799622e-003 1.47431828e-002
      9.82878846e-004 4.75586567e-004 3.17057711e-005 3.48763482e-004
      3.17057711e-005 3.17057711e-005 1.58528856e-004 4.43880796e-004
      5.38998109e-004 4.12175024e-004 6.34115422e-005 4.12175024e-004
      9.19467362e-004 2.85351940e-004 1.36334810e-003 4.47051367e-003
      5.07292338e-004 6.02409651e-004 3.17057711e-005 8.24350049e-004
      3.17057711e-005 6.34115422e-005 3.17057711e-005 6.34115422e-004 0.
      1.26823084e-004 0. 6.34115422e-005 9.51173133e-005 3.17057711e-005
      9.51173133e-005 7.92644278e-004 8.56055820e-004 3.17057711e-004
      3.17057711e-005 3.17057711e-004 3.17057711e-005 3.17057711e-005 0.
      2.53646169e-004 9.51173133e-004 5.38998109e-004 6.34115422e-005
      4.75586567e-004 6.34115422e-004 2.21940398e-004 5.70703880e-004
      3.77298659e-003 9.25808493e-003 2.37476230e-002 7.29232735e-004
      3.94102745e-002 1.90234627e-004 4.12175024e-004 4.43880796e-004
      1.13506662e-002 4.12175024e-004 8.24350049e-004 9.51173133e-005
      6.02409651e-004 6.02409651e-004 4.43880796e-004 9.19467362e-004
      6.08750805e-003 1.14140776e-003 3.48763482e-004 1.58528856e-004
      2.53646169e-004 6.34115422e-005 0. 1.58528856e-004 2.85351940e-004
      5.70703880e-004 1.26823084e-004 3.17057711e-005 9.51173133e-005
      5.38998109e-004 2.21940398e-004 8.56055820e-004 1.96575769e-003
      2.40329746e-002 3.70957516e-002 7.29232735e-004 1.61382370e-002
      3.48763482e-004 3.80469253e-004 6.97526964e-004 6.08750805e-003
      1.17311347e-003 1.71211164e-003 6.34115422e-005 6.97526964e-004
      6.97526964e-004 5.38998109e-004 1.26823084e-003 6.46797707e-003
      5.09194657e-002 1.13823712e-002 1.55358273e-003 5.13633480e-003
      4.75586567e-004 1.58528856e-004 7.60938507e-004 1.83893472e-003
      1.99746359e-002 5.32656955e-003 7.29232735e-004 3.20228282e-003
      6.91185798e-003 1.90234627e-003 6.75332919e-003 1.13823712e-002</_>
    <_>
      4.00760956e-002 8.33861809e-003 4.37539630e-003 8.43373500e-003
      4.09004418e-003 6.65821193e-004 5.96068474e-003 1.34115405e-002
      4.72415984e-003 7.29232735e-004 4.75586567e-004 5.07292338e-004
      7.70450244e-003 1.07799622e-003 2.10209265e-002 3.65567543e-002
      9.28979088e-003 7.60938507e-004 6.34115422e-004 3.48763482e-004
      6.02409651e-004 3.17057711e-005 1.07799622e-003 5.07292338e-004
      1.09701967e-002 4.43880796e-004 5.38998109e-004 2.85351940e-004
      1.82308182e-002 5.38998109e-004 3.99492718e-002 1.03994925e-002
      6.49968302e-003 1.01458468e-003 4.12175024e-004 6.65821193e-004
      4.43880796e-004 6.34115422e-005 9.19467362e-004 6.65821193e-004
      1.04629039e-003 6.34115422e-005 3.17057711e-005 1.26823084e-004
      5.38998109e-004 9.51173133e-005 8.87761591e-004 1.26823084e-003
      1.39822448e-002 5.38998109e-004 7.29232735e-004 5.07292338e-004
      7.60938507e-004 3.17057711e-005 6.65821193e-004 1.90234627e-004
      2.99936589e-002 4.12175024e-004 6.65821193e-004 2.53646169e-004
      2.87888404e-002 4.12175024e-004 1.42993024e-002 4.34369035e-003
      5.07292338e-003 9.82878846e-004 6.34115422e-004 9.82878846e-004
      4.12175024e-004 0. 4.43880796e-004 2.85351940e-004 6.02409651e-004
      9.51173133e-005 3.17057711e-005 6.34115422e-005 2.85351940e-004
      3.17057711e-005 4.12175024e-004 9.51173133e-005 8.24350049e-004
      6.34115422e-005 0. 0. 0. 0. 6.34115422e-005 0. 8.56055820e-004 0.
      1.26823084e-004 3.17057711e-005 3.80469253e-004 0. 3.17057711e-004
      3.17057711e-005 1.19213695e-002 1.04629039e-003 6.02409651e-004
      6.97526964e-004 6.34115422e-004 6.34115422e-005 7.60938507e-004
      2.85351940e-004 9.51173133e-004 6.34115422e-005 3.17057711e-005 0.
      4.43880796e-004 3.17057711e-005 4.43880796e-004 7.92644278e-004
      3.28154713e-002 6.65821193e-004 8.24350049e-004 4.12175024e-004
      5.07292338e-004 0. 4.43880796e-004 1.58528856e-004 5.87190874e-002
      4.12175024e-004 9.19467362e-004 2.85351940e-004 1.46163600e-002
      4.12175024e-004 5.51680429e-003 1.83893472e-003 6.24603685e-003
      1.18579585e-002 7.29232735e-004 2.21623331e-002 4.12175024e-004
      9.82878846e-004 8.24350049e-004 2.14013942e-002 5.70703880e-004
      4.12175024e-004 3.17057711e-005 7.92644278e-004 6.97526964e-004
      7.29232735e-004 9.51173133e-004 1.03677865e-002 1.10970193e-003
      4.75586567e-004 0. 6.02409651e-004 3.17057711e-005 6.34115422e-005
      3.17057711e-005 3.48763482e-004 7.60938507e-004 5.07292338e-004
      3.17057711e-005 4.12175024e-004 6.34115422e-004 3.17057711e-004
      1.10970193e-003 3.80469253e-003 6.97526964e-004 9.51173133e-004
      9.51173133e-005 7.29232735e-004 9.51173133e-005 6.34115422e-005
      9.51173133e-005 6.65821193e-004 6.34115422e-005 3.17057711e-005 0.
      0. 9.51173133e-005 1.90234627e-004 3.17057711e-005 7.29232735e-004
      6.65821193e-004 2.21940398e-004 3.17057711e-005 6.97526964e-004 0.
      0. 9.51173133e-005 4.12175024e-004 8.24350049e-004 5.38998109e-004
      6.34115422e-005 2.85351940e-004 6.65821193e-004 5.07292338e-004
      6.65821193e-004 2.72669620e-003 1.12555483e-002 3.08180097e-002
      4.75586567e-004 4.40076105e-002 3.48763482e-004 4.43880796e-004
      5.38998109e-004 1.13506662e-002 6.02409651e-004 6.02409651e-004
      3.17057711e-005 7.92644278e-004 4.12175024e-004 5.38998109e-004
      5.07292338e-004 4.94610006e-003 1.55358273e-003 6.97526964e-004
      1.58528856e-004 3.80469253e-004 0. 0. 3.17057711e-005
      2.85351940e-004 6.65821193e-004 2.85351940e-004 0. 3.80469253e-004
      5.38998109e-004 3.17057711e-004 3.17057711e-004 2.02916935e-003
      2.95180716e-002 5.03487624e-002 1.26823084e-003 1.99112240e-002
      2.85351940e-004 4.12175024e-004 8.24350049e-004 7.07038678e-003
      1.42675964e-003 1.55358273e-003 6.34115422e-005 1.07799622e-003
      8.24350049e-004 7.60938507e-004 1.61699427e-003 6.24603685e-003
      6.08433746e-002 1.43627143e-002 1.99746364e-003 5.73874451e-003
      5.38998109e-004 1.58528856e-004 1.07799622e-003 1.93405198e-003
      2.05453392e-002 5.10462886e-003 8.87761591e-004 2.82181357e-003
      7.60938507e-003 1.96575769e-003 7.03868084e-003 1.19847814e-002</_>
    <_>
      4.01077978e-002 8.84590950e-003 4.37539630e-003 8.59226380e-003
      5.26315812e-003 6.02409651e-004 6.40456565e-003 1.41724795e-002
      5.10462886e-003 6.97526964e-004 4.75586567e-004 4.43880796e-004
      8.37032311e-003 1.07799622e-003 2.00063419e-002 3.47812288e-002
      1.11921374e-002 4.12175024e-004 8.24350049e-004 2.85351940e-004
      6.65821193e-004 1.26823084e-004 9.19467362e-004 4.75586567e-004
      1.14457831e-002 3.48763482e-004 4.75586567e-004 3.17057711e-004
      2.26696264e-002 4.43880796e-004 4.01395038e-002 1.09067848e-002
      7.07038678e-003 7.60938507e-004 6.34115422e-004 8.87761591e-004
      6.02409651e-004 3.17057711e-005 7.29232735e-004 6.97526964e-004
      8.87761591e-004 9.51173133e-005 0. 0. 8.24350049e-004
      6.34115422e-005 8.56055820e-004 1.29993656e-003 1.47748888e-002
      5.70703880e-004 6.02409651e-004 4.75586567e-004 9.19467362e-004
      6.34115422e-005 8.24350049e-004 5.38998109e-004 3.48446406e-002
      5.07292338e-004 6.34115422e-004 3.48763482e-004 3.63348126e-002
      4.12175024e-004 1.76284090e-002 4.88268863e-003 6.30944828e-003
      6.34115422e-004 3.48763482e-004 1.01458468e-003 2.85351940e-004 0.
      3.17057711e-004 5.07292338e-004 6.65821193e-004 9.51173133e-005 0.
      0. 1.90234627e-004 0. 5.70703880e-004 1.26823084e-004
      1.14140776e-003 3.17057711e-005 6.34115422e-005 0. 3.17057711e-005
      0. 0. 0. 7.29232735e-004 0. 3.17057711e-005 0. 5.07292338e-004
      3.17057711e-005 2.21940398e-004 9.51173133e-005 1.14774890e-002
      1.36334810e-003 6.97526964e-004 7.60938507e-004 5.07292338e-004
      1.26823084e-004 6.02409651e-004 5.70703880e-004 1.20481930e-003
      6.34115422e-005 3.17057711e-005 3.17057711e-005 5.70703880e-004
      3.17057711e-005 6.34115422e-004 9.51173133e-004 3.31959426e-002
      5.07292338e-004 8.87761591e-004 2.21940398e-004 6.02409651e-004
      3.17057711e-005 4.12175024e-004 1.58528856e-004 6.15409017e-002
      6.34115422e-004 9.19467362e-004 4.12175024e-004 1.56309456e-002
      1.90234627e-004 7.41915032e-003 1.80722889e-003 5.96068474e-003
      1.05580213e-002 3.48763482e-004 2.01331638e-002 4.75586567e-004
      1.01458468e-003 9.19467362e-004 2.11477485e-002 5.38998109e-004
      7.60938507e-004 0. 7.60938507e-004 6.65821193e-004 5.07292338e-004
      7.60938507e-004 1.12238424e-002 1.10970193e-003 4.12175024e-004
      1.26823084e-004 3.48763482e-004 6.34115422e-005 6.34115422e-005
      1.58528856e-004 3.17057711e-004 6.34115422e-004 6.02409651e-004
      6.34115422e-005 5.70703880e-004 6.97526964e-004 4.43880796e-004
      1.14140776e-003 4.34369035e-003 5.38998109e-004 6.02409651e-004 0.
      9.19467362e-004 0. 6.34115422e-005 3.17057711e-005 6.02409651e-004
      3.17057711e-005 1.26823084e-004 0. 0. 3.17057711e-005
      9.51173133e-005 6.34115422e-005 8.87761591e-004 7.29232735e-004
      6.97526964e-004 3.17057711e-005 7.29232735e-004 3.17057711e-005
      6.34115422e-005 1.58528856e-004 3.17057711e-004 4.43880796e-004
      6.65821193e-004 9.51173133e-005 3.80469253e-004 1.26823084e-003
      2.21940398e-004 7.60938507e-004 3.10716545e-003 9.89220012e-003
      2.61889659e-002 6.34115422e-004 4.17882055e-002 3.17057711e-004
      4.12175024e-004 4.43880796e-004 1.08750788e-002 7.60938507e-004
      8.87761591e-004 3.17057711e-005 1.17311347e-003 5.38998109e-004
      6.34115422e-004 7.92644278e-004 5.19974623e-003 1.04629039e-003
      4.75586567e-004 9.51173133e-005 4.12175024e-004 0. 0.
      1.26823084e-004 4.43880796e-004 8.24350049e-004 5.07292338e-004
      6.34115422e-005 4.12175024e-004 5.70703880e-004 4.12175024e-004
      6.65821193e-004 1.93405198e-003 2.47305017e-002 3.97907421e-002
      1.26823084e-003 1.74698792e-002 5.70703880e-004 5.07292338e-004
      6.02409651e-004 6.21433090e-003 9.51173133e-004 1.39505393e-003
      3.17057711e-005 1.10970193e-003 3.17057711e-004 6.02409651e-004
      1.49017118e-003 7.10209273e-003 5.24730496e-002 1.25237796e-002
      1.80722889e-003 5.07292338e-003 5.07292338e-004 1.26823084e-004
      8.87761591e-004 2.06087506e-003 2.18452755e-002 5.04121743e-003
      8.24350049e-004 3.83639825e-003 7.86303077e-003 2.37793289e-003
      6.94356393e-003 1.36017753e-002</_>
    <_>
      4.09638546e-002 8.94102734e-003 5.64362714e-003 1.01458468e-002
      5.19974623e-003 8.56055820e-004 8.18008836e-003 1.72479395e-002
      6.40456565e-003 7.29232735e-004 3.48763482e-004 5.38998109e-004
      1.09384907e-002 1.29993656e-003 2.40963846e-002 3.72859873e-002
      9.13126208e-003 7.92644278e-004 6.65821193e-004 5.38998109e-004
      7.29232735e-004 0. 1.39505393e-003 5.07292338e-004 1.32847177e-002
      3.17057711e-004 6.02409651e-004 4.43880796e-004 2.70133168e-002
      5.70703880e-004 4.38807867e-002 1.19530754e-002 7.89473671e-003
      5.38998109e-004 5.70703880e-004 7.29232735e-004 4.75586567e-004
      1.90234627e-004 6.34115422e-004 7.29232735e-004 8.87761591e-004
      9.51173133e-005 1.90234627e-004 3.17057711e-005 9.82878846e-004
      6.34115422e-005 1.29993656e-003 1.77552318e-003 1.53455930e-002
      6.65821193e-004 6.65821193e-004 4.43880796e-004 7.92644278e-004
      3.17057711e-005 7.29232735e-004 2.85351940e-004 3.32276486e-002
      4.12175024e-004 6.02409651e-004 5.70703880e-004 3.64933424e-002
      4.12175024e-004 1.99429300e-002 5.32656955e-003 6.21433090e-003
      9.19467362e-004 7.29232735e-004 5.70703880e-004 1.58528856e-004
      6.34115422e-005 4.75586567e-004 5.07292338e-004 3.48763482e-004 0.
      3.17057711e-005 6.34115422e-005 5.70703880e-004 3.17057711e-005
      4.12175024e-004 2.85351940e-004 8.24350049e-004 9.51173133e-005
      6.34115422e-005 3.17057711e-005 0. 0. 3.17057711e-005
      3.17057711e-005 9.82878846e-004 6.34115422e-005 3.17057711e-005 0.
      3.17057711e-004 3.17057711e-005 4.75586567e-004 2.85351940e-004
      1.23969559e-002 1.04629039e-003 3.17057711e-004 6.65821193e-004
      3.17057711e-004 3.17057711e-005 5.07292338e-004 3.17057711e-004
      8.24350049e-004 1.58528856e-004 3.17057711e-005 9.51173133e-005
      6.65821193e-004 6.34115422e-005 8.87761591e-004 6.97526964e-004
      2.99619529e-002 5.38998109e-004 7.60938507e-004 4.12175024e-004
      3.17057711e-004 0. 6.97526964e-004 3.48763482e-004 4.97463532e-002
      3.48763482e-004 7.92644278e-004 3.48763482e-004 1.40139507e-002
      2.53646169e-004 6.65821182e-003 1.93405198e-003 5.89727331e-003
      1.21750161e-002 6.65821193e-004 2.32720356e-002 6.34115422e-004
      8.56055820e-004 7.92644278e-004 2.18135696e-002 6.34115422e-004
      8.87761591e-004 3.17057711e-005 7.92644278e-004 5.07292338e-004
      6.02409651e-004 1.07799622e-003 1.36651872e-002 1.01458468e-003
      3.80469253e-004 6.34115422e-005 5.70703880e-004 3.17057711e-005 0.
      9.51173133e-005 4.12175024e-004 5.70703880e-004 4.43880796e-004
      1.90234627e-004 2.85351940e-004 9.19467362e-004 3.48763482e-004
      1.20481930e-003 5.07292338e-003 6.02409651e-004 7.92644278e-004 0.
      6.34115422e-004 0. 9.51173133e-005 9.51173133e-005 9.82878846e-004
      3.17057711e-005 9.51173133e-005 0. 6.34115422e-005 6.34115422e-005
      6.34115422e-005 9.51173133e-005 7.60938507e-004 6.97526964e-004
      2.53646169e-004 6.34115422e-005 5.38998109e-004 0. 0.
      3.17057711e-005 2.53646169e-004 9.51173133e-004 4.75586567e-004
      1.26823084e-004 6.34115422e-004 1.01458468e-003 1.90234627e-004
      1.26823084e-003 3.42422328e-003 9.95561201e-003 2.23208629e-002
      6.97526964e-004 3.96005064e-002 4.12175024e-004 3.48763482e-004
      4.43880796e-004 1.03994925e-002 5.70703880e-004 8.56055820e-004
      1.26823084e-004 5.38998109e-004 2.85351940e-004 4.43880796e-004
      5.70703880e-004 6.21433090e-003 1.26823084e-003 5.70703880e-004
      6.34115422e-005 4.12175024e-004 0. 3.17057711e-005 3.17057711e-005
      3.17057711e-004 7.92644278e-004 5.07292338e-004 1.90234627e-004
      2.85351940e-004 6.65821193e-004 3.80469253e-004 7.29232735e-004
      1.58528856e-003 2.27013323e-002 3.50031704e-002 9.51173133e-004
      1.58845913e-002 6.34115422e-004 3.17057711e-004 8.87761591e-004
      6.59480039e-003 1.04629039e-003 1.33164239e-003 9.51173133e-005
      8.56055820e-004 6.65821193e-004 6.65821193e-004 1.52187701e-003
      7.03868084e-003 4.71147746e-002 1.14457831e-002 1.83893472e-003
      5.45339240e-003 3.17057711e-004 9.51173133e-005 8.24350049e-004
      2.12428672e-003 2.03233995e-002 4.62904247e-003 1.01458468e-003
      3.48763471e-003 7.29232701e-003 1.99746364e-003 6.97526941e-003
      1.25554847e-002</_>
    <_>
      4.70830686e-002 9.89220012e-003 6.88015204e-003 1.09384907e-002
      5.64362714e-003 1.04629039e-003 9.41661373e-003 2.10526325e-002
      5.58021571e-003 1.07799622e-003 4.75586567e-004 6.65821193e-004
      1.08433738e-002 8.87761591e-004 2.98668351e-002 4.28662002e-002
      1.06531391e-002 5.07292338e-004 9.51173133e-004 4.75586567e-004
      1.07799622e-003 3.17057711e-005 1.01458468e-003 4.75586567e-004
      1.27457194e-002 7.29232735e-004 4.43880796e-004 5.07292338e-004
      2.21940391e-002 5.70703880e-004 4.37539630e-002 1.26823084e-002
      6.72162324e-003 7.60938507e-004 4.43880796e-004 7.29232735e-004
      8.24350049e-004 9.51173133e-005 7.60938507e-004 1.01458468e-003
      8.24350049e-004 6.34115422e-005 3.17057711e-005 6.34115422e-005
      9.51173133e-004 1.26823084e-004 1.33164239e-003 9.19467362e-004
      1.29676601e-002 6.02409651e-004 5.38998109e-004 4.12175024e-004
      8.24350049e-004 3.17057711e-005 9.19467362e-004 4.75586567e-004
      2.63157897e-002 5.07292338e-004 8.87761591e-004 4.43880796e-004
      3.23081799e-002 4.43880796e-004 1.67723522e-002 5.77044999e-003
      6.30944828e-003 8.24350049e-004 5.70703880e-004 7.92644278e-004
      4.12175024e-004 0. 6.65821193e-004 6.02409651e-004 6.65821193e-004
      6.34115422e-005 0. 3.17057711e-005 3.80469253e-004 6.34115422e-005
      1.90234627e-004 5.70703880e-004 7.60938507e-004 6.34115422e-005 0.
      0. 0. 0. 0. 3.17057711e-005 6.97526964e-004 0. 3.17057711e-005
      3.17057711e-005 3.48763482e-004 3.17057711e-005 3.17057711e-004
      2.21940398e-004 1.15091950e-002 1.01458468e-003 6.65821193e-004
      6.34115422e-004 3.80469253e-004 0. 6.97526964e-004 6.34115422e-004
      1.33164239e-003 1.58528856e-004 3.17057711e-005 0. 7.29232735e-004
      6.34115422e-005 9.19467362e-004 4.75586567e-004 2.38744449e-002
      6.02409651e-004 5.70703880e-004 3.17057711e-004 4.12175024e-004 0.
      6.65821193e-004 1.26823084e-004 3.91566269e-002 2.85351940e-004
      1.04629039e-003 5.07292338e-004 1.27774253e-002 1.26823084e-004
      7.03868084e-003 1.52187701e-003 5.77044999e-003 1.27140144e-002
      7.60938507e-004 2.25110967e-002 5.07292338e-004 6.65821193e-004
      6.97526964e-004 2.72035506e-002 8.87761591e-004 7.60938507e-004
      9.51173133e-005 9.51173133e-004 9.19467362e-004 6.34115422e-004
      1.20481930e-003 1.59162972e-002 8.87761591e-004 4.75586567e-004
      1.90234627e-004 4.43880796e-004 1.26823084e-004 6.34115422e-005
      1.26823084e-004 2.53646169e-004 6.65821193e-004 3.80469253e-004
      1.26823084e-004 4.75586567e-004 9.51173133e-004 3.48763482e-004
      1.17311347e-003 4.47051367e-003 8.24350049e-004 6.34115422e-004
      9.51173133e-005 1.10970193e-003 6.34115422e-005 3.17057711e-005
      9.51173133e-005 1.01458468e-003 3.17057711e-005 3.17057711e-005 0.
      3.17057711e-005 3.17057711e-005 3.17057711e-005 3.17057711e-005
      9.51173133e-004 6.34115422e-004 5.07292338e-004 1.26823084e-004
      5.38998109e-004 6.34115422e-005 0. 1.26823084e-004 3.17057711e-004
      9.51173133e-004 5.38998109e-004 3.17057711e-005 5.07292338e-004
      8.56055820e-004 4.75586567e-004 1.04629039e-003 3.86810396e-003
      1.13189602e-002 2.23525688e-002 7.60938507e-004 4.32149656e-002
      7.29232735e-004 4.43880796e-004 8.24350049e-004 1.14457831e-002
      5.70703880e-004 6.65821193e-004 9.51173133e-005 1.01458468e-003
      5.07292338e-004 5.70703880e-004 1.17311347e-003 6.18262542e-003
      1.52187701e-003 5.70703880e-004 6.34115422e-005 3.80469253e-004
      9.51173133e-005 3.17057711e-005 1.58528856e-004 1.26823084e-004
      4.43880796e-004 6.02409651e-004 9.51173133e-005 2.85351940e-004
      5.07292338e-004 2.85351940e-004 6.02409651e-004 2.02916935e-003
      2.63792016e-002 3.29740010e-002 1.14140776e-003 1.71211157e-002
      6.97526964e-004 1.58528856e-004 6.34115422e-004 6.21433090e-003
      1.39505393e-003 1.26823084e-003 6.34115422e-005 8.56055820e-004
      7.29232735e-004 6.65821193e-004 1.68040581e-003 7.10209273e-003
      4.30247299e-002 1.12555483e-002 1.49017118e-003 4.88268863e-003
      3.80469253e-004 3.17057711e-004 8.24350049e-004 1.83893472e-003
      1.79771725e-002 4.94610006e-003 9.51173133e-004 4.50221961e-003
      6.78503467e-003 1.68040581e-003 6.59480039e-003 1.29676601e-002</_>
    <_>
      4.70830686e-002 9.89220012e-003 6.88015204e-003 1.09384907e-002
      5.64362714e-003 1.04629039e-003 9.41661373e-003 2.10526325e-002
      5.58021571e-003 1.07799622e-003 4.75586567e-004 6.65821193e-004
      1.08433738e-002 8.87761591e-004 2.98668351e-002 4.28662002e-002
      1.06531391e-002 5.07292338e-004 9.51173133e-004 4.75586567e-004
      1.07799622e-003 3.17057711e-005 1.01458468e-003 4.75586567e-004
      1.27457194e-002 7.29232735e-004 4.43880796e-004 5.07292338e-004
      2.21940391e-002 5.70703880e-004 4.37539630e-002 1.26823084e-002
      6.72162324e-003 7.60938507e-004 4.43880796e-004 7.29232735e-004
      8.24350049e-004 9.51173133e-005 7.60938507e-004 1.01458468e-003
      8.24350049e-004 6.34115422e-005 3.17057711e-005 6.34115422e-005
      9.51173133e-004 1.26823084e-004 1.33164239e-003 9.19467362e-004
      1.29676601e-002 6.02409651e-004 5.38998109e-004 4.12175024e-004
      8.24350049e-004 3.17057711e-005 9.19467362e-004 4.75586567e-004
      2.63157897e-002 5.07292338e-004 8.87761591e-004 4.43880796e-004
      3.23081799e-002 4.43880796e-004 1.67723522e-002 5.77044999e-003
      6.30944828e-003 8.24350049e-004 5.70703880e-004 7.92644278e-004
      4.12175024e-004 0. 6.65821193e-004 6.02409651e-004 6.65821193e-004
      6.34115422e-005 0. 3.17057711e-005 3.80469253e-004 6.34115422e-005
      1.90234627e-004 5.70703880e-004 7.60938507e-004 6.34115422e-005 0.
      0. 0. 0. 0. 3.17057711e-005 6.97526964e-004 0. 3.17057711e-005
      3.17057711e-005 3.48763482e-004 3.17057711e-005 3.17057711e-004
      2.21940398e-004 1.15091950e-002 1.01458468e-003 6.65821193e-004
      6.34115422e-004 3.80469253e-004 0. 6.97526964e-004 6.34115422e-004
      1.33164239e-003 1.58528856e-004 3.17057711e-005 0. 7.29232735e-004
      6.34115422e-005 9.19467362e-004 4.75586567e-004 2.38744449e-002
      6.02409651e-004 5.70703880e-004 3.17057711e-004 4.12175024e-004 0.
      6.65821193e-004 1.26823084e-004 3.91566269e-002 2.85351940e-004
      1.04629039e-003 5.07292338e-004 1.27774253e-002 1.26823084e-004
      7.03868084e-003 1.52187701e-003 5.77044999e-003 1.27140144e-002
      7.60938507e-004 2.25110967e-002 5.07292338e-004 6.65821193e-004
      6.97526964e-004 2.72035506e-002 8.87761591e-004 7.60938507e-004
      9.51173133e-005 9.51173133e-004 9.19467362e-004 6.34115422e-004
      1.20481930e-003 1.59162972e-002 8.87761591e-004 4.75586567e-004
      1.90234627e-004 4.43880796e-004 1.26823084e-004 6.34115422e-005
      1.26823084e-004 2.53646169e-004 6.65821193e-004 3.80469253e-004
      1.26823084e-004 4.75586567e-004 9.51173133e-004 3.48763482e-004
      1.17311347e-003 4.47051367e-003 8.24350049e-004 6.34115422e-004
      9.51173133e-005 1.10970193e-003 6.34115422e-005 3.17057711e-005
      9.51173133e-005 1.01458468e-003 3.17057711e-005 3.17057711e-005 0.
      3.17057711e-005 3.17057711e-005 3.17057711e-005 3.17057711e-005
      9.51173133e-004 6.34115422e-004 5.07292338e-004 1.26823084e-004
      5.38998109e-004 6.34115422e-005 0. 1.26823084e-004 3.17057711e-004
      9.51173133e-004 5.38998109e-004 3.17057711e-005 5.07292338e-004
      8.56055820e-004 4.75586567e-004 1.04629039e-003 3.86810396e-003
      1.13189602e-002 2.23525688e-002 7.60938507e-004 4.32149656e-002
      7.29232735e-004 4.43880796e-004 8.24350049e-004 1.14457831e-002
      5.70703880e-004 6.65821193e-004 9.51173133e-005 1.01458468e-003
      5.07292338e-004 5.70703880e-004 1.17311347e-003 6.18262542e-003
      1.52187701e-003 5.70703880e-004 6.34115422e-005 3.80469253e-004
      9.51173133e-005 3.17057711e-005 1.58528856e-004 1.26823084e-004
      4.43880796e-004 6.02409651e-004 9.51173133e-005 2.85351940e-004
      5.07292338e-004 2.85351940e-004 6.02409651e-004 2.02916935e-003
      2.63792016e-002 3.29740010e-002 1.14140776e-003 1.71211157e-002
      6.97526964e-004 1.58528856e-004 6.34115422e-004 6.21433090e-003
      1.39505393e-003 1.26823084e-003 6.34115422e-005 8.56055820e-004
      7.29232735e-004 6.65821193e-004 1.68040581e-003 7.10209273e-003
      4.30247299e-002 1.12555483e-002 1.49017118e-003 4.88268863e-003
      3.80469253e-004 3.17057711e-004 8.24350049e-004 1.83893472e-003
      1.79771725e-002 4.94610006e-003 9.51173133e-004 4.50221961e-003
      6.78503467e-003 1.68040581e-003 6.59480039e-003 1.29676601e-002</_>
    <_>
      5.00000007e-002 9.63855442e-003 6.88015204e-003 1.12555483e-002
      8.05326551e-003 5.70703880e-004 1.06214331e-002 1.76601149e-002
      6.91185798e-003 8.24350049e-004 6.02409651e-004 8.87761591e-004
      1.08116679e-002 9.51173133e-004 2.33671535e-002 3.37349400e-002
      9.79708321e-003 7.92644278e-004 8.87761591e-004 5.38998109e-004
      9.82878846e-004 1.26823084e-004 7.92644278e-004 5.38998109e-004
      1.27140144e-002 4.43880796e-004 8.87761591e-004 7.29232735e-004
      2.03233995e-002 6.34115422e-004 3.86176296e-002 1.26188966e-002
      8.11667740e-003 9.51173133e-004 5.38998109e-004 6.97526964e-004
      1.01458468e-003 6.34115422e-005 6.34115422e-004 6.97526964e-004
      1.64870010e-003 1.26823084e-004 6.34115422e-005 1.26823084e-004
      1.26823084e-003 9.51173133e-005 1.33164239e-003 1.49017118e-003
      1.50919463e-002 8.24350049e-004 7.92644278e-004 5.38998109e-004
      1.04629039e-003 6.34115422e-005 7.92644278e-004 3.48763482e-004
      2.73937862e-002 4.43880796e-004 1.10970193e-003 7.29232735e-004
      3.75396311e-002 3.17057711e-004 1.57260615e-002 5.23145217e-003
      7.67279649e-003 1.10970193e-003 9.19467362e-004 1.26823084e-003
      5.70703880e-004 9.51173133e-005 5.38998109e-004 5.70703880e-004
      5.38998109e-004 6.34115422e-005 6.34115422e-005 1.26823084e-004
      3.17057711e-004 9.51173133e-005 4.75586567e-004 7.60938507e-004
      6.02409651e-004 3.17057711e-005 6.34115422e-005 0. 3.17057711e-005
      3.17057711e-005 0. 3.17057711e-005 9.19467362e-004 3.17057711e-005
      1.90234627e-004 6.34115422e-005 6.02409651e-004 0. 3.80469253e-004
      2.53646169e-004 1.16360178e-002 1.10970193e-003 6.65821193e-004
      8.87761591e-004 3.48763482e-004 6.34115422e-005 4.12175024e-004
      5.70703880e-004 1.23652501e-003 9.51173133e-005 6.34115422e-005
      6.34115422e-005 7.60938507e-004 1.26823084e-004 7.29232735e-004
      8.87761591e-004 2.64426135e-002 6.02409651e-004 7.29232735e-004
      2.53646169e-004 4.75586567e-004 6.34115422e-005 5.07292338e-004
      4.12175024e-004 3.72225754e-002 5.38998109e-004 1.17311347e-003
      3.17057711e-004 1.28725432e-002 3.48763482e-004 6.37285970e-003
      2.63157906e-003 7.32403295e-003 1.35700693e-002 1.17311347e-003
      2.59036142e-002 6.34115422e-004 8.56055820e-004 1.14140776e-003
      2.40329746e-002 5.70703880e-004 6.65821193e-004 6.34115422e-005
      1.26823084e-003 4.75586567e-004 4.12175024e-004 1.14140776e-003
      1.44578312e-002 7.60938507e-004 6.97526964e-004 1.26823084e-004
      5.38998109e-004 3.17057711e-005 6.34115422e-005 1.26823084e-004
      6.02409651e-004 7.92644278e-004 5.07292338e-004 9.51173133e-005
      9.51173133e-004 9.51173133e-004 6.65821193e-004 1.49017118e-003
      7.13379821e-003 9.82878846e-004 7.92644278e-004 6.34115422e-005
      1.01458468e-003 0. 1.26823084e-004 1.58528856e-004 6.34115422e-004
      6.34115422e-005 9.51173133e-005 0. 9.51173133e-005 6.34115422e-005
      6.34115422e-005 9.51173133e-005 7.29232735e-004 6.65821193e-004
      6.65821193e-004 9.51173133e-005 6.02409651e-004 9.51173133e-005 0.
      9.51173133e-005 5.07292338e-004 1.14140776e-003 6.97526964e-004
      2.21940398e-004 1.23652501e-003 1.55358273e-003 1.20481930e-003
      1.23652501e-003 6.15091948e-003 1.03360815e-002 2.53646169e-002
      1.10970193e-003 4.17564996e-002 5.70703880e-004 6.34115422e-004
      8.24350049e-004 1.26506025e-002 4.75586567e-004 1.07799622e-003
      6.34115422e-005 1.71211164e-003 6.65821193e-004 4.43880796e-004
      7.60938507e-004 6.81674061e-003 1.07799622e-003 5.07292338e-004
      1.58528856e-004 4.43880796e-004 6.34115422e-005 3.17057711e-005
      6.34115422e-005 4.75586567e-004 6.97526964e-004 4.43880796e-004
      1.90234627e-004 1.04629039e-003 5.38998109e-004 1.58528856e-004
      9.19467362e-004 2.82181357e-003 1.88015215e-002 3.80152203e-002
      1.07799622e-003 1.60748251e-002 5.38998109e-004 5.70703880e-004
      6.02409651e-004 6.56309444e-003 1.33164239e-003 1.23652501e-003
      9.51173133e-005 6.97526964e-004 9.51173133e-004 5.70703880e-004
      1.45846547e-003 6.37285970e-003 3.59860510e-002 8.30691215e-003
      1.07799622e-003 4.94610006e-003 6.65821193e-004 3.48763482e-004
      8.87761591e-004 2.12428672e-003 1.67723522e-002 4.18516155e-003
      8.24350049e-004 3.83639825e-003 5.96068474e-003 2.28281552e-003
      6.72162324e-003 1.47431828e-002</_>
    <_>
      4.72098924e-002 1.00507289e-002 5.80215594e-003 1.20164873e-002
      6.78503467e-003 1.39505393e-003 1.06531391e-002 2.05453392e-002
      6.34115422e-003 9.19467362e-004 6.65821193e-004 9.51173133e-004
      1.13506662e-002 1.14140776e-003 2.14648061e-002 3.39568816e-002
      9.35320184e-003 6.97526964e-004 9.82878846e-004 5.07292338e-004
      8.56055820e-004 0. 1.26823084e-003 4.75586567e-004 1.27140144e-002
      6.65821193e-004 6.65821193e-004 5.70703880e-004 2.14013942e-002
      6.97526964e-004 3.52251120e-002 1.21116042e-002 5.23145217e-003
      1.26823084e-003 6.65821193e-004 7.29232735e-004 9.51173133e-004
      6.34115422e-005 9.82878846e-004 1.17311347e-003 7.29232735e-004
      1.90234627e-004 6.34115422e-005 6.34115422e-005 6.02409651e-004
      2.53646169e-004 1.10970193e-003 1.61699427e-003 1.14140771e-002
      8.24350049e-004 8.56055820e-004 6.65821193e-004 1.14140776e-003
      3.17057711e-005 8.24350049e-004 6.34115422e-004 2.68230811e-002
      3.80469253e-004 1.17311347e-003 4.12175024e-004 3.25301215e-002
      3.48763482e-004 1.64870005e-002 5.67533309e-003 7.00697536e-003
      1.04629039e-003 6.97526964e-004 1.04629039e-003 7.60938507e-004
      6.34115422e-005 5.38998109e-004 5.70703880e-004 5.07292338e-004
      1.58528856e-004 6.34115422e-005 9.51173133e-005 6.34115422e-004
      1.26823084e-004 6.97526964e-004 5.70703880e-004 7.92644278e-004 0.
      9.51173133e-005 3.17057711e-005 6.34115422e-005 0. 6.34115422e-005
      3.17057711e-005 1.17311347e-003 6.34115422e-005 0. 3.17057711e-005
      5.70703880e-004 6.34115422e-005 3.48763482e-004 2.85351940e-004
      1.00824349e-002 1.17311347e-003 7.92644278e-004 8.87761591e-004
      3.80469253e-004 3.17057711e-005 5.07292338e-004 6.34115422e-004
      1.07799622e-003 9.51173133e-005 9.51173133e-005 6.34115422e-005
      9.19467362e-004 6.34115422e-005 7.60938507e-004 9.51173133e-004
      2.40012687e-002 6.02409651e-004 8.87761591e-004 5.70703880e-004
      5.07292338e-004 3.17057711e-005 4.75586567e-004 4.43880796e-004
      4.28979062e-002 3.80469253e-004 1.04629039e-003 4.75586567e-004
      1.36017753e-002 2.21940398e-004 7.98985455e-003 2.79010786e-003
      5.96068474e-003 1.24920737e-002 1.01458468e-003 2.43500322e-002
      8.24350049e-004 9.51173133e-004 1.10970193e-003 2.84717809e-002
      9.51173133e-004 9.82878846e-004 6.34115422e-005 1.20481930e-003
      6.97526964e-004 6.34115422e-004 1.07799622e-003 1.54090049e-002
      9.51173133e-004 6.02409651e-004 1.58528856e-004 4.75586567e-004
      3.17057711e-005 9.51173133e-005 9.51173133e-005 3.48763482e-004
      9.19467362e-004 6.65821193e-004 9.51173133e-005 6.97526964e-004
      1.10970193e-003 4.43880796e-004 1.42675964e-003 6.49968302e-003
      7.60938507e-004 6.34115422e-004 1.90234627e-004 6.65821193e-004
      9.51173133e-005 0. 0. 1.36334810e-003 0. 9.51173133e-005 0.
      1.58528856e-004 6.34115422e-005 6.34115422e-005 0. 1.33164239e-003
      5.70703880e-004 4.12175024e-004 6.34115422e-005 6.02409651e-004
      9.51173133e-005 3.17057711e-005 1.26823084e-004 4.43880796e-004
      9.51173133e-004 6.65821193e-004 1.26823084e-004 9.82878846e-004
      1.33164239e-003 5.38998109e-004 6.65821193e-004 5.96068474e-003
      1.06531391e-002 2.25428026e-002 9.19467362e-004 4.38807867e-002
      4.75586567e-004 5.07292338e-004 6.02409651e-004 1.28408372e-002
      8.56055820e-004 1.20481930e-003 1.26823084e-004 1.23652501e-003
      7.29232735e-004 6.02409651e-004 7.60938507e-004 7.26062153e-003
      1.36334810e-003 2.53646169e-004 1.58528856e-004 4.43880796e-004
      1.26823084e-004 3.17057711e-005 9.51173133e-005 2.53646169e-004
      9.51173133e-004 2.53646169e-004 0. 5.07292338e-004 5.70703880e-004
      1.90234627e-004 9.82878846e-004 2.69499049e-003 2.06404570e-002
      3.32593545e-002 1.07799622e-003 1.77235249e-002 4.43880796e-004
      6.97526964e-004 5.38998109e-004 7.48256175e-003 1.23652501e-003
      1.33164239e-003 6.34115422e-005 7.29232735e-004 9.19467362e-004
      6.65821193e-004 1.17311347e-003 8.14838335e-003 3.87127474e-002
      1.12872543e-002 1.42675964e-003 5.51680429e-003 3.80469253e-004
      1.90234627e-004 8.56055820e-004 2.09258078e-003 1.60748251e-002
      4.88268863e-003 1.20481930e-003 5.19974623e-003 6.34115422e-003
      2.18769815e-003 7.64109055e-003 1.69942938e-002</_>
    <_>
      6.10970184e-002 6.88015204e-003 4.12175013e-003 1.01141408e-002
      4.91439458e-003 4.75586567e-004 8.05326551e-003 2.01965757e-002
      4.88268863e-003 5.70703880e-004 2.53646169e-004 4.75586567e-004
      7.89473671e-003 8.87761591e-004 2.46353839e-002 4.65440713e-002
      6.84844656e-003 6.02409651e-004 6.97526964e-004 2.21940398e-004
      6.02409651e-004 0. 7.60938507e-004 4.75586567e-004 1.10019026e-002
      6.34115422e-004 4.75586567e-004 4.43880796e-004 2.07989849e-002
      3.80469253e-004 4.82561812e-002 1.05263162e-002 5.23145217e-003
      5.70703880e-004 4.12175024e-004 7.92644278e-004 6.65821193e-004 0.
      2.85351940e-004 8.56055820e-004 2.85351940e-004 3.17057711e-005
      3.17057711e-005 3.17057711e-005 7.29232735e-004 6.34115422e-005
      8.24350049e-004 1.33164239e-003 1.19530754e-002 3.80469253e-004
      6.65821193e-004 2.53646169e-004 6.02409651e-004 0. 4.75586567e-004
      3.80469253e-004 2.51426753e-002 4.43880796e-004 7.60938507e-004
      4.43880796e-004 2.87571345e-002 2.53646169e-004 1.49651235e-002
      4.88268863e-003 6.34115422e-003 5.07292338e-004 2.85351940e-004
      6.02409651e-004 3.48763482e-004 3.17057711e-005 2.21940398e-004
      3.17057711e-004 2.53646169e-004 6.34115422e-005 3.17057711e-005 0.
      5.38998109e-004 3.17057711e-005 3.48763482e-004 2.53646169e-004
      5.38998109e-004 0. 6.34115422e-005 3.17057711e-005 3.17057711e-005
      0. 3.17057711e-005 3.17057711e-005 5.07292338e-004 0.
      3.17057711e-005 0. 3.48763482e-004 0. 4.43880796e-004
      3.17057711e-005 9.70196538e-003 1.14140776e-003 4.12175024e-004
      6.65821193e-004 2.85351940e-004 9.51173133e-005 3.80469253e-004
      3.80469253e-004 6.97526964e-004 6.34115422e-005 3.17057711e-005
      3.17057711e-005 5.07292338e-004 3.17057711e-005 5.07292338e-004
      7.92644278e-004 2.53646169e-002 3.80469253e-004 6.65821193e-004
      3.48763482e-004 2.53646169e-004 0. 4.43880796e-004 1.90234627e-004
      5.12365252e-002 4.12175024e-004 6.97526964e-004 3.17057711e-004
      1.32847177e-002 6.34115422e-005 5.35827503e-003 2.12428672e-003
      4.72415984e-003 1.08750788e-002 3.80469253e-004 2.48256177e-002
      2.85351940e-004 3.48763482e-004 6.34115422e-004 2.79644895e-002
      3.48763482e-004 5.07292338e-004 6.34115422e-005 7.29232735e-004
      4.43880796e-004 4.43880796e-004 1.01458468e-003 1.54090049e-002
      5.70703880e-004 4.75586567e-004 6.34115422e-005 3.80469253e-004
      3.17057711e-005 0. 6.34115422e-005 2.21940398e-004 6.02409651e-004
      2.53646169e-004 3.17057711e-005 3.17057711e-004 6.65821193e-004
      5.38998109e-004 1.77552318e-003 4.34369035e-003 4.43880796e-004
      4.43880796e-004 6.34115422e-005 1.07799622e-003 0. 3.17057711e-005
      6.34115422e-005 9.19467362e-004 0. 6.34115422e-005 0.
      3.17057711e-005 9.51173133e-005 0. 0. 3.17057711e-004
      5.38998109e-004 3.48763482e-004 6.34115422e-005 4.75586567e-004 0.
      3.17057711e-005 0. 2.53646169e-004 8.87761591e-004 6.02409651e-004
      9.51173133e-005 5.38998109e-004 6.97526964e-004 3.48763482e-004
      5.38998109e-004 2.88522500e-003 9.86049417e-003 2.66011413e-002
      4.43880796e-004 4.85415347e-002 3.80469253e-004 3.80469253e-004
      4.75586567e-004 1.25871906e-002 6.65821193e-004 8.24350049e-004
      3.17057711e-005 6.97526964e-004 3.48763482e-004 3.48763482e-004
      6.97526964e-004 6.56309444e-003 5.70703880e-004 3.80469253e-004
      9.51173133e-005 2.85351940e-004 0. 0. 3.17057711e-005
      2.85351940e-004 4.43880796e-004 3.80469253e-004 0. 1.26823084e-004
      2.53646169e-004 1.26823084e-004 4.43880796e-004 1.93405198e-003
      2.76791379e-002 4.79708314e-002 8.56055820e-004 2.03551054e-002
      5.38998109e-004 3.17057711e-004 7.92644278e-004 5.51680429e-003
      1.07799622e-003 1.17311347e-003 6.34115422e-005 7.92644278e-004
      1.14140776e-003 4.43880796e-004 1.10970193e-003 6.15091948e-003
      4.81293611e-002 1.31261889e-002 1.04629039e-003 4.43880772e-003
      5.07292338e-004 1.58528856e-004 4.75586567e-004 1.80722889e-003
      1.84527580e-002 5.26315812e-003 7.60938507e-004 3.83639825e-003
      6.34115422e-003 1.45846547e-003 5.23145217e-003 1.06214331e-002</_>
    <_>
      6.10970184e-002 6.88015204e-003 4.12175013e-003 1.01141408e-002
      4.91439458e-003 4.75586567e-004 8.05326551e-003 2.01965757e-002
      4.88268863e-003 5.70703880e-004 2.53646169e-004 4.75586567e-004
      7.89473671e-003 8.87761591e-004 2.46353839e-002 4.65440713e-002
      6.84844656e-003 6.02409651e-004 6.97526964e-004 2.21940398e-004
      6.02409651e-004 0. 7.60938507e-004 4.75586567e-004 1.10019026e-002
      6.34115422e-004 4.75586567e-004 4.43880796e-004 2.07989849e-002
      3.80469253e-004 4.82561812e-002 1.05263162e-002 5.23145217e-003
      5.70703880e-004 4.12175024e-004 7.92644278e-004 6.65821193e-004 0.
      2.85351940e-004 8.56055820e-004 2.85351940e-004 3.17057711e-005
      3.17057711e-005 3.17057711e-005 7.29232735e-004 6.34115422e-005
      8.24350049e-004 1.33164239e-003 1.19530754e-002 3.80469253e-004
      6.65821193e-004 2.53646169e-004 6.02409651e-004 0. 4.75586567e-004
      3.80469253e-004 2.51426753e-002 4.43880796e-004 7.60938507e-004
      4.43880796e-004 2.87571345e-002 2.53646169e-004 1.49651235e-002
      4.88268863e-003 6.34115422e-003 5.07292338e-004 2.85351940e-004
      6.02409651e-004 3.48763482e-004 3.17057711e-005 2.21940398e-004
      3.17057711e-004 2.53646169e-004 6.34115422e-005 3.17057711e-005 0.
      5.38998109e-004 3.17057711e-005 3.48763482e-004 2.53646169e-004
      5.38998109e-004 0. 6.34115422e-005 3.17057711e-005 3.17057711e-005
      0. 3.17057711e-005 3.17057711e-005 5.07292338e-004 0.
      3.17057711e-005 0. 3.48763482e-004 0. 4.43880796e-004
      3.17057711e-005 9.70196538e-003 1.14140776e-003 4.12175024e-004
      6.65821193e-004 2.85351940e-004 9.51173133e-005 3.80469253e-004
      3.80469253e-004 6.97526964e-004 6.34115422e-005 3.17057711e-005
      3.17057711e-005 5.07292338e-004 3.17057711e-005 5.07292338e-004
      7.92644278e-004 2.53646169e-002 3.80469253e-004 6.65821193e-004
      3.48763482e-004 2.53646169e-004 0. 4.43880796e-004 1.90234627e-004
      5.12365252e-002 4.12175024e-004 6.97526964e-004 3.17057711e-004
      1.32847177e-002 6.34115422e-005 5.35827503e-003 2.12428672e-003
      4.72415984e-003 1.08750788e-002 3.80469253e-004 2.48256177e-002
      2.85351940e-004 3.48763482e-004 6.34115422e-004 2.79644895e-002
      3.48763482e-004 5.07292338e-004 6.34115422e-005 7.29232735e-004
      4.43880796e-004 4.43880796e-004 1.01458468e-003 1.54090049e-002
      5.70703880e-004 4.75586567e-004 6.34115422e-005 3.80469253e-004
      3.17057711e-005 0. 6.34115422e-005 2.21940398e-004 6.02409651e-004
      2.53646169e-004 3.17057711e-005 3.17057711e-004 6.65821193e-004
      5.38998109e-004 1.77552318e-003 4.34369035e-003 4.43880796e-004
      4.43880796e-004 6.34115422e-005 1.07799622e-003 0. 3.17057711e-005
      6.34115422e-005 9.19467362e-004 0. 6.34115422e-005 0.
      3.17057711e-005 9.51173133e-005 0. 0. 3.17057711e-004
      5.38998109e-004 3.48763482e-004 6.34115422e-005 4.75586567e-004 0.
      3.17057711e-005 0. 2.53646169e-004 8.87761591e-004 6.02409651e-004
      9.51173133e-005 5.38998109e-004 6.97526964e-004 3.48763482e-004
      5.38998109e-004 2.88522500e-003 9.86049417e-003 2.66011413e-002
      4.43880796e-004 4.85415347e-002 3.80469253e-004 3.80469253e-004
      4.75586567e-004 1.25871906e-002 6.65821193e-004 8.24350049e-004
      3.17057711e-005 6.97526964e-004 3.48763482e-004 3.48763482e-004
      6.97526964e-004 6.56309444e-003 5.70703880e-004 3.80469253e-004
      9.51173133e-005 2.85351940e-004 0. 0. 3.17057711e-005
      2.85351940e-004 4.43880796e-004 3.80469253e-004 0. 1.26823084e-004
      2.53646169e-004 1.26823084e-004 4.43880796e-004 1.93405198e-003
      2.76791379e-002 4.79708314e-002 8.56055820e-004 2.03551054e-002
      5.38998109e-004 3.17057711e-004 7.92644278e-004 5.51680429e-003
      1.07799622e-003 1.17311347e-003 6.34115422e-005 7.92644278e-004
      1.14140776e-003 4.43880796e-004 1.10970193e-003 6.15091948e-003
      4.81293611e-002 1.31261889e-002 1.04629039e-003 4.43880772e-003
      5.07292338e-004 1.58528856e-004 4.75586567e-004 1.80722889e-003
      1.84527580e-002 5.26315812e-003 7.60938507e-004 3.83639825e-003
      6.34115422e-003 1.45846547e-003 5.23145217e-003 1.06214331e-002</_>
    <_>
      4.60684858e-002 1.05580213e-002 5.67533309e-003 1.06848450e-002
      6.02409616e-003 7.60938507e-004 1.05897272e-002 2.08306909e-002
      5.48509834e-003 9.19467362e-004 6.02409651e-004 6.97526964e-004
      1.03043756e-002 1.39505393e-003 2.42549144e-002 3.53836380e-002
      1.05580213e-002 4.43880796e-004 8.56055820e-004 7.92644278e-004
      6.34115422e-004 9.51173133e-005 1.20481930e-003 6.97526964e-004
      1.12872543e-002 5.07292338e-004 7.92644278e-004 4.75586567e-004
      2.01014578e-002 6.02409651e-004 3.28154713e-002 1.06214331e-002
      7.07038678e-003 1.10970193e-003 4.75586567e-004 6.65821193e-004
      5.38998109e-004 6.34115422e-005 1.01458468e-003 1.17311347e-003
