<?xml version="1.0"?>
<opencv_storage>
<opencv_ml_svm>
  <format>3</format>
  <svmType>C_SVC</svmType>
  <kernel>
    <type>RBF</type>
    <gamma>5.0625000000000009e-001</gamma></kernel>
  <C>3.1250000000000000e+002</C>
  <term_criteria><epsilon>1.1920928955078125e-007</epsilon>
    <iterations>1000</iterations></term_criteria>
  <var_count>256</var_count>
  <class_count>2</class_count>
  <class_labels type_id="opencv-matrix">
    <rows>2</rows>
    <cols>1</cols>
    <dt>i</dt>
    <data>
      -1082130432 1065353216</data></class_labels>
  <sv_total>43</sv_total>
  <support_vectors>
    <_>
      5.16804047e-002 1.15726059e-002 5.99239068e-003 1.24603678e-002
      6.08750805e-003 1.04629039e-003 8.71908665e-003 1.87381096e-002
      5.51680429e-003 7.60938507e-004 5.07292338e-004 6.02409651e-004
      8.40202905e-003 1.14140776e-003 1.89283453e-002 3.29740010e-002
      9.48002562e-003 5.70703880e-004 9.82878846e-004 6.02409651e-004
      8.87761591e-004 6.34115422e-005 1.20481930e-003 3.17057711e-004
      1.10019026e-002 6.34115422e-004 6.97526964e-004 4.75586567e-004
      1.87381096e-002 5.07292338e-004 3.10716555e-002 1.07482560e-002
      8.62396974e-003 1.01458468e-003 7.92644278e-004 9.51173133e-004
      9.19467362e-004 6.34115422e-005 1.01458468e-003 9.51173133e-004
      1.39505393e-003 1.58528856e-004 9.51173133e-005 9.51173133e-005
      8.56055820e-004 9.51173133e-005 9.19467362e-004 1.39505393e-003
      1.43944202e-002 6.34115422e-004 6.65821193e-004 2.53646169e-004
      8.24350049e-004 0. 7.92644278e-004 5.38998109e-004 2.89473683e-002
      2.85351940e-004 7.29232735e-004 5.38998109e-004 2.89473683e-002
      3.80469253e-004 1.35383643e-002 5.00951195e-003 7.19721010e-003
      1.39505393e-003 8.87761591e-004 6.65821193e-004 5.70703880e-004
      6.34115422e-005 3.80469253e-004 5.07292338e-004 6.97526964e-004
      1.26823084e-004 6.34115422e-005 9.51173133e-005 3.48763482e-004
      3.17057711e-005 3.80469253e-004 4.12175024e-004 1.39505393e-003
      3.17057711e-005 6.34115422e-005 3.17057711e-005 6.34115422e-005
      3.17057711e-005 0. 0. 1.04629039e-003 0. 6.34115422e-005 0.
      3.80469253e-004 0. 3.80469253e-004 4.12175024e-004 1.20798983e-002
      1.39505393e-003 1.14140776e-003 9.82878846e-004 6.02409651e-004
      1.58528856e-004 6.97526964e-004 6.34115422e-004 1.04629039e-003
      1.26823084e-004 6.34115422e-005 3.17057711e-005 6.34115422e-004
      6.34115422e-005 8.24350049e-004 6.34115422e-004 2.78693717e-002
      6.02409651e-004 1.10970193e-003 2.53646169e-004 6.34115422e-004 0.
      5.07292338e-004 2.53646169e-004 5.46607487e-002 5.38998109e-004
      1.23652501e-003 4.43880796e-004 1.29993660e-002 4.43880796e-004
      5.77044999e-003 1.74381735e-003 7.95814861e-003 1.54090049e-002
      1.33164239e-003 2.87571345e-002 7.29232735e-004 1.36334810e-003
      1.07799622e-003 3.00570708e-002 6.65821193e-004 7.29232735e-004
      1.26823084e-004 9.51173133e-004 5.38998109e-004 7.29232735e-004
      1.26823084e-003 1.42675964e-002 8.87761591e-004 8.87761591e-004 0.
      6.02409651e-004 6.34115422e-005 0. 3.17057711e-005 4.12175024e-004
      7.92644278e-004 6.65821193e-004 1.26823084e-004 5.07292338e-004
      8.87761591e-004 5.70703880e-004 1.39505393e-003 4.21686750e-003
      1.07799622e-003 6.97526964e-004 3.17057711e-005 1.10970193e-003
      9.51173133e-005 1.26823084e-004 2.53646169e-004 1.17311347e-003
      9.51173133e-005 6.34115422e-005 0. 6.34115422e-005 6.34115422e-005
      6.34115422e-005 1.26823084e-004 1.04629039e-003 9.51173133e-004
      6.97526964e-004 3.17057711e-005 6.34115422e-004 1.26823084e-004 0.
      0. 7.92644278e-004 1.07799622e-003 7.29232735e-004 1.58528856e-004
      4.43880796e-004 1.33164239e-003 5.38998109e-004 6.97526964e-004
      3.51934042e-003 1.18896635e-002 2.69816108e-002 1.26823084e-003
      4.60367799e-002 5.70703880e-004 7.29232735e-004 5.70703880e-004
      1.36334812e-002 6.34115422e-004 1.14140776e-003 1.26823084e-004
      1.39505393e-003 5.38998109e-004 4.43880796e-004 8.24350049e-004
      6.18262542e-003 1.26823084e-003 6.34115422e-004 9.51173133e-005
      7.60938507e-004 0. 0. 1.58528856e-004 1.90234627e-004
      7.60938507e-004 6.65821193e-004 1.58528856e-004 5.38998109e-004
      6.34115422e-004 3.17057711e-004 1.14140776e-003 2.09258078e-003
      1.81039944e-002 2.93912496e-002 1.49017118e-003 1.75332911e-002
      7.60938507e-004 4.43880796e-004 1.04629039e-003 7.51426769e-003
      1.55358273e-003 1.42675964e-003 1.26823084e-004 1.14140776e-003
      1.01458468e-003 8.24350049e-004 1.26823084e-003 7.98985455e-003
      3.02473046e-002 1.03677865e-002 1.58528856e-003 5.58021571e-003
      5.38998109e-004 2.53646169e-004 9.51173133e-004 3.01204808e-003
      1.85795818e-002 5.32656955e-003 1.10970193e-003 4.21686750e-003
      6.59480039e-003 2.82181357e-003 6.88015204e-003 1.52504751e-002</_>
    <_>
      4.97463532e-002 9.25808493e-003 5.23145217e-003 1.05580213e-002
      4.91439458e-003 7.29232735e-004 7.29232701e-003 1.64870005e-002
      4.85098269e-003 7.29232735e-004 7.92644278e-004 6.97526964e-004
      7.32403295e-003 1.07799622e-003 2.05453392e-002 3.51299942e-002
      8.43373500e-003 6.02409651e-004 5.38998109e-004 5.38998109e-004
      8.56055820e-004 0. 9.19467362e-004 4.12175024e-004 9.60684847e-003
      5.38998109e-004 5.07292338e-004 4.75586567e-004 1.74381733e-002
      3.80469253e-004 3.54470499e-002 1.04946103e-002 7.35573890e-003
      5.07292338e-004 5.07292338e-004 6.02409651e-004 6.65821193e-004
      6.34115422e-005 4.75586567e-004 6.97526964e-004 8.24350049e-004 0.
      9.51173133e-005 0. 7.60938507e-004 9.51173133e-005 8.87761591e-004
      1.04629039e-003 1.47748888e-002 4.43880796e-004 6.02409651e-004
      4.75586567e-004 5.38998109e-004 3.17057711e-005 4.43880796e-004
      6.65821193e-004 2.84083709e-002 5.07292338e-004 6.97526964e-004
      4.75586567e-004 2.52377931e-002 3.80469253e-004 1.29359541e-002
      3.48763471e-003 6.43627159e-003 1.04629039e-003 4.75586567e-004
      8.87761591e-004 3.17057711e-004 6.34115422e-005 5.38998109e-004
      3.80469253e-004 5.70703880e-004 3.17057711e-005 3.17057711e-005
      6.34115422e-005 4.12175024e-004 3.17057711e-005 4.75586567e-004
      3.48763482e-004 8.24350049e-004 0. 9.51173133e-005 9.51173133e-005
      6.34115422e-005 0. 9.51173133e-005 3.17057711e-005 7.92644278e-004
      0. 0. 3.17057711e-005 4.75586567e-004 0. 4.12175024e-004
      2.53646169e-004 1.07165501e-002 1.17311347e-003 5.07292338e-004
      1.14140776e-003 6.34115422e-004 0. 5.70703880e-004 4.12175024e-004
      1.23652501e-003 6.34115422e-005 9.51173133e-005 9.51173133e-005
      6.34115422e-004 0. 7.92644278e-004 5.70703880e-004 3.01521886e-002
      5.38998109e-004 7.92644278e-004 3.80469253e-004 5.07292338e-004 0.
      6.34115422e-004 3.17057711e-004 5.43436892e-002 4.43880796e-004
      9.82878846e-004 2.53646169e-004 1.37920100e-002 4.43880796e-004
      5.00951195e-003 1.68040581e-003 8.02155957e-003 1.67723522e-002
      1.07799622e-003 2.86937226e-002 5.38998109e-004 1.01458468e-003
      9.82878846e-004 3.01521886e-002 4.75586567e-004 9.51173133e-004
      9.51173133e-005 7.92644278e-004 3.17057711e-004 6.02409651e-004
      9.51173133e-004 1.26188966e-002 1.07799622e-003 4.43880796e-004
      1.58528856e-004 4.12175024e-004 6.34115422e-005 3.17057711e-005
      6.34115422e-005 5.07292338e-004 8.56055820e-004 3.17057711e-004
      6.34115422e-005 6.02409651e-004 9.19467362e-004 4.43880796e-004
      7.92644278e-004 4.15345607e-003 7.60938507e-004 1.01458468e-003
      9.51173133e-005 1.17311347e-003 6.34115422e-005 6.34115422e-005
      1.26823084e-004 1.26823084e-003 9.51173133e-005 2.53646169e-004 0.
      0. 3.17057711e-005 6.34115422e-005 6.34115422e-005 1.10970193e-003
      8.56055820e-004 5.07292338e-004 3.17057711e-005 8.56055820e-004
      3.17057711e-005 9.51173133e-005 9.51173133e-005 4.75586567e-004
      1.10970193e-003 4.43880796e-004 9.51173133e-005 4.75586567e-004
      7.60938507e-004 5.07292338e-004 6.97526964e-004 3.10716545e-003
      1.39188329e-002 2.82498412e-002 1.07799622e-003 4.87951823e-002
      6.02409651e-004 6.34115422e-004 5.38998109e-004 1.40456567e-002
      6.02409651e-004 6.34115422e-004 3.17057711e-005 8.87761591e-004
      4.12175024e-004 5.70703880e-004 6.65821193e-004 6.94356393e-003
      1.17311347e-003 4.75586567e-004 1.90234627e-004 6.34115422e-004
      6.34115422e-005 3.17057711e-005 9.51173133e-005 4.12175024e-004
      6.02409651e-004 5.07292338e-004 0. 4.43880796e-004 6.34115422e-004
      3.17057711e-004 4.75586567e-004 1.36334810e-003 2.37793270e-002
      4.10272665e-002 1.36334810e-003 2.02916935e-002 5.07292338e-004
      4.12175024e-004 6.65821193e-004 7.83132575e-003 6.65821193e-004
      1.36334810e-003 1.26823084e-004 1.01458468e-003 6.97526964e-004
      6.02409651e-004 1.01458468e-003 6.59480039e-003 4.12175022e-002
      1.30944829e-002 1.29993656e-003 6.27774233e-003 6.02409651e-004
      2.53646169e-004 4.75586567e-004 2.72669620e-003 1.87698156e-002
      4.81927721e-003 9.51173133e-004 3.45592899e-003 6.08750805e-003
      2.34622695e-003 6.78503467e-003 1.41090676e-002</_>
    <_>
      4.80659492e-002 9.98731796e-003 5.23145217e-003 9.70196538e-003
      3.64616350e-003 7.29232735e-004 6.94356393e-003 1.59797091e-002
      3.89980967e-003 7.60938507e-004 5.07292338e-004 6.97526964e-004
      6.94356393e-003 7.60938507e-004 1.97526943e-002 3.87761556e-002
      8.94102734e-003 3.80469253e-004 9.19467362e-004 4.12175024e-004
      6.34115422e-004 6.34115422e-005 8.87761591e-004 5.38998109e-004
      9.63855442e-003 2.85351940e-004 5.38998109e-004 2.85351940e-004
      1.56943556e-002 2.21940398e-004 3.70957516e-002 1.08750788e-002
      7.26062153e-003 8.56055820e-004 5.07292338e-004 7.60938507e-004
      5.38998109e-004 3.17057711e-005 6.02409651e-004 5.70703880e-004
      1.20481930e-003 9.51173133e-005 9.51173133e-005 6.34115422e-005
      1.04629039e-003 6.34115422e-005 5.70703880e-004 1.26823084e-003
      1.48383006e-002 4.12175024e-004 5.70703880e-004 2.53646169e-004
      6.34115422e-004 0. 4.12175024e-004 2.53646169e-004 2.70450227e-002
      2.85351940e-004 6.34115422e-004 3.48763482e-004 2.51426753e-002
      2.53646169e-004 1.31896008e-002 3.07545974e-003 4.85098269e-003
      9.19467362e-004 5.38998109e-004 5.38998109e-004 3.80469253e-004
      9.51173133e-005 3.80469253e-004 2.53646169e-004 3.80469253e-004 0.
      0. 6.34115422e-005 4.75586567e-004 6.34115422e-005 4.43880796e-004
      3.80469253e-004 5.70703880e-004 0. 6.34115422e-005 6.34115422e-005
      3.17057711e-005 0. 3.17057711e-005 0. 4.75586567e-004
      9.51173133e-005 0. 0. 2.85351940e-004 3.17057711e-005
      2.21940398e-004 9.51173133e-005 1.10336086e-002 1.14140776e-003
      6.34115422e-004 7.92644278e-004 4.75586567e-004 3.17057711e-005
      3.48763482e-004 4.75586567e-004 6.65821193e-004 6.34115422e-005
      6.34115422e-005 0. 5.70703880e-004 1.26823084e-004 5.38998109e-004
      7.29232735e-004 3.04375403e-002 4.75586567e-004 6.97526964e-004
      4.75586567e-004 6.02409651e-004 0. 3.48763482e-004 1.26823084e-004
      4.95878235e-002 3.48763482e-004 4.75586567e-004 2.53646169e-004
      1.39822448e-002 1.58528856e-004 4.59733652e-003 1.68040581e-003
      7.00697536e-003 1.64552946e-002 1.23652501e-003 2.27964483e-002
      4.12175024e-004 9.51173133e-004 9.51173133e-004 3.00253648e-002
      5.07292338e-004 5.70703880e-004 0. 7.92644278e-004 7.60938507e-004
      5.70703880e-004 7.29232735e-004 1.23335449e-002 9.51173133e-004
      6.34115422e-004 9.51173133e-005 3.48763482e-004 9.51173133e-005
      3.17057711e-005 0. 5.38998109e-004 7.29232735e-004 6.02409651e-004
      9.51173133e-005 3.48763482e-004 5.07292338e-004 3.48763482e-004
      1.36334810e-003 3.39251733e-003 9.19467362e-004 1.14140776e-003
      3.17057711e-005 6.02409651e-004 9.51173133e-005 6.34115422e-005
      9.51173133e-005 6.65821193e-004 3.17057711e-005 9.51173133e-005 0.
      9.51173133e-005 6.34115422e-005 9.51173133e-005 6.34115422e-005
      6.97526964e-004 8.87761591e-004 6.02409651e-004 6.34115422e-005
      3.17057711e-004 3.17057711e-005 0. 3.17057711e-005 3.17057711e-004
      7.92644278e-004 2.85351940e-004 0. 2.85351940e-004 5.07292338e-004
      2.85351940e-004 7.29232735e-004 2.09258078e-003 1.18896635e-002
      3.03424224e-002 9.19467362e-004 4.12809141e-002 2.85351940e-004
      4.12175024e-004 6.02409651e-004 1.27140144e-002 6.65821193e-004
      9.19467362e-004 6.34115422e-005 5.70703880e-004 2.85351940e-004
      2.53646169e-004 5.38998109e-004 5.42168692e-003 1.58528856e-003
      7.29232735e-004 9.51173133e-005 3.48763482e-004 0. 3.17057711e-005
      6.34115422e-005 1.58528856e-004 4.43880796e-004 6.02409651e-004
      6.34115422e-005 1.90234627e-004 3.17057711e-004 1.58528856e-004
      6.02409651e-004 1.61699427e-003 3.33544724e-002 5.55485114e-002
      1.23652501e-003 2.18135696e-002 2.85351940e-004 5.38998109e-004
      6.97526964e-004 6.65821182e-003 1.01458468e-003 1.36334810e-003
      6.34115422e-005 6.34115422e-004 8.87761591e-004 8.87761591e-004
      1.55358273e-003 7.41915032e-003 5.64679764e-002 1.65504124e-002
      1.64870010e-003 4.94610006e-003 6.65821193e-004 2.53646169e-004
      7.92644278e-004 2.15599244e-003 1.88332275e-002 4.28027892e-003
      6.34115422e-004 2.69499049e-003 7.07038678e-003 1.87064044e-003
      6.68991776e-003 1.17945466e-002</_>
    <_>
      2.23937854e-001 1.36968931e-002 1.89917572e-002 1.27140144e-002
      1.13506662e-002 1.14140776e-003 1.26188966e-002 1.29042482e-002
      2.00063419e-002 1.29993656e-003 1.90234627e-003 1.26823084e-003
      1.23018390e-002 7.92644278e-004 1.71845276e-002 1.23969559e-002
      1.43310083e-002 7.29232735e-004 1.87064044e-003 5.38998109e-004
      7.92644278e-004 3.17057711e-005 1.23652501e-003 2.21940398e-004
      1.34749524e-002 4.43880796e-004 1.01458468e-003 6.65821193e-004
      1.36651872e-002 1.26823084e-004 1.24603678e-002 2.75840214e-003
      2.07989849e-002 1.61699427e-003 1.29993656e-003 1.26823084e-003
      9.19467362e-004 9.51173133e-005 1.49017118e-003 1.01458468e-003
      2.94863665e-003 1.58528856e-004 2.21940398e-004 2.85351940e-004
      1.52187701e-003 6.34115422e-005 1.36334810e-003 1.10970193e-003
      1.31578948e-002 3.80469253e-004 1.10970193e-003 4.75586567e-004
      1.26823084e-003 1.26823084e-004 1.04629039e-003 2.53646169e-004
      2.12111603e-002 3.80469253e-004 1.17311347e-003 4.43880796e-004
      2.33988594e-002 1.90234627e-004 8.05326551e-003 2.63157906e-003
      1.03677865e-002 8.56055820e-004 9.82878846e-004 1.04629039e-003
      3.80469253e-004 3.17057711e-005 5.38998109e-004 3.17057711e-004
      1.01458468e-003 1.58528856e-004 1.58528856e-004 3.17057711e-005
      3.48763482e-004 3.17057711e-005 4.43880796e-004 3.17057711e-004
      1.20481930e-003 9.51173133e-005 1.58528856e-004 9.51173133e-005
      9.51173133e-005 0. 6.34115422e-005 3.17057711e-005 4.12175024e-004
      1.58528856e-004 6.34115422e-005 6.34115422e-005 4.43880796e-004
      3.17057711e-005 3.80469253e-004 6.34115422e-005 1.63918827e-002
      1.58528856e-003 1.58528856e-003 1.07799622e-003 3.80469253e-004
      6.34115422e-005 4.75586567e-004 2.85351940e-004 1.68040581e-003
      2.53646169e-004 2.53646169e-004 3.80469253e-004 6.97526964e-004
      1.26823084e-004 1.04629039e-003 6.34115422e-004 1.36968931e-002
      4.12175024e-004 8.56055820e-004 2.53646169e-004 3.80469253e-004
      6.34115422e-005 5.07292338e-004 1.58528856e-004 1.44261252e-002
      4.12175024e-004 6.97526964e-004 5.38998109e-004 4.97780601e-003
      1.26823084e-004 3.07545974e-003 1.04629039e-003 1.86112877e-002
      1.26823084e-002 2.44134432e-003 1.74381733e-002 1.04629039e-003
      7.60938507e-004 1.04629039e-003 2.28915662e-002 2.18769815e-003
      1.58528856e-003 3.17057711e-004 1.10970193e-003 1.42675964e-003
      1.26823084e-003 1.80722889e-003 8.56055785e-003 1.45846547e-003
      6.34115422e-004 1.26823084e-004 5.38998109e-004 1.26823084e-004
      6.34115422e-005 2.21940398e-004 4.12175024e-004 1.49017118e-003
      5.70703880e-004 6.34115422e-005 3.17057711e-004 7.60938507e-004
      2.85351940e-004 1.04629039e-003 2.91693094e-003 2.31452123e-003
      1.01458468e-003 1.90234627e-004 1.07799622e-003 6.34115422e-005
      6.34115422e-005 9.51173133e-005 7.92644278e-004 2.21940398e-004
      9.51173133e-005 3.17057711e-005 9.51173133e-005 2.21940398e-004
      3.17057711e-004 2.21940398e-004 9.82878846e-004 8.87761591e-004
      3.17057711e-004 1.90234627e-004 3.80469253e-004 1.26823084e-004
      9.51173133e-005 2.21940398e-004 4.12175024e-004 1.26823084e-003
      4.43880796e-004 1.90234627e-004 7.29232735e-004 1.04629039e-003
      3.80469253e-004 1.14140776e-003 3.07545974e-003 1.47748888e-002
      1.14140771e-002 1.55358273e-003 1.24603678e-002 6.65821193e-004
      2.85351940e-004 7.92644278e-004 3.99492728e-003 1.45846547e-003
      8.87761591e-004 1.26823084e-004 8.56055820e-004 8.24350049e-004
      5.38998109e-004 1.04629039e-003 3.45592899e-003 1.36334810e-003
      4.12175024e-004 1.26823084e-004 3.17057711e-004 1.26823084e-004
      3.17057711e-005 2.21940398e-004 2.21940398e-004 1.14140776e-003
      4.12175024e-004 1.58528856e-004 4.75586567e-004 5.07292338e-004
      6.34115422e-005 7.29232735e-004 4.12175024e-004 3.50665823e-002
      3.03107165e-002 1.74381735e-003 8.68738070e-003 8.56055820e-004
      3.80469253e-004 1.17311347e-003 3.83639825e-003 1.93405198e-003
      1.26823084e-003 1.90234627e-004 6.02409651e-004 1.10970193e-003
      1.20481930e-003 1.83893472e-003 4.91439458e-003 2.90424861e-002
      7.26062153e-003 1.26823084e-003 2.31452123e-003 3.17057711e-004
      2.21940398e-004 7.60938507e-004 1.42675964e-003 1.06214331e-002
      3.20228282e-003 1.07799622e-003 2.75840214e-003 3.74128087e-003
      1.14140776e-003 5.00951195e-003 8.65567569e-003</_>
    <_>
      5.10779954e-002 1.07799619e-002 7.10209273e-003 1.35700693e-002
      6.53138850e-003 1.01458468e-003 9.95561201e-003 2.16233358e-002
      6.18262542e-003 8.56055820e-004 8.56055820e-004 5.70703880e-004
      9.67026036e-003 9.82878846e-004 2.30500959e-002 3.50031704e-002
      1.07482560e-002 8.56055820e-004 7.60938507e-004 3.48763482e-004
      7.60938507e-004 0. 1.29993656e-003 6.34115422e-004 1.31896008e-002
      3.17057711e-004 2.85351940e-004 4.43880796e-004 2.05770452e-002
      6.97526964e-004 3.30057070e-002 1.14140771e-002 7.79961934e-003
      9.19467362e-004 7.29232735e-004 8.87761591e-004 7.92644278e-004
      1.26823084e-004 6.02409651e-004 5.38998109e-004 1.07799622e-003
      3.17057711e-005 9.51173133e-005 9.51173133e-005 1.01458468e-003
      1.58528856e-004 1.04629039e-003 1.42675964e-003 1.53772989e-002
      6.65821193e-004 5.07292338e-004 5.70703880e-004 1.29993656e-003 0.
      8.56055820e-004 7.92644278e-004 2.55865566e-002 6.34115422e-004
      7.60938507e-004 4.43880796e-004 2.93912496e-002 5.38998109e-004
      1.49334176e-002 4.40710224e-003 7.95814861e-003 9.82878846e-004
      6.34115422e-004 1.29993656e-003 5.07292338e-004 9.51173133e-005
      6.97526964e-004 7.29232735e-004 4.75586567e-004 3.17057711e-005
      3.17057711e-005 9.51173133e-005 4.75586567e-004 3.17057711e-005
      6.02409651e-004 6.65821193e-004 1.17311347e-003 0. 6.34115422e-005
      3.17057711e-005 0. 0. 0. 6.34115422e-005 8.87761591e-004
      9.51173133e-005 3.17057711e-005 0. 6.02409651e-004 0.
      1.58528856e-004 1.58528856e-004 1.18896635e-002 1.14140776e-003
      6.02409651e-004 9.82878846e-004 6.65821193e-004 6.34115422e-005
      4.75586567e-004 5.07292338e-004 1.17311347e-003 3.17057711e-005
      3.17057711e-005 6.34115422e-005 9.19467362e-004 1.26823084e-004
      8.87761591e-004 6.97526964e-004 2.27964483e-002 4.75586567e-004
      6.34115422e-004 3.80469253e-004 6.02409651e-004 3.17057711e-005
      8.56055820e-004 4.12175024e-004 4.61318977e-002 5.38998109e-004
      1.14140776e-003 2.85351940e-004 1.23969559e-002 3.17057711e-004
      6.37285970e-003 2.72669620e-003 7.45085627e-003 1.47748888e-002
      1.29993656e-003 2.79961955e-002 8.87761591e-004 1.04629039e-003
      1.04629039e-003 3.05326562e-002 7.29232735e-004 8.87761591e-004 0.
      9.51173133e-004 8.87761591e-004 8.87761591e-004 1.26823084e-003
      1.53138870e-002 9.19467362e-004 5.38998109e-004 1.26823084e-004
      8.56055820e-004 3.17057711e-005 6.34115422e-005 3.17057711e-005
      5.07292338e-004 1.01458468e-003 6.34115422e-004 3.17057711e-005
      5.07292338e-004 7.92644278e-004 5.70703880e-004 1.61699427e-003
      5.07292338e-003 1.17311347e-003 1.20481930e-003 1.90234627e-004
      1.23652501e-003 9.51173133e-005 0. 3.17057711e-005 1.07799622e-003
      9.51173133e-005 6.34115422e-005 0. 0. 1.26823084e-004
      6.34115422e-005 1.90234627e-004 1.14140776e-003 1.01458468e-003
      7.92644278e-004 1.26823084e-004 5.07292338e-004 6.34115422e-005
      9.51173133e-005 6.34115422e-005 5.38998109e-004 7.60938507e-004
      5.07292338e-004 6.34115422e-005 3.48763482e-004 1.23652501e-003
      6.34115422e-004 7.92644278e-004 3.64616350e-003 1.14140771e-002
      2.31769178e-002 1.04629039e-003 3.89980972e-002 4.12175024e-004
      5.70703880e-004 1.20481930e-003 1.27457194e-002 1.07799622e-003
      9.19467362e-004 6.34115422e-005 1.39505393e-003 5.07292338e-004
      6.02409651e-004 8.87761591e-004 7.38744438e-003 1.14140776e-003
      4.43880796e-004 9.51173133e-005 4.75586567e-004 3.17057711e-005
      1.26823084e-004 6.34115422e-005 2.53646169e-004 8.24350049e-004
      5.07292338e-004 6.34115422e-005 4.43880796e-004 5.38998109e-004
      3.80469253e-004 8.87761591e-004 2.40963860e-003 2.13696901e-002
      2.97717191e-002 1.20481930e-003 1.58528853e-002 8.24350049e-004
      6.65821193e-004 8.87761591e-004 6.97526941e-003 1.10970193e-003
      1.52187701e-003 3.17057711e-004 9.51173133e-004 9.82878846e-004
      6.97526964e-004 1.36334810e-003 7.57767912e-003 3.19911242e-002
      1.01458468e-002 1.52187701e-003 6.08750805e-003 5.70703880e-004
      3.48763482e-004 1.01458468e-003 2.69499049e-003 1.74698792e-002
      5.58021571e-003 1.14140776e-003 4.97780601e-003 7.57767912e-003
      2.56816740e-003 7.26062153e-003 1.55041218e-002</_>
    <_>
      5.98921999e-002 1.14140771e-002 7.83132575e-003 1.43310083e-002
      6.56309444e-003 7.60938507e-004 1.09701967e-002 2.26062145e-002
      6.94356393e-003 1.04629039e-003 1.10970193e-003 7.29232735e-004
      1.07799619e-002 1.26823084e-003 2.86303107e-002 4.23906147e-002
      1.06214331e-002 4.75586567e-004 9.82878846e-004 6.34115422e-004
      1.07799622e-003 6.34115422e-005 9.51173133e-004 7.29232735e-004
      1.25871906e-002 8.87761591e-004 9.19467362e-004 6.02409651e-004
      2.14331001e-002 6.02409651e-004 4.28027883e-002 1.39505388e-002
      8.62396974e-003 8.24350049e-004 1.14140776e-003 6.02409651e-004
      7.29232735e-004 1.26823084e-004 7.29232735e-004 1.20481930e-003
      1.23652501e-003 1.90234627e-004 6.34115422e-005 1.26823084e-004
      8.56055820e-004 2.21940398e-004 8.87761591e-004 1.58528856e-003
      1.52821811e-002 6.34115422e-004 6.34115422e-004 5.07292338e-004
      4.43880796e-004 6.34115422e-005 8.24350049e-004 3.48763482e-004
      2.50792652e-002 4.43880796e-004 9.51173133e-004 5.07292338e-004
      2.68864930e-002 3.17057711e-004 1.47114778e-002 4.75586578e-003
      6.94356393e-003 1.23652501e-003 9.82878846e-004 7.92644278e-004
      4.12175024e-004 6.34115422e-005 5.07292338e-004 5.07292338e-004
      6.34115422e-004 3.17057711e-005 6.34115422e-005 6.34115422e-005
      4.12175024e-004 0. 5.07292338e-004 5.70703880e-004 1.26823084e-003
      3.17057711e-005 1.26823084e-004 1.26823084e-004 6.34115422e-005 0.
      6.34115422e-005 3.17057711e-005 8.24350049e-004 0. 3.17057711e-005
      0. 5.70703880e-004 0. 2.53646169e-004 1.58528856e-004
      1.15726059e-002 1.49017118e-003 7.29232735e-004 7.92644278e-004
      5.07292338e-004 1.26823084e-004 6.02409651e-004 4.75586567e-004
      8.24350049e-004 1.58528856e-004 9.51173133e-005 2.21940398e-004
      6.65821193e-004 1.58528856e-004 7.92644278e-004 6.97526964e-004
      2.20989212e-002 4.75586567e-004 7.60938507e-004 5.70703880e-004
      5.07292338e-004 3.17057711e-005 7.60938507e-004 3.17057711e-004
      4.03931513e-002 3.17057711e-004 9.82878846e-004 6.02409651e-004
      1.11287255e-002 2.21940398e-004 5.83386188e-003 1.83893472e-003
      8.65567569e-003 1.50285354e-002 1.33164239e-003 2.49207355e-002
      6.34115422e-004 1.10970193e-003 1.26823084e-003 2.53012050e-002
      9.19467362e-004 1.14140776e-003 3.17057711e-005 8.24350049e-004
      1.07799622e-003 8.56055820e-004 1.23652501e-003 1.51553582e-002
      9.51173133e-004 4.43880796e-004 9.51173133e-005 5.70703880e-004
      2.21940398e-004 9.51173133e-005 6.34115422e-005 2.21940398e-004
      1.01458468e-003 3.80469253e-004 0. 4.12175024e-004 9.51173133e-004
      4.75586567e-004 1.29993656e-003 5.04121743e-003 1.07799622e-003
      8.56055820e-004 1.58528856e-004 6.65821193e-004 9.51173133e-005
      6.34115422e-005 6.34115422e-005 8.56055820e-004 6.34115422e-005
      1.26823084e-004 3.17057711e-005 6.34115422e-005 3.17057711e-005
      3.17057711e-005 1.58528856e-004 9.51173133e-004 7.60938507e-004
      7.29232735e-004 1.26823084e-004 5.07292338e-004 0. 0.
      6.34115422e-005 4.75586567e-004 9.51173133e-004 5.07292338e-004
      6.34115422e-005 2.85351940e-004 9.51173133e-004 4.75586567e-004
      7.29232735e-004 4.21686750e-003 1.13506662e-002 2.09575146e-002
      1.26823084e-003 3.38617638e-002 6.02409651e-004 4.75586567e-004
      8.87761591e-004 1.14140771e-002 5.07292338e-004 5.38998109e-004 0.
      1.07799622e-003 6.65821193e-004 4.75586567e-004 1.01458468e-003
      6.75332919e-003 1.07799622e-003 6.34115422e-004 2.21940398e-004
      2.53646169e-004 6.34115422e-005 6.34115422e-005 3.17057711e-005
      3.48763482e-004 8.87761591e-004 3.80469253e-004 3.17057711e-005
      4.12175024e-004 5.38998109e-004 3.17057711e-004 8.56055820e-004
      2.40963860e-003 2.15599239e-002 3.26569453e-002 8.24350049e-004
      1.48383006e-002 4.43880796e-004 3.48763482e-004 9.51173133e-004
      6.27774233e-003 1.39505393e-003 1.42675964e-003 6.34115422e-005
      1.10970193e-003 8.56055820e-004 8.24350049e-004 1.87064044e-003
      8.14838335e-003 3.12618911e-002 9.25808493e-003 1.23652501e-003
      4.43880772e-003 3.17057711e-004 3.48763482e-004 9.19467362e-004
      1.55358273e-003 1.65187065e-002 5.07292338e-003 1.04629039e-003
      3.80469253e-003 6.72162324e-003 2.18769815e-003 7.73620792e-003
      1.35700693e-002</_>
    <_>
      4.87000644e-002 9.73367132e-003 5.45339240e-003 1.06531391e-002
      5.73874451e-003 1.01458468e-003 8.94102734e-003 1.79137606e-002
      6.15091948e-003 9.19467362e-004 5.70703880e-004 6.65821193e-004
      8.18008836e-003 8.87761591e-004 2.07672790e-002 3.79518084e-002
      8.33861809e-003 6.65821193e-004 7.92644278e-004 5.70703880e-004
      8.24350049e-004 9.51173133e-005 1.26823084e-003 5.38998109e-004
      1.01141408e-002 5.07292338e-004 5.38998109e-004 4.75586567e-004
      1.70577038e-002 3.80469253e-004 3.45275849e-002 1.04946103e-002
      6.97526941e-003 9.82878846e-004 7.29232735e-004 6.97526964e-004
      4.75586567e-004 0. 7.60938507e-004 7.29232735e-004 1.04629039e-003
      3.17057711e-005 6.34115422e-005 3.17057711e-005 6.97526964e-004
      3.17057711e-005 1.14140776e-003 1.14140776e-003 1.49017125e-002
      4.75586567e-004 6.02409651e-004 5.38998109e-004 7.60938507e-004 0.
      3.48763482e-004 3.80469253e-004 2.69181989e-002 3.80469253e-004
      5.70703880e-004 2.53646169e-004 2.33671535e-002 4.43880796e-004
      1.20164873e-002 4.47051367e-003 7.60938507e-003 8.87761591e-004
      6.34115422e-004 6.34115422e-004 4.43880796e-004 0. 4.43880796e-004
      4.75586567e-004 4.75586567e-004 6.34115422e-005 0. 6.34115422e-005
      2.85351940e-004 0. 5.38998109e-004 4.43880796e-004 1.20481930e-003
      0. 9.51173133e-005 3.17057711e-005 3.17057711e-005 0.
      6.34115422e-005 3.17057711e-005 8.24350049e-004 9.51173133e-005 0.
      0. 4.43880796e-004 0. 4.12175024e-004 2.53646169e-004
      1.06531391e-002 1.10970193e-003 7.29232735e-004 7.29232735e-004
      5.07292338e-004 0. 5.07292338e-004 5.07292338e-004 1.14140776e-003
      9.51173133e-005 3.17057711e-005 1.26823084e-004 8.87761591e-004
      9.51173133e-005 5.70703880e-004 7.92644278e-004 2.74571981e-002
      7.29232735e-004 8.24350049e-004 2.53646169e-004 3.80469253e-004
      6.34115422e-005 4.12175024e-004 1.58528856e-004 5.30120470e-002
      6.02409651e-004 7.60938507e-004 4.12175024e-004 1.38554219e-002
      4.12175024e-004 6.34115422e-003 1.42675964e-003 8.08497146e-003
      1.60431191e-002 1.20481930e-003 3.16740647e-002 5.70703880e-004
      1.14140776e-003 7.29232735e-004 3.04058343e-002 4.43880796e-004
      4.43880796e-004 9.51173133e-005 7.29232735e-004 8.56055820e-004
      4.12175024e-004 1.14140776e-003 1.47431828e-002 1.10970193e-003
      6.02409651e-004 9.51173133e-005 5.38998109e-004 6.34115422e-005
      3.17057711e-005 6.34115422e-005 6.02409651e-004 1.01458468e-003
      3.80469253e-004 9.51173133e-005 2.85351940e-004 7.92644278e-004
      3.17057711e-004 7.60938507e-004 4.05833870e-003 8.24350049e-004
      1.33164239e-003 6.34115422e-005 9.19467362e-004 0. 3.17057711e-005
      1.90234627e-004 9.51173133e-004 1.26823084e-004 0. 3.17057711e-005
      1.26823084e-004 3.17057711e-005 1.58528856e-004 0. 8.24350049e-004
      5.38998109e-004 6.65821193e-004 3.17057711e-005 7.29232735e-004
      9.51173133e-005 6.34115422e-005 1.26823084e-004 5.07292338e-004
      1.10970193e-003 5.70703880e-004 3.17057711e-005 6.02409651e-004
      8.56055820e-004 4.12175024e-004 7.29232735e-004 3.45592899e-003
      1.23018390e-002 2.86303107e-002 1.23652501e-003 5.14901727e-002
      4.43880796e-004 5.07292338e-004 9.19467362e-004 1.57260615e-002
      5.07292338e-004 8.24350049e-004 3.17057711e-005 9.51173133e-004
      5.07292338e-004 6.34115422e-004 1.20481930e-003 5.99239068e-003
      1.33164239e-003 6.34115422e-004 9.51173133e-005 5.07292338e-004
      9.51173133e-005 0. 3.17057711e-005 3.80469253e-004 7.92644278e-004
      4.75586567e-004 3.17057711e-005 6.34115422e-004 4.12175024e-004
      9.51173133e-005 6.65821193e-004 1.93405198e-003 2.15599239e-002
      3.64299305e-002 1.29993656e-003 1.90234631e-002 4.75586567e-004
      3.80469253e-004 8.56055820e-004 8.11667740e-003 1.04629039e-003
      1.29993656e-003 9.51173133e-005 9.82878846e-004 7.29232735e-004
      8.24350049e-004 1.64870010e-003 7.03868084e-003 3.42105255e-002
      1.22384271e-002 1.99746364e-003 5.67533309e-003 4.43880796e-004
      2.21940398e-004 6.97526964e-004 1.96575769e-003 1.86746996e-002
      5.04121743e-003 1.17311347e-003 4.56563104e-003 6.97526941e-003
      1.87064044e-003 6.24603685e-003 1.50285354e-002</_>
    <_>
      5.19340523e-002 1.11287255e-002 6.81674061e-003 1.33164236e-002
      5.73874451e-003 8.56055820e-004 8.52885190e-003 2.28598602e-002
      5.73874451e-003 1.17311347e-003 4.75586567e-004 6.02409651e-004
      8.59226380e-003 1.39505393e-003 2.27647424e-002 3.46861146e-002
      9.44831967e-003 6.34115422e-004 9.19467362e-004 6.02409651e-004
      7.92644278e-004 6.34115422e-005 1.33164239e-003 4.75586567e-004
      1.15726059e-002 4.75586567e-004 6.34115422e-004 3.80469253e-004
      1.79137606e-002 7.60938507e-004 2.90107802e-002 1.14774890e-002
      7.45085627e-003 8.56055820e-004 7.29232735e-004 9.82878846e-004
      5.07292338e-004 3.17057711e-005 6.34115422e-004 9.51173133e-004
      9.82878846e-004 3.17057711e-005 3.17057711e-005 6.34115422e-005
      7.29232735e-004 1.26823084e-004 1.04629039e-003 1.45846547e-003
      1.37285991e-002 5.38998109e-004 7.92644278e-004 3.48763482e-004
      9.82878846e-004 6.34115422e-005 7.92644278e-004 3.80469253e-004
      2.67596710e-002 6.97526964e-004 5.70703880e-004 3.80469253e-004
      2.44768541e-002 5.07292338e-004 1.36968931e-002 4.62904247e-003
      7.29232701e-003 1.14140776e-003 8.24350049e-004 1.26823084e-003
      5.07292338e-004 1.26823084e-004 6.02409651e-004 4.75586567e-004
      5.07292338e-004 0. 9.51173133e-005 1.26823084e-004 4.43880796e-004
      6.34115422e-005 5.07292338e-004 4.75586567e-004 1.14140776e-003
      6.34115422e-005 0. 6.34115422e-005 9.51173133e-005 0.
      1.26823084e-004 0. 1.07799622e-003 3.17057711e-005 3.17057711e-005
      3.17057711e-005 6.65821193e-004 3.17057711e-005 4.75586567e-004
      1.58528856e-004 1.10653136e-002 1.45846547e-003 7.92644278e-004
      1.23652501e-003 6.02409651e-004 3.17057711e-005 6.34115422e-004
      6.65821193e-004 1.26823084e-003 1.58528856e-004 0. 1.58528856e-004
      7.60938507e-004 6.34115422e-005 6.02409651e-004 6.65821193e-004
      2.37793270e-002 4.43880796e-004 6.97526964e-004 4.43880796e-004
      5.07292338e-004 1.26823084e-004 4.12175024e-004 5.07292338e-004
      4.89854142e-002 2.85351940e-004 8.56055820e-004 4.12175024e-004
      1.34432465e-002 4.12175024e-004 6.40456565e-003 1.87064044e-003
      8.43373500e-003 1.55675337e-002 1.10970193e-003 3.14838290e-002
      5.70703880e-004 1.20481930e-003 1.17311347e-003 3.54787558e-002
      7.60938507e-004 1.04629039e-003 6.34115422e-005 8.56055820e-004
      8.24350049e-004 7.60938507e-004 9.19467362e-004 1.53138870e-002
      9.19467362e-004 4.43880796e-004 1.90234627e-004 4.75586567e-004
      3.17057711e-005 9.51173133e-005 1.26823084e-004 5.38998109e-004
      7.92644278e-004 4.12175024e-004 9.51173133e-005 7.60938507e-004
      8.87761591e-004 2.53646169e-004 1.61699427e-003 4.15345607e-003
      6.97526964e-004 9.82878846e-004 3.17057711e-005 1.04629039e-003
      6.34115422e-005 3.17057711e-005 6.34115422e-005 1.23652501e-003
      1.58528856e-004 1.58528856e-004 0. 2.21940398e-004 3.17057711e-005
      1.26823084e-004 6.34115422e-005 8.56055820e-004 1.01458468e-003
      6.97526964e-004 3.17057711e-005 3.80469253e-004 1.26823084e-004 0.
      6.34115422e-005 3.80469253e-004 1.04629039e-003 2.85351940e-004
      6.34115422e-005 5.38998109e-004 1.07799622e-003 3.80469253e-004
      9.19467362e-004 4.02663276e-003 1.21433102e-002 2.66011413e-002
      1.68040581e-003 4.53392528e-002 7.29232735e-004 6.02409651e-004
      6.34115422e-004 1.64552946e-002 8.24350049e-004 8.87761591e-004
      1.26823084e-004 1.45846547e-003 3.80469253e-004 6.02409651e-004
      7.92644278e-004 6.84844656e-003 1.39505393e-003 9.19467362e-004
      1.26823084e-004 8.24350049e-004 6.34115422e-005 3.17057711e-005
      9.51173133e-005 4.12175024e-004 7.92644278e-004 5.07292338e-004
      1.58528856e-004 3.17057711e-004 4.43880796e-004 5.07292338e-004
      6.65821193e-004 2.50475598e-003 1.88332275e-002 3.04692462e-002
      1.20481930e-003 1.73430573e-002 5.38998109e-004 4.12175024e-004
      9.51173133e-004 8.08497146e-003 1.07799622e-003 1.49017118e-003
      2.21940398e-004 9.19467362e-004 7.92644278e-004 1.07799622e-003
      1.55358273e-003 7.45085627e-003 2.89156623e-002 9.60684847e-003
      1.83893472e-003 6.30944828e-003 6.34115422e-004 3.48763482e-004
      8.87761591e-004 2.69499049e-003 1.56626515e-002 6.15091948e-003
      1.26823084e-003 4.43880772e-003 6.30944828e-003 2.44134432e-003
      7.35573890e-003 1.54090049e-002</_>
    <_>
      4.86366525e-002 1.01775527e-002 6.11921353e-003 1.30627770e-002
      6.24603685e-003 8.24350049e-004 9.19467304e-003 2.10209265e-002
      5.38998097e-003 6.65821193e-004 6.02409651e-004 6.65821193e-004
      7.98985455e-003 1.20481930e-003 2.04819273e-002 3.59860510e-002
      9.60684847e-003 6.02409651e-004 7.92644278e-004 3.80469253e-004
      6.97526964e-004 0. 1.20481930e-003 6.97526964e-004 1.04311984e-002
      3.48763482e-004 5.38998109e-004 3.17057711e-004 1.62967667e-002
      5.70703880e-004 3.11667714e-002 1.10653136e-002 7.22891558e-003
      9.19467362e-004 5.70703880e-004 7.60938507e-004 6.02409651e-004
      3.17057711e-005 7.29232735e-004 7.60938507e-004 6.97526964e-004
      3.17057711e-005 3.17057711e-005 3.17057711e-005 7.29232735e-004
      9.51173133e-005 8.56055820e-004 9.51173133e-004 1.33164236e-002
      4.12175024e-004 5.70703880e-004 3.80469253e-004 7.29232735e-004
      6.34115422e-005 3.48763482e-004 2.21940398e-004 2.54280288e-002
      3.80469253e-004 6.02409651e-004 3.48763482e-004 2.20355112e-002
      3.17057711e-004 1.34115405e-002 3.86810396e-003 7.57767912e-003
      1.01458468e-003 4.43880796e-004 1.01458468e-003 5.07292338e-004 0.
      4.43880796e-004 8.24350049e-004 9.19467362e-004 6.34115422e-005
      3.17057711e-005 9.51173133e-005 3.17057711e-004 6.34115422e-005
      4.75586567e-004 6.02409651e-004 9.19467362e-004 6.34115422e-005 0.
      6.34115422e-005 9.51173133e-005 3.17057711e-005 6.34115422e-005
      3.17057711e-005 1.04629039e-003 6.34115422e-005 0. 6.34115422e-005
      4.75586567e-004 3.17057711e-005 5.07292338e-004 3.17057711e-004
      1.05897272e-002 1.17311347e-003 6.34115422e-004 8.24350049e-004
      6.02409651e-004 3.17057711e-005 6.34115422e-004 5.70703880e-004
      8.87761591e-004 1.58528856e-004 6.34115422e-005 6.34115422e-005
      9.19467362e-004 9.51173133e-005 4.43880796e-004 7.92644278e-004
      2.39061508e-002 4.75586567e-004 5.07292338e-004 8.24350049e-004
      6.02409651e-004 0. 5.07292338e-004 2.85351940e-004 4.98097651e-002
      2.53646169e-004 7.92644278e-004 3.17057711e-004 1.21116042e-002
      5.07292338e-004 5.54850977e-003 2.15599244e-003 8.49714689e-003
      1.65821183e-002 1.17311347e-003 3.44958790e-002 6.65821193e-004
      1.01458468e-003 1.14140776e-003 3.90932150e-002 4.75586567e-004
      7.92644278e-004 9.51173133e-005 8.56055820e-004 6.97526964e-004
      9.51173133e-004 8.87761591e-004 1.66138243e-002 1.07799622e-003
      7.60938507e-004 1.26823084e-004 6.97526964e-004 0. 0.
      1.26823084e-004 5.07292338e-004 7.29232735e-004 6.02409651e-004
      6.34115422e-005 4.43880796e-004 6.34115422e-004 4.43880796e-004
      1.52187701e-003 4.31198487e-003 5.70703880e-004 1.17311347e-003
      1.58528856e-004 1.10970193e-003 6.34115422e-005 0. 1.58528856e-004
      1.36334810e-003 1.26823084e-004 2.85351940e-004 0. 6.34115422e-005
      0. 6.34115422e-005 3.17057711e-005 9.82878846e-004 1.14140776e-003
      4.43880796e-004 9.51173133e-005 6.34115422e-004 1.26823084e-004
      3.17057711e-005 1.58528856e-004 4.43880796e-004 1.04629039e-003
      6.65821193e-004 9.51173133e-005 6.34115422e-004 1.01458468e-003
      4.43880796e-004 7.60938507e-004 3.58275208e-003 1.23969559e-002
      2.89473683e-002 1.20481930e-003 5.42485714e-002 5.07292338e-004
      9.51173133e-004 8.24350049e-004 1.64552946e-002 9.51173133e-004
      7.92644278e-004 1.26823084e-004 1.04629039e-003 3.80469253e-004
      5.70703880e-004 8.56055820e-004 6.75332919e-003 1.01458468e-003
      8.24350049e-004 9.51173133e-005 7.29232735e-004 9.51173133e-005 0.
      1.58528856e-004 4.12175024e-004 5.07292338e-004 4.75586567e-004
      6.34115422e-005 3.48763482e-004 6.34115422e-004 2.53646169e-004
      6.65821193e-004 2.12428672e-003 1.96892843e-002 3.35129984e-002
      1.14140776e-003 2.01965757e-002 6.02409651e-004 4.75586567e-004
      5.38998109e-004 8.43373500e-003 6.97526964e-004 1.26823084e-003
      1.90234627e-004 1.14140776e-003 1.10970193e-003 8.56055820e-004
      9.82878846e-004 6.94356393e-003 2.77742557e-002 1.01141408e-002
      1.36334810e-003 6.24603685e-003 5.38998109e-004 2.85351940e-004
      8.56055820e-004 3.23398854e-003 1.71528216e-002 5.51680429e-003
      8.87761591e-004 4.02663276e-003 6.49968302e-003 2.34622695e-003
      5.89727331e-003 1.48065947e-002</_>
    <_>
      5.32339886e-002 1.12872543e-002 7.35573890e-003 1.47431828e-002
      6.40456565e-003 1.20481930e-003 1.00824349e-002 2.33037416e-002
      5.86556736e-003 8.24350049e-004 7.29232735e-004 7.92644278e-004
      8.84590950e-003 8.87761591e-004 2.16233358e-002 3.99175659e-002
      9.00443923e-003 5.07292338e-004 1.07799622e-003 5.07292338e-004
      8.87761591e-004 0. 1.23652501e-003 8.24350049e-004 9.98731796e-003
      6.65821193e-004 7.60938507e-004 5.70703880e-004 1.68991759e-002
      4.75586567e-004 3.09765376e-002 1.11287255e-002 7.32403295e-003
      1.26823084e-003 1.07799622e-003 8.87761591e-004 8.24350049e-004
      6.34115422e-005 8.24350049e-004 6.02409651e-004 8.56055820e-004
      3.17057711e-005 3.17057711e-005 6.34115422e-005 7.60938507e-004
      1.58528856e-004 8.87761591e-004 1.20481930e-003 1.22384271e-002
      4.75586567e-004 8.56055820e-004 6.34115422e-004 1.36334810e-003 0.
      5.70703880e-004 2.21940398e-004 2.31135059e-002 4.75586567e-004
      7.29232735e-004 5.07292338e-004 2.44134441e-002 5.38998109e-004
      1.37603041e-002 4.37539630e-003 8.37032311e-003 1.61699427e-003
      7.92644278e-004 9.19467362e-004 5.07292338e-004 9.51173133e-005
      5.07292338e-004 6.97526964e-004 4.43880796e-004 3.17057711e-005 0.
      1.26823084e-004 5.07292338e-004 6.34115422e-005 3.17057711e-004
      4.12175024e-004 9.82878846e-004 6.34115422e-005 0. 0. 0. 0.
      6.34115422e-005 0. 9.51173133e-004 3.17057711e-005 3.17057711e-005
      3.17057711e-005 3.17057711e-004 6.34115422e-005 4.12175024e-004
      1.58528856e-004 1.05897272e-002 1.04629039e-003 6.65821193e-004
      8.87761591e-004 5.38998109e-004 0. 6.02409651e-004 5.70703880e-004
      1.20481930e-003 1.90234627e-004 6.34115422e-005 3.17057711e-005
      8.24350049e-004 6.34115422e-005 5.07292338e-004 5.70703880e-004
      2.04502214e-002 7.29232735e-004 5.07292338e-004 3.48763482e-004
      5.38998109e-004 6.34115422e-005 7.92644278e-004 4.43880796e-004
      4.32783775e-002 3.48763482e-004 8.24350049e-004 3.17057711e-004
      1.14457831e-002 1.90234627e-004 5.67533309e-003 1.90234627e-003
      9.57514253e-003 1.75649971e-002 1.49017118e-003 3.47812288e-002
      5.07292338e-004 1.36334810e-003 1.29993656e-003 3.69055159e-002
      4.12175024e-004 8.56055820e-004 6.34115422e-005 9.19467362e-004
      6.34115422e-004 1.01458468e-003 1.29993656e-003 1.66138243e-002
      1.52187701e-003 5.38998109e-004 1.90234627e-004 5.38998109e-004
      1.26823084e-004 6.34115422e-005 9.51173133e-005 3.48763482e-004
      7.60938507e-004 5.70703880e-004 6.34115422e-005 4.12175024e-004
      9.19467362e-004 6.02409651e-004 1.26823084e-003 5.00951195e-003
      7.29232735e-004 6.65821193e-004 6.34115422e-005 1.17311347e-003
      9.51173133e-005 3.17057711e-005 6.34115422e-005 1.10970193e-003
      1.26823084e-004 1.58528856e-004 0. 6.34115422e-005 9.51173133e-005
      6.34115422e-005 6.34115422e-005 7.92644278e-004 8.87761591e-004
      5.07292338e-004 3.17057711e-005 5.38998109e-004 6.34115422e-005
      9.51173133e-005 1.26823084e-004 5.07292338e-004 1.58528856e-003
      5.07292338e-004 9.51173133e-005 5.38998109e-004 8.56055820e-004
      6.97526964e-004 9.51173133e-004 3.36081162e-003 1.17628407e-002
      2.57767905e-002 1.36334810e-003 4.39441986e-002 4.43880796e-004
      6.02409651e-004 9.82878846e-004 1.51870642e-002 7.29232735e-004
      1.14140776e-003 9.51173133e-005 1.33164239e-003 5.70703880e-004
      5.70703880e-004 9.51173133e-004 7.83132575e-003 1.26823084e-003
      6.65821193e-004 6.34115422e-005 5.38998109e-004 1.90234627e-004
      3.17057711e-005 3.17057711e-005 3.17057711e-004 6.97526964e-004
      5.38998109e-004 6.34115422e-005 5.07292338e-004 7.29232735e-004
      3.17057711e-004 7.29232735e-004 2.63157906e-003 1.82625242e-002
      3.47495228e-002 1.20481930e-003 2.17184536e-002 3.48763482e-004
      8.24350049e-004 8.87761591e-004 7.86303077e-003 1.17311347e-003
      2.09258078e-003 9.51173133e-005 1.14140776e-003 8.24350049e-004
      6.65821193e-004 1.55358273e-003 7.26062153e-003 2.66962592e-002
      9.76537727e-003 1.87064044e-003 5.89727331e-003 5.38998109e-004
      2.85351940e-004 7.60938507e-004 2.12428672e-003 1.51236523e-002
      5.35827503e-003 1.07799622e-003 3.58275208e-003 6.43627159e-003
      2.66328477e-003 5.51680429e-003 1.55675337e-002</_>
    <_>
      4.83512990e-002 1.02092577e-002 5.77044999e-003 1.06848450e-002
      4.91439458e-003 7.60938507e-004 8.27520620e-003 1.76284090e-002
      4.88268863e-003 1.01458468e-003 6.34115422e-004 6.65821193e-004
      6.84844656e-003 7.60938507e-004 1.90868732e-002 3.89029793e-002
      8.11667740e-003 7.92644278e-004 6.02409651e-004 6.65821193e-004
      8.87761591e-004 6.34115422e-005 8.56055820e-004 4.75586567e-004
      8.90932139e-003 4.43880796e-004 3.48763482e-004 1.90234627e-004
      1.47748888e-002 2.85351940e-004 3.34495865e-002 1.00824349e-002
      7.45085627e-003 8.56055820e-004 3.80469253e-004 4.43880796e-004
      6.97526964e-004 6.34115422e-005 4.43880796e-004 8.87761591e-004
      9.19467362e-004 3.17057711e-005 0. 6.34115422e-005 5.07292338e-004
      1.58528856e-004 8.87761591e-004 1.20481930e-003 1.22384271e-002
      7.29232735e-004 5.70703880e-004 6.02409651e-004 8.87761591e-004
      6.34115422e-005 6.34115422e-004 4.43880796e-004 2.34622695e-002
      8.56055820e-004 8.24350049e-004 2.53646169e-004 2.31769178e-002
      2.85351940e-004 1.21750161e-002 3.39251733e-003 7.29232701e-003
      9.51173133e-004 4.43880796e-004 9.19467362e-004 2.85351940e-004 0.
      4.43880796e-004 3.80469253e-004 8.56055820e-004 3.17057711e-005
      3.17057711e-005 3.17057711e-005 3.17057711e-004 6.34115422e-005
      2.85351940e-004 4.43880796e-004 9.19467362e-004 3.17057711e-005
      9.51173133e-005 0. 3.17057711e-005 3.17057711e-005 3.17057711e-005
      3.17057711e-005 9.82878846e-004 3.17057711e-005 6.34115422e-005 0.
      5.70703880e-004 0. 3.48763482e-004 2.53646169e-004 1.04946103e-002
      1.07799622e-003 6.65821193e-004 6.65821193e-004 4.43880796e-004
      6.34115422e-005 5.07292338e-004 3.80469253e-004 8.56055820e-004
      9.51173133e-005 0. 0. 6.97526964e-004 9.51173133e-005
      7.60938507e-004 5.70703880e-004 2.64743175e-002 4.12175024e-004
      8.24350049e-004 6.65821193e-004 6.65821193e-004 1.26823084e-004
      2.53646169e-004 3.48763482e-004 4.83195931e-002 6.97526964e-004
      9.19467362e-004 2.53646169e-004 1.21750161e-002 3.48763482e-004
      4.62904247e-003 1.96575769e-003 8.84590950e-003 1.61065310e-002
      1.23652501e-003 3.32276486e-002 7.92644278e-004 9.82878846e-004
      8.56055820e-004 3.52251120e-002 5.07292338e-004 6.97526964e-004
      3.17057711e-005 8.24350049e-004 7.29232735e-004 5.38998109e-004
      6.34115422e-004 1.42675964e-002 8.87761591e-004 8.56055820e-004
      2.21940398e-004 8.56055820e-004 6.34115422e-005 3.17057711e-005
      6.34115422e-005 3.17057711e-004 6.02409651e-004 2.85351940e-004
      1.90234627e-004 4.43880796e-004 3.80469253e-004 4.43880796e-004
      1.10970193e-003 3.74128087e-003 6.65821193e-004 1.07799622e-003
      9.51173133e-005 1.14140776e-003 3.17057711e-005 3.17057711e-005
      1.26823084e-004 1.01458468e-003 3.17057711e-005 6.34115422e-005 0.
      9.51173133e-005 1.26823084e-004 0. 6.34115422e-005 1.04629039e-003
      1.07799622e-003 8.24350049e-004 2.53646169e-004 4.43880796e-004
      9.51173133e-005 3.17057711e-005 6.34115422e-005 3.17057711e-004
      8.87761591e-004 4.12175024e-004 3.17057711e-005 3.80469253e-004
      8.24350049e-004 4.75586567e-004 7.60938507e-004 3.61445779e-003
      1.23969559e-002 3.02790105e-002 1.64870010e-003 5.85288517e-002
      6.65821193e-004 5.70703880e-004 8.24350049e-004 1.67723522e-002
      6.65821193e-004 8.24350049e-004 3.17057711e-005 1.07799622e-003
      5.70703880e-004 5.70703880e-004 8.87761591e-004 6.08750805e-003
      1.26823084e-003 5.38998109e-004 1.90234627e-004 5.70703880e-004
      3.17057711e-005 3.17057711e-005 9.51173133e-005 4.43880796e-004
      6.02409651e-004 6.02409651e-004 6.34115422e-005 4.75586567e-004
      3.48763482e-004 2.85351940e-004 7.29232735e-004 1.49017118e-003
      2.36842111e-002 4.30564359e-002 1.23652501e-003 2.10843366e-002
      3.17057711e-004 5.70703880e-004 8.24350049e-004 8.24350026e-003
      1.20481930e-003 1.71211164e-003 6.34115422e-005 7.92644278e-004
      3.80469253e-004 8.56055820e-004 8.87761591e-004 6.97526941e-003
      3.80786285e-002 1.23652508e-002 1.23652501e-003 5.83386188e-003
      7.60938507e-004 2.85351940e-004 7.29232735e-004 2.66328477e-003
      1.74064673e-002 4.88268863e-003 1.01458468e-003 4.24857344e-003
      6.75332919e-003 2.06087506e-003 5.29486360e-003 1.36334812e-002</_>
    <_>
      5.27584031e-002 9.57514253e-003 5.99239068e-003 1.28725432e-002
      5.42168692e-003 1.14140776e-003 8.68738070e-003 2.00063419e-002
      5.04121743e-003 9.82878846e-004 4.12175024e-004 7.29232735e-004
      7.73620792e-003 1.17311347e-003 2.01965757e-002 3.85859236e-002
      9.60684847e-003 6.02409651e-004 5.70703880e-004 4.43880796e-004
      9.19467362e-004 0. 6.97526964e-004 6.65821193e-004 8.81420448e-003
      1.90234627e-004 6.65821193e-004 3.48763482e-004 1.43627143e-002
      6.02409651e-004 3.05009503e-002 1.08433738e-002 7.16550415e-003
      9.82878846e-004 5.07292338e-004 9.82878846e-004 4.43880796e-004
      3.17057711e-005 5.07292338e-004 8.56055820e-004 9.19467362e-004
      3.17057711e-005 3.17057711e-005 1.26823084e-004 8.24350049e-004
      1.26823084e-004 8.56055820e-004 1.36334810e-003 1.22701330e-002
      6.65821193e-004 3.48763482e-004 7.92644278e-004 6.02409651e-004
      3.17057711e-005 5.07292338e-004 6.02409651e-004 2.24159788e-002
      5.07292338e-004 6.97526964e-004 3.48763482e-004 2.26379205e-002
      1.90234627e-004 1.13506662e-002 3.29740020e-003 7.70450244e-003
      9.82878846e-004 5.70703880e-004 9.82878846e-004 3.48763482e-004
      6.34115422e-005 4.75586567e-004 3.17057711e-004 5.07292338e-004
      3.17057711e-005 0. 3.17057711e-005 2.53646169e-004 3.17057711e-005
      3.17057711e-004 2.53646169e-004 1.01458468e-003 6.34115422e-005 0.
      3.17057711e-005 0. 0. 6.34115422e-005 3.17057711e-005
      8.24350049e-004 3.17057711e-005 6.34115422e-005 9.51173133e-005
      4.43880796e-004 6.34115422e-005 4.43880796e-004 3.48763482e-004
      1.07799619e-002 1.14140776e-003 7.60938507e-004 5.07292338e-004
      4.43880796e-004 9.51173133e-005 6.02409651e-004 3.80469253e-004
      9.19467362e-004 2.21940398e-004 1.26823084e-004 9.51173133e-005
      7.60938507e-004 3.17057711e-005 6.02409651e-004 5.07292338e-004
      2.22574510e-002 6.02409651e-004 9.51173133e-004 5.38998109e-004
      5.70703880e-004 3.17057711e-005 5.07292338e-004 3.80469253e-004
      4.22637910e-002 3.80469253e-004 8.56055820e-004 3.17057711e-004
      1.09067848e-002 3.80469253e-004 4.62904247e-003 2.12428672e-003
      8.08497146e-003 1.90868732e-002 1.04629039e-003 3.91883329e-002
      7.92644278e-004 8.56055820e-004 9.19467362e-004 4.05516811e-002
      7.29232735e-004 6.65821193e-004 1.26823084e-004 8.24350049e-004
      3.48763482e-004 7.60938507e-004 1.04629039e-003 1.39822448e-002
      1.23652501e-003 6.34115422e-004 9.51173133e-005 6.65821193e-004
      1.26823084e-004 6.34115422e-005 3.17057711e-005 3.17057711e-004
      9.19467362e-004 5.07292338e-004 1.26823084e-004 4.43880796e-004
      7.60938507e-004 4.12175024e-004 1.39505393e-003 3.77298659e-003
      7.60938507e-004 1.04629039e-003 1.90234627e-004 1.07799622e-003 0.
      6.34115422e-005 6.34115422e-005 1.45846547e-003 3.17057711e-005
      1.58528856e-004 0. 2.21940398e-004 0. 1.26823084e-004
      6.34115422e-005 1.07799622e-003 6.97526964e-004 6.34115422e-004
      1.58528856e-004 6.65821193e-004 9.51173133e-005 6.34115422e-005
      6.34115422e-005 4.12175024e-004 8.56055820e-004 5.70703880e-004
      3.17057711e-005 6.97526964e-004 6.97526964e-004 2.85351940e-004
      6.97526964e-004 3.04375403e-003 1.29993660e-002 3.04375403e-002
      8.56055820e-004 6.02409653e-002 6.02409651e-004 7.60938507e-004
      8.24350049e-004 1.69942938e-002 6.02409651e-004 1.23652501e-003 0.
      1.26823084e-003 5.70703880e-004 5.38998109e-004 8.24350049e-004
      6.53138850e-003 1.07799622e-003 6.02409651e-004 1.90234627e-004
      6.02409651e-004 0. 0. 1.90234627e-004 3.48763482e-004
      5.38998109e-004 3.80469253e-004 3.17057711e-005 6.02409651e-004
      5.07292338e-004 1.58528856e-004 9.19467362e-004 2.06087506e-003
      2.00380478e-002 3.95053886e-002 1.58528856e-003 2.14013942e-002
      6.97526964e-004 6.97526964e-004 6.65821193e-004 8.43373500e-003
      1.29993656e-003 1.36334810e-003 1.90234627e-004 9.19467362e-004
      6.34115422e-004 6.02409651e-004 1.29993656e-003 7.38744438e-003
      2.97400132e-002 1.09384907e-002 1.29993656e-003 5.86556736e-003
      6.97526964e-004 2.53646169e-004 8.24350049e-004 2.88522500e-003
      1.56626515e-002 4.50221961e-003 1.07799622e-003 3.74128087e-003
      6.34115422e-003 1.96575769e-003 6.24603685e-003 1.49651235e-002</_>
    <_>
      5.37095740e-002 1.09701967e-002 6.81674061e-003 1.41407736e-002
      5.29486360e-003 6.02409651e-004 1.00824349e-002 2.49524415e-002
      5.32656955e-003 9.82878846e-004 6.02409651e-004 8.56055820e-004
      7.70450244e-003 1.07799622e-003 2.00380478e-002 3.76347490e-002
      8.43373500e-003 6.34115422e-004 8.56055820e-004 5.70703880e-004
      9.82878846e-004 6.34115422e-005 1.17311347e-003 3.17057711e-004
      9.44831967e-003 6.97526964e-004 6.02409651e-004 3.48763482e-004
      1.51870642e-002 4.12175024e-004 2.75206082e-002 1.04629043e-002
      7.79961934e-003 8.87761591e-004 6.34115422e-004 9.19467362e-004
      6.02409651e-004 1.58528856e-004 8.56055820e-004 7.92644278e-004
      8.24350049e-004 1.26823084e-004 9.51173133e-005 1.26823084e-004
      7.60938507e-004 1.90234627e-004 6.97526964e-004 1.42675964e-003
      1.23018390e-002 6.02409651e-004 6.34115422e-004 3.48763482e-004
      5.38998109e-004 3.17057711e-005 5.07292338e-004 3.48763482e-004
      2.08941028e-002 4.12175024e-004 5.70703880e-004 7.29232735e-004
      2.13062782e-002 1.58528856e-004 1.31261889e-002 3.67786945e-003
      8.18008836e-003 9.82878846e-004 1.10970193e-003 9.51173133e-004
      3.48763482e-004 6.34115422e-005 5.70703880e-004 5.38998109e-004
      7.92644278e-004 0. 3.17057711e-005 3.17057711e-005 6.34115422e-004
      0. 4.12175024e-004 3.17057711e-004 1.01458468e-003 6.34115422e-005
      1.26823084e-004 0. 3.17057711e-005 0. 3.17057711e-005 0.
      9.82878846e-004 3.17057711e-005 6.34115422e-005 0. 4.12175024e-004
      0. 3.17057711e-004 1.58528856e-004 1.09384907e-002 1.10970193e-003
      9.82878846e-004 6.65821193e-004 4.43880796e-004 6.34115422e-005
      5.38998109e-004 5.70703880e-004 6.97526964e-004 2.21940398e-004 0.
      3.17057711e-005 8.24350049e-004 1.90234627e-004 6.02409651e-004
      5.07292338e-004 1.90551672e-002 6.65821193e-004 8.24350049e-004
      7.60938507e-004 5.70703880e-004 0. 4.12175024e-004 1.90234627e-004
      4.33100834e-002 2.53646169e-004 7.92644278e-004 2.85351940e-004
      9.95561201e-003 2.85351940e-004 4.56563104e-003 1.96575769e-003
      1.02409637e-002 1.82308182e-002 1.14140776e-003 4.23906147e-002
      1.04629039e-003 1.04629039e-003 1.14140776e-003 4.29613180e-002
      6.97526964e-004 4.75586567e-004 1.26823084e-004 9.51173133e-004
      5.70703880e-004 6.02409651e-004 1.26823084e-003 1.78820547e-002
      1.29993656e-003 6.97526964e-004 6.34115422e-005 7.60938507e-004
      3.17057711e-005 3.17057711e-005 6.34115422e-005 6.34115422e-004
      7.92644278e-004 4.75586567e-004 6.34115422e-005 6.97526964e-004
      1.07799622e-003 4.75586567e-004 1.10970193e-003 4.72415984e-003
      8.56055820e-004 1.10970193e-003 1.26823084e-004 1.26823084e-003
      6.34115422e-005 6.34115422e-005 6.34115422e-005 1.04629039e-003
      6.34115422e-005 1.26823084e-004 0. 1.90234627e-004 3.17057711e-005
      1.26823084e-004 6.34115422e-005 1.20481930e-003 1.04629039e-003
      4.12175024e-004 1.90234627e-004 4.43880796e-004 6.34115422e-005
      6.34115422e-005 1.58528856e-004 5.38998109e-004 8.87761591e-004
      5.38998109e-004 1.58528856e-004 4.75586567e-004 7.92644278e-004
      2.53646169e-004 8.24350049e-004 3.23398854e-003 1.32213067e-002
      2.98985410e-002 1.36334810e-003 5.43119833e-002 2.85351940e-004
      1.07799622e-003 1.10970193e-003 1.68040581e-002 7.92644278e-004
      9.51173133e-004 3.17057711e-005 1.14140776e-003 3.80469253e-004
      6.02409651e-004 1.04629039e-003 6.75332919e-003 1.29993656e-003
      7.60938507e-004 9.51173133e-005 1.07799622e-003 6.34115422e-005 0.
      6.34115422e-005 3.80469253e-004 6.34115422e-004 4.75586567e-004
      9.51173133e-005 5.38998109e-004 5.38998109e-004 2.85351940e-004
      7.92644278e-004 1.93405198e-003 1.73747614e-002 3.34495865e-002
      1.64870010e-003 2.01331638e-002 3.80469253e-004 3.48763482e-004
      8.24350049e-004 9.09955613e-003 1.39505393e-003 1.33164239e-003
      1.26823084e-004 9.51173133e-004 8.87761591e-004 9.51173133e-004
      1.23652501e-003 7.67279649e-003 2.43817382e-002 9.32149682e-003
      1.77552318e-003 6.65821182e-003 5.70703880e-004 3.17057711e-004
      9.51173133e-004 3.01204808e-003 1.50919463e-002 5.26315812e-003
      9.82878846e-004 3.67786945e-003 5.51680429e-003 2.56816740e-003
      5.96068474e-003 1.49968294e-002</_>
    <_>
      6.54724166e-002 1.44578312e-002 1.09067848e-002 1.76918190e-002
      7.19721010e-003 9.82878846e-004 1.37285991e-002 2.93912496e-002
      6.68991776e-003 7.60938507e-004 9.51173133e-004 8.87761591e-004
      1.05263162e-002 9.82878846e-004 2.91058980e-002 5.10145836e-002
      1.00824349e-002 3.80469253e-004 1.07799622e-003 6.02409651e-004
      8.24350049e-004 1.26823084e-004 1.39505393e-003 8.56055820e-004
      1.10970195e-002 5.07292338e-004 8.24350049e-004 5.38998109e-004
      1.59162972e-002 5.38998109e-004 3.44007611e-002 1.23335449e-002
      6.40456565e-003 9.51173133e-004 6.34115422e-004 9.51173133e-004
      6.02409651e-004 6.34115422e-005 1.23652501e-003 9.19467362e-004
      8.87761591e-004 9.51173133e-005 9.51173133e-005 9.51173133e-005
      8.56055820e-004 3.17057711e-005 1.10970193e-003 1.45846547e-003
      1.06531391e-002 5.70703880e-004 6.34115422e-004 7.60938507e-004
      6.65821193e-004 6.34115422e-005 6.02409651e-004 4.75586567e-004
      1.80088785e-002 3.17057711e-004 6.97526964e-004 3.80469253e-004
      2.07038689e-002 3.80469253e-004 1.28408372e-002 4.21686750e-003
      7.41915032e-003 1.10970193e-003 1.01458468e-003 6.34115422e-004
      5.70703880e-004 0. 4.75586567e-004 6.02409651e-004 5.38998109e-004
      6.34115422e-005 1.26823084e-004 9.51173133e-005 4.43880796e-004
      9.51173133e-005 5.38998109e-004 4.12175024e-004 9.19467362e-004
      3.17057711e-005 3.17057711e-005 3.17057711e-005 6.34115422e-005 0.
      6.34115422e-005 9.51173133e-005 6.34115422e-004 6.34115422e-005
      3.17057711e-005 0. 4.12175024e-004 0. 4.43880796e-004
      1.58528856e-004 8.94102734e-003 1.07799622e-003 1.20481930e-003
      7.92644278e-004 2.85351940e-004 9.51173133e-005 6.97526964e-004
      7.60938507e-004 8.24350049e-004 1.58528856e-004 9.51173133e-005
      1.58528856e-004 4.75586567e-004 1.26823084e-004 9.82878846e-004
      6.97526964e-004 1.68357641e-002 6.02409651e-004 1.07799622e-003
      4.12175024e-004 3.80469253e-004 6.34115422e-005 5.70703880e-004
      4.43880796e-004 2.94863656e-002 2.85351940e-004 8.56055820e-004
      3.48763482e-004 8.62396974e-003 3.48763482e-004 5.70703857e-003
      1.77552318e-003 9.76537727e-003 1.75332911e-002 1.68040581e-003
      3.18643004e-002 8.24350049e-004 1.29993656e-003 1.29993656e-003
      3.41471136e-002 7.29232735e-004 7.60938507e-004 1.58528856e-004
      9.82878846e-004 9.19467362e-004 9.19467362e-004 1.71211164e-003
      1.84844639e-002 1.23652501e-003 5.70703880e-004 2.21940398e-004
      5.70703880e-004 6.34115422e-005 0. 1.58528856e-004 4.43880796e-004
      6.97526964e-004 3.48763482e-004 1.26823084e-004 4.75586567e-004
      8.56055820e-004 4.12175024e-004 1.39505393e-003 5.42168692e-003
      7.60938507e-004 1.04629039e-003 0. 1.29993656e-003 1.58528856e-004
      3.17057711e-005 9.51173133e-005 1.23652501e-003 9.51173133e-005
      9.51173133e-005 0. 9.51173133e-005 0. 6.34115422e-005
      1.90234627e-004 1.36334810e-003 8.56055820e-004 5.70703880e-004
      1.26823084e-004 5.38998109e-004 6.34115422e-005 0. 9.51173133e-005
      4.43880796e-004 7.60938507e-004 6.65821193e-004 3.17057711e-005
      6.65821193e-004 6.34115422e-004 4.12175024e-004 7.29232735e-004
      3.89980967e-003 1.23652508e-002 2.42549144e-002 1.68040581e-003
      3.82688642e-002 5.07292338e-004 2.85351940e-004 1.07799622e-003
      1.43310083e-002 8.56055820e-004 9.82878846e-004 9.51173133e-005
      9.82878846e-004 5.38998109e-004 6.97526964e-004 6.97526964e-004
      7.64109055e-003 1.10970193e-003 5.70703880e-004 3.17057711e-005
      5.38998109e-004 6.34115422e-005 0. 2.53646169e-004 4.43880796e-004
      9.51173133e-004 3.48763482e-004 9.51173133e-005 3.80469253e-004
      5.07292338e-004 1.90234627e-004 6.34115422e-004 2.72669620e-003
      1.89600512e-002 3.46227027e-002 1.42675964e-003 1.66772362e-002
      6.34115422e-004 3.48763482e-004 1.39505393e-003 7.45085627e-003
      1.04629039e-003 9.82878846e-004 6.34115422e-005 1.01458468e-003
      7.29232735e-004 7.92644278e-004 1.71211164e-003 8.02155957e-003
      2.85034869e-002 8.71908665e-003 1.36334810e-003 5.61192119e-003
      3.80469253e-004 1.58528856e-004 6.97526964e-004 2.09258078e-003
      1.25871906e-002 3.70957516e-003 1.07799622e-003 3.67786945e-003
      4.85098269e-003 1.71211164e-003 6.43627159e-003 1.23969559e-002</_>
    <_>
      5.26632853e-002 1.08116679e-002 6.05580211e-003 1.04311984e-002
      5.61192119e-003 8.24350049e-004 8.75079259e-003 1.63918827e-002
      5.96068474e-003 9.19467362e-004 6.02409651e-004 8.56055820e-004
      9.48002562e-003 9.51173133e-004 2.04819273e-002 3.50348763e-002
      1.07799619e-002 8.56055820e-004 8.24350049e-004 5.70703880e-004
      7.29232735e-004 0. 1.10970193e-003 6.97526964e-004 1.19213695e-002
      2.53646169e-004 7.60938507e-004 8.24350049e-004 1.80088785e-002
      4.43880796e-004 3.42422314e-002 9.35320184e-003 8.59226380e-003
      8.87761591e-004 5.07292338e-004 7.60938507e-004 7.92644278e-004
      6.34115422e-005 7.29232735e-004 8.24350049e-004 1.17311347e-003
      1.58528856e-004 6.34115422e-005 0. 9.82878846e-004 6.34115422e-005
      1.45846547e-003 1.17311347e-003 1.59797091e-002 5.38998109e-004
      6.65821193e-004 3.48763482e-004 7.29232735e-004 3.17057711e-005
      5.07292338e-004 3.17057711e-004 3.31008248e-002 2.85351940e-004
      6.02409651e-004 3.17057711e-004 2.85986047e-002 5.70703880e-004
      1.38871279e-002 3.74128087e-003 8.02155957e-003 1.55358273e-003
      7.29232735e-004 7.92644278e-004 4.43880796e-004 9.51173133e-005
      5.70703880e-004 3.17057711e-004 8.24350049e-004 6.34115422e-005
      6.34115422e-005 3.17057711e-005 6.02409651e-004 9.51173133e-005
      2.85351940e-004 4.43880796e-004 1.10970193e-003 9.51173133e-005
      6.34115422e-005 0. 6.34115422e-005 0. 6.34115422e-005 0.
      9.19467362e-004 6.34115422e-005 0. 0. 1.90234627e-004
      3.17057711e-005 4.43880796e-004 1.26823084e-004 1.18579585e-002
      1.20481930e-003 6.97526964e-004 8.87761591e-004 8.24350049e-004 0.
      5.38998109e-004 5.38998109e-004 1.29993656e-003 1.58528856e-004
      6.34115422e-005 6.34115422e-005 8.24350049e-004 3.17057711e-005
      8.24350049e-004 5.38998109e-004 2.90107802e-002 6.02409651e-004
      7.60938507e-004 5.70703880e-004 5.38998109e-004 0. 5.70703880e-004
      3.17057711e-004 5.64996824e-002 6.02409651e-004 8.56055820e-004
      2.85351940e-004 1.26506025e-002 1.90234627e-004 6.91185798e-003
      2.09258078e-003 8.62396974e-003 1.49968294e-002 8.87761591e-004
      2.82498412e-002 6.97526964e-004 1.01458468e-003 9.82878846e-004
      2.59987321e-002 4.75586567e-004 6.02409651e-004 9.51173133e-005
      7.29232735e-004 6.02409651e-004 1.04629039e-003 1.07799622e-003
      1.28408372e-002 1.04629039e-003 6.97526964e-004 1.26823084e-004
      7.92644278e-004 3.17057711e-005 3.17057711e-005 1.90234627e-004
      6.02409651e-004 8.87761591e-004 5.70703880e-004 9.51173133e-005
      6.02409651e-004 8.87761591e-004 5.38998109e-004 1.23652501e-003
      3.89980967e-003 8.56055820e-004 1.04629039e-003 2.21940398e-004
      1.04629039e-003 3.17057711e-005 9.51173133e-005 6.34115422e-005
      9.51173133e-004 1.90234627e-004 9.51173133e-005 3.17057711e-005
      1.26823084e-004 3.17057711e-005 1.26823084e-004 3.17057711e-005
      6.34115422e-004 8.24350049e-004 5.07292338e-004 1.58528856e-004
      6.65821193e-004 9.51173133e-005 9.51173133e-005 6.34115422e-005
      2.85351940e-004 1.04629039e-003 6.02409651e-004 0. 5.70703880e-004
      1.10970193e-003 4.75586567e-004 7.60938507e-004 2.88522500e-003
      1.18896635e-002 2.57767905e-002 1.42675964e-003 4.13443260e-002
      5.38998109e-004 4.12175024e-004 9.82878846e-004 1.28091313e-002
      6.97526964e-004 1.14140776e-003 0. 8.56055820e-004 5.38998109e-004
      6.97526964e-004 5.07292338e-004 6.08750805e-003 1.23652501e-003
      4.43880796e-004 1.58528856e-004 5.07292338e-004 6.34115422e-005 0.
      9.51173133e-005 3.48763482e-004 7.92644278e-004 2.53646169e-004
      9.51173133e-005 5.07292338e-004 5.70703880e-004 2.85351940e-004
      7.92644278e-004 1.93405198e-003 2.11160425e-002 3.30691189e-002
      1.10970193e-003 1.90868732e-002 4.75586567e-004 5.38998109e-004
      1.17311347e-003 5.89727331e-003 1.07799622e-003 1.64870010e-003
      6.34115422e-005 1.23652501e-003 4.43880796e-004 4.12175024e-004
      1.49017118e-003 7.32403295e-003 3.59543450e-002 1.12238424e-002
      1.42675964e-003 4.97780601e-003 5.07292338e-004 3.80469253e-004
      8.24350049e-004 2.12428672e-003 1.77235249e-002 5.10462886e-003
      1.04629039e-003 4.47051367e-003 6.84844656e-003 2.47305003e-003
      6.72162324e-003 1.47748888e-002</_>
    <_>
      5.15852869e-002 9.22637898e-003 5.83386188e-003 1.13506662e-002
      5.77044999e-003 9.51173133e-004 8.78249854e-003 1.85478758e-002
      5.73874451e-003 7.92644278e-004 5.07292338e-004 6.02409651e-004
      9.44831967e-003 1.55358273e-003 2.18135696e-002 3.14204171e-002
      1.01458468e-002 5.38998109e-004 9.51173133e-004 7.92644278e-004
      1.26823084e-003 9.51173133e-005 1.29993656e-003 5.07292338e-004
      1.24603678e-002 3.48763482e-004 7.60938507e-004 3.17057711e-004
      2.20672172e-002 4.12175024e-004 3.26252393e-002 1.22384271e-002
      8.21179431e-003 9.82878846e-004 8.24350049e-004 9.51173133e-004
      8.56055820e-004 3.17057711e-005 5.70703880e-004 1.33164239e-003
      1.07799622e-003 9.51173133e-005 1.26823084e-004 6.34115422e-005
      1.14140776e-003 1.26823084e-004 1.04629039e-003 1.55358273e-003
      1.62333548e-002 6.34115422e-004 6.65821193e-004 5.07292338e-004
      9.82878846e-004 0. 7.29232735e-004 6.97526964e-004 3.13887112e-002
      7.60938507e-004 8.87761591e-004 5.07292338e-004 3.22764739e-002
      2.53646169e-004 1.58211794e-002 4.72415984e-003 8.14838335e-003
      1.01458468e-003 6.97526964e-004 9.19467362e-004 4.75586567e-004
      1.26823084e-004 4.75586567e-004 3.80469253e-004 7.60938507e-004 0.
      3.17057711e-005 9.51173133e-005 4.43880796e-004 1.26823084e-004
      3.80469253e-004 5.70703880e-004 1.07799622e-003 3.17057711e-005
      6.34115422e-005 0. 9.51173133e-005 0. 3.17057711e-005
      3.17057711e-005 7.92644278e-004 6.34115422e-005 3.17057711e-005 0.
      5.07292338e-004 0. 3.17057711e-004 2.21940398e-004 1.31896008e-002
      1.20481930e-003 6.65821193e-004 1.07799622e-003 4.75586567e-004
      9.51173133e-005 3.48763482e-004 6.34115422e-004 1.23652501e-003
      1.58528856e-004 0. 9.51173133e-005 9.19467362e-004 9.51173133e-005
      7.60938507e-004 6.34115422e-004 2.66645532e-002 5.07292338e-004
      1.20481930e-003 4.43880796e-004 9.19467362e-004 9.51173133e-005
      3.80469253e-004 3.80469253e-004 5.63094467e-002 5.38998109e-004
      1.26823084e-003 3.48763482e-004 1.38554219e-002 2.21940398e-004
      6.43627159e-003 2.40963860e-003 7.60938507e-003 1.46163600e-002
      9.19467362e-004 2.57767905e-002 6.65821193e-004 8.87761591e-004
      7.92644278e-004 2.71401387e-002 6.65821193e-004 1.01458468e-003
      6.34115422e-005 7.29232735e-004 8.56055820e-004 8.87761591e-004
      8.87761591e-004 1.37920100e-002 9.19467362e-004 5.07292338e-004
      3.48763482e-004 6.02409651e-004 0. 0. 1.58528856e-004
      3.17057711e-004 9.19467362e-004 4.43880796e-004 1.58528856e-004
      5.07292338e-004 1.01458468e-003 4.43880796e-004 1.01458468e-003
      5.19974623e-003 6.97526964e-004 1.14140776e-003 6.34115422e-005
      1.04629039e-003 1.58528856e-004 6.34115422e-005 1.26823084e-004
      1.10970193e-003 1.58528856e-004 1.26823084e-004 0. 1.26823084e-004
      3.17057711e-005 6.34115422e-005 9.51173133e-005 1.01458468e-003
      1.04629039e-003 3.48763482e-004 6.34115422e-005 6.34115422e-004
      1.58528856e-004 6.34115422e-005 9.51173133e-005 4.43880796e-004
      8.24350049e-004 6.02409651e-004 1.26823084e-004 2.53646169e-004
      1.55358273e-003 7.60938507e-004 8.24350049e-004 3.48763471e-003
      1.16677238e-002 2.13696901e-002 1.26823084e-003 3.88395675e-002
      3.17057711e-004 7.60938507e-004 6.97526964e-004 1.42993024e-002
      1.26823084e-003 9.51173133e-004 6.34115422e-005 1.42675964e-003
      8.24350049e-004 6.34115422e-004 7.29232735e-004 6.34115422e-003
      1.58528856e-003 5.07292338e-004 9.51173133e-005 4.75586567e-004
      6.34115422e-005 3.17057711e-005 6.34115422e-005 5.38998109e-004
      7.60938507e-004 8.24350049e-004 1.26823084e-004 1.90234627e-004
      7.92644278e-004 3.48763482e-004 7.29232735e-004 2.02916935e-003
      1.79454666e-002 2.74571981e-002 1.20481930e-003 1.58845913e-002
      4.75586567e-004 6.65821193e-004 7.60938507e-004 7.26062153e-003
      1.26823084e-003 1.33164239e-003 6.34115422e-005 1.10970193e-003
      6.65821193e-004 6.02409651e-004 1.17311347e-003 6.68991776e-003
      3.15789469e-002 1.05897272e-002 1.55358273e-003 5.51680429e-003
      6.97526964e-004 2.21940398e-004 9.51173133e-004 2.82181357e-003
      1.76601149e-002 6.78503467e-003 1.29993656e-003 4.18516155e-003
      8.27520620e-003 2.82181357e-003 7.38744438e-003 1.69942938e-002</_>
    <_>
      4.99682948e-002 9.28979088e-003 5.45339240e-003 1.09384907e-002
      6.02409616e-003 1.17311347e-003 7.54597317e-003 1.73430573e-002
      6.27774233e-003 7.60938507e-004 6.02409651e-004 7.60938507e-004
      9.25808493e-003 1.10970193e-003 1.96892843e-002 3.40202935e-002
      9.41661373e-003 5.07292338e-004 1.10970193e-003 6.34115422e-004
      1.29993656e-003 3.17057711e-005 8.24350049e-004 5.70703880e-004
      1.30310720e-002 6.02409651e-004 6.97526964e-004 3.48763482e-004
      2.02599876e-002 4.43880796e-004 3.25618275e-002 1.08116679e-002
      8.14838335e-003 9.19467362e-004 6.65821193e-004 1.01458468e-003
      6.97526964e-004 6.34115422e-005 4.75586567e-004 9.82878846e-004
      1.33164239e-003 1.26823084e-004 3.17057711e-005 1.26823084e-004
      8.56055820e-004 6.34115422e-005 8.24350049e-004 1.74381735e-003
      1.72796454e-002 5.38998109e-004 8.87761591e-004 2.53646169e-004
      9.19467362e-004 6.34115422e-005 6.65821193e-004 2.53646169e-004
      3.52251120e-002 4.12175024e-004 7.92644278e-004 5.07292338e-004
      3.53836380e-002 4.12175024e-004 1.65504124e-002 4.50221961e-003
      8.62396974e-003 1.14140776e-003 4.75586567e-004 1.20481930e-003
      7.29232735e-004 9.51173133e-005 4.75586567e-004 3.48763482e-004
      7.29232735e-004 3.17057711e-005 3.17057711e-005 3.17057711e-005
      3.48763482e-004 3.17057711e-005 4.43880796e-004 4.75586567e-004
      1.04629039e-003 0. 6.34115422e-005 9.51173133e-005 9.51173133e-005
      0. 0. 0. 9.51173133e-004 0. 0. 0. 6.65821193e-004 0.
      6.02409651e-004 2.53646169e-004 1.25554847e-002 1.36334810e-003
      6.65821193e-004 1.20481930e-003 3.80469253e-004 9.51173133e-005
      4.43880796e-004 4.12175024e-004 1.20481930e-003 9.51173133e-005
      6.34115422e-005 3.17057711e-005 8.56055820e-004 9.51173133e-005
      6.65821193e-004 7.29232735e-004 3.07545979e-002 4.12175024e-004
      6.97526964e-004 5.38998109e-004 3.80469253e-004 0. 4.75586567e-004
      2.85351940e-004 5.96702583e-002 5.70703880e-004 9.82878846e-004
      6.34115422e-004 1.43310083e-002 2.85351940e-004 6.40456565e-003
      2.28281552e-003 7.32403295e-003 1.39505388e-002 6.65821193e-004
      2.43183263e-002 7.29232735e-004 1.14140776e-003 8.56055820e-004
      2.64109075e-002 9.19467362e-004 5.38998109e-004 0. 6.02409651e-004
      5.70703880e-004 8.24350049e-004 1.29993656e-003 1.32530117e-002
      6.34115422e-004 6.65821193e-004 1.58528856e-004 7.92644278e-004
      3.17057711e-005 0. 1.26823084e-004 4.43880796e-004 9.51173133e-004
      7.60938507e-004 9.51173133e-005 3.48763482e-004 6.97526964e-004
      4.75586567e-004 1.33164239e-003 4.28027892e-003 6.97526964e-004
      1.17311347e-003 1.26823084e-004 1.14140776e-003 3.17057711e-005
      9.51173133e-005 6.34115422e-005 9.51173133e-004 1.26823084e-004
      9.51173133e-005 0. 6.34115422e-005 1.26823084e-004 6.34115422e-005
      1.26823084e-004 9.82878846e-004 9.51173133e-004 6.97526964e-004
      9.51173133e-005 3.80469253e-004 1.58528856e-004 3.17057711e-005
      2.85351940e-004 4.43880796e-004 9.82878846e-004 6.02409651e-004
      3.17057711e-005 5.38998109e-004 1.45846547e-003 7.29232735e-004
      7.60938507e-004 3.42422328e-003 1.05897272e-002 2.14648061e-002
      1.14140776e-003 3.81737463e-002 4.43880796e-004 5.70703880e-004
      8.56055820e-004 1.22701330e-002 8.24350049e-004 7.60938507e-004
      6.34115422e-005 1.04629039e-003 5.38998109e-004 4.12175024e-004
      6.02409651e-004 5.67533309e-003 1.42675964e-003 4.75586567e-004
      1.26823084e-004 5.07292338e-004 6.34115422e-005 3.17057711e-005
      6.34115422e-005 4.12175024e-004 8.87761591e-004 5.70703880e-004 0.
      3.48763482e-004 7.60938507e-004 4.12175024e-004 8.87761591e-004
      1.83893472e-003 1.97526943e-002 2.82815471e-002 1.23652501e-003
      1.59480032e-002 6.65821193e-004 3.48763482e-004 8.56055820e-004
      7.19721010e-003 1.23652501e-003 1.52187701e-003 1.58528856e-004
      8.56055820e-004 7.92644278e-004 5.38998109e-004 1.07799622e-003
      7.29232701e-003 3.26252393e-002 9.60684847e-003 1.36334810e-003
      5.67533309e-003 6.02409651e-004 3.80469253e-004 1.23652501e-003
      2.75840214e-003 2.14965120e-002 6.46797707e-003 8.87761591e-004
      4.62904247e-003 6.91185798e-003 2.75840214e-003 7.19721010e-003
      1.61065310e-002</_>
    <_>
      5.40266335e-002 1.10970195e-002 5.54850977e-003 1.25871906e-002
      6.43627159e-003 1.01458468e-003 9.13126208e-003 1.73747614e-002
      6.81674061e-003 8.87761591e-004 5.38998109e-004 6.97526964e-004
      9.67026036e-003 1.36334810e-003 2.37793270e-002 3.16106528e-002
      1.10019026e-002 5.07292338e-004 6.65821193e-004 5.07292338e-004
      9.51173133e-004 9.51173133e-005 1.20481930e-003 5.07292338e-004
      1.38237160e-002 2.85351940e-004 5.70703880e-004 5.07292338e-004
      2.41597965e-002 3.80469253e-004 3.65567543e-002 1.13823712e-002
      9.35320184e-003 1.04629039e-003 7.60938507e-004 1.14140776e-003
      7.29232735e-004 9.51173133e-005 7.60938507e-004 7.92644278e-004
      1.33164239e-003 1.90234627e-004 9.51173133e-005 9.51173133e-005
      1.29993656e-003 1.26823084e-004 1.17311347e-003 1.23652501e-003
      1.83893461e-002 5.70703880e-004 5.38998109e-004 4.12175024e-004
      8.87761591e-004 3.17057711e-005 6.02409651e-004 3.48763482e-004
      3.12618911e-002 4.75586567e-004 4.75586567e-004 5.38998109e-004
      3.49714644e-002 4.43880796e-004 1.57894734e-002 5.26315812e-003
      7.89473671e-003 1.17311347e-003 6.97526964e-004 1.17311347e-003
      5.38998109e-004 9.51173133e-005 3.80469253e-004 4.75586567e-004
      7.29232735e-004 9.51173133e-005 6.34115422e-005 0. 3.48763482e-004
      1.90234627e-004 4.75586567e-004 4.43880796e-004 7.29232735e-004
      3.17057711e-005 9.51173133e-005 3.17057711e-005 6.34115422e-005 0.
      3.17057711e-005 6.34115422e-005 1.26823084e-003 6.34115422e-005
      3.17057711e-005 3.17057711e-005 5.38998109e-004 0. 3.80469253e-004
      2.53646169e-004 1.21750161e-002 1.23652501e-003 7.92644278e-004
      6.02409651e-004 3.17057711e-004 3.17057711e-005 6.65821193e-004
      5.38998109e-004 1.52187701e-003 9.51173133e-005 0. 3.17057711e-005
      9.19467362e-004 1.26823084e-004 7.29232735e-004 7.60938507e-004
      2.63792016e-002 6.34115422e-004 1.10970193e-003 5.38998109e-004
      5.38998109e-004 6.34115422e-005 5.70703880e-004 2.53646169e-004
      5.11414073e-002 4.75586567e-004 1.26823084e-003 6.65821193e-004
      1.48065947e-002 2.85351940e-004 6.15091948e-003 2.40963860e-003
      7.45085627e-003 1.30310720e-002 1.04629039e-003 2.14013942e-002
      6.97526964e-004 1.23652501e-003 8.87761591e-004 2.55231448e-002
      6.02409651e-004 8.87761591e-004 6.34115422e-005 5.70703880e-004
      9.19467362e-004 7.29232735e-004 1.29993656e-003 1.34432465e-002
      1.20481930e-003 7.92644278e-004 2.53646169e-004 4.43880796e-004
      9.51173133e-005 6.34115422e-005 9.51173133e-005 5.70703880e-004
      6.97526964e-004 4.12175024e-004 0. 4.75586567e-004 1.04629039e-003
      6.02409651e-004 1.58528856e-003 4.56563104e-003 8.24350049e-004
      7.92644278e-004 1.90234627e-004 1.14140776e-003 1.26823084e-004
      3.17057711e-005 6.34115422e-005 1.29993656e-003 3.17057711e-005
      9.51173133e-005 3.17057711e-005 9.51173133e-005 1.26823084e-004
      6.34115422e-005 1.90234627e-004 6.97526964e-004 1.10970193e-003
      3.17057711e-004 6.34115422e-005 6.97526964e-004 6.34115422e-005
      3.17057711e-005 6.34115422e-005 3.48763482e-004 8.56055820e-004
      6.34115422e-004 1.26823084e-004 6.97526964e-004 1.07799622e-003
      4.75586567e-004 7.29232735e-004 4.31198487e-003 1.01775527e-002
      1.90551672e-002 9.82878846e-004 3.65567543e-002 5.70703880e-004
      6.02409651e-004 1.04629039e-003 1.10019026e-002 8.56055820e-004
      1.07799622e-003 9.51173133e-005 1.17311347e-003 7.60938507e-004
      6.34115422e-004 6.02409651e-004 7.10209273e-003 1.61699427e-003
      7.92644278e-004 1.26823084e-004 3.80469253e-004 3.17057711e-005 0.
      2.53646169e-004 3.17057711e-004 6.97526964e-004 6.34115422e-004
      6.34115422e-005 4.12175024e-004 7.92644278e-004 3.80469253e-004
      7.92644278e-004 2.69499049e-003 1.92771088e-002 2.68547870e-002
      1.07799622e-003 1.42675964e-002 7.92644278e-004 4.12175024e-004
      7.92644278e-004 6.49968302e-003 1.52187701e-003 1.42675964e-003
      1.58528856e-004 1.26823084e-003 8.87761591e-004 7.60938507e-004
      1.42675964e-003 6.91185798e-003 3.45592909e-002 1.06214331e-002
      1.49017118e-003 5.00951195e-003 7.92644278e-004 2.53646169e-004
      6.02409651e-004 2.98034237e-003 2.01331638e-002 4.85098269e-003
      9.82878846e-004 4.40710224e-003 8.24350026e-003 2.94863665e-003
      7.26062153e-003 1.49968294e-002</_>
    <_>
      4.72733043e-002 8.56055785e-003 5.13633480e-003 1.07482560e-002
      4.85098269e-003 1.10970193e-003 7.29232701e-003 1.51236523e-002
      5.23145217e-003 8.24350049e-004 4.43880796e-004 4.12175024e-004
      8.40202905e-003 9.51173133e-004 1.94039308e-002 3.34812924e-002
      9.09955613e-003 2.85351940e-004 6.97526964e-004 4.75586567e-004
      8.24350049e-004 3.17057711e-005 6.65821193e-004 6.34115422e-004
      1.07482560e-002 4.12175024e-004 6.34115422e-004 4.12175024e-004
      1.93405207e-002 3.48763482e-004 3.68421040e-002 1.07165501e-002
      8.08497146e-003 1.01458468e-003 9.19467362e-004 7.92644278e-004
      7.29232735e-004 6.34115422e-005 5.70703880e-004 8.87761591e-004
      1.07799622e-003 6.34115422e-005 9.51173133e-005 3.17057711e-005
      8.87761591e-004 6.34115422e-005 7.60938507e-004 1.29993656e-003
      1.50919463e-002 6.65821193e-004 5.70703880e-004 5.07292338e-004
      7.29232735e-004 3.17057711e-005 8.87761591e-004 6.02409651e-004
      3.25935334e-002 4.75586567e-004 9.19467362e-004 2.85351940e-004
      3.37349400e-002 4.12175024e-004 1.42041855e-002 3.96322133e-003
      7.57767912e-003 1.17311347e-003 6.34115422e-004 6.97526964e-004
      4.12175024e-004 6.34115422e-005 3.48763482e-004 4.12175024e-004
      6.97526964e-004 3.17057711e-005 6.34115422e-005 0. 4.12175024e-004
      3.17057711e-005 1.90234627e-004 5.07292338e-004 1.10970193e-003 0.
      0. 3.17057711e-005 9.51173133e-005 0. 9.51173133e-005
      3.17057711e-005 9.51173133e-004 3.17057711e-005 6.34115422e-005 0.
      3.17057711e-004 6.34115422e-005 3.48763482e-004 1.26823084e-004
      1.19530754e-002 9.82878846e-004 8.24350049e-004 1.20481930e-003
      7.92644278e-004 3.17057711e-005 4.75586567e-004 2.85351940e-004
      7.60938507e-004 1.58528856e-004 9.51173133e-005 9.51173133e-005
      6.02409651e-004 9.51173133e-005 6.97526964e-004 6.02409651e-004
      2.98351292e-002 5.07292338e-004 6.65821193e-004 3.80469253e-004
      5.07292338e-004 0. 5.70703880e-004 2.21940398e-004 6.43627122e-002
      6.34115422e-004 7.60938507e-004 3.48763482e-004 1.46797718e-002
      2.21940398e-004 5.77044999e-003 1.99746364e-003 7.60938507e-003
      1.30944829e-002 7.92644278e-004 2.32720356e-002 6.02409651e-004
      7.92644278e-004 7.92644278e-004 2.62523778e-002 4.12175024e-004
      6.65821193e-004 0. 4.43880796e-004 6.65821193e-004 6.34115422e-004
      7.60938507e-004 1.23652508e-002 1.01458468e-003 5.38998109e-004
      2.53646169e-004 5.07292338e-004 1.90234627e-004 0. 1.26823084e-004
      5.07292338e-004 8.56055820e-004 6.34115422e-004 6.34115422e-005
      3.80469253e-004 7.92644278e-004 2.85351940e-004 1.49017118e-003
      3.67786945e-003 9.51173133e-004 1.10970193e-003 1.26823084e-004
      1.07799622e-003 1.90234627e-004 3.17057711e-005 3.17057711e-005
      6.97526964e-004 9.51173133e-005 6.34115422e-005 0. 9.51173133e-005
      1.26823084e-004 9.51173133e-005 3.17057711e-005 6.65821193e-004
      9.51173133e-004 8.24350049e-004 0. 4.12175024e-004 0.
      3.17057711e-005 1.58528856e-004 5.07292338e-004 8.24350049e-004
      6.65821193e-004 1.26823084e-004 5.07292338e-004 1.17311347e-003
      5.70703880e-004 6.34115422e-004 3.51934042e-003 1.13823712e-002
      2.53646169e-002 1.33164239e-003 4.02346216e-002 2.53646169e-004
      6.02409651e-004 7.60938507e-004 1.16360178e-002 6.65821193e-004
      7.92644278e-004 3.17057711e-005 9.19467362e-004 3.17057711e-004
      6.34115422e-004 7.60938507e-004 6.15091948e-003 1.29993656e-003
      5.38998109e-004 9.51173133e-005 7.60938507e-004 9.51173133e-005
      9.51173133e-005 6.34115422e-005 2.85351940e-004 7.60938507e-004
      3.48763482e-004 3.17057711e-005 5.38998109e-004 4.75586567e-004
      2.21940398e-004 5.07292338e-004 1.80722889e-003 2.44768541e-002
      3.87127474e-002 1.42675964e-003 1.80722885e-002 4.75586567e-004
      5.07292338e-004 9.19467362e-004 6.62650587e-003 1.07799622e-003
      1.23652501e-003 9.51173133e-005 9.19467362e-004 6.65821193e-004
      1.01458468e-003 9.82878846e-004 6.49968302e-003 4.35637273e-002
      1.35066584e-002 1.68040581e-003 4.56563104e-003 6.97526964e-004
      2.53646169e-004 7.92644278e-004 2.79010786e-003 2.02282816e-002
      5.45339240e-003 8.24350049e-004 3.55104636e-003 6.72162324e-003
      2.18769815e-003 6.30944828e-003 1.45529490e-002</_>
    <_>
      5.02536446e-002 8.81420448e-003 5.07292338e-003 1.02092577e-002
      5.67533309e-003 8.87761591e-004 8.14838335e-003 1.45846540e-002
      5.89727331e-003 7.92644278e-004 5.38998109e-004 6.34115422e-004
      9.41661373e-003 1.07799622e-003 1.83576420e-002 3.40202935e-002
      9.92390607e-003 6.34115422e-004 6.65821193e-004 4.12175024e-004
      7.92644278e-004 0. 8.56055820e-004 4.43880796e-004 1.24920737e-002
      3.48763482e-004 6.65821193e-004 5.38998109e-004 2.14648061e-002
      5.38998109e-004 3.38934697e-002 1.06214331e-002 8.84590950e-003
      1.33164239e-003 6.02409651e-004 8.87761591e-004 6.34115422e-004
      6.34115422e-005 8.24350049e-004 7.92644278e-004 1.26823084e-003
      1.58528856e-004 9.51173133e-005 3.17057711e-005 9.51173133e-004
      3.17057711e-005 1.10970193e-003 1.61699427e-003 1.55992387e-002
      6.34115422e-004 7.29232735e-004 3.48763482e-004 1.04629039e-003
      3.17057711e-005 7.92644278e-004 5.07292338e-004 3.49080525e-002
      4.75586567e-004 6.97526964e-004 6.02409651e-004 3.91249210e-002
      3.48763482e-004 1.57260615e-002 4.53392509e-003 7.07038678e-003
      1.33164239e-003 1.01458468e-003 9.51173133e-004 6.02409651e-004
      3.17057711e-005 2.53646169e-004 4.75586567e-004 5.38998109e-004
      9.51173133e-005 3.17057711e-005 3.17057711e-005 4.43880796e-004
      6.34115422e-005 4.43880796e-004 2.21940398e-004 1.01458468e-003
      3.17057711e-005 6.34115422e-005 0. 6.34115422e-005 0.
      6.34115422e-005 0. 1.01458468e-003 6.34115422e-005 6.34115422e-005
      0. 3.17057711e-004 0. 3.17057711e-004 2.21940398e-004
      1.25871906e-002 1.39505393e-003 9.82878846e-004 8.56055820e-004
      8.24350049e-004 1.26823084e-004 7.29232735e-004 6.65821193e-004
      1.14140776e-003 1.26823084e-004 3.17057711e-005 3.17057711e-005
      7.29232735e-004 3.17057711e-005 8.24350049e-004 8.24350049e-004
      3.09131257e-002 6.97526964e-004 6.34115422e-004 4.75586567e-004
      6.65821193e-004 0. 6.02409651e-004 9.51173133e-005 6.80722892e-002
      5.07292338e-004 1.20481930e-003 3.48763482e-004 1.41724795e-002
      2.21940398e-004 6.78503467e-003 2.56816740e-003 6.72162324e-003
      1.19213695e-002 6.97526964e-004 2.15282179e-002 5.38998109e-004
      1.01458468e-003 8.56055820e-004 2.51109693e-002 7.60938507e-004
      6.65821193e-004 3.17057711e-005 7.60938507e-004 6.02409651e-004
      9.82878846e-004 1.01458468e-003 1.17311347e-002 1.17311347e-003
      6.02409651e-004 2.21940398e-004 5.38998109e-004 9.51173133e-005
      3.17057711e-005 6.34115422e-005 3.80469253e-004 8.24350049e-004
      7.29232735e-004 9.51173133e-005 2.85351940e-004 9.51173133e-004
      4.75586567e-004 9.19467362e-004 3.74128087e-003 1.01458468e-003
      1.17311347e-003 1.26823084e-004 8.56055820e-004 3.17057711e-005
      6.34115422e-005 1.26823084e-004 8.24350049e-004 9.51173133e-005
      9.51173133e-005 6.34115422e-005 9.51173133e-005 1.26823084e-004
      6.34115422e-005 1.26823084e-004 9.51173133e-004 9.19467362e-004
      4.12175024e-004 6.34115422e-005 5.38998109e-004 3.17057711e-005
      6.34115422e-005 1.26823084e-004 7.29232735e-004 9.51173133e-004
      4.43880796e-004 6.34115422e-005 6.65821193e-004 1.26823084e-003
      5.70703880e-004 8.24350049e-004 2.56816740e-003 1.12872543e-002
      2.06404570e-002 1.33164239e-003 3.53519358e-002 2.85351940e-004
      5.07292338e-004 6.34115422e-004 1.15409000e-002 6.97526964e-004
      1.39505393e-003 3.17057711e-005 9.19467362e-004 5.07292338e-004
      7.60938507e-004 6.34115422e-004 5.26315812e-003 1.45846547e-003
      4.12175024e-004 2.21940398e-004 6.02409651e-004 6.34115422e-005
      3.17057711e-005 2.53646169e-004 4.43880796e-004 7.29232735e-004
      3.80469253e-004 9.51173133e-005 2.21940398e-004 3.48763482e-004
      3.17057711e-004 6.34115422e-004 1.77552318e-003 1.94356367e-002
      2.97717191e-002 1.01458468e-003 1.43627143e-002 5.38998109e-004
      5.70703880e-004 7.29232735e-004 7.51426769e-003 9.82878846e-004
      1.42675964e-003 1.26823084e-004 1.01458468e-003 9.51173133e-004
      8.56055820e-004 1.71211164e-003 6.91185798e-003 3.93468626e-002
      1.25871906e-002 2.25110981e-003 5.77044999e-003 7.29232735e-004
      1.90234627e-004 1.01458468e-003 2.98034237e-003 2.07355730e-002
      6.65821182e-003 1.33164239e-003 3.29740020e-003 7.35573890e-003
      2.53646169e-003 6.53138850e-003 1.61065310e-002</_>
    <_>
      5.01585305e-002 1.03043756e-002 5.99239068e-003 1.04311984e-002
      4.94610006e-003 9.82878846e-004 8.56055785e-003 1.64870005e-002
      6.43627159e-003 8.87761591e-004 6.65821193e-004 6.97526964e-004
      9.22637898e-003 1.29993656e-003 2.15282179e-002 2.92010140e-002
      1.14140771e-002 6.34115422e-004 7.92644278e-004 7.60938507e-004
      1.20481930e-003 3.17057711e-005 1.29993656e-003 3.48763482e-004
      1.39822448e-002 7.60938507e-004 5.07292338e-004 4.12175024e-004
      2.28598602e-002 5.38998109e-004 3.46861146e-002 1.12238424e-002
      9.79708321e-003 9.19467362e-004 9.51173133e-004 9.51173133e-004
      7.92644278e-004 6.34115422e-005 5.70703880e-004 9.82878846e-004
      1.36334810e-003 1.26823084e-004 3.17057711e-005 9.51173133e-005
      1.23652501e-003 2.53646169e-004 8.56055820e-004 1.64870010e-003
      1.75649971e-002 5.38998109e-004 8.56055820e-004 4.75586567e-004
      7.92644278e-004 9.51173133e-005 7.92644278e-004 2.53646169e-004
      3.54787558e-002 6.02409651e-004 7.92644278e-004 4.43880796e-004
      3.79518084e-002 5.38998109e-004 1.53138870e-002 5.67533309e-003
      8.18008836e-003 1.07799622e-003 5.38998109e-004 9.82878846e-004
      2.85351940e-004 6.34115422e-005 5.38998109e-004 5.38998109e-004
      6.97526964e-004 0. 3.17057711e-005 0. 6.02409651e-004
      6.34115422e-005 5.70703880e-004 3.17057711e-004 1.01458468e-003 0.
      9.51173133e-005 6.34115422e-005 6.34115422e-005 3.17057711e-005
      6.34115422e-005 6.34115422e-005 1.14140776e-003 6.34115422e-005
      1.26823084e-004 0. 5.07292338e-004 3.17057711e-005 5.07292338e-004
      1.58528856e-004 1.35066584e-002 1.20481930e-003 4.43880796e-004
      8.56055820e-004 6.65821193e-004 1.90234627e-004 6.97526964e-004
      4.43880796e-004 1.49017118e-003 9.51173133e-005 1.26823084e-004
      6.34115422e-005 7.60938507e-004 6.34115422e-005 1.10970193e-003
      8.24350049e-004 2.98351292e-002 6.02409651e-004 7.29232735e-004
      4.43880796e-004 6.34115422e-004 0. 6.02409651e-004 3.17057711e-004
      5.76093867e-002 4.75586567e-004 1.26823084e-003 7.29232735e-004
      1.55675337e-002 1.90234627e-004 7.45085627e-003 2.12428672e-003
      7.10209273e-003 1.19847814e-002 7.92644278e-004 2.26062145e-002
      8.87761591e-004 9.82878846e-004 1.17311347e-003 2.41597965e-002
      8.24350049e-004 9.82878846e-004 3.17057711e-005 6.65821193e-004
      5.07292338e-004 8.24350049e-004 1.10970193e-003 1.42358905e-002
      9.82878846e-004 5.70703880e-004 1.90234627e-004 5.70703880e-004
      1.58528856e-004 0. 1.58528856e-004 4.12175024e-004 1.01458468e-003
      6.34115422e-004 6.34115422e-005 5.38998109e-004 7.29232735e-004
      3.80469253e-004 1.49017118e-003 4.31198487e-003 9.19467362e-004
      1.36334810e-003 9.51173133e-005 1.07799622e-003 3.17057711e-005
      3.17057711e-005 9.51173133e-005 9.51173133e-004 1.26823084e-004
      1.26823084e-004 0. 9.51173133e-005 1.58528856e-004 0.
      1.58528856e-004 9.19467362e-004 8.56055820e-004 6.02409651e-004
      1.58528856e-004 8.56055820e-004 9.51173133e-005 3.17057711e-005
      3.17057711e-005 6.65821193e-004 1.14140776e-003 7.60938507e-004
      1.26823084e-004 7.29232735e-004 8.56055820e-004 5.70703880e-004
      8.56055820e-004 3.58275208e-003 1.19213695e-002 1.96575783e-002
      1.20481930e-003 3.38617638e-002 6.34115422e-004 6.97526964e-004
      7.29232735e-004 1.10653136e-002 6.34115422e-004 9.51173133e-004
      3.17057711e-005 9.82878846e-004 1.07799622e-003 6.34115422e-004
      9.19467362e-004 5.89727331e-003 1.29993656e-003 6.02409651e-004
      1.90234627e-004 4.75586567e-004 1.26823084e-004 0. 6.34115422e-005
      4.12175024e-004 8.56055820e-004 4.75586567e-004 3.17057711e-005
      4.12175024e-004 6.65821193e-004 3.48763482e-004 6.97526964e-004
      2.15599244e-003 1.61065310e-002 2.67913751e-002 1.14140776e-003
      1.46480659e-002 5.07292338e-004 5.38998109e-004 9.51173133e-004
      6.49968302e-003 1.23652501e-003 1.74381735e-003 9.51173133e-005
      1.26823084e-003 7.92644278e-004 7.60938507e-004 1.01458468e-003
      6.56309444e-003 3.40202935e-002 1.00190239e-002 1.96575769e-003
      5.92897926e-003 6.02409651e-004 2.85351940e-004 1.17311347e-003
      2.34622695e-003 2.11160425e-002 5.35827503e-003 9.82878846e-004
      5.00951195e-003 8.52885190e-003 2.47305003e-003 7.26062153e-003
      1.57894734e-002</_>
    <_>
      4.72098924e-002 1.00507289e-002 5.80215594e-003 1.20164873e-002
      6.78503467e-003 1.39505393e-003 1.06531391e-002 2.05453392e-002
      6.34115422e-003 9.19467362e-004 6.65821193e-004 9.51173133e-004
      1.13506662e-002 1.14140776e-003 2.14648061e-002 3.39568816e-002
      9.35320184e-003 6.97526964e-004 9.82878846e-004 5.07292338e-004
      8.56055820e-004 0. 1.26823084e-003 4.75586567e-004 1.27140144e-002
      6.65821193e-004 6.65821193e-004 5.70703880e-004 2.14013942e-002
      6.97526964e-004 3.52251120e-002 1.21116042e-002 5.23145217e-003
      1.26823084e-003 6.65821193e-004 7.29232735e-004 9.51173133e-004
      6.34115422e-005 9.82878846e-004 1.17311347e-003 7.29232735e-004
      1.90234627e-004 6.34115422e-005 6.34115422e-005 6.02409651e-004
      2.53646169e-004 1.10970193e-003 1.61699427e-003 1.14140771e-002
      8.24350049e-004 8.56055820e-004 6.65821193e-004 1.14140776e-003
      3.17057711e-005 8.24350049e-004 6.34115422e-004 2.68230811e-002
      3.80469253e-004 1.17311347e-003 4.12175024e-004 3.25301215e-002
      3.48763482e-004 1.64870005e-002 5.67533309e-003 7.00697536e-003
      1.04629039e-003 6.97526964e-004 1.04629039e-003 7.60938507e-004
      6.34115422e-005 5.38998109e-004 5.70703880e-004 5.07292338e-004
      1.58528856e-004 6.34115422e-005 9.51173133e-005 6.34115422e-004
      1.26823084e-004 6.97526964e-004 5.70703880e-004 7.92644278e-004 0.
      9.51173133e-005 3.17057711e-005 6.34115422e-005 0. 6.34115422e-005
      3.17057711e-005 1.17311347e-003 6.34115422e-005 0. 3.17057711e-005
      5.70703880e-004 6.34115422e-005 3.48763482e-004 2.85351940e-004
      1.00824349e-002 1.17311347e-003 7.92644278e-004 8.87761591e-004
      3.80469253e-004 3.17057711e-005 5.07292338e-004 6.34115422e-004
      1.07799622e-003 9.51173133e-005 9.51173133e-005 6.34115422e-005
      9.19467362e-004 6.34115422e-005 7.60938507e-004 9.51173133e-004
      2.40012687e-002 6.02409651e-004 8.87761591e-004 5.70703880e-004
      5.07292338e-004 3.17057711e-005 4.75586567e-004 4.43880796e-004
      4.28979062e-002 3.80469253e-004 1.04629039e-003 4.75586567e-004
      1.36017753e-002 2.21940398e-004 7.98985455e-003 2.79010786e-003
      5.96068474e-003 1.24920737e-002 1.01458468e-003 2.43500322e-002
      8.24350049e-004 9.51173133e-004 1.10970193e-003 2.84717809e-002
      9.51173133e-004 9.82878846e-004 6.34115422e-005 1.20481930e-003
      6.97526964e-004 6.34115422e-004 1.07799622e-003 1.54090049e-002
      9.51173133e-004 6.02409651e-004 1.58528856e-004 4.75586567e-004
      3.17057711e-005 9.51173133e-005 9.51173133e-005 3.48763482e-004
      9.19467362e-004 6.65821193e-004 9.51173133e-005 6.97526964e-004
      1.10970193e-003 4.43880796e-004 1.42675964e-003 6.49968302e-003
      7.60938507e-004 6.34115422e-004 1.90234627e-004 6.65821193e-004
      9.51173133e-005 0. 0. 1.36334810e-003 0. 9.51173133e-005 0.
      1.58528856e-004 6.34115422e-005 6.34115422e-005 0. 1.33164239e-003
      5.70703880e-004 4.12175024e-004 6.34115422e-005 6.02409651e-004
      9.51173133e-005 3.17057711e-005 1.26823084e-004 4.43880796e-004
      9.51173133e-004 6.65821193e-004 1.26823084e-004 9.82878846e-004
      1.33164239e-003 5.38998109e-004 6.65821193e-004 5.96068474e-003
      1.06531391e-002 2.25428026e-002 9.19467362e-004 4.38807867e-002
      4.75586567e-004 5.07292338e-004 6.02409651e-004 1.28408372e-002
      8.56055820e-004 1.20481930e-003 1.26823084e-004 1.23652501e-003
      7.29232735e-004 6.02409651e-004 7.60938507e-004 7.26062153e-003
      1.36334810e-003 2.53646169e-004 1.58528856e-004 4.43880796e-004
      1.26823084e-004 3.17057711e-005 9.51173133e-005 2.53646169e-004
      9.51173133e-004 2.53646169e-004 0. 5.07292338e-004 5.70703880e-004
      1.90234627e-004 9.82878846e-004 2.69499049e-003 2.06404570e-002
      3.32593545e-002 1.07799622e-003 1.77235249e-002 4.43880796e-004
      6.97526964e-004 5.38998109e-004 7.48256175e-003 1.23652501e-003
      1.33164239e-003 6.34115422e-005 7.29232735e-004 9.19467362e-004
      6.65821193e-004 1.17311347e-003 8.14838335e-003 3.87127474e-002
      1.12872543e-002 1.42675964e-003 5.51680429e-003 3.80469253e-004
      1.90234627e-004 8.56055820e-004 2.09258078e-003 1.60748251e-002
      4.88268863e-003 1.20481930e-003 5.19974623e-003 6.34115422e-003
      2.18769815e-003 7.64109055e-003 1.69942938e-002</_>
    <_>
      5.88459112e-002 1.38554219e-002 8.43373500e-003 1.31578948e-002
      7.13379821e-003 1.42675964e-003 1.22067221e-002 1.86746996e-002
      8.05326551e-003 1.36334810e-003 1.07799622e-003 8.56055820e-004
      1.10970195e-002 1.80722889e-003 2.10526325e-002 2.97083072e-002
      1.38871279e-002 1.20481930e-003 1.58528856e-003 6.02409651e-004
      1.29993656e-003 9.51173133e-005 2.09258078e-003 7.29232735e-004
      1.30944829e-002 7.29232735e-004 7.92644278e-004 5.07292338e-004
      1.77552309e-002 8.87761591e-004 2.95497775e-002 1.04629043e-002
      7.98985455e-003 1.23652501e-003 8.24350049e-004 1.36334810e-003
      8.56055820e-004 9.51173133e-005 1.23652501e-003 1.71211164e-003
      1.20481930e-003 1.90234627e-004 1.26823084e-004 1.58528856e-004
      1.07799622e-003 2.53646169e-004 1.20481930e-003 2.34622695e-003
      1.35700693e-002 6.02409651e-004 8.87761591e-004 6.34115422e-004
      9.82878846e-004 0. 1.01458468e-003 5.07292338e-004 2.24159788e-002
      5.07292338e-004 1.10970193e-003 6.34115422e-004 2.33037416e-002
      6.02409651e-004 1.26823084e-002 5.51680429e-003 9.06785019e-003
      1.64870010e-003 6.65821193e-004 1.14140776e-003 6.34115422e-004
      1.26823084e-004 7.60938507e-004 7.60938507e-004 9.19467362e-004
      9.51173133e-005 1.90234627e-004 2.21940398e-004 4.43880796e-004
      9.51173133e-005 5.38998109e-004 9.19467362e-004 1.23652501e-003
      9.51173133e-005 6.34115422e-005 9.51173133e-005 6.34115422e-005 0.
      6.34115422e-005 3.17057711e-005 1.20481930e-003 0. 0.
      3.17057711e-005 7.29232735e-004 3.17057711e-005 3.17057711e-004
      3.17057711e-004 1.14140771e-002 1.80722889e-003 1.20481930e-003
      9.82878846e-004 6.02409651e-004 9.51173133e-005 9.51173133e-004
      7.92644278e-004 1.04629039e-003 1.90234627e-004 6.34115422e-005
      1.58528856e-004 6.34115422e-004 1.26823084e-004 1.14140776e-003
      1.77552318e-003 2.27964483e-002 7.29232735e-004 1.77552318e-003
      5.07292338e-004 6.34115422e-004 0. 6.34115422e-004 2.85351940e-004
      3.27520594e-002 6.97526964e-004 1.14140776e-003 5.07292338e-004
      1.10336086e-002 3.80469253e-004 6.91185798e-003 3.10716545e-003
      9.00443923e-003 1.45212431e-002 1.23652501e-003 2.40646806e-002
      9.82878846e-004 1.20481930e-003 1.55358273e-003 2.42232084e-002
      9.51173133e-004 1.01458468e-003 2.53646169e-004 1.20481930e-003
      1.01458468e-003 1.07799622e-003 1.39505393e-003 1.38554219e-002
      1.33164239e-003 5.07292338e-004 3.80469253e-004 8.87761591e-004
      3.17057711e-005 9.51173133e-005 1.26823084e-004 6.02409651e-004
      7.92644278e-004 7.29232735e-004 1.58528856e-004 9.51173133e-004
      9.19467362e-004 8.56055820e-004 2.21940386e-003 5.96068474e-003
      9.19467362e-004 1.04629039e-003 1.26823084e-004 1.26823084e-003
      6.34115422e-005 9.51173133e-005 1.26823084e-004 1.26823084e-003
      9.51173133e-005 9.51173133e-005 0. 9.51173133e-005 1.58528856e-004
      1.26823084e-004 6.34115422e-005 1.39505393e-003 1.01458468e-003
      5.07292338e-004 2.21940398e-004 8.24350049e-004 1.26823084e-004
      6.34115422e-005 2.85351940e-004 4.43880796e-004 1.14140776e-003
      6.97526964e-004 9.51173133e-005 7.60938507e-004 1.33164239e-003
      4.43880796e-004 8.56055820e-004 4.59733652e-003 1.07165501e-002
      2.41597965e-002 1.10970193e-003 3.37983519e-002 6.02409651e-004
      6.97526964e-004 1.17311347e-003 1.10019026e-002 7.60938507e-004
      1.17311347e-003 9.51173133e-005 1.23652501e-003 6.97526964e-004
      7.92644278e-004 1.01458468e-003 7.70450244e-003 1.96575769e-003
      6.34115422e-004 3.80469253e-004 3.80469253e-004 9.51173133e-005
      6.34115422e-005 1.90234627e-004 1.58528856e-004 9.51173133e-004
      6.97526964e-004 9.51173133e-005 8.24350049e-004 5.07292338e-004
