<?xml version="1.0"?>
<opencv_storage>
<opencv_ml_svm>
  <format>3</format>
  <svmType>C_SVC</svmType>
  <kernel>
    <type>RBF</type>
    <gamma>5.0625000000000009e-001</gamma></kernel>
  <C>3.1250000000000000e+002</C>
  <term_criteria><epsilon>1.1920928955078125e-007</epsilon>
    <iterations>1000</iterations></term_criteria>
  <var_count>256</var_count>
  <class_count>2</class_count>
  <class_labels type_id="opencv-matrix">
    <rows>2</rows>
    <cols>1</cols>
    <dt>i</dt>
    <data>
      -1082130432 1065353216</data></class_labels>
  <sv_total>19</sv_total>
  <support_vectors>
    <_>
      4.64489534e-002 7.86303077e-003 4.62904247e-003 1.01775527e-002
      9.13126208e-003 4.12175024e-004 1.17945466e-002 2.14331001e-002
      4.50221961e-003 6.02409651e-004 2.85351940e-004 2.53646169e-004
      1.08750788e-002 5.70703880e-004 2.67913751e-002 3.56689915e-002
      8.52885190e-003 4.12175024e-004 2.53646169e-004 2.53646169e-004
      6.02409651e-004 0. 4.75586567e-004 3.48763482e-004 1.17945466e-002
      3.48763482e-004 5.70703880e-004 6.02409651e-004 2.53646169e-002
      1.26823084e-004 4.01077978e-002 1.13506662e-002 5.73874451e-003
      5.38998109e-004 4.43880796e-004 9.19467362e-004 7.92644278e-004
      6.34115422e-005 8.87761591e-004 6.34115422e-004 3.80469253e-004
      3.17057711e-005 0. 9.51173133e-005 5.38998109e-004 3.17057711e-005
      8.56055820e-004 9.51173133e-004 1.30944829e-002 3.80469253e-004
      8.87761591e-004 3.48763482e-004 1.14140776e-003 6.34115422e-005
      7.60938507e-004 4.12175024e-004 3.05643622e-002 3.80469253e-004
      8.87761591e-004 6.34115422e-004 4.02029157e-002 3.17057711e-004
      1.77235249e-002 4.94610006e-003 7.86303077e-003 5.70703880e-004
      7.92644278e-004 9.19467362e-004 1.90234627e-004 0. 6.02409651e-004
      2.21940398e-004 6.02409651e-004 0. 6.34115422e-005 1.26823084e-004
      5.38998109e-004 3.17057711e-005 1.90234627e-004 1.58528856e-004
      3.80469253e-004 0. 3.17057711e-005 3.17057711e-005 0. 0. 0. 0.
      6.34115422e-004 0. 3.17057711e-005 6.34115422e-005 2.85351940e-004
      0. 1.58528856e-004 6.34115422e-005 1.17628407e-002 6.34115422e-004
      8.87761591e-004 6.02409651e-004 3.80469253e-004 0. 5.07292338e-004
      3.17057711e-004 7.92644278e-004 3.17057711e-005 6.34115422e-005
      6.34115422e-005 6.65821193e-004 6.34115422e-005 5.70703880e-004
      6.97526964e-004 3.01838927e-002 4.43880796e-004 6.65821193e-004
      2.85351940e-004 3.80469253e-004 0. 3.48763482e-004 1.58528856e-004
      4.33734953e-002 3.80469253e-004 8.87761591e-004 5.07292338e-004
      1.01141408e-002 2.21940398e-004 5.16804075e-003 1.10970193e-003
      5.07292338e-003 1.27140144e-002 4.75586567e-004 3.39885876e-002
      6.97526964e-004 6.34115422e-004 5.70703880e-004 2.68230811e-002
      5.38998109e-004 5.70703880e-004 3.17057711e-005 8.87761591e-004
      4.75586567e-004 7.60938507e-004 8.87761591e-004 1.55041218e-002
      6.97526964e-004 3.80469253e-004 6.34115422e-005 4.12175024e-004
      3.17057711e-005 3.17057711e-005 6.34115422e-005 1.90234627e-004
      6.97526964e-004 3.48763482e-004 6.34115422e-005 8.56055820e-004
      1.10970193e-003 4.12175024e-004 1.01458468e-003 6.75332919e-003
      3.80469253e-004 4.43880796e-004 9.51173133e-005 7.60938507e-004
      6.34115422e-005 6.34115422e-005 3.17057711e-005 5.07292338e-004
      3.17057711e-005 3.17057711e-005 0. 3.17057711e-005 0.
      3.17057711e-005 2.21940398e-004 6.97526964e-004 4.12175024e-004
      7.60938507e-004 0. 6.65821193e-004 0. 3.17057711e-005
      3.17057711e-005 5.38998109e-004 9.19467362e-004 8.87761591e-004
      3.17057711e-005 1.83893472e-003 1.10970193e-003 5.38998109e-004
      6.97526964e-004 6.65821182e-003 1.16043119e-002 2.95814835e-002
      3.48763482e-004 5.06658219e-002 1.58528856e-004 2.53646169e-004
      6.34115422e-004 9.89220012e-003 4.75586567e-004 1.20481930e-003
      3.17057711e-005 1.33164239e-003 3.80469253e-004 6.34115422e-004
      6.34115422e-004 5.23145217e-003 6.34115422e-004 3.80469253e-004
      6.34115422e-005 6.34115422e-005 0. 0. 6.34115422e-005
      9.51173133e-005 4.12175024e-004 4.12175024e-004 6.34115422e-005
      8.87761591e-004 1.90234627e-004 1.26823084e-004 6.34115422e-004
      1.80722889e-003 2.40012687e-002 3.83639820e-002 7.60938507e-004
      1.82308182e-002 2.53646169e-004 1.58528856e-004 6.65821193e-004
      4.69245389e-003 9.51173133e-004 7.60938507e-004 3.17057711e-005
      5.07292338e-004 6.02409651e-004 4.12175024e-004 1.93405198e-003
      6.08750805e-003 3.88078615e-002 7.00697536e-003 1.17311347e-003
      3.61445779e-003 2.85351940e-004 1.90234627e-004 6.34115422e-004
      1.10970193e-003 1.89600512e-002 3.83639825e-003 8.56055820e-004
      4.69245389e-003 4.75586578e-003 1.23652501e-003 5.99239068e-003
      1.22067221e-002</_>
    <_>
      4.81293611e-002 9.54343658e-003 5.35827503e-003 1.51553582e-002
      9.03614424e-003 2.85351940e-004 1.34432465e-002 3.07228919e-002
      3.74128087e-003 5.38998109e-004 1.90234627e-004 5.07292338e-004
      1.06214331e-002 6.34115422e-004 2.56182626e-002 3.87127474e-002
      7.92644266e-003 2.85351940e-004 4.75586567e-004 3.48763482e-004
      7.60938507e-004 0. 6.34115422e-004 4.12175024e-004 1.14140771e-002
      3.17057711e-004 4.43880796e-004 3.80469253e-004 2.41280906e-002
      2.53646169e-004 4.03614454e-002 1.00507289e-002 4.53392509e-003
      5.38998109e-004 4.75586567e-004 7.29232735e-004 6.02409651e-004 0.
      7.60938507e-004 6.65821193e-004 4.75586567e-004 6.34115422e-005
      3.17057711e-005 6.34115422e-005 4.75586567e-004 3.17057711e-005
      7.29232735e-004 9.82878846e-004 1.14457831e-002 3.80469253e-004
      7.29232735e-004 3.80469253e-004 8.24350049e-004 0. 8.87761591e-004
      3.80469253e-004 2.10526325e-002 2.53646169e-004 6.34115422e-004
      6.97526964e-004 3.02155986e-002 2.53646169e-004 1.88332275e-002
      4.15345607e-003 6.68991776e-003 4.43880796e-004 6.65821193e-004
      7.92644278e-004 4.43880796e-004 0. 2.21940398e-004 3.17057711e-004
      7.60938507e-004 6.34115422e-005 6.34115422e-005 0. 2.85351940e-004
      0. 5.07292338e-004 2.21940398e-004 2.85351940e-004 0.
      3.17057711e-005 3.17057711e-005 3.17057711e-005 0. 3.17057711e-005
      0. 6.34115422e-004 0. 6.34115422e-005 3.17057711e-005
      9.51173133e-005 0. 1.58528856e-004 9.51173133e-005 8.71908665e-003
      8.24350049e-004 9.51173133e-004 1.01458468e-003 1.90234627e-004 0.
      5.07292338e-004 2.85351940e-004 3.48763482e-004 9.51173133e-005 0.
      3.17057711e-005 5.07292338e-004 6.34115422e-005 6.97526964e-004
      6.65821193e-004 2.31452119e-002 2.53646169e-004 7.29232735e-004
      1.90234627e-004 3.17057711e-004 0. 3.17057711e-004 1.26823084e-004
      3.75079252e-002 1.90234627e-004 7.92644278e-004 3.17057711e-004
      8.94102734e-003 6.34115422e-005 4.40710224e-003 1.42675964e-003
      4.59733652e-003 1.54407099e-002 5.07292338e-004 4.97780591e-002
      5.70703880e-004 7.60938507e-004 4.75586567e-004 4.55611907e-002
      4.75586567e-004 6.02409651e-004 3.17057711e-005 7.60938507e-004
      7.29232735e-004 9.51173133e-004 1.07799622e-003 1.93722267e-002
      7.29232735e-004 4.75586567e-004 9.51173133e-005 3.48763482e-004 0.
      0. 3.17057711e-005 2.85351940e-004 6.34115422e-004 3.80469253e-004
      3.17057711e-005 8.24350049e-004 7.92644278e-004 3.17057711e-004
      1.23652501e-003 6.75332919e-003 3.48763482e-004 4.12175024e-004
      3.17057711e-005 7.29232735e-004 6.34115422e-005 6.34115422e-005 0.
      7.60938507e-004 0. 6.34115422e-005 0. 3.17057711e-005
      9.51173133e-005 9.51173133e-005 0. 6.97526964e-004 6.34115422e-004
      3.48763482e-004 0. 6.02409651e-004 6.34115422e-005 3.17057711e-005
      0. 2.53646169e-004 5.38998109e-004 5.07292338e-004 3.17057711e-005
      1.23652501e-003 7.60938507e-004 4.75586567e-004 6.97526964e-004
      6.49968302e-003 9.35320184e-003 2.95814835e-002 7.60938507e-004
      5.65948002e-002 3.80469253e-004 3.80469253e-004 5.07292338e-004
      1.26506025e-002 7.92644278e-004 7.92644278e-004 1.26823084e-004
      1.17311347e-003 5.07292338e-004 5.07292338e-004 6.97526964e-004
      6.18262542e-003 9.19467362e-004 1.58528856e-004 9.51173133e-005
      3.17057711e-004 3.17057711e-005 0. 0. 1.58528856e-004
      8.56055820e-004 2.53646169e-004 0. 7.60938507e-004 5.07292338e-004
      1.58528856e-004 5.07292338e-004 1.42675964e-003 1.89600512e-002
      3.32276486e-002 8.87761591e-004 1.91185791e-002 3.17057711e-004
      2.53646169e-004 8.87761591e-004 5.58021571e-003 9.82878846e-004
      1.10970193e-003 0. 4.75586567e-004 6.65821193e-004 4.12175024e-004
      1.64870010e-003 6.88015204e-003 3.10082436e-002 6.53138850e-003
      7.92644278e-004 4.31198487e-003 2.21940398e-004 6.34115422e-005
      5.70703880e-004 1.20481930e-003 1.43310083e-002 3.70957516e-003
      6.65821193e-004 4.66074841e-003 4.56563104e-003 9.82878846e-004
      5.99239068e-003 1.18262526e-002</_>
    <_>
      5.50095104e-002 8.56055785e-003 6.30944828e-003 1.52187701e-002
      1.04946103e-002 4.75586567e-004 1.19530754e-002 2.85351928e-002
      5.16804075e-003 4.75586567e-004 3.48763482e-004 5.07292338e-004
      9.67026036e-003 5.07292338e-004 2.75840200e-002 3.66201662e-002
      7.92644266e-003 4.75586567e-004 6.34115422e-004 2.85351940e-004
      6.34115422e-004 3.17057711e-005 6.02409651e-004 2.53646169e-004
      9.98731796e-003 2.53646169e-004 4.12175024e-004 3.48763482e-004
      2.23842748e-002 2.21940398e-004 3.49714644e-002 9.41661373e-003
      4.43880772e-003 8.87761591e-004 7.60938507e-004 6.97526964e-004
      8.87761591e-004 6.34115422e-005 4.75586567e-004 5.70703880e-004
      2.85351940e-004 1.26823084e-004 3.17057711e-005 6.34115422e-005
      3.80469253e-004 3.17057711e-005 6.97526964e-004 9.51173133e-004
      1.05897272e-002 1.58528856e-004 5.38998109e-004 1.90234627e-004
      5.07292338e-004 3.17057711e-005 8.24350049e-004 3.17057711e-004
      2.39061508e-002 2.85351940e-004 1.04629039e-003 4.12175024e-004
      3.18008885e-002 9.51173133e-005 1.53772989e-002 4.37539630e-003
      7.86303077e-003 4.12175024e-004 9.51173133e-004 1.45846547e-003
      3.80469253e-004 6.34115422e-005 3.80469253e-004 3.48763482e-004
      5.07292338e-004 6.34115422e-005 9.51173133e-005 6.34115422e-005
      3.80469253e-004 3.17057711e-005 4.12175024e-004 2.85351940e-004
      1.58528856e-004 0. 3.17057711e-005 0. 3.17057711e-005 0. 0. 0.
      3.17057711e-004 0. 3.17057711e-005 9.51173133e-005 1.90234627e-004
      0. 1.26823084e-004 3.17057711e-005 1.06214331e-002 7.92644278e-004
      6.65821193e-004 9.19467362e-004 3.80469253e-004 0. 3.17057711e-004
      2.53646169e-004 5.70703880e-004 6.34115422e-005 3.17057711e-005 0.
      3.80469253e-004 9.51173133e-005 8.56055820e-004 5.70703880e-004
      2.20355112e-002 1.58528856e-004 6.34115422e-004 4.12175024e-004
      1.90234627e-004 0. 1.90234627e-004 1.26823084e-004 3.12618911e-002
      2.21940398e-004 3.48763482e-004 4.43880796e-004 6.30944828e-003
      9.51173133e-005 4.34369035e-003 1.10970193e-003 6.75332919e-003
      1.64235886e-002 6.97526964e-004 5.33291064e-002 4.43880796e-004
      6.02409651e-004 7.29232735e-004 4.21369672e-002 7.60938507e-004
      7.60938507e-004 0. 9.51173133e-004 5.70703880e-004 1.17311347e-003
      8.24350049e-004 2.02599876e-002 6.02409651e-004 2.85351940e-004
      3.17057711e-005 2.53646169e-004 6.34115422e-005 0. 3.17057711e-005
      2.21940398e-004 6.65821193e-004 4.43880796e-004 9.51173133e-005
      7.60938507e-004 9.19467362e-004 5.70703880e-004 8.56055820e-004
      5.51680429e-003 4.75586567e-004 3.17057711e-004 1.26823084e-004
      9.19467362e-004 3.17057711e-005 3.17057711e-005 3.17057711e-005
      4.75586567e-004 0. 3.17057711e-005 0. 3.17057711e-005
      6.34115422e-005 3.17057711e-005 6.34115422e-005 4.75586567e-004
      2.21940398e-004 4.12175024e-004 6.34115422e-005 5.70703880e-004 0.
      9.51173133e-005 3.17057711e-005 3.17057711e-004 7.29232735e-004
      7.29232735e-004 0. 1.49017118e-003 8.56055820e-004 4.12175024e-004
      7.92644278e-004 7.10209273e-003 1.27774253e-002 3.15155350e-002
      5.70703880e-004 6.46797717e-002 2.53646169e-004 6.34115422e-005
      7.29232735e-004 1.02409637e-002 6.65821193e-004 1.01458468e-003
      3.17057711e-005 9.82878846e-004 2.21940398e-004 2.85351940e-004
      9.82878846e-004 6.02409616e-003 8.24350049e-004 2.53646169e-004
      6.34115422e-005 2.85351940e-004 0. 0. 1.90234627e-004
      1.90234627e-004 8.24350049e-004 3.80469253e-004 0. 9.19467362e-004
      5.07292338e-004 3.17057711e-005 4.75586567e-004 1.42675964e-003
      2.43183263e-002 3.55738737e-002 8.24350049e-004 1.91502851e-002
      2.53646169e-004 2.53646169e-004 5.38998109e-004 4.02663276e-003
      6.65821193e-004 6.02409651e-004 6.34115422e-005 4.12175024e-004
      6.65821193e-004 7.29232735e-004 1.64870010e-003 5.89727331e-003
      2.90107802e-002 6.08750805e-003 1.10970193e-003 3.13887116e-003
      1.58528856e-004 1.58528856e-004 6.65821193e-004 1.26823084e-003
      1.42675964e-002 2.98034237e-003 5.70703880e-004 5.32656955e-003
      3.51934042e-003 7.29232735e-004 4.94610006e-003 1.11604314e-002</_>
    <_>
      8.08180124e-002 1.59606844e-001 2.21940386e-003 7.41915032e-003
      2.44134432e-003 1.26823084e-004 2.88522500e-003 5.10462886e-003
      1.49017118e-003 6.65821193e-004 6.34115422e-005 9.51173133e-005
      1.93405198e-003 3.48763482e-004 6.72162324e-003 1.20164873e-002
      1.00443877e-001 2.20038053e-002 1.01458468e-003 6.97526964e-004
      7.29232735e-004 3.17057711e-005 7.92644278e-004 2.85351940e-004
      6.18262542e-003 1.10970193e-003 4.12175024e-004 2.53646169e-004
      8.14838335e-003 4.43880796e-004 1.23335449e-002 3.17057711e-003
      1.10970193e-003 9.82878846e-004 1.26823084e-004 1.26823084e-004
      1.90234627e-004 0. 2.53646169e-004 6.34115422e-005 4.43880796e-004
      2.21940398e-004 0. 3.17057711e-005 5.07292338e-004 1.26823084e-004
      7.92644278e-004 3.17057711e-004 6.02409616e-003 8.87761591e-004
      1.58528856e-004 6.34115422e-005 2.21940398e-004 6.34115422e-005
      1.90234627e-004 3.17057711e-005 6.88015204e-003 3.80469253e-004
      1.90234627e-004 2.53646169e-004 9.54343658e-003 3.48763482e-004
      7.48256175e-003 1.14140776e-003 1.90234627e-003 5.70703880e-004
      1.90234627e-004 3.80469253e-004 2.21940398e-004 3.17057711e-005
      5.07292338e-004 9.51173133e-005 1.26823084e-004 0. 3.17057711e-005
      0. 2.21940398e-004 3.17057711e-005 3.17057711e-004 2.21940398e-004
      3.17057711e-004 9.51173133e-005 3.17057711e-005 6.34115422e-005
      6.34115422e-005 3.17057711e-005 6.34115422e-005 0. 3.17057711e-005
      3.17057711e-005 0. 0. 1.26823084e-004 0. 1.26823084e-004 0.
      1.26823084e-003 5.38998109e-004 1.26823084e-004 9.51173133e-005
      6.34115422e-005 0. 3.48763482e-004 9.51173133e-005 2.53646169e-004
      1.26823084e-004 0. 0. 6.02409651e-004 2.85351940e-004
      1.99746364e-003 6.97526964e-004 2.56816740e-003 3.80469253e-004 0.
      6.34115422e-005 6.34115422e-005 3.17057711e-005 6.34115422e-005
      6.34115422e-005 3.58275208e-003 2.53646169e-004 9.51173133e-005
      3.17057711e-005 3.45592899e-003 2.21940398e-004 6.18262542e-003
      4.43880796e-004 1.71211164e-003 7.60938507e-003 8.24350049e-004
      1.10019026e-002 1.58528856e-004 2.85351940e-004 4.12175024e-004
      7.16550415e-003 6.34115422e-005 2.53646169e-004 0. 4.43880796e-004
      1.58528856e-004 9.51173133e-005 8.24350049e-004 5.07292338e-003
      4.75586567e-004 6.65821193e-004 2.53646169e-004 6.34115422e-004 0.
      0. 2.85351940e-004 2.21940398e-004 6.34115422e-005 3.17057711e-004
      3.17057711e-005 7.60938507e-004 2.85351940e-004 1.58528856e-004
      1.26823084e-003 1.58528856e-003 3.17057711e-005 1.26823084e-004 0.
      1.58528856e-004 0. 0. 3.17057711e-005 1.26823084e-004
      3.17057711e-005 0. 0. 1.58528856e-004 0. 0. 1.90234627e-004
      1.26823084e-004 3.17057711e-005 1.90234627e-004 6.34115422e-005
      9.51173133e-005 3.17057711e-005 0. 3.17057711e-005 1.26823084e-004
      1.58528856e-004 2.21940398e-004 3.17057711e-005 4.12175024e-004
      1.58528856e-004 3.48763482e-004 6.34115422e-004 1.96575769e-003
      1.33164239e-003 7.64109055e-003 4.43880796e-004 1.18579585e-002
      3.17057711e-005 1.58528856e-004 4.75586567e-004 5.83386188e-003
      1.26823084e-004 1.90234627e-004 0. 4.12175024e-004 2.21940398e-004
      1.26823084e-004 1.14140776e-003 7.48256175e-003 2.53646169e-004
      1.58528856e-004 6.34115422e-005 2.85351940e-004 3.17057711e-005 0.
      9.51173133e-005 1.26823084e-004 1.90234627e-004 9.51173133e-005
      3.17057711e-005 9.51173133e-005 9.51173133e-005 6.34115422e-005
      1.26823084e-003 8.56055820e-004 4.88268863e-003 1.24920737e-002
      9.82878846e-004 6.81674061e-003 1.90234627e-004 1.58528856e-004
      1.55358273e-003 7.03868084e-003 6.34115422e-004 5.38998109e-004
      1.90234627e-004 4.12175024e-004 1.29993656e-003 1.01458468e-003
      5.43436892e-002 1.52029172e-001 5.10462886e-003 1.23652501e-003
      3.48763482e-004 4.75586567e-004 1.26823084e-004 3.17057711e-005
      5.38998109e-004 5.70703880e-004 2.31452123e-003 8.87761591e-004
      5.07292338e-004 1.04629039e-003 5.45339240e-003 5.07292338e-004
      1.01046294e-001 3.44641730e-002</_>
    <_>
      4.71147746e-002 9.00443923e-003 4.47051367e-003 9.76537727e-003
      8.08497146e-003 9.51173133e-005 1.07799619e-002 2.06087511e-002
      4.69245389e-003 6.02409651e-004 3.17057711e-004 2.85351940e-004
      1.04311984e-002 6.65821193e-004 2.79010776e-002 3.55421677e-002
      7.86303077e-003 3.48763482e-004 4.12175024e-004 2.53646169e-004
      3.48763482e-004 0. 6.34115422e-004 1.90234627e-004 1.06848450e-002
      3.48763482e-004 4.43880796e-004 3.80469253e-004 2.24476848e-002
      3.48763482e-004 3.86493355e-002 1.13823712e-002 5.10462886e-003
      6.65821193e-004 5.07292338e-004 4.75586567e-004 8.56055820e-004 0.
      4.75586567e-004 6.34115422e-004 3.17057711e-004 3.17057711e-005
      3.17057711e-005 3.17057711e-005 4.75586567e-004 0. 1.04629039e-003
      9.19467362e-004 1.29359541e-002 1.90234627e-004 4.43880796e-004
      3.17057711e-004 7.29232735e-004 0. 5.70703880e-004 3.80469253e-004
      3.05326562e-002 4.12175024e-004 8.24350049e-004 4.75586567e-004
      4.00126837e-002 1.90234627e-004 1.84844639e-002 5.58021571e-003
      8.75079259e-003 5.38998109e-004 8.87761591e-004 7.60938507e-004
      2.85351940e-004 9.51173133e-005 3.48763482e-004 2.21940398e-004
      5.07292338e-004 6.34115422e-005 3.17057711e-005 3.17057711e-005
      2.53646169e-004 0. 2.21940398e-004 3.48763482e-004 3.80469253e-004
      0. 0. 0. 0. 0. 0. 0. 3.80469253e-004 0. 9.51173133e-005
      3.17057711e-005 1.58528856e-004 0. 1.26823084e-004 1.58528856e-004
      1.20481923e-002 7.29232735e-004 4.12175024e-004 7.60938507e-004
      1.90234627e-004 0. 5.38998109e-004 2.53646169e-004 3.48763482e-004
      6.34115422e-005 9.51173133e-005 3.17057711e-005 3.80469253e-004 0.
      6.34115422e-004 5.38998109e-004 3.47178169e-002 2.85351940e-004
      6.02409651e-004 3.48763482e-004 2.85351940e-004 0. 4.43880796e-004
      6.34115422e-005 3.93151566e-002 1.58528856e-004 6.97526964e-004
      3.80469253e-004 8.52885190e-003 3.17057711e-005 3.83639825e-003
      9.82878846e-004 5.99239068e-003 1.38871279e-002 6.02409651e-004
      2.98034251e-002 4.75586567e-004 4.75586567e-004 4.43880796e-004
      2.92961318e-002 5.70703880e-004 6.34115422e-004 6.34115422e-005
      7.60938507e-004 6.65821193e-004 8.87761591e-004 1.01458468e-003
      1.56626515e-002 7.92644278e-004 3.48763482e-004 1.26823084e-004
      2.21940398e-004 3.17057711e-005 0. 6.34115422e-005 6.34115422e-005
      6.65821193e-004 5.07292338e-004 3.17057711e-005 7.60938507e-004
      8.24350049e-004 1.58528856e-004 7.29232735e-004 6.05580211e-003
      4.12175024e-004 4.43880796e-004 3.17057711e-005 9.82878846e-004
      6.34115422e-005 3.17057711e-005 0. 3.80469253e-004 0.
      6.34115422e-005 0. 6.34115422e-005 3.17057711e-005 0.
      3.17057711e-005 5.70703880e-004 2.53646169e-004 3.80469253e-004 0.
      4.43880796e-004 6.34115422e-005 0. 0. 3.48763482e-004
      8.24350049e-004 5.70703880e-004 6.34115422e-005 1.29993656e-003
      1.07799622e-003 5.70703880e-004 3.80469253e-004 5.73874451e-003
      1.13506662e-002 3.11984774e-002 5.70703880e-004 4.86683585e-002
      1.58528856e-004 1.90234627e-004 4.12175024e-004 7.92644266e-003
      5.38998109e-004 7.60938507e-004 3.17057711e-005 9.82878846e-004
      3.48763482e-004 4.43880796e-004 7.92644278e-004 4.21686750e-003
      4.75586567e-004 1.58528856e-004 6.34115422e-005 2.53646169e-004 0.
      0. 6.34115422e-005 9.51173133e-005 6.34115422e-004 2.53646169e-004
      3.17057711e-005 4.75586567e-004 2.53646169e-004 1.26823084e-004
      3.48763482e-004 1.26823084e-003 3.35447043e-002 4.80659492e-002
      8.24350049e-004 1.83576420e-002 4.12175024e-004 2.21940398e-004
      8.56055820e-004 4.62904247e-003 5.70703880e-004 6.65821193e-004
      3.17057711e-005 5.07292338e-004 5.70703880e-004 5.07292338e-004
      1.83893472e-003 5.42168692e-003 4.93024737e-002 9.03614424e-003
      9.19467362e-004 3.55104636e-003 3.17057711e-004 6.34115422e-005
      5.07292338e-004 1.04629039e-003 1.80405825e-002 3.04375403e-003
      6.65821193e-004 3.93151538e-003 3.96322133e-003 1.10970193e-003
      5.64362714e-003 9.86049417e-003</_>
    <_>
      4.91756499e-002 8.33861809e-003 4.85098269e-003 1.16043119e-002
      8.52885190e-003 2.21940398e-004 1.17628407e-002 1.91819910e-002
      5.04121743e-003 5.07292338e-004 5.38998109e-004 2.21940398e-004
      1.05897272e-002 3.17057711e-004 2.80596074e-002 3.43373492e-002
      8.59226380e-003 3.80469253e-004 2.21940398e-004 4.43880796e-004
      2.85351940e-004 0. 4.75586567e-004 2.21940398e-004 1.21750161e-002
      1.90234627e-004 4.43880796e-004 3.17057711e-004 2.47622076e-002
      1.90234627e-004 3.86493355e-002 1.01458468e-002 5.70703857e-003
      6.65821193e-004 3.80469253e-004 6.34115422e-004 7.92644278e-004 0.
      6.65821193e-004 7.60938507e-004 5.70703880e-004 3.17057711e-005
      6.34115422e-005 0. 4.75586567e-004 3.17057711e-005 6.65821193e-004
      8.87761591e-004 1.42675964e-002 2.85351940e-004 6.02409651e-004
      3.80469253e-004 1.10970193e-003 6.34115422e-005 9.82878846e-004
      2.21940398e-004 3.46861146e-002 3.17057711e-004 8.56055820e-004
      6.97526964e-004 4.37539630e-002 2.21940398e-004 1.81357004e-002
      5.42168692e-003 7.92644266e-003 4.43880796e-004 8.87761591e-004
      1.33164239e-003 5.38998109e-004 0. 2.21940398e-004 3.48763482e-004
      2.53646169e-004 0. 0. 9.51173133e-005 4.43880796e-004 0.
      3.48763482e-004 1.26823084e-004 5.70703880e-004 0. 0. 0. 0. 0.
      3.17057711e-005 0. 6.02409651e-004 0. 0. 3.17057711e-005
      1.58528856e-004 0. 1.90234627e-004 1.58528856e-004 1.28091313e-002
      5.38998109e-004 5.38998109e-004 4.12175024e-004 3.48763482e-004 0.
      4.75586567e-004 2.21940398e-004 6.65821193e-004 3.17057711e-005
      6.34115422e-005 3.17057711e-005 5.70703880e-004 0. 5.38998109e-004
      2.53646169e-004 3.28471772e-002 9.51173133e-005 8.24350049e-004
      3.17057711e-004 2.53646169e-004 6.34115422e-005 3.17057711e-004
      9.51173133e-005 4.47368436e-002 9.51173133e-005 6.97526964e-004
      6.34115422e-004 9.00443923e-003 1.90234627e-004 4.15345607e-003
      1.14140776e-003 6.05580211e-003 1.38237160e-002 2.53646169e-004
      2.96448953e-002 6.02409651e-004 5.70703880e-004 4.75586567e-004
      2.50475593e-002 5.70703880e-004 6.34115422e-004 3.17057711e-005
      8.87761591e-004 7.60938507e-004 8.24350049e-004 6.97526964e-004
      1.56309456e-002 6.02409651e-004 2.53646169e-004 6.34115422e-005
      2.21940398e-004 0. 0. 0. 1.90234627e-004 5.07292338e-004
      5.70703880e-004 0. 6.34115422e-004 6.65821193e-004 2.21940398e-004
      6.65821193e-004 5.92897926e-003 4.43880796e-004 6.02409651e-004
      3.17057711e-005 6.65821193e-004 6.34115422e-005 9.51173133e-005
      3.17057711e-005 6.02409651e-004 6.34115422e-005 0. 0.
      9.51173133e-005 6.34115422e-005 0. 1.26823084e-004 4.43880796e-004
      6.97526964e-004 3.17057711e-004 6.34115422e-005 6.02409651e-004
      6.34115422e-005 6.34115422e-005 3.17057711e-005 5.38998109e-004
      8.87761591e-004 5.07292338e-004 6.34115422e-005 1.71211164e-003
      1.01458468e-003 9.82878846e-004 6.65821193e-004 5.96068474e-003
      1.28725432e-002 3.21179442e-002 5.07292338e-004 4.66708951e-002
      3.48763482e-004 2.21940398e-004 4.12175024e-004 9.03614424e-003
      7.60938507e-004 8.56055820e-004 3.17057711e-005 1.29993656e-003
      4.75586567e-004 2.21940398e-004 5.38998109e-004 4.94610006e-003
      6.02409651e-004 1.90234627e-004 0. 1.26823084e-004 0.
      3.17057711e-005 3.17057711e-005 6.34115422e-005 5.70703880e-004
      3.80469253e-004 9.51173133e-005 1.04629039e-003 4.43880796e-004
      2.21940398e-004 4.12175024e-004 1.36334810e-003 2.71718446e-002
      4.10906784e-002 6.34115422e-004 1.82942301e-002 3.80469253e-004
      3.48763482e-004 6.34115422e-004 4.24857344e-003 9.51173133e-004
      5.70703880e-004 6.34115422e-005 6.02409651e-004 7.29232735e-004
      2.53646169e-004 1.39505393e-003 5.48509834e-003 4.21052650e-002
      6.78503467e-003 7.92644278e-004 3.36081162e-003 2.21940398e-004
      3.17057711e-005 4.43880796e-004 8.24350049e-004 1.83893461e-002
      3.51934042e-003 7.60938507e-004 4.37539630e-003 4.02663276e-003
      8.56055820e-004 5.61192119e-003 1.08116679e-002</_>
    <_>
      7.58719072e-002 6.94356393e-003 7.13379821e-003 8.84590950e-003
      7.89473671e-003 2.21940398e-004 1.29676601e-002 2.07672790e-002
      7.13379821e-003 4.12175024e-004 3.48763482e-004 3.17057711e-004
      1.15409000e-002 4.12175024e-004 3.36081162e-002 3.28154713e-002
      8.84590950e-003 3.17057711e-004 5.38998109e-004 2.53646169e-004
      3.48763482e-004 0. 4.43880796e-004 1.58528856e-004 1.16677238e-002
      4.12175024e-004 4.12175024e-004 2.21940398e-004 2.78376658e-002
      1.90234627e-004 4.28027883e-002 7.38744438e-003 7.92644266e-003
      6.02409651e-004 5.07292338e-004 3.17057711e-004 9.51173133e-004
      3.17057711e-005 9.51173133e-004 5.07292338e-004 6.02409651e-004
      6.34115422e-005 0. 0. 6.97526964e-004 3.17057711e-005
      8.24350049e-004 6.97526964e-004 1.33798355e-002 1.26823084e-004
      2.53646169e-004 2.53646169e-004 1.55358273e-003 0. 1.10970193e-003
      2.85351940e-004 3.69689278e-002 3.17057711e-005 7.92644278e-004
      5.38998109e-004 5.00317067e-002 1.58528856e-004 1.88649334e-002
      3.61445779e-003 7.98985455e-003 4.12175024e-004 7.29232735e-004
      1.10970193e-003 3.17057711e-004 0. 2.85351940e-004 9.51173133e-005
      4.12175024e-004 0. 0. 3.17057711e-005 1.90234627e-004 0.
      2.53646169e-004 1.58528856e-004 1.90234627e-004 3.17057711e-005
      3.17057711e-005 3.17057711e-005 0. 0. 3.17057711e-005 0.
      3.17057711e-004 0. 3.17057711e-005 3.17057711e-005 6.34115422e-005
      0. 2.85351940e-004 1.26823084e-004 1.24286618e-002 6.97526964e-004
      5.07292338e-004 7.60938507e-004 1.90234627e-004 3.17057711e-005
      2.21940398e-004 2.21940398e-004 3.48763482e-004 3.17057711e-005
      3.17057711e-005 6.34115422e-005 4.75586567e-004 6.34115422e-005
      4.75586567e-004 4.43880796e-004 3.65567543e-002 1.58528856e-004
      5.70703880e-004 2.53646169e-004 1.26823084e-004 0. 2.85351940e-004
      0. 4.15662639e-002 1.58528856e-004 5.70703880e-004 3.17057711e-004
      8.75079259e-003 9.51173133e-005 3.67786945e-003 1.14140776e-003
      5.29486360e-003 9.35320184e-003 5.07292338e-004 2.19403934e-002
      3.48763482e-004 3.48763482e-004 2.53646169e-004 2.46670898e-002
      6.34115422e-004 4.75586567e-004 3.17057711e-005 9.19467362e-004
      4.75586567e-004 6.02409651e-004 7.60938507e-004 1.50602413e-002
      5.38998109e-004 1.26823084e-004 3.17057711e-005 1.26823084e-004 0.
      0. 9.51173133e-005 1.26823084e-004 4.43880796e-004 2.85351940e-004
      0. 6.65821193e-004 7.29232735e-004 6.34115422e-004 4.75586567e-004
      5.38998097e-003 6.34115422e-004 2.85351940e-004 0. 4.43880796e-004
      0. 3.17057711e-005 3.17057711e-005 3.17057711e-004 3.17057711e-005
      1.26823084e-004 3.17057711e-005 3.17057711e-005 0. 0.
      3.17057711e-005 2.21940398e-004 3.48763482e-004 5.07292338e-004
      3.17057711e-005 3.48763482e-004 0. 3.17057711e-005 3.17057711e-005
      2.53646169e-004 1.01458468e-003 6.65821193e-004 9.51173133e-005
      1.87064044e-003 1.33164239e-003 8.24350049e-004 4.43880796e-004
      5.99239068e-003 9.73367132e-003 2.08306909e-002 3.48763482e-004
      3.89029793e-002 1.58528856e-004 9.51173133e-005 3.80469253e-004
      5.48509834e-003 5.38998109e-004 6.97526964e-004 9.51173133e-005
      1.58528856e-003 3.48763482e-004 3.17057711e-004 2.85351940e-004
      2.53646169e-003 6.65821193e-004 1.26823084e-004 3.17057711e-005
      6.34115422e-005 0. 0. 0. 1.58528856e-004 9.82878846e-004
      2.85351940e-004 3.17057711e-005 8.24350049e-004 1.58528856e-004
      1.90234627e-004 4.75586567e-004 9.19467362e-004 3.48129347e-002
      3.29422951e-002 5.38998109e-004 1.22384271e-002 1.90234627e-004
      6.34115422e-005 5.38998109e-004 2.21940386e-003 7.92644278e-004
      6.97526964e-004 6.34115422e-005 4.43880796e-004 8.24350049e-004
      4.12175024e-004 2.31452123e-003 3.99492728e-003 6.01141416e-002
      6.65821182e-003 8.56055820e-004 2.40963860e-003 2.21940398e-004
      6.34115422e-005 4.75586567e-004 6.34115422e-004 1.78820547e-002
      3.64616350e-003 3.17057711e-004 4.56563104e-003 4.85098269e-003
      1.10970193e-003 4.56563104e-003 7.79961934e-003</_>
    <_>
      4.35320213e-002 7.57767912e-003 4.62904247e-003 1.30944829e-002
      1.02092577e-002 5.38998109e-004 1.16677238e-002 2.54280288e-002
      4.12175013e-003 6.65821193e-004 3.17057711e-004 4.75586567e-004
      1.14140771e-002 8.24350049e-004 2.60304380e-002 3.81103344e-002
      9.00443923e-003 5.38998109e-004 5.07292338e-004 5.07292338e-004
      4.43880796e-004 3.17057711e-005 6.02409651e-004 1.90234627e-004
      1.36651872e-002 2.85351940e-004 5.38998109e-004 6.97526964e-004
      3.11033614e-002 1.58528856e-004 4.16296758e-002 1.05580213e-002
      4.94610006e-003 6.97526964e-004 4.43880796e-004 6.65821193e-004
      6.97526964e-004 3.17057711e-005 6.02409651e-004 6.02409651e-004
      3.80469253e-004 9.51173133e-005 3.17057711e-005 3.17057711e-005
      6.65821193e-004 9.51173133e-005 1.29993656e-003 8.56055820e-004
      1.34432465e-002 3.48763482e-004 4.43880796e-004 3.48763482e-004
      7.60938507e-004 0. 7.60938507e-004 2.53646169e-004 3.41788195e-002
      6.34115422e-004 8.56055820e-004 6.65821193e-004 4.53075469e-002
      3.80469253e-004 2.13696901e-002 5.61192119e-003 6.81674061e-003
      3.80469253e-004 6.34115422e-004 1.04629039e-003 3.17057711e-004
      6.34115422e-005 2.85351940e-004 3.80469253e-004 6.97526964e-004
      3.17057711e-005 3.17057711e-005 9.51173133e-005 3.17057711e-004 0.
      3.80469253e-004 3.17057711e-004 6.65821193e-004 6.34115422e-005
      3.17057711e-005 0. 3.17057711e-005 0. 0. 0. 6.65821193e-004 0.
      9.51173133e-005 6.34115422e-005 1.58528856e-004 3.17057711e-005
      3.17057711e-004 6.34115422e-005 9.79708321e-003 5.70703880e-004
      6.97526964e-004 7.29232735e-004 3.80469253e-004 3.17057711e-005
      5.70703880e-004 4.43880796e-004 5.38998109e-004 9.51173133e-005
      3.17057711e-005 3.17057711e-005 6.02409651e-004 3.17057711e-005
      1.07799622e-003 4.75586567e-004 2.43183263e-002 3.80469253e-004
      7.92644278e-004 3.17057711e-004 1.90234627e-004 0. 7.29232735e-004
      1.26823084e-004 4.15662639e-002 6.34115422e-005 8.24350049e-004
      2.53646169e-004 1.01775527e-002 2.21940398e-004 5.48509834e-003
      1.49017118e-003 5.45339240e-003 1.17311347e-002 4.43880796e-004
      3.35764103e-002 3.48763482e-004 4.43880796e-004 4.75586567e-004
      3.64933424e-002 5.70703880e-004 7.29232735e-004 0. 1.14140776e-003
      5.07292338e-004 1.07799622e-003 1.01458468e-003 1.85161699e-002
      5.07292338e-004 2.21940398e-004 9.51173133e-005 4.12175024e-004 0.
      3.17057711e-005 9.51173133e-005 2.53646169e-004 9.19467362e-004
      3.17057711e-004 0. 9.82878846e-004 8.56055820e-004 4.43880796e-004
      1.01458468e-003 6.59480039e-003 2.21940398e-004 6.02409651e-004
      3.17057711e-005 6.65821193e-004 6.34115422e-005 6.34115422e-005
      3.17057711e-005 8.56055820e-004 3.17057711e-005 6.34115422e-005 0.
      3.17057711e-005 9.51173133e-005 3.17057711e-005 0. 8.56055820e-004
      4.12175024e-004 3.48763482e-004 3.17057711e-005 6.97526964e-004 0.
      3.17057711e-005 3.17057711e-005 5.07292338e-004 6.34115422e-004
      5.70703880e-004 3.17057711e-005 1.42675964e-003 6.02409651e-004
      6.97526964e-004 6.97526964e-004 7.10209273e-003 9.48002562e-003
      2.43817382e-002 5.07292338e-004 5.08243516e-002 3.48763482e-004
      3.48763482e-004 5.07292338e-004 1.18579585e-002 3.80469253e-004
      4.75586567e-004 0. 1.04629039e-003 3.48763482e-004 4.43880796e-004
      7.60938507e-004 5.73874451e-003 1.04629039e-003 2.85351940e-004
      6.34115422e-005 2.53646169e-004 3.17057711e-005 0. 6.34115422e-005
      9.51173133e-005 5.70703880e-004 2.85351940e-004 3.17057711e-005
      9.82878846e-004 4.75586567e-004 6.34115422e-005 3.80469253e-004
      1.23652501e-003 1.82625242e-002 3.10082436e-002 6.97526964e-004
      1.80088785e-002 3.17057711e-004 2.53646169e-004 7.60938507e-004
      4.59733652e-003 5.07292338e-004 9.51173133e-004 0. 6.02409651e-004
      7.60938507e-004 3.80469253e-004 1.49017118e-003 5.64362714e-003
      3.35447043e-002 6.53138850e-003 7.60938507e-004 3.83639825e-003
      1.58528856e-004 3.17057711e-005 4.75586567e-004 1.10970193e-003
      1.73430573e-002 3.45592899e-003 5.38998109e-004 4.12175013e-003
      5.73874451e-003 1.04629039e-003 6.02409616e-003 1.13506662e-002</_>
    <_>
      4.55611907e-002 9.09955613e-003 4.37539630e-003 1.24920737e-002
      7.48256175e-003 2.85351940e-004 1.06531391e-002 2.14331001e-002
      4.62904247e-003 6.65821193e-004 3.48763482e-004 3.48763482e-004
      1.04311984e-002 7.60938507e-004 2.76791379e-002 3.86493355e-002
      7.86303077e-003 4.75586567e-004 4.12175024e-004 4.12175024e-004
      2.53646169e-004 3.17057711e-005 7.60938507e-004 2.53646169e-004
      1.12238424e-002 4.12175024e-004 3.48763482e-004 4.43880796e-004
      2.32720356e-002 2.21940398e-004 3.96322124e-002 1.09384907e-002
      5.19974623e-003 5.38998109e-004 7.29232735e-004 4.43880796e-004
      9.19467362e-004 9.51173133e-005 5.70703880e-004 6.02409651e-004
      5.07292338e-004 6.34115422e-005 3.17057711e-005 3.17057711e-005
      3.80469253e-004 3.17057711e-005 6.97526964e-004 9.19467362e-004
      1.27457194e-002 1.90234627e-004 5.38998109e-004 2.21940398e-004
      8.24350049e-004 3.17057711e-005 6.65821193e-004 2.21940398e-004
      2.68230811e-002 1.90234627e-004 5.07292338e-004 6.65821193e-004
      4.01712097e-002 2.21940398e-004 1.77235249e-002 4.78757126e-003
      8.14838335e-003 3.80469253e-004 7.60938507e-004 6.65821193e-004
      4.75586567e-004 6.34115422e-005 3.48763482e-004 2.53646169e-004
      6.97526964e-004 0. 3.17057711e-005 0. 2.53646169e-004
      3.17057711e-005 6.34115422e-005 2.21940398e-004 5.38998109e-004 0.
      0. 6.34115422e-005 3.17057711e-005 0. 3.17057711e-005 0.
      5.70703880e-004 0. 9.51173133e-005 3.17057711e-005 1.58528856e-004
      0. 2.21940398e-004 1.26823084e-004 1.16994297e-002 6.65821193e-004
      6.02409651e-004 1.01458468e-003 4.43880796e-004 3.17057711e-005
      5.07292338e-004 2.85351940e-004 5.07292338e-004 0. 0. 0.
      5.07292338e-004 9.51173133e-005 1.17311347e-003 4.43880796e-004
      2.99936589e-002 1.90234627e-004 6.34115422e-004 2.21940398e-004
      3.48763482e-004 0. 5.38998109e-004 9.51173133e-005 3.78883965e-002
      1.58528856e-004 6.65821193e-004 1.26823084e-004 9.92390607e-003
      9.51173133e-005 4.28027892e-003 1.26823084e-003 5.54850977e-003
      1.41407736e-002 5.07292338e-004 3.54153439e-002 3.80469253e-004
      5.38998109e-004 3.48763482e-004 2.77742557e-002 6.02409651e-004
      6.02409651e-004 0. 7.60938507e-004 9.19467362e-004 6.97526964e-004
      9.82878846e-004 1.60431191e-002 7.29232735e-004 2.53646169e-004
      9.51173133e-005 4.43880796e-004 3.17057711e-005 0. 0.
      1.58528856e-004 4.12175024e-004 3.48763482e-004 6.34115422e-005
      6.34115422e-004 6.65821193e-004 4.12175024e-004 1.04629039e-003
      5.16804075e-003 4.43880796e-004 5.38998109e-004 0. 8.56055820e-004
      3.17057711e-005 0. 6.34115422e-005 6.97526964e-004 0.
      3.17057711e-005 0. 3.17057711e-005 9.51173133e-005 0.
      6.34115422e-005 5.38998109e-004 4.43880796e-004 4.12175024e-004
      6.34115422e-005 6.34115422e-004 6.34115422e-005 0. 3.17057711e-005
      3.17057711e-004 8.87761591e-004 7.29232735e-004 9.51173133e-005
      1.83893472e-003 1.29993656e-003 4.43880796e-004 4.75586567e-004
      6.15091948e-003 1.19213695e-002 3.31642367e-002 8.56055820e-004
      5.14901727e-002 3.17057711e-004 2.21940398e-004 5.07292338e-004
      1.04629043e-002 8.87761591e-004 9.82878846e-004 3.17057711e-005
      1.14140776e-003 2.53646169e-004 4.75586567e-004 6.65821193e-004
      5.64362714e-003 6.65821193e-004 1.26823084e-004 0. 2.53646169e-004
      0. 0. 0. 6.34115422e-005 6.02409651e-004 3.17057711e-004
      6.34115422e-005 7.60938507e-004 3.48763482e-004 1.26823084e-004
      5.07292338e-004 1.49017118e-003 2.68864930e-002 4.32783775e-002
      9.82878846e-004 2.01648697e-002 3.17057711e-004 3.48763482e-004
      7.29232735e-004 5.07292338e-003 5.38998109e-004 5.07292338e-004
      3.17057711e-005 6.65821193e-004 6.65821193e-004 3.48763482e-004
      1.52187701e-003 6.53138850e-003 4.12175022e-002 7.60938507e-003
      9.19467362e-004 3.42422328e-003 1.26823084e-004 2.21940398e-004
      5.70703880e-004 1.10970193e-003 1.89283453e-002 3.67786945e-003
      6.65821193e-004 5.10462886e-003 3.93151538e-003 9.82878846e-004
      5.73874451e-003 1.10019026e-002</_>
    <_>
      4.40393165e-002 7.89473671e-003 4.50221961e-003 1.36968931e-002
      9.79708321e-003 2.21940398e-004 1.13189602e-002 2.58402023e-002
      4.37539630e-003 6.02409651e-004 4.12175024e-004 6.02409651e-004
      1.10336086e-002 4.43880796e-004 2.56816745e-002 3.69372219e-002
      7.70450244e-003 3.48763482e-004 6.02409651e-004 4.75586567e-004
      6.02409651e-004 3.17057711e-005 6.34115422e-004 2.85351940e-004
      1.07799619e-002 1.26823084e-004 4.12175024e-004 5.38998109e-004
      2.74254922e-002 2.53646169e-004 3.84590998e-002 1.03677865e-002
      4.66074841e-003 7.29232735e-004 5.38998109e-004 8.24350049e-004
      8.24350049e-004 0. 8.87761591e-004 5.70703880e-004 4.43880796e-004
      3.17057711e-005 9.51173133e-005 6.34115422e-005 6.97526964e-004
      6.34115422e-005 7.29232735e-004 9.19467362e-004 1.19847814e-002
      4.12175024e-004 7.29232735e-004 4.12175024e-004 1.07799622e-003 0.
      1.07799622e-003 3.17057711e-004 2.98668351e-002 3.80469253e-004
      1.14140776e-003 6.65821193e-004 4.28662002e-002 1.90234627e-004
      1.77235249e-002 5.23145217e-003 7.79961934e-003 4.43880796e-004
      8.24350049e-004 8.87761591e-004 3.48763482e-004 0. 7.60938507e-004
      3.48763482e-004 5.07292338e-004 3.17057711e-005 6.34115422e-005
      3.17057711e-005 2.53646169e-004 6.34115422e-005 5.70703880e-004
      3.48763482e-004 4.12175024e-004 6.34115422e-005 6.34115422e-005
      3.17057711e-005 3.17057711e-005 0. 3.17057711e-005 0.
      9.82878846e-004 0. 3.17057711e-005 6.34115422e-005 2.53646169e-004
      0. 1.90234627e-004 9.51173133e-005 9.25808493e-003 6.34115422e-004
      7.60938507e-004 6.02409651e-004 6.34115422e-004 6.34115422e-005
      3.80469253e-004 5.07292338e-004 5.38998109e-004 6.34115422e-005
      1.26823084e-004 6.34115422e-005 5.70703880e-004 3.17057711e-005
      6.97526964e-004 5.70703880e-004 2.61572599e-002 1.90234627e-004
      8.56055820e-004 3.48763482e-004 2.85351940e-004 0. 5.07292338e-004
      2.21940398e-004 3.87127474e-002 1.58528856e-004 5.70703880e-004
      5.38998109e-004 9.98731796e-003 1.90234627e-004 4.78757126e-003
      1.58528856e-003 4.62904247e-003 1.31896008e-002 4.75586567e-004
      4.22637910e-002 4.43880796e-004 8.24350049e-004 5.38998109e-004
      3.56689915e-002 5.38998109e-004 9.19467362e-004 0. 1.14140776e-003
      4.43880796e-004 6.65821193e-004 8.56055820e-004 1.75332911e-002
      7.92644278e-004 4.43880796e-004 9.51173133e-005 3.80469253e-004 0.
      6.34115422e-005 9.51173133e-005 1.26823084e-004 9.51173133e-004
      3.80469253e-004 1.26823084e-004 8.56055820e-004 9.51173133e-004
      5.38998109e-004 1.10970193e-003 6.84844656e-003 3.48763482e-004
      5.70703880e-004 6.34115422e-005 5.70703880e-004 0. 3.17057711e-005
      3.17057711e-005 6.65821193e-004 3.17057711e-005 6.34115422e-005 0.
      9.51173133e-005 9.51173133e-005 6.34115422e-005 3.17057711e-005
      6.02409651e-004 4.43880796e-004 4.12175024e-004 6.34115422e-005
      8.24350049e-004 9.51173133e-005 3.17057711e-005 0. 6.65821193e-004
      8.56055820e-004 6.65821193e-004 6.34115422e-005 1.96575769e-003
      1.07799622e-003 7.60938507e-004 6.65821193e-004 7.79961934e-003
      1.02409637e-002 3.04692462e-002 5.70703880e-004 5.38363978e-002
      2.85351940e-004 1.26823084e-004 3.80469253e-004 1.33798355e-002
      4.43880796e-004 1.01458468e-003 6.34115422e-005 1.39505393e-003
      3.48763482e-004 3.48763482e-004 5.70703880e-004 5.92897926e-003
      5.07292338e-004 3.17057711e-004 3.17057711e-005 4.12175024e-004 0.
      0. 3.17057711e-005 3.17057711e-005 8.87761591e-004 3.80469253e-004
      6.34115422e-005 9.51173133e-004 3.48763482e-004 1.58528856e-004
      5.70703880e-004 1.77552318e-003 1.79771725e-002 3.23715918e-002
      6.97526964e-004 1.94990486e-002 5.38998109e-004 1.90234627e-004
      7.29232735e-004 4.81927721e-003 5.70703880e-004 7.60938507e-004
      3.17057711e-005 5.38998109e-004 7.29232735e-004 6.02409651e-004
      1.90234627e-003 6.27774233e-003 3.09448317e-002 7.19721010e-003
      6.97526964e-004 3.51934042e-003 1.26823084e-004 1.90234627e-004
      5.07292338e-004 1.29993656e-003 1.56626515e-002 4.02663276e-003
      8.87761591e-004 4.88268863e-003 5.04121743e-003 1.20481930e-003
      5.64362714e-003 1.17628407e-002</_>
    <_>
      3.98541540e-002 9.76537727e-003 4.62904247e-003 1.19847814e-002
      7.98985455e-003 7.92644278e-004 1.07799619e-002 2.29232721e-002
      4.05833870e-003 6.97526964e-004 4.12175024e-004 3.17057711e-004
      9.95561201e-003 1.01458468e-003 2.43183263e-002 3.70957516e-002
      1.02092577e-002 4.43880796e-004 5.70703880e-004 5.07292338e-004
      6.97526964e-004 0. 7.60938507e-004 2.53646169e-004 1.19847814e-002
      3.80469253e-004 6.65821193e-004 6.65821193e-004 2.62206718e-002
      3.17057711e-004 3.66518721e-002 1.16043119e-002 4.18516155e-003
      6.65821193e-004 5.07292338e-004 1.14140776e-003 6.65821193e-004 0.
      9.51173133e-004 9.19467362e-004 2.85351940e-004 3.17057711e-005
      9.51173133e-005 0. 5.38998109e-004 6.34115422e-005 8.87761591e-004
      9.82878846e-004 1.27774253e-002 3.80469253e-004 8.87761591e-004
      4.12175024e-004 5.70703880e-004 0. 8.24350049e-004 3.80469253e-004
      2.79644895e-002 4.12175024e-004 8.56055820e-004 6.34115422e-004
      3.61762829e-002 2.85351940e-004 1.97844002e-002 5.58021571e-003
      7.98985455e-003 2.21940398e-004 6.65821193e-004 8.56055820e-004
      4.43880796e-004 0. 2.85351940e-004 4.43880796e-004 7.60938507e-004
      3.17057711e-005 3.17057711e-005 0. 4.75586567e-004 0.
      4.43880796e-004 2.85351940e-004 5.38998109e-004 6.34115422e-005 0.
      0. 3.17057711e-005 0. 0. 0. 7.92644278e-004 0. 3.17057711e-005
      3.17057711e-005 1.58528856e-004 0. 2.53646169e-004 1.90234627e-004
      9.41661373e-003 8.24350049e-004 7.92644278e-004 6.97526964e-004
      3.80469253e-004 3.17057711e-005 4.43880796e-004 4.43880796e-004
      4.12175024e-004 3.17057711e-005 0. 0. 4.12175024e-004
      6.34115422e-005 8.87761591e-004 5.70703880e-004 2.66011413e-002
      2.53646169e-004 1.39505393e-003 4.75586567e-004 2.85351940e-004 0.
      4.75586567e-004 3.17057711e-004 4.93341796e-002 1.90234627e-004
      9.19467362e-004 4.75586567e-004 1.03360815e-002 9.51173133e-005
      6.34115422e-003 1.61699427e-003 4.53392509e-003 1.22067221e-002
      3.48763482e-004 2.76157260e-002 6.34115422e-004 9.51173133e-004
      4.75586567e-004 3.41471136e-002 6.34115422e-004 1.04629039e-003
      6.34115422e-005 6.34115422e-004 1.01458468e-003 1.10970193e-003
      8.56055820e-004 1.81039944e-002 6.02409651e-004 3.80469253e-004
      9.51173133e-005 2.21940398e-004 6.34115422e-005 0. 6.34115422e-005
      1.58528856e-004 6.34115422e-004 4.43880796e-004 0. 4.43880796e-004
      1.17311347e-003 5.70703880e-004 1.10970193e-003 4.91439458e-003
      1.58528856e-004 9.51173133e-005 3.17057711e-005 8.87761591e-004 0.
      3.17057711e-005 3.17057711e-005 7.29232735e-004 3.17057711e-005 0.
      0. 3.17057711e-005 3.17057711e-005 0. 0. 4.12175024e-004
      1.90234627e-004 6.02409651e-004 0. 4.75586567e-004 3.17057711e-005
      6.34115422e-005 6.34115422e-005 6.34115422e-004 7.60938507e-004
      5.07292338e-004 6.34115422e-005 1.04629039e-003 8.87761591e-004
      4.75586567e-004 8.24350049e-004 6.15091948e-003 9.76537727e-003
      2.55231448e-002 2.85351940e-004 5.06658219e-002 4.75586567e-004
      2.21940398e-004 6.34115422e-004 1.17311347e-002 8.56055820e-004
      1.17311347e-003 3.17057711e-005 8.56055820e-004 5.70703880e-004
      4.12175024e-004 8.87761591e-004 6.53138850e-003 9.82878846e-004
      2.85351940e-004 3.17057711e-005 2.85351940e-004 9.51173133e-005
      3.17057711e-005 6.34115422e-005 1.26823084e-004 1.07799622e-003
      3.17057711e-004 6.34115422e-005 5.07292338e-004 3.80469253e-004
      6.34115422e-005 6.02409651e-004 1.61699427e-003 2.27330383e-002
      3.67152840e-002 1.07799622e-003 1.92136969e-002 5.70703880e-004
      6.34115422e-005 8.24350049e-004 5.35827503e-003 8.56055820e-004
      1.17311347e-003 6.34115422e-005 5.07292338e-004 8.56055820e-004
      6.65821193e-004 1.45846547e-003 7.07038678e-003 4.19467352e-002
      9.28979088e-003 8.56055820e-004 4.59733652e-003 1.58528856e-004
      6.34115422e-005 7.60938507e-004 1.64870010e-003 1.88332275e-002
      4.12175013e-003 6.02409651e-004 5.64362714e-003 5.89727331e-003
      1.17311347e-003 7.26062153e-003 1.23652508e-002</_>
    <_>
      4.27710861e-002 1.01458468e-002 5.48509834e-003 1.32530117e-002
      7.70450244e-003 6.65821193e-004 1.17628407e-002 2.94863656e-002
      4.66074841e-003 6.97526964e-004 1.90234627e-004 4.43880796e-004
      1.01458468e-002 9.19467362e-004 2.44134441e-002 4.38173749e-002
      8.52885190e-003 5.38998109e-004 8.56055820e-004 3.80469253e-004
      4.75586567e-004 0. 9.51173133e-004 2.85351940e-004 1.16994297e-002
      3.48763482e-004 5.07292338e-004 6.97526964e-004 2.20989212e-002
      2.53646169e-004 3.34495865e-002 1.14140771e-002 5.13633480e-003
      6.02409651e-004 8.24350049e-004 1.23652501e-003 3.48763482e-004
      3.17057711e-005 9.51173133e-004 7.92644278e-004 3.17057711e-004 0.
      0. 1.58528856e-004 3.80469253e-004 6.34115422e-005 8.87761591e-004
      1.26823084e-003 1.08116679e-002 4.12175024e-004 6.65821193e-004
      1.58528856e-004 5.38998109e-004 0. 1.29993656e-003 3.17057711e-004
      2.22257450e-002 3.80469253e-004 1.29993656e-003 7.60938507e-004
      2.66011413e-002 2.85351940e-004 1.69625878e-002 5.51680429e-003
      7.54597317e-003 6.02409651e-004 7.29232735e-004 6.65821193e-004
      2.53646169e-004 0. 5.07292338e-004 3.48763482e-004 5.70703880e-004
      6.34115422e-005 6.34115422e-005 3.17057711e-005 5.07292338e-004 0.
      4.43880796e-004 4.12175024e-004 3.80469253e-004 6.34115422e-005 0.
      0. 6.34115422e-005 0. 0. 0. 6.02409651e-004 0. 6.34115422e-005 0.
      3.48763482e-004 0. 3.17057711e-004 9.51173133e-005 9.00443923e-003
      7.92644278e-004 8.56055820e-004 1.07799622e-003 3.48763482e-004
      3.17057711e-005 3.17057711e-004 3.80469253e-004 4.43880796e-004
      1.90234627e-004 0. 0. 5.70703880e-004 3.17057711e-005
      5.38998109e-004 6.97526964e-004 2.34305635e-002 1.90234627e-004
      9.82878846e-004 3.80469253e-004 3.17057711e-004 0. 5.70703880e-004
      1.26823084e-004 3.38300578e-002 1.58528856e-004 6.97526964e-004
      4.43880796e-004 8.08497146e-003 6.34115422e-005 5.77044999e-003
      1.58528856e-003 4.94610006e-003 1.48383006e-002 2.85351940e-004
      3.54470499e-002 8.87761591e-004 8.24350049e-004 4.75586567e-004
      4.18833233e-002 6.97526964e-004 8.87761591e-004 0. 8.56055820e-004
      1.01458468e-003 9.82878846e-004 1.26823084e-003 2.09575146e-002
      5.07292338e-004 3.80469253e-004 6.34115422e-005 5.07292338e-004
      6.34115422e-005 0. 9.51173133e-005 2.53646169e-004 8.87761591e-004
      4.12175024e-004 6.34115422e-005 4.43880796e-004 1.20481930e-003
      1.58528856e-004 1.07799622e-003 5.61192119e-003 3.80469253e-004
      4.75586567e-004 6.34115422e-005 6.97526964e-004 0. 3.17057711e-005
      0. 8.56055820e-004 0. 0. 0. 6.34115422e-005 3.17057711e-005
      3.17057711e-005 6.34115422e-005 9.82878846e-004 4.75586567e-004
      5.07292338e-004 0. 6.97526964e-004 9.51173133e-005 3.17057711e-005
      0. 5.70703880e-004 6.02409651e-004 5.70703880e-004 3.17057711e-005
      9.82878846e-004 6.97526964e-004 2.53646169e-004 5.70703880e-004
      5.07292338e-003 1.10653136e-002 3.17057706e-002 4.75586567e-004
      5.52631579e-002 9.51173133e-005 2.53646169e-004 6.97526964e-004
      1.15091950e-002 8.24350049e-004 9.19467362e-004 0. 1.14140776e-003
      6.65821193e-004 4.43880796e-004 9.82878846e-004 6.97526941e-003
      9.51173133e-004 1.90234627e-004 0. 2.53646169e-004 0. 0. 0.
      9.51173133e-005 8.56055820e-004 2.85351940e-004 6.34115422e-005
      4.12175024e-004 3.48763482e-004 1.90234627e-004 5.70703880e-004
      1.83893472e-003 2.20355112e-002 4.31198478e-002 7.60938507e-004
      2.17501577e-002 2.53646169e-004 2.53646169e-004 6.02409651e-004
      6.11921353e-003 7.92644278e-004 8.24350049e-004 3.17057711e-005
      6.97526964e-004 5.70703880e-004 6.02409651e-004 1.68040581e-003
      7.35573890e-003 3.60811651e-002 9.00443923e-003 1.10970193e-003
      4.24857344e-003 2.21940398e-004 6.34115422e-005 6.65821193e-004
      1.29993656e-003 1.64235886e-002 4.50221961e-003 4.43880796e-004
      4.94610006e-003 4.24857344e-003 1.20481930e-003 6.94356393e-003
      1.23652508e-002</_>
    <_>
      4.10589725e-002 1.06214331e-002 3.86810396e-003 1.17945466e-002
      7.00697536e-003 7.29232735e-004 8.97273328e-003 2.15916298e-002
      3.77298659e-003 7.60938507e-004 2.21940398e-004 2.21940398e-004
      9.38490778e-003 7.60938507e-004 1.98478121e-002 3.33861746e-002
      1.05897272e-002 7.92644278e-004 6.97526964e-004 2.53646169e-004
      6.34115422e-004 6.34115422e-005 7.29232735e-004 4.43880796e-004
      1.09384907e-002 2.21940398e-004 2.53646169e-004 4.12175024e-004
      2.17501577e-002 3.80469253e-004 3.37349400e-002 9.73367132e-003
      4.81927721e-003 9.19467362e-004 5.38998109e-004 1.04629039e-003
      8.24350049e-004 3.17057711e-005 8.87761591e-004 1.14140776e-003
      5.70703880e-004 9.51173133e-005 3.17057711e-005 0. 3.17057711e-004
      0. 8.56055820e-004 1.04629039e-003 1.51553582e-002 4.12175024e-004
      8.56055820e-004 4.12175024e-004 7.60938507e-004 3.17057711e-005
      1.04629039e-003 6.02409651e-004 2.59670261e-002 4.43880796e-004
      5.38998109e-004 6.65821193e-004 3.29422951e-002 3.17057711e-004
      1.72479395e-002 4.28027892e-003 8.08497146e-003 9.19467362e-004
      6.02409651e-004 9.51173133e-004 4.75586567e-004 3.17057711e-005
      3.17057711e-004 3.80469253e-004 4.12175024e-004 3.17057711e-005
      3.17057711e-005 3.17057711e-005 2.85351940e-004 3.17057711e-005
      3.17057711e-004 6.34115422e-005 6.34115422e-004 3.17057711e-005
      3.17057711e-005 0. 3.17057711e-005 0. 9.51173133e-005 0.
      7.60938507e-004 6.34115422e-005 6.34115422e-005 3.17057711e-005
      1.26823084e-004 3.17057711e-005 1.58528856e-004 3.17057711e-005
      1.35066584e-002 1.04629039e-003 8.87761591e-004 1.10970193e-003
      4.43880796e-004 0. 5.07292338e-004 8.87761591e-004 7.92644278e-004
      6.34115422e-005 3.17057711e-005 9.51173133e-005 6.02409651e-004
      3.17057711e-005 8.56055820e-004 6.34115422e-004 3.35447043e-002
      3.80469253e-004 1.23652501e-003 4.12175024e-004 4.12175024e-004 0.
      6.65821193e-004 2.85351940e-004 3.85225117e-002 2.21940398e-004
      1.07799622e-003 4.43880796e-004 1.22067221e-002 1.26823084e-004
      5.67533309e-003 1.42675964e-003 5.58021571e-003 1.46163600e-002
      2.85351940e-004 2.41597965e-002 6.97526964e-004 8.87761591e-004
      5.38998109e-004 2.71718446e-002 2.21940398e-004 1.04629039e-003 0.
      5.70703880e-004 1.01458468e-003 1.20481930e-003 8.87761591e-004
      1.61699429e-002 9.19467362e-004 6.34115422e-004 6.34115422e-005
      4.43880796e-004 0. 3.17057711e-005 3.17057711e-005 6.34115422e-005
      1.01458468e-003 6.02409651e-004 6.34115422e-005 5.70703880e-004
      1.33164239e-003 3.80469253e-004 1.23652501e-003 3.55104636e-003
      5.07292338e-004 5.07292338e-004 3.17057711e-005 7.92644278e-004
      6.34115422e-005 3.17057711e-005 3.17057711e-005 4.75586567e-004
      3.17057711e-005 0. 0. 6.34115422e-005 0. 0. 6.34115422e-005
      7.29232735e-004 6.65821193e-004 8.87761591e-004 3.17057711e-005
      5.38998109e-004 0. 9.51173133e-005 3.17057711e-005 5.38998109e-004
      6.65821193e-004 7.92644278e-004 6.34115422e-005 9.19467362e-004
      5.70703880e-004 4.75586567e-004 7.92644278e-004 4.66074841e-003
      1.31261889e-002 3.04692462e-002 7.92644278e-004 3.95688005e-002
      6.65821193e-004 3.17057711e-004 2.85351940e-004 1.22067221e-002
      1.07799622e-003 1.52187701e-003 0. 6.02409651e-004 6.34115422e-004
      5.70703880e-004 9.51173133e-004 6.30944828e-003 8.56055820e-004
      5.07292338e-004 9.51173133e-005 1.58528856e-004 3.17057711e-005
      3.17057711e-005 3.17057711e-005 6.34115422e-005 1.07799622e-003
      3.80469253e-004 0. 4.75586567e-004 4.12175024e-004 1.58528856e-004
      3.80469253e-004 1.36334810e-003 2.86303107e-002 4.16296758e-002
      9.19467362e-004 2.34305635e-002 6.65821193e-004 3.17057711e-004
      9.51173133e-004 6.72162324e-003 1.14140776e-003 9.51173133e-004 0.
      8.56055820e-004 6.34115422e-004 8.24350049e-004 2.12428672e-003
      7.76791386e-003 4.20735590e-002 1.19847814e-002 1.33164239e-003
      6.05580211e-003 3.80469253e-004 1.58528856e-004 6.65821193e-004
      1.83893472e-003 2.47939117e-002 6.15091948e-003 7.60938507e-004
      6.11921353e-003 7.03868084e-003 1.61699427e-003 7.64109055e-003
      1.40139507e-002</_>
    <_>
      4.23589088e-002 1.11604314e-002 4.81927721e-003 1.41407736e-002
      6.84844656e-003 6.34115422e-004 1.03360815e-002 2.85034869e-002
      3.86810396e-003 3.48763482e-004 3.48763482e-004 3.80469253e-004
      8.78249854e-003 6.97526964e-004 2.39061508e-002 4.00443897e-002
      9.41661373e-003 5.70703880e-004 9.51173133e-004 5.38998109e-004
      4.43880796e-004 3.17057711e-005 9.82878846e-004 4.43880796e-004
      9.86049417e-003 3.80469253e-004 3.80469253e-004 5.07292338e-004
      2.07355730e-002 3.48763482e-004 3.33544724e-002 1.16360178e-002
      4.28027892e-003 8.24350049e-004 6.65821193e-004 1.04629039e-003
      5.38998109e-004 0. 7.60938507e-004 1.33164239e-003 2.53646169e-004
      9.51173133e-005 0. 3.17057711e-005 6.02409651e-004 6.34115422e-005
      7.60938507e-004 1.04629039e-003 1.23969559e-002 3.48763482e-004
      1.10970193e-003 6.97526964e-004 9.82878846e-004 0. 1.04629039e-003
      4.12175024e-004 1.85478758e-002 4.75586567e-004 5.38998109e-004
      6.97526964e-004 2.22891569e-002 1.58528856e-004 1.59797091e-002
      3.58275208e-003 7.51426769e-003 7.92644278e-004 7.60938507e-004
      9.51173133e-004 3.80469253e-004 3.17057711e-005 4.12175024e-004
      3.80469253e-004 3.17057711e-004 0. 6.34115422e-005 3.17057711e-005
      4.12175024e-004 0. 3.17057711e-004 4.12175024e-004 7.60938507e-004
      0. 0. 0. 0. 0. 0. 0. 6.34115422e-004 0. 6.34115422e-005
      6.34115422e-005 1.58528856e-004 3.17057711e-005 3.17057711e-004 0.
      1.15726059e-002 9.51173133e-004 6.34115422e-004 1.17311347e-003
      5.38998109e-004 3.17057711e-005 5.38998109e-004 4.12175024e-004
      4.43880796e-004 9.51173133e-005 3.17057711e-005 6.34115422e-005
      6.34115422e-004 0. 6.65821193e-004 3.48763482e-004 2.67596710e-002
      5.07292338e-004 7.60938507e-004 4.43880796e-004 2.21940398e-004 0.
      4.43880796e-004 6.34115422e-005 2.91376039e-002 1.90234627e-004
      6.34115422e-004 4.43880796e-004 8.30691215e-003 1.58528856e-004
      5.19974623e-003 7.60938507e-004 5.58021571e-003 1.57577675e-002
      6.02409651e-004 3.45592909e-002 6.65821193e-004 9.51173133e-004
      3.80469253e-004 3.88395675e-002 5.70703880e-004 6.34115422e-004 0.
      6.02409651e-004 7.60938507e-004 9.82878846e-004 8.56055820e-004
      2.02282816e-002 5.07292338e-004 5.38998109e-004 6.34115422e-005
      1.90234627e-004 3.17057711e-005 0. 3.17057711e-005 2.21940398e-004
      7.92644278e-004 2.53646169e-004 3.17057711e-005 5.38998109e-004
      1.01458468e-003 5.07292338e-004 1.33164239e-003 4.69245389e-003
      4.75586567e-004 7.29232735e-004 3.17057711e-005 1.23652501e-003
      6.34115422e-005 6.34115422e-005 0. 1.01458468e-003 0.
      9.51173133e-005 0. 0. 0. 3.17057711e-005 6.34115422e-005
      5.38998109e-004 4.43880796e-004 6.65821193e-004 9.51173133e-005
      8.56055820e-004 3.17057711e-005 3.17057711e-005 3.17057711e-005
      4.43880796e-004 5.07292338e-004 5.70703880e-004 0. 7.60938507e-004
      9.19467362e-004 2.85351940e-004 3.48763482e-004 4.21686750e-003
      1.26188966e-002 3.54470499e-002 4.12175024e-004 4.23272029e-002
      4.43880796e-004 6.02409651e-004 5.38998109e-004 1.37603041e-002
      8.87761591e-004 1.01458468e-003 6.34115422e-005 9.51173133e-004
      6.65821193e-004 3.80469253e-004 8.87761591e-004 6.46797707e-003
      1.01458468e-003 3.17057711e-004 0. 3.17057711e-004 3.17057711e-005
      3.17057711e-005 6.34115422e-005 1.26823084e-004 1.01458468e-003
      7.29232735e-004 0. 4.75586567e-004 5.70703880e-004 2.85351940e-004
      6.97526964e-004 1.68040581e-003 2.69816108e-002 4.54343706e-002
      1.20481930e-003 2.46353839e-002 7.92644278e-004 1.26823084e-004
      4.75586567e-004 7.57767912e-003 8.87761591e-004 9.82878846e-004
      3.17057711e-005 8.87761591e-004 5.38998109e-004 6.02409651e-004
      1.68040581e-003 7.89473671e-003 3.85225117e-002 1.16994297e-002
      1.23652501e-003 6.18262542e-003 9.51173133e-005 9.51173133e-005
      3.17057711e-004 1.49017118e-003 2.04185154e-002 5.54850977e-003
      7.29232735e-004 5.32656955e-003 6.49968302e-003 1.39505393e-003
      7.10209273e-003 1.42041855e-002</_>
    <_>
      4.13760319e-002 9.41661373e-003 4.31198487e-003 1.24286618e-002
      6.97526941e-003 4.43880796e-004 1.08116679e-002 2.20989212e-002
      4.28027892e-003 5.70703880e-004 2.85351940e-004 4.12175024e-004
      1.02409637e-002 5.07292338e-004 3.26886475e-002 4.41027284e-002
      9.38490778e-003 3.17057711e-004 5.07292338e-004 4.43880796e-004
      2.53646169e-004 0. 8.24350049e-004 2.21940398e-004 1.22067221e-002
      4.12175024e-004 4.12175024e-004 4.43880796e-004 2.64743175e-002
      3.17057711e-004 4.77488898e-002 1.12872543e-002 4.91439458e-003
      6.34115422e-004 7.92644278e-004 4.75586567e-004 5.07292338e-004
      3.17057711e-005 6.34115422e-004 5.38998109e-004 3.17057711e-004 0.
      3.17057711e-005 3.17057711e-005 3.80469253e-004 9.51173133e-005
      9.51173133e-004 6.65821193e-004 1.16360178e-002 2.21940398e-004
      5.07292338e-004 2.21940398e-004 8.87761591e-004 0. 7.29232735e-004
      3.17057711e-004 2.93912496e-002 2.21940398e-004 6.34115422e-004
      6.65821193e-004 3.59860510e-002 2.85351940e-004 1.79454666e-002
      4.37539630e-003 7.45085627e-003 4.43880796e-004 4.43880796e-004
      4.43880796e-004 3.80469253e-004 0. 5.70703880e-004 2.53646169e-004
      5.07292338e-004 6.34115422e-005 3.17057711e-005 6.34115422e-005
      2.53646169e-004 0. 2.21940398e-004 2.21940398e-004 5.07292338e-004
      0. 3.17057711e-005 6.34115422e-005 0. 0. 0. 0. 4.43880796e-004 0.
      0. 6.34115422e-005 1.58528856e-004 0. 9.51173133e-005
      1.58528856e-004 1.10653136e-002 8.24350049e-004 7.92644278e-004
      1.23652501e-003 2.85351940e-004 0. 3.48763482e-004 4.75586567e-004
      6.65821193e-004 6.34115422e-005 0. 3.17057711e-005 7.29232735e-004
      0. 5.07292338e-004 6.34115422e-004 2.93912496e-002 3.17057711e-004
      8.24350049e-004 2.85351940e-004 2.85351940e-004 0. 4.43880796e-004
      1.26823084e-004 4.53075469e-002 1.26823084e-004 4.75586567e-004
      3.17057711e-004 1.10653136e-002 3.17057711e-005 5.86556736e-003
      9.19467362e-004 5.29486360e-003 1.06531391e-002 3.80469253e-004
      2.51109693e-002 5.07292338e-004 6.65821193e-004 1.90234627e-004
      3.07863038e-002 6.02409651e-004 7.29232735e-004 6.34115422e-005
      7.60938507e-004 8.24350049e-004 6.65821193e-004 5.70703880e-004
      1.86746996e-002 5.70703880e-004 5.07292338e-004 3.17057711e-005
      3.80469253e-004 0. 3.17057711e-005 3.17057711e-005 1.90234627e-004
      6.65821193e-004 3.17057711e-004 0. 7.60938507e-004 1.04629039e-003
      2.85351940e-004 7.60938507e-004 4.85098269e-003 4.43880796e-004
      4.75586567e-004 3.17057711e-005 6.34115422e-004 3.17057711e-005
      3.17057711e-005 3.17057711e-005 5.70703880e-004 9.51173133e-005 0.
      0. 3.17057711e-005 0. 9.51173133e-005 0. 6.34115422e-004
      4.75586567e-004 3.80469253e-004 0. 6.65821193e-004 0.
      6.34115422e-005 0. 1.90234627e-004 8.56055820e-004 7.29232735e-004
      3.17057711e-005 9.19467362e-004 6.65821193e-004 3.17057711e-004
      5.70703880e-004 3.83639825e-003 1.16994297e-002 2.73620803e-002
      4.75586567e-004 4.93975915e-002 3.80469253e-004 3.17057711e-004
      6.97526964e-004 9.41661373e-003 6.02409651e-004 1.10970193e-003
      3.17057711e-005 4.75586567e-004 2.85351940e-004 3.48763482e-004
      6.97526964e-004 4.53392509e-003 8.87761591e-004 1.58528856e-004 0.
      3.17057711e-005 0. 0. 9.51173133e-005 9.51173133e-005
      8.87761591e-004 3.17057711e-004 0. 3.48763482e-004 4.43880796e-004
      3.17057711e-005 5.70703880e-004 1.04629039e-003 2.83449590e-002
      3.49714644e-002 7.92644278e-004 1.83576420e-002 3.80469253e-004
      1.90234627e-004 4.75586567e-004 5.16804075e-003 1.17311347e-003
      9.82878846e-004 6.34115422e-005 7.29232735e-004 9.19467362e-004
      4.43880796e-004 1.80722889e-003 5.45339240e-003 4.54660766e-002
      9.92390607e-003 9.19467362e-004 4.24857344e-003 3.17057711e-004
      9.51173133e-005 6.65821193e-004 1.07799622e-003 1.96258724e-002
      4.34369035e-003 6.97526964e-004 4.50221961e-003 5.19974623e-003
      9.19467362e-004 5.77044999e-003 9.95561201e-003</_>
    <_>
      4.14077379e-002 1.11921374e-002 5.38998097e-003 1.41407736e-002
      6.21433090e-003 3.48763482e-004 1.09384907e-002 2.95814835e-002
      3.99492728e-003 8.56055820e-004 4.75586567e-004 3.80469253e-004
      9.86049417e-003 6.97526964e-004 3.50031704e-002 5.66899180e-002
      8.30691215e-003 5.07292338e-004 6.34115422e-004 3.17057711e-004
      3.80469253e-004 0. 8.56055820e-004 2.53646169e-004 1.06848450e-002
      3.17057711e-004 6.65821193e-004 4.75586567e-004 2.37793270e-002
      2.85351940e-004 4.85732406e-002 1.26188966e-002 4.24857344e-003
      5.07292338e-004 2.85351940e-004 9.51173133e-004 5.70703880e-004 0.
      6.34115422e-004 6.34115422e-004 5.70703880e-004 0. 0. 0.
      5.70703880e-004 3.17057711e-005 9.82878846e-004 8.56055820e-004
      1.18896635e-002 3.17057711e-004 5.38998109e-004 2.21940398e-004
      5.07292338e-004 0. 7.92644278e-004 3.48763482e-004 2.40329746e-002
      2.53646169e-004 6.97526964e-004 4.12175024e-004 2.74889022e-002
      1.26823084e-004 1.74381733e-002 3.80469253e-003 6.78503467e-003
      3.80469253e-004 4.75586567e-004 7.60938507e-004 3.48763482e-004 0.
      3.48763482e-004 1.58528856e-004 3.17057711e-004 0. 0. 0.
      3.80469253e-004 0. 3.80469253e-004 1.58528856e-004 3.48763482e-004
      0. 3.17057711e-005 0. 0. 0. 0. 0. 3.80469253e-004 0.
      9.51173133e-005 0. 2.85351940e-004 3.17057711e-005 2.85351940e-004
      1.90234627e-004 9.60684847e-003 6.02409651e-004 6.97526964e-004
      6.65821193e-004 2.53646169e-004 0. 4.12175024e-004 2.85351940e-004
      4.12175024e-004 3.17057711e-005 0. 0. 5.07292338e-004
      6.34115422e-005 8.56055820e-004 6.34115422e-004 2.59670261e-002
      1.90234627e-004 6.97526964e-004 1.90234627e-004 1.90234627e-004 0.
      3.80469253e-004 1.26823084e-004 4.60367799e-002 2.21940398e-004
      5.07292338e-004 5.38998109e-004 8.43373500e-003 1.26823084e-004
      4.91439458e-003 1.04629039e-003 5.00951195e-003 1.21750161e-002
      4.12175024e-004 3.21496502e-002 3.80469253e-004 4.12175024e-004
      5.07292338e-004 3.45275849e-002 5.07292338e-004 5.07292338e-004 0.
      7.60938507e-004 6.34115422e-004 9.51173133e-004 1.10970193e-003
      2.10526325e-002 5.70703880e-004 3.17057711e-004 3.17057711e-005
      2.85351940e-004 3.17057711e-005 3.17057711e-005 6.34115422e-005
      3.80469253e-004 5.38998109e-004 2.53646169e-004 3.17057711e-005
      6.97526964e-004 6.02409651e-004 2.53646169e-004 9.19467362e-004
      4.21686750e-003 4.43880796e-004 5.07292338e-004 0. 5.70703880e-004
      9.51173133e-005 6.34115422e-005 3.17057711e-005 5.70703880e-004
      3.17057711e-005 3.17057711e-005 0. 0. 3.17057711e-005 0.
      6.34115422e-005 5.38998109e-004 3.48763482e-004 4.75586567e-004
      6.34115422e-005 6.97526964e-004 9.51173133e-005 3.17057711e-005
      3.17057711e-005 3.17057711e-004 4.75586567e-004 4.75586567e-004
      3.17057711e-005 7.29232735e-004 4.43880796e-004 1.90234627e-004
      2.53646169e-004 4.05833870e-003 1.04629043e-002 2.68864930e-002
      5.07292338e-004 4.73367162e-002 2.53646169e-004 2.53646169e-004
      4.12175024e-004 1.01141408e-002 6.02409651e-004 5.38998109e-004
      1.26823084e-004 8.24350049e-004 3.48763482e-004 3.80469253e-004
      6.02409651e-004 6.24603685e-003 6.02409651e-004 3.17057711e-004
      3.17057711e-005 2.53646169e-004 0. 0. 3.17057711e-005
      9.51173133e-005 1.17311347e-003 2.85351940e-004 3.17057711e-005
      1.58528856e-004 4.12175024e-004 6.34115422e-005 5.38998109e-004
      1.01458468e-003 2.68547870e-002 3.67469862e-002 1.01458468e-003
      1.88966393e-002 5.38998109e-004 1.90234627e-004 1.10970193e-003
      5.16804075e-003 7.92644278e-004 7.60938507e-004 6.34115422e-005
      5.70703880e-004 7.29232735e-004 7.29232735e-004 1.83893472e-003
      6.59480039e-003 3.88078615e-002 9.19467304e-003 9.19467362e-004
      4.37539630e-003 9.51173133e-005 1.90234627e-004 5.07292338e-004
      1.17311347e-003 1.84844639e-002 3.55104636e-003 2.53646169e-004
      3.89980967e-003 4.56563104e-003 1.01458468e-003 5.73874451e-003
      9.41661373e-003</_>
    <_>
      4.30881418e-002 1.16360178e-002 4.21686750e-003 1.32530117e-002
      6.46797707e-003 5.07292338e-004 1.08116679e-002 2.83132531e-002
      3.67786945e-003 7.92644278e-004 2.85351940e-004 5.07292338e-004
      9.19467304e-003 8.24350049e-004 2.64743175e-002 4.58465442e-002
      9.79708321e-003 5.70703880e-004 7.60938507e-004 4.75586567e-004
      5.07292338e-004 6.34115422e-005 1.20481930e-003 2.85351940e-004
      1.00190239e-002 4.75586567e-004 4.43880796e-004 2.21940398e-004
      2.25745086e-002 2.53646169e-004 4.05833870e-002 1.11604314e-002
      4.78757126e-003 9.51173133e-004 5.07292338e-004 8.87761591e-004
      8.24350049e-004 3.17057711e-005 1.20481930e-003 1.10970193e-003
      2.85351940e-004 3.17057711e-005 6.34115422e-005 3.17057711e-005
      2.85351940e-004 0. 8.24350049e-004 1.07799622e-003 1.33164236e-002
      4.43880796e-004 8.87761591e-004 5.70703880e-004 6.02409651e-004 0.
      7.29232735e-004 6.02409651e-004 1.71528216e-002 3.17057711e-004
      6.34115422e-004 5.07292338e-004 2.37793270e-002 3.48763482e-004
      1.73113514e-002 5.26315812e-003 6.46797707e-003 6.65821193e-004
      7.92644278e-004 6.97526964e-004 4.75586567e-004 0. 3.17057711e-004
      3.48763482e-004 7.60938507e-004 3.17057711e-005 3.17057711e-005
      1.26823084e-004 5.07292338e-004 3.17057711e-005 4.12175024e-004
      9.51173133e-005 7.92644278e-004 3.17057711e-005 6.34115422e-005 0.
      0. 0. 0. 0. 4.75586567e-004 0. 6.34115422e-005 3.17057711e-005
      9.51173133e-005 0. 3.80469253e-004 9.51173133e-005 1.06848450e-002
      1.01458468e-003 1.23652501e-003 1.17311347e-003 5.38998109e-004 0.
      4.75586567e-004 5.38998109e-004 3.48763482e-004 0. 3.17057711e-005
      6.34115422e-005 6.97526964e-004 6.34115422e-005 6.97526964e-004
      5.07292338e-004 2.79961955e-002 5.70703880e-004 8.87761591e-004
      6.02409651e-004 2.85351940e-004 0. 5.38998109e-004 6.34115422e-005
      2.85351928e-002 2.53646169e-004 7.92644278e-004 3.80469253e-004
      9.16296802e-003 1.58528856e-004 5.35827503e-003 9.19467362e-004
      5.42168692e-003 1.52821811e-002 3.48763482e-004 2.73937862e-002
      6.02409651e-004 1.33164239e-003 5.70703880e-004 3.09765376e-002
      5.70703880e-004 1.07799622e-003 6.34115422e-005 9.19467362e-004
      8.87761591e-004 1.20481930e-003 8.56055820e-004 2.02916935e-002
      9.82878846e-004 4.43880796e-004 3.17057711e-005 3.48763482e-004
      6.34115422e-005 0. 3.17057711e-005 1.58528856e-004 6.65821193e-004
      5.38998109e-004 3.17057711e-005 5.70703880e-004 1.23652501e-003
      3.17057711e-004 1.04629039e-003 5.16804075e-003 5.38998109e-004
      6.02409651e-004 6.34115422e-005 9.51173133e-004 9.51173133e-005
      3.17057711e-005 3.17057711e-005 1.07799622e-003 3.17057711e-005
      6.34115422e-005 0. 9.51173133e-005 0. 6.34115422e-005
      3.17057711e-005 4.12175024e-004 5.38998109e-004 3.17057711e-004
      6.34115422e-005 6.02409651e-004 6.34115422e-005 3.17057711e-005 0.
      4.43880796e-004 8.56055820e-004 6.65821193e-004 1.26823084e-004
      4.75586567e-004 6.97526964e-004 5.70703880e-004 7.92644278e-004
      4.21686750e-003 1.22384271e-002 3.10399495e-002 7.29232735e-004
      3.60811651e-002 1.90234627e-004 3.48763482e-004 5.70703880e-004
      1.13506662e-002 9.51173133e-004 1.14140776e-003 0. 8.56055820e-004
      5.07292338e-004 6.97526964e-004 8.56055820e-004 6.75332919e-003
      7.60938507e-004 3.80469253e-004 6.34115422e-005 1.90234627e-004
      3.17057711e-005 0. 9.51173133e-005 1.26823084e-004 1.04629039e-003
      6.34115422e-004 3.17057711e-005 4.12175024e-004 6.02409651e-004
      1.90234627e-004 8.87761591e-004 1.55358273e-003 2.63157897e-002
      4.69879508e-002 1.36334810e-003 2.23525688e-002 3.17057711e-004
      1.90234627e-004 9.51173133e-004 7.07038678e-003 1.29993656e-003
      1.17311347e-003 3.17057711e-005 5.70703880e-004 8.87761591e-004
      6.65821193e-004 2.40963860e-003 8.40202905e-003 4.07102108e-002
      1.14140771e-002 1.49017118e-003 5.73874451e-003 2.85351940e-004
      1.90234627e-004 7.60938507e-004 1.36334810e-003 2.02916935e-002
      6.08750805e-003 6.34115422e-004 5.42168692e-003 7.26062153e-003
      1.61699427e-003 7.26062153e-003 1.41407736e-002</_>
    <_>
      6.94356337e-002 8.18008836e-003 6.75332919e-003 1.29993660e-002
      7.60938507e-003 5.07292338e-004 1.15726059e-002 1.97526943e-002
      5.70703857e-003 3.80469253e-004 4.75586567e-004 4.12175024e-004
      1.03994925e-002 3.80469253e-004 3.36081162e-002 3.59226391e-002
      7.13379821e-003 2.53646169e-004 3.17057711e-004 1.26823084e-004
      2.53646169e-004 3.17057711e-005 4.43880796e-004 1.90234627e-004
      1.00507289e-002 2.85351940e-004 6.02409651e-004 3.80469253e-004
      1.85795818e-002 1.90234627e-004 3.57006975e-002 7.54597317e-003
      9.03614424e-003 4.43880796e-004 7.60938507e-004 9.82878846e-004
      4.12175024e-004 0. 8.24350049e-004 4.12175024e-004 6.97526964e-004
      6.34115422e-005 3.17057711e-005 6.34115422e-005 5.38998109e-004
      3.17057711e-005 1.10970193e-003 5.38998109e-004 1.05580213e-002
      3.48763482e-004 6.65821193e-004 3.80469253e-004 3.80469253e-004 0.
      6.02409651e-004 2.85351940e-004 2.64426135e-002 4.43880796e-004
      1.20481930e-003 7.29232735e-004 2.87571345e-002 1.26823084e-004
      1.20798983e-002 3.17057711e-003 1.06848450e-002 4.12175024e-004
      6.02409651e-004 6.34115422e-004 6.02409651e-004 3.17057711e-005
      3.48763482e-004 9.51173133e-005 4.75586567e-004 3.17057711e-005
      3.17057711e-005 9.51173133e-005 2.21940398e-004 0. 3.48763482e-004
      2.21940398e-004 5.38998109e-004 3.17057711e-005 3.17057711e-005 0.
      9.51173133e-005 0. 0. 3.17057711e-005 4.43880796e-004 0. 0.
      3.17057711e-005 2.53646169e-004 0. 1.90234627e-004 1.26823084e-004
      1.51553582e-002 7.60938507e-004 6.97526964e-004 5.70703880e-004
      5.38998109e-004 0. 4.75586567e-004 9.51173133e-005 9.19467362e-004
      6.34115422e-005 0. 3.17057711e-005 4.12175024e-004 3.17057711e-005
      4.12175024e-004 2.85351940e-004 2.25428026e-002 3.17057711e-004
      6.97526964e-004 1.58528856e-004 2.21940398e-004 0. 3.17057711e-004
      3.17057711e-005 2.86303107e-002 2.21940398e-004 5.70703880e-004
      3.48763482e-004 6.78503467e-003 1.58528856e-004 2.59987311e-003
      6.34115422e-004 1.05897272e-002 1.73113514e-002 1.20481930e-003
      3.55738737e-002 4.43880796e-004 8.24350049e-004 2.85351940e-004
      3.25301215e-002 6.02409651e-004 6.02409651e-004 3.17057711e-005
      1.26823084e-003 6.02409651e-004 6.34115422e-004 9.19467362e-004
      1.38554219e-002 4.43880796e-004 1.58528856e-004 9.51173133e-005
      2.21940398e-004 6.34115422e-005 0. 3.17057711e-005 1.58528856e-004
      6.65821193e-004 6.02409651e-004 6.34115422e-005 5.07292338e-004
      6.34115422e-004 2.53646169e-004 6.65821193e-004 3.42422328e-003
      1.04629039e-003 7.60938507e-004 6.34115422e-005 1.42675964e-003
      9.51173133e-005 0. 3.17057711e-005 6.34115422e-004 3.17057711e-005
      1.90234627e-004 6.34115422e-005 9.51173133e-005 0. 6.34115422e-005
      6.34115422e-005 4.75586567e-004 8.87761591e-004 7.29232735e-004 0.
      7.60938507e-004 6.34115422e-005 1.26823084e-004 6.34115422e-005
      4.43880796e-004 1.01458468e-003 6.97526964e-004 3.17057711e-005
      1.10970193e-003 6.02409651e-004 4.75586567e-004 5.70703880e-004
      3.17057711e-003 1.93405207e-002 3.19277123e-002 6.34115422e-004
      3.46861146e-002 3.80469253e-004 2.53646169e-004 5.38998109e-004
      7.64109055e-003 5.70703880e-004 5.38998109e-004 6.34115422e-005
      7.92644278e-004 3.17057711e-004 1.90234627e-004 4.12175024e-004
      2.98034237e-003 4.75586567e-004 2.21940398e-004 9.51173133e-005
      2.85351940e-004 0. 0. 0. 3.17057711e-005 6.34115422e-004
      1.58528856e-004 3.17057711e-005 5.70703880e-004 1.90234627e-004
      6.34115422e-005 1.90234627e-004 7.60938507e-004 5.23779318e-002
      6.04946092e-002 1.20481930e-003 1.89283453e-002 4.75586567e-004
      9.51173133e-005 7.29232735e-004 3.26569425e-003 1.04629039e-003
      6.34115422e-004 9.51173133e-005 6.97526964e-004 4.75586567e-004
      2.53646169e-004 9.51173133e-004 3.48763471e-003 4.43880782e-002
      1.21433102e-002 6.02409651e-004 4.15345607e-003 2.85351940e-004
      9.51173133e-005 4.12175024e-004 8.24350049e-004 1.35066584e-002
      3.58275208e-003 7.60938507e-004 4.69245389e-003 3.17057711e-003
      7.92644278e-004 2.88522500e-003 6.84844656e-003</_>
    <_>
      7.00380504e-002 7.57767912e-003 6.75332919e-003 1.30310720e-002
      8.68738070e-003 2.53646169e-004 1.24286618e-002 2.06404570e-002
      6.49968302e-003 6.65821193e-004 4.43880796e-004 6.65821193e-004
      1.07482560e-002 2.85351940e-004 3.16740647e-002 3.28154713e-002
      6.78503467e-003 2.85351940e-004 6.02409651e-004 2.85351940e-004
      2.85351940e-004 0. 3.48763482e-004 2.85351940e-004 1.01775527e-002
      1.58528856e-004 4.43880796e-004 7.29232735e-004 1.89917572e-002
      2.21940398e-004 3.33227664e-002 8.14838335e-003 8.71908665e-003
      5.38998109e-004 7.60938507e-004 1.26823084e-003 4.43880796e-004
      3.17057711e-005 8.56055820e-004 3.17057711e-004 5.38998109e-004 0.
      3.17057711e-005 3.17057711e-005 9.19467362e-004 3.17057711e-005
      9.19467362e-004 7.60938507e-004 1.31578948e-002 2.85351940e-004
      8.87761591e-004 5.07292338e-004 6.02409651e-004 0. 4.43880796e-004
      2.21940398e-004 2.55548507e-002 3.80469253e-004 8.87761591e-004
      7.29232735e-004 2.97083072e-002 1.58528856e-004 1.18262526e-002
      2.79010786e-003 1.15726059e-002 4.43880796e-004 7.60938507e-004
      6.02409651e-004 4.75586567e-004 6.34115422e-005 4.75586567e-004
      2.21940398e-004 6.65821193e-004 0. 3.17057711e-005 0.
      1.90234627e-004 3.17057711e-005 2.53646169e-004 2.21940398e-004
      4.43880796e-004 0. 0. 3.17057711e-005 3.17057711e-005 0. 0. 0.
      5.70703880e-004 0. 0. 1.26823084e-004 1.58528856e-004 0.
      1.90234627e-004 3.17057711e-005 1.50602413e-002 6.34115422e-004
      1.01458468e-003 7.29232735e-004 4.75586567e-004 3.17057711e-005
      3.48763482e-004 6.34115422e-005 8.56055820e-004 0. 6.34115422e-005
      0. 4.12175024e-004 3.17057711e-005 5.70703880e-004 3.48763482e-004
      2.08306909e-002 1.58528856e-004 3.80469253e-004 2.21940398e-004
      1.58528856e-004 3.17057711e-005 1.90234627e-004 6.34115422e-005
      2.81864293e-002 9.51173133e-005 7.29232735e-004 3.80469253e-004
      5.54850977e-003 1.26823084e-004 3.01204808e-003 5.07292338e-004
      1.05263162e-002 1.67723522e-002 9.82878846e-004 3.42105255e-002
      6.65821193e-004 4.75586567e-004 8.24350049e-004 3.22447680e-002
      8.56055820e-004 1.04629039e-003 1.26823084e-004 1.10970193e-003
      6.34115422e-004 7.60938507e-004 8.24350049e-004 1.37285991e-002
      7.92644278e-004 4.12175024e-004 0. 2.21940398e-004 0.
      6.34115422e-005 3.17057711e-005 1.58528856e-004 1.01458468e-003
      4.43880796e-004 3.17057711e-005 5.38998109e-004 6.65821193e-004
      2.53646169e-004 4.75586567e-004 3.67786945e-003 1.04629039e-003
      1.04629039e-003 1.26823084e-004 1.39505393e-003 9.51173133e-005
      3.17057711e-005 1.58528856e-004 9.51173133e-004 3.17057711e-005
      6.34115422e-005 0. 3.17057711e-005 3.17057711e-005 6.34115422e-005
      3.17057711e-005 4.75586567e-004 6.97526964e-004 6.97526964e-004
      6.34115422e-005 9.19467362e-004 6.34115422e-005 3.17057711e-005 0.
      3.80469253e-004 9.82878846e-004 6.34115422e-004 6.34115422e-005
      1.04629039e-003 6.97526964e-004 2.53646169e-004 6.02409651e-004
      4.21686750e-003 1.88015215e-002 3.33227664e-002 1.20481930e-003
      3.54787558e-002 3.48763482e-004 3.48763482e-004 6.97526964e-004
      7.76791386e-003 7.92644278e-004 6.34115422e-004 0. 7.29232735e-004
      4.12175024e-004 9.51173133e-005 6.34115422e-004 3.04375403e-003
      6.02409651e-004 3.80469253e-004 0. 1.58528856e-004 3.17057711e-005
      0. 3.17057711e-005 9.51173133e-005 4.75586567e-004 1.26823084e-004
      9.51173133e-005 4.12175024e-004 3.17057711e-004 1.26823084e-004
      6.34115422e-005 7.92644278e-004 5.24730496e-002 5.92263788e-002
      7.60938507e-004 1.80405825e-002 1.26823084e-004 2.85351940e-004
      7.92644278e-004 3.29740020e-003 8.87761591e-004 4.43880796e-004
      6.34115422e-005 8.56055820e-004 6.02409651e-004 2.53646169e-004
      8.87761591e-004 3.13887116e-003 4.82878871e-002 1.18896635e-002
      8.87761591e-004 4.34369035e-003 1.90234627e-004 2.21940398e-004
      3.17057711e-004 1.04629039e-003 1.30944829e-002 3.67786945e-003
      4.12175024e-004 4.24857344e-003 2.75840214e-003 6.97526964e-004
      2.88522500e-003 5.92897926e-003</_></support_vectors>
  <decision_functions>
    <_>
      <sv_count>19</sv_count>
      <rho>1.1004020441441205e+000</rho>
      <alpha>
        3.1250000000000000e+002 3.1250000000000000e+002
        3.1250000000000000e+002 3.1250000000000000e+002
        3.1250000000000000e+002 3.1250000000000000e+002
        1.6513369159340434e+002 2.4267135120312685e+002
        3.1250000000000000e+002 -3.1250000000000000e+002
        -3.1250000000000000e+002 -3.1250000000000000e+002
        -3.1042352272337144e+001 -3.1250000000000000e+002
        -3.1250000000000000e+002 -3.1250000000000000e+002
        -1.3598451050056875e+002 -3.1250000000000000e+002
        -2.4077818002362525e+002</alpha></_></decision_functions></opencv_ml_svm>
</opencv_storage>
