<?xml version="1.0"?>
<opencv_storage>
<opencv_ml_svm>
  <format>3</format>
  <svmType>C_SVC</svmType>
  <kernel>
    <type>RBF</type>
    <gamma>5.0625000000000009e-001</gamma></kernel>
  <C>3.1250000000000000e+002</C>
  <term_criteria><epsilon>1.1920928955078125e-007</epsilon>
    <iterations>1000</iterations></term_criteria>
  <var_count>256</var_count>
  <class_count>2</class_count>
  <class_labels type_id="opencv-matrix">
    <rows>2</rows>
    <cols>1</cols>
    <dt>i</dt>
    <data>
      -1082130432 1065353216</data></class_labels>
  <sv_total>27</sv_total>
  <support_vectors>
    <_>
      5.98604940e-002 1.29676601e-002 6.94356393e-003 1.10336086e-002
      7.19721010e-003 1.10970193e-003 9.28979088e-003 1.49334176e-002
      7.73620792e-003 1.42675964e-003 7.29232735e-004 1.01458468e-003
      9.13126208e-003 1.14140776e-003 2.14013942e-002 3.25301215e-002
      1.28725432e-002 8.56055820e-004 1.17311347e-003 8.24350049e-004
      9.82878846e-004 1.90234627e-004 1.74381735e-003 2.85351940e-004
      1.14774890e-002 6.02409651e-004 9.19467362e-004 5.38998109e-004
      1.52504751e-002 6.02409651e-004 2.97717191e-002 1.07482560e-002
      8.40202905e-003 1.49017118e-003 8.24350049e-004 1.14140776e-003
      6.97526964e-004 6.34115422e-005 8.56055820e-004 1.39505393e-003
      1.33164239e-003 2.21940398e-004 3.17057711e-005 6.34115422e-005
      1.23652501e-003 2.21940398e-004 1.26823084e-003 1.77552318e-003
      1.48065947e-002 7.92644278e-004 7.29232735e-004 7.60938507e-004
      1.10970193e-003 3.17057711e-005 9.82878846e-004 4.43880796e-004
      2.33354475e-002 8.87761591e-004 8.56055820e-004 5.07292338e-004
      2.22891569e-002 6.97526964e-004 1.29359541e-002 5.29486360e-003
      8.52885190e-003 1.36334810e-003 8.87761591e-004 1.33164239e-003
      9.19467362e-004 9.51173133e-005 4.12175024e-004 3.80469253e-004
      5.38998109e-004 1.58528856e-004 3.17057711e-005 6.34115422e-005
      4.12175024e-004 9.51173133e-005 6.65821193e-004 4.12175024e-004
      1.36334810e-003 9.51173133e-005 3.17057711e-005 3.17057711e-005
      1.26823084e-004 0. 3.17057711e-005 3.17057711e-005 1.10970193e-003
      1.26823084e-004 9.51173133e-005 3.17057711e-005 6.34115422e-004
      6.34115422e-005 6.34115422e-004 1.58528856e-004 1.31578948e-002
      1.68040581e-003 1.04629039e-003 1.29993656e-003 7.29232735e-004
      1.26823084e-004 9.82878846e-004 6.97526964e-004 1.42675964e-003
      1.58528856e-004 1.58528856e-004 3.48763482e-004 1.17311347e-003
      1.58528856e-004 1.42675964e-003 1.01458468e-003 2.30183899e-002
      6.34115422e-004 1.14140776e-003 6.34115422e-004 5.70703880e-004
      3.17057711e-005 6.02409651e-004 4.12175024e-004 2.92327199e-002
      5.38998109e-004 1.10970193e-003 4.12175024e-004 1.21750161e-002
      3.80469253e-004 7.54597317e-003 2.15599244e-003 8.33861809e-003
      1.40773617e-002 1.29993656e-003 1.99112240e-002 6.02409651e-004
      1.07799622e-003 9.82878846e-004 1.78503487e-002 9.51173133e-004
      9.51173133e-004 1.26823084e-004 6.65821193e-004 9.51173133e-004
      1.01458468e-003 1.17311347e-003 1.32530117e-002 1.71211164e-003
      1.20481930e-003 6.34115422e-005 8.56055820e-004 1.90234627e-004
      6.34115422e-005 2.53646169e-004 9.51173133e-004 1.07799622e-003
      7.92644278e-004 2.85351940e-004 6.97526964e-004 1.04629039e-003
      3.80469253e-004 1.23652501e-003 5.42168692e-003 9.82878846e-004
      1.39505393e-003 2.85351940e-004 1.61699427e-003 9.51173133e-005 0.
      6.34115422e-005 1.20481930e-003 6.34115422e-005 1.58528856e-004 0.
      2.21940398e-004 6.34115422e-005 6.34115422e-005 1.58528856e-004
      1.07799622e-003 1.07799622e-003 6.65821193e-004 6.34115422e-005
      7.29232735e-004 1.58528856e-004 3.17057711e-005 2.21940398e-004
      4.43880796e-004 1.49017118e-003 7.29232735e-004 1.58528856e-004
      6.02409651e-004 1.07799622e-003 6.34115422e-004 9.82878846e-004
      4.50221961e-003 1.35383643e-002 2.30183899e-002 1.10970193e-003
      3.07863038e-002 6.65821193e-004 7.60938507e-004 9.19467362e-004
      1.02409637e-002 8.24350049e-004 8.56055820e-004 6.34115422e-005
      1.17311347e-003 7.29232735e-004 9.51173133e-004 1.04629039e-003
      6.40456565e-003 1.42675964e-003 8.24350049e-004 1.26823084e-004
      6.97526964e-004 2.85351940e-004 1.26823084e-004 3.17057711e-005
      4.43880796e-004 9.19467362e-004 8.56055820e-004 3.17057711e-004
      3.17057711e-004 5.07292338e-004 5.38998109e-004 6.97526964e-004
      2.40963860e-003 2.99302470e-002 3.81737463e-002 1.42675964e-003
      1.63601767e-002 6.65821193e-004 6.97526964e-004 1.33164239e-003
      7.70450244e-003 1.64870010e-003 1.42675964e-003 1.26823084e-004
      1.33164239e-003 1.10970193e-003 1.07799622e-003 1.83893472e-003
      9.44831967e-003 4.33100834e-002 1.30310720e-002 1.77552318e-003
      6.84844656e-003 9.19467362e-004 3.80469253e-004 1.55358273e-003
      2.28281552e-003 1.75332911e-002 6.94356393e-003 1.45846547e-003
      5.32656955e-003 7.51426769e-003 2.72669620e-003 7.67279649e-003
      2.05136333e-002</_>
    <_>
      5.95117323e-002 1.36968931e-002 7.73620792e-003 1.27774253e-002
      7.83132575e-003 1.10970193e-003 1.09701967e-002 1.67406462e-002
      8.21179431e-003 1.52187701e-003 8.87761591e-004 1.17311347e-003
      1.00190239e-002 1.33164239e-003 2.22257450e-002 3.17691825e-002
      1.27140144e-002 7.29232735e-004 1.90234627e-003 7.92644278e-004
      1.87064044e-003 1.58528856e-004 1.58528856e-003 8.24350049e-004
      1.39505388e-002 8.24350049e-004 7.92644278e-004 5.07292338e-004
      1.76601149e-002 6.34115422e-004 2.97400132e-002 1.07799619e-002
      7.51426769e-003 1.33164239e-003 7.92644278e-004 1.42675964e-003
      7.60938507e-004 1.26823084e-004 1.26823084e-003 1.14140776e-003
      1.49017118e-003 1.58528856e-004 1.58528856e-004 1.26823084e-004
      1.04629039e-003 2.21940398e-004 1.23652501e-003 1.52187701e-003
      1.41090676e-002 5.70703880e-004 9.19467362e-004 6.02409651e-004
      7.92644278e-004 6.34115422e-005 1.07799622e-003 1.90234627e-004
      2.12428663e-002 6.34115422e-004 7.60938507e-004 6.97526964e-004
      2.02599876e-002 6.02409651e-004 1.33798355e-002 5.29486360e-003
      8.87761544e-003 1.49017118e-003 1.04629039e-003 8.24350049e-004
      4.12175024e-004 6.34115422e-005 5.07292338e-004 7.29232735e-004
      6.34115422e-004 9.51173133e-005 1.58528856e-004 1.26823084e-004
      6.97526964e-004 9.51173133e-005 7.29232735e-004 4.43880796e-004
      1.29993656e-003 9.51173133e-005 6.34115422e-005 9.51173133e-005
      9.51173133e-005 0. 9.51173133e-005 3.17057711e-005 1.07799622e-003
      1.26823084e-004 6.34115422e-005 1.26823084e-004 6.02409651e-004
      9.51173133e-005 5.07292338e-004 2.85351940e-004 1.25237796e-002
      1.71211164e-003 1.07799622e-003 1.36334810e-003 7.29232735e-004
      6.34115422e-005 5.38998109e-004 9.82878846e-004 1.26823084e-003
      6.34115422e-005 3.17057711e-005 1.90234627e-004 1.17311347e-003
      1.90234627e-004 1.14140776e-003 1.55358273e-003 2.10209265e-002
      8.56055820e-004 1.33164239e-003 7.60938507e-004 5.38998109e-004
      6.34115422e-005 9.82878846e-004 6.02409651e-004 3.01521886e-002
      3.80469253e-004 1.80722889e-003 5.38998109e-004 1.14457831e-002
      3.17057711e-004 7.03868084e-003 2.44134432e-003 7.57767912e-003
      1.39188329e-002 1.29993656e-003 2.07038689e-002 6.97526964e-004
      1.26823084e-003 1.23652501e-003 1.94039308e-002 9.82878846e-004
      1.04629039e-003 6.34115422e-005 8.87761591e-004 9.82878846e-004
      1.10970193e-003 1.64870010e-003 1.32847177e-002 1.61699427e-003
      7.29232735e-004 4.12175024e-004 6.02409651e-004 1.26823084e-004
      3.17057711e-005 9.51173133e-005 6.34115422e-004 1.14140776e-003
      6.97526964e-004 6.34115422e-005 6.65821193e-004 1.23652501e-003
      4.75586567e-004 1.61699427e-003 6.49968302e-003 8.24350049e-004
      1.39505393e-003 6.34115422e-005 1.29993656e-003 1.90234627e-004
      9.51173133e-005 1.26823084e-004 9.82878846e-004 2.21940398e-004
      3.17057711e-005 0. 1.26823084e-004 6.34115422e-005 9.51173133e-005
      1.26823084e-004 1.20481930e-003 1.14140776e-003 6.34115422e-004
      9.51173133e-005 8.24350049e-004 1.26823084e-004 3.17057711e-005
      1.90234627e-004 5.07292338e-004 1.10970193e-003 6.02409651e-004
      1.58528856e-004 8.24350049e-004 9.82878846e-004 6.02409651e-004
      1.07799622e-003 5.26315812e-003 1.23969559e-002 2.19086874e-002
      1.14140776e-003 2.99619529e-002 6.34115422e-004 5.70703880e-004
      1.04629039e-003 1.12555483e-002 1.10970193e-003 8.56055820e-004
      2.21940398e-004 1.07799622e-003 6.65821193e-004 8.56055820e-004
      1.23652501e-003 8.11667740e-003 1.80722889e-003 1.04629039e-003
      2.85351940e-004 6.65821193e-004 9.51173133e-005 3.17057711e-005
      1.26823084e-004 4.43880796e-004 1.10970193e-003 4.43880796e-004
      1.58528856e-004 5.07292338e-004 7.60938507e-004 2.53646169e-004
      1.01458468e-003 2.72669620e-003 2.57767905e-002 3.60494629e-002
      1.58528856e-003 1.58211794e-002 7.92644278e-004 6.34115422e-004
      1.14140776e-003 7.22891558e-003 9.51173133e-004 1.58528856e-003
      2.21940398e-004 1.36334810e-003 1.04629039e-003 1.33164239e-003
      2.69499049e-003 9.16296802e-003 3.60494629e-002 1.32847177e-002
      2.53646169e-003 6.37285970e-003 6.97526964e-004 2.53646169e-004
      1.10970193e-003 3.48763471e-003 1.66772362e-002 6.05580211e-003
      1.01458468e-003 6.02409616e-003 7.00697536e-003 3.26569425e-003
      9.22637898e-003 2.02599876e-002</_>
    <_>
      5.91312610e-002 1.41407736e-002 8.65567569e-003 1.41407736e-002
      7.83132575e-003 1.52187701e-003 1.22384271e-002 1.96892843e-002
      7.51426769e-003 1.61699427e-003 8.24350049e-004 1.20481930e-003
      1.12872543e-002 2.28281552e-003 2.42232084e-002 3.37983519e-002
      1.27774253e-002 9.19467362e-004 1.33164239e-003 7.60938507e-004
      1.10970193e-003 1.26823084e-004 1.55358273e-003 8.87761591e-004
      1.25871906e-002 6.97526964e-004 1.20481930e-003 8.87761591e-004
      1.64235886e-002 6.02409651e-004 3.06911860e-002 1.21433102e-002
      8.18008836e-003 1.10970193e-003 1.14140776e-003 1.10970193e-003
      1.10970193e-003 1.26823084e-004 7.60938507e-004 1.26823084e-003
      8.24350049e-004 1.90234627e-004 6.34115422e-005 1.90234627e-004
      9.82878846e-004 1.26823084e-004 1.39505393e-003 2.21940386e-003
      1.34749524e-002 6.65821193e-004 1.14140776e-003 7.92644278e-004
      8.24350049e-004 3.17057711e-005 1.04629039e-003 4.75586567e-004
      1.84210520e-002 7.29232735e-004 1.20481930e-003 5.07292338e-004
      1.81674063e-002 4.43880796e-004 1.43627143e-002 5.51680429e-003
      8.84590950e-003 1.29993656e-003 5.38998109e-004 8.56055820e-004
      4.12175024e-004 6.34115422e-005 5.38998109e-004 7.92644278e-004
      8.56055820e-004 1.26823084e-004 9.51173133e-005 3.17057711e-005
      5.38998109e-004 3.17057711e-005 7.60938507e-004 6.65821193e-004
      1.61699427e-003 0. 1.90234627e-004 3.17057711e-005 6.34115422e-005
      0. 9.51173133e-005 0. 1.26823084e-003 0. 3.17057711e-005
      6.34115422e-005 5.38998109e-004 3.17057711e-005 5.70703880e-004
      2.85351940e-004 1.11921374e-002 1.87064044e-003 8.24350049e-004
      1.52187701e-003 7.60938507e-004 1.26823084e-004 9.51173133e-004
      8.24350049e-004 1.23652501e-003 6.34115422e-005 1.26823084e-004
      1.58528856e-004 1.04629039e-003 1.26823084e-004 1.01458468e-003
      9.82878846e-004 2.02916935e-002 6.97526964e-004 1.52187701e-003
      7.92644278e-004 6.97526964e-004 0. 7.92644278e-004 4.43880796e-004
      2.62840837e-002 4.43880796e-004 8.24350049e-004 5.07292338e-004
      9.76537727e-003 4.43880796e-004 6.94356393e-003 3.07545974e-003
      8.56055785e-003 1.59162972e-002 1.04629039e-003 2.24793907e-002
      7.92644278e-004 1.01458468e-003 1.68040581e-003 2.27964483e-002
      8.56055820e-004 9.82878846e-004 9.51173133e-005 1.07799622e-003
      1.10970193e-003 6.02409651e-004 1.49017118e-003 1.54724158e-002
      1.45846547e-003 6.97526964e-004 1.90234627e-004 9.82878846e-004
      1.58528856e-004 0. 1.26823084e-004 6.97526964e-004 1.10970193e-003
      6.34115422e-004 1.90234627e-004 8.87761591e-004 1.01458468e-003
      6.34115422e-004 1.80722889e-003 6.02409616e-003 8.24350049e-004
      9.19467362e-004 1.26823084e-004 1.39505393e-003 3.17057711e-005
      1.26823084e-004 1.90234627e-004 1.26823084e-003 1.90234627e-004
      1.58528856e-004 3.17057711e-005 1.90234627e-004 1.58528856e-004
      1.58528856e-004 6.34115422e-005 1.14140776e-003 1.01458468e-003
      7.60938507e-004 2.53646169e-004 8.56055820e-004 3.17057711e-005
      3.17057711e-005 2.21940398e-004 8.56055820e-004 8.56055820e-004
      4.12175024e-004 1.26823084e-004 8.87761591e-004 1.17311347e-003
      5.07292338e-004 9.82878846e-004 4.78757126e-003 1.20481923e-002
      2.20672172e-002 1.52187701e-003 2.85668988e-002 4.75586567e-004
      8.56055820e-004 1.01458468e-003 1.22701330e-002 8.56055820e-004
      1.33164239e-003 9.51173133e-005 1.07799622e-003 9.51173133e-004
      8.56055820e-004 1.10970193e-003 8.56055785e-003 1.87064044e-003
      7.29232735e-004 2.85351940e-004 6.02409651e-004 0. 0.
      1.90234627e-004 3.80469253e-004 8.87761591e-004 5.70703880e-004
      2.21940398e-004 3.80469253e-004 6.02409651e-004 3.80469253e-004
      1.07799622e-003 2.98034237e-003 2.39061508e-002 3.34495865e-002
      1.26823084e-003 1.68991759e-002 6.65821193e-004 6.97526964e-004
      1.29993656e-003 7.26062153e-003 1.29993656e-003 1.71211164e-003
      9.51173133e-005 1.26823084e-003 9.51173133e-004 1.64870010e-003
      2.12428672e-003 1.00824349e-002 3.28471772e-002 1.20481923e-002
      1.45846547e-003 6.72162324e-003 6.65821193e-004 3.80469253e-004
      1.42675964e-003 2.98034237e-003 1.52187701e-002 6.40456565e-003
      1.39505393e-003 5.38998097e-003 6.56309444e-003 2.53646169e-003
      9.38490778e-003 2.07989849e-002</_>
    <_>
      6.07482567e-002 1.36651872e-002 9.25808493e-003 1.49968294e-002
      7.64109055e-003 1.61699427e-003 1.35066584e-002 2.10843366e-002
      8.46544094e-003 1.45846547e-003 1.20481930e-003 1.07799622e-003
      1.24603678e-002 1.71211164e-003 3.08180097e-002 4.40710224e-002
      1.25554847e-002 9.82878846e-004 1.61699427e-003 9.19467362e-004
      9.51173133e-004 6.34115422e-005 2.02916935e-003 8.24350049e-004
      1.18896635e-002 6.02409651e-004 8.24350049e-004 1.04629039e-003
      1.94673426e-002 6.65821193e-004 3.47812288e-002 1.46797718e-002
      7.41915032e-003 1.42675964e-003 7.29232735e-004 1.14140776e-003
      8.87761591e-004 0. 1.04629039e-003 1.17311347e-003 1.01458468e-003
      1.90234627e-004 9.51173133e-005 1.58528856e-004 9.82878846e-004
      9.51173133e-005 1.33164239e-003 1.99746364e-003 1.16043119e-002
      5.70703880e-004 1.10970193e-003 9.19467362e-004 8.87761591e-004
      9.51173133e-005 6.65821193e-004 3.80469253e-004 1.50285354e-002
      4.43880796e-004 1.10970193e-003 4.75586567e-004 1.72162335e-002
      5.38998109e-004 1.42041855e-002 5.70703857e-003 8.14838335e-003
      8.24350049e-004 7.60938507e-004 1.04629039e-003 2.85351940e-004
      6.34115422e-005 5.07292338e-004 5.70703880e-004 6.97526964e-004
      9.51173133e-005 6.34115422e-005 1.58528856e-004 5.70703880e-004
      3.17057711e-005 6.34115422e-004 6.02409651e-004 1.26823084e-003
      3.17057711e-005 1.58528856e-004 0. 9.51173133e-005 0.
      1.90234627e-004 6.34115422e-005 9.82878846e-004 1.26823084e-004
      3.17057711e-005 6.34115422e-005 5.07292338e-004 6.34115422e-005
      7.60938507e-004 2.53646169e-004 1.05263162e-002 1.36334810e-003
      9.51173133e-004 1.29993656e-003 4.75586567e-004 3.17057711e-005
      6.97526964e-004 6.34115422e-004 1.45846547e-003 2.21940398e-004
      2.21940398e-004 1.26823084e-004 4.75586567e-004 1.90234627e-004
      9.51173133e-004 1.45846547e-003 1.82625242e-002 6.34115422e-004
      1.14140776e-003 5.07292338e-004 5.38998109e-004 0. 6.02409651e-004
      2.85351940e-004 2.19086874e-002 5.38998109e-004 9.51173133e-004
      1.90234627e-004 8.84590950e-003 2.21940398e-004 6.68991776e-003
      2.44134432e-003 8.59226380e-003 1.48383006e-002 1.17311347e-003
      2.22257450e-002 7.92644278e-004 1.20481930e-003 1.17311347e-003
      2.48573236e-002 8.24350049e-004 7.92644278e-004 1.90234627e-004
      1.14140776e-003 9.51173133e-004 1.17311347e-003 1.74381735e-003
      1.66138243e-002 1.14140776e-003 6.34115422e-004 9.51173133e-005
      8.56055820e-004 1.26823084e-004 3.17057711e-005 1.58528856e-004
      4.12175024e-004 7.29232735e-004 3.80469253e-004 1.26823084e-004
      8.24350049e-004 1.23652501e-003 5.38998109e-004 1.93405198e-003
      6.30944828e-003 7.92644278e-004 1.23652501e-003 1.26823084e-004
      1.23652501e-003 6.34115422e-005 6.34115422e-005 3.17057711e-005
      7.60938507e-004 1.26823084e-004 3.17057711e-005 0. 0.
      1.58528856e-004 6.34115422e-005 9.51173133e-005 1.01458468e-003
      8.24350049e-004 4.12175024e-004 9.51173133e-005 3.80469253e-004
      6.34115422e-005 9.51173133e-005 1.58528856e-004 6.02409651e-004
      7.92644278e-004 6.02409651e-004 1.90234627e-004 3.48763482e-004
      8.56055820e-004 3.80469253e-004 1.01458468e-003 4.78757126e-003
      1.08433738e-002 2.15282179e-002 1.36334810e-003 2.67913751e-002
      5.70703880e-004 9.19467362e-004 7.29232735e-004 1.07165501e-002
      1.04629039e-003 1.04629039e-003 0. 1.17311347e-003 5.70703880e-004
      6.34115422e-004 1.20481930e-003 8.02155957e-003 1.49017118e-003
      6.97526964e-004 1.58528856e-004 4.43880796e-004 9.51173133e-005 0.
      9.51173133e-005 5.38998109e-004 1.33164239e-003 7.60938507e-004
      6.34115422e-005 5.07292338e-004 7.29232735e-004 1.58528856e-004
      1.33164239e-003 3.42422328e-003 2.40963846e-002 3.63348126e-002
      1.14140776e-003 1.62333548e-002 7.60938507e-004 5.70703880e-004
      1.23652501e-003 7.51426769e-003 1.20481930e-003 1.83893472e-003
      6.34115422e-005 1.29993656e-003 1.07799622e-003 8.24350049e-004
      2.06087506e-003 1.02726696e-002 3.76347490e-002 1.09384907e-002
      1.93405198e-003 5.42168692e-003 5.70703880e-004 1.58528856e-004
      1.04629039e-003 2.31452123e-003 1.42993024e-002 5.51680429e-003
      1.01458468e-003 3.70957516e-003 6.43627159e-003 2.31452123e-003
      8.33861809e-003 1.87698156e-002</_>
    <_>
      5.84654398e-002 1.36017753e-002 7.67279649e-003 1.31261889e-002
      6.65821182e-003 1.07799622e-003 1.09701967e-002 1.61699429e-002
      7.35573890e-003 7.60938507e-004 7.29232735e-004 8.24350049e-004
      9.95561201e-003 1.45846547e-003 2.04185154e-002 3.36081162e-002
      1.16043119e-002 1.20481930e-003 1.17311347e-003 9.19467362e-004
      1.33164239e-003 6.34115422e-005 1.42675964e-003 8.56055820e-004
      1.12238424e-002 6.97526964e-004 9.51173133e-004 5.07292338e-004
      1.45212431e-002 6.34115422e-004 2.90424861e-002 1.07799619e-002
      7.67279649e-003 1.29993656e-003 9.82878846e-004 1.01458468e-003
      6.65821193e-004 1.26823084e-004 7.92644278e-004 1.23652501e-003
      1.23652501e-003 2.53646169e-004 6.34115422e-005 2.21940398e-004
      1.07799622e-003 1.26823084e-004 1.33164239e-003 1.42675964e-003
      1.29676601e-002 9.82878846e-004 1.07799622e-003 5.07292338e-004
      1.01458468e-003 0. 9.51173133e-004 6.97526964e-004 1.81357004e-002
      4.12175024e-004 7.92644278e-004 5.70703880e-004 1.71845276e-002
      4.43880796e-004 1.29993660e-002 5.42168692e-003 8.75079259e-003
      1.58528856e-003 8.87761591e-004 1.07799622e-003 5.07292338e-004
      3.17057711e-005 6.65821193e-004 4.12175024e-004 9.82878846e-004
      1.58528856e-004 3.17057711e-005 6.34115422e-005 6.34115422e-004
      9.51173133e-005 6.34115422e-004 4.43880796e-004 1.33164239e-003
      9.51173133e-005 9.51173133e-005 0. 6.34115422e-005 6.34115422e-005
      9.51173133e-005 0. 7.92644278e-004 6.34115422e-005 6.34115422e-005
      3.17057711e-005 4.75586567e-004 0. 4.43880796e-004 2.21940398e-004
      1.16043119e-002 1.90234627e-003 1.29993656e-003 8.24350049e-004
      5.70703880e-004 3.17057711e-005 9.82878846e-004 8.24350049e-004
      1.17311347e-003 1.58528856e-004 1.90234627e-004 6.34115422e-005
      6.97526964e-004 2.21940398e-004 9.19467362e-004 1.23652501e-003
      2.00697519e-002 1.10970193e-003 9.82878846e-004 6.02409651e-004
      9.82878846e-004 6.34115422e-005 7.29232735e-004 1.58528856e-004
      2.54280288e-002 4.75586567e-004 6.97526964e-004 5.07292338e-004
      1.06848450e-002 3.48763482e-004 6.78503467e-003 2.53646169e-003
      9.98731796e-003 1.64870005e-002 1.23652501e-003 2.50158533e-002
      7.60938507e-004 1.74381735e-003 1.10970193e-003 2.22574510e-002
      7.92644278e-004 9.82878846e-004 1.26823084e-004 8.87761591e-004
      1.07799622e-003 1.10970193e-003 1.52187701e-003 1.44895371e-002
      1.17311347e-003 7.92644278e-004 1.90234627e-004 6.02409651e-004
      3.17057711e-005 9.51173133e-005 2.85351940e-004 7.92644278e-004
      1.01458468e-003 5.70703880e-004 1.58528856e-004 6.65821193e-004
      9.82878846e-004 3.17057711e-004 1.49017118e-003 5.48509834e-003
      1.29993656e-003 1.23652501e-003 6.34115422e-005 1.14140776e-003
      1.90234627e-004 0. 1.26823084e-004 1.17311347e-003 1.26823084e-004
      2.53646169e-004 3.17057711e-005 9.51173133e-005 1.90234627e-004
      6.34115422e-005 1.58528856e-004 1.17311347e-003 1.17311347e-003
      8.56055820e-004 9.51173133e-005 6.65821193e-004 6.34115422e-005
      6.34115422e-005 3.17057711e-005 5.38998109e-004 9.51173133e-004
      7.60938507e-004 1.26823084e-004 4.43880796e-004 7.92644278e-004
      3.80469253e-004 8.56055820e-004 3.93151538e-003 1.33481296e-002
      2.63792016e-002 1.52187701e-003 3.39568816e-002 6.34115422e-004
      7.60938507e-004 1.07799622e-003 1.12872543e-002 1.17311347e-003
      9.51173133e-004 2.21940398e-004 6.34115422e-004 7.29232735e-004
      6.97526964e-004 8.24350049e-004 7.83132575e-003 2.06087506e-003
      6.65821193e-004 1.90234627e-004 4.43880796e-004 3.17057711e-005
      6.34115422e-005 1.58528856e-004 5.38998109e-004 9.82878846e-004
      4.75586567e-004 2.21940398e-004 6.34115422e-004 7.92644278e-004
      5.38998109e-004 8.24350049e-004 2.63157906e-003 2.86303107e-002
      4.18516174e-002 1.68040581e-003 1.90551672e-002 8.56055820e-004
      1.04629039e-003 1.29993656e-003 8.46544094e-003 1.33164239e-003
      1.87064044e-003 2.53646169e-004 1.14140776e-003 1.01458468e-003
      1.01458468e-003 2.28281552e-003 9.09955613e-003 3.86493355e-002
      1.37920100e-002 1.55358273e-003 7.19721010e-003 7.92644278e-004
      2.53646169e-004 1.20481930e-003 3.55104636e-003 1.50285354e-002
      6.02409616e-003 1.33164239e-003 5.38998097e-003 7.07038678e-003
      2.69499049e-003 8.81420448e-003 2.00380478e-002</_>
    <_>
      6.02726713e-002 1.39505388e-002 9.00443923e-003 1.44895371e-002
      7.41915032e-003 1.26823084e-003 1.18262526e-002 2.02916935e-002
      6.62650587e-003 1.42675964e-003 1.01458468e-003 1.20481930e-003
      1.00190239e-002 1.45846547e-003 2.15916298e-002 3.07863038e-002
      1.10653136e-002 8.87761591e-004 1.33164239e-003 9.82878846e-004
      1.20481930e-003 6.34115422e-005 1.58528856e-003 1.23652501e-003
      1.07482560e-002 7.29232735e-004 9.19467362e-004 6.97526964e-004
      1.42675964e-002 6.34115422e-004 2.95814835e-002 1.18579585e-002
      6.81674061e-003 1.42675964e-003 6.97526964e-004 1.10970193e-003
      1.01458468e-003 1.26823084e-004 7.92644278e-004 1.04629039e-003
      8.24350049e-004 2.53646169e-004 1.90234627e-004 9.51173133e-005
      9.19467362e-004 2.21940398e-004 1.42675964e-003 1.80722889e-003
      1.10653136e-002 5.38998109e-004 9.51173133e-004 5.70703880e-004
      1.10970193e-003 3.17057711e-005 1.29993656e-003 5.70703880e-004
      1.64870005e-002 6.97526964e-004 9.19467362e-004 5.38998109e-004
      1.68357641e-002 5.07292338e-004 1.19213695e-002 5.23145217e-003
      8.94102734e-003 1.61699427e-003 9.19467362e-004 1.17311347e-003
      6.02409651e-004 9.51173133e-005 4.75586567e-004 8.24350049e-004
      1.10970193e-003 2.21940398e-004 6.34115422e-005 1.26823084e-004
      6.65821193e-004 1.90234627e-004 5.07292338e-004 6.34115422e-004
      1.39505393e-003 9.51173133e-005 9.51173133e-005 6.34115422e-005
      6.34115422e-005 0. 6.34115422e-005 0. 1.10970193e-003
      3.17057711e-005 1.26823084e-004 1.26823084e-004 6.34115422e-004
      6.34115422e-005 5.07292338e-004 3.17057711e-004 1.13823712e-002
      1.68040581e-003 1.26823084e-003 1.10970193e-003 5.38998109e-004
      1.90234627e-004 1.10970193e-003 4.43880796e-004 9.19467362e-004
      9.51173133e-005 1.58528856e-004 1.90234627e-004 7.29232735e-004
      9.51173133e-005 7.60938507e-004 1.14140776e-003 1.83893461e-002
      7.29232735e-004 1.07799622e-003 6.97526964e-004 5.70703880e-004 0.
      9.51173133e-004 3.80469253e-004 2.22891569e-002 6.02409651e-004
      9.82878846e-004 3.80469253e-004 9.32149682e-003 3.80469253e-004
      5.67533309e-003 2.40963860e-003 1.02409637e-002 1.70259979e-002
      1.68040581e-003 2.85351928e-002 1.20481930e-003 1.58528856e-003
      1.14140776e-003 2.59670261e-002 8.87761591e-004 9.82878846e-004
      1.26823084e-004 1.33164239e-003 6.34115422e-004 8.56055820e-004
      1.42675964e-003 1.69625878e-002 1.23652501e-003 1.10970193e-003
      1.26823084e-004 1.01458468e-003 1.26823084e-004 3.17057711e-005
      2.53646169e-004 8.56055820e-004 1.20481930e-003 8.24350049e-004
      3.17057711e-005 5.38998109e-004 9.19467362e-004 3.48763482e-004
      1.58528856e-003 6.97526941e-003 1.14140776e-003 1.45846547e-003
      3.17057711e-005 1.61699427e-003 1.58528856e-004 9.51173133e-005
      1.26823084e-004 1.17311347e-003 1.26823084e-004 1.26823084e-004
      3.17057711e-005 1.58528856e-004 9.51173133e-005 2.53646169e-004
      1.58528856e-004 1.39505393e-003 8.24350049e-004 5.38998109e-004
      1.26823084e-004 6.65821193e-004 6.34115422e-005 6.34115422e-005
      6.34115422e-005 6.34115422e-004 1.07799622e-003 7.29232735e-004
      6.34115422e-005 3.48763482e-004 9.19467362e-004 3.48763482e-004
      7.29232735e-004 4.05833870e-003 1.32847177e-002 2.64109075e-002
      1.26823084e-003 3.50031704e-002 5.07292338e-004 8.56055820e-004
      9.51173133e-004 1.43627143e-002 1.01458468e-003 9.19467362e-004
      9.51173133e-005 8.24350049e-004 6.34115422e-004 6.34115422e-004
      1.10970193e-003 8.08497146e-003 1.93405198e-003 6.97526964e-004
      2.85351940e-004 5.70703880e-004 0. 9.51173133e-005 1.90234627e-004
      3.17057711e-004 6.97526964e-004 5.07292338e-004 1.58528856e-004
      4.43880796e-004 6.34115422e-004 3.17057711e-004 1.20481930e-003
      2.79010786e-003 2.54597329e-002 3.78566906e-002 1.64870010e-003
      1.90234631e-002 6.02409651e-004 6.34115422e-004 1.01458468e-003
      9.00443923e-003 1.14140776e-003 1.49017118e-003 1.26823084e-004
      1.36334810e-003 1.01458468e-003 9.51173133e-004 2.06087506e-003
      9.92390607e-003 3.37983519e-002 1.26506025e-002 2.02916935e-003
      7.32403295e-003 8.56055820e-004 5.07292338e-004 1.29993656e-003
      3.17057711e-003 1.48700066e-002 5.70703857e-003 1.14140776e-003
      5.04121743e-003 5.80215594e-003 1.99746364e-003 8.27520620e-003
      2.02282816e-002</_>
    <_>
      6.46163598e-002 1.52504751e-002 9.41661373e-003 1.63284726e-002
      8.02155957e-003 1.61699427e-003 1.33798355e-002 2.37476230e-002
      8.14838335e-003 1.77552318e-003 1.01458468e-003 1.20481930e-003
      1.07165501e-002 1.58528856e-003 2.61889659e-002 4.04248573e-002
      1.16994297e-002 9.82878846e-004 1.52187701e-003 1.14140776e-003
      1.23652501e-003 6.34115422e-005 2.28281552e-003 8.24350049e-004
      1.12238424e-002 9.19467362e-004 1.33164239e-003 8.87761591e-004
      1.52187701e-002 3.17057711e-004 3.04375403e-002 1.33164236e-002
      7.22891558e-003 1.20481930e-003 6.97526964e-004 1.42675964e-003
      9.19467362e-004 1.58528856e-004 1.01458468e-003 7.29232735e-004
      9.51173133e-004 2.21940398e-004 9.51173133e-005 3.17057711e-005
      7.60938507e-004 1.90234627e-004 1.58528856e-003 1.93405198e-003
      1.15091950e-002 6.34115422e-004 1.20481930e-003 5.70703880e-004
      6.65821193e-004 6.34115422e-005 1.04629039e-003 7.29232735e-004
      1.45846540e-002 6.34115422e-004 9.82878846e-004 4.75586567e-004
      1.58211794e-002 5.70703880e-004 1.14774890e-002 5.19974623e-003
      7.57767912e-003 1.01458468e-003 1.01458468e-003 7.92644278e-004
      3.80469253e-004 9.51173133e-005 5.70703880e-004 8.24350049e-004
      7.60938507e-004 6.34115422e-005 9.51173133e-005 1.26823084e-004
      6.65821193e-004 9.51173133e-005 5.70703880e-004 6.34115422e-004
      1.26823084e-003 6.34115422e-005 1.26823084e-004 0. 3.17057711e-005
      3.17057711e-005 3.17057711e-005 9.51173133e-005 1.17311347e-003
      3.17057711e-005 1.58528856e-004 6.34115422e-005 4.75586567e-004
      1.58528856e-004 4.12175024e-004 4.12175024e-004 1.04311984e-002
      1.83893472e-003 7.60938507e-004 1.36334810e-003 8.56055820e-004
      3.17057711e-005 6.97526964e-004 7.29232735e-004 8.24350049e-004
      1.58528856e-004 9.51173133e-005 9.51173133e-005 6.02409651e-004
      2.21940398e-004 9.19467362e-004 1.17311347e-003 1.80405825e-002
      4.43880796e-004 1.20481930e-003 2.53646169e-004 3.80469253e-004
      3.17057711e-005 8.87761591e-004 4.75586567e-004 2.06087511e-002
      3.48763482e-004 9.19467362e-004 4.43880796e-004 8.11667740e-003
      5.70703880e-004 7.16550415e-003 2.94863665e-003 9.28979088e-003
      1.75332911e-002 1.39505393e-003 2.53012050e-002 6.65821193e-004
      1.10970193e-003 1.45846547e-003 2.65694354e-002 1.10970193e-003
      1.01458468e-003 1.26823084e-004 8.24350049e-004 8.56055820e-004
      1.07799622e-003 1.36334810e-003 1.79771725e-002 1.33164239e-003
      6.65821193e-004 1.26823084e-004 7.29232735e-004 6.34115422e-005
      3.17057711e-005 1.26823084e-004 8.24350049e-004 1.36334810e-003
      4.75586567e-004 2.53646169e-004 4.43880796e-004 1.10970193e-003
      3.48763482e-004 2.09258078e-003 5.80215594e-003 8.24350049e-004
      9.82878846e-004 2.21940398e-004 1.01458468e-003 9.51173133e-005 0.
      1.58528856e-004 1.36334810e-003 6.34115422e-005 1.58528856e-004 0.
      1.58528856e-004 9.51173133e-005 1.26823084e-004 9.51173133e-005
      1.33164239e-003 8.87761591e-004 8.56055820e-004 9.51173133e-005
      8.87761591e-004 9.51173133e-005 0. 9.51173133e-005 4.75586567e-004
      5.70703880e-004 4.12175024e-004 1.58528856e-004 8.87761591e-004
      6.97526964e-004 3.80469253e-004 1.26823084e-003 4.24857344e-003
      1.24286618e-002 2.28915662e-002 1.26823084e-003 2.93595437e-002
      6.34115422e-004 8.24350049e-004 7.60938507e-004 1.17945466e-002
      7.92644278e-004 1.04629039e-003 1.26823084e-004 1.17311347e-003
      7.60938507e-004 7.92644278e-004 1.49017118e-003 8.81420448e-003
      1.42675964e-003 6.65821193e-004 2.85351940e-004 7.29232735e-004
      3.17057711e-005 0. 3.17057711e-004 3.17057711e-004 8.56055820e-004
      4.75586567e-004 9.51173133e-005 6.34115422e-004 7.60938507e-004
      4.75586567e-004 1.29993656e-003 3.23398854e-003 2.41280906e-002
      3.54153439e-002 1.49017118e-003 1.79454666e-002 5.70703880e-004
      2.85351940e-004 9.82878846e-004 7.67279649e-003 1.26823084e-003
      1.74381735e-003 1.58528856e-004 1.29993656e-003 1.14140776e-003
      1.01458468e-003 2.21940386e-003 1.11921374e-002 3.46861146e-002
      1.02726696e-002 1.80722889e-003 5.48509834e-003 5.38998109e-004
      4.12175024e-004 9.82878846e-004 2.69499049e-003 1.36968931e-002
      5.45339240e-003 1.23652501e-003 4.40710224e-003 5.89727331e-003
      2.44134432e-003 7.73620792e-003 1.93722267e-002</_>
    <_>
      5.73240332e-002 1.31896008e-002 7.64109055e-003 1.15409000e-002
      7.70450244e-003 1.29993656e-003 1.10019026e-002 1.56626515e-002
      8.21179431e-003 1.64870010e-003 8.56055820e-004 1.36334810e-003
      1.25554847e-002 1.93405198e-003 2.65377294e-002 3.18643004e-002
      1.41724795e-002 1.17311347e-003 1.55358273e-003 7.92644278e-004
      1.33164239e-003 6.34115422e-005 1.52187701e-003 7.29232735e-004
      1.46163600e-002 7.29232735e-004 1.10970193e-003 5.70703880e-004
      2.15916298e-002 9.82878846e-004 3.70640457e-002 1.30627770e-002
      8.02155957e-003 1.74381735e-003 9.82878846e-004 1.01458468e-003
      9.51173133e-004 1.26823084e-004 9.19467362e-004 1.33164239e-003
      1.71211164e-003 9.51173133e-005 6.34115422e-005 1.58528856e-004
      1.45846547e-003 3.80469253e-004 1.90234627e-003 2.12428672e-003
      1.46163600e-002 7.92644278e-004 1.04629039e-003 7.60938507e-004
      1.52187701e-003 1.26823084e-004 8.87761591e-004 5.38998109e-004
      2.33037416e-002 4.75586567e-004 9.51173133e-004 9.51173133e-004
      2.74254922e-002 4.43880796e-004 1.71528216e-002 6.15091948e-003
      7.83132575e-003 1.04629039e-003 7.92644278e-004 8.24350049e-004
      4.12175024e-004 6.34115422e-005 5.70703880e-004 4.75586567e-004
      1.07799622e-003 3.17057711e-005 6.34115422e-005 9.51173133e-005
      4.75586567e-004 1.58528856e-004 7.92644278e-004 8.87761591e-004
      1.17311347e-003 3.17057711e-005 6.34115422e-005 6.34115422e-005
      6.34115422e-005 0. 1.26823084e-004 3.17057711e-005 1.39505393e-003
      6.34115422e-005 6.34115422e-005 3.17057711e-005 8.56055820e-004
      1.26823084e-004 7.29232735e-004 2.21940398e-004 1.21750161e-002
      1.64870010e-003 1.17311347e-003 1.33164239e-003 5.38998109e-004
      6.34115422e-005 6.34115422e-004 6.02409651e-004 1.61699427e-003
      1.58528856e-004 3.17057711e-005 9.51173133e-005 4.12175024e-004
      1.26823084e-004 1.33164239e-003 1.52187701e-003 2.11477485e-002
      6.65821193e-004 1.07799622e-003 6.34115422e-004 6.34115422e-004 0.
      6.34115422e-004 5.07292338e-004 3.13570052e-002 5.38998109e-004
      1.33164239e-003 3.80469253e-004 1.23969559e-002 2.85351940e-004
      8.97273328e-003 3.04375403e-003 7.26062153e-003 1.12555483e-002
      8.56055820e-004 1.61065310e-002 8.24350049e-004 1.07799622e-003
      1.01458468e-003 1.70894098e-002 5.70703880e-004 1.01458468e-003
      6.34115422e-005 1.10970193e-003 9.51173133e-004 8.24350049e-004
      1.96575769e-003 1.33481296e-002 1.68040581e-003 6.34115422e-004
      2.53646169e-004 7.60938507e-004 9.51173133e-005 6.34115422e-005
      2.53646169e-004 6.02409651e-004 1.10970193e-003 4.12175024e-004
      6.34115422e-005 6.02409651e-004 1.20481930e-003 6.65821193e-004
      1.58528856e-003 5.96068474e-003 7.60938507e-004 1.26823084e-003
      1.58528856e-004 1.17311347e-003 0. 9.51173133e-005 9.51173133e-005
      1.20481930e-003 1.26823084e-004 3.17057711e-005 3.17057711e-005
      9.51173133e-005 9.51173133e-005 6.34115422e-005 2.21940398e-004
      9.82878846e-004 1.04629039e-003 5.70703880e-004 9.51173133e-005
      3.80469253e-004 9.51173133e-005 0. 1.90234627e-004 4.75586567e-004
      9.82878846e-004 3.80469253e-004 1.26823084e-004 8.87761591e-004
      9.51173133e-004 4.75586567e-004 1.10970193e-003 5.70703857e-003
      9.79708321e-003 1.99746359e-002 1.23652501e-003 2.45719720e-002
      3.80469253e-004 4.12175024e-004 7.29232735e-004 9.16296802e-003
      1.04629039e-003 1.23652501e-003 6.34115422e-005 1.14140776e-003
      6.02409651e-004 6.97526964e-004 1.20481930e-003 7.51426769e-003
      1.64870010e-003 6.34115422e-004 2.21940398e-004 5.07292338e-004
      9.51173133e-005 6.34115422e-005 3.17057711e-005 3.80469253e-004
      1.26823084e-003 6.34115422e-004 3.17057711e-005 4.75586567e-004
      8.24350049e-004 4.75586567e-004 1.04629039e-003 2.91693094e-003
      2.22574510e-002 3.26886475e-002 1.10970193e-003 1.47431828e-002
      5.70703880e-004 7.92644278e-004 9.19467362e-004 6.24603685e-003
      1.42675964e-003 1.96575769e-003 2.53646169e-004 7.92644278e-004
      1.14140776e-003 1.20481930e-003 1.99746364e-003 8.97273328e-003
      3.65884602e-002 1.18896635e-002 1.52187701e-003 5.23145217e-003
      5.70703880e-004 1.90234627e-004 1.14140776e-003 2.69499049e-003
      1.71211157e-002 6.27774233e-003 1.07799622e-003 5.29486360e-003
      8.46544094e-003 3.58275208e-003 9.38490778e-003 2.04502214e-002</_>
    <_>
      6.01458475e-002 1.24603678e-002 6.68991776e-003 1.06848450e-002
      6.59480039e-003 1.10970193e-003 1.06531391e-002 1.55358277e-002
      8.24350026e-003 1.39505393e-003 9.19467362e-004 1.10970193e-003
      1.18896635e-002 1.71211164e-003 2.39378568e-002 3.19594182e-002
      1.43310083e-002 8.56055820e-004 1.29993656e-003 6.97526964e-004
      1.74381735e-003 3.17057711e-005 1.87064044e-003 6.02409651e-004
      1.53138870e-002 7.29232735e-004 1.07799622e-003 7.29232735e-004
      2.17501577e-002 6.34115422e-004 3.21813561e-002 1.22067221e-002
      8.97273328e-003 1.14140776e-003 1.10970193e-003 9.51173133e-004
      1.17311347e-003 9.51173133e-005 7.60938507e-004 8.56055820e-004
      1.55358273e-003 1.58528856e-004 1.58528856e-004 3.17057711e-005
      1.83893472e-003 2.21940398e-004 1.87064044e-003 1.90234627e-003
      1.62967667e-002 8.56055820e-004 1.10970193e-003 8.87761591e-004
      1.17311347e-003 3.17057711e-005 1.07799622e-003 4.75586567e-004
      2.72035506e-002 7.92644278e-004 8.87761591e-004 6.65821193e-004
      2.76157260e-002 7.60938507e-004 1.57577675e-002 6.59480039e-003
      8.65567569e-003 1.17311347e-003 9.19467362e-004 1.42675964e-003
      4.12175024e-004 6.34115422e-005 4.43880796e-004 7.29232735e-004
      1.23652501e-003 1.58528856e-004 3.17057711e-005 1.26823084e-004
      5.07292338e-004 9.51173133e-005 6.97526964e-004 5.70703880e-004
      1.68040581e-003 6.34115422e-005 3.17057711e-005 6.34115422e-005
      3.17057711e-005 3.17057711e-005 0. 0. 1.29993656e-003
      3.17057711e-005 1.58528856e-004 6.34115422e-005 6.97526964e-004
      6.34115422e-005 1.07799622e-003 1.90234627e-004 1.23335449e-002
      1.29993656e-003 1.10970193e-003 1.29993656e-003 8.24350049e-004
      9.51173133e-005 6.97526964e-004 9.51173133e-004 1.77552318e-003
      1.58528856e-004 1.58528856e-004 1.26823084e-004 8.24350049e-004
      1.90234627e-004 1.42675964e-003 1.26823084e-003 2.33988594e-002
      6.65821193e-004 7.29232735e-004 7.60938507e-004 7.29232735e-004
      9.51173133e-005 7.60938507e-004 2.85351940e-004 3.44324671e-002
      7.29232735e-004 1.74381735e-003 3.17057711e-004 1.38237160e-002
      3.48763482e-004 8.18008836e-003 2.82181357e-003 7.45085627e-003
      1.19530754e-002 1.29993656e-003 1.62650608e-002 6.65821193e-004
      9.82878846e-004 1.04629039e-003 1.58528853e-002 9.82878846e-004
      1.29993656e-003 6.34115422e-005 9.51173133e-004 8.24350049e-004
      7.60938507e-004 1.10970193e-003 1.23335449e-002 1.36334810e-003
      7.92644278e-004 1.26823084e-004 9.19467362e-004 6.34115422e-005
      6.34115422e-005 9.51173133e-005 4.75586567e-004 8.24350049e-004
      6.02409651e-004 1.26823084e-004 6.02409651e-004 1.20481930e-003
      7.60938507e-004 1.68040581e-003 5.00951195e-003 8.87761591e-004
      1.17311347e-003 1.90234627e-004 1.49017118e-003 9.51173133e-005
      3.17057711e-005 9.51173133e-005 8.56055820e-004 1.26823084e-004
      1.26823084e-004 0. 1.58528856e-004 2.21940398e-004 1.26823084e-004
      1.90234627e-004 8.87761591e-004 9.82878846e-004 6.65821193e-004
      1.58528856e-004 5.07292338e-004 1.26823084e-004 6.34115422e-005
      9.51173133e-005 6.34115422e-004 1.20481930e-003 7.60938507e-004 0.
      6.97526964e-004 1.33164239e-003 9.19467362e-004 1.20481930e-003
      5.51680429e-003 1.06848450e-002 1.90551672e-002 1.10970193e-003
      2.55865566e-002 7.29232735e-004 6.34115422e-004 8.56055820e-004
      9.22637898e-003 1.01458468e-003 9.51173133e-004 1.26823084e-004
      9.51173133e-004 7.60938507e-004 4.75586567e-004 9.82878846e-004
      6.78503467e-003 1.58528856e-003 5.70703880e-004 3.17057711e-004
      3.48763482e-004 1.26823084e-004 0. 3.17057711e-005 1.26823084e-004
      1.14140776e-003 3.80469253e-004 3.17057711e-005 6.02409651e-004
      9.51173133e-004 5.70703880e-004 9.51173133e-004 2.18769815e-003
      2.28915662e-002 2.86303107e-002 1.29993656e-003 1.35383643e-002
      6.34115422e-004 7.29232735e-004 7.92644278e-004 5.99239068e-003
      1.58528856e-003 2.02916935e-003 6.34115422e-005 1.01458468e-003
      1.10970193e-003 1.26823084e-003 2.06087506e-003 9.54343658e-003
      3.64299305e-002 1.09067848e-002 1.71211164e-003 5.83386188e-003
      7.60938507e-004 3.80469253e-004 1.26823084e-003 2.75840214e-003
      1.76918190e-002 7.00697536e-003 1.14140776e-003 6.11921353e-003
      8.11667740e-003 2.79010786e-003 9.89220012e-003 2.08941028e-002</_>
    <_>
      6.00507297e-002 1.24603678e-002 7.70450244e-003 1.12238424e-002
      7.16550415e-003 1.52187701e-003 1.17311347e-002 1.51870642e-002
      9.60684847e-003 1.96575769e-003 9.19467362e-004 1.29993656e-003
      1.35700693e-002 1.96575769e-003 2.90107802e-002 3.54470499e-002
      1.36968931e-002 9.51173133e-004 1.71211164e-003 7.92644278e-004
      1.04629039e-003 9.51173133e-005 2.12428672e-003 6.97526964e-004
      1.53455930e-002 8.56055820e-004 1.52187701e-003 6.97526964e-004
      2.53963228e-002 9.19467362e-004 4.35003154e-002 1.38237160e-002
      8.75079259e-003 1.26823084e-003 1.01458468e-003 1.14140776e-003
      7.60938507e-004 9.51173133e-005 1.04629039e-003 1.26823084e-003
      1.26823084e-003 2.53646169e-004 1.58528856e-004 6.34115422e-005
      1.29993656e-003 1.90234627e-004 1.83893472e-003 2.09258078e-003
      1.44261252e-002 8.87761591e-004 7.29232735e-004 7.29232735e-004
      1.36334810e-003 1.26823084e-004 8.24350049e-004 3.17057711e-004
      2.56182626e-002 6.97526964e-004 1.23652501e-003 6.02409651e-004
      2.79961955e-002 4.75586567e-004 1.85795818e-002 5.54850977e-003
      7.64109055e-003 1.01458468e-003 6.02409651e-004 9.82878846e-004
      5.07292338e-004 6.34115422e-005 5.70703880e-004 5.38998109e-004
      7.92644278e-004 1.26823084e-004 9.51173133e-005 6.34115422e-005
      5.70703880e-004 9.51173133e-005 9.19467362e-004 1.10970193e-003
      1.26823084e-003 1.90234627e-004 9.51173133e-005 0. 9.51173133e-005
      0. 0. 0. 9.51173133e-004 1.26823084e-004 3.17057711e-005
      3.17057711e-005 5.38998109e-004 6.34115422e-005 7.92644278e-004
      2.21940398e-004 1.18896635e-002 1.52187701e-003 9.19467362e-004
      1.20481930e-003 6.02409651e-004 3.17057711e-005 6.65821193e-004
      7.92644278e-004 1.29993656e-003 1.26823084e-004 0. 6.34115422e-005
      1.07799622e-003 1.58528856e-004 1.23652501e-003 1.14140776e-003
      2.07672790e-002 6.65821193e-004 8.87761591e-004 5.07292338e-004
      4.12175024e-004 0. 8.56055820e-004 4.75586567e-004 2.68547870e-002
      5.07292338e-004 1.07799622e-003 4.43880796e-004 1.21116042e-002
      4.43880796e-004 8.37032311e-003 3.58275208e-003 8.08497146e-003
      1.13506662e-002 1.23652501e-003 1.34749524e-002 7.60938507e-004
      6.65821193e-004 1.01458468e-003 1.61065310e-002 6.02409651e-004
      1.07799622e-003 3.17057711e-005 9.19467362e-004 8.87761591e-004
      1.10970193e-003 1.80722889e-003 1.24603678e-002 1.42675964e-003
      5.07292338e-004 1.58528856e-004 6.34115422e-004 1.90234627e-004 0.
      2.53646169e-004 5.07292338e-004 1.10970193e-003 7.92644278e-004 0.
      6.02409651e-004 7.29232735e-004 4.43880796e-004 2.12428672e-003
      5.99239068e-003 6.65821193e-004 6.65821193e-004 9.51173133e-005
      9.82878846e-004 6.34115422e-005 9.51173133e-005 9.51173133e-005
      9.51173133e-004 1.58528856e-004 1.26823084e-004 0. 1.26823084e-004
      9.51173133e-005 6.34115422e-005 6.34115422e-005 1.49017118e-003
      1.29993656e-003 5.07292338e-004 9.51173133e-005 4.12175024e-004
      9.51173133e-005 0. 2.21940398e-004 6.34115422e-004 6.97526964e-004
      3.48763482e-004 3.17057711e-005 3.80469253e-004 1.36334810e-003
      5.07292338e-004 1.29993656e-003 4.37539630e-003 1.09067848e-002
      1.85795818e-002 4.75586567e-004 2.21940391e-002 3.48763482e-004
      7.29232735e-004 7.29232735e-004 7.00697536e-003 1.07799622e-003
      1.17311347e-003 1.90234627e-004 6.97526964e-004 7.60938507e-004
      5.70703880e-004 9.51173133e-004 7.22891558e-003 1.55358273e-003
      6.02409651e-004 6.34115422e-005 5.07292338e-004 9.51173133e-005 0.
      3.17057711e-005 2.85351940e-004 8.87761591e-004 6.02409651e-004 0.
      3.48763482e-004 6.02409651e-004 2.53646169e-004 1.45846547e-003
      2.37793289e-003 2.19086874e-002 3.53519358e-002 1.42675964e-003
      1.39822448e-002 6.34115422e-004 5.70703880e-004 5.38998109e-004
      5.92897926e-003 1.23652501e-003 1.87064044e-003 2.85351940e-004
      1.68040581e-003 1.04629039e-003 9.19467362e-004 1.96575769e-003
      8.81420448e-003 3.79201025e-002 1.08750788e-002 1.71211164e-003
      4.97780601e-003 4.75586567e-004 2.53646169e-004 1.14140776e-003
      2.69499049e-003 1.70259979e-002 5.16804075e-003 8.87761591e-004
      3.70957516e-003 7.83132575e-003 2.56816740e-003 1.04311984e-002
      1.83259360e-002</_>
    <_>
      5.53265698e-002 1.17311347e-002 6.24603685e-003 1.07165501e-002
      7.19721010e-003 1.20481930e-003 9.06785019e-003 1.49017125e-002
      7.29232701e-003 9.82878846e-004 4.43880796e-004 1.04629039e-003
      1.05580213e-002 1.29993656e-003 2.01965757e-002 3.11984774e-002
      1.41090676e-002 1.07799622e-003 1.10970193e-003 7.29232735e-004
      1.04629039e-003 0. 1.36334810e-003 5.07292338e-004 1.31578948e-002
      8.87761591e-004 8.87761591e-004 6.65821193e-004 1.72796454e-002
      7.29232735e-004 3.11667714e-002 1.01141408e-002 8.81420448e-003
      9.82878846e-004 1.07799622e-003 9.82878846e-004 5.70703880e-004
      1.58528856e-004 9.51173133e-004 5.70703880e-004 1.74381735e-003
      1.58528856e-004 1.26823084e-004 1.90234627e-004 1.29993656e-003
      2.85351940e-004 1.23652501e-003 1.96575769e-003 1.62650608e-002
      1.01458468e-003 1.10970193e-003 6.34115422e-004 1.07799622e-003
      3.17057711e-005 1.23652501e-003 3.80469253e-004 2.69181989e-002
      7.60938507e-004 1.07799622e-003 6.34115422e-004 2.51109693e-002
      8.24350049e-004 1.45846540e-002 5.70703857e-003 9.28979088e-003
      1.10970193e-003 8.56055820e-004 8.87761591e-004 6.65821193e-004
      6.34115422e-005 4.75586567e-004 4.12175024e-004 8.24350049e-004
      6.34115422e-005 6.34115422e-005 9.51173133e-005 4.12175024e-004
      9.51173133e-005 6.02409651e-004 6.02409651e-004 9.19467362e-004
      1.26823084e-004 1.26823084e-004 6.34115422e-005 3.17057711e-005 0.
      0. 0. 1.29993656e-003 6.34115422e-005 3.17057711e-005 0.
      4.43880796e-004 3.17057711e-005 4.12175024e-004 1.90234627e-004
      1.32213067e-002 1.90234627e-003 7.60938507e-004 8.56055820e-004
      1.04629039e-003 3.17057711e-005 7.92644278e-004 6.02409651e-004
      1.52187701e-003 3.17057711e-004 9.51173133e-005 3.17057711e-005
      1.20481930e-003 1.58528856e-004 1.26823084e-003 9.51173133e-004
      2.65377294e-002 9.51173133e-004 1.07799622e-003 5.70703880e-004
      7.92644278e-004 0. 7.60938507e-004 2.53646169e-004 3.49080525e-002
      8.87761591e-004 1.17311347e-003 5.38998109e-004 1.43627143e-002
      2.85351940e-004 7.92644266e-003 3.20228282e-003 8.21179431e-003
      1.24286618e-002 8.87761591e-004 1.56943556e-002 7.29232735e-004
      8.24350049e-004 8.24350049e-004 1.69942938e-002 8.24350049e-004
      1.23652501e-003 9.51173133e-005 7.29232735e-004 9.82878846e-004
      1.23652501e-003 8.87761591e-004 1.16043119e-002 1.45846547e-003
      7.29232735e-004 3.17057711e-005 5.70703880e-004 1.90234627e-004
      9.51173133e-005 2.53646169e-004 4.12175024e-004 1.01458468e-003
      7.60938507e-004 1.58528856e-004 6.34115422e-004 6.02409651e-004
      5.70703880e-004 1.39505393e-003 5.13633480e-003 1.04629039e-003
      1.07799622e-003 9.51173133e-005 9.51173133e-004 1.26823084e-004
      1.26823084e-004 2.53646169e-004 1.04629039e-003 1.58528856e-004
      6.34115422e-005 0. 9.51173133e-005 1.26823084e-004 1.26823084e-004
      6.34115422e-005 9.19467362e-004 1.23652501e-003 9.19467362e-004
      9.51173133e-005 9.51173133e-004 2.21940398e-004 9.51173133e-005
      3.17057711e-005 5.07292338e-004 1.61699427e-003 1.10970193e-003
      1.58528856e-004 6.02409651e-004 1.23652501e-003 7.29232735e-004
      1.10970193e-003 4.47051367e-003 1.25554847e-002 1.88332275e-002
      1.07799622e-003 2.59036142e-002 6.02409651e-004 7.29232735e-004
      6.97526964e-004 8.68738070e-003 1.04629039e-003 1.07799622e-003
      1.58528856e-004 1.04629039e-003 6.34115422e-004 6.65821193e-004
      1.04629039e-003 6.68991776e-003 2.09258078e-003 8.24350049e-004
      2.21940398e-004 3.80469253e-004 1.26823084e-004 3.17057711e-005 0.
      3.17057711e-004 8.56055820e-004 5.70703880e-004 1.26823084e-004
      3.17057711e-004 9.19467362e-004 2.53646169e-004 6.65821193e-004
      2.66328477e-003 3.02473046e-002 3.44007611e-002 1.42675964e-003
      1.50285354e-002 7.92644278e-004 5.38998109e-004 1.33164239e-003
      6.91185798e-003 1.71211164e-003 1.42675964e-003 6.34115422e-005
      1.01458468e-003 1.45846547e-003 1.33164239e-003 1.90234627e-003
      8.59226380e-003 4.44197841e-002 1.49017125e-002 1.64870010e-003
      6.40456565e-003 6.34115422e-004 1.58528856e-004 1.14140776e-003
      2.69499049e-003 1.96892843e-002 7.54597317e-003 1.42675964e-003
      5.83386188e-003 8.52885190e-003 3.36081162e-003 9.73367132e-003
      2.03233995e-002</_>
    <_>
      5.61826266e-002 1.23018390e-002 6.40456565e-003 9.76537727e-003
      6.40456565e-003 1.49017118e-003 8.71908665e-003 1.45529490e-002
      7.76791386e-003 1.49017118e-003 1.14140776e-003 8.56055820e-004
      1.13189602e-002 1.83893472e-003 1.92454029e-002 2.99619529e-002
      1.43944202e-002 8.87761591e-004 1.14140776e-003 6.65821193e-004
      1.49017118e-003 9.51173133e-005 1.68040581e-003 6.02409651e-004
      1.42358905e-002 7.92644278e-004 8.56055820e-004 7.92644278e-004
      1.99112240e-002 7.29232735e-004 3.28471772e-002 1.15726059e-002
      9.57514253e-003 1.39505393e-003 9.19467362e-004 8.24350049e-004
      9.82878846e-004 3.17057711e-005 1.07799622e-003 9.19467362e-004
      1.49017118e-003 2.53646169e-004 9.51173133e-005 1.58528856e-004
      1.74381735e-003 1.90234627e-004 1.39505393e-003 1.87064044e-003
      1.66455302e-002 6.34115422e-004 9.19467362e-004 8.56055820e-004
      1.49017118e-003 0. 1.17311347e-003 7.92644278e-004 3.17057706e-002
      9.82878846e-004 1.20481930e-003 4.43880796e-004 3.20228264e-002
      6.34115422e-004 1.57260615e-002 5.23145217e-003 8.18008836e-003
      1.17311347e-003 8.24350049e-004 1.07799622e-003 2.85351940e-004
      6.34115422e-005 7.29232735e-004 5.07292338e-004 9.19467362e-004
      9.51173133e-005 6.34115422e-005 0. 6.34115422e-004 3.17057711e-005
      8.56055820e-004 5.07292338e-004 1.45846547e-003 6.34115422e-005
      3.17057711e-005 9.51173133e-005 9.51173133e-005 0. 9.51173133e-005
      0. 1.26823084e-003 1.58528856e-004 6.34115422e-005 6.34115422e-005
      5.38998109e-004 3.17057711e-005 4.75586567e-004 1.90234627e-004
      1.24920737e-002 1.71211164e-003 7.29232735e-004 1.49017118e-003
      7.92644278e-004 1.90234627e-004 8.87761591e-004 6.97526964e-004
      1.23652501e-003 3.80469253e-004 1.58528856e-004 2.53646169e-004
      1.20481930e-003 2.21940398e-004 1.36334810e-003 9.82878846e-004
      2.57767905e-002 9.51173133e-004 1.14140776e-003 5.38998109e-004
      8.87761591e-004 3.17057711e-005 6.34115422e-004 2.85351940e-004
      3.84908058e-002 5.38998109e-004 1.10970193e-003 5.38998109e-004
      1.56626515e-002 3.17057711e-004 8.46544094e-003 3.45592899e-003
      7.70450244e-003 1.04311984e-002 9.19467362e-004 1.48700066e-002
      8.87761591e-004 9.82878846e-004 1.07799622e-003 1.54724158e-002
      1.14140776e-003 7.29232735e-004 1.90234627e-004 8.24350049e-004
      8.24350049e-004 1.14140776e-003 9.82878846e-004 1.30627770e-002
      1.23652501e-003 7.60938507e-004 1.90234627e-004 3.48763482e-004
      9.51173133e-005 9.51173133e-005 2.53646169e-004 3.48763482e-004
      1.26823084e-003 6.34115422e-004 6.34115422e-005 3.80469253e-004
      1.07799622e-003 3.80469253e-004 1.49017118e-003 4.78757126e-003
      1.14140776e-003 1.07799622e-003 1.58528856e-004 1.01458468e-003
      6.34115422e-005 3.17057711e-005 0. 9.51173133e-004 1.58528856e-004
      2.53646169e-004 0. 1.26823084e-004 6.34115422e-005 1.90234627e-004
      1.90234627e-004 1.20481930e-003 1.23652501e-003 5.38998109e-004
      9.51173133e-005 7.29232735e-004 9.51173133e-005 6.34115422e-005
      3.17057711e-005 3.80469253e-004 1.42675964e-003 8.87761591e-004
      1.90234627e-004 8.87761591e-004 9.82878846e-004 6.34115422e-004
      1.52187701e-003 4.66074841e-003 1.07165501e-002 1.74698792e-002
      9.82878846e-004 2.46670898e-002 6.02409651e-004 8.56055820e-004
      1.04629039e-003 9.67026036e-003 9.19467362e-004 6.97526964e-004
      6.34115422e-005 1.14140776e-003 7.92644278e-004 5.38998109e-004
      9.82878846e-004 6.68991776e-003 1.39505393e-003 7.60938507e-004
      2.21940398e-004 7.92644278e-004 1.90234627e-004 0. 9.51173133e-005
      3.17057711e-004 1.17311347e-003 4.75586567e-004 1.26823084e-004
      5.70703880e-004 8.56055820e-004 5.70703880e-004 8.24350049e-004
      2.50475598e-003 2.37793270e-002 2.84083709e-002 1.14140776e-003
      1.35066584e-002 7.92644278e-004 6.02409651e-004 1.01458468e-003
      6.08750805e-003 1.80722889e-003 1.68040581e-003 9.51173133e-005
      1.14140776e-003 9.82878846e-004 1.26823084e-003 2.15599244e-003
      8.90932139e-003 4.15979698e-002 1.25871906e-002 2.18769815e-003
      6.30944828e-003 7.29232735e-004 1.26823084e-004 1.26823084e-003
      2.63157906e-003 1.88332275e-002 6.84844656e-003 1.45846547e-003
      5.29486360e-003 8.49714689e-003 3.01204808e-003 1.05580213e-002
      2.06087511e-002</_>
    <_>
      6.14457838e-002 1.16043119e-002 7.54597317e-003 1.05263162e-002
      7.26062153e-003 1.52187701e-003 1.03677865e-002 1.43944202e-002
      8.46544094e-003 1.58528856e-003 1.23652501e-003 1.07799622e-003
      1.28725432e-002 2.18769815e-003 2.49524415e-002 2.98985410e-002
      1.46163600e-002 1.01458468e-003 1.58528856e-003 9.19467362e-004
      9.82878846e-004 9.51173133e-005 1.52187701e-003 8.87761591e-004
      1.58845913e-002 8.24350049e-004 7.60938507e-004 5.38998109e-004
      2.53963228e-002 9.19467362e-004 3.77298668e-002 1.30627770e-002
      9.22637898e-003 1.74381735e-003 9.19467362e-004 9.51173133e-004
      8.56055820e-004 9.51173133e-005 6.34115422e-004 8.24350049e-004
      1.42675964e-003 1.90234627e-004 3.17057711e-005 2.21940398e-004
      1.01458468e-003 3.80469253e-004 1.68040581e-003 2.34622695e-003
      1.54724158e-002 9.51173133e-004 1.42675964e-003 5.07292338e-004
      8.87761591e-004 0. 1.01458468e-003 8.24350049e-004 2.90424861e-002
      6.34115422e-004 9.82878846e-004 7.29232735e-004 3.25301215e-002
      4.43880796e-004 1.83893461e-002 6.34115422e-003 7.45085627e-003
      1.01458468e-003 9.19467362e-004 8.56055820e-004 4.43880796e-004
      3.17057711e-005 6.02409651e-004 5.07292338e-004 7.29232735e-004
      2.21940398e-004 0. 1.26823084e-004 4.75586567e-004 1.26823084e-004
      8.24350049e-004 9.82878846e-004 1.23652501e-003 6.34115422e-005
      2.21940398e-004 2.21940398e-004 0. 0. 1.26823084e-004
      6.34115422e-005 1.10970193e-003 3.17057711e-005 1.26823084e-004 0.
      7.60938507e-004 3.17057711e-005 5.38998109e-004 1.26823084e-004
      1.22701330e-002 1.49017118e-003 9.19467362e-004 1.42675964e-003
      6.34115422e-004 3.17057711e-005 7.92644278e-004 4.75586567e-004
      1.26823084e-003 2.21940398e-004 6.34115422e-005 9.51173133e-005
      1.01458468e-003 9.51173133e-005 1.29993656e-003 1.29993656e-003
      2.09575146e-002 1.01458468e-003 1.04629039e-003 8.24350049e-004
      6.02409651e-004 3.17057711e-005 4.75586567e-004 4.43880796e-004
      3.10082436e-002 7.60938507e-004 1.17311347e-003 4.43880796e-004
      1.38871279e-002 4.43880796e-004 8.40202905e-003 2.75840214e-003
      7.57767912e-003 9.82878916e-003 6.65821193e-004 1.48383006e-002
      5.38998109e-004 9.82878846e-004 1.07799622e-003 1.57894734e-002
      1.10970193e-003 1.33164239e-003 6.34115422e-005 1.04629039e-003
      8.56055820e-004 9.51173133e-004 1.71211164e-003 1.24286618e-002
      1.42675964e-003 5.07292338e-004 1.58528856e-004 4.43880796e-004
      9.51173133e-005 3.17057711e-005 1.58528856e-004 6.02409651e-004
      1.23652501e-003 7.29232735e-004 1.26823084e-004 5.07292338e-004
      1.14140776e-003 6.02409651e-004 1.80722889e-003 5.32656955e-003
      5.07292338e-004 8.24350049e-004 1.90234627e-004 1.23652501e-003
      1.26823084e-004 1.26823084e-004 3.17057711e-005 9.19467362e-004
      6.34115422e-005 6.34115422e-005 0. 1.26823084e-004 6.34115422e-005
      1.90234627e-004 1.90234627e-004 8.87761591e-004 8.56055820e-004
      5.70703880e-004 9.51173133e-005 4.43880796e-004 0. 3.17057711e-005
      9.51173133e-005 5.38998109e-004 1.42675964e-003 7.29232735e-004
      1.90234627e-004 4.12175024e-004 1.23652501e-003 5.38998109e-004
      1.20481930e-003 3.67786945e-003 1.05263162e-002 1.93405207e-002
      1.14140776e-003 2.30818000e-002 6.34115422e-004 5.07292338e-004
      5.07292338e-004 8.75079259e-003 1.10970193e-003 1.14140776e-003
      3.17057711e-005 8.24350049e-004 6.02409651e-004 6.34115422e-004
      1.29993656e-003 7.19721010e-003 1.74381735e-003 7.29232735e-004
      9.51173133e-005 8.56055820e-004 0. 0. 9.51173133e-005
      2.21940398e-004 1.29993656e-003 5.07292338e-004 6.34115422e-005
      2.53646169e-004 6.65821193e-004 3.48763482e-004 1.42675964e-003
      2.25110981e-003 2.14648061e-002 3.05326562e-002 1.23652501e-003
      1.46163600e-002 4.75586567e-004 5.07292338e-004 9.51173133e-004
      5.23145217e-003 1.90234627e-003 1.68040581e-003 9.51173133e-005
      9.51173133e-004 9.19467362e-004 1.10970193e-003 2.12428672e-003
      9.44831967e-003 3.70323397e-002 1.13823712e-002 2.06087506e-003
      5.67533309e-003 8.87761591e-004 1.90234627e-004 1.39505393e-003
      2.28281552e-003 1.74381733e-002 6.15091948e-003 7.60938507e-004
      4.72415984e-003 8.24350026e-003 2.66328477e-003 1.08750788e-002
      1.97526943e-002</_>
    <_>
      5.88459112e-002 1.38554219e-002 8.43373500e-003 1.31578948e-002
      7.13379821e-003 1.42675964e-003 1.22067221e-002 1.86746996e-002
      8.05326551e-003 1.36334810e-003 1.07799622e-003 8.56055820e-004
      1.10970195e-002 1.80722889e-003 2.10526325e-002 2.97083072e-002
      1.38871279e-002 1.20481930e-003 1.58528856e-003 6.02409651e-004
      1.29993656e-003 9.51173133e-005 2.09258078e-003 7.29232735e-004
      1.30944829e-002 7.29232735e-004 7.92644278e-004 5.07292338e-004
      1.77552309e-002 8.87761591e-004 2.95497775e-002 1.04629043e-002
      7.98985455e-003 1.23652501e-003 8.24350049e-004 1.36334810e-003
      8.56055820e-004 9.51173133e-005 1.23652501e-003 1.71211164e-003
      1.20481930e-003 1.90234627e-004 1.26823084e-004 1.58528856e-004
      1.07799622e-003 2.53646169e-004 1.20481930e-003 2.34622695e-003
      1.35700693e-002 6.02409651e-004 8.87761591e-004 6.34115422e-004
      9.82878846e-004 0. 1.01458468e-003 5.07292338e-004 2.24159788e-002
      5.07292338e-004 1.10970193e-003 6.34115422e-004 2.33037416e-002
      6.02409651e-004 1.26823084e-002 5.51680429e-003 9.06785019e-003
      1.64870010e-003 6.65821193e-004 1.14140776e-003 6.34115422e-004
      1.26823084e-004 7.60938507e-004 7.60938507e-004 9.19467362e-004
      9.51173133e-005 1.90234627e-004 2.21940398e-004 4.43880796e-004
      9.51173133e-005 5.38998109e-004 9.19467362e-004 1.23652501e-003
      9.51173133e-005 6.34115422e-005 9.51173133e-005 6.34115422e-005 0.
      6.34115422e-005 3.17057711e-005 1.20481930e-003 0. 0.
      3.17057711e-005 7.29232735e-004 3.17057711e-005 3.17057711e-004
      3.17057711e-004 1.14140771e-002 1.80722889e-003 1.20481930e-003
      9.82878846e-004 6.02409651e-004 9.51173133e-005 9.51173133e-004
      7.92644278e-004 1.04629039e-003 1.90234627e-004 6.34115422e-005
      1.58528856e-004 6.34115422e-004 1.26823084e-004 1.14140776e-003
      1.77552318e-003 2.27964483e-002 7.29232735e-004 1.77552318e-003
      5.07292338e-004 6.34115422e-004 0. 6.34115422e-004 2.85351940e-004
      3.27520594e-002 6.97526964e-004 1.14140776e-003 5.07292338e-004
      1.10336086e-002 3.80469253e-004 6.91185798e-003 3.10716545e-003
      9.00443923e-003 1.45212431e-002 1.23652501e-003 2.40646806e-002
      9.82878846e-004 1.20481930e-003 1.55358273e-003 2.42232084e-002
      9.51173133e-004 1.01458468e-003 2.53646169e-004 1.20481930e-003
      1.01458468e-003 1.07799622e-003 1.39505393e-003 1.38554219e-002
      1.33164239e-003 5.07292338e-004 3.80469253e-004 8.87761591e-004
      3.17057711e-005 9.51173133e-005 1.26823084e-004 6.02409651e-004
      7.92644278e-004 7.29232735e-004 1.58528856e-004 9.51173133e-004
      9.19467362e-004 8.56055820e-004 2.21940386e-003 5.96068474e-003
      9.19467362e-004 1.04629039e-003 1.26823084e-004 1.26823084e-003
      6.34115422e-005 9.51173133e-005 1.26823084e-004 1.26823084e-003
      9.51173133e-005 9.51173133e-005 0. 9.51173133e-005 1.58528856e-004
      1.26823084e-004 6.34115422e-005 1.39505393e-003 1.01458468e-003
      5.07292338e-004 2.21940398e-004 8.24350049e-004 1.26823084e-004
      6.34115422e-005 2.85351940e-004 4.43880796e-004 1.14140776e-003
      6.97526964e-004 9.51173133e-005 7.60938507e-004 1.33164239e-003
      4.43880796e-004 8.56055820e-004 4.59733652e-003 1.07165501e-002
      2.41597965e-002 1.10970193e-003 3.37983519e-002 6.02409651e-004
      6.97526964e-004 1.17311347e-003 1.10019026e-002 7.60938507e-004
      1.17311347e-003 9.51173133e-005 1.23652501e-003 6.97526964e-004
      7.92644278e-004 1.01458468e-003 7.70450244e-003 1.96575769e-003
      6.34115422e-004 3.80469253e-004 3.80469253e-004 9.51173133e-005
      6.34115422e-005 1.90234627e-004 1.58528856e-004 9.51173133e-004
      6.97526964e-004 9.51173133e-005 8.24350049e-004 5.07292338e-004
      5.70703880e-004 1.14140776e-003 3.23398854e-003 1.98161062e-002
      3.03424224e-002 1.55358273e-003 1.49651235e-002 6.34115422e-004
      6.34115422e-004 7.92644278e-004 6.91185798e-003 1.83893472e-003
      1.77552318e-003 2.53646169e-004 1.26823084e-003 9.82878846e-004
      1.45846547e-003 2.18769815e-003 8.97273328e-003 3.23715918e-002
      9.25808493e-003 1.80722889e-003 5.64362714e-003 8.87761591e-004
      2.53646169e-004 1.29993656e-003 3.23398854e-003 1.51870642e-002
      4.97780601e-003 1.39505393e-003 4.40710224e-003 7.38744438e-003
      3.17057711e-003 1.10336086e-002 1.99429300e-002</_>
    <_>
      5.88459112e-002 1.38554219e-002 8.43373500e-003 1.31578948e-002
      7.13379821e-003 1.42675964e-003 1.22067221e-002 1.86746996e-002
      8.05326551e-003 1.36334810e-003 1.07799622e-003 8.56055820e-004
      1.10970195e-002 1.80722889e-003 2.10526325e-002 2.97083072e-002
      1.38871279e-002 1.20481930e-003 1.58528856e-003 6.02409651e-004
      1.29993656e-003 9.51173133e-005 2.09258078e-003 7.29232735e-004
      1.30944829e-002 7.29232735e-004 7.92644278e-004 5.07292338e-004
      1.77552309e-002 8.87761591e-004 2.95497775e-002 1.04629043e-002
      7.98985455e-003 1.23652501e-003 8.24350049e-004 1.36334810e-003
      8.56055820e-004 9.51173133e-005 1.23652501e-003 1.71211164e-003
      1.20481930e-003 1.90234627e-004 1.26823084e-004 1.58528856e-004
      1.07799622e-003 2.53646169e-004 1.20481930e-003 2.34622695e-003
      1.35700693e-002 6.02409651e-004 8.87761591e-004 6.34115422e-004
      9.82878846e-004 0. 1.01458468e-003 5.07292338e-004 2.24159788e-002
      5.07292338e-004 1.10970193e-003 6.34115422e-004 2.33037416e-002
      6.02409651e-004 1.26823084e-002 5.51680429e-003 9.06785019e-003
      1.64870010e-003 6.65821193e-004 1.14140776e-003 6.34115422e-004
      1.26823084e-004 7.60938507e-004 7.60938507e-004 9.19467362e-004
      9.51173133e-005 1.90234627e-004 2.21940398e-004 4.43880796e-004
      9.51173133e-005 5.38998109e-004 9.19467362e-004 1.23652501e-003
      9.51173133e-005 6.34115422e-005 9.51173133e-005 6.34115422e-005 0.
      6.34115422e-005 3.17057711e-005 1.20481930e-003 0. 0.
      3.17057711e-005 7.29232735e-004 3.17057711e-005 3.17057711e-004
      3.17057711e-004 1.14140771e-002 1.80722889e-003 1.20481930e-003
      9.82878846e-004 6.02409651e-004 9.51173133e-005 9.51173133e-004
      7.92644278e-004 1.04629039e-003 1.90234627e-004 6.34115422e-005
      1.58528856e-004 6.34115422e-004 1.26823084e-004 1.14140776e-003
      1.77552318e-003 2.27964483e-002 7.29232735e-004 1.77552318e-003
      5.07292338e-004 6.34115422e-004 0. 6.34115422e-004 2.85351940e-004
      3.27520594e-002 6.97526964e-004 1.14140776e-003 5.07292338e-004
      1.10336086e-002 3.80469253e-004 6.91185798e-003 3.10716545e-003
      9.00443923e-003 1.45212431e-002 1.23652501e-003 2.40646806e-002
      9.82878846e-004 1.20481930e-003 1.55358273e-003 2.42232084e-002
      9.51173133e-004 1.01458468e-003 2.53646169e-004 1.20481930e-003
      1.01458468e-003 1.07799622e-003 1.39505393e-003 1.38554219e-002
      1.33164239e-003 5.07292338e-004 3.80469253e-004 8.87761591e-004
      3.17057711e-005 9.51173133e-005 1.26823084e-004 6.02409651e-004
      7.92644278e-004 7.29232735e-004 1.58528856e-004 9.51173133e-004
      9.19467362e-004 8.56055820e-004 2.21940386e-003 5.96068474e-003
      9.19467362e-004 1.04629039e-003 1.26823084e-004 1.26823084e-003
      6.34115422e-005 9.51173133e-005 1.26823084e-004 1.26823084e-003
      9.51173133e-005 9.51173133e-005 0. 9.51173133e-005 1.58528856e-004
      1.26823084e-004 6.34115422e-005 1.39505393e-003 1.01458468e-003
      5.07292338e-004 2.21940398e-004 8.24350049e-004 1.26823084e-004
      6.34115422e-005 2.85351940e-004 4.43880796e-004 1.14140776e-003
      6.97526964e-004 9.51173133e-005 7.60938507e-004 1.33164239e-003
      4.43880796e-004 8.56055820e-004 4.59733652e-003 1.07165501e-002
      2.41597965e-002 1.10970193e-003 3.37983519e-002 6.02409651e-004
      6.97526964e-004 1.17311347e-003 1.10019026e-002 7.60938507e-004
      1.17311347e-003 9.51173133e-005 1.23652501e-003 6.97526964e-004
      7.92644278e-004 1.01458468e-003 7.70450244e-003 1.96575769e-003
      6.34115422e-004 3.80469253e-004 3.80469253e-004 9.51173133e-005
      6.34115422e-005 1.90234627e-004 1.58528856e-004 9.51173133e-004
      6.97526964e-004 9.51173133e-005 8.24350049e-004 5.07292338e-004
      5.70703880e-004 1.14140776e-003 3.23398854e-003 1.98161062e-002
      3.03424224e-002 1.55358273e-003 1.49651235e-002 6.34115422e-004
      6.34115422e-004 7.92644278e-004 6.91185798e-003 1.83893472e-003
      1.77552318e-003 2.53646169e-004 1.26823084e-003 9.82878846e-004
      1.45846547e-003 2.18769815e-003 8.97273328e-003 3.23715918e-002
      9.25808493e-003 1.80722889e-003 5.64362714e-003 8.87761591e-004
      2.53646169e-004 1.29993656e-003 3.23398854e-003 1.51870642e-002
      4.97780601e-003 1.39505393e-003 4.40710224e-003 7.38744438e-003
      3.17057711e-003 1.10336086e-002 1.99429300e-002</_>
    <_>
      5.10145836e-002 1.10336086e-002 6.81674061e-003 1.20481923e-002
      7.67279649e-003 1.10970193e-003 1.10019026e-002 1.65821183e-002
      6.62650587e-003 1.49017118e-003 9.19467362e-004 1.20481930e-003
      1.18262526e-002 1.29993656e-003 2.53012050e-002 3.13253030e-002
      1.33798355e-002 9.51173133e-004 9.19467362e-004 4.12175024e-004
      8.56055820e-004 0. 1.68040581e-003 6.34115422e-004 1.20798983e-002
      6.02409651e-004 1.04629039e-003 6.02409651e-004 1.90234631e-002
      5.70703880e-004 3.35447043e-002 1.23335449e-002 6.81674061e-003
      1.20481930e-003 5.38998109e-004 8.24350049e-004 4.43880796e-004
      1.58528856e-004 7.60938507e-004 1.33164239e-003 7.60938507e-004
      2.85351940e-004 2.21940398e-004 3.17057711e-005 1.26823084e-003
      2.21940398e-004 1.36334810e-003 2.12428672e-003 1.31261889e-002
      5.07292338e-004 1.07799622e-003 5.38998109e-004 1.29993656e-003
      6.34115422e-005 9.19467362e-004 4.75586567e-004 2.66328473e-002
      5.38998109e-004 1.01458468e-003 6.65821193e-004 2.77425498e-002
      4.12175024e-004 1.36651872e-002 5.64362714e-003 7.89473671e-003
      1.14140776e-003 9.51173133e-004 1.01458468e-003 3.80469253e-004
      3.17057711e-005 3.80469253e-004 6.65821193e-004 5.70703880e-004
      1.26823084e-004 1.58528856e-004 0. 3.80469253e-004 1.58528856e-004
      4.12175024e-004 5.70703880e-004 1.04629039e-003 0. 9.51173133e-005
      3.17057711e-005 6.34115422e-005 3.17057711e-005 3.17057711e-005
      6.34115422e-005 1.04629039e-003 6.34115422e-005 3.17057711e-005
      3.17057711e-005 4.43880796e-004 0. 6.34115422e-004 2.85351940e-004
      1.19213695e-002 9.82878846e-004 5.07292338e-004 9.82878846e-004
      5.70703880e-004 9.51173133e-005 6.02409651e-004 7.60938507e-004
      1.14140776e-003 1.26823084e-004 1.26823084e-004 9.51173133e-005
      7.60938507e-004 2.21940398e-004 9.82878846e-004 1.01458468e-003
      2.58719083e-002 5.70703880e-004 1.55358273e-003 6.65821193e-004
      4.75586567e-004 6.34115422e-005 9.19467362e-004 6.02409651e-004
      3.47178169e-002 5.70703880e-004 1.04629039e-003 6.02409651e-004
      1.31896008e-002 2.21940398e-004 6.53138850e-003 3.01204808e-003
      6.97526941e-003 1.23652508e-002 8.24350049e-004 2.64426135e-002
      6.65821193e-004 7.60938507e-004 7.29232735e-004 2.73937862e-002
      6.65821193e-004 7.92644278e-004 2.21940398e-004 9.19467362e-004
      5.70703880e-004 1.20481930e-003 1.20481930e-003 1.34432465e-002
      1.07799622e-003 7.92644278e-004 2.21940398e-004 6.65821193e-004
      1.26823084e-004 3.17057711e-005 1.58528856e-004 6.34115422e-004
      7.60938507e-004 6.34115422e-004 3.17057711e-005 9.51173133e-004
      1.26823084e-003 6.65821193e-004 2.06087506e-003 6.46797707e-003
      9.51173133e-004 9.19467362e-004 9.51173133e-005 8.87761591e-004
      2.21940398e-004 1.26823084e-004 9.51173133e-005 1.29993656e-003
      2.21940398e-004 3.17057711e-005 6.34115422e-005 2.85351940e-004
      1.26823084e-004 9.51173133e-005 1.26823084e-004 1.04629039e-003
      9.82878846e-004 6.34115422e-004 1.26823084e-004 5.38998109e-004
      6.34115422e-005 9.51173133e-005 9.51173133e-005 7.60938507e-004
      1.01458468e-003 6.65821193e-004 6.34115422e-005 1.45846547e-003
      1.29993656e-003 7.92644278e-004 9.51173133e-004 4.91439458e-003
      1.07799619e-002 2.25745086e-002 1.07799622e-003 3.77932787e-002
      5.07292338e-004 6.34115422e-004 6.65821193e-004 1.32530117e-002
      8.87761591e-004 1.45846547e-003 3.17057711e-005 1.58528856e-003
      5.38998109e-004 7.29232735e-004 9.82878846e-004 6.05580211e-003
      1.29993656e-003 4.43880796e-004 3.17057711e-005 3.80469253e-004
      6.34115422e-005 3.17057711e-005 1.26823084e-004 1.90234627e-004
      1.10970193e-003 3.80469253e-004 3.17057711e-005 4.75586567e-004
      8.87761591e-004 1.90234627e-004 1.55358273e-003 3.04375403e-003
      1.88649334e-002 3.29105891e-002 9.82878846e-004 1.52187701e-002
      5.07292338e-004 3.48763482e-004 1.33164239e-003 6.18262542e-003
      1.61699427e-003 1.68040581e-003 1.90234627e-004 1.17311347e-003
      9.51173133e-004 1.07799622e-003 2.25110981e-003 8.78249854e-003
      3.79835144e-002 1.06214331e-002 1.64870010e-003 5.32656955e-003
      6.65821193e-004 3.48763482e-004 1.23652501e-003 2.59987311e-003
      1.60431191e-002 5.51680429e-003 1.01458468e-003 5.04121743e-003
      6.59480039e-003 2.72669620e-003 9.22637898e-003 1.79137606e-002</_>
    <_>
      5.10145836e-002 1.10336086e-002 6.81674061e-003 1.20481923e-002
      7.67279649e-003 1.10970193e-003 1.10019026e-002 1.65821183e-002
      6.62650587e-003 1.49017118e-003 9.19467362e-004 1.20481930e-003
      1.18262526e-002 1.29993656e-003 2.53012050e-002 3.13253030e-002
      1.33798355e-002 9.51173133e-004 9.19467362e-004 4.12175024e-004
      8.56055820e-004 0. 1.68040581e-003 6.34115422e-004 1.20798983e-002
      6.02409651e-004 1.04629039e-003 6.02409651e-004 1.90234631e-002
      5.70703880e-004 3.35447043e-002 1.23335449e-002 6.81674061e-003
      1.20481930e-003 5.38998109e-004 8.24350049e-004 4.43880796e-004
      1.58528856e-004 7.60938507e-004 1.33164239e-003 7.60938507e-004
      2.85351940e-004 2.21940398e-004 3.17057711e-005 1.26823084e-003
      2.21940398e-004 1.36334810e-003 2.12428672e-003 1.31261889e-002
      5.07292338e-004 1.07799622e-003 5.38998109e-004 1.29993656e-003
      6.34115422e-005 9.19467362e-004 4.75586567e-004 2.66328473e-002
      5.38998109e-004 1.01458468e-003 6.65821193e-004 2.77425498e-002
      4.12175024e-004 1.36651872e-002 5.64362714e-003 7.89473671e-003
      1.14140776e-003 9.51173133e-004 1.01458468e-003 3.80469253e-004
      3.17057711e-005 3.80469253e-004 6.65821193e-004 5.70703880e-004
      1.26823084e-004 1.58528856e-004 0. 3.80469253e-004 1.58528856e-004
      4.12175024e-004 5.70703880e-004 1.04629039e-003 0. 9.51173133e-005
      3.17057711e-005 6.34115422e-005 3.17057711e-005 3.17057711e-005
      6.34115422e-005 1.04629039e-003 6.34115422e-005 3.17057711e-005
      3.17057711e-005 4.43880796e-004 0. 6.34115422e-004 2.85351940e-004
      1.19213695e-002 9.82878846e-004 5.07292338e-004 9.82878846e-004
      5.70703880e-004 9.51173133e-005 6.02409651e-004 7.60938507e-004
      1.14140776e-003 1.26823084e-004 1.26823084e-004 9.51173133e-005
      7.60938507e-004 2.21940398e-004 9.82878846e-004 1.01458468e-003
      2.58719083e-002 5.70703880e-004 1.55358273e-003 6.65821193e-004
      4.75586567e-004 6.34115422e-005 9.19467362e-004 6.02409651e-004
      3.47178169e-002 5.70703880e-004 1.04629039e-003 6.02409651e-004
      1.31896008e-002 2.21940398e-004 6.53138850e-003 3.01204808e-003
      6.97526941e-003 1.23652508e-002 8.24350049e-004 2.64426135e-002
      6.65821193e-004 7.60938507e-004 7.29232735e-004 2.73937862e-002
      6.65821193e-004 7.92644278e-004 2.21940398e-004 9.19467362e-004
      5.70703880e-004 1.20481930e-003 1.20481930e-003 1.34432465e-002
      1.07799622e-003 7.92644278e-004 2.21940398e-004 6.65821193e-004
      1.26823084e-004 3.17057711e-005 1.58528856e-004 6.34115422e-004
      7.60938507e-004 6.34115422e-004 3.17057711e-005 9.51173133e-004
      1.26823084e-003 6.65821193e-004 2.06087506e-003 6.46797707e-003
      9.51173133e-004 9.19467362e-004 9.51173133e-005 8.87761591e-004
      2.21940398e-004 1.26823084e-004 9.51173133e-005 1.29993656e-003
      2.21940398e-004 3.17057711e-005 6.34115422e-005 2.85351940e-004
      1.26823084e-004 9.51173133e-005 1.26823084e-004 1.04629039e-003
      9.82878846e-004 6.34115422e-004 1.26823084e-004 5.38998109e-004
      6.34115422e-005 9.51173133e-005 9.51173133e-005 7.60938507e-004
      1.01458468e-003 6.65821193e-004 6.34115422e-005 1.45846547e-003
      1.29993656e-003 7.92644278e-004 9.51173133e-004 4.91439458e-003
      1.07799619e-002 2.25745086e-002 1.07799622e-003 3.77932787e-002
      5.07292338e-004 6.34115422e-004 6.65821193e-004 1.32530117e-002
      8.87761591e-004 1.45846547e-003 3.17057711e-005 1.58528856e-003
      5.38998109e-004 7.29232735e-004 9.82878846e-004 6.05580211e-003
      1.29993656e-003 4.43880796e-004 3.17057711e-005 3.80469253e-004
      6.34115422e-005 3.17057711e-005 1.26823084e-004 1.90234627e-004
      1.10970193e-003 3.80469253e-004 3.17057711e-005 4.75586567e-004
      8.87761591e-004 1.90234627e-004 1.55358273e-003 3.04375403e-003
      1.88649334e-002 3.29105891e-002 9.82878846e-004 1.52187701e-002
      5.07292338e-004 3.48763482e-004 1.33164239e-003 6.18262542e-003
      1.61699427e-003 1.68040581e-003 1.90234627e-004 1.17311347e-003
      9.51173133e-004 1.07799622e-003 2.25110981e-003 8.78249854e-003
      3.79835144e-002 1.06214331e-002 1.64870010e-003 5.32656955e-003
      6.65821193e-004 3.48763482e-004 1.23652501e-003 2.59987311e-003
      1.60431191e-002 5.51680429e-003 1.01458468e-003 5.04121743e-003
      6.59480039e-003 2.72669620e-003 9.22637898e-003 1.79137606e-002</_>
    <_>
      5.25681674e-002 1.14774890e-002 7.48256175e-003 1.12555483e-002
      7.07038678e-003 1.10970193e-003 1.07482560e-002 1.90234631e-002
      6.84844656e-003 1.61699427e-003 8.56055820e-004 7.92644278e-004
      1.01141408e-002 1.71211164e-003 2.49207355e-002 3.56689915e-002
      1.15726059e-002 7.92644278e-004 1.36334810e-003 7.60938507e-004
      1.29993656e-003 6.34115422e-005 1.42675964e-003 6.02409651e-004
      1.10970195e-002 7.29232735e-004 1.07799622e-003 6.65821193e-004
      1.76918190e-002 6.34115422e-004 3.58592272e-002 1.26823084e-002
      7.22891558e-003 1.17311347e-003 7.92644278e-004 1.04629039e-003
      8.56055820e-004 3.17057711e-004 6.65821193e-004 1.42675964e-003
      1.23652501e-003 1.90234627e-004 3.17057711e-005 2.21940398e-004
      1.26823084e-003 1.58528856e-004 1.01458468e-003 1.49017118e-003
      1.38871279e-002 5.70703880e-004 8.24350049e-004 3.48763482e-004
      1.10970193e-003 3.17057711e-005 9.51173133e-004 3.80469253e-004
      2.20355112e-002 5.07292338e-004 7.92644278e-004 6.97526964e-004
      2.76791379e-002 2.85351940e-004 1.36651872e-002 5.70703857e-003
      8.27520620e-003 1.07799622e-003 6.65821193e-004 1.29993656e-003
      4.12175024e-004 6.34115422e-005 5.70703880e-004 3.17057711e-004
      8.24350049e-004 6.34115422e-005 6.34115422e-005 1.26823084e-004
      6.65821193e-004 9.51173133e-005 5.38998109e-004 6.97526964e-004
      1.26823084e-003 1.26823084e-004 9.51173133e-005 9.51173133e-005
      1.26823084e-004 0. 0. 6.34115422e-005 1.14140776e-003
      9.51173133e-005 3.17057711e-005 6.34115422e-005 7.60938507e-004 0.
      6.65821193e-004 4.12175024e-004 1.28725432e-002 1.49017118e-003
      8.87761591e-004 1.33164239e-003 7.60938507e-004 6.34115422e-005
      8.56055820e-004 5.70703880e-004 9.82878846e-004 1.90234627e-004
      9.51173133e-005 6.34115422e-005 9.19467362e-004 1.90234627e-004
      8.24350049e-004 8.24350049e-004 2.28281543e-002 7.29232735e-004
      1.26823084e-003 4.43880796e-004 6.97526964e-004 0. 6.97526964e-004
      3.17057711e-004 3.33227664e-002 7.29232735e-004 1.01458468e-003
      7.60938507e-004 1.15091950e-002 4.75586567e-004 6.62650587e-003
      3.04375403e-003 7.92644266e-003 1.32847177e-002 1.23652501e-003
      2.28281543e-002 6.97526964e-004 8.87761591e-004 1.23652501e-003
      2.62206718e-002 8.24350049e-004 1.01458468e-003 6.34115422e-005
      7.29232735e-004 1.04629039e-003 1.14140776e-003 9.19467362e-004
      1.42358905e-002 1.29993656e-003 9.51173133e-004 9.51173133e-005
      6.65821193e-004 9.51173133e-005 6.34115422e-005 1.90234627e-004
      4.43880796e-004 1.04629039e-003 4.43880796e-004 6.34115422e-005
      6.65821193e-004 1.10970193e-003 7.92644278e-004 1.55358273e-003
      5.96068474e-003 1.04629039e-003 1.17311347e-003 2.21940398e-004
      1.20481930e-003 1.90234627e-004 3.17057711e-005 6.34115422e-005
      9.51173133e-004 2.21940398e-004 1.26823084e-004 0. 9.51173133e-005
      1.26823084e-004 1.90234627e-004 1.58528856e-004 8.56055820e-004
      7.92644278e-004 7.92644278e-004 1.58528856e-004 6.02409651e-004
      1.58528856e-004 1.90234627e-004 3.17057711e-005 8.87761591e-004
      1.26823084e-003 8.56055820e-004 9.51173133e-005 1.07799622e-003
      8.24350049e-004 6.02409651e-004 9.19467362e-004 4.40710224e-003
      1.15409000e-002 2.38110330e-002 1.45846547e-003 3.73176932e-002
      5.07292338e-004 9.19467362e-004 1.01458468e-003 1.25554847e-002
      7.92644278e-004 1.07799622e-003 6.34115422e-005 1.36334810e-003
      5.70703880e-004 7.60938507e-004 7.92644278e-004 6.37285970e-003
      1.87064044e-003 7.60938507e-004 1.58528856e-004 5.70703880e-004
      9.51173133e-005 6.34115422e-005 1.26823084e-004 2.53646169e-004
      9.51173133e-004 4.43880796e-004 1.58528856e-004 3.80469253e-004
      7.60938507e-004 5.38998109e-004 1.01458468e-003 2.72669620e-003
      1.91185791e-002 3.30691189e-002 1.58528856e-003 1.68040581e-002
      6.34115422e-004 7.60938507e-004 1.04629039e-003 7.35573890e-003
      1.49017118e-003 1.99746364e-003 1.26823084e-004 1.17311347e-003
      8.24350049e-004 9.82878846e-004 1.45846547e-003 8.43373500e-003
      3.31959426e-002 1.16677238e-002 1.96575769e-003 6.78503467e-003
      6.65821193e-004 2.21940398e-004 1.42675964e-003 2.44134432e-003
      1.73430573e-002 5.32656955e-003 1.23652501e-003 4.43880772e-003
      7.19721010e-003 3.23398854e-003 8.37032311e-003 1.75015852e-002</_>
    <_>
      5.25681674e-002 1.14774890e-002 7.48256175e-003 1.12555483e-002
      7.07038678e-003 1.10970193e-003 1.07482560e-002 1.90234631e-002
      6.84844656e-003 1.61699427e-003 8.56055820e-004 7.92644278e-004
      1.01141408e-002 1.71211164e-003 2.49207355e-002 3.56689915e-002
      1.15726059e-002 7.92644278e-004 1.36334810e-003 7.60938507e-004
      1.29993656e-003 6.34115422e-005 1.42675964e-003 6.02409651e-004
      1.10970195e-002 7.29232735e-004 1.07799622e-003 6.65821193e-004
      1.76918190e-002 6.34115422e-004 3.58592272e-002 1.26823084e-002
      7.22891558e-003 1.17311347e-003 7.92644278e-004 1.04629039e-003
      8.56055820e-004 3.17057711e-004 6.65821193e-004 1.42675964e-003
      1.23652501e-003 1.90234627e-004 3.17057711e-005 2.21940398e-004
      1.26823084e-003 1.58528856e-004 1.01458468e-003 1.49017118e-003
      1.38871279e-002 5.70703880e-004 8.24350049e-004 3.48763482e-004
      1.10970193e-003 3.17057711e-005 9.51173133e-004 3.80469253e-004
      2.20355112e-002 5.07292338e-004 7.92644278e-004 6.97526964e-004
      2.76791379e-002 2.85351940e-004 1.36651872e-002 5.70703857e-003
      8.27520620e-003 1.07799622e-003 6.65821193e-004 1.29993656e-003
      4.12175024e-004 6.34115422e-005 5.70703880e-004 3.17057711e-004
      8.24350049e-004 6.34115422e-005 6.34115422e-005 1.26823084e-004
      6.65821193e-004 9.51173133e-005 5.38998109e-004 6.97526964e-004
      1.26823084e-003 1.26823084e-004 9.51173133e-005 9.51173133e-005
      1.26823084e-004 0. 0. 6.34115422e-005 1.14140776e-003
      9.51173133e-005 3.17057711e-005 6.34115422e-005 7.60938507e-004 0.
      6.65821193e-004 4.12175024e-004 1.28725432e-002 1.49017118e-003
      8.87761591e-004 1.33164239e-003 7.60938507e-004 6.34115422e-005
      8.56055820e-004 5.70703880e-004 9.82878846e-004 1.90234627e-004
      9.51173133e-005 6.34115422e-005 9.19467362e-004 1.90234627e-004
      8.24350049e-004 8.24350049e-004 2.28281543e-002 7.29232735e-004
      1.26823084e-003 4.43880796e-004 6.97526964e-004 0. 6.97526964e-004
      3.17057711e-004 3.33227664e-002 7.29232735e-004 1.01458468e-003
      7.60938507e-004 1.15091950e-002 4.75586567e-004 6.62650587e-003
      3.04375403e-003 7.92644266e-003 1.32847177e-002 1.23652501e-003
      2.28281543e-002 6.97526964e-004 8.87761591e-004 1.23652501e-003
      2.62206718e-002 8.24350049e-004 1.01458468e-003 6.34115422e-005
      7.29232735e-004 1.04629039e-003 1.14140776e-003 9.19467362e-004
      1.42358905e-002 1.29993656e-003 9.51173133e-004 9.51173133e-005
      6.65821193e-004 9.51173133e-005 6.34115422e-005 1.90234627e-004
      4.43880796e-004 1.04629039e-003 4.43880796e-004 6.34115422e-005
      6.65821193e-004 1.10970193e-003 7.92644278e-004 1.55358273e-003
      5.96068474e-003 1.04629039e-003 1.17311347e-003 2.21940398e-004
      1.20481930e-003 1.90234627e-004 3.17057711e-005 6.34115422e-005
      9.51173133e-004 2.21940398e-004 1.26823084e-004 0. 9.51173133e-005
      1.26823084e-004 1.90234627e-004 1.58528856e-004 8.56055820e-004
      7.92644278e-004 7.92644278e-004 1.58528856e-004 6.02409651e-004
      1.58528856e-004 1.90234627e-004 3.17057711e-005 8.87761591e-004
      1.26823084e-003 8.56055820e-004 9.51173133e-005 1.07799622e-003
      8.24350049e-004 6.02409651e-004 9.19467362e-004 4.40710224e-003
      1.15409000e-002 2.38110330e-002 1.45846547e-003 3.73176932e-002
      5.07292338e-004 9.19467362e-004 1.01458468e-003 1.25554847e-002
      7.92644278e-004 1.07799622e-003 6.34115422e-005 1.36334810e-003
      5.70703880e-004 7.60938507e-004 7.92644278e-004 6.37285970e-003
      1.87064044e-003 7.60938507e-004 1.58528856e-004 5.70703880e-004
      9.51173133e-005 6.34115422e-005 1.26823084e-004 2.53646169e-004
      9.51173133e-004 4.43880796e-004 1.58528856e-004 3.80469253e-004
      7.60938507e-004 5.38998109e-004 1.01458468e-003 2.72669620e-003
      1.91185791e-002 3.30691189e-002 1.58528856e-003 1.68040581e-002
      6.34115422e-004 7.60938507e-004 1.04629039e-003 7.35573890e-003
      1.49017118e-003 1.99746364e-003 1.26823084e-004 1.17311347e-003
      8.24350049e-004 9.82878846e-004 1.45846547e-003 8.43373500e-003
      3.31959426e-002 1.16677238e-002 1.96575769e-003 6.78503467e-003
      6.65821193e-004 2.21940398e-004 1.42675964e-003 2.44134432e-003
      1.73430573e-002 5.32656955e-003 1.23652501e-003 4.43880772e-003
      7.19721010e-003 3.23398854e-003 8.37032311e-003 1.75015852e-002</_>
    <_>
      4.93975915e-002 9.79708321e-003 6.94356393e-003 1.20481923e-002
      6.91185798e-003 1.10970193e-003 9.98731796e-003 2.06721630e-002
      6.68991776e-003 1.04629039e-003 6.34115422e-004 7.92644278e-004
      9.51173156e-003 1.14140776e-003 2.27013323e-002 3.38934697e-002
      1.03677865e-002 8.24350049e-004 1.07799622e-003 4.75586567e-004
      1.14140776e-003 3.17057711e-005 1.49017118e-003 5.38998109e-004
      1.06214331e-002 4.43880796e-004 9.82878846e-004 5.38998109e-004
      1.80405825e-002 6.65821193e-004 3.27203535e-002 1.32530117e-002
      7.86303077e-003 1.20481930e-003 8.87761591e-004 1.20481930e-003
      9.19467362e-004 1.58528856e-004 3.80469253e-004 9.19467362e-004
      1.07799622e-003 1.26823084e-004 0. 1.26823084e-004 9.19467362e-004
      1.58528856e-004 1.29993656e-003 1.80722889e-003 1.30944829e-002
      7.92644278e-004 9.19467362e-004 4.12175024e-004 1.10970193e-003
      9.51173133e-005 8.56055820e-004 5.70703880e-004 2.08941028e-002
      8.24350049e-004 8.56055820e-004 4.75586567e-004 2.54597329e-002
      5.07292338e-004 1.37603041e-002 5.10462886e-003 7.89473671e-003
      1.26823084e-003 7.60938507e-004 8.24350049e-004 5.07292338e-004
      6.34115422e-005 4.43880796e-004 6.65821193e-004 6.34115422e-004
      9.51173133e-005 6.34115422e-005 9.51173133e-005 5.70703880e-004
      3.17057711e-005 5.38998109e-004 9.51173133e-004 1.23652501e-003
      1.26823084e-004 1.26823084e-004 3.17057711e-005 3.17057711e-005 0.
      3.17057711e-005 0. 1.10970193e-003 6.34115422e-005 0.
      3.17057711e-005 5.07292338e-004 9.51173133e-005 5.70703880e-004
      3.80469253e-004 1.16677238e-002 1.80722889e-003 7.92644278e-004
      6.97526964e-004 5.70703880e-004 1.58528856e-004 6.97526964e-004
      5.38998109e-004 1.10970193e-003 1.90234627e-004 3.17057711e-005
      1.58528856e-004 8.56055820e-004 1.90234627e-004 7.92644278e-004
      9.19467362e-004 2.33354475e-002 6.34115422e-004 1.45846547e-003
      6.97526964e-004 7.60938507e-004 6.34115422e-005 6.02409651e-004
      3.48763482e-004 3.10082436e-002 7.92644278e-004 1.20481930e-003
      5.70703880e-004 1.18262526e-002 3.48763482e-004 5.89727331e-003
      2.98034237e-003 8.11667740e-003 1.45846540e-002 1.29993656e-003
      2.59987321e-002 7.92644278e-004 1.39505393e-003 1.10970193e-003
      2.80913133e-002 8.56055820e-004 9.51173133e-004 3.17057711e-005
      1.01458468e-003 6.02409651e-004 7.92644278e-004 1.14140776e-003
      1.35700693e-002 1.14140776e-003 4.43880796e-004 2.21940398e-004
      4.12175024e-004 1.58528856e-004 3.17057711e-005 6.34115422e-005
      6.34115422e-004 9.51173133e-004 7.60938507e-004 0. 5.38998109e-004
      6.34115422e-004 7.29232735e-004 2.06087506e-003 5.99239068e-003
      1.04629039e-003 8.87761591e-004 3.17057711e-005 9.82878846e-004
      6.34115422e-005 9.51173133e-005 9.51173133e-005 1.33164239e-003
      2.21940398e-004 6.34115422e-005 3.17057711e-005 9.51173133e-005
      6.34115422e-005 3.17057711e-005 1.58528856e-004 1.14140776e-003
      1.45846547e-003 5.38998109e-004 2.21940398e-004 5.70703880e-004
      2.21940398e-004 6.34115422e-005 6.34115422e-005 6.97526964e-004
      1.49017118e-003 9.82878846e-004 1.26823084e-004 5.70703880e-004
      1.49017118e-003 5.38998109e-004 9.19467362e-004 3.74128087e-003
      1.21750161e-002 2.66962592e-002 1.52187701e-003 3.80469263e-002
      7.92644278e-004 8.87761591e-004 9.51173133e-004 1.38237160e-002
      4.43880796e-004 9.51173133e-004 6.34115422e-005 1.17311347e-003
      7.29232735e-004 5.38998109e-004 9.19467362e-004 6.34115422e-003
      1.74381735e-003 9.82878846e-004 1.26823084e-004 6.34115422e-004
      1.26823084e-004 3.17057711e-005 6.34115422e-005 6.34115422e-004
      6.65821193e-004 5.38998109e-004 9.51173133e-005 5.38998109e-004
      8.24350049e-004 5.07292338e-004 1.10970193e-003 3.23398854e-003
      2.03233995e-002 3.78566906e-002 8.56055820e-004 1.82625242e-002
      7.92644278e-004 7.29232735e-004 4.75586567e-004 7.76791386e-003
      1.74381735e-003 1.96575769e-003 1.90234627e-004 1.33164239e-003
      1.01458468e-003 1.04629039e-003 1.20481930e-003 8.11667740e-003
      3.73176932e-002 1.21433102e-002 1.90234627e-003 7.07038678e-003
      8.24350049e-004 2.85351940e-004 1.29993656e-003 2.75840214e-003
      1.62650608e-002 6.78503467e-003 1.33164239e-003 4.59733652e-003
      7.32403295e-003 3.10716545e-003 7.38744438e-003 1.81039944e-002</_>
    <_>
      4.93975915e-002 9.79708321e-003 6.94356393e-003 1.20481923e-002
      6.91185798e-003 1.10970193e-003 9.98731796e-003 2.06721630e-002
      6.68991776e-003 1.04629039e-003 6.34115422e-004 7.92644278e-004
      9.51173156e-003 1.14140776e-003 2.27013323e-002 3.38934697e-002
      1.03677865e-002 8.24350049e-004 1.07799622e-003 4.75586567e-004
      1.14140776e-003 3.17057711e-005 1.49017118e-003 5.38998109e-004
      1.06214331e-002 4.43880796e-004 9.82878846e-004 5.38998109e-004
      1.80405825e-002 6.65821193e-004 3.27203535e-002 1.32530117e-002
      7.86303077e-003 1.20481930e-003 8.87761591e-004 1.20481930e-003
      9.19467362e-004 1.58528856e-004 3.80469253e-004 9.19467362e-004
      1.07799622e-003 1.26823084e-004 0. 1.26823084e-004 9.19467362e-004
      1.58528856e-004 1.29993656e-003 1.80722889e-003 1.30944829e-002
      7.92644278e-004 9.19467362e-004 4.12175024e-004 1.10970193e-003
      9.51173133e-005 8.56055820e-004 5.70703880e-004 2.08941028e-002
      8.24350049e-004 8.56055820e-004 4.75586567e-004 2.54597329e-002
      5.07292338e-004 1.37603041e-002 5.10462886e-003 7.89473671e-003
      1.26823084e-003 7.60938507e-004 8.24350049e-004 5.07292338e-004
      6.34115422e-005 4.43880796e-004 6.65821193e-004 6.34115422e-004
      9.51173133e-005 6.34115422e-005 9.51173133e-005 5.70703880e-004
      3.17057711e-005 5.38998109e-004 9.51173133e-004 1.23652501e-003
      1.26823084e-004 1.26823084e-004 3.17057711e-005 3.17057711e-005 0.
      3.17057711e-005 0. 1.10970193e-003 6.34115422e-005 0.
      3.17057711e-005 5.07292338e-004 9.51173133e-005 5.70703880e-004
      3.80469253e-004 1.16677238e-002 1.80722889e-003 7.92644278e-004
      6.97526964e-004 5.70703880e-004 1.58528856e-004 6.97526964e-004
      5.38998109e-004 1.10970193e-003 1.90234627e-004 3.17057711e-005
      1.58528856e-004 8.56055820e-004 1.90234627e-004 7.92644278e-004
      9.19467362e-004 2.33354475e-002 6.34115422e-004 1.45846547e-003
      6.97526964e-004 7.60938507e-004 6.34115422e-005 6.02409651e-004
      3.48763482e-004 3.10082436e-002 7.92644278e-004 1.20481930e-003
      5.70703880e-004 1.18262526e-002 3.48763482e-004 5.89727331e-003
      2.98034237e-003 8.11667740e-003 1.45846540e-002 1.29993656e-003
      2.59987321e-002 7.92644278e-004 1.39505393e-003 1.10970193e-003
      2.80913133e-002 8.56055820e-004 9.51173133e-004 3.17057711e-005
      1.01458468e-003 6.02409651e-004 7.92644278e-004 1.14140776e-003
      1.35700693e-002 1.14140776e-003 4.43880796e-004 2.21940398e-004
      4.12175024e-004 1.58528856e-004 3.17057711e-005 6.34115422e-005
      6.34115422e-004 9.51173133e-004 7.60938507e-004 0. 5.38998109e-004
      6.34115422e-004 7.29232735e-004 2.06087506e-003 5.99239068e-003
      1.04629039e-003 8.87761591e-004 3.17057711e-005 9.82878846e-004
      6.34115422e-005 9.51173133e-005 9.51173133e-005 1.33164239e-003
      2.21940398e-004 6.34115422e-005 3.17057711e-005 9.51173133e-005
      6.34115422e-005 3.17057711e-005 1.58528856e-004 1.14140776e-003
      1.45846547e-003 5.38998109e-004 2.21940398e-004 5.70703880e-004
      2.21940398e-004 6.34115422e-005 6.34115422e-005 6.97526964e-004
      1.49017118e-003 9.82878846e-004 1.26823084e-004 5.70703880e-004
      1.49017118e-003 5.38998109e-004 9.19467362e-004 3.74128087e-003
      1.21750161e-002 2.66962592e-002 1.52187701e-003 3.80469263e-002
      7.92644278e-004 8.87761591e-004 9.51173133e-004 1.38237160e-002
      4.43880796e-004 9.51173133e-004 6.34115422e-005 1.17311347e-003
      7.29232735e-004 5.38998109e-004 9.19467362e-004 6.34115422e-003
      1.74381735e-003 9.82878846e-004 1.26823084e-004 6.34115422e-004
      1.26823084e-004 3.17057711e-005 6.34115422e-005 6.34115422e-004
      6.65821193e-004 5.38998109e-004 9.51173133e-005 5.38998109e-004
      8.24350049e-004 5.07292338e-004 1.10970193e-003 3.23398854e-003
      2.03233995e-002 3.78566906e-002 8.56055820e-004 1.82625242e-002
      7.92644278e-004 7.29232735e-004 4.75586567e-004 7.76791386e-003
      1.74381735e-003 1.96575769e-003 1.90234627e-004 1.33164239e-003
      1.01458468e-003 1.04629039e-003 1.20481930e-003 8.11667740e-003
      3.73176932e-002 1.21433102e-002 1.90234627e-003 7.07038678e-003
      8.24350049e-004 2.85351940e-004 1.29993656e-003 2.75840214e-003
      1.62650608e-002 6.78503467e-003 1.33164239e-003 4.59733652e-003
      7.32403295e-003 3.10716545e-003 7.38744438e-003 1.81039944e-002</_>
    <_>
      5.66899180e-002 1.11604314e-002 7.41915032e-003 1.45212431e-002
      7.86303077e-003 1.07799622e-003 1.10019026e-002 1.88015215e-002
      7.00697536e-003 9.51173133e-004 9.51173133e-004 6.34115422e-004
      1.04311984e-002 1.26823084e-003 2.28281543e-002 3.36715281e-002
      1.15409000e-002 7.29232735e-004 8.56055820e-004 9.19467362e-004
      1.01458468e-003 3.17057711e-005 9.51173133e-004 5.70703880e-004
      1.24603678e-002 4.43880796e-004 6.02409651e-004 5.70703880e-004
      1.88649334e-002 6.65821193e-004 2.91376039e-002 1.11921374e-002
      7.64109055e-003 1.14140776e-003 1.01458468e-003 8.87761591e-004
      6.34115422e-004 1.90234627e-004 8.87761591e-004 1.14140776e-003
      1.14140776e-003 1.58528856e-004 9.51173133e-005 1.58528856e-004
      9.19467362e-004 2.21940398e-004 1.10970193e-003 1.64870010e-003
      1.43310083e-002 5.70703880e-004 1.10970193e-003 6.02409651e-004
      1.07799622e-003 6.34115422e-005 1.10970193e-003 3.17057711e-004
      2.74571981e-002 6.65821193e-004 1.36334810e-003 6.97526964e-004
      2.92961318e-002 3.48763482e-004 1.58845913e-002 4.94610006e-003
      8.40202905e-003 9.19467362e-004 4.75586567e-004 1.23652501e-003
      3.80469253e-004 6.34115422e-005 2.21940398e-004 7.60938507e-004
      9.19467362e-004 1.58528856e-004 3.17057711e-005 6.34115422e-005
      6.34115422e-004 0. 4.75586567e-004 2.85351940e-004 1.17311347e-003
      0. 3.17057711e-005 9.51173133e-005 0. 0. 9.51173133e-005
      6.34115422e-005 1.23652501e-003 6.34115422e-005 1.26823084e-004
      6.34115422e-005 7.60938507e-004 3.17057711e-005 5.38998109e-004
      2.85351940e-004 1.09067848e-002 1.23652501e-003 1.01458468e-003
      9.51173133e-004 7.29232735e-004 3.17057711e-005 3.80469253e-004
      6.97526964e-004 1.26823084e-003 6.34115422e-005 9.51173133e-005
      1.26823084e-004 1.04629039e-003 1.26823084e-004 1.10970193e-003
      7.29232735e-004 2.25745086e-002 7.29232735e-004 1.17311347e-003
      2.53646169e-004 3.48763482e-004 6.34115422e-005 5.70703880e-004
      4.12175024e-004 4.26442623e-002 6.34115422e-004 1.45846547e-003
      5.38998109e-004 1.27140144e-002 3.17057711e-004 6.91185798e-003
      2.75840214e-003 7.95814861e-003 1.25871906e-002 1.26823084e-003
      2.64109075e-002 7.29232735e-004 1.20481930e-003 9.19467362e-004
      2.74254922e-002 7.29232735e-004 9.19467362e-004 6.34115422e-005
      9.82878846e-004 1.07799622e-003 1.10970193e-003 1.33164239e-003
      1.50285354e-002 1.10970193e-003 4.75586567e-004 1.26823084e-004
      5.70703880e-004 1.58528856e-004 3.17057711e-005 6.34115422e-005
      4.75586567e-004 8.24350049e-004 4.43880796e-004 1.26823084e-004
      7.92644278e-004 9.51173133e-004 3.80469253e-004 1.83893472e-003
      5.13633480e-003 8.24350049e-004 8.87761591e-004 1.26823084e-004
      1.01458468e-003 0. 3.17057711e-005 1.90234627e-004 1.23652501e-003
      1.90234627e-004 9.51173133e-005 0. 9.51173133e-005 3.17057711e-005
      9.51173133e-005 1.26823084e-004 1.23652501e-003 6.34115422e-004
      5.38998109e-004 1.26823084e-004 7.92644278e-004 1.26823084e-004 0.
      6.34115422e-005 5.07292338e-004 1.17311347e-003 5.38998109e-004
      6.34115422e-005 7.29232735e-004 1.36334810e-003 7.60938507e-004
      1.14140776e-003 4.09004418e-003 1.02726696e-002 2.26696264e-002
      1.45846547e-003 4.28344943e-002 3.48763482e-004 5.38998109e-004
      8.56055820e-004 1.37285991e-002 7.29232735e-004 9.51173133e-004
      9.51173133e-005 1.45846547e-003 6.34115422e-004 6.65821193e-004
      7.60938507e-004 7.03868084e-003 1.26823084e-003 8.56055820e-004
      1.90234627e-004 6.65821193e-004 6.34115422e-005 3.17057711e-005
      9.51173133e-005 3.48763482e-004 8.56055820e-004 4.75586567e-004
      1.26823084e-004 6.65821193e-004 7.29232735e-004 3.48763482e-004
      1.17311347e-003 3.04375403e-003 2.12745722e-002 3.09448317e-002
      1.26823084e-003 1.46163600e-002 5.07292338e-004 4.43880796e-004
      9.19467362e-004 5.77044999e-003 1.26823084e-003 1.74381735e-003
      1.26823084e-004 1.10970193e-003 1.17311347e-003 1.04629039e-003
      1.83893472e-003 7.83132575e-003 3.16423588e-002 9.44831967e-003
      1.68040581e-003 4.97780601e-003 4.75586567e-004 2.85351940e-004
      8.56055820e-004 1.77552318e-003 1.59797091e-002 4.78757126e-003
      9.19467362e-004 4.69245389e-003 6.75332919e-003 2.37793289e-003
      7.22891558e-003 1.62967667e-002</_>
    <_>
      5.66899180e-002 1.11604314e-002 7.41915032e-003 1.45212431e-002
      7.86303077e-003 1.07799622e-003 1.10019026e-002 1.88015215e-002
      7.00697536e-003 9.51173133e-004 9.51173133e-004 6.34115422e-004
      1.04311984e-002 1.26823084e-003 2.28281543e-002 3.36715281e-002
      1.15409000e-002 7.29232735e-004 8.56055820e-004 9.19467362e-004
      1.01458468e-003 3.17057711e-005 9.51173133e-004 5.70703880e-004
      1.24603678e-002 4.43880796e-004 6.02409651e-004 5.70703880e-004
      1.88649334e-002 6.65821193e-004 2.91376039e-002 1.11921374e-002
      7.64109055e-003 1.14140776e-003 1.01458468e-003 8.87761591e-004
      6.34115422e-004 1.90234627e-004 8.87761591e-004 1.14140776e-003
      1.14140776e-003 1.58528856e-004 9.51173133e-005 1.58528856e-004
      9.19467362e-004 2.21940398e-004 1.10970193e-003 1.64870010e-003
      1.43310083e-002 5.70703880e-004 1.10970193e-003 6.02409651e-004
      1.07799622e-003 6.34115422e-005 1.10970193e-003 3.17057711e-004
      2.74571981e-002 6.65821193e-004 1.36334810e-003 6.97526964e-004
      2.92961318e-002 3.48763482e-004 1.58845913e-002 4.94610006e-003
      8.40202905e-003 9.19467362e-004 4.75586567e-004 1.23652501e-003
      3.80469253e-004 6.34115422e-005 2.21940398e-004 7.60938507e-004
      9.19467362e-004 1.58528856e-004 3.17057711e-005 6.34115422e-005
      6.34115422e-004 0. 4.75586567e-004 2.85351940e-004 1.17311347e-003
      0. 3.17057711e-005 9.51173133e-005 0. 0. 9.51173133e-005
      6.34115422e-005 1.23652501e-003 6.34115422e-005 1.26823084e-004
      6.34115422e-005 7.60938507e-004 3.17057711e-005 5.38998109e-004
      2.85351940e-004 1.09067848e-002 1.23652501e-003 1.01458468e-003
      9.51173133e-004 7.29232735e-004 3.17057711e-005 3.80469253e-004
      6.97526964e-004 1.26823084e-003 6.34115422e-005 9.51173133e-005
      1.26823084e-004 1.04629039e-003 1.26823084e-004 1.10970193e-003
      7.29232735e-004 2.25745086e-002 7.29232735e-004 1.17311347e-003
      2.53646169e-004 3.48763482e-004 6.34115422e-005 5.70703880e-004
      4.12175024e-004 4.26442623e-002 6.34115422e-004 1.45846547e-003
      5.38998109e-004 1.27140144e-002 3.17057711e-004 6.91185798e-003
      2.75840214e-003 7.95814861e-003 1.25871906e-002 1.26823084e-003
      2.64109075e-002 7.29232735e-004 1.20481930e-003 9.19467362e-004
