<?xml version="1.0"?>
<opencv_storage>
<opencv_ml_svm>
  <format>3</format>
  <svmType>C_SVC</svmType>
  <kernel>
    <type>RBF</type>
    <gamma>5.0625000000000009e-001</gamma></kernel>
  <C>3.1250000000000000e+002</C>
  <term_criteria><epsilon>1.1920928955078125e-007</epsilon>
    <iterations>1000</iterations></term_criteria>
  <var_count>256</var_count>
  <class_count>2</class_count>
  <class_labels type_id="opencv-matrix">
    <rows>2</rows>
    <cols>1</cols>
    <dt>i</dt>
    <data>
      -1082130432 1065353216</data></class_labels>
  <sv_total>45</sv_total>
  <support_vectors>
    <_>
      4.84147109e-002 9.76537727e-003 5.83386188e-003 1.10970195e-002
      6.15091948e-003 6.97526964e-004 9.60684847e-003 1.81674063e-002
      6.37285970e-003 7.29232735e-004 6.97526964e-004 8.24350049e-004
      9.51173156e-003 1.36334810e-003 2.15916298e-002 3.63982245e-002
      1.05263162e-002 6.65821193e-004 5.07292338e-004 6.02409651e-004
      6.02409651e-004 0. 1.26823084e-003 3.48763482e-004 1.18579585e-002
      3.17057711e-004 5.07292338e-004 4.12175024e-004 2.03233995e-002
      5.70703880e-004 3.86176296e-002 9.54343658e-003 7.35573890e-003
      1.01458468e-003 6.34115422e-004 8.24350049e-004 6.34115422e-004
      3.17057711e-005 7.92644278e-004 9.51173133e-004 8.87761591e-004
      1.58528856e-004 3.17057711e-005 0. 1.14140776e-003 1.26823084e-004
      9.82878846e-004 1.68040581e-003 1.40139507e-002 6.02409651e-004
      7.60938507e-004 6.02409651e-004 9.19467362e-004 6.34115422e-005
      5.70703880e-004 3.80469253e-004 2.92010140e-002 5.38998109e-004
      8.87761591e-004 4.75586567e-004 2.97083072e-002 5.38998109e-004
      1.42675964e-002 4.40710224e-003 7.92644266e-003 6.34115422e-004
      6.34115422e-004 8.56055820e-004 2.21940398e-004 9.51173133e-005
      5.70703880e-004 4.12175024e-004 7.60938507e-004 9.51173133e-005
      6.34115422e-005 6.34115422e-005 6.65821193e-004 0. 4.43880796e-004
      4.12175024e-004 1.04629039e-003 0. 9.51173133e-005 6.34115422e-005
      6.34115422e-005 3.17057711e-005 3.17057711e-005 0. 8.24350049e-004
      6.34115422e-005 3.17057711e-005 3.17057711e-005 2.85351940e-004
      3.17057711e-005 4.43880796e-004 2.21940398e-004 1.22701330e-002
      6.65821193e-004 7.29232735e-004 6.02409651e-004 3.48763482e-004
      3.17057711e-005 2.85351940e-004 6.97526964e-004 1.07799622e-003
      1.58528856e-004 6.34115422e-005 6.34115422e-005 5.38998109e-004
      1.58528856e-004 7.60938507e-004 5.70703880e-004 2.93912496e-002
      5.38998109e-004 8.56055820e-004 6.97526964e-004 3.80469253e-004
      3.17057711e-005 6.34115422e-004 3.17057711e-004 4.53709587e-002
      4.75586567e-004 1.07799622e-003 5.07292338e-004 1.34115405e-002
      2.53646169e-004 5.99239068e-003 2.37793289e-003 8.14838335e-003
      1.54724158e-002 6.97526964e-004 2.51426753e-002 6.97526964e-004
      1.29993656e-003 1.04629039e-003 2.89473683e-002 6.34115422e-004
      1.04629039e-003 6.34115422e-005 9.19467362e-004 9.82878846e-004
      7.29232735e-004 9.82878846e-004 1.26506025e-002 9.51173133e-004
      7.29232735e-004 1.58528856e-004 3.17057711e-004 9.51173133e-005 0.
      9.51173133e-005 3.80469253e-004 8.24350049e-004 4.12175024e-004
      3.17057711e-005 6.65821193e-004 8.87761591e-004 2.21940398e-004
      1.74381735e-003 4.81927721e-003 1.01458468e-003 9.51173133e-004 0.
      8.24350049e-004 6.34115422e-005 3.17057711e-005 1.26823084e-004
      1.17311347e-003 1.90234627e-004 1.26823084e-004 0. 1.26823084e-004
      9.51173133e-005 1.58528856e-004 1.90234627e-004 9.19467362e-004
      7.92644278e-004 5.38998109e-004 9.51173133e-005 8.87761591e-004 0.
      3.17057711e-005 0. 6.65821193e-004 8.56055820e-004 5.70703880e-004
      6.34115422e-005 8.56055820e-004 9.82878846e-004 4.12175024e-004
      6.34115422e-004 3.74128087e-003 1.31896008e-002 2.94863656e-002
      7.60938507e-004 4.04882692e-002 6.34115422e-004 4.12175024e-004
      7.60938507e-004 1.16360178e-002 8.24350049e-004 8.87761591e-004
      6.34115422e-005 9.51173133e-004 6.97526964e-004 3.48763482e-004
      5.70703880e-004 5.77044999e-003 1.26823084e-003 5.07292338e-004
      3.17057711e-004 4.12175024e-004 3.17057711e-005 0. 3.17057711e-005
      5.07292338e-004 4.75586567e-004 3.80469253e-004 6.34115422e-005
      5.07292338e-004 6.02409651e-004 1.90234627e-004 7.92644278e-004
      1.71211164e-003 2.26062145e-002 4.09321487e-002 1.04629039e-003
      1.93088148e-002 6.97526964e-004 4.12175024e-004 1.10970193e-003
      7.00697536e-003 1.17311347e-003 1.52187701e-003 1.58528856e-004
      1.10970193e-003 6.97526964e-004 9.19467362e-004 1.45846547e-003
      6.65821182e-003 3.62396948e-002 1.03994925e-002 1.68040581e-003
      4.91439458e-003 2.21940398e-004 1.58528856e-004 1.04629039e-003
      1.90234627e-003 1.83576420e-002 4.31198487e-003 1.10970193e-003
      4.53392509e-003 6.30944828e-003 2.18769815e-003 6.27774233e-003
      1.17945466e-002</_>
    <_>
      5.16169928e-002 8.65567569e-003 6.02409616e-003 9.41661373e-003
      5.42168692e-003 8.87761591e-004 7.83132575e-003 1.62333548e-002
      5.73874451e-003 6.97526964e-004 5.70703880e-004 5.38998109e-004
      7.92644266e-003 7.60938507e-004 2.59353202e-002 4.31198478e-002
      9.32149682e-003 7.92644278e-004 5.38998109e-004 4.12175024e-004
      6.65821193e-004 1.26823084e-004 7.92644278e-004 3.80469253e-004
      1.10970195e-002 3.17057711e-004 7.92644278e-004 4.12175024e-004
      1.83576420e-002 3.80469253e-004 3.99492718e-002 1.06214331e-002
      7.70450244e-003 1.01458468e-003 5.38998109e-004 6.97526964e-004
      6.65821193e-004 3.17057711e-005 6.02409651e-004 5.70703880e-004
      7.92644278e-004 0. 6.34115422e-005 3.17057711e-005 7.60938507e-004
      9.51173133e-005 8.24350049e-004 9.19467362e-004 1.41407736e-002
      4.43880796e-004 6.65821193e-004 5.70703880e-004 6.34115422e-004
      3.17057711e-005 7.29232735e-004 3.48763482e-004 2.98351292e-002
      3.80469253e-004 7.60938507e-004 2.85351940e-004 2.99619529e-002
      1.90234627e-004 1.38237160e-002 3.83639825e-003 6.68991776e-003
      6.65821193e-004 4.12175024e-004 9.19467362e-004 1.90234627e-004
      6.34115422e-005 3.80469253e-004 4.43880796e-004 7.29232735e-004
      9.51173133e-005 9.51173133e-005 3.17057711e-005 3.80469253e-004
      3.17057711e-005 4.12175024e-004 3.48763482e-004 8.56055820e-004
      3.17057711e-005 3.17057711e-005 3.17057711e-005 3.17057711e-005 0.
      0. 0. 5.38998109e-004 6.34115422e-005 9.51173133e-005 0.
      4.43880796e-004 3.17057711e-005 3.17057711e-004 1.90234627e-004
      1.14140771e-002 1.20481930e-003 7.29232735e-004 7.29232735e-004
      3.48763482e-004 0. 4.43880796e-004 3.17057711e-004 1.39505393e-003
      9.51173133e-005 3.17057711e-005 0. 5.70703880e-004 0.
      5.07292338e-004 5.07292338e-004 3.17691825e-002 4.12175024e-004
      6.65821193e-004 3.80469253e-004 5.07292338e-004 6.34115422e-005
      4.75586567e-004 1.90234627e-004 4.52124290e-002 5.38998109e-004
      6.34115422e-004 3.80469253e-004 1.34432465e-002 2.21940398e-004
      5.00951195e-003 1.39505393e-003 8.56055785e-003 1.43310083e-002
      8.56055820e-004 2.49524415e-002 7.92644278e-004 8.24350049e-004
      9.82878846e-004 2.98351292e-002 5.38998109e-004 6.34115422e-004
      3.17057711e-005 7.60938507e-004 6.34115422e-004 6.34115422e-004
      8.87761591e-004 1.18896635e-002 1.26823084e-003 5.70703880e-004
      1.26823084e-004 2.21940398e-004 6.34115422e-005 6.34115422e-005
      1.26823084e-004 2.85351940e-004 6.34115422e-004 3.17057711e-004
      6.34115422e-005 5.07292338e-004 5.38998109e-004 3.48763482e-004
      7.92644278e-004 3.23398854e-003 9.19467362e-004 6.65821193e-004
      3.17057711e-005 1.14140776e-003 1.90234627e-004 9.51173133e-005
      3.17057711e-005 7.92644278e-004 9.51173133e-005 1.58528856e-004 0.
      6.34115422e-005 1.26823084e-004 9.51173133e-005 1.58528856e-004
      1.14140776e-003 8.56055820e-004 3.80469253e-004 3.17057711e-005
      6.65821193e-004 6.34115422e-005 3.17057711e-005 6.34115422e-005
      4.43880796e-004 1.04629039e-003 3.80469253e-004 6.34115422e-005
      6.34115422e-004 7.29232735e-004 2.85351940e-004 7.29232735e-004
      2.82181357e-003 1.31578948e-002 3.22447680e-002 8.87761591e-004
      4.05199751e-002 2.85351940e-004 4.75586567e-004 5.07292338e-004
      1.17628407e-002 5.70703880e-004 7.29232735e-004 1.26823084e-004
      6.02409651e-004 3.80469253e-004 4.12175024e-004 7.92644278e-004
      4.91439458e-003 1.33164239e-003 4.75586567e-004 3.17057711e-005
      3.80469253e-004 9.51173133e-005 1.26823084e-004 3.17057711e-005
      1.90234627e-004 7.60938507e-004 5.07292338e-004 6.34115422e-005
      4.43880796e-004 5.38998109e-004 1.90234627e-004 4.43880796e-004
      1.39505393e-003 2.61572599e-002 5.00317067e-002 1.20481930e-003
      1.82308182e-002 4.43880796e-004 4.12175024e-004 9.51173133e-004
      5.99239068e-003 1.17311347e-003 1.01458468e-003 1.90234627e-004
      6.65821193e-004 6.02409651e-004 4.75586567e-004 1.52187701e-003
      5.54850977e-003 4.47368436e-002 1.22384271e-002 8.87761591e-004
      5.13633480e-003 4.43880796e-004 1.26823084e-004 6.02409651e-004
      1.68040581e-003 1.87698156e-002 4.50221961e-003 6.02409651e-004
      3.74128087e-003 5.96068474e-003 2.12428672e-003 5.45339240e-003
      9.32149682e-003</_>
    <_>
      8.52568150e-002 9.19467304e-003 8.05326551e-003 1.00824349e-002
      4.94610006e-003 4.43880796e-004 8.65567569e-003 1.67406462e-002
      8.43373500e-003 5.38998109e-004 5.70703880e-004 5.07292338e-004
      8.94102734e-003 6.34115422e-004 2.57450864e-002 3.53202298e-002
      9.41661373e-003 2.85351940e-004 5.70703880e-004 2.85351940e-004
      6.34115422e-004 3.17057711e-005 7.60938507e-004 3.48763482e-004
      1.00507289e-002 3.17057711e-004 5.07292338e-004 9.51173133e-005
      1.83576420e-002 2.21940398e-004 3.87761556e-002 9.82878916e-003
      9.98731796e-003 7.60938507e-004 3.80469253e-004 6.34115422e-004
      3.48763482e-004 6.34115422e-005 4.43880796e-004 3.80469253e-004
      1.17311347e-003 1.26823084e-004 3.17057711e-005 6.34115422e-005
      8.24350049e-004 6.34115422e-005 7.60938507e-004 8.56055820e-004
      1.62016489e-002 3.80469253e-004 5.07292338e-004 3.80469253e-004
      7.92644278e-004 3.17057711e-005 4.43880796e-004 2.53646169e-004
      2.88839564e-002 2.21940398e-004 7.29232735e-004 3.48763482e-004
      3.22447680e-002 3.17057711e-004 1.21750161e-002 2.75840214e-003
      5.92897926e-003 8.24350049e-004 5.07292338e-004 8.87761591e-004
      2.85351940e-004 0. 2.53646169e-004 2.21940398e-004 5.70703880e-004
      3.17057711e-005 6.34115422e-005 3.17057711e-005 2.21940398e-004
      3.17057711e-005 3.48763482e-004 1.26823084e-004 3.17057711e-004
      3.17057711e-005 9.51173133e-005 3.17057711e-005 3.17057711e-005 0.
      0. 0. 5.38998109e-004 0. 3.17057711e-005 0. 1.58528856e-004 0.
      2.21940398e-004 6.34115422e-005 1.30944829e-002 1.26823084e-003
      2.85351940e-004 4.43880796e-004 4.75586567e-004 0. 3.80469253e-004
      2.21940398e-004 8.56055820e-004 3.17057711e-005 3.17057711e-005
      3.17057711e-005 7.92644278e-004 1.58528856e-004 5.38998109e-004
      3.17057711e-004 3.21813561e-002 3.48763482e-004 4.75586567e-004
      1.90234627e-004 3.80469253e-004 0. 2.21940398e-004 1.26823084e-004
      4.09321487e-002 3.17057711e-004 5.70703880e-004 1.90234627e-004
      1.02092577e-002 6.34115422e-005 3.20228282e-003 9.51173133e-004
      9.79708321e-003 1.50919463e-002 1.01458468e-003 2.48256177e-002
      4.12175024e-004 5.38998109e-004 9.19467362e-004 2.91058980e-002
      7.60938507e-004 5.07292338e-004 6.34115422e-005 6.65821193e-004
      4.12175024e-004 3.17057711e-004 8.56055820e-004 1.18262526e-002
      5.38998109e-004 2.21940398e-004 1.26823084e-004 2.85351940e-004 0.
      0. 9.51173133e-005 2.53646169e-004 6.02409651e-004 3.17057711e-004
      3.17057711e-005 1.90234627e-004 5.70703880e-004 2.21940398e-004
      6.97526964e-004 3.01204808e-003 9.51173133e-004 8.56055820e-004
      1.26823084e-004 9.51173133e-004 6.34115422e-005 6.34115422e-005
      6.34115422e-005 6.34115422e-004 1.26823084e-004 0. 0.
      3.17057711e-005 6.34115422e-005 6.34115422e-005 6.34115422e-005
      5.38998109e-004 7.29232735e-004 3.48763482e-004 6.34115422e-005
      3.48763482e-004 6.34115422e-005 3.17057711e-005 3.17057711e-005
      2.53646169e-004 6.97526964e-004 6.02409651e-004 3.17057711e-005
      8.24350049e-004 9.82878846e-004 4.43880796e-004 6.65821193e-004
      2.21940386e-003 1.32847177e-002 3.07863038e-002 7.92644278e-004
      3.44641730e-002 2.53646169e-004 4.12175024e-004 4.75586567e-004
      9.67026036e-003 4.12175024e-004 5.70703880e-004 6.34115422e-005
      6.34115422e-004 4.43880796e-004 2.21940398e-004 5.38998109e-004
      4.40710224e-003 7.29232735e-004 5.70703880e-004 9.51173133e-005
      2.53646169e-004 0. 0. 6.34115422e-005 6.34115422e-005
      4.12175024e-004 1.58528856e-004 1.58528856e-004 1.90234627e-004
      1.58528856e-004 1.26823084e-004 5.07292338e-004 1.01458468e-003
      3.32593545e-002 5.11731133e-002 9.19467362e-004 1.81357004e-002
      4.12175024e-004 3.48763482e-004 7.60938507e-004 4.78757126e-003
      1.33164239e-003 8.56055820e-004 9.51173133e-005 6.65821193e-004
      6.65821193e-004 5.70703880e-004 1.49017118e-003 4.50221961e-003
      4.69245389e-002 1.18896635e-002 1.10970193e-003 4.24857344e-003
      2.21940398e-004 9.51173133e-005 4.12175024e-004 1.23652501e-003
      1.95941664e-002 4.62904247e-003 3.80469253e-004 2.69499049e-003
      5.80215594e-003 1.42675964e-003 4.24857344e-003 6.68991776e-003</_>
    <_>
      4.73050103e-002 9.32149682e-003 6.30944828e-003 1.11921374e-002
      5.67533309e-003 7.29232735e-004 8.71908665e-003 1.88649334e-002
      5.83386188e-003 8.24350049e-004 5.70703880e-004 6.34115422e-004
      1.07165501e-002 1.07799622e-003 2.53646169e-002 4.11857963e-002
      9.70196538e-003 6.65821193e-004 9.19467362e-004 6.97526964e-004
      1.04629039e-003 6.34115422e-005 1.04629039e-003 4.75586567e-004
      1.17311347e-002 6.65821193e-004 6.34115422e-004 3.48763482e-004
      2.22257450e-002 4.75586567e-004 4.07736190e-002 1.21433102e-002
      6.43627159e-003 1.04629039e-003 5.07292338e-004 7.92644278e-004
      7.92644278e-004 0. 6.65821193e-004 9.82878846e-004 8.87761591e-004
      9.51173133e-005 0. 3.17057711e-005 9.82878846e-004 1.26823084e-004
      1.01458468e-003 1.58528856e-003 1.38554219e-002 6.34115422e-004
      7.60938507e-004 6.97526964e-004 1.07799622e-003 0. 6.97526964e-004
      3.48763482e-004 2.90741920e-002 4.75586567e-004 7.29232735e-004
      5.38998109e-004 3.14521231e-002 3.48763482e-004 1.53772989e-002
      5.13633480e-003 7.83132575e-003 7.60938507e-004 9.51173133e-004
      9.51173133e-004 4.12175024e-004 6.34115422e-005 3.17057711e-004
      7.29232735e-004 5.38998109e-004 3.17057711e-005 9.51173133e-005
      9.51173133e-005 5.38998109e-004 0. 6.34115422e-004 2.53646169e-004
      8.24350049e-004 6.34115422e-005 6.34115422e-005 3.17057711e-005 0.
      0. 3.17057711e-005 0. 6.34115422e-004 6.34115422e-005
      9.51173133e-005 0. 4.12175024e-004 0. 2.53646169e-004
      1.26823084e-004 1.07482560e-002 9.82878846e-004 9.51173133e-004
      9.51173133e-004 4.75586567e-004 3.17057711e-005 6.34115422e-004
      4.12175024e-004 7.60938507e-004 9.51173133e-005 9.51173133e-005 0.
      7.29232735e-004 3.17057711e-005 6.02409651e-004 9.19467362e-004
      2.81230193e-002 4.12175024e-004 6.97526964e-004 2.85351940e-004
      4.75586567e-004 0. 5.70703880e-004 3.48763482e-004 4.53075469e-002
      5.07292338e-004 9.51173133e-004 3.80469253e-004 1.34749524e-002
      9.51173133e-005 6.91185798e-003 2.25110981e-003 6.88015204e-003
      1.39822448e-002 1.14140776e-003 2.61889659e-002 6.65821193e-004
      1.04629039e-003 7.92644278e-004 2.93595437e-002 6.02409651e-004
      8.24350049e-004 3.17057711e-005 6.02409651e-004 5.38998109e-004
      5.38998109e-004 9.19467362e-004 1.42041855e-002 8.56055820e-004
      6.02409651e-004 1.90234627e-004 8.56055820e-004 3.17057711e-005
      3.17057711e-005 1.26823084e-004 2.53646169e-004 6.34115422e-004
      4.12175024e-004 6.34115422e-005 5.07292338e-004 9.19467362e-004
      2.85351940e-004 1.29993656e-003 5.35827503e-003 7.92644278e-004
      5.38998109e-004 3.17057711e-005 9.19467362e-004 3.17057711e-005
      6.34115422e-005 0. 1.17311347e-003 6.34115422e-005 6.34115422e-005
      0. 1.58528856e-004 0. 1.26823084e-004 6.34115422e-005
      9.82878846e-004 8.87761591e-004 6.02409651e-004 6.34115422e-005
      6.97526964e-004 3.17057711e-005 6.34115422e-005 1.90234627e-004
      3.48763482e-004 1.20481930e-003 4.75586567e-004 0. 6.34115422e-004
      1.20481930e-003 4.43880796e-004 7.92644278e-004 3.99492728e-003
      1.23335449e-002 2.53329109e-002 1.07799622e-003 4.19784412e-002
      5.70703880e-004 6.97526964e-004 8.24350049e-004 1.24286618e-002
      1.04629039e-003 1.23652501e-003 1.26823084e-004 9.82878846e-004
      5.07292338e-004 5.07292338e-004 6.34115422e-004 6.34115422e-003
      8.87761591e-004 5.70703880e-004 6.34115422e-005 3.80469253e-004
      3.17057711e-005 3.17057711e-005 9.51173133e-005 1.58528856e-004
      5.70703880e-004 4.43880796e-004 3.17057711e-005 3.48763482e-004
      5.38998109e-004 1.90234627e-004 7.29232735e-004 2.28281552e-003
      1.97844002e-002 3.42422314e-002 9.82878846e-004 1.95624605e-002
      6.34115422e-004 3.48763482e-004 5.70703880e-004 6.62650587e-003
      1.14140776e-003 9.51173133e-004 9.51173133e-005 1.36334810e-003
      8.87761591e-004 5.70703880e-004 1.61699427e-003 6.24603685e-003
      3.38300578e-002 9.22637898e-003 1.58528856e-003 6.30944828e-003
      4.12175024e-004 9.51173133e-005 6.65821193e-004 2.63157906e-003
      1.96892843e-002 5.70703857e-003 1.01458468e-003 4.05833870e-003
      6.53138850e-003 1.99746364e-003 6.56309444e-003 1.15726059e-002</_>
    <_>
      5.04755862e-002 9.60684847e-003 6.78503467e-003 1.21116042e-002
      7.86303077e-003 7.60938507e-004 1.03994925e-002 1.92771088e-002
      7.07038678e-003 1.14140776e-003 6.02409651e-004 4.75586567e-004
      1.17628407e-002 1.42675964e-003 3.17057706e-002 4.74001281e-002
      9.25808493e-003 4.12175024e-004 9.82878846e-004 4.43880796e-004
      8.87761591e-004 3.17057711e-005 8.56055820e-004 5.70703880e-004
      1.23969559e-002 6.02409651e-004 9.19467362e-004 3.48763482e-004
      2.17501577e-002 6.34115422e-004 4.70830686e-002 1.55992387e-002
      6.75332919e-003 9.19467362e-004 5.70703880e-004 6.97526964e-004
      5.70703880e-004 3.17057711e-005 9.51173133e-004 1.10970193e-003
      1.14140776e-003 1.58528856e-004 9.51173133e-005 1.90234627e-004
      8.87761591e-004 1.90234627e-004 1.01458468e-003 1.23652501e-003
      1.27140144e-002 5.07292338e-004 9.82878846e-004 6.34115422e-004
      6.34115422e-004 3.17057711e-005 6.65821193e-004 3.48763482e-004
      2.85034869e-002 5.07292338e-004 9.51173133e-004 5.38998109e-004
      2.88839564e-002 2.53646169e-004 1.68674700e-002 5.80215594e-003
      7.26062153e-003 7.92644278e-004 6.02409651e-004 6.65821193e-004
      3.17057711e-004 6.34115422e-005 5.38998109e-004 4.12175024e-004
      6.34115422e-004 3.17057711e-005 1.26823084e-004 0. 5.38998109e-004
      6.34115422e-005 2.85351940e-004 3.17057711e-004 8.87761591e-004
      3.17057711e-005 0. 0. 0. 3.17057711e-005 6.34115422e-005
      9.51173133e-005 1.23652501e-003 3.17057711e-005 1.58528856e-004
      6.34115422e-005 4.12175024e-004 3.17057711e-005 3.48763482e-004
      3.80469253e-004 1.08750788e-002 1.36334810e-003 8.24350049e-004
      7.60938507e-004 2.85351940e-004 3.17057711e-005 4.75586567e-004
      5.38998109e-004 9.51173133e-004 1.26823084e-004 9.51173133e-005
      6.34115422e-005 5.70703880e-004 1.58528856e-004 7.29232735e-004
      6.65821193e-004 2.50475593e-002 3.17057711e-004 1.04629039e-003
      4.75586567e-004 3.48763482e-004 0. 6.02409651e-004 1.90234627e-004
      4.29930240e-002 3.17057711e-004 6.34115422e-004 3.48763482e-004
      1.25554847e-002 2.53646169e-004 6.62650587e-003 1.93405198e-003
      7.16550415e-003 1.28091313e-002 1.14140776e-003 2.36842111e-002
      5.38998109e-004 1.10970193e-003 9.19467362e-004 2.88522504e-002
      8.87761591e-004 7.29232735e-004 6.34115422e-005 7.92644278e-004
      6.97526964e-004 4.75586567e-004 8.56055820e-004 1.51870642e-002
      7.60938507e-004 4.12175024e-004 1.58528856e-004 4.12175024e-004 0.
      0. 1.26823084e-004 3.80469253e-004 8.56055820e-004 1.58528856e-004
      6.34115422e-005 6.65821193e-004 6.97526964e-004 5.07292338e-004
      1.14140776e-003 4.81927721e-003 4.75586567e-004 7.92644278e-004
      3.17057711e-005 6.97526964e-004 6.34115422e-005 3.17057711e-005
      6.34115422e-005 1.10970193e-003 3.17057711e-005 6.34115422e-005
      3.17057711e-005 6.34115422e-005 6.34115422e-005 9.51173133e-005
      9.51173133e-005 8.56055820e-004 6.97526964e-004 3.17057711e-004
      9.51173133e-005 8.56055820e-004 6.34115422e-005 0. 6.34115422e-005
      2.85351940e-004 8.87761591e-004 7.92644278e-004 1.26823084e-004
      7.60938507e-004 8.87761591e-004 4.12175024e-004 6.97526964e-004
      3.89980967e-003 1.10653136e-002 2.27330383e-002 9.19467362e-004
      3.75713371e-002 5.07292338e-004 4.75586567e-004 8.24350049e-004
      1.21433102e-002 6.65821193e-004 7.92644278e-004 1.26823084e-004
      8.56055820e-004 6.34115422e-004 3.80469253e-004 7.60938507e-004
      5.54850977e-003 1.04629039e-003 5.70703880e-004 9.51173133e-005
      1.58528856e-004 0. 0. 1.26823084e-004 3.17057711e-004
      6.65821193e-004 2.53646169e-004 6.34115422e-005 3.48763482e-004
      4.75586567e-004 2.53646169e-004 6.97526964e-004 2.18769815e-003
      2.06721630e-002 3.53836380e-002 9.82878846e-004 1.68040581e-002
      4.12175024e-004 4.43880796e-004 3.48763482e-004 5.92897926e-003
      1.04629039e-003 1.20481930e-003 0. 7.60938507e-004 5.07292338e-004
      6.34115422e-004 1.10970193e-003 6.40456565e-003 3.49397585e-002
      8.97273328e-003 1.17311347e-003 5.10462886e-003 4.12175024e-004
      1.58528856e-004 8.24350049e-004 1.80722889e-003 1.75015852e-002
      4.21686750e-003 1.01458468e-003 3.83639825e-003 5.67533309e-003
      1.71211164e-003 6.34115422e-003 1.23018390e-002</_>
    <_>
      4.94927093e-002 8.56055785e-003 5.54850977e-003 1.08750788e-002
      6.91185798e-003 1.17311347e-003 7.60938507e-003 1.66455302e-002
      5.99239068e-003 6.65821193e-004 5.07292338e-004 5.07292338e-004
      8.27520620e-003 9.82878846e-004 2.50158533e-002 3.76981609e-002
      9.00443923e-003 4.12175024e-004 7.60938507e-004 2.85351940e-004
      5.38998109e-004 6.34115422e-005 6.97526964e-004 4.12175024e-004
      1.11604314e-002 4.43880796e-004 7.60938507e-004 2.53646169e-004
      1.86429936e-002 3.17057711e-004 3.91566269e-002 1.05263162e-002
      7.41915032e-003 8.24350049e-004 5.70703880e-004 8.24350049e-004
      6.02409651e-004 3.17057711e-005 4.75586567e-004 5.38998109e-004
      1.07799622e-003 6.34115422e-005 6.34115422e-005 6.34115422e-005
      1.07799622e-003 1.58528856e-004 6.97526964e-004 1.33164239e-003
      1.38237160e-002 5.70703880e-004 8.56055820e-004 6.97526964e-004
      9.82878846e-004 6.34115422e-005 8.24350049e-004 4.75586567e-004
      3.14521231e-002 5.07292338e-004 9.19467362e-004 6.97526964e-004
      3.26569453e-002 2.85351940e-004 1.35066584e-002 3.99492728e-003
      7.86303077e-003 6.97526964e-004 5.38998109e-004 8.56055820e-004
      5.07292338e-004 3.17057711e-005 4.75586567e-004 3.48763482e-004
      9.51173133e-004 0. 6.34115422e-005 9.51173133e-005 5.07292338e-004
      3.17057711e-005 4.12175024e-004 3.48763482e-004 9.19467362e-004
      3.17057711e-005 1.90234627e-004 0. 0. 0. 6.34115422e-005 0.
      1.07799622e-003 3.17057711e-005 9.51173133e-005 6.34115422e-005
      5.07292338e-004 0. 4.12175024e-004 1.58528856e-004 1.18262526e-002
      7.29232735e-004 6.34115422e-004 8.24350049e-004 3.48763482e-004
      3.17057711e-005 3.48763482e-004 4.12175024e-004 1.04629039e-003
      1.26823084e-004 9.51173133e-005 9.51173133e-005 6.34115422e-004
      3.17057711e-005 5.38998109e-004 4.75586567e-004 2.85034869e-002
      5.07292338e-004 8.87761591e-004 5.07292338e-004 4.12175024e-004
      3.17057711e-005 4.43880796e-004 1.90234627e-004 5.10462895e-002
      5.70703880e-004 1.14140776e-003 5.38998109e-004 1.34432465e-002
      2.85351940e-004 5.32656955e-003 1.93405198e-003 7.92644266e-003
      1.44261252e-002 7.60938507e-004 2.77108438e-002 7.92644278e-004
      1.14140776e-003 7.60938507e-004 3.04375403e-002 5.70703880e-004
      6.97526964e-004 3.17057711e-005 1.04629039e-003 6.34115422e-004
      5.07292338e-004 9.19467362e-004 1.29359541e-002 5.70703880e-004
      4.43880796e-004 2.21940398e-004 5.07292338e-004 6.34115422e-005 0.
      1.26823084e-004 4.43880796e-004 8.24350049e-004 5.07292338e-004
      6.34115422e-005 5.07292338e-004 5.07292338e-004 1.90234627e-004
      1.33164239e-003 3.89980967e-003 4.43880796e-004 8.56055820e-004
      9.51173133e-005 1.36334810e-003 1.58528856e-004 3.17057711e-005
      1.26823084e-004 1.10970193e-003 3.17057711e-005 1.26823084e-004 0.
      3.17057711e-005 3.17057711e-005 0. 1.26823084e-004 8.87761591e-004
      7.92644278e-004 5.38998109e-004 6.34115422e-005 7.92644278e-004
      6.34115422e-005 0. 6.34115422e-005 4.43880796e-004 8.87761591e-004
      5.38998109e-004 6.34115422e-005 1.01458468e-003 1.45846547e-003
      4.12175024e-004 7.29232735e-004 3.96322133e-003 1.31896008e-002
      2.99936589e-002 1.04629039e-003 4.30564359e-002 6.65821193e-004
      5.38998109e-004 5.38998109e-004 1.21750161e-002 8.87761591e-004
      4.43880796e-004 3.17057711e-005 9.19467362e-004 4.75586567e-004
      3.80469253e-004 6.02409651e-004 5.04121743e-003 1.01458468e-003
      5.07292338e-004 1.58528856e-004 4.43880796e-004 3.17057711e-005 0.
      6.34115422e-005 1.58528856e-004 4.12175024e-004 2.85351940e-004 0.
      5.38998109e-004 4.12175024e-004 1.26823084e-004 4.75586567e-004
      1.52187701e-003 2.48890296e-002 4.42295484e-002 1.26823084e-003
      1.85478758e-002 4.75586567e-004 6.02409651e-004 6.34115422e-004
      6.30944828e-003 9.51173133e-004 1.17311347e-003 3.17057711e-005
      6.97526964e-004 1.04629039e-003 4.43880796e-004 1.14140776e-003
      4.85098269e-003 3.57641093e-002 1.02092577e-002 1.04629039e-003
      4.85098269e-003 4.75586567e-004 1.90234627e-004 6.97526964e-004
      2.06087506e-003 1.72479395e-002 5.07292338e-003 1.07799622e-003
      4.85098269e-003 5.92897926e-003 1.42675964e-003 5.64362714e-003
      1.19847814e-002</_>
    <_>
      4.73050103e-002 9.13126208e-003 5.89727331e-003 1.17945466e-002
      5.96068474e-003 9.82878846e-004 9.35320184e-003 1.93405207e-002
      6.27774233e-003 6.34115422e-004 5.07292338e-004 5.38998109e-004
      9.82878916e-003 1.07799622e-003 2.53329109e-002 3.62714007e-002
      9.73367132e-003 6.65821193e-004 7.92644278e-004 3.80469253e-004
      5.70703880e-004 3.17057711e-005 7.60938507e-004 5.38998109e-004
      1.20481923e-002 4.75586567e-004 8.24350049e-004 2.85351940e-004
      1.91819910e-002 1.90234627e-004 3.85225117e-002 1.21116042e-002
      6.37285970e-003 7.60938507e-004 6.34115422e-004 1.14140776e-003
      5.38998109e-004 1.26823084e-004 7.29232735e-004 8.87761591e-004
      8.87761591e-004 3.17057711e-005 6.34115422e-005 0. 9.82878846e-004
      6.34115422e-005 8.24350049e-004 1.26823084e-003 1.45529490e-002
      5.70703880e-004 9.19467362e-004 5.38998109e-004 8.56055820e-004
      6.34115422e-005 6.65821193e-004 4.43880796e-004 2.99619529e-002
      4.75586567e-004 1.04629039e-003 4.75586567e-004 3.19594182e-002
      3.48763482e-004 1.38554219e-002 4.37539630e-003 8.78249854e-003
      7.60938507e-004 8.56055820e-004 9.82878846e-004 2.85351940e-004
      6.34115422e-005 4.43880796e-004 5.07292338e-004 4.75586567e-004
      3.17057711e-005 3.17057711e-005 6.34115422e-005 3.80469253e-004 0.
      3.48763482e-004 3.48763482e-004 9.19467362e-004 3.17057711e-005
      6.34115422e-005 3.17057711e-005 6.34115422e-005 0. 3.17057711e-005
      0. 9.82878846e-004 0. 6.34115422e-005 3.17057711e-005
      3.48763482e-004 0. 3.80469253e-004 2.85351940e-004 1.19530754e-002
      9.19467362e-004 7.29232735e-004 8.87761591e-004 5.38998109e-004 0.
      5.70703880e-004 4.75586567e-004 9.82878846e-004 6.34115422e-005
      3.17057711e-005 3.17057711e-005 7.29232735e-004 6.34115422e-005
      8.24350049e-004 5.70703880e-004 2.61255540e-002 5.07292338e-004
      9.51173133e-004 6.02409651e-004 6.97526964e-004 0. 5.07292338e-004
      2.53646169e-004 5.06024100e-002 3.48763482e-004 1.29993656e-003
      4.43880796e-004 1.28408372e-002 2.85351940e-004 5.10462886e-003
      1.99746364e-003 6.88015204e-003 1.36968931e-002 5.07292338e-004
      2.83132531e-002 7.29232735e-004 7.92644278e-004 9.82878846e-004
      3.30374129e-002 4.75586567e-004 6.65821193e-004 3.17057711e-005
      9.19467362e-004 6.34115422e-004 8.24350049e-004 9.19467362e-004
      1.34749524e-002 7.60938507e-004 6.02409651e-004 1.58528856e-004
      4.12175024e-004 0. 3.17057711e-005 6.34115422e-005 5.07292338e-004
      7.29232735e-004 4.12175024e-004 9.51173133e-005 6.34115422e-004
      6.97526964e-004 5.38998109e-004 1.61699427e-003 4.40710224e-003
      8.24350049e-004 8.87761591e-004 1.26823084e-004 1.45846547e-003
      6.34115422e-005 3.17057711e-005 6.34115422e-005 1.07799622e-003
      3.17057711e-005 1.26823084e-004 0. 1.58528856e-004 6.34115422e-005
      3.17057711e-005 1.26823084e-004 8.56055820e-004 9.51173133e-004
      5.70703880e-004 6.34115422e-005 7.29232735e-004 9.51173133e-005 0.
      6.34115422e-005 4.43880796e-004 9.19467362e-004 6.65821193e-004
      6.34115422e-005 6.34115422e-004 1.23652501e-003 5.07292338e-004
      6.34115422e-004 4.75586578e-003 1.28091313e-002 2.89473683e-002
      9.82878846e-004 4.63538356e-002 5.07292338e-004 7.29232735e-004
      5.70703880e-004 1.33164236e-002 6.02409651e-004 1.23652501e-003
      1.58528856e-004 1.58528856e-003 6.34115422e-004 6.65821193e-004
      9.19467362e-004 6.08750805e-003 1.07799622e-003 4.75586567e-004
      1.90234627e-004 5.07292338e-004 6.34115422e-005 3.17057711e-005
      9.51173133e-005 3.48763482e-004 8.56055820e-004 3.48763482e-004
      6.34115422e-005 2.21940398e-004 6.02409651e-004 2.85351940e-004
      9.19467362e-004 2.02916935e-003 1.97844002e-002 3.48129347e-002
      8.87761591e-004 1.73430573e-002 5.07292338e-004 3.17057711e-004
      1.07799622e-003 6.30944828e-003 1.14140776e-003 1.26823084e-003
      3.17057711e-005 5.70703880e-004 6.97526964e-004 1.07799622e-003
      1.14140776e-003 6.43627159e-003 2.87254285e-002 8.71908665e-003
      1.64870010e-003 6.62650587e-003 3.17057711e-004 2.21940398e-004
      9.19467362e-004 1.80722889e-003 1.73430573e-002 5.51680429e-003
      1.01458468e-003 4.81927721e-003 6.24603685e-003 1.58528856e-003
      6.97526941e-003 1.37603041e-002</_>
    <_>
      4.76854779e-002 8.27520620e-003 6.11921353e-003 1.22067221e-002
      6.53138850e-003 6.34115422e-004 9.00443923e-003 1.86112877e-002
      6.30944828e-003 8.56055820e-004 7.92644278e-004 5.07292338e-004
      9.06785019e-003 9.51173133e-004 2.30818000e-002 3.56372856e-002
      8.24350026e-003 5.07292338e-004 7.60938507e-004 5.38998109e-004
      7.29232735e-004 3.17057711e-005 7.60938507e-004 5.70703880e-004
      1.11287255e-002 3.80469253e-004 5.07292338e-004 6.34115422e-004
      1.89283453e-002 3.17057711e-004 3.88078615e-002 1.10970195e-002
      6.88015204e-003 9.19467362e-004 6.02409651e-004 8.87761591e-004
      7.29232735e-004 9.51173133e-005 7.60938507e-004 8.56055820e-004
      1.14140776e-003 1.58528856e-004 1.58528856e-004 6.34115422e-005
      8.24350049e-004 6.34115422e-005 1.14140776e-003 1.33164239e-003
      1.32530117e-002 6.65821193e-004 6.34115422e-004 6.02409651e-004
      6.97526964e-004 3.17057711e-005 1.01458468e-003 5.70703880e-004
      2.94863656e-002 4.12175024e-004 9.19467362e-004 4.75586567e-004
      3.08497138e-002 1.58528856e-004 1.35066584e-002 3.67786945e-003
      8.71908665e-003 8.24350049e-004 6.02409651e-004 9.51173133e-004
      6.97526964e-004 3.17057711e-005 5.07292338e-004 6.02409651e-004
      1.01458468e-003 6.34115422e-005 6.34115422e-005 0. 2.53646169e-004
      6.34115422e-005 4.12175024e-004 3.17057711e-004 8.56055820e-004
      3.17057711e-005 3.17057711e-005 0. 6.34115422e-005 3.17057711e-005
      0. 6.34115422e-005 9.19467362e-004 3.17057711e-005 3.17057711e-005
      3.17057711e-005 4.43880796e-004 0. 3.17057711e-004 1.26823084e-004
      1.18896635e-002 8.56055820e-004 9.82878846e-004 7.29232735e-004
      4.43880796e-004 9.51173133e-005 6.02409651e-004 5.07292338e-004
      1.20481930e-003 1.26823084e-004 0. 6.34115422e-005 7.60938507e-004
      0. 7.92644278e-004 7.92644278e-004 2.46036779e-002 4.43880796e-004
      9.19467362e-004 3.80469253e-004 4.12175024e-004 0. 6.65821193e-004
      2.53646169e-004 5.02536446e-002 3.80469253e-004 1.36334810e-003
      4.12175024e-004 1.29042482e-002 3.48763482e-004 5.32656955e-003
      2.02916935e-003 8.05326551e-003 1.50919463e-002 9.51173133e-004
      3.06277741e-002 9.82878846e-004 6.65821193e-004 1.04629039e-003
      3.28788832e-002 3.80469253e-004 6.97526964e-004 3.17057711e-005
      8.56055820e-004 5.38998109e-004 6.34115422e-004 8.24350049e-004
      1.35700693e-002 1.04629039e-003 3.17057711e-004 1.26823084e-004
      5.38998109e-004 6.34115422e-005 9.51173133e-005 1.58528856e-004
      4.12175024e-004 1.04629039e-003 6.02409651e-004 1.58528856e-004
      4.43880796e-004 6.02409651e-004 4.43880796e-004 1.39505393e-003
      4.21686750e-003 8.24350049e-004 5.70703880e-004 3.17057711e-005
      1.17311347e-003 6.34115422e-005 3.17057711e-005 0. 1.45846547e-003
      0. 2.21940398e-004 0. 3.17057711e-005 6.34115422e-005
      9.51173133e-005 3.17057711e-005 8.24350049e-004 6.97526964e-004
      6.34115422e-004 0. 6.65821193e-004 9.51173133e-005 9.51173133e-005
      9.51173133e-005 3.17057711e-004 1.10970193e-003 6.65821193e-004
      6.34115422e-005 1.07799622e-003 1.14140776e-003 6.02409651e-004
      7.92644278e-004 4.53392509e-003 1.30310720e-002 3.17374766e-002
      1.17311347e-003 4.74952459e-002 4.12175024e-004 3.48763482e-004
      6.02409651e-004 1.34749524e-002 6.65821193e-004 7.60938507e-004 0.
      1.04629039e-003 6.97526964e-004 7.60938507e-004 5.07292338e-004
      5.70703857e-003 1.07799622e-003 3.17057711e-004 1.58528856e-004
      4.75586567e-004 0. 6.34115422e-005 6.34115422e-005 3.17057711e-004
      4.75586567e-004 4.12175024e-004 6.34115422e-005 5.38998109e-004
      5.38998109e-004 1.58528856e-004 8.24350049e-004 1.87064044e-003
      2.28598602e-002 3.86176296e-002 9.82878846e-004 1.81357004e-002
      4.43880796e-004 6.65821193e-004 4.75586567e-004 6.94356393e-003
      1.04629039e-003 1.17311347e-003 3.17057711e-005 8.87761591e-004
      6.34115422e-004 3.80469253e-004 1.20481930e-003 6.18262542e-003
      2.94546615e-002 9.67026036e-003 1.49017118e-003 5.04121743e-003
      6.02409651e-004 9.51173133e-005 7.29232735e-004 1.99746364e-003
      1.65187065e-002 4.78757126e-003 8.24350049e-004 5.67533309e-003
      5.92897926e-003 2.21940386e-003 5.29486360e-003 1.32847177e-002</_>
    <_>
      4.87634763e-002 8.24350026e-003 6.68991776e-003 1.40773617e-002
      6.08750805e-003 8.24350049e-004 1.14457831e-002 2.41280906e-002
      5.99239068e-003 6.02409651e-004 6.65821193e-004 8.56055820e-004
      9.28979088e-003 1.01458468e-003 2.54597329e-002 4.29613180e-002
      9.03614424e-003 4.75586567e-004 8.56055820e-004 2.53646169e-004
      7.60938507e-004 0. 1.01458468e-003 2.53646169e-004 1.19530754e-002
      4.75586567e-004 5.38998109e-004 4.75586567e-004 1.82625242e-002
      5.70703880e-004 3.96956243e-002 1.29042482e-002 7.07038678e-003
      1.01458468e-003 6.97526964e-004 7.60938507e-004 6.34115422e-004
      3.17057711e-005 5.70703880e-004 6.65821193e-004 1.01458468e-003
      1.26823084e-004 0. 9.51173133e-005 8.24350049e-004 1.58528856e-004
      1.17311347e-003 1.55358273e-003 1.24286618e-002 5.38998109e-004
      6.65821193e-004 5.07292338e-004 5.07292338e-004 9.51173133e-005
      7.29232735e-004 4.75586567e-004 2.32086238e-002 6.97526964e-004
      1.04629039e-003 2.85351940e-004 2.39378568e-002 2.21940398e-004
      1.36968931e-002 4.28027892e-003 7.76791386e-003 1.01458468e-003
      5.70703880e-004 6.65821193e-004 2.85351940e-004 1.26823084e-004
      4.43880796e-004 5.07292338e-004 7.60938507e-004 1.58528856e-004
      6.34115422e-005 3.17057711e-005 4.43880796e-004 3.17057711e-005
      6.34115422e-004 2.53646169e-004 1.04629039e-003 3.17057711e-005
      6.34115422e-005 3.17057711e-005 6.34115422e-005 0. 0. 0.
      6.65821193e-004 0. 3.17057711e-005 0. 4.43880796e-004 0.
      4.12175024e-004 1.90234627e-004 1.18579585e-002 1.04629039e-003
      3.80469253e-004 6.02409651e-004 5.07292338e-004 9.51173133e-005
      5.38998109e-004 6.34115422e-004 8.87761591e-004 0. 6.34115422e-005
      1.26823084e-004 7.60938507e-004 6.34115422e-005 6.02409651e-004
      6.34115422e-004 2.56816745e-002 3.48763482e-004 1.14140776e-003
      5.38998109e-004 6.02409651e-004 0. 4.12175024e-004 2.53646169e-004
      4.31198478e-002 4.75586567e-004 9.82878846e-004 3.48763482e-004
      1.12238424e-002 3.17057711e-004 6.37285970e-003 1.87064044e-003
      7.98985455e-003 1.61382370e-002 1.01458468e-003 3.11667714e-002
      6.65821193e-004 7.29232735e-004 8.24350049e-004 3.45592909e-002
      5.07292338e-004 7.29232735e-004 6.34115422e-005 8.24350049e-004
      6.02409651e-004 7.60938507e-004 9.19467362e-004 1.61382370e-002
      6.65821193e-004 6.97526964e-004 1.26823084e-004 4.43880796e-004
      9.51173133e-005 0. 9.51173133e-005 5.38998109e-004 6.97526964e-004
      4.12175024e-004 2.21940398e-004 6.02409651e-004 8.87761591e-004
      3.80469253e-004 1.74381735e-003 5.96068474e-003 5.38998109e-004
      8.24350049e-004 1.26823084e-004 1.23652501e-003 0. 9.51173133e-005
      9.51173133e-005 1.20481930e-003 6.34115422e-005 9.51173133e-005 0.
      9.51173133e-005 9.51173133e-005 9.51173133e-005 6.34115422e-005
      9.51173133e-004 1.17311347e-003 3.48763482e-004 3.17057711e-005
      4.75586567e-004 0. 0. 3.17057711e-005 4.43880796e-004
      1.01458468e-003 4.43880796e-004 6.34115422e-005 6.34115422e-004
      7.29232735e-004 2.53646169e-004 9.82878846e-004 3.61445779e-003
      1.20481923e-002 2.81864293e-002 1.29993656e-003 4.32149656e-002
      4.12175024e-004 6.65821193e-004 7.29232735e-004 1.34115405e-002
      6.97526964e-004 1.07799622e-003 6.34115422e-005 9.19467362e-004
      6.02409651e-004 6.02409651e-004 5.70703880e-004 6.02409616e-003
      1.42675964e-003 7.92644278e-004 9.51173133e-005 4.43880796e-004
      6.34115422e-005 0. 0. 3.17057711e-004 7.29232735e-004
      3.17057711e-004 6.34115422e-005 3.48763482e-004 6.97526964e-004
      2.53646169e-004 7.29232735e-004 1.90234627e-003 2.10843366e-002
      3.60811651e-002 1.04629039e-003 2.08623968e-002 3.48763482e-004
      5.70703880e-004 8.56055820e-004 7.32403295e-003 1.17311347e-003
      1.42675964e-003 1.26823084e-004 9.19467362e-004 7.92644278e-004
      8.56055820e-004 1.07799622e-003 6.43627159e-003 3.19594182e-002
      9.63855442e-003 1.52187701e-003 5.51680429e-003 1.90234627e-004
      1.26823084e-004 7.92644278e-004 1.71211164e-003 1.64235886e-002
      5.13633480e-003 7.29232735e-004 3.70957516e-003 6.02409616e-003
      1.77552318e-003 6.11921353e-003 1.23335449e-002</_>
    <_>
      5.15852869e-002 8.75079259e-003 5.73874451e-003 9.57514253e-003
      5.99239068e-003 1.07799622e-003 8.46544094e-003 1.80405825e-002
      6.30944828e-003 8.56055820e-004 5.07292338e-004 5.38998109e-004
      7.89473671e-003 6.97526964e-004 2.81547233e-002 4.11223844e-002
      9.13126208e-003 4.12175024e-004 5.70703880e-004 3.80469253e-004
      6.65821193e-004 9.51173133e-005 1.17311347e-003 3.17057711e-004
      9.63855442e-003 2.85351940e-004 7.60938507e-004 1.90234627e-004
      1.80088785e-002 3.48763482e-004 3.95370945e-002 1.22701330e-002
      7.10209273e-003 6.34115422e-004 9.82878846e-004 7.29232735e-004
      4.43880796e-004 1.26823084e-004 4.12175024e-004 6.34115422e-004
      1.04629039e-003 9.51173133e-005 1.58528856e-004 6.34115422e-005
      1.10970193e-003 9.51173133e-005 5.38998109e-004 8.87761591e-004
      1.27774253e-002 4.12175024e-004 8.24350049e-004 5.38998109e-004
      6.97526964e-004 3.17057711e-005 5.07292338e-004 3.80469253e-004
      2.63157897e-002 5.70703880e-004 1.17311347e-003 6.02409651e-004
      2.59987321e-002 3.80469253e-004 1.35066584e-002 3.42422328e-003
      6.91185798e-003 6.97526964e-004 6.34115422e-004 8.24350049e-004
      5.07292338e-004 6.34115422e-005 4.75586567e-004 2.21940398e-004
      6.97526964e-004 6.34115422e-005 3.17057711e-005 0. 3.80469253e-004
      6.34115422e-005 4.12175024e-004 2.21940398e-004 8.87761591e-004
      6.34115422e-005 3.17057711e-005 3.17057711e-005 0. 0. 0. 0.
      1.10970193e-003 0. 9.51173133e-005 3.17057711e-005 3.80469253e-004
      0. 3.17057711e-004 6.34115422e-005 1.17945466e-002 1.01458468e-003
      4.75586567e-004 3.80469253e-004 4.43880796e-004 0. 2.53646169e-004
      4.12175024e-004 9.19467362e-004 6.34115422e-005 1.26823084e-004 0.
      7.92644278e-004 6.34115422e-005 6.34115422e-004 7.29232735e-004
      2.84400769e-002 5.38998109e-004 6.02409651e-004 4.43880796e-004
      4.75586567e-004 0. 4.43880796e-004 1.58528856e-004 4.29613180e-002
      5.07292338e-004 5.70703880e-004 5.07292338e-004 1.21116042e-002
      1.26823084e-004 4.81927721e-003 1.49017118e-003 8.30691215e-003
      1.50919463e-002 1.29993656e-003 2.78059598e-002 6.02409651e-004
      7.92644278e-004 7.92644278e-004 3.10082436e-002 5.70703880e-004
      4.75586567e-004 1.58528856e-004 8.87761591e-004 5.70703880e-004
      6.02409651e-004 6.34115422e-004 1.31578948e-002 6.34115422e-004
      6.97526964e-004 6.34115422e-005 3.48763482e-004 6.34115422e-005
      6.34115422e-005 9.51173133e-005 1.90234627e-004 5.70703880e-004
      3.80469253e-004 3.17057711e-005 6.34115422e-004 6.97526964e-004
      6.34115422e-005 9.51173133e-004 3.48763471e-003 7.92644278e-004
      1.04629039e-003 6.34115422e-005 1.10970193e-003 3.17057711e-005
      6.34115422e-005 3.17057711e-005 1.14140776e-003 6.34115422e-005
      1.58528856e-004 0. 3.17057711e-005 9.51173133e-005 3.17057711e-005
      9.51173133e-005 6.65821193e-004 9.51173133e-004 6.65821193e-004
      9.51173133e-005 6.65821193e-004 6.34115422e-005 3.17057711e-005
      9.51173133e-005 4.75586567e-004 6.34115422e-004 4.75586567e-004
      1.26823084e-004 6.97526964e-004 1.29993656e-003 5.70703880e-004
      8.24350049e-004 2.94863665e-003 1.30944829e-002 3.43373492e-002
      7.92644278e-004 4.57197204e-002 5.38998109e-004 4.12175024e-004
      7.60938507e-004 1.29042482e-002 6.97526964e-004 5.07292338e-004
      1.58528856e-004 6.02409651e-004 4.75586567e-004 4.43880796e-004
      7.29232735e-004 4.91439458e-003 1.01458468e-003 4.75586567e-004
      9.51173133e-005 3.17057711e-004 0. 3.17057711e-005 3.17057711e-005
      1.58528856e-004 6.34115422e-004 4.12175024e-004 3.17057711e-005
      5.07292338e-004 3.48763482e-004 1.90234627e-004 5.70703880e-004
      1.49017118e-003 2.71718446e-002 5.15218787e-002 1.29993656e-003
      2.00697519e-002 4.12175024e-004 4.43880796e-004 4.75586567e-004
      6.65821182e-003 1.14140776e-003 8.87761591e-004 3.17057711e-005
      9.51173133e-004 6.65821193e-004 6.02409651e-004 1.20481930e-003
      4.88268863e-003 4.15979698e-002 1.18262526e-002 9.82878846e-004
      5.38998097e-003 3.80469253e-004 2.53646169e-004 6.02409651e-004
      1.80722889e-003 1.70894098e-002 4.21686750e-003 6.97526964e-004
      3.32910591e-003 5.13633480e-003 2.06087506e-003 5.13633480e-003
      1.00824349e-002</_>
    <_>
      5.36461622e-002 9.22637898e-003 6.30944828e-003 1.15091950e-002
      5.86556736e-003 8.87761591e-004 9.73367132e-003 1.83893461e-002
      6.27774233e-003 6.34115422e-004 6.34115422e-004 5.70703880e-004
      1.07799619e-002 8.56055820e-004 2.45085601e-002 4.08370309e-002
      8.75079259e-003 5.38998109e-004 8.24350049e-004 3.48763482e-004
      8.87761591e-004 3.17057711e-005 1.07799622e-003 3.48763482e-004
      9.89220012e-003 2.53646169e-004 3.80469253e-004 3.48763482e-004
      1.78186428e-002 2.85351940e-004 3.73811051e-002 1.15726059e-002
      7.51426769e-003 7.60938507e-004 7.60938507e-004 8.56055820e-004
      8.56055820e-004 3.17057711e-005 9.19467362e-004 9.19467362e-004
      8.87761591e-004 9.51173133e-005 6.34115422e-005 3.17057711e-005
      1.07799622e-003 6.34115422e-005 9.51173133e-004 8.87761591e-004
      1.28408372e-002 5.07292338e-004 7.29232735e-004 5.70703880e-004
      6.97526964e-004 6.34115422e-005 6.65821193e-004 3.17057711e-004
      2.57450864e-002 4.75586567e-004 7.29232735e-004 2.21940398e-004
      2.73303743e-002 2.53646169e-004 1.24286618e-002 3.17057711e-003
      7.38744438e-003 9.51173133e-004 8.24350049e-004 9.19467362e-004
      2.53646169e-004 3.17057711e-005 3.17057711e-004 4.12175024e-004
      8.24350049e-004 0. 9.51173133e-005 3.17057711e-005 5.07292338e-004
      6.34115422e-005 2.21940398e-004 4.75586567e-004 6.97526964e-004
      3.17057711e-005 6.34115422e-005 3.17057711e-005 0. 0.
      1.26823084e-004 0. 8.24350049e-004 3.17057711e-005 9.51173133e-005
      0. 3.80469253e-004 0. 1.90234627e-004 6.34115422e-005
      1.17628407e-002 7.60938507e-004 5.38998109e-004 9.19467362e-004
      3.80469253e-004 3.17057711e-005 5.38998109e-004 4.43880796e-004
      7.29232735e-004 6.34115422e-005 6.34115422e-005 9.51173133e-005
      5.70703880e-004 6.34115422e-005 6.02409651e-004 6.97526964e-004
      2.48256177e-002 4.12175024e-004 7.29232735e-004 3.80469253e-004
      6.02409651e-004 0. 3.48763482e-004 1.90234627e-004 4.16296758e-002
      5.38998109e-004 7.29232735e-004 3.48763482e-004 1.07799619e-002
      1.58528856e-004 5.04121743e-003 1.49017118e-003 9.06785019e-003
      1.56943556e-002 1.14140776e-003 3.16740647e-002 6.02409651e-004
      9.19467362e-004 6.97526964e-004 3.14204171e-002 6.34115422e-004
      5.70703880e-004 1.26823084e-004 6.34115422e-004 6.34115422e-004
      5.07292338e-004 8.87761591e-004 1.36017753e-002 7.29232735e-004
      4.43880796e-004 1.26823084e-004 5.70703880e-004 6.34115422e-005 0.
      1.26823084e-004 1.90234627e-004 6.34115422e-004 4.12175024e-004
      9.51173133e-005 3.80469253e-004 7.60938507e-004 2.53646169e-004
      9.82878846e-004 3.58275208e-003 7.92644278e-004 8.24350049e-004
      6.34115422e-005 1.20481930e-003 3.17057711e-005 3.17057711e-005
      9.51173133e-005 1.01458468e-003 6.34115422e-005 3.17057711e-005 0.
      0. 3.17057711e-005 9.51173133e-005 9.51173133e-005 8.24350049e-004
      9.51173133e-004 5.38998109e-004 6.34115422e-005 6.34115422e-004 0.
      0. 6.34115422e-005 2.53646169e-004 9.51173133e-004 4.75586567e-004
      9.51173133e-005 7.60938507e-004 1.01458468e-003 4.43880796e-004
      6.34115422e-004 3.36081162e-003 1.43944202e-002 3.72225754e-002
      1.04629039e-003 4.84147109e-002 5.07292338e-004 5.70703880e-004
      6.65821193e-004 1.47748888e-002 7.92644278e-004 5.70703880e-004 0.
      1.10970193e-003 2.85351940e-004 3.48763482e-004 7.92644278e-004
      4.94610006e-003 9.51173133e-004 3.48763482e-004 6.34115422e-005
      5.38998109e-004 3.17057711e-005 3.17057711e-005 9.51173133e-005
      1.26823084e-004 6.34115422e-004 4.75586567e-004 0. 6.02409651e-004
      3.80469253e-004 2.21940398e-004 6.97526964e-004 1.58528856e-003
      2.36842111e-002 4.58782502e-002 1.36334810e-003 2.08306909e-002
      7.60938507e-004 4.12175024e-004 6.34115422e-004 5.48509834e-003
      1.23652501e-003 1.26823084e-003 1.58528856e-004 6.65821193e-004
      6.34115422e-004 7.60938507e-004 1.26823084e-003 6.30944828e-003
      3.50982882e-002 9.82878916e-003 1.14140776e-003 5.58021571e-003
      5.70703880e-004 1.90234627e-004 4.75586567e-004 2.21940386e-003
      1.64552946e-002 5.00951195e-003 4.75586567e-004 4.62904247e-003
      4.97780601e-003 2.21940386e-003 5.23145217e-003 1.05580213e-002</_>
    <_>
      5.22828139e-002 1.03994925e-002 7.54597317e-003 1.42358905e-002
      6.27774233e-003 1.29993656e-003 1.03360815e-002 2.35890932e-002
      5.26315812e-003 8.56055820e-004 6.65821193e-004 6.34115422e-004
      8.84590950e-003 6.65821193e-004 2.53329109e-002 3.81103344e-002
      9.06785019e-003 5.38998109e-004 7.60938507e-004 3.80469253e-004
      8.24350049e-004 3.17057711e-005 9.19467362e-004 1.90234627e-004
      9.60684847e-003 5.70703880e-004 9.82878846e-004 3.48763482e-004
      1.69625878e-002 5.07292338e-004 3.77298668e-002 1.15726059e-002
      7.57767912e-003 9.82878846e-004 5.70703880e-004 9.19467362e-004
      5.70703880e-004 6.34115422e-005 5.70703880e-004 6.02409651e-004
      5.70703880e-004 6.34115422e-005 6.34115422e-005 3.17057711e-005
      7.92644278e-004 6.34115422e-005 9.82878846e-004 7.60938507e-004
      1.24603678e-002 2.53646169e-004 8.56055820e-004 6.02409651e-004
      7.92644278e-004 6.34115422e-005 1.07799622e-003 3.17057711e-004
      2.24476848e-002 5.07292338e-004 6.65821193e-004 5.38998109e-004
      2.38110330e-002 3.48763482e-004 1.23969559e-002 3.55104636e-003
      8.21179431e-003 1.14140776e-003 6.65821193e-004 7.92644278e-004
      5.70703880e-004 0. 4.12175024e-004 3.17057711e-004 8.24350049e-004
      3.17057711e-005 6.34115422e-005 0. 4.75586567e-004 6.34115422e-005
      4.12175024e-004 4.12175024e-004 6.97526964e-004 0. 0.
      3.17057711e-005 1.26823084e-004 0. 0. 3.17057711e-005
      9.82878846e-004 6.34115422e-005 0. 3.17057711e-005 3.80469253e-004
      3.17057711e-005 2.53646169e-004 3.17057711e-005 1.14457831e-002
      1.45846547e-003 8.56055820e-004 6.02409651e-004 5.38998109e-004
      9.51173133e-005 3.80469253e-004 6.02409651e-004 8.24350049e-004
      1.26823084e-004 0. 1.26823084e-004 5.07292338e-004 0.
      6.97526964e-004 8.87761591e-004 2.22574510e-002 3.80469253e-004
      6.02409651e-004 5.70703880e-004 2.85351940e-004 3.17057711e-005
      2.85351940e-004 2.53646169e-004 4.27710861e-002 5.70703880e-004
      6.34115422e-004 3.80469253e-004 9.92390607e-003 1.58528856e-004
      4.88268863e-003 1.64870010e-003 8.75079259e-003 1.70259979e-002
      1.39505393e-003 3.57958153e-002 8.87761591e-004 7.92644278e-004
      8.87761591e-004 3.63982245e-002 4.75586567e-004 8.24350049e-004
      6.34115422e-005 1.23652501e-003 5.70703880e-004 6.34115422e-004
      1.20481930e-003 1.62333548e-002 6.97526964e-004 6.34115422e-004
      9.51173133e-005 4.12175024e-004 6.34115422e-005 0. 1.26823084e-004
      3.80469253e-004 6.65821193e-004 2.53646169e-004 1.26823084e-004
      3.48763482e-004 6.65821193e-004 3.17057711e-004 1.45846547e-003
      5.42168692e-003 7.92644278e-004 8.56055820e-004 1.26823084e-004
      1.14140776e-003 0. 3.17057711e-005 1.58528856e-004 1.04629039e-003
      6.34115422e-005 6.34115422e-005 0. 6.34115422e-005 1.58528856e-004
      3.17057711e-005 6.34115422e-005 9.82878846e-004 1.20481930e-003
      5.38998109e-004 6.34115422e-005 7.92644278e-004 9.51173133e-005 0.
      3.17057711e-005 6.97526964e-004 1.14140776e-003 5.07292338e-004
      9.51173133e-005 7.60938507e-004 9.82878846e-004 3.48763482e-004
      8.24350049e-004 3.70957516e-003 1.30627770e-002 3.12301833e-002
      1.33164239e-003 5.04438803e-002 4.12175024e-004 3.80469253e-004
      7.60938507e-004 1.50285354e-002 8.87761591e-004 7.29232735e-004
      3.17057711e-005 1.01458468e-003 5.38998109e-004 6.02409651e-004
      1.07799622e-003 6.49968302e-003 1.23652501e-003 5.07292338e-004
      6.34115422e-005 4.43880796e-004 6.34115422e-005 0. 9.51173133e-005
      3.80469253e-004 6.97526964e-004 1.58528856e-004 3.17057711e-005
      4.75586567e-004 5.07292338e-004 1.58528856e-004 6.02409651e-004
      2.37793289e-003 2.12111603e-002 3.76347490e-002 1.10970193e-003
      2.01965757e-002 6.02409651e-004 2.85351940e-004 6.97526964e-004
      6.68991776e-003 9.19467362e-004 1.26823084e-003 3.17057711e-005
      1.10970193e-003 5.70703880e-004 6.02409651e-004 1.10970193e-003
      6.75332919e-003 3.11033614e-002 8.75079259e-003 1.14140776e-003
      5.00951195e-003 4.12175024e-004 1.90234627e-004 8.56055820e-004
      1.80722889e-003 1.51236523e-002 4.88268863e-003 8.87761591e-004
      4.21686750e-003 5.45339240e-003 2.25110981e-003 6.46797707e-003
      1.15409000e-002</_>
    <_>
      5.75142689e-002 1.05263162e-002 8.43373500e-003 1.58845913e-002
      6.84844656e-003 8.87761591e-004 1.23018390e-002 2.50475593e-002
      6.53138850e-003 8.87761591e-004 8.87761591e-004 6.34115422e-004
      1.03677865e-002 9.82878846e-004 3.57958153e-002 5.64996824e-002
      9.03614424e-003 4.75586567e-004 9.82878846e-004 8.87761591e-004
      7.60938507e-004 6.34115422e-005 1.23652501e-003 6.02409651e-004
      1.03994925e-002 6.02409651e-004 1.01458468e-003 3.17057711e-004
      1.65187065e-002 4.43880796e-004 3.67469862e-002 1.29359541e-002
      6.94356393e-003 7.92644278e-004 9.82878846e-004 1.14140776e-003
      6.65821193e-004 3.17057711e-005 7.29232735e-004 5.38998109e-004
      8.87761591e-004 1.90234627e-004 1.26823084e-004 6.34115422e-005
      7.92644278e-004 1.26823084e-004 9.51173133e-004 1.23652501e-003
      1.09701967e-002 5.38998109e-004 9.19467362e-004 4.43880796e-004
      8.56055820e-004 0. 5.07292338e-004 3.48763482e-004 2.13062782e-002
      4.12175024e-004 9.82878846e-004 5.07292338e-004 2.34939754e-002
      2.85351940e-004 1.23969559e-002 5.10462886e-003 8.05326551e-003
      6.97526964e-004 6.97526964e-004 1.04629039e-003 4.12175024e-004
      6.34115422e-005 5.07292338e-004 3.48763482e-004 7.29232735e-004
      6.34115422e-005 9.51173133e-005 6.34115422e-005 6.02409651e-004
      3.17057711e-005 6.34115422e-004 1.90234627e-004 7.92644278e-004 0.
      0. 6.34115422e-005 6.34115422e-005 0. 1.58528856e-004 0.
      8.24350049e-004 6.34115422e-005 3.17057711e-005 9.51173133e-005
      3.17057711e-004 0. 3.80469253e-004 1.58528856e-004 1.03043756e-002
      1.20481930e-003 8.56055820e-004 6.65821193e-004 3.48763482e-004 0.
      4.43880796e-004 6.34115422e-004 9.19467362e-004 6.34115422e-005
      3.17057711e-005 1.90234627e-004 6.65821193e-004 9.51173133e-005
      7.60938507e-004 6.97526964e-004 2.09892206e-002 4.43880796e-004
      8.24350049e-004 4.12175024e-004 4.12175024e-004 3.17057711e-005
      6.02409651e-004 2.53646169e-004 3.54470499e-002 3.80469253e-004
      7.92644278e-004 7.29232735e-004 9.82878916e-003 1.90234627e-004
      5.23145217e-003 1.39505393e-003 8.37032311e-003 1.45846540e-002
      1.36334810e-003 3.24667096e-002 8.24350049e-004 1.14140776e-003
      9.51173133e-004 3.76981609e-002 6.02409651e-004 9.51173133e-004
      6.34115422e-005 1.10970193e-003 5.70703880e-004 6.65821193e-004
      1.45846547e-003 1.79771725e-002 8.87761591e-004 5.70703880e-004
      1.26823084e-004 6.34115422e-004 6.34115422e-005 3.17057711e-005
      6.34115422e-005 3.17057711e-004 9.51173133e-004 5.70703880e-004
      9.51173133e-005 5.38998109e-004 7.92644278e-004 4.12175024e-004
      1.74381735e-003 5.38998097e-003 8.24350049e-004 8.87761591e-004 0.
      9.82878846e-004 9.51173133e-005 1.58528856e-004 9.51173133e-005
      1.20481930e-003 3.17057711e-005 0. 0. 1.58528856e-004
      9.51173133e-005 1.58528856e-004 6.34115422e-005 8.87761591e-004
      6.65821193e-004 4.75586567e-004 3.17057711e-005 6.02409651e-004
      3.17057711e-005 0. 1.26823084e-004 6.34115422e-004 8.87761591e-004
      3.80469253e-004 9.51173133e-005 7.92644278e-004 6.34115422e-004
      5.38998109e-004 1.01458468e-003 4.50221961e-003 1.07799619e-002
      2.66962592e-002 8.24350049e-004 3.80469263e-002 4.43880796e-004
      6.02409651e-004 7.29232735e-004 1.30310720e-002 2.85351940e-004
      6.34115422e-004 6.34115422e-005 1.10970193e-003 4.12175024e-004
      4.75586567e-004 1.01458468e-003 6.30944828e-003 1.26823084e-003
      5.70703880e-004 6.34115422e-005 3.17057711e-004 6.34115422e-005 0.
      9.51173133e-005 2.85351940e-004 3.48763482e-004 5.38998109e-004
      1.90234627e-004 4.12175024e-004 5.38998109e-004 5.07292338e-004
      6.65821193e-004 2.34622695e-003 2.08623968e-002 3.50982882e-002
      9.82878846e-004 1.76918190e-002 4.75586567e-004 3.17057711e-004
      6.34115422e-004 6.65821182e-003 9.51173133e-004 1.07799622e-003
      9.51173133e-005 7.29232735e-004 4.75586567e-004 6.02409651e-004
      1.07799622e-003 6.94356393e-003 3.21179442e-002 7.76791386e-003
      9.51173133e-004 4.34369035e-003 4.12175024e-004 9.51173133e-005
      5.07292338e-004 1.64870010e-003 1.37920100e-002 3.74128087e-003
      1.04629039e-003 3.70957516e-003 4.12175013e-003 1.45846547e-003
      5.73874451e-003 1.17945466e-002</_>
    <_>
      5.67850359e-002 9.60684847e-003 6.46797707e-003 1.14140771e-002
      6.43627159e-003 9.19467362e-004 8.33861809e-003 1.54090049e-002
      7.70450244e-003 6.02409651e-004 8.24350049e-004 6.34115422e-004
      9.57514253e-003 7.92644278e-004 2.62840837e-002 3.69055159e-002
      9.44831967e-003 2.85351940e-004 7.60938507e-004 4.75586567e-004
      7.60938507e-004 9.51173133e-005 7.92644278e-004 5.07292338e-004
      1.16994297e-002 2.53646169e-004 6.97526964e-004 4.75586567e-004
      1.89283453e-002 4.43880796e-004 3.89346853e-002 9.73367132e-003
      8.14838335e-003 1.04629039e-003 4.12175024e-004 8.87761591e-004
      8.56055820e-004 3.17057711e-005 4.12175024e-004 8.87761591e-004
      1.33164239e-003 3.17057711e-005 3.17057711e-005 6.34115422e-005
      1.04629039e-003 1.26823084e-004 1.36334810e-003 1.29993656e-003
      1.75332911e-002 4.75586567e-004 8.56055820e-004 3.48763482e-004
      9.51173133e-004 3.17057711e-005 7.29232735e-004 3.48763482e-004
      3.48129347e-002 5.70703880e-004 6.02409651e-004 3.48763482e-004
      3.20545323e-002 3.48763482e-004 1.28408372e-002 3.77298659e-003
      7.26062153e-003 8.56055820e-004 7.60938507e-004 7.60938507e-004
      5.70703880e-004 0. 4.12175024e-004 4.43880796e-004 5.70703880e-004
      0. 3.17057711e-005 0. 4.43880796e-004 0. 2.85351940e-004
      2.21940398e-004 1.17311347e-003 0. 3.17057711e-005 6.34115422e-005
      3.17057711e-005 0. 3.17057711e-005 0. 1.17311347e-003
      9.51173133e-005 0. 3.17057711e-005 4.12175024e-004 0.
      1.90234627e-004 1.90234627e-004 1.34115405e-002 6.97526964e-004
      6.65821193e-004 4.75586567e-004 4.43880796e-004 0. 6.34115422e-004
      4.12175024e-004 9.82878846e-004 1.58528856e-004 3.17057711e-005
      6.34115422e-005 7.92644278e-004 9.51173133e-005 7.29232735e-004
      5.07292338e-004 3.00253648e-002 5.38998109e-004 8.56055820e-004
      2.21940398e-004 4.12175024e-004 0. 2.53646169e-004 2.85351940e-004
      4.69562449e-002 3.17057711e-004 1.04629039e-003 5.38998109e-004
      1.36968931e-002 2.21940398e-004 5.23145217e-003 1.68040581e-003
      8.05326551e-003 1.40773617e-002 9.51173133e-004 2.68547870e-002
      6.02409651e-004 1.17311347e-003 8.24350049e-004 2.87254285e-002
      6.34115422e-004 6.97526964e-004 1.58528856e-004 8.56055820e-004
      7.60938507e-004 4.12175024e-004 9.51173133e-004 1.14774890e-002
      7.60938507e-004 5.38998109e-004 9.51173133e-005 3.80469253e-004 0.
      3.17057711e-005 3.17057711e-005 2.21940398e-004 7.60938507e-004
      3.48763482e-004 6.34115422e-005 4.43880796e-004 5.07292338e-004
      4.43880796e-004 8.87761591e-004 3.77298659e-003 1.01458468e-003
      8.87761591e-004 1.26823084e-004 1.07799622e-003 6.34115422e-005
      1.26823084e-004 3.17057711e-005 1.14140776e-003 1.26823084e-004
      1.58528856e-004 6.34115422e-005 9.51173133e-005 0. 1.58528856e-004
      6.34115422e-005 8.24350049e-004 6.65821193e-004 5.38998109e-004
      1.26823084e-004 1.14140776e-003 6.34115422e-005 9.51173133e-005
      3.17057711e-005 4.43880796e-004 9.19467362e-004 6.97526964e-004 0.
      1.04629039e-003 1.42675964e-003 4.43880796e-004 7.29232735e-004
      3.67786945e-003 1.30944829e-002 2.98351292e-002 8.56055820e-004
      3.93151566e-002 4.12175024e-004 6.02409651e-004 1.07799622e-003
      1.06531391e-002 5.70703880e-004 9.51173133e-004 1.26823084e-004
      1.01458468e-003 6.02409651e-004 2.85351940e-004 5.70703880e-004
      5.04121743e-003 8.56055820e-004 5.38998109e-004 1.26823084e-004
      2.53646169e-004 6.34115422e-005 3.17057711e-005 3.17057711e-005
      1.90234627e-004 9.19467362e-004 4.12175024e-004 0. 5.70703880e-004
      4.75586567e-004 1.26823084e-004 6.65821193e-004 1.36334810e-003
      2.40329746e-002 4.19784412e-002 8.56055820e-004 1.75332911e-002
      3.48763482e-004 4.12175024e-004 6.65821193e-004 6.21433090e-003
      1.10970193e-003 9.19467362e-004 6.34115422e-005 6.02409651e-004
      6.65821193e-004 6.34115422e-004 1.26823084e-003 5.19974623e-003
      3.48763466e-002 9.00443923e-003 9.19467362e-004 4.62904247e-003
      4.43880796e-004 1.26823084e-004 6.34115422e-004 1.80722889e-003
      1.79771725e-002 4.59733652e-003 1.04629039e-003 4.66074841e-003
      6.56309444e-003 1.93405198e-003 5.58021571e-003 1.05263162e-002</_>
    <_>
      4.66074832e-002 8.78249854e-003 5.80215594e-003 9.13126208e-003
      5.48509834e-003 9.82878846e-004 7.95814861e-003 1.80405825e-002
      6.37285970e-003 6.34115422e-004 5.70703880e-004 9.82878846e-004
      1.00824349e-002 1.07799622e-003 2.40329746e-002 3.65884602e-002
      8.71908665e-003 3.80469253e-004 8.87761591e-004 2.21940398e-004
      6.97526964e-004 9.51173133e-005 9.51173133e-004 3.80469253e-004
      1.29359541e-002 4.43880796e-004 7.29232735e-004 4.43880796e-004
      2.33037416e-002 3.48763482e-004 3.93151566e-002 1.16994297e-002
      6.59480039e-003 6.02409651e-004 6.02409651e-004 6.97526964e-004
      4.75586567e-004 6.34115422e-005 7.60938507e-004 1.04629039e-003
      1.33164239e-003 1.58528856e-004 1.26823084e-004 3.17057711e-005
      7.29232735e-004 6.34115422e-005 8.87761591e-004 1.58528856e-003
      1.45846540e-002 5.38998109e-004 8.24350049e-004 6.65821193e-004
      8.24350049e-004 6.34115422e-005 5.38998109e-004 3.48763482e-004
      3.62079889e-002 6.02409651e-004 1.10970193e-003 3.80469253e-004
      3.63031067e-002 4.43880796e-004 1.57894734e-002 5.48509834e-003
      8.94102734e-003 6.34115422e-004 8.24350049e-004 7.60938507e-004
      4.43880796e-004 3.17057711e-005 4.43880796e-004 4.43880796e-004
      8.87761591e-004 6.34115422e-005 3.17057711e-005 3.17057711e-005
      5.07292338e-004 3.17057711e-005 3.48763482e-004 3.17057711e-004
      8.24350049e-004 0. 3.17057711e-005 3.17057711e-005 9.51173133e-005
      0. 6.34115422e-005 3.17057711e-005 1.07799622e-003 3.17057711e-005
      3.17057711e-005 6.34115422e-005 6.65821193e-004 0. 3.80469253e-004
      9.51173133e-005 1.17628407e-002 9.51173133e-004 1.01458468e-003
      8.56055820e-004 6.34115422e-004 0. 7.29232735e-004 4.43880796e-004
      1.33164239e-003 9.51173133e-005 9.51173133e-005 0. 8.24350049e-004
      3.17057711e-005 8.24350049e-004 6.97526964e-004 2.70133168e-002
      5.07292338e-004 9.19467362e-004 4.12175024e-004 4.43880796e-004 0.
      5.38998109e-004 1.26823084e-004 5.21559939e-002 4.75586567e-004
      1.33164239e-003 2.85351940e-004 1.51553582e-002 2.21940398e-004
      5.77044999e-003 2.15599244e-003 7.10209273e-003 1.29993660e-002
      6.65821193e-004 2.27330383e-002 9.51173133e-004 1.14140776e-003
      6.34115422e-004 2.96448953e-002 7.92644278e-004 8.56055820e-004
      1.26823084e-004 5.70703880e-004 6.34115422e-004 5.07292338e-004
      9.19467362e-004 1.35383643e-002 1.01458468e-003 6.97526964e-004
      1.90234627e-004 5.70703880e-004 3.17057711e-005 3.17057711e-005
      6.34115422e-005 2.85351940e-004 8.87761591e-004 3.48763482e-004
      6.34115422e-005 3.17057711e-004 1.04629039e-003 4.75586567e-004
      1.20481930e-003 3.67786945e-003 9.82878846e-004 6.65821193e-004
      6.34115422e-005 1.20481930e-003 3.17057711e-005 1.58528856e-004
      9.51173133e-005 1.07799622e-003 6.34115422e-005 1.26823084e-004 0.
      6.34115422e-005 0. 1.26823084e-004 6.34115422e-005 6.34115422e-004
      8.87761591e-004 6.65821193e-004 3.17057711e-005 6.97526964e-004
      9.51173133e-005 6.34115422e-005 3.17057711e-005 6.02409651e-004
      9.51173133e-004 5.70703880e-004 9.51173133e-005 7.60938507e-004
      1.14140776e-003 6.97526964e-004 6.34115422e-004 4.02663276e-003
      1.24920737e-002 2.53329109e-002 1.14140776e-003 4.12809141e-002
      4.75586567e-004 5.38998109e-004 5.38998109e-004 1.09384907e-002
      9.19467362e-004 9.51173133e-004 0. 9.19467362e-004 4.43880796e-004
      6.02409651e-004 6.34115422e-004 5.13633480e-003 1.23652501e-003
      8.56055820e-004 9.51173133e-005 5.38998109e-004 0. 6.34115422e-005
      3.17057711e-005 6.34115422e-005 6.97526964e-004 2.85351940e-004
      6.34115422e-005 3.80469253e-004 4.43880796e-004 1.90234627e-004
      8.56055820e-004 1.74381735e-003 1.99429300e-002 3.51617001e-002
      8.87761591e-004 1.88015215e-002 6.02409651e-004 2.53646169e-004
      5.38998109e-004 5.83386188e-003 1.01458468e-003 1.61699427e-003
      9.51173133e-005 6.65821193e-004 7.92644278e-004 5.07292338e-004
      1.29993656e-003 6.62650587e-003 3.26569453e-002 9.92390607e-003
      1.26823084e-003 6.24603685e-003 4.12175024e-004 2.85351940e-004
      7.92644278e-004 1.99746364e-003 1.81674063e-002 5.29486360e-003
      1.01458468e-003 5.23145217e-003 6.72162324e-003 2.21940386e-003
      6.15091948e-003 1.39188329e-002</_>
    <_>
      4.87634763e-002 9.06785019e-003 5.10462886e-003 9.95561201e-003
      6.46797707e-003 5.38998109e-004 8.52885190e-003 1.66772362e-002
      6.05580211e-003 7.92644278e-004 2.85351940e-004 3.48763482e-004
      9.19467304e-003 9.51173133e-004 2.36525051e-002 3.55738737e-002
      9.32149682e-003 4.43880796e-004 8.56055820e-004 5.38998109e-004
      8.87761591e-004 6.34115422e-005 7.29232735e-004 5.38998109e-004
      1.31896008e-002 3.80469253e-004 9.51173133e-004 3.17057711e-004
      2.01014578e-002 3.48763482e-004 3.87761556e-002 1.04311984e-002
      7.70450244e-003 9.82878846e-004 6.02409651e-004 9.51173133e-004
      7.92644278e-004 6.34115422e-005 4.43880796e-004 6.65821193e-004
      1.04629039e-003 1.58528856e-004 9.51173133e-005 6.34115422e-005
      1.14140776e-003 9.51173133e-005 1.17311347e-003 1.20481930e-003
      1.59797091e-002 4.75586567e-004 7.60938507e-004 2.53646169e-004
      7.29232735e-004 0. 6.97526964e-004 6.34115422e-004 3.58275212e-002
      5.07292338e-004 8.87761591e-004 6.97526964e-004 3.69372219e-002
      5.07292338e-004 1.48383006e-002 4.85098269e-003 8.65567569e-003
      6.65821193e-004 7.29232735e-004 9.19467362e-004 6.65821193e-004
      3.17057711e-005 2.53646169e-004 2.85351940e-004 8.87761591e-004 0.
      3.17057711e-005 6.34115422e-005 4.43880796e-004 1.26823084e-004
      6.34115422e-004 2.53646169e-004 1.07799622e-003 3.17057711e-005
      3.17057711e-005 3.17057711e-005 3.17057711e-005 0. 9.51173133e-005
      0. 8.56055820e-004 3.17057711e-005 1.26823084e-004 0.
      4.43880796e-004 0. 4.12175024e-004 9.51173133e-005 1.34749524e-002
      9.19467362e-004 7.60938507e-004 7.29232735e-004 2.21940398e-004 0.
      4.75586567e-004 4.12175024e-004 7.92644278e-004 3.17057711e-005
      3.17057711e-005 1.58528856e-004 6.34115422e-004 1.90234627e-004
      5.70703880e-004 6.97526964e-004 2.85668988e-002 5.07292338e-004
      5.38998109e-004 3.17057711e-004 3.80469253e-004 0. 5.07292338e-004
      1.58528856e-004 5.59923910e-002 4.43880796e-004 1.10970193e-003
      4.43880796e-004 1.63284726e-002 2.53646169e-004 6.43627159e-003
      2.02916935e-003 6.53138850e-003 1.28408372e-002 1.14140776e-003
      2.17818636e-002 6.02409651e-004 1.01458468e-003 7.60938507e-004
      2.91693080e-002 8.56055820e-004 5.70703880e-004 1.26823084e-004
      8.56055820e-004 6.02409651e-004 7.92644278e-004 1.17311347e-003
      1.29359541e-002 7.29232735e-004 3.48763482e-004 9.51173133e-005
      5.70703880e-004 6.34115422e-005 9.51173133e-005 3.17057711e-005
      5.38998109e-004 9.82878846e-004 4.75586567e-004 0. 5.70703880e-004
      1.01458468e-003 3.17057711e-004 8.87761591e-004 3.64616350e-003
      8.24350049e-004 8.24350049e-004 0. 1.07799622e-003 1.26823084e-004
      9.51173133e-005 0. 1.23652501e-003 6.34115422e-005 6.34115422e-005
      0. 1.26823084e-004 9.51173133e-005 3.17057711e-005 0.
      9.82878846e-004 8.56055820e-004 7.92644278e-004 6.34115422e-005
      5.38998109e-004 6.34115422e-005 6.34115422e-005 6.34115422e-005
      4.43880796e-004 8.87761591e-004 4.43880796e-004 9.51173133e-005
      1.01458468e-003 8.87761591e-004 6.97526964e-004 9.19467362e-004
      4.12175013e-003 1.11287255e-002 2.58402023e-002 8.56055820e-004
      4.00126837e-002 5.07292338e-004 3.48763482e-004 5.38998109e-004
      1.19530754e-002 1.14140776e-003 8.56055820e-004 0. 9.51173133e-004
      5.70703880e-004 3.80469253e-004 4.75586567e-004 3.77298659e-003
      1.23652501e-003 2.85351940e-004 6.34115422e-005 5.38998109e-004
      9.51173133e-005 3.17057711e-005 9.51173133e-005 1.90234627e-004
      5.70703880e-004 4.12175024e-004 1.58528856e-004 6.02409651e-004
      3.17057711e-004 3.17057711e-004 8.56055820e-004 1.87064044e-003
      2.25428026e-002 3.63665186e-002 9.82878846e-004 1.65821183e-002
      2.85351940e-004 4.43880796e-004 9.51173133e-004 5.89727331e-003
      1.10970193e-003 1.36334810e-003 1.26823084e-004 8.87761591e-004
      6.65821193e-004 8.56055820e-004 1.55358273e-003 6.15091948e-003
      3.47812288e-002 1.00507289e-002 1.52187701e-003 5.42168692e-003
      2.85351940e-004 2.21940398e-004 8.56055820e-004 1.52187701e-003
      1.87381096e-002 5.58021571e-003 8.24350049e-004 5.42168692e-003
      6.15091948e-003 2.34622695e-003 6.34115422e-003 1.29359541e-002</_>
    <_>
      4.89854142e-002 8.68738070e-003 5.16804075e-003 9.95561201e-003
      6.24603685e-003 8.87761591e-004 8.75079259e-003 1.69625878e-002
      6.75332919e-003 7.92644278e-004 7.29232735e-004 1.01458468e-003
      1.03994925e-002 1.10970193e-003 2.58084964e-002 3.94736826e-002
      1.01141408e-002 5.38998109e-004 6.02409651e-004 5.38998109e-004
      9.19467362e-004 9.51173133e-005 9.82878846e-004 5.70703880e-004
      1.41724795e-002 3.48763482e-004 8.24350049e-004 2.53646169e-004
      2.40963846e-002 5.38998109e-004 4.13443260e-002 1.28091313e-002
      7.67279649e-003 7.60938507e-004 7.92644278e-004 8.56055820e-004
      7.92644278e-004 9.51173133e-005 5.07292338e-004 6.97526964e-004
      1.39505393e-003 3.17057711e-005 6.34115422e-005 6.34115422e-005
      1.29993656e-003 1.58528856e-004 1.23652501e-003 1.29993656e-003
      1.47748888e-002 6.02409651e-004 7.92644278e-004 5.70703880e-004
      7.92644278e-004 6.34115422e-005 6.02409651e-004 3.80469253e-004
      3.49080525e-002 4.75586567e-004 1.04629039e-003 3.48763482e-004
      3.63348126e-002 4.75586567e-004 1.62967667e-002 6.75332919e-003
      7.38744438e-003 6.02409651e-004 7.92644278e-004 8.87761591e-004
      3.80469253e-004 6.34115422e-005 5.07292338e-004 3.80469253e-004
      6.97526964e-004 9.51173133e-005 6.34115422e-005 3.17057711e-005
      5.38998109e-004 3.17057711e-005 4.75586567e-004 5.07292338e-004
      9.19467362e-004 3.17057711e-005 0. 3.17057711e-005 0. 0.
      3.17057711e-005 6.34115422e-005 1.01458468e-003 3.17057711e-005 0.
      6.34115422e-005 6.02409651e-004 3.17057711e-005 4.12175024e-004
      1.90234627e-004 1.27457194e-002 1.14140776e-003 6.97526964e-004
      6.97526964e-004 5.70703880e-004 3.17057711e-005 3.80469253e-004
      5.07292338e-004 1.20481930e-003 9.51173133e-005 6.34115422e-005
      3.17057711e-005 5.70703880e-004 2.21940398e-004 8.87761591e-004
      5.70703880e-004 2.83132531e-002 5.70703880e-004 9.51173133e-004
      4.43880796e-004 8.24350049e-004 3.17057711e-005 6.34115422e-004
      3.48763482e-004 4.86049466e-002 1.58528856e-004 9.51173133e-004
      3.48763482e-004 1.51870642e-002 2.21940398e-004 6.27774233e-003
      2.15599244e-003 7.13379821e-003 1.24603678e-002 8.87761591e-004
      2.01331638e-002 7.29232735e-004 1.07799622e-003 6.65821193e-004
      2.59670261e-002 5.70703880e-004 7.60938507e-004 6.34115422e-005
      1.04629039e-003 7.92644278e-004 8.24350049e-004 1.04629039e-003
      1.35066584e-002 6.65821193e-004 4.12175024e-004 2.21940398e-004
      4.75586567e-004 1.58528856e-004 0. 1.26823084e-004 2.85351940e-004
      8.87761591e-004 3.80469253e-004 6.34115422e-005 6.34115422e-004
      4.75586567e-004 3.80469253e-004 1.26823084e-003 4.75586578e-003
      6.02409651e-004 9.82878846e-004 1.26823084e-004 1.17311347e-003
      3.17057711e-005 3.17057711e-005 3.17057711e-005 1.29993656e-003
      6.34115422e-005 9.51173133e-005 9.51173133e-005 6.34115422e-005
      1.26823084e-004 3.17057711e-005 1.26823084e-004 1.04629039e-003
      7.29232735e-004 4.43880796e-004 3.17057711e-005 5.70703880e-004
      9.51173133e-005 6.34115422e-005 6.34115422e-005 4.75586567e-004
      1.23652501e-003 6.02409651e-004 3.17057711e-005 6.65821193e-004
      1.14140776e-003 4.75586567e-004 7.92644278e-004 3.01204808e-003
      1.12872543e-002 2.42549144e-002 6.97526964e-004 3.88712734e-002
      6.34115422e-004 4.75586567e-004 7.29232735e-004 1.10336086e-002
      8.24350049e-004 1.01458468e-003 9.51173133e-005 8.87761591e-004
      5.07292338e-004 6.97526964e-004 4.12175024e-004 4.66074841e-003
      1.36334810e-003 5.07292338e-004 2.21940398e-004 6.02409651e-004
      9.51173133e-005 6.34115422e-005 1.58528856e-004 2.21940398e-004
      8.24350049e-004 5.07292338e-004 0. 3.80469253e-004 4.12175024e-004
      2.85351940e-004 5.07292338e-004 1.87064044e-003 2.09575146e-002
      3.38617638e-002 1.07799622e-003 1.72162335e-002 4.12175024e-004
      3.48763482e-004 7.60938507e-004 6.84844656e-003 8.87761591e-004
      1.04629039e-003 2.21940398e-004 8.56055820e-004 9.19467362e-004
      6.02409651e-004 1.42675964e-003 6.27774233e-003 3.40202935e-002
      1.02409637e-002 1.14140776e-003 5.64362714e-003 2.53646169e-004
      2.53646169e-004 6.65821193e-004 1.58528856e-003 1.82308182e-002
      5.89727331e-003 9.82878846e-004 4.66074841e-003 5.99239068e-003
      1.80722889e-003 6.46797707e-003 1.13823712e-002</_>
    <_>
      5.01902364e-002 7.51426769e-003 5.77044999e-003 8.68738070e-003
      5.92897926e-003 5.07292338e-004 8.08497146e-003 1.76284090e-002
      6.34115422e-003 5.70703880e-004 6.65821193e-004 6.97526964e-004
      9.25808493e-003 6.34115422e-004 2.53329109e-002 3.95370945e-002
      8.43373500e-003 5.07292338e-004 7.92644278e-004 3.80469253e-004
      6.65821193e-004 0. 7.92644278e-004 2.21940398e-004 9.73367132e-003
      3.48763482e-004 6.97526964e-004 3.17057711e-004 1.95624605e-002
      2.85351940e-004 4.20101471e-002 1.09701967e-002 8.56055785e-003
      8.56055820e-004 5.70703880e-004 2.53646169e-004 6.34115422e-004
      6.34115422e-005 4.43880796e-004 5.38998109e-004 7.60938507e-004
      1.26823084e-004 6.34115422e-005 3.17057711e-005 7.29232735e-004
      9.51173133e-005 6.97526964e-004 1.20481930e-003 1.57577675e-002
      4.12175024e-004 9.51173133e-004 6.02409651e-004 6.97526964e-004 0.
      5.07292338e-004 3.80469253e-004 3.13570052e-002 5.07292338e-004
      6.02409651e-004 5.38998109e-004 3.60811651e-002 3.17057711e-004
      1.34749524e-002 3.93151538e-003 7.26062153e-003 6.97526964e-004
      9.51173133e-004 7.29232735e-004 5.07292338e-004 0. 3.48763482e-004
      3.48763482e-004 6.97526964e-004 6.34115422e-005 9.51173133e-005 0.
      3.48763482e-004 0. 2.53646169e-004 2.53646169e-004 7.60938507e-004
      0. 1.26823084e-004 3.17057711e-005 0. 0. 3.17057711e-005 0.
      8.56055820e-004 6.34115422e-005 1.26823084e-004 0. 2.53646169e-004
      3.17057711e-005 3.80469253e-004 1.26823084e-004 1.27457194e-002
      1.23652501e-003 4.43880796e-004 6.65821193e-004 2.85351940e-004 0.
      4.43880796e-004 4.43880796e-004 9.82878846e-004 9.51173133e-005
      3.17057711e-005 6.34115422e-005 5.38998109e-004 2.85351940e-004
      5.38998109e-004 5.70703880e-004 3.42105255e-002 3.80469253e-004
      6.02409651e-004 4.43880796e-004 4.43880796e-004 3.17057711e-005
      6.34115422e-004 2.53646169e-004 5.24413437e-002 5.38998109e-004
      1.01458468e-003 2.85351940e-004 1.34432465e-002 4.12175024e-004
      4.43880772e-003 1.58528856e-003 7.57767912e-003 1.33798355e-002
      7.92644278e-004 2.12428663e-002 5.38998109e-004 6.65821193e-004
      6.65821193e-004 2.86303107e-002 5.38998109e-004 6.65821193e-004
      6.34115422e-005 7.60938507e-004 6.02409651e-004 5.70703880e-004
      8.24350049e-004 1.27140144e-002 9.82878846e-004 4.12175024e-004
      9.51173133e-005 2.85351940e-004 3.17057711e-005 9.51173133e-005
      1.90234627e-004 3.80469253e-004 7.92644278e-004 3.80469253e-004
      3.17057711e-005 4.12175024e-004 5.07292338e-004 2.85351940e-004
      1.04629039e-003 3.48763471e-003 6.34115422e-004 6.65821193e-004
      3.17057711e-005 1.14140776e-003 1.26823084e-004 3.17057711e-005
      9.51173133e-005 1.14140776e-003 3.17057711e-005 1.26823084e-004 0.
      6.34115422e-005 3.17057711e-005 0. 9.51173133e-005 6.65821193e-004
      1.07799622e-003 5.07292338e-004 3.17057711e-005 4.75586567e-004
      6.34115422e-005 6.34115422e-005 6.34115422e-005 3.80469253e-004
      1.29993656e-003 3.17057711e-004 1.26823084e-004 5.38998109e-004
      1.17311347e-003 4.43880796e-004 5.07292338e-004 3.83639825e-003
      1.18579585e-002 2.96131894e-002 9.51173133e-004 3.62396948e-002
      3.80469253e-004 5.70703880e-004 3.80469253e-004 9.76537727e-003
      7.29232735e-004 7.92644278e-004 6.34115422e-005 5.07292338e-004
      5.70703880e-004 4.75586567e-004 4.43880796e-004 4.66074841e-003
      1.29993656e-003 3.80469253e-004 6.34115422e-005 3.80469253e-004
      3.17057711e-005 3.17057711e-005 6.34115422e-005 2.85351940e-004
      4.75586567e-004 5.38998109e-004 6.34115422e-005 3.48763482e-004
      5.38998109e-004 1.26823084e-004 4.75586567e-004 1.64870010e-003
      2.51743812e-002 4.80025373e-002 8.24350049e-004 1.82942301e-002
      3.48763482e-004 1.90234627e-004 6.65821193e-004 5.64362714e-003
      1.07799622e-003 1.14140776e-003 3.17057711e-005 6.65821193e-004
      7.60938507e-004 3.80469253e-004 1.07799622e-003 4.91439458e-003
      4.66074832e-002 1.14774890e-002 1.17311347e-003 4.97780601e-003
      5.38998109e-004 2.21940398e-004 8.24350049e-004 2.02916935e-003
      1.98795181e-002 4.59733652e-003 5.70703880e-004 4.56563104e-003
      6.18262542e-003 1.74381735e-003 5.13633480e-003 9.38490778e-003</_>
    <_>
      4.85098287e-002 9.22637898e-003 4.85098269e-003 1.03360815e-002
      6.56309444e-003 6.97526964e-004 8.30691215e-003 1.60431191e-002
      5.73874451e-003 5.07292338e-004 6.65821193e-004 5.70703880e-004
      9.06785019e-003 9.82878846e-004 2.33037416e-002 3.83639820e-002
      9.35320184e-003 4.43880796e-004 5.07292338e-004 4.12175024e-004
      6.34115422e-004 9.51173133e-005 6.97526964e-004 6.02409651e-004
      1.11604314e-002 4.43880796e-004 5.38998109e-004 2.21940398e-004
      2.11477485e-002 4.75586567e-004 3.97273302e-002 1.10019026e-002
      8.71908665e-003 8.24350049e-004 8.56055820e-004 7.92644278e-004
      4.12175024e-004 6.34115422e-005 7.29232735e-004 6.02409651e-004
      1.26823084e-003 2.21940398e-004 1.58528856e-004 6.34115422e-005
      1.04629039e-003 6.34115422e-005 7.29232735e-004 8.56055820e-004
      1.56626515e-002 4.43880796e-004 4.12175024e-004 6.65821193e-004
      9.19467362e-004 0. 7.29232735e-004 2.85351940e-004 3.59860510e-002
      3.48763482e-004 7.92644278e-004 6.65821193e-004 3.78249846e-002
      4.43880796e-004 1.52821811e-002 3.93151538e-003 7.92644266e-003
      1.07799622e-003 8.24350049e-004 7.29232735e-004 4.75586567e-004
      6.34115422e-005 1.58528856e-004 4.75586567e-004 5.70703880e-004
      9.51173133e-005 3.17057711e-005 1.90234627e-004 3.17057711e-004 0.
      2.21940398e-004 4.12175024e-004 8.24350049e-004 3.17057711e-005 0.
      6.34115422e-005 6.34115422e-005 0. 0. 3.17057711e-005
      9.19467362e-004 3.17057711e-005 9.51173133e-005 0. 4.12175024e-004
      3.17057711e-005 3.80469253e-004 1.26823084e-004 1.24920737e-002
      1.01458468e-003 4.43880796e-004 7.29232735e-004 4.12175024e-004
      3.17057711e-005 3.48763482e-004 3.48763482e-004 1.17311347e-003
      3.17057711e-005 6.34115422e-005 1.26823084e-004 7.92644278e-004
      6.34115422e-005 5.38998109e-004 8.56055820e-004 3.31325307e-002
      2.85351940e-004 6.65821193e-004 7.29232735e-004 5.38998109e-004
      3.17057711e-005 4.43880796e-004 2.53646169e-004 5.72289154e-002
      4.12175024e-004 1.07799622e-003 4.43880796e-004 1.61382370e-002
      2.53646169e-004 5.32656955e-003 1.29993656e-003 6.46797707e-003
      1.17945466e-002 1.07799622e-003 2.08306909e-002 6.97526964e-004
      8.87761591e-004 7.29232735e-004 2.63157897e-002 7.29232735e-004
      7.29232735e-004 3.17057711e-005 6.34115422e-004 7.29232735e-004
      5.70703880e-004 8.87761591e-004 1.31578948e-002 7.60938507e-004
      4.75586567e-004 1.26823084e-004 4.12175024e-004 3.17057711e-005
      3.17057711e-005 2.21940398e-004 2.53646169e-004 6.65821193e-004
      3.80469253e-004 3.17057711e-005 6.02409651e-004 4.43880796e-004
      1.26823084e-004 1.10970193e-003 3.93151538e-003 7.60938507e-004
      9.51173133e-004 3.17057711e-005 8.24350049e-004 6.34115422e-005
      1.58528856e-004 1.26823084e-004 1.07799622e-003 3.17057711e-005
      6.34115422e-005 3.17057711e-005 9.51173133e-005 6.34115422e-005
      3.17057711e-005 9.51173133e-005 9.82878846e-004 9.82878846e-004
      3.80469253e-004 6.34115422e-005 5.07292338e-004 6.34115422e-005
      6.34115422e-005 9.51173133e-005 6.02409651e-004 9.82878846e-004
      3.48763482e-004 9.51173133e-005 7.29232735e-004 1.20481930e-003
      6.34115422e-004 7.60938507e-004 4.12175013e-003 1.14774890e-002
      2.58084964e-002 1.17311347e-003 3.78566906e-002 5.07292338e-004
      3.17057711e-004 8.87761591e-004 1.06531391e-002 9.19467362e-004
      9.82878846e-004 3.17057711e-005 6.97526964e-004 6.34115422e-004
      4.12175024e-004 4.75586567e-004 4.72415984e-003 1.07799622e-003
      4.75586567e-004 1.26823084e-004 4.12175024e-004 3.17057711e-005 0.
      9.51173133e-005 2.53646169e-004 7.60938507e-004 2.85351940e-004
      1.58528856e-004 4.75586567e-004 5.38998109e-004 4.75586567e-004
      7.29232735e-004 1.29993656e-003 2.26062145e-002 4.01395038e-002
      1.04629039e-003 1.56943556e-002 5.38998109e-004 3.17057711e-004
      4.75586567e-004 5.51680429e-003 1.17311347e-003 1.58528856e-003
      6.34115422e-005 7.92644278e-004 6.97526964e-004 6.97526964e-004
      1.10970193e-003 5.67533309e-003 4.15662639e-002 1.12555483e-002
      1.17311347e-003 4.69245389e-003 5.07292338e-004 1.90234627e-004
      7.60938507e-004 2.34622695e-003 1.95624605e-002 5.13633480e-003
      9.19467362e-004 3.93151538e-003 6.53138850e-003 1.45846547e-003
      5.51680429e-003 1.13506662e-002</_>
    <_>
      4.83830050e-002 8.49714689e-003 5.10462886e-003 9.70196538e-003
      4.97780601e-003 6.34115422e-004 8.81420448e-003 1.69308819e-002
      6.49968302e-003 1.01458468e-003 6.34115422e-004 7.60938507e-004
      1.02409637e-002 1.17311347e-003 2.34939754e-002 3.66835780e-002
      1.02409637e-002 8.24350049e-004 8.24350049e-004 4.75586567e-004
      7.29232735e-004 3.17057711e-005 1.07799622e-003 2.53646169e-004
      1.32530117e-002 3.48763482e-004 6.02409651e-004 3.48763482e-004
      2.49207355e-002 4.12175024e-004 3.95053886e-002 1.16677238e-002
      8.81420448e-003 7.60938507e-004 6.02409651e-004 6.65821193e-004
      5.70703880e-004 1.26823084e-004 6.65821193e-004 8.87761591e-004
      1.17311347e-003 1.26823084e-004 3.17057711e-005 6.34115422e-005
      7.92644278e-004 9.51173133e-005 1.20481930e-003 1.42675964e-003
      1.54090049e-002 5.38998109e-004 8.56055820e-004 6.02409651e-004
      1.01458468e-003 9.51173133e-005 7.29232735e-004 2.53646169e-004
      3.67469862e-002 5.07292338e-004 7.60938507e-004 4.75586567e-004
      4.11857963e-002 3.17057711e-004 1.61699429e-002 5.10462886e-003
      8.37032311e-003 1.17311347e-003 6.65821193e-004 5.07292338e-004
      4.12175024e-004 0. 4.75586567e-004 3.17057711e-004 6.65821193e-004
      0. 9.51173133e-005 1.26823084e-004 3.17057711e-004 3.17057711e-005
      6.65821193e-004 2.85351940e-004 1.14140776e-003 0. 6.34115422e-005
      6.34115422e-005 0. 0. 9.51173133e-005 0. 8.24350049e-004 0. 0. 0.
      2.85351940e-004 3.17057711e-005 2.85351940e-004 1.58528856e-004
      1.27457194e-002 8.24350049e-004 7.92644278e-004 6.65821193e-004
      5.70703880e-004 3.17057711e-005 4.12175024e-004 5.70703880e-004
      1.20481930e-003 9.51173133e-005 3.17057711e-005 6.34115422e-005
      8.87761591e-004 0. 7.29232735e-004 7.92644278e-004 2.88522504e-002
      3.48763482e-004 7.29232735e-004 3.48763482e-004 6.65821193e-004 0.
      3.80469253e-004 3.17057711e-004 5.33291064e-002 3.80469253e-004
      1.14140776e-003 5.07292338e-004 1.58528853e-002 3.48763482e-004
      6.46797707e-003 2.06087506e-003 7.48256175e-003 1.23969559e-002
      7.92644278e-004 1.98478121e-002 5.38998109e-004 6.65821193e-004
      8.87761591e-004 2.58719083e-002 4.75586567e-004 8.24350049e-004
      6.34115422e-005 1.04629039e-003 5.38998109e-004 8.24350049e-004
      6.02409651e-004 1.27774253e-002 9.82878846e-004 4.12175024e-004
      1.58528856e-004 3.80469253e-004 0. 0. 1.26823084e-004
      1.26823084e-004 7.92644278e-004 4.12175024e-004 9.51173133e-005
      7.29232735e-004 7.29232735e-004 5.07292338e-004 9.19467362e-004
      4.18516155e-003 8.87761591e-004 1.01458468e-003 6.34115422e-005
      6.02409651e-004 1.26823084e-004 9.51173133e-005 6.34115422e-005
      1.01458468e-003 2.21940398e-004 6.34115422e-005 0. 6.34115422e-005
      3.17057711e-005 1.26823084e-004 6.34115422e-005 8.56055820e-004
      8.24350049e-004 7.29232735e-004 6.34115422e-005 6.02409651e-004
      6.34115422e-005 3.17057711e-005 6.34115422e-005 5.07292338e-004
      9.82878846e-004 6.97526964e-004 1.26823084e-004 4.75586567e-004
      1.23652501e-003 5.38998109e-004 9.51173133e-004 3.86810396e-003
      1.22067221e-002 2.45085601e-002 6.97526964e-004 3.95053886e-002
      6.34115422e-004 3.80469253e-004 5.07292338e-004 9.92390607e-003
      6.97526964e-004 6.65821193e-004 3.17057711e-005 5.38998109e-004
      3.80469253e-004 6.34115422e-004 6.97526964e-004 4.62904247e-003
      1.26823084e-003 6.02409651e-004 1.90234627e-004 4.75586567e-004
      3.17057711e-005 3.17057711e-005 9.51173133e-005 2.21940398e-004
      8.56055820e-004 6.02409651e-004 9.51173133e-005 6.02409651e-004
      5.07292338e-004 2.53646169e-004 5.38998109e-004 1.71211164e-003
      2.15599239e-002 3.18325944e-002 1.01458468e-003 1.73113514e-002
      5.70703880e-004 4.75586567e-004 9.19467362e-004 5.89727331e-003
      8.56055820e-004 1.07799622e-003 1.26823084e-004 1.07799622e-003
      6.34115422e-004 7.60938507e-004 1.20481930e-003 6.27774233e-003
      3.59543450e-002 1.04946103e-002 1.36334810e-003 5.67533309e-003
      4.43880796e-004 2.53646169e-004 7.92644278e-004 1.93405198e-003
      1.92771088e-002 5.45339240e-003 8.56055820e-004 4.21686750e-003
      5.99239068e-003 1.96575769e-003 6.30944828e-003 1.23969559e-002</_>
    <_>
      5.00000007e-002 9.63855442e-003 6.88015204e-003 1.12555483e-002
      8.05326551e-003 5.70703880e-004 1.06214331e-002 1.76601149e-002
      6.91185798e-003 8.24350049e-004 6.02409651e-004 8.87761591e-004
      1.08116679e-002 9.51173133e-004 2.33671535e-002 3.37349400e-002
      9.79708321e-003 7.92644278e-004 8.87761591e-004 5.38998109e-004
      9.82878846e-004 1.26823084e-004 7.92644278e-004 5.38998109e-004
      1.27140144e-002 4.43880796e-004 8.87761591e-004 7.29232735e-004
      2.03233995e-002 6.34115422e-004 3.86176296e-002 1.26188966e-002
      8.11667740e-003 9.51173133e-004 5.38998109e-004 6.97526964e-004
      1.01458468e-003 6.34115422e-005 6.34115422e-004 6.97526964e-004
      1.64870010e-003 1.26823084e-004 6.34115422e-005 1.26823084e-004
      1.26823084e-003 9.51173133e-005 1.33164239e-003 1.49017118e-003
      1.50919463e-002 8.24350049e-004 7.92644278e-004 5.38998109e-004
      1.04629039e-003 6.34115422e-005 7.92644278e-004 3.48763482e-004
      2.73937862e-002 4.43880796e-004 1.10970193e-003 7.29232735e-004
      3.75396311e-002 3.17057711e-004 1.57260615e-002 5.23145217e-003
      7.67279649e-003 1.10970193e-003 9.19467362e-004 1.26823084e-003
      5.70703880e-004 9.51173133e-005 5.38998109e-004 5.70703880e-004
      5.38998109e-004 6.34115422e-005 6.34115422e-005 1.26823084e-004
      3.17057711e-004 9.51173133e-005 4.75586567e-004 7.60938507e-004
      6.02409651e-004 3.17057711e-005 6.34115422e-005 0. 3.17057711e-005
      3.17057711e-005 0. 3.17057711e-005 9.19467362e-004 3.17057711e-005
      1.90234627e-004 6.34115422e-005 6.02409651e-004 0. 3.80469253e-004
      2.53646169e-004 1.16360178e-002 1.10970193e-003 6.65821193e-004
      8.87761591e-004 3.48763482e-004 6.34115422e-005 4.12175024e-004
      5.70703880e-004 1.23652501e-003 9.51173133e-005 6.34115422e-005
      6.34115422e-005 7.60938507e-004 1.26823084e-004 7.29232735e-004
      8.87761591e-004 2.64426135e-002 6.02409651e-004 7.29232735e-004
      2.53646169e-004 4.75586567e-004 6.34115422e-005 5.07292338e-004
      4.12175024e-004 3.72225754e-002 5.38998109e-004 1.17311347e-003
      3.17057711e-004 1.28725432e-002 3.48763482e-004 6.37285970e-003
      2.63157906e-003 7.32403295e-003 1.35700693e-002 1.17311347e-003
      2.59036142e-002 6.34115422e-004 8.56055820e-004 1.14140776e-003
      2.40329746e-002 5.70703880e-004 6.65821193e-004 6.34115422e-005
      1.26823084e-003 4.75586567e-004 4.12175024e-004 1.14140776e-003
      1.44578312e-002 7.60938507e-004 6.97526964e-004 1.26823084e-004
      5.38998109e-004 3.17057711e-005 6.34115422e-005 1.26823084e-004
      6.02409651e-004 7.92644278e-004 5.07292338e-004 9.51173133e-005
      9.51173133e-004 9.51173133e-004 6.65821193e-004 1.49017118e-003
      7.13379821e-003 9.82878846e-004 7.92644278e-004 6.34115422e-005
      1.01458468e-003 0. 1.26823084e-004 1.58528856e-004 6.34115422e-004
      6.34115422e-005 9.51173133e-005 0. 9.51173133e-005 6.34115422e-005
      6.34115422e-005 9.51173133e-005 7.29232735e-004 6.65821193e-004
      6.65821193e-004 9.51173133e-005 6.02409651e-004 9.51173133e-005 0.
      9.51173133e-005 5.07292338e-004 1.14140776e-003 6.97526964e-004
      2.21940398e-004 1.23652501e-003 1.55358273e-003 1.20481930e-003
      1.23652501e-003 6.15091948e-003 1.03360815e-002 2.53646169e-002
      1.10970193e-003 4.17564996e-002 5.70703880e-004 6.34115422e-004
      8.24350049e-004 1.26506025e-002 4.75586567e-004 1.07799622e-003
      6.34115422e-005 1.71211164e-003 6.65821193e-004 4.43880796e-004
      7.60938507e-004 6.81674061e-003 1.07799622e-003 5.07292338e-004
      1.58528856e-004 4.43880796e-004 6.34115422e-005 3.17057711e-005
      6.34115422e-005 4.75586567e-004 6.97526964e-004 4.43880796e-004
      1.90234627e-004 1.04629039e-003 5.38998109e-004 1.58528856e-004
      9.19467362e-004 2.82181357e-003 1.88015215e-002 3.80152203e-002
      1.07799622e-003 1.60748251e-002 5.38998109e-004 5.70703880e-004
      6.02409651e-004 6.56309444e-003 1.33164239e-003 1.23652501e-003
      9.51173133e-005 6.97526964e-004 9.51173133e-004 5.70703880e-004
      1.45846547e-003 6.37285970e-003 3.59860510e-002 8.30691215e-003
      1.07799622e-003 4.94610006e-003 6.65821193e-004 3.48763482e-004
      8.87761591e-004 2.12428672e-003 1.67723522e-002 4.18516155e-003
      8.24350049e-004 3.83639825e-003 5.96068474e-003 2.28281552e-003
      6.72162324e-003 1.47431828e-002</_>
    <_>
      5.00000007e-002 9.63855442e-003 6.88015204e-003 1.12555483e-002
      8.05326551e-003 5.70703880e-004 1.06214331e-002 1.76601149e-002
      6.91185798e-003 8.24350049e-004 6.02409651e-004 8.87761591e-004
      1.08116679e-002 9.51173133e-004 2.33671535e-002 3.37349400e-002
      9.79708321e-003 7.92644278e-004 8.87761591e-004 5.38998109e-004
      9.82878846e-004 1.26823084e-004 7.92644278e-004 5.38998109e-004
      1.27140144e-002 4.43880796e-004 8.87761591e-004 7.29232735e-004
      2.03233995e-002 6.34115422e-004 3.86176296e-002 1.26188966e-002
      8.11667740e-003 9.51173133e-004 5.38998109e-004 6.97526964e-004
      1.01458468e-003 6.34115422e-005 6.34115422e-004 6.97526964e-004
      1.64870010e-003 1.26823084e-004 6.34115422e-005 1.26823084e-004
      1.26823084e-003 9.51173133e-005 1.33164239e-003 1.49017118e-003
      1.50919463e-002 8.24350049e-004 7.92644278e-004 5.38998109e-004
      1.04629039e-003 6.34115422e-005 7.92644278e-004 3.48763482e-004
      2.73937862e-002 4.43880796e-004 1.10970193e-003 7.29232735e-004
      3.75396311e-002 3.17057711e-004 1.57260615e-002 5.23145217e-003
      7.67279649e-003 1.10970193e-003 9.19467362e-004 1.26823084e-003
      5.70703880e-004 9.51173133e-005 5.38998109e-004 5.70703880e-004
      5.38998109e-004 6.34115422e-005 6.34115422e-005 1.26823084e-004
      3.17057711e-004 9.51173133e-005 4.75586567e-004 7.60938507e-004
      6.02409651e-004 3.17057711e-005 6.34115422e-005 0. 3.17057711e-005
      3.17057711e-005 0. 3.17057711e-005 9.19467362e-004 3.17057711e-005
      1.90234627e-004 6.34115422e-005 6.02409651e-004 0. 3.80469253e-004
      2.53646169e-004 1.16360178e-002 1.10970193e-003 6.65821193e-004
      8.87761591e-004 3.48763482e-004 6.34115422e-005 4.12175024e-004
      5.70703880e-004 1.23652501e-003 9.51173133e-005 6.34115422e-005
      6.34115422e-005 7.60938507e-004 1.26823084e-004 7.29232735e-004
      8.87761591e-004 2.64426135e-002 6.02409651e-004 7.29232735e-004
      2.53646169e-004 4.75586567e-004 6.34115422e-005 5.07292338e-004
      4.12175024e-004 3.72225754e-002 5.38998109e-004 1.17311347e-003
      3.17057711e-004 1.28725432e-002 3.48763482e-004 6.37285970e-003
      2.63157906e-003 7.32403295e-003 1.35700693e-002 1.17311347e-003
      2.59036142e-002 6.34115422e-004 8.56055820e-004 1.14140776e-003
      2.40329746e-002 5.70703880e-004 6.65821193e-004 6.34115422e-005
      1.26823084e-003 4.75586567e-004 4.12175024e-004 1.14140776e-003
      1.44578312e-002 7.60938507e-004 6.97526964e-004 1.26823084e-004
      5.38998109e-004 3.17057711e-005 6.34115422e-005 1.26823084e-004
      6.02409651e-004 7.92644278e-004 5.07292338e-004 9.51173133e-005
      9.51173133e-004 9.51173133e-004 6.65821193e-004 1.49017118e-003
      7.13379821e-003 9.82878846e-004 7.92644278e-004 6.34115422e-005
      1.01458468e-003 0. 1.26823084e-004 1.58528856e-004 6.34115422e-004
      6.34115422e-005 9.51173133e-005 0. 9.51173133e-005 6.34115422e-005
      6.34115422e-005 9.51173133e-005 7.29232735e-004 6.65821193e-004
      6.65821193e-004 9.51173133e-005 6.02409651e-004 9.51173133e-005 0.
      9.51173133e-005 5.07292338e-004 1.14140776e-003 6.97526964e-004
      2.21940398e-004 1.23652501e-003 1.55358273e-003 1.20481930e-003
      1.23652501e-003 6.15091948e-003 1.03360815e-002 2.53646169e-002
      1.10970193e-003 4.17564996e-002 5.70703880e-004 6.34115422e-004
      8.24350049e-004 1.26506025e-002 4.75586567e-004 1.07799622e-003
      6.34115422e-005 1.71211164e-003 6.65821193e-004 4.43880796e-004
      7.60938507e-004 6.81674061e-003 1.07799622e-003 5.07292338e-004
      1.58528856e-004 4.43880796e-004 6.34115422e-005 3.17057711e-005
      6.34115422e-005 4.75586567e-004 6.97526964e-004 4.43880796e-004
      1.90234627e-004 1.04629039e-003 5.38998109e-004 1.58528856e-004
      9.19467362e-004 2.82181357e-003 1.88015215e-002 3.80152203e-002
      1.07799622e-003 1.60748251e-002 5.38998109e-004 5.70703880e-004
      6.02409651e-004 6.56309444e-003 1.33164239e-003 1.23652501e-003
      9.51173133e-005 6.97526964e-004 9.51173133e-004 5.70703880e-004
      1.45846547e-003 6.37285970e-003 3.59860510e-002 8.30691215e-003
      1.07799622e-003 4.94610006e-003 6.65821193e-004 3.48763482e-004
      8.87761591e-004 2.12428672e-003 1.67723522e-002 4.18516155e-003
      8.24350049e-004 3.83639825e-003 5.96068474e-003 2.28281552e-003
      6.72162324e-003 1.47431828e-002</_>
    <_>
      4.19467352e-002 9.03614424e-003 5.54850977e-003 1.19213695e-002
      5.35827503e-003 8.56055820e-004 1.09701967e-002 2.16550417e-002
      4.50221961e-003 9.19467362e-004 5.38998109e-004 6.34115422e-004
      8.81420448e-003 1.07799622e-003 2.49841474e-002 4.02029157e-002
      1.04629043e-002 6.02409651e-004 5.70703880e-004 3.80469253e-004
      6.34115422e-004 0. 9.51173133e-004 1.90234627e-004 1.03360815e-002
      3.48763482e-004 3.48763482e-004 3.17057711e-004 2.13696901e-002
      4.43880796e-004 3.96956243e-002 1.12872543e-002 7.07038678e-003
      6.02409651e-004 5.07292338e-004 8.24350049e-004 4.12175024e-004 0.
      9.51173133e-004 1.20481930e-003 6.34115422e-004 2.21940398e-004
      1.58528856e-004 3.17057711e-005 9.19467362e-004 3.17057711e-005
      9.51173133e-004 1.26823084e-003 1.35700693e-002 5.07292338e-004
      6.02409651e-004 4.75586567e-004 8.24350049e-004 3.17057711e-005
      5.07292338e-004 1.90234627e-004 2.44768541e-002 3.17057711e-004
      6.65821193e-004 3.17057711e-004 3.24350037e-002 4.12175024e-004
      1.49017125e-002 3.04375403e-003 6.08750805e-003 1.10970193e-003
      6.34115422e-004 5.07292338e-004 2.53646169e-004 3.17057711e-005
      4.75586567e-004 3.17057711e-004 4.75586567e-004 9.51173133e-005
      3.17057711e-005 3.17057711e-005 4.12175024e-004 3.17057711e-005
      3.80469253e-004 3.17057711e-004 6.34115422e-004 0. 6.34115422e-005
      0. 6.34115422e-005 0. 6.34115422e-005 0. 6.02409651e-004 0. 0. 0.
      4.75586567e-004 0. 4.43880796e-004 1.90234627e-004 1.15409000e-002
      1.45846547e-003 9.51173133e-004 6.97526964e-004 3.48763482e-004 0.
      5.07292338e-004 5.38998109e-004 8.24350049e-004 6.34115422e-005
      3.17057711e-005 3.17057711e-005 5.07292338e-004 9.51173133e-005
      9.82878846e-004 7.29232735e-004 2.60938499e-002 4.43880796e-004
      7.60938507e-004 2.85351940e-004 4.75586567e-004 0. 4.12175024e-004
      4.12175024e-004 3.74128073e-002 3.48763482e-004 7.92644278e-004
      1.90234627e-004 1.18896635e-002 1.26823084e-004 4.91439458e-003
      1.20481930e-003 5.77044999e-003 1.29359541e-002 5.70703880e-004
      2.78059598e-002 4.12175024e-004 6.34115422e-004 8.87761591e-004
      3.17374766e-002 5.07292338e-004 6.97526964e-004 0. 7.60938507e-004
      7.29232735e-004 5.70703880e-004 8.56055820e-004 1.48700066e-002
      1.01458468e-003 6.02409651e-004 6.34115422e-005 5.07292338e-004
      3.17057711e-005 0. 9.51173133e-005 2.53646169e-004 8.24350049e-004
      4.43880796e-004 3.17057711e-005 4.12175024e-004 1.29993656e-003
      3.48763482e-004 1.26823084e-003 5.29486360e-003 6.02409651e-004
      9.51173133e-004 3.17057711e-005 6.34115422e-004 0. 3.17057711e-005
      1.90234627e-004 8.56055820e-004 3.17057711e-005 3.17057711e-005 0.
      3.17057711e-005 9.51173133e-005 6.34115422e-005 9.51173133e-005
      6.02409651e-004 8.24350049e-004 1.90234627e-004 0. 3.48763482e-004
      6.34115422e-005 6.34115422e-005 9.51173133e-005 5.07292338e-004
      7.29232735e-004 5.70703880e-004 6.34115422e-005 7.92644278e-004
      1.17311347e-003 3.17057711e-004 6.34115422e-004 3.42422328e-003
      1.13823712e-002 2.86620166e-002 1.01458468e-003 4.80976552e-002
      5.70703880e-004 4.43880796e-004 3.80469253e-004 1.28091313e-002
      7.60938507e-004 8.87761591e-004 6.34115422e-005 1.36334810e-003
      4.43880796e-004 6.65821193e-004 9.82878846e-004 5.73874451e-003
      1.07799622e-003 3.17057711e-004 9.51173133e-005 4.75586567e-004
      3.17057711e-005 0. 9.51173133e-005 9.51173133e-005 6.65821193e-004
      4.12175024e-004 0. 4.43880796e-004 2.85351940e-004 3.17057711e-004
      6.02409651e-004 1.83893472e-003 2.77425498e-002 4.97146472e-002
      1.01458468e-003 1.85161699e-002 4.75586567e-004 6.34115422e-004
      6.65821193e-004 5.80215594e-003 6.97526964e-004 1.74381735e-003
      6.34115422e-005 1.26823084e-003 4.43880796e-004 9.51173133e-004
      1.23652501e-003 6.11921353e-003 4.32149656e-002 1.23018390e-002
      1.49017118e-003 4.40710224e-003 5.38998109e-004 9.51173133e-005
      6.97526964e-004 1.55358273e-003 1.79137606e-002 5.16804075e-003
      4.75586567e-004 3.55104636e-003 7.54597317e-003 2.53646169e-003
