<?xml version="1.0"?>
<opencv_storage>
<opencv_ml_svm>
  <format>3</format>
  <svmType>C_SVC</svmType>
  <kernel>
    <type>RBF</type>
    <gamma>5.0625000000000009e-001</gamma></kernel>
  <C>3.1250000000000000e+002</C>
  <term_criteria><epsilon>1.1920928955078125e-007</epsilon>
    <iterations>1000</iterations></term_criteria>
  <var_count>256</var_count>
  <class_count>2</class_count>
  <class_labels type_id="opencv-matrix">
    <rows>2</rows>
    <cols>1</cols>
    <dt>i</dt>
    <data>
      -1082130432 1065353216</data></class_labels>
  <sv_total>43</sv_total>
  <support_vectors>
    <_>
      4.80342433e-002 8.05326551e-003 5.07292338e-003 1.10019026e-002
      5.77044999e-003 6.34115422e-004 9.48002562e-003 2.09575146e-002
      4.72415984e-003 5.07292338e-004 2.85351940e-004 6.02409651e-004
      8.81420448e-003 9.19467362e-004 2.08941028e-002 3.60177569e-002
      9.28979088e-003 2.85351940e-004 3.17057711e-004 6.02409651e-004
      6.34115422e-004 0. 6.65821193e-004 3.17057711e-004 1.10336086e-002
      3.17057711e-004 4.43880796e-004 4.12175024e-004 1.99746359e-002
      1.90234627e-004 3.36715281e-002 9.95561201e-003 8.02155957e-003
      6.02409651e-004 5.70703880e-004 8.56055820e-004 6.02409651e-004 0.
      8.24350049e-004 9.51173133e-004 7.92644278e-004 9.51173133e-005
      9.51173133e-005 9.51173133e-005 7.60938507e-004 3.17057711e-005
      1.14140776e-003 1.29993656e-003 1.46797718e-002 5.07292338e-004
      6.65821193e-004 5.38998109e-004 1.07799622e-003 0. 5.70703880e-004
      4.12175024e-004 2.99302470e-002 4.75586567e-004 8.56055820e-004
      6.02409651e-004 3.25935334e-002 1.90234627e-004 1.36017753e-002
      4.37539630e-003 8.75079259e-003 8.24350049e-004 6.97526964e-004
      9.19467362e-004 5.38998109e-004 3.17057711e-005 2.53646169e-004
      3.48763482e-004 4.75586567e-004 0. 3.17057711e-005 3.17057711e-005
      5.38998109e-004 3.17057711e-005 1.58528856e-004 2.21940398e-004
      6.34115422e-004 0. 6.34115422e-005 0. 0. 0. 0. 0. 8.56055820e-004
      0. 6.34115422e-005 0. 2.85351940e-004 0. 2.21940398e-004
      6.34115422e-005 1.39505388e-002 6.65821193e-004 7.60938507e-004
      5.70703880e-004 4.43880796e-004 3.17057711e-005 6.02409651e-004
      2.53646169e-004 6.65821193e-004 6.34115422e-005 3.17057711e-005
      9.51173133e-005 7.92644278e-004 6.34115422e-005 7.60938507e-004
      5.07292338e-004 2.93912496e-002 4.12175024e-004 1.04629039e-003
      5.07292338e-004 4.43880796e-004 3.17057711e-005 3.17057711e-004
      2.21940398e-004 4.98414710e-002 4.12175024e-004 1.14140776e-003
      2.53646169e-004 1.20164873e-002 3.17057711e-005 5.16804075e-003
      1.55358273e-003 6.84844656e-003 1.35383643e-002 6.34115422e-004
      2.98351292e-002 4.43880796e-004 6.97526964e-004 6.34115422e-004
      3.29422951e-002 8.24350049e-004 1.33164239e-003 3.17057711e-005
      7.29232735e-004 6.97526964e-004 8.56055820e-004 7.29232735e-004
      1.47748888e-002 5.70703880e-004 4.75586567e-004 9.51173133e-005
      5.07292338e-004 0. 0. 6.34115422e-005 2.85351940e-004
      8.87761591e-004 6.65821193e-004 3.17057711e-005 6.65821193e-004
      1.14140776e-003 5.07292338e-004 1.20481930e-003 4.59733652e-003
      5.38998109e-004 6.65821193e-004 6.34115422e-005 1.20481930e-003 0.
      0. 1.26823084e-004 1.36334810e-003 6.34115422e-005 3.17057711e-005
      0. 9.51173133e-005 6.34115422e-005 0. 3.17057711e-005
      5.70703880e-004 9.82878846e-004 6.97526964e-004 1.58528856e-004
      3.80469253e-004 3.17057711e-005 0. 3.17057711e-005 2.53646169e-004
      1.14140776e-003 8.56055820e-004 9.51173133e-005 9.82878846e-004
      1.29993656e-003 6.97526964e-004 7.92644278e-004 3.80469253e-003
      1.10336086e-002 2.57767905e-002 1.07799622e-003 4.92707677e-002
      5.38998109e-004 3.80469253e-004 6.97526964e-004 1.17628407e-002
      8.56055820e-004 7.92644278e-004 0. 1.33164239e-003 3.48763482e-004
      2.85351940e-004 6.65821193e-004 6.05580211e-003 1.10970193e-003
      3.17057711e-004 3.17057711e-005 2.53646169e-004 9.51173133e-005 0.
      0. 9.51173133e-005 7.92644278e-004 6.02409651e-004 3.17057711e-005
      4.12175024e-004 7.60938507e-004 2.21940398e-004 5.70703880e-004
      1.80722889e-003 2.62523778e-002 3.83322760e-002 7.92644278e-004
      1.75332911e-002 2.85351940e-004 2.85351940e-004 5.38998109e-004
      5.35827503e-003 9.82878846e-004 1.29993656e-003 0. 8.87761591e-004
      4.43880796e-004 7.60938507e-004 1.55358273e-003 6.21433090e-003
      4.32466716e-002 1.01458468e-002 1.39505393e-003 4.72415984e-003
      4.12175024e-004 6.34115422e-005 6.65821193e-004 1.55358273e-003
      2.01331638e-002 6.59480039e-003 9.82878846e-004 4.94610006e-003
      6.24603685e-003 1.77552318e-003 6.15091948e-003 1.03994925e-002</_>
    <_>
      4.17882055e-002 7.73620792e-003 3.93151538e-003 8.56055785e-003
      5.54850977e-003 4.75586567e-004 7.00697536e-003 1.88332275e-002
      4.62904247e-003 5.38998109e-004 3.48763482e-004 3.80469253e-004
      7.45085627e-003 5.38998109e-004 2.05770452e-002 3.98541540e-002
      7.64109055e-003 4.75586567e-004 5.07292338e-004 2.21940398e-004
      6.65821193e-004 3.17057711e-005 6.02409651e-004 2.53646169e-004
      9.00443923e-003 1.58528856e-004 4.43880796e-004 3.17057711e-004
      1.80088785e-002 1.90234627e-004 3.72859873e-002 8.08497146e-003
      7.10209273e-003 7.29232735e-004 8.56055820e-004 7.60938507e-004
      1.90234627e-004 3.17057711e-005 5.70703880e-004 6.34115422e-004
      5.38998109e-004 0. 0. 3.17057711e-005 6.65821193e-004
      3.17057711e-005 9.51173133e-004 9.82878846e-004 1.40456567e-002
      4.43880796e-004 4.43880796e-004 5.38998109e-004 7.60938507e-004
      6.34115422e-005 6.65821193e-004 2.53646169e-004 2.79644895e-002
      2.85351940e-004 5.70703880e-004 4.12175024e-004 3.35764103e-002
      2.85351940e-004 1.18579585e-002 4.43880772e-003 8.02155957e-003
      8.87761591e-004 3.17057711e-004 7.29232735e-004 4.75586567e-004
      3.17057711e-005 5.38998109e-004 3.48763482e-004 6.65821193e-004 0.
      6.34115422e-005 3.17057711e-005 3.48763482e-004 0. 1.90234627e-004
      1.90234627e-004 6.34115422e-004 0. 0. 0. 3.17057711e-005 0. 0. 0.
      7.29232735e-004 0. 3.17057711e-005 3.17057711e-005 2.85351940e-004
      0. 1.26823084e-004 3.17057711e-005 1.35700693e-002 7.60938507e-004
      8.87761591e-004 6.97526964e-004 6.02409651e-004 0. 5.07292338e-004
      1.26823084e-004 8.87761591e-004 0. 0. 3.17057711e-005
      4.12175024e-004 0. 5.70703880e-004 3.48763482e-004 3.27203535e-002
      3.17057711e-004 4.43880796e-004 6.34115422e-004 1.58528856e-004 0.
      1.90234627e-004 1.58528856e-004 4.87000644e-002 3.17057711e-004
      1.04629039e-003 2.53646169e-004 1.12238424e-002 3.17057711e-005
      4.72415984e-003 1.26823084e-003 6.24603685e-003 1.17945466e-002
      2.53646169e-004 2.96766013e-002 6.65821193e-004 7.29232735e-004
      6.97526964e-004 3.36715281e-002 6.02409651e-004 6.97526964e-004 0.
      1.04629039e-003 5.70703880e-004 4.75586567e-004 6.65821193e-004
      1.39188329e-002 4.43880796e-004 5.70703880e-004 3.17057711e-005
      3.80469253e-004 6.34115422e-005 0. 3.17057711e-005 4.12175024e-004
      6.65821193e-004 3.17057711e-004 0. 6.65821193e-004 7.29232735e-004
      4.75586567e-004 9.51173133e-004 3.70957516e-003 5.38998109e-004
      3.80469253e-004 9.51173133e-005 1.01458468e-003 0. 6.34115422e-005
      6.34115422e-005 7.60938507e-004 1.90234627e-004 6.34115422e-005 0.
      3.17057711e-005 3.17057711e-005 0. 6.34115422e-005 6.34115422e-004
      7.92644278e-004 3.48763482e-004 9.51173133e-005 7.60938507e-004 0.
      0. 0. 3.17057711e-004 9.51173133e-004 7.60938507e-004
      3.17057711e-005 7.60938507e-004 1.14140776e-003 2.53646169e-004
      8.24350049e-004 3.32910591e-003 1.16043119e-002 2.99302470e-002
      7.92644278e-004 4.98414710e-002 2.85351940e-004 4.43880796e-004
      6.34115422e-004 1.20798983e-002 7.92644278e-004 1.07799622e-003
      9.51173133e-005 1.20481930e-003 5.70703880e-004 6.97526964e-004
      5.07292338e-004 4.34369035e-003 6.65821193e-004 2.53646169e-004
      3.17057711e-005 1.90234627e-004 0. 0. 0. 9.51173133e-005
      9.19467362e-004 1.58528856e-004 9.51173133e-005 3.80469253e-004
      3.48763482e-004 6.34115422e-005 4.75586567e-004 1.07799622e-003
      3.36398222e-002 5.18389344e-002 9.19467362e-004 1.68357641e-002
      3.17057711e-004 1.58528856e-004 3.80469253e-004 6.05580211e-003
      6.02409651e-004 1.23652501e-003 6.34115422e-005 7.29232735e-004
      5.38998109e-004 4.75586567e-004 1.01458468e-003 5.04121743e-003
      6.00507297e-002 1.31261889e-002 1.33164239e-003 4.88268863e-003
      1.90234627e-004 9.51173133e-005 5.38998109e-004 1.52187701e-003
      2.21623331e-002 6.21433090e-003 4.75586567e-004 4.50221961e-003
      5.89727331e-003 1.45846547e-003 4.69245389e-003 8.78249854e-003</_>
    <_>
      6.21433109e-002 8.59226380e-003 5.61192119e-003 8.87761544e-003
      4.59733652e-003 6.02409651e-004 7.13379821e-003 1.50285354e-002
      5.42168692e-003 5.07292338e-004 3.80469253e-004 3.48763482e-004
      7.10209273e-003 5.38998109e-004 1.87381096e-002 3.39568816e-002
      9.09955613e-003 3.80469253e-004 4.43880796e-004 3.48763482e-004
      4.75586567e-004 0. 4.12175024e-004 1.90234627e-004 9.35320184e-003
      3.80469253e-004 5.38998109e-004 3.17057711e-004 1.45846540e-002
      2.53646169e-004 3.07863038e-002 7.00697536e-003 8.05326551e-003
      8.56055820e-004 7.60938507e-004 5.38998109e-004 4.12175024e-004 0.
      5.07292338e-004 8.24350049e-004 5.07292338e-004 1.26823084e-004
      3.17057711e-005 0. 6.65821193e-004 3.17057711e-005 6.34115422e-004
      8.24350049e-004 1.40773617e-002 4.75586567e-004 8.56055820e-004
      5.07292338e-004 6.97526964e-004 6.34115422e-005 6.34115422e-004
      1.58528856e-004 2.44451482e-002 2.21940398e-004 7.29232735e-004
      2.85351940e-004 2.91693080e-002 2.85351940e-004 1.22701330e-002
      2.56816740e-003 6.65821182e-003 7.29232735e-004 4.12175024e-004
      6.65821193e-004 1.26823084e-004 0. 2.85351940e-004 2.53646169e-004
      4.12175024e-004 0. 3.17057711e-005 0. 3.48763482e-004 0.
      3.48763482e-004 6.34115422e-005 5.38998109e-004 0. 0. 0.
      3.17057711e-005 0. 0. 0. 4.43880796e-004 0. 3.17057711e-005 0.
      2.21940398e-004 0. 2.85351940e-004 6.34115422e-005 1.49017125e-002
      1.07799622e-003 8.56055820e-004 5.70703880e-004 2.85351940e-004 0.
      3.80469253e-004 3.17057711e-004 6.65821193e-004 3.17057711e-005 0.
      3.17057711e-005 6.02409651e-004 0. 4.43880796e-004 3.17057711e-004
      3.14838290e-002 3.17057711e-004 6.34115422e-004 3.48763482e-004
      1.26823084e-004 0. 5.38998109e-004 1.26823084e-004 3.94419767e-002
      1.26823084e-004 7.29232735e-004 2.53646169e-004 1.05897272e-002 0.
      3.67786945e-003 7.29232735e-004 7.32403295e-003 1.26506025e-002
      6.34115422e-004 2.66962592e-002 5.07292338e-004 5.70703880e-004
      6.97526964e-004 3.26569453e-002 7.29232735e-004 6.65821193e-004
      6.34115422e-005 5.38998109e-004 5.07292338e-004 4.43880796e-004
      7.60938507e-004 1.09067848e-002 6.34115422e-004 4.43880796e-004
      3.17057711e-005 3.80469253e-004 3.17057711e-005 0. 6.34115422e-005
      2.21940398e-004 1.26823084e-003 6.34115422e-004 3.17057711e-005
      2.53646169e-004 4.12175024e-004 9.51173133e-005 6.02409651e-004
      3.70957516e-003 7.60938507e-004 4.12175024e-004 3.17057711e-005
      1.04629039e-003 1.26823084e-004 3.17057711e-005 1.58528856e-004
      6.02409651e-004 9.51173133e-005 6.34115422e-005 0. 0.
      3.17057711e-005 9.51173133e-005 3.17057711e-005 5.38998109e-004
      8.87761591e-004 5.38998109e-004 0. 4.75586567e-004 0.
      3.17057711e-005 9.51173133e-005 1.58528856e-004 9.82878846e-004
      4.43880796e-004 0. 6.02409651e-004 5.07292338e-004 3.17057711e-004
      6.65821193e-004 2.59987311e-003 1.38554219e-002 3.14521231e-002
      5.07292338e-004 4.27710861e-002 2.85351940e-004 2.53646169e-004
      3.17057711e-004 1.18896635e-002 6.97526964e-004 5.38998109e-004
      3.17057711e-005 5.70703880e-004 7.60938507e-004 4.75586567e-004
      5.07292338e-004 3.99492728e-003 9.19467362e-004 3.80469253e-004
      6.34115422e-005 3.48763482e-004 0. 0. 3.17057711e-005 0.
      8.87761591e-004 4.43880796e-004 0. 2.21940398e-004 3.48763482e-004
      1.58528856e-004 2.21940398e-004 8.24350049e-004 4.47685495e-002
      6.18579574e-002 1.33164239e-003 2.06087511e-002 4.43880796e-004
      2.21940398e-004 7.92644278e-004 4.97780601e-003 1.14140776e-003
      1.20481930e-003 1.26823084e-004 9.51173133e-004 4.43880796e-004
      5.70703880e-004 1.29993656e-003 4.72415984e-003 7.41597936e-002
      1.45846540e-002 1.07799622e-003 4.40710224e-003 2.85351940e-004
      9.51173133e-005 4.75586567e-004 1.10970193e-003 2.07038689e-002
      4.88268863e-003 5.07292338e-004 3.23398854e-003 5.45339240e-003
      1.45846547e-003 5.16804075e-003 7.73620792e-003</_>
    <_>
      2.45180726e-001 1.31896008e-002 2.02282816e-002 1.36968931e-002
      1.04946103e-002 6.02409651e-004 1.46480659e-002 1.25871906e-002
      2.01965757e-002 1.04629039e-003 1.96575769e-003 1.20481930e-003
      1.46797718e-002 1.01458468e-003 1.88649334e-002 1.02092577e-002
      1.42041855e-002 6.34115422e-004 1.04629039e-003 6.34115422e-004
      6.65821193e-004 0. 1.04629039e-003 1.90234627e-004 1.45846540e-002
      4.43880796e-004 8.87761591e-004 4.12175024e-004 1.06531391e-002
      1.90234627e-004 1.08750788e-002 2.82181357e-003 2.23525688e-002
      1.20481930e-003 2.63157906e-003 1.14140776e-003 7.60938507e-004
      9.51173133e-005 1.33164239e-003 6.02409651e-004 1.90234627e-003
      6.34115422e-005 3.48763482e-004 1.58528856e-004 1.36334810e-003 0.
      1.26823084e-003 6.65821193e-004 1.53772989e-002 4.43880796e-004
      8.24350049e-004 3.80469253e-004 7.29232735e-004 0. 1.20481930e-003
      5.07292338e-004 2.17818636e-002 3.48763482e-004 7.92644278e-004
      4.43880796e-004 2.22257450e-002 1.90234627e-004 8.33861809e-003
      1.96575769e-003 1.12238424e-002 4.43880796e-004 5.07292338e-004
      8.24350049e-004 2.85351940e-004 3.17057711e-005 2.21940398e-004
      3.48763482e-004 9.19467362e-004 3.17057711e-005 1.26823084e-004
      9.51173133e-005 3.80469253e-004 6.34115422e-005 3.80469253e-004
      2.21940398e-004 6.65821193e-004 0. 6.34115422e-005 6.34115422e-005
      0. 3.17057711e-005 3.17057711e-005 0. 6.97526964e-004
      3.17057711e-005 9.51173133e-005 0. 6.34115422e-005 0.
      2.21940398e-004 1.26823084e-004 1.73747614e-002 9.19467362e-004
      1.42675964e-003 6.65821193e-004 5.07292338e-004 6.34115422e-005
      6.34115422e-004 2.21940398e-004 1.17311347e-003 9.51173133e-005
      1.58528856e-004 1.26823084e-004 6.97526964e-004 3.17057711e-005
      8.87761591e-004 5.38998109e-004 1.47431828e-002 2.85351940e-004
      9.19467362e-004 2.85351940e-004 2.53646169e-004 0. 2.21940398e-004
      6.34115422e-005 1.33481296e-002 1.58528856e-004 6.65821193e-004
      3.80469253e-004 3.80469253e-003 3.17057711e-005 2.82181357e-003
      9.19467362e-004 2.02916935e-002 1.38871279e-002 1.74381735e-003
      2.03233995e-002 6.02409651e-004 7.60938507e-004 1.07799622e-003
      2.27647424e-002 2.28281552e-003 1.58528856e-003 3.17057711e-004
      1.01458468e-003 1.74381735e-003 1.01458468e-003 1.49017118e-003
      8.59226380e-003 1.26823084e-003 4.12175024e-004 9.51173133e-005
      3.80469253e-004 6.34115422e-005 3.17057711e-005 3.17057711e-005
      1.58528856e-004 7.60938507e-004 4.75586567e-004 2.53646169e-004
      5.70703880e-004 6.02409651e-004 2.21940398e-004 9.19467362e-004
      2.72669620e-003 2.40963860e-003 9.82878846e-004 1.26823084e-004
      1.36334810e-003 1.58528856e-004 9.51173133e-005 2.21940398e-004
      1.14140776e-003 1.90234627e-004 6.34115422e-005 6.34115422e-005
      2.21940398e-004 1.90234627e-004 1.90234627e-004 3.17057711e-004
      9.82878846e-004 1.20481930e-003 8.24350049e-004 9.51173133e-005
      8.87761591e-004 3.17057711e-005 3.17057711e-005 6.34115422e-005
      2.21940398e-004 9.51173133e-004 5.07292338e-004 3.17057711e-005
      6.34115422e-004 6.65821193e-004 4.43880796e-004 1.10970193e-003
      2.85351928e-003 1.52504751e-002 1.26823084e-002 1.39505393e-003
      1.18579585e-002 2.53646169e-004 1.58528856e-004 6.34115422e-004
      3.04375403e-003 1.33164239e-003 6.34115422e-004 1.90234627e-004
      6.65821193e-004 4.75586567e-004 4.75586567e-004 7.92644278e-004
      2.63157906e-003 9.19467362e-004 3.48763482e-004 1.26823084e-004
      5.07292338e-004 3.17057711e-005 3.17057711e-005 3.17057711e-005
      6.34115422e-005 7.92644278e-004 1.58528856e-004 9.51173133e-005
      1.90234627e-004 3.80469253e-004 3.17057711e-005 6.65821193e-004
      5.38998109e-004 3.88395675e-002 2.50158533e-002 1.52187701e-003
      8.90932139e-003 7.60938507e-004 3.48763482e-004 1.23652501e-003
      2.98034237e-003 1.93405198e-003 7.29232735e-004 3.17057711e-004
      1.07799622e-003 1.10970193e-003 3.80469253e-004 1.26823084e-003
      5.32656955e-003 2.66962592e-002 5.73874451e-003 9.19467362e-004
      2.50475598e-003 3.17057711e-004 1.26823084e-004 6.34115422e-004
      4.43880796e-004 1.00824349e-002 2.79010786e-003 1.20481930e-003
      3.74128087e-003 2.98034237e-003 6.34115422e-004 4.72415984e-003
      6.40456565e-003</_>
    <_>
      5.16804047e-002 8.24350026e-003 6.21433090e-003 1.37285991e-002
      6.72162324e-003 5.07292338e-004 1.08750788e-002 2.28281543e-002
      5.80215594e-003 7.92644278e-004 3.48763482e-004 6.97526964e-004
      9.98731796e-003 1.07799622e-003 2.58402023e-002 3.88395675e-002
      8.21179431e-003 3.80469253e-004 3.80469253e-004 4.12175024e-004
      6.34115422e-004 0. 6.65821193e-004 2.85351940e-004 1.32213067e-002
      5.07292338e-004 5.07292338e-004 3.17057711e-004 2.29549780e-002
      3.48763482e-004 3.93785685e-002 1.07482560e-002 7.03868084e-003
      5.38998109e-004 6.34115422e-004 6.65821193e-004 7.60938507e-004 0.
      5.38998109e-004 8.56055820e-004 7.92644278e-004 0. 6.34115422e-005
      0. 7.29232735e-004 0. 8.24350049e-004 1.39505393e-003
      1.46163600e-002 2.53646169e-004 7.92644278e-004 4.43880796e-004
      1.23652501e-003 0. 5.38998109e-004 1.58528856e-004 3.06911860e-002
      3.48763482e-004 7.29232735e-004 6.02409651e-004 3.03107165e-002
      1.26823084e-004 1.55041218e-002 4.21686750e-003 7.95814861e-003
      6.02409651e-004 5.38998109e-004 9.82878846e-004 3.80469253e-004 0.
      4.12175024e-004 5.07292338e-004 4.75586567e-004 6.34115422e-005 0.
      3.17057711e-005 4.43880796e-004 0. 4.75586567e-004 3.48763482e-004
      5.70703880e-004 0. 6.34115422e-005 0. 3.17057711e-005 0. 0. 0.
      5.70703880e-004 0. 3.17057711e-005 3.17057711e-005 4.12175024e-004
      0. 3.48763482e-004 3.17057711e-005 1.31578948e-002 6.65821193e-004
      6.97526964e-004 9.19467362e-004 3.80469253e-004 0. 3.48763482e-004
      3.80469253e-004 7.92644278e-004 6.34115422e-005 9.51173133e-005
      3.17057711e-005 6.65821193e-004 0. 8.87761591e-004 4.12175024e-004
      2.78693717e-002 3.48763482e-004 7.29232735e-004 2.85351940e-004
      6.34115422e-004 0. 3.48763482e-004 9.51173133e-005 4.44197841e-002
      3.80469253e-004 8.24350049e-004 3.17057711e-004 1.04946103e-002
      6.34115422e-005 5.89727331e-003 1.71211164e-003 5.73874451e-003
      1.32213067e-002 6.97526964e-004 2.87254285e-002 4.12175024e-004
      1.10970193e-003 9.19467362e-004 3.62714007e-002 6.97526964e-004
      6.02409651e-004 9.51173133e-005 8.87761591e-004 8.87761591e-004
      7.92644278e-004 1.04629039e-003 1.51870642e-002 7.29232735e-004
      6.65821193e-004 1.26823084e-004 5.07292338e-004 3.17057711e-005
      3.17057711e-005 6.34115422e-005 4.75586567e-004 6.34115422e-004
      6.97526964e-004 3.17057711e-005 7.29232735e-004 6.02409651e-004
      3.48763482e-004 1.23652501e-003 4.85098269e-003 3.48763482e-004
      4.12175024e-004 2.21940398e-004 1.26823084e-003 3.17057711e-005
      3.17057711e-005 0. 7.92644278e-004 0. 6.34115422e-005 0.
      3.17057711e-005 1.90234627e-004 0. 9.51173133e-005 9.51173133e-004
      8.24350049e-004 4.12175024e-004 3.17057711e-005 6.97526964e-004
      9.51173133e-005 0. 0. 4.12175024e-004 1.20481930e-003
      8.87761591e-004 1.90234627e-004 7.60938507e-004 1.23652501e-003
      4.75586567e-004 8.24350049e-004 3.93151538e-003 1.13189602e-002
      2.46670898e-002 9.82878846e-004 4.05199751e-002 4.12175024e-004
      2.53646169e-004 5.70703880e-004 1.24920737e-002 9.51173133e-004
      6.65821193e-004 3.17057711e-005 1.23652501e-003 6.02409651e-004
      5.07292338e-004 5.70703880e-004 6.43627159e-003 9.51173133e-004
      5.70703880e-004 3.17057711e-005 9.51173133e-005 3.17057711e-005 0.
      0. 9.51173133e-005 9.19467362e-004 4.43880796e-004 0.
      4.43880796e-004 3.48763482e-004 2.53646169e-004 4.12175024e-004
      1.99746364e-003 2.34939754e-002 3.42105255e-002 8.24350049e-004
      1.80088785e-002 4.75586567e-004 3.48763482e-004 5.70703880e-004
      5.10462886e-003 9.19467362e-004 1.29993656e-003 3.17057711e-005
      9.82878846e-004 6.65821193e-004 4.75586567e-004 9.19467362e-004
      4.94610006e-003 4.02663276e-002 1.02409637e-002 1.20481930e-003
      5.42168692e-003 2.85351940e-004 9.51173133e-005 6.34115422e-004
      1.36334810e-003 2.01648697e-002 6.21433090e-003 6.97526964e-004
      4.31198487e-003 5.80215594e-003 1.58528856e-003 5.45339240e-003
      1.09067848e-002</_>
    <_>
      5.34242243e-002 8.24350026e-003 6.68991776e-003 1.34115405e-002
      6.53138850e-003 3.80469253e-004 1.30944829e-002 2.47305017e-002
      6.65821182e-003 6.65821193e-004 7.29232735e-004 7.29232735e-004
      1.18579585e-002 5.38998109e-004 3.45275849e-002 4.93024737e-002
      9.51173156e-003 4.12175024e-004 7.60938507e-004 2.85351940e-004
      7.92644278e-004 0. 9.51173133e-004 4.43880796e-004 1.25871906e-002
      3.80469253e-004 8.87761591e-004 2.85351940e-004 2.31452119e-002
      3.48763482e-004 5.26949912e-002 1.29676601e-002 7.19721010e-003
      4.43880796e-004 7.29232735e-004 8.24350049e-004 6.34115422e-004
      3.17057711e-005 6.34115422e-004 8.87761591e-004 2.53646169e-004
      3.17057711e-005 3.17057711e-005 0. 1.01458468e-003 9.51173133e-005
      1.20481930e-003 1.17311347e-003 1.49017125e-002 2.53646169e-004
      6.97526964e-004 6.34115422e-004 7.60938507e-004 0. 5.38998109e-004
      3.17057711e-004 2.56816745e-002 3.80469253e-004 7.92644278e-004
      6.65821193e-004 2.54280288e-002 2.53646169e-004 1.50285354e-002
      5.10462886e-003 6.78503467e-003 9.19467362e-004 6.02409651e-004
      1.04629039e-003 2.53646169e-004 0. 4.12175024e-004 3.48763482e-004
      5.38998109e-004 0. 9.51173133e-005 3.17057711e-005 1.58528856e-004
      6.34115422e-005 2.21940398e-004 2.85351940e-004 6.65821193e-004 0.
      6.34115422e-005 0. 3.17057711e-005 0. 3.17057711e-005
      3.17057711e-005 5.07292338e-004 0. 6.34115422e-005 0.
      2.85351940e-004 0. 2.53646169e-004 9.51173133e-005 1.15726059e-002
      7.92644278e-004 5.38998109e-004 9.82878846e-004 3.80469253e-004 0.
      7.29232735e-004 4.12175024e-004 8.24350049e-004 6.34115422e-005 0.
      0. 3.17057711e-004 0. 5.07292338e-004 5.07292338e-004
      2.48256177e-002 2.21940398e-004 6.97526964e-004 4.12175024e-004
      3.17057711e-004 0. 2.85351940e-004 0. 3.81103344e-002
      1.90234627e-004 1.14140776e-003 3.17057711e-004 1.01775527e-002
      6.34115422e-005 6.34115422e-003 1.14140776e-003 6.49968302e-003
      1.34432465e-002 6.97526964e-004 2.43183263e-002 5.70703880e-004
      5.38998109e-004 6.65821193e-004 3.34178805e-002 7.60938507e-004
      8.56055820e-004 9.51173133e-005 8.87761591e-004 1.04629039e-003
      6.34115422e-004 9.51173133e-004 1.70894098e-002 6.97526964e-004
      3.17057711e-004 0. 3.80469253e-004 0. 0. 1.26823084e-004
      1.58528856e-004 1.04629039e-003 7.29232735e-004 3.17057711e-005
      5.07292338e-004 7.92644278e-004 2.85351940e-004 1.36334810e-003
      5.42168692e-003 5.70703880e-004 6.34115422e-004 3.17057711e-005
      9.19467362e-004 6.34115422e-005 3.17057711e-005 3.17057711e-005
      1.07799622e-003 0. 0. 0. 6.34115422e-005 3.17057711e-005
      3.17057711e-005 0. 5.38998109e-004 7.92644278e-004 3.80469253e-004
      6.34115422e-005 6.02409651e-004 0. 0. 6.34115422e-005
      3.17057711e-004 8.24350049e-004 5.38998109e-004 9.51173133e-005
      4.75586567e-004 1.36334810e-003 2.21940398e-004 9.51173133e-004
      3.45592899e-003 9.79708321e-003 2.26379205e-002 9.82878846e-004
      3.50982882e-002 2.21940398e-004 2.85351940e-004 4.75586567e-004
      1.05263162e-002 6.65821193e-004 1.55358273e-003 0. 1.17311347e-003
      8.87761591e-004 3.80469253e-004 4.43880796e-004 5.86556736e-003
      6.34115422e-004 4.12175024e-004 0. 1.58528856e-004 6.34115422e-005
      3.17057711e-005 6.34115422e-005 3.17057711e-005 6.65821193e-004
      5.07292338e-004 1.26823084e-004 2.85351940e-004 4.12175024e-004
      2.85351940e-004 3.17057711e-004 1.36334810e-003 2.56499685e-002
      3.61445770e-002 9.19467362e-004 1.62016489e-002 3.80469253e-004
      2.53646169e-004 7.29232735e-004 4.88268863e-003 1.01458468e-003
      1.07799622e-003 3.17057711e-005 9.19467362e-004 5.38998109e-004
      5.07292338e-004 1.26823084e-003 5.77044999e-003 4.35320213e-002
      1.03360815e-002 8.24350049e-004 4.34369035e-003 4.75586567e-004
      6.34115422e-005 4.43880796e-004 1.14140776e-003 1.74064673e-002
      5.35827503e-003 6.34115422e-004 3.58275208e-003 5.45339240e-003
      1.10970193e-003 4.97780601e-003 8.90932139e-003</_>
    <_>
      4.49270755e-002 7.51426769e-003 4.94610006e-003 1.10019026e-002
      5.19974623e-003 5.70703880e-004 7.73620792e-003 1.86429936e-002
      4.62904247e-003 5.07292338e-004 1.26823084e-004 5.07292338e-004
      7.57767912e-003 5.70703880e-004 2.08623968e-002 3.93468626e-002
      7.73620792e-003 2.53646169e-004 5.70703880e-004 2.53646169e-004
      4.43880796e-004 0. 1.01458468e-003 1.90234627e-004 1.03677865e-002
      6.34115422e-005 3.17057711e-004 2.21940398e-004 1.65821183e-002
      3.17057711e-004 3.70640457e-002 8.43373500e-003 7.13379821e-003
      6.97526964e-004 7.29232735e-004 8.56055820e-004 5.70703880e-004
      3.17057711e-005 5.38998109e-004 8.87761591e-004 2.85351940e-004
      6.34115422e-005 0. 3.17057711e-005 5.07292338e-004 0.
      1.17311347e-003 1.07799622e-003 1.36017753e-002 3.48763482e-004
      8.56055820e-004 5.07292338e-004 6.97526964e-004 0. 5.38998109e-004
      1.26823084e-004 2.70767286e-002 4.75586567e-004 6.65821193e-004
      4.75586567e-004 3.18643004e-002 1.58528856e-004 1.23335449e-002
      3.64616350e-003 8.81420448e-003 1.04629039e-003 5.70703880e-004
      7.29232735e-004 4.12175024e-004 0. 1.58528856e-004 3.17057711e-004
      3.17057711e-004 6.34115422e-005 6.34115422e-005 0. 3.48763482e-004
      3.17057711e-005 1.90234627e-004 1.26823084e-004 6.97526964e-004
      3.17057711e-005 0. 3.17057711e-005 0. 0. 0. 0. 8.56055820e-004
      3.17057711e-005 3.17057711e-005 0. 1.58528856e-004 0.
      2.21940398e-004 0. 1.40773617e-002 9.51173133e-004 9.51173133e-004
      8.56055820e-004 4.75586567e-004 3.17057711e-005 7.60938507e-004
      3.48763482e-004 7.92644278e-004 9.51173133e-005 6.34115422e-005 0.
      4.43880796e-004 3.17057711e-005 6.34115422e-004 2.53646169e-004
      2.95497775e-002 3.17057711e-004 9.51173133e-004 3.17057711e-004
      3.17057711e-004 0. 3.48763482e-004 1.26823084e-004 4.61318977e-002
      2.85351940e-004 6.97526964e-004 2.85351940e-004 9.86049417e-003
      6.34115422e-005 5.26315812e-003 1.20481930e-003 6.68991776e-003
      1.31578948e-002 5.70703880e-004 3.32593545e-002 4.75586567e-004
      6.97526964e-004 6.34115422e-004 3.46227027e-002 3.80469253e-004
      5.38998109e-004 3.17057711e-005 8.87761591e-004 6.97526964e-004
      7.92644278e-004 7.60938507e-004 1.39188329e-002 9.82878846e-004
      6.34115422e-004 6.34115422e-005 4.12175024e-004 3.17057711e-005
      3.17057711e-005 1.26823084e-004 4.75586567e-004 6.65821193e-004
      4.75586567e-004 3.17057711e-005 5.07292338e-004 1.01458468e-003
      2.85351940e-004 9.82878846e-004 4.72415984e-003 5.07292338e-004
      3.48763482e-004 6.34115422e-005 1.29993656e-003 6.34115422e-005
      6.34115422e-005 1.58528856e-004 1.01458468e-003 0. 6.34115422e-005
      0. 1.26823084e-004 9.51173133e-005 3.17057711e-005 9.51173133e-005
      8.87761591e-004 3.80469253e-004 4.12175024e-004 6.34115422e-005
      9.82878846e-004 6.34115422e-005 3.17057711e-005 6.34115422e-005
      3.17057711e-004 1.10970193e-003 7.29232735e-004 9.51173133e-005
      8.56055820e-004 1.23652501e-003 4.43880796e-004 5.38998109e-004
      3.01204808e-003 1.18896635e-002 2.96766013e-002 6.97526964e-004
      5.46607487e-002 4.75586567e-004 3.48763482e-004 5.07292338e-004
      1.42358905e-002 7.29232735e-004 1.01458468e-003 0. 1.20481930e-003
      4.43880796e-004 4.12175024e-004 4.12175024e-004 5.96068474e-003
      9.51173133e-004 4.75586567e-004 0. 3.48763482e-004 0. 0.
      3.17057711e-005 9.51173133e-005 7.29232735e-004 3.80469253e-004
      3.17057711e-005 6.65821193e-004 3.48763482e-004 1.58528856e-004
      3.80469253e-004 1.10970193e-003 2.77108438e-002 4.67026010e-002
      6.02409651e-004 1.84527580e-002 5.07292338e-004 1.58528856e-004
      6.65821193e-004 5.67533309e-003 1.20481930e-003 1.74381735e-003 0.
      9.51173133e-004 5.70703880e-004 8.56055820e-004 1.26823084e-003
      5.32656955e-003 5.02536446e-002 1.21433102e-002 1.58528856e-003
      5.42168692e-003 3.48763482e-004 3.17057711e-005 5.07292338e-004
      1.61699427e-003 1.92771088e-002 6.05580211e-003 6.02409651e-004
      5.19974623e-003 5.61192119e-003 1.80722889e-003 6.21433090e-003
      9.63855442e-003</_>
    <_>
      4.81610671e-002 9.06785019e-003 6.43627159e-003 1.37920100e-002
      6.02409616e-003 4.75586567e-004 1.03043756e-002 2.29232721e-002
      5.13633480e-003 8.56055820e-004 4.12175024e-004 5.38998109e-004
      8.65567569e-003 8.56055820e-004 2.29549780e-002 3.68738100e-002
      8.81420448e-003 2.21940398e-004 7.60938507e-004 4.12175024e-004
      9.51173133e-004 0. 5.70703880e-004 2.85351940e-004 1.04629043e-002
      4.75586567e-004 3.17057711e-004 5.70703880e-004 2.00697519e-002
      5.07292338e-004 3.35447043e-002 9.76537727e-003 7.64109055e-003
      6.97526964e-004 6.34115422e-004 6.34115422e-004 7.92644278e-004
      6.34115422e-005 9.19467362e-004 7.29232735e-004 4.43880796e-004
      6.34115422e-005 0. 9.51173133e-005 8.87761591e-004 6.34115422e-005
      7.92644278e-004 1.33164239e-003 1.46480659e-002 4.12175024e-004
      7.29232735e-004 4.75586567e-004 7.29232735e-004 3.17057711e-005
      7.92644278e-004 3.80469253e-004 2.78376658e-002 4.12175024e-004
      7.60938507e-004 5.07292338e-004 2.84083709e-002 2.85351940e-004
      1.45212431e-002 3.67786945e-003 8.24350026e-003 6.65821193e-004
      6.97526964e-004 8.56055820e-004 5.38998109e-004 0. 5.07292338e-004
      2.53646169e-004 4.75586567e-004 6.34115422e-005 3.17057711e-005
      3.17057711e-005 4.12175024e-004 0. 3.48763482e-004 2.21940398e-004
      6.65821193e-004 0. 0. 0. 6.34115422e-005 0. 0. 0. 4.12175024e-004
      0. 3.17057711e-005 3.17057711e-005 2.85351940e-004 0.
      1.90234627e-004 6.34115422e-005 1.37603041e-002 5.07292338e-004
      7.29232735e-004 6.34115422e-004 3.17057711e-004 0. 4.75586567e-004
      4.75586567e-004 7.29232735e-004 6.34115422e-005 9.51173133e-005
      6.34115422e-005 4.75586567e-004 6.34115422e-005 7.60938507e-004
      5.38998109e-004 2.65060235e-002 3.48763482e-004 1.04629039e-003
      4.43880796e-004 3.80469253e-004 0. 5.38998109e-004 1.26823084e-004
      4.49587815e-002 2.53646169e-004 1.04629039e-003 3.48763482e-004
      1.04311984e-002 9.51173133e-005 5.35827503e-003 1.23652501e-003
      6.78503467e-003 1.35700693e-002 6.97526964e-004 3.51299942e-002
      4.43880796e-004 5.70703880e-004 7.60938507e-004 3.74128073e-002
      6.02409651e-004 6.02409651e-004 0. 9.51173133e-004 6.97526964e-004
      8.56055820e-004 7.29232735e-004 1.65504124e-002 6.34115422e-004
      4.43880796e-004 3.17057711e-005 7.92644278e-004 9.51173133e-005 0.
      3.17057711e-005 9.51173133e-005 8.24350049e-004 5.07292338e-004
      3.17057711e-005 4.75586567e-004 1.07799622e-003 3.80469253e-004
      1.49017118e-003 5.61192119e-003 2.85351940e-004 5.70703880e-004
      6.34115422e-005 1.17311347e-003 0. 3.17057711e-005 3.17057711e-005
      1.36334810e-003 6.34115422e-005 6.34115422e-005 0. 3.17057711e-005
      3.17057711e-005 3.17057711e-005 3.17057711e-005 5.07292338e-004
      4.43880796e-004 5.38998109e-004 9.51173133e-005 6.65821193e-004
      9.51173133e-005 0. 3.17057711e-005 5.07292338e-004 1.04629039e-003
      6.02409651e-004 9.51173133e-005 9.19467362e-004 1.04629039e-003
      4.75586567e-004 7.92644278e-004 4.05833870e-003 1.20798983e-002
      2.71718446e-002 9.19467362e-004 5.20608760e-002 2.85351940e-004
      4.43880796e-004 3.80469253e-004 1.26823084e-002 6.65821193e-004
      1.17311347e-003 0. 9.82878846e-004 6.65821193e-004 5.38998109e-004
      6.02409651e-004 6.49968302e-003 1.29993656e-003 4.43880796e-004
      1.26823084e-004 1.26823084e-004 3.17057711e-005 0. 3.17057711e-005
      6.34115422e-005 6.97526964e-004 4.75586567e-004 9.51173133e-005
      4.75586567e-004 5.07292338e-004 2.53646169e-004 5.38998109e-004
      1.52187701e-003 2.25745086e-002 3.67469862e-002 9.19467362e-004
      1.70577038e-002 3.17057711e-004 3.48763482e-004 6.34115422e-004
      6.37285970e-003 9.19467362e-004 1.52187701e-003 6.34115422e-005
      1.07799622e-003 5.38998109e-004 5.70703880e-004 1.42675964e-003
      5.61192119e-003 3.99809778e-002 1.02092577e-002 1.33164239e-003
      5.38998097e-003 1.90234627e-004 3.17057711e-005 4.75586567e-004
      1.33164239e-003 1.82308182e-002 5.92897926e-003 7.92644278e-004
      5.04121743e-003 7.54597317e-003 1.80722889e-003 5.92897926e-003
      1.11604314e-002</_>
    <_>
      4.68928330e-002 8.90932139e-003 5.32656955e-003 1.11287255e-002
      6.08750805e-003 4.43880796e-004 9.63855442e-003 2.18452755e-002
      4.50221961e-003 3.48763482e-004 3.17057711e-004 7.60938507e-004
      7.89473671e-003 7.29232735e-004 2.09575146e-002 3.69055159e-002
      8.65567569e-003 3.17057711e-004 6.34115422e-004 4.75586567e-004
      6.34115422e-004 3.17057711e-005 8.24350049e-004 1.90234627e-004
      9.16296802e-003 2.21940398e-004 6.02409651e-004 2.85351940e-004
      1.82942301e-002 3.48763482e-004 3.52251120e-002 8.90932139e-003
      6.59480039e-003 6.97526964e-004 7.60938507e-004 6.65821193e-004
      9.51173133e-004 6.34115422e-005 6.02409651e-004 8.56055820e-004
      4.75586567e-004 9.51173133e-005 3.17057711e-005 0. 3.17057711e-004
      3.17057711e-005 5.38998109e-004 1.20481930e-003 1.25237796e-002
      4.43880796e-004 9.82878846e-004 5.07292338e-004 6.02409651e-004 0.
      8.24350049e-004 4.43880796e-004 2.58402023e-002 3.80469253e-004
      6.02409651e-004 5.38998109e-004 2.88839564e-002 1.26823084e-004
      1.22384271e-002 3.74128087e-003 8.02155957e-003 7.92644278e-004
      7.29232735e-004 9.19467362e-004 4.43880796e-004 3.17057711e-005
      4.12175024e-004 2.85351940e-004 5.07292338e-004 3.17057711e-005 0.
      0. 3.17057711e-004 6.34115422e-005 4.43880796e-004 3.17057711e-004
      6.34115422e-004 3.17057711e-005 0. 3.17057711e-005 0. 0. 0. 0.
      6.02409651e-004 3.17057711e-005 3.17057711e-005 3.17057711e-005
      2.21940398e-004 0. 2.21940398e-004 6.34115422e-005 1.27140144e-002
      9.51173133e-004 7.60938507e-004 8.56055820e-004 3.48763482e-004
      6.34115422e-005 4.12175024e-004 4.12175024e-004 5.38998109e-004
      9.51173133e-005 3.17057711e-005 0. 4.12175024e-004 3.17057711e-005
      4.12175024e-004 6.97526964e-004 2.84083709e-002 4.75586567e-004
      9.51173133e-004 3.48763482e-004 4.12175024e-004 0. 8.24350049e-004
      1.90234627e-004 4.40710224e-002 1.90234627e-004 8.56055820e-004
      4.43880796e-004 9.86049417e-003 1.90234627e-004 5.29486360e-003
      1.29993656e-003 7.19721010e-003 1.44895371e-002 7.60938507e-004
      3.64299305e-002 6.02409651e-004 5.07292338e-004 8.87761591e-004
      3.83322760e-002 5.70703880e-004 7.92644278e-004 6.34115422e-005
      9.51173133e-004 7.60938507e-004 8.24350049e-004 1.39505393e-003
      1.51870642e-002 5.70703880e-004 5.07292338e-004 3.17057711e-005
      5.07292338e-004 6.34115422e-005 0. 9.51173133e-005 6.02409651e-004
      7.60938507e-004 6.65821193e-004 0. 6.65821193e-004 9.51173133e-004
      3.48763482e-004 1.49017118e-003 4.34369035e-003 5.07292338e-004
      6.65821193e-004 0. 1.17311347e-003 3.17057711e-005 3.17057711e-005
      9.51173133e-005 1.17311347e-003 3.17057711e-005 3.17057711e-005 0.
      1.26823084e-004 9.51173133e-005 9.51173133e-005 6.34115422e-005
      9.51173133e-004 6.65821193e-004 4.43880796e-004 6.34115422e-005
      7.92644278e-004 3.17057711e-005 3.17057711e-005 1.26823084e-004
      4.12175024e-004 1.49017118e-003 7.60938507e-004 9.51173133e-005
      1.04629039e-003 1.14140776e-003 2.53646169e-004 8.24350049e-004
      3.51934042e-003 1.33164236e-002 2.97717191e-002 5.70703880e-004
      5.64996824e-002 4.43880796e-004 3.48763482e-004 6.65821193e-004
      1.51870642e-002 6.34115422e-004 1.01458468e-003 3.17057711e-005
      1.23652501e-003 6.02409651e-004 5.70703880e-004 4.12175024e-004
      6.78503467e-003 8.56055820e-004 4.75586567e-004 6.34115422e-005
      4.43880796e-004 3.17057711e-005 0. 3.17057711e-005 3.17057711e-005
      5.07292338e-004 5.07292338e-004 0. 4.75586567e-004 4.12175024e-004
      1.58528856e-004 6.65821193e-004 1.83893472e-003 2.32403297e-002
      4.35637273e-002 1.14140776e-003 1.88649334e-002 2.53646169e-004
      2.85351940e-004 5.07292338e-004 5.64362714e-003 8.56055820e-004
      1.42675964e-003 3.17057711e-005 9.82878846e-004 6.34115422e-004
      6.34115422e-004 1.14140776e-003 5.80215594e-003 4.02029157e-002
      1.02092577e-002 1.42675964e-003 4.81927721e-003 4.75586567e-004
      9.51173133e-005 6.97526964e-004 1.64870010e-003 1.82942301e-002
      6.84844656e-003 8.87761591e-004 4.75586578e-003 5.80215594e-003
      2.02916935e-003 5.86556736e-003 1.03677865e-002</_>
    <_>
      4.80976552e-002 8.33861809e-003 7.03868084e-003 1.33798355e-002
      6.24603685e-003 5.38998109e-004 1.14457831e-002 2.45719720e-002
      5.26315812e-003 8.87761591e-004 3.80469253e-004 8.24350049e-004
      9.79708321e-003 8.56055820e-004 2.59987321e-002 4.11540903e-002
      9.35320184e-003 5.70703880e-004 6.65821193e-004 2.21940398e-004
      6.02409651e-004 3.17057711e-005 1.07799622e-003 3.48763482e-004
      1.06531391e-002 3.48763482e-004 6.34115422e-004 3.17057711e-004
      2.08623968e-002 4.12175024e-004 3.82371582e-002 1.07482560e-002
      6.97526941e-003 7.92644278e-004 6.65821193e-004 6.34115422e-004
      6.34115422e-004 9.51173133e-005 7.60938507e-004 8.87761591e-004
      6.02409651e-004 9.51173133e-005 2.21940398e-004 9.51173133e-005
      5.07292338e-004 6.34115422e-005 9.82878846e-004 8.87761591e-004
      1.35700693e-002 3.80469253e-004 6.65821193e-004 4.75586567e-004
      1.01458468e-003 0. 6.02409651e-004 4.12175024e-004 2.63792016e-002
      3.17057711e-004 8.24350049e-004 3.80469253e-004 2.63157897e-002
      2.21940398e-004 1.41407736e-002 4.28027892e-003 7.86303077e-003
      7.60938507e-004 4.43880796e-004 1.14140776e-003 5.07292338e-004 0.
      2.85351940e-004 5.38998109e-004 8.87761591e-004 3.17057711e-005
      6.34115422e-005 0. 5.07292338e-004 0. 2.21940398e-004
      3.80469253e-004 5.70703880e-004 0. 3.17057711e-005 6.34115422e-005
      3.17057711e-005 0. 6.34115422e-005 0. 5.70703880e-004 0.
      6.34115422e-005 3.17057711e-005 3.17057711e-004 0. 2.53646169e-004
      1.26823084e-004 1.30627770e-002 8.87761591e-004 7.60938507e-004
      8.87761591e-004 3.80469253e-004 0. 6.34115422e-004 4.75586567e-004
      5.07292338e-004 3.17057711e-005 6.34115422e-005 1.26823084e-004
      3.48763482e-004 0. 2.21940398e-004 4.43880796e-004 2.59353202e-002
      4.43880796e-004 1.14140776e-003 4.12175024e-004 3.48763482e-004 0.
      2.53646169e-004 6.34115422e-005 3.90298031e-002 1.26823084e-004
      8.56055820e-004 3.80469253e-004 1.00507289e-002 3.17057711e-005
      5.45339240e-003 1.42675964e-003 5.64362714e-003 1.37285991e-002
      7.29232735e-004 3.54787558e-002 5.70703880e-004 6.02409651e-004
      1.01458468e-003 4.26125564e-002 4.75586567e-004 8.87761591e-004
      9.51173133e-005 1.14140776e-003 8.56055820e-004 7.60938507e-004
      9.51173133e-004 1.62333548e-002 7.60938507e-004 3.48763482e-004
      6.34115422e-005 5.70703880e-004 3.17057711e-005 6.34115422e-005
      9.51173133e-005 3.48763482e-004 8.87761591e-004 5.70703880e-004 0.
      5.07292338e-004 9.51173133e-004 4.75586567e-004 1.04629039e-003
      5.26315812e-003 5.70703880e-004 4.75586567e-004 3.17057711e-005
      1.07799622e-003 6.34115422e-005 3.17057711e-005 1.58528856e-004
      8.24350049e-004 3.17057711e-005 3.17057711e-005 0. 3.17057711e-005
      6.34115422e-005 6.34115422e-005 1.26823084e-004 5.70703880e-004
      6.65821193e-004 3.80469253e-004 0. 7.29232735e-004 1.26823084e-004
      6.34115422e-005 0. 5.07292338e-004 9.82878846e-004 9.19467362e-004
      9.51173133e-005 7.29232735e-004 9.19467362e-004 3.48763482e-004
      9.51173133e-004 3.83639825e-003 1.25871906e-002 2.54280288e-002
      6.97526964e-004 4.51490171e-002 4.43880796e-004 4.12175024e-004
      5.38998109e-004 1.23969559e-002 6.65821193e-004 9.19467362e-004 0.
      9.51173133e-004 3.17057711e-004 6.02409651e-004 5.38998109e-004
      6.88015204e-003 9.19467362e-004 5.07292338e-004 0. 1.58528856e-004
      6.34115422e-005 0. 3.17057711e-005 9.51173133e-005 5.38998109e-004
      6.02409651e-004 3.17057711e-005 4.75586567e-004 2.85351940e-004
      3.17057711e-004 4.12175024e-004 1.93405198e-003 2.30818000e-002
      3.76030430e-002 1.01458468e-003 1.90234631e-002 5.07292338e-004
      1.90234627e-004 7.29232735e-004 5.77044999e-003 6.65821193e-004
      1.42675964e-003 0. 8.56055820e-004 5.70703880e-004 5.07292338e-004
      1.17311347e-003 5.35827503e-003 4.04882692e-002 1.10019026e-002
      1.01458468e-003 4.78757126e-003 3.17057711e-004 6.34115422e-005
      6.02409651e-004 1.36334810e-003 1.89917572e-002 5.26315812e-003
      7.29232735e-004 4.28027892e-003 6.18262542e-003 1.61699427e-003
      5.29486360e-003 1.01141408e-002</_>
    <_>
      4.58782502e-002 7.60938507e-003 4.56563104e-003 1.01141408e-002
      5.73874451e-003 4.75586567e-004 7.67279649e-003 1.68040581e-002
      3.99492728e-003 4.43880796e-004 2.21940398e-004 4.75586567e-004
      7.13379821e-003 5.07292338e-004 2.06721630e-002 4.25491445e-002
      7.54597317e-003 3.17057711e-004 3.80469253e-004 2.85351940e-004
      4.43880796e-004 0. 6.34115422e-004 6.34115422e-005 8.94102734e-003
      4.12175024e-004 5.70703880e-004 1.26823084e-004 1.66772362e-002
      2.21940398e-004 3.49714644e-002 8.18008836e-003 7.10209273e-003
      8.24350049e-004 6.02409651e-004 7.29232735e-004 5.38998109e-004 0.
      5.38998109e-004 6.65821193e-004 5.70703880e-004 9.51173133e-005
      3.17057711e-005 3.17057711e-005 5.70703880e-004 0. 5.38998109e-004
      9.82878846e-004 1.23018390e-002 3.48763482e-004 4.75586567e-004
      6.34115422e-004 6.65821193e-004 3.17057711e-005 6.65821193e-004
      2.21940398e-004 2.61572599e-002 3.80469253e-004 8.87761591e-004
      5.38998109e-004 3.10399495e-002 2.53646169e-004 1.16043119e-002
      4.24857344e-003 7.51426769e-003 7.92644278e-004 6.34115422e-004
      7.92644278e-004 3.48763482e-004 0. 2.53646169e-004 1.26823084e-004
      5.70703880e-004 0. 3.17057711e-005 3.17057711e-005 4.75586567e-004
      0. 9.51173133e-005 9.51173133e-005 7.29232735e-004 3.17057711e-005
      3.17057711e-005 6.34115422e-005 3.17057711e-005 0. 0. 0.
      6.02409651e-004 0. 0. 3.17057711e-005 1.90234627e-004 0.
      1.58528856e-004 0. 1.35066584e-002 1.26823084e-003 7.60938507e-004
      6.65821193e-004 4.75586567e-004 0. 2.21940398e-004 3.80469253e-004
      6.65821193e-004 3.17057711e-005 3.17057711e-005 6.34115422e-005
      4.12175024e-004 3.17057711e-005 3.48763482e-004 4.12175024e-004
      2.80913133e-002 4.43880796e-004 1.10970193e-003 2.53646169e-004
      3.80469253e-004 0. 2.85351940e-004 1.90234627e-004 4.26759683e-002
      2.21940398e-004 1.04629039e-003 2.85351940e-004 1.15409000e-002
      9.51173133e-005 4.72415984e-003 1.04629039e-003 5.58021571e-003
      1.32213067e-002 7.60938507e-004 3.33861746e-002 6.02409651e-004
      1.10970193e-003 6.02409651e-004 3.53519358e-002 9.82878846e-004
      6.97526964e-004 3.17057711e-005 7.92644278e-004 5.38998109e-004
      6.65821193e-004 5.38998109e-004 1.28091313e-002 5.07292338e-004
      3.80469253e-004 3.17057711e-005 3.80469253e-004 0. 3.17057711e-005
      6.34115422e-005 3.48763482e-004 6.02409651e-004 6.65821193e-004 0.
      3.48763482e-004 8.24350049e-004 3.48763482e-004 6.97526964e-004
      3.83639825e-003 5.38998109e-004 6.34115422e-004 0. 8.24350049e-004
      0. 0. 3.17057711e-005 9.82878846e-004 3.17057711e-005
      3.17057711e-005 0. 6.34115422e-005 0. 0. 0. 6.65821193e-004
      7.60938507e-004 4.12175024e-004 0. 6.97526964e-004 3.17057711e-005
      0. 3.17057711e-005 3.17057711e-004 9.51173133e-004 9.19467362e-004
      1.26823084e-004 7.92644278e-004 8.87761591e-004 5.38998109e-004
      8.56055820e-004 3.13887116e-003 1.14140771e-002 3.17057706e-002
      8.87761591e-004 5.69435619e-002 4.75586567e-004 2.53646169e-004
      4.12175024e-004 1.36968931e-002 6.02409651e-004 6.65821193e-004
      1.26823084e-004 1.04629039e-003 6.65821193e-004 3.17057711e-004
      6.34115422e-004 4.15345607e-003 9.51173133e-004 3.48763482e-004
      6.34115422e-005 2.85351940e-004 3.17057711e-005 0. 0.
      3.17057711e-005 5.07292338e-004 5.38998109e-004 6.34115422e-005
      4.75586567e-004 4.12175024e-004 1.90234627e-004 4.43880796e-004
      1.17311347e-003 3.29105891e-002 5.80532663e-002 7.92644278e-004
      1.81991123e-002 4.12175024e-004 3.48763482e-004 4.43880796e-004
      5.80215594e-003 9.51173133e-004 1.64870010e-003 9.51173133e-005
      5.70703880e-004 5.70703880e-004 7.92644278e-004 1.29993656e-003
      5.42168692e-003 5.38681038e-002 1.28408372e-002 1.14140776e-003
      5.32656955e-003 2.53646169e-004 3.17057711e-005 6.97526964e-004
      1.71211164e-003 1.89600512e-002 5.77044999e-003 5.70703880e-004
      4.85098269e-003 5.29486360e-003 1.77552318e-003 4.85098269e-003
      9.00443923e-003</_>
    <_>
      4.80025373e-002 6.75332919e-003 5.29486360e-003 1.17945466e-002
      5.99239068e-003 4.75586567e-004 9.00443923e-003 2.03868095e-002
      4.72415984e-003 6.65821193e-004 1.90234627e-004 5.70703880e-004
      7.60938507e-003 6.65821193e-004 2.17501577e-002 4.02029157e-002
      7.16550415e-003 1.58528856e-004 5.70703880e-004 3.48763482e-004
      5.38998109e-004 3.17057711e-005 6.02409651e-004 1.58528856e-004
      8.40202905e-003 2.53646169e-004 5.07292338e-004 3.17057711e-004
      1.70894098e-002 2.21940398e-004 3.28471772e-002 8.46544094e-003
      7.83132575e-003 8.24350049e-004 6.97526964e-004 1.04629039e-003
      6.02409651e-004 6.34115422e-005 4.12175024e-004 8.87761591e-004
      6.97526964e-004 2.21940398e-004 9.51173133e-005 0. 5.70703880e-004
      3.17057711e-005 7.60938507e-004 7.29232735e-004 1.27140144e-002
      4.75586567e-004 6.97526964e-004 4.12175024e-004 9.51173133e-004
      3.17057711e-005 5.38998109e-004 3.48763482e-004 2.50792652e-002
      1.90234627e-004 6.97526964e-004 5.07292338e-004 3.00887767e-002
      1.58528856e-004 1.16360178e-002 3.74128087e-003 7.98985455e-003
      5.70703880e-004 3.80469253e-004 7.92644278e-004 3.80469253e-004 0.
      2.85351940e-004 3.17057711e-004 4.43880796e-004 0. 0. 0.
      2.85351940e-004 3.17057711e-005 2.53646169e-004 1.26823084e-004
      6.65821193e-004 0. 0. 0. 0. 0. 9.51173133e-005 0. 5.70703880e-004
      0. 0. 0. 1.90234627e-004 0. 1.58528856e-004 9.51173133e-005
      1.29042482e-002 1.01458468e-003 6.34115422e-004 1.01458468e-003
      3.80469253e-004 3.17057711e-005 2.85351940e-004 4.12175024e-004
      6.97526964e-004 3.17057711e-005 3.17057711e-005 6.34115422e-005
      4.43880796e-004 3.17057711e-005 5.38998109e-004 5.07292338e-004
      2.66645532e-002 3.80469253e-004 7.29232735e-004 2.85351940e-004
      3.48763482e-004 0. 3.80469253e-004 1.90234627e-004 4.37222570e-002
      2.85351940e-004 1.07799622e-003 2.53646169e-004 9.67026036e-003
      9.51173133e-005 5.04121743e-003 1.17311347e-003 6.81674061e-003
      1.51236523e-002 6.65821193e-004 3.86810414e-002 4.12175024e-004
      8.24350049e-004 5.38998109e-004 3.80469263e-002 5.70703880e-004
      9.19467362e-004 3.17057711e-005 7.60938507e-004 5.38998109e-004
      5.70703880e-004 6.34115422e-004 1.49651235e-002 6.02409651e-004
      3.17057711e-004 0. 5.70703880e-004 3.17057711e-005 0.
      9.51173133e-005 2.21940398e-004 9.51173133e-004 8.24350049e-004
      6.34115422e-005 5.70703880e-004 7.29232735e-004 4.12175024e-004
      1.01458468e-003 3.61445779e-003 4.12175024e-004 5.38998109e-004
      6.34115422e-005 1.10970193e-003 1.26823084e-004 3.17057711e-005 0.
      9.82878846e-004 3.17057711e-005 9.51173133e-005 0. 1.26823084e-004
      3.17057711e-005 3.17057711e-005 0. 6.65821193e-004 7.60938507e-004
      6.02409651e-004 0. 6.65821193e-004 9.51173133e-005 0. 0.
      3.48763482e-004 1.39505393e-003 7.60938507e-004 3.17057711e-005
      7.60938507e-004 1.20481930e-003 5.07292338e-004 5.70703880e-004
      3.01204808e-003 1.31578948e-002 3.05960681e-002 6.34115422e-004
      5.80215603e-002 4.12175024e-004 2.85351940e-004 5.70703880e-004
      1.43944202e-002 6.02409651e-004 9.51173133e-004 9.51173133e-005
      1.01458468e-003 4.43880796e-004 5.38998109e-004 4.75586567e-004
      5.16804075e-003 7.60938507e-004 3.17057711e-004 3.17057711e-005
      3.80469253e-004 6.34115422e-005 0. 9.51173133e-005 1.58528856e-004
      9.82878846e-004 3.48763482e-004 3.17057711e-005 3.80469253e-004
      5.70703880e-004 2.21940398e-004 3.48763482e-004 1.52187701e-003
      2.66962592e-002 5.18706404e-002 1.07799622e-003 1.90234631e-002
      4.75586567e-004 3.17057711e-004 6.34115422e-004 6.30944828e-003
      6.97526964e-004 1.45846547e-003 0. 1.07799622e-003 6.02409651e-004
      8.56055820e-004 1.20481930e-003 5.16804075e-003 4.30247299e-002
      1.11287255e-002 1.26823084e-003 5.51680429e-003 1.26823084e-004
      6.34115422e-005 5.38998109e-004 1.26823084e-003 1.93088148e-002
      5.83386188e-003 6.34115422e-004 4.75586578e-003 5.48509834e-003
      1.80722889e-003 5.04121743e-003 9.60684847e-003</_>
    <_>
      5.14584668e-002 8.27520620e-003 6.08750805e-003 1.44895371e-002
      6.72162324e-003 4.12175024e-004 1.04629043e-002 2.31769178e-002
      4.72415984e-003 6.65821193e-004 4.75586567e-004 8.24350049e-004
      8.68738070e-003 7.92644278e-004 2.26062145e-002 3.85542177e-002
      7.92644266e-003 4.12175024e-004 6.34115422e-004 3.80469253e-004
      6.02409651e-004 0. 1.10970193e-003 1.58528856e-004 1.05897272e-002
      2.53646169e-004 6.34115422e-004 2.85351940e-004 1.81991123e-002
      1.26823084e-004 3.42739373e-002 9.92390607e-003 6.91185798e-003
      5.07292338e-004 8.24350049e-004 9.51173133e-004 4.12175024e-004 0.
      7.29232735e-004 7.29232735e-004 4.75586567e-004 9.51173133e-005
      3.17057711e-005 3.17057711e-005 4.12175024e-004 3.17057711e-005
      7.60938507e-004 1.17311347e-003 1.36334812e-002 3.48763482e-004
      8.87761591e-004 5.07292338e-004 9.51173133e-004 0. 7.92644278e-004
      2.53646169e-004 2.52377931e-002 4.12175024e-004 6.02409651e-004
      5.70703880e-004 2.59987321e-002 3.17057711e-004 1.32213067e-002
      3.86810396e-003 8.46544094e-003 8.87761591e-004 5.70703880e-004
      9.82878846e-004 3.17057711e-004 3.17057711e-005 4.75586567e-004
      4.12175024e-004 4.43880796e-004 3.17057711e-005 0. 9.51173133e-005
      2.53646169e-004 6.34115422e-005 5.07292338e-004 2.53646169e-004
      6.02409651e-004 0. 0. 0. 6.34115422e-005 0. 0. 0. 8.24350049e-004
      6.34115422e-005 3.17057711e-005 0. 4.12175024e-004 0.
      3.17057711e-004 0. 1.21750161e-002 8.87761591e-004 9.19467362e-004
      9.19467362e-004 5.07292338e-004 6.34115422e-005 6.34115422e-004
      2.53646169e-004 5.38998109e-004 1.26823084e-004 6.34115422e-005
      9.51173133e-005 3.48763482e-004 6.34115422e-005 4.43880796e-004
      4.43880796e-004 2.42549144e-002 2.85351940e-004 9.19467362e-004
      2.85351940e-004 2.53646169e-004 0. 2.85351940e-004 6.34115422e-005
      3.94736826e-002 2.53646169e-004 1.07799622e-003 5.70703880e-004
      1.10653136e-002 0. 5.58021571e-003 1.04629039e-003 7.45085627e-003
      1.44261252e-002 6.34115422e-004 4.08370309e-002 7.29232735e-004
      7.29232735e-004 1.10970193e-003 4.40710224e-002 5.38998109e-004
      7.92644278e-004 3.17057711e-005 8.56055820e-004 6.97526964e-004
      7.29232735e-004 9.82878846e-004 1.51553582e-002 9.19467362e-004
      2.85351940e-004 1.90234627e-004 5.70703880e-004 0. 3.17057711e-005
      9.51173133e-005 3.17057711e-004 8.56055820e-004 5.07292338e-004
      3.17057711e-005 6.34115422e-004 9.82878846e-004 4.12175024e-004
      1.49017118e-003 5.16804075e-003 3.80469253e-004 6.65821193e-004
      6.34115422e-005 8.24350049e-004 6.34115422e-005 0. 3.17057711e-005
      9.51173133e-004 0. 3.17057711e-005 0. 1.26823084e-004
      3.17057711e-005 3.17057711e-005 3.17057711e-005 6.97526964e-004
      5.07292338e-004 3.48763482e-004 3.17057711e-005 6.34115422e-004
      1.26823084e-004 0. 9.51173133e-005 4.43880796e-004 1.20481930e-003
      7.29232735e-004 3.17057711e-005 8.87761591e-004 9.19467362e-004
      4.43880796e-004 1.23652501e-003 4.28027892e-003 1.13506662e-002
      2.92961318e-002 7.60938507e-004 5.26315793e-002 4.12175024e-004
      2.21940398e-004 4.12175024e-004 1.46480659e-002 5.70703880e-004
      1.26823084e-003 3.17057711e-005 1.55358273e-003 4.75586567e-004
      5.38998109e-004 7.60938507e-004 7.03868084e-003 9.19467362e-004
      3.48763482e-004 0. 1.58528856e-004 3.17057711e-005 0. 0.
      6.34115422e-005 7.92644278e-004 4.12175024e-004 3.17057711e-005
      3.80469253e-004 4.75586567e-004 2.85351940e-004 4.43880796e-004
      1.90234627e-003 2.31135059e-002 3.75713371e-002 1.17311347e-003
      1.96892843e-002 3.80469253e-004 2.21940398e-004 6.02409651e-004
      6.37285970e-003 6.02409651e-004 1.49017118e-003 3.17057711e-005
      1.04629039e-003 4.43880796e-004 6.02409651e-004 9.51173133e-004
      5.86556736e-003 3.81737463e-002 1.02409637e-002 1.10970193e-003
      4.81927721e-003 2.53646169e-004 9.51173133e-005 6.34115422e-004
      1.17311347e-003 1.79454666e-002 5.70703857e-003 6.02409651e-004
      4.66074841e-003 5.45339240e-003 1.64870010e-003 5.42168692e-003
      9.95561201e-003</_>
    <_>
      6.45529479e-002 1.12872543e-002 9.95561201e-003 1.78503487e-002
      7.38744438e-003 9.82878846e-004 1.55675337e-002 3.02155986e-002
      5.61192119e-003 6.02409651e-004 6.65821193e-004 1.10970193e-003
      1.00507289e-002 6.97526964e-004 3.50665823e-002 5.59289791e-002
      8.40202905e-003 4.75586567e-004 1.10970193e-003 3.80469253e-004
      4.75586567e-004 6.34115422e-005 6.02409651e-004 3.80469253e-004
      1.03043756e-002 3.80469253e-004 8.56055820e-004 3.17057711e-004
      1.71211157e-002 1.58528856e-004 4.35003154e-002 1.19213695e-002
      6.18262542e-003 5.70703880e-004 9.51173133e-004 6.02409651e-004
      4.43880796e-004 0. 7.92644278e-004 8.87761591e-004 6.34115422e-004
      9.51173133e-005 1.58528856e-004 0. 7.60938507e-004 3.17057711e-005
      1.29993656e-003 1.17311347e-003 1.18579585e-002 2.85351940e-004
      8.87761591e-004 5.70703880e-004 6.97526964e-004 0. 7.60938507e-004
      1.90234627e-004 1.98478121e-002 4.12175024e-004 9.51173133e-004
      5.70703880e-004 2.10843366e-002 2.53646169e-004 1.27774253e-002
      3.93151538e-003 7.38744438e-003 6.02409651e-004 7.60938507e-004
      6.97526964e-004 6.34115422e-004 0. 3.17057711e-004 2.85351940e-004
      7.29232735e-004 3.17057711e-005 3.17057711e-005 3.17057711e-005
      3.48763482e-004 0. 2.53646169e-004 2.85351940e-004 4.75586567e-004
      0. 0. 0. 0. 0. 0. 0. 6.02409651e-004 3.17057711e-005
      9.51173133e-005 3.17057711e-005 2.21940398e-004 0. 1.26823084e-004
      1.90234627e-004 1.00190239e-002 7.92644278e-004 8.24350049e-004
      7.92644278e-004 2.85351940e-004 3.17057711e-005 6.65821193e-004
      3.48763482e-004 5.70703880e-004 0. 3.17057711e-005 0.
      3.17057711e-004 0. 5.38998109e-004 4.43880796e-004 2.15599239e-002
      1.58528856e-004 5.38998109e-004 4.43880796e-004 2.85351940e-004 0.
      3.48763482e-004 6.34115422e-005 2.80596074e-002 2.53646169e-004
      1.01458468e-003 6.34115422e-005 7.22891558e-003 9.51173133e-005
      5.13633480e-003 1.07799622e-003 7.70450244e-003 1.52821811e-002
      1.39505393e-003 3.80152203e-002 7.92644278e-004 6.97526964e-004
      1.23652501e-003 3.63665186e-002 5.38998109e-004 9.19467362e-004
      3.17057711e-005 8.24350049e-004 6.34115422e-004 7.92644278e-004
      1.36334810e-003 1.97526943e-002 7.60938507e-004 4.12175024e-004
      6.34115422e-005 5.07292338e-004 3.17057711e-005 3.17057711e-005 0.
      1.90234627e-004 7.60938507e-004 6.34115422e-004 0. 6.02409651e-004
      1.23652501e-003 4.12175024e-004 1.23652501e-003 5.70703857e-003
      7.29232735e-004 7.60938507e-004 0. 8.24350049e-004 0. 0.
      6.34115422e-005 9.19467362e-004 0. 3.17057711e-005 0.
      3.17057711e-005 3.17057711e-005 3.17057711e-005 3.17057711e-005
      8.87761591e-004 5.38998109e-004 4.12175024e-004 6.34115422e-005
      5.70703880e-004 0. 3.17057711e-005 0. 2.21940398e-004
      9.19467362e-004 6.65821193e-004 1.58528856e-004 5.07292338e-004
      8.87761591e-004 3.17057711e-004 6.02409651e-004 3.17057711e-003
      1.07482560e-002 2.66645532e-002 7.60938507e-004 3.93151566e-002
      1.90234627e-004 2.53646169e-004 4.43880796e-004 1.16043119e-002
      5.07292338e-004 6.34115422e-004 3.17057711e-005 1.17311347e-003
      6.02409651e-004 4.43880796e-004 5.07292338e-004 7.86303077e-003
      8.24350049e-004 3.17057711e-004 3.17057711e-005 4.75586567e-004 0.
      3.17057711e-005 0. 1.26823084e-004 4.43880796e-004 7.60938507e-004
      3.17057711e-005 2.21940398e-004 2.85351940e-004 3.17057711e-004
      4.12175024e-004 1.83893472e-003 2.28915662e-002 3.91566269e-002
      1.26823084e-003 1.75649971e-002 1.58528856e-004 1.58528856e-004
      1.01458468e-003 5.00951195e-003 7.29232735e-004 1.23652501e-003
      9.51173133e-005 8.24350049e-004 6.02409651e-004 3.48763482e-004
      1.10970193e-003 6.43627159e-003 3.46544087e-002 8.75079259e-003
      8.87761591e-004 3.70957516e-003 1.26823084e-004 6.34115422e-005
      4.12175024e-004 9.82878846e-004 1.41090676e-002 3.96322133e-003
      6.97526964e-004 3.61445779e-003 4.85098269e-003 9.19467362e-004
      4.66074841e-003 8.97273328e-003</_>
    <_>
      4.78440076e-002 8.30691215e-003 5.92897926e-003 1.09067848e-002
      6.24603685e-003 6.97526964e-004 8.78249854e-003 1.92136969e-002
      4.66074841e-003 5.70703880e-004 2.85351940e-004 3.80469253e-004
      8.62396974e-003 8.56055820e-004 2.23842748e-002 3.64616364e-002
      8.21179431e-003 3.17057711e-004 5.07292338e-004 4.75586567e-004
      5.70703880e-004 0. 6.02409651e-004 4.43880796e-004 1.04311984e-002
      2.85351940e-004 5.38998109e-004 3.17057711e-004 1.74064673e-002
      1.58528856e-004 3.57006975e-002 8.30691215e-003 8.24350026e-003
      5.38998109e-004 9.82878846e-004 9.19467362e-004 5.70703880e-004 0.
      6.34115422e-004 8.87761591e-004 5.38998109e-004 6.34115422e-005 0.
      3.17057711e-005 6.97526964e-004 6.34115422e-005 8.24350049e-004
      7.60938507e-004 1.50919463e-002 3.17057711e-004 1.01458468e-003
      5.07292338e-004 6.02409651e-004 6.34115422e-005 8.24350049e-004
      2.21940398e-004 3.09448317e-002 5.70703880e-004 7.60938507e-004
      6.65821193e-004 3.37032340e-002 1.26823084e-004 1.26506025e-002
      3.55104636e-003 8.56055785e-003 7.92644278e-004 5.70703880e-004
      8.24350049e-004 2.53646169e-004 0. 3.48763482e-004 3.48763482e-004
      4.75586567e-004 0. 6.34115422e-005 0. 1.90234627e-004 0.
      3.48763482e-004 1.58528856e-004 9.19467362e-004 0. 0. 0. 0. 0. 0.
      0. 8.24350049e-004 0. 0. 0. 3.17057711e-004 0. 2.21940398e-004
      3.17057711e-005 1.42358905e-002 8.56055820e-004 7.29232735e-004
      7.60938507e-004 3.80469253e-004 0. 6.34115422e-004 3.80469253e-004
      7.92644278e-004 0. 3.17057711e-005 0. 6.65821193e-004
      3.17057711e-005 3.80469253e-004 4.12175024e-004 3.07545979e-002
      2.21940398e-004 7.92644278e-004 3.48763482e-004 2.85351940e-004 0.
      4.43880796e-004 1.26823084e-004 4.74952459e-002 2.85351940e-004
      1.07799622e-003 3.48763482e-004 1.08750788e-002 9.51173133e-005
      4.40710224e-003 1.33164239e-003 7.19721010e-003 1.39505388e-002
      6.02409651e-004 3.08497138e-002 6.97526964e-004 7.92644278e-004
      9.19467362e-004 3.24032977e-002 5.38998109e-004 6.65821193e-004
      3.17057711e-005 1.07799622e-003 8.24350049e-004 7.60938507e-004
      7.29232735e-004 1.39188329e-002 6.02409651e-004 2.85351940e-004
      3.17057711e-005 5.07292338e-004 3.17057711e-005 3.17057711e-005
      6.34115422e-005 3.17057711e-004 1.01458468e-003 6.02409651e-004 0.
      6.65821193e-004 1.04629039e-003 5.38998109e-004 1.20481930e-003
      4.24857344e-003 6.65821193e-004 6.97526964e-004 3.17057711e-005
      1.17311347e-003 6.34115422e-005 0. 6.34115422e-005 8.87761591e-004
      1.26823084e-004 9.51173133e-005 0. 6.34115422e-005 6.34115422e-005
      0. 0. 5.07292338e-004 7.29232735e-004 3.80469253e-004
      9.51173133e-005 6.65821193e-004 3.17057711e-005 6.34115422e-005
      3.17057711e-005 4.12175024e-004 1.29993656e-003 7.29232735e-004
      3.17057711e-005 8.24350049e-004 1.33164239e-003 4.12175024e-004
      9.82878846e-004 3.77298659e-003 1.23969559e-002 2.68864930e-002
      7.92644278e-004 4.67026010e-002 5.38998109e-004 3.48763482e-004
      6.02409651e-004 1.23018390e-002 9.19467362e-004 1.10970193e-003
      3.17057711e-005 1.14140776e-003 2.53646169e-004 5.38998109e-004
      6.34115422e-004 5.89727331e-003 9.51173133e-004 4.43880796e-004 0.
      2.53646169e-004 3.17057711e-005 0. 0. 1.26823084e-004
      6.97526964e-004 6.97526964e-004 6.34115422e-005 5.70703880e-004
      3.48763482e-004 1.58528856e-004 5.70703880e-004 1.20481930e-003
      2.83132531e-002 3.98224480e-002 1.14140776e-003 1.65821183e-002
      5.07292338e-004 3.17057711e-004 6.02409651e-004 5.48509834e-003
      9.19467362e-004 1.39505393e-003 9.51173133e-005 7.92644278e-004
      8.24350049e-004 8.24350049e-004 1.36334810e-003 5.10462886e-003
      5.27901091e-002 1.16360178e-002 1.36334810e-003 4.53392509e-003
      3.48763482e-004 9.51173133e-005 6.34115422e-004 1.71211164e-003
      1.96258724e-002 6.34115422e-003 7.92644278e-004 4.69245389e-003
      5.61192119e-003 1.52187701e-003 5.51680429e-003 9.86049417e-003</_>
    <_>
      4.68928330e-002 8.49714689e-003 5.61192119e-003 1.22067221e-002
      6.97526941e-003 7.60938507e-004 9.00443923e-003 2.09575146e-002
      4.88268863e-003 5.07292338e-004 3.48763482e-004 6.34115422e-004
      9.38490778e-003 9.19467362e-004 2.21940391e-002 3.52885239e-002
      8.40202905e-003 1.90234627e-004 6.34115422e-004 2.85351940e-004
      6.97526964e-004 3.17057711e-005 8.24350049e-004 3.17057711e-004
      1.20164873e-002 4.12175024e-004 4.43880796e-004 5.07292338e-004
      2.19720993e-002 2.85351940e-004 3.58909331e-002 9.38490778e-003
      7.38744438e-003 6.97526964e-004 4.43880796e-004 7.92644278e-004
      3.48763482e-004 0. 9.19467362e-004 1.04629039e-003 6.02409651e-004
      3.17057711e-005 6.34115422e-005 3.17057711e-005 5.38998109e-004
      9.51173133e-005 6.65821193e-004 9.82878846e-004 1.42675964e-002
      3.48763482e-004 4.43880796e-004 4.75586567e-004 8.87761591e-004 0.
      5.38998109e-004 4.43880796e-004 3.30374129e-002 3.80469253e-004
      8.24350049e-004 3.80469253e-004 3.52885239e-002 2.53646169e-004
      1.56309456e-002 4.66074841e-003 7.60938507e-003 6.34115422e-004
      7.92644278e-004 1.01458468e-003 6.02409651e-004 3.17057711e-005
      4.43880796e-004 3.80469253e-004 5.07292338e-004 3.17057711e-005 0.
      0. 5.38998109e-004 3.17057711e-005 5.70703880e-004 1.58528856e-004
      7.29232735e-004 0. 0. 0. 0. 0. 0. 0. 7.60938507e-004 0. 0.
      3.17057711e-005 3.48763482e-004 0. 3.48763482e-004 3.17057711e-005
      1.36334812e-002 7.92644278e-004 7.60938507e-004 5.38998109e-004
      3.48763482e-004 3.17057711e-005 5.70703880e-004 1.58528856e-004
      6.34115422e-004 6.34115422e-005 3.17057711e-005 1.58528856e-004
      6.65821193e-004 9.51173133e-005 7.29232735e-004 4.75586567e-004
      2.88205445e-002 5.38998109e-004 1.20481930e-003 4.75586567e-004
      6.34115422e-004 0. 3.17057711e-004 2.53646169e-004 5.06658219e-002
      4.43880796e-004 8.56055820e-004 2.85351940e-004 1.31578948e-002
      6.34115422e-005 5.86556736e-003 1.39505393e-003 6.27774233e-003
      1.17945466e-002 6.97526964e-004 2.88205445e-002 4.43880796e-004
      6.97526964e-004 7.92644278e-004 3.44641730e-002 7.60938507e-004
      7.92644278e-004 3.17057711e-005 1.23652501e-003 6.65821193e-004
      5.07292338e-004 8.56055820e-004 1.57894734e-002 8.24350049e-004
      3.80469253e-004 9.51173133e-005 4.75586567e-004 6.34115422e-005 0.
      0. 3.17057711e-004 6.97526964e-004 6.34115422e-004 3.17057711e-005
      8.24350049e-004 9.51173133e-004 3.48763482e-004 1.33164239e-003
      4.81927721e-003 4.12175024e-004 7.92644278e-004 9.51173133e-005
      1.10970193e-003 3.17057711e-005 0. 3.17057711e-005 1.10970193e-003
      6.34115422e-005 6.34115422e-005 3.17057711e-005 6.34115422e-005 0.
      6.34115422e-005 3.17057711e-005 9.51173133e-004 7.60938507e-004
      4.12175024e-004 3.17057711e-005 6.97526964e-004 1.26823084e-004 0.
      3.17057711e-005 6.34115422e-004 1.29993656e-003 6.97526964e-004
      3.17057711e-005 5.07292338e-004 1.20481930e-003 6.34115422e-004
      1.01458468e-003 4.18516155e-003 1.20798983e-002 2.46036779e-002
      8.24350049e-004 4.38807867e-002 5.07292338e-004 2.21940398e-004
      4.75586567e-004 1.33798355e-002 7.60938507e-004 9.82878846e-004
      3.17057711e-005 9.82878846e-004 5.07292338e-004 6.65821193e-004
      5.38998109e-004 6.21433090e-003 1.01458468e-003 4.75586567e-004
      1.26823084e-004 2.85351940e-004 3.17057711e-005 3.17057711e-005
      3.17057711e-005 9.51173133e-005 9.82878846e-004 4.12175024e-004
      6.34115422e-005 4.12175024e-004 4.43880796e-004 1.26823084e-004
      3.48763482e-004 1.29993656e-003 2.27330383e-002 3.32276486e-002
      6.97526964e-004 1.81039944e-002 2.53646169e-004 2.53646169e-004
      9.19467362e-004 6.21433090e-003 1.07799622e-003 1.17311347e-003
      6.34115422e-005 7.92644278e-004 6.34115422e-004 6.34115422e-004
      8.87761591e-004 5.86556736e-003 4.13443260e-002 1.07165501e-002
      1.33164239e-003 5.89727331e-003 2.85351940e-004 9.51173133e-005
      4.12175024e-004 1.61699427e-003 2.06087511e-002 6.24603685e-003
      8.24350049e-004 5.26315812e-003 6.49968302e-003 1.45846547e-003
      6.15091948e-003 1.11921374e-002</_>
    <_>
      4.79074195e-002 7.57767912e-003 5.00951195e-003 1.21750161e-002
      5.99239068e-003 5.38998109e-004 9.35320184e-003 2.04185154e-002
      4.97780601e-003 5.38998109e-004 1.58528856e-004 5.07292338e-004
      9.13126208e-003 1.07799622e-003 2.01014578e-002 3.51934060e-002
      9.54343658e-003 4.75586567e-004 5.07292338e-004 4.12175024e-004
      6.97526964e-004 0. 1.01458468e-003 4.75586567e-004 1.18579585e-002
      3.48763482e-004 4.75586567e-004 5.38998109e-004 2.11477485e-002
      3.80469253e-004 3.37032340e-002 9.28979088e-003 7.32403295e-003
      6.34115422e-004 8.56055820e-004 9.19467362e-004 4.12175024e-004
      3.17057711e-005 6.34115422e-004 7.92644278e-004 6.97526964e-004
      3.17057711e-005 3.17057711e-005 6.34115422e-005 5.70703880e-004
      3.17057711e-005 1.17311347e-003 1.17311347e-003 1.48065947e-002
      3.80469253e-004 9.19467362e-004 6.65821193e-004 6.34115422e-004
      3.17057711e-005 7.60938507e-004 4.75586567e-004 3.35129984e-002
      3.17057711e-004 8.24350049e-004 4.75586567e-004 3.71591635e-002
      2.85351940e-004 1.42675964e-002 4.21686750e-003 8.21179431e-003
      8.56055820e-004 5.38998109e-004 9.82878846e-004 5.07292338e-004
      3.17057711e-005 4.12175024e-004 4.43880796e-004 5.07292338e-004
      6.34115422e-005 3.17057711e-005 3.17057711e-005 5.07292338e-004
      3.17057711e-005 4.12175024e-004 1.58528856e-004 8.87761591e-004 0.
      3.17057711e-005 3.17057711e-005 0. 0. 0. 3.17057711e-005
      8.87761591e-004 3.17057711e-005 3.17057711e-005 0. 4.43880796e-004
      0. 1.90234627e-004 9.51173133e-005 1.30627770e-002 8.24350049e-004
      7.92644278e-004 9.51173133e-004 7.29232735e-004 0. 6.02409651e-004
      4.75586567e-004 7.92644278e-004 1.26823084e-004 9.51173133e-005
      9.51173133e-005 5.07292338e-004 3.17057711e-005 6.65821193e-004
      5.38998109e-004 3.23081799e-002 3.80469253e-004 6.97526964e-004
      3.80469253e-004 3.48763482e-004 0. 4.75586567e-004 1.26823084e-004
      5.36778681e-002 1.58528856e-004 8.87761591e-004 3.17057711e-004
      1.14774890e-002 6.34115422e-005 6.84844656e-003 1.68040581e-003
      5.77044999e-003 1.23652508e-002 4.75586567e-004 2.79327836e-002
      6.34115422e-004 8.87761591e-004 7.29232735e-004 3.36398222e-002
      6.02409651e-004 6.97526964e-004 3.17057711e-005 6.34115422e-004
      4.43880796e-004 7.60938507e-004 8.24350049e-004 1.49017125e-002
      8.87761591e-004 4.43880796e-004 9.51173133e-005 4.12175024e-004
      3.17057711e-005 3.17057711e-005 1.26823084e-004 1.90234627e-004
      8.24350049e-004 5.70703880e-004 3.17057711e-005 6.97526964e-004
      7.29232735e-004 3.17057711e-004 1.52187701e-003 4.56563104e-003
      5.38998109e-004 5.38998109e-004 3.17057711e-005 1.10970193e-003
      9.51173133e-005 0. 3.17057711e-005 1.20481930e-003 6.34115422e-005
      3.17057711e-005 0. 1.26823084e-004 0. 9.51173133e-005
      3.17057711e-005 1.07799622e-003 4.12175024e-004 3.80469253e-004
      6.34115422e-005 8.56055820e-004 6.34115422e-005 6.34115422e-005
      6.34115422e-005 3.17057711e-004 1.10970193e-003 6.97526964e-004
      3.17057711e-005 7.92644278e-004 1.33164239e-003 5.38998109e-004
      6.65821193e-004 3.70957516e-003 1.09384907e-002 2.37476230e-002
      7.60938507e-004 4.45149019e-002 5.38998109e-004 7.60938507e-004
      4.12175024e-004 1.15091950e-002 6.02409651e-004 7.92644278e-004 0.
      1.55358273e-003 6.34115422e-004 3.48763482e-004 4.12175024e-004
      6.78503467e-003 8.24350049e-004 3.48763482e-004 3.17057711e-005
      4.12175024e-004 0. 3.17057711e-005 6.34115422e-005 1.26823084e-004
      5.70703880e-004 3.80469253e-004 3.17057711e-005 4.12175024e-004
      5.70703880e-004 4.43880796e-004 4.12175024e-004 1.45846547e-003
      2.41597965e-002 3.34812924e-002 9.19467362e-004 1.63284726e-002
      5.70703880e-004 3.17057711e-004 6.65821193e-004 5.61192119e-003
      1.14140776e-003 1.55358273e-003 6.34115422e-005 1.23652501e-003
      6.65821193e-004 4.43880796e-004 9.82878846e-004 4.94610006e-003
      4.68294248e-002 1.16043119e-002 1.45846547e-003 4.66074841e-003
      3.17057711e-004 0. 5.38998109e-004 1.58528856e-003 2.15282179e-002
      5.86556736e-003 1.04629039e-003 4.69245389e-003 6.59480039e-003
      1.68040581e-003 5.89727331e-003 1.01458468e-002</_>
    <_>
      5.04755862e-002 8.14838335e-003 5.73874451e-003 1.20164873e-002
      6.91185798e-003 6.65821193e-004 9.86049417e-003 1.94356367e-002
      6.46797707e-003 6.65821193e-004 3.17057711e-004 6.34115422e-004
      1.08750788e-002 1.04629039e-003 2.67913751e-002 3.83639820e-002
      7.70450244e-003 5.07292338e-004 5.38998109e-004 5.07292338e-004
      6.34115422e-004 0. 8.87761591e-004 4.12175024e-004 1.48065947e-002
      2.53646169e-004 6.65821193e-004 3.48763482e-004 2.56182626e-002
      4.43880796e-004 4.08370309e-002 1.01775527e-002 7.76791386e-003
      4.75586567e-004 6.65821193e-004 6.65821193e-004 5.70703880e-004 0.
      5.70703880e-004 1.23652501e-003 8.24350049e-004 0. 0.
      6.34115422e-005 4.12175024e-004 3.17057711e-005 7.29232735e-004
      1.07799622e-003 1.61699429e-002 2.21940398e-004 6.02409651e-004
      9.19467362e-004 9.82878846e-004 3.17057711e-005 6.97526964e-004
      3.80469253e-004 3.35764103e-002 6.02409651e-004 6.97526964e-004
      4.43880796e-004 3.76664549e-002 2.53646169e-004 1.77869368e-002
      5.23145217e-003 7.86303077e-003 6.65821193e-004 4.75586567e-004
      8.24350049e-004 2.21940398e-004 0. 3.48763482e-004 2.85351940e-004
      4.43880796e-004 6.34115422e-005 6.34115422e-005 3.17057711e-005
      5.38998109e-004 0. 4.75586567e-004 3.48763482e-004 6.02409651e-004
      0. 6.34115422e-005 3.17057711e-005 0. 0. 0. 0. 6.97526964e-004 0.
      0. 3.17057711e-005 3.80469253e-004 0. 2.21940398e-004
      3.17057711e-005 1.33481296e-002 6.02409651e-004 6.02409651e-004
      1.07799622e-003 5.38998109e-004 6.34115422e-005 3.48763482e-004
      5.07292338e-004 7.60938507e-004 9.51173133e-005 0. 6.34115422e-005
      5.70703880e-004 3.17057711e-005 5.70703880e-004 6.02409651e-004
      2.76157260e-002 3.48763482e-004 1.17311347e-003 3.80469253e-004
      4.12175024e-004 0. 5.70703880e-004 2.21940398e-004 4.90488261e-002
      2.21940398e-004 1.20481930e-003 5.38998109e-004 1.25554847e-002
      6.34115422e-005 6.53138850e-003 1.49017118e-003 6.59480039e-003
      1.31896008e-002 3.48763482e-004 2.41597965e-002 5.07292338e-004
      8.56055820e-004 6.34115422e-004 3.17374766e-002 7.60938507e-004
      8.24350049e-004 0. 9.82878846e-004 5.07292338e-004 5.07292338e-004
      9.51173133e-004 1.50285354e-002 6.34115422e-004 4.12175024e-004
      1.58528856e-004 3.80469253e-004 6.34115422e-005 0. 3.17057711e-005
      9.51173133e-005 8.56055820e-004 6.65821193e-004 6.34115422e-005
      6.65821193e-004 7.29232735e-004 3.80469253e-004 9.19467362e-004
      4.62904247e-003 4.12175024e-004 5.07292338e-004 3.17057711e-005
      1.14140776e-003 6.34115422e-005 3.17057711e-005 9.51173133e-005
      9.19467362e-004 9.51173133e-005 9.51173133e-005 0. 6.34115422e-005
      3.17057711e-005 0. 3.17057711e-005 7.92644278e-004 6.34115422e-004
      4.75586567e-004 3.17057711e-005 7.29232735e-004 6.34115422e-005
      9.51173133e-005 1.26823084e-004 2.85351940e-004 1.39505393e-003
      5.70703880e-004 9.51173133e-005 9.82878846e-004 9.82878846e-004
      3.80469253e-004 1.14140776e-003 4.02663276e-003 1.12872543e-002
      2.26379205e-002 5.70703880e-004 3.57958153e-002 2.21940398e-004
      2.53646169e-004 6.65821193e-004 1.07165501e-002 6.34115422e-004
      1.07799622e-003 3.17057711e-005 9.19467362e-004 5.07292338e-004
      4.43880796e-004 5.38998109e-004 6.11921353e-003 8.56055820e-004
      3.80469253e-004 6.34115422e-005 2.21940398e-004 0. 0.
      6.34115422e-005 9.51173133e-005 7.92644278e-004 5.38998109e-004
      6.34115422e-005 2.21940398e-004 7.92644278e-004 2.85351940e-004
      7.60938507e-004 1.29993656e-003 2.34939754e-002 3.20862383e-002
      8.24350049e-004 1.68991759e-002 2.53646169e-004 1.58528856e-004
      6.02409651e-004 6.21433090e-003 7.92644278e-004 1.20481930e-003
      9.51173133e-005 9.51173133e-004 3.80469253e-004 7.29232735e-004
      9.82878846e-004 5.58021571e-003 4.22320850e-002 1.02726696e-002
      1.33164239e-003 4.12175013e-003 2.85351940e-004 6.34115422e-005
      4.75586567e-004 1.49017118e-003 2.03233995e-002 5.83386188e-003
      6.34115422e-004 4.37539630e-003 6.59480039e-003 1.77552318e-003
      5.19974623e-003 9.28979088e-003</_>
    <_>
      4.48319577e-002 7.54597317e-003 4.78757126e-003 9.22637898e-003
      5.48509834e-003 7.29232735e-004 8.49714689e-003 1.68040581e-002
      3.89980967e-003 4.75586567e-004 6.02409651e-004 5.70703880e-004
      7.16550415e-003 5.70703880e-004 1.99112240e-002 3.65567543e-002
      7.26062153e-003 3.17057711e-004 3.17057711e-004 3.80469253e-004
      7.92644278e-004 3.17057711e-005 7.29232735e-004 3.48763482e-004
      9.03614424e-003 3.48763482e-004 4.12175024e-004 4.12175024e-004
      1.81357004e-002 3.48763482e-004 3.95053886e-002 8.87761544e-003
      6.97526941e-003 4.75586567e-004 5.38998109e-004 7.29232735e-004
      4.75586567e-004 0. 7.92644278e-004 6.65821193e-004 4.43880796e-004
      6.34115422e-005 6.34115422e-005 3.17057711e-005 4.12175024e-004 0.
      6.97526964e-004 1.04629039e-003 1.47431828e-002 5.38998109e-004
      6.02409651e-004 7.29232735e-004 9.19467362e-004 3.17057711e-005
      4.75586567e-004 2.53646169e-004 3.16423588e-002 6.02409651e-004
      8.87761591e-004 3.80469253e-004 3.70640457e-002 3.17057711e-004
      1.21750161e-002 3.58275208e-003 7.07038678e-003 8.87761591e-004
      5.70703880e-004 7.29232735e-004 2.85351940e-004 0. 2.21940398e-004
      2.21940398e-004 4.75586567e-004 0. 3.17057711e-005 3.17057711e-005
      4.43880796e-004 3.17057711e-005 1.90234627e-004 6.34115422e-005
      5.07292338e-004 0. 0. 0. 3.17057711e-005 0. 3.17057711e-005 0.
      6.34115422e-004 3.17057711e-005 3.17057711e-005 0. 1.58528856e-004
      0. 3.17057711e-004 6.34115422e-005 1.41724795e-002 7.29232735e-004
      4.43880796e-004 8.56055820e-004 3.17057711e-004 0. 5.38998109e-004
      2.85351940e-004 7.29232735e-004 3.17057711e-005 3.17057711e-005
      3.17057711e-005 5.07292338e-004 0. 6.34115422e-004 6.34115422e-004
      3.54470499e-002 2.21940398e-004 6.02409651e-004 3.17057711e-004
      3.17057711e-004 3.17057711e-005 2.53646169e-004 2.53646169e-004
      5.36778681e-002 1.58528856e-004 7.29232735e-004 3.80469253e-004
      1.26823084e-002 3.17057711e-005 3.99492728e-003 1.10970193e-003
      5.64362714e-003 1.08750788e-002 4.75586567e-004 2.54914388e-002
      5.07292338e-004 9.51173133e-004 7.29232735e-004 3.18960063e-002
      6.02409651e-004 8.24350049e-004 6.34115422e-005 9.19467362e-004
      8.24350049e-004 4.43880796e-004 6.97526964e-004 1.36968931e-002
      3.48763482e-004 4.12175024e-004 0. 4.75586567e-004 9.51173133e-005
      0. 3.17057711e-005 1.26823084e-004 6.34115422e-004 4.43880796e-004
      3.17057711e-005 4.43880796e-004 5.70703880e-004 5.38998109e-004
      9.51173133e-004 4.09004418e-003 6.65821193e-004 5.38998109e-004
      9.51173133e-005 9.82878846e-004 0. 3.17057711e-005 3.17057711e-005
      8.87761591e-004 3.17057711e-005 3.17057711e-005 0. 0.
      6.34115422e-005 3.17057711e-005 0. 7.29232735e-004 6.65821193e-004
      4.12175024e-004 9.51173133e-005 7.29232735e-004 3.17057711e-005 0.
      3.17057711e-005 2.85351940e-004 1.33164239e-003 6.34115422e-004
      3.17057711e-005 6.97526964e-004 1.07799622e-003 6.65821193e-004
      6.02409651e-004 3.45592899e-003 1.14774890e-002 2.44768541e-002
      7.60938507e-004 4.54660766e-002 2.85351940e-004 5.70703880e-004
      6.65821193e-004 1.14140771e-002 7.92644278e-004 1.07799622e-003
      6.34115422e-005 6.65821193e-004 3.80469253e-004 3.48763482e-004
      6.02409651e-004 4.88268863e-003 6.65821193e-004 3.17057711e-004 0.
      2.85351940e-004 0. 0. 3.17057711e-005 6.34115422e-005
      5.70703880e-004 5.70703880e-004 0. 4.75586567e-004 4.12175024e-004
      9.51173133e-005 4.43880796e-004 9.19467362e-004 3.11667714e-002
      4.35954332e-002 5.70703880e-004 1.63284726e-002 3.80469253e-004
      2.85351940e-004 5.70703880e-004 5.04121743e-003 1.23652501e-003
      1.39505393e-003 6.34115422e-005 5.70703880e-004 6.65821193e-004
      7.29232735e-004 1.17311347e-003 5.92897926e-003 6.79771751e-002
      1.27457194e-002 1.20481930e-003 4.66074841e-003 2.85351940e-004
      3.17057711e-005 5.38998109e-004 1.68040581e-003 2.28915662e-002
      6.24603685e-003 6.02409651e-004 4.78757126e-003 6.05580211e-003
      1.36334810e-003 5.35827503e-003 9.89220012e-003</_>
    <_>
      4.64806594e-002 7.38744438e-003 3.89980967e-003 9.95561201e-003
      4.94610006e-003 2.53646169e-004 8.37032311e-003 1.71211157e-002
      4.69245389e-003 5.38998109e-004 2.21940398e-004 6.02409651e-004
      8.49714689e-003 8.24350049e-004 2.18135696e-002 3.70006338e-002
      8.43373500e-003 3.48763482e-004 5.38998109e-004 4.75586567e-004
      8.24350049e-004 0. 6.65821193e-004 3.80469253e-004 1.12555483e-002
      1.58528856e-004 4.12175024e-004 2.85351940e-004 1.91819910e-002
      3.48763482e-004 3.75079252e-002 9.44831967e-003 7.57767912e-003
      6.02409651e-004 5.38998109e-004 6.65821193e-004 6.02409651e-004 0.
      6.34115422e-004 8.24350049e-004 5.38998109e-004 0. 3.17057711e-005
      9.51173133e-005 6.02409651e-004 0. 6.02409651e-004 1.20481930e-003
      1.55358277e-002 4.43880796e-004 6.34115422e-004 6.65821193e-004
      7.29232735e-004 6.34115422e-005 7.29232735e-004 2.53646169e-004
      3.63982245e-002 3.80469253e-004 6.97526964e-004 4.43880796e-004
      4.06150930e-002 3.17057711e-004 1.45212431e-002 3.80469253e-003
      7.70450244e-003 6.65821193e-004 5.07292338e-004 5.38998109e-004
      3.17057711e-004 3.17057711e-005 2.85351940e-004 4.12175024e-004
      4.12175024e-004 9.51173133e-005 3.17057711e-005 6.34115422e-005
      4.12175024e-004 0. 2.21940398e-004 9.51173133e-005 4.75586567e-004
      0. 3.17057711e-005 3.17057711e-005 0. 0. 0. 0. 6.97526964e-004
      3.17057711e-005 0. 0. 3.48763482e-004 0. 9.51173133e-005
      3.17057711e-005 1.32213067e-002 9.51173133e-004 4.75586567e-004
      8.24350049e-004 5.70703880e-004 0. 6.34115422e-004 2.53646169e-004
      1.14140776e-003 9.51173133e-005 9.51173133e-005 3.17057711e-005
      4.75586567e-004 0. 4.12175024e-004 4.12175024e-004 3.47812288e-002
      3.48763482e-004 8.87761591e-004 2.53646169e-004 3.48763482e-004 0.
      2.53646169e-004 3.48763482e-004 6.04311973e-002 2.21940398e-004
      8.87761591e-004 5.70703880e-004 1.41090676e-002 3.17057711e-005
      5.16804075e-003 1.36334810e-003 5.19974623e-003 1.07799619e-002
      4.43880796e-004 2.64109075e-002 3.48763482e-004 8.56055820e-004
      8.56055820e-004 3.21813561e-002 4.12175024e-004 8.56055820e-004
      6.34115422e-005 6.65821193e-004 6.97526964e-004 5.38998109e-004
      7.60938507e-004 1.23652508e-002 8.24350049e-004 4.75586567e-004
      9.51173133e-005 3.17057711e-004 9.51173133e-005 3.17057711e-005
      3.17057711e-005 6.34115422e-005 5.70703880e-004 6.34115422e-004 0.
      7.92644278e-004 6.65821193e-004 2.53646169e-004 8.56055820e-004
      3.89980967e-003 5.07292338e-004 5.70703880e-004 6.34115422e-005
      8.87761591e-004 0. 0. 0. 8.87761591e-004 0. 0. 0. 3.17057711e-005
      0. 6.34115422e-005 1.26823084e-004 5.70703880e-004 6.34115422e-004
      5.07292338e-004 3.17057711e-005 8.56055820e-004 1.58528856e-004 0.
      0. 5.38998109e-004 9.19467362e-004 7.60938507e-004 3.17057711e-005
      6.65821193e-004 1.33164239e-003 5.70703880e-004 6.34115422e-004
      3.70957516e-003 1.07165501e-002 2.34305635e-002 8.56055820e-004
      4.18199115e-002 5.38998109e-004 5.07292338e-004 6.02409651e-004
      1.09067848e-002 7.92644278e-004 1.10970193e-003 0. 9.19467362e-004
      5.70703880e-004 6.65821193e-004 6.02409651e-004 4.88268863e-003
      9.19467362e-004 3.17057711e-004 0. 2.53646169e-004 0. 0.
      6.34115422e-005 9.51173133e-005 6.65821193e-004 4.75586567e-004
      3.17057711e-005 2.85351940e-004 4.75586567e-004 1.58528856e-004
      5.07292338e-004 1.80722889e-003 2.51109693e-002 3.43373492e-002
      7.60938507e-004 1.54407099e-002 3.80469253e-004 2.53646169e-004
      5.70703880e-004 4.91439458e-003 1.04629039e-003 1.29993656e-003 0.
      7.60938507e-004 7.29232735e-004 4.12175024e-004 1.17311347e-003
      6.02409616e-003 5.83386160e-002 1.21116042e-002 1.45846547e-003
      4.88268863e-003 2.53646169e-004 6.34115422e-005 8.56055820e-004
      1.80722889e-003 2.12111603e-002 6.40456565e-003 6.34115422e-004
      4.47051367e-003 7.57767912e-003 1.74381735e-003 5.13633480e-003
      9.98731796e-003</_>
    <_>
      4.83512990e-002 7.70450244e-003 5.00951195e-003 1.25237796e-002
      6.78503467e-003 4.43880796e-004 8.37032311e-003 2.03551054e-002
      5.45339240e-003 6.02409651e-004 3.80469253e-004 3.80469253e-004
      9.70196538e-003 9.19467362e-004 2.24159788e-002 3.58909331e-002
      8.68738070e-003 4.43880796e-004 6.34115422e-004 3.17057711e-004
      6.34115422e-004 3.17057711e-005 6.65821193e-004 2.85351940e-004
      1.25871906e-002 4.12175024e-004 5.38998109e-004 2.85351940e-004
      2.45402660e-002 3.48763482e-004 3.59543450e-002 9.19467304e-003
      6.65821182e-003 7.29232735e-004 8.24350049e-004 9.19467362e-004
      7.60938507e-004 0. 6.02409651e-004 1.01458468e-003 6.34115422e-004
      6.34115422e-005 1.26823084e-004 3.17057711e-005 6.34115422e-004
      9.51173133e-005 9.19467362e-004 1.33164239e-003 1.61065310e-002
      3.17057711e-004 8.87761591e-004 7.29232735e-004 7.29232735e-004 0.
      5.07292338e-004 3.48763482e-004 3.96322124e-002 2.21940398e-004
      1.23652501e-003 6.97526964e-004 4.24540266e-002 2.53646169e-004
      1.71211157e-002 4.75586578e-003 8.62396974e-003 6.97526964e-004
      4.43880796e-004 7.29232735e-004 3.48763482e-004 0. 3.80469253e-004
      2.53646169e-004 5.70703880e-004 0. 0. 6.34115422e-005
      5.07292338e-004 0. 1.90234627e-004 3.17057711e-004 7.29232735e-004
      3.17057711e-005 0. 3.17057711e-005 3.17057711e-005 0. 0. 0.
      7.92644278e-004 0. 3.17057711e-005 0. 1.90234627e-004 0.
      2.53646169e-004 3.17057711e-005 1.22067221e-002 8.24350049e-004
      8.56055820e-004 8.56055820e-004 7.29232735e-004 3.17057711e-005
      6.02409651e-004 1.58528856e-004 1.07799622e-003 3.17057711e-005
      6.34115422e-005 9.51173133e-005 2.21940398e-004 3.17057711e-005
      6.34115422e-004 5.38998109e-004 2.96448953e-002 3.17057711e-004
      9.19467362e-004 3.48763482e-004 4.43880796e-004 0. 3.17057711e-004
      1.58528856e-004 5.48509844e-002 5.07292338e-004 1.04629039e-003
      5.07292338e-004 1.36017753e-002 6.34115422e-005 6.72162324e-003
      1.39505393e-003 6.30944828e-003 1.32847177e-002 4.12175024e-004
      2.55231448e-002 5.38998109e-004 7.29232735e-004 8.87761591e-004
      3.26886475e-002 5.07292338e-004 6.02409651e-004 3.17057711e-005
      7.92644278e-004 4.75586567e-004 8.24350049e-004 6.97526964e-004
      1.50602413e-002 1.10970193e-003 6.02409651e-004 3.17057711e-005
      2.21940398e-004 0. 0. 1.58528856e-004 3.17057711e-004
      6.02409651e-004 6.34115422e-004 3.17057711e-005 6.65821193e-004
      7.29232735e-004 3.80469253e-004 1.14140776e-003 4.34369035e-003
      3.80469253e-004 8.24350049e-004 0. 7.92644278e-004 0.
      3.17057711e-005 3.17057711e-005 1.14140776e-003 1.26823084e-004
      6.34115422e-005 0. 1.26823084e-004 0. 0. 3.17057711e-005
      6.34115422e-004 7.29232735e-004 7.29232735e-004 3.17057711e-005
      6.97526964e-004 6.34115422e-005 0. 9.51173133e-005 4.12175024e-004
      1.26823084e-003 7.60938507e-004 3.17057711e-005 8.56055820e-004
      1.26823084e-003 2.85351940e-004 7.92644278e-004 4.02663276e-003
      1.17311347e-002 2.18769815e-002 8.87761591e-004 3.63982245e-002
      4.75586567e-004 5.07292338e-004 6.34115422e-004 1.08116679e-002
      6.02409651e-004 1.14140776e-003 3.17057711e-005 9.19467362e-004
      8.56055820e-004 3.80469253e-004 5.07292338e-004 5.67533309e-003
      1.14140776e-003 4.12175024e-004 0. 2.85351940e-004 0.
      3.17057711e-005 0. 1.90234627e-004 6.34115422e-004 5.07292338e-004
      0. 2.21940398e-004 4.43880796e-004 9.51173133e-005 4.75586567e-004
      1.39505393e-003 2.22574510e-002 3.06911860e-002 8.87761591e-004
      1.54724158e-002 4.12175024e-004 4.75586567e-004 5.38998109e-004
      6.15091948e-003 9.19467362e-004 1.42675964e-003 6.34115422e-005
      7.92644278e-004 6.02409651e-004 4.43880796e-004 7.92644278e-004
      5.77044999e-003 4.25174385e-002 9.28979088e-003 1.42675964e-003
      5.04121743e-003 2.85351940e-004 6.34115422e-005 4.75586567e-004
      1.90234627e-003 2.26062145e-002 6.08750805e-003 8.56055820e-004
      4.91439458e-003 6.68991776e-003 1.33164239e-003 5.42168692e-003
      1.03043756e-002</_>
    <_>
      4.70830686e-002 9.89220012e-003 6.88015204e-003 1.09384907e-002
      5.64362714e-003 1.04629039e-003 9.41661373e-003 2.10526325e-002
      5.58021571e-003 1.07799622e-003 4.75586567e-004 6.65821193e-004
      1.08433738e-002 8.87761591e-004 2.98668351e-002 4.28662002e-002
      1.06531391e-002 5.07292338e-004 9.51173133e-004 4.75586567e-004
      1.07799622e-003 3.17057711e-005 1.01458468e-003 4.75586567e-004
      1.27457194e-002 7.29232735e-004 4.43880796e-004 5.07292338e-004
      2.21940391e-002 5.70703880e-004 4.37539630e-002 1.26823084e-002
      6.72162324e-003 7.60938507e-004 4.43880796e-004 7.29232735e-004
      8.24350049e-004 9.51173133e-005 7.60938507e-004 1.01458468e-003
      8.24350049e-004 6.34115422e-005 3.17057711e-005 6.34115422e-005
      9.51173133e-004 1.26823084e-004 1.33164239e-003 9.19467362e-004
      1.29676601e-002 6.02409651e-004 5.38998109e-004 4.12175024e-004
      8.24350049e-004 3.17057711e-005 9.19467362e-004 4.75586567e-004
      2.63157897e-002 5.07292338e-004 8.87761591e-004 4.43880796e-004
      3.23081799e-002 4.43880796e-004 1.67723522e-002 5.77044999e-003
      6.30944828e-003 8.24350049e-004 5.70703880e-004 7.92644278e-004
      4.12175024e-004 0. 6.65821193e-004 6.02409651e-004 6.65821193e-004
      6.34115422e-005 0. 3.17057711e-005 3.80469253e-004 6.34115422e-005
      1.90234627e-004 5.70703880e-004 7.60938507e-004 6.34115422e-005 0.
      0. 0. 0. 0. 3.17057711e-005 6.97526964e-004 0. 3.17057711e-005
      3.17057711e-005 3.48763482e-004 3.17057711e-005 3.17057711e-004
      2.21940398e-004 1.15091950e-002 1.01458468e-003 6.65821193e-004
      6.34115422e-004 3.80469253e-004 0. 6.97526964e-004 6.34115422e-004
      1.33164239e-003 1.58528856e-004 3.17057711e-005 0. 7.29232735e-004
      6.34115422e-005 9.19467362e-004 4.75586567e-004 2.38744449e-002
      6.02409651e-004 5.70703880e-004 3.17057711e-004 4.12175024e-004 0.
      6.65821193e-004 1.26823084e-004 3.91566269e-002 2.85351940e-004
      1.04629039e-003 5.07292338e-004 1.27774253e-002 1.26823084e-004
      7.03868084e-003 1.52187701e-003 5.77044999e-003 1.27140144e-002
      7.60938507e-004 2.25110967e-002 5.07292338e-004 6.65821193e-004
      6.97526964e-004 2.72035506e-002 8.87761591e-004 7.60938507e-004
      9.51173133e-005 9.51173133e-004 9.19467362e-004 6.34115422e-004
      1.20481930e-003 1.59162972e-002 8.87761591e-004 4.75586567e-004
      1.90234627e-004 4.43880796e-004 1.26823084e-004 6.34115422e-005
      1.26823084e-004 2.53646169e-004 6.65821193e-004 3.80469253e-004
      1.26823084e-004 4.75586567e-004 9.51173133e-004 3.48763482e-004
      1.17311347e-003 4.47051367e-003 8.24350049e-004 6.34115422e-004
      9.51173133e-005 1.10970193e-003 6.34115422e-005 3.17057711e-005
      9.51173133e-005 1.01458468e-003 3.17057711e-005 3.17057711e-005 0.
      3.17057711e-005 3.17057711e-005 3.17057711e-005 3.17057711e-005
      9.51173133e-004 6.34115422e-004 5.07292338e-004 1.26823084e-004
      5.38998109e-004 6.34115422e-005 0. 1.26823084e-004 3.17057711e-004
      9.51173133e-004 5.38998109e-004 3.17057711e-005 5.07292338e-004
      8.56055820e-004 4.75586567e-004 1.04629039e-003 3.86810396e-003
      1.13189602e-002 2.23525688e-002 7.60938507e-004 4.32149656e-002
      7.29232735e-004 4.43880796e-004 8.24350049e-004 1.14457831e-002
      5.70703880e-004 6.65821193e-004 9.51173133e-005 1.01458468e-003
      5.07292338e-004 5.70703880e-004 1.17311347e-003 6.18262542e-003
      1.52187701e-003 5.70703880e-004 6.34115422e-005 3.80469253e-004
      9.51173133e-005 3.17057711e-005 1.58528856e-004 1.26823084e-004
      4.43880796e-004 6.02409651e-004 9.51173133e-005 2.85351940e-004
      5.07292338e-004 2.85351940e-004 6.02409651e-004 2.02916935e-003
      2.63792016e-002 3.29740010e-002 1.14140776e-003 1.71211157e-002
      6.97526964e-004 1.58528856e-004 6.34115422e-004 6.21433090e-003
      1.39505393e-003 1.26823084e-003 6.34115422e-005 8.56055820e-004
      7.29232735e-004 6.65821193e-004 1.68040581e-003 7.10209273e-003
      4.30247299e-002 1.12555483e-002 1.49017118e-003 4.88268863e-003
      3.80469253e-004 3.17057711e-004 8.24350049e-004 1.83893472e-003
      1.79771725e-002 4.94610006e-003 9.51173133e-004 4.50221961e-003
      6.78503467e-003 1.68040581e-003 6.59480039e-003 1.29676601e-002</_>
    <_>
      4.70830686e-002 9.89220012e-003 6.88015204e-003 1.09384907e-002
      5.64362714e-003 1.04629039e-003 9.41661373e-003 2.10526325e-002
      5.58021571e-003 1.07799622e-003 4.75586567e-004 6.65821193e-004
      1.08433738e-002 8.87761591e-004 2.98668351e-002 4.28662002e-002
      1.06531391e-002 5.07292338e-004 9.51173133e-004 4.75586567e-004
      1.07799622e-003 3.17057711e-005 1.01458468e-003 4.75586567e-004
      1.27457194e-002 7.29232735e-004 4.43880796e-004 5.07292338e-004
      2.21940391e-002 5.70703880e-004 4.37539630e-002 1.26823084e-002
      6.72162324e-003 7.60938507e-004 4.43880796e-004 7.29232735e-004
      8.24350049e-004 9.51173133e-005 7.60938507e-004 1.01458468e-003
      8.24350049e-004 6.34115422e-005 3.17057711e-005 6.34115422e-005
      9.51173133e-004 1.26823084e-004 1.33164239e-003 9.19467362e-004
      1.29676601e-002 6.02409651e-004 5.38998109e-004 4.12175024e-004
      8.24350049e-004 3.17057711e-005 9.19467362e-004 4.75586567e-004
      2.63157897e-002 5.07292338e-004 8.87761591e-004 4.43880796e-004
      3.23081799e-002 4.43880796e-004 1.67723522e-002 5.77044999e-003
      6.30944828e-003 8.24350049e-004 5.70703880e-004 7.92644278e-004
      4.12175024e-004 0. 6.65821193e-004 6.02409651e-004 6.65821193e-004
      6.34115422e-005 0. 3.17057711e-005 3.80469253e-004 6.34115422e-005
      1.90234627e-004 5.70703880e-004 7.60938507e-004 6.34115422e-005 0.
      0. 0. 0. 0. 3.17057711e-005 6.97526964e-004 0. 3.17057711e-005
      3.17057711e-005 3.48763482e-004 3.17057711e-005 3.17057711e-004
      2.21940398e-004 1.15091950e-002 1.01458468e-003 6.65821193e-004
      6.34115422e-004 3.80469253e-004 0. 6.97526964e-004 6.34115422e-004
      1.33164239e-003 1.58528856e-004 3.17057711e-005 0. 7.29232735e-004
      6.34115422e-005 9.19467362e-004 4.75586567e-004 2.38744449e-002
      6.02409651e-004 5.70703880e-004 3.17057711e-004 4.12175024e-004 0.
      6.65821193e-004 1.26823084e-004 3.91566269e-002 2.85351940e-004
      1.04629039e-003 5.07292338e-004 1.27774253e-002 1.26823084e-004
      7.03868084e-003 1.52187701e-003 5.77044999e-003 1.27140144e-002
      7.60938507e-004 2.25110967e-002 5.07292338e-004 6.65821193e-004
      6.97526964e-004 2.72035506e-002 8.87761591e-004 7.60938507e-004
      9.51173133e-005 9.51173133e-004 9.19467362e-004 6.34115422e-004
      1.20481930e-003 1.59162972e-002 8.87761591e-004 4.75586567e-004
      1.90234627e-004 4.43880796e-004 1.26823084e-004 6.34115422e-005
      1.26823084e-004 2.53646169e-004 6.65821193e-004 3.80469253e-004
      1.26823084e-004 4.75586567e-004 9.51173133e-004 3.48763482e-004
      1.17311347e-003 4.47051367e-003 8.24350049e-004 6.34115422e-004
      9.51173133e-005 1.10970193e-003 6.34115422e-005 3.17057711e-005
      9.51173133e-005 1.01458468e-003 3.17057711e-005 3.17057711e-005 0.
      3.17057711e-005 3.17057711e-005 3.17057711e-005 3.17057711e-005
      9.51173133e-004 6.34115422e-004 5.07292338e-004 1.26823084e-004
      5.38998109e-004 6.34115422e-005 0. 1.26823084e-004 3.17057711e-004
      9.51173133e-004 5.38998109e-004 3.17057711e-005 5.07292338e-004
      8.56055820e-004 4.75586567e-004 1.04629039e-003 3.86810396e-003
      1.13189602e-002 2.23525688e-002 7.60938507e-004 4.32149656e-002
      7.29232735e-004 4.43880796e-004 8.24350049e-004 1.14457831e-002
      5.70703880e-004 6.65821193e-004 9.51173133e-005 1.01458468e-003
      5.07292338e-004 5.70703880e-004 1.17311347e-003 6.18262542e-003
      1.52187701e-003 5.70703880e-004 6.34115422e-005 3.80469253e-004
      9.51173133e-005 3.17057711e-005 1.58528856e-004 1.26823084e-004
      4.43880796e-004 6.02409651e-004 9.51173133e-005 2.85351940e-004
      5.07292338e-004 2.85351940e-004 6.02409651e-004 2.02916935e-003
      2.63792016e-002 3.29740010e-002 1.14140776e-003 1.71211157e-002
      6.97526964e-004 1.58528856e-004 6.34115422e-004 6.21433090e-003
      1.39505393e-003 1.26823084e-003 6.34115422e-005 8.56055820e-004
      7.29232735e-004 6.65821193e-004 1.68040581e-003 7.10209273e-003
      4.30247299e-002 1.12555483e-002 1.49017118e-003 4.88268863e-003
      3.80469253e-004 3.17057711e-004 8.24350049e-004 1.83893472e-003
      1.79771725e-002 4.94610006e-003 9.51173133e-004 4.50221961e-003
      6.78503467e-003 1.68040581e-003 6.59480039e-003 1.29676601e-002</_>
    <_>
      4.19467352e-002 9.03614424e-003 5.54850977e-003 1.19213695e-002
      5.35827503e-003 8.56055820e-004 1.09701967e-002 2.16550417e-002
      4.50221961e-003 9.19467362e-004 5.38998109e-004 6.34115422e-004
      8.81420448e-003 1.07799622e-003 2.49841474e-002 4.02029157e-002
      1.04629043e-002 6.02409651e-004 5.70703880e-004 3.80469253e-004
      6.34115422e-004 0. 9.51173133e-004 1.90234627e-004 1.03360815e-002
      3.48763482e-004 3.48763482e-004 3.17057711e-004 2.13696901e-002
      4.43880796e-004 3.96956243e-002 1.12872543e-002 7.07038678e-003
      6.02409651e-004 5.07292338e-004 8.24350049e-004 4.12175024e-004 0.
      9.51173133e-004 1.20481930e-003 6.34115422e-004 2.21940398e-004
      1.58528856e-004 3.17057711e-005 9.19467362e-004 3.17057711e-005
      9.51173133e-004 1.26823084e-003 1.35700693e-002 5.07292338e-004
      6.02409651e-004 4.75586567e-004 8.24350049e-004 3.17057711e-005
      5.07292338e-004 1.90234627e-004 2.44768541e-002 3.17057711e-004
      6.65821193e-004 3.17057711e-004 3.24350037e-002 4.12175024e-004
      1.49017125e-002 3.04375403e-003 6.08750805e-003 1.10970193e-003
      6.34115422e-004 5.07292338e-004 2.53646169e-004 3.17057711e-005
      4.75586567e-004 3.17057711e-004 4.75586567e-004 9.51173133e-005
      3.17057711e-005 3.17057711e-005 4.12175024e-004 3.17057711e-005
      3.80469253e-004 3.17057711e-004 6.34115422e-004 0. 6.34115422e-005
      0. 6.34115422e-005 0. 6.34115422e-005 0. 6.02409651e-004 0. 0. 0.
      4.75586567e-004 0. 4.43880796e-004 1.90234627e-004 1.15409000e-002
      1.45846547e-003 9.51173133e-004 6.97526964e-004 3.48763482e-004 0.
      5.07292338e-004 5.38998109e-004 8.24350049e-004 6.34115422e-005
      3.17057711e-005 3.17057711e-005 5.07292338e-004 9.51173133e-005
      9.82878846e-004 7.29232735e-004 2.60938499e-002 4.43880796e-004
      7.60938507e-004 2.85351940e-004 4.75586567e-004 0. 4.12175024e-004
      4.12175024e-004 3.74128073e-002 3.48763482e-004 7.92644278e-004
      1.90234627e-004 1.18896635e-002 1.26823084e-004 4.91439458e-003
      1.20481930e-003 5.77044999e-003 1.29359541e-002 5.70703880e-004
      2.78059598e-002 4.12175024e-004 6.34115422e-004 8.87761591e-004
      3.17374766e-002 5.07292338e-004 6.97526964e-004 0. 7.60938507e-004
      7.29232735e-004 5.70703880e-004 8.56055820e-004 1.48700066e-002
      1.01458468e-003 6.02409651e-004 6.34115422e-005 5.07292338e-004
      3.17057711e-005 0. 9.51173133e-005 2.53646169e-004 8.24350049e-004
      4.43880796e-004 3.17057711e-005 4.12175024e-004 1.29993656e-003
      3.48763482e-004 1.26823084e-003 5.29486360e-003 6.02409651e-004
      9.51173133e-004 3.17057711e-005 6.34115422e-004 0. 3.17057711e-005
      1.90234627e-004 8.56055820e-004 3.17057711e-005 3.17057711e-005 0.
      3.17057711e-005 9.51173133e-005 6.34115422e-005 9.51173133e-005
      6.02409651e-004 8.24350049e-004 1.90234627e-004 0. 3.48763482e-004
      6.34115422e-005 6.34115422e-005 9.51173133e-005 5.07292338e-004
      7.29232735e-004 5.70703880e-004 6.34115422e-005 7.92644278e-004
      1.17311347e-003 3.17057711e-004 6.34115422e-004 3.42422328e-003
      1.13823712e-002 2.86620166e-002 1.01458468e-003 4.80976552e-002
      5.70703880e-004 4.43880796e-004 3.80469253e-004 1.28091313e-002
      7.60938507e-004 8.87761591e-004 6.34115422e-005 1.36334810e-003
      4.43880796e-004 6.65821193e-004 9.82878846e-004 5.73874451e-003
      1.07799622e-003 3.17057711e-004 9.51173133e-005 4.75586567e-004
      3.17057711e-005 0. 9.51173133e-005 9.51173133e-005 6.65821193e-004
